~h "h"
<BEGINHMM>
<NUMSTATES> 5
<STATE> 2
<MEAN> 52
 -3.729040e-03 -1.718965e-03 2.374972e-04 -1.147292e-03 1.009115e-03 1.175998e-03 8.588549e-04 5.166401e-04 -3.641660e-04 6.602512e-05 -4.473297e-04 2.151181e-04 -4.907421e-04 6.679568e-06 -1.291769e-05 -2.325415e-05 -2.236936e-05 -2.424047e-06 -2.829819e-05 2.237298e-05 1.049639e-05 2.212038e-05 5.871479e-06 1.907673e-06 1.127699e-05 1.015769e-05 7.303254e-06 1.279666e-05 -4.595048e-06 -3.346567e-06 6.566364e-06 4.666854e-06 -1.227315e-06 -1.228079e-05 -9.468979e-06 -4.573979e-06 -7.362554e-06 -1.728622e-05 -9.890653e-06 -6.213594e-06 2.042331e-06 7.292439e-06 5.534826e-06 7.465372e-06 6.674824e-06 -1.077696e-05 -1.209134e-05 -1.318496e-05 6.708799e-06 -1.116164e-07 1.932981e-06 -9.400179e-06
<VARIANCE> 52
 9.613734e-01 9.314067e-01 9.349908e-01 9.324042e-01 9.325303e-01 9.347320e-01 9.346745e-01 9.342343e-01 9.352114e-01 9.349105e-01 9.354652e-01 9.352876e-01 9.350353e-01 9.436834e-01 9.368995e-01 9.334359e-01 9.313149e-01 9.313983e-01 9.317325e-01 9.324038e-01 9.321494e-01 9.326612e-01 9.334978e-01 9.336509e-01 9.338971e-01 9.340385e-01 9.427497e-01 9.360191e-01 9.329336e-01 9.318833e-01 9.324108e-01 9.328462e-01 9.331754e-01 9.333328e-01 9.337040e-01 9.343483e-01 9.344560e-01 9.347429e-01 9.347374e-01 9.422944e-01 9.346341e-01 9.323958e-01 9.316312e-01 9.321941e-01 9.328819e-01 9.334224e-01 9.334534e-01 9.338822e-01 9.345195e-01 9.345480e-01 9.349996e-01 9.349947e-01
<GCONST> 9.205941e+01
<STATE> 3
<MEAN> 52
 -3.729040e-03 -1.718965e-03 2.374972e-04 -1.147292e-03 1.009115e-03 1.175998e-03 8.588549e-04 5.166401e-04 -3.641660e-04 6.602512e-05 -4.473297e-04 2.151181e-04 -4.907421e-04 6.679568e-06 -1.291769e-05 -2.325415e-05 -2.236936e-05 -2.424047e-06 -2.829819e-05 2.237298e-05 1.049639e-05 2.212038e-05 5.871479e-06 1.907673e-06 1.127699e-05 1.015769e-05 7.303254e-06 1.279666e-05 -4.595048e-06 -3.346567e-06 6.566364e-06 4.666854e-06 -1.227315e-06 -1.228079e-05 -9.468979e-06 -4.573979e-06 -7.362554e-06 -1.728622e-05 -9.890653e-06 -6.213594e-06 2.042331e-06 7.292439e-06 5.534826e-06 7.465372e-06 6.674824e-06 -1.077696e-05 -1.209134e-05 -1.318496e-05 6.708799e-06 -1.116164e-07 1.932981e-06 -9.400179e-06
<VARIANCE> 52
 9.613734e-01 9.314067e-01 9.349908e-01 9.324042e-01 9.325303e-01 9.347320e-01 9.346745e-01 9.342343e-01 9.352114e-01 9.349105e-01 9.354652e-01 9.352876e-01 9.350353e-01 9.436834e-01 9.368995e-01 9.334359e-01 9.313149e-01 9.313983e-01 9.317325e-01 9.324038e-01 9.321494e-01 9.326612e-01 9.334978e-01 9.336509e-01 9.338971e-01 9.340385e-01 9.427497e-01 9.360191e-01 9.329336e-01 9.318833e-01 9.324108e-01 9.328462e-01 9.331754e-01 9.333328e-01 9.337040e-01 9.343483e-01 9.344560e-01 9.347429e-01 9.347374e-01 9.422944e-01 9.346341e-01 9.323958e-01 9.316312e-01 9.321941e-01 9.328819e-01 9.334224e-01 9.334534e-01 9.338822e-01 9.345195e-01 9.345480e-01 9.349996e-01 9.349947e-01
<GCONST> 9.205941e+01
<STATE> 4
<MEAN> 52
 -3.729040e-03 -1.718965e-03 2.374972e-04 -1.147292e-03 1.009115e-03 1.175998e-03 8.588549e-04 5.166401e-04 -3.641660e-04 6.602512e-05 -4.473297e-04 2.151181e-04 -4.907421e-04 6.679568e-06 -1.291769e-05 -2.325415e-05 -2.236936e-05 -2.424047e-06 -2.829819e-05 2.237298e-05 1.049639e-05 2.212038e-05 5.871479e-06 1.907673e-06 1.127699e-05 1.015769e-05 7.303254e-06 1.279666e-05 -4.595048e-06 -3.346567e-06 6.566364e-06 4.666854e-06 -1.227315e-06 -1.228079e-05 -9.468979e-06 -4.573979e-06 -7.362554e-06 -1.728622e-05 -9.890653e-06 -6.213594e-06 2.042331e-06 7.292439e-06 5.534826e-06 7.465372e-06 6.674824e-06 -1.077696e-05 -1.209134e-05 -1.318496e-05 6.708799e-06 -1.116164e-07 1.932981e-06 -9.400179e-06
<VARIANCE> 52
 9.613734e-01 9.314067e-01 9.349908e-01 9.324042e-01 9.325303e-01 9.347320e-01 9.346745e-01 9.342343e-01 9.352114e-01 9.349105e-01 9.354652e-01 9.352876e-01 9.350353e-01 9.436834e-01 9.368995e-01 9.334359e-01 9.313149e-01 9.313983e-01 9.317325e-01 9.324038e-01 9.321494e-01 9.326612e-01 9.334978e-01 9.336509e-01 9.338971e-01 9.340385e-01 9.427497e-01 9.360191e-01 9.329336e-01 9.318833e-01 9.324108e-01 9.328462e-01 9.331754e-01 9.333328e-01 9.337040e-01 9.343483e-01 9.344560e-01 9.347429e-01 9.347374e-01 9.422944e-01 9.346341e-01 9.323958e-01 9.316312e-01 9.321941e-01 9.328819e-01 9.334224e-01 9.334534e-01 9.338822e-01 9.345195e-01 9.345480e-01 9.349996e-01 9.349947e-01
<GCONST> 9.205941e+01
<TRANSP> 5
 0.000000e+00 1.000000e+00 0.000000e+00 0.000000e+00 0.000000e+00
 0.000000e+00 6.000000e-01 4.000000e-01 0.000000e+00 0.000000e+00
 0.000000e+00 0.000000e+00 6.000000e-01 4.000000e-01 0.000000e+00
 0.000000e+00 0.000000e+00 0.000000e+00 6.000000e-01 4.000000e-01
 0.000000e+00 0.000000e+00 0.000000e+00 0.000000e+00 0.000000e+00
<ENDHMM>
~h "a"
<BEGINHMM>
<NUMSTATES> 5
<STATE> 2
<MEAN> 52
 -3.729040e-03 -1.718965e-03 2.374972e-04 -1.147292e-03 1.009115e-03 1.175998e-03 8.588549e-04 5.166401e-04 -3.641660e-04 6.602512e-05 -4.473297e-04 2.151181e-04 -4.907421e-04 6.679568e-06 -1.291769e-05 -2.325415e-05 -2.236936e-05 -2.424047e-06 -2.829819e-05 2.237298e-05 1.049639e-05 2.212038e-05 5.871479e-06 1.907673e-06 1.127699e-05 1.015769e-05 7.303254e-06 1.279666e-05 -4.595048e-06 -3.346567e-06 6.566364e-06 4.666854e-06 -1.227315e-06 -1.228079e-05 -9.468979e-06 -4.573979e-06 -7.362554e-06 -1.728622e-05 -9.890653e-06 -6.213594e-06 2.042331e-06 7.292439e-06 5.534826e-06 7.465372e-06 6.674824e-06 -1.077696e-05 -1.209134e-05 -1.318496e-05 6.708799e-06 -1.116164e-07 1.932981e-06 -9.400179e-06
<VARIANCE> 52
 9.613734e-01 9.314067e-01 9.349908e-01 9.324042e-01 9.325303e-01 9.347320e-01 9.346745e-01 9.342343e-01 9.352114e-01 9.349105e-01 9.354652e-01 9.352876e-01 9.350353e-01 9.436834e-01 9.368995e-01 9.334359e-01 9.313149e-01 9.313983e-01 9.317325e-01 9.324038e-01 9.321494e-01 9.326612e-01 9.334978e-01 9.336509e-01 9.338971e-01 9.340385e-01 9.427497e-01 9.360191e-01 9.329336e-01 9.318833e-01 9.324108e-01 9.328462e-01 9.331754e-01 9.333328e-01 9.337040e-01 9.343483e-01 9.344560e-01 9.347429e-01 9.347374e-01 9.422944e-01 9.346341e-01 9.323958e-01 9.316312e-01 9.321941e-01 9.328819e-01 9.334224e-01 9.334534e-01 9.338822e-01 9.345195e-01 9.345480e-01 9.349996e-01 9.349947e-01
<GCONST> 9.205941e+01
<STATE> 3
<MEAN> 52
 -3.729040e-03 -1.718965e-03 2.374972e-04 -1.147292e-03 1.009115e-03 1.175998e-03 8.588549e-04 5.166401e-04 -3.641660e-04 6.602512e-05 -4.473297e-04 2.151181e-04 -4.907421e-04 6.679568e-06 -1.291769e-05 -2.325415e-05 -2.236936e-05 -2.424047e-06 -2.829819e-05 2.237298e-05 1.049639e-05 2.212038e-05 5.871479e-06 1.907673e-06 1.127699e-05 1.015769e-05 7.303254e-06 1.279666e-05 -4.595048e-06 -3.346567e-06 6.566364e-06 4.666854e-06 -1.227315e-06 -1.228079e-05 -9.468979e-06 -4.573979e-06 -7.362554e-06 -1.728622e-05 -9.890653e-06 -6.213594e-06 2.042331e-06 7.292439e-06 5.534826e-06 7.465372e-06 6.674824e-06 -1.077696e-05 -1.209134e-05 -1.318496e-05 6.708799e-06 -1.116164e-07 1.932981e-06 -9.400179e-06
<VARIANCE> 52
 9.613734e-01 9.314067e-01 9.349908e-01 9.324042e-01 9.325303e-01 9.347320e-01 9.346745e-01 9.342343e-01 9.352114e-01 9.349105e-01 9.354652e-01 9.352876e-01 9.350353e-01 9.436834e-01 9.368995e-01 9.334359e-01 9.313149e-01 9.313983e-01 9.317325e-01 9.324038e-01 9.321494e-01 9.326612e-01 9.334978e-01 9.336509e-01 9.338971e-01 9.340385e-01 9.427497e-01 9.360191e-01 9.329336e-01 9.318833e-01 9.324108e-01 9.328462e-01 9.331754e-01 9.333328e-01 9.337040e-01 9.343483e-01 9.344560e-01 9.347429e-01 9.347374e-01 9.422944e-01 9.346341e-01 9.323958e-01 9.316312e-01 9.321941e-01 9.328819e-01 9.334224e-01 9.334534e-01 9.338822e-01 9.345195e-01 9.345480e-01 9.349996e-01 9.349947e-01
<GCONST> 9.205941e+01
<STATE> 4
<MEAN> 52
 -3.729040e-03 -1.718965e-03 2.374972e-04 -1.147292e-03 1.009115e-03 1.175998e-03 8.588549e-04 5.166401e-04 -3.641660e-04 6.602512e-05 -4.473297e-04 2.151181e-04 -4.907421e-04 6.679568e-06 -1.291769e-05 -2.325415e-05 -2.236936e-05 -2.424047e-06 -2.829819e-05 2.237298e-05 1.049639e-05 2.212038e-05 5.871479e-06 1.907673e-06 1.127699e-05 1.015769e-05 7.303254e-06 1.279666e-05 -4.595048e-06 -3.346567e-06 6.566364e-06 4.666854e-06 -1.227315e-06 -1.228079e-05 -9.468979e-06 -4.573979e-06 -7.362554e-06 -1.728622e-05 -9.890653e-06 -6.213594e-06 2.042331e-06 7.292439e-06 5.534826e-06 7.465372e-06 6.674824e-06 -1.077696e-05 -1.209134e-05 -1.318496e-05 6.708799e-06 -1.116164e-07 1.932981e-06 -9.400179e-06
<VARIANCE> 52
 9.613734e-01 9.314067e-01 9.349908e-01 9.324042e-01 9.325303e-01 9.347320e-01 9.346745e-01 9.342343e-01 9.352114e-01 9.349105e-01 9.354652e-01 9.352876e-01 9.350353e-01 9.436834e-01 9.368995e-01 9.334359e-01 9.313149e-01 9.313983e-01 9.317325e-01 9.324038e-01 9.321494e-01 9.326612e-01 9.334978e-01 9.336509e-01 9.338971e-01 9.340385e-01 9.427497e-01 9.360191e-01 9.329336e-01 9.318833e-01 9.324108e-01 9.328462e-01 9.331754e-01 9.333328e-01 9.337040e-01 9.343483e-01 9.344560e-01 9.347429e-01 9.347374e-01 9.422944e-01 9.346341e-01 9.323958e-01 9.316312e-01 9.321941e-01 9.328819e-01 9.334224e-01 9.334534e-01 9.338822e-01 9.345195e-01 9.345480e-01 9.349996e-01 9.349947e-01
<GCONST> 9.205941e+01
<TRANSP> 5
 0.000000e+00 1.000000e+00 0.000000e+00 0.000000e+00 0.000000e+00
 0.000000e+00 6.000000e-01 4.000000e-01 0.000000e+00 0.000000e+00
 0.000000e+00 0.000000e+00 6.000000e-01 4.000000e-01 0.000000e+00
 0.000000e+00 0.000000e+00 0.000000e+00 6.000000e-01 4.000000e-01
 0.000000e+00 0.000000e+00 0.000000e+00 0.000000e+00 0.000000e+00
<ENDHMM>
~h "e"
<BEGINHMM>
<NUMSTATES> 5
<STATE> 2
<MEAN> 52
 -3.729040e-03 -1.718965e-03 2.374972e-04 -1.147292e-03 1.009115e-03 1.175998e-03 8.588549e-04 5.166401e-04 -3.641660e-04 6.602512e-05 -4.473297e-04 2.151181e-04 -4.907421e-04 6.679568e-06 -1.291769e-05 -2.325415e-05 -2.236936e-05 -2.424047e-06 -2.829819e-05 2.237298e-05 1.049639e-05 2.212038e-05 5.871479e-06 1.907673e-06 1.127699e-05 1.015769e-05 7.303254e-06 1.279666e-05 -4.595048e-06 -3.346567e-06 6.566364e-06 4.666854e-06 -1.227315e-06 -1.228079e-05 -9.468979e-06 -4.573979e-06 -7.362554e-06 -1.728622e-05 -9.890653e-06 -6.213594e-06 2.042331e-06 7.292439e-06 5.534826e-06 7.465372e-06 6.674824e-06 -1.077696e-05 -1.209134e-05 -1.318496e-05 6.708799e-06 -1.116164e-07 1.932981e-06 -9.400179e-06
<VARIANCE> 52
 9.613734e-01 9.314067e-01 9.349908e-01 9.324042e-01 9.325303e-01 9.347320e-01 9.346745e-01 9.342343e-01 9.352114e-01 9.349105e-01 9.354652e-01 9.352876e-01 9.350353e-01 9.436834e-01 9.368995e-01 9.334359e-01 9.313149e-01 9.313983e-01 9.317325e-01 9.324038e-01 9.321494e-01 9.326612e-01 9.334978e-01 9.336509e-01 9.338971e-01 9.340385e-01 9.427497e-01 9.360191e-01 9.329336e-01 9.318833e-01 9.324108e-01 9.328462e-01 9.331754e-01 9.333328e-01 9.337040e-01 9.343483e-01 9.344560e-01 9.347429e-01 9.347374e-01 9.422944e-01 9.346341e-01 9.323958e-01 9.316312e-01 9.321941e-01 9.328819e-01 9.334224e-01 9.334534e-01 9.338822e-01 9.345195e-01 9.345480e-01 9.349996e-01 9.349947e-01
<GCONST> 9.205941e+01
<STATE> 3
<MEAN> 52
 -3.729040e-03 -1.718965e-03 2.374972e-04 -1.147292e-03 1.009115e-03 1.175998e-03 8.588549e-04 5.166401e-04 -3.641660e-04 6.602512e-05 -4.473297e-04 2.151181e-04 -4.907421e-04 6.679568e-06 -1.291769e-05 -2.325415e-05 -2.236936e-05 -2.424047e-06 -2.829819e-05 2.237298e-05 1.049639e-05 2.212038e-05 5.871479e-06 1.907673e-06 1.127699e-05 1.015769e-05 7.303254e-06 1.279666e-05 -4.595048e-06 -3.346567e-06 6.566364e-06 4.666854e-06 -1.227315e-06 -1.228079e-05 -9.468979e-06 -4.573979e-06 -7.362554e-06 -1.728622e-05 -9.890653e-06 -6.213594e-06 2.042331e-06 7.292439e-06 5.534826e-06 7.465372e-06 6.674824e-06 -1.077696e-05 -1.209134e-05 -1.318496e-05 6.708799e-06 -1.116164e-07 1.932981e-06 -9.400179e-06
<VARIANCE> 52
 9.613734e-01 9.314067e-01 9.349908e-01 9.324042e-01 9.325303e-01 9.347320e-01 9.346745e-01 9.342343e-01 9.352114e-01 9.349105e-01 9.354652e-01 9.352876e-01 9.350353e-01 9.436834e-01 9.368995e-01 9.334359e-01 9.313149e-01 9.313983e-01 9.317325e-01 9.324038e-01 9.321494e-01 9.326612e-01 9.334978e-01 9.336509e-01 9.338971e-01 9.340385e-01 9.427497e-01 9.360191e-01 9.329336e-01 9.318833e-01 9.324108e-01 9.328462e-01 9.331754e-01 9.333328e-01 9.337040e-01 9.343483e-01 9.344560e-01 9.347429e-01 9.347374e-01 9.422944e-01 9.346341e-01 9.323958e-01 9.316312e-01 9.321941e-01 9.328819e-01 9.334224e-01 9.334534e-01 9.338822e-01 9.345195e-01 9.345480e-01 9.349996e-01 9.349947e-01
<GCONST> 9.205941e+01
<STATE> 4
<MEAN> 52
 -3.729040e-03 -1.718965e-03 2.374972e-04 -1.147292e-03 1.009115e-03 1.175998e-03 8.588549e-04 5.166401e-04 -3.641660e-04 6.602512e-05 -4.473297e-04 2.151181e-04 -4.907421e-04 6.679568e-06 -1.291769e-05 -2.325415e-05 -2.236936e-05 -2.424047e-06 -2.829819e-05 2.237298e-05 1.049639e-05 2.212038e-05 5.871479e-06 1.907673e-06 1.127699e-05 1.015769e-05 7.303254e-06 1.279666e-05 -4.595048e-06 -3.346567e-06 6.566364e-06 4.666854e-06 -1.227315e-06 -1.228079e-05 -9.468979e-06 -4.573979e-06 -7.362554e-06 -1.728622e-05 -9.890653e-06 -6.213594e-06 2.042331e-06 7.292439e-06 5.534826e-06 7.465372e-06 6.674824e-06 -1.077696e-05 -1.209134e-05 -1.318496e-05 6.708799e-06 -1.116164e-07 1.932981e-06 -9.400179e-06
<VARIANCE> 52
 9.613734e-01 9.314067e-01 9.349908e-01 9.324042e-01 9.325303e-01 9.347320e-01 9.346745e-01 9.342343e-01 9.352114e-01 9.349105e-01 9.354652e-01 9.352876e-01 9.350353e-01 9.436834e-01 9.368995e-01 9.334359e-01 9.313149e-01 9.313983e-01 9.317325e-01 9.324038e-01 9.321494e-01 9.326612e-01 9.334978e-01 9.336509e-01 9.338971e-01 9.340385e-01 9.427497e-01 9.360191e-01 9.329336e-01 9.318833e-01 9.324108e-01 9.328462e-01 9.331754e-01 9.333328e-01 9.337040e-01 9.343483e-01 9.344560e-01 9.347429e-01 9.347374e-01 9.422944e-01 9.346341e-01 9.323958e-01 9.316312e-01 9.321941e-01 9.328819e-01 9.334224e-01 9.334534e-01 9.338822e-01 9.345195e-01 9.345480e-01 9.349996e-01 9.349947e-01
<GCONST> 9.205941e+01
<TRANSP> 5
 0.000000e+00 1.000000e+00 0.000000e+00 0.000000e+00 0.000000e+00
 0.000000e+00 6.000000e-01 4.000000e-01 0.000000e+00 0.000000e+00
 0.000000e+00 0.000000e+00 6.000000e-01 4.000000e-01 0.000000e+00
 0.000000e+00 0.000000e+00 0.000000e+00 6.000000e-01 4.000000e-01
 0.000000e+00 0.000000e+00 0.000000e+00 0.000000e+00 0.000000e+00
<ENDHMM>
~h "j"
<BEGINHMM>
<NUMSTATES> 5
<STATE> 2
<MEAN> 52
 -3.729040e-03 -1.718965e-03 2.374972e-04 -1.147292e-03 1.009115e-03 1.175998e-03 8.588549e-04 5.166401e-04 -3.641660e-04 6.602512e-05 -4.473297e-04 2.151181e-04 -4.907421e-04 6.679568e-06 -1.291769e-05 -2.325415e-05 -2.236936e-05 -2.424047e-06 -2.829819e-05 2.237298e-05 1.049639e-05 2.212038e-05 5.871479e-06 1.907673e-06 1.127699e-05 1.015769e-05 7.303254e-06 1.279666e-05 -4.595048e-06 -3.346567e-06 6.566364e-06 4.666854e-06 -1.227315e-06 -1.228079e-05 -9.468979e-06 -4.573979e-06 -7.362554e-06 -1.728622e-05 -9.890653e-06 -6.213594e-06 2.042331e-06 7.292439e-06 5.534826e-06 7.465372e-06 6.674824e-06 -1.077696e-05 -1.209134e-05 -1.318496e-05 6.708799e-06 -1.116164e-07 1.932981e-06 -9.400179e-06
<VARIANCE> 52
 9.613734e-01 9.314067e-01 9.349908e-01 9.324042e-01 9.325303e-01 9.347320e-01 9.346745e-01 9.342343e-01 9.352114e-01 9.349105e-01 9.354652e-01 9.352876e-01 9.350353e-01 9.436834e-01 9.368995e-01 9.334359e-01 9.313149e-01 9.313983e-01 9.317325e-01 9.324038e-01 9.321494e-01 9.326612e-01 9.334978e-01 9.336509e-01 9.338971e-01 9.340385e-01 9.427497e-01 9.360191e-01 9.329336e-01 9.318833e-01 9.324108e-01 9.328462e-01 9.331754e-01 9.333328e-01 9.337040e-01 9.343483e-01 9.344560e-01 9.347429e-01 9.347374e-01 9.422944e-01 9.346341e-01 9.323958e-01 9.316312e-01 9.321941e-01 9.328819e-01 9.334224e-01 9.334534e-01 9.338822e-01 9.345195e-01 9.345480e-01 9.349996e-01 9.349947e-01
<GCONST> 9.205941e+01
<STATE> 3
<MEAN> 52
 -3.729040e-03 -1.718965e-03 2.374972e-04 -1.147292e-03 1.009115e-03 1.175998e-03 8.588549e-04 5.166401e-04 -3.641660e-04 6.602512e-05 -4.473297e-04 2.151181e-04 -4.907421e-04 6.679568e-06 -1.291769e-05 -2.325415e-05 -2.236936e-05 -2.424047e-06 -2.829819e-05 2.237298e-05 1.049639e-05 2.212038e-05 5.871479e-06 1.907673e-06 1.127699e-05 1.015769e-05 7.303254e-06 1.279666e-05 -4.595048e-06 -3.346567e-06 6.566364e-06 4.666854e-06 -1.227315e-06 -1.228079e-05 -9.468979e-06 -4.573979e-06 -7.362554e-06 -1.728622e-05 -9.890653e-06 -6.213594e-06 2.042331e-06 7.292439e-06 5.534826e-06 7.465372e-06 6.674824e-06 -1.077696e-05 -1.209134e-05 -1.318496e-05 6.708799e-06 -1.116164e-07 1.932981e-06 -9.400179e-06
<VARIANCE> 52
 9.613734e-01 9.314067e-01 9.349908e-01 9.324042e-01 9.325303e-01 9.347320e-01 9.346745e-01 9.342343e-01 9.352114e-01 9.349105e-01 9.354652e-01 9.352876e-01 9.350353e-01 9.436834e-01 9.368995e-01 9.334359e-01 9.313149e-01 9.313983e-01 9.317325e-01 9.324038e-01 9.321494e-01 9.326612e-01 9.334978e-01 9.336509e-01 9.338971e-01 9.340385e-01 9.427497e-01 9.360191e-01 9.329336e-01 9.318833e-01 9.324108e-01 9.328462e-01 9.331754e-01 9.333328e-01 9.337040e-01 9.343483e-01 9.344560e-01 9.347429e-01 9.347374e-01 9.422944e-01 9.346341e-01 9.323958e-01 9.316312e-01 9.321941e-01 9.328819e-01 9.334224e-01 9.334534e-01 9.338822e-01 9.345195e-01 9.345480e-01 9.349996e-01 9.349947e-01
<GCONST> 9.205941e+01
<STATE> 4
<MEAN> 52
 -3.729040e-03 -1.718965e-03 2.374972e-04 -1.147292e-03 1.009115e-03 1.175998e-03 8.588549e-04 5.166401e-04 -3.641660e-04 6.602512e-05 -4.473297e-04 2.151181e-04 -4.907421e-04 6.679568e-06 -1.291769e-05 -2.325415e-05 -2.236936e-05 -2.424047e-06 -2.829819e-05 2.237298e-05 1.049639e-05 2.212038e-05 5.871479e-06 1.907673e-06 1.127699e-05 1.015769e-05 7.303254e-06 1.279666e-05 -4.595048e-06 -3.346567e-06 6.566364e-06 4.666854e-06 -1.227315e-06 -1.228079e-05 -9.468979e-06 -4.573979e-06 -7.362554e-06 -1.728622e-05 -9.890653e-06 -6.213594e-06 2.042331e-06 7.292439e-06 5.534826e-06 7.465372e-06 6.674824e-06 -1.077696e-05 -1.209134e-05 -1.318496e-05 6.708799e-06 -1.116164e-07 1.932981e-06 -9.400179e-06
<VARIANCE> 52
 9.613734e-01 9.314067e-01 9.349908e-01 9.324042e-01 9.325303e-01 9.347320e-01 9.346745e-01 9.342343e-01 9.352114e-01 9.349105e-01 9.354652e-01 9.352876e-01 9.350353e-01 9.436834e-01 9.368995e-01 9.334359e-01 9.313149e-01 9.313983e-01 9.317325e-01 9.324038e-01 9.321494e-01 9.326612e-01 9.334978e-01 9.336509e-01 9.338971e-01 9.340385e-01 9.427497e-01 9.360191e-01 9.329336e-01 9.318833e-01 9.324108e-01 9.328462e-01 9.331754e-01 9.333328e-01 9.337040e-01 9.343483e-01 9.344560e-01 9.347429e-01 9.347374e-01 9.422944e-01 9.346341e-01 9.323958e-01 9.316312e-01 9.321941e-01 9.328819e-01 9.334224e-01 9.334534e-01 9.338822e-01 9.345195e-01 9.345480e-01 9.349996e-01 9.349947e-01
<GCONST> 9.205941e+01
<TRANSP> 5
 0.000000e+00 1.000000e+00 0.000000e+00 0.000000e+00 0.000000e+00
 0.000000e+00 6.000000e-01 4.000000e-01 0.000000e+00 0.000000e+00
 0.000000e+00 0.000000e+00 6.000000e-01 4.000000e-01 0.000000e+00
 0.000000e+00 0.000000e+00 0.000000e+00 6.000000e-01 4.000000e-01
 0.000000e+00 0.000000e+00 0.000000e+00 0.000000e+00 0.000000e+00
<ENDHMM>
~h "bh"
<BEGINHMM>
<NUMSTATES> 5
<STATE> 2
<MEAN> 52
 -3.729040e-03 -1.718965e-03 2.374972e-04 -1.147292e-03 1.009115e-03 1.175998e-03 8.588549e-04 5.166401e-04 -3.641660e-04 6.602512e-05 -4.473297e-04 2.151181e-04 -4.907421e-04 6.679568e-06 -1.291769e-05 -2.325415e-05 -2.236936e-05 -2.424047e-06 -2.829819e-05 2.237298e-05 1.049639e-05 2.212038e-05 5.871479e-06 1.907673e-06 1.127699e-05 1.015769e-05 7.303254e-06 1.279666e-05 -4.595048e-06 -3.346567e-06 6.566364e-06 4.666854e-06 -1.227315e-06 -1.228079e-05 -9.468979e-06 -4.573979e-06 -7.362554e-06 -1.728622e-05 -9.890653e-06 -6.213594e-06 2.042331e-06 7.292439e-06 5.534826e-06 7.465372e-06 6.674824e-06 -1.077696e-05 -1.209134e-05 -1.318496e-05 6.708799e-06 -1.116164e-07 1.932981e-06 -9.400179e-06
<VARIANCE> 52
 9.613734e-01 9.314067e-01 9.349908e-01 9.324042e-01 9.325303e-01 9.347320e-01 9.346745e-01 9.342343e-01 9.352114e-01 9.349105e-01 9.354652e-01 9.352876e-01 9.350353e-01 9.436834e-01 9.368995e-01 9.334359e-01 9.313149e-01 9.313983e-01 9.317325e-01 9.324038e-01 9.321494e-01 9.326612e-01 9.334978e-01 9.336509e-01 9.338971e-01 9.340385e-01 9.427497e-01 9.360191e-01 9.329336e-01 9.318833e-01 9.324108e-01 9.328462e-01 9.331754e-01 9.333328e-01 9.337040e-01 9.343483e-01 9.344560e-01 9.347429e-01 9.347374e-01 9.422944e-01 9.346341e-01 9.323958e-01 9.316312e-01 9.321941e-01 9.328819e-01 9.334224e-01 9.334534e-01 9.338822e-01 9.345195e-01 9.345480e-01 9.349996e-01 9.349947e-01
<GCONST> 9.205941e+01
<STATE> 3
<MEAN> 52
 -3.729040e-03 -1.718965e-03 2.374972e-04 -1.147292e-03 1.009115e-03 1.175998e-03 8.588549e-04 5.166401e-04 -3.641660e-04 6.602512e-05 -4.473297e-04 2.151181e-04 -4.907421e-04 6.679568e-06 -1.291769e-05 -2.325415e-05 -2.236936e-05 -2.424047e-06 -2.829819e-05 2.237298e-05 1.049639e-05 2.212038e-05 5.871479e-06 1.907673e-06 1.127699e-05 1.015769e-05 7.303254e-06 1.279666e-05 -4.595048e-06 -3.346567e-06 6.566364e-06 4.666854e-06 -1.227315e-06 -1.228079e-05 -9.468979e-06 -4.573979e-06 -7.362554e-06 -1.728622e-05 -9.890653e-06 -6.213594e-06 2.042331e-06 7.292439e-06 5.534826e-06 7.465372e-06 6.674824e-06 -1.077696e-05 -1.209134e-05 -1.318496e-05 6.708799e-06 -1.116164e-07 1.932981e-06 -9.400179e-06
<VARIANCE> 52
 9.613734e-01 9.314067e-01 9.349908e-01 9.324042e-01 9.325303e-01 9.347320e-01 9.346745e-01 9.342343e-01 9.352114e-01 9.349105e-01 9.354652e-01 9.352876e-01 9.350353e-01 9.436834e-01 9.368995e-01 9.334359e-01 9.313149e-01 9.313983e-01 9.317325e-01 9.324038e-01 9.321494e-01 9.326612e-01 9.334978e-01 9.336509e-01 9.338971e-01 9.340385e-01 9.427497e-01 9.360191e-01 9.329336e-01 9.318833e-01 9.324108e-01 9.328462e-01 9.331754e-01 9.333328e-01 9.337040e-01 9.343483e-01 9.344560e-01 9.347429e-01 9.347374e-01 9.422944e-01 9.346341e-01 9.323958e-01 9.316312e-01 9.321941e-01 9.328819e-01 9.334224e-01 9.334534e-01 9.338822e-01 9.345195e-01 9.345480e-01 9.349996e-01 9.349947e-01
<GCONST> 9.205941e+01
<STATE> 4
<MEAN> 52
 -3.729040e-03 -1.718965e-03 2.374972e-04 -1.147292e-03 1.009115e-03 1.175998e-03 8.588549e-04 5.166401e-04 -3.641660e-04 6.602512e-05 -4.473297e-04 2.151181e-04 -4.907421e-04 6.679568e-06 -1.291769e-05 -2.325415e-05 -2.236936e-05 -2.424047e-06 -2.829819e-05 2.237298e-05 1.049639e-05 2.212038e-05 5.871479e-06 1.907673e-06 1.127699e-05 1.015769e-05 7.303254e-06 1.279666e-05 -4.595048e-06 -3.346567e-06 6.566364e-06 4.666854e-06 -1.227315e-06 -1.228079e-05 -9.468979e-06 -4.573979e-06 -7.362554e-06 -1.728622e-05 -9.890653e-06 -6.213594e-06 2.042331e-06 7.292439e-06 5.534826e-06 7.465372e-06 6.674824e-06 -1.077696e-05 -1.209134e-05 -1.318496e-05 6.708799e-06 -1.116164e-07 1.932981e-06 -9.400179e-06
<VARIANCE> 52
 9.613734e-01 9.314067e-01 9.349908e-01 9.324042e-01 9.325303e-01 9.347320e-01 9.346745e-01 9.342343e-01 9.352114e-01 9.349105e-01 9.354652e-01 9.352876e-01 9.350353e-01 9.436834e-01 9.368995e-01 9.334359e-01 9.313149e-01 9.313983e-01 9.317325e-01 9.324038e-01 9.321494e-01 9.326612e-01 9.334978e-01 9.336509e-01 9.338971e-01 9.340385e-01 9.427497e-01 9.360191e-01 9.329336e-01 9.318833e-01 9.324108e-01 9.328462e-01 9.331754e-01 9.333328e-01 9.337040e-01 9.343483e-01 9.344560e-01 9.347429e-01 9.347374e-01 9.422944e-01 9.346341e-01 9.323958e-01 9.316312e-01 9.321941e-01 9.328819e-01 9.334224e-01 9.334534e-01 9.338822e-01 9.345195e-01 9.345480e-01 9.349996e-01 9.349947e-01
<GCONST> 9.205941e+01
<TRANSP> 5
 0.000000e+00 1.000000e+00 0.000000e+00 0.000000e+00 0.000000e+00
 0.000000e+00 6.000000e-01 4.000000e-01 0.000000e+00 0.000000e+00
 0.000000e+00 0.000000e+00 6.000000e-01 4.000000e-01 0.000000e+00
 0.000000e+00 0.000000e+00 0.000000e+00 6.000000e-01 4.000000e-01
 0.000000e+00 0.000000e+00 0.000000e+00 0.000000e+00 0.000000e+00
<ENDHMM>
~h "f"
<BEGINHMM>
<NUMSTATES> 5
<STATE> 2
<MEAN> 52
 -3.729040e-03 -1.718965e-03 2.374972e-04 -1.147292e-03 1.009115e-03 1.175998e-03 8.588549e-04 5.166401e-04 -3.641660e-04 6.602512e-05 -4.473297e-04 2.151181e-04 -4.907421e-04 6.679568e-06 -1.291769e-05 -2.325415e-05 -2.236936e-05 -2.424047e-06 -2.829819e-05 2.237298e-05 1.049639e-05 2.212038e-05 5.871479e-06 1.907673e-06 1.127699e-05 1.015769e-05 7.303254e-06 1.279666e-05 -4.595048e-06 -3.346567e-06 6.566364e-06 4.666854e-06 -1.227315e-06 -1.228079e-05 -9.468979e-06 -4.573979e-06 -7.362554e-06 -1.728622e-05 -9.890653e-06 -6.213594e-06 2.042331e-06 7.292439e-06 5.534826e-06 7.465372e-06 6.674824e-06 -1.077696e-05 -1.209134e-05 -1.318496e-05 6.708799e-06 -1.116164e-07 1.932981e-06 -9.400179e-06
<VARIANCE> 52
 9.613734e-01 9.314067e-01 9.349908e-01 9.324042e-01 9.325303e-01 9.347320e-01 9.346745e-01 9.342343e-01 9.352114e-01 9.349105e-01 9.354652e-01 9.352876e-01 9.350353e-01 9.436834e-01 9.368995e-01 9.334359e-01 9.313149e-01 9.313983e-01 9.317325e-01 9.324038e-01 9.321494e-01 9.326612e-01 9.334978e-01 9.336509e-01 9.338971e-01 9.340385e-01 9.427497e-01 9.360191e-01 9.329336e-01 9.318833e-01 9.324108e-01 9.328462e-01 9.331754e-01 9.333328e-01 9.337040e-01 9.343483e-01 9.344560e-01 9.347429e-01 9.347374e-01 9.422944e-01 9.346341e-01 9.323958e-01 9.316312e-01 9.321941e-01 9.328819e-01 9.334224e-01 9.334534e-01 9.338822e-01 9.345195e-01 9.345480e-01 9.349996e-01 9.349947e-01
<GCONST> 9.205941e+01
<STATE> 3
<MEAN> 52
 -3.729040e-03 -1.718965e-03 2.374972e-04 -1.147292e-03 1.009115e-03 1.175998e-03 8.588549e-04 5.166401e-04 -3.641660e-04 6.602512e-05 -4.473297e-04 2.151181e-04 -4.907421e-04 6.679568e-06 -1.291769e-05 -2.325415e-05 -2.236936e-05 -2.424047e-06 -2.829819e-05 2.237298e-05 1.049639e-05 2.212038e-05 5.871479e-06 1.907673e-06 1.127699e-05 1.015769e-05 7.303254e-06 1.279666e-05 -4.595048e-06 -3.346567e-06 6.566364e-06 4.666854e-06 -1.227315e-06 -1.228079e-05 -9.468979e-06 -4.573979e-06 -7.362554e-06 -1.728622e-05 -9.890653e-06 -6.213594e-06 2.042331e-06 7.292439e-06 5.534826e-06 7.465372e-06 6.674824e-06 -1.077696e-05 -1.209134e-05 -1.318496e-05 6.708799e-06 -1.116164e-07 1.932981e-06 -9.400179e-06
<VARIANCE> 52
 9.613734e-01 9.314067e-01 9.349908e-01 9.324042e-01 9.325303e-01 9.347320e-01 9.346745e-01 9.342343e-01 9.352114e-01 9.349105e-01 9.354652e-01 9.352876e-01 9.350353e-01 9.436834e-01 9.368995e-01 9.334359e-01 9.313149e-01 9.313983e-01 9.317325e-01 9.324038e-01 9.321494e-01 9.326612e-01 9.334978e-01 9.336509e-01 9.338971e-01 9.340385e-01 9.427497e-01 9.360191e-01 9.329336e-01 9.318833e-01 9.324108e-01 9.328462e-01 9.331754e-01 9.333328e-01 9.337040e-01 9.343483e-01 9.344560e-01 9.347429e-01 9.347374e-01 9.422944e-01 9.346341e-01 9.323958e-01 9.316312e-01 9.321941e-01 9.328819e-01 9.334224e-01 9.334534e-01 9.338822e-01 9.345195e-01 9.345480e-01 9.349996e-01 9.349947e-01
<GCONST> 9.205941e+01
<STATE> 4
<MEAN> 52
 -3.729040e-03 -1.718965e-03 2.374972e-04 -1.147292e-03 1.009115e-03 1.175998e-03 8.588549e-04 5.166401e-04 -3.641660e-04 6.602512e-05 -4.473297e-04 2.151181e-04 -4.907421e-04 6.679568e-06 -1.291769e-05 -2.325415e-05 -2.236936e-05 -2.424047e-06 -2.829819e-05 2.237298e-05 1.049639e-05 2.212038e-05 5.871479e-06 1.907673e-06 1.127699e-05 1.015769e-05 7.303254e-06 1.279666e-05 -4.595048e-06 -3.346567e-06 6.566364e-06 4.666854e-06 -1.227315e-06 -1.228079e-05 -9.468979e-06 -4.573979e-06 -7.362554e-06 -1.728622e-05 -9.890653e-06 -6.213594e-06 2.042331e-06 7.292439e-06 5.534826e-06 7.465372e-06 6.674824e-06 -1.077696e-05 -1.209134e-05 -1.318496e-05 6.708799e-06 -1.116164e-07 1.932981e-06 -9.400179e-06
<VARIANCE> 52
 9.613734e-01 9.314067e-01 9.349908e-01 9.324042e-01 9.325303e-01 9.347320e-01 9.346745e-01 9.342343e-01 9.352114e-01 9.349105e-01 9.354652e-01 9.352876e-01 9.350353e-01 9.436834e-01 9.368995e-01 9.334359e-01 9.313149e-01 9.313983e-01 9.317325e-01 9.324038e-01 9.321494e-01 9.326612e-01 9.334978e-01 9.336509e-01 9.338971e-01 9.340385e-01 9.427497e-01 9.360191e-01 9.329336e-01 9.318833e-01 9.324108e-01 9.328462e-01 9.331754e-01 9.333328e-01 9.337040e-01 9.343483e-01 9.344560e-01 9.347429e-01 9.347374e-01 9.422944e-01 9.346341e-01 9.323958e-01 9.316312e-01 9.321941e-01 9.328819e-01 9.334224e-01 9.334534e-01 9.338822e-01 9.345195e-01 9.345480e-01 9.349996e-01 9.349947e-01
<GCONST> 9.205941e+01
<TRANSP> 5
 0.000000e+00 1.000000e+00 0.000000e+00 0.000000e+00 0.000000e+00
 0.000000e+00 6.000000e-01 4.000000e-01 0.000000e+00 0.000000e+00
 0.000000e+00 0.000000e+00 6.000000e-01 4.000000e-01 0.000000e+00
 0.000000e+00 0.000000e+00 0.000000e+00 6.000000e-01 4.000000e-01
 0.000000e+00 0.000000e+00 0.000000e+00 0.000000e+00 0.000000e+00
<ENDHMM>
~h "x"
<BEGINHMM>
<NUMSTATES> 5
<STATE> 2
<MEAN> 52
 -3.729040e-03 -1.718965e-03 2.374972e-04 -1.147292e-03 1.009115e-03 1.175998e-03 8.588549e-04 5.166401e-04 -3.641660e-04 6.602512e-05 -4.473297e-04 2.151181e-04 -4.907421e-04 6.679568e-06 -1.291769e-05 -2.325415e-05 -2.236936e-05 -2.424047e-06 -2.829819e-05 2.237298e-05 1.049639e-05 2.212038e-05 5.871479e-06 1.907673e-06 1.127699e-05 1.015769e-05 7.303254e-06 1.279666e-05 -4.595048e-06 -3.346567e-06 6.566364e-06 4.666854e-06 -1.227315e-06 -1.228079e-05 -9.468979e-06 -4.573979e-06 -7.362554e-06 -1.728622e-05 -9.890653e-06 -6.213594e-06 2.042331e-06 7.292439e-06 5.534826e-06 7.465372e-06 6.674824e-06 -1.077696e-05 -1.209134e-05 -1.318496e-05 6.708799e-06 -1.116164e-07 1.932981e-06 -9.400179e-06
<VARIANCE> 52
 9.613734e-01 9.314067e-01 9.349908e-01 9.324042e-01 9.325303e-01 9.347320e-01 9.346745e-01 9.342343e-01 9.352114e-01 9.349105e-01 9.354652e-01 9.352876e-01 9.350353e-01 9.436834e-01 9.368995e-01 9.334359e-01 9.313149e-01 9.313983e-01 9.317325e-01 9.324038e-01 9.321494e-01 9.326612e-01 9.334978e-01 9.336509e-01 9.338971e-01 9.340385e-01 9.427497e-01 9.360191e-01 9.329336e-01 9.318833e-01 9.324108e-01 9.328462e-01 9.331754e-01 9.333328e-01 9.337040e-01 9.343483e-01 9.344560e-01 9.347429e-01 9.347374e-01 9.422944e-01 9.346341e-01 9.323958e-01 9.316312e-01 9.321941e-01 9.328819e-01 9.334224e-01 9.334534e-01 9.338822e-01 9.345195e-01 9.345480e-01 9.349996e-01 9.349947e-01
<GCONST> 9.205941e+01
<STATE> 3
<MEAN> 52
 -3.729040e-03 -1.718965e-03 2.374972e-04 -1.147292e-03 1.009115e-03 1.175998e-03 8.588549e-04 5.166401e-04 -3.641660e-04 6.602512e-05 -4.473297e-04 2.151181e-04 -4.907421e-04 6.679568e-06 -1.291769e-05 -2.325415e-05 -2.236936e-05 -2.424047e-06 -2.829819e-05 2.237298e-05 1.049639e-05 2.212038e-05 5.871479e-06 1.907673e-06 1.127699e-05 1.015769e-05 7.303254e-06 1.279666e-05 -4.595048e-06 -3.346567e-06 6.566364e-06 4.666854e-06 -1.227315e-06 -1.228079e-05 -9.468979e-06 -4.573979e-06 -7.362554e-06 -1.728622e-05 -9.890653e-06 -6.213594e-06 2.042331e-06 7.292439e-06 5.534826e-06 7.465372e-06 6.674824e-06 -1.077696e-05 -1.209134e-05 -1.318496e-05 6.708799e-06 -1.116164e-07 1.932981e-06 -9.400179e-06
<VARIANCE> 52
 9.613734e-01 9.314067e-01 9.349908e-01 9.324042e-01 9.325303e-01 9.347320e-01 9.346745e-01 9.342343e-01 9.352114e-01 9.349105e-01 9.354652e-01 9.352876e-01 9.350353e-01 9.436834e-01 9.368995e-01 9.334359e-01 9.313149e-01 9.313983e-01 9.317325e-01 9.324038e-01 9.321494e-01 9.326612e-01 9.334978e-01 9.336509e-01 9.338971e-01 9.340385e-01 9.427497e-01 9.360191e-01 9.329336e-01 9.318833e-01 9.324108e-01 9.328462e-01 9.331754e-01 9.333328e-01 9.337040e-01 9.343483e-01 9.344560e-01 9.347429e-01 9.347374e-01 9.422944e-01 9.346341e-01 9.323958e-01 9.316312e-01 9.321941e-01 9.328819e-01 9.334224e-01 9.334534e-01 9.338822e-01 9.345195e-01 9.345480e-01 9.349996e-01 9.349947e-01
<GCONST> 9.205941e+01
<STATE> 4
<MEAN> 52
 -3.729040e-03 -1.718965e-03 2.374972e-04 -1.147292e-03 1.009115e-03 1.175998e-03 8.588549e-04 5.166401e-04 -3.641660e-04 6.602512e-05 -4.473297e-04 2.151181e-04 -4.907421e-04 6.679568e-06 -1.291769e-05 -2.325415e-05 -2.236936e-05 -2.424047e-06 -2.829819e-05 2.237298e-05 1.049639e-05 2.212038e-05 5.871479e-06 1.907673e-06 1.127699e-05 1.015769e-05 7.303254e-06 1.279666e-05 -4.595048e-06 -3.346567e-06 6.566364e-06 4.666854e-06 -1.227315e-06 -1.228079e-05 -9.468979e-06 -4.573979e-06 -7.362554e-06 -1.728622e-05 -9.890653e-06 -6.213594e-06 2.042331e-06 7.292439e-06 5.534826e-06 7.465372e-06 6.674824e-06 -1.077696e-05 -1.209134e-05 -1.318496e-05 6.708799e-06 -1.116164e-07 1.932981e-06 -9.400179e-06
<VARIANCE> 52
 9.613734e-01 9.314067e-01 9.349908e-01 9.324042e-01 9.325303e-01 9.347320e-01 9.346745e-01 9.342343e-01 9.352114e-01 9.349105e-01 9.354652e-01 9.352876e-01 9.350353e-01 9.436834e-01 9.368995e-01 9.334359e-01 9.313149e-01 9.313983e-01 9.317325e-01 9.324038e-01 9.321494e-01 9.326612e-01 9.334978e-01 9.336509e-01 9.338971e-01 9.340385e-01 9.427497e-01 9.360191e-01 9.329336e-01 9.318833e-01 9.324108e-01 9.328462e-01 9.331754e-01 9.333328e-01 9.337040e-01 9.343483e-01 9.344560e-01 9.347429e-01 9.347374e-01 9.422944e-01 9.346341e-01 9.323958e-01 9.316312e-01 9.321941e-01 9.328819e-01 9.334224e-01 9.334534e-01 9.338822e-01 9.345195e-01 9.345480e-01 9.349996e-01 9.349947e-01
<GCONST> 9.205941e+01
<TRANSP> 5
 0.000000e+00 1.000000e+00 0.000000e+00 0.000000e+00 0.000000e+00
 0.000000e+00 6.000000e-01 4.000000e-01 0.000000e+00 0.000000e+00
 0.000000e+00 0.000000e+00 6.000000e-01 4.000000e-01 0.000000e+00
 0.000000e+00 0.000000e+00 0.000000e+00 6.000000e-01 4.000000e-01
 0.000000e+00 0.000000e+00 0.000000e+00 0.000000e+00 0.000000e+00
<ENDHMM>
~h "ng"
<BEGINHMM>
<NUMSTATES> 5
<STATE> 2
<MEAN> 52
 -3.729040e-03 -1.718965e-03 2.374972e-04 -1.147292e-03 1.009115e-03 1.175998e-03 8.588549e-04 5.166401e-04 -3.641660e-04 6.602512e-05 -4.473297e-04 2.151181e-04 -4.907421e-04 6.679568e-06 -1.291769e-05 -2.325415e-05 -2.236936e-05 -2.424047e-06 -2.829819e-05 2.237298e-05 1.049639e-05 2.212038e-05 5.871479e-06 1.907673e-06 1.127699e-05 1.015769e-05 7.303254e-06 1.279666e-05 -4.595048e-06 -3.346567e-06 6.566364e-06 4.666854e-06 -1.227315e-06 -1.228079e-05 -9.468979e-06 -4.573979e-06 -7.362554e-06 -1.728622e-05 -9.890653e-06 -6.213594e-06 2.042331e-06 7.292439e-06 5.534826e-06 7.465372e-06 6.674824e-06 -1.077696e-05 -1.209134e-05 -1.318496e-05 6.708799e-06 -1.116164e-07 1.932981e-06 -9.400179e-06
<VARIANCE> 52
 9.613734e-01 9.314067e-01 9.349908e-01 9.324042e-01 9.325303e-01 9.347320e-01 9.346745e-01 9.342343e-01 9.352114e-01 9.349105e-01 9.354652e-01 9.352876e-01 9.350353e-01 9.436834e-01 9.368995e-01 9.334359e-01 9.313149e-01 9.313983e-01 9.317325e-01 9.324038e-01 9.321494e-01 9.326612e-01 9.334978e-01 9.336509e-01 9.338971e-01 9.340385e-01 9.427497e-01 9.360191e-01 9.329336e-01 9.318833e-01 9.324108e-01 9.328462e-01 9.331754e-01 9.333328e-01 9.337040e-01 9.343483e-01 9.344560e-01 9.347429e-01 9.347374e-01 9.422944e-01 9.346341e-01 9.323958e-01 9.316312e-01 9.321941e-01 9.328819e-01 9.334224e-01 9.334534e-01 9.338822e-01 9.345195e-01 9.345480e-01 9.349996e-01 9.349947e-01
<GCONST> 9.205941e+01
<STATE> 3
<MEAN> 52
 -3.729040e-03 -1.718965e-03 2.374972e-04 -1.147292e-03 1.009115e-03 1.175998e-03 8.588549e-04 5.166401e-04 -3.641660e-04 6.602512e-05 -4.473297e-04 2.151181e-04 -4.907421e-04 6.679568e-06 -1.291769e-05 -2.325415e-05 -2.236936e-05 -2.424047e-06 -2.829819e-05 2.237298e-05 1.049639e-05 2.212038e-05 5.871479e-06 1.907673e-06 1.127699e-05 1.015769e-05 7.303254e-06 1.279666e-05 -4.595048e-06 -3.346567e-06 6.566364e-06 4.666854e-06 -1.227315e-06 -1.228079e-05 -9.468979e-06 -4.573979e-06 -7.362554e-06 -1.728622e-05 -9.890653e-06 -6.213594e-06 2.042331e-06 7.292439e-06 5.534826e-06 7.465372e-06 6.674824e-06 -1.077696e-05 -1.209134e-05 -1.318496e-05 6.708799e-06 -1.116164e-07 1.932981e-06 -9.400179e-06
<VARIANCE> 52
 9.613734e-01 9.314067e-01 9.349908e-01 9.324042e-01 9.325303e-01 9.347320e-01 9.346745e-01 9.342343e-01 9.352114e-01 9.349105e-01 9.354652e-01 9.352876e-01 9.350353e-01 9.436834e-01 9.368995e-01 9.334359e-01 9.313149e-01 9.313983e-01 9.317325e-01 9.324038e-01 9.321494e-01 9.326612e-01 9.334978e-01 9.336509e-01 9.338971e-01 9.340385e-01 9.427497e-01 9.360191e-01 9.329336e-01 9.318833e-01 9.324108e-01 9.328462e-01 9.331754e-01 9.333328e-01 9.337040e-01 9.343483e-01 9.344560e-01 9.347429e-01 9.347374e-01 9.422944e-01 9.346341e-01 9.323958e-01 9.316312e-01 9.321941e-01 9.328819e-01 9.334224e-01 9.334534e-01 9.338822e-01 9.345195e-01 9.345480e-01 9.349996e-01 9.349947e-01
<GCONST> 9.205941e+01
<STATE> 4
<MEAN> 52
 -3.729040e-03 -1.718965e-03 2.374972e-04 -1.147292e-03 1.009115e-03 1.175998e-03 8.588549e-04 5.166401e-04 -3.641660e-04 6.602512e-05 -4.473297e-04 2.151181e-04 -4.907421e-04 6.679568e-06 -1.291769e-05 -2.325415e-05 -2.236936e-05 -2.424047e-06 -2.829819e-05 2.237298e-05 1.049639e-05 2.212038e-05 5.871479e-06 1.907673e-06 1.127699e-05 1.015769e-05 7.303254e-06 1.279666e-05 -4.595048e-06 -3.346567e-06 6.566364e-06 4.666854e-06 -1.227315e-06 -1.228079e-05 -9.468979e-06 -4.573979e-06 -7.362554e-06 -1.728622e-05 -9.890653e-06 -6.213594e-06 2.042331e-06 7.292439e-06 5.534826e-06 7.465372e-06 6.674824e-06 -1.077696e-05 -1.209134e-05 -1.318496e-05 6.708799e-06 -1.116164e-07 1.932981e-06 -9.400179e-06
<VARIANCE> 52
 9.613734e-01 9.314067e-01 9.349908e-01 9.324042e-01 9.325303e-01 9.347320e-01 9.346745e-01 9.342343e-01 9.352114e-01 9.349105e-01 9.354652e-01 9.352876e-01 9.350353e-01 9.436834e-01 9.368995e-01 9.334359e-01 9.313149e-01 9.313983e-01 9.317325e-01 9.324038e-01 9.321494e-01 9.326612e-01 9.334978e-01 9.336509e-01 9.338971e-01 9.340385e-01 9.427497e-01 9.360191e-01 9.329336e-01 9.318833e-01 9.324108e-01 9.328462e-01 9.331754e-01 9.333328e-01 9.337040e-01 9.343483e-01 9.344560e-01 9.347429e-01 9.347374e-01 9.422944e-01 9.346341e-01 9.323958e-01 9.316312e-01 9.321941e-01 9.328819e-01 9.334224e-01 9.334534e-01 9.338822e-01 9.345195e-01 9.345480e-01 9.349996e-01 9.349947e-01
<GCONST> 9.205941e+01
<TRANSP> 5
 0.000000e+00 1.000000e+00 0.000000e+00 0.000000e+00 0.000000e+00
 0.000000e+00 6.000000e-01 4.000000e-01 0.000000e+00 0.000000e+00
 0.000000e+00 0.000000e+00 6.000000e-01 4.000000e-01 0.000000e+00
 0.000000e+00 0.000000e+00 0.000000e+00 6.000000e-01 4.000000e-01
 0.000000e+00 0.000000e+00 0.000000e+00 0.000000e+00 0.000000e+00
<ENDHMM>
~h "tS"
<BEGINHMM>
<NUMSTATES> 5
<STATE> 2
<MEAN> 52
 -3.729040e-03 -1.718965e-03 2.374972e-04 -1.147292e-03 1.009115e-03 1.175998e-03 8.588549e-04 5.166401e-04 -3.641660e-04 6.602512e-05 -4.473297e-04 2.151181e-04 -4.907421e-04 6.679568e-06 -1.291769e-05 -2.325415e-05 -2.236936e-05 -2.424047e-06 -2.829819e-05 2.237298e-05 1.049639e-05 2.212038e-05 5.871479e-06 1.907673e-06 1.127699e-05 1.015769e-05 7.303254e-06 1.279666e-05 -4.595048e-06 -3.346567e-06 6.566364e-06 4.666854e-06 -1.227315e-06 -1.228079e-05 -9.468979e-06 -4.573979e-06 -7.362554e-06 -1.728622e-05 -9.890653e-06 -6.213594e-06 2.042331e-06 7.292439e-06 5.534826e-06 7.465372e-06 6.674824e-06 -1.077696e-05 -1.209134e-05 -1.318496e-05 6.708799e-06 -1.116164e-07 1.932981e-06 -9.400179e-06
<VARIANCE> 52
 9.613734e-01 9.314067e-01 9.349908e-01 9.324042e-01 9.325303e-01 9.347320e-01 9.346745e-01 9.342343e-01 9.352114e-01 9.349105e-01 9.354652e-01 9.352876e-01 9.350353e-01 9.436834e-01 9.368995e-01 9.334359e-01 9.313149e-01 9.313983e-01 9.317325e-01 9.324038e-01 9.321494e-01 9.326612e-01 9.334978e-01 9.336509e-01 9.338971e-01 9.340385e-01 9.427497e-01 9.360191e-01 9.329336e-01 9.318833e-01 9.324108e-01 9.328462e-01 9.331754e-01 9.333328e-01 9.337040e-01 9.343483e-01 9.344560e-01 9.347429e-01 9.347374e-01 9.422944e-01 9.346341e-01 9.323958e-01 9.316312e-01 9.321941e-01 9.328819e-01 9.334224e-01 9.334534e-01 9.338822e-01 9.345195e-01 9.345480e-01 9.349996e-01 9.349947e-01
<GCONST> 9.205941e+01
<STATE> 3
<MEAN> 52
 -3.729040e-03 -1.718965e-03 2.374972e-04 -1.147292e-03 1.009115e-03 1.175998e-03 8.588549e-04 5.166401e-04 -3.641660e-04 6.602512e-05 -4.473297e-04 2.151181e-04 -4.907421e-04 6.679568e-06 -1.291769e-05 -2.325415e-05 -2.236936e-05 -2.424047e-06 -2.829819e-05 2.237298e-05 1.049639e-05 2.212038e-05 5.871479e-06 1.907673e-06 1.127699e-05 1.015769e-05 7.303254e-06 1.279666e-05 -4.595048e-06 -3.346567e-06 6.566364e-06 4.666854e-06 -1.227315e-06 -1.228079e-05 -9.468979e-06 -4.573979e-06 -7.362554e-06 -1.728622e-05 -9.890653e-06 -6.213594e-06 2.042331e-06 7.292439e-06 5.534826e-06 7.465372e-06 6.674824e-06 -1.077696e-05 -1.209134e-05 -1.318496e-05 6.708799e-06 -1.116164e-07 1.932981e-06 -9.400179e-06
<VARIANCE> 52
 9.613734e-01 9.314067e-01 9.349908e-01 9.324042e-01 9.325303e-01 9.347320e-01 9.346745e-01 9.342343e-01 9.352114e-01 9.349105e-01 9.354652e-01 9.352876e-01 9.350353e-01 9.436834e-01 9.368995e-01 9.334359e-01 9.313149e-01 9.313983e-01 9.317325e-01 9.324038e-01 9.321494e-01 9.326612e-01 9.334978e-01 9.336509e-01 9.338971e-01 9.340385e-01 9.427497e-01 9.360191e-01 9.329336e-01 9.318833e-01 9.324108e-01 9.328462e-01 9.331754e-01 9.333328e-01 9.337040e-01 9.343483e-01 9.344560e-01 9.347429e-01 9.347374e-01 9.422944e-01 9.346341e-01 9.323958e-01 9.316312e-01 9.321941e-01 9.328819e-01 9.334224e-01 9.334534e-01 9.338822e-01 9.345195e-01 9.345480e-01 9.349996e-01 9.349947e-01
<GCONST> 9.205941e+01
<STATE> 4
<MEAN> 52
 -3.729040e-03 -1.718965e-03 2.374972e-04 -1.147292e-03 1.009115e-03 1.175998e-03 8.588549e-04 5.166401e-04 -3.641660e-04 6.602512e-05 -4.473297e-04 2.151181e-04 -4.907421e-04 6.679568e-06 -1.291769e-05 -2.325415e-05 -2.236936e-05 -2.424047e-06 -2.829819e-05 2.237298e-05 1.049639e-05 2.212038e-05 5.871479e-06 1.907673e-06 1.127699e-05 1.015769e-05 7.303254e-06 1.279666e-05 -4.595048e-06 -3.346567e-06 6.566364e-06 4.666854e-06 -1.227315e-06 -1.228079e-05 -9.468979e-06 -4.573979e-06 -7.362554e-06 -1.728622e-05 -9.890653e-06 -6.213594e-06 2.042331e-06 7.292439e-06 5.534826e-06 7.465372e-06 6.674824e-06 -1.077696e-05 -1.209134e-05 -1.318496e-05 6.708799e-06 -1.116164e-07 1.932981e-06 -9.400179e-06
<VARIANCE> 52
 9.613734e-01 9.314067e-01 9.349908e-01 9.324042e-01 9.325303e-01 9.347320e-01 9.346745e-01 9.342343e-01 9.352114e-01 9.349105e-01 9.354652e-01 9.352876e-01 9.350353e-01 9.436834e-01 9.368995e-01 9.334359e-01 9.313149e-01 9.313983e-01 9.317325e-01 9.324038e-01 9.321494e-01 9.326612e-01 9.334978e-01 9.336509e-01 9.338971e-01 9.340385e-01 9.427497e-01 9.360191e-01 9.329336e-01 9.318833e-01 9.324108e-01 9.328462e-01 9.331754e-01 9.333328e-01 9.337040e-01 9.343483e-01 9.344560e-01 9.347429e-01 9.347374e-01 9.422944e-01 9.346341e-01 9.323958e-01 9.316312e-01 9.321941e-01 9.328819e-01 9.334224e-01 9.334534e-01 9.338822e-01 9.345195e-01 9.345480e-01 9.349996e-01 9.349947e-01
<GCONST> 9.205941e+01
<TRANSP> 5
 0.000000e+00 1.000000e+00 0.000000e+00 0.000000e+00 0.000000e+00
 0.000000e+00 6.000000e-01 4.000000e-01 0.000000e+00 0.000000e+00
 0.000000e+00 0.000000e+00 6.000000e-01 4.000000e-01 0.000000e+00
 0.000000e+00 0.000000e+00 0.000000e+00 6.000000e-01 4.000000e-01
 0.000000e+00 0.000000e+00 0.000000e+00 0.000000e+00 0.000000e+00
<ENDHMM>
~h "n"
<BEGINHMM>
<NUMSTATES> 5
<STATE> 2
<MEAN> 52
 -3.729040e-03 -1.718965e-03 2.374972e-04 -1.147292e-03 1.009115e-03 1.175998e-03 8.588549e-04 5.166401e-04 -3.641660e-04 6.602512e-05 -4.473297e-04 2.151181e-04 -4.907421e-04 6.679568e-06 -1.291769e-05 -2.325415e-05 -2.236936e-05 -2.424047e-06 -2.829819e-05 2.237298e-05 1.049639e-05 2.212038e-05 5.871479e-06 1.907673e-06 1.127699e-05 1.015769e-05 7.303254e-06 1.279666e-05 -4.595048e-06 -3.346567e-06 6.566364e-06 4.666854e-06 -1.227315e-06 -1.228079e-05 -9.468979e-06 -4.573979e-06 -7.362554e-06 -1.728622e-05 -9.890653e-06 -6.213594e-06 2.042331e-06 7.292439e-06 5.534826e-06 7.465372e-06 6.674824e-06 -1.077696e-05 -1.209134e-05 -1.318496e-05 6.708799e-06 -1.116164e-07 1.932981e-06 -9.400179e-06
<VARIANCE> 52
 9.613734e-01 9.314067e-01 9.349908e-01 9.324042e-01 9.325303e-01 9.347320e-01 9.346745e-01 9.342343e-01 9.352114e-01 9.349105e-01 9.354652e-01 9.352876e-01 9.350353e-01 9.436834e-01 9.368995e-01 9.334359e-01 9.313149e-01 9.313983e-01 9.317325e-01 9.324038e-01 9.321494e-01 9.326612e-01 9.334978e-01 9.336509e-01 9.338971e-01 9.340385e-01 9.427497e-01 9.360191e-01 9.329336e-01 9.318833e-01 9.324108e-01 9.328462e-01 9.331754e-01 9.333328e-01 9.337040e-01 9.343483e-01 9.344560e-01 9.347429e-01 9.347374e-01 9.422944e-01 9.346341e-01 9.323958e-01 9.316312e-01 9.321941e-01 9.328819e-01 9.334224e-01 9.334534e-01 9.338822e-01 9.345195e-01 9.345480e-01 9.349996e-01 9.349947e-01
<GCONST> 9.205941e+01
<STATE> 3
<MEAN> 52
 -3.729040e-03 -1.718965e-03 2.374972e-04 -1.147292e-03 1.009115e-03 1.175998e-03 8.588549e-04 5.166401e-04 -3.641660e-04 6.602512e-05 -4.473297e-04 2.151181e-04 -4.907421e-04 6.679568e-06 -1.291769e-05 -2.325415e-05 -2.236936e-05 -2.424047e-06 -2.829819e-05 2.237298e-05 1.049639e-05 2.212038e-05 5.871479e-06 1.907673e-06 1.127699e-05 1.015769e-05 7.303254e-06 1.279666e-05 -4.595048e-06 -3.346567e-06 6.566364e-06 4.666854e-06 -1.227315e-06 -1.228079e-05 -9.468979e-06 -4.573979e-06 -7.362554e-06 -1.728622e-05 -9.890653e-06 -6.213594e-06 2.042331e-06 7.292439e-06 5.534826e-06 7.465372e-06 6.674824e-06 -1.077696e-05 -1.209134e-05 -1.318496e-05 6.708799e-06 -1.116164e-07 1.932981e-06 -9.400179e-06
<VARIANCE> 52
 9.613734e-01 9.314067e-01 9.349908e-01 9.324042e-01 9.325303e-01 9.347320e-01 9.346745e-01 9.342343e-01 9.352114e-01 9.349105e-01 9.354652e-01 9.352876e-01 9.350353e-01 9.436834e-01 9.368995e-01 9.334359e-01 9.313149e-01 9.313983e-01 9.317325e-01 9.324038e-01 9.321494e-01 9.326612e-01 9.334978e-01 9.336509e-01 9.338971e-01 9.340385e-01 9.427497e-01 9.360191e-01 9.329336e-01 9.318833e-01 9.324108e-01 9.328462e-01 9.331754e-01 9.333328e-01 9.337040e-01 9.343483e-01 9.344560e-01 9.347429e-01 9.347374e-01 9.422944e-01 9.346341e-01 9.323958e-01 9.316312e-01 9.321941e-01 9.328819e-01 9.334224e-01 9.334534e-01 9.338822e-01 9.345195e-01 9.345480e-01 9.349996e-01 9.349947e-01
<GCONST> 9.205941e+01
<STATE> 4
<MEAN> 52
 -3.729040e-03 -1.718965e-03 2.374972e-04 -1.147292e-03 1.009115e-03 1.175998e-03 8.588549e-04 5.166401e-04 -3.641660e-04 6.602512e-05 -4.473297e-04 2.151181e-04 -4.907421e-04 6.679568e-06 -1.291769e-05 -2.325415e-05 -2.236936e-05 -2.424047e-06 -2.829819e-05 2.237298e-05 1.049639e-05 2.212038e-05 5.871479e-06 1.907673e-06 1.127699e-05 1.015769e-05 7.303254e-06 1.279666e-05 -4.595048e-06 -3.346567e-06 6.566364e-06 4.666854e-06 -1.227315e-06 -1.228079e-05 -9.468979e-06 -4.573979e-06 -7.362554e-06 -1.728622e-05 -9.890653e-06 -6.213594e-06 2.042331e-06 7.292439e-06 5.534826e-06 7.465372e-06 6.674824e-06 -1.077696e-05 -1.209134e-05 -1.318496e-05 6.708799e-06 -1.116164e-07 1.932981e-06 -9.400179e-06
<VARIANCE> 52
 9.613734e-01 9.314067e-01 9.349908e-01 9.324042e-01 9.325303e-01 9.347320e-01 9.346745e-01 9.342343e-01 9.352114e-01 9.349105e-01 9.354652e-01 9.352876e-01 9.350353e-01 9.436834e-01 9.368995e-01 9.334359e-01 9.313149e-01 9.313983e-01 9.317325e-01 9.324038e-01 9.321494e-01 9.326612e-01 9.334978e-01 9.336509e-01 9.338971e-01 9.340385e-01 9.427497e-01 9.360191e-01 9.329336e-01 9.318833e-01 9.324108e-01 9.328462e-01 9.331754e-01 9.333328e-01 9.337040e-01 9.343483e-01 9.344560e-01 9.347429e-01 9.347374e-01 9.422944e-01 9.346341e-01 9.323958e-01 9.316312e-01 9.321941e-01 9.328819e-01 9.334224e-01 9.334534e-01 9.338822e-01 9.345195e-01 9.345480e-01 9.349996e-01 9.349947e-01
<GCONST> 9.205941e+01
<TRANSP> 5
 0.000000e+00 1.000000e+00 0.000000e+00 0.000000e+00 0.000000e+00
 0.000000e+00 6.000000e-01 4.000000e-01 0.000000e+00 0.000000e+00
 0.000000e+00 0.000000e+00 6.000000e-01 4.000000e-01 0.000000e+00
 0.000000e+00 0.000000e+00 0.000000e+00 6.000000e-01 4.000000e-01
 0.000000e+00 0.000000e+00 0.000000e+00 0.000000e+00 0.000000e+00
<ENDHMM>
~h "i"
<BEGINHMM>
<NUMSTATES> 5
<STATE> 2
<MEAN> 52
 -3.729040e-03 -1.718965e-03 2.374972e-04 -1.147292e-03 1.009115e-03 1.175998e-03 8.588549e-04 5.166401e-04 -3.641660e-04 6.602512e-05 -4.473297e-04 2.151181e-04 -4.907421e-04 6.679568e-06 -1.291769e-05 -2.325415e-05 -2.236936e-05 -2.424047e-06 -2.829819e-05 2.237298e-05 1.049639e-05 2.212038e-05 5.871479e-06 1.907673e-06 1.127699e-05 1.015769e-05 7.303254e-06 1.279666e-05 -4.595048e-06 -3.346567e-06 6.566364e-06 4.666854e-06 -1.227315e-06 -1.228079e-05 -9.468979e-06 -4.573979e-06 -7.362554e-06 -1.728622e-05 -9.890653e-06 -6.213594e-06 2.042331e-06 7.292439e-06 5.534826e-06 7.465372e-06 6.674824e-06 -1.077696e-05 -1.209134e-05 -1.318496e-05 6.708799e-06 -1.116164e-07 1.932981e-06 -9.400179e-06
<VARIANCE> 52
 9.613734e-01 9.314067e-01 9.349908e-01 9.324042e-01 9.325303e-01 9.347320e-01 9.346745e-01 9.342343e-01 9.352114e-01 9.349105e-01 9.354652e-01 9.352876e-01 9.350353e-01 9.436834e-01 9.368995e-01 9.334359e-01 9.313149e-01 9.313983e-01 9.317325e-01 9.324038e-01 9.321494e-01 9.326612e-01 9.334978e-01 9.336509e-01 9.338971e-01 9.340385e-01 9.427497e-01 9.360191e-01 9.329336e-01 9.318833e-01 9.324108e-01 9.328462e-01 9.331754e-01 9.333328e-01 9.337040e-01 9.343483e-01 9.344560e-01 9.347429e-01 9.347374e-01 9.422944e-01 9.346341e-01 9.323958e-01 9.316312e-01 9.321941e-01 9.328819e-01 9.334224e-01 9.334534e-01 9.338822e-01 9.345195e-01 9.345480e-01 9.349996e-01 9.349947e-01
<GCONST> 9.205941e+01
<STATE> 3
<MEAN> 52
 -3.729040e-03 -1.718965e-03 2.374972e-04 -1.147292e-03 1.009115e-03 1.175998e-03 8.588549e-04 5.166401e-04 -3.641660e-04 6.602512e-05 -4.473297e-04 2.151181e-04 -4.907421e-04 6.679568e-06 -1.291769e-05 -2.325415e-05 -2.236936e-05 -2.424047e-06 -2.829819e-05 2.237298e-05 1.049639e-05 2.212038e-05 5.871479e-06 1.907673e-06 1.127699e-05 1.015769e-05 7.303254e-06 1.279666e-05 -4.595048e-06 -3.346567e-06 6.566364e-06 4.666854e-06 -1.227315e-06 -1.228079e-05 -9.468979e-06 -4.573979e-06 -7.362554e-06 -1.728622e-05 -9.890653e-06 -6.213594e-06 2.042331e-06 7.292439e-06 5.534826e-06 7.465372e-06 6.674824e-06 -1.077696e-05 -1.209134e-05 -1.318496e-05 6.708799e-06 -1.116164e-07 1.932981e-06 -9.400179e-06
<VARIANCE> 52
 9.613734e-01 9.314067e-01 9.349908e-01 9.324042e-01 9.325303e-01 9.347320e-01 9.346745e-01 9.342343e-01 9.352114e-01 9.349105e-01 9.354652e-01 9.352876e-01 9.350353e-01 9.436834e-01 9.368995e-01 9.334359e-01 9.313149e-01 9.313983e-01 9.317325e-01 9.324038e-01 9.321494e-01 9.326612e-01 9.334978e-01 9.336509e-01 9.338971e-01 9.340385e-01 9.427497e-01 9.360191e-01 9.329336e-01 9.318833e-01 9.324108e-01 9.328462e-01 9.331754e-01 9.333328e-01 9.337040e-01 9.343483e-01 9.344560e-01 9.347429e-01 9.347374e-01 9.422944e-01 9.346341e-01 9.323958e-01 9.316312e-01 9.321941e-01 9.328819e-01 9.334224e-01 9.334534e-01 9.338822e-01 9.345195e-01 9.345480e-01 9.349996e-01 9.349947e-01
<GCONST> 9.205941e+01
<STATE> 4
<MEAN> 52
 -3.729040e-03 -1.718965e-03 2.374972e-04 -1.147292e-03 1.009115e-03 1.175998e-03 8.588549e-04 5.166401e-04 -3.641660e-04 6.602512e-05 -4.473297e-04 2.151181e-04 -4.907421e-04 6.679568e-06 -1.291769e-05 -2.325415e-05 -2.236936e-05 -2.424047e-06 -2.829819e-05 2.237298e-05 1.049639e-05 2.212038e-05 5.871479e-06 1.907673e-06 1.127699e-05 1.015769e-05 7.303254e-06 1.279666e-05 -4.595048e-06 -3.346567e-06 6.566364e-06 4.666854e-06 -1.227315e-06 -1.228079e-05 -9.468979e-06 -4.573979e-06 -7.362554e-06 -1.728622e-05 -9.890653e-06 -6.213594e-06 2.042331e-06 7.292439e-06 5.534826e-06 7.465372e-06 6.674824e-06 -1.077696e-05 -1.209134e-05 -1.318496e-05 6.708799e-06 -1.116164e-07 1.932981e-06 -9.400179e-06
<VARIANCE> 52
 9.613734e-01 9.314067e-01 9.349908e-01 9.324042e-01 9.325303e-01 9.347320e-01 9.346745e-01 9.342343e-01 9.352114e-01 9.349105e-01 9.354652e-01 9.352876e-01 9.350353e-01 9.436834e-01 9.368995e-01 9.334359e-01 9.313149e-01 9.313983e-01 9.317325e-01 9.324038e-01 9.321494e-01 9.326612e-01 9.334978e-01 9.336509e-01 9.338971e-01 9.340385e-01 9.427497e-01 9.360191e-01 9.329336e-01 9.318833e-01 9.324108e-01 9.328462e-01 9.331754e-01 9.333328e-01 9.337040e-01 9.343483e-01 9.344560e-01 9.347429e-01 9.347374e-01 9.422944e-01 9.346341e-01 9.323958e-01 9.316312e-01 9.321941e-01 9.328819e-01 9.334224e-01 9.334534e-01 9.338822e-01 9.345195e-01 9.345480e-01 9.349996e-01 9.349947e-01
<GCONST> 9.205941e+01
<TRANSP> 5
 0.000000e+00 1.000000e+00 0.000000e+00 0.000000e+00 0.000000e+00
 0.000000e+00 6.000000e-01 4.000000e-01 0.000000e+00 0.000000e+00
 0.000000e+00 0.000000e+00 6.000000e-01 4.000000e-01 0.000000e+00
 0.000000e+00 0.000000e+00 0.000000e+00 6.000000e-01 4.000000e-01
 0.000000e+00 0.000000e+00 0.000000e+00 0.000000e+00 0.000000e+00
<ENDHMM>
~h "d"
<BEGINHMM>
<NUMSTATES> 5
<STATE> 2
<MEAN> 52
 -3.729040e-03 -1.718965e-03 2.374972e-04 -1.147292e-03 1.009115e-03 1.175998e-03 8.588549e-04 5.166401e-04 -3.641660e-04 6.602512e-05 -4.473297e-04 2.151181e-04 -4.907421e-04 6.679568e-06 -1.291769e-05 -2.325415e-05 -2.236936e-05 -2.424047e-06 -2.829819e-05 2.237298e-05 1.049639e-05 2.212038e-05 5.871479e-06 1.907673e-06 1.127699e-05 1.015769e-05 7.303254e-06 1.279666e-05 -4.595048e-06 -3.346567e-06 6.566364e-06 4.666854e-06 -1.227315e-06 -1.228079e-05 -9.468979e-06 -4.573979e-06 -7.362554e-06 -1.728622e-05 -9.890653e-06 -6.213594e-06 2.042331e-06 7.292439e-06 5.534826e-06 7.465372e-06 6.674824e-06 -1.077696e-05 -1.209134e-05 -1.318496e-05 6.708799e-06 -1.116164e-07 1.932981e-06 -9.400179e-06
<VARIANCE> 52
 9.613734e-01 9.314067e-01 9.349908e-01 9.324042e-01 9.325303e-01 9.347320e-01 9.346745e-01 9.342343e-01 9.352114e-01 9.349105e-01 9.354652e-01 9.352876e-01 9.350353e-01 9.436834e-01 9.368995e-01 9.334359e-01 9.313149e-01 9.313983e-01 9.317325e-01 9.324038e-01 9.321494e-01 9.326612e-01 9.334978e-01 9.336509e-01 9.338971e-01 9.340385e-01 9.427497e-01 9.360191e-01 9.329336e-01 9.318833e-01 9.324108e-01 9.328462e-01 9.331754e-01 9.333328e-01 9.337040e-01 9.343483e-01 9.344560e-01 9.347429e-01 9.347374e-01 9.422944e-01 9.346341e-01 9.323958e-01 9.316312e-01 9.321941e-01 9.328819e-01 9.334224e-01 9.334534e-01 9.338822e-01 9.345195e-01 9.345480e-01 9.349996e-01 9.349947e-01
<GCONST> 9.205941e+01
<STATE> 3
<MEAN> 52
 -3.729040e-03 -1.718965e-03 2.374972e-04 -1.147292e-03 1.009115e-03 1.175998e-03 8.588549e-04 5.166401e-04 -3.641660e-04 6.602512e-05 -4.473297e-04 2.151181e-04 -4.907421e-04 6.679568e-06 -1.291769e-05 -2.325415e-05 -2.236936e-05 -2.424047e-06 -2.829819e-05 2.237298e-05 1.049639e-05 2.212038e-05 5.871479e-06 1.907673e-06 1.127699e-05 1.015769e-05 7.303254e-06 1.279666e-05 -4.595048e-06 -3.346567e-06 6.566364e-06 4.666854e-06 -1.227315e-06 -1.228079e-05 -9.468979e-06 -4.573979e-06 -7.362554e-06 -1.728622e-05 -9.890653e-06 -6.213594e-06 2.042331e-06 7.292439e-06 5.534826e-06 7.465372e-06 6.674824e-06 -1.077696e-05 -1.209134e-05 -1.318496e-05 6.708799e-06 -1.116164e-07 1.932981e-06 -9.400179e-06
<VARIANCE> 52
 9.613734e-01 9.314067e-01 9.349908e-01 9.324042e-01 9.325303e-01 9.347320e-01 9.346745e-01 9.342343e-01 9.352114e-01 9.349105e-01 9.354652e-01 9.352876e-01 9.350353e-01 9.436834e-01 9.368995e-01 9.334359e-01 9.313149e-01 9.313983e-01 9.317325e-01 9.324038e-01 9.321494e-01 9.326612e-01 9.334978e-01 9.336509e-01 9.338971e-01 9.340385e-01 9.427497e-01 9.360191e-01 9.329336e-01 9.318833e-01 9.324108e-01 9.328462e-01 9.331754e-01 9.333328e-01 9.337040e-01 9.343483e-01 9.344560e-01 9.347429e-01 9.347374e-01 9.422944e-01 9.346341e-01 9.323958e-01 9.316312e-01 9.321941e-01 9.328819e-01 9.334224e-01 9.334534e-01 9.338822e-01 9.345195e-01 9.345480e-01 9.349996e-01 9.349947e-01
<GCONST> 9.205941e+01
<STATE> 4
<MEAN> 52
 -3.729040e-03 -1.718965e-03 2.374972e-04 -1.147292e-03 1.009115e-03 1.175998e-03 8.588549e-04 5.166401e-04 -3.641660e-04 6.602512e-05 -4.473297e-04 2.151181e-04 -4.907421e-04 6.679568e-06 -1.291769e-05 -2.325415e-05 -2.236936e-05 -2.424047e-06 -2.829819e-05 2.237298e-05 1.049639e-05 2.212038e-05 5.871479e-06 1.907673e-06 1.127699e-05 1.015769e-05 7.303254e-06 1.279666e-05 -4.595048e-06 -3.346567e-06 6.566364e-06 4.666854e-06 -1.227315e-06 -1.228079e-05 -9.468979e-06 -4.573979e-06 -7.362554e-06 -1.728622e-05 -9.890653e-06 -6.213594e-06 2.042331e-06 7.292439e-06 5.534826e-06 7.465372e-06 6.674824e-06 -1.077696e-05 -1.209134e-05 -1.318496e-05 6.708799e-06 -1.116164e-07 1.932981e-06 -9.400179e-06
<VARIANCE> 52
 9.613734e-01 9.314067e-01 9.349908e-01 9.324042e-01 9.325303e-01 9.347320e-01 9.346745e-01 9.342343e-01 9.352114e-01 9.349105e-01 9.354652e-01 9.352876e-01 9.350353e-01 9.436834e-01 9.368995e-01 9.334359e-01 9.313149e-01 9.313983e-01 9.317325e-01 9.324038e-01 9.321494e-01 9.326612e-01 9.334978e-01 9.336509e-01 9.338971e-01 9.340385e-01 9.427497e-01 9.360191e-01 9.329336e-01 9.318833e-01 9.324108e-01 9.328462e-01 9.331754e-01 9.333328e-01 9.337040e-01 9.343483e-01 9.344560e-01 9.347429e-01 9.347374e-01 9.422944e-01 9.346341e-01 9.323958e-01 9.316312e-01 9.321941e-01 9.328819e-01 9.334224e-01 9.334534e-01 9.338822e-01 9.345195e-01 9.345480e-01 9.349996e-01 9.349947e-01
<GCONST> 9.205941e+01
<TRANSP> 5
 0.000000e+00 1.000000e+00 0.000000e+00 0.000000e+00 0.000000e+00
 0.000000e+00 6.000000e-01 4.000000e-01 0.000000e+00 0.000000e+00
 0.000000e+00 0.000000e+00 6.000000e-01 4.000000e-01 0.000000e+00
 0.000000e+00 0.000000e+00 0.000000e+00 6.000000e-01 4.000000e-01
 0.000000e+00 0.000000e+00 0.000000e+00 0.000000e+00 0.000000e+00
<ENDHMM>
~h "jj"
<BEGINHMM>
<NUMSTATES> 5
<STATE> 2
<MEAN> 52
 -3.729040e-03 -1.718965e-03 2.374972e-04 -1.147292e-03 1.009115e-03 1.175998e-03 8.588549e-04 5.166401e-04 -3.641660e-04 6.602512e-05 -4.473297e-04 2.151181e-04 -4.907421e-04 6.679568e-06 -1.291769e-05 -2.325415e-05 -2.236936e-05 -2.424047e-06 -2.829819e-05 2.237298e-05 1.049639e-05 2.212038e-05 5.871479e-06 1.907673e-06 1.127699e-05 1.015769e-05 7.303254e-06 1.279666e-05 -4.595048e-06 -3.346567e-06 6.566364e-06 4.666854e-06 -1.227315e-06 -1.228079e-05 -9.468979e-06 -4.573979e-06 -7.362554e-06 -1.728622e-05 -9.890653e-06 -6.213594e-06 2.042331e-06 7.292439e-06 5.534826e-06 7.465372e-06 6.674824e-06 -1.077696e-05 -1.209134e-05 -1.318496e-05 6.708799e-06 -1.116164e-07 1.932981e-06 -9.400179e-06
<VARIANCE> 52
 9.613734e-01 9.314067e-01 9.349908e-01 9.324042e-01 9.325303e-01 9.347320e-01 9.346745e-01 9.342343e-01 9.352114e-01 9.349105e-01 9.354652e-01 9.352876e-01 9.350353e-01 9.436834e-01 9.368995e-01 9.334359e-01 9.313149e-01 9.313983e-01 9.317325e-01 9.324038e-01 9.321494e-01 9.326612e-01 9.334978e-01 9.336509e-01 9.338971e-01 9.340385e-01 9.427497e-01 9.360191e-01 9.329336e-01 9.318833e-01 9.324108e-01 9.328462e-01 9.331754e-01 9.333328e-01 9.337040e-01 9.343483e-01 9.344560e-01 9.347429e-01 9.347374e-01 9.422944e-01 9.346341e-01 9.323958e-01 9.316312e-01 9.321941e-01 9.328819e-01 9.334224e-01 9.334534e-01 9.338822e-01 9.345195e-01 9.345480e-01 9.349996e-01 9.349947e-01
<GCONST> 9.205941e+01
<STATE> 3
<MEAN> 52
 -3.729040e-03 -1.718965e-03 2.374972e-04 -1.147292e-03 1.009115e-03 1.175998e-03 8.588549e-04 5.166401e-04 -3.641660e-04 6.602512e-05 -4.473297e-04 2.151181e-04 -4.907421e-04 6.679568e-06 -1.291769e-05 -2.325415e-05 -2.236936e-05 -2.424047e-06 -2.829819e-05 2.237298e-05 1.049639e-05 2.212038e-05 5.871479e-06 1.907673e-06 1.127699e-05 1.015769e-05 7.303254e-06 1.279666e-05 -4.595048e-06 -3.346567e-06 6.566364e-06 4.666854e-06 -1.227315e-06 -1.228079e-05 -9.468979e-06 -4.573979e-06 -7.362554e-06 -1.728622e-05 -9.890653e-06 -6.213594e-06 2.042331e-06 7.292439e-06 5.534826e-06 7.465372e-06 6.674824e-06 -1.077696e-05 -1.209134e-05 -1.318496e-05 6.708799e-06 -1.116164e-07 1.932981e-06 -9.400179e-06
<VARIANCE> 52
 9.613734e-01 9.314067e-01 9.349908e-01 9.324042e-01 9.325303e-01 9.347320e-01 9.346745e-01 9.342343e-01 9.352114e-01 9.349105e-01 9.354652e-01 9.352876e-01 9.350353e-01 9.436834e-01 9.368995e-01 9.334359e-01 9.313149e-01 9.313983e-01 9.317325e-01 9.324038e-01 9.321494e-01 9.326612e-01 9.334978e-01 9.336509e-01 9.338971e-01 9.340385e-01 9.427497e-01 9.360191e-01 9.329336e-01 9.318833e-01 9.324108e-01 9.328462e-01 9.331754e-01 9.333328e-01 9.337040e-01 9.343483e-01 9.344560e-01 9.347429e-01 9.347374e-01 9.422944e-01 9.346341e-01 9.323958e-01 9.316312e-01 9.321941e-01 9.328819e-01 9.334224e-01 9.334534e-01 9.338822e-01 9.345195e-01 9.345480e-01 9.349996e-01 9.349947e-01
<GCONST> 9.205941e+01
<STATE> 4
<MEAN> 52
 -3.729040e-03 -1.718965e-03 2.374972e-04 -1.147292e-03 1.009115e-03 1.175998e-03 8.588549e-04 5.166401e-04 -3.641660e-04 6.602512e-05 -4.473297e-04 2.151181e-04 -4.907421e-04 6.679568e-06 -1.291769e-05 -2.325415e-05 -2.236936e-05 -2.424047e-06 -2.829819e-05 2.237298e-05 1.049639e-05 2.212038e-05 5.871479e-06 1.907673e-06 1.127699e-05 1.015769e-05 7.303254e-06 1.279666e-05 -4.595048e-06 -3.346567e-06 6.566364e-06 4.666854e-06 -1.227315e-06 -1.228079e-05 -9.468979e-06 -4.573979e-06 -7.362554e-06 -1.728622e-05 -9.890653e-06 -6.213594e-06 2.042331e-06 7.292439e-06 5.534826e-06 7.465372e-06 6.674824e-06 -1.077696e-05 -1.209134e-05 -1.318496e-05 6.708799e-06 -1.116164e-07 1.932981e-06 -9.400179e-06
<VARIANCE> 52
 9.613734e-01 9.314067e-01 9.349908e-01 9.324042e-01 9.325303e-01 9.347320e-01 9.346745e-01 9.342343e-01 9.352114e-01 9.349105e-01 9.354652e-01 9.352876e-01 9.350353e-01 9.436834e-01 9.368995e-01 9.334359e-01 9.313149e-01 9.313983e-01 9.317325e-01 9.324038e-01 9.321494e-01 9.326612e-01 9.334978e-01 9.336509e-01 9.338971e-01 9.340385e-01 9.427497e-01 9.360191e-01 9.329336e-01 9.318833e-01 9.324108e-01 9.328462e-01 9.331754e-01 9.333328e-01 9.337040e-01 9.343483e-01 9.344560e-01 9.347429e-01 9.347374e-01 9.422944e-01 9.346341e-01 9.323958e-01 9.316312e-01 9.321941e-01 9.328819e-01 9.334224e-01 9.334534e-01 9.338822e-01 9.345195e-01 9.345480e-01 9.349996e-01 9.349947e-01
<GCONST> 9.205941e+01
<TRANSP> 5
 0.000000e+00 1.000000e+00 0.000000e+00 0.000000e+00 0.000000e+00
 0.000000e+00 6.000000e-01 4.000000e-01 0.000000e+00 0.000000e+00
 0.000000e+00 0.000000e+00 6.000000e-01 4.000000e-01 0.000000e+00
 0.000000e+00 0.000000e+00 0.000000e+00 6.000000e-01 4.000000e-01
 0.000000e+00 0.000000e+00 0.000000e+00 0.000000e+00 0.000000e+00
<ENDHMM>
~h "w"
<BEGINHMM>
<NUMSTATES> 5
<STATE> 2
<MEAN> 52
 -3.729040e-03 -1.718965e-03 2.374972e-04 -1.147292e-03 1.009115e-03 1.175998e-03 8.588549e-04 5.166401e-04 -3.641660e-04 6.602512e-05 -4.473297e-04 2.151181e-04 -4.907421e-04 6.679568e-06 -1.291769e-05 -2.325415e-05 -2.236936e-05 -2.424047e-06 -2.829819e-05 2.237298e-05 1.049639e-05 2.212038e-05 5.871479e-06 1.907673e-06 1.127699e-05 1.015769e-05 7.303254e-06 1.279666e-05 -4.595048e-06 -3.346567e-06 6.566364e-06 4.666854e-06 -1.227315e-06 -1.228079e-05 -9.468979e-06 -4.573979e-06 -7.362554e-06 -1.728622e-05 -9.890653e-06 -6.213594e-06 2.042331e-06 7.292439e-06 5.534826e-06 7.465372e-06 6.674824e-06 -1.077696e-05 -1.209134e-05 -1.318496e-05 6.708799e-06 -1.116164e-07 1.932981e-06 -9.400179e-06
<VARIANCE> 52
 9.613734e-01 9.314067e-01 9.349908e-01 9.324042e-01 9.325303e-01 9.347320e-01 9.346745e-01 9.342343e-01 9.352114e-01 9.349105e-01 9.354652e-01 9.352876e-01 9.350353e-01 9.436834e-01 9.368995e-01 9.334359e-01 9.313149e-01 9.313983e-01 9.317325e-01 9.324038e-01 9.321494e-01 9.326612e-01 9.334978e-01 9.336509e-01 9.338971e-01 9.340385e-01 9.427497e-01 9.360191e-01 9.329336e-01 9.318833e-01 9.324108e-01 9.328462e-01 9.331754e-01 9.333328e-01 9.337040e-01 9.343483e-01 9.344560e-01 9.347429e-01 9.347374e-01 9.422944e-01 9.346341e-01 9.323958e-01 9.316312e-01 9.321941e-01 9.328819e-01 9.334224e-01 9.334534e-01 9.338822e-01 9.345195e-01 9.345480e-01 9.349996e-01 9.349947e-01
<GCONST> 9.205941e+01
<STATE> 3
<MEAN> 52
 -3.729040e-03 -1.718965e-03 2.374972e-04 -1.147292e-03 1.009115e-03 1.175998e-03 8.588549e-04 5.166401e-04 -3.641660e-04 6.602512e-05 -4.473297e-04 2.151181e-04 -4.907421e-04 6.679568e-06 -1.291769e-05 -2.325415e-05 -2.236936e-05 -2.424047e-06 -2.829819e-05 2.237298e-05 1.049639e-05 2.212038e-05 5.871479e-06 1.907673e-06 1.127699e-05 1.015769e-05 7.303254e-06 1.279666e-05 -4.595048e-06 -3.346567e-06 6.566364e-06 4.666854e-06 -1.227315e-06 -1.228079e-05 -9.468979e-06 -4.573979e-06 -7.362554e-06 -1.728622e-05 -9.890653e-06 -6.213594e-06 2.042331e-06 7.292439e-06 5.534826e-06 7.465372e-06 6.674824e-06 -1.077696e-05 -1.209134e-05 -1.318496e-05 6.708799e-06 -1.116164e-07 1.932981e-06 -9.400179e-06
<VARIANCE> 52
 9.613734e-01 9.314067e-01 9.349908e-01 9.324042e-01 9.325303e-01 9.347320e-01 9.346745e-01 9.342343e-01 9.352114e-01 9.349105e-01 9.354652e-01 9.352876e-01 9.350353e-01 9.436834e-01 9.368995e-01 9.334359e-01 9.313149e-01 9.313983e-01 9.317325e-01 9.324038e-01 9.321494e-01 9.326612e-01 9.334978e-01 9.336509e-01 9.338971e-01 9.340385e-01 9.427497e-01 9.360191e-01 9.329336e-01 9.318833e-01 9.324108e-01 9.328462e-01 9.331754e-01 9.333328e-01 9.337040e-01 9.343483e-01 9.344560e-01 9.347429e-01 9.347374e-01 9.422944e-01 9.346341e-01 9.323958e-01 9.316312e-01 9.321941e-01 9.328819e-01 9.334224e-01 9.334534e-01 9.338822e-01 9.345195e-01 9.345480e-01 9.349996e-01 9.349947e-01
<GCONST> 9.205941e+01
<STATE> 4
<MEAN> 52
 -3.729040e-03 -1.718965e-03 2.374972e-04 -1.147292e-03 1.009115e-03 1.175998e-03 8.588549e-04 5.166401e-04 -3.641660e-04 6.602512e-05 -4.473297e-04 2.151181e-04 -4.907421e-04 6.679568e-06 -1.291769e-05 -2.325415e-05 -2.236936e-05 -2.424047e-06 -2.829819e-05 2.237298e-05 1.049639e-05 2.212038e-05 5.871479e-06 1.907673e-06 1.127699e-05 1.015769e-05 7.303254e-06 1.279666e-05 -4.595048e-06 -3.346567e-06 6.566364e-06 4.666854e-06 -1.227315e-06 -1.228079e-05 -9.468979e-06 -4.573979e-06 -7.362554e-06 -1.728622e-05 -9.890653e-06 -6.213594e-06 2.042331e-06 7.292439e-06 5.534826e-06 7.465372e-06 6.674824e-06 -1.077696e-05 -1.209134e-05 -1.318496e-05 6.708799e-06 -1.116164e-07 1.932981e-06 -9.400179e-06
<VARIANCE> 52
 9.613734e-01 9.314067e-01 9.349908e-01 9.324042e-01 9.325303e-01 9.347320e-01 9.346745e-01 9.342343e-01 9.352114e-01 9.349105e-01 9.354652e-01 9.352876e-01 9.350353e-01 9.436834e-01 9.368995e-01 9.334359e-01 9.313149e-01 9.313983e-01 9.317325e-01 9.324038e-01 9.321494e-01 9.326612e-01 9.334978e-01 9.336509e-01 9.338971e-01 9.340385e-01 9.427497e-01 9.360191e-01 9.329336e-01 9.318833e-01 9.324108e-01 9.328462e-01 9.331754e-01 9.333328e-01 9.337040e-01 9.343483e-01 9.344560e-01 9.347429e-01 9.347374e-01 9.422944e-01 9.346341e-01 9.323958e-01 9.316312e-01 9.321941e-01 9.328819e-01 9.334224e-01 9.334534e-01 9.338822e-01 9.345195e-01 9.345480e-01 9.349996e-01 9.349947e-01
<GCONST> 9.205941e+01
<TRANSP> 5
 0.000000e+00 1.000000e+00 0.000000e+00 0.000000e+00 0.000000e+00
 0.000000e+00 6.000000e-01 4.000000e-01 0.000000e+00 0.000000e+00
 0.000000e+00 0.000000e+00 6.000000e-01 4.000000e-01 0.000000e+00
 0.000000e+00 0.000000e+00 0.000000e+00 6.000000e-01 4.000000e-01
 0.000000e+00 0.000000e+00 0.000000e+00 0.000000e+00 0.000000e+00
<ENDHMM>
~h "m"
<BEGINHMM>
<NUMSTATES> 5
<STATE> 2
<MEAN> 52
 -3.729040e-03 -1.718965e-03 2.374972e-04 -1.147292e-03 1.009115e-03 1.175998e-03 8.588549e-04 5.166401e-04 -3.641660e-04 6.602512e-05 -4.473297e-04 2.151181e-04 -4.907421e-04 6.679568e-06 -1.291769e-05 -2.325415e-05 -2.236936e-05 -2.424047e-06 -2.829819e-05 2.237298e-05 1.049639e-05 2.212038e-05 5.871479e-06 1.907673e-06 1.127699e-05 1.015769e-05 7.303254e-06 1.279666e-05 -4.595048e-06 -3.346567e-06 6.566364e-06 4.666854e-06 -1.227315e-06 -1.228079e-05 -9.468979e-06 -4.573979e-06 -7.362554e-06 -1.728622e-05 -9.890653e-06 -6.213594e-06 2.042331e-06 7.292439e-06 5.534826e-06 7.465372e-06 6.674824e-06 -1.077696e-05 -1.209134e-05 -1.318496e-05 6.708799e-06 -1.116164e-07 1.932981e-06 -9.400179e-06
<VARIANCE> 52
 9.613734e-01 9.314067e-01 9.349908e-01 9.324042e-01 9.325303e-01 9.347320e-01 9.346745e-01 9.342343e-01 9.352114e-01 9.349105e-01 9.354652e-01 9.352876e-01 9.350353e-01 9.436834e-01 9.368995e-01 9.334359e-01 9.313149e-01 9.313983e-01 9.317325e-01 9.324038e-01 9.321494e-01 9.326612e-01 9.334978e-01 9.336509e-01 9.338971e-01 9.340385e-01 9.427497e-01 9.360191e-01 9.329336e-01 9.318833e-01 9.324108e-01 9.328462e-01 9.331754e-01 9.333328e-01 9.337040e-01 9.343483e-01 9.344560e-01 9.347429e-01 9.347374e-01 9.422944e-01 9.346341e-01 9.323958e-01 9.316312e-01 9.321941e-01 9.328819e-01 9.334224e-01 9.334534e-01 9.338822e-01 9.345195e-01 9.345480e-01 9.349996e-01 9.349947e-01
<GCONST> 9.205941e+01
<STATE> 3
<MEAN> 52
 -3.729040e-03 -1.718965e-03 2.374972e-04 -1.147292e-03 1.009115e-03 1.175998e-03 8.588549e-04 5.166401e-04 -3.641660e-04 6.602512e-05 -4.473297e-04 2.151181e-04 -4.907421e-04 6.679568e-06 -1.291769e-05 -2.325415e-05 -2.236936e-05 -2.424047e-06 -2.829819e-05 2.237298e-05 1.049639e-05 2.212038e-05 5.871479e-06 1.907673e-06 1.127699e-05 1.015769e-05 7.303254e-06 1.279666e-05 -4.595048e-06 -3.346567e-06 6.566364e-06 4.666854e-06 -1.227315e-06 -1.228079e-05 -9.468979e-06 -4.573979e-06 -7.362554e-06 -1.728622e-05 -9.890653e-06 -6.213594e-06 2.042331e-06 7.292439e-06 5.534826e-06 7.465372e-06 6.674824e-06 -1.077696e-05 -1.209134e-05 -1.318496e-05 6.708799e-06 -1.116164e-07 1.932981e-06 -9.400179e-06
<VARIANCE> 52
 9.613734e-01 9.314067e-01 9.349908e-01 9.324042e-01 9.325303e-01 9.347320e-01 9.346745e-01 9.342343e-01 9.352114e-01 9.349105e-01 9.354652e-01 9.352876e-01 9.350353e-01 9.436834e-01 9.368995e-01 9.334359e-01 9.313149e-01 9.313983e-01 9.317325e-01 9.324038e-01 9.321494e-01 9.326612e-01 9.334978e-01 9.336509e-01 9.338971e-01 9.340385e-01 9.427497e-01 9.360191e-01 9.329336e-01 9.318833e-01 9.324108e-01 9.328462e-01 9.331754e-01 9.333328e-01 9.337040e-01 9.343483e-01 9.344560e-01 9.347429e-01 9.347374e-01 9.422944e-01 9.346341e-01 9.323958e-01 9.316312e-01 9.321941e-01 9.328819e-01 9.334224e-01 9.334534e-01 9.338822e-01 9.345195e-01 9.345480e-01 9.349996e-01 9.349947e-01
<GCONST> 9.205941e+01
<STATE> 4
<MEAN> 52
 -3.729040e-03 -1.718965e-03 2.374972e-04 -1.147292e-03 1.009115e-03 1.175998e-03 8.588549e-04 5.166401e-04 -3.641660e-04 6.602512e-05 -4.473297e-04 2.151181e-04 -4.907421e-04 6.679568e-06 -1.291769e-05 -2.325415e-05 -2.236936e-05 -2.424047e-06 -2.829819e-05 2.237298e-05 1.049639e-05 2.212038e-05 5.871479e-06 1.907673e-06 1.127699e-05 1.015769e-05 7.303254e-06 1.279666e-05 -4.595048e-06 -3.346567e-06 6.566364e-06 4.666854e-06 -1.227315e-06 -1.228079e-05 -9.468979e-06 -4.573979e-06 -7.362554e-06 -1.728622e-05 -9.890653e-06 -6.213594e-06 2.042331e-06 7.292439e-06 5.534826e-06 7.465372e-06 6.674824e-06 -1.077696e-05 -1.209134e-05 -1.318496e-05 6.708799e-06 -1.116164e-07 1.932981e-06 -9.400179e-06
<VARIANCE> 52
 9.613734e-01 9.314067e-01 9.349908e-01 9.324042e-01 9.325303e-01 9.347320e-01 9.346745e-01 9.342343e-01 9.352114e-01 9.349105e-01 9.354652e-01 9.352876e-01 9.350353e-01 9.436834e-01 9.368995e-01 9.334359e-01 9.313149e-01 9.313983e-01 9.317325e-01 9.324038e-01 9.321494e-01 9.326612e-01 9.334978e-01 9.336509e-01 9.338971e-01 9.340385e-01 9.427497e-01 9.360191e-01 9.329336e-01 9.318833e-01 9.324108e-01 9.328462e-01 9.331754e-01 9.333328e-01 9.337040e-01 9.343483e-01 9.344560e-01 9.347429e-01 9.347374e-01 9.422944e-01 9.346341e-01 9.323958e-01 9.316312e-01 9.321941e-01 9.328819e-01 9.334224e-01 9.334534e-01 9.338822e-01 9.345195e-01 9.345480e-01 9.349996e-01 9.349947e-01
<GCONST> 9.205941e+01
<TRANSP> 5
 0.000000e+00 1.000000e+00 0.000000e+00 0.000000e+00 0.000000e+00
 0.000000e+00 6.000000e-01 4.000000e-01 0.000000e+00 0.000000e+00
 0.000000e+00 0.000000e+00 6.000000e-01 4.000000e-01 0.000000e+00
 0.000000e+00 0.000000e+00 0.000000e+00 6.000000e-01 4.000000e-01
 0.000000e+00 0.000000e+00 0.000000e+00 0.000000e+00 0.000000e+00
<ENDHMM>
~h "r"
<BEGINHMM>
<NUMSTATES> 5
<STATE> 2
<MEAN> 52
 -3.729040e-03 -1.718965e-03 2.374972e-04 -1.147292e-03 1.009115e-03 1.175998e-03 8.588549e-04 5.166401e-04 -3.641660e-04 6.602512e-05 -4.473297e-04 2.151181e-04 -4.907421e-04 6.679568e-06 -1.291769e-05 -2.325415e-05 -2.236936e-05 -2.424047e-06 -2.829819e-05 2.237298e-05 1.049639e-05 2.212038e-05 5.871479e-06 1.907673e-06 1.127699e-05 1.015769e-05 7.303254e-06 1.279666e-05 -4.595048e-06 -3.346567e-06 6.566364e-06 4.666854e-06 -1.227315e-06 -1.228079e-05 -9.468979e-06 -4.573979e-06 -7.362554e-06 -1.728622e-05 -9.890653e-06 -6.213594e-06 2.042331e-06 7.292439e-06 5.534826e-06 7.465372e-06 6.674824e-06 -1.077696e-05 -1.209134e-05 -1.318496e-05 6.708799e-06 -1.116164e-07 1.932981e-06 -9.400179e-06
<VARIANCE> 52
 9.613734e-01 9.314067e-01 9.349908e-01 9.324042e-01 9.325303e-01 9.347320e-01 9.346745e-01 9.342343e-01 9.352114e-01 9.349105e-01 9.354652e-01 9.352876e-01 9.350353e-01 9.436834e-01 9.368995e-01 9.334359e-01 9.313149e-01 9.313983e-01 9.317325e-01 9.324038e-01 9.321494e-01 9.326612e-01 9.334978e-01 9.336509e-01 9.338971e-01 9.340385e-01 9.427497e-01 9.360191e-01 9.329336e-01 9.318833e-01 9.324108e-01 9.328462e-01 9.331754e-01 9.333328e-01 9.337040e-01 9.343483e-01 9.344560e-01 9.347429e-01 9.347374e-01 9.422944e-01 9.346341e-01 9.323958e-01 9.316312e-01 9.321941e-01 9.328819e-01 9.334224e-01 9.334534e-01 9.338822e-01 9.345195e-01 9.345480e-01 9.349996e-01 9.349947e-01
<GCONST> 9.205941e+01
<STATE> 3
<MEAN> 52
 -3.729040e-03 -1.718965e-03 2.374972e-04 -1.147292e-03 1.009115e-03 1.175998e-03 8.588549e-04 5.166401e-04 -3.641660e-04 6.602512e-05 -4.473297e-04 2.151181e-04 -4.907421e-04 6.679568e-06 -1.291769e-05 -2.325415e-05 -2.236936e-05 -2.424047e-06 -2.829819e-05 2.237298e-05 1.049639e-05 2.212038e-05 5.871479e-06 1.907673e-06 1.127699e-05 1.015769e-05 7.303254e-06 1.279666e-05 -4.595048e-06 -3.346567e-06 6.566364e-06 4.666854e-06 -1.227315e-06 -1.228079e-05 -9.468979e-06 -4.573979e-06 -7.362554e-06 -1.728622e-05 -9.890653e-06 -6.213594e-06 2.042331e-06 7.292439e-06 5.534826e-06 7.465372e-06 6.674824e-06 -1.077696e-05 -1.209134e-05 -1.318496e-05 6.708799e-06 -1.116164e-07 1.932981e-06 -9.400179e-06
<VARIANCE> 52
 9.613734e-01 9.314067e-01 9.349908e-01 9.324042e-01 9.325303e-01 9.347320e-01 9.346745e-01 9.342343e-01 9.352114e-01 9.349105e-01 9.354652e-01 9.352876e-01 9.350353e-01 9.436834e-01 9.368995e-01 9.334359e-01 9.313149e-01 9.313983e-01 9.317325e-01 9.324038e-01 9.321494e-01 9.326612e-01 9.334978e-01 9.336509e-01 9.338971e-01 9.340385e-01 9.427497e-01 9.360191e-01 9.329336e-01 9.318833e-01 9.324108e-01 9.328462e-01 9.331754e-01 9.333328e-01 9.337040e-01 9.343483e-01 9.344560e-01 9.347429e-01 9.347374e-01 9.422944e-01 9.346341e-01 9.323958e-01 9.316312e-01 9.321941e-01 9.328819e-01 9.334224e-01 9.334534e-01 9.338822e-01 9.345195e-01 9.345480e-01 9.349996e-01 9.349947e-01
<GCONST> 9.205941e+01
<STATE> 4
<MEAN> 52
 -3.729040e-03 -1.718965e-03 2.374972e-04 -1.147292e-03 1.009115e-03 1.175998e-03 8.588549e-04 5.166401e-04 -3.641660e-04 6.602512e-05 -4.473297e-04 2.151181e-04 -4.907421e-04 6.679568e-06 -1.291769e-05 -2.325415e-05 -2.236936e-05 -2.424047e-06 -2.829819e-05 2.237298e-05 1.049639e-05 2.212038e-05 5.871479e-06 1.907673e-06 1.127699e-05 1.015769e-05 7.303254e-06 1.279666e-05 -4.595048e-06 -3.346567e-06 6.566364e-06 4.666854e-06 -1.227315e-06 -1.228079e-05 -9.468979e-06 -4.573979e-06 -7.362554e-06 -1.728622e-05 -9.890653e-06 -6.213594e-06 2.042331e-06 7.292439e-06 5.534826e-06 7.465372e-06 6.674824e-06 -1.077696e-05 -1.209134e-05 -1.318496e-05 6.708799e-06 -1.116164e-07 1.932981e-06 -9.400179e-06
<VARIANCE> 52
 9.613734e-01 9.314067e-01 9.349908e-01 9.324042e-01 9.325303e-01 9.347320e-01 9.346745e-01 9.342343e-01 9.352114e-01 9.349105e-01 9.354652e-01 9.352876e-01 9.350353e-01 9.436834e-01 9.368995e-01 9.334359e-01 9.313149e-01 9.313983e-01 9.317325e-01 9.324038e-01 9.321494e-01 9.326612e-01 9.334978e-01 9.336509e-01 9.338971e-01 9.340385e-01 9.427497e-01 9.360191e-01 9.329336e-01 9.318833e-01 9.324108e-01 9.328462e-01 9.331754e-01 9.333328e-01 9.337040e-01 9.343483e-01 9.344560e-01 9.347429e-01 9.347374e-01 9.422944e-01 9.346341e-01 9.323958e-01 9.316312e-01 9.321941e-01 9.328819e-01 9.334224e-01 9.334534e-01 9.338822e-01 9.345195e-01 9.345480e-01 9.349996e-01 9.349947e-01
<GCONST> 9.205941e+01
<TRANSP> 5
 0.000000e+00 1.000000e+00 0.000000e+00 0.000000e+00 0.000000e+00
 0.000000e+00 6.000000e-01 4.000000e-01 0.000000e+00 0.000000e+00
 0.000000e+00 0.000000e+00 6.000000e-01 4.000000e-01 0.000000e+00
 0.000000e+00 0.000000e+00 0.000000e+00 6.000000e-01 4.000000e-01
 0.000000e+00 0.000000e+00 0.000000e+00 0.000000e+00 0.000000e+00
<ENDHMM>
~h "o"
<BEGINHMM>
<NUMSTATES> 5
<STATE> 2
<MEAN> 52
 -3.729040e-03 -1.718965e-03 2.374972e-04 -1.147292e-03 1.009115e-03 1.175998e-03 8.588549e-04 5.166401e-04 -3.641660e-04 6.602512e-05 -4.473297e-04 2.151181e-04 -4.907421e-04 6.679568e-06 -1.291769e-05 -2.325415e-05 -2.236936e-05 -2.424047e-06 -2.829819e-05 2.237298e-05 1.049639e-05 2.212038e-05 5.871479e-06 1.907673e-06 1.127699e-05 1.015769e-05 7.303254e-06 1.279666e-05 -4.595048e-06 -3.346567e-06 6.566364e-06 4.666854e-06 -1.227315e-06 -1.228079e-05 -9.468979e-06 -4.573979e-06 -7.362554e-06 -1.728622e-05 -9.890653e-06 -6.213594e-06 2.042331e-06 7.292439e-06 5.534826e-06 7.465372e-06 6.674824e-06 -1.077696e-05 -1.209134e-05 -1.318496e-05 6.708799e-06 -1.116164e-07 1.932981e-06 -9.400179e-06
<VARIANCE> 52
 9.613734e-01 9.314067e-01 9.349908e-01 9.324042e-01 9.325303e-01 9.347320e-01 9.346745e-01 9.342343e-01 9.352114e-01 9.349105e-01 9.354652e-01 9.352876e-01 9.350353e-01 9.436834e-01 9.368995e-01 9.334359e-01 9.313149e-01 9.313983e-01 9.317325e-01 9.324038e-01 9.321494e-01 9.326612e-01 9.334978e-01 9.336509e-01 9.338971e-01 9.340385e-01 9.427497e-01 9.360191e-01 9.329336e-01 9.318833e-01 9.324108e-01 9.328462e-01 9.331754e-01 9.333328e-01 9.337040e-01 9.343483e-01 9.344560e-01 9.347429e-01 9.347374e-01 9.422944e-01 9.346341e-01 9.323958e-01 9.316312e-01 9.321941e-01 9.328819e-01 9.334224e-01 9.334534e-01 9.338822e-01 9.345195e-01 9.345480e-01 9.349996e-01 9.349947e-01
<GCONST> 9.205941e+01
<STATE> 3
<MEAN> 52
 -3.729040e-03 -1.718965e-03 2.374972e-04 -1.147292e-03 1.009115e-03 1.175998e-03 8.588549e-04 5.166401e-04 -3.641660e-04 6.602512e-05 -4.473297e-04 2.151181e-04 -4.907421e-04 6.679568e-06 -1.291769e-05 -2.325415e-05 -2.236936e-05 -2.424047e-06 -2.829819e-05 2.237298e-05 1.049639e-05 2.212038e-05 5.871479e-06 1.907673e-06 1.127699e-05 1.015769e-05 7.303254e-06 1.279666e-05 -4.595048e-06 -3.346567e-06 6.566364e-06 4.666854e-06 -1.227315e-06 -1.228079e-05 -9.468979e-06 -4.573979e-06 -7.362554e-06 -1.728622e-05 -9.890653e-06 -6.213594e-06 2.042331e-06 7.292439e-06 5.534826e-06 7.465372e-06 6.674824e-06 -1.077696e-05 -1.209134e-05 -1.318496e-05 6.708799e-06 -1.116164e-07 1.932981e-06 -9.400179e-06
<VARIANCE> 52
 9.613734e-01 9.314067e-01 9.349908e-01 9.324042e-01 9.325303e-01 9.347320e-01 9.346745e-01 9.342343e-01 9.352114e-01 9.349105e-01 9.354652e-01 9.352876e-01 9.350353e-01 9.436834e-01 9.368995e-01 9.334359e-01 9.313149e-01 9.313983e-01 9.317325e-01 9.324038e-01 9.321494e-01 9.326612e-01 9.334978e-01 9.336509e-01 9.338971e-01 9.340385e-01 9.427497e-01 9.360191e-01 9.329336e-01 9.318833e-01 9.324108e-01 9.328462e-01 9.331754e-01 9.333328e-01 9.337040e-01 9.343483e-01 9.344560e-01 9.347429e-01 9.347374e-01 9.422944e-01 9.346341e-01 9.323958e-01 9.316312e-01 9.321941e-01 9.328819e-01 9.334224e-01 9.334534e-01 9.338822e-01 9.345195e-01 9.345480e-01 9.349996e-01 9.349947e-01
<GCONST> 9.205941e+01
<STATE> 4
<MEAN> 52
 -3.729040e-03 -1.718965e-03 2.374972e-04 -1.147292e-03 1.009115e-03 1.175998e-03 8.588549e-04 5.166401e-04 -3.641660e-04 6.602512e-05 -4.473297e-04 2.151181e-04 -4.907421e-04 6.679568e-06 -1.291769e-05 -2.325415e-05 -2.236936e-05 -2.424047e-06 -2.829819e-05 2.237298e-05 1.049639e-05 2.212038e-05 5.871479e-06 1.907673e-06 1.127699e-05 1.015769e-05 7.303254e-06 1.279666e-05 -4.595048e-06 -3.346567e-06 6.566364e-06 4.666854e-06 -1.227315e-06 -1.228079e-05 -9.468979e-06 -4.573979e-06 -7.362554e-06 -1.728622e-05 -9.890653e-06 -6.213594e-06 2.042331e-06 7.292439e-06 5.534826e-06 7.465372e-06 6.674824e-06 -1.077696e-05 -1.209134e-05 -1.318496e-05 6.708799e-06 -1.116164e-07 1.932981e-06 -9.400179e-06
<VARIANCE> 52
 9.613734e-01 9.314067e-01 9.349908e-01 9.324042e-01 9.325303e-01 9.347320e-01 9.346745e-01 9.342343e-01 9.352114e-01 9.349105e-01 9.354652e-01 9.352876e-01 9.350353e-01 9.436834e-01 9.368995e-01 9.334359e-01 9.313149e-01 9.313983e-01 9.317325e-01 9.324038e-01 9.321494e-01 9.326612e-01 9.334978e-01 9.336509e-01 9.338971e-01 9.340385e-01 9.427497e-01 9.360191e-01 9.329336e-01 9.318833e-01 9.324108e-01 9.328462e-01 9.331754e-01 9.333328e-01 9.337040e-01 9.343483e-01 9.344560e-01 9.347429e-01 9.347374e-01 9.422944e-01 9.346341e-01 9.323958e-01 9.316312e-01 9.321941e-01 9.328819e-01 9.334224e-01 9.334534e-01 9.338822e-01 9.345195e-01 9.345480e-01 9.349996e-01 9.349947e-01
<GCONST> 9.205941e+01
<TRANSP> 5
 0.000000e+00 1.000000e+00 0.000000e+00 0.000000e+00 0.000000e+00
 0.000000e+00 6.000000e-01 4.000000e-01 0.000000e+00 0.000000e+00
 0.000000e+00 0.000000e+00 6.000000e-01 4.000000e-01 0.000000e+00
 0.000000e+00 0.000000e+00 0.000000e+00 6.000000e-01 4.000000e-01
 0.000000e+00 0.000000e+00 0.000000e+00 0.000000e+00 0.000000e+00
<ENDHMM>
~h "sil"
<BEGINHMM>
<NUMSTATES> 5
<STATE> 2
<MEAN> 52
 -3.729040e-03 -1.718965e-03 2.374972e-04 -1.147292e-03 1.009115e-03 1.175998e-03 8.588549e-04 5.166401e-04 -3.641660e-04 6.602512e-05 -4.473297e-04 2.151181e-04 -4.907421e-04 6.679568e-06 -1.291769e-05 -2.325415e-05 -2.236936e-05 -2.424047e-06 -2.829819e-05 2.237298e-05 1.049639e-05 2.212038e-05 5.871479e-06 1.907673e-06 1.127699e-05 1.015769e-05 7.303254e-06 1.279666e-05 -4.595048e-06 -3.346567e-06 6.566364e-06 4.666854e-06 -1.227315e-06 -1.228079e-05 -9.468979e-06 -4.573979e-06 -7.362554e-06 -1.728622e-05 -9.890653e-06 -6.213594e-06 2.042331e-06 7.292439e-06 5.534826e-06 7.465372e-06 6.674824e-06 -1.077696e-05 -1.209134e-05 -1.318496e-05 6.708799e-06 -1.116164e-07 1.932981e-06 -9.400179e-06
<VARIANCE> 52
 9.613734e-01 9.314067e-01 9.349908e-01 9.324042e-01 9.325303e-01 9.347320e-01 9.346745e-01 9.342343e-01 9.352114e-01 9.349105e-01 9.354652e-01 9.352876e-01 9.350353e-01 9.436834e-01 9.368995e-01 9.334359e-01 9.313149e-01 9.313983e-01 9.317325e-01 9.324038e-01 9.321494e-01 9.326612e-01 9.334978e-01 9.336509e-01 9.338971e-01 9.340385e-01 9.427497e-01 9.360191e-01 9.329336e-01 9.318833e-01 9.324108e-01 9.328462e-01 9.331754e-01 9.333328e-01 9.337040e-01 9.343483e-01 9.344560e-01 9.347429e-01 9.347374e-01 9.422944e-01 9.346341e-01 9.323958e-01 9.316312e-01 9.321941e-01 9.328819e-01 9.334224e-01 9.334534e-01 9.338822e-01 9.345195e-01 9.345480e-01 9.349996e-01 9.349947e-01
<GCONST> 9.205941e+01
<STATE> 3
<MEAN> 52
 -3.729040e-03 -1.718965e-03 2.374972e-04 -1.147292e-03 1.009115e-03 1.175998e-03 8.588549e-04 5.166401e-04 -3.641660e-04 6.602512e-05 -4.473297e-04 2.151181e-04 -4.907421e-04 6.679568e-06 -1.291769e-05 -2.325415e-05 -2.236936e-05 -2.424047e-06 -2.829819e-05 2.237298e-05 1.049639e-05 2.212038e-05 5.871479e-06 1.907673e-06 1.127699e-05 1.015769e-05 7.303254e-06 1.279666e-05 -4.595048e-06 -3.346567e-06 6.566364e-06 4.666854e-06 -1.227315e-06 -1.228079e-05 -9.468979e-06 -4.573979e-06 -7.362554e-06 -1.728622e-05 -9.890653e-06 -6.213594e-06 2.042331e-06 7.292439e-06 5.534826e-06 7.465372e-06 6.674824e-06 -1.077696e-05 -1.209134e-05 -1.318496e-05 6.708799e-06 -1.116164e-07 1.932981e-06 -9.400179e-06
<VARIANCE> 52
 9.613734e-01 9.314067e-01 9.349908e-01 9.324042e-01 9.325303e-01 9.347320e-01 9.346745e-01 9.342343e-01 9.352114e-01 9.349105e-01 9.354652e-01 9.352876e-01 9.350353e-01 9.436834e-01 9.368995e-01 9.334359e-01 9.313149e-01 9.313983e-01 9.317325e-01 9.324038e-01 9.321494e-01 9.326612e-01 9.334978e-01 9.336509e-01 9.338971e-01 9.340385e-01 9.427497e-01 9.360191e-01 9.329336e-01 9.318833e-01 9.324108e-01 9.328462e-01 9.331754e-01 9.333328e-01 9.337040e-01 9.343483e-01 9.344560e-01 9.347429e-01 9.347374e-01 9.422944e-01 9.346341e-01 9.323958e-01 9.316312e-01 9.321941e-01 9.328819e-01 9.334224e-01 9.334534e-01 9.338822e-01 9.345195e-01 9.345480e-01 9.349996e-01 9.349947e-01
<GCONST> 9.205941e+01
<STATE> 4
<MEAN> 52
 -3.729040e-03 -1.718965e-03 2.374972e-04 -1.147292e-03 1.009115e-03 1.175998e-03 8.588549e-04 5.166401e-04 -3.641660e-04 6.602512e-05 -4.473297e-04 2.151181e-04 -4.907421e-04 6.679568e-06 -1.291769e-05 -2.325415e-05 -2.236936e-05 -2.424047e-06 -2.829819e-05 2.237298e-05 1.049639e-05 2.212038e-05 5.871479e-06 1.907673e-06 1.127699e-05 1.015769e-05 7.303254e-06 1.279666e-05 -4.595048e-06 -3.346567e-06 6.566364e-06 4.666854e-06 -1.227315e-06 -1.228079e-05 -9.468979e-06 -4.573979e-06 -7.362554e-06 -1.728622e-05 -9.890653e-06 -6.213594e-06 2.042331e-06 7.292439e-06 5.534826e-06 7.465372e-06 6.674824e-06 -1.077696e-05 -1.209134e-05 -1.318496e-05 6.708799e-06 -1.116164e-07 1.932981e-06 -9.400179e-06
<VARIANCE> 52
 9.613734e-01 9.314067e-01 9.349908e-01 9.324042e-01 9.325303e-01 9.347320e-01 9.346745e-01 9.342343e-01 9.352114e-01 9.349105e-01 9.354652e-01 9.352876e-01 9.350353e-01 9.436834e-01 9.368995e-01 9.334359e-01 9.313149e-01 9.313983e-01 9.317325e-01 9.324038e-01 9.321494e-01 9.326612e-01 9.334978e-01 9.336509e-01 9.338971e-01 9.340385e-01 9.427497e-01 9.360191e-01 9.329336e-01 9.318833e-01 9.324108e-01 9.328462e-01 9.331754e-01 9.333328e-01 9.337040e-01 9.343483e-01 9.344560e-01 9.347429e-01 9.347374e-01 9.422944e-01 9.346341e-01 9.323958e-01 9.316312e-01 9.321941e-01 9.328819e-01 9.334224e-01 9.334534e-01 9.338822e-01 9.345195e-01 9.345480e-01 9.349996e-01 9.349947e-01
<GCONST> 9.205941e+01
<TRANSP> 5
 0.000000e+00 1.000000e+00 0.000000e+00 0.000000e+00 0.000000e+00
 0.000000e+00 6.000000e-01 4.000000e-01 0.000000e+00 0.000000e+00
 0.000000e+00 0.000000e+00 6.000000e-01 4.000000e-01 0.000000e+00
 0.000000e+00 0.000000e+00 0.000000e+00 6.000000e-01 4.000000e-01
 0.000000e+00 0.000000e+00 0.000000e+00 0.000000e+00 0.000000e+00
<ENDHMM>
~h "t"
<BEGINHMM>
<NUMSTATES> 5
<STATE> 2
<MEAN> 52
 -3.729040e-03 -1.718965e-03 2.374972e-04 -1.147292e-03 1.009115e-03 1.175998e-03 8.588549e-04 5.166401e-04 -3.641660e-04 6.602512e-05 -4.473297e-04 2.151181e-04 -4.907421e-04 6.679568e-06 -1.291769e-05 -2.325415e-05 -2.236936e-05 -2.424047e-06 -2.829819e-05 2.237298e-05 1.049639e-05 2.212038e-05 5.871479e-06 1.907673e-06 1.127699e-05 1.015769e-05 7.303254e-06 1.279666e-05 -4.595048e-06 -3.346567e-06 6.566364e-06 4.666854e-06 -1.227315e-06 -1.228079e-05 -9.468979e-06 -4.573979e-06 -7.362554e-06 -1.728622e-05 -9.890653e-06 -6.213594e-06 2.042331e-06 7.292439e-06 5.534826e-06 7.465372e-06 6.674824e-06 -1.077696e-05 -1.209134e-05 -1.318496e-05 6.708799e-06 -1.116164e-07 1.932981e-06 -9.400179e-06
<VARIANCE> 52
 9.613734e-01 9.314067e-01 9.349908e-01 9.324042e-01 9.325303e-01 9.347320e-01 9.346745e-01 9.342343e-01 9.352114e-01 9.349105e-01 9.354652e-01 9.352876e-01 9.350353e-01 9.436834e-01 9.368995e-01 9.334359e-01 9.313149e-01 9.313983e-01 9.317325e-01 9.324038e-01 9.321494e-01 9.326612e-01 9.334978e-01 9.336509e-01 9.338971e-01 9.340385e-01 9.427497e-01 9.360191e-01 9.329336e-01 9.318833e-01 9.324108e-01 9.328462e-01 9.331754e-01 9.333328e-01 9.337040e-01 9.343483e-01 9.344560e-01 9.347429e-01 9.347374e-01 9.422944e-01 9.346341e-01 9.323958e-01 9.316312e-01 9.321941e-01 9.328819e-01 9.334224e-01 9.334534e-01 9.338822e-01 9.345195e-01 9.345480e-01 9.349996e-01 9.349947e-01
<GCONST> 9.205941e+01
<STATE> 3
<MEAN> 52
 -3.729040e-03 -1.718965e-03 2.374972e-04 -1.147292e-03 1.009115e-03 1.175998e-03 8.588549e-04 5.166401e-04 -3.641660e-04 6.602512e-05 -4.473297e-04 2.151181e-04 -4.907421e-04 6.679568e-06 -1.291769e-05 -2.325415e-05 -2.236936e-05 -2.424047e-06 -2.829819e-05 2.237298e-05 1.049639e-05 2.212038e-05 5.871479e-06 1.907673e-06 1.127699e-05 1.015769e-05 7.303254e-06 1.279666e-05 -4.595048e-06 -3.346567e-06 6.566364e-06 4.666854e-06 -1.227315e-06 -1.228079e-05 -9.468979e-06 -4.573979e-06 -7.362554e-06 -1.728622e-05 -9.890653e-06 -6.213594e-06 2.042331e-06 7.292439e-06 5.534826e-06 7.465372e-06 6.674824e-06 -1.077696e-05 -1.209134e-05 -1.318496e-05 6.708799e-06 -1.116164e-07 1.932981e-06 -9.400179e-06
<VARIANCE> 52
 9.613734e-01 9.314067e-01 9.349908e-01 9.324042e-01 9.325303e-01 9.347320e-01 9.346745e-01 9.342343e-01 9.352114e-01 9.349105e-01 9.354652e-01 9.352876e-01 9.350353e-01 9.436834e-01 9.368995e-01 9.334359e-01 9.313149e-01 9.313983e-01 9.317325e-01 9.324038e-01 9.321494e-01 9.326612e-01 9.334978e-01 9.336509e-01 9.338971e-01 9.340385e-01 9.427497e-01 9.360191e-01 9.329336e-01 9.318833e-01 9.324108e-01 9.328462e-01 9.331754e-01 9.333328e-01 9.337040e-01 9.343483e-01 9.344560e-01 9.347429e-01 9.347374e-01 9.422944e-01 9.346341e-01 9.323958e-01 9.316312e-01 9.321941e-01 9.328819e-01 9.334224e-01 9.334534e-01 9.338822e-01 9.345195e-01 9.345480e-01 9.349996e-01 9.349947e-01
<GCONST> 9.205941e+01
<STATE> 4
<MEAN> 52
 -3.729040e-03 -1.718965e-03 2.374972e-04 -1.147292e-03 1.009115e-03 1.175998e-03 8.588549e-04 5.166401e-04 -3.641660e-04 6.602512e-05 -4.473297e-04 2.151181e-04 -4.907421e-04 6.679568e-06 -1.291769e-05 -2.325415e-05 -2.236936e-05 -2.424047e-06 -2.829819e-05 2.237298e-05 1.049639e-05 2.212038e-05 5.871479e-06 1.907673e-06 1.127699e-05 1.015769e-05 7.303254e-06 1.279666e-05 -4.595048e-06 -3.346567e-06 6.566364e-06 4.666854e-06 -1.227315e-06 -1.228079e-05 -9.468979e-06 -4.573979e-06 -7.362554e-06 -1.728622e-05 -9.890653e-06 -6.213594e-06 2.042331e-06 7.292439e-06 5.534826e-06 7.465372e-06 6.674824e-06 -1.077696e-05 -1.209134e-05 -1.318496e-05 6.708799e-06 -1.116164e-07 1.932981e-06 -9.400179e-06
<VARIANCE> 52
 9.613734e-01 9.314067e-01 9.349908e-01 9.324042e-01 9.325303e-01 9.347320e-01 9.346745e-01 9.342343e-01 9.352114e-01 9.349105e-01 9.354652e-01 9.352876e-01 9.350353e-01 9.436834e-01 9.368995e-01 9.334359e-01 9.313149e-01 9.313983e-01 9.317325e-01 9.324038e-01 9.321494e-01 9.326612e-01 9.334978e-01 9.336509e-01 9.338971e-01 9.340385e-01 9.427497e-01 9.360191e-01 9.329336e-01 9.318833e-01 9.324108e-01 9.328462e-01 9.331754e-01 9.333328e-01 9.337040e-01 9.343483e-01 9.344560e-01 9.347429e-01 9.347374e-01 9.422944e-01 9.346341e-01 9.323958e-01 9.316312e-01 9.321941e-01 9.328819e-01 9.334224e-01 9.334534e-01 9.338822e-01 9.345195e-01 9.345480e-01 9.349996e-01 9.349947e-01
<GCONST> 9.205941e+01
<TRANSP> 5
 0.000000e+00 1.000000e+00 0.000000e+00 0.000000e+00 0.000000e+00
 0.000000e+00 6.000000e-01 4.000000e-01 0.000000e+00 0.000000e+00
 0.000000e+00 0.000000e+00 6.000000e-01 4.000000e-01 0.000000e+00
 0.000000e+00 0.000000e+00 0.000000e+00 6.000000e-01 4.000000e-01
 0.000000e+00 0.000000e+00 0.000000e+00 0.000000e+00 0.000000e+00
<ENDHMM>
~h "rf"
<BEGINHMM>
<NUMSTATES> 5
<STATE> 2
<MEAN> 52
 -3.729040e-03 -1.718965e-03 2.374972e-04 -1.147292e-03 1.009115e-03 1.175998e-03 8.588549e-04 5.166401e-04 -3.641660e-04 6.602512e-05 -4.473297e-04 2.151181e-04 -4.907421e-04 6.679568e-06 -1.291769e-05 -2.325415e-05 -2.236936e-05 -2.424047e-06 -2.829819e-05 2.237298e-05 1.049639e-05 2.212038e-05 5.871479e-06 1.907673e-06 1.127699e-05 1.015769e-05 7.303254e-06 1.279666e-05 -4.595048e-06 -3.346567e-06 6.566364e-06 4.666854e-06 -1.227315e-06 -1.228079e-05 -9.468979e-06 -4.573979e-06 -7.362554e-06 -1.728622e-05 -9.890653e-06 -6.213594e-06 2.042331e-06 7.292439e-06 5.534826e-06 7.465372e-06 6.674824e-06 -1.077696e-05 -1.209134e-05 -1.318496e-05 6.708799e-06 -1.116164e-07 1.932981e-06 -9.400179e-06
<VARIANCE> 52
 9.613734e-01 9.314067e-01 9.349908e-01 9.324042e-01 9.325303e-01 9.347320e-01 9.346745e-01 9.342343e-01 9.352114e-01 9.349105e-01 9.354652e-01 9.352876e-01 9.350353e-01 9.436834e-01 9.368995e-01 9.334359e-01 9.313149e-01 9.313983e-01 9.317325e-01 9.324038e-01 9.321494e-01 9.326612e-01 9.334978e-01 9.336509e-01 9.338971e-01 9.340385e-01 9.427497e-01 9.360191e-01 9.329336e-01 9.318833e-01 9.324108e-01 9.328462e-01 9.331754e-01 9.333328e-01 9.337040e-01 9.343483e-01 9.344560e-01 9.347429e-01 9.347374e-01 9.422944e-01 9.346341e-01 9.323958e-01 9.316312e-01 9.321941e-01 9.328819e-01 9.334224e-01 9.334534e-01 9.338822e-01 9.345195e-01 9.345480e-01 9.349996e-01 9.349947e-01
<GCONST> 9.205941e+01
<STATE> 3
<MEAN> 52
 -3.729040e-03 -1.718965e-03 2.374972e-04 -1.147292e-03 1.009115e-03 1.175998e-03 8.588549e-04 5.166401e-04 -3.641660e-04 6.602512e-05 -4.473297e-04 2.151181e-04 -4.907421e-04 6.679568e-06 -1.291769e-05 -2.325415e-05 -2.236936e-05 -2.424047e-06 -2.829819e-05 2.237298e-05 1.049639e-05 2.212038e-05 5.871479e-06 1.907673e-06 1.127699e-05 1.015769e-05 7.303254e-06 1.279666e-05 -4.595048e-06 -3.346567e-06 6.566364e-06 4.666854e-06 -1.227315e-06 -1.228079e-05 -9.468979e-06 -4.573979e-06 -7.362554e-06 -1.728622e-05 -9.890653e-06 -6.213594e-06 2.042331e-06 7.292439e-06 5.534826e-06 7.465372e-06 6.674824e-06 -1.077696e-05 -1.209134e-05 -1.318496e-05 6.708799e-06 -1.116164e-07 1.932981e-06 -9.400179e-06
<VARIANCE> 52
 9.613734e-01 9.314067e-01 9.349908e-01 9.324042e-01 9.325303e-01 9.347320e-01 9.346745e-01 9.342343e-01 9.352114e-01 9.349105e-01 9.354652e-01 9.352876e-01 9.350353e-01 9.436834e-01 9.368995e-01 9.334359e-01 9.313149e-01 9.313983e-01 9.317325e-01 9.324038e-01 9.321494e-01 9.326612e-01 9.334978e-01 9.336509e-01 9.338971e-01 9.340385e-01 9.427497e-01 9.360191e-01 9.329336e-01 9.318833e-01 9.324108e-01 9.328462e-01 9.331754e-01 9.333328e-01 9.337040e-01 9.343483e-01 9.344560e-01 9.347429e-01 9.347374e-01 9.422944e-01 9.346341e-01 9.323958e-01 9.316312e-01 9.321941e-01 9.328819e-01 9.334224e-01 9.334534e-01 9.338822e-01 9.345195e-01 9.345480e-01 9.349996e-01 9.349947e-01
<GCONST> 9.205941e+01
<STATE> 4
<MEAN> 52
 -3.729040e-03 -1.718965e-03 2.374972e-04 -1.147292e-03 1.009115e-03 1.175998e-03 8.588549e-04 5.166401e-04 -3.641660e-04 6.602512e-05 -4.473297e-04 2.151181e-04 -4.907421e-04 6.679568e-06 -1.291769e-05 -2.325415e-05 -2.236936e-05 -2.424047e-06 -2.829819e-05 2.237298e-05 1.049639e-05 2.212038e-05 5.871479e-06 1.907673e-06 1.127699e-05 1.015769e-05 7.303254e-06 1.279666e-05 -4.595048e-06 -3.346567e-06 6.566364e-06 4.666854e-06 -1.227315e-06 -1.228079e-05 -9.468979e-06 -4.573979e-06 -7.362554e-06 -1.728622e-05 -9.890653e-06 -6.213594e-06 2.042331e-06 7.292439e-06 5.534826e-06 7.465372e-06 6.674824e-06 -1.077696e-05 -1.209134e-05 -1.318496e-05 6.708799e-06 -1.116164e-07 1.932981e-06 -9.400179e-06
<VARIANCE> 52
 9.613734e-01 9.314067e-01 9.349908e-01 9.324042e-01 9.325303e-01 9.347320e-01 9.346745e-01 9.342343e-01 9.352114e-01 9.349105e-01 9.354652e-01 9.352876e-01 9.350353e-01 9.436834e-01 9.368995e-01 9.334359e-01 9.313149e-01 9.313983e-01 9.317325e-01 9.324038e-01 9.321494e-01 9.326612e-01 9.334978e-01 9.336509e-01 9.338971e-01 9.340385e-01 9.427497e-01 9.360191e-01 9.329336e-01 9.318833e-01 9.324108e-01 9.328462e-01 9.331754e-01 9.333328e-01 9.337040e-01 9.343483e-01 9.344560e-01 9.347429e-01 9.347374e-01 9.422944e-01 9.346341e-01 9.323958e-01 9.316312e-01 9.321941e-01 9.328819e-01 9.334224e-01 9.334534e-01 9.338822e-01 9.345195e-01 9.345480e-01 9.349996e-01 9.349947e-01
<GCONST> 9.205941e+01
<TRANSP> 5
 0.000000e+00 1.000000e+00 0.000000e+00 0.000000e+00 0.000000e+00
 0.000000e+00 6.000000e-01 4.000000e-01 0.000000e+00 0.000000e+00
 0.000000e+00 0.000000e+00 6.000000e-01 4.000000e-01 0.000000e+00
 0.000000e+00 0.000000e+00 0.000000e+00 6.000000e-01 4.000000e-01
 0.000000e+00 0.000000e+00 0.000000e+00 0.000000e+00 0.000000e+00
<ENDHMM>
~h "s"
<BEGINHMM>
<NUMSTATES> 5
<STATE> 2
<MEAN> 52
 -3.729040e-03 -1.718965e-03 2.374972e-04 -1.147292e-03 1.009115e-03 1.175998e-03 8.588549e-04 5.166401e-04 -3.641660e-04 6.602512e-05 -4.473297e-04 2.151181e-04 -4.907421e-04 6.679568e-06 -1.291769e-05 -2.325415e-05 -2.236936e-05 -2.424047e-06 -2.829819e-05 2.237298e-05 1.049639e-05 2.212038e-05 5.871479e-06 1.907673e-06 1.127699e-05 1.015769e-05 7.303254e-06 1.279666e-05 -4.595048e-06 -3.346567e-06 6.566364e-06 4.666854e-06 -1.227315e-06 -1.228079e-05 -9.468979e-06 -4.573979e-06 -7.362554e-06 -1.728622e-05 -9.890653e-06 -6.213594e-06 2.042331e-06 7.292439e-06 5.534826e-06 7.465372e-06 6.674824e-06 -1.077696e-05 -1.209134e-05 -1.318496e-05 6.708799e-06 -1.116164e-07 1.932981e-06 -9.400179e-06
<VARIANCE> 52
 9.613734e-01 9.314067e-01 9.349908e-01 9.324042e-01 9.325303e-01 9.347320e-01 9.346745e-01 9.342343e-01 9.352114e-01 9.349105e-01 9.354652e-01 9.352876e-01 9.350353e-01 9.436834e-01 9.368995e-01 9.334359e-01 9.313149e-01 9.313983e-01 9.317325e-01 9.324038e-01 9.321494e-01 9.326612e-01 9.334978e-01 9.336509e-01 9.338971e-01 9.340385e-01 9.427497e-01 9.360191e-01 9.329336e-01 9.318833e-01 9.324108e-01 9.328462e-01 9.331754e-01 9.333328e-01 9.337040e-01 9.343483e-01 9.344560e-01 9.347429e-01 9.347374e-01 9.422944e-01 9.346341e-01 9.323958e-01 9.316312e-01 9.321941e-01 9.328819e-01 9.334224e-01 9.334534e-01 9.338822e-01 9.345195e-01 9.345480e-01 9.349996e-01 9.349947e-01
<GCONST> 9.205941e+01
<STATE> 3
<MEAN> 52
 -3.729040e-03 -1.718965e-03 2.374972e-04 -1.147292e-03 1.009115e-03 1.175998e-03 8.588549e-04 5.166401e-04 -3.641660e-04 6.602512e-05 -4.473297e-04 2.151181e-04 -4.907421e-04 6.679568e-06 -1.291769e-05 -2.325415e-05 -2.236936e-05 -2.424047e-06 -2.829819e-05 2.237298e-05 1.049639e-05 2.212038e-05 5.871479e-06 1.907673e-06 1.127699e-05 1.015769e-05 7.303254e-06 1.279666e-05 -4.595048e-06 -3.346567e-06 6.566364e-06 4.666854e-06 -1.227315e-06 -1.228079e-05 -9.468979e-06 -4.573979e-06 -7.362554e-06 -1.728622e-05 -9.890653e-06 -6.213594e-06 2.042331e-06 7.292439e-06 5.534826e-06 7.465372e-06 6.674824e-06 -1.077696e-05 -1.209134e-05 -1.318496e-05 6.708799e-06 -1.116164e-07 1.932981e-06 -9.400179e-06
<VARIANCE> 52
 9.613734e-01 9.314067e-01 9.349908e-01 9.324042e-01 9.325303e-01 9.347320e-01 9.346745e-01 9.342343e-01 9.352114e-01 9.349105e-01 9.354652e-01 9.352876e-01 9.350353e-01 9.436834e-01 9.368995e-01 9.334359e-01 9.313149e-01 9.313983e-01 9.317325e-01 9.324038e-01 9.321494e-01 9.326612e-01 9.334978e-01 9.336509e-01 9.338971e-01 9.340385e-01 9.427497e-01 9.360191e-01 9.329336e-01 9.318833e-01 9.324108e-01 9.328462e-01 9.331754e-01 9.333328e-01 9.337040e-01 9.343483e-01 9.344560e-01 9.347429e-01 9.347374e-01 9.422944e-01 9.346341e-01 9.323958e-01 9.316312e-01 9.321941e-01 9.328819e-01 9.334224e-01 9.334534e-01 9.338822e-01 9.345195e-01 9.345480e-01 9.349996e-01 9.349947e-01
<GCONST> 9.205941e+01
<STATE> 4
<MEAN> 52
 -3.729040e-03 -1.718965e-03 2.374972e-04 -1.147292e-03 1.009115e-03 1.175998e-03 8.588549e-04 5.166401e-04 -3.641660e-04 6.602512e-05 -4.473297e-04 2.151181e-04 -4.907421e-04 6.679568e-06 -1.291769e-05 -2.325415e-05 -2.236936e-05 -2.424047e-06 -2.829819e-05 2.237298e-05 1.049639e-05 2.212038e-05 5.871479e-06 1.907673e-06 1.127699e-05 1.015769e-05 7.303254e-06 1.279666e-05 -4.595048e-06 -3.346567e-06 6.566364e-06 4.666854e-06 -1.227315e-06 -1.228079e-05 -9.468979e-06 -4.573979e-06 -7.362554e-06 -1.728622e-05 -9.890653e-06 -6.213594e-06 2.042331e-06 7.292439e-06 5.534826e-06 7.465372e-06 6.674824e-06 -1.077696e-05 -1.209134e-05 -1.318496e-05 6.708799e-06 -1.116164e-07 1.932981e-06 -9.400179e-06
<VARIANCE> 52
 9.613734e-01 9.314067e-01 9.349908e-01 9.324042e-01 9.325303e-01 9.347320e-01 9.346745e-01 9.342343e-01 9.352114e-01 9.349105e-01 9.354652e-01 9.352876e-01 9.350353e-01 9.436834e-01 9.368995e-01 9.334359e-01 9.313149e-01 9.313983e-01 9.317325e-01 9.324038e-01 9.321494e-01 9.326612e-01 9.334978e-01 9.336509e-01 9.338971e-01 9.340385e-01 9.427497e-01 9.360191e-01 9.329336e-01 9.318833e-01 9.324108e-01 9.328462e-01 9.331754e-01 9.333328e-01 9.337040e-01 9.343483e-01 9.344560e-01 9.347429e-01 9.347374e-01 9.422944e-01 9.346341e-01 9.323958e-01 9.316312e-01 9.321941e-01 9.328819e-01 9.334224e-01 9.334534e-01 9.338822e-01 9.345195e-01 9.345480e-01 9.349996e-01 9.349947e-01
<GCONST> 9.205941e+01
<TRANSP> 5
 0.000000e+00 1.000000e+00 0.000000e+00 0.000000e+00 0.000000e+00
 0.000000e+00 6.000000e-01 4.000000e-01 0.000000e+00 0.000000e+00
 0.000000e+00 0.000000e+00 6.000000e-01 4.000000e-01 0.000000e+00
 0.000000e+00 0.000000e+00 0.000000e+00 6.000000e-01 4.000000e-01
 0.000000e+00 0.000000e+00 0.000000e+00 0.000000e+00 0.000000e+00
<ENDHMM>
~h "b"
<BEGINHMM>
<NUMSTATES> 5
<STATE> 2
<MEAN> 52
 -3.729040e-03 -1.718965e-03 2.374972e-04 -1.147292e-03 1.009115e-03 1.175998e-03 8.588549e-04 5.166401e-04 -3.641660e-04 6.602512e-05 -4.473297e-04 2.151181e-04 -4.907421e-04 6.679568e-06 -1.291769e-05 -2.325415e-05 -2.236936e-05 -2.424047e-06 -2.829819e-05 2.237298e-05 1.049639e-05 2.212038e-05 5.871479e-06 1.907673e-06 1.127699e-05 1.015769e-05 7.303254e-06 1.279666e-05 -4.595048e-06 -3.346567e-06 6.566364e-06 4.666854e-06 -1.227315e-06 -1.228079e-05 -9.468979e-06 -4.573979e-06 -7.362554e-06 -1.728622e-05 -9.890653e-06 -6.213594e-06 2.042331e-06 7.292439e-06 5.534826e-06 7.465372e-06 6.674824e-06 -1.077696e-05 -1.209134e-05 -1.318496e-05 6.708799e-06 -1.116164e-07 1.932981e-06 -9.400179e-06
<VARIANCE> 52
 9.613734e-01 9.314067e-01 9.349908e-01 9.324042e-01 9.325303e-01 9.347320e-01 9.346745e-01 9.342343e-01 9.352114e-01 9.349105e-01 9.354652e-01 9.352876e-01 9.350353e-01 9.436834e-01 9.368995e-01 9.334359e-01 9.313149e-01 9.313983e-01 9.317325e-01 9.324038e-01 9.321494e-01 9.326612e-01 9.334978e-01 9.336509e-01 9.338971e-01 9.340385e-01 9.427497e-01 9.360191e-01 9.329336e-01 9.318833e-01 9.324108e-01 9.328462e-01 9.331754e-01 9.333328e-01 9.337040e-01 9.343483e-01 9.344560e-01 9.347429e-01 9.347374e-01 9.422944e-01 9.346341e-01 9.323958e-01 9.316312e-01 9.321941e-01 9.328819e-01 9.334224e-01 9.334534e-01 9.338822e-01 9.345195e-01 9.345480e-01 9.349996e-01 9.349947e-01
<GCONST> 9.205941e+01
<STATE> 3
<MEAN> 52
