~h "h"
<BEGINHMM>
<NUMSTATES> 5
<STATE> 2
<MEAN> 52
 -3.928909e-03 -1.251800e-03 2.601621e-04 -1.194690e-03 8.614827e-04 8.729838e-04 9.349209e-04 9.407512e-04 -2.156951e-04 -4.031968e-04 -2.049800e-04 -1.594404e-04 -2.972024e-04 -6.544362e-06 -3.156039e-05 -5.761844e-06 -4.608382e-06 1.370457e-05 4.366641e-06 7.125273e-06 1.052795e-05 -1.137607e-05 -5.101011e-07 1.173869e-05 -2.364637e-05 -9.539937e-06 1.373644e-05 -2.921046e-06 -2.708454e-06 7.682145e-06 -3.515236e-06 -3.124023e-06 3.752837e-06 -4.075104e-06 1.802721e-05 2.644235e-05 -1.505167e-05 8.302392e-06 1.485029e-05 7.391595e-06 2.715955e-06 -7.215530e-06 3.965329e-06 6.266861e-06 -1.744573e-05 1.531286e-06 -7.161113e-06 1.160772e-05 2.764333e-06 -1.947445e-05 2.363016e-05 4.448353e-07
<VARIANCE> 52
 9.907958e-01 9.797300e-01 9.800076e-01 9.810079e-01 9.812015e-01 9.810901e-01 9.814525e-01 9.811684e-01 9.807274e-01 9.809045e-01 9.806848e-01 9.805481e-01 9.807691e-01 9.782448e-01 9.752258e-01 9.772111e-01 9.773075e-01 9.777610e-01 9.785333e-01 9.790564e-01 9.789323e-01 9.794664e-01 9.796516e-01 9.797617e-01 9.799102e-01 9.799184e-01 9.780480e-01 9.761671e-01 9.781318e-01 9.784687e-01 9.788004e-01 9.793463e-01 9.797241e-01 9.795389e-01 9.799467e-01 9.802538e-01 9.802153e-01 9.803718e-01 9.802892e-01 9.775596e-01 9.760468e-01 9.777378e-01 9.786642e-01 9.789072e-01 9.794644e-01 9.797841e-01 9.796220e-01 9.799892e-01 9.803612e-01 9.803211e-01 9.805171e-01 9.804601e-01
<GCONST> 9.449834e+01
<STATE> 3
<MEAN> 52
 -3.928909e-03 -1.251800e-03 2.601621e-04 -1.194690e-03 8.614827e-04 8.729838e-04 9.349209e-04 9.407512e-04 -2.156951e-04 -4.031968e-04 -2.049800e-04 -1.594404e-04 -2.972024e-04 -6.544362e-06 -3.156039e-05 -5.761844e-06 -4.608382e-06 1.370457e-05 4.366641e-06 7.125273e-06 1.052795e-05 -1.137607e-05 -5.101011e-07 1.173869e-05 -2.364637e-05 -9.539937e-06 1.373644e-05 -2.921046e-06 -2.708454e-06 7.682145e-06 -3.515236e-06 -3.124023e-06 3.752837e-06 -4.075104e-06 1.802721e-05 2.644235e-05 -1.505167e-05 8.302392e-06 1.485029e-05 7.391595e-06 2.715955e-06 -7.215530e-06 3.965329e-06 6.266861e-06 -1.744573e-05 1.531286e-06 -7.161113e-06 1.160772e-05 2.764333e-06 -1.947445e-05 2.363016e-05 4.448353e-07
<VARIANCE> 52
 9.907958e-01 9.797300e-01 9.800076e-01 9.810079e-01 9.812015e-01 9.810901e-01 9.814525e-01 9.811684e-01 9.807274e-01 9.809045e-01 9.806848e-01 9.805481e-01 9.807691e-01 9.782448e-01 9.752258e-01 9.772111e-01 9.773075e-01 9.777610e-01 9.785333e-01 9.790564e-01 9.789323e-01 9.794664e-01 9.796516e-01 9.797617e-01 9.799102e-01 9.799184e-01 9.780480e-01 9.761671e-01 9.781318e-01 9.784687e-01 9.788004e-01 9.793463e-01 9.797241e-01 9.795389e-01 9.799467e-01 9.802538e-01 9.802153e-01 9.803718e-01 9.802892e-01 9.775596e-01 9.760468e-01 9.777378e-01 9.786642e-01 9.789072e-01 9.794644e-01 9.797841e-01 9.796220e-01 9.799892e-01 9.803612e-01 9.803211e-01 9.805171e-01 9.804601e-01
<GCONST> 9.449834e+01
<STATE> 4
<MEAN> 52
 -3.928909e-03 -1.251800e-03 2.601621e-04 -1.194690e-03 8.614827e-04 8.729838e-04 9.349209e-04 9.407512e-04 -2.156951e-04 -4.031968e-04 -2.049800e-04 -1.594404e-04 -2.972024e-04 -6.544362e-06 -3.156039e-05 -5.761844e-06 -4.608382e-06 1.370457e-05 4.366641e-06 7.125273e-06 1.052795e-05 -1.137607e-05 -5.101011e-07 1.173869e-05 -2.364637e-05 -9.539937e-06 1.373644e-05 -2.921046e-06 -2.708454e-06 7.682145e-06 -3.515236e-06 -3.124023e-06 3.752837e-06 -4.075104e-06 1.802721e-05 2.644235e-05 -1.505167e-05 8.302392e-06 1.485029e-05 7.391595e-06 2.715955e-06 -7.215530e-06 3.965329e-06 6.266861e-06 -1.744573e-05 1.531286e-06 -7.161113e-06 1.160772e-05 2.764333e-06 -1.947445e-05 2.363016e-05 4.448353e-07
<VARIANCE> 52
 9.907958e-01 9.797300e-01 9.800076e-01 9.810079e-01 9.812015e-01 9.810901e-01 9.814525e-01 9.811684e-01 9.807274e-01 9.809045e-01 9.806848e-01 9.805481e-01 9.807691e-01 9.782448e-01 9.752258e-01 9.772111e-01 9.773075e-01 9.777610e-01 9.785333e-01 9.790564e-01 9.789323e-01 9.794664e-01 9.796516e-01 9.797617e-01 9.799102e-01 9.799184e-01 9.780480e-01 9.761671e-01 9.781318e-01 9.784687e-01 9.788004e-01 9.793463e-01 9.797241e-01 9.795389e-01 9.799467e-01 9.802538e-01 9.802153e-01 9.803718e-01 9.802892e-01 9.775596e-01 9.760468e-01 9.777378e-01 9.786642e-01 9.789072e-01 9.794644e-01 9.797841e-01 9.796220e-01 9.799892e-01 9.803612e-01 9.803211e-01 9.805171e-01 9.804601e-01
<GCONST> 9.449834e+01
<TRANSP> 5
 0.000000e+00 1.000000e+00 0.000000e+00 0.000000e+00 0.000000e+00
 0.000000e+00 6.000000e-01 4.000000e-01 0.000000e+00 0.000000e+00
 0.000000e+00 0.000000e+00 6.000000e-01 4.000000e-01 0.000000e+00
 0.000000e+00 0.000000e+00 0.000000e+00 6.000000e-01 4.000000e-01
 0.000000e+00 0.000000e+00 0.000000e+00 0.000000e+00 0.000000e+00
<ENDHMM>
~h "aj"
<BEGINHMM>
<NUMSTATES> 5
<STATE> 2
<MEAN> 52
 -3.928909e-03 -1.251800e-03 2.601621e-04 -1.194690e-03 8.614827e-04 8.729838e-04 9.349209e-04 9.407512e-04 -2.156951e-04 -4.031968e-04 -2.049800e-04 -1.594404e-04 -2.972024e-04 -6.544362e-06 -3.156039e-05 -5.761844e-06 -4.608382e-06 1.370457e-05 4.366641e-06 7.125273e-06 1.052795e-05 -1.137607e-05 -5.101011e-07 1.173869e-05 -2.364637e-05 -9.539937e-06 1.373644e-05 -2.921046e-06 -2.708454e-06 7.682145e-06 -3.515236e-06 -3.124023e-06 3.752837e-06 -4.075104e-06 1.802721e-05 2.644235e-05 -1.505167e-05 8.302392e-06 1.485029e-05 7.391595e-06 2.715955e-06 -7.215530e-06 3.965329e-06 6.266861e-06 -1.744573e-05 1.531286e-06 -7.161113e-06 1.160772e-05 2.764333e-06 -1.947445e-05 2.363016e-05 4.448353e-07
<VARIANCE> 52
 9.907958e-01 9.797300e-01 9.800076e-01 9.810079e-01 9.812015e-01 9.810901e-01 9.814525e-01 9.811684e-01 9.807274e-01 9.809045e-01 9.806848e-01 9.805481e-01 9.807691e-01 9.782448e-01 9.752258e-01 9.772111e-01 9.773075e-01 9.777610e-01 9.785333e-01 9.790564e-01 9.789323e-01 9.794664e-01 9.796516e-01 9.797617e-01 9.799102e-01 9.799184e-01 9.780480e-01 9.761671e-01 9.781318e-01 9.784687e-01 9.788004e-01 9.793463e-01 9.797241e-01 9.795389e-01 9.799467e-01 9.802538e-01 9.802153e-01 9.803718e-01 9.802892e-01 9.775596e-01 9.760468e-01 9.777378e-01 9.786642e-01 9.789072e-01 9.794644e-01 9.797841e-01 9.796220e-01 9.799892e-01 9.803612e-01 9.803211e-01 9.805171e-01 9.804601e-01
<GCONST> 9.449834e+01
<STATE> 3
<MEAN> 52
 -3.928909e-03 -1.251800e-03 2.601621e-04 -1.194690e-03 8.614827e-04 8.729838e-04 9.349209e-04 9.407512e-04 -2.156951e-04 -4.031968e-04 -2.049800e-04 -1.594404e-04 -2.972024e-04 -6.544362e-06 -3.156039e-05 -5.761844e-06 -4.608382e-06 1.370457e-05 4.366641e-06 7.125273e-06 1.052795e-05 -1.137607e-05 -5.101011e-07 1.173869e-05 -2.364637e-05 -9.539937e-06 1.373644e-05 -2.921046e-06 -2.708454e-06 7.682145e-06 -3.515236e-06 -3.124023e-06 3.752837e-06 -4.075104e-06 1.802721e-05 2.644235e-05 -1.505167e-05 8.302392e-06 1.485029e-05 7.391595e-06 2.715955e-06 -7.215530e-06 3.965329e-06 6.266861e-06 -1.744573e-05 1.531286e-06 -7.161113e-06 1.160772e-05 2.764333e-06 -1.947445e-05 2.363016e-05 4.448353e-07
<VARIANCE> 52
 9.907958e-01 9.797300e-01 9.800076e-01 9.810079e-01 9.812015e-01 9.810901e-01 9.814525e-01 9.811684e-01 9.807274e-01 9.809045e-01 9.806848e-01 9.805481e-01 9.807691e-01 9.782448e-01 9.752258e-01 9.772111e-01 9.773075e-01 9.777610e-01 9.785333e-01 9.790564e-01 9.789323e-01 9.794664e-01 9.796516e-01 9.797617e-01 9.799102e-01 9.799184e-01 9.780480e-01 9.761671e-01 9.781318e-01 9.784687e-01 9.788004e-01 9.793463e-01 9.797241e-01 9.795389e-01 9.799467e-01 9.802538e-01 9.802153e-01 9.803718e-01 9.802892e-01 9.775596e-01 9.760468e-01 9.777378e-01 9.786642e-01 9.789072e-01 9.794644e-01 9.797841e-01 9.796220e-01 9.799892e-01 9.803612e-01 9.803211e-01 9.805171e-01 9.804601e-01
<GCONST> 9.449834e+01
<STATE> 4
<MEAN> 52
 -3.928909e-03 -1.251800e-03 2.601621e-04 -1.194690e-03 8.614827e-04 8.729838e-04 9.349209e-04 9.407512e-04 -2.156951e-04 -4.031968e-04 -2.049800e-04 -1.594404e-04 -2.972024e-04 -6.544362e-06 -3.156039e-05 -5.761844e-06 -4.608382e-06 1.370457e-05 4.366641e-06 7.125273e-06 1.052795e-05 -1.137607e-05 -5.101011e-07 1.173869e-05 -2.364637e-05 -9.539937e-06 1.373644e-05 -2.921046e-06 -2.708454e-06 7.682145e-06 -3.515236e-06 -3.124023e-06 3.752837e-06 -4.075104e-06 1.802721e-05 2.644235e-05 -1.505167e-05 8.302392e-06 1.485029e-05 7.391595e-06 2.715955e-06 -7.215530e-06 3.965329e-06 6.266861e-06 -1.744573e-05 1.531286e-06 -7.161113e-06 1.160772e-05 2.764333e-06 -1.947445e-05 2.363016e-05 4.448353e-07
<VARIANCE> 52
 9.907958e-01 9.797300e-01 9.800076e-01 9.810079e-01 9.812015e-01 9.810901e-01 9.814525e-01 9.811684e-01 9.807274e-01 9.809045e-01 9.806848e-01 9.805481e-01 9.807691e-01 9.782448e-01 9.752258e-01 9.772111e-01 9.773075e-01 9.777610e-01 9.785333e-01 9.790564e-01 9.789323e-01 9.794664e-01 9.796516e-01 9.797617e-01 9.799102e-01 9.799184e-01 9.780480e-01 9.761671e-01 9.781318e-01 9.784687e-01 9.788004e-01 9.793463e-01 9.797241e-01 9.795389e-01 9.799467e-01 9.802538e-01 9.802153e-01 9.803718e-01 9.802892e-01 9.775596e-01 9.760468e-01 9.777378e-01 9.786642e-01 9.789072e-01 9.794644e-01 9.797841e-01 9.796220e-01 9.799892e-01 9.803612e-01 9.803211e-01 9.805171e-01 9.804601e-01
<GCONST> 9.449834e+01
<TRANSP> 5
 0.000000e+00 1.000000e+00 0.000000e+00 0.000000e+00 0.000000e+00
 0.000000e+00 6.000000e-01 4.000000e-01 0.000000e+00 0.000000e+00
 0.000000e+00 0.000000e+00 6.000000e-01 4.000000e-01 0.000000e+00
 0.000000e+00 0.000000e+00 0.000000e+00 6.000000e-01 4.000000e-01
 0.000000e+00 0.000000e+00 0.000000e+00 0.000000e+00 0.000000e+00
<ENDHMM>
~h "ae"
<BEGINHMM>
<NUMSTATES> 5
<STATE> 2
<MEAN> 52
 -3.928909e-03 -1.251800e-03 2.601621e-04 -1.194690e-03 8.614827e-04 8.729838e-04 9.349209e-04 9.407512e-04 -2.156951e-04 -4.031968e-04 -2.049800e-04 -1.594404e-04 -2.972024e-04 -6.544362e-06 -3.156039e-05 -5.761844e-06 -4.608382e-06 1.370457e-05 4.366641e-06 7.125273e-06 1.052795e-05 -1.137607e-05 -5.101011e-07 1.173869e-05 -2.364637e-05 -9.539937e-06 1.373644e-05 -2.921046e-06 -2.708454e-06 7.682145e-06 -3.515236e-06 -3.124023e-06 3.752837e-06 -4.075104e-06 1.802721e-05 2.644235e-05 -1.505167e-05 8.302392e-06 1.485029e-05 7.391595e-06 2.715955e-06 -7.215530e-06 3.965329e-06 6.266861e-06 -1.744573e-05 1.531286e-06 -7.161113e-06 1.160772e-05 2.764333e-06 -1.947445e-05 2.363016e-05 4.448353e-07
<VARIANCE> 52
 9.907958e-01 9.797300e-01 9.800076e-01 9.810079e-01 9.812015e-01 9.810901e-01 9.814525e-01 9.811684e-01 9.807274e-01 9.809045e-01 9.806848e-01 9.805481e-01 9.807691e-01 9.782448e-01 9.752258e-01 9.772111e-01 9.773075e-01 9.777610e-01 9.785333e-01 9.790564e-01 9.789323e-01 9.794664e-01 9.796516e-01 9.797617e-01 9.799102e-01 9.799184e-01 9.780480e-01 9.761671e-01 9.781318e-01 9.784687e-01 9.788004e-01 9.793463e-01 9.797241e-01 9.795389e-01 9.799467e-01 9.802538e-01 9.802153e-01 9.803718e-01 9.802892e-01 9.775596e-01 9.760468e-01 9.777378e-01 9.786642e-01 9.789072e-01 9.794644e-01 9.797841e-01 9.796220e-01 9.799892e-01 9.803612e-01 9.803211e-01 9.805171e-01 9.804601e-01
<GCONST> 9.449834e+01
<STATE> 3
<MEAN> 52
 -3.928909e-03 -1.251800e-03 2.601621e-04 -1.194690e-03 8.614827e-04 8.729838e-04 9.349209e-04 9.407512e-04 -2.156951e-04 -4.031968e-04 -2.049800e-04 -1.594404e-04 -2.972024e-04 -6.544362e-06 -3.156039e-05 -5.761844e-06 -4.608382e-06 1.370457e-05 4.366641e-06 7.125273e-06 1.052795e-05 -1.137607e-05 -5.101011e-07 1.173869e-05 -2.364637e-05 -9.539937e-06 1.373644e-05 -2.921046e-06 -2.708454e-06 7.682145e-06 -3.515236e-06 -3.124023e-06 3.752837e-06 -4.075104e-06 1.802721e-05 2.644235e-05 -1.505167e-05 8.302392e-06 1.485029e-05 7.391595e-06 2.715955e-06 -7.215530e-06 3.965329e-06 6.266861e-06 -1.744573e-05 1.531286e-06 -7.161113e-06 1.160772e-05 2.764333e-06 -1.947445e-05 2.363016e-05 4.448353e-07
<VARIANCE> 52
 9.907958e-01 9.797300e-01 9.800076e-01 9.810079e-01 9.812015e-01 9.810901e-01 9.814525e-01 9.811684e-01 9.807274e-01 9.809045e-01 9.806848e-01 9.805481e-01 9.807691e-01 9.782448e-01 9.752258e-01 9.772111e-01 9.773075e-01 9.777610e-01 9.785333e-01 9.790564e-01 9.789323e-01 9.794664e-01 9.796516e-01 9.797617e-01 9.799102e-01 9.799184e-01 9.780480e-01 9.761671e-01 9.781318e-01 9.784687e-01 9.788004e-01 9.793463e-01 9.797241e-01 9.795389e-01 9.799467e-01 9.802538e-01 9.802153e-01 9.803718e-01 9.802892e-01 9.775596e-01 9.760468e-01 9.777378e-01 9.786642e-01 9.789072e-01 9.794644e-01 9.797841e-01 9.796220e-01 9.799892e-01 9.803612e-01 9.803211e-01 9.805171e-01 9.804601e-01
<GCONST> 9.449834e+01
<STATE> 4
<MEAN> 52
 -3.928909e-03 -1.251800e-03 2.601621e-04 -1.194690e-03 8.614827e-04 8.729838e-04 9.349209e-04 9.407512e-04 -2.156951e-04 -4.031968e-04 -2.049800e-04 -1.594404e-04 -2.972024e-04 -6.544362e-06 -3.156039e-05 -5.761844e-06 -4.608382e-06 1.370457e-05 4.366641e-06 7.125273e-06 1.052795e-05 -1.137607e-05 -5.101011e-07 1.173869e-05 -2.364637e-05 -9.539937e-06 1.373644e-05 -2.921046e-06 -2.708454e-06 7.682145e-06 -3.515236e-06 -3.124023e-06 3.752837e-06 -4.075104e-06 1.802721e-05 2.644235e-05 -1.505167e-05 8.302392e-06 1.485029e-05 7.391595e-06 2.715955e-06 -7.215530e-06 3.965329e-06 6.266861e-06 -1.744573e-05 1.531286e-06 -7.161113e-06 1.160772e-05 2.764333e-06 -1.947445e-05 2.363016e-05 4.448353e-07
<VARIANCE> 52
 9.907958e-01 9.797300e-01 9.800076e-01 9.810079e-01 9.812015e-01 9.810901e-01 9.814525e-01 9.811684e-01 9.807274e-01 9.809045e-01 9.806848e-01 9.805481e-01 9.807691e-01 9.782448e-01 9.752258e-01 9.772111e-01 9.773075e-01 9.777610e-01 9.785333e-01 9.790564e-01 9.789323e-01 9.794664e-01 9.796516e-01 9.797617e-01 9.799102e-01 9.799184e-01 9.780480e-01 9.761671e-01 9.781318e-01 9.784687e-01 9.788004e-01 9.793463e-01 9.797241e-01 9.795389e-01 9.799467e-01 9.802538e-01 9.802153e-01 9.803718e-01 9.802892e-01 9.775596e-01 9.760468e-01 9.777378e-01 9.786642e-01 9.789072e-01 9.794644e-01 9.797841e-01 9.796220e-01 9.799892e-01 9.803612e-01 9.803211e-01 9.805171e-01 9.804601e-01
<GCONST> 9.449834e+01
<TRANSP> 5
 0.000000e+00 1.000000e+00 0.000000e+00 0.000000e+00 0.000000e+00
 0.000000e+00 6.000000e-01 4.000000e-01 0.000000e+00 0.000000e+00
 0.000000e+00 0.000000e+00 6.000000e-01 4.000000e-01 0.000000e+00
 0.000000e+00 0.000000e+00 0.000000e+00 6.000000e-01 4.000000e-01
 0.000000e+00 0.000000e+00 0.000000e+00 0.000000e+00 0.000000e+00
<ENDHMM>
~h "j"
<BEGINHMM>
<NUMSTATES> 5
<STATE> 2
<MEAN> 52
 -3.928909e-03 -1.251800e-03 2.601621e-04 -1.194690e-03 8.614827e-04 8.729838e-04 9.349209e-04 9.407512e-04 -2.156951e-04 -4.031968e-04 -2.049800e-04 -1.594404e-04 -2.972024e-04 -6.544362e-06 -3.156039e-05 -5.761844e-06 -4.608382e-06 1.370457e-05 4.366641e-06 7.125273e-06 1.052795e-05 -1.137607e-05 -5.101011e-07 1.173869e-05 -2.364637e-05 -9.539937e-06 1.373644e-05 -2.921046e-06 -2.708454e-06 7.682145e-06 -3.515236e-06 -3.124023e-06 3.752837e-06 -4.075104e-06 1.802721e-05 2.644235e-05 -1.505167e-05 8.302392e-06 1.485029e-05 7.391595e-06 2.715955e-06 -7.215530e-06 3.965329e-06 6.266861e-06 -1.744573e-05 1.531286e-06 -7.161113e-06 1.160772e-05 2.764333e-06 -1.947445e-05 2.363016e-05 4.448353e-07
<VARIANCE> 52
 9.907958e-01 9.797300e-01 9.800076e-01 9.810079e-01 9.812015e-01 9.810901e-01 9.814525e-01 9.811684e-01 9.807274e-01 9.809045e-01 9.806848e-01 9.805481e-01 9.807691e-01 9.782448e-01 9.752258e-01 9.772111e-01 9.773075e-01 9.777610e-01 9.785333e-01 9.790564e-01 9.789323e-01 9.794664e-01 9.796516e-01 9.797617e-01 9.799102e-01 9.799184e-01 9.780480e-01 9.761671e-01 9.781318e-01 9.784687e-01 9.788004e-01 9.793463e-01 9.797241e-01 9.795389e-01 9.799467e-01 9.802538e-01 9.802153e-01 9.803718e-01 9.802892e-01 9.775596e-01 9.760468e-01 9.777378e-01 9.786642e-01 9.789072e-01 9.794644e-01 9.797841e-01 9.796220e-01 9.799892e-01 9.803612e-01 9.803211e-01 9.805171e-01 9.804601e-01
<GCONST> 9.449834e+01
<STATE> 3
<MEAN> 52
 -3.928909e-03 -1.251800e-03 2.601621e-04 -1.194690e-03 8.614827e-04 8.729838e-04 9.349209e-04 9.407512e-04 -2.156951e-04 -4.031968e-04 -2.049800e-04 -1.594404e-04 -2.972024e-04 -6.544362e-06 -3.156039e-05 -5.761844e-06 -4.608382e-06 1.370457e-05 4.366641e-06 7.125273e-06 1.052795e-05 -1.137607e-05 -5.101011e-07 1.173869e-05 -2.364637e-05 -9.539937e-06 1.373644e-05 -2.921046e-06 -2.708454e-06 7.682145e-06 -3.515236e-06 -3.124023e-06 3.752837e-06 -4.075104e-06 1.802721e-05 2.644235e-05 -1.505167e-05 8.302392e-06 1.485029e-05 7.391595e-06 2.715955e-06 -7.215530e-06 3.965329e-06 6.266861e-06 -1.744573e-05 1.531286e-06 -7.161113e-06 1.160772e-05 2.764333e-06 -1.947445e-05 2.363016e-05 4.448353e-07
<VARIANCE> 52
 9.907958e-01 9.797300e-01 9.800076e-01 9.810079e-01 9.812015e-01 9.810901e-01 9.814525e-01 9.811684e-01 9.807274e-01 9.809045e-01 9.806848e-01 9.805481e-01 9.807691e-01 9.782448e-01 9.752258e-01 9.772111e-01 9.773075e-01 9.777610e-01 9.785333e-01 9.790564e-01 9.789323e-01 9.794664e-01 9.796516e-01 9.797617e-01 9.799102e-01 9.799184e-01 9.780480e-01 9.761671e-01 9.781318e-01 9.784687e-01 9.788004e-01 9.793463e-01 9.797241e-01 9.795389e-01 9.799467e-01 9.802538e-01 9.802153e-01 9.803718e-01 9.802892e-01 9.775596e-01 9.760468e-01 9.777378e-01 9.786642e-01 9.789072e-01 9.794644e-01 9.797841e-01 9.796220e-01 9.799892e-01 9.803612e-01 9.803211e-01 9.805171e-01 9.804601e-01
<GCONST> 9.449834e+01
<STATE> 4
<MEAN> 52
 -3.928909e-03 -1.251800e-03 2.601621e-04 -1.194690e-03 8.614827e-04 8.729838e-04 9.349209e-04 9.407512e-04 -2.156951e-04 -4.031968e-04 -2.049800e-04 -1.594404e-04 -2.972024e-04 -6.544362e-06 -3.156039e-05 -5.761844e-06 -4.608382e-06 1.370457e-05 4.366641e-06 7.125273e-06 1.052795e-05 -1.137607e-05 -5.101011e-07 1.173869e-05 -2.364637e-05 -9.539937e-06 1.373644e-05 -2.921046e-06 -2.708454e-06 7.682145e-06 -3.515236e-06 -3.124023e-06 3.752837e-06 -4.075104e-06 1.802721e-05 2.644235e-05 -1.505167e-05 8.302392e-06 1.485029e-05 7.391595e-06 2.715955e-06 -7.215530e-06 3.965329e-06 6.266861e-06 -1.744573e-05 1.531286e-06 -7.161113e-06 1.160772e-05 2.764333e-06 -1.947445e-05 2.363016e-05 4.448353e-07
<VARIANCE> 52
 9.907958e-01 9.797300e-01 9.800076e-01 9.810079e-01 9.812015e-01 9.810901e-01 9.814525e-01 9.811684e-01 9.807274e-01 9.809045e-01 9.806848e-01 9.805481e-01 9.807691e-01 9.782448e-01 9.752258e-01 9.772111e-01 9.773075e-01 9.777610e-01 9.785333e-01 9.790564e-01 9.789323e-01 9.794664e-01 9.796516e-01 9.797617e-01 9.799102e-01 9.799184e-01 9.780480e-01 9.761671e-01 9.781318e-01 9.784687e-01 9.788004e-01 9.793463e-01 9.797241e-01 9.795389e-01 9.799467e-01 9.802538e-01 9.802153e-01 9.803718e-01 9.802892e-01 9.775596e-01 9.760468e-01 9.777378e-01 9.786642e-01 9.789072e-01 9.794644e-01 9.797841e-01 9.796220e-01 9.799892e-01 9.803612e-01 9.803211e-01 9.805171e-01 9.804601e-01
<GCONST> 9.449834e+01
<TRANSP> 5
 0.000000e+00 1.000000e+00 0.000000e+00 0.000000e+00 0.000000e+00
 0.000000e+00 6.000000e-01 4.000000e-01 0.000000e+00 0.000000e+00
 0.000000e+00 0.000000e+00 6.000000e-01 4.000000e-01 0.000000e+00
 0.000000e+00 0.000000e+00 0.000000e+00 6.000000e-01 4.000000e-01
 0.000000e+00 0.000000e+00 0.000000e+00 0.000000e+00 0.000000e+00
<ENDHMM>
~h "e"
<BEGINHMM>
<NUMSTATES> 5
<STATE> 2
<MEAN> 52
 -3.928909e-03 -1.251800e-03 2.601621e-04 -1.194690e-03 8.614827e-04 8.729838e-04 9.349209e-04 9.407512e-04 -2.156951e-04 -4.031968e-04 -2.049800e-04 -1.594404e-04 -2.972024e-04 -6.544362e-06 -3.156039e-05 -5.761844e-06 -4.608382e-06 1.370457e-05 4.366641e-06 7.125273e-06 1.052795e-05 -1.137607e-05 -5.101011e-07 1.173869e-05 -2.364637e-05 -9.539937e-06 1.373644e-05 -2.921046e-06 -2.708454e-06 7.682145e-06 -3.515236e-06 -3.124023e-06 3.752837e-06 -4.075104e-06 1.802721e-05 2.644235e-05 -1.505167e-05 8.302392e-06 1.485029e-05 7.391595e-06 2.715955e-06 -7.215530e-06 3.965329e-06 6.266861e-06 -1.744573e-05 1.531286e-06 -7.161113e-06 1.160772e-05 2.764333e-06 -1.947445e-05 2.363016e-05 4.448353e-07
<VARIANCE> 52
 9.907958e-01 9.797300e-01 9.800076e-01 9.810079e-01 9.812015e-01 9.810901e-01 9.814525e-01 9.811684e-01 9.807274e-01 9.809045e-01 9.806848e-01 9.805481e-01 9.807691e-01 9.782448e-01 9.752258e-01 9.772111e-01 9.773075e-01 9.777610e-01 9.785333e-01 9.790564e-01 9.789323e-01 9.794664e-01 9.796516e-01 9.797617e-01 9.799102e-01 9.799184e-01 9.780480e-01 9.761671e-01 9.781318e-01 9.784687e-01 9.788004e-01 9.793463e-01 9.797241e-01 9.795389e-01 9.799467e-01 9.802538e-01 9.802153e-01 9.803718e-01 9.802892e-01 9.775596e-01 9.760468e-01 9.777378e-01 9.786642e-01 9.789072e-01 9.794644e-01 9.797841e-01 9.796220e-01 9.799892e-01 9.803612e-01 9.803211e-01 9.805171e-01 9.804601e-01
<GCONST> 9.449834e+01
<STATE> 3
<MEAN> 52
 -3.928909e-03 -1.251800e-03 2.601621e-04 -1.194690e-03 8.614827e-04 8.729838e-04 9.349209e-04 9.407512e-04 -2.156951e-04 -4.031968e-04 -2.049800e-04 -1.594404e-04 -2.972024e-04 -6.544362e-06 -3.156039e-05 -5.761844e-06 -4.608382e-06 1.370457e-05 4.366641e-06 7.125273e-06 1.052795e-05 -1.137607e-05 -5.101011e-07 1.173869e-05 -2.364637e-05 -9.539937e-06 1.373644e-05 -2.921046e-06 -2.708454e-06 7.682145e-06 -3.515236e-06 -3.124023e-06 3.752837e-06 -4.075104e-06 1.802721e-05 2.644235e-05 -1.505167e-05 8.302392e-06 1.485029e-05 7.391595e-06 2.715955e-06 -7.215530e-06 3.965329e-06 6.266861e-06 -1.744573e-05 1.531286e-06 -7.161113e-06 1.160772e-05 2.764333e-06 -1.947445e-05 2.363016e-05 4.448353e-07
<VARIANCE> 52
 9.907958e-01 9.797300e-01 9.800076e-01 9.810079e-01 9.812015e-01 9.810901e-01 9.814525e-01 9.811684e-01 9.807274e-01 9.809045e-01 9.806848e-01 9.805481e-01 9.807691e-01 9.782448e-01 9.752258e-01 9.772111e-01 9.773075e-01 9.777610e-01 9.785333e-01 9.790564e-01 9.789323e-01 9.794664e-01 9.796516e-01 9.797617e-01 9.799102e-01 9.799184e-01 9.780480e-01 9.761671e-01 9.781318e-01 9.784687e-01 9.788004e-01 9.793463e-01 9.797241e-01 9.795389e-01 9.799467e-01 9.802538e-01 9.802153e-01 9.803718e-01 9.802892e-01 9.775596e-01 9.760468e-01 9.777378e-01 9.786642e-01 9.789072e-01 9.794644e-01 9.797841e-01 9.796220e-01 9.799892e-01 9.803612e-01 9.803211e-01 9.805171e-01 9.804601e-01
<GCONST> 9.449834e+01
<STATE> 4
<MEAN> 52
 -3.928909e-03 -1.251800e-03 2.601621e-04 -1.194690e-03 8.614827e-04 8.729838e-04 9.349209e-04 9.407512e-04 -2.156951e-04 -4.031968e-04 -2.049800e-04 -1.594404e-04 -2.972024e-04 -6.544362e-06 -3.156039e-05 -5.761844e-06 -4.608382e-06 1.370457e-05 4.366641e-06 7.125273e-06 1.052795e-05 -1.137607e-05 -5.101011e-07 1.173869e-05 -2.364637e-05 -9.539937e-06 1.373644e-05 -2.921046e-06 -2.708454e-06 7.682145e-06 -3.515236e-06 -3.124023e-06 3.752837e-06 -4.075104e-06 1.802721e-05 2.644235e-05 -1.505167e-05 8.302392e-06 1.485029e-05 7.391595e-06 2.715955e-06 -7.215530e-06 3.965329e-06 6.266861e-06 -1.744573e-05 1.531286e-06 -7.161113e-06 1.160772e-05 2.764333e-06 -1.947445e-05 2.363016e-05 4.448353e-07
<VARIANCE> 52
 9.907958e-01 9.797300e-01 9.800076e-01 9.810079e-01 9.812015e-01 9.810901e-01 9.814525e-01 9.811684e-01 9.807274e-01 9.809045e-01 9.806848e-01 9.805481e-01 9.807691e-01 9.782448e-01 9.752258e-01 9.772111e-01 9.773075e-01 9.777610e-01 9.785333e-01 9.790564e-01 9.789323e-01 9.794664e-01 9.796516e-01 9.797617e-01 9.799102e-01 9.799184e-01 9.780480e-01 9.761671e-01 9.781318e-01 9.784687e-01 9.788004e-01 9.793463e-01 9.797241e-01 9.795389e-01 9.799467e-01 9.802538e-01 9.802153e-01 9.803718e-01 9.802892e-01 9.775596e-01 9.760468e-01 9.777378e-01 9.786642e-01 9.789072e-01 9.794644e-01 9.797841e-01 9.796220e-01 9.799892e-01 9.803612e-01 9.803211e-01 9.805171e-01 9.804601e-01
<GCONST> 9.449834e+01
<TRANSP> 5
 0.000000e+00 1.000000e+00 0.000000e+00 0.000000e+00 0.000000e+00
 0.000000e+00 6.000000e-01 4.000000e-01 0.000000e+00 0.000000e+00
 0.000000e+00 0.000000e+00 6.000000e-01 4.000000e-01 0.000000e+00
 0.000000e+00 0.000000e+00 0.000000e+00 6.000000e-01 4.000000e-01
 0.000000e+00 0.000000e+00 0.000000e+00 0.000000e+00 0.000000e+00
<ENDHMM>
~h "f"
<BEGINHMM>
<NUMSTATES> 5
<STATE> 2
<MEAN> 52
 -3.928909e-03 -1.251800e-03 2.601621e-04 -1.194690e-03 8.614827e-04 8.729838e-04 9.349209e-04 9.407512e-04 -2.156951e-04 -4.031968e-04 -2.049800e-04 -1.594404e-04 -2.972024e-04 -6.544362e-06 -3.156039e-05 -5.761844e-06 -4.608382e-06 1.370457e-05 4.366641e-06 7.125273e-06 1.052795e-05 -1.137607e-05 -5.101011e-07 1.173869e-05 -2.364637e-05 -9.539937e-06 1.373644e-05 -2.921046e-06 -2.708454e-06 7.682145e-06 -3.515236e-06 -3.124023e-06 3.752837e-06 -4.075104e-06 1.802721e-05 2.644235e-05 -1.505167e-05 8.302392e-06 1.485029e-05 7.391595e-06 2.715955e-06 -7.215530e-06 3.965329e-06 6.266861e-06 -1.744573e-05 1.531286e-06 -7.161113e-06 1.160772e-05 2.764333e-06 -1.947445e-05 2.363016e-05 4.448353e-07
<VARIANCE> 52
 9.907958e-01 9.797300e-01 9.800076e-01 9.810079e-01 9.812015e-01 9.810901e-01 9.814525e-01 9.811684e-01 9.807274e-01 9.809045e-01 9.806848e-01 9.805481e-01 9.807691e-01 9.782448e-01 9.752258e-01 9.772111e-01 9.773075e-01 9.777610e-01 9.785333e-01 9.790564e-01 9.789323e-01 9.794664e-01 9.796516e-01 9.797617e-01 9.799102e-01 9.799184e-01 9.780480e-01 9.761671e-01 9.781318e-01 9.784687e-01 9.788004e-01 9.793463e-01 9.797241e-01 9.795389e-01 9.799467e-01 9.802538e-01 9.802153e-01 9.803718e-01 9.802892e-01 9.775596e-01 9.760468e-01 9.777378e-01 9.786642e-01 9.789072e-01 9.794644e-01 9.797841e-01 9.796220e-01 9.799892e-01 9.803612e-01 9.803211e-01 9.805171e-01 9.804601e-01
<GCONST> 9.449834e+01
<STATE> 3
<MEAN> 52
 -3.928909e-03 -1.251800e-03 2.601621e-04 -1.194690e-03 8.614827e-04 8.729838e-04 9.349209e-04 9.407512e-04 -2.156951e-04 -4.031968e-04 -2.049800e-04 -1.594404e-04 -2.972024e-04 -6.544362e-06 -3.156039e-05 -5.761844e-06 -4.608382e-06 1.370457e-05 4.366641e-06 7.125273e-06 1.052795e-05 -1.137607e-05 -5.101011e-07 1.173869e-05 -2.364637e-05 -9.539937e-06 1.373644e-05 -2.921046e-06 -2.708454e-06 7.682145e-06 -3.515236e-06 -3.124023e-06 3.752837e-06 -4.075104e-06 1.802721e-05 2.644235e-05 -1.505167e-05 8.302392e-06 1.485029e-05 7.391595e-06 2.715955e-06 -7.215530e-06 3.965329e-06 6.266861e-06 -1.744573e-05 1.531286e-06 -7.161113e-06 1.160772e-05 2.764333e-06 -1.947445e-05 2.363016e-05 4.448353e-07
<VARIANCE> 52
 9.907958e-01 9.797300e-01 9.800076e-01 9.810079e-01 9.812015e-01 9.810901e-01 9.814525e-01 9.811684e-01 9.807274e-01 9.809045e-01 9.806848e-01 9.805481e-01 9.807691e-01 9.782448e-01 9.752258e-01 9.772111e-01 9.773075e-01 9.777610e-01 9.785333e-01 9.790564e-01 9.789323e-01 9.794664e-01 9.796516e-01 9.797617e-01 9.799102e-01 9.799184e-01 9.780480e-01 9.761671e-01 9.781318e-01 9.784687e-01 9.788004e-01 9.793463e-01 9.797241e-01 9.795389e-01 9.799467e-01 9.802538e-01 9.802153e-01 9.803718e-01 9.802892e-01 9.775596e-01 9.760468e-01 9.777378e-01 9.786642e-01 9.789072e-01 9.794644e-01 9.797841e-01 9.796220e-01 9.799892e-01 9.803612e-01 9.803211e-01 9.805171e-01 9.804601e-01
<GCONST> 9.449834e+01
<STATE> 4
<MEAN> 52
 -3.928909e-03 -1.251800e-03 2.601621e-04 -1.194690e-03 8.614827e-04 8.729838e-04 9.349209e-04 9.407512e-04 -2.156951e-04 -4.031968e-04 -2.049800e-04 -1.594404e-04 -2.972024e-04 -6.544362e-06 -3.156039e-05 -5.761844e-06 -4.608382e-06 1.370457e-05 4.366641e-06 7.125273e-06 1.052795e-05 -1.137607e-05 -5.101011e-07 1.173869e-05 -2.364637e-05 -9.539937e-06 1.373644e-05 -2.921046e-06 -2.708454e-06 7.682145e-06 -3.515236e-06 -3.124023e-06 3.752837e-06 -4.075104e-06 1.802721e-05 2.644235e-05 -1.505167e-05 8.302392e-06 1.485029e-05 7.391595e-06 2.715955e-06 -7.215530e-06 3.965329e-06 6.266861e-06 -1.744573e-05 1.531286e-06 -7.161113e-06 1.160772e-05 2.764333e-06 -1.947445e-05 2.363016e-05 4.448353e-07
<VARIANCE> 52
 9.907958e-01 9.797300e-01 9.800076e-01 9.810079e-01 9.812015e-01 9.810901e-01 9.814525e-01 9.811684e-01 9.807274e-01 9.809045e-01 9.806848e-01 9.805481e-01 9.807691e-01 9.782448e-01 9.752258e-01 9.772111e-01 9.773075e-01 9.777610e-01 9.785333e-01 9.790564e-01 9.789323e-01 9.794664e-01 9.796516e-01 9.797617e-01 9.799102e-01 9.799184e-01 9.780480e-01 9.761671e-01 9.781318e-01 9.784687e-01 9.788004e-01 9.793463e-01 9.797241e-01 9.795389e-01 9.799467e-01 9.802538e-01 9.802153e-01 9.803718e-01 9.802892e-01 9.775596e-01 9.760468e-01 9.777378e-01 9.786642e-01 9.789072e-01 9.794644e-01 9.797841e-01 9.796220e-01 9.799892e-01 9.803612e-01 9.803211e-01 9.805171e-01 9.804601e-01
<GCONST> 9.449834e+01
<TRANSP> 5
 0.000000e+00 1.000000e+00 0.000000e+00 0.000000e+00 0.000000e+00
 0.000000e+00 6.000000e-01 4.000000e-01 0.000000e+00 0.000000e+00
 0.000000e+00 0.000000e+00 6.000000e-01 4.000000e-01 0.000000e+00
 0.000000e+00 0.000000e+00 0.000000e+00 6.000000e-01 4.000000e-01
 0.000000e+00 0.000000e+00 0.000000e+00 0.000000e+00 0.000000e+00
<ENDHMM>
~h "aa"
<BEGINHMM>
<NUMSTATES> 5
<STATE> 2
<MEAN> 52
 -3.928909e-03 -1.251800e-03 2.601621e-04 -1.194690e-03 8.614827e-04 8.729838e-04 9.349209e-04 9.407512e-04 -2.156951e-04 -4.031968e-04 -2.049800e-04 -1.594404e-04 -2.972024e-04 -6.544362e-06 -3.156039e-05 -5.761844e-06 -4.608382e-06 1.370457e-05 4.366641e-06 7.125273e-06 1.052795e-05 -1.137607e-05 -5.101011e-07 1.173869e-05 -2.364637e-05 -9.539937e-06 1.373644e-05 -2.921046e-06 -2.708454e-06 7.682145e-06 -3.515236e-06 -3.124023e-06 3.752837e-06 -4.075104e-06 1.802721e-05 2.644235e-05 -1.505167e-05 8.302392e-06 1.485029e-05 7.391595e-06 2.715955e-06 -7.215530e-06 3.965329e-06 6.266861e-06 -1.744573e-05 1.531286e-06 -7.161113e-06 1.160772e-05 2.764333e-06 -1.947445e-05 2.363016e-05 4.448353e-07
<VARIANCE> 52
 9.907958e-01 9.797300e-01 9.800076e-01 9.810079e-01 9.812015e-01 9.810901e-01 9.814525e-01 9.811684e-01 9.807274e-01 9.809045e-01 9.806848e-01 9.805481e-01 9.807691e-01 9.782448e-01 9.752258e-01 9.772111e-01 9.773075e-01 9.777610e-01 9.785333e-01 9.790564e-01 9.789323e-01 9.794664e-01 9.796516e-01 9.797617e-01 9.799102e-01 9.799184e-01 9.780480e-01 9.761671e-01 9.781318e-01 9.784687e-01 9.788004e-01 9.793463e-01 9.797241e-01 9.795389e-01 9.799467e-01 9.802538e-01 9.802153e-01 9.803718e-01 9.802892e-01 9.775596e-01 9.760468e-01 9.777378e-01 9.786642e-01 9.789072e-01 9.794644e-01 9.797841e-01 9.796220e-01 9.799892e-01 9.803612e-01 9.803211e-01 9.805171e-01 9.804601e-01
<GCONST> 9.449834e+01
<STATE> 3
<MEAN> 52
 -3.928909e-03 -1.251800e-03 2.601621e-04 -1.194690e-03 8.614827e-04 8.729838e-04 9.349209e-04 9.407512e-04 -2.156951e-04 -4.031968e-04 -2.049800e-04 -1.594404e-04 -2.972024e-04 -6.544362e-06 -3.156039e-05 -5.761844e-06 -4.608382e-06 1.370457e-05 4.366641e-06 7.125273e-06 1.052795e-05 -1.137607e-05 -5.101011e-07 1.173869e-05 -2.364637e-05 -9.539937e-06 1.373644e-05 -2.921046e-06 -2.708454e-06 7.682145e-06 -3.515236e-06 -3.124023e-06 3.752837e-06 -4.075104e-06 1.802721e-05 2.644235e-05 -1.505167e-05 8.302392e-06 1.485029e-05 7.391595e-06 2.715955e-06 -7.215530e-06 3.965329e-06 6.266861e-06 -1.744573e-05 1.531286e-06 -7.161113e-06 1.160772e-05 2.764333e-06 -1.947445e-05 2.363016e-05 4.448353e-07
<VARIANCE> 52
 9.907958e-01 9.797300e-01 9.800076e-01 9.810079e-01 9.812015e-01 9.810901e-01 9.814525e-01 9.811684e-01 9.807274e-01 9.809045e-01 9.806848e-01 9.805481e-01 9.807691e-01 9.782448e-01 9.752258e-01 9.772111e-01 9.773075e-01 9.777610e-01 9.785333e-01 9.790564e-01 9.789323e-01 9.794664e-01 9.796516e-01 9.797617e-01 9.799102e-01 9.799184e-01 9.780480e-01 9.761671e-01 9.781318e-01 9.784687e-01 9.788004e-01 9.793463e-01 9.797241e-01 9.795389e-01 9.799467e-01 9.802538e-01 9.802153e-01 9.803718e-01 9.802892e-01 9.775596e-01 9.760468e-01 9.777378e-01 9.786642e-01 9.789072e-01 9.794644e-01 9.797841e-01 9.796220e-01 9.799892e-01 9.803612e-01 9.803211e-01 9.805171e-01 9.804601e-01
<GCONST> 9.449834e+01
<STATE> 4
<MEAN> 52
 -3.928909e-03 -1.251800e-03 2.601621e-04 -1.194690e-03 8.614827e-04 8.729838e-04 9.349209e-04 9.407512e-04 -2.156951e-04 -4.031968e-04 -2.049800e-04 -1.594404e-04 -2.972024e-04 -6.544362e-06 -3.156039e-05 -5.761844e-06 -4.608382e-06 1.370457e-05 4.366641e-06 7.125273e-06 1.052795e-05 -1.137607e-05 -5.101011e-07 1.173869e-05 -2.364637e-05 -9.539937e-06 1.373644e-05 -2.921046e-06 -2.708454e-06 7.682145e-06 -3.515236e-06 -3.124023e-06 3.752837e-06 -4.075104e-06 1.802721e-05 2.644235e-05 -1.505167e-05 8.302392e-06 1.485029e-05 7.391595e-06 2.715955e-06 -7.215530e-06 3.965329e-06 6.266861e-06 -1.744573e-05 1.531286e-06 -7.161113e-06 1.160772e-05 2.764333e-06 -1.947445e-05 2.363016e-05 4.448353e-07
<VARIANCE> 52
 9.907958e-01 9.797300e-01 9.800076e-01 9.810079e-01 9.812015e-01 9.810901e-01 9.814525e-01 9.811684e-01 9.807274e-01 9.809045e-01 9.806848e-01 9.805481e-01 9.807691e-01 9.782448e-01 9.752258e-01 9.772111e-01 9.773075e-01 9.777610e-01 9.785333e-01 9.790564e-01 9.789323e-01 9.794664e-01 9.796516e-01 9.797617e-01 9.799102e-01 9.799184e-01 9.780480e-01 9.761671e-01 9.781318e-01 9.784687e-01 9.788004e-01 9.793463e-01 9.797241e-01 9.795389e-01 9.799467e-01 9.802538e-01 9.802153e-01 9.803718e-01 9.802892e-01 9.775596e-01 9.760468e-01 9.777378e-01 9.786642e-01 9.789072e-01 9.794644e-01 9.797841e-01 9.796220e-01 9.799892e-01 9.803612e-01 9.803211e-01 9.805171e-01 9.804601e-01
<GCONST> 9.449834e+01
<TRANSP> 5
 0.000000e+00 1.000000e+00 0.000000e+00 0.000000e+00 0.000000e+00
 0.000000e+00 6.000000e-01 4.000000e-01 0.000000e+00 0.000000e+00
 0.000000e+00 0.000000e+00 6.000000e-01 4.000000e-01 0.000000e+00
 0.000000e+00 0.000000e+00 0.000000e+00 6.000000e-01 4.000000e-01
 0.000000e+00 0.000000e+00 0.000000e+00 0.000000e+00 0.000000e+00
<ENDHMM>
~h "gh"
<BEGINHMM>
<NUMSTATES> 5
<STATE> 2
<MEAN> 52
 -3.928909e-03 -1.251800e-03 2.601621e-04 -1.194690e-03 8.614827e-04 8.729838e-04 9.349209e-04 9.407512e-04 -2.156951e-04 -4.031968e-04 -2.049800e-04 -1.594404e-04 -2.972024e-04 -6.544362e-06 -3.156039e-05 -5.761844e-06 -4.608382e-06 1.370457e-05 4.366641e-06 7.125273e-06 1.052795e-05 -1.137607e-05 -5.101011e-07 1.173869e-05 -2.364637e-05 -9.539937e-06 1.373644e-05 -2.921046e-06 -2.708454e-06 7.682145e-06 -3.515236e-06 -3.124023e-06 3.752837e-06 -4.075104e-06 1.802721e-05 2.644235e-05 -1.505167e-05 8.302392e-06 1.485029e-05 7.391595e-06 2.715955e-06 -7.215530e-06 3.965329e-06 6.266861e-06 -1.744573e-05 1.531286e-06 -7.161113e-06 1.160772e-05 2.764333e-06 -1.947445e-05 2.363016e-05 4.448353e-07
<VARIANCE> 52
 9.907958e-01 9.797300e-01 9.800076e-01 9.810079e-01 9.812015e-01 9.810901e-01 9.814525e-01 9.811684e-01 9.807274e-01 9.809045e-01 9.806848e-01 9.805481e-01 9.807691e-01 9.782448e-01 9.752258e-01 9.772111e-01 9.773075e-01 9.777610e-01 9.785333e-01 9.790564e-01 9.789323e-01 9.794664e-01 9.796516e-01 9.797617e-01 9.799102e-01 9.799184e-01 9.780480e-01 9.761671e-01 9.781318e-01 9.784687e-01 9.788004e-01 9.793463e-01 9.797241e-01 9.795389e-01 9.799467e-01 9.802538e-01 9.802153e-01 9.803718e-01 9.802892e-01 9.775596e-01 9.760468e-01 9.777378e-01 9.786642e-01 9.789072e-01 9.794644e-01 9.797841e-01 9.796220e-01 9.799892e-01 9.803612e-01 9.803211e-01 9.805171e-01 9.804601e-01
<GCONST> 9.449834e+01
<STATE> 3
<MEAN> 52
 -3.928909e-03 -1.251800e-03 2.601621e-04 -1.194690e-03 8.614827e-04 8.729838e-04 9.349209e-04 9.407512e-04 -2.156951e-04 -4.031968e-04 -2.049800e-04 -1.594404e-04 -2.972024e-04 -6.544362e-06 -3.156039e-05 -5.761844e-06 -4.608382e-06 1.370457e-05 4.366641e-06 7.125273e-06 1.052795e-05 -1.137607e-05 -5.101011e-07 1.173869e-05 -2.364637e-05 -9.539937e-06 1.373644e-05 -2.921046e-06 -2.708454e-06 7.682145e-06 -3.515236e-06 -3.124023e-06 3.752837e-06 -4.075104e-06 1.802721e-05 2.644235e-05 -1.505167e-05 8.302392e-06 1.485029e-05 7.391595e-06 2.715955e-06 -7.215530e-06 3.965329e-06 6.266861e-06 -1.744573e-05 1.531286e-06 -7.161113e-06 1.160772e-05 2.764333e-06 -1.947445e-05 2.363016e-05 4.448353e-07
<VARIANCE> 52
 9.907958e-01 9.797300e-01 9.800076e-01 9.810079e-01 9.812015e-01 9.810901e-01 9.814525e-01 9.811684e-01 9.807274e-01 9.809045e-01 9.806848e-01 9.805481e-01 9.807691e-01 9.782448e-01 9.752258e-01 9.772111e-01 9.773075e-01 9.777610e-01 9.785333e-01 9.790564e-01 9.789323e-01 9.794664e-01 9.796516e-01 9.797617e-01 9.799102e-01 9.799184e-01 9.780480e-01 9.761671e-01 9.781318e-01 9.784687e-01 9.788004e-01 9.793463e-01 9.797241e-01 9.795389e-01 9.799467e-01 9.802538e-01 9.802153e-01 9.803718e-01 9.802892e-01 9.775596e-01 9.760468e-01 9.777378e-01 9.786642e-01 9.789072e-01 9.794644e-01 9.797841e-01 9.796220e-01 9.799892e-01 9.803612e-01 9.803211e-01 9.805171e-01 9.804601e-01
<GCONST> 9.449834e+01
<STATE> 4
<MEAN> 52
 -3.928909e-03 -1.251800e-03 2.601621e-04 -1.194690e-03 8.614827e-04 8.729838e-04 9.349209e-04 9.407512e-04 -2.156951e-04 -4.031968e-04 -2.049800e-04 -1.594404e-04 -2.972024e-04 -6.544362e-06 -3.156039e-05 -5.761844e-06 -4.608382e-06 1.370457e-05 4.366641e-06 7.125273e-06 1.052795e-05 -1.137607e-05 -5.101011e-07 1.173869e-05 -2.364637e-05 -9.539937e-06 1.373644e-05 -2.921046e-06 -2.708454e-06 7.682145e-06 -3.515236e-06 -3.124023e-06 3.752837e-06 -4.075104e-06 1.802721e-05 2.644235e-05 -1.505167e-05 8.302392e-06 1.485029e-05 7.391595e-06 2.715955e-06 -7.215530e-06 3.965329e-06 6.266861e-06 -1.744573e-05 1.531286e-06 -7.161113e-06 1.160772e-05 2.764333e-06 -1.947445e-05 2.363016e-05 4.448353e-07
<VARIANCE> 52
 9.907958e-01 9.797300e-01 9.800076e-01 9.810079e-01 9.812015e-01 9.810901e-01 9.814525e-01 9.811684e-01 9.807274e-01 9.809045e-01 9.806848e-01 9.805481e-01 9.807691e-01 9.782448e-01 9.752258e-01 9.772111e-01 9.773075e-01 9.777610e-01 9.785333e-01 9.790564e-01 9.789323e-01 9.794664e-01 9.796516e-01 9.797617e-01 9.799102e-01 9.799184e-01 9.780480e-01 9.761671e-01 9.781318e-01 9.784687e-01 9.788004e-01 9.793463e-01 9.797241e-01 9.795389e-01 9.799467e-01 9.802538e-01 9.802153e-01 9.803718e-01 9.802892e-01 9.775596e-01 9.760468e-01 9.777378e-01 9.786642e-01 9.789072e-01 9.794644e-01 9.797841e-01 9.796220e-01 9.799892e-01 9.803612e-01 9.803211e-01 9.805171e-01 9.804601e-01
<GCONST> 9.449834e+01
<TRANSP> 5
 0.000000e+00 1.000000e+00 0.000000e+00 0.000000e+00 0.000000e+00
 0.000000e+00 6.000000e-01 4.000000e-01 0.000000e+00 0.000000e+00
 0.000000e+00 0.000000e+00 6.000000e-01 4.000000e-01 0.000000e+00
 0.000000e+00 0.000000e+00 0.000000e+00 6.000000e-01 4.000000e-01
 0.000000e+00 0.000000e+00 0.000000e+00 0.000000e+00 0.000000e+00
<ENDHMM>
~h "aw"
<BEGINHMM>
<NUMSTATES> 5
<STATE> 2
<MEAN> 52
 -3.928909e-03 -1.251800e-03 2.601621e-04 -1.194690e-03 8.614827e-04 8.729838e-04 9.349209e-04 9.407512e-04 -2.156951e-04 -4.031968e-04 -2.049800e-04 -1.594404e-04 -2.972024e-04 -6.544362e-06 -3.156039e-05 -5.761844e-06 -4.608382e-06 1.370457e-05 4.366641e-06 7.125273e-06 1.052795e-05 -1.137607e-05 -5.101011e-07 1.173869e-05 -2.364637e-05 -9.539937e-06 1.373644e-05 -2.921046e-06 -2.708454e-06 7.682145e-06 -3.515236e-06 -3.124023e-06 3.752837e-06 -4.075104e-06 1.802721e-05 2.644235e-05 -1.505167e-05 8.302392e-06 1.485029e-05 7.391595e-06 2.715955e-06 -7.215530e-06 3.965329e-06 6.266861e-06 -1.744573e-05 1.531286e-06 -7.161113e-06 1.160772e-05 2.764333e-06 -1.947445e-05 2.363016e-05 4.448353e-07
<VARIANCE> 52
 9.907958e-01 9.797300e-01 9.800076e-01 9.810079e-01 9.812015e-01 9.810901e-01 9.814525e-01 9.811684e-01 9.807274e-01 9.809045e-01 9.806848e-01 9.805481e-01 9.807691e-01 9.782448e-01 9.752258e-01 9.772111e-01 9.773075e-01 9.777610e-01 9.785333e-01 9.790564e-01 9.789323e-01 9.794664e-01 9.796516e-01 9.797617e-01 9.799102e-01 9.799184e-01 9.780480e-01 9.761671e-01 9.781318e-01 9.784687e-01 9.788004e-01 9.793463e-01 9.797241e-01 9.795389e-01 9.799467e-01 9.802538e-01 9.802153e-01 9.803718e-01 9.802892e-01 9.775596e-01 9.760468e-01 9.777378e-01 9.786642e-01 9.789072e-01 9.794644e-01 9.797841e-01 9.796220e-01 9.799892e-01 9.803612e-01 9.803211e-01 9.805171e-01 9.804601e-01
<GCONST> 9.449834e+01
<STATE> 3
<MEAN> 52
 -3.928909e-03 -1.251800e-03 2.601621e-04 -1.194690e-03 8.614827e-04 8.729838e-04 9.349209e-04 9.407512e-04 -2.156951e-04 -4.031968e-04 -2.049800e-04 -1.594404e-04 -2.972024e-04 -6.544362e-06 -3.156039e-05 -5.761844e-06 -4.608382e-06 1.370457e-05 4.366641e-06 7.125273e-06 1.052795e-05 -1.137607e-05 -5.101011e-07 1.173869e-05 -2.364637e-05 -9.539937e-06 1.373644e-05 -2.921046e-06 -2.708454e-06 7.682145e-06 -3.515236e-06 -3.124023e-06 3.752837e-06 -4.075104e-06 1.802721e-05 2.644235e-05 -1.505167e-05 8.302392e-06 1.485029e-05 7.391595e-06 2.715955e-06 -7.215530e-06 3.965329e-06 6.266861e-06 -1.744573e-05 1.531286e-06 -7.161113e-06 1.160772e-05 2.764333e-06 -1.947445e-05 2.363016e-05 4.448353e-07
<VARIANCE> 52
 9.907958e-01 9.797300e-01 9.800076e-01 9.810079e-01 9.812015e-01 9.810901e-01 9.814525e-01 9.811684e-01 9.807274e-01 9.809045e-01 9.806848e-01 9.805481e-01 9.807691e-01 9.782448e-01 9.752258e-01 9.772111e-01 9.773075e-01 9.777610e-01 9.785333e-01 9.790564e-01 9.789323e-01 9.794664e-01 9.796516e-01 9.797617e-01 9.799102e-01 9.799184e-01 9.780480e-01 9.761671e-01 9.781318e-01 9.784687e-01 9.788004e-01 9.793463e-01 9.797241e-01 9.795389e-01 9.799467e-01 9.802538e-01 9.802153e-01 9.803718e-01 9.802892e-01 9.775596e-01 9.760468e-01 9.777378e-01 9.786642e-01 9.789072e-01 9.794644e-01 9.797841e-01 9.796220e-01 9.799892e-01 9.803612e-01 9.803211e-01 9.805171e-01 9.804601e-01
<GCONST> 9.449834e+01
<STATE> 4
<MEAN> 52
 -3.928909e-03 -1.251800e-03 2.601621e-04 -1.194690e-03 8.614827e-04 8.729838e-04 9.349209e-04 9.407512e-04 -2.156951e-04 -4.031968e-04 -2.049800e-04 -1.594404e-04 -2.972024e-04 -6.544362e-06 -3.156039e-05 -5.761844e-06 -4.608382e-06 1.370457e-05 4.366641e-06 7.125273e-06 1.052795e-05 -1.137607e-05 -5.101011e-07 1.173869e-05 -2.364637e-05 -9.539937e-06 1.373644e-05 -2.921046e-06 -2.708454e-06 7.682145e-06 -3.515236e-06 -3.124023e-06 3.752837e-06 -4.075104e-06 1.802721e-05 2.644235e-05 -1.505167e-05 8.302392e-06 1.485029e-05 7.391595e-06 2.715955e-06 -7.215530e-06 3.965329e-06 6.266861e-06 -1.744573e-05 1.531286e-06 -7.161113e-06 1.160772e-05 2.764333e-06 -1.947445e-05 2.363016e-05 4.448353e-07
<VARIANCE> 52
 9.907958e-01 9.797300e-01 9.800076e-01 9.810079e-01 9.812015e-01 9.810901e-01 9.814525e-01 9.811684e-01 9.807274e-01 9.809045e-01 9.806848e-01 9.805481e-01 9.807691e-01 9.782448e-01 9.752258e-01 9.772111e-01 9.773075e-01 9.777610e-01 9.785333e-01 9.790564e-01 9.789323e-01 9.794664e-01 9.796516e-01 9.797617e-01 9.799102e-01 9.799184e-01 9.780480e-01 9.761671e-01 9.781318e-01 9.784687e-01 9.788004e-01 9.793463e-01 9.797241e-01 9.795389e-01 9.799467e-01 9.802538e-01 9.802153e-01 9.803718e-01 9.802892e-01 9.775596e-01 9.760468e-01 9.777378e-01 9.786642e-01 9.789072e-01 9.794644e-01 9.797841e-01 9.796220e-01 9.799892e-01 9.803612e-01 9.803211e-01 9.805171e-01 9.804601e-01
<GCONST> 9.449834e+01
<TRANSP> 5
 0.000000e+00 1.000000e+00 0.000000e+00 0.000000e+00 0.000000e+00
 0.000000e+00 6.000000e-01 4.000000e-01 0.000000e+00 0.000000e+00
 0.000000e+00 0.000000e+00 6.000000e-01 4.000000e-01 0.000000e+00
 0.000000e+00 0.000000e+00 0.000000e+00 6.000000e-01 4.000000e-01
 0.000000e+00 0.000000e+00 0.000000e+00 0.000000e+00 0.000000e+00
<ENDHMM>
~h "z"
<BEGINHMM>
<NUMSTATES> 5
<STATE> 2
<MEAN> 52
 -3.928909e-03 -1.251800e-03 2.601621e-04 -1.194690e-03 8.614827e-04 8.729838e-04 9.349209e-04 9.407512e-04 -2.156951e-04 -4.031968e-04 -2.049800e-04 -1.594404e-04 -2.972024e-04 -6.544362e-06 -3.156039e-05 -5.761844e-06 -4.608382e-06 1.370457e-05 4.366641e-06 7.125273e-06 1.052795e-05 -1.137607e-05 -5.101011e-07 1.173869e-05 -2.364637e-05 -9.539937e-06 1.373644e-05 -2.921046e-06 -2.708454e-06 7.682145e-06 -3.515236e-06 -3.124023e-06 3.752837e-06 -4.075104e-06 1.802721e-05 2.644235e-05 -1.505167e-05 8.302392e-06 1.485029e-05 7.391595e-06 2.715955e-06 -7.215530e-06 3.965329e-06 6.266861e-06 -1.744573e-05 1.531286e-06 -7.161113e-06 1.160772e-05 2.764333e-06 -1.947445e-05 2.363016e-05 4.448353e-07
<VARIANCE> 52
 9.907958e-01 9.797300e-01 9.800076e-01 9.810079e-01 9.812015e-01 9.810901e-01 9.814525e-01 9.811684e-01 9.807274e-01 9.809045e-01 9.806848e-01 9.805481e-01 9.807691e-01 9.782448e-01 9.752258e-01 9.772111e-01 9.773075e-01 9.777610e-01 9.785333e-01 9.790564e-01 9.789323e-01 9.794664e-01 9.796516e-01 9.797617e-01 9.799102e-01 9.799184e-01 9.780480e-01 9.761671e-01 9.781318e-01 9.784687e-01 9.788004e-01 9.793463e-01 9.797241e-01 9.795389e-01 9.799467e-01 9.802538e-01 9.802153e-01 9.803718e-01 9.802892e-01 9.775596e-01 9.760468e-01 9.777378e-01 9.786642e-01 9.789072e-01 9.794644e-01 9.797841e-01 9.796220e-01 9.799892e-01 9.803612e-01 9.803211e-01 9.805171e-01 9.804601e-01
<GCONST> 9.449834e+01
<STATE> 3
<MEAN> 52
 -3.928909e-03 -1.251800e-03 2.601621e-04 -1.194690e-03 8.614827e-04 8.729838e-04 9.349209e-04 9.407512e-04 -2.156951e-04 -4.031968e-04 -2.049800e-04 -1.594404e-04 -2.972024e-04 -6.544362e-06 -3.156039e-05 -5.761844e-06 -4.608382e-06 1.370457e-05 4.366641e-06 7.125273e-06 1.052795e-05 -1.137607e-05 -5.101011e-07 1.173869e-05 -2.364637e-05 -9.539937e-06 1.373644e-05 -2.921046e-06 -2.708454e-06 7.682145e-06 -3.515236e-06 -3.124023e-06 3.752837e-06 -4.075104e-06 1.802721e-05 2.644235e-05 -1.505167e-05 8.302392e-06 1.485029e-05 7.391595e-06 2.715955e-06 -7.215530e-06 3.965329e-06 6.266861e-06 -1.744573e-05 1.531286e-06 -7.161113e-06 1.160772e-05 2.764333e-06 -1.947445e-05 2.363016e-05 4.448353e-07
<VARIANCE> 52
 9.907958e-01 9.797300e-01 9.800076e-01 9.810079e-01 9.812015e-01 9.810901e-01 9.814525e-01 9.811684e-01 9.807274e-01 9.809045e-01 9.806848e-01 9.805481e-01 9.807691e-01 9.782448e-01 9.752258e-01 9.772111e-01 9.773075e-01 9.777610e-01 9.785333e-01 9.790564e-01 9.789323e-01 9.794664e-01 9.796516e-01 9.797617e-01 9.799102e-01 9.799184e-01 9.780480e-01 9.761671e-01 9.781318e-01 9.784687e-01 9.788004e-01 9.793463e-01 9.797241e-01 9.795389e-01 9.799467e-01 9.802538e-01 9.802153e-01 9.803718e-01 9.802892e-01 9.775596e-01 9.760468e-01 9.777378e-01 9.786642e-01 9.789072e-01 9.794644e-01 9.797841e-01 9.796220e-01 9.799892e-01 9.803612e-01 9.803211e-01 9.805171e-01 9.804601e-01
<GCONST> 9.449834e+01
<STATE> 4
<MEAN> 52
 -3.928909e-03 -1.251800e-03 2.601621e-04 -1.194690e-03 8.614827e-04 8.729838e-04 9.349209e-04 9.407512e-04 -2.156951e-04 -4.031968e-04 -2.049800e-04 -1.594404e-04 -2.972024e-04 -6.544362e-06 -3.156039e-05 -5.761844e-06 -4.608382e-06 1.370457e-05 4.366641e-06 7.125273e-06 1.052795e-05 -1.137607e-05 -5.101011e-07 1.173869e-05 -2.364637e-05 -9.539937e-06 1.373644e-05 -2.921046e-06 -2.708454e-06 7.682145e-06 -3.515236e-06 -3.124023e-06 3.752837e-06 -4.075104e-06 1.802721e-05 2.644235e-05 -1.505167e-05 8.302392e-06 1.485029e-05 7.391595e-06 2.715955e-06 -7.215530e-06 3.965329e-06 6.266861e-06 -1.744573e-05 1.531286e-06 -7.161113e-06 1.160772e-05 2.764333e-06 -1.947445e-05 2.363016e-05 4.448353e-07
<VARIANCE> 52
 9.907958e-01 9.797300e-01 9.800076e-01 9.810079e-01 9.812015e-01 9.810901e-01 9.814525e-01 9.811684e-01 9.807274e-01 9.809045e-01 9.806848e-01 9.805481e-01 9.807691e-01 9.782448e-01 9.752258e-01 9.772111e-01 9.773075e-01 9.777610e-01 9.785333e-01 9.790564e-01 9.789323e-01 9.794664e-01 9.796516e-01 9.797617e-01 9.799102e-01 9.799184e-01 9.780480e-01 9.761671e-01 9.781318e-01 9.784687e-01 9.788004e-01 9.793463e-01 9.797241e-01 9.795389e-01 9.799467e-01 9.802538e-01 9.802153e-01 9.803718e-01 9.802892e-01 9.775596e-01 9.760468e-01 9.777378e-01 9.786642e-01 9.789072e-01 9.794644e-01 9.797841e-01 9.796220e-01 9.799892e-01 9.803612e-01 9.803211e-01 9.805171e-01 9.804601e-01
<GCONST> 9.449834e+01
<TRANSP> 5
 0.000000e+00 1.000000e+00 0.000000e+00 0.000000e+00 0.000000e+00
 0.000000e+00 6.000000e-01 4.000000e-01 0.000000e+00 0.000000e+00
 0.000000e+00 0.000000e+00 6.000000e-01 4.000000e-01 0.000000e+00
 0.000000e+00 0.000000e+00 0.000000e+00 6.000000e-01 4.000000e-01
 0.000000e+00 0.000000e+00 0.000000e+00 0.000000e+00 0.000000e+00
<ENDHMM>
~h "i"
<BEGINHMM>
<NUMSTATES> 5
<STATE> 2
<MEAN> 52
 -3.928909e-03 -1.251800e-03 2.601621e-04 -1.194690e-03 8.614827e-04 8.729838e-04 9.349209e-04 9.407512e-04 -2.156951e-04 -4.031968e-04 -2.049800e-04 -1.594404e-04 -2.972024e-04 -6.544362e-06 -3.156039e-05 -5.761844e-06 -4.608382e-06 1.370457e-05 4.366641e-06 7.125273e-06 1.052795e-05 -1.137607e-05 -5.101011e-07 1.173869e-05 -2.364637e-05 -9.539937e-06 1.373644e-05 -2.921046e-06 -2.708454e-06 7.682145e-06 -3.515236e-06 -3.124023e-06 3.752837e-06 -4.075104e-06 1.802721e-05 2.644235e-05 -1.505167e-05 8.302392e-06 1.485029e-05 7.391595e-06 2.715955e-06 -7.215530e-06 3.965329e-06 6.266861e-06 -1.744573e-05 1.531286e-06 -7.161113e-06 1.160772e-05 2.764333e-06 -1.947445e-05 2.363016e-05 4.448353e-07
<VARIANCE> 52
 9.907958e-01 9.797300e-01 9.800076e-01 9.810079e-01 9.812015e-01 9.810901e-01 9.814525e-01 9.811684e-01 9.807274e-01 9.809045e-01 9.806848e-01 9.805481e-01 9.807691e-01 9.782448e-01 9.752258e-01 9.772111e-01 9.773075e-01 9.777610e-01 9.785333e-01 9.790564e-01 9.789323e-01 9.794664e-01 9.796516e-01 9.797617e-01 9.799102e-01 9.799184e-01 9.780480e-01 9.761671e-01 9.781318e-01 9.784687e-01 9.788004e-01 9.793463e-01 9.797241e-01 9.795389e-01 9.799467e-01 9.802538e-01 9.802153e-01 9.803718e-01 9.802892e-01 9.775596e-01 9.760468e-01 9.777378e-01 9.786642e-01 9.789072e-01 9.794644e-01 9.797841e-01 9.796220e-01 9.799892e-01 9.803612e-01 9.803211e-01 9.805171e-01 9.804601e-01
<GCONST> 9.449834e+01
<STATE> 3
<MEAN> 52
 -3.928909e-03 -1.251800e-03 2.601621e-04 -1.194690e-03 8.614827e-04 8.729838e-04 9.349209e-04 9.407512e-04 -2.156951e-04 -4.031968e-04 -2.049800e-04 -1.594404e-04 -2.972024e-04 -6.544362e-06 -3.156039e-05 -5.761844e-06 -4.608382e-06 1.370457e-05 4.366641e-06 7.125273e-06 1.052795e-05 -1.137607e-05 -5.101011e-07 1.173869e-05 -2.364637e-05 -9.539937e-06 1.373644e-05 -2.921046e-06 -2.708454e-06 7.682145e-06 -3.515236e-06 -3.124023e-06 3.752837e-06 -4.075104e-06 1.802721e-05 2.644235e-05 -1.505167e-05 8.302392e-06 1.485029e-05 7.391595e-06 2.715955e-06 -7.215530e-06 3.965329e-06 6.266861e-06 -1.744573e-05 1.531286e-06 -7.161113e-06 1.160772e-05 2.764333e-06 -1.947445e-05 2.363016e-05 4.448353e-07
<VARIANCE> 52
 9.907958e-01 9.797300e-01 9.800076e-01 9.810079e-01 9.812015e-01 9.810901e-01 9.814525e-01 9.811684e-01 9.807274e-01 9.809045e-01 9.806848e-01 9.805481e-01 9.807691e-01 9.782448e-01 9.752258e-01 9.772111e-01 9.773075e-01 9.777610e-01 9.785333e-01 9.790564e-01 9.789323e-01 9.794664e-01 9.796516e-01 9.797617e-01 9.799102e-01 9.799184e-01 9.780480e-01 9.761671e-01 9.781318e-01 9.784687e-01 9.788004e-01 9.793463e-01 9.797241e-01 9.795389e-01 9.799467e-01 9.802538e-01 9.802153e-01 9.803718e-01 9.802892e-01 9.775596e-01 9.760468e-01 9.777378e-01 9.786642e-01 9.789072e-01 9.794644e-01 9.797841e-01 9.796220e-01 9.799892e-01 9.803612e-01 9.803211e-01 9.805171e-01 9.804601e-01
<GCONST> 9.449834e+01
<STATE> 4
<MEAN> 52
 -3.928909e-03 -1.251800e-03 2.601621e-04 -1.194690e-03 8.614827e-04 8.729838e-04 9.349209e-04 9.407512e-04 -2.156951e-04 -4.031968e-04 -2.049800e-04 -1.594404e-04 -2.972024e-04 -6.544362e-06 -3.156039e-05 -5.761844e-06 -4.608382e-06 1.370457e-05 4.366641e-06 7.125273e-06 1.052795e-05 -1.137607e-05 -5.101011e-07 1.173869e-05 -2.364637e-05 -9.539937e-06 1.373644e-05 -2.921046e-06 -2.708454e-06 7.682145e-06 -3.515236e-06 -3.124023e-06 3.752837e-06 -4.075104e-06 1.802721e-05 2.644235e-05 -1.505167e-05 8.302392e-06 1.485029e-05 7.391595e-06 2.715955e-06 -7.215530e-06 3.965329e-06 6.266861e-06 -1.744573e-05 1.531286e-06 -7.161113e-06 1.160772e-05 2.764333e-06 -1.947445e-05 2.363016e-05 4.448353e-07
<VARIANCE> 52
 9.907958e-01 9.797300e-01 9.800076e-01 9.810079e-01 9.812015e-01 9.810901e-01 9.814525e-01 9.811684e-01 9.807274e-01 9.809045e-01 9.806848e-01 9.805481e-01 9.807691e-01 9.782448e-01 9.752258e-01 9.772111e-01 9.773075e-01 9.777610e-01 9.785333e-01 9.790564e-01 9.789323e-01 9.794664e-01 9.796516e-01 9.797617e-01 9.799102e-01 9.799184e-01 9.780480e-01 9.761671e-01 9.781318e-01 9.784687e-01 9.788004e-01 9.793463e-01 9.797241e-01 9.795389e-01 9.799467e-01 9.802538e-01 9.802153e-01 9.803718e-01 9.802892e-01 9.775596e-01 9.760468e-01 9.777378e-01 9.786642e-01 9.789072e-01 9.794644e-01 9.797841e-01 9.796220e-01 9.799892e-01 9.803612e-01 9.803211e-01 9.805171e-01 9.804601e-01
<GCONST> 9.449834e+01
<TRANSP> 5
 0.000000e+00 1.000000e+00 0.000000e+00 0.000000e+00 0.000000e+00
 0.000000e+00 6.000000e-01 4.000000e-01 0.000000e+00 0.000000e+00
 0.000000e+00 0.000000e+00 6.000000e-01 4.000000e-01 0.000000e+00
 0.000000e+00 0.000000e+00 0.000000e+00 6.000000e-01 4.000000e-01
 0.000000e+00 0.000000e+00 0.000000e+00 0.000000e+00 0.000000e+00
<ENDHMM>
~h "d"
<BEGINHMM>
<NUMSTATES> 5
<STATE> 2
<MEAN> 52
 -3.928909e-03 -1.251800e-03 2.601621e-04 -1.194690e-03 8.614827e-04 8.729838e-04 9.349209e-04 9.407512e-04 -2.156951e-04 -4.031968e-04 -2.049800e-04 -1.594404e-04 -2.972024e-04 -6.544362e-06 -3.156039e-05 -5.761844e-06 -4.608382e-06 1.370457e-05 4.366641e-06 7.125273e-06 1.052795e-05 -1.137607e-05 -5.101011e-07 1.173869e-05 -2.364637e-05 -9.539937e-06 1.373644e-05 -2.921046e-06 -2.708454e-06 7.682145e-06 -3.515236e-06 -3.124023e-06 3.752837e-06 -4.075104e-06 1.802721e-05 2.644235e-05 -1.505167e-05 8.302392e-06 1.485029e-05 7.391595e-06 2.715955e-06 -7.215530e-06 3.965329e-06 6.266861e-06 -1.744573e-05 1.531286e-06 -7.161113e-06 1.160772e-05 2.764333e-06 -1.947445e-05 2.363016e-05 4.448353e-07
<VARIANCE> 52
 9.907958e-01 9.797300e-01 9.800076e-01 9.810079e-01 9.812015e-01 9.810901e-01 9.814525e-01 9.811684e-01 9.807274e-01 9.809045e-01 9.806848e-01 9.805481e-01 9.807691e-01 9.782448e-01 9.752258e-01 9.772111e-01 9.773075e-01 9.777610e-01 9.785333e-01 9.790564e-01 9.789323e-01 9.794664e-01 9.796516e-01 9.797617e-01 9.799102e-01 9.799184e-01 9.780480e-01 9.761671e-01 9.781318e-01 9.784687e-01 9.788004e-01 9.793463e-01 9.797241e-01 9.795389e-01 9.799467e-01 9.802538e-01 9.802153e-01 9.803718e-01 9.802892e-01 9.775596e-01 9.760468e-01 9.777378e-01 9.786642e-01 9.789072e-01 9.794644e-01 9.797841e-01 9.796220e-01 9.799892e-01 9.803612e-01 9.803211e-01 9.805171e-01 9.804601e-01
<GCONST> 9.449834e+01
<STATE> 3
<MEAN> 52
 -3.928909e-03 -1.251800e-03 2.601621e-04 -1.194690e-03 8.614827e-04 8.729838e-04 9.349209e-04 9.407512e-04 -2.156951e-04 -4.031968e-04 -2.049800e-04 -1.594404e-04 -2.972024e-04 -6.544362e-06 -3.156039e-05 -5.761844e-06 -4.608382e-06 1.370457e-05 4.366641e-06 7.125273e-06 1.052795e-05 -1.137607e-05 -5.101011e-07 1.173869e-05 -2.364637e-05 -9.539937e-06 1.373644e-05 -2.921046e-06 -2.708454e-06 7.682145e-06 -3.515236e-06 -3.124023e-06 3.752837e-06 -4.075104e-06 1.802721e-05 2.644235e-05 -1.505167e-05 8.302392e-06 1.485029e-05 7.391595e-06 2.715955e-06 -7.215530e-06 3.965329e-06 6.266861e-06 -1.744573e-05 1.531286e-06 -7.161113e-06 1.160772e-05 2.764333e-06 -1.947445e-05 2.363016e-05 4.448353e-07
<VARIANCE> 52
 9.907958e-01 9.797300e-01 9.800076e-01 9.810079e-01 9.812015e-01 9.810901e-01 9.814525e-01 9.811684e-01 9.807274e-01 9.809045e-01 9.806848e-01 9.805481e-01 9.807691e-01 9.782448e-01 9.752258e-01 9.772111e-01 9.773075e-01 9.777610e-01 9.785333e-01 9.790564e-01 9.789323e-01 9.794664e-01 9.796516e-01 9.797617e-01 9.799102e-01 9.799184e-01 9.780480e-01 9.761671e-01 9.781318e-01 9.784687e-01 9.788004e-01 9.793463e-01 9.797241e-01 9.795389e-01 9.799467e-01 9.802538e-01 9.802153e-01 9.803718e-01 9.802892e-01 9.775596e-01 9.760468e-01 9.777378e-01 9.786642e-01 9.789072e-01 9.794644e-01 9.797841e-01 9.796220e-01 9.799892e-01 9.803612e-01 9.803211e-01 9.805171e-01 9.804601e-01
<GCONST> 9.449834e+01
<STATE> 4
<MEAN> 52
 -3.928909e-03 -1.251800e-03 2.601621e-04 -1.194690e-03 8.614827e-04 8.729838e-04 9.349209e-04 9.407512e-04 -2.156951e-04 -4.031968e-04 -2.049800e-04 -1.594404e-04 -2.972024e-04 -6.544362e-06 -3.156039e-05 -5.761844e-06 -4.608382e-06 1.370457e-05 4.366641e-06 7.125273e-06 1.052795e-05 -1.137607e-05 -5.101011e-07 1.173869e-05 -2.364637e-05 -9.539937e-06 1.373644e-05 -2.921046e-06 -2.708454e-06 7.682145e-06 -3.515236e-06 -3.124023e-06 3.752837e-06 -4.075104e-06 1.802721e-05 2.644235e-05 -1.505167e-05 8.302392e-06 1.485029e-05 7.391595e-06 2.715955e-06 -7.215530e-06 3.965329e-06 6.266861e-06 -1.744573e-05 1.531286e-06 -7.161113e-06 1.160772e-05 2.764333e-06 -1.947445e-05 2.363016e-05 4.448353e-07
<VARIANCE> 52
 9.907958e-01 9.797300e-01 9.800076e-01 9.810079e-01 9.812015e-01 9.810901e-01 9.814525e-01 9.811684e-01 9.807274e-01 9.809045e-01 9.806848e-01 9.805481e-01 9.807691e-01 9.782448e-01 9.752258e-01 9.772111e-01 9.773075e-01 9.777610e-01 9.785333e-01 9.790564e-01 9.789323e-01 9.794664e-01 9.796516e-01 9.797617e-01 9.799102e-01 9.799184e-01 9.780480e-01 9.761671e-01 9.781318e-01 9.784687e-01 9.788004e-01 9.793463e-01 9.797241e-01 9.795389e-01 9.799467e-01 9.802538e-01 9.802153e-01 9.803718e-01 9.802892e-01 9.775596e-01 9.760468e-01 9.777378e-01 9.786642e-01 9.789072e-01 9.794644e-01 9.797841e-01 9.796220e-01 9.799892e-01 9.803612e-01 9.803211e-01 9.805171e-01 9.804601e-01
<GCONST> 9.449834e+01
<TRANSP> 5
 0.000000e+00 1.000000e+00 0.000000e+00 0.000000e+00 0.000000e+00
 0.000000e+00 6.000000e-01 4.000000e-01 0.000000e+00 0.000000e+00
 0.000000e+00 0.000000e+00 6.000000e-01 4.000000e-01 0.000000e+00
 0.000000e+00 0.000000e+00 0.000000e+00 6.000000e-01 4.000000e-01
 0.000000e+00 0.000000e+00 0.000000e+00 0.000000e+00 0.000000e+00
<ENDHMM>
~h "n"
<BEGINHMM>
<NUMSTATES> 5
<STATE> 2
<MEAN> 52
 -3.928909e-03 -1.251800e-03 2.601621e-04 -1.194690e-03 8.614827e-04 8.729838e-04 9.349209e-04 9.407512e-04 -2.156951e-04 -4.031968e-04 -2.049800e-04 -1.594404e-04 -2.972024e-04 -6.544362e-06 -3.156039e-05 -5.761844e-06 -4.608382e-06 1.370457e-05 4.366641e-06 7.125273e-06 1.052795e-05 -1.137607e-05 -5.101011e-07 1.173869e-05 -2.364637e-05 -9.539937e-06 1.373644e-05 -2.921046e-06 -2.708454e-06 7.682145e-06 -3.515236e-06 -3.124023e-06 3.752837e-06 -4.075104e-06 1.802721e-05 2.644235e-05 -1.505167e-05 8.302392e-06 1.485029e-05 7.391595e-06 2.715955e-06 -7.215530e-06 3.965329e-06 6.266861e-06 -1.744573e-05 1.531286e-06 -7.161113e-06 1.160772e-05 2.764333e-06 -1.947445e-05 2.363016e-05 4.448353e-07
<VARIANCE> 52
 9.907958e-01 9.797300e-01 9.800076e-01 9.810079e-01 9.812015e-01 9.810901e-01 9.814525e-01 9.811684e-01 9.807274e-01 9.809045e-01 9.806848e-01 9.805481e-01 9.807691e-01 9.782448e-01 9.752258e-01 9.772111e-01 9.773075e-01 9.777610e-01 9.785333e-01 9.790564e-01 9.789323e-01 9.794664e-01 9.796516e-01 9.797617e-01 9.799102e-01 9.799184e-01 9.780480e-01 9.761671e-01 9.781318e-01 9.784687e-01 9.788004e-01 9.793463e-01 9.797241e-01 9.795389e-01 9.799467e-01 9.802538e-01 9.802153e-01 9.803718e-01 9.802892e-01 9.775596e-01 9.760468e-01 9.777378e-01 9.786642e-01 9.789072e-01 9.794644e-01 9.797841e-01 9.796220e-01 9.799892e-01 9.803612e-01 9.803211e-01 9.805171e-01 9.804601e-01
<GCONST> 9.449834e+01
<STATE> 3
<MEAN> 52
 -3.928909e-03 -1.251800e-03 2.601621e-04 -1.194690e-03 8.614827e-04 8.729838e-04 9.349209e-04 9.407512e-04 -2.156951e-04 -4.031968e-04 -2.049800e-04 -1.594404e-04 -2.972024e-04 -6.544362e-06 -3.156039e-05 -5.761844e-06 -4.608382e-06 1.370457e-05 4.366641e-06 7.125273e-06 1.052795e-05 -1.137607e-05 -5.101011e-07 1.173869e-05 -2.364637e-05 -9.539937e-06 1.373644e-05 -2.921046e-06 -2.708454e-06 7.682145e-06 -3.515236e-06 -3.124023e-06 3.752837e-06 -4.075104e-06 1.802721e-05 2.644235e-05 -1.505167e-05 8.302392e-06 1.485029e-05 7.391595e-06 2.715955e-06 -7.215530e-06 3.965329e-06 6.266861e-06 -1.744573e-05 1.531286e-06 -7.161113e-06 1.160772e-05 2.764333e-06 -1.947445e-05 2.363016e-05 4.448353e-07
<VARIANCE> 52
 9.907958e-01 9.797300e-01 9.800076e-01 9.810079e-01 9.812015e-01 9.810901e-01 9.814525e-01 9.811684e-01 9.807274e-01 9.809045e-01 9.806848e-01 9.805481e-01 9.807691e-01 9.782448e-01 9.752258e-01 9.772111e-01 9.773075e-01 9.777610e-01 9.785333e-01 9.790564e-01 9.789323e-01 9.794664e-01 9.796516e-01 9.797617e-01 9.799102e-01 9.799184e-01 9.780480e-01 9.761671e-01 9.781318e-01 9.784687e-01 9.788004e-01 9.793463e-01 9.797241e-01 9.795389e-01 9.799467e-01 9.802538e-01 9.802153e-01 9.803718e-01 9.802892e-01 9.775596e-01 9.760468e-01 9.777378e-01 9.786642e-01 9.789072e-01 9.794644e-01 9.797841e-01 9.796220e-01 9.799892e-01 9.803612e-01 9.803211e-01 9.805171e-01 9.804601e-01
<GCONST> 9.449834e+01
<STATE> 4
<MEAN> 52
 -3.928909e-03 -1.251800e-03 2.601621e-04 -1.194690e-03 8.614827e-04 8.729838e-04 9.349209e-04 9.407512e-04 -2.156951e-04 -4.031968e-04 -2.049800e-04 -1.594404e-04 -2.972024e-04 -6.544362e-06 -3.156039e-05 -5.761844e-06 -4.608382e-06 1.370457e-05 4.366641e-06 7.125273e-06 1.052795e-05 -1.137607e-05 -5.101011e-07 1.173869e-05 -2.364637e-05 -9.539937e-06 1.373644e-05 -2.921046e-06 -2.708454e-06 7.682145e-06 -3.515236e-06 -3.124023e-06 3.752837e-06 -4.075104e-06 1.802721e-05 2.644235e-05 -1.505167e-05 8.302392e-06 1.485029e-05 7.391595e-06 2.715955e-06 -7.215530e-06 3.965329e-06 6.266861e-06 -1.744573e-05 1.531286e-06 -7.161113e-06 1.160772e-05 2.764333e-06 -1.947445e-05 2.363016e-05 4.448353e-07
<VARIANCE> 52
 9.907958e-01 9.797300e-01 9.800076e-01 9.810079e-01 9.812015e-01 9.810901e-01 9.814525e-01 9.811684e-01 9.807274e-01 9.809045e-01 9.806848e-01 9.805481e-01 9.807691e-01 9.782448e-01 9.752258e-01 9.772111e-01 9.773075e-01 9.777610e-01 9.785333e-01 9.790564e-01 9.789323e-01 9.794664e-01 9.796516e-01 9.797617e-01 9.799102e-01 9.799184e-01 9.780480e-01 9.761671e-01 9.781318e-01 9.784687e-01 9.788004e-01 9.793463e-01 9.797241e-01 9.795389e-01 9.799467e-01 9.802538e-01 9.802153e-01 9.803718e-01 9.802892e-01 9.775596e-01 9.760468e-01 9.777378e-01 9.786642e-01 9.789072e-01 9.794644e-01 9.797841e-01 9.796220e-01 9.799892e-01 9.803612e-01 9.803211e-01 9.805171e-01 9.804601e-01
<GCONST> 9.449834e+01
<TRANSP> 5
 0.000000e+00 1.000000e+00 0.000000e+00 0.000000e+00 0.000000e+00
 0.000000e+00 6.000000e-01 4.000000e-01 0.000000e+00 0.000000e+00
 0.000000e+00 0.000000e+00 6.000000e-01 4.000000e-01 0.000000e+00
 0.000000e+00 0.000000e+00 0.000000e+00 6.000000e-01 4.000000e-01
 0.000000e+00 0.000000e+00 0.000000e+00 0.000000e+00 0.000000e+00
<ENDHMM>
~h "m"
<BEGINHMM>
<NUMSTATES> 5
<STATE> 2
<MEAN> 52
 -3.928909e-03 -1.251800e-03 2.601621e-04 -1.194690e-03 8.614827e-04 8.729838e-04 9.349209e-04 9.407512e-04 -2.156951e-04 -4.031968e-04 -2.049800e-04 -1.594404e-04 -2.972024e-04 -6.544362e-06 -3.156039e-05 -5.761844e-06 -4.608382e-06 1.370457e-05 4.366641e-06 7.125273e-06 1.052795e-05 -1.137607e-05 -5.101011e-07 1.173869e-05 -2.364637e-05 -9.539937e-06 1.373644e-05 -2.921046e-06 -2.708454e-06 7.682145e-06 -3.515236e-06 -3.124023e-06 3.752837e-06 -4.075104e-06 1.802721e-05 2.644235e-05 -1.505167e-05 8.302392e-06 1.485029e-05 7.391595e-06 2.715955e-06 -7.215530e-06 3.965329e-06 6.266861e-06 -1.744573e-05 1.531286e-06 -7.161113e-06 1.160772e-05 2.764333e-06 -1.947445e-05 2.363016e-05 4.448353e-07
<VARIANCE> 52
 9.907958e-01 9.797300e-01 9.800076e-01 9.810079e-01 9.812015e-01 9.810901e-01 9.814525e-01 9.811684e-01 9.807274e-01 9.809045e-01 9.806848e-01 9.805481e-01 9.807691e-01 9.782448e-01 9.752258e-01 9.772111e-01 9.773075e-01 9.777610e-01 9.785333e-01 9.790564e-01 9.789323e-01 9.794664e-01 9.796516e-01 9.797617e-01 9.799102e-01 9.799184e-01 9.780480e-01 9.761671e-01 9.781318e-01 9.784687e-01 9.788004e-01 9.793463e-01 9.797241e-01 9.795389e-01 9.799467e-01 9.802538e-01 9.802153e-01 9.803718e-01 9.802892e-01 9.775596e-01 9.760468e-01 9.777378e-01 9.786642e-01 9.789072e-01 9.794644e-01 9.797841e-01 9.796220e-01 9.799892e-01 9.803612e-01 9.803211e-01 9.805171e-01 9.804601e-01
<GCONST> 9.449834e+01
<STATE> 3
<MEAN> 52
 -3.928909e-03 -1.251800e-03 2.601621e-04 -1.194690e-03 8.614827e-04 8.729838e-04 9.349209e-04 9.407512e-04 -2.156951e-04 -4.031968e-04 -2.049800e-04 -1.594404e-04 -2.972024e-04 -6.544362e-06 -3.156039e-05 -5.761844e-06 -4.608382e-06 1.370457e-05 4.366641e-06 7.125273e-06 1.052795e-05 -1.137607e-05 -5.101011e-07 1.173869e-05 -2.364637e-05 -9.539937e-06 1.373644e-05 -2.921046e-06 -2.708454e-06 7.682145e-06 -3.515236e-06 -3.124023e-06 3.752837e-06 -4.075104e-06 1.802721e-05 2.644235e-05 -1.505167e-05 8.302392e-06 1.485029e-05 7.391595e-06 2.715955e-06 -7.215530e-06 3.965329e-06 6.266861e-06 -1.744573e-05 1.531286e-06 -7.161113e-06 1.160772e-05 2.764333e-06 -1.947445e-05 2.363016e-05 4.448353e-07
<VARIANCE> 52
 9.907958e-01 9.797300e-01 9.800076e-01 9.810079e-01 9.812015e-01 9.810901e-01 9.814525e-01 9.811684e-01 9.807274e-01 9.809045e-01 9.806848e-01 9.805481e-01 9.807691e-01 9.782448e-01 9.752258e-01 9.772111e-01 9.773075e-01 9.777610e-01 9.785333e-01 9.790564e-01 9.789323e-01 9.794664e-01 9.796516e-01 9.797617e-01 9.799102e-01 9.799184e-01 9.780480e-01 9.761671e-01 9.781318e-01 9.784687e-01 9.788004e-01 9.793463e-01 9.797241e-01 9.795389e-01 9.799467e-01 9.802538e-01 9.802153e-01 9.803718e-01 9.802892e-01 9.775596e-01 9.760468e-01 9.777378e-01 9.786642e-01 9.789072e-01 9.794644e-01 9.797841e-01 9.796220e-01 9.799892e-01 9.803612e-01 9.803211e-01 9.805171e-01 9.804601e-01
<GCONST> 9.449834e+01
<STATE> 4
<MEAN> 52
 -3.928909e-03 -1.251800e-03 2.601621e-04 -1.194690e-03 8.614827e-04 8.729838e-04 9.349209e-04 9.407512e-04 -2.156951e-04 -4.031968e-04 -2.049800e-04 -1.594404e-04 -2.972024e-04 -6.544362e-06 -3.156039e-05 -5.761844e-06 -4.608382e-06 1.370457e-05 4.366641e-06 7.125273e-06 1.052795e-05 -1.137607e-05 -5.101011e-07 1.173869e-05 -2.364637e-05 -9.539937e-06 1.373644e-05 -2.921046e-06 -2.708454e-06 7.682145e-06 -3.515236e-06 -3.124023e-06 3.752837e-06 -4.075104e-06 1.802721e-05 2.644235e-05 -1.505167e-05 8.302392e-06 1.485029e-05 7.391595e-06 2.715955e-06 -7.215530e-06 3.965329e-06 6.266861e-06 -1.744573e-05 1.531286e-06 -7.161113e-06 1.160772e-05 2.764333e-06 -1.947445e-05 2.363016e-05 4.448353e-07
<VARIANCE> 52
 9.907958e-01 9.797300e-01 9.800076e-01 9.810079e-01 9.812015e-01 9.810901e-01 9.814525e-01 9.811684e-01 9.807274e-01 9.809045e-01 9.806848e-01 9.805481e-01 9.807691e-01 9.782448e-01 9.752258e-01 9.772111e-01 9.773075e-01 9.777610e-01 9.785333e-01 9.790564e-01 9.789323e-01 9.794664e-01 9.796516e-01 9.797617e-01 9.799102e-01 9.799184e-01 9.780480e-01 9.761671e-01 9.781318e-01 9.784687e-01 9.788004e-01 9.793463e-01 9.797241e-01 9.795389e-01 9.799467e-01 9.802538e-01 9.802153e-01 9.803718e-01 9.802892e-01 9.775596e-01 9.760468e-01 9.777378e-01 9.786642e-01 9.789072e-01 9.794644e-01 9.797841e-01 9.796220e-01 9.799892e-01 9.803612e-01 9.803211e-01 9.805171e-01 9.804601e-01
<GCONST> 9.449834e+01
<TRANSP> 5
 0.000000e+00 1.000000e+00 0.000000e+00 0.000000e+00 0.000000e+00
 0.000000e+00 6.000000e-01 4.000000e-01 0.000000e+00 0.000000e+00
 0.000000e+00 0.000000e+00 6.000000e-01 4.000000e-01 0.000000e+00
 0.000000e+00 0.000000e+00 0.000000e+00 6.000000e-01 4.000000e-01
 0.000000e+00 0.000000e+00 0.000000e+00 0.000000e+00 0.000000e+00
<ENDHMM>
~h "r"
<BEGINHMM>
<NUMSTATES> 5
<STATE> 2
<MEAN> 52
 -3.928909e-03 -1.251800e-03 2.601621e-04 -1.194690e-03 8.614827e-04 8.729838e-04 9.349209e-04 9.407512e-04 -2.156951e-04 -4.031968e-04 -2.049800e-04 -1.594404e-04 -2.972024e-04 -6.544362e-06 -3.156039e-05 -5.761844e-06 -4.608382e-06 1.370457e-05 4.366641e-06 7.125273e-06 1.052795e-05 -1.137607e-05 -5.101011e-07 1.173869e-05 -2.364637e-05 -9.539937e-06 1.373644e-05 -2.921046e-06 -2.708454e-06 7.682145e-06 -3.515236e-06 -3.124023e-06 3.752837e-06 -4.075104e-06 1.802721e-05 2.644235e-05 -1.505167e-05 8.302392e-06 1.485029e-05 7.391595e-06 2.715955e-06 -7.215530e-06 3.965329e-06 6.266861e-06 -1.744573e-05 1.531286e-06 -7.161113e-06 1.160772e-05 2.764333e-06 -1.947445e-05 2.363016e-05 4.448353e-07
<VARIANCE> 52
 9.907958e-01 9.797300e-01 9.800076e-01 9.810079e-01 9.812015e-01 9.810901e-01 9.814525e-01 9.811684e-01 9.807274e-01 9.809045e-01 9.806848e-01 9.805481e-01 9.807691e-01 9.782448e-01 9.752258e-01 9.772111e-01 9.773075e-01 9.777610e-01 9.785333e-01 9.790564e-01 9.789323e-01 9.794664e-01 9.796516e-01 9.797617e-01 9.799102e-01 9.799184e-01 9.780480e-01 9.761671e-01 9.781318e-01 9.784687e-01 9.788004e-01 9.793463e-01 9.797241e-01 9.795389e-01 9.799467e-01 9.802538e-01 9.802153e-01 9.803718e-01 9.802892e-01 9.775596e-01 9.760468e-01 9.777378e-01 9.786642e-01 9.789072e-01 9.794644e-01 9.797841e-01 9.796220e-01 9.799892e-01 9.803612e-01 9.803211e-01 9.805171e-01 9.804601e-01
<GCONST> 9.449834e+01
<STATE> 3
<MEAN> 52
 -3.928909e-03 -1.251800e-03 2.601621e-04 -1.194690e-03 8.614827e-04 8.729838e-04 9.349209e-04 9.407512e-04 -2.156951e-04 -4.031968e-04 -2.049800e-04 -1.594404e-04 -2.972024e-04 -6.544362e-06 -3.156039e-05 -5.761844e-06 -4.608382e-06 1.370457e-05 4.366641e-06 7.125273e-06 1.052795e-05 -1.137607e-05 -5.101011e-07 1.173869e-05 -2.364637e-05 -9.539937e-06 1.373644e-05 -2.921046e-06 -2.708454e-06 7.682145e-06 -3.515236e-06 -3.124023e-06 3.752837e-06 -4.075104e-06 1.802721e-05 2.644235e-05 -1.505167e-05 8.302392e-06 1.485029e-05 7.391595e-06 2.715955e-06 -7.215530e-06 3.965329e-06 6.266861e-06 -1.744573e-05 1.531286e-06 -7.161113e-06 1.160772e-05 2.764333e-06 -1.947445e-05 2.363016e-05 4.448353e-07
<VARIANCE> 52
 9.907958e-01 9.797300e-01 9.800076e-01 9.810079e-01 9.812015e-01 9.810901e-01 9.814525e-01 9.811684e-01 9.807274e-01 9.809045e-01 9.806848e-01 9.805481e-01 9.807691e-01 9.782448e-01 9.752258e-01 9.772111e-01 9.773075e-01 9.777610e-01 9.785333e-01 9.790564e-01 9.789323e-01 9.794664e-01 9.796516e-01 9.797617e-01 9.799102e-01 9.799184e-01 9.780480e-01 9.761671e-01 9.781318e-01 9.784687e-01 9.788004e-01 9.793463e-01 9.797241e-01 9.795389e-01 9.799467e-01 9.802538e-01 9.802153e-01 9.803718e-01 9.802892e-01 9.775596e-01 9.760468e-01 9.777378e-01 9.786642e-01 9.789072e-01 9.794644e-01 9.797841e-01 9.796220e-01 9.799892e-01 9.803612e-01 9.803211e-01 9.805171e-01 9.804601e-01
<GCONST> 9.449834e+01
<STATE> 4
<MEAN> 52
 -3.928909e-03 -1.251800e-03 2.601621e-04 -1.194690e-03 8.614827e-04 8.729838e-04 9.349209e-04 9.407512e-04 -2.156951e-04 -4.031968e-04 -2.049800e-04 -1.594404e-04 -2.972024e-04 -6.544362e-06 -3.156039e-05 -5.761844e-06 -4.608382e-06 1.370457e-05 4.366641e-06 7.125273e-06 1.052795e-05 -1.137607e-05 -5.101011e-07 1.173869e-05 -2.364637e-05 -9.539937e-06 1.373644e-05 -2.921046e-06 -2.708454e-06 7.682145e-06 -3.515236e-06 -3.124023e-06 3.752837e-06 -4.075104e-06 1.802721e-05 2.644235e-05 -1.505167e-05 8.302392e-06 1.485029e-05 7.391595e-06 2.715955e-06 -7.215530e-06 3.965329e-06 6.266861e-06 -1.744573e-05 1.531286e-06 -7.161113e-06 1.160772e-05 2.764333e-06 -1.947445e-05 2.363016e-05 4.448353e-07
<VARIANCE> 52
 9.907958e-01 9.797300e-01 9.800076e-01 9.810079e-01 9.812015e-01 9.810901e-01 9.814525e-01 9.811684e-01 9.807274e-01 9.809045e-01 9.806848e-01 9.805481e-01 9.807691e-01 9.782448e-01 9.752258e-01 9.772111e-01 9.773075e-01 9.777610e-01 9.785333e-01 9.790564e-01 9.789323e-01 9.794664e-01 9.796516e-01 9.797617e-01 9.799102e-01 9.799184e-01 9.780480e-01 9.761671e-01 9.781318e-01 9.784687e-01 9.788004e-01 9.793463e-01 9.797241e-01 9.795389e-01 9.799467e-01 9.802538e-01 9.802153e-01 9.803718e-01 9.802892e-01 9.775596e-01 9.760468e-01 9.777378e-01 9.786642e-01 9.789072e-01 9.794644e-01 9.797841e-01 9.796220e-01 9.799892e-01 9.803612e-01 9.803211e-01 9.805171e-01 9.804601e-01
<GCONST> 9.449834e+01
<TRANSP> 5
 0.000000e+00 1.000000e+00 0.000000e+00 0.000000e+00 0.000000e+00
 0.000000e+00 6.000000e-01 4.000000e-01 0.000000e+00 0.000000e+00
 0.000000e+00 0.000000e+00 6.000000e-01 4.000000e-01 0.000000e+00
 0.000000e+00 0.000000e+00 0.000000e+00 6.000000e-01 4.000000e-01
 0.000000e+00 0.000000e+00 0.000000e+00 0.000000e+00 0.000000e+00
<ENDHMM>
~h "w"
<BEGINHMM>
<NUMSTATES> 5
<STATE> 2
<MEAN> 52
 -3.928909e-03 -1.251800e-03 2.601621e-04 -1.194690e-03 8.614827e-04 8.729838e-04 9.349209e-04 9.407512e-04 -2.156951e-04 -4.031968e-04 -2.049800e-04 -1.594404e-04 -2.972024e-04 -6.544362e-06 -3.156039e-05 -5.761844e-06 -4.608382e-06 1.370457e-05 4.366641e-06 7.125273e-06 1.052795e-05 -1.137607e-05 -5.101011e-07 1.173869e-05 -2.364637e-05 -9.539937e-06 1.373644e-05 -2.921046e-06 -2.708454e-06 7.682145e-06 -3.515236e-06 -3.124023e-06 3.752837e-06 -4.075104e-06 1.802721e-05 2.644235e-05 -1.505167e-05 8.302392e-06 1.485029e-05 7.391595e-06 2.715955e-06 -7.215530e-06 3.965329e-06 6.266861e-06 -1.744573e-05 1.531286e-06 -7.161113e-06 1.160772e-05 2.764333e-06 -1.947445e-05 2.363016e-05 4.448353e-07
<VARIANCE> 52
 9.907958e-01 9.797300e-01 9.800076e-01 9.810079e-01 9.812015e-01 9.810901e-01 9.814525e-01 9.811684e-01 9.807274e-01 9.809045e-01 9.806848e-01 9.805481e-01 9.807691e-01 9.782448e-01 9.752258e-01 9.772111e-01 9.773075e-01 9.777610e-01 9.785333e-01 9.790564e-01 9.789323e-01 9.794664e-01 9.796516e-01 9.797617e-01 9.799102e-01 9.799184e-01 9.780480e-01 9.761671e-01 9.781318e-01 9.784687e-01 9.788004e-01 9.793463e-01 9.797241e-01 9.795389e-01 9.799467e-01 9.802538e-01 9.802153e-01 9.803718e-01 9.802892e-01 9.775596e-01 9.760468e-01 9.777378e-01 9.786642e-01 9.789072e-01 9.794644e-01 9.797841e-01 9.796220e-01 9.799892e-01 9.803612e-01 9.803211e-01 9.805171e-01 9.804601e-01
<GCONST> 9.449834e+01
<STATE> 3
<MEAN> 52
 -3.928909e-03 -1.251800e-03 2.601621e-04 -1.194690e-03 8.614827e-04 8.729838e-04 9.349209e-04 9.407512e-04 -2.156951e-04 -4.031968e-04 -2.049800e-04 -1.594404e-04 -2.972024e-04 -6.544362e-06 -3.156039e-05 -5.761844e-06 -4.608382e-06 1.370457e-05 4.366641e-06 7.125273e-06 1.052795e-05 -1.137607e-05 -5.101011e-07 1.173869e-05 -2.364637e-05 -9.539937e-06 1.373644e-05 -2.921046e-06 -2.708454e-06 7.682145e-06 -3.515236e-06 -3.124023e-06 3.752837e-06 -4.075104e-06 1.802721e-05 2.644235e-05 -1.505167e-05 8.302392e-06 1.485029e-05 7.391595e-06 2.715955e-06 -7.215530e-06 3.965329e-06 6.266861e-06 -1.744573e-05 1.531286e-06 -7.161113e-06 1.160772e-05 2.764333e-06 -1.947445e-05 2.363016e-05 4.448353e-07
<VARIANCE> 52
 9.907958e-01 9.797300e-01 9.800076e-01 9.810079e-01 9.812015e-01 9.810901e-01 9.814525e-01 9.811684e-01 9.807274e-01 9.809045e-01 9.806848e-01 9.805481e-01 9.807691e-01 9.782448e-01 9.752258e-01 9.772111e-01 9.773075e-01 9.777610e-01 9.785333e-01 9.790564e-01 9.789323e-01 9.794664e-01 9.796516e-01 9.797617e-01 9.799102e-01 9.799184e-01 9.780480e-01 9.761671e-01 9.781318e-01 9.784687e-01 9.788004e-01 9.793463e-01 9.797241e-01 9.795389e-01 9.799467e-01 9.802538e-01 9.802153e-01 9.803718e-01 9.802892e-01 9.775596e-01 9.760468e-01 9.777378e-01 9.786642e-01 9.789072e-01 9.794644e-01 9.797841e-01 9.796220e-01 9.799892e-01 9.803612e-01 9.803211e-01 9.805171e-01 9.804601e-01
<GCONST> 9.449834e+01
<STATE> 4
<MEAN> 52
 -3.928909e-03 -1.251800e-03 2.601621e-04 -1.194690e-03 8.614827e-04 8.729838e-04 9.349209e-04 9.407512e-04 -2.156951e-04 -4.031968e-04 -2.049800e-04 -1.594404e-04 -2.972024e-04 -6.544362e-06 -3.156039e-05 -5.761844e-06 -4.608382e-06 1.370457e-05 4.366641e-06 7.125273e-06 1.052795e-05 -1.137607e-05 -5.101011e-07 1.173869e-05 -2.364637e-05 -9.539937e-06 1.373644e-05 -2.921046e-06 -2.708454e-06 7.682145e-06 -3.515236e-06 -3.124023e-06 3.752837e-06 -4.075104e-06 1.802721e-05 2.644235e-05 -1.505167e-05 8.302392e-06 1.485029e-05 7.391595e-06 2.715955e-06 -7.215530e-06 3.965329e-06 6.266861e-06 -1.744573e-05 1.531286e-06 -7.161113e-06 1.160772e-05 2.764333e-06 -1.947445e-05 2.363016e-05 4.448353e-07
<VARIANCE> 52
 9.907958e-01 9.797300e-01 9.800076e-01 9.810079e-01 9.812015e-01 9.810901e-01 9.814525e-01 9.811684e-01 9.807274e-01 9.809045e-01 9.806848e-01 9.805481e-01 9.807691e-01 9.782448e-01 9.752258e-01 9.772111e-01 9.773075e-01 9.777610e-01 9.785333e-01 9.790564e-01 9.789323e-01 9.794664e-01 9.796516e-01 9.797617e-01 9.799102e-01 9.799184e-01 9.780480e-01 9.761671e-01 9.781318e-01 9.784687e-01 9.788004e-01 9.793463e-01 9.797241e-01 9.795389e-01 9.799467e-01 9.802538e-01 9.802153e-01 9.803718e-01 9.802892e-01 9.775596e-01 9.760468e-01 9.777378e-01 9.786642e-01 9.789072e-01 9.794644e-01 9.797841e-01 9.796220e-01 9.799892e-01 9.803612e-01 9.803211e-01 9.805171e-01 9.804601e-01
<GCONST> 9.449834e+01
<TRANSP> 5
 0.000000e+00 1.000000e+00 0.000000e+00 0.000000e+00 0.000000e+00
 0.000000e+00 6.000000e-01 4.000000e-01 0.000000e+00 0.000000e+00
 0.000000e+00 0.000000e+00 6.000000e-01 4.000000e-01 0.000000e+00
 0.000000e+00 0.000000e+00 0.000000e+00 6.000000e-01 4.000000e-01
 0.000000e+00 0.000000e+00 0.000000e+00 0.000000e+00 0.000000e+00
<ENDHMM>
~h "o"
<BEGINHMM>
<NUMSTATES> 5
<STATE> 2
<MEAN> 52
 -3.928909e-03 -1.251800e-03 2.601621e-04 -1.194690e-03 8.614827e-04 8.729838e-04 9.349209e-04 9.407512e-04 -2.156951e-04 -4.031968e-04 -2.049800e-04 -1.594404e-04 -2.972024e-04 -6.544362e-06 -3.156039e-05 -5.761844e-06 -4.608382e-06 1.370457e-05 4.366641e-06 7.125273e-06 1.052795e-05 -1.137607e-05 -5.101011e-07 1.173869e-05 -2.364637e-05 -9.539937e-06 1.373644e-05 -2.921046e-06 -2.708454e-06 7.682145e-06 -3.515236e-06 -3.124023e-06 3.752837e-06 -4.075104e-06 1.802721e-05 2.644235e-05 -1.505167e-05 8.302392e-06 1.485029e-05 7.391595e-06 2.715955e-06 -7.215530e-06 3.965329e-06 6.266861e-06 -1.744573e-05 1.531286e-06 -7.161113e-06 1.160772e-05 2.764333e-06 -1.947445e-05 2.363016e-05 4.448353e-07
<VARIANCE> 52
 9.907958e-01 9.797300e-01 9.800076e-01 9.810079e-01 9.812015e-01 9.810901e-01 9.814525e-01 9.811684e-01 9.807274e-01 9.809045e-01 9.806848e-01 9.805481e-01 9.807691e-01 9.782448e-01 9.752258e-01 9.772111e-01 9.773075e-01 9.777610e-01 9.785333e-01 9.790564e-01 9.789323e-01 9.794664e-01 9.796516e-01 9.797617e-01 9.799102e-01 9.799184e-01 9.780480e-01 9.761671e-01 9.781318e-01 9.784687e-01 9.788004e-01 9.793463e-01 9.797241e-01 9.795389e-01 9.799467e-01 9.802538e-01 9.802153e-01 9.803718e-01 9.802892e-01 9.775596e-01 9.760468e-01 9.777378e-01 9.786642e-01 9.789072e-01 9.794644e-01 9.797841e-01 9.796220e-01 9.799892e-01 9.803612e-01 9.803211e-01 9.805171e-01 9.804601e-01
<GCONST> 9.449834e+01
<STATE> 3
<MEAN> 52
 -3.928909e-03 -1.251800e-03 2.601621e-04 -1.194690e-03 8.614827e-04 8.729838e-04 9.349209e-04 9.407512e-04 -2.156951e-04 -4.031968e-04 -2.049800e-04 -1.594404e-04 -2.972024e-04 -6.544362e-06 -3.156039e-05 -5.761844e-06 -4.608382e-06 1.370457e-05 4.366641e-06 7.125273e-06 1.052795e-05 -1.137607e-05 -5.101011e-07 1.173869e-05 -2.364637e-05 -9.539937e-06 1.373644e-05 -2.921046e-06 -2.708454e-06 7.682145e-06 -3.515236e-06 -3.124023e-06 3.752837e-06 -4.075104e-06 1.802721e-05 2.644235e-05 -1.505167e-05 8.302392e-06 1.485029e-05 7.391595e-06 2.715955e-06 -7.215530e-06 3.965329e-06 6.266861e-06 -1.744573e-05 1.531286e-06 -7.161113e-06 1.160772e-05 2.764333e-06 -1.947445e-05 2.363016e-05 4.448353e-07
<VARIANCE> 52
 9.907958e-01 9.797300e-01 9.800076e-01 9.810079e-01 9.812015e-01 9.810901e-01 9.814525e-01 9.811684e-01 9.807274e-01 9.809045e-01 9.806848e-01 9.805481e-01 9.807691e-01 9.782448e-01 9.752258e-01 9.772111e-01 9.773075e-01 9.777610e-01 9.785333e-01 9.790564e-01 9.789323e-01 9.794664e-01 9.796516e-01 9.797617e-01 9.799102e-01 9.799184e-01 9.780480e-01 9.761671e-01 9.781318e-01 9.784687e-01 9.788004e-01 9.793463e-01 9.797241e-01 9.795389e-01 9.799467e-01 9.802538e-01 9.802153e-01 9.803718e-01 9.802892e-01 9.775596e-01 9.760468e-01 9.777378e-01 9.786642e-01 9.789072e-01 9.794644e-01 9.797841e-01 9.796220e-01 9.799892e-01 9.803612e-01 9.803211e-01 9.805171e-01 9.804601e-01
<GCONST> 9.449834e+01
<STATE> 4
<MEAN> 52
 -3.928909e-03 -1.251800e-03 2.601621e-04 -1.194690e-03 8.614827e-04 8.729838e-04 9.349209e-04 9.407512e-04 -2.156951e-04 -4.031968e-04 -2.049800e-04 -1.594404e-04 -2.972024e-04 -6.544362e-06 -3.156039e-05 -5.761844e-06 -4.608382e-06 1.370457e-05 4.366641e-06 7.125273e-06 1.052795e-05 -1.137607e-05 -5.101011e-07 1.173869e-05 -2.364637e-05 -9.539937e-06 1.373644e-05 -2.921046e-06 -2.708454e-06 7.682145e-06 -3.515236e-06 -3.124023e-06 3.752837e-06 -4.075104e-06 1.802721e-05 2.644235e-05 -1.505167e-05 8.302392e-06 1.485029e-05 7.391595e-06 2.715955e-06 -7.215530e-06 3.965329e-06 6.266861e-06 -1.744573e-05 1.531286e-06 -7.161113e-06 1.160772e-05 2.764333e-06 -1.947445e-05 2.363016e-05 4.448353e-07
<VARIANCE> 52
 9.907958e-01 9.797300e-01 9.800076e-01 9.810079e-01 9.812015e-01 9.810901e-01 9.814525e-01 9.811684e-01 9.807274e-01 9.809045e-01 9.806848e-01 9.805481e-01 9.807691e-01 9.782448e-01 9.752258e-01 9.772111e-01 9.773075e-01 9.777610e-01 9.785333e-01 9.790564e-01 9.789323e-01 9.794664e-01 9.796516e-01 9.797617e-01 9.799102e-01 9.799184e-01 9.780480e-01 9.761671e-01 9.781318e-01 9.784687e-01 9.788004e-01 9.793463e-01 9.797241e-01 9.795389e-01 9.799467e-01 9.802538e-01 9.802153e-01 9.803718e-01 9.802892e-01 9.775596e-01 9.760468e-01 9.777378e-01 9.786642e-01 9.789072e-01 9.794644e-01 9.797841e-01 9.796220e-01 9.799892e-01 9.803612e-01 9.803211e-01 9.805171e-01 9.804601e-01
<GCONST> 9.449834e+01
<TRANSP> 5
 0.000000e+00 1.000000e+00 0.000000e+00 0.000000e+00 0.000000e+00
 0.000000e+00 6.000000e-01 4.000000e-01 0.000000e+00 0.000000e+00
 0.000000e+00 0.000000e+00 6.000000e-01 4.000000e-01 0.000000e+00
 0.000000e+00 0.000000e+00 0.000000e+00 6.000000e-01 4.000000e-01
 0.000000e+00 0.000000e+00 0.000000e+00 0.000000e+00 0.000000e+00
<ENDHMM>
~h "sil"
<BEGINHMM>
<NUMSTATES> 5
<STATE> 2
<MEAN> 52
 -3.928909e-03 -1.251800e-03 2.601621e-04 -1.194690e-03 8.614827e-04 8.729838e-04 9.349209e-04 9.407512e-04 -2.156951e-04 -4.031968e-04 -2.049800e-04 -1.594404e-04 -2.972024e-04 -6.544362e-06 -3.156039e-05 -5.761844e-06 -4.608382e-06 1.370457e-05 4.366641e-06 7.125273e-06 1.052795e-05 -1.137607e-05 -5.101011e-07 1.173869e-05 -2.364637e-05 -9.539937e-06 1.373644e-05 -2.921046e-06 -2.708454e-06 7.682145e-06 -3.515236e-06 -3.124023e-06 3.752837e-06 -4.075104e-06 1.802721e-05 2.644235e-05 -1.505167e-05 8.302392e-06 1.485029e-05 7.391595e-06 2.715955e-06 -7.215530e-06 3.965329e-06 6.266861e-06 -1.744573e-05 1.531286e-06 -7.161113e-06 1.160772e-05 2.764333e-06 -1.947445e-05 2.363016e-05 4.448353e-07
<VARIANCE> 52
 9.907958e-01 9.797300e-01 9.800076e-01 9.810079e-01 9.812015e-01 9.810901e-01 9.814525e-01 9.811684e-01 9.807274e-01 9.809045e-01 9.806848e-01 9.805481e-01 9.807691e-01 9.782448e-01 9.752258e-01 9.772111e-01 9.773075e-01 9.777610e-01 9.785333e-01 9.790564e-01 9.789323e-01 9.794664e-01 9.796516e-01 9.797617e-01 9.799102e-01 9.799184e-01 9.780480e-01 9.761671e-01 9.781318e-01 9.784687e-01 9.788004e-01 9.793463e-01 9.797241e-01 9.795389e-01 9.799467e-01 9.802538e-01 9.802153e-01 9.803718e-01 9.802892e-01 9.775596e-01 9.760468e-01 9.777378e-01 9.786642e-01 9.789072e-01 9.794644e-01 9.797841e-01 9.796220e-01 9.799892e-01 9.803612e-01 9.803211e-01 9.805171e-01 9.804601e-01
<GCONST> 9.449834e+01
<STATE> 3
<MEAN> 52
 -3.928909e-03 -1.251800e-03 2.601621e-04 -1.194690e-03 8.614827e-04 8.729838e-04 9.349209e-04 9.407512e-04 -2.156951e-04 -4.031968e-04 -2.049800e-04 -1.594404e-04 -2.972024e-04 -6.544362e-06 -3.156039e-05 -5.761844e-06 -4.608382e-06 1.370457e-05 4.366641e-06 7.125273e-06 1.052795e-05 -1.137607e-05 -5.101011e-07 1.173869e-05 -2.364637e-05 -9.539937e-06 1.373644e-05 -2.921046e-06 -2.708454e-06 7.682145e-06 -3.515236e-06 -3.124023e-06 3.752837e-06 -4.075104e-06 1.802721e-05 2.644235e-05 -1.505167e-05 8.302392e-06 1.485029e-05 7.391595e-06 2.715955e-06 -7.215530e-06 3.965329e-06 6.266861e-06 -1.744573e-05 1.531286e-06 -7.161113e-06 1.160772e-05 2.764333e-06 -1.947445e-05 2.363016e-05 4.448353e-07
<VARIANCE> 52
 9.907958e-01 9.797300e-01 9.800076e-01 9.810079e-01 9.812015e-01 9.810901e-01 9.814525e-01 9.811684e-01 9.807274e-01 9.809045e-01 9.806848e-01 9.805481e-01 9.807691e-01 9.782448e-01 9.752258e-01 9.772111e-01 9.773075e-01 9.777610e-01 9.785333e-01 9.790564e-01 9.789323e-01 9.794664e-01 9.796516e-01 9.797617e-01 9.799102e-01 9.799184e-01 9.780480e-01 9.761671e-01 9.781318e-01 9.784687e-01 9.788004e-01 9.793463e-01 9.797241e-01 9.795389e-01 9.799467e-01 9.802538e-01 9.802153e-01 9.803718e-01 9.802892e-01 9.775596e-01 9.760468e-01 9.777378e-01 9.786642e-01 9.789072e-01 9.794644e-01 9.797841e-01 9.796220e-01 9.799892e-01 9.803612e-01 9.803211e-01 9.805171e-01 9.804601e-01
<GCONST> 9.449834e+01
<STATE> 4
<MEAN> 52
 -3.928909e-03 -1.251800e-03 2.601621e-04 -1.194690e-03 8.614827e-04 8.729838e-04 9.349209e-04 9.407512e-04 -2.156951e-04 -4.031968e-04 -2.049800e-04 -1.594404e-04 -2.972024e-04 -6.544362e-06 -3.156039e-05 -5.761844e-06 -4.608382e-06 1.370457e-05 4.366641e-06 7.125273e-06 1.052795e-05 -1.137607e-05 -5.101011e-07 1.173869e-05 -2.364637e-05 -9.539937e-06 1.373644e-05 -2.921046e-06 -2.708454e-06 7.682145e-06 -3.515236e-06 -3.124023e-06 3.752837e-06 -4.075104e-06 1.802721e-05 2.644235e-05 -1.505167e-05 8.302392e-06 1.485029e-05 7.391595e-06 2.715955e-06 -7.215530e-06 3.965329e-06 6.266861e-06 -1.744573e-05 1.531286e-06 -7.161113e-06 1.160772e-05 2.764333e-06 -1.947445e-05 2.363016e-05 4.448353e-07
<VARIANCE> 52
 9.907958e-01 9.797300e-01 9.800076e-01 9.810079e-01 9.812015e-01 9.810901e-01 9.814525e-01 9.811684e-01 9.807274e-01 9.809045e-01 9.806848e-01 9.805481e-01 9.807691e-01 9.782448e-01 9.752258e-01 9.772111e-01 9.773075e-01 9.777610e-01 9.785333e-01 9.790564e-01 9.789323e-01 9.794664e-01 9.796516e-01 9.797617e-01 9.799102e-01 9.799184e-01 9.780480e-01 9.761671e-01 9.781318e-01 9.784687e-01 9.788004e-01 9.793463e-01 9.797241e-01 9.795389e-01 9.799467e-01 9.802538e-01 9.802153e-01 9.803718e-01 9.802892e-01 9.775596e-01 9.760468e-01 9.777378e-01 9.786642e-01 9.789072e-01 9.794644e-01 9.797841e-01 9.796220e-01 9.799892e-01 9.803612e-01 9.803211e-01 9.805171e-01 9.804601e-01
<GCONST> 9.449834e+01
<TRANSP> 5
 0.000000e+00 1.000000e+00 0.000000e+00 0.000000e+00 0.000000e+00
 0.000000e+00 6.000000e-01 4.000000e-01 0.000000e+00 0.000000e+00
 0.000000e+00 0.000000e+00 6.000000e-01 4.000000e-01 0.000000e+00
 0.000000e+00 0.000000e+00 0.000000e+00 6.000000e-01 4.000000e-01
 0.000000e+00 0.000000e+00 0.000000e+00 0.000000e+00 0.000000e+00
<ENDHMM>
~h "t"
<BEGINHMM>
<NUMSTATES> 5
<STATE> 2
<MEAN> 52
 -3.928909e-03 -1.251800e-03 2.601621e-04 -1.194690e-03 8.614827e-04 8.729838e-04 9.349209e-04 9.407512e-04 -2.156951e-04 -4.031968e-04 -2.049800e-04 -1.594404e-04 -2.972024e-04 -6.544362e-06 -3.156039e-05 -5.761844e-06 -4.608382e-06 1.370457e-05 4.366641e-06 7.125273e-06 1.052795e-05 -1.137607e-05 -5.101011e-07 1.173869e-05 -2.364637e-05 -9.539937e-06 1.373644e-05 -2.921046e-06 -2.708454e-06 7.682145e-06 -3.515236e-06 -3.124023e-06 3.752837e-06 -4.075104e-06 1.802721e-05 2.644235e-05 -1.505167e-05 8.302392e-06 1.485029e-05 7.391595e-06 2.715955e-06 -7.215530e-06 3.965329e-06 6.266861e-06 -1.744573e-05 1.531286e-06 -7.161113e-06 1.160772e-05 2.764333e-06 -1.947445e-05 2.363016e-05 4.448353e-07
<VARIANCE> 52
 9.907958e-01 9.797300e-01 9.800076e-01 9.810079e-01 9.812015e-01 9.810901e-01 9.814525e-01 9.811684e-01 9.807274e-01 9.809045e-01 9.806848e-01 9.805481e-01 9.807691e-01 9.782448e-01 9.752258e-01 9.772111e-01 9.773075e-01 9.777610e-01 9.785333e-01 9.790564e-01 9.789323e-01 9.794664e-01 9.796516e-01 9.797617e-01 9.799102e-01 9.799184e-01 9.780480e-01 9.761671e-01 9.781318e-01 9.784687e-01 9.788004e-01 9.793463e-01 9.797241e-01 9.795389e-01 9.799467e-01 9.802538e-01 9.802153e-01 9.803718e-01 9.802892e-01 9.775596e-01 9.760468e-01 9.777378e-01 9.786642e-01 9.789072e-01 9.794644e-01 9.797841e-01 9.796220e-01 9.799892e-01 9.803612e-01 9.803211e-01 9.805171e-01 9.804601e-01
<GCONST> 9.449834e+01
<STATE> 3
<MEAN> 52
 -3.928909e-03 -1.251800e-03 2.601621e-04 -1.194690e-03 8.614827e-04 8.729838e-04 9.349209e-04 9.407512e-04 -2.156951e-04 -4.031968e-04 -2.049800e-04 -1.594404e-04 -2.972024e-04 -6.544362e-06 -3.156039e-05 -5.761844e-06 -4.608382e-06 1.370457e-05 4.366641e-06 7.125273e-06 1.052795e-05 -1.137607e-05 -5.101011e-07 1.173869e-05 -2.364637e-05 -9.539937e-06 1.373644e-05 -2.921046e-06 -2.708454e-06 7.682145e-06 -3.515236e-06 -3.124023e-06 3.752837e-06 -4.075104e-06 1.802721e-05 2.644235e-05 -1.505167e-05 8.302392e-06 1.485029e-05 7.391595e-06 2.715955e-06 -7.215530e-06 3.965329e-06 6.266861e-06 -1.744573e-05 1.531286e-06 -7.161113e-06 1.160772e-05 2.764333e-06 -1.947445e-05 2.363016e-05 4.448353e-07
<VARIANCE> 52
 9.907958e-01 9.797300e-01 9.800076e-01 9.810079e-01 9.812015e-01 9.810901e-01 9.814525e-01 9.811684e-01 9.807274e-01 9.809045e-01 9.806848e-01 9.805481e-01 9.807691e-01 9.782448e-01 9.752258e-01 9.772111e-01 9.773075e-01 9.777610e-01 9.785333e-01 9.790564e-01 9.789323e-01 9.794664e-01 9.796516e-01 9.797617e-01 9.799102e-01 9.799184e-01 9.780480e-01 9.761671e-01 9.781318e-01 9.784687e-01 9.788004e-01 9.793463e-01 9.797241e-01 9.795389e-01 9.799467e-01 9.802538e-01 9.802153e-01 9.803718e-01 9.802892e-01 9.775596e-01 9.760468e-01 9.777378e-01 9.786642e-01 9.789072e-01 9.794644e-01 9.797841e-01 9.796220e-01 9.799892e-01 9.803612e-01 9.803211e-01 9.805171e-01 9.804601e-01
<GCONST> 9.449834e+01
<STATE> 4
<MEAN> 52
 -3.928909e-03 -1.251800e-03 2.601621e-04 -1.194690e-03 8.614827e-04 8.729838e-04 9.349209e-04 9.407512e-04 -2.156951e-04 -4.031968e-04 -2.049800e-04 -1.594404e-04 -2.972024e-04 -6.544362e-06 -3.156039e-05 -5.761844e-06 -4.608382e-06 1.370457e-05 4.366641e-06 7.125273e-06 1.052795e-05 -1.137607e-05 -5.101011e-07 1.173869e-05 -2.364637e-05 -9.539937e-06 1.373644e-05 -2.921046e-06 -2.708454e-06 7.682145e-06 -3.515236e-06 -3.124023e-06 3.752837e-06 -4.075104e-06 1.802721e-05 2.644235e-05 -1.505167e-05 8.302392e-06 1.485029e-05 7.391595e-06 2.715955e-06 -7.215530e-06 3.965329e-06 6.266861e-06 -1.744573e-05 1.531286e-06 -7.161113e-06 1.160772e-05 2.764333e-06 -1.947445e-05 2.363016e-05 4.448353e-07
<VARIANCE> 52
 9.907958e-01 9.797300e-01 9.800076e-01 9.810079e-01 9.812015e-01 9.810901e-01 9.814525e-01 9.811684e-01 9.807274e-01 9.809045e-01 9.806848e-01 9.805481e-01 9.807691e-01 9.782448e-01 9.752258e-01 9.772111e-01 9.773075e-01 9.777610e-01 9.785333e-01 9.790564e-01 9.789323e-01 9.794664e-01 9.796516e-01 9.797617e-01 9.799102e-01 9.799184e-01 9.780480e-01 9.761671e-01 9.781318e-01 9.784687e-01 9.788004e-01 9.793463e-01 9.797241e-01 9.795389e-01 9.799467e-01 9.802538e-01 9.802153e-01 9.803718e-01 9.802892e-01 9.775596e-01 9.760468e-01 9.777378e-01 9.786642e-01 9.789072e-01 9.794644e-01 9.797841e-01 9.796220e-01 9.799892e-01 9.803612e-01 9.803211e-01 9.805171e-01 9.804601e-01
<GCONST> 9.449834e+01
<TRANSP> 5
 0.000000e+00 1.000000e+00 0.000000e+00 0.000000e+00 0.000000e+00
 0.000000e+00 6.000000e-01 4.000000e-01 0.000000e+00 0.000000e+00
 0.000000e+00 0.000000e+00 6.000000e-01 4.000000e-01 0.000000e+00
 0.000000e+00 0.000000e+00 0.000000e+00 6.000000e-01 4.000000e-01
 0.000000e+00 0.000000e+00 0.000000e+00 0.000000e+00 0.000000e+00
<ENDHMM>
~h "ch"
<BEGINHMM>
<NUMSTATES> 5
<STATE> 2
<MEAN> 52
 -3.928909e-03 -1.251800e-03 2.601621e-04 -1.194690e-03 8.614827e-04 8.729838e-04 9.349209e-04 9.407512e-04 -2.156951e-04 -4.031968e-04 -2.049800e-04 -1.594404e-04 -2.972024e-04 -6.544362e-06 -3.156039e-05 -5.761844e-06 -4.608382e-06 1.370457e-05 4.366641e-06 7.125273e-06 1.052795e-05 -1.137607e-05 -5.101011e-07 1.173869e-05 -2.364637e-05 -9.539937e-06 1.373644e-05 -2.921046e-06 -2.708454e-06 7.682145e-06 -3.515236e-06 -3.124023e-06 3.752837e-06 -4.075104e-06 1.802721e-05 2.644235e-05 -1.505167e-05 8.302392e-06 1.485029e-05 7.391595e-06 2.715955e-06 -7.215530e-06 3.965329e-06 6.266861e-06 -1.744573e-05 1.531286e-06 -7.161113e-06 1.160772e-05 2.764333e-06 -1.947445e-05 2.363016e-05 4.448353e-07
<VARIANCE> 52
 9.907958e-01 9.797300e-01 9.800076e-01 9.810079e-01 9.812015e-01 9.810901e-01 9.814525e-01 9.811684e-01 9.807274e-01 9.809045e-01 9.806848e-01 9.805481e-01 9.807691e-01 9.782448e-01 9.752258e-01 9.772111e-01 9.773075e-01 9.777610e-01 9.785333e-01 9.790564e-01 9.789323e-01 9.794664e-01 9.796516e-01 9.797617e-01 9.799102e-01 9.799184e-01 9.780480e-01 9.761671e-01 9.781318e-01 9.784687e-01 9.788004e-01 9.793463e-01 9.797241e-01 9.795389e-01 9.799467e-01 9.802538e-01 9.802153e-01 9.803718e-01 9.802892e-01 9.775596e-01 9.760468e-01 9.777378e-01 9.786642e-01 9.789072e-01 9.794644e-01 9.797841e-01 9.796220e-01 9.799892e-01 9.803612e-01 9.803211e-01 9.805171e-01 9.804601e-01
<GCONST> 9.449834e+01
<STATE> 3
<MEAN> 52
 -3.928909e-03 -1.251800e-03 2.601621e-04 -1.194690e-03 8.614827e-04 8.729838e-04 9.349209e-04 9.407512e-04 -2.156951e-04 -4.031968e-04 -2.049800e-04 -1.594404e-04 -2.972024e-04 -6.544362e-06 -3.156039e-05 -5.761844e-06 -4.608382e-06 1.370457e-05 4.366641e-06 7.125273e-06 1.052795e-05 -1.137607e-05 -5.101011e-07 1.173869e-05 -2.364637e-05 -9.539937e-06 1.373644e-05 -2.921046e-06 -2.708454e-06 7.682145e-06 -3.515236e-06 -3.124023e-06 3.752837e-06 -4.075104e-06 1.802721e-05 2.644235e-05 -1.505167e-05 8.302392e-06 1.485029e-05 7.391595e-06 2.715955e-06 -7.215530e-06 3.965329e-06 6.266861e-06 -1.744573e-05 1.531286e-06 -7.161113e-06 1.160772e-05 2.764333e-06 -1.947445e-05 2.363016e-05 4.448353e-07
<VARIANCE> 52
 9.907958e-01 9.797300e-01 9.800076e-01 9.810079e-01 9.812015e-01 9.810901e-01 9.814525e-01 9.811684e-01 9.807274e-01 9.809045e-01 9.806848e-01 9.805481e-01 9.807691e-01 9.782448e-01 9.752258e-01 9.772111e-01 9.773075e-01 9.777610e-01 9.785333e-01 9.790564e-01 9.789323e-01 9.794664e-01 9.796516e-01 9.797617e-01 9.799102e-01 9.799184e-01 9.780480e-01 9.761671e-01 9.781318e-01 9.784687e-01 9.788004e-01 9.793463e-01 9.797241e-01 9.795389e-01 9.799467e-01 9.802538e-01 9.802153e-01 9.803718e-01 9.802892e-01 9.775596e-01 9.760468e-01 9.777378e-01 9.786642e-01 9.789072e-01 9.794644e-01 9.797841e-01 9.796220e-01 9.799892e-01 9.803612e-01 9.803211e-01 9.805171e-01 9.804601e-01
<GCONST> 9.449834e+01
<STATE> 4
<MEAN> 52
 -3.928909e-03 -1.251800e-03 2.601621e-04 -1.194690e-03 8.614827e-04 8.729838e-04 9.349209e-04 9.407512e-04 -2.156951e-04 -4.031968e-04 -2.049800e-04 -1.594404e-04 -2.972024e-04 -6.544362e-06 -3.156039e-05 -5.761844e-06 -4.608382e-06 1.370457e-05 4.366641e-06 7.125273e-06 1.052795e-05 -1.137607e-05 -5.101011e-07 1.173869e-05 -2.364637e-05 -9.539937e-06 1.373644e-05 -2.921046e-06 -2.708454e-06 7.682145e-06 -3.515236e-06 -3.124023e-06 3.752837e-06 -4.075104e-06 1.802721e-05 2.644235e-05 -1.505167e-05 8.302392e-06 1.485029e-05 7.391595e-06 2.715955e-06 -7.215530e-06 3.965329e-06 6.266861e-06 -1.744573e-05 1.531286e-06 -7.161113e-06 1.160772e-05 2.764333e-06 -1.947445e-05 2.363016e-05 4.448353e-07
<VARIANCE> 52
 9.907958e-01 9.797300e-01 9.800076e-01 9.810079e-01 9.812015e-01 9.810901e-01 9.814525e-01 9.811684e-01 9.807274e-01 9.809045e-01 9.806848e-01 9.805481e-01 9.807691e-01 9.782448e-01 9.752258e-01 9.772111e-01 9.773075e-01 9.777610e-01 9.785333e-01 9.790564e-01 9.789323e-01 9.794664e-01 9.796516e-01 9.797617e-01 9.799102e-01 9.799184e-01 9.780480e-01 9.761671e-01 9.781318e-01 9.784687e-01 9.788004e-01 9.793463e-01 9.797241e-01 9.795389e-01 9.799467e-01 9.802538e-01 9.802153e-01 9.803718e-01 9.802892e-01 9.775596e-01 9.760468e-01 9.777378e-01 9.786642e-01 9.789072e-01 9.794644e-01 9.797841e-01 9.796220e-01 9.799892e-01 9.803612e-01 9.803211e-01 9.805171e-01 9.804601e-01
<GCONST> 9.449834e+01
<TRANSP> 5
 0.000000e+00 1.000000e+00 0.000000e+00 0.000000e+00 0.000000e+00
 0.000000e+00 6.000000e-01 4.000000e-01 0.000000e+00 0.000000e+00
 0.000000e+00 0.000000e+00 6.000000e-01 4.000000e-01 0.000000e+00
 0.000000e+00 0.000000e+00 0.000000e+00 6.000000e-01 4.000000e-01
 0.000000e+00 0.000000e+00 0.000000e+00 0.000000e+00 0.000000e+00
<ENDHMM>
~h "sh"
<BEGINHMM>
<NUMSTATES> 5
<STATE> 2
<MEAN> 52
 -3.928909e-03 -1.251800e-03 2.601621e-04 -1.194690e-03 8.614827e-04 8.729838e-04 9.349209e-04 9.407512e-04 -2.156951e-04 -4.031968e-04 -2.049800e-04 -1.594404e-04 -2.972024e-04 -6.544362e-06 -3.156039e-05 -5.761844e-06 -4.608382e-06 1.370457e-05 4.366641e-06 7.125273e-06 1.052795e-05 -1.137607e-05 -5.101011e-07 1.173869e-05 -2.364637e-05 -9.539937e-06 1.373644e-05 -2.921046e-06 -2.708454e-06 7.682145e-06 -3.515236e-06 -3.124023e-06 3.752837e-06 -4.075104e-06 1.802721e-05 2.644235e-05 -1.505167e-05 8.302392e-06 1.485029e-05 7.391595e-06 2.715955e-06 -7.215530e-06 3.965329e-06 6.266861e-06 -1.744573e-05 1.531286e-06 -7.161113e-06 1.160772e-05 2.764333e-06 -1.947445e-05 2.363016e-05 4.448353e-07
<VARIANCE> 52
 9.907958e-01 9.797300e-01 9.800076e-01 9.810079e-01 9.812015e-01 9.810901e-01 9.814525e-01 9.811684e-01 9.807274e-01 9.809045e-01 9.806848e-01 9.805481e-01 9.807691e-01 9.782448e-01 9.752258e-01 9.772111e-01 9.773075e-01 9.777610e-01 9.785333e-01 9.790564e-01 9.789323e-01 9.794664e-01 9.796516e-01 9.797617e-01 9.799102e-01 9.799184e-01 9.780480e-01 9.761671e-01 9.781318e-01 9.784687e-01 9.788004e-01 9.793463e-01 9.797241e-01 9.795389e-01 9.799467e-01 9.802538e-01 9.802153e-01 9.803718e-01 9.802892e-01 9.775596e-01 9.760468e-01 9.777378e-01 9.786642e-01 9.789072e-01 9.794644e-01 9.797841e-01 9.796220e-01 9.799892e-01 9.803612e-01 9.803211e-01 9.805171e-01 9.804601e-01
<GCONST> 9.449834e+01
<STATE> 3
<MEAN> 52
 -3.928909e-03 -1.251800e-03 2.601621e-04 -1.194690e-03 8.614827e-04 8.729838e-04 9.349209e-04 9.407512e-04 -2.156951e-04 -4.031968e-04 -2.049800e-04 -1.594404e-04 -2.972024e-04 -6.544362e-06 -3.156039e-05 -5.761844e-06 -4.608382e-06 1.370457e-05 4.366641e-06 7.125273e-06 1.052795e-05 -1.137607e-05 -5.101011e-07 1.173869e-05 -2.364637e-05 -9.539937e-06 1.373644e-05 -2.921046e-06 -2.708454e-06 7.682145e-06 -3.515236e-06 -3.124023e-06 3.752837e-06 -4.075104e-06 1.802721e-05 2.644235e-05 -1.505167e-05 8.302392e-06 1.485029e-05 7.391595e-06 2.715955e-06 -7.215530e-06 3.965329e-06 6.266861e-06 -1.744573e-05 1.531286e-06 -7.161113e-06 1.160772e-05 2.764333e-06 -1.947445e-05 2.363016e-05 4.448353e-07
<VARIANCE> 52
 9.907958e-01 9.797300e-01 9.800076e-01 9.810079e-01 9.812015e-01 9.810901e-01 9.814525e-01 9.811684e-01 9.807274e-01 9.809045e-01 9.806848e-01 9.805481e-01 9.807691e-01 9.782448e-01 9.752258e-01 9.772111e-01 9.773075e-01 9.777610e-01 9.785333e-01 9.790564e-01 9.789323e-01 9.794664e-01 9.796516e-01 9.797617e-01 9.799102e-01 9.799184e-01 9.780480e-01 9.761671e-01 9.781318e-01 9.784687e-01 9.788004e-01 9.793463e-01 9.797241e-01 9.795389e-01 9.799467e-01 9.802538e-01 9.802153e-01 9.803718e-01 9.802892e-01 9.775596e-01 9.760468e-01 9.777378e-01 9.786642e-01 9.789072e-01 9.794644e-01 9.797841e-01 9.796220e-01 9.799892e-01 9.803612e-01 9.803211e-01 9.805171e-01 9.804601e-01
<GCONST> 9.449834e+01
<STATE> 4
<MEAN> 52
 -3.928909e-03 -1.251800e-03 2.601621e-04 -1.194690e-03 8.614827e-04 8.729838e-04 9.349209e-04 9.407512e-04 -2.156951e-04 -4.031968e-04 -2.049800e-04 -1.594404e-04 -2.972024e-04 -6.544362e-06 -3.156039e-05 -5.761844e-06 -4.608382e-06 1.370457e-05 4.366641e-06 7.125273e-06 1.052795e-05 -1.137607e-05 -5.101011e-07 1.173869e-05 -2.364637e-05 -9.539937e-06 1.373644e-05 -2.921046e-06 -2.708454e-06 7.682145e-06 -3.515236e-06 -3.124023e-06 3.752837e-06 -4.075104e-06 1.802721e-05 2.644235e-05 -1.505167e-05 8.302392e-06 1.485029e-05 7.391595e-06 2.715955e-06 -7.215530e-06 3.965329e-06 6.266861e-06 -1.744573e-05 1.531286e-06 -7.161113e-06 1.160772e-05 2.764333e-06 -1.947445e-05 2.363016e-05 4.448353e-07
<VARIANCE> 52
 9.907958e-01 9.797300e-01 9.800076e-01 9.810079e-01 9.812015e-01 9.810901e-01 9.814525e-01 9.811684e-01 9.807274e-01 9.809045e-01 9.806848e-01 9.805481e-01 9.807691e-01 9.782448e-01 9.752258e-01 9.772111e-01 9.773075e-01 9.777610e-01 9.785333e-01 9.790564e-01 9.789323e-01 9.794664e-01 9.796516e-01 9.797617e-01 9.799102e-01 9.799184e-01 9.780480e-01 9.761671e-01 9.781318e-01 9.784687e-01 9.788004e-01 9.793463e-01 9.797241e-01 9.795389e-01 9.799467e-01 9.802538e-01 9.802153e-01 9.803718e-01 9.802892e-01 9.775596e-01 9.760468e-01 9.777378e-01 9.786642e-01 9.789072e-01 9.794644e-01 9.797841e-01 9.796220e-01 9.799892e-01 9.803612e-01 9.803211e-01 9.805171e-01 9.804601e-01
<GCONST> 9.449834e+01
<TRANSP> 5
 0.000000e+00 1.000000e+00 0.000000e+00 0.000000e+00 0.000000e+00
 0.000000e+00 6.000000e-01 4.000000e-01 0.000000e+00 0.000000e+00
 0.000000e+00 0.000000e+00 6.000000e-01 4.000000e-01 0.000000e+00
 0.000000e+00 0.000000e+00 0.000000e+00 6.000000e-01 4.000000e-01
 0.000000e+00 0.000000e+00 0.000000e+00 0.000000e+00 0.000000e+00
<ENDHMM>
~h "s"
<BEGINHMM>
<NUMSTATES> 5
<STATE> 2
<MEAN> 52
 -3.928909e-03 -1.251800e-03 2.601621e-04 -1.194690e-03 8.614827e-04 8.729838e-04 9.349209e-04 9.407512e-04 -2.156951e-04 -4.031968e-04 -2.049800e-04 -1.594404e-04 -2.972024e-04 -6.544362e-06 -3.156039e-05 -5.761844e-06 -4.608382e-06 1.370457e-05 4.366641e-06 7.125273e-06 1.052795e-05 -1.137607e-05 -5.101011e-07 1.173869e-05 -2.364637e-05 -9.539937e-06 1.373644e-05 -2.921046e-06 -2.708454e-06 7.682145e-06 -3.515236e-06 -3.124023e-06 3.752837e-06 -4.075104e-06 1.802721e-05 2.644235e-05 -1.505167e-05 8.302392e-06 1.485029e-05 7.391595e-06 2.715955e-06 -7.215530e-06 3.965329e-06 6.266861e-06 -1.744573e-05 1.531286e-06 -7.161113e-06 1.160772e-05 2.764333e-06 -1.947445e-05 2.363016e-05 4.448353e-07
<VARIANCE> 52
 9.907958e-01 9.797300e-01 9.800076e-01 9.810079e-01 9.812015e-01 9.810901e-01 9.814525e-01 9.811684e-01 9.807274e-01 9.809045e-01 9.806848e-01 9.805481e-01 9.807691e-01 9.782448e-01 9.752258e-01 9.772111e-01 9.773075e-01 9.777610e-01 9.785333e-01 9.790564e-01 9.789323e-01 9.794664e-01 9.796516e-01 9.797617e-01 9.799102e-01 9.799184e-01 9.780480e-01 9.761671e-01 9.781318e-01 9.784687e-01 9.788004e-01 9.793463e-01 9.797241e-01 9.795389e-01 9.799467e-01 9.802538e-01 9.802153e-01 9.803718e-01 9.802892e-01 9.775596e-01 9.760468e-01 9.777378e-01 9.786642e-01 9.789072e-01 9.794644e-01 9.797841e-01 9.796220e-01 9.799892e-01 9.803612e-01 9.803211e-01 9.805171e-01 9.804601e-01
<GCONST> 9.449834e+01
<STATE> 3
<MEAN> 52
