~h "h"
<BEGINHMM>
<NUMSTATES> 5
<STATE> 2
<MEAN> 52
 -3.985001e-03 -1.284927e-03 3.212272e-04 -1.172011e-03 8.610246e-04 8.668455e-04 9.351489e-04 9.545215e-04 -2.174864e-04 -4.039525e-04 -2.209302e-04 -1.884927e-04 -3.128251e-04 -5.064455e-06 -2.436583e-05 -1.086078e-05 6.920768e-06 1.615929e-05 2.080938e-05 -2.043578e-06 -3.959874e-06 6.804280e-06 -1.008694e-05 -5.896914e-06 -1.704046e-05 -5.612740e-06 1.792213e-05 6.038424e-06 -7.215825e-06 -1.417679e-06 -5.173497e-06 6.793044e-06 2.053034e-05 -1.833496e-05 -9.081495e-06 9.224465e-06 -1.040485e-05 1.856380e-05 1.917774e-05 -8.840067e-06 9.364997e-07 -6.416554e-06 -1.338484e-05 -8.846368e-06 -3.483249e-05 1.358962e-05 1.253828e-05 4.687683e-07 1.030081e-05 1.015368e-06 2.024078e-05 -4.025253e-06
<VARIANCE> 52
 9.911698e-01 9.802856e-01 9.804822e-01 9.813642e-01 9.816242e-01 9.815120e-01 9.819377e-01 9.816215e-01 9.811071e-01 9.812845e-01 9.811584e-01 9.809774e-01 9.811919e-01 9.786490e-01 9.756899e-01 9.776914e-01 9.778354e-01 9.782374e-01 9.790415e-01 9.795090e-01 9.793269e-01 9.799088e-01 9.801182e-01 9.802496e-01 9.803829e-01 9.803662e-01 9.784396e-01 9.766091e-01 9.785807e-01 9.789411e-01 9.792718e-01 9.798164e-01 9.801570e-01 9.799801e-01 9.803432e-01 9.807089e-01 9.806575e-01 9.807891e-01 9.806961e-01 9.779255e-01 9.765742e-01 9.782826e-01 9.791772e-01 9.793438e-01 9.798966e-01 9.802307e-01 9.800454e-01 9.804936e-01 9.807737e-01 9.807788e-01 9.809913e-01 9.809271e-01
<GCONST> 9.452216e+01
<STATE> 3
<MEAN> 52
 -3.985001e-03 -1.284927e-03 3.212272e-04 -1.172011e-03 8.610246e-04 8.668455e-04 9.351489e-04 9.545215e-04 -2.174864e-04 -4.039525e-04 -2.209302e-04 -1.884927e-04 -3.128251e-04 -5.064455e-06 -2.436583e-05 -1.086078e-05 6.920768e-06 1.615929e-05 2.080938e-05 -2.043578e-06 -3.959874e-06 6.804280e-06 -1.008694e-05 -5.896914e-06 -1.704046e-05 -5.612740e-06 1.792213e-05 6.038424e-06 -7.215825e-06 -1.417679e-06 -5.173497e-06 6.793044e-06 2.053034e-05 -1.833496e-05 -9.081495e-06 9.224465e-06 -1.040485e-05 1.856380e-05 1.917774e-05 -8.840067e-06 9.364997e-07 -6.416554e-06 -1.338484e-05 -8.846368e-06 -3.483249e-05 1.358962e-05 1.253828e-05 4.687683e-07 1.030081e-05 1.015368e-06 2.024078e-05 -4.025253e-06
<VARIANCE> 52
 9.911698e-01 9.802856e-01 9.804822e-01 9.813642e-01 9.816242e-01 9.815120e-01 9.819377e-01 9.816215e-01 9.811071e-01 9.812845e-01 9.811584e-01 9.809774e-01 9.811919e-01 9.786490e-01 9.756899e-01 9.776914e-01 9.778354e-01 9.782374e-01 9.790415e-01 9.795090e-01 9.793269e-01 9.799088e-01 9.801182e-01 9.802496e-01 9.803829e-01 9.803662e-01 9.784396e-01 9.766091e-01 9.785807e-01 9.789411e-01 9.792718e-01 9.798164e-01 9.801570e-01 9.799801e-01 9.803432e-01 9.807089e-01 9.806575e-01 9.807891e-01 9.806961e-01 9.779255e-01 9.765742e-01 9.782826e-01 9.791772e-01 9.793438e-01 9.798966e-01 9.802307e-01 9.800454e-01 9.804936e-01 9.807737e-01 9.807788e-01 9.809913e-01 9.809271e-01
<GCONST> 9.452216e+01
<STATE> 4
<MEAN> 52
 -3.985001e-03 -1.284927e-03 3.212272e-04 -1.172011e-03 8.610246e-04 8.668455e-04 9.351489e-04 9.545215e-04 -2.174864e-04 -4.039525e-04 -2.209302e-04 -1.884927e-04 -3.128251e-04 -5.064455e-06 -2.436583e-05 -1.086078e-05 6.920768e-06 1.615929e-05 2.080938e-05 -2.043578e-06 -3.959874e-06 6.804280e-06 -1.008694e-05 -5.896914e-06 -1.704046e-05 -5.612740e-06 1.792213e-05 6.038424e-06 -7.215825e-06 -1.417679e-06 -5.173497e-06 6.793044e-06 2.053034e-05 -1.833496e-05 -9.081495e-06 9.224465e-06 -1.040485e-05 1.856380e-05 1.917774e-05 -8.840067e-06 9.364997e-07 -6.416554e-06 -1.338484e-05 -8.846368e-06 -3.483249e-05 1.358962e-05 1.253828e-05 4.687683e-07 1.030081e-05 1.015368e-06 2.024078e-05 -4.025253e-06
<VARIANCE> 52
 9.911698e-01 9.802856e-01 9.804822e-01 9.813642e-01 9.816242e-01 9.815120e-01 9.819377e-01 9.816215e-01 9.811071e-01 9.812845e-01 9.811584e-01 9.809774e-01 9.811919e-01 9.786490e-01 9.756899e-01 9.776914e-01 9.778354e-01 9.782374e-01 9.790415e-01 9.795090e-01 9.793269e-01 9.799088e-01 9.801182e-01 9.802496e-01 9.803829e-01 9.803662e-01 9.784396e-01 9.766091e-01 9.785807e-01 9.789411e-01 9.792718e-01 9.798164e-01 9.801570e-01 9.799801e-01 9.803432e-01 9.807089e-01 9.806575e-01 9.807891e-01 9.806961e-01 9.779255e-01 9.765742e-01 9.782826e-01 9.791772e-01 9.793438e-01 9.798966e-01 9.802307e-01 9.800454e-01 9.804936e-01 9.807737e-01 9.807788e-01 9.809913e-01 9.809271e-01
<GCONST> 9.452216e+01
<TRANSP> 5
 0.000000e+00 1.000000e+00 0.000000e+00 0.000000e+00 0.000000e+00
 0.000000e+00 6.000000e-01 4.000000e-01 0.000000e+00 0.000000e+00
 0.000000e+00 0.000000e+00 6.000000e-01 4.000000e-01 0.000000e+00
 0.000000e+00 0.000000e+00 0.000000e+00 6.000000e-01 4.000000e-01
 0.000000e+00 0.000000e+00 0.000000e+00 0.000000e+00 0.000000e+00
<ENDHMM>
~h "ae"
<BEGINHMM>
<NUMSTATES> 5
<STATE> 2
<MEAN> 52
 -3.985001e-03 -1.284927e-03 3.212272e-04 -1.172011e-03 8.610246e-04 8.668455e-04 9.351489e-04 9.545215e-04 -2.174864e-04 -4.039525e-04 -2.209302e-04 -1.884927e-04 -3.128251e-04 -5.064455e-06 -2.436583e-05 -1.086078e-05 6.920768e-06 1.615929e-05 2.080938e-05 -2.043578e-06 -3.959874e-06 6.804280e-06 -1.008694e-05 -5.896914e-06 -1.704046e-05 -5.612740e-06 1.792213e-05 6.038424e-06 -7.215825e-06 -1.417679e-06 -5.173497e-06 6.793044e-06 2.053034e-05 -1.833496e-05 -9.081495e-06 9.224465e-06 -1.040485e-05 1.856380e-05 1.917774e-05 -8.840067e-06 9.364997e-07 -6.416554e-06 -1.338484e-05 -8.846368e-06 -3.483249e-05 1.358962e-05 1.253828e-05 4.687683e-07 1.030081e-05 1.015368e-06 2.024078e-05 -4.025253e-06
<VARIANCE> 52
 9.911698e-01 9.802856e-01 9.804822e-01 9.813642e-01 9.816242e-01 9.815120e-01 9.819377e-01 9.816215e-01 9.811071e-01 9.812845e-01 9.811584e-01 9.809774e-01 9.811919e-01 9.786490e-01 9.756899e-01 9.776914e-01 9.778354e-01 9.782374e-01 9.790415e-01 9.795090e-01 9.793269e-01 9.799088e-01 9.801182e-01 9.802496e-01 9.803829e-01 9.803662e-01 9.784396e-01 9.766091e-01 9.785807e-01 9.789411e-01 9.792718e-01 9.798164e-01 9.801570e-01 9.799801e-01 9.803432e-01 9.807089e-01 9.806575e-01 9.807891e-01 9.806961e-01 9.779255e-01 9.765742e-01 9.782826e-01 9.791772e-01 9.793438e-01 9.798966e-01 9.802307e-01 9.800454e-01 9.804936e-01 9.807737e-01 9.807788e-01 9.809913e-01 9.809271e-01
<GCONST> 9.452216e+01
<STATE> 3
<MEAN> 52
 -3.985001e-03 -1.284927e-03 3.212272e-04 -1.172011e-03 8.610246e-04 8.668455e-04 9.351489e-04 9.545215e-04 -2.174864e-04 -4.039525e-04 -2.209302e-04 -1.884927e-04 -3.128251e-04 -5.064455e-06 -2.436583e-05 -1.086078e-05 6.920768e-06 1.615929e-05 2.080938e-05 -2.043578e-06 -3.959874e-06 6.804280e-06 -1.008694e-05 -5.896914e-06 -1.704046e-05 -5.612740e-06 1.792213e-05 6.038424e-06 -7.215825e-06 -1.417679e-06 -5.173497e-06 6.793044e-06 2.053034e-05 -1.833496e-05 -9.081495e-06 9.224465e-06 -1.040485e-05 1.856380e-05 1.917774e-05 -8.840067e-06 9.364997e-07 -6.416554e-06 -1.338484e-05 -8.846368e-06 -3.483249e-05 1.358962e-05 1.253828e-05 4.687683e-07 1.030081e-05 1.015368e-06 2.024078e-05 -4.025253e-06
<VARIANCE> 52
 9.911698e-01 9.802856e-01 9.804822e-01 9.813642e-01 9.816242e-01 9.815120e-01 9.819377e-01 9.816215e-01 9.811071e-01 9.812845e-01 9.811584e-01 9.809774e-01 9.811919e-01 9.786490e-01 9.756899e-01 9.776914e-01 9.778354e-01 9.782374e-01 9.790415e-01 9.795090e-01 9.793269e-01 9.799088e-01 9.801182e-01 9.802496e-01 9.803829e-01 9.803662e-01 9.784396e-01 9.766091e-01 9.785807e-01 9.789411e-01 9.792718e-01 9.798164e-01 9.801570e-01 9.799801e-01 9.803432e-01 9.807089e-01 9.806575e-01 9.807891e-01 9.806961e-01 9.779255e-01 9.765742e-01 9.782826e-01 9.791772e-01 9.793438e-01 9.798966e-01 9.802307e-01 9.800454e-01 9.804936e-01 9.807737e-01 9.807788e-01 9.809913e-01 9.809271e-01
<GCONST> 9.452216e+01
<STATE> 4
<MEAN> 52
 -3.985001e-03 -1.284927e-03 3.212272e-04 -1.172011e-03 8.610246e-04 8.668455e-04 9.351489e-04 9.545215e-04 -2.174864e-04 -4.039525e-04 -2.209302e-04 -1.884927e-04 -3.128251e-04 -5.064455e-06 -2.436583e-05 -1.086078e-05 6.920768e-06 1.615929e-05 2.080938e-05 -2.043578e-06 -3.959874e-06 6.804280e-06 -1.008694e-05 -5.896914e-06 -1.704046e-05 -5.612740e-06 1.792213e-05 6.038424e-06 -7.215825e-06 -1.417679e-06 -5.173497e-06 6.793044e-06 2.053034e-05 -1.833496e-05 -9.081495e-06 9.224465e-06 -1.040485e-05 1.856380e-05 1.917774e-05 -8.840067e-06 9.364997e-07 -6.416554e-06 -1.338484e-05 -8.846368e-06 -3.483249e-05 1.358962e-05 1.253828e-05 4.687683e-07 1.030081e-05 1.015368e-06 2.024078e-05 -4.025253e-06
<VARIANCE> 52
 9.911698e-01 9.802856e-01 9.804822e-01 9.813642e-01 9.816242e-01 9.815120e-01 9.819377e-01 9.816215e-01 9.811071e-01 9.812845e-01 9.811584e-01 9.809774e-01 9.811919e-01 9.786490e-01 9.756899e-01 9.776914e-01 9.778354e-01 9.782374e-01 9.790415e-01 9.795090e-01 9.793269e-01 9.799088e-01 9.801182e-01 9.802496e-01 9.803829e-01 9.803662e-01 9.784396e-01 9.766091e-01 9.785807e-01 9.789411e-01 9.792718e-01 9.798164e-01 9.801570e-01 9.799801e-01 9.803432e-01 9.807089e-01 9.806575e-01 9.807891e-01 9.806961e-01 9.779255e-01 9.765742e-01 9.782826e-01 9.791772e-01 9.793438e-01 9.798966e-01 9.802307e-01 9.800454e-01 9.804936e-01 9.807737e-01 9.807788e-01 9.809913e-01 9.809271e-01
<GCONST> 9.452216e+01
<TRANSP> 5
 0.000000e+00 1.000000e+00 0.000000e+00 0.000000e+00 0.000000e+00
 0.000000e+00 6.000000e-01 4.000000e-01 0.000000e+00 0.000000e+00
 0.000000e+00 0.000000e+00 6.000000e-01 4.000000e-01 0.000000e+00
 0.000000e+00 0.000000e+00 0.000000e+00 6.000000e-01 4.000000e-01
 0.000000e+00 0.000000e+00 0.000000e+00 0.000000e+00 0.000000e+00
<ENDHMM>
~h "uo"
<BEGINHMM>
<NUMSTATES> 5
<STATE> 2
<MEAN> 52
 -3.985001e-03 -1.284927e-03 3.212272e-04 -1.172011e-03 8.610246e-04 8.668455e-04 9.351489e-04 9.545215e-04 -2.174864e-04 -4.039525e-04 -2.209302e-04 -1.884927e-04 -3.128251e-04 -5.064455e-06 -2.436583e-05 -1.086078e-05 6.920768e-06 1.615929e-05 2.080938e-05 -2.043578e-06 -3.959874e-06 6.804280e-06 -1.008694e-05 -5.896914e-06 -1.704046e-05 -5.612740e-06 1.792213e-05 6.038424e-06 -7.215825e-06 -1.417679e-06 -5.173497e-06 6.793044e-06 2.053034e-05 -1.833496e-05 -9.081495e-06 9.224465e-06 -1.040485e-05 1.856380e-05 1.917774e-05 -8.840067e-06 9.364997e-07 -6.416554e-06 -1.338484e-05 -8.846368e-06 -3.483249e-05 1.358962e-05 1.253828e-05 4.687683e-07 1.030081e-05 1.015368e-06 2.024078e-05 -4.025253e-06
<VARIANCE> 52
 9.911698e-01 9.802856e-01 9.804822e-01 9.813642e-01 9.816242e-01 9.815120e-01 9.819377e-01 9.816215e-01 9.811071e-01 9.812845e-01 9.811584e-01 9.809774e-01 9.811919e-01 9.786490e-01 9.756899e-01 9.776914e-01 9.778354e-01 9.782374e-01 9.790415e-01 9.795090e-01 9.793269e-01 9.799088e-01 9.801182e-01 9.802496e-01 9.803829e-01 9.803662e-01 9.784396e-01 9.766091e-01 9.785807e-01 9.789411e-01 9.792718e-01 9.798164e-01 9.801570e-01 9.799801e-01 9.803432e-01 9.807089e-01 9.806575e-01 9.807891e-01 9.806961e-01 9.779255e-01 9.765742e-01 9.782826e-01 9.791772e-01 9.793438e-01 9.798966e-01 9.802307e-01 9.800454e-01 9.804936e-01 9.807737e-01 9.807788e-01 9.809913e-01 9.809271e-01
<GCONST> 9.452216e+01
<STATE> 3
<MEAN> 52
 -3.985001e-03 -1.284927e-03 3.212272e-04 -1.172011e-03 8.610246e-04 8.668455e-04 9.351489e-04 9.545215e-04 -2.174864e-04 -4.039525e-04 -2.209302e-04 -1.884927e-04 -3.128251e-04 -5.064455e-06 -2.436583e-05 -1.086078e-05 6.920768e-06 1.615929e-05 2.080938e-05 -2.043578e-06 -3.959874e-06 6.804280e-06 -1.008694e-05 -5.896914e-06 -1.704046e-05 -5.612740e-06 1.792213e-05 6.038424e-06 -7.215825e-06 -1.417679e-06 -5.173497e-06 6.793044e-06 2.053034e-05 -1.833496e-05 -9.081495e-06 9.224465e-06 -1.040485e-05 1.856380e-05 1.917774e-05 -8.840067e-06 9.364997e-07 -6.416554e-06 -1.338484e-05 -8.846368e-06 -3.483249e-05 1.358962e-05 1.253828e-05 4.687683e-07 1.030081e-05 1.015368e-06 2.024078e-05 -4.025253e-06
<VARIANCE> 52
 9.911698e-01 9.802856e-01 9.804822e-01 9.813642e-01 9.816242e-01 9.815120e-01 9.819377e-01 9.816215e-01 9.811071e-01 9.812845e-01 9.811584e-01 9.809774e-01 9.811919e-01 9.786490e-01 9.756899e-01 9.776914e-01 9.778354e-01 9.782374e-01 9.790415e-01 9.795090e-01 9.793269e-01 9.799088e-01 9.801182e-01 9.802496e-01 9.803829e-01 9.803662e-01 9.784396e-01 9.766091e-01 9.785807e-01 9.789411e-01 9.792718e-01 9.798164e-01 9.801570e-01 9.799801e-01 9.803432e-01 9.807089e-01 9.806575e-01 9.807891e-01 9.806961e-01 9.779255e-01 9.765742e-01 9.782826e-01 9.791772e-01 9.793438e-01 9.798966e-01 9.802307e-01 9.800454e-01 9.804936e-01 9.807737e-01 9.807788e-01 9.809913e-01 9.809271e-01
<GCONST> 9.452216e+01
<STATE> 4
<MEAN> 52
 -3.985001e-03 -1.284927e-03 3.212272e-04 -1.172011e-03 8.610246e-04 8.668455e-04 9.351489e-04 9.545215e-04 -2.174864e-04 -4.039525e-04 -2.209302e-04 -1.884927e-04 -3.128251e-04 -5.064455e-06 -2.436583e-05 -1.086078e-05 6.920768e-06 1.615929e-05 2.080938e-05 -2.043578e-06 -3.959874e-06 6.804280e-06 -1.008694e-05 -5.896914e-06 -1.704046e-05 -5.612740e-06 1.792213e-05 6.038424e-06 -7.215825e-06 -1.417679e-06 -5.173497e-06 6.793044e-06 2.053034e-05 -1.833496e-05 -9.081495e-06 9.224465e-06 -1.040485e-05 1.856380e-05 1.917774e-05 -8.840067e-06 9.364997e-07 -6.416554e-06 -1.338484e-05 -8.846368e-06 -3.483249e-05 1.358962e-05 1.253828e-05 4.687683e-07 1.030081e-05 1.015368e-06 2.024078e-05 -4.025253e-06
<VARIANCE> 52
 9.911698e-01 9.802856e-01 9.804822e-01 9.813642e-01 9.816242e-01 9.815120e-01 9.819377e-01 9.816215e-01 9.811071e-01 9.812845e-01 9.811584e-01 9.809774e-01 9.811919e-01 9.786490e-01 9.756899e-01 9.776914e-01 9.778354e-01 9.782374e-01 9.790415e-01 9.795090e-01 9.793269e-01 9.799088e-01 9.801182e-01 9.802496e-01 9.803829e-01 9.803662e-01 9.784396e-01 9.766091e-01 9.785807e-01 9.789411e-01 9.792718e-01 9.798164e-01 9.801570e-01 9.799801e-01 9.803432e-01 9.807089e-01 9.806575e-01 9.807891e-01 9.806961e-01 9.779255e-01 9.765742e-01 9.782826e-01 9.791772e-01 9.793438e-01 9.798966e-01 9.802307e-01 9.800454e-01 9.804936e-01 9.807737e-01 9.807788e-01 9.809913e-01 9.809271e-01
<GCONST> 9.452216e+01
<TRANSP> 5
 0.000000e+00 1.000000e+00 0.000000e+00 0.000000e+00 0.000000e+00
 0.000000e+00 6.000000e-01 4.000000e-01 0.000000e+00 0.000000e+00
 0.000000e+00 0.000000e+00 6.000000e-01 4.000000e-01 0.000000e+00
 0.000000e+00 0.000000e+00 0.000000e+00 6.000000e-01 4.000000e-01
 0.000000e+00 0.000000e+00 0.000000e+00 0.000000e+00 0.000000e+00
<ENDHMM>
~h "ie"
<BEGINHMM>
<NUMSTATES> 5
<STATE> 2
<MEAN> 52
 -3.985001e-03 -1.284927e-03 3.212272e-04 -1.172011e-03 8.610246e-04 8.668455e-04 9.351489e-04 9.545215e-04 -2.174864e-04 -4.039525e-04 -2.209302e-04 -1.884927e-04 -3.128251e-04 -5.064455e-06 -2.436583e-05 -1.086078e-05 6.920768e-06 1.615929e-05 2.080938e-05 -2.043578e-06 -3.959874e-06 6.804280e-06 -1.008694e-05 -5.896914e-06 -1.704046e-05 -5.612740e-06 1.792213e-05 6.038424e-06 -7.215825e-06 -1.417679e-06 -5.173497e-06 6.793044e-06 2.053034e-05 -1.833496e-05 -9.081495e-06 9.224465e-06 -1.040485e-05 1.856380e-05 1.917774e-05 -8.840067e-06 9.364997e-07 -6.416554e-06 -1.338484e-05 -8.846368e-06 -3.483249e-05 1.358962e-05 1.253828e-05 4.687683e-07 1.030081e-05 1.015368e-06 2.024078e-05 -4.025253e-06
<VARIANCE> 52
 9.911698e-01 9.802856e-01 9.804822e-01 9.813642e-01 9.816242e-01 9.815120e-01 9.819377e-01 9.816215e-01 9.811071e-01 9.812845e-01 9.811584e-01 9.809774e-01 9.811919e-01 9.786490e-01 9.756899e-01 9.776914e-01 9.778354e-01 9.782374e-01 9.790415e-01 9.795090e-01 9.793269e-01 9.799088e-01 9.801182e-01 9.802496e-01 9.803829e-01 9.803662e-01 9.784396e-01 9.766091e-01 9.785807e-01 9.789411e-01 9.792718e-01 9.798164e-01 9.801570e-01 9.799801e-01 9.803432e-01 9.807089e-01 9.806575e-01 9.807891e-01 9.806961e-01 9.779255e-01 9.765742e-01 9.782826e-01 9.791772e-01 9.793438e-01 9.798966e-01 9.802307e-01 9.800454e-01 9.804936e-01 9.807737e-01 9.807788e-01 9.809913e-01 9.809271e-01
<GCONST> 9.452216e+01
<STATE> 3
<MEAN> 52
 -3.985001e-03 -1.284927e-03 3.212272e-04 -1.172011e-03 8.610246e-04 8.668455e-04 9.351489e-04 9.545215e-04 -2.174864e-04 -4.039525e-04 -2.209302e-04 -1.884927e-04 -3.128251e-04 -5.064455e-06 -2.436583e-05 -1.086078e-05 6.920768e-06 1.615929e-05 2.080938e-05 -2.043578e-06 -3.959874e-06 6.804280e-06 -1.008694e-05 -5.896914e-06 -1.704046e-05 -5.612740e-06 1.792213e-05 6.038424e-06 -7.215825e-06 -1.417679e-06 -5.173497e-06 6.793044e-06 2.053034e-05 -1.833496e-05 -9.081495e-06 9.224465e-06 -1.040485e-05 1.856380e-05 1.917774e-05 -8.840067e-06 9.364997e-07 -6.416554e-06 -1.338484e-05 -8.846368e-06 -3.483249e-05 1.358962e-05 1.253828e-05 4.687683e-07 1.030081e-05 1.015368e-06 2.024078e-05 -4.025253e-06
<VARIANCE> 52
 9.911698e-01 9.802856e-01 9.804822e-01 9.813642e-01 9.816242e-01 9.815120e-01 9.819377e-01 9.816215e-01 9.811071e-01 9.812845e-01 9.811584e-01 9.809774e-01 9.811919e-01 9.786490e-01 9.756899e-01 9.776914e-01 9.778354e-01 9.782374e-01 9.790415e-01 9.795090e-01 9.793269e-01 9.799088e-01 9.801182e-01 9.802496e-01 9.803829e-01 9.803662e-01 9.784396e-01 9.766091e-01 9.785807e-01 9.789411e-01 9.792718e-01 9.798164e-01 9.801570e-01 9.799801e-01 9.803432e-01 9.807089e-01 9.806575e-01 9.807891e-01 9.806961e-01 9.779255e-01 9.765742e-01 9.782826e-01 9.791772e-01 9.793438e-01 9.798966e-01 9.802307e-01 9.800454e-01 9.804936e-01 9.807737e-01 9.807788e-01 9.809913e-01 9.809271e-01
<GCONST> 9.452216e+01
<STATE> 4
<MEAN> 52
 -3.985001e-03 -1.284927e-03 3.212272e-04 -1.172011e-03 8.610246e-04 8.668455e-04 9.351489e-04 9.545215e-04 -2.174864e-04 -4.039525e-04 -2.209302e-04 -1.884927e-04 -3.128251e-04 -5.064455e-06 -2.436583e-05 -1.086078e-05 6.920768e-06 1.615929e-05 2.080938e-05 -2.043578e-06 -3.959874e-06 6.804280e-06 -1.008694e-05 -5.896914e-06 -1.704046e-05 -5.612740e-06 1.792213e-05 6.038424e-06 -7.215825e-06 -1.417679e-06 -5.173497e-06 6.793044e-06 2.053034e-05 -1.833496e-05 -9.081495e-06 9.224465e-06 -1.040485e-05 1.856380e-05 1.917774e-05 -8.840067e-06 9.364997e-07 -6.416554e-06 -1.338484e-05 -8.846368e-06 -3.483249e-05 1.358962e-05 1.253828e-05 4.687683e-07 1.030081e-05 1.015368e-06 2.024078e-05 -4.025253e-06
<VARIANCE> 52
 9.911698e-01 9.802856e-01 9.804822e-01 9.813642e-01 9.816242e-01 9.815120e-01 9.819377e-01 9.816215e-01 9.811071e-01 9.812845e-01 9.811584e-01 9.809774e-01 9.811919e-01 9.786490e-01 9.756899e-01 9.776914e-01 9.778354e-01 9.782374e-01 9.790415e-01 9.795090e-01 9.793269e-01 9.799088e-01 9.801182e-01 9.802496e-01 9.803829e-01 9.803662e-01 9.784396e-01 9.766091e-01 9.785807e-01 9.789411e-01 9.792718e-01 9.798164e-01 9.801570e-01 9.799801e-01 9.803432e-01 9.807089e-01 9.806575e-01 9.807891e-01 9.806961e-01 9.779255e-01 9.765742e-01 9.782826e-01 9.791772e-01 9.793438e-01 9.798966e-01 9.802307e-01 9.800454e-01 9.804936e-01 9.807737e-01 9.807788e-01 9.809913e-01 9.809271e-01
<GCONST> 9.452216e+01
<TRANSP> 5
 0.000000e+00 1.000000e+00 0.000000e+00 0.000000e+00 0.000000e+00
 0.000000e+00 6.000000e-01 4.000000e-01 0.000000e+00 0.000000e+00
 0.000000e+00 0.000000e+00 6.000000e-01 4.000000e-01 0.000000e+00
 0.000000e+00 0.000000e+00 0.000000e+00 6.000000e-01 4.000000e-01
 0.000000e+00 0.000000e+00 0.000000e+00 0.000000e+00 0.000000e+00
<ENDHMM>
~h "j"
<BEGINHMM>
<NUMSTATES> 5
<STATE> 2
<MEAN> 52
 -3.985001e-03 -1.284927e-03 3.212272e-04 -1.172011e-03 8.610246e-04 8.668455e-04 9.351489e-04 9.545215e-04 -2.174864e-04 -4.039525e-04 -2.209302e-04 -1.884927e-04 -3.128251e-04 -5.064455e-06 -2.436583e-05 -1.086078e-05 6.920768e-06 1.615929e-05 2.080938e-05 -2.043578e-06 -3.959874e-06 6.804280e-06 -1.008694e-05 -5.896914e-06 -1.704046e-05 -5.612740e-06 1.792213e-05 6.038424e-06 -7.215825e-06 -1.417679e-06 -5.173497e-06 6.793044e-06 2.053034e-05 -1.833496e-05 -9.081495e-06 9.224465e-06 -1.040485e-05 1.856380e-05 1.917774e-05 -8.840067e-06 9.364997e-07 -6.416554e-06 -1.338484e-05 -8.846368e-06 -3.483249e-05 1.358962e-05 1.253828e-05 4.687683e-07 1.030081e-05 1.015368e-06 2.024078e-05 -4.025253e-06
<VARIANCE> 52
 9.911698e-01 9.802856e-01 9.804822e-01 9.813642e-01 9.816242e-01 9.815120e-01 9.819377e-01 9.816215e-01 9.811071e-01 9.812845e-01 9.811584e-01 9.809774e-01 9.811919e-01 9.786490e-01 9.756899e-01 9.776914e-01 9.778354e-01 9.782374e-01 9.790415e-01 9.795090e-01 9.793269e-01 9.799088e-01 9.801182e-01 9.802496e-01 9.803829e-01 9.803662e-01 9.784396e-01 9.766091e-01 9.785807e-01 9.789411e-01 9.792718e-01 9.798164e-01 9.801570e-01 9.799801e-01 9.803432e-01 9.807089e-01 9.806575e-01 9.807891e-01 9.806961e-01 9.779255e-01 9.765742e-01 9.782826e-01 9.791772e-01 9.793438e-01 9.798966e-01 9.802307e-01 9.800454e-01 9.804936e-01 9.807737e-01 9.807788e-01 9.809913e-01 9.809271e-01
<GCONST> 9.452216e+01
<STATE> 3
<MEAN> 52
 -3.985001e-03 -1.284927e-03 3.212272e-04 -1.172011e-03 8.610246e-04 8.668455e-04 9.351489e-04 9.545215e-04 -2.174864e-04 -4.039525e-04 -2.209302e-04 -1.884927e-04 -3.128251e-04 -5.064455e-06 -2.436583e-05 -1.086078e-05 6.920768e-06 1.615929e-05 2.080938e-05 -2.043578e-06 -3.959874e-06 6.804280e-06 -1.008694e-05 -5.896914e-06 -1.704046e-05 -5.612740e-06 1.792213e-05 6.038424e-06 -7.215825e-06 -1.417679e-06 -5.173497e-06 6.793044e-06 2.053034e-05 -1.833496e-05 -9.081495e-06 9.224465e-06 -1.040485e-05 1.856380e-05 1.917774e-05 -8.840067e-06 9.364997e-07 -6.416554e-06 -1.338484e-05 -8.846368e-06 -3.483249e-05 1.358962e-05 1.253828e-05 4.687683e-07 1.030081e-05 1.015368e-06 2.024078e-05 -4.025253e-06
<VARIANCE> 52
 9.911698e-01 9.802856e-01 9.804822e-01 9.813642e-01 9.816242e-01 9.815120e-01 9.819377e-01 9.816215e-01 9.811071e-01 9.812845e-01 9.811584e-01 9.809774e-01 9.811919e-01 9.786490e-01 9.756899e-01 9.776914e-01 9.778354e-01 9.782374e-01 9.790415e-01 9.795090e-01 9.793269e-01 9.799088e-01 9.801182e-01 9.802496e-01 9.803829e-01 9.803662e-01 9.784396e-01 9.766091e-01 9.785807e-01 9.789411e-01 9.792718e-01 9.798164e-01 9.801570e-01 9.799801e-01 9.803432e-01 9.807089e-01 9.806575e-01 9.807891e-01 9.806961e-01 9.779255e-01 9.765742e-01 9.782826e-01 9.791772e-01 9.793438e-01 9.798966e-01 9.802307e-01 9.800454e-01 9.804936e-01 9.807737e-01 9.807788e-01 9.809913e-01 9.809271e-01
<GCONST> 9.452216e+01
<STATE> 4
<MEAN> 52
 -3.985001e-03 -1.284927e-03 3.212272e-04 -1.172011e-03 8.610246e-04 8.668455e-04 9.351489e-04 9.545215e-04 -2.174864e-04 -4.039525e-04 -2.209302e-04 -1.884927e-04 -3.128251e-04 -5.064455e-06 -2.436583e-05 -1.086078e-05 6.920768e-06 1.615929e-05 2.080938e-05 -2.043578e-06 -3.959874e-06 6.804280e-06 -1.008694e-05 -5.896914e-06 -1.704046e-05 -5.612740e-06 1.792213e-05 6.038424e-06 -7.215825e-06 -1.417679e-06 -5.173497e-06 6.793044e-06 2.053034e-05 -1.833496e-05 -9.081495e-06 9.224465e-06 -1.040485e-05 1.856380e-05 1.917774e-05 -8.840067e-06 9.364997e-07 -6.416554e-06 -1.338484e-05 -8.846368e-06 -3.483249e-05 1.358962e-05 1.253828e-05 4.687683e-07 1.030081e-05 1.015368e-06 2.024078e-05 -4.025253e-06
<VARIANCE> 52
 9.911698e-01 9.802856e-01 9.804822e-01 9.813642e-01 9.816242e-01 9.815120e-01 9.819377e-01 9.816215e-01 9.811071e-01 9.812845e-01 9.811584e-01 9.809774e-01 9.811919e-01 9.786490e-01 9.756899e-01 9.776914e-01 9.778354e-01 9.782374e-01 9.790415e-01 9.795090e-01 9.793269e-01 9.799088e-01 9.801182e-01 9.802496e-01 9.803829e-01 9.803662e-01 9.784396e-01 9.766091e-01 9.785807e-01 9.789411e-01 9.792718e-01 9.798164e-01 9.801570e-01 9.799801e-01 9.803432e-01 9.807089e-01 9.806575e-01 9.807891e-01 9.806961e-01 9.779255e-01 9.765742e-01 9.782826e-01 9.791772e-01 9.793438e-01 9.798966e-01 9.802307e-01 9.800454e-01 9.804936e-01 9.807737e-01 9.807788e-01 9.809913e-01 9.809271e-01
<GCONST> 9.452216e+01
<TRANSP> 5
 0.000000e+00 1.000000e+00 0.000000e+00 0.000000e+00 0.000000e+00
 0.000000e+00 6.000000e-01 4.000000e-01 0.000000e+00 0.000000e+00
 0.000000e+00 0.000000e+00 6.000000e-01 4.000000e-01 0.000000e+00
 0.000000e+00 0.000000e+00 0.000000e+00 6.000000e-01 4.000000e-01
 0.000000e+00 0.000000e+00 0.000000e+00 0.000000e+00 0.000000e+00
<ENDHMM>
~h "aa"
<BEGINHMM>
<NUMSTATES> 5
<STATE> 2
<MEAN> 52
 -3.985001e-03 -1.284927e-03 3.212272e-04 -1.172011e-03 8.610246e-04 8.668455e-04 9.351489e-04 9.545215e-04 -2.174864e-04 -4.039525e-04 -2.209302e-04 -1.884927e-04 -3.128251e-04 -5.064455e-06 -2.436583e-05 -1.086078e-05 6.920768e-06 1.615929e-05 2.080938e-05 -2.043578e-06 -3.959874e-06 6.804280e-06 -1.008694e-05 -5.896914e-06 -1.704046e-05 -5.612740e-06 1.792213e-05 6.038424e-06 -7.215825e-06 -1.417679e-06 -5.173497e-06 6.793044e-06 2.053034e-05 -1.833496e-05 -9.081495e-06 9.224465e-06 -1.040485e-05 1.856380e-05 1.917774e-05 -8.840067e-06 9.364997e-07 -6.416554e-06 -1.338484e-05 -8.846368e-06 -3.483249e-05 1.358962e-05 1.253828e-05 4.687683e-07 1.030081e-05 1.015368e-06 2.024078e-05 -4.025253e-06
<VARIANCE> 52
 9.911698e-01 9.802856e-01 9.804822e-01 9.813642e-01 9.816242e-01 9.815120e-01 9.819377e-01 9.816215e-01 9.811071e-01 9.812845e-01 9.811584e-01 9.809774e-01 9.811919e-01 9.786490e-01 9.756899e-01 9.776914e-01 9.778354e-01 9.782374e-01 9.790415e-01 9.795090e-01 9.793269e-01 9.799088e-01 9.801182e-01 9.802496e-01 9.803829e-01 9.803662e-01 9.784396e-01 9.766091e-01 9.785807e-01 9.789411e-01 9.792718e-01 9.798164e-01 9.801570e-01 9.799801e-01 9.803432e-01 9.807089e-01 9.806575e-01 9.807891e-01 9.806961e-01 9.779255e-01 9.765742e-01 9.782826e-01 9.791772e-01 9.793438e-01 9.798966e-01 9.802307e-01 9.800454e-01 9.804936e-01 9.807737e-01 9.807788e-01 9.809913e-01 9.809271e-01
<GCONST> 9.452216e+01
<STATE> 3
<MEAN> 52
 -3.985001e-03 -1.284927e-03 3.212272e-04 -1.172011e-03 8.610246e-04 8.668455e-04 9.351489e-04 9.545215e-04 -2.174864e-04 -4.039525e-04 -2.209302e-04 -1.884927e-04 -3.128251e-04 -5.064455e-06 -2.436583e-05 -1.086078e-05 6.920768e-06 1.615929e-05 2.080938e-05 -2.043578e-06 -3.959874e-06 6.804280e-06 -1.008694e-05 -5.896914e-06 -1.704046e-05 -5.612740e-06 1.792213e-05 6.038424e-06 -7.215825e-06 -1.417679e-06 -5.173497e-06 6.793044e-06 2.053034e-05 -1.833496e-05 -9.081495e-06 9.224465e-06 -1.040485e-05 1.856380e-05 1.917774e-05 -8.840067e-06 9.364997e-07 -6.416554e-06 -1.338484e-05 -8.846368e-06 -3.483249e-05 1.358962e-05 1.253828e-05 4.687683e-07 1.030081e-05 1.015368e-06 2.024078e-05 -4.025253e-06
<VARIANCE> 52
 9.911698e-01 9.802856e-01 9.804822e-01 9.813642e-01 9.816242e-01 9.815120e-01 9.819377e-01 9.816215e-01 9.811071e-01 9.812845e-01 9.811584e-01 9.809774e-01 9.811919e-01 9.786490e-01 9.756899e-01 9.776914e-01 9.778354e-01 9.782374e-01 9.790415e-01 9.795090e-01 9.793269e-01 9.799088e-01 9.801182e-01 9.802496e-01 9.803829e-01 9.803662e-01 9.784396e-01 9.766091e-01 9.785807e-01 9.789411e-01 9.792718e-01 9.798164e-01 9.801570e-01 9.799801e-01 9.803432e-01 9.807089e-01 9.806575e-01 9.807891e-01 9.806961e-01 9.779255e-01 9.765742e-01 9.782826e-01 9.791772e-01 9.793438e-01 9.798966e-01 9.802307e-01 9.800454e-01 9.804936e-01 9.807737e-01 9.807788e-01 9.809913e-01 9.809271e-01
<GCONST> 9.452216e+01
<STATE> 4
<MEAN> 52
 -3.985001e-03 -1.284927e-03 3.212272e-04 -1.172011e-03 8.610246e-04 8.668455e-04 9.351489e-04 9.545215e-04 -2.174864e-04 -4.039525e-04 -2.209302e-04 -1.884927e-04 -3.128251e-04 -5.064455e-06 -2.436583e-05 -1.086078e-05 6.920768e-06 1.615929e-05 2.080938e-05 -2.043578e-06 -3.959874e-06 6.804280e-06 -1.008694e-05 -5.896914e-06 -1.704046e-05 -5.612740e-06 1.792213e-05 6.038424e-06 -7.215825e-06 -1.417679e-06 -5.173497e-06 6.793044e-06 2.053034e-05 -1.833496e-05 -9.081495e-06 9.224465e-06 -1.040485e-05 1.856380e-05 1.917774e-05 -8.840067e-06 9.364997e-07 -6.416554e-06 -1.338484e-05 -8.846368e-06 -3.483249e-05 1.358962e-05 1.253828e-05 4.687683e-07 1.030081e-05 1.015368e-06 2.024078e-05 -4.025253e-06
<VARIANCE> 52
 9.911698e-01 9.802856e-01 9.804822e-01 9.813642e-01 9.816242e-01 9.815120e-01 9.819377e-01 9.816215e-01 9.811071e-01 9.812845e-01 9.811584e-01 9.809774e-01 9.811919e-01 9.786490e-01 9.756899e-01 9.776914e-01 9.778354e-01 9.782374e-01 9.790415e-01 9.795090e-01 9.793269e-01 9.799088e-01 9.801182e-01 9.802496e-01 9.803829e-01 9.803662e-01 9.784396e-01 9.766091e-01 9.785807e-01 9.789411e-01 9.792718e-01 9.798164e-01 9.801570e-01 9.799801e-01 9.803432e-01 9.807089e-01 9.806575e-01 9.807891e-01 9.806961e-01 9.779255e-01 9.765742e-01 9.782826e-01 9.791772e-01 9.793438e-01 9.798966e-01 9.802307e-01 9.800454e-01 9.804936e-01 9.807737e-01 9.807788e-01 9.809913e-01 9.809271e-01
<GCONST> 9.452216e+01
<TRANSP> 5
 0.000000e+00 1.000000e+00 0.000000e+00 0.000000e+00 0.000000e+00
 0.000000e+00 6.000000e-01 4.000000e-01 0.000000e+00 0.000000e+00
 0.000000e+00 0.000000e+00 6.000000e-01 4.000000e-01 0.000000e+00
 0.000000e+00 0.000000e+00 0.000000e+00 6.000000e-01 4.000000e-01
 0.000000e+00 0.000000e+00 0.000000e+00 0.000000e+00 0.000000e+00
<ENDHMM>
~h "f"
<BEGINHMM>
<NUMSTATES> 5
<STATE> 2
<MEAN> 52
 -3.985001e-03 -1.284927e-03 3.212272e-04 -1.172011e-03 8.610246e-04 8.668455e-04 9.351489e-04 9.545215e-04 -2.174864e-04 -4.039525e-04 -2.209302e-04 -1.884927e-04 -3.128251e-04 -5.064455e-06 -2.436583e-05 -1.086078e-05 6.920768e-06 1.615929e-05 2.080938e-05 -2.043578e-06 -3.959874e-06 6.804280e-06 -1.008694e-05 -5.896914e-06 -1.704046e-05 -5.612740e-06 1.792213e-05 6.038424e-06 -7.215825e-06 -1.417679e-06 -5.173497e-06 6.793044e-06 2.053034e-05 -1.833496e-05 -9.081495e-06 9.224465e-06 -1.040485e-05 1.856380e-05 1.917774e-05 -8.840067e-06 9.364997e-07 -6.416554e-06 -1.338484e-05 -8.846368e-06 -3.483249e-05 1.358962e-05 1.253828e-05 4.687683e-07 1.030081e-05 1.015368e-06 2.024078e-05 -4.025253e-06
<VARIANCE> 52
 9.911698e-01 9.802856e-01 9.804822e-01 9.813642e-01 9.816242e-01 9.815120e-01 9.819377e-01 9.816215e-01 9.811071e-01 9.812845e-01 9.811584e-01 9.809774e-01 9.811919e-01 9.786490e-01 9.756899e-01 9.776914e-01 9.778354e-01 9.782374e-01 9.790415e-01 9.795090e-01 9.793269e-01 9.799088e-01 9.801182e-01 9.802496e-01 9.803829e-01 9.803662e-01 9.784396e-01 9.766091e-01 9.785807e-01 9.789411e-01 9.792718e-01 9.798164e-01 9.801570e-01 9.799801e-01 9.803432e-01 9.807089e-01 9.806575e-01 9.807891e-01 9.806961e-01 9.779255e-01 9.765742e-01 9.782826e-01 9.791772e-01 9.793438e-01 9.798966e-01 9.802307e-01 9.800454e-01 9.804936e-01 9.807737e-01 9.807788e-01 9.809913e-01 9.809271e-01
<GCONST> 9.452216e+01
<STATE> 3
<MEAN> 52
 -3.985001e-03 -1.284927e-03 3.212272e-04 -1.172011e-03 8.610246e-04 8.668455e-04 9.351489e-04 9.545215e-04 -2.174864e-04 -4.039525e-04 -2.209302e-04 -1.884927e-04 -3.128251e-04 -5.064455e-06 -2.436583e-05 -1.086078e-05 6.920768e-06 1.615929e-05 2.080938e-05 -2.043578e-06 -3.959874e-06 6.804280e-06 -1.008694e-05 -5.896914e-06 -1.704046e-05 -5.612740e-06 1.792213e-05 6.038424e-06 -7.215825e-06 -1.417679e-06 -5.173497e-06 6.793044e-06 2.053034e-05 -1.833496e-05 -9.081495e-06 9.224465e-06 -1.040485e-05 1.856380e-05 1.917774e-05 -8.840067e-06 9.364997e-07 -6.416554e-06 -1.338484e-05 -8.846368e-06 -3.483249e-05 1.358962e-05 1.253828e-05 4.687683e-07 1.030081e-05 1.015368e-06 2.024078e-05 -4.025253e-06
<VARIANCE> 52
 9.911698e-01 9.802856e-01 9.804822e-01 9.813642e-01 9.816242e-01 9.815120e-01 9.819377e-01 9.816215e-01 9.811071e-01 9.812845e-01 9.811584e-01 9.809774e-01 9.811919e-01 9.786490e-01 9.756899e-01 9.776914e-01 9.778354e-01 9.782374e-01 9.790415e-01 9.795090e-01 9.793269e-01 9.799088e-01 9.801182e-01 9.802496e-01 9.803829e-01 9.803662e-01 9.784396e-01 9.766091e-01 9.785807e-01 9.789411e-01 9.792718e-01 9.798164e-01 9.801570e-01 9.799801e-01 9.803432e-01 9.807089e-01 9.806575e-01 9.807891e-01 9.806961e-01 9.779255e-01 9.765742e-01 9.782826e-01 9.791772e-01 9.793438e-01 9.798966e-01 9.802307e-01 9.800454e-01 9.804936e-01 9.807737e-01 9.807788e-01 9.809913e-01 9.809271e-01
<GCONST> 9.452216e+01
<STATE> 4
<MEAN> 52
 -3.985001e-03 -1.284927e-03 3.212272e-04 -1.172011e-03 8.610246e-04 8.668455e-04 9.351489e-04 9.545215e-04 -2.174864e-04 -4.039525e-04 -2.209302e-04 -1.884927e-04 -3.128251e-04 -5.064455e-06 -2.436583e-05 -1.086078e-05 6.920768e-06 1.615929e-05 2.080938e-05 -2.043578e-06 -3.959874e-06 6.804280e-06 -1.008694e-05 -5.896914e-06 -1.704046e-05 -5.612740e-06 1.792213e-05 6.038424e-06 -7.215825e-06 -1.417679e-06 -5.173497e-06 6.793044e-06 2.053034e-05 -1.833496e-05 -9.081495e-06 9.224465e-06 -1.040485e-05 1.856380e-05 1.917774e-05 -8.840067e-06 9.364997e-07 -6.416554e-06 -1.338484e-05 -8.846368e-06 -3.483249e-05 1.358962e-05 1.253828e-05 4.687683e-07 1.030081e-05 1.015368e-06 2.024078e-05 -4.025253e-06
<VARIANCE> 52
 9.911698e-01 9.802856e-01 9.804822e-01 9.813642e-01 9.816242e-01 9.815120e-01 9.819377e-01 9.816215e-01 9.811071e-01 9.812845e-01 9.811584e-01 9.809774e-01 9.811919e-01 9.786490e-01 9.756899e-01 9.776914e-01 9.778354e-01 9.782374e-01 9.790415e-01 9.795090e-01 9.793269e-01 9.799088e-01 9.801182e-01 9.802496e-01 9.803829e-01 9.803662e-01 9.784396e-01 9.766091e-01 9.785807e-01 9.789411e-01 9.792718e-01 9.798164e-01 9.801570e-01 9.799801e-01 9.803432e-01 9.807089e-01 9.806575e-01 9.807891e-01 9.806961e-01 9.779255e-01 9.765742e-01 9.782826e-01 9.791772e-01 9.793438e-01 9.798966e-01 9.802307e-01 9.800454e-01 9.804936e-01 9.807737e-01 9.807788e-01 9.809913e-01 9.809271e-01
<GCONST> 9.452216e+01
<TRANSP> 5
 0.000000e+00 1.000000e+00 0.000000e+00 0.000000e+00 0.000000e+00
 0.000000e+00 6.000000e-01 4.000000e-01 0.000000e+00 0.000000e+00
 0.000000e+00 0.000000e+00 6.000000e-01 4.000000e-01 0.000000e+00
 0.000000e+00 0.000000e+00 0.000000e+00 6.000000e-01 4.000000e-01
 0.000000e+00 0.000000e+00 0.000000e+00 0.000000e+00 0.000000e+00
<ENDHMM>
~h "gh"
<BEGINHMM>
<NUMSTATES> 5
<STATE> 2
<MEAN> 52
 -3.985001e-03 -1.284927e-03 3.212272e-04 -1.172011e-03 8.610246e-04 8.668455e-04 9.351489e-04 9.545215e-04 -2.174864e-04 -4.039525e-04 -2.209302e-04 -1.884927e-04 -3.128251e-04 -5.064455e-06 -2.436583e-05 -1.086078e-05 6.920768e-06 1.615929e-05 2.080938e-05 -2.043578e-06 -3.959874e-06 6.804280e-06 -1.008694e-05 -5.896914e-06 -1.704046e-05 -5.612740e-06 1.792213e-05 6.038424e-06 -7.215825e-06 -1.417679e-06 -5.173497e-06 6.793044e-06 2.053034e-05 -1.833496e-05 -9.081495e-06 9.224465e-06 -1.040485e-05 1.856380e-05 1.917774e-05 -8.840067e-06 9.364997e-07 -6.416554e-06 -1.338484e-05 -8.846368e-06 -3.483249e-05 1.358962e-05 1.253828e-05 4.687683e-07 1.030081e-05 1.015368e-06 2.024078e-05 -4.025253e-06
<VARIANCE> 52
 9.911698e-01 9.802856e-01 9.804822e-01 9.813642e-01 9.816242e-01 9.815120e-01 9.819377e-01 9.816215e-01 9.811071e-01 9.812845e-01 9.811584e-01 9.809774e-01 9.811919e-01 9.786490e-01 9.756899e-01 9.776914e-01 9.778354e-01 9.782374e-01 9.790415e-01 9.795090e-01 9.793269e-01 9.799088e-01 9.801182e-01 9.802496e-01 9.803829e-01 9.803662e-01 9.784396e-01 9.766091e-01 9.785807e-01 9.789411e-01 9.792718e-01 9.798164e-01 9.801570e-01 9.799801e-01 9.803432e-01 9.807089e-01 9.806575e-01 9.807891e-01 9.806961e-01 9.779255e-01 9.765742e-01 9.782826e-01 9.791772e-01 9.793438e-01 9.798966e-01 9.802307e-01 9.800454e-01 9.804936e-01 9.807737e-01 9.807788e-01 9.809913e-01 9.809271e-01
<GCONST> 9.452216e+01
<STATE> 3
<MEAN> 52
 -3.985001e-03 -1.284927e-03 3.212272e-04 -1.172011e-03 8.610246e-04 8.668455e-04 9.351489e-04 9.545215e-04 -2.174864e-04 -4.039525e-04 -2.209302e-04 -1.884927e-04 -3.128251e-04 -5.064455e-06 -2.436583e-05 -1.086078e-05 6.920768e-06 1.615929e-05 2.080938e-05 -2.043578e-06 -3.959874e-06 6.804280e-06 -1.008694e-05 -5.896914e-06 -1.704046e-05 -5.612740e-06 1.792213e-05 6.038424e-06 -7.215825e-06 -1.417679e-06 -5.173497e-06 6.793044e-06 2.053034e-05 -1.833496e-05 -9.081495e-06 9.224465e-06 -1.040485e-05 1.856380e-05 1.917774e-05 -8.840067e-06 9.364997e-07 -6.416554e-06 -1.338484e-05 -8.846368e-06 -3.483249e-05 1.358962e-05 1.253828e-05 4.687683e-07 1.030081e-05 1.015368e-06 2.024078e-05 -4.025253e-06
<VARIANCE> 52
 9.911698e-01 9.802856e-01 9.804822e-01 9.813642e-01 9.816242e-01 9.815120e-01 9.819377e-01 9.816215e-01 9.811071e-01 9.812845e-01 9.811584e-01 9.809774e-01 9.811919e-01 9.786490e-01 9.756899e-01 9.776914e-01 9.778354e-01 9.782374e-01 9.790415e-01 9.795090e-01 9.793269e-01 9.799088e-01 9.801182e-01 9.802496e-01 9.803829e-01 9.803662e-01 9.784396e-01 9.766091e-01 9.785807e-01 9.789411e-01 9.792718e-01 9.798164e-01 9.801570e-01 9.799801e-01 9.803432e-01 9.807089e-01 9.806575e-01 9.807891e-01 9.806961e-01 9.779255e-01 9.765742e-01 9.782826e-01 9.791772e-01 9.793438e-01 9.798966e-01 9.802307e-01 9.800454e-01 9.804936e-01 9.807737e-01 9.807788e-01 9.809913e-01 9.809271e-01
<GCONST> 9.452216e+01
<STATE> 4
<MEAN> 52
 -3.985001e-03 -1.284927e-03 3.212272e-04 -1.172011e-03 8.610246e-04 8.668455e-04 9.351489e-04 9.545215e-04 -2.174864e-04 -4.039525e-04 -2.209302e-04 -1.884927e-04 -3.128251e-04 -5.064455e-06 -2.436583e-05 -1.086078e-05 6.920768e-06 1.615929e-05 2.080938e-05 -2.043578e-06 -3.959874e-06 6.804280e-06 -1.008694e-05 -5.896914e-06 -1.704046e-05 -5.612740e-06 1.792213e-05 6.038424e-06 -7.215825e-06 -1.417679e-06 -5.173497e-06 6.793044e-06 2.053034e-05 -1.833496e-05 -9.081495e-06 9.224465e-06 -1.040485e-05 1.856380e-05 1.917774e-05 -8.840067e-06 9.364997e-07 -6.416554e-06 -1.338484e-05 -8.846368e-06 -3.483249e-05 1.358962e-05 1.253828e-05 4.687683e-07 1.030081e-05 1.015368e-06 2.024078e-05 -4.025253e-06
<VARIANCE> 52
 9.911698e-01 9.802856e-01 9.804822e-01 9.813642e-01 9.816242e-01 9.815120e-01 9.819377e-01 9.816215e-01 9.811071e-01 9.812845e-01 9.811584e-01 9.809774e-01 9.811919e-01 9.786490e-01 9.756899e-01 9.776914e-01 9.778354e-01 9.782374e-01 9.790415e-01 9.795090e-01 9.793269e-01 9.799088e-01 9.801182e-01 9.802496e-01 9.803829e-01 9.803662e-01 9.784396e-01 9.766091e-01 9.785807e-01 9.789411e-01 9.792718e-01 9.798164e-01 9.801570e-01 9.799801e-01 9.803432e-01 9.807089e-01 9.806575e-01 9.807891e-01 9.806961e-01 9.779255e-01 9.765742e-01 9.782826e-01 9.791772e-01 9.793438e-01 9.798966e-01 9.802307e-01 9.800454e-01 9.804936e-01 9.807737e-01 9.807788e-01 9.809913e-01 9.809271e-01
<GCONST> 9.452216e+01
<TRANSP> 5
 0.000000e+00 1.000000e+00 0.000000e+00 0.000000e+00 0.000000e+00
 0.000000e+00 6.000000e-01 4.000000e-01 0.000000e+00 0.000000e+00
 0.000000e+00 0.000000e+00 6.000000e-01 4.000000e-01 0.000000e+00
 0.000000e+00 0.000000e+00 0.000000e+00 6.000000e-01 4.000000e-01
 0.000000e+00 0.000000e+00 0.000000e+00 0.000000e+00 0.000000e+00
<ENDHMM>
~h "z"
<BEGINHMM>
<NUMSTATES> 5
<STATE> 2
<MEAN> 52
 -3.985001e-03 -1.284927e-03 3.212272e-04 -1.172011e-03 8.610246e-04 8.668455e-04 9.351489e-04 9.545215e-04 -2.174864e-04 -4.039525e-04 -2.209302e-04 -1.884927e-04 -3.128251e-04 -5.064455e-06 -2.436583e-05 -1.086078e-05 6.920768e-06 1.615929e-05 2.080938e-05 -2.043578e-06 -3.959874e-06 6.804280e-06 -1.008694e-05 -5.896914e-06 -1.704046e-05 -5.612740e-06 1.792213e-05 6.038424e-06 -7.215825e-06 -1.417679e-06 -5.173497e-06 6.793044e-06 2.053034e-05 -1.833496e-05 -9.081495e-06 9.224465e-06 -1.040485e-05 1.856380e-05 1.917774e-05 -8.840067e-06 9.364997e-07 -6.416554e-06 -1.338484e-05 -8.846368e-06 -3.483249e-05 1.358962e-05 1.253828e-05 4.687683e-07 1.030081e-05 1.015368e-06 2.024078e-05 -4.025253e-06
<VARIANCE> 52
 9.911698e-01 9.802856e-01 9.804822e-01 9.813642e-01 9.816242e-01 9.815120e-01 9.819377e-01 9.816215e-01 9.811071e-01 9.812845e-01 9.811584e-01 9.809774e-01 9.811919e-01 9.786490e-01 9.756899e-01 9.776914e-01 9.778354e-01 9.782374e-01 9.790415e-01 9.795090e-01 9.793269e-01 9.799088e-01 9.801182e-01 9.802496e-01 9.803829e-01 9.803662e-01 9.784396e-01 9.766091e-01 9.785807e-01 9.789411e-01 9.792718e-01 9.798164e-01 9.801570e-01 9.799801e-01 9.803432e-01 9.807089e-01 9.806575e-01 9.807891e-01 9.806961e-01 9.779255e-01 9.765742e-01 9.782826e-01 9.791772e-01 9.793438e-01 9.798966e-01 9.802307e-01 9.800454e-01 9.804936e-01 9.807737e-01 9.807788e-01 9.809913e-01 9.809271e-01
<GCONST> 9.452216e+01
<STATE> 3
<MEAN> 52
 -3.985001e-03 -1.284927e-03 3.212272e-04 -1.172011e-03 8.610246e-04 8.668455e-04 9.351489e-04 9.545215e-04 -2.174864e-04 -4.039525e-04 -2.209302e-04 -1.884927e-04 -3.128251e-04 -5.064455e-06 -2.436583e-05 -1.086078e-05 6.920768e-06 1.615929e-05 2.080938e-05 -2.043578e-06 -3.959874e-06 6.804280e-06 -1.008694e-05 -5.896914e-06 -1.704046e-05 -5.612740e-06 1.792213e-05 6.038424e-06 -7.215825e-06 -1.417679e-06 -5.173497e-06 6.793044e-06 2.053034e-05 -1.833496e-05 -9.081495e-06 9.224465e-06 -1.040485e-05 1.856380e-05 1.917774e-05 -8.840067e-06 9.364997e-07 -6.416554e-06 -1.338484e-05 -8.846368e-06 -3.483249e-05 1.358962e-05 1.253828e-05 4.687683e-07 1.030081e-05 1.015368e-06 2.024078e-05 -4.025253e-06
<VARIANCE> 52
 9.911698e-01 9.802856e-01 9.804822e-01 9.813642e-01 9.816242e-01 9.815120e-01 9.819377e-01 9.816215e-01 9.811071e-01 9.812845e-01 9.811584e-01 9.809774e-01 9.811919e-01 9.786490e-01 9.756899e-01 9.776914e-01 9.778354e-01 9.782374e-01 9.790415e-01 9.795090e-01 9.793269e-01 9.799088e-01 9.801182e-01 9.802496e-01 9.803829e-01 9.803662e-01 9.784396e-01 9.766091e-01 9.785807e-01 9.789411e-01 9.792718e-01 9.798164e-01 9.801570e-01 9.799801e-01 9.803432e-01 9.807089e-01 9.806575e-01 9.807891e-01 9.806961e-01 9.779255e-01 9.765742e-01 9.782826e-01 9.791772e-01 9.793438e-01 9.798966e-01 9.802307e-01 9.800454e-01 9.804936e-01 9.807737e-01 9.807788e-01 9.809913e-01 9.809271e-01
<GCONST> 9.452216e+01
<STATE> 4
<MEAN> 52
 -3.985001e-03 -1.284927e-03 3.212272e-04 -1.172011e-03 8.610246e-04 8.668455e-04 9.351489e-04 9.545215e-04 -2.174864e-04 -4.039525e-04 -2.209302e-04 -1.884927e-04 -3.128251e-04 -5.064455e-06 -2.436583e-05 -1.086078e-05 6.920768e-06 1.615929e-05 2.080938e-05 -2.043578e-06 -3.959874e-06 6.804280e-06 -1.008694e-05 -5.896914e-06 -1.704046e-05 -5.612740e-06 1.792213e-05 6.038424e-06 -7.215825e-06 -1.417679e-06 -5.173497e-06 6.793044e-06 2.053034e-05 -1.833496e-05 -9.081495e-06 9.224465e-06 -1.040485e-05 1.856380e-05 1.917774e-05 -8.840067e-06 9.364997e-07 -6.416554e-06 -1.338484e-05 -8.846368e-06 -3.483249e-05 1.358962e-05 1.253828e-05 4.687683e-07 1.030081e-05 1.015368e-06 2.024078e-05 -4.025253e-06
<VARIANCE> 52
 9.911698e-01 9.802856e-01 9.804822e-01 9.813642e-01 9.816242e-01 9.815120e-01 9.819377e-01 9.816215e-01 9.811071e-01 9.812845e-01 9.811584e-01 9.809774e-01 9.811919e-01 9.786490e-01 9.756899e-01 9.776914e-01 9.778354e-01 9.782374e-01 9.790415e-01 9.795090e-01 9.793269e-01 9.799088e-01 9.801182e-01 9.802496e-01 9.803829e-01 9.803662e-01 9.784396e-01 9.766091e-01 9.785807e-01 9.789411e-01 9.792718e-01 9.798164e-01 9.801570e-01 9.799801e-01 9.803432e-01 9.807089e-01 9.806575e-01 9.807891e-01 9.806961e-01 9.779255e-01 9.765742e-01 9.782826e-01 9.791772e-01 9.793438e-01 9.798966e-01 9.802307e-01 9.800454e-01 9.804936e-01 9.807737e-01 9.807788e-01 9.809913e-01 9.809271e-01
<GCONST> 9.452216e+01
<TRANSP> 5
 0.000000e+00 1.000000e+00 0.000000e+00 0.000000e+00 0.000000e+00
 0.000000e+00 6.000000e-01 4.000000e-01 0.000000e+00 0.000000e+00
 0.000000e+00 0.000000e+00 6.000000e-01 4.000000e-01 0.000000e+00
 0.000000e+00 0.000000e+00 0.000000e+00 6.000000e-01 4.000000e-01
 0.000000e+00 0.000000e+00 0.000000e+00 0.000000e+00 0.000000e+00
<ENDHMM>
~h "gs"
<BEGINHMM>
<NUMSTATES> 5
<STATE> 2
<MEAN> 52
 -3.985001e-03 -1.284927e-03 3.212272e-04 -1.172011e-03 8.610246e-04 8.668455e-04 9.351489e-04 9.545215e-04 -2.174864e-04 -4.039525e-04 -2.209302e-04 -1.884927e-04 -3.128251e-04 -5.064455e-06 -2.436583e-05 -1.086078e-05 6.920768e-06 1.615929e-05 2.080938e-05 -2.043578e-06 -3.959874e-06 6.804280e-06 -1.008694e-05 -5.896914e-06 -1.704046e-05 -5.612740e-06 1.792213e-05 6.038424e-06 -7.215825e-06 -1.417679e-06 -5.173497e-06 6.793044e-06 2.053034e-05 -1.833496e-05 -9.081495e-06 9.224465e-06 -1.040485e-05 1.856380e-05 1.917774e-05 -8.840067e-06 9.364997e-07 -6.416554e-06 -1.338484e-05 -8.846368e-06 -3.483249e-05 1.358962e-05 1.253828e-05 4.687683e-07 1.030081e-05 1.015368e-06 2.024078e-05 -4.025253e-06
<VARIANCE> 52
 9.911698e-01 9.802856e-01 9.804822e-01 9.813642e-01 9.816242e-01 9.815120e-01 9.819377e-01 9.816215e-01 9.811071e-01 9.812845e-01 9.811584e-01 9.809774e-01 9.811919e-01 9.786490e-01 9.756899e-01 9.776914e-01 9.778354e-01 9.782374e-01 9.790415e-01 9.795090e-01 9.793269e-01 9.799088e-01 9.801182e-01 9.802496e-01 9.803829e-01 9.803662e-01 9.784396e-01 9.766091e-01 9.785807e-01 9.789411e-01 9.792718e-01 9.798164e-01 9.801570e-01 9.799801e-01 9.803432e-01 9.807089e-01 9.806575e-01 9.807891e-01 9.806961e-01 9.779255e-01 9.765742e-01 9.782826e-01 9.791772e-01 9.793438e-01 9.798966e-01 9.802307e-01 9.800454e-01 9.804936e-01 9.807737e-01 9.807788e-01 9.809913e-01 9.809271e-01
<GCONST> 9.452216e+01
<STATE> 3
<MEAN> 52
 -3.985001e-03 -1.284927e-03 3.212272e-04 -1.172011e-03 8.610246e-04 8.668455e-04 9.351489e-04 9.545215e-04 -2.174864e-04 -4.039525e-04 -2.209302e-04 -1.884927e-04 -3.128251e-04 -5.064455e-06 -2.436583e-05 -1.086078e-05 6.920768e-06 1.615929e-05 2.080938e-05 -2.043578e-06 -3.959874e-06 6.804280e-06 -1.008694e-05 -5.896914e-06 -1.704046e-05 -5.612740e-06 1.792213e-05 6.038424e-06 -7.215825e-06 -1.417679e-06 -5.173497e-06 6.793044e-06 2.053034e-05 -1.833496e-05 -9.081495e-06 9.224465e-06 -1.040485e-05 1.856380e-05 1.917774e-05 -8.840067e-06 9.364997e-07 -6.416554e-06 -1.338484e-05 -8.846368e-06 -3.483249e-05 1.358962e-05 1.253828e-05 4.687683e-07 1.030081e-05 1.015368e-06 2.024078e-05 -4.025253e-06
<VARIANCE> 52
 9.911698e-01 9.802856e-01 9.804822e-01 9.813642e-01 9.816242e-01 9.815120e-01 9.819377e-01 9.816215e-01 9.811071e-01 9.812845e-01 9.811584e-01 9.809774e-01 9.811919e-01 9.786490e-01 9.756899e-01 9.776914e-01 9.778354e-01 9.782374e-01 9.790415e-01 9.795090e-01 9.793269e-01 9.799088e-01 9.801182e-01 9.802496e-01 9.803829e-01 9.803662e-01 9.784396e-01 9.766091e-01 9.785807e-01 9.789411e-01 9.792718e-01 9.798164e-01 9.801570e-01 9.799801e-01 9.803432e-01 9.807089e-01 9.806575e-01 9.807891e-01 9.806961e-01 9.779255e-01 9.765742e-01 9.782826e-01 9.791772e-01 9.793438e-01 9.798966e-01 9.802307e-01 9.800454e-01 9.804936e-01 9.807737e-01 9.807788e-01 9.809913e-01 9.809271e-01
<GCONST> 9.452216e+01
<STATE> 4
<MEAN> 52
 -3.985001e-03 -1.284927e-03 3.212272e-04 -1.172011e-03 8.610246e-04 8.668455e-04 9.351489e-04 9.545215e-04 -2.174864e-04 -4.039525e-04 -2.209302e-04 -1.884927e-04 -3.128251e-04 -5.064455e-06 -2.436583e-05 -1.086078e-05 6.920768e-06 1.615929e-05 2.080938e-05 -2.043578e-06 -3.959874e-06 6.804280e-06 -1.008694e-05 -5.896914e-06 -1.704046e-05 -5.612740e-06 1.792213e-05 6.038424e-06 -7.215825e-06 -1.417679e-06 -5.173497e-06 6.793044e-06 2.053034e-05 -1.833496e-05 -9.081495e-06 9.224465e-06 -1.040485e-05 1.856380e-05 1.917774e-05 -8.840067e-06 9.364997e-07 -6.416554e-06 -1.338484e-05 -8.846368e-06 -3.483249e-05 1.358962e-05 1.253828e-05 4.687683e-07 1.030081e-05 1.015368e-06 2.024078e-05 -4.025253e-06
<VARIANCE> 52
 9.911698e-01 9.802856e-01 9.804822e-01 9.813642e-01 9.816242e-01 9.815120e-01 9.819377e-01 9.816215e-01 9.811071e-01 9.812845e-01 9.811584e-01 9.809774e-01 9.811919e-01 9.786490e-01 9.756899e-01 9.776914e-01 9.778354e-01 9.782374e-01 9.790415e-01 9.795090e-01 9.793269e-01 9.799088e-01 9.801182e-01 9.802496e-01 9.803829e-01 9.803662e-01 9.784396e-01 9.766091e-01 9.785807e-01 9.789411e-01 9.792718e-01 9.798164e-01 9.801570e-01 9.799801e-01 9.803432e-01 9.807089e-01 9.806575e-01 9.807891e-01 9.806961e-01 9.779255e-01 9.765742e-01 9.782826e-01 9.791772e-01 9.793438e-01 9.798966e-01 9.802307e-01 9.800454e-01 9.804936e-01 9.807737e-01 9.807788e-01 9.809913e-01 9.809271e-01
<GCONST> 9.452216e+01
<TRANSP> 5
 0.000000e+00 1.000000e+00 0.000000e+00 0.000000e+00 0.000000e+00
 0.000000e+00 6.000000e-01 4.000000e-01 0.000000e+00 0.000000e+00
 0.000000e+00 0.000000e+00 6.000000e-01 4.000000e-01 0.000000e+00
 0.000000e+00 0.000000e+00 0.000000e+00 6.000000e-01 4.000000e-01
 0.000000e+00 0.000000e+00 0.000000e+00 0.000000e+00 0.000000e+00
<ENDHMM>
~h "n"
<BEGINHMM>
<NUMSTATES> 5
<STATE> 2
<MEAN> 52
 -3.985001e-03 -1.284927e-03 3.212272e-04 -1.172011e-03 8.610246e-04 8.668455e-04 9.351489e-04 9.545215e-04 -2.174864e-04 -4.039525e-04 -2.209302e-04 -1.884927e-04 -3.128251e-04 -5.064455e-06 -2.436583e-05 -1.086078e-05 6.920768e-06 1.615929e-05 2.080938e-05 -2.043578e-06 -3.959874e-06 6.804280e-06 -1.008694e-05 -5.896914e-06 -1.704046e-05 -5.612740e-06 1.792213e-05 6.038424e-06 -7.215825e-06 -1.417679e-06 -5.173497e-06 6.793044e-06 2.053034e-05 -1.833496e-05 -9.081495e-06 9.224465e-06 -1.040485e-05 1.856380e-05 1.917774e-05 -8.840067e-06 9.364997e-07 -6.416554e-06 -1.338484e-05 -8.846368e-06 -3.483249e-05 1.358962e-05 1.253828e-05 4.687683e-07 1.030081e-05 1.015368e-06 2.024078e-05 -4.025253e-06
<VARIANCE> 52
 9.911698e-01 9.802856e-01 9.804822e-01 9.813642e-01 9.816242e-01 9.815120e-01 9.819377e-01 9.816215e-01 9.811071e-01 9.812845e-01 9.811584e-01 9.809774e-01 9.811919e-01 9.786490e-01 9.756899e-01 9.776914e-01 9.778354e-01 9.782374e-01 9.790415e-01 9.795090e-01 9.793269e-01 9.799088e-01 9.801182e-01 9.802496e-01 9.803829e-01 9.803662e-01 9.784396e-01 9.766091e-01 9.785807e-01 9.789411e-01 9.792718e-01 9.798164e-01 9.801570e-01 9.799801e-01 9.803432e-01 9.807089e-01 9.806575e-01 9.807891e-01 9.806961e-01 9.779255e-01 9.765742e-01 9.782826e-01 9.791772e-01 9.793438e-01 9.798966e-01 9.802307e-01 9.800454e-01 9.804936e-01 9.807737e-01 9.807788e-01 9.809913e-01 9.809271e-01
<GCONST> 9.452216e+01
<STATE> 3
<MEAN> 52
 -3.985001e-03 -1.284927e-03 3.212272e-04 -1.172011e-03 8.610246e-04 8.668455e-04 9.351489e-04 9.545215e-04 -2.174864e-04 -4.039525e-04 -2.209302e-04 -1.884927e-04 -3.128251e-04 -5.064455e-06 -2.436583e-05 -1.086078e-05 6.920768e-06 1.615929e-05 2.080938e-05 -2.043578e-06 -3.959874e-06 6.804280e-06 -1.008694e-05 -5.896914e-06 -1.704046e-05 -5.612740e-06 1.792213e-05 6.038424e-06 -7.215825e-06 -1.417679e-06 -5.173497e-06 6.793044e-06 2.053034e-05 -1.833496e-05 -9.081495e-06 9.224465e-06 -1.040485e-05 1.856380e-05 1.917774e-05 -8.840067e-06 9.364997e-07 -6.416554e-06 -1.338484e-05 -8.846368e-06 -3.483249e-05 1.358962e-05 1.253828e-05 4.687683e-07 1.030081e-05 1.015368e-06 2.024078e-05 -4.025253e-06
<VARIANCE> 52
 9.911698e-01 9.802856e-01 9.804822e-01 9.813642e-01 9.816242e-01 9.815120e-01 9.819377e-01 9.816215e-01 9.811071e-01 9.812845e-01 9.811584e-01 9.809774e-01 9.811919e-01 9.786490e-01 9.756899e-01 9.776914e-01 9.778354e-01 9.782374e-01 9.790415e-01 9.795090e-01 9.793269e-01 9.799088e-01 9.801182e-01 9.802496e-01 9.803829e-01 9.803662e-01 9.784396e-01 9.766091e-01 9.785807e-01 9.789411e-01 9.792718e-01 9.798164e-01 9.801570e-01 9.799801e-01 9.803432e-01 9.807089e-01 9.806575e-01 9.807891e-01 9.806961e-01 9.779255e-01 9.765742e-01 9.782826e-01 9.791772e-01 9.793438e-01 9.798966e-01 9.802307e-01 9.800454e-01 9.804936e-01 9.807737e-01 9.807788e-01 9.809913e-01 9.809271e-01
<GCONST> 9.452216e+01
<STATE> 4
<MEAN> 52
 -3.985001e-03 -1.284927e-03 3.212272e-04 -1.172011e-03 8.610246e-04 8.668455e-04 9.351489e-04 9.545215e-04 -2.174864e-04 -4.039525e-04 -2.209302e-04 -1.884927e-04 -3.128251e-04 -5.064455e-06 -2.436583e-05 -1.086078e-05 6.920768e-06 1.615929e-05 2.080938e-05 -2.043578e-06 -3.959874e-06 6.804280e-06 -1.008694e-05 -5.896914e-06 -1.704046e-05 -5.612740e-06 1.792213e-05 6.038424e-06 -7.215825e-06 -1.417679e-06 -5.173497e-06 6.793044e-06 2.053034e-05 -1.833496e-05 -9.081495e-06 9.224465e-06 -1.040485e-05 1.856380e-05 1.917774e-05 -8.840067e-06 9.364997e-07 -6.416554e-06 -1.338484e-05 -8.846368e-06 -3.483249e-05 1.358962e-05 1.253828e-05 4.687683e-07 1.030081e-05 1.015368e-06 2.024078e-05 -4.025253e-06
<VARIANCE> 52
 9.911698e-01 9.802856e-01 9.804822e-01 9.813642e-01 9.816242e-01 9.815120e-01 9.819377e-01 9.816215e-01 9.811071e-01 9.812845e-01 9.811584e-01 9.809774e-01 9.811919e-01 9.786490e-01 9.756899e-01 9.776914e-01 9.778354e-01 9.782374e-01 9.790415e-01 9.795090e-01 9.793269e-01 9.799088e-01 9.801182e-01 9.802496e-01 9.803829e-01 9.803662e-01 9.784396e-01 9.766091e-01 9.785807e-01 9.789411e-01 9.792718e-01 9.798164e-01 9.801570e-01 9.799801e-01 9.803432e-01 9.807089e-01 9.806575e-01 9.807891e-01 9.806961e-01 9.779255e-01 9.765742e-01 9.782826e-01 9.791772e-01 9.793438e-01 9.798966e-01 9.802307e-01 9.800454e-01 9.804936e-01 9.807737e-01 9.807788e-01 9.809913e-01 9.809271e-01
<GCONST> 9.452216e+01
<TRANSP> 5
 0.000000e+00 1.000000e+00 0.000000e+00 0.000000e+00 0.000000e+00
 0.000000e+00 6.000000e-01 4.000000e-01 0.000000e+00 0.000000e+00
 0.000000e+00 0.000000e+00 6.000000e-01 4.000000e-01 0.000000e+00
 0.000000e+00 0.000000e+00 0.000000e+00 6.000000e-01 4.000000e-01
 0.000000e+00 0.000000e+00 0.000000e+00 0.000000e+00 0.000000e+00
<ENDHMM>
~h "d"
<BEGINHMM>
<NUMSTATES> 5
<STATE> 2
<MEAN> 52
 -3.985001e-03 -1.284927e-03 3.212272e-04 -1.172011e-03 8.610246e-04 8.668455e-04 9.351489e-04 9.545215e-04 -2.174864e-04 -4.039525e-04 -2.209302e-04 -1.884927e-04 -3.128251e-04 -5.064455e-06 -2.436583e-05 -1.086078e-05 6.920768e-06 1.615929e-05 2.080938e-05 -2.043578e-06 -3.959874e-06 6.804280e-06 -1.008694e-05 -5.896914e-06 -1.704046e-05 -5.612740e-06 1.792213e-05 6.038424e-06 -7.215825e-06 -1.417679e-06 -5.173497e-06 6.793044e-06 2.053034e-05 -1.833496e-05 -9.081495e-06 9.224465e-06 -1.040485e-05 1.856380e-05 1.917774e-05 -8.840067e-06 9.364997e-07 -6.416554e-06 -1.338484e-05 -8.846368e-06 -3.483249e-05 1.358962e-05 1.253828e-05 4.687683e-07 1.030081e-05 1.015368e-06 2.024078e-05 -4.025253e-06
<VARIANCE> 52
 9.911698e-01 9.802856e-01 9.804822e-01 9.813642e-01 9.816242e-01 9.815120e-01 9.819377e-01 9.816215e-01 9.811071e-01 9.812845e-01 9.811584e-01 9.809774e-01 9.811919e-01 9.786490e-01 9.756899e-01 9.776914e-01 9.778354e-01 9.782374e-01 9.790415e-01 9.795090e-01 9.793269e-01 9.799088e-01 9.801182e-01 9.802496e-01 9.803829e-01 9.803662e-01 9.784396e-01 9.766091e-01 9.785807e-01 9.789411e-01 9.792718e-01 9.798164e-01 9.801570e-01 9.799801e-01 9.803432e-01 9.807089e-01 9.806575e-01 9.807891e-01 9.806961e-01 9.779255e-01 9.765742e-01 9.782826e-01 9.791772e-01 9.793438e-01 9.798966e-01 9.802307e-01 9.800454e-01 9.804936e-01 9.807737e-01 9.807788e-01 9.809913e-01 9.809271e-01
<GCONST> 9.452216e+01
<STATE> 3
<MEAN> 52
 -3.985001e-03 -1.284927e-03 3.212272e-04 -1.172011e-03 8.610246e-04 8.668455e-04 9.351489e-04 9.545215e-04 -2.174864e-04 -4.039525e-04 -2.209302e-04 -1.884927e-04 -3.128251e-04 -5.064455e-06 -2.436583e-05 -1.086078e-05 6.920768e-06 1.615929e-05 2.080938e-05 -2.043578e-06 -3.959874e-06 6.804280e-06 -1.008694e-05 -5.896914e-06 -1.704046e-05 -5.612740e-06 1.792213e-05 6.038424e-06 -7.215825e-06 -1.417679e-06 -5.173497e-06 6.793044e-06 2.053034e-05 -1.833496e-05 -9.081495e-06 9.224465e-06 -1.040485e-05 1.856380e-05 1.917774e-05 -8.840067e-06 9.364997e-07 -6.416554e-06 -1.338484e-05 -8.846368e-06 -3.483249e-05 1.358962e-05 1.253828e-05 4.687683e-07 1.030081e-05 1.015368e-06 2.024078e-05 -4.025253e-06
<VARIANCE> 52
 9.911698e-01 9.802856e-01 9.804822e-01 9.813642e-01 9.816242e-01 9.815120e-01 9.819377e-01 9.816215e-01 9.811071e-01 9.812845e-01 9.811584e-01 9.809774e-01 9.811919e-01 9.786490e-01 9.756899e-01 9.776914e-01 9.778354e-01 9.782374e-01 9.790415e-01 9.795090e-01 9.793269e-01 9.799088e-01 9.801182e-01 9.802496e-01 9.803829e-01 9.803662e-01 9.784396e-01 9.766091e-01 9.785807e-01 9.789411e-01 9.792718e-01 9.798164e-01 9.801570e-01 9.799801e-01 9.803432e-01 9.807089e-01 9.806575e-01 9.807891e-01 9.806961e-01 9.779255e-01 9.765742e-01 9.782826e-01 9.791772e-01 9.793438e-01 9.798966e-01 9.802307e-01 9.800454e-01 9.804936e-01 9.807737e-01 9.807788e-01 9.809913e-01 9.809271e-01
<GCONST> 9.452216e+01
<STATE> 4
<MEAN> 52
 -3.985001e-03 -1.284927e-03 3.212272e-04 -1.172011e-03 8.610246e-04 8.668455e-04 9.351489e-04 9.545215e-04 -2.174864e-04 -4.039525e-04 -2.209302e-04 -1.884927e-04 -3.128251e-04 -5.064455e-06 -2.436583e-05 -1.086078e-05 6.920768e-06 1.615929e-05 2.080938e-05 -2.043578e-06 -3.959874e-06 6.804280e-06 -1.008694e-05 -5.896914e-06 -1.704046e-05 -5.612740e-06 1.792213e-05 6.038424e-06 -7.215825e-06 -1.417679e-06 -5.173497e-06 6.793044e-06 2.053034e-05 -1.833496e-05 -9.081495e-06 9.224465e-06 -1.040485e-05 1.856380e-05 1.917774e-05 -8.840067e-06 9.364997e-07 -6.416554e-06 -1.338484e-05 -8.846368e-06 -3.483249e-05 1.358962e-05 1.253828e-05 4.687683e-07 1.030081e-05 1.015368e-06 2.024078e-05 -4.025253e-06
<VARIANCE> 52
 9.911698e-01 9.802856e-01 9.804822e-01 9.813642e-01 9.816242e-01 9.815120e-01 9.819377e-01 9.816215e-01 9.811071e-01 9.812845e-01 9.811584e-01 9.809774e-01 9.811919e-01 9.786490e-01 9.756899e-01 9.776914e-01 9.778354e-01 9.782374e-01 9.790415e-01 9.795090e-01 9.793269e-01 9.799088e-01 9.801182e-01 9.802496e-01 9.803829e-01 9.803662e-01 9.784396e-01 9.766091e-01 9.785807e-01 9.789411e-01 9.792718e-01 9.798164e-01 9.801570e-01 9.799801e-01 9.803432e-01 9.807089e-01 9.806575e-01 9.807891e-01 9.806961e-01 9.779255e-01 9.765742e-01 9.782826e-01 9.791772e-01 9.793438e-01 9.798966e-01 9.802307e-01 9.800454e-01 9.804936e-01 9.807737e-01 9.807788e-01 9.809913e-01 9.809271e-01
<GCONST> 9.452216e+01
<TRANSP> 5
 0.000000e+00 1.000000e+00 0.000000e+00 0.000000e+00 0.000000e+00
 0.000000e+00 6.000000e-01 4.000000e-01 0.000000e+00 0.000000e+00
 0.000000e+00 0.000000e+00 6.000000e-01 4.000000e-01 0.000000e+00
 0.000000e+00 0.000000e+00 0.000000e+00 6.000000e-01 4.000000e-01
 0.000000e+00 0.000000e+00 0.000000e+00 0.000000e+00 0.000000e+00
<ENDHMM>
~h "r"
<BEGINHMM>
<NUMSTATES> 5
<STATE> 2
<MEAN> 52
 -3.985001e-03 -1.284927e-03 3.212272e-04 -1.172011e-03 8.610246e-04 8.668455e-04 9.351489e-04 9.545215e-04 -2.174864e-04 -4.039525e-04 -2.209302e-04 -1.884927e-04 -3.128251e-04 -5.064455e-06 -2.436583e-05 -1.086078e-05 6.920768e-06 1.615929e-05 2.080938e-05 -2.043578e-06 -3.959874e-06 6.804280e-06 -1.008694e-05 -5.896914e-06 -1.704046e-05 -5.612740e-06 1.792213e-05 6.038424e-06 -7.215825e-06 -1.417679e-06 -5.173497e-06 6.793044e-06 2.053034e-05 -1.833496e-05 -9.081495e-06 9.224465e-06 -1.040485e-05 1.856380e-05 1.917774e-05 -8.840067e-06 9.364997e-07 -6.416554e-06 -1.338484e-05 -8.846368e-06 -3.483249e-05 1.358962e-05 1.253828e-05 4.687683e-07 1.030081e-05 1.015368e-06 2.024078e-05 -4.025253e-06
<VARIANCE> 52
 9.911698e-01 9.802856e-01 9.804822e-01 9.813642e-01 9.816242e-01 9.815120e-01 9.819377e-01 9.816215e-01 9.811071e-01 9.812845e-01 9.811584e-01 9.809774e-01 9.811919e-01 9.786490e-01 9.756899e-01 9.776914e-01 9.778354e-01 9.782374e-01 9.790415e-01 9.795090e-01 9.793269e-01 9.799088e-01 9.801182e-01 9.802496e-01 9.803829e-01 9.803662e-01 9.784396e-01 9.766091e-01 9.785807e-01 9.789411e-01 9.792718e-01 9.798164e-01 9.801570e-01 9.799801e-01 9.803432e-01 9.807089e-01 9.806575e-01 9.807891e-01 9.806961e-01 9.779255e-01 9.765742e-01 9.782826e-01 9.791772e-01 9.793438e-01 9.798966e-01 9.802307e-01 9.800454e-01 9.804936e-01 9.807737e-01 9.807788e-01 9.809913e-01 9.809271e-01
<GCONST> 9.452216e+01
<STATE> 3
<MEAN> 52
 -3.985001e-03 -1.284927e-03 3.212272e-04 -1.172011e-03 8.610246e-04 8.668455e-04 9.351489e-04 9.545215e-04 -2.174864e-04 -4.039525e-04 -2.209302e-04 -1.884927e-04 -3.128251e-04 -5.064455e-06 -2.436583e-05 -1.086078e-05 6.920768e-06 1.615929e-05 2.080938e-05 -2.043578e-06 -3.959874e-06 6.804280e-06 -1.008694e-05 -5.896914e-06 -1.704046e-05 -5.612740e-06 1.792213e-05 6.038424e-06 -7.215825e-06 -1.417679e-06 -5.173497e-06 6.793044e-06 2.053034e-05 -1.833496e-05 -9.081495e-06 9.224465e-06 -1.040485e-05 1.856380e-05 1.917774e-05 -8.840067e-06 9.364997e-07 -6.416554e-06 -1.338484e-05 -8.846368e-06 -3.483249e-05 1.358962e-05 1.253828e-05 4.687683e-07 1.030081e-05 1.015368e-06 2.024078e-05 -4.025253e-06
<VARIANCE> 52
 9.911698e-01 9.802856e-01 9.804822e-01 9.813642e-01 9.816242e-01 9.815120e-01 9.819377e-01 9.816215e-01 9.811071e-01 9.812845e-01 9.811584e-01 9.809774e-01 9.811919e-01 9.786490e-01 9.756899e-01 9.776914e-01 9.778354e-01 9.782374e-01 9.790415e-01 9.795090e-01 9.793269e-01 9.799088e-01 9.801182e-01 9.802496e-01 9.803829e-01 9.803662e-01 9.784396e-01 9.766091e-01 9.785807e-01 9.789411e-01 9.792718e-01 9.798164e-01 9.801570e-01 9.799801e-01 9.803432e-01 9.807089e-01 9.806575e-01 9.807891e-01 9.806961e-01 9.779255e-01 9.765742e-01 9.782826e-01 9.791772e-01 9.793438e-01 9.798966e-01 9.802307e-01 9.800454e-01 9.804936e-01 9.807737e-01 9.807788e-01 9.809913e-01 9.809271e-01
<GCONST> 9.452216e+01
<STATE> 4
<MEAN> 52
 -3.985001e-03 -1.284927e-03 3.212272e-04 -1.172011e-03 8.610246e-04 8.668455e-04 9.351489e-04 9.545215e-04 -2.174864e-04 -4.039525e-04 -2.209302e-04 -1.884927e-04 -3.128251e-04 -5.064455e-06 -2.436583e-05 -1.086078e-05 6.920768e-06 1.615929e-05 2.080938e-05 -2.043578e-06 -3.959874e-06 6.804280e-06 -1.008694e-05 -5.896914e-06 -1.704046e-05 -5.612740e-06 1.792213e-05 6.038424e-06 -7.215825e-06 -1.417679e-06 -5.173497e-06 6.793044e-06 2.053034e-05 -1.833496e-05 -9.081495e-06 9.224465e-06 -1.040485e-05 1.856380e-05 1.917774e-05 -8.840067e-06 9.364997e-07 -6.416554e-06 -1.338484e-05 -8.846368e-06 -3.483249e-05 1.358962e-05 1.253828e-05 4.687683e-07 1.030081e-05 1.015368e-06 2.024078e-05 -4.025253e-06
<VARIANCE> 52
 9.911698e-01 9.802856e-01 9.804822e-01 9.813642e-01 9.816242e-01 9.815120e-01 9.819377e-01 9.816215e-01 9.811071e-01 9.812845e-01 9.811584e-01 9.809774e-01 9.811919e-01 9.786490e-01 9.756899e-01 9.776914e-01 9.778354e-01 9.782374e-01 9.790415e-01 9.795090e-01 9.793269e-01 9.799088e-01 9.801182e-01 9.802496e-01 9.803829e-01 9.803662e-01 9.784396e-01 9.766091e-01 9.785807e-01 9.789411e-01 9.792718e-01 9.798164e-01 9.801570e-01 9.799801e-01 9.803432e-01 9.807089e-01 9.806575e-01 9.807891e-01 9.806961e-01 9.779255e-01 9.765742e-01 9.782826e-01 9.791772e-01 9.793438e-01 9.798966e-01 9.802307e-01 9.800454e-01 9.804936e-01 9.807737e-01 9.807788e-01 9.809913e-01 9.809271e-01
<GCONST> 9.452216e+01
<TRANSP> 5
 0.000000e+00 1.000000e+00 0.000000e+00 0.000000e+00 0.000000e+00
 0.000000e+00 6.000000e-01 4.000000e-01 0.000000e+00 0.000000e+00
 0.000000e+00 0.000000e+00 6.000000e-01 4.000000e-01 0.000000e+00
 0.000000e+00 0.000000e+00 0.000000e+00 6.000000e-01 4.000000e-01
 0.000000e+00 0.000000e+00 0.000000e+00 0.000000e+00 0.000000e+00
<ENDHMM>
~h "m"
<BEGINHMM>
<NUMSTATES> 5
<STATE> 2
<MEAN> 52
 -3.985001e-03 -1.284927e-03 3.212272e-04 -1.172011e-03 8.610246e-04 8.668455e-04 9.351489e-04 9.545215e-04 -2.174864e-04 -4.039525e-04 -2.209302e-04 -1.884927e-04 -3.128251e-04 -5.064455e-06 -2.436583e-05 -1.086078e-05 6.920768e-06 1.615929e-05 2.080938e-05 -2.043578e-06 -3.959874e-06 6.804280e-06 -1.008694e-05 -5.896914e-06 -1.704046e-05 -5.612740e-06 1.792213e-05 6.038424e-06 -7.215825e-06 -1.417679e-06 -5.173497e-06 6.793044e-06 2.053034e-05 -1.833496e-05 -9.081495e-06 9.224465e-06 -1.040485e-05 1.856380e-05 1.917774e-05 -8.840067e-06 9.364997e-07 -6.416554e-06 -1.338484e-05 -8.846368e-06 -3.483249e-05 1.358962e-05 1.253828e-05 4.687683e-07 1.030081e-05 1.015368e-06 2.024078e-05 -4.025253e-06
<VARIANCE> 52
 9.911698e-01 9.802856e-01 9.804822e-01 9.813642e-01 9.816242e-01 9.815120e-01 9.819377e-01 9.816215e-01 9.811071e-01 9.812845e-01 9.811584e-01 9.809774e-01 9.811919e-01 9.786490e-01 9.756899e-01 9.776914e-01 9.778354e-01 9.782374e-01 9.790415e-01 9.795090e-01 9.793269e-01 9.799088e-01 9.801182e-01 9.802496e-01 9.803829e-01 9.803662e-01 9.784396e-01 9.766091e-01 9.785807e-01 9.789411e-01 9.792718e-01 9.798164e-01 9.801570e-01 9.799801e-01 9.803432e-01 9.807089e-01 9.806575e-01 9.807891e-01 9.806961e-01 9.779255e-01 9.765742e-01 9.782826e-01 9.791772e-01 9.793438e-01 9.798966e-01 9.802307e-01 9.800454e-01 9.804936e-01 9.807737e-01 9.807788e-01 9.809913e-01 9.809271e-01
<GCONST> 9.452216e+01
<STATE> 3
<MEAN> 52
 -3.985001e-03 -1.284927e-03 3.212272e-04 -1.172011e-03 8.610246e-04 8.668455e-04 9.351489e-04 9.545215e-04 -2.174864e-04 -4.039525e-04 -2.209302e-04 -1.884927e-04 -3.128251e-04 -5.064455e-06 -2.436583e-05 -1.086078e-05 6.920768e-06 1.615929e-05 2.080938e-05 -2.043578e-06 -3.959874e-06 6.804280e-06 -1.008694e-05 -5.896914e-06 -1.704046e-05 -5.612740e-06 1.792213e-05 6.038424e-06 -7.215825e-06 -1.417679e-06 -5.173497e-06 6.793044e-06 2.053034e-05 -1.833496e-05 -9.081495e-06 9.224465e-06 -1.040485e-05 1.856380e-05 1.917774e-05 -8.840067e-06 9.364997e-07 -6.416554e-06 -1.338484e-05 -8.846368e-06 -3.483249e-05 1.358962e-05 1.253828e-05 4.687683e-07 1.030081e-05 1.015368e-06 2.024078e-05 -4.025253e-06
<VARIANCE> 52
 9.911698e-01 9.802856e-01 9.804822e-01 9.813642e-01 9.816242e-01 9.815120e-01 9.819377e-01 9.816215e-01 9.811071e-01 9.812845e-01 9.811584e-01 9.809774e-01 9.811919e-01 9.786490e-01 9.756899e-01 9.776914e-01 9.778354e-01 9.782374e-01 9.790415e-01 9.795090e-01 9.793269e-01 9.799088e-01 9.801182e-01 9.802496e-01 9.803829e-01 9.803662e-01 9.784396e-01 9.766091e-01 9.785807e-01 9.789411e-01 9.792718e-01 9.798164e-01 9.801570e-01 9.799801e-01 9.803432e-01 9.807089e-01 9.806575e-01 9.807891e-01 9.806961e-01 9.779255e-01 9.765742e-01 9.782826e-01 9.791772e-01 9.793438e-01 9.798966e-01 9.802307e-01 9.800454e-01 9.804936e-01 9.807737e-01 9.807788e-01 9.809913e-01 9.809271e-01
<GCONST> 9.452216e+01
<STATE> 4
<MEAN> 52
 -3.985001e-03 -1.284927e-03 3.212272e-04 -1.172011e-03 8.610246e-04 8.668455e-04 9.351489e-04 9.545215e-04 -2.174864e-04 -4.039525e-04 -2.209302e-04 -1.884927e-04 -3.128251e-04 -5.064455e-06 -2.436583e-05 -1.086078e-05 6.920768e-06 1.615929e-05 2.080938e-05 -2.043578e-06 -3.959874e-06 6.804280e-06 -1.008694e-05 -5.896914e-06 -1.704046e-05 -5.612740e-06 1.792213e-05 6.038424e-06 -7.215825e-06 -1.417679e-06 -5.173497e-06 6.793044e-06 2.053034e-05 -1.833496e-05 -9.081495e-06 9.224465e-06 -1.040485e-05 1.856380e-05 1.917774e-05 -8.840067e-06 9.364997e-07 -6.416554e-06 -1.338484e-05 -8.846368e-06 -3.483249e-05 1.358962e-05 1.253828e-05 4.687683e-07 1.030081e-05 1.015368e-06 2.024078e-05 -4.025253e-06
<VARIANCE> 52
 9.911698e-01 9.802856e-01 9.804822e-01 9.813642e-01 9.816242e-01 9.815120e-01 9.819377e-01 9.816215e-01 9.811071e-01 9.812845e-01 9.811584e-01 9.809774e-01 9.811919e-01 9.786490e-01 9.756899e-01 9.776914e-01 9.778354e-01 9.782374e-01 9.790415e-01 9.795090e-01 9.793269e-01 9.799088e-01 9.801182e-01 9.802496e-01 9.803829e-01 9.803662e-01 9.784396e-01 9.766091e-01 9.785807e-01 9.789411e-01 9.792718e-01 9.798164e-01 9.801570e-01 9.799801e-01 9.803432e-01 9.807089e-01 9.806575e-01 9.807891e-01 9.806961e-01 9.779255e-01 9.765742e-01 9.782826e-01 9.791772e-01 9.793438e-01 9.798966e-01 9.802307e-01 9.800454e-01 9.804936e-01 9.807737e-01 9.807788e-01 9.809913e-01 9.809271e-01
<GCONST> 9.452216e+01
<TRANSP> 5
 0.000000e+00 1.000000e+00 0.000000e+00 0.000000e+00 0.000000e+00
 0.000000e+00 6.000000e-01 4.000000e-01 0.000000e+00 0.000000e+00
 0.000000e+00 0.000000e+00 6.000000e-01 4.000000e-01 0.000000e+00
 0.000000e+00 0.000000e+00 0.000000e+00 6.000000e-01 4.000000e-01
 0.000000e+00 0.000000e+00 0.000000e+00 0.000000e+00 0.000000e+00
<ENDHMM>
~h "t"
<BEGINHMM>
<NUMSTATES> 5
<STATE> 2
<MEAN> 52
 -3.985001e-03 -1.284927e-03 3.212272e-04 -1.172011e-03 8.610246e-04 8.668455e-04 9.351489e-04 9.545215e-04 -2.174864e-04 -4.039525e-04 -2.209302e-04 -1.884927e-04 -3.128251e-04 -5.064455e-06 -2.436583e-05 -1.086078e-05 6.920768e-06 1.615929e-05 2.080938e-05 -2.043578e-06 -3.959874e-06 6.804280e-06 -1.008694e-05 -5.896914e-06 -1.704046e-05 -5.612740e-06 1.792213e-05 6.038424e-06 -7.215825e-06 -1.417679e-06 -5.173497e-06 6.793044e-06 2.053034e-05 -1.833496e-05 -9.081495e-06 9.224465e-06 -1.040485e-05 1.856380e-05 1.917774e-05 -8.840067e-06 9.364997e-07 -6.416554e-06 -1.338484e-05 -8.846368e-06 -3.483249e-05 1.358962e-05 1.253828e-05 4.687683e-07 1.030081e-05 1.015368e-06 2.024078e-05 -4.025253e-06
<VARIANCE> 52
 9.911698e-01 9.802856e-01 9.804822e-01 9.813642e-01 9.816242e-01 9.815120e-01 9.819377e-01 9.816215e-01 9.811071e-01 9.812845e-01 9.811584e-01 9.809774e-01 9.811919e-01 9.786490e-01 9.756899e-01 9.776914e-01 9.778354e-01 9.782374e-01 9.790415e-01 9.795090e-01 9.793269e-01 9.799088e-01 9.801182e-01 9.802496e-01 9.803829e-01 9.803662e-01 9.784396e-01 9.766091e-01 9.785807e-01 9.789411e-01 9.792718e-01 9.798164e-01 9.801570e-01 9.799801e-01 9.803432e-01 9.807089e-01 9.806575e-01 9.807891e-01 9.806961e-01 9.779255e-01 9.765742e-01 9.782826e-01 9.791772e-01 9.793438e-01 9.798966e-01 9.802307e-01 9.800454e-01 9.804936e-01 9.807737e-01 9.807788e-01 9.809913e-01 9.809271e-01
<GCONST> 9.452216e+01
<STATE> 3
<MEAN> 52
 -3.985001e-03 -1.284927e-03 3.212272e-04 -1.172011e-03 8.610246e-04 8.668455e-04 9.351489e-04 9.545215e-04 -2.174864e-04 -4.039525e-04 -2.209302e-04 -1.884927e-04 -3.128251e-04 -5.064455e-06 -2.436583e-05 -1.086078e-05 6.920768e-06 1.615929e-05 2.080938e-05 -2.043578e-06 -3.959874e-06 6.804280e-06 -1.008694e-05 -5.896914e-06 -1.704046e-05 -5.612740e-06 1.792213e-05 6.038424e-06 -7.215825e-06 -1.417679e-06 -5.173497e-06 6.793044e-06 2.053034e-05 -1.833496e-05 -9.081495e-06 9.224465e-06 -1.040485e-05 1.856380e-05 1.917774e-05 -8.840067e-06 9.364997e-07 -6.416554e-06 -1.338484e-05 -8.846368e-06 -3.483249e-05 1.358962e-05 1.253828e-05 4.687683e-07 1.030081e-05 1.015368e-06 2.024078e-05 -4.025253e-06
<VARIANCE> 52
 9.911698e-01 9.802856e-01 9.804822e-01 9.813642e-01 9.816242e-01 9.815120e-01 9.819377e-01 9.816215e-01 9.811071e-01 9.812845e-01 9.811584e-01 9.809774e-01 9.811919e-01 9.786490e-01 9.756899e-01 9.776914e-01 9.778354e-01 9.782374e-01 9.790415e-01 9.795090e-01 9.793269e-01 9.799088e-01 9.801182e-01 9.802496e-01 9.803829e-01 9.803662e-01 9.784396e-01 9.766091e-01 9.785807e-01 9.789411e-01 9.792718e-01 9.798164e-01 9.801570e-01 9.799801e-01 9.803432e-01 9.807089e-01 9.806575e-01 9.807891e-01 9.806961e-01 9.779255e-01 9.765742e-01 9.782826e-01 9.791772e-01 9.793438e-01 9.798966e-01 9.802307e-01 9.800454e-01 9.804936e-01 9.807737e-01 9.807788e-01 9.809913e-01 9.809271e-01
<GCONST> 9.452216e+01
<STATE> 4
<MEAN> 52
 -3.985001e-03 -1.284927e-03 3.212272e-04 -1.172011e-03 8.610246e-04 8.668455e-04 9.351489e-04 9.545215e-04 -2.174864e-04 -4.039525e-04 -2.209302e-04 -1.884927e-04 -3.128251e-04 -5.064455e-06 -2.436583e-05 -1.086078e-05 6.920768e-06 1.615929e-05 2.080938e-05 -2.043578e-06 -3.959874e-06 6.804280e-06 -1.008694e-05 -5.896914e-06 -1.704046e-05 -5.612740e-06 1.792213e-05 6.038424e-06 -7.215825e-06 -1.417679e-06 -5.173497e-06 6.793044e-06 2.053034e-05 -1.833496e-05 -9.081495e-06 9.224465e-06 -1.040485e-05 1.856380e-05 1.917774e-05 -8.840067e-06 9.364997e-07 -6.416554e-06 -1.338484e-05 -8.846368e-06 -3.483249e-05 1.358962e-05 1.253828e-05 4.687683e-07 1.030081e-05 1.015368e-06 2.024078e-05 -4.025253e-06
<VARIANCE> 52
 9.911698e-01 9.802856e-01 9.804822e-01 9.813642e-01 9.816242e-01 9.815120e-01 9.819377e-01 9.816215e-01 9.811071e-01 9.812845e-01 9.811584e-01 9.809774e-01 9.811919e-01 9.786490e-01 9.756899e-01 9.776914e-01 9.778354e-01 9.782374e-01 9.790415e-01 9.795090e-01 9.793269e-01 9.799088e-01 9.801182e-01 9.802496e-01 9.803829e-01 9.803662e-01 9.784396e-01 9.766091e-01 9.785807e-01 9.789411e-01 9.792718e-01 9.798164e-01 9.801570e-01 9.799801e-01 9.803432e-01 9.807089e-01 9.806575e-01 9.807891e-01 9.806961e-01 9.779255e-01 9.765742e-01 9.782826e-01 9.791772e-01 9.793438e-01 9.798966e-01 9.802307e-01 9.800454e-01 9.804936e-01 9.807737e-01 9.807788e-01 9.809913e-01 9.809271e-01
<GCONST> 9.452216e+01
<TRANSP> 5
 0.000000e+00 1.000000e+00 0.000000e+00 0.000000e+00 0.000000e+00
 0.000000e+00 6.000000e-01 4.000000e-01 0.000000e+00 0.000000e+00
 0.000000e+00 0.000000e+00 6.000000e-01 4.000000e-01 0.000000e+00
 0.000000e+00 0.000000e+00 0.000000e+00 6.000000e-01 4.000000e-01
 0.000000e+00 0.000000e+00 0.000000e+00 0.000000e+00 0.000000e+00
<ENDHMM>
~h "sil"
<BEGINHMM>
<NUMSTATES> 5
<STATE> 2
<MEAN> 52
 -3.985001e-03 -1.284927e-03 3.212272e-04 -1.172011e-03 8.610246e-04 8.668455e-04 9.351489e-04 9.545215e-04 -2.174864e-04 -4.039525e-04 -2.209302e-04 -1.884927e-04 -3.128251e-04 -5.064455e-06 -2.436583e-05 -1.086078e-05 6.920768e-06 1.615929e-05 2.080938e-05 -2.043578e-06 -3.959874e-06 6.804280e-06 -1.008694e-05 -5.896914e-06 -1.704046e-05 -5.612740e-06 1.792213e-05 6.038424e-06 -7.215825e-06 -1.417679e-06 -5.173497e-06 6.793044e-06 2.053034e-05 -1.833496e-05 -9.081495e-06 9.224465e-06 -1.040485e-05 1.856380e-05 1.917774e-05 -8.840067e-06 9.364997e-07 -6.416554e-06 -1.338484e-05 -8.846368e-06 -3.483249e-05 1.358962e-05 1.253828e-05 4.687683e-07 1.030081e-05 1.015368e-06 2.024078e-05 -4.025253e-06
<VARIANCE> 52
 9.911698e-01 9.802856e-01 9.804822e-01 9.813642e-01 9.816242e-01 9.815120e-01 9.819377e-01 9.816215e-01 9.811071e-01 9.812845e-01 9.811584e-01 9.809774e-01 9.811919e-01 9.786490e-01 9.756899e-01 9.776914e-01 9.778354e-01 9.782374e-01 9.790415e-01 9.795090e-01 9.793269e-01 9.799088e-01 9.801182e-01 9.802496e-01 9.803829e-01 9.803662e-01 9.784396e-01 9.766091e-01 9.785807e-01 9.789411e-01 9.792718e-01 9.798164e-01 9.801570e-01 9.799801e-01 9.803432e-01 9.807089e-01 9.806575e-01 9.807891e-01 9.806961e-01 9.779255e-01 9.765742e-01 9.782826e-01 9.791772e-01 9.793438e-01 9.798966e-01 9.802307e-01 9.800454e-01 9.804936e-01 9.807737e-01 9.807788e-01 9.809913e-01 9.809271e-01
<GCONST> 9.452216e+01
<STATE> 3
<MEAN> 52
 -3.985001e-03 -1.284927e-03 3.212272e-04 -1.172011e-03 8.610246e-04 8.668455e-04 9.351489e-04 9.545215e-04 -2.174864e-04 -4.039525e-04 -2.209302e-04 -1.884927e-04 -3.128251e-04 -5.064455e-06 -2.436583e-05 -1.086078e-05 6.920768e-06 1.615929e-05 2.080938e-05 -2.043578e-06 -3.959874e-06 6.804280e-06 -1.008694e-05 -5.896914e-06 -1.704046e-05 -5.612740e-06 1.792213e-05 6.038424e-06 -7.215825e-06 -1.417679e-06 -5.173497e-06 6.793044e-06 2.053034e-05 -1.833496e-05 -9.081495e-06 9.224465e-06 -1.040485e-05 1.856380e-05 1.917774e-05 -8.840067e-06 9.364997e-07 -6.416554e-06 -1.338484e-05 -8.846368e-06 -3.483249e-05 1.358962e-05 1.253828e-05 4.687683e-07 1.030081e-05 1.015368e-06 2.024078e-05 -4.025253e-06
<VARIANCE> 52
 9.911698e-01 9.802856e-01 9.804822e-01 9.813642e-01 9.816242e-01 9.815120e-01 9.819377e-01 9.816215e-01 9.811071e-01 9.812845e-01 9.811584e-01 9.809774e-01 9.811919e-01 9.786490e-01 9.756899e-01 9.776914e-01 9.778354e-01 9.782374e-01 9.790415e-01 9.795090e-01 9.793269e-01 9.799088e-01 9.801182e-01 9.802496e-01 9.803829e-01 9.803662e-01 9.784396e-01 9.766091e-01 9.785807e-01 9.789411e-01 9.792718e-01 9.798164e-01 9.801570e-01 9.799801e-01 9.803432e-01 9.807089e-01 9.806575e-01 9.807891e-01 9.806961e-01 9.779255e-01 9.765742e-01 9.782826e-01 9.791772e-01 9.793438e-01 9.798966e-01 9.802307e-01 9.800454e-01 9.804936e-01 9.807737e-01 9.807788e-01 9.809913e-01 9.809271e-01
<GCONST> 9.452216e+01
<STATE> 4
<MEAN> 52
 -3.985001e-03 -1.284927e-03 3.212272e-04 -1.172011e-03 8.610246e-04 8.668455e-04 9.351489e-04 9.545215e-04 -2.174864e-04 -4.039525e-04 -2.209302e-04 -1.884927e-04 -3.128251e-04 -5.064455e-06 -2.436583e-05 -1.086078e-05 6.920768e-06 1.615929e-05 2.080938e-05 -2.043578e-06 -3.959874e-06 6.804280e-06 -1.008694e-05 -5.896914e-06 -1.704046e-05 -5.612740e-06 1.792213e-05 6.038424e-06 -7.215825e-06 -1.417679e-06 -5.173497e-06 6.793044e-06 2.053034e-05 -1.833496e-05 -9.081495e-06 9.224465e-06 -1.040485e-05 1.856380e-05 1.917774e-05 -8.840067e-06 9.364997e-07 -6.416554e-06 -1.338484e-05 -8.846368e-06 -3.483249e-05 1.358962e-05 1.253828e-05 4.687683e-07 1.030081e-05 1.015368e-06 2.024078e-05 -4.025253e-06
<VARIANCE> 52
 9.911698e-01 9.802856e-01 9.804822e-01 9.813642e-01 9.816242e-01 9.815120e-01 9.819377e-01 9.816215e-01 9.811071e-01 9.812845e-01 9.811584e-01 9.809774e-01 9.811919e-01 9.786490e-01 9.756899e-01 9.776914e-01 9.778354e-01 9.782374e-01 9.790415e-01 9.795090e-01 9.793269e-01 9.799088e-01 9.801182e-01 9.802496e-01 9.803829e-01 9.803662e-01 9.784396e-01 9.766091e-01 9.785807e-01 9.789411e-01 9.792718e-01 9.798164e-01 9.801570e-01 9.799801e-01 9.803432e-01 9.807089e-01 9.806575e-01 9.807891e-01 9.806961e-01 9.779255e-01 9.765742e-01 9.782826e-01 9.791772e-01 9.793438e-01 9.798966e-01 9.802307e-01 9.800454e-01 9.804936e-01 9.807737e-01 9.807788e-01 9.809913e-01 9.809271e-01
<GCONST> 9.452216e+01
<TRANSP> 5
 0.000000e+00 1.000000e+00 0.000000e+00 0.000000e+00 0.000000e+00
 0.000000e+00 6.000000e-01 4.000000e-01 0.000000e+00 0.000000e+00
 0.000000e+00 0.000000e+00 6.000000e-01 4.000000e-01 0.000000e+00
 0.000000e+00 0.000000e+00 0.000000e+00 6.000000e-01 4.000000e-01
 0.000000e+00 0.000000e+00 0.000000e+00 0.000000e+00 0.000000e+00
<ENDHMM>
~h "sh"
<BEGINHMM>
<NUMSTATES> 5
<STATE> 2
<MEAN> 52
 -3.985001e-03 -1.284927e-03 3.212272e-04 -1.172011e-03 8.610246e-04 8.668455e-04 9.351489e-04 9.545215e-04 -2.174864e-04 -4.039525e-04 -2.209302e-04 -1.884927e-04 -3.128251e-04 -5.064455e-06 -2.436583e-05 -1.086078e-05 6.920768e-06 1.615929e-05 2.080938e-05 -2.043578e-06 -3.959874e-06 6.804280e-06 -1.008694e-05 -5.896914e-06 -1.704046e-05 -5.612740e-06 1.792213e-05 6.038424e-06 -7.215825e-06 -1.417679e-06 -5.173497e-06 6.793044e-06 2.053034e-05 -1.833496e-05 -9.081495e-06 9.224465e-06 -1.040485e-05 1.856380e-05 1.917774e-05 -8.840067e-06 9.364997e-07 -6.416554e-06 -1.338484e-05 -8.846368e-06 -3.483249e-05 1.358962e-05 1.253828e-05 4.687683e-07 1.030081e-05 1.015368e-06 2.024078e-05 -4.025253e-06
<VARIANCE> 52
 9.911698e-01 9.802856e-01 9.804822e-01 9.813642e-01 9.816242e-01 9.815120e-01 9.819377e-01 9.816215e-01 9.811071e-01 9.812845e-01 9.811584e-01 9.809774e-01 9.811919e-01 9.786490e-01 9.756899e-01 9.776914e-01 9.778354e-01 9.782374e-01 9.790415e-01 9.795090e-01 9.793269e-01 9.799088e-01 9.801182e-01 9.802496e-01 9.803829e-01 9.803662e-01 9.784396e-01 9.766091e-01 9.785807e-01 9.789411e-01 9.792718e-01 9.798164e-01 9.801570e-01 9.799801e-01 9.803432e-01 9.807089e-01 9.806575e-01 9.807891e-01 9.806961e-01 9.779255e-01 9.765742e-01 9.782826e-01 9.791772e-01 9.793438e-01 9.798966e-01 9.802307e-01 9.800454e-01 9.804936e-01 9.807737e-01 9.807788e-01 9.809913e-01 9.809271e-01
<GCONST> 9.452216e+01
<STATE> 3
<MEAN> 52
 -3.985001e-03 -1.284927e-03 3.212272e-04 -1.172011e-03 8.610246e-04 8.668455e-04 9.351489e-04 9.545215e-04 -2.174864e-04 -4.039525e-04 -2.209302e-04 -1.884927e-04 -3.128251e-04 -5.064455e-06 -2.436583e-05 -1.086078e-05 6.920768e-06 1.615929e-05 2.080938e-05 -2.043578e-06 -3.959874e-06 6.804280e-06 -1.008694e-05 -5.896914e-06 -1.704046e-05 -5.612740e-06 1.792213e-05 6.038424e-06 -7.215825e-06 -1.417679e-06 -5.173497e-06 6.793044e-06 2.053034e-05 -1.833496e-05 -9.081495e-06 9.224465e-06 -1.040485e-05 1.856380e-05 1.917774e-05 -8.840067e-06 9.364997e-07 -6.416554e-06 -1.338484e-05 -8.846368e-06 -3.483249e-05 1.358962e-05 1.253828e-05 4.687683e-07 1.030081e-05 1.015368e-06 2.024078e-05 -4.025253e-06
<VARIANCE> 52
 9.911698e-01 9.802856e-01 9.804822e-01 9.813642e-01 9.816242e-01 9.815120e-01 9.819377e-01 9.816215e-01 9.811071e-01 9.812845e-01 9.811584e-01 9.809774e-01 9.811919e-01 9.786490e-01 9.756899e-01 9.776914e-01 9.778354e-01 9.782374e-01 9.790415e-01 9.795090e-01 9.793269e-01 9.799088e-01 9.801182e-01 9.802496e-01 9.803829e-01 9.803662e-01 9.784396e-01 9.766091e-01 9.785807e-01 9.789411e-01 9.792718e-01 9.798164e-01 9.801570e-01 9.799801e-01 9.803432e-01 9.807089e-01 9.806575e-01 9.807891e-01 9.806961e-01 9.779255e-01 9.765742e-01 9.782826e-01 9.791772e-01 9.793438e-01 9.798966e-01 9.802307e-01 9.800454e-01 9.804936e-01 9.807737e-01 9.807788e-01 9.809913e-01 9.809271e-01
<GCONST> 9.452216e+01
<STATE> 4
<MEAN> 52
 -3.985001e-03 -1.284927e-03 3.212272e-04 -1.172011e-03 8.610246e-04 8.668455e-04 9.351489e-04 9.545215e-04 -2.174864e-04 -4.039525e-04 -2.209302e-04 -1.884927e-04 -3.128251e-04 -5.064455e-06 -2.436583e-05 -1.086078e-05 6.920768e-06 1.615929e-05 2.080938e-05 -2.043578e-06 -3.959874e-06 6.804280e-06 -1.008694e-05 -5.896914e-06 -1.704046e-05 -5.612740e-06 1.792213e-05 6.038424e-06 -7.215825e-06 -1.417679e-06 -5.173497e-06 6.793044e-06 2.053034e-05 -1.833496e-05 -9.081495e-06 9.224465e-06 -1.040485e-05 1.856380e-05 1.917774e-05 -8.840067e-06 9.364997e-07 -6.416554e-06 -1.338484e-05 -8.846368e-06 -3.483249e-05 1.358962e-05 1.253828e-05 4.687683e-07 1.030081e-05 1.015368e-06 2.024078e-05 -4.025253e-06
<VARIANCE> 52
 9.911698e-01 9.802856e-01 9.804822e-01 9.813642e-01 9.816242e-01 9.815120e-01 9.819377e-01 9.816215e-01 9.811071e-01 9.812845e-01 9.811584e-01 9.809774e-01 9.811919e-01 9.786490e-01 9.756899e-01 9.776914e-01 9.778354e-01 9.782374e-01 9.790415e-01 9.795090e-01 9.793269e-01 9.799088e-01 9.801182e-01 9.802496e-01 9.803829e-01 9.803662e-01 9.784396e-01 9.766091e-01 9.785807e-01 9.789411e-01 9.792718e-01 9.798164e-01 9.801570e-01 9.799801e-01 9.803432e-01 9.807089e-01 9.806575e-01 9.807891e-01 9.806961e-01 9.779255e-01 9.765742e-01 9.782826e-01 9.791772e-01 9.793438e-01 9.798966e-01 9.802307e-01 9.800454e-01 9.804936e-01 9.807737e-01 9.807788e-01 9.809913e-01 9.809271e-01
<GCONST> 9.452216e+01
<TRANSP> 5
 0.000000e+00 1.000000e+00 0.000000e+00 0.000000e+00 0.000000e+00
 0.000000e+00 6.000000e-01 4.000000e-01 0.000000e+00 0.000000e+00
 0.000000e+00 0.000000e+00 6.000000e-01 4.000000e-01 0.000000e+00
 0.000000e+00 0.000000e+00 0.000000e+00 6.000000e-01 4.000000e-01
 0.000000e+00 0.000000e+00 0.000000e+00 0.000000e+00 0.000000e+00
<ENDHMM>
~h "ch"
<BEGINHMM>
<NUMSTATES> 5
<STATE> 2
<MEAN> 52
 -3.985001e-03 -1.284927e-03 3.212272e-04 -1.172011e-03 8.610246e-04 8.668455e-04 9.351489e-04 9.545215e-04 -2.174864e-04 -4.039525e-04 -2.209302e-04 -1.884927e-04 -3.128251e-04 -5.064455e-06 -2.436583e-05 -1.086078e-05 6.920768e-06 1.615929e-05 2.080938e-05 -2.043578e-06 -3.959874e-06 6.804280e-06 -1.008694e-05 -5.896914e-06 -1.704046e-05 -5.612740e-06 1.792213e-05 6.038424e-06 -7.215825e-06 -1.417679e-06 -5.173497e-06 6.793044e-06 2.053034e-05 -1.833496e-05 -9.081495e-06 9.224465e-06 -1.040485e-05 1.856380e-05 1.917774e-05 -8.840067e-06 9.364997e-07 -6.416554e-06 -1.338484e-05 -8.846368e-06 -3.483249e-05 1.358962e-05 1.253828e-05 4.687683e-07 1.030081e-05 1.015368e-06 2.024078e-05 -4.025253e-06
<VARIANCE> 52
 9.911698e-01 9.802856e-01 9.804822e-01 9.813642e-01 9.816242e-01 9.815120e-01 9.819377e-01 9.816215e-01 9.811071e-01 9.812845e-01 9.811584e-01 9.809774e-01 9.811919e-01 9.786490e-01 9.756899e-01 9.776914e-01 9.778354e-01 9.782374e-01 9.790415e-01 9.795090e-01 9.793269e-01 9.799088e-01 9.801182e-01 9.802496e-01 9.803829e-01 9.803662e-01 9.784396e-01 9.766091e-01 9.785807e-01 9.789411e-01 9.792718e-01 9.798164e-01 9.801570e-01 9.799801e-01 9.803432e-01 9.807089e-01 9.806575e-01 9.807891e-01 9.806961e-01 9.779255e-01 9.765742e-01 9.782826e-01 9.791772e-01 9.793438e-01 9.798966e-01 9.802307e-01 9.800454e-01 9.804936e-01 9.807737e-01 9.807788e-01 9.809913e-01 9.809271e-01
<GCONST> 9.452216e+01
<STATE> 3
<MEAN> 52
 -3.985001e-03 -1.284927e-03 3.212272e-04 -1.172011e-03 8.610246e-04 8.668455e-04 9.351489e-04 9.545215e-04 -2.174864e-04 -4.039525e-04 -2.209302e-04 -1.884927e-04 -3.128251e-04 -5.064455e-06 -2.436583e-05 -1.086078e-05 6.920768e-06 1.615929e-05 2.080938e-05 -2.043578e-06 -3.959874e-06 6.804280e-06 -1.008694e-05 -5.896914e-06 -1.704046e-05 -5.612740e-06 1.792213e-05 6.038424e-06 -7.215825e-06 -1.417679e-06 -5.173497e-06 6.793044e-06 2.053034e-05 -1.833496e-05 -9.081495e-06 9.224465e-06 -1.040485e-05 1.856380e-05 1.917774e-05 -8.840067e-06 9.364997e-07 -6.416554e-06 -1.338484e-05 -8.846368e-06 -3.483249e-05 1.358962e-05 1.253828e-05 4.687683e-07 1.030081e-05 1.015368e-06 2.024078e-05 -4.025253e-06
<VARIANCE> 52
 9.911698e-01 9.802856e-01 9.804822e-01 9.813642e-01 9.816242e-01 9.815120e-01 9.819377e-01 9.816215e-01 9.811071e-01 9.812845e-01 9.811584e-01 9.809774e-01 9.811919e-01 9.786490e-01 9.756899e-01 9.776914e-01 9.778354e-01 9.782374e-01 9.790415e-01 9.795090e-01 9.793269e-01 9.799088e-01 9.801182e-01 9.802496e-01 9.803829e-01 9.803662e-01 9.784396e-01 9.766091e-01 9.785807e-01 9.789411e-01 9.792718e-01 9.798164e-01 9.801570e-01 9.799801e-01 9.803432e-01 9.807089e-01 9.806575e-01 9.807891e-01 9.806961e-01 9.779255e-01 9.765742e-01 9.782826e-01 9.791772e-01 9.793438e-01 9.798966e-01 9.802307e-01 9.800454e-01 9.804936e-01 9.807737e-01 9.807788e-01 9.809913e-01 9.809271e-01
<GCONST> 9.452216e+01
<STATE> 4
<MEAN> 52
 -3.985001e-03 -1.284927e-03 3.212272e-04 -1.172011e-03 8.610246e-04 8.668455e-04 9.351489e-04 9.545215e-04 -2.174864e-04 -4.039525e-04 -2.209302e-04 -1.884927e-04 -3.128251e-04 -5.064455e-06 -2.436583e-05 -1.086078e-05 6.920768e-06 1.615929e-05 2.080938e-05 -2.043578e-06 -3.959874e-06 6.804280e-06 -1.008694e-05 -5.896914e-06 -1.704046e-05 -5.612740e-06 1.792213e-05 6.038424e-06 -7.215825e-06 -1.417679e-06 -5.173497e-06 6.793044e-06 2.053034e-05 -1.833496e-05 -9.081495e-06 9.224465e-06 -1.040485e-05 1.856380e-05 1.917774e-05 -8.840067e-06 9.364997e-07 -6.416554e-06 -1.338484e-05 -8.846368e-06 -3.483249e-05 1.358962e-05 1.253828e-05 4.687683e-07 1.030081e-05 1.015368e-06 2.024078e-05 -4.025253e-06
<VARIANCE> 52
 9.911698e-01 9.802856e-01 9.804822e-01 9.813642e-01 9.816242e-01 9.815120e-01 9.819377e-01 9.816215e-01 9.811071e-01 9.812845e-01 9.811584e-01 9.809774e-01 9.811919e-01 9.786490e-01 9.756899e-01 9.776914e-01 9.778354e-01 9.782374e-01 9.790415e-01 9.795090e-01 9.793269e-01 9.799088e-01 9.801182e-01 9.802496e-01 9.803829e-01 9.803662e-01 9.784396e-01 9.766091e-01 9.785807e-01 9.789411e-01 9.792718e-01 9.798164e-01 9.801570e-01 9.799801e-01 9.803432e-01 9.807089e-01 9.806575e-01 9.807891e-01 9.806961e-01 9.779255e-01 9.765742e-01 9.782826e-01 9.791772e-01 9.793438e-01 9.798966e-01 9.802307e-01 9.800454e-01 9.804936e-01 9.807737e-01 9.807788e-01 9.809913e-01 9.809271e-01
<GCONST> 9.452216e+01
<TRANSP> 5
 0.000000e+00 1.000000e+00 0.000000e+00 0.000000e+00 0.000000e+00
 0.000000e+00 6.000000e-01 4.000000e-01 0.000000e+00 0.000000e+00
 0.000000e+00 0.000000e+00 6.000000e-01 4.000000e-01 0.000000e+00
 0.000000e+00 0.000000e+00 0.000000e+00 6.000000e-01 4.000000e-01
 0.000000e+00 0.000000e+00 0.000000e+00 0.000000e+00 0.000000e+00
<ENDHMM>
~h "s"
<BEGINHMM>
<NUMSTATES> 5
<STATE> 2
<MEAN> 52
 -3.985001e-03 -1.284927e-03 3.212272e-04 -1.172011e-03 8.610246e-04 8.668455e-04 9.351489e-04 9.545215e-04 -2.174864e-04 -4.039525e-04 -2.209302e-04 -1.884927e-04 -3.128251e-04 -5.064455e-06 -2.436583e-05 -1.086078e-05 6.920768e-06 1.615929e-05 2.080938e-05 -2.043578e-06 -3.959874e-06 6.804280e-06 -1.008694e-05 -5.896914e-06 -1.704046e-05 -5.612740e-06 1.792213e-05 6.038424e-06 -7.215825e-06 -1.417679e-06 -5.173497e-06 6.793044e-06 2.053034e-05 -1.833496e-05 -9.081495e-06 9.224465e-06 -1.040485e-05 1.856380e-05 1.917774e-05 -8.840067e-06 9.364997e-07 -6.416554e-06 -1.338484e-05 -8.846368e-06 -3.483249e-05 1.358962e-05 1.253828e-05 4.687683e-07 1.030081e-05 1.015368e-06 2.024078e-05 -4.025253e-06
<VARIANCE> 52
 9.911698e-01 9.802856e-01 9.804822e-01 9.813642e-01 9.816242e-01 9.815120e-01 9.819377e-01 9.816215e-01 9.811071e-01 9.812845e-01 9.811584e-01 9.809774e-01 9.811919e-01 9.786490e-01 9.756899e-01 9.776914e-01 9.778354e-01 9.782374e-01 9.790415e-01 9.795090e-01 9.793269e-01 9.799088e-01 9.801182e-01 9.802496e-01 9.803829e-01 9.803662e-01 9.784396e-01 9.766091e-01 9.785807e-01 9.789411e-01 9.792718e-01 9.798164e-01 9.801570e-01 9.799801e-01 9.803432e-01 9.807089e-01 9.806575e-01 9.807891e-01 9.806961e-01 9.779255e-01 9.765742e-01 9.782826e-01 9.791772e-01 9.793438e-01 9.798966e-01 9.802307e-01 9.800454e-01 9.804936e-01 9.807737e-01 9.807788e-01 9.809913e-01 9.809271e-01
<GCONST> 9.452216e+01
<STATE> 3
<MEAN> 52
 -3.985001e-03 -1.284927e-03 3.212272e-04 -1.172011e-03 8.610246e-04 8.668455e-04 9.351489e-04 9.545215e-04 -2.174864e-04 -4.039525e-04 -2.209302e-04 -1.884927e-04 -3.128251e-04 -5.064455e-06 -2.436583e-05 -1.086078e-05 6.920768e-06 1.615929e-05 2.080938e-05 -2.043578e-06 -3.959874e-06 6.804280e-06 -1.008694e-05 -5.896914e-06 -1.704046e-05 -5.612740e-06 1.792213e-05 6.038424e-06 -7.215825e-06 -1.417679e-06 -5.173497e-06 6.793044e-06 2.053034e-05 -1.833496e-05 -9.081495e-06 9.224465e-06 -1.040485e-05 1.856380e-05 1.917774e-05 -8.840067e-06 9.364997e-07 -6.416554e-06 -1.338484e-05 -8.846368e-06 -3.483249e-05 1.358962e-05 1.253828e-05 4.687683e-07 1.030081e-05 1.015368e-06 2.024078e-05 -4.025253e-06
<VARIANCE> 52
 9.911698e-01 9.802856e-01 9.804822e-01 9.813642e-01 9.816242e-01 9.815120e-01 9.819377e-01 9.816215e-01 9.811071e-01 9.812845e-01 9.811584e-01 9.809774e-01 9.811919e-01 9.786490e-01 9.756899e-01 9.776914e-01 9.778354e-01 9.782374e-01 9.790415e-01 9.795090e-01 9.793269e-01 9.799088e-01 9.801182e-01 9.802496e-01 9.803829e-01 9.803662e-01 9.784396e-01 9.766091e-01 9.785807e-01 9.789411e-01 9.792718e-01 9.798164e-01 9.801570e-01 9.799801e-01 9.803432e-01 9.807089e-01 9.806575e-01 9.807891e-01 9.806961e-01 9.779255e-01 9.765742e-01 9.782826e-01 9.791772e-01 9.793438e-01 9.798966e-01 9.802307e-01 9.800454e-01 9.804936e-01 9.807737e-01 9.807788e-01 9.809913e-01 9.809271e-01
<GCONST> 9.452216e+01
<STATE> 4
<MEAN> 52
 -3.985001e-03 -1.284927e-03 3.212272e-04 -1.172011e-03 8.610246e-04 8.668455e-04 9.351489e-04 9.545215e-04 -2.174864e-04 -4.039525e-04 -2.209302e-04 -1.884927e-04 -3.128251e-04 -5.064455e-06 -2.436583e-05 -1.086078e-05 6.920768e-06 1.615929e-05 2.080938e-05 -2.043578e-06 -3.959874e-06 6.804280e-06 -1.008694e-05 -5.896914e-06 -1.704046e-05 -5.612740e-06 1.792213e-05 6.038424e-06 -7.215825e-06 -1.417679e-06 -5.173497e-06 6.793044e-06 2.053034e-05 -1.833496e-05 -9.081495e-06 9.224465e-06 -1.040485e-05 1.856380e-05 1.917774e-05 -8.840067e-06 9.364997e-07 -6.416554e-06 -1.338484e-05 -8.846368e-06 -3.483249e-05 1.358962e-05 1.253828e-05 4.687683e-07 1.030081e-05 1.015368e-06 2.024078e-05 -4.025253e-06
<VARIANCE> 52
 9.911698e-01 9.802856e-01 9.804822e-01 9.813642e-01 9.816242e-01 9.815120e-01 9.819377e-01 9.816215e-01 9.811071e-01 9.812845e-01 9.811584e-01 9.809774e-01 9.811919e-01 9.786490e-01 9.756899e-01 9.776914e-01 9.778354e-01 9.782374e-01 9.790415e-01 9.795090e-01 9.793269e-01 9.799088e-01 9.801182e-01 9.802496e-01 9.803829e-01 9.803662e-01 9.784396e-01 9.766091e-01 9.785807e-01 9.789411e-01 9.792718e-01 9.798164e-01 9.801570e-01 9.799801e-01 9.803432e-01 9.807089e-01 9.806575e-01 9.807891e-01 9.806961e-01 9.779255e-01 9.765742e-01 9.782826e-01 9.791772e-01 9.793438e-01 9.798966e-01 9.802307e-01 9.800454e-01 9.804936e-01 9.807737e-01 9.807788e-01 9.809913e-01 9.809271e-01
<GCONST> 9.452216e+01
<TRANSP> 5
 0.000000e+00 1.000000e+00 0.000000e+00 0.000000e+00 0.000000e+00
 0.000000e+00 6.000000e-01 4.000000e-01 0.000000e+00 0.000000e+00
 0.000000e+00 0.000000e+00 6.000000e-01 4.000000e-01 0.000000e+00
 0.000000e+00 0.000000e+00 0.000000e+00 6.000000e-01 4.000000e-01
 0.000000e+00 0.000000e+00 0.000000e+00 0.000000e+00 0.000000e+00
<ENDHMM>
~h "b"
<BEGINHMM>
<NUMSTATES> 5
<STATE> 2
<MEAN> 52
 -3.985001e-03 -1.284927e-03 3.212272e-04 -1.172011e-03 8.610246e-04 8.668455e-04 9.351489e-04 9.545215e-04 -2.174864e-04 -4.039525e-04 -2.209302e-04 -1.884927e-04 -3.128251e-04 -5.064455e-06 -2.436583e-05 -1.086078e-05 6.920768e-06 1.615929e-05 2.080938e-05 -2.043578e-06 -3.959874e-06 6.804280e-06 -1.008694e-05 -5.896914e-06 -1.704046e-05 -5.612740e-06 1.792213e-05 6.038424e-06 -7.215825e-06 -1.417679e-06 -5.173497e-06 6.793044e-06 2.053034e-05 -1.833496e-05 -9.081495e-06 9.224465e-06 -1.040485e-05 1.856380e-05 1.917774e-05 -8.840067e-06 9.364997e-07 -6.416554e-06 -1.338484e-05 -8.846368e-06 -3.483249e-05 1.358962e-05 1.253828e-05 4.687683e-07 1.030081e-05 1.015368e-06 2.024078e-05 -4.025253e-06
<VARIANCE> 52
 9.911698e-01 9.802856e-01 9.804822e-01 9.813642e-01 9.816242e-01 9.815120e-01 9.819377e-01 9.816215e-01 9.811071e-01 9.812845e-01 9.811584e-01 9.809774e-01 9.811919e-01 9.786490e-01 9.756899e-01 9.776914e-01 9.778354e-01 9.782374e-01 9.790415e-01 9.795090e-01 9.793269e-01 9.799088e-01 9.801182e-01 9.802496e-01 9.803829e-01 9.803662e-01 9.784396e-01 9.766091e-01 9.785807e-01 9.789411e-01 9.792718e-01 9.798164e-01 9.801570e-01 9.799801e-01 9.803432e-01 9.807089e-01 9.806575e-01 9.807891e-01 9.806961e-01 9.779255e-01 9.765742e-01 9.782826e-01 9.791772e-01 9.793438e-01 9.798966e-01 9.802307e-01 9.800454e-01 9.804936e-01 9.807737e-01 9.807788e-01 9.809913e-01 9.809271e-01
<GCONST> 9.452216e+01
<STATE> 3
<MEAN> 52
 -3.985001e-03 -1.284927e-03 3.212272e-04 -1.172011e-03 8.610246e-04 8.668455e-04 9.351489e-04 9.545215e-04 -2.174864e-04 -4.039525e-04 -2.209302e-04 -1.884927e-04 -3.128251e-04 -5.064455e-06 -2.436583e-05 -1.086078e-05 6.920768e-06 1.615929e-05 2.080938e-05 -2.043578e-06 -3.959874e-06 6.804280e-06 -1.008694e-05 -5.896914e-06 -1.704046e-05 -5.612740e-06 1.792213e-05 6.038424e-06 -7.215825e-06 -1.417679e-06 -5.173497e-06 6.793044e-06 2.053034e-05 -1.833496e-05 -9.081495e-06 9.224465e-06 -1.040485e-05 1.856380e-05 1.917774e-05 -8.840067e-06 9.364997e-07 -6.416554e-06 -1.338484e-05 -8.846368e-06 -3.483249e-05 1.358962e-05 1.253828e-05 4.687683e-07 1.030081e-05 1.015368e-06 2.024078e-05 -4.025253e-06
<VARIANCE> 52
 9.911698e-01 9.802856e-01 9.804822e-01 9.813642e-01 9.816242e-01 9.815120e-01 9.819377e-01 9.816215e-01 9.811071e-01 9.812845e-01 9.811584e-01 9.809774e-01 9.811919e-01 9.786490e-01 9.756899e-01 9.776914e-01 9.778354e-01 9.782374e-01 9.790415e-01 9.795090e-01 9.793269e-01 9.799088e-01 9.801182e-01 9.802496e-01 9.803829e-01 9.803662e-01 9.784396e-01 9.766091e-01 9.785807e-01 9.789411e-01 9.792718e-01 9.798164e-01 9.801570e-01 9.799801e-01 9.803432e-01 9.807089e-01 9.806575e-01 9.807891e-01 9.806961e-01 9.779255e-01 9.765742e-01 9.782826e-01 9.791772e-01 9.793438e-01 9.798966e-01 9.802307e-01 9.800454e-01 9.804936e-01 9.807737e-01 9.807788e-01 9.809913e-01 9.809271e-01
<GCONST> 9.452216e+01
<STATE> 4
<MEAN> 52
 -3.985001e-03 -1.284927e-03 3.212272e-04 -1.172011e-03 8.610246e-04 8.668455e-04 9.351489e-04 9.545215e-04 -2.174864e-04 -4.039525e-04 -2.209302e-04 -1.884927e-04 -3.128251e-04 -5.064455e-06 -2.436583e-05 -1.086078e-05 6.920768e-06 1.615929e-05 2.080938e-05 -2.043578e-06 -3.959874e-06 6.804280e-06 -1.008694e-05 -5.896914e-06 -1.704046e-05 -5.612740e-06 1.792213e-05 6.038424e-06 -7.215825e-06 -1.417679e-06 -5.173497e-06 6.793044e-06 2.053034e-05 -1.833496e-05 -9.081495e-06 9.224465e-06 -1.040485e-05 1.856380e-05 1.917774e-05 -8.840067e-06 9.364997e-07 -6.416554e-06 -1.338484e-05 -8.846368e-06 -3.483249e-05 1.358962e-05 1.253828e-05 4.687683e-07 1.030081e-05 1.015368e-06 2.024078e-05 -4.025253e-06
<VARIANCE> 52
 9.911698e-01 9.802856e-01 9.804822e-01 9.813642e-01 9.816242e-01 9.815120e-01 9.819377e-01 9.816215e-01 9.811071e-01 9.812845e-01 9.811584e-01 9.809774e-01 9.811919e-01 9.786490e-01 9.756899e-01 9.776914e-01 9.778354e-01 9.782374e-01 9.790415e-01 9.795090e-01 9.793269e-01 9.799088e-01 9.801182e-01 9.802496e-01 9.803829e-01 9.803662e-01 9.784396e-01 9.766091e-01 9.785807e-01 9.789411e-01 9.792718e-01 9.798164e-01 9.801570e-01 9.799801e-01 9.803432e-01 9.807089e-01 9.806575e-01 9.807891e-01 9.806961e-01 9.779255e-01 9.765742e-01 9.782826e-01 9.791772e-01 9.793438e-01 9.798966e-01 9.802307e-01 9.800454e-01 9.804936e-01 9.807737e-01 9.807788e-01 9.809913e-01 9.809271e-01
<GCONST> 9.452216e+01
<TRANSP> 5
 0.000000e+00 1.000000e+00 0.000000e+00 0.000000e+00 0.000000e+00
 0.000000e+00 6.000000e-01 4.000000e-01 0.000000e+00 0.000000e+00
 0.000000e+00 0.000000e+00 6.000000e-01 4.000000e-01 0.000000e+00
 0.000000e+00 0.000000e+00 0.000000e+00 6.000000e-01 4.000000e-01
 0.000000e+00 0.000000e+00 0.000000e+00 0.000000e+00 0.000000e+00
<ENDHMM>
~h "g"
<BEGINHMM>
<NUMSTATES> 5
<STATE> 2
<MEAN> 52
 -3.985001e-03 -1.284927e-03 3.212272e-04 -1.172011e-03 8.610246e-04 8.668455e-04 9.351489e-04 9.545215e-04 -2.174864e-04 -4.039525e-04 -2.209302e-04 -1.884927e-04 -3.128251e-04 -5.064455e-06 -2.436583e-05 -1.086078e-05 6.920768e-06 1.615929e-05 2.080938e-05 -2.043578e-06 -3.959874e-06 6.804280e-06 -1.008694e-05 -5.896914e-06 -1.704046e-05 -5.612740e-06 1.792213e-05 6.038424e-06 -7.215825e-06 -1.417679e-06 -5.173497e-06 6.793044e-06 2.053034e-05 -1.833496e-05 -9.081495e-06 9.224465e-06 -1.040485e-05 1.856380e-05 1.917774e-05 -8.840067e-06 9.364997e-07 -6.416554e-06 -1.338484e-05 -8.846368e-06 -3.483249e-05 1.358962e-05 1.253828e-05 4.687683e-07 1.030081e-05 1.015368e-06 2.024078e-05 -4.025253e-06
<VARIANCE> 52
 9.911698e-01 9.802856e-01 9.804822e-01 9.813642e-01 9.816242e-01 9.815120e-01 9.819377e-01 9.816215e-01 9.811071e-01 9.812845e-01 9.811584e-01 9.809774e-01 9.811919e-01 9.786490e-01 9.756899e-01 9.776914e-01 9.778354e-01 9.782374e-01 9.790415e-01 9.795090e-01 9.793269e-01 9.799088e-01 9.801182e-01 9.802496e-01 9.803829e-01 9.803662e-01 9.784396e-01 9.766091e-01 9.785807e-01 9.789411e-01 9.792718e-01 9.798164e-01 9.801570e-01 9.799801e-01 9.803432e-01 9.807089e-01 9.806575e-01 9.807891e-01 9.806961e-01 9.779255e-01 9.765742e-01 9.782826e-01 9.791772e-01 9.793438e-01 9.798966e-01 9.802307e-01 9.800454e-01 9.804936e-01 9.807737e-01 9.807788e-01 9.809913e-01 9.809271e-01
<GCONST> 9.452216e+01
<STATE> 3
<MEAN> 52
 -3.985001e-03 -1.284927e-03 3.212272e-04 -1.172011e-03 8.610246e-04 8.668455e-04 9.351489e-04 9.545215e-04 -2.174864e-04 -4.039525e-04 -2.209302e-04 -1.884927e-04 -3.128251e-04 -5.064455e-06 -2.436583e-05 -1.086078e-05 6.920768e-06 1.615929e-05 2.080938e-05 -2.043578e-06 -3.959874e-06 6.804280e-06 -1.008694e-05 -5.896914e-06 -1.704046e-05 -5.612740e-06 1.792213e-05 6.038424e-06 -7.215825e-06 -1.417679e-06 -5.173497e-06 6.793044e-06 2.053034e-05 -1.833496e-05 -9.081495e-06 9.224465e-06 -1.040485e-05 1.856380e-05 1.917774e-05 -8.840067e-06 9.364997e-07 -6.416554e-06 -1.338484e-05 -8.846368e-06 -3.483249e-05 1.358962e-05 1.253828e-05 4.687683e-07 1.030081e-05 1.015368e-06 2.024078e-05 -4.025253e-06
<VARIANCE> 52
 9.911698e-01 9.802856e-01 9.804822e-01 9.813642e-01 9.816242e-01 9.815120e-01 9.819377e-01 9.816215e-01 9.811071e-01 9.812845e-01 9.811584e-01 9.809774e-01 9.811919e-01 9.786490e-01 9.756899e-01 9.776914e-01 9.778354e-01 9.782374e-01 9.790415e-01 9.795090e-01 9.793269e-01 9.799088e-01 9.801182e-01 9.802496e-01 9.803829e-01 9.803662e-01 9.784396e-01 9.766091e-01 9.785807e-01 9.789411e-01 9.792718e-01 9.798164e-01 9.801570e-01 9.799801e-01 9.803432e-01 9.807089e-01 9.806575e-01 9.807891e-01 9.806961e-01 9.779255e-01 9.765742e-01 9.782826e-01 9.791772e-01 9.793438e-01 9.798966e-01 9.802307e-01 9.800454e-01 9.804936e-01 9.807737e-01 9.807788e-01 9.809913e-01 9.809271e-01
<GCONST> 9.452216e+01
<STATE> 4
<MEAN> 52
 -3.985001e-03 -1.284927e-03 3.212272e-04 -1.172011e-03 8.610246e-04 8.668455e-04 9.351489e-04 9.545215e-04 -2.174864e-04 -4.039525e-04 -2.209302e-04 -1.884927e-04 -3.128251e-04 -5.064455e-06 -2.436583e-05 -1.086078e-05 6.920768e-06 1.615929e-05 2.080938e-05 -2.043578e-06 -3.959874e-06 6.804280e-06 -1.008694e-05 -5.896914e-06 -1.704046e-05 -5.612740e-06 1.792213e-05 6.038424e-06 -7.215825e-06 -1.417679e-06 -5.173497e-06 6.793044e-06 2.053034e-05 -1.833496e-05 -9.081495e-06 9.224465e-06 -1.040485e-05 1.856380e-05 1.917774e-05 -8.840067e-06 9.364997e-07 -6.416554e-06 -1.338484e-05 -8.846368e-06 -3.483249e-05 1.358962e-05 1.253828e-05 4.687683e-07 1.030081e-05 1.015368e-06 2.024078e-05 -4.025253e-06
<VARIANCE> 52
 9.911698e-01 9.802856e-01 9.804822e-01 9.813642e-01 9.816242e-01 9.815120e-01 9.819377e-01 9.816215e-01 9.811071e-01 9.812845e-01 9.811584e-01 9.809774e-01 9.811919e-01 9.786490e-01 9.756899e-01 9.776914e-01 9.778354e-01 9.782374e-01 9.790415e-01 9.795090e-01 9.793269e-01 9.799088e-01 9.801182e-01 9.802496e-01 9.803829e-01 9.803662e-01 9.784396e-01 9.766091e-01 9.785807e-01 9.789411e-01 9.792718e-01 9.798164e-01 9.801570e-01 9.799801e-01 9.803432e-01 9.807089e-01 9.806575e-01 9.807891e-01 9.806961e-01 9.779255e-01 9.765742e-01 9.782826e-01 9.791772e-01 9.793438e-01 9.798966e-01 9.802307e-01 9.800454e-01 9.804936e-01 9.807737e-01 9.807788e-01 9.809913e-01 9.809271e-01
<GCONST> 9.452216e+01
<TRANSP> 5
 0.000000e+00 1.000000e+00 0.000000e+00 0.000000e+00 0.000000e+00
 0.000000e+00 6.000000e-01 4.000000e-01 0.000000e+00 0.000000e+00
 0.000000e+00 0.000000e+00 6.000000e-01 4.000000e-01 0.000000e+00
 0.000000e+00 0.000000e+00 0.000000e+00 6.000000e-01 4.000000e-01
 0.000000e+00 0.000000e+00 0.000000e+00 0.000000e+00 0.000000e+00
<ENDHMM>
~h "l"
<BEGINHMM>
<NUMSTATES> 5
<STATE> 2
<MEAN> 52
 -3.985001e-03 -1.284927e-03 3.212272e-04 -1.172011e-03 8.610246e-04 8.668455e-04 9.351489e-04 9.545215e-04 -2.174864e-04 -4.039525e-04 -2.209302e-04 -1.884927e-04 -3.128251e-04 -5.064455e-06 -2.436583e-05 -1.086078e-05 6.920768e-06 1.615929e-05 2.080938e-05 -2.043578e-06 -3.959874e-06 6.804280e-06 -1.008694e-05 -5.896914e-06 -1.704046e-05 -5.612740e-06 1.792213e-05 6.038424e-06 -7.215825e-06 -1.417679e-06 -5.173497e-06 6.793044e-06 2.053034e-05 -1.833496e-05 -9.081495e-06 9.224465e-06 -1.040485e-05 1.856380e-05 1.917774e-05 -8.840067e-06 9.364997e-07 -6.416554e-06 -1.338484e-05 -8.846368e-06 -3.483249e-05 1.358962e-05 1.253828e-05 4.687683e-07 1.030081e-05 1.015368e-06 2.024078e-05 -4.025253e-06
<VARIANCE> 52
