~h "a"
<BEGINHMM>
<NUMSTATES> 5
<STATE> 2
<MEAN> 52
 -2.553060e-03 -9.914917e-04 -9.511375e-04 -7.067083e-04 4.884938e-04 4.607062e-04 2.170536e-04 3.749962e-04 5.685943e-05 -1.641407e-04 -2.682926e-04 3.209595e-04 2.224516e-05 1.462708e-05 -1.563646e-05 3.150207e-06 -3.127282e-05 2.215711e-06 -1.558698e-05 3.050199e-05 1.197561e-05 3.381344e-05 1.909707e-06 1.867348e-05 2.629744e-05 8.081098e-06 -2.104376e-05 3.518652e-05 -1.349342e-05 3.585546e-06 -2.162471e-06 1.303398e-05 3.576985e-06 -2.080435e-06 -1.966715e-05 -1.045151e-05 -1.823006e-05 -9.553847e-07 7.348699e-06 1.531814e-05 -1.371183e-05 1.278371e-05 1.168531e-05 -4.991732e-06 -9.663237e-06 -3.061223e-06 -4.925353e-06 -3.432880e-06 -9.174451e-06 -1.119601e-05 -1.612987e-05 -9.955244e-06
<VARIANCE> 52
 9.816899e-01 9.760739e-01 9.747661e-01 9.745262e-01 9.735070e-01 9.737077e-01 9.743643e-01 9.739766e-01 9.736460e-01 9.738467e-01 9.737835e-01 9.735096e-01 9.735794e-01 9.707018e-01 9.684655e-01 9.702125e-01 9.698300e-01 9.705143e-01 9.714755e-01 9.719940e-01 9.721018e-01 9.722180e-01 9.726347e-01 9.726303e-01 9.725136e-01 9.722663e-01 9.702491e-01 9.699934e-01 9.707450e-01 9.708397e-01 9.715440e-01 9.720864e-01 9.723561e-01 9.727064e-01 9.726942e-01 9.730930e-01 9.731038e-01 9.729591e-01 9.728841e-01 9.699782e-01 9.693173e-01 9.704190e-01 9.707130e-01 9.715012e-01 9.721708e-01 9.723574e-01 9.726629e-01 9.727181e-01 9.730307e-01 9.730666e-01 9.729692e-01 9.728429e-01
<GCONST> 9.411693e+01
<STATE> 3
<MEAN> 52
 -2.553060e-03 -9.914917e-04 -9.511375e-04 -7.067083e-04 4.884938e-04 4.607062e-04 2.170536e-04 3.749962e-04 5.685943e-05 -1.641407e-04 -2.682926e-04 3.209595e-04 2.224516e-05 1.462708e-05 -1.563646e-05 3.150207e-06 -3.127282e-05 2.215711e-06 -1.558698e-05 3.050199e-05 1.197561e-05 3.381344e-05 1.909707e-06 1.867348e-05 2.629744e-05 8.081098e-06 -2.104376e-05 3.518652e-05 -1.349342e-05 3.585546e-06 -2.162471e-06 1.303398e-05 3.576985e-06 -2.080435e-06 -1.966715e-05 -1.045151e-05 -1.823006e-05 -9.553847e-07 7.348699e-06 1.531814e-05 -1.371183e-05 1.278371e-05 1.168531e-05 -4.991732e-06 -9.663237e-06 -3.061223e-06 -4.925353e-06 -3.432880e-06 -9.174451e-06 -1.119601e-05 -1.612987e-05 -9.955244e-06
<VARIANCE> 52
 9.816899e-01 9.760739e-01 9.747661e-01 9.745262e-01 9.735070e-01 9.737077e-01 9.743643e-01 9.739766e-01 9.736460e-01 9.738467e-01 9.737835e-01 9.735096e-01 9.735794e-01 9.707018e-01 9.684655e-01 9.702125e-01 9.698300e-01 9.705143e-01 9.714755e-01 9.719940e-01 9.721018e-01 9.722180e-01 9.726347e-01 9.726303e-01 9.725136e-01 9.722663e-01 9.702491e-01 9.699934e-01 9.707450e-01 9.708397e-01 9.715440e-01 9.720864e-01 9.723561e-01 9.727064e-01 9.726942e-01 9.730930e-01 9.731038e-01 9.729591e-01 9.728841e-01 9.699782e-01 9.693173e-01 9.704190e-01 9.707130e-01 9.715012e-01 9.721708e-01 9.723574e-01 9.726629e-01 9.727181e-01 9.730307e-01 9.730666e-01 9.729692e-01 9.728429e-01
<GCONST> 9.411693e+01
<STATE> 4
<MEAN> 52
 -2.553060e-03 -9.914917e-04 -9.511375e-04 -7.067083e-04 4.884938e-04 4.607062e-04 2.170536e-04 3.749962e-04 5.685943e-05 -1.641407e-04 -2.682926e-04 3.209595e-04 2.224516e-05 1.462708e-05 -1.563646e-05 3.150207e-06 -3.127282e-05 2.215711e-06 -1.558698e-05 3.050199e-05 1.197561e-05 3.381344e-05 1.909707e-06 1.867348e-05 2.629744e-05 8.081098e-06 -2.104376e-05 3.518652e-05 -1.349342e-05 3.585546e-06 -2.162471e-06 1.303398e-05 3.576985e-06 -2.080435e-06 -1.966715e-05 -1.045151e-05 -1.823006e-05 -9.553847e-07 7.348699e-06 1.531814e-05 -1.371183e-05 1.278371e-05 1.168531e-05 -4.991732e-06 -9.663237e-06 -3.061223e-06 -4.925353e-06 -3.432880e-06 -9.174451e-06 -1.119601e-05 -1.612987e-05 -9.955244e-06
<VARIANCE> 52
 9.816899e-01 9.760739e-01 9.747661e-01 9.745262e-01 9.735070e-01 9.737077e-01 9.743643e-01 9.739766e-01 9.736460e-01 9.738467e-01 9.737835e-01 9.735096e-01 9.735794e-01 9.707018e-01 9.684655e-01 9.702125e-01 9.698300e-01 9.705143e-01 9.714755e-01 9.719940e-01 9.721018e-01 9.722180e-01 9.726347e-01 9.726303e-01 9.725136e-01 9.722663e-01 9.702491e-01 9.699934e-01 9.707450e-01 9.708397e-01 9.715440e-01 9.720864e-01 9.723561e-01 9.727064e-01 9.726942e-01 9.730930e-01 9.731038e-01 9.729591e-01 9.728841e-01 9.699782e-01 9.693173e-01 9.704190e-01 9.707130e-01 9.715012e-01 9.721708e-01 9.723574e-01 9.726629e-01 9.727181e-01 9.730307e-01 9.730666e-01 9.729692e-01 9.728429e-01
<GCONST> 9.411693e+01
<TRANSP> 5
 0.000000e+00 1.000000e+00 0.000000e+00 0.000000e+00 0.000000e+00
 0.000000e+00 6.000000e-01 4.000000e-01 0.000000e+00 0.000000e+00
 0.000000e+00 0.000000e+00 6.000000e-01 4.000000e-01 0.000000e+00
 0.000000e+00 0.000000e+00 0.000000e+00 6.000000e-01 4.000000e-01
 0.000000e+00 0.000000e+00 0.000000e+00 0.000000e+00 0.000000e+00
<ENDHMM>
~h "ts"
<BEGINHMM>
<NUMSTATES> 5
<STATE> 2
<MEAN> 52
 -2.553060e-03 -9.914917e-04 -9.511375e-04 -7.067083e-04 4.884938e-04 4.607062e-04 2.170536e-04 3.749962e-04 5.685943e-05 -1.641407e-04 -2.682926e-04 3.209595e-04 2.224516e-05 1.462708e-05 -1.563646e-05 3.150207e-06 -3.127282e-05 2.215711e-06 -1.558698e-05 3.050199e-05 1.197561e-05 3.381344e-05 1.909707e-06 1.867348e-05 2.629744e-05 8.081098e-06 -2.104376e-05 3.518652e-05 -1.349342e-05 3.585546e-06 -2.162471e-06 1.303398e-05 3.576985e-06 -2.080435e-06 -1.966715e-05 -1.045151e-05 -1.823006e-05 -9.553847e-07 7.348699e-06 1.531814e-05 -1.371183e-05 1.278371e-05 1.168531e-05 -4.991732e-06 -9.663237e-06 -3.061223e-06 -4.925353e-06 -3.432880e-06 -9.174451e-06 -1.119601e-05 -1.612987e-05 -9.955244e-06
<VARIANCE> 52
 9.816899e-01 9.760739e-01 9.747661e-01 9.745262e-01 9.735070e-01 9.737077e-01 9.743643e-01 9.739766e-01 9.736460e-01 9.738467e-01 9.737835e-01 9.735096e-01 9.735794e-01 9.707018e-01 9.684655e-01 9.702125e-01 9.698300e-01 9.705143e-01 9.714755e-01 9.719940e-01 9.721018e-01 9.722180e-01 9.726347e-01 9.726303e-01 9.725136e-01 9.722663e-01 9.702491e-01 9.699934e-01 9.707450e-01 9.708397e-01 9.715440e-01 9.720864e-01 9.723561e-01 9.727064e-01 9.726942e-01 9.730930e-01 9.731038e-01 9.729591e-01 9.728841e-01 9.699782e-01 9.693173e-01 9.704190e-01 9.707130e-01 9.715012e-01 9.721708e-01 9.723574e-01 9.726629e-01 9.727181e-01 9.730307e-01 9.730666e-01 9.729692e-01 9.728429e-01
<GCONST> 9.411693e+01
<STATE> 3
<MEAN> 52
 -2.553060e-03 -9.914917e-04 -9.511375e-04 -7.067083e-04 4.884938e-04 4.607062e-04 2.170536e-04 3.749962e-04 5.685943e-05 -1.641407e-04 -2.682926e-04 3.209595e-04 2.224516e-05 1.462708e-05 -1.563646e-05 3.150207e-06 -3.127282e-05 2.215711e-06 -1.558698e-05 3.050199e-05 1.197561e-05 3.381344e-05 1.909707e-06 1.867348e-05 2.629744e-05 8.081098e-06 -2.104376e-05 3.518652e-05 -1.349342e-05 3.585546e-06 -2.162471e-06 1.303398e-05 3.576985e-06 -2.080435e-06 -1.966715e-05 -1.045151e-05 -1.823006e-05 -9.553847e-07 7.348699e-06 1.531814e-05 -1.371183e-05 1.278371e-05 1.168531e-05 -4.991732e-06 -9.663237e-06 -3.061223e-06 -4.925353e-06 -3.432880e-06 -9.174451e-06 -1.119601e-05 -1.612987e-05 -9.955244e-06
<VARIANCE> 52
 9.816899e-01 9.760739e-01 9.747661e-01 9.745262e-01 9.735070e-01 9.737077e-01 9.743643e-01 9.739766e-01 9.736460e-01 9.738467e-01 9.737835e-01 9.735096e-01 9.735794e-01 9.707018e-01 9.684655e-01 9.702125e-01 9.698300e-01 9.705143e-01 9.714755e-01 9.719940e-01 9.721018e-01 9.722180e-01 9.726347e-01 9.726303e-01 9.725136e-01 9.722663e-01 9.702491e-01 9.699934e-01 9.707450e-01 9.708397e-01 9.715440e-01 9.720864e-01 9.723561e-01 9.727064e-01 9.726942e-01 9.730930e-01 9.731038e-01 9.729591e-01 9.728841e-01 9.699782e-01 9.693173e-01 9.704190e-01 9.707130e-01 9.715012e-01 9.721708e-01 9.723574e-01 9.726629e-01 9.727181e-01 9.730307e-01 9.730666e-01 9.729692e-01 9.728429e-01
<GCONST> 9.411693e+01
<STATE> 4
<MEAN> 52
 -2.553060e-03 -9.914917e-04 -9.511375e-04 -7.067083e-04 4.884938e-04 4.607062e-04 2.170536e-04 3.749962e-04 5.685943e-05 -1.641407e-04 -2.682926e-04 3.209595e-04 2.224516e-05 1.462708e-05 -1.563646e-05 3.150207e-06 -3.127282e-05 2.215711e-06 -1.558698e-05 3.050199e-05 1.197561e-05 3.381344e-05 1.909707e-06 1.867348e-05 2.629744e-05 8.081098e-06 -2.104376e-05 3.518652e-05 -1.349342e-05 3.585546e-06 -2.162471e-06 1.303398e-05 3.576985e-06 -2.080435e-06 -1.966715e-05 -1.045151e-05 -1.823006e-05 -9.553847e-07 7.348699e-06 1.531814e-05 -1.371183e-05 1.278371e-05 1.168531e-05 -4.991732e-06 -9.663237e-06 -3.061223e-06 -4.925353e-06 -3.432880e-06 -9.174451e-06 -1.119601e-05 -1.612987e-05 -9.955244e-06
<VARIANCE> 52
 9.816899e-01 9.760739e-01 9.747661e-01 9.745262e-01 9.735070e-01 9.737077e-01 9.743643e-01 9.739766e-01 9.736460e-01 9.738467e-01 9.737835e-01 9.735096e-01 9.735794e-01 9.707018e-01 9.684655e-01 9.702125e-01 9.698300e-01 9.705143e-01 9.714755e-01 9.719940e-01 9.721018e-01 9.722180e-01 9.726347e-01 9.726303e-01 9.725136e-01 9.722663e-01 9.702491e-01 9.699934e-01 9.707450e-01 9.708397e-01 9.715440e-01 9.720864e-01 9.723561e-01 9.727064e-01 9.726942e-01 9.730930e-01 9.731038e-01 9.729591e-01 9.728841e-01 9.699782e-01 9.693173e-01 9.704190e-01 9.707130e-01 9.715012e-01 9.721708e-01 9.723574e-01 9.726629e-01 9.727181e-01 9.730307e-01 9.730666e-01 9.729692e-01 9.728429e-01
<GCONST> 9.411693e+01
<TRANSP> 5
 0.000000e+00 1.000000e+00 0.000000e+00 0.000000e+00 0.000000e+00
 0.000000e+00 6.000000e-01 4.000000e-01 0.000000e+00 0.000000e+00
 0.000000e+00 0.000000e+00 6.000000e-01 4.000000e-01 0.000000e+00
 0.000000e+00 0.000000e+00 0.000000e+00 6.000000e-01 4.000000e-01
 0.000000e+00 0.000000e+00 0.000000e+00 0.000000e+00 0.000000e+00
<ENDHMM>
~h "ii"
<BEGINHMM>
<NUMSTATES> 5
<STATE> 2
<MEAN> 52
 -2.553060e-03 -9.914917e-04 -9.511375e-04 -7.067083e-04 4.884938e-04 4.607062e-04 2.170536e-04 3.749962e-04 5.685943e-05 -1.641407e-04 -2.682926e-04 3.209595e-04 2.224516e-05 1.462708e-05 -1.563646e-05 3.150207e-06 -3.127282e-05 2.215711e-06 -1.558698e-05 3.050199e-05 1.197561e-05 3.381344e-05 1.909707e-06 1.867348e-05 2.629744e-05 8.081098e-06 -2.104376e-05 3.518652e-05 -1.349342e-05 3.585546e-06 -2.162471e-06 1.303398e-05 3.576985e-06 -2.080435e-06 -1.966715e-05 -1.045151e-05 -1.823006e-05 -9.553847e-07 7.348699e-06 1.531814e-05 -1.371183e-05 1.278371e-05 1.168531e-05 -4.991732e-06 -9.663237e-06 -3.061223e-06 -4.925353e-06 -3.432880e-06 -9.174451e-06 -1.119601e-05 -1.612987e-05 -9.955244e-06
<VARIANCE> 52
 9.816899e-01 9.760739e-01 9.747661e-01 9.745262e-01 9.735070e-01 9.737077e-01 9.743643e-01 9.739766e-01 9.736460e-01 9.738467e-01 9.737835e-01 9.735096e-01 9.735794e-01 9.707018e-01 9.684655e-01 9.702125e-01 9.698300e-01 9.705143e-01 9.714755e-01 9.719940e-01 9.721018e-01 9.722180e-01 9.726347e-01 9.726303e-01 9.725136e-01 9.722663e-01 9.702491e-01 9.699934e-01 9.707450e-01 9.708397e-01 9.715440e-01 9.720864e-01 9.723561e-01 9.727064e-01 9.726942e-01 9.730930e-01 9.731038e-01 9.729591e-01 9.728841e-01 9.699782e-01 9.693173e-01 9.704190e-01 9.707130e-01 9.715012e-01 9.721708e-01 9.723574e-01 9.726629e-01 9.727181e-01 9.730307e-01 9.730666e-01 9.729692e-01 9.728429e-01
<GCONST> 9.411693e+01
<STATE> 3
<MEAN> 52
 -2.553060e-03 -9.914917e-04 -9.511375e-04 -7.067083e-04 4.884938e-04 4.607062e-04 2.170536e-04 3.749962e-04 5.685943e-05 -1.641407e-04 -2.682926e-04 3.209595e-04 2.224516e-05 1.462708e-05 -1.563646e-05 3.150207e-06 -3.127282e-05 2.215711e-06 -1.558698e-05 3.050199e-05 1.197561e-05 3.381344e-05 1.909707e-06 1.867348e-05 2.629744e-05 8.081098e-06 -2.104376e-05 3.518652e-05 -1.349342e-05 3.585546e-06 -2.162471e-06 1.303398e-05 3.576985e-06 -2.080435e-06 -1.966715e-05 -1.045151e-05 -1.823006e-05 -9.553847e-07 7.348699e-06 1.531814e-05 -1.371183e-05 1.278371e-05 1.168531e-05 -4.991732e-06 -9.663237e-06 -3.061223e-06 -4.925353e-06 -3.432880e-06 -9.174451e-06 -1.119601e-05 -1.612987e-05 -9.955244e-06
<VARIANCE> 52
 9.816899e-01 9.760739e-01 9.747661e-01 9.745262e-01 9.735070e-01 9.737077e-01 9.743643e-01 9.739766e-01 9.736460e-01 9.738467e-01 9.737835e-01 9.735096e-01 9.735794e-01 9.707018e-01 9.684655e-01 9.702125e-01 9.698300e-01 9.705143e-01 9.714755e-01 9.719940e-01 9.721018e-01 9.722180e-01 9.726347e-01 9.726303e-01 9.725136e-01 9.722663e-01 9.702491e-01 9.699934e-01 9.707450e-01 9.708397e-01 9.715440e-01 9.720864e-01 9.723561e-01 9.727064e-01 9.726942e-01 9.730930e-01 9.731038e-01 9.729591e-01 9.728841e-01 9.699782e-01 9.693173e-01 9.704190e-01 9.707130e-01 9.715012e-01 9.721708e-01 9.723574e-01 9.726629e-01 9.727181e-01 9.730307e-01 9.730666e-01 9.729692e-01 9.728429e-01
<GCONST> 9.411693e+01
<STATE> 4
<MEAN> 52
 -2.553060e-03 -9.914917e-04 -9.511375e-04 -7.067083e-04 4.884938e-04 4.607062e-04 2.170536e-04 3.749962e-04 5.685943e-05 -1.641407e-04 -2.682926e-04 3.209595e-04 2.224516e-05 1.462708e-05 -1.563646e-05 3.150207e-06 -3.127282e-05 2.215711e-06 -1.558698e-05 3.050199e-05 1.197561e-05 3.381344e-05 1.909707e-06 1.867348e-05 2.629744e-05 8.081098e-06 -2.104376e-05 3.518652e-05 -1.349342e-05 3.585546e-06 -2.162471e-06 1.303398e-05 3.576985e-06 -2.080435e-06 -1.966715e-05 -1.045151e-05 -1.823006e-05 -9.553847e-07 7.348699e-06 1.531814e-05 -1.371183e-05 1.278371e-05 1.168531e-05 -4.991732e-06 -9.663237e-06 -3.061223e-06 -4.925353e-06 -3.432880e-06 -9.174451e-06 -1.119601e-05 -1.612987e-05 -9.955244e-06
<VARIANCE> 52
 9.816899e-01 9.760739e-01 9.747661e-01 9.745262e-01 9.735070e-01 9.737077e-01 9.743643e-01 9.739766e-01 9.736460e-01 9.738467e-01 9.737835e-01 9.735096e-01 9.735794e-01 9.707018e-01 9.684655e-01 9.702125e-01 9.698300e-01 9.705143e-01 9.714755e-01 9.719940e-01 9.721018e-01 9.722180e-01 9.726347e-01 9.726303e-01 9.725136e-01 9.722663e-01 9.702491e-01 9.699934e-01 9.707450e-01 9.708397e-01 9.715440e-01 9.720864e-01 9.723561e-01 9.727064e-01 9.726942e-01 9.730930e-01 9.731038e-01 9.729591e-01 9.728841e-01 9.699782e-01 9.693173e-01 9.704190e-01 9.707130e-01 9.715012e-01 9.721708e-01 9.723574e-01 9.726629e-01 9.727181e-01 9.730307e-01 9.730666e-01 9.729692e-01 9.728429e-01
<GCONST> 9.411693e+01
<TRANSP> 5
 0.000000e+00 1.000000e+00 0.000000e+00 0.000000e+00 0.000000e+00
 0.000000e+00 6.000000e-01 4.000000e-01 0.000000e+00 0.000000e+00
 0.000000e+00 0.000000e+00 6.000000e-01 4.000000e-01 0.000000e+00
 0.000000e+00 0.000000e+00 0.000000e+00 6.000000e-01 4.000000e-01
 0.000000e+00 0.000000e+00 0.000000e+00 0.000000e+00 0.000000e+00
<ENDHMM>
~h "tsj"
<BEGINHMM>
<NUMSTATES> 5
<STATE> 2
<MEAN> 52
 -2.553060e-03 -9.914917e-04 -9.511375e-04 -7.067083e-04 4.884938e-04 4.607062e-04 2.170536e-04 3.749962e-04 5.685943e-05 -1.641407e-04 -2.682926e-04 3.209595e-04 2.224516e-05 1.462708e-05 -1.563646e-05 3.150207e-06 -3.127282e-05 2.215711e-06 -1.558698e-05 3.050199e-05 1.197561e-05 3.381344e-05 1.909707e-06 1.867348e-05 2.629744e-05 8.081098e-06 -2.104376e-05 3.518652e-05 -1.349342e-05 3.585546e-06 -2.162471e-06 1.303398e-05 3.576985e-06 -2.080435e-06 -1.966715e-05 -1.045151e-05 -1.823006e-05 -9.553847e-07 7.348699e-06 1.531814e-05 -1.371183e-05 1.278371e-05 1.168531e-05 -4.991732e-06 -9.663237e-06 -3.061223e-06 -4.925353e-06 -3.432880e-06 -9.174451e-06 -1.119601e-05 -1.612987e-05 -9.955244e-06
<VARIANCE> 52
 9.816899e-01 9.760739e-01 9.747661e-01 9.745262e-01 9.735070e-01 9.737077e-01 9.743643e-01 9.739766e-01 9.736460e-01 9.738467e-01 9.737835e-01 9.735096e-01 9.735794e-01 9.707018e-01 9.684655e-01 9.702125e-01 9.698300e-01 9.705143e-01 9.714755e-01 9.719940e-01 9.721018e-01 9.722180e-01 9.726347e-01 9.726303e-01 9.725136e-01 9.722663e-01 9.702491e-01 9.699934e-01 9.707450e-01 9.708397e-01 9.715440e-01 9.720864e-01 9.723561e-01 9.727064e-01 9.726942e-01 9.730930e-01 9.731038e-01 9.729591e-01 9.728841e-01 9.699782e-01 9.693173e-01 9.704190e-01 9.707130e-01 9.715012e-01 9.721708e-01 9.723574e-01 9.726629e-01 9.727181e-01 9.730307e-01 9.730666e-01 9.729692e-01 9.728429e-01
<GCONST> 9.411693e+01
<STATE> 3
<MEAN> 52
 -2.553060e-03 -9.914917e-04 -9.511375e-04 -7.067083e-04 4.884938e-04 4.607062e-04 2.170536e-04 3.749962e-04 5.685943e-05 -1.641407e-04 -2.682926e-04 3.209595e-04 2.224516e-05 1.462708e-05 -1.563646e-05 3.150207e-06 -3.127282e-05 2.215711e-06 -1.558698e-05 3.050199e-05 1.197561e-05 3.381344e-05 1.909707e-06 1.867348e-05 2.629744e-05 8.081098e-06 -2.104376e-05 3.518652e-05 -1.349342e-05 3.585546e-06 -2.162471e-06 1.303398e-05 3.576985e-06 -2.080435e-06 -1.966715e-05 -1.045151e-05 -1.823006e-05 -9.553847e-07 7.348699e-06 1.531814e-05 -1.371183e-05 1.278371e-05 1.168531e-05 -4.991732e-06 -9.663237e-06 -3.061223e-06 -4.925353e-06 -3.432880e-06 -9.174451e-06 -1.119601e-05 -1.612987e-05 -9.955244e-06
<VARIANCE> 52
 9.816899e-01 9.760739e-01 9.747661e-01 9.745262e-01 9.735070e-01 9.737077e-01 9.743643e-01 9.739766e-01 9.736460e-01 9.738467e-01 9.737835e-01 9.735096e-01 9.735794e-01 9.707018e-01 9.684655e-01 9.702125e-01 9.698300e-01 9.705143e-01 9.714755e-01 9.719940e-01 9.721018e-01 9.722180e-01 9.726347e-01 9.726303e-01 9.725136e-01 9.722663e-01 9.702491e-01 9.699934e-01 9.707450e-01 9.708397e-01 9.715440e-01 9.720864e-01 9.723561e-01 9.727064e-01 9.726942e-01 9.730930e-01 9.731038e-01 9.729591e-01 9.728841e-01 9.699782e-01 9.693173e-01 9.704190e-01 9.707130e-01 9.715012e-01 9.721708e-01 9.723574e-01 9.726629e-01 9.727181e-01 9.730307e-01 9.730666e-01 9.729692e-01 9.728429e-01
<GCONST> 9.411693e+01
<STATE> 4
<MEAN> 52
 -2.553060e-03 -9.914917e-04 -9.511375e-04 -7.067083e-04 4.884938e-04 4.607062e-04 2.170536e-04 3.749962e-04 5.685943e-05 -1.641407e-04 -2.682926e-04 3.209595e-04 2.224516e-05 1.462708e-05 -1.563646e-05 3.150207e-06 -3.127282e-05 2.215711e-06 -1.558698e-05 3.050199e-05 1.197561e-05 3.381344e-05 1.909707e-06 1.867348e-05 2.629744e-05 8.081098e-06 -2.104376e-05 3.518652e-05 -1.349342e-05 3.585546e-06 -2.162471e-06 1.303398e-05 3.576985e-06 -2.080435e-06 -1.966715e-05 -1.045151e-05 -1.823006e-05 -9.553847e-07 7.348699e-06 1.531814e-05 -1.371183e-05 1.278371e-05 1.168531e-05 -4.991732e-06 -9.663237e-06 -3.061223e-06 -4.925353e-06 -3.432880e-06 -9.174451e-06 -1.119601e-05 -1.612987e-05 -9.955244e-06
<VARIANCE> 52
 9.816899e-01 9.760739e-01 9.747661e-01 9.745262e-01 9.735070e-01 9.737077e-01 9.743643e-01 9.739766e-01 9.736460e-01 9.738467e-01 9.737835e-01 9.735096e-01 9.735794e-01 9.707018e-01 9.684655e-01 9.702125e-01 9.698300e-01 9.705143e-01 9.714755e-01 9.719940e-01 9.721018e-01 9.722180e-01 9.726347e-01 9.726303e-01 9.725136e-01 9.722663e-01 9.702491e-01 9.699934e-01 9.707450e-01 9.708397e-01 9.715440e-01 9.720864e-01 9.723561e-01 9.727064e-01 9.726942e-01 9.730930e-01 9.731038e-01 9.729591e-01 9.728841e-01 9.699782e-01 9.693173e-01 9.704190e-01 9.707130e-01 9.715012e-01 9.721708e-01 9.723574e-01 9.726629e-01 9.727181e-01 9.730307e-01 9.730666e-01 9.729692e-01 9.728429e-01
<GCONST> 9.411693e+01
<TRANSP> 5
 0.000000e+00 1.000000e+00 0.000000e+00 0.000000e+00 0.000000e+00
 0.000000e+00 6.000000e-01 4.000000e-01 0.000000e+00 0.000000e+00
 0.000000e+00 0.000000e+00 6.000000e-01 4.000000e-01 0.000000e+00
 0.000000e+00 0.000000e+00 0.000000e+00 6.000000e-01 4.000000e-01
 0.000000e+00 0.000000e+00 0.000000e+00 0.000000e+00 0.000000e+00
<ENDHMM>
~h "j"
<BEGINHMM>
<NUMSTATES> 5
<STATE> 2
<MEAN> 52
 -2.553060e-03 -9.914917e-04 -9.511375e-04 -7.067083e-04 4.884938e-04 4.607062e-04 2.170536e-04 3.749962e-04 5.685943e-05 -1.641407e-04 -2.682926e-04 3.209595e-04 2.224516e-05 1.462708e-05 -1.563646e-05 3.150207e-06 -3.127282e-05 2.215711e-06 -1.558698e-05 3.050199e-05 1.197561e-05 3.381344e-05 1.909707e-06 1.867348e-05 2.629744e-05 8.081098e-06 -2.104376e-05 3.518652e-05 -1.349342e-05 3.585546e-06 -2.162471e-06 1.303398e-05 3.576985e-06 -2.080435e-06 -1.966715e-05 -1.045151e-05 -1.823006e-05 -9.553847e-07 7.348699e-06 1.531814e-05 -1.371183e-05 1.278371e-05 1.168531e-05 -4.991732e-06 -9.663237e-06 -3.061223e-06 -4.925353e-06 -3.432880e-06 -9.174451e-06 -1.119601e-05 -1.612987e-05 -9.955244e-06
<VARIANCE> 52
 9.816899e-01 9.760739e-01 9.747661e-01 9.745262e-01 9.735070e-01 9.737077e-01 9.743643e-01 9.739766e-01 9.736460e-01 9.738467e-01 9.737835e-01 9.735096e-01 9.735794e-01 9.707018e-01 9.684655e-01 9.702125e-01 9.698300e-01 9.705143e-01 9.714755e-01 9.719940e-01 9.721018e-01 9.722180e-01 9.726347e-01 9.726303e-01 9.725136e-01 9.722663e-01 9.702491e-01 9.699934e-01 9.707450e-01 9.708397e-01 9.715440e-01 9.720864e-01 9.723561e-01 9.727064e-01 9.726942e-01 9.730930e-01 9.731038e-01 9.729591e-01 9.728841e-01 9.699782e-01 9.693173e-01 9.704190e-01 9.707130e-01 9.715012e-01 9.721708e-01 9.723574e-01 9.726629e-01 9.727181e-01 9.730307e-01 9.730666e-01 9.729692e-01 9.728429e-01
<GCONST> 9.411693e+01
<STATE> 3
<MEAN> 52
 -2.553060e-03 -9.914917e-04 -9.511375e-04 -7.067083e-04 4.884938e-04 4.607062e-04 2.170536e-04 3.749962e-04 5.685943e-05 -1.641407e-04 -2.682926e-04 3.209595e-04 2.224516e-05 1.462708e-05 -1.563646e-05 3.150207e-06 -3.127282e-05 2.215711e-06 -1.558698e-05 3.050199e-05 1.197561e-05 3.381344e-05 1.909707e-06 1.867348e-05 2.629744e-05 8.081098e-06 -2.104376e-05 3.518652e-05 -1.349342e-05 3.585546e-06 -2.162471e-06 1.303398e-05 3.576985e-06 -2.080435e-06 -1.966715e-05 -1.045151e-05 -1.823006e-05 -9.553847e-07 7.348699e-06 1.531814e-05 -1.371183e-05 1.278371e-05 1.168531e-05 -4.991732e-06 -9.663237e-06 -3.061223e-06 -4.925353e-06 -3.432880e-06 -9.174451e-06 -1.119601e-05 -1.612987e-05 -9.955244e-06
<VARIANCE> 52
 9.816899e-01 9.760739e-01 9.747661e-01 9.745262e-01 9.735070e-01 9.737077e-01 9.743643e-01 9.739766e-01 9.736460e-01 9.738467e-01 9.737835e-01 9.735096e-01 9.735794e-01 9.707018e-01 9.684655e-01 9.702125e-01 9.698300e-01 9.705143e-01 9.714755e-01 9.719940e-01 9.721018e-01 9.722180e-01 9.726347e-01 9.726303e-01 9.725136e-01 9.722663e-01 9.702491e-01 9.699934e-01 9.707450e-01 9.708397e-01 9.715440e-01 9.720864e-01 9.723561e-01 9.727064e-01 9.726942e-01 9.730930e-01 9.731038e-01 9.729591e-01 9.728841e-01 9.699782e-01 9.693173e-01 9.704190e-01 9.707130e-01 9.715012e-01 9.721708e-01 9.723574e-01 9.726629e-01 9.727181e-01 9.730307e-01 9.730666e-01 9.729692e-01 9.728429e-01
<GCONST> 9.411693e+01
<STATE> 4
<MEAN> 52
 -2.553060e-03 -9.914917e-04 -9.511375e-04 -7.067083e-04 4.884938e-04 4.607062e-04 2.170536e-04 3.749962e-04 5.685943e-05 -1.641407e-04 -2.682926e-04 3.209595e-04 2.224516e-05 1.462708e-05 -1.563646e-05 3.150207e-06 -3.127282e-05 2.215711e-06 -1.558698e-05 3.050199e-05 1.197561e-05 3.381344e-05 1.909707e-06 1.867348e-05 2.629744e-05 8.081098e-06 -2.104376e-05 3.518652e-05 -1.349342e-05 3.585546e-06 -2.162471e-06 1.303398e-05 3.576985e-06 -2.080435e-06 -1.966715e-05 -1.045151e-05 -1.823006e-05 -9.553847e-07 7.348699e-06 1.531814e-05 -1.371183e-05 1.278371e-05 1.168531e-05 -4.991732e-06 -9.663237e-06 -3.061223e-06 -4.925353e-06 -3.432880e-06 -9.174451e-06 -1.119601e-05 -1.612987e-05 -9.955244e-06
<VARIANCE> 52
 9.816899e-01 9.760739e-01 9.747661e-01 9.745262e-01 9.735070e-01 9.737077e-01 9.743643e-01 9.739766e-01 9.736460e-01 9.738467e-01 9.737835e-01 9.735096e-01 9.735794e-01 9.707018e-01 9.684655e-01 9.702125e-01 9.698300e-01 9.705143e-01 9.714755e-01 9.719940e-01 9.721018e-01 9.722180e-01 9.726347e-01 9.726303e-01 9.725136e-01 9.722663e-01 9.702491e-01 9.699934e-01 9.707450e-01 9.708397e-01 9.715440e-01 9.720864e-01 9.723561e-01 9.727064e-01 9.726942e-01 9.730930e-01 9.731038e-01 9.729591e-01 9.728841e-01 9.699782e-01 9.693173e-01 9.704190e-01 9.707130e-01 9.715012e-01 9.721708e-01 9.723574e-01 9.726629e-01 9.727181e-01 9.730307e-01 9.730666e-01 9.729692e-01 9.728429e-01
<GCONST> 9.411693e+01
<TRANSP> 5
 0.000000e+00 1.000000e+00 0.000000e+00 0.000000e+00 0.000000e+00
 0.000000e+00 6.000000e-01 4.000000e-01 0.000000e+00 0.000000e+00
 0.000000e+00 0.000000e+00 6.000000e-01 4.000000e-01 0.000000e+00
 0.000000e+00 0.000000e+00 0.000000e+00 6.000000e-01 4.000000e-01
 0.000000e+00 0.000000e+00 0.000000e+00 0.000000e+00 0.000000e+00
<ENDHMM>
~h "e"
<BEGINHMM>
<NUMSTATES> 5
<STATE> 2
<MEAN> 52
 -2.553060e-03 -9.914917e-04 -9.511375e-04 -7.067083e-04 4.884938e-04 4.607062e-04 2.170536e-04 3.749962e-04 5.685943e-05 -1.641407e-04 -2.682926e-04 3.209595e-04 2.224516e-05 1.462708e-05 -1.563646e-05 3.150207e-06 -3.127282e-05 2.215711e-06 -1.558698e-05 3.050199e-05 1.197561e-05 3.381344e-05 1.909707e-06 1.867348e-05 2.629744e-05 8.081098e-06 -2.104376e-05 3.518652e-05 -1.349342e-05 3.585546e-06 -2.162471e-06 1.303398e-05 3.576985e-06 -2.080435e-06 -1.966715e-05 -1.045151e-05 -1.823006e-05 -9.553847e-07 7.348699e-06 1.531814e-05 -1.371183e-05 1.278371e-05 1.168531e-05 -4.991732e-06 -9.663237e-06 -3.061223e-06 -4.925353e-06 -3.432880e-06 -9.174451e-06 -1.119601e-05 -1.612987e-05 -9.955244e-06
<VARIANCE> 52
 9.816899e-01 9.760739e-01 9.747661e-01 9.745262e-01 9.735070e-01 9.737077e-01 9.743643e-01 9.739766e-01 9.736460e-01 9.738467e-01 9.737835e-01 9.735096e-01 9.735794e-01 9.707018e-01 9.684655e-01 9.702125e-01 9.698300e-01 9.705143e-01 9.714755e-01 9.719940e-01 9.721018e-01 9.722180e-01 9.726347e-01 9.726303e-01 9.725136e-01 9.722663e-01 9.702491e-01 9.699934e-01 9.707450e-01 9.708397e-01 9.715440e-01 9.720864e-01 9.723561e-01 9.727064e-01 9.726942e-01 9.730930e-01 9.731038e-01 9.729591e-01 9.728841e-01 9.699782e-01 9.693173e-01 9.704190e-01 9.707130e-01 9.715012e-01 9.721708e-01 9.723574e-01 9.726629e-01 9.727181e-01 9.730307e-01 9.730666e-01 9.729692e-01 9.728429e-01
<GCONST> 9.411693e+01
<STATE> 3
<MEAN> 52
 -2.553060e-03 -9.914917e-04 -9.511375e-04 -7.067083e-04 4.884938e-04 4.607062e-04 2.170536e-04 3.749962e-04 5.685943e-05 -1.641407e-04 -2.682926e-04 3.209595e-04 2.224516e-05 1.462708e-05 -1.563646e-05 3.150207e-06 -3.127282e-05 2.215711e-06 -1.558698e-05 3.050199e-05 1.197561e-05 3.381344e-05 1.909707e-06 1.867348e-05 2.629744e-05 8.081098e-06 -2.104376e-05 3.518652e-05 -1.349342e-05 3.585546e-06 -2.162471e-06 1.303398e-05 3.576985e-06 -2.080435e-06 -1.966715e-05 -1.045151e-05 -1.823006e-05 -9.553847e-07 7.348699e-06 1.531814e-05 -1.371183e-05 1.278371e-05 1.168531e-05 -4.991732e-06 -9.663237e-06 -3.061223e-06 -4.925353e-06 -3.432880e-06 -9.174451e-06 -1.119601e-05 -1.612987e-05 -9.955244e-06
<VARIANCE> 52
 9.816899e-01 9.760739e-01 9.747661e-01 9.745262e-01 9.735070e-01 9.737077e-01 9.743643e-01 9.739766e-01 9.736460e-01 9.738467e-01 9.737835e-01 9.735096e-01 9.735794e-01 9.707018e-01 9.684655e-01 9.702125e-01 9.698300e-01 9.705143e-01 9.714755e-01 9.719940e-01 9.721018e-01 9.722180e-01 9.726347e-01 9.726303e-01 9.725136e-01 9.722663e-01 9.702491e-01 9.699934e-01 9.707450e-01 9.708397e-01 9.715440e-01 9.720864e-01 9.723561e-01 9.727064e-01 9.726942e-01 9.730930e-01 9.731038e-01 9.729591e-01 9.728841e-01 9.699782e-01 9.693173e-01 9.704190e-01 9.707130e-01 9.715012e-01 9.721708e-01 9.723574e-01 9.726629e-01 9.727181e-01 9.730307e-01 9.730666e-01 9.729692e-01 9.728429e-01
<GCONST> 9.411693e+01
<STATE> 4
<MEAN> 52
 -2.553060e-03 -9.914917e-04 -9.511375e-04 -7.067083e-04 4.884938e-04 4.607062e-04 2.170536e-04 3.749962e-04 5.685943e-05 -1.641407e-04 -2.682926e-04 3.209595e-04 2.224516e-05 1.462708e-05 -1.563646e-05 3.150207e-06 -3.127282e-05 2.215711e-06 -1.558698e-05 3.050199e-05 1.197561e-05 3.381344e-05 1.909707e-06 1.867348e-05 2.629744e-05 8.081098e-06 -2.104376e-05 3.518652e-05 -1.349342e-05 3.585546e-06 -2.162471e-06 1.303398e-05 3.576985e-06 -2.080435e-06 -1.966715e-05 -1.045151e-05 -1.823006e-05 -9.553847e-07 7.348699e-06 1.531814e-05 -1.371183e-05 1.278371e-05 1.168531e-05 -4.991732e-06 -9.663237e-06 -3.061223e-06 -4.925353e-06 -3.432880e-06 -9.174451e-06 -1.119601e-05 -1.612987e-05 -9.955244e-06
<VARIANCE> 52
 9.816899e-01 9.760739e-01 9.747661e-01 9.745262e-01 9.735070e-01 9.737077e-01 9.743643e-01 9.739766e-01 9.736460e-01 9.738467e-01 9.737835e-01 9.735096e-01 9.735794e-01 9.707018e-01 9.684655e-01 9.702125e-01 9.698300e-01 9.705143e-01 9.714755e-01 9.719940e-01 9.721018e-01 9.722180e-01 9.726347e-01 9.726303e-01 9.725136e-01 9.722663e-01 9.702491e-01 9.699934e-01 9.707450e-01 9.708397e-01 9.715440e-01 9.720864e-01 9.723561e-01 9.727064e-01 9.726942e-01 9.730930e-01 9.731038e-01 9.729591e-01 9.728841e-01 9.699782e-01 9.693173e-01 9.704190e-01 9.707130e-01 9.715012e-01 9.721708e-01 9.723574e-01 9.726629e-01 9.727181e-01 9.730307e-01 9.730666e-01 9.729692e-01 9.728429e-01
<GCONST> 9.411693e+01
<TRANSP> 5
 0.000000e+00 1.000000e+00 0.000000e+00 0.000000e+00 0.000000e+00
 0.000000e+00 6.000000e-01 4.000000e-01 0.000000e+00 0.000000e+00
 0.000000e+00 0.000000e+00 6.000000e-01 4.000000e-01 0.000000e+00
 0.000000e+00 0.000000e+00 0.000000e+00 6.000000e-01 4.000000e-01
 0.000000e+00 0.000000e+00 0.000000e+00 0.000000e+00 0.000000e+00
<ENDHMM>
~h "f"
<BEGINHMM>
<NUMSTATES> 5
<STATE> 2
<MEAN> 52
 -2.553060e-03 -9.914917e-04 -9.511375e-04 -7.067083e-04 4.884938e-04 4.607062e-04 2.170536e-04 3.749962e-04 5.685943e-05 -1.641407e-04 -2.682926e-04 3.209595e-04 2.224516e-05 1.462708e-05 -1.563646e-05 3.150207e-06 -3.127282e-05 2.215711e-06 -1.558698e-05 3.050199e-05 1.197561e-05 3.381344e-05 1.909707e-06 1.867348e-05 2.629744e-05 8.081098e-06 -2.104376e-05 3.518652e-05 -1.349342e-05 3.585546e-06 -2.162471e-06 1.303398e-05 3.576985e-06 -2.080435e-06 -1.966715e-05 -1.045151e-05 -1.823006e-05 -9.553847e-07 7.348699e-06 1.531814e-05 -1.371183e-05 1.278371e-05 1.168531e-05 -4.991732e-06 -9.663237e-06 -3.061223e-06 -4.925353e-06 -3.432880e-06 -9.174451e-06 -1.119601e-05 -1.612987e-05 -9.955244e-06
<VARIANCE> 52
 9.816899e-01 9.760739e-01 9.747661e-01 9.745262e-01 9.735070e-01 9.737077e-01 9.743643e-01 9.739766e-01 9.736460e-01 9.738467e-01 9.737835e-01 9.735096e-01 9.735794e-01 9.707018e-01 9.684655e-01 9.702125e-01 9.698300e-01 9.705143e-01 9.714755e-01 9.719940e-01 9.721018e-01 9.722180e-01 9.726347e-01 9.726303e-01 9.725136e-01 9.722663e-01 9.702491e-01 9.699934e-01 9.707450e-01 9.708397e-01 9.715440e-01 9.720864e-01 9.723561e-01 9.727064e-01 9.726942e-01 9.730930e-01 9.731038e-01 9.729591e-01 9.728841e-01 9.699782e-01 9.693173e-01 9.704190e-01 9.707130e-01 9.715012e-01 9.721708e-01 9.723574e-01 9.726629e-01 9.727181e-01 9.730307e-01 9.730666e-01 9.729692e-01 9.728429e-01
<GCONST> 9.411693e+01
<STATE> 3
<MEAN> 52
 -2.553060e-03 -9.914917e-04 -9.511375e-04 -7.067083e-04 4.884938e-04 4.607062e-04 2.170536e-04 3.749962e-04 5.685943e-05 -1.641407e-04 -2.682926e-04 3.209595e-04 2.224516e-05 1.462708e-05 -1.563646e-05 3.150207e-06 -3.127282e-05 2.215711e-06 -1.558698e-05 3.050199e-05 1.197561e-05 3.381344e-05 1.909707e-06 1.867348e-05 2.629744e-05 8.081098e-06 -2.104376e-05 3.518652e-05 -1.349342e-05 3.585546e-06 -2.162471e-06 1.303398e-05 3.576985e-06 -2.080435e-06 -1.966715e-05 -1.045151e-05 -1.823006e-05 -9.553847e-07 7.348699e-06 1.531814e-05 -1.371183e-05 1.278371e-05 1.168531e-05 -4.991732e-06 -9.663237e-06 -3.061223e-06 -4.925353e-06 -3.432880e-06 -9.174451e-06 -1.119601e-05 -1.612987e-05 -9.955244e-06
<VARIANCE> 52
 9.816899e-01 9.760739e-01 9.747661e-01 9.745262e-01 9.735070e-01 9.737077e-01 9.743643e-01 9.739766e-01 9.736460e-01 9.738467e-01 9.737835e-01 9.735096e-01 9.735794e-01 9.707018e-01 9.684655e-01 9.702125e-01 9.698300e-01 9.705143e-01 9.714755e-01 9.719940e-01 9.721018e-01 9.722180e-01 9.726347e-01 9.726303e-01 9.725136e-01 9.722663e-01 9.702491e-01 9.699934e-01 9.707450e-01 9.708397e-01 9.715440e-01 9.720864e-01 9.723561e-01 9.727064e-01 9.726942e-01 9.730930e-01 9.731038e-01 9.729591e-01 9.728841e-01 9.699782e-01 9.693173e-01 9.704190e-01 9.707130e-01 9.715012e-01 9.721708e-01 9.723574e-01 9.726629e-01 9.727181e-01 9.730307e-01 9.730666e-01 9.729692e-01 9.728429e-01
<GCONST> 9.411693e+01
<STATE> 4
<MEAN> 52
 -2.553060e-03 -9.914917e-04 -9.511375e-04 -7.067083e-04 4.884938e-04 4.607062e-04 2.170536e-04 3.749962e-04 5.685943e-05 -1.641407e-04 -2.682926e-04 3.209595e-04 2.224516e-05 1.462708e-05 -1.563646e-05 3.150207e-06 -3.127282e-05 2.215711e-06 -1.558698e-05 3.050199e-05 1.197561e-05 3.381344e-05 1.909707e-06 1.867348e-05 2.629744e-05 8.081098e-06 -2.104376e-05 3.518652e-05 -1.349342e-05 3.585546e-06 -2.162471e-06 1.303398e-05 3.576985e-06 -2.080435e-06 -1.966715e-05 -1.045151e-05 -1.823006e-05 -9.553847e-07 7.348699e-06 1.531814e-05 -1.371183e-05 1.278371e-05 1.168531e-05 -4.991732e-06 -9.663237e-06 -3.061223e-06 -4.925353e-06 -3.432880e-06 -9.174451e-06 -1.119601e-05 -1.612987e-05 -9.955244e-06
<VARIANCE> 52
 9.816899e-01 9.760739e-01 9.747661e-01 9.745262e-01 9.735070e-01 9.737077e-01 9.743643e-01 9.739766e-01 9.736460e-01 9.738467e-01 9.737835e-01 9.735096e-01 9.735794e-01 9.707018e-01 9.684655e-01 9.702125e-01 9.698300e-01 9.705143e-01 9.714755e-01 9.719940e-01 9.721018e-01 9.722180e-01 9.726347e-01 9.726303e-01 9.725136e-01 9.722663e-01 9.702491e-01 9.699934e-01 9.707450e-01 9.708397e-01 9.715440e-01 9.720864e-01 9.723561e-01 9.727064e-01 9.726942e-01 9.730930e-01 9.731038e-01 9.729591e-01 9.728841e-01 9.699782e-01 9.693173e-01 9.704190e-01 9.707130e-01 9.715012e-01 9.721708e-01 9.723574e-01 9.726629e-01 9.727181e-01 9.730307e-01 9.730666e-01 9.729692e-01 9.728429e-01
<GCONST> 9.411693e+01
<TRANSP> 5
 0.000000e+00 1.000000e+00 0.000000e+00 0.000000e+00 0.000000e+00
 0.000000e+00 6.000000e-01 4.000000e-01 0.000000e+00 0.000000e+00
 0.000000e+00 0.000000e+00 6.000000e-01 4.000000e-01 0.000000e+00
 0.000000e+00 0.000000e+00 0.000000e+00 6.000000e-01 4.000000e-01
 0.000000e+00 0.000000e+00 0.000000e+00 0.000000e+00 0.000000e+00
<ENDHMM>
~h "x"
<BEGINHMM>
<NUMSTATES> 5
<STATE> 2
<MEAN> 52
 -2.553060e-03 -9.914917e-04 -9.511375e-04 -7.067083e-04 4.884938e-04 4.607062e-04 2.170536e-04 3.749962e-04 5.685943e-05 -1.641407e-04 -2.682926e-04 3.209595e-04 2.224516e-05 1.462708e-05 -1.563646e-05 3.150207e-06 -3.127282e-05 2.215711e-06 -1.558698e-05 3.050199e-05 1.197561e-05 3.381344e-05 1.909707e-06 1.867348e-05 2.629744e-05 8.081098e-06 -2.104376e-05 3.518652e-05 -1.349342e-05 3.585546e-06 -2.162471e-06 1.303398e-05 3.576985e-06 -2.080435e-06 -1.966715e-05 -1.045151e-05 -1.823006e-05 -9.553847e-07 7.348699e-06 1.531814e-05 -1.371183e-05 1.278371e-05 1.168531e-05 -4.991732e-06 -9.663237e-06 -3.061223e-06 -4.925353e-06 -3.432880e-06 -9.174451e-06 -1.119601e-05 -1.612987e-05 -9.955244e-06
<VARIANCE> 52
 9.816899e-01 9.760739e-01 9.747661e-01 9.745262e-01 9.735070e-01 9.737077e-01 9.743643e-01 9.739766e-01 9.736460e-01 9.738467e-01 9.737835e-01 9.735096e-01 9.735794e-01 9.707018e-01 9.684655e-01 9.702125e-01 9.698300e-01 9.705143e-01 9.714755e-01 9.719940e-01 9.721018e-01 9.722180e-01 9.726347e-01 9.726303e-01 9.725136e-01 9.722663e-01 9.702491e-01 9.699934e-01 9.707450e-01 9.708397e-01 9.715440e-01 9.720864e-01 9.723561e-01 9.727064e-01 9.726942e-01 9.730930e-01 9.731038e-01 9.729591e-01 9.728841e-01 9.699782e-01 9.693173e-01 9.704190e-01 9.707130e-01 9.715012e-01 9.721708e-01 9.723574e-01 9.726629e-01 9.727181e-01 9.730307e-01 9.730666e-01 9.729692e-01 9.728429e-01
<GCONST> 9.411693e+01
<STATE> 3
<MEAN> 52
 -2.553060e-03 -9.914917e-04 -9.511375e-04 -7.067083e-04 4.884938e-04 4.607062e-04 2.170536e-04 3.749962e-04 5.685943e-05 -1.641407e-04 -2.682926e-04 3.209595e-04 2.224516e-05 1.462708e-05 -1.563646e-05 3.150207e-06 -3.127282e-05 2.215711e-06 -1.558698e-05 3.050199e-05 1.197561e-05 3.381344e-05 1.909707e-06 1.867348e-05 2.629744e-05 8.081098e-06 -2.104376e-05 3.518652e-05 -1.349342e-05 3.585546e-06 -2.162471e-06 1.303398e-05 3.576985e-06 -2.080435e-06 -1.966715e-05 -1.045151e-05 -1.823006e-05 -9.553847e-07 7.348699e-06 1.531814e-05 -1.371183e-05 1.278371e-05 1.168531e-05 -4.991732e-06 -9.663237e-06 -3.061223e-06 -4.925353e-06 -3.432880e-06 -9.174451e-06 -1.119601e-05 -1.612987e-05 -9.955244e-06
<VARIANCE> 52
 9.816899e-01 9.760739e-01 9.747661e-01 9.745262e-01 9.735070e-01 9.737077e-01 9.743643e-01 9.739766e-01 9.736460e-01 9.738467e-01 9.737835e-01 9.735096e-01 9.735794e-01 9.707018e-01 9.684655e-01 9.702125e-01 9.698300e-01 9.705143e-01 9.714755e-01 9.719940e-01 9.721018e-01 9.722180e-01 9.726347e-01 9.726303e-01 9.725136e-01 9.722663e-01 9.702491e-01 9.699934e-01 9.707450e-01 9.708397e-01 9.715440e-01 9.720864e-01 9.723561e-01 9.727064e-01 9.726942e-01 9.730930e-01 9.731038e-01 9.729591e-01 9.728841e-01 9.699782e-01 9.693173e-01 9.704190e-01 9.707130e-01 9.715012e-01 9.721708e-01 9.723574e-01 9.726629e-01 9.727181e-01 9.730307e-01 9.730666e-01 9.729692e-01 9.728429e-01
<GCONST> 9.411693e+01
<STATE> 4
<MEAN> 52
 -2.553060e-03 -9.914917e-04 -9.511375e-04 -7.067083e-04 4.884938e-04 4.607062e-04 2.170536e-04 3.749962e-04 5.685943e-05 -1.641407e-04 -2.682926e-04 3.209595e-04 2.224516e-05 1.462708e-05 -1.563646e-05 3.150207e-06 -3.127282e-05 2.215711e-06 -1.558698e-05 3.050199e-05 1.197561e-05 3.381344e-05 1.909707e-06 1.867348e-05 2.629744e-05 8.081098e-06 -2.104376e-05 3.518652e-05 -1.349342e-05 3.585546e-06 -2.162471e-06 1.303398e-05 3.576985e-06 -2.080435e-06 -1.966715e-05 -1.045151e-05 -1.823006e-05 -9.553847e-07 7.348699e-06 1.531814e-05 -1.371183e-05 1.278371e-05 1.168531e-05 -4.991732e-06 -9.663237e-06 -3.061223e-06 -4.925353e-06 -3.432880e-06 -9.174451e-06 -1.119601e-05 -1.612987e-05 -9.955244e-06
<VARIANCE> 52
 9.816899e-01 9.760739e-01 9.747661e-01 9.745262e-01 9.735070e-01 9.737077e-01 9.743643e-01 9.739766e-01 9.736460e-01 9.738467e-01 9.737835e-01 9.735096e-01 9.735794e-01 9.707018e-01 9.684655e-01 9.702125e-01 9.698300e-01 9.705143e-01 9.714755e-01 9.719940e-01 9.721018e-01 9.722180e-01 9.726347e-01 9.726303e-01 9.725136e-01 9.722663e-01 9.702491e-01 9.699934e-01 9.707450e-01 9.708397e-01 9.715440e-01 9.720864e-01 9.723561e-01 9.727064e-01 9.726942e-01 9.730930e-01 9.731038e-01 9.729591e-01 9.728841e-01 9.699782e-01 9.693173e-01 9.704190e-01 9.707130e-01 9.715012e-01 9.721708e-01 9.723574e-01 9.726629e-01 9.727181e-01 9.730307e-01 9.730666e-01 9.729692e-01 9.728429e-01
<GCONST> 9.411693e+01
<TRANSP> 5
 0.000000e+00 1.000000e+00 0.000000e+00 0.000000e+00 0.000000e+00
 0.000000e+00 6.000000e-01 4.000000e-01 0.000000e+00 0.000000e+00
 0.000000e+00 0.000000e+00 6.000000e-01 4.000000e-01 0.000000e+00
 0.000000e+00 0.000000e+00 0.000000e+00 6.000000e-01 4.000000e-01
 0.000000e+00 0.000000e+00 0.000000e+00 0.000000e+00 0.000000e+00
<ENDHMM>
~h "v"
<BEGINHMM>
<NUMSTATES> 5
<STATE> 2
<MEAN> 52
 -2.553060e-03 -9.914917e-04 -9.511375e-04 -7.067083e-04 4.884938e-04 4.607062e-04 2.170536e-04 3.749962e-04 5.685943e-05 -1.641407e-04 -2.682926e-04 3.209595e-04 2.224516e-05 1.462708e-05 -1.563646e-05 3.150207e-06 -3.127282e-05 2.215711e-06 -1.558698e-05 3.050199e-05 1.197561e-05 3.381344e-05 1.909707e-06 1.867348e-05 2.629744e-05 8.081098e-06 -2.104376e-05 3.518652e-05 -1.349342e-05 3.585546e-06 -2.162471e-06 1.303398e-05 3.576985e-06 -2.080435e-06 -1.966715e-05 -1.045151e-05 -1.823006e-05 -9.553847e-07 7.348699e-06 1.531814e-05 -1.371183e-05 1.278371e-05 1.168531e-05 -4.991732e-06 -9.663237e-06 -3.061223e-06 -4.925353e-06 -3.432880e-06 -9.174451e-06 -1.119601e-05 -1.612987e-05 -9.955244e-06
<VARIANCE> 52
 9.816899e-01 9.760739e-01 9.747661e-01 9.745262e-01 9.735070e-01 9.737077e-01 9.743643e-01 9.739766e-01 9.736460e-01 9.738467e-01 9.737835e-01 9.735096e-01 9.735794e-01 9.707018e-01 9.684655e-01 9.702125e-01 9.698300e-01 9.705143e-01 9.714755e-01 9.719940e-01 9.721018e-01 9.722180e-01 9.726347e-01 9.726303e-01 9.725136e-01 9.722663e-01 9.702491e-01 9.699934e-01 9.707450e-01 9.708397e-01 9.715440e-01 9.720864e-01 9.723561e-01 9.727064e-01 9.726942e-01 9.730930e-01 9.731038e-01 9.729591e-01 9.728841e-01 9.699782e-01 9.693173e-01 9.704190e-01 9.707130e-01 9.715012e-01 9.721708e-01 9.723574e-01 9.726629e-01 9.727181e-01 9.730307e-01 9.730666e-01 9.729692e-01 9.728429e-01
<GCONST> 9.411693e+01
<STATE> 3
<MEAN> 52
 -2.553060e-03 -9.914917e-04 -9.511375e-04 -7.067083e-04 4.884938e-04 4.607062e-04 2.170536e-04 3.749962e-04 5.685943e-05 -1.641407e-04 -2.682926e-04 3.209595e-04 2.224516e-05 1.462708e-05 -1.563646e-05 3.150207e-06 -3.127282e-05 2.215711e-06 -1.558698e-05 3.050199e-05 1.197561e-05 3.381344e-05 1.909707e-06 1.867348e-05 2.629744e-05 8.081098e-06 -2.104376e-05 3.518652e-05 -1.349342e-05 3.585546e-06 -2.162471e-06 1.303398e-05 3.576985e-06 -2.080435e-06 -1.966715e-05 -1.045151e-05 -1.823006e-05 -9.553847e-07 7.348699e-06 1.531814e-05 -1.371183e-05 1.278371e-05 1.168531e-05 -4.991732e-06 -9.663237e-06 -3.061223e-06 -4.925353e-06 -3.432880e-06 -9.174451e-06 -1.119601e-05 -1.612987e-05 -9.955244e-06
<VARIANCE> 52
 9.816899e-01 9.760739e-01 9.747661e-01 9.745262e-01 9.735070e-01 9.737077e-01 9.743643e-01 9.739766e-01 9.736460e-01 9.738467e-01 9.737835e-01 9.735096e-01 9.735794e-01 9.707018e-01 9.684655e-01 9.702125e-01 9.698300e-01 9.705143e-01 9.714755e-01 9.719940e-01 9.721018e-01 9.722180e-01 9.726347e-01 9.726303e-01 9.725136e-01 9.722663e-01 9.702491e-01 9.699934e-01 9.707450e-01 9.708397e-01 9.715440e-01 9.720864e-01 9.723561e-01 9.727064e-01 9.726942e-01 9.730930e-01 9.731038e-01 9.729591e-01 9.728841e-01 9.699782e-01 9.693173e-01 9.704190e-01 9.707130e-01 9.715012e-01 9.721708e-01 9.723574e-01 9.726629e-01 9.727181e-01 9.730307e-01 9.730666e-01 9.729692e-01 9.728429e-01
<GCONST> 9.411693e+01
<STATE> 4
<MEAN> 52
 -2.553060e-03 -9.914917e-04 -9.511375e-04 -7.067083e-04 4.884938e-04 4.607062e-04 2.170536e-04 3.749962e-04 5.685943e-05 -1.641407e-04 -2.682926e-04 3.209595e-04 2.224516e-05 1.462708e-05 -1.563646e-05 3.150207e-06 -3.127282e-05 2.215711e-06 -1.558698e-05 3.050199e-05 1.197561e-05 3.381344e-05 1.909707e-06 1.867348e-05 2.629744e-05 8.081098e-06 -2.104376e-05 3.518652e-05 -1.349342e-05 3.585546e-06 -2.162471e-06 1.303398e-05 3.576985e-06 -2.080435e-06 -1.966715e-05 -1.045151e-05 -1.823006e-05 -9.553847e-07 7.348699e-06 1.531814e-05 -1.371183e-05 1.278371e-05 1.168531e-05 -4.991732e-06 -9.663237e-06 -3.061223e-06 -4.925353e-06 -3.432880e-06 -9.174451e-06 -1.119601e-05 -1.612987e-05 -9.955244e-06
<VARIANCE> 52
 9.816899e-01 9.760739e-01 9.747661e-01 9.745262e-01 9.735070e-01 9.737077e-01 9.743643e-01 9.739766e-01 9.736460e-01 9.738467e-01 9.737835e-01 9.735096e-01 9.735794e-01 9.707018e-01 9.684655e-01 9.702125e-01 9.698300e-01 9.705143e-01 9.714755e-01 9.719940e-01 9.721018e-01 9.722180e-01 9.726347e-01 9.726303e-01 9.725136e-01 9.722663e-01 9.702491e-01 9.699934e-01 9.707450e-01 9.708397e-01 9.715440e-01 9.720864e-01 9.723561e-01 9.727064e-01 9.726942e-01 9.730930e-01 9.731038e-01 9.729591e-01 9.728841e-01 9.699782e-01 9.693173e-01 9.704190e-01 9.707130e-01 9.715012e-01 9.721708e-01 9.723574e-01 9.726629e-01 9.727181e-01 9.730307e-01 9.730666e-01 9.729692e-01 9.728429e-01
<GCONST> 9.411693e+01
<TRANSP> 5
 0.000000e+00 1.000000e+00 0.000000e+00 0.000000e+00 0.000000e+00
 0.000000e+00 6.000000e-01 4.000000e-01 0.000000e+00 0.000000e+00
 0.000000e+00 0.000000e+00 6.000000e-01 4.000000e-01 0.000000e+00
 0.000000e+00 0.000000e+00 0.000000e+00 6.000000e-01 4.000000e-01
 0.000000e+00 0.000000e+00 0.000000e+00 0.000000e+00 0.000000e+00
<ENDHMM>
~h "z"
<BEGINHMM>
<NUMSTATES> 5
<STATE> 2
<MEAN> 52
 -2.553060e-03 -9.914917e-04 -9.511375e-04 -7.067083e-04 4.884938e-04 4.607062e-04 2.170536e-04 3.749962e-04 5.685943e-05 -1.641407e-04 -2.682926e-04 3.209595e-04 2.224516e-05 1.462708e-05 -1.563646e-05 3.150207e-06 -3.127282e-05 2.215711e-06 -1.558698e-05 3.050199e-05 1.197561e-05 3.381344e-05 1.909707e-06 1.867348e-05 2.629744e-05 8.081098e-06 -2.104376e-05 3.518652e-05 -1.349342e-05 3.585546e-06 -2.162471e-06 1.303398e-05 3.576985e-06 -2.080435e-06 -1.966715e-05 -1.045151e-05 -1.823006e-05 -9.553847e-07 7.348699e-06 1.531814e-05 -1.371183e-05 1.278371e-05 1.168531e-05 -4.991732e-06 -9.663237e-06 -3.061223e-06 -4.925353e-06 -3.432880e-06 -9.174451e-06 -1.119601e-05 -1.612987e-05 -9.955244e-06
<VARIANCE> 52
 9.816899e-01 9.760739e-01 9.747661e-01 9.745262e-01 9.735070e-01 9.737077e-01 9.743643e-01 9.739766e-01 9.736460e-01 9.738467e-01 9.737835e-01 9.735096e-01 9.735794e-01 9.707018e-01 9.684655e-01 9.702125e-01 9.698300e-01 9.705143e-01 9.714755e-01 9.719940e-01 9.721018e-01 9.722180e-01 9.726347e-01 9.726303e-01 9.725136e-01 9.722663e-01 9.702491e-01 9.699934e-01 9.707450e-01 9.708397e-01 9.715440e-01 9.720864e-01 9.723561e-01 9.727064e-01 9.726942e-01 9.730930e-01 9.731038e-01 9.729591e-01 9.728841e-01 9.699782e-01 9.693173e-01 9.704190e-01 9.707130e-01 9.715012e-01 9.721708e-01 9.723574e-01 9.726629e-01 9.727181e-01 9.730307e-01 9.730666e-01 9.729692e-01 9.728429e-01
<GCONST> 9.411693e+01
<STATE> 3
<MEAN> 52
 -2.553060e-03 -9.914917e-04 -9.511375e-04 -7.067083e-04 4.884938e-04 4.607062e-04 2.170536e-04 3.749962e-04 5.685943e-05 -1.641407e-04 -2.682926e-04 3.209595e-04 2.224516e-05 1.462708e-05 -1.563646e-05 3.150207e-06 -3.127282e-05 2.215711e-06 -1.558698e-05 3.050199e-05 1.197561e-05 3.381344e-05 1.909707e-06 1.867348e-05 2.629744e-05 8.081098e-06 -2.104376e-05 3.518652e-05 -1.349342e-05 3.585546e-06 -2.162471e-06 1.303398e-05 3.576985e-06 -2.080435e-06 -1.966715e-05 -1.045151e-05 -1.823006e-05 -9.553847e-07 7.348699e-06 1.531814e-05 -1.371183e-05 1.278371e-05 1.168531e-05 -4.991732e-06 -9.663237e-06 -3.061223e-06 -4.925353e-06 -3.432880e-06 -9.174451e-06 -1.119601e-05 -1.612987e-05 -9.955244e-06
<VARIANCE> 52
 9.816899e-01 9.760739e-01 9.747661e-01 9.745262e-01 9.735070e-01 9.737077e-01 9.743643e-01 9.739766e-01 9.736460e-01 9.738467e-01 9.737835e-01 9.735096e-01 9.735794e-01 9.707018e-01 9.684655e-01 9.702125e-01 9.698300e-01 9.705143e-01 9.714755e-01 9.719940e-01 9.721018e-01 9.722180e-01 9.726347e-01 9.726303e-01 9.725136e-01 9.722663e-01 9.702491e-01 9.699934e-01 9.707450e-01 9.708397e-01 9.715440e-01 9.720864e-01 9.723561e-01 9.727064e-01 9.726942e-01 9.730930e-01 9.731038e-01 9.729591e-01 9.728841e-01 9.699782e-01 9.693173e-01 9.704190e-01 9.707130e-01 9.715012e-01 9.721708e-01 9.723574e-01 9.726629e-01 9.727181e-01 9.730307e-01 9.730666e-01 9.729692e-01 9.728429e-01
<GCONST> 9.411693e+01
<STATE> 4
<MEAN> 52
 -2.553060e-03 -9.914917e-04 -9.511375e-04 -7.067083e-04 4.884938e-04 4.607062e-04 2.170536e-04 3.749962e-04 5.685943e-05 -1.641407e-04 -2.682926e-04 3.209595e-04 2.224516e-05 1.462708e-05 -1.563646e-05 3.150207e-06 -3.127282e-05 2.215711e-06 -1.558698e-05 3.050199e-05 1.197561e-05 3.381344e-05 1.909707e-06 1.867348e-05 2.629744e-05 8.081098e-06 -2.104376e-05 3.518652e-05 -1.349342e-05 3.585546e-06 -2.162471e-06 1.303398e-05 3.576985e-06 -2.080435e-06 -1.966715e-05 -1.045151e-05 -1.823006e-05 -9.553847e-07 7.348699e-06 1.531814e-05 -1.371183e-05 1.278371e-05 1.168531e-05 -4.991732e-06 -9.663237e-06 -3.061223e-06 -4.925353e-06 -3.432880e-06 -9.174451e-06 -1.119601e-05 -1.612987e-05 -9.955244e-06
<VARIANCE> 52
 9.816899e-01 9.760739e-01 9.747661e-01 9.745262e-01 9.735070e-01 9.737077e-01 9.743643e-01 9.739766e-01 9.736460e-01 9.738467e-01 9.737835e-01 9.735096e-01 9.735794e-01 9.707018e-01 9.684655e-01 9.702125e-01 9.698300e-01 9.705143e-01 9.714755e-01 9.719940e-01 9.721018e-01 9.722180e-01 9.726347e-01 9.726303e-01 9.725136e-01 9.722663e-01 9.702491e-01 9.699934e-01 9.707450e-01 9.708397e-01 9.715440e-01 9.720864e-01 9.723561e-01 9.727064e-01 9.726942e-01 9.730930e-01 9.731038e-01 9.729591e-01 9.728841e-01 9.699782e-01 9.693173e-01 9.704190e-01 9.707130e-01 9.715012e-01 9.721708e-01 9.723574e-01 9.726629e-01 9.727181e-01 9.730307e-01 9.730666e-01 9.729692e-01 9.728429e-01
<GCONST> 9.411693e+01
<TRANSP> 5
 0.000000e+00 1.000000e+00 0.000000e+00 0.000000e+00 0.000000e+00
 0.000000e+00 6.000000e-01 4.000000e-01 0.000000e+00 0.000000e+00
 0.000000e+00 0.000000e+00 6.000000e-01 4.000000e-01 0.000000e+00
 0.000000e+00 0.000000e+00 0.000000e+00 6.000000e-01 4.000000e-01
 0.000000e+00 0.000000e+00 0.000000e+00 0.000000e+00 0.000000e+00
<ENDHMM>
~h "n"
<BEGINHMM>
<NUMSTATES> 5
<STATE> 2
<MEAN> 52
 -2.553060e-03 -9.914917e-04 -9.511375e-04 -7.067083e-04 4.884938e-04 4.607062e-04 2.170536e-04 3.749962e-04 5.685943e-05 -1.641407e-04 -2.682926e-04 3.209595e-04 2.224516e-05 1.462708e-05 -1.563646e-05 3.150207e-06 -3.127282e-05 2.215711e-06 -1.558698e-05 3.050199e-05 1.197561e-05 3.381344e-05 1.909707e-06 1.867348e-05 2.629744e-05 8.081098e-06 -2.104376e-05 3.518652e-05 -1.349342e-05 3.585546e-06 -2.162471e-06 1.303398e-05 3.576985e-06 -2.080435e-06 -1.966715e-05 -1.045151e-05 -1.823006e-05 -9.553847e-07 7.348699e-06 1.531814e-05 -1.371183e-05 1.278371e-05 1.168531e-05 -4.991732e-06 -9.663237e-06 -3.061223e-06 -4.925353e-06 -3.432880e-06 -9.174451e-06 -1.119601e-05 -1.612987e-05 -9.955244e-06
<VARIANCE> 52
 9.816899e-01 9.760739e-01 9.747661e-01 9.745262e-01 9.735070e-01 9.737077e-01 9.743643e-01 9.739766e-01 9.736460e-01 9.738467e-01 9.737835e-01 9.735096e-01 9.735794e-01 9.707018e-01 9.684655e-01 9.702125e-01 9.698300e-01 9.705143e-01 9.714755e-01 9.719940e-01 9.721018e-01 9.722180e-01 9.726347e-01 9.726303e-01 9.725136e-01 9.722663e-01 9.702491e-01 9.699934e-01 9.707450e-01 9.708397e-01 9.715440e-01 9.720864e-01 9.723561e-01 9.727064e-01 9.726942e-01 9.730930e-01 9.731038e-01 9.729591e-01 9.728841e-01 9.699782e-01 9.693173e-01 9.704190e-01 9.707130e-01 9.715012e-01 9.721708e-01 9.723574e-01 9.726629e-01 9.727181e-01 9.730307e-01 9.730666e-01 9.729692e-01 9.728429e-01
<GCONST> 9.411693e+01
<STATE> 3
<MEAN> 52
 -2.553060e-03 -9.914917e-04 -9.511375e-04 -7.067083e-04 4.884938e-04 4.607062e-04 2.170536e-04 3.749962e-04 5.685943e-05 -1.641407e-04 -2.682926e-04 3.209595e-04 2.224516e-05 1.462708e-05 -1.563646e-05 3.150207e-06 -3.127282e-05 2.215711e-06 -1.558698e-05 3.050199e-05 1.197561e-05 3.381344e-05 1.909707e-06 1.867348e-05 2.629744e-05 8.081098e-06 -2.104376e-05 3.518652e-05 -1.349342e-05 3.585546e-06 -2.162471e-06 1.303398e-05 3.576985e-06 -2.080435e-06 -1.966715e-05 -1.045151e-05 -1.823006e-05 -9.553847e-07 7.348699e-06 1.531814e-05 -1.371183e-05 1.278371e-05 1.168531e-05 -4.991732e-06 -9.663237e-06 -3.061223e-06 -4.925353e-06 -3.432880e-06 -9.174451e-06 -1.119601e-05 -1.612987e-05 -9.955244e-06
<VARIANCE> 52
 9.816899e-01 9.760739e-01 9.747661e-01 9.745262e-01 9.735070e-01 9.737077e-01 9.743643e-01 9.739766e-01 9.736460e-01 9.738467e-01 9.737835e-01 9.735096e-01 9.735794e-01 9.707018e-01 9.684655e-01 9.702125e-01 9.698300e-01 9.705143e-01 9.714755e-01 9.719940e-01 9.721018e-01 9.722180e-01 9.726347e-01 9.726303e-01 9.725136e-01 9.722663e-01 9.702491e-01 9.699934e-01 9.707450e-01 9.708397e-01 9.715440e-01 9.720864e-01 9.723561e-01 9.727064e-01 9.726942e-01 9.730930e-01 9.731038e-01 9.729591e-01 9.728841e-01 9.699782e-01 9.693173e-01 9.704190e-01 9.707130e-01 9.715012e-01 9.721708e-01 9.723574e-01 9.726629e-01 9.727181e-01 9.730307e-01 9.730666e-01 9.729692e-01 9.728429e-01
<GCONST> 9.411693e+01
<STATE> 4
<MEAN> 52
 -2.553060e-03 -9.914917e-04 -9.511375e-04 -7.067083e-04 4.884938e-04 4.607062e-04 2.170536e-04 3.749962e-04 5.685943e-05 -1.641407e-04 -2.682926e-04 3.209595e-04 2.224516e-05 1.462708e-05 -1.563646e-05 3.150207e-06 -3.127282e-05 2.215711e-06 -1.558698e-05 3.050199e-05 1.197561e-05 3.381344e-05 1.909707e-06 1.867348e-05 2.629744e-05 8.081098e-06 -2.104376e-05 3.518652e-05 -1.349342e-05 3.585546e-06 -2.162471e-06 1.303398e-05 3.576985e-06 -2.080435e-06 -1.966715e-05 -1.045151e-05 -1.823006e-05 -9.553847e-07 7.348699e-06 1.531814e-05 -1.371183e-05 1.278371e-05 1.168531e-05 -4.991732e-06 -9.663237e-06 -3.061223e-06 -4.925353e-06 -3.432880e-06 -9.174451e-06 -1.119601e-05 -1.612987e-05 -9.955244e-06
<VARIANCE> 52
 9.816899e-01 9.760739e-01 9.747661e-01 9.745262e-01 9.735070e-01 9.737077e-01 9.743643e-01 9.739766e-01 9.736460e-01 9.738467e-01 9.737835e-01 9.735096e-01 9.735794e-01 9.707018e-01 9.684655e-01 9.702125e-01 9.698300e-01 9.705143e-01 9.714755e-01 9.719940e-01 9.721018e-01 9.722180e-01 9.726347e-01 9.726303e-01 9.725136e-01 9.722663e-01 9.702491e-01 9.699934e-01 9.707450e-01 9.708397e-01 9.715440e-01 9.720864e-01 9.723561e-01 9.727064e-01 9.726942e-01 9.730930e-01 9.731038e-01 9.729591e-01 9.728841e-01 9.699782e-01 9.693173e-01 9.704190e-01 9.707130e-01 9.715012e-01 9.721708e-01 9.723574e-01 9.726629e-01 9.727181e-01 9.730307e-01 9.730666e-01 9.729692e-01 9.728429e-01
<GCONST> 9.411693e+01
<TRANSP> 5
 0.000000e+00 1.000000e+00 0.000000e+00 0.000000e+00 0.000000e+00
 0.000000e+00 6.000000e-01 4.000000e-01 0.000000e+00 0.000000e+00
 0.000000e+00 0.000000e+00 6.000000e-01 4.000000e-01 0.000000e+00
 0.000000e+00 0.000000e+00 0.000000e+00 6.000000e-01 4.000000e-01
 0.000000e+00 0.000000e+00 0.000000e+00 0.000000e+00 0.000000e+00
<ENDHMM>
~h "d"
<BEGINHMM>
<NUMSTATES> 5
<STATE> 2
<MEAN> 52
 -2.553060e-03 -9.914917e-04 -9.511375e-04 -7.067083e-04 4.884938e-04 4.607062e-04 2.170536e-04 3.749962e-04 5.685943e-05 -1.641407e-04 -2.682926e-04 3.209595e-04 2.224516e-05 1.462708e-05 -1.563646e-05 3.150207e-06 -3.127282e-05 2.215711e-06 -1.558698e-05 3.050199e-05 1.197561e-05 3.381344e-05 1.909707e-06 1.867348e-05 2.629744e-05 8.081098e-06 -2.104376e-05 3.518652e-05 -1.349342e-05 3.585546e-06 -2.162471e-06 1.303398e-05 3.576985e-06 -2.080435e-06 -1.966715e-05 -1.045151e-05 -1.823006e-05 -9.553847e-07 7.348699e-06 1.531814e-05 -1.371183e-05 1.278371e-05 1.168531e-05 -4.991732e-06 -9.663237e-06 -3.061223e-06 -4.925353e-06 -3.432880e-06 -9.174451e-06 -1.119601e-05 -1.612987e-05 -9.955244e-06
<VARIANCE> 52
 9.816899e-01 9.760739e-01 9.747661e-01 9.745262e-01 9.735070e-01 9.737077e-01 9.743643e-01 9.739766e-01 9.736460e-01 9.738467e-01 9.737835e-01 9.735096e-01 9.735794e-01 9.707018e-01 9.684655e-01 9.702125e-01 9.698300e-01 9.705143e-01 9.714755e-01 9.719940e-01 9.721018e-01 9.722180e-01 9.726347e-01 9.726303e-01 9.725136e-01 9.722663e-01 9.702491e-01 9.699934e-01 9.707450e-01 9.708397e-01 9.715440e-01 9.720864e-01 9.723561e-01 9.727064e-01 9.726942e-01 9.730930e-01 9.731038e-01 9.729591e-01 9.728841e-01 9.699782e-01 9.693173e-01 9.704190e-01 9.707130e-01 9.715012e-01 9.721708e-01 9.723574e-01 9.726629e-01 9.727181e-01 9.730307e-01 9.730666e-01 9.729692e-01 9.728429e-01
<GCONST> 9.411693e+01
<STATE> 3
<MEAN> 52
 -2.553060e-03 -9.914917e-04 -9.511375e-04 -7.067083e-04 4.884938e-04 4.607062e-04 2.170536e-04 3.749962e-04 5.685943e-05 -1.641407e-04 -2.682926e-04 3.209595e-04 2.224516e-05 1.462708e-05 -1.563646e-05 3.150207e-06 -3.127282e-05 2.215711e-06 -1.558698e-05 3.050199e-05 1.197561e-05 3.381344e-05 1.909707e-06 1.867348e-05 2.629744e-05 8.081098e-06 -2.104376e-05 3.518652e-05 -1.349342e-05 3.585546e-06 -2.162471e-06 1.303398e-05 3.576985e-06 -2.080435e-06 -1.966715e-05 -1.045151e-05 -1.823006e-05 -9.553847e-07 7.348699e-06 1.531814e-05 -1.371183e-05 1.278371e-05 1.168531e-05 -4.991732e-06 -9.663237e-06 -3.061223e-06 -4.925353e-06 -3.432880e-06 -9.174451e-06 -1.119601e-05 -1.612987e-05 -9.955244e-06
<VARIANCE> 52
 9.816899e-01 9.760739e-01 9.747661e-01 9.745262e-01 9.735070e-01 9.737077e-01 9.743643e-01 9.739766e-01 9.736460e-01 9.738467e-01 9.737835e-01 9.735096e-01 9.735794e-01 9.707018e-01 9.684655e-01 9.702125e-01 9.698300e-01 9.705143e-01 9.714755e-01 9.719940e-01 9.721018e-01 9.722180e-01 9.726347e-01 9.726303e-01 9.725136e-01 9.722663e-01 9.702491e-01 9.699934e-01 9.707450e-01 9.708397e-01 9.715440e-01 9.720864e-01 9.723561e-01 9.727064e-01 9.726942e-01 9.730930e-01 9.731038e-01 9.729591e-01 9.728841e-01 9.699782e-01 9.693173e-01 9.704190e-01 9.707130e-01 9.715012e-01 9.721708e-01 9.723574e-01 9.726629e-01 9.727181e-01 9.730307e-01 9.730666e-01 9.729692e-01 9.728429e-01
<GCONST> 9.411693e+01
<STATE> 4
<MEAN> 52
 -2.553060e-03 -9.914917e-04 -9.511375e-04 -7.067083e-04 4.884938e-04 4.607062e-04 2.170536e-04 3.749962e-04 5.685943e-05 -1.641407e-04 -2.682926e-04 3.209595e-04 2.224516e-05 1.462708e-05 -1.563646e-05 3.150207e-06 -3.127282e-05 2.215711e-06 -1.558698e-05 3.050199e-05 1.197561e-05 3.381344e-05 1.909707e-06 1.867348e-05 2.629744e-05 8.081098e-06 -2.104376e-05 3.518652e-05 -1.349342e-05 3.585546e-06 -2.162471e-06 1.303398e-05 3.576985e-06 -2.080435e-06 -1.966715e-05 -1.045151e-05 -1.823006e-05 -9.553847e-07 7.348699e-06 1.531814e-05 -1.371183e-05 1.278371e-05 1.168531e-05 -4.991732e-06 -9.663237e-06 -3.061223e-06 -4.925353e-06 -3.432880e-06 -9.174451e-06 -1.119601e-05 -1.612987e-05 -9.955244e-06
<VARIANCE> 52
 9.816899e-01 9.760739e-01 9.747661e-01 9.745262e-01 9.735070e-01 9.737077e-01 9.743643e-01 9.739766e-01 9.736460e-01 9.738467e-01 9.737835e-01 9.735096e-01 9.735794e-01 9.707018e-01 9.684655e-01 9.702125e-01 9.698300e-01 9.705143e-01 9.714755e-01 9.719940e-01 9.721018e-01 9.722180e-01 9.726347e-01 9.726303e-01 9.725136e-01 9.722663e-01 9.702491e-01 9.699934e-01 9.707450e-01 9.708397e-01 9.715440e-01 9.720864e-01 9.723561e-01 9.727064e-01 9.726942e-01 9.730930e-01 9.731038e-01 9.729591e-01 9.728841e-01 9.699782e-01 9.693173e-01 9.704190e-01 9.707130e-01 9.715012e-01 9.721708e-01 9.723574e-01 9.726629e-01 9.727181e-01 9.730307e-01 9.730666e-01 9.729692e-01 9.728429e-01
<GCONST> 9.411693e+01
<TRANSP> 5
 0.000000e+00 1.000000e+00 0.000000e+00 0.000000e+00 0.000000e+00
 0.000000e+00 6.000000e-01 4.000000e-01 0.000000e+00 0.000000e+00
 0.000000e+00 0.000000e+00 6.000000e-01 4.000000e-01 0.000000e+00
 0.000000e+00 0.000000e+00 0.000000e+00 6.000000e-01 4.000000e-01
 0.000000e+00 0.000000e+00 0.000000e+00 0.000000e+00 0.000000e+00
<ENDHMM>
~h "i"
<BEGINHMM>
<NUMSTATES> 5
<STATE> 2
<MEAN> 52
 -2.553060e-03 -9.914917e-04 -9.511375e-04 -7.067083e-04 4.884938e-04 4.607062e-04 2.170536e-04 3.749962e-04 5.685943e-05 -1.641407e-04 -2.682926e-04 3.209595e-04 2.224516e-05 1.462708e-05 -1.563646e-05 3.150207e-06 -3.127282e-05 2.215711e-06 -1.558698e-05 3.050199e-05 1.197561e-05 3.381344e-05 1.909707e-06 1.867348e-05 2.629744e-05 8.081098e-06 -2.104376e-05 3.518652e-05 -1.349342e-05 3.585546e-06 -2.162471e-06 1.303398e-05 3.576985e-06 -2.080435e-06 -1.966715e-05 -1.045151e-05 -1.823006e-05 -9.553847e-07 7.348699e-06 1.531814e-05 -1.371183e-05 1.278371e-05 1.168531e-05 -4.991732e-06 -9.663237e-06 -3.061223e-06 -4.925353e-06 -3.432880e-06 -9.174451e-06 -1.119601e-05 -1.612987e-05 -9.955244e-06
<VARIANCE> 52
 9.816899e-01 9.760739e-01 9.747661e-01 9.745262e-01 9.735070e-01 9.737077e-01 9.743643e-01 9.739766e-01 9.736460e-01 9.738467e-01 9.737835e-01 9.735096e-01 9.735794e-01 9.707018e-01 9.684655e-01 9.702125e-01 9.698300e-01 9.705143e-01 9.714755e-01 9.719940e-01 9.721018e-01 9.722180e-01 9.726347e-01 9.726303e-01 9.725136e-01 9.722663e-01 9.702491e-01 9.699934e-01 9.707450e-01 9.708397e-01 9.715440e-01 9.720864e-01 9.723561e-01 9.727064e-01 9.726942e-01 9.730930e-01 9.731038e-01 9.729591e-01 9.728841e-01 9.699782e-01 9.693173e-01 9.704190e-01 9.707130e-01 9.715012e-01 9.721708e-01 9.723574e-01 9.726629e-01 9.727181e-01 9.730307e-01 9.730666e-01 9.729692e-01 9.728429e-01
<GCONST> 9.411693e+01
<STATE> 3
<MEAN> 52
 -2.553060e-03 -9.914917e-04 -9.511375e-04 -7.067083e-04 4.884938e-04 4.607062e-04 2.170536e-04 3.749962e-04 5.685943e-05 -1.641407e-04 -2.682926e-04 3.209595e-04 2.224516e-05 1.462708e-05 -1.563646e-05 3.150207e-06 -3.127282e-05 2.215711e-06 -1.558698e-05 3.050199e-05 1.197561e-05 3.381344e-05 1.909707e-06 1.867348e-05 2.629744e-05 8.081098e-06 -2.104376e-05 3.518652e-05 -1.349342e-05 3.585546e-06 -2.162471e-06 1.303398e-05 3.576985e-06 -2.080435e-06 -1.966715e-05 -1.045151e-05 -1.823006e-05 -9.553847e-07 7.348699e-06 1.531814e-05 -1.371183e-05 1.278371e-05 1.168531e-05 -4.991732e-06 -9.663237e-06 -3.061223e-06 -4.925353e-06 -3.432880e-06 -9.174451e-06 -1.119601e-05 -1.612987e-05 -9.955244e-06
<VARIANCE> 52
 9.816899e-01 9.760739e-01 9.747661e-01 9.745262e-01 9.735070e-01 9.737077e-01 9.743643e-01 9.739766e-01 9.736460e-01 9.738467e-01 9.737835e-01 9.735096e-01 9.735794e-01 9.707018e-01 9.684655e-01 9.702125e-01 9.698300e-01 9.705143e-01 9.714755e-01 9.719940e-01 9.721018e-01 9.722180e-01 9.726347e-01 9.726303e-01 9.725136e-01 9.722663e-01 9.702491e-01 9.699934e-01 9.707450e-01 9.708397e-01 9.715440e-01 9.720864e-01 9.723561e-01 9.727064e-01 9.726942e-01 9.730930e-01 9.731038e-01 9.729591e-01 9.728841e-01 9.699782e-01 9.693173e-01 9.704190e-01 9.707130e-01 9.715012e-01 9.721708e-01 9.723574e-01 9.726629e-01 9.727181e-01 9.730307e-01 9.730666e-01 9.729692e-01 9.728429e-01
<GCONST> 9.411693e+01
<STATE> 4
<MEAN> 52
 -2.553060e-03 -9.914917e-04 -9.511375e-04 -7.067083e-04 4.884938e-04 4.607062e-04 2.170536e-04 3.749962e-04 5.685943e-05 -1.641407e-04 -2.682926e-04 3.209595e-04 2.224516e-05 1.462708e-05 -1.563646e-05 3.150207e-06 -3.127282e-05 2.215711e-06 -1.558698e-05 3.050199e-05 1.197561e-05 3.381344e-05 1.909707e-06 1.867348e-05 2.629744e-05 8.081098e-06 -2.104376e-05 3.518652e-05 -1.349342e-05 3.585546e-06 -2.162471e-06 1.303398e-05 3.576985e-06 -2.080435e-06 -1.966715e-05 -1.045151e-05 -1.823006e-05 -9.553847e-07 7.348699e-06 1.531814e-05 -1.371183e-05 1.278371e-05 1.168531e-05 -4.991732e-06 -9.663237e-06 -3.061223e-06 -4.925353e-06 -3.432880e-06 -9.174451e-06 -1.119601e-05 -1.612987e-05 -9.955244e-06
<VARIANCE> 52
 9.816899e-01 9.760739e-01 9.747661e-01 9.745262e-01 9.735070e-01 9.737077e-01 9.743643e-01 9.739766e-01 9.736460e-01 9.738467e-01 9.737835e-01 9.735096e-01 9.735794e-01 9.707018e-01 9.684655e-01 9.702125e-01 9.698300e-01 9.705143e-01 9.714755e-01 9.719940e-01 9.721018e-01 9.722180e-01 9.726347e-01 9.726303e-01 9.725136e-01 9.722663e-01 9.702491e-01 9.699934e-01 9.707450e-01 9.708397e-01 9.715440e-01 9.720864e-01 9.723561e-01 9.727064e-01 9.726942e-01 9.730930e-01 9.731038e-01 9.729591e-01 9.728841e-01 9.699782e-01 9.693173e-01 9.704190e-01 9.707130e-01 9.715012e-01 9.721708e-01 9.723574e-01 9.726629e-01 9.727181e-01 9.730307e-01 9.730666e-01 9.729692e-01 9.728429e-01
<GCONST> 9.411693e+01
<TRANSP> 5
 0.000000e+00 1.000000e+00 0.000000e+00 0.000000e+00 0.000000e+00
 0.000000e+00 6.000000e-01 4.000000e-01 0.000000e+00 0.000000e+00
 0.000000e+00 0.000000e+00 6.000000e-01 4.000000e-01 0.000000e+00
 0.000000e+00 0.000000e+00 0.000000e+00 6.000000e-01 4.000000e-01
 0.000000e+00 0.000000e+00 0.000000e+00 0.000000e+00 0.000000e+00
<ENDHMM>
~h "uh"
<BEGINHMM>
<NUMSTATES> 5
<STATE> 2
<MEAN> 52
 -2.553060e-03 -9.914917e-04 -9.511375e-04 -7.067083e-04 4.884938e-04 4.607062e-04 2.170536e-04 3.749962e-04 5.685943e-05 -1.641407e-04 -2.682926e-04 3.209595e-04 2.224516e-05 1.462708e-05 -1.563646e-05 3.150207e-06 -3.127282e-05 2.215711e-06 -1.558698e-05 3.050199e-05 1.197561e-05 3.381344e-05 1.909707e-06 1.867348e-05 2.629744e-05 8.081098e-06 -2.104376e-05 3.518652e-05 -1.349342e-05 3.585546e-06 -2.162471e-06 1.303398e-05 3.576985e-06 -2.080435e-06 -1.966715e-05 -1.045151e-05 -1.823006e-05 -9.553847e-07 7.348699e-06 1.531814e-05 -1.371183e-05 1.278371e-05 1.168531e-05 -4.991732e-06 -9.663237e-06 -3.061223e-06 -4.925353e-06 -3.432880e-06 -9.174451e-06 -1.119601e-05 -1.612987e-05 -9.955244e-06
<VARIANCE> 52
 9.816899e-01 9.760739e-01 9.747661e-01 9.745262e-01 9.735070e-01 9.737077e-01 9.743643e-01 9.739766e-01 9.736460e-01 9.738467e-01 9.737835e-01 9.735096e-01 9.735794e-01 9.707018e-01 9.684655e-01 9.702125e-01 9.698300e-01 9.705143e-01 9.714755e-01 9.719940e-01 9.721018e-01 9.722180e-01 9.726347e-01 9.726303e-01 9.725136e-01 9.722663e-01 9.702491e-01 9.699934e-01 9.707450e-01 9.708397e-01 9.715440e-01 9.720864e-01 9.723561e-01 9.727064e-01 9.726942e-01 9.730930e-01 9.731038e-01 9.729591e-01 9.728841e-01 9.699782e-01 9.693173e-01 9.704190e-01 9.707130e-01 9.715012e-01 9.721708e-01 9.723574e-01 9.726629e-01 9.727181e-01 9.730307e-01 9.730666e-01 9.729692e-01 9.728429e-01
<GCONST> 9.411693e+01
<STATE> 3
<MEAN> 52
 -2.553060e-03 -9.914917e-04 -9.511375e-04 -7.067083e-04 4.884938e-04 4.607062e-04 2.170536e-04 3.749962e-04 5.685943e-05 -1.641407e-04 -2.682926e-04 3.209595e-04 2.224516e-05 1.462708e-05 -1.563646e-05 3.150207e-06 -3.127282e-05 2.215711e-06 -1.558698e-05 3.050199e-05 1.197561e-05 3.381344e-05 1.909707e-06 1.867348e-05 2.629744e-05 8.081098e-06 -2.104376e-05 3.518652e-05 -1.349342e-05 3.585546e-06 -2.162471e-06 1.303398e-05 3.576985e-06 -2.080435e-06 -1.966715e-05 -1.045151e-05 -1.823006e-05 -9.553847e-07 7.348699e-06 1.531814e-05 -1.371183e-05 1.278371e-05 1.168531e-05 -4.991732e-06 -9.663237e-06 -3.061223e-06 -4.925353e-06 -3.432880e-06 -9.174451e-06 -1.119601e-05 -1.612987e-05 -9.955244e-06
<VARIANCE> 52
 9.816899e-01 9.760739e-01 9.747661e-01 9.745262e-01 9.735070e-01 9.737077e-01 9.743643e-01 9.739766e-01 9.736460e-01 9.738467e-01 9.737835e-01 9.735096e-01 9.735794e-01 9.707018e-01 9.684655e-01 9.702125e-01 9.698300e-01 9.705143e-01 9.714755e-01 9.719940e-01 9.721018e-01 9.722180e-01 9.726347e-01 9.726303e-01 9.725136e-01 9.722663e-01 9.702491e-01 9.699934e-01 9.707450e-01 9.708397e-01 9.715440e-01 9.720864e-01 9.723561e-01 9.727064e-01 9.726942e-01 9.730930e-01 9.731038e-01 9.729591e-01 9.728841e-01 9.699782e-01 9.693173e-01 9.704190e-01 9.707130e-01 9.715012e-01 9.721708e-01 9.723574e-01 9.726629e-01 9.727181e-01 9.730307e-01 9.730666e-01 9.729692e-01 9.728429e-01
<GCONST> 9.411693e+01
<STATE> 4
<MEAN> 52
 -2.553060e-03 -9.914917e-04 -9.511375e-04 -7.067083e-04 4.884938e-04 4.607062e-04 2.170536e-04 3.749962e-04 5.685943e-05 -1.641407e-04 -2.682926e-04 3.209595e-04 2.224516e-05 1.462708e-05 -1.563646e-05 3.150207e-06 -3.127282e-05 2.215711e-06 -1.558698e-05 3.050199e-05 1.197561e-05 3.381344e-05 1.909707e-06 1.867348e-05 2.629744e-05 8.081098e-06 -2.104376e-05 3.518652e-05 -1.349342e-05 3.585546e-06 -2.162471e-06 1.303398e-05 3.576985e-06 -2.080435e-06 -1.966715e-05 -1.045151e-05 -1.823006e-05 -9.553847e-07 7.348699e-06 1.531814e-05 -1.371183e-05 1.278371e-05 1.168531e-05 -4.991732e-06 -9.663237e-06 -3.061223e-06 -4.925353e-06 -3.432880e-06 -9.174451e-06 -1.119601e-05 -1.612987e-05 -9.955244e-06
<VARIANCE> 52
 9.816899e-01 9.760739e-01 9.747661e-01 9.745262e-01 9.735070e-01 9.737077e-01 9.743643e-01 9.739766e-01 9.736460e-01 9.738467e-01 9.737835e-01 9.735096e-01 9.735794e-01 9.707018e-01 9.684655e-01 9.702125e-01 9.698300e-01 9.705143e-01 9.714755e-01 9.719940e-01 9.721018e-01 9.722180e-01 9.726347e-01 9.726303e-01 9.725136e-01 9.722663e-01 9.702491e-01 9.699934e-01 9.707450e-01 9.708397e-01 9.715440e-01 9.720864e-01 9.723561e-01 9.727064e-01 9.726942e-01 9.730930e-01 9.731038e-01 9.729591e-01 9.728841e-01 9.699782e-01 9.693173e-01 9.704190e-01 9.707130e-01 9.715012e-01 9.721708e-01 9.723574e-01 9.726629e-01 9.727181e-01 9.730307e-01 9.730666e-01 9.729692e-01 9.728429e-01
<GCONST> 9.411693e+01
<TRANSP> 5
 0.000000e+00 1.000000e+00 0.000000e+00 0.000000e+00 0.000000e+00
 0.000000e+00 6.000000e-01 4.000000e-01 0.000000e+00 0.000000e+00
 0.000000e+00 0.000000e+00 6.000000e-01 4.000000e-01 0.000000e+00
 0.000000e+00 0.000000e+00 0.000000e+00 6.000000e-01 4.000000e-01
 0.000000e+00 0.000000e+00 0.000000e+00 0.000000e+00 0.000000e+00
<ENDHMM>
~h "r"
<BEGINHMM>
<NUMSTATES> 5
<STATE> 2
<MEAN> 52
 -2.553060e-03 -9.914917e-04 -9.511375e-04 -7.067083e-04 4.884938e-04 4.607062e-04 2.170536e-04 3.749962e-04 5.685943e-05 -1.641407e-04 -2.682926e-04 3.209595e-04 2.224516e-05 1.462708e-05 -1.563646e-05 3.150207e-06 -3.127282e-05 2.215711e-06 -1.558698e-05 3.050199e-05 1.197561e-05 3.381344e-05 1.909707e-06 1.867348e-05 2.629744e-05 8.081098e-06 -2.104376e-05 3.518652e-05 -1.349342e-05 3.585546e-06 -2.162471e-06 1.303398e-05 3.576985e-06 -2.080435e-06 -1.966715e-05 -1.045151e-05 -1.823006e-05 -9.553847e-07 7.348699e-06 1.531814e-05 -1.371183e-05 1.278371e-05 1.168531e-05 -4.991732e-06 -9.663237e-06 -3.061223e-06 -4.925353e-06 -3.432880e-06 -9.174451e-06 -1.119601e-05 -1.612987e-05 -9.955244e-06
<VARIANCE> 52
 9.816899e-01 9.760739e-01 9.747661e-01 9.745262e-01 9.735070e-01 9.737077e-01 9.743643e-01 9.739766e-01 9.736460e-01 9.738467e-01 9.737835e-01 9.735096e-01 9.735794e-01 9.707018e-01 9.684655e-01 9.702125e-01 9.698300e-01 9.705143e-01 9.714755e-01 9.719940e-01 9.721018e-01 9.722180e-01 9.726347e-01 9.726303e-01 9.725136e-01 9.722663e-01 9.702491e-01 9.699934e-01 9.707450e-01 9.708397e-01 9.715440e-01 9.720864e-01 9.723561e-01 9.727064e-01 9.726942e-01 9.730930e-01 9.731038e-01 9.729591e-01 9.728841e-01 9.699782e-01 9.693173e-01 9.704190e-01 9.707130e-01 9.715012e-01 9.721708e-01 9.723574e-01 9.726629e-01 9.727181e-01 9.730307e-01 9.730666e-01 9.729692e-01 9.728429e-01
<GCONST> 9.411693e+01
<STATE> 3
<MEAN> 52
 -2.553060e-03 -9.914917e-04 -9.511375e-04 -7.067083e-04 4.884938e-04 4.607062e-04 2.170536e-04 3.749962e-04 5.685943e-05 -1.641407e-04 -2.682926e-04 3.209595e-04 2.224516e-05 1.462708e-05 -1.563646e-05 3.150207e-06 -3.127282e-05 2.215711e-06 -1.558698e-05 3.050199e-05 1.197561e-05 3.381344e-05 1.909707e-06 1.867348e-05 2.629744e-05 8.081098e-06 -2.104376e-05 3.518652e-05 -1.349342e-05 3.585546e-06 -2.162471e-06 1.303398e-05 3.576985e-06 -2.080435e-06 -1.966715e-05 -1.045151e-05 -1.823006e-05 -9.553847e-07 7.348699e-06 1.531814e-05 -1.371183e-05 1.278371e-05 1.168531e-05 -4.991732e-06 -9.663237e-06 -3.061223e-06 -4.925353e-06 -3.432880e-06 -9.174451e-06 -1.119601e-05 -1.612987e-05 -9.955244e-06
<VARIANCE> 52
 9.816899e-01 9.760739e-01 9.747661e-01 9.745262e-01 9.735070e-01 9.737077e-01 9.743643e-01 9.739766e-01 9.736460e-01 9.738467e-01 9.737835e-01 9.735096e-01 9.735794e-01 9.707018e-01 9.684655e-01 9.702125e-01 9.698300e-01 9.705143e-01 9.714755e-01 9.719940e-01 9.721018e-01 9.722180e-01 9.726347e-01 9.726303e-01 9.725136e-01 9.722663e-01 9.702491e-01 9.699934e-01 9.707450e-01 9.708397e-01 9.715440e-01 9.720864e-01 9.723561e-01 9.727064e-01 9.726942e-01 9.730930e-01 9.731038e-01 9.729591e-01 9.728841e-01 9.699782e-01 9.693173e-01 9.704190e-01 9.707130e-01 9.715012e-01 9.721708e-01 9.723574e-01 9.726629e-01 9.727181e-01 9.730307e-01 9.730666e-01 9.729692e-01 9.728429e-01
<GCONST> 9.411693e+01
<STATE> 4
<MEAN> 52
 -2.553060e-03 -9.914917e-04 -9.511375e-04 -7.067083e-04 4.884938e-04 4.607062e-04 2.170536e-04 3.749962e-04 5.685943e-05 -1.641407e-04 -2.682926e-04 3.209595e-04 2.224516e-05 1.462708e-05 -1.563646e-05 3.150207e-06 -3.127282e-05 2.215711e-06 -1.558698e-05 3.050199e-05 1.197561e-05 3.381344e-05 1.909707e-06 1.867348e-05 2.629744e-05 8.081098e-06 -2.104376e-05 3.518652e-05 -1.349342e-05 3.585546e-06 -2.162471e-06 1.303398e-05 3.576985e-06 -2.080435e-06 -1.966715e-05 -1.045151e-05 -1.823006e-05 -9.553847e-07 7.348699e-06 1.531814e-05 -1.371183e-05 1.278371e-05 1.168531e-05 -4.991732e-06 -9.663237e-06 -3.061223e-06 -4.925353e-06 -3.432880e-06 -9.174451e-06 -1.119601e-05 -1.612987e-05 -9.955244e-06
<VARIANCE> 52
 9.816899e-01 9.760739e-01 9.747661e-01 9.745262e-01 9.735070e-01 9.737077e-01 9.743643e-01 9.739766e-01 9.736460e-01 9.738467e-01 9.737835e-01 9.735096e-01 9.735794e-01 9.707018e-01 9.684655e-01 9.702125e-01 9.698300e-01 9.705143e-01 9.714755e-01 9.719940e-01 9.721018e-01 9.722180e-01 9.726347e-01 9.726303e-01 9.725136e-01 9.722663e-01 9.702491e-01 9.699934e-01 9.707450e-01 9.708397e-01 9.715440e-01 9.720864e-01 9.723561e-01 9.727064e-01 9.726942e-01 9.730930e-01 9.731038e-01 9.729591e-01 9.728841e-01 9.699782e-01 9.693173e-01 9.704190e-01 9.707130e-01 9.715012e-01 9.721708e-01 9.723574e-01 9.726629e-01 9.727181e-01 9.730307e-01 9.730666e-01 9.729692e-01 9.728429e-01
<GCONST> 9.411693e+01
<TRANSP> 5
 0.000000e+00 1.000000e+00 0.000000e+00 0.000000e+00 0.000000e+00
 0.000000e+00 6.000000e-01 4.000000e-01 0.000000e+00 0.000000e+00
 0.000000e+00 0.000000e+00 6.000000e-01 4.000000e-01 0.000000e+00
 0.000000e+00 0.000000e+00 0.000000e+00 6.000000e-01 4.000000e-01
 0.000000e+00 0.000000e+00 0.000000e+00 0.000000e+00 0.000000e+00
<ENDHMM>
~h "m"
<BEGINHMM>
<NUMSTATES> 5
<STATE> 2
<MEAN> 52
 -2.553060e-03 -9.914917e-04 -9.511375e-04 -7.067083e-04 4.884938e-04 4.607062e-04 2.170536e-04 3.749962e-04 5.685943e-05 -1.641407e-04 -2.682926e-04 3.209595e-04 2.224516e-05 1.462708e-05 -1.563646e-05 3.150207e-06 -3.127282e-05 2.215711e-06 -1.558698e-05 3.050199e-05 1.197561e-05 3.381344e-05 1.909707e-06 1.867348e-05 2.629744e-05 8.081098e-06 -2.104376e-05 3.518652e-05 -1.349342e-05 3.585546e-06 -2.162471e-06 1.303398e-05 3.576985e-06 -2.080435e-06 -1.966715e-05 -1.045151e-05 -1.823006e-05 -9.553847e-07 7.348699e-06 1.531814e-05 -1.371183e-05 1.278371e-05 1.168531e-05 -4.991732e-06 -9.663237e-06 -3.061223e-06 -4.925353e-06 -3.432880e-06 -9.174451e-06 -1.119601e-05 -1.612987e-05 -9.955244e-06
<VARIANCE> 52
 9.816899e-01 9.760739e-01 9.747661e-01 9.745262e-01 9.735070e-01 9.737077e-01 9.743643e-01 9.739766e-01 9.736460e-01 9.738467e-01 9.737835e-01 9.735096e-01 9.735794e-01 9.707018e-01 9.684655e-01 9.702125e-01 9.698300e-01 9.705143e-01 9.714755e-01 9.719940e-01 9.721018e-01 9.722180e-01 9.726347e-01 9.726303e-01 9.725136e-01 9.722663e-01 9.702491e-01 9.699934e-01 9.707450e-01 9.708397e-01 9.715440e-01 9.720864e-01 9.723561e-01 9.727064e-01 9.726942e-01 9.730930e-01 9.731038e-01 9.729591e-01 9.728841e-01 9.699782e-01 9.693173e-01 9.704190e-01 9.707130e-01 9.715012e-01 9.721708e-01 9.723574e-01 9.726629e-01 9.727181e-01 9.730307e-01 9.730666e-01 9.729692e-01 9.728429e-01
<GCONST> 9.411693e+01
<STATE> 3
<MEAN> 52
 -2.553060e-03 -9.914917e-04 -9.511375e-04 -7.067083e-04 4.884938e-04 4.607062e-04 2.170536e-04 3.749962e-04 5.685943e-05 -1.641407e-04 -2.682926e-04 3.209595e-04 2.224516e-05 1.462708e-05 -1.563646e-05 3.150207e-06 -3.127282e-05 2.215711e-06 -1.558698e-05 3.050199e-05 1.197561e-05 3.381344e-05 1.909707e-06 1.867348e-05 2.629744e-05 8.081098e-06 -2.104376e-05 3.518652e-05 -1.349342e-05 3.585546e-06 -2.162471e-06 1.303398e-05 3.576985e-06 -2.080435e-06 -1.966715e-05 -1.045151e-05 -1.823006e-05 -9.553847e-07 7.348699e-06 1.531814e-05 -1.371183e-05 1.278371e-05 1.168531e-05 -4.991732e-06 -9.663237e-06 -3.061223e-06 -4.925353e-06 -3.432880e-06 -9.174451e-06 -1.119601e-05 -1.612987e-05 -9.955244e-06
<VARIANCE> 52
 9.816899e-01 9.760739e-01 9.747661e-01 9.745262e-01 9.735070e-01 9.737077e-01 9.743643e-01 9.739766e-01 9.736460e-01 9.738467e-01 9.737835e-01 9.735096e-01 9.735794e-01 9.707018e-01 9.684655e-01 9.702125e-01 9.698300e-01 9.705143e-01 9.714755e-01 9.719940e-01 9.721018e-01 9.722180e-01 9.726347e-01 9.726303e-01 9.725136e-01 9.722663e-01 9.702491e-01 9.699934e-01 9.707450e-01 9.708397e-01 9.715440e-01 9.720864e-01 9.723561e-01 9.727064e-01 9.726942e-01 9.730930e-01 9.731038e-01 9.729591e-01 9.728841e-01 9.699782e-01 9.693173e-01 9.704190e-01 9.707130e-01 9.715012e-01 9.721708e-01 9.723574e-01 9.726629e-01 9.727181e-01 9.730307e-01 9.730666e-01 9.729692e-01 9.728429e-01
<GCONST> 9.411693e+01
<STATE> 4
<MEAN> 52
 -2.553060e-03 -9.914917e-04 -9.511375e-04 -7.067083e-04 4.884938e-04 4.607062e-04 2.170536e-04 3.749962e-04 5.685943e-05 -1.641407e-04 -2.682926e-04 3.209595e-04 2.224516e-05 1.462708e-05 -1.563646e-05 3.150207e-06 -3.127282e-05 2.215711e-06 -1.558698e-05 3.050199e-05 1.197561e-05 3.381344e-05 1.909707e-06 1.867348e-05 2.629744e-05 8.081098e-06 -2.104376e-05 3.518652e-05 -1.349342e-05 3.585546e-06 -2.162471e-06 1.303398e-05 3.576985e-06 -2.080435e-06 -1.966715e-05 -1.045151e-05 -1.823006e-05 -9.553847e-07 7.348699e-06 1.531814e-05 -1.371183e-05 1.278371e-05 1.168531e-05 -4.991732e-06 -9.663237e-06 -3.061223e-06 -4.925353e-06 -3.432880e-06 -9.174451e-06 -1.119601e-05 -1.612987e-05 -9.955244e-06
<VARIANCE> 52
 9.816899e-01 9.760739e-01 9.747661e-01 9.745262e-01 9.735070e-01 9.737077e-01 9.743643e-01 9.739766e-01 9.736460e-01 9.738467e-01 9.737835e-01 9.735096e-01 9.735794e-01 9.707018e-01 9.684655e-01 9.702125e-01 9.698300e-01 9.705143e-01 9.714755e-01 9.719940e-01 9.721018e-01 9.722180e-01 9.726347e-01 9.726303e-01 9.725136e-01 9.722663e-01 9.702491e-01 9.699934e-01 9.707450e-01 9.708397e-01 9.715440e-01 9.720864e-01 9.723561e-01 9.727064e-01 9.726942e-01 9.730930e-01 9.731038e-01 9.729591e-01 9.728841e-01 9.699782e-01 9.693173e-01 9.704190e-01 9.707130e-01 9.715012e-01 9.721708e-01 9.723574e-01 9.726629e-01 9.727181e-01 9.730307e-01 9.730666e-01 9.729692e-01 9.728429e-01
<GCONST> 9.411693e+01
<TRANSP> 5
 0.000000e+00 1.000000e+00 0.000000e+00 0.000000e+00 0.000000e+00
 0.000000e+00 6.000000e-01 4.000000e-01 0.000000e+00 0.000000e+00
 0.000000e+00 0.000000e+00 6.000000e-01 4.000000e-01 0.000000e+00
 0.000000e+00 0.000000e+00 0.000000e+00 6.000000e-01 4.000000e-01
 0.000000e+00 0.000000e+00 0.000000e+00 0.000000e+00 0.000000e+00
<ENDHMM>
~h "o"
<BEGINHMM>
<NUMSTATES> 5
<STATE> 2
<MEAN> 52
 -2.553060e-03 -9.914917e-04 -9.511375e-04 -7.067083e-04 4.884938e-04 4.607062e-04 2.170536e-04 3.749962e-04 5.685943e-05 -1.641407e-04 -2.682926e-04 3.209595e-04 2.224516e-05 1.462708e-05 -1.563646e-05 3.150207e-06 -3.127282e-05 2.215711e-06 -1.558698e-05 3.050199e-05 1.197561e-05 3.381344e-05 1.909707e-06 1.867348e-05 2.629744e-05 8.081098e-06 -2.104376e-05 3.518652e-05 -1.349342e-05 3.585546e-06 -2.162471e-06 1.303398e-05 3.576985e-06 -2.080435e-06 -1.966715e-05 -1.045151e-05 -1.823006e-05 -9.553847e-07 7.348699e-06 1.531814e-05 -1.371183e-05 1.278371e-05 1.168531e-05 -4.991732e-06 -9.663237e-06 -3.061223e-06 -4.925353e-06 -3.432880e-06 -9.174451e-06 -1.119601e-05 -1.612987e-05 -9.955244e-06
<VARIANCE> 52
 9.816899e-01 9.760739e-01 9.747661e-01 9.745262e-01 9.735070e-01 9.737077e-01 9.743643e-01 9.739766e-01 9.736460e-01 9.738467e-01 9.737835e-01 9.735096e-01 9.735794e-01 9.707018e-01 9.684655e-01 9.702125e-01 9.698300e-01 9.705143e-01 9.714755e-01 9.719940e-01 9.721018e-01 9.722180e-01 9.726347e-01 9.726303e-01 9.725136e-01 9.722663e-01 9.702491e-01 9.699934e-01 9.707450e-01 9.708397e-01 9.715440e-01 9.720864e-01 9.723561e-01 9.727064e-01 9.726942e-01 9.730930e-01 9.731038e-01 9.729591e-01 9.728841e-01 9.699782e-01 9.693173e-01 9.704190e-01 9.707130e-01 9.715012e-01 9.721708e-01 9.723574e-01 9.726629e-01 9.727181e-01 9.730307e-01 9.730666e-01 9.729692e-01 9.728429e-01
<GCONST> 9.411693e+01
<STATE> 3
<MEAN> 52
 -2.553060e-03 -9.914917e-04 -9.511375e-04 -7.067083e-04 4.884938e-04 4.607062e-04 2.170536e-04 3.749962e-04 5.685943e-05 -1.641407e-04 -2.682926e-04 3.209595e-04 2.224516e-05 1.462708e-05 -1.563646e-05 3.150207e-06 -3.127282e-05 2.215711e-06 -1.558698e-05 3.050199e-05 1.197561e-05 3.381344e-05 1.909707e-06 1.867348e-05 2.629744e-05 8.081098e-06 -2.104376e-05 3.518652e-05 -1.349342e-05 3.585546e-06 -2.162471e-06 1.303398e-05 3.576985e-06 -2.080435e-06 -1.966715e-05 -1.045151e-05 -1.823006e-05 -9.553847e-07 7.348699e-06 1.531814e-05 -1.371183e-05 1.278371e-05 1.168531e-05 -4.991732e-06 -9.663237e-06 -3.061223e-06 -4.925353e-06 -3.432880e-06 -9.174451e-06 -1.119601e-05 -1.612987e-05 -9.955244e-06
<VARIANCE> 52
 9.816899e-01 9.760739e-01 9.747661e-01 9.745262e-01 9.735070e-01 9.737077e-01 9.743643e-01 9.739766e-01 9.736460e-01 9.738467e-01 9.737835e-01 9.735096e-01 9.735794e-01 9.707018e-01 9.684655e-01 9.702125e-01 9.698300e-01 9.705143e-01 9.714755e-01 9.719940e-01 9.721018e-01 9.722180e-01 9.726347e-01 9.726303e-01 9.725136e-01 9.722663e-01 9.702491e-01 9.699934e-01 9.707450e-01 9.708397e-01 9.715440e-01 9.720864e-01 9.723561e-01 9.727064e-01 9.726942e-01 9.730930e-01 9.731038e-01 9.729591e-01 9.728841e-01 9.699782e-01 9.693173e-01 9.704190e-01 9.707130e-01 9.715012e-01 9.721708e-01 9.723574e-01 9.726629e-01 9.727181e-01 9.730307e-01 9.730666e-01 9.729692e-01 9.728429e-01
<GCONST> 9.411693e+01
<STATE> 4
<MEAN> 52
 -2.553060e-03 -9.914917e-04 -9.511375e-04 -7.067083e-04 4.884938e-04 4.607062e-04 2.170536e-04 3.749962e-04 5.685943e-05 -1.641407e-04 -2.682926e-04 3.209595e-04 2.224516e-05 1.462708e-05 -1.563646e-05 3.150207e-06 -3.127282e-05 2.215711e-06 -1.558698e-05 3.050199e-05 1.197561e-05 3.381344e-05 1.909707e-06 1.867348e-05 2.629744e-05 8.081098e-06 -2.104376e-05 3.518652e-05 -1.349342e-05 3.585546e-06 -2.162471e-06 1.303398e-05 3.576985e-06 -2.080435e-06 -1.966715e-05 -1.045151e-05 -1.823006e-05 -9.553847e-07 7.348699e-06 1.531814e-05 -1.371183e-05 1.278371e-05 1.168531e-05 -4.991732e-06 -9.663237e-06 -3.061223e-06 -4.925353e-06 -3.432880e-06 -9.174451e-06 -1.119601e-05 -1.612987e-05 -9.955244e-06
<VARIANCE> 52
 9.816899e-01 9.760739e-01 9.747661e-01 9.745262e-01 9.735070e-01 9.737077e-01 9.743643e-01 9.739766e-01 9.736460e-01 9.738467e-01 9.737835e-01 9.735096e-01 9.735794e-01 9.707018e-01 9.684655e-01 9.702125e-01 9.698300e-01 9.705143e-01 9.714755e-01 9.719940e-01 9.721018e-01 9.722180e-01 9.726347e-01 9.726303e-01 9.725136e-01 9.722663e-01 9.702491e-01 9.699934e-01 9.707450e-01 9.708397e-01 9.715440e-01 9.720864e-01 9.723561e-01 9.727064e-01 9.726942e-01 9.730930e-01 9.731038e-01 9.729591e-01 9.728841e-01 9.699782e-01 9.693173e-01 9.704190e-01 9.707130e-01 9.715012e-01 9.721708e-01 9.723574e-01 9.726629e-01 9.727181e-01 9.730307e-01 9.730666e-01 9.729692e-01 9.728429e-01
<GCONST> 9.411693e+01
<TRANSP> 5
 0.000000e+00 1.000000e+00 0.000000e+00 0.000000e+00 0.000000e+00
 0.000000e+00 6.000000e-01 4.000000e-01 0.000000e+00 0.000000e+00
 0.000000e+00 0.000000e+00 6.000000e-01 4.000000e-01 0.000000e+00
 0.000000e+00 0.000000e+00 0.000000e+00 6.000000e-01 4.000000e-01
 0.000000e+00 0.000000e+00 0.000000e+00 0.000000e+00 0.000000e+00
<ENDHMM>
~h "t"
<BEGINHMM>
<NUMSTATES> 5
<STATE> 2
<MEAN> 52
 -2.553060e-03 -9.914917e-04 -9.511375e-04 -7.067083e-04 4.884938e-04 4.607062e-04 2.170536e-04 3.749962e-04 5.685943e-05 -1.641407e-04 -2.682926e-04 3.209595e-04 2.224516e-05 1.462708e-05 -1.563646e-05 3.150207e-06 -3.127282e-05 2.215711e-06 -1.558698e-05 3.050199e-05 1.197561e-05 3.381344e-05 1.909707e-06 1.867348e-05 2.629744e-05 8.081098e-06 -2.104376e-05 3.518652e-05 -1.349342e-05 3.585546e-06 -2.162471e-06 1.303398e-05 3.576985e-06 -2.080435e-06 -1.966715e-05 -1.045151e-05 -1.823006e-05 -9.553847e-07 7.348699e-06 1.531814e-05 -1.371183e-05 1.278371e-05 1.168531e-05 -4.991732e-06 -9.663237e-06 -3.061223e-06 -4.925353e-06 -3.432880e-06 -9.174451e-06 -1.119601e-05 -1.612987e-05 -9.955244e-06
<VARIANCE> 52
 9.816899e-01 9.760739e-01 9.747661e-01 9.745262e-01 9.735070e-01 9.737077e-01 9.743643e-01 9.739766e-01 9.736460e-01 9.738467e-01 9.737835e-01 9.735096e-01 9.735794e-01 9.707018e-01 9.684655e-01 9.702125e-01 9.698300e-01 9.705143e-01 9.714755e-01 9.719940e-01 9.721018e-01 9.722180e-01 9.726347e-01 9.726303e-01 9.725136e-01 9.722663e-01 9.702491e-01 9.699934e-01 9.707450e-01 9.708397e-01 9.715440e-01 9.720864e-01 9.723561e-01 9.727064e-01 9.726942e-01 9.730930e-01 9.731038e-01 9.729591e-01 9.728841e-01 9.699782e-01 9.693173e-01 9.704190e-01 9.707130e-01 9.715012e-01 9.721708e-01 9.723574e-01 9.726629e-01 9.727181e-01 9.730307e-01 9.730666e-01 9.729692e-01 9.728429e-01
<GCONST> 9.411693e+01
<STATE> 3
<MEAN> 52
 -2.553060e-03 -9.914917e-04 -9.511375e-04 -7.067083e-04 4.884938e-04 4.607062e-04 2.170536e-04 3.749962e-04 5.685943e-05 -1.641407e-04 -2.682926e-04 3.209595e-04 2.224516e-05 1.462708e-05 -1.563646e-05 3.150207e-06 -3.127282e-05 2.215711e-06 -1.558698e-05 3.050199e-05 1.197561e-05 3.381344e-05 1.909707e-06 1.867348e-05 2.629744e-05 8.081098e-06 -2.104376e-05 3.518652e-05 -1.349342e-05 3.585546e-06 -2.162471e-06 1.303398e-05 3.576985e-06 -2.080435e-06 -1.966715e-05 -1.045151e-05 -1.823006e-05 -9.553847e-07 7.348699e-06 1.531814e-05 -1.371183e-05 1.278371e-05 1.168531e-05 -4.991732e-06 -9.663237e-06 -3.061223e-06 -4.925353e-06 -3.432880e-06 -9.174451e-06 -1.119601e-05 -1.612987e-05 -9.955244e-06
<VARIANCE> 52
 9.816899e-01 9.760739e-01 9.747661e-01 9.745262e-01 9.735070e-01 9.737077e-01 9.743643e-01 9.739766e-01 9.736460e-01 9.738467e-01 9.737835e-01 9.735096e-01 9.735794e-01 9.707018e-01 9.684655e-01 9.702125e-01 9.698300e-01 9.705143e-01 9.714755e-01 9.719940e-01 9.721018e-01 9.722180e-01 9.726347e-01 9.726303e-01 9.725136e-01 9.722663e-01 9.702491e-01 9.699934e-01 9.707450e-01 9.708397e-01 9.715440e-01 9.720864e-01 9.723561e-01 9.727064e-01 9.726942e-01 9.730930e-01 9.731038e-01 9.729591e-01 9.728841e-01 9.699782e-01 9.693173e-01 9.704190e-01 9.707130e-01 9.715012e-01 9.721708e-01 9.723574e-01 9.726629e-01 9.727181e-01 9.730307e-01 9.730666e-01 9.729692e-01 9.728429e-01
<GCONST> 9.411693e+01
<STATE> 4
<MEAN> 52
 -2.553060e-03 -9.914917e-04 -9.511375e-04 -7.067083e-04 4.884938e-04 4.607062e-04 2.170536e-04 3.749962e-04 5.685943e-05 -1.641407e-04 -2.682926e-04 3.209595e-04 2.224516e-05 1.462708e-05 -1.563646e-05 3.150207e-06 -3.127282e-05 2.215711e-06 -1.558698e-05 3.050199e-05 1.197561e-05 3.381344e-05 1.909707e-06 1.867348e-05 2.629744e-05 8.081098e-06 -2.104376e-05 3.518652e-05 -1.349342e-05 3.585546e-06 -2.162471e-06 1.303398e-05 3.576985e-06 -2.080435e-06 -1.966715e-05 -1.045151e-05 -1.823006e-05 -9.553847e-07 7.348699e-06 1.531814e-05 -1.371183e-05 1.278371e-05 1.168531e-05 -4.991732e-06 -9.663237e-06 -3.061223e-06 -4.925353e-06 -3.432880e-06 -9.174451e-06 -1.119601e-05 -1.612987e-05 -9.955244e-06
<VARIANCE> 52
 9.816899e-01 9.760739e-01 9.747661e-01 9.745262e-01 9.735070e-01 9.737077e-01 9.743643e-01 9.739766e-01 9.736460e-01 9.738467e-01 9.737835e-01 9.735096e-01 9.735794e-01 9.707018e-01 9.684655e-01 9.702125e-01 9.698300e-01 9.705143e-01 9.714755e-01 9.719940e-01 9.721018e-01 9.722180e-01 9.726347e-01 9.726303e-01 9.725136e-01 9.722663e-01 9.702491e-01 9.699934e-01 9.707450e-01 9.708397e-01 9.715440e-01 9.720864e-01 9.723561e-01 9.727064e-01 9.726942e-01 9.730930e-01 9.731038e-01 9.729591e-01 9.728841e-01 9.699782e-01 9.693173e-01 9.704190e-01 9.707130e-01 9.715012e-01 9.721708e-01 9.723574e-01 9.726629e-01 9.727181e-01 9.730307e-01 9.730666e-01 9.729692e-01 9.728429e-01
<GCONST> 9.411693e+01
<TRANSP> 5
 0.000000e+00 1.000000e+00 0.000000e+00 0.000000e+00 0.000000e+00
 0.000000e+00 6.000000e-01 4.000000e-01 0.000000e+00 0.000000e+00
 0.000000e+00 0.000000e+00 6.000000e-01 4.000000e-01 0.000000e+00
 0.000000e+00 0.000000e+00 0.000000e+00 6.000000e-01 4.000000e-01
 0.000000e+00 0.000000e+00 0.000000e+00 0.000000e+00 0.000000e+00
<ENDHMM>
~h "sil"
<BEGINHMM>
<NUMSTATES> 5
<STATE> 2
<MEAN> 52
 -2.553060e-03 -9.914917e-04 -9.511375e-04 -7.067083e-04 4.884938e-04 4.607062e-04 2.170536e-04 3.749962e-04 5.685943e-05 -1.641407e-04 -2.682926e-04 3.209595e-04 2.224516e-05 1.462708e-05 -1.563646e-05 3.150207e-06 -3.127282e-05 2.215711e-06 -1.558698e-05 3.050199e-05 1.197561e-05 3.381344e-05 1.909707e-06 1.867348e-05 2.629744e-05 8.081098e-06 -2.104376e-05 3.518652e-05 -1.349342e-05 3.585546e-06 -2.162471e-06 1.303398e-05 3.576985e-06 -2.080435e-06 -1.966715e-05 -1.045151e-05 -1.823006e-05 -9.553847e-07 7.348699e-06 1.531814e-05 -1.371183e-05 1.278371e-05 1.168531e-05 -4.991732e-06 -9.663237e-06 -3.061223e-06 -4.925353e-06 -3.432880e-06 -9.174451e-06 -1.119601e-05 -1.612987e-05 -9.955244e-06
<VARIANCE> 52
 9.816899e-01 9.760739e-01 9.747661e-01 9.745262e-01 9.735070e-01 9.737077e-01 9.743643e-01 9.739766e-01 9.736460e-01 9.738467e-01 9.737835e-01 9.735096e-01 9.735794e-01 9.707018e-01 9.684655e-01 9.702125e-01 9.698300e-01 9.705143e-01 9.714755e-01 9.719940e-01 9.721018e-01 9.722180e-01 9.726347e-01 9.726303e-01 9.725136e-01 9.722663e-01 9.702491e-01 9.699934e-01 9.707450e-01 9.708397e-01 9.715440e-01 9.720864e-01 9.723561e-01 9.727064e-01 9.726942e-01 9.730930e-01 9.731038e-01 9.729591e-01 9.728841e-01 9.699782e-01 9.693173e-01 9.704190e-01 9.707130e-01 9.715012e-01 9.721708e-01 9.723574e-01 9.726629e-01 9.727181e-01 9.730307e-01 9.730666e-01 9.729692e-01 9.728429e-01
<GCONST> 9.411693e+01
<STATE> 3
<MEAN> 52
 -2.553060e-03 -9.914917e-04 -9.511375e-04 -7.067083e-04 4.884938e-04 4.607062e-04 2.170536e-04 3.749962e-04 5.685943e-05 -1.641407e-04 -2.682926e-04 3.209595e-04 2.224516e-05 1.462708e-05 -1.563646e-05 3.150207e-06 -3.127282e-05 2.215711e-06 -1.558698e-05 3.050199e-05 1.197561e-05 3.381344e-05 1.909707e-06 1.867348e-05 2.629744e-05 8.081098e-06 -2.104376e-05 3.518652e-05 -1.349342e-05 3.585546e-06 -2.162471e-06 1.303398e-05 3.576985e-06 -2.080435e-06 -1.966715e-05 -1.045151e-05 -1.823006e-05 -9.553847e-07 7.348699e-06 1.531814e-05 -1.371183e-05 1.278371e-05 1.168531e-05 -4.991732e-06 -9.663237e-06 -3.061223e-06 -4.925353e-06 -3.432880e-06 -9.174451e-06 -1.119601e-05 -1.612987e-05 -9.955244e-06
<VARIANCE> 52
 9.816899e-01 9.760739e-01 9.747661e-01 9.745262e-01 9.735070e-01 9.737077e-01 9.743643e-01 9.739766e-01 9.736460e-01 9.738467e-01 9.737835e-01 9.735096e-01 9.735794e-01 9.707018e-01 9.684655e-01 9.702125e-01 9.698300e-01 9.705143e-01 9.714755e-01 9.719940e-01 9.721018e-01 9.722180e-01 9.726347e-01 9.726303e-01 9.725136e-01 9.722663e-01 9.702491e-01 9.699934e-01 9.707450e-01 9.708397e-01 9.715440e-01 9.720864e-01 9.723561e-01 9.727064e-01 9.726942e-01 9.730930e-01 9.731038e-01 9.729591e-01 9.728841e-01 9.699782e-01 9.693173e-01 9.704190e-01 9.707130e-01 9.715012e-01 9.721708e-01 9.723574e-01 9.726629e-01 9.727181e-01 9.730307e-01 9.730666e-01 9.729692e-01 9.728429e-01
<GCONST> 9.411693e+01
<STATE> 4
<MEAN> 52
 -2.553060e-03 -9.914917e-04 -9.511375e-04 -7.067083e-04 4.884938e-04 4.607062e-04 2.170536e-04 3.749962e-04 5.685943e-05 -1.641407e-04 -2.682926e-04 3.209595e-04 2.224516e-05 1.462708e-05 -1.563646e-05 3.150207e-06 -3.127282e-05 2.215711e-06 -1.558698e-05 3.050199e-05 1.197561e-05 3.381344e-05 1.909707e-06 1.867348e-05 2.629744e-05 8.081098e-06 -2.104376e-05 3.518652e-05 -1.349342e-05 3.585546e-06 -2.162471e-06 1.303398e-05 3.576985e-06 -2.080435e-06 -1.966715e-05 -1.045151e-05 -1.823006e-05 -9.553847e-07 7.348699e-06 1.531814e-05 -1.371183e-05 1.278371e-05 1.168531e-05 -4.991732e-06 -9.663237e-06 -3.061223e-06 -4.925353e-06 -3.432880e-06 -9.174451e-06 -1.119601e-05 -1.612987e-05 -9.955244e-06
<VARIANCE> 52
 9.816899e-01 9.760739e-01 9.747661e-01 9.745262e-01 9.735070e-01 9.737077e-01 9.743643e-01 9.739766e-01 9.736460e-01 9.738467e-01 9.737835e-01 9.735096e-01 9.735794e-01 9.707018e-01 9.684655e-01 9.702125e-01 9.698300e-01 9.705143e-01 9.714755e-01 9.719940e-01 9.721018e-01 9.722180e-01 9.726347e-01 9.726303e-01 9.725136e-01 9.722663e-01 9.702491e-01 9.699934e-01 9.707450e-01 9.708397e-01 9.715440e-01 9.720864e-01 9.723561e-01 9.727064e-01 9.726942e-01 9.730930e-01 9.731038e-01 9.729591e-01 9.728841e-01 9.699782e-01 9.693173e-01 9.704190e-01 9.707130e-01 9.715012e-01 9.721708e-01 9.723574e-01 9.726629e-01 9.727181e-01 9.730307e-01 9.730666e-01 9.729692e-01 9.728429e-01
<GCONST> 9.411693e+01
<TRANSP> 5
 0.000000e+00 1.000000e+00 0.000000e+00 0.000000e+00 0.000000e+00
 0.000000e+00 6.000000e-01 4.000000e-01 0.000000e+00 0.000000e+00
 0.000000e+00 0.000000e+00 6.000000e-01 4.000000e-01 0.000000e+00
 0.000000e+00 0.000000e+00 0.000000e+00 6.000000e-01 4.000000e-01
 0.000000e+00 0.000000e+00 0.000000e+00 0.000000e+00 0.000000e+00
<ENDHMM>
~h "sh"
<BEGINHMM>
<NUMSTATES> 5
<STATE> 2
<MEAN> 52
 -2.553060e-03 -9.914917e-04 -9.511375e-04 -7.067083e-04 4.884938e-04 4.607062e-04 2.170536e-04 3.749962e-04 5.685943e-05 -1.641407e-04 -2.682926e-04 3.209595e-04 2.224516e-05 1.462708e-05 -1.563646e-05 3.150207e-06 -3.127282e-05 2.215711e-06 -1.558698e-05 3.050199e-05 1.197561e-05 3.381344e-05 1.909707e-06 1.867348e-05 2.629744e-05 8.081098e-06 -2.104376e-05 3.518652e-05 -1.349342e-05 3.585546e-06 -2.162471e-06 1.303398e-05 3.576985e-06 -2.080435e-06 -1.966715e-05 -1.045151e-05 -1.823006e-05 -9.553847e-07 7.348699e-06 1.531814e-05 -1.371183e-05 1.278371e-05 1.168531e-05 -4.991732e-06 -9.663237e-06 -3.061223e-06 -4.925353e-06 -3.432880e-06 -9.174451e-06 -1.119601e-05 -1.612987e-05 -9.955244e-06
<VARIANCE> 52
 9.816899e-01 9.760739e-01 9.747661e-01 9.745262e-01 9.735070e-01 9.737077e-01 9.743643e-01 9.739766e-01 9.736460e-01 9.738467e-01 9.737835e-01 9.735096e-01 9.735794e-01 9.707018e-01 9.684655e-01 9.702125e-01 9.698300e-01 9.705143e-01 9.714755e-01 9.719940e-01 9.721018e-01 9.722180e-01 9.726347e-01 9.726303e-01 9.725136e-01 9.722663e-01 9.702491e-01 9.699934e-01 9.707450e-01 9.708397e-01 9.715440e-01 9.720864e-01 9.723561e-01 9.727064e-01 9.726942e-01 9.730930e-01 9.731038e-01 9.729591e-01 9.728841e-01 9.699782e-01 9.693173e-01 9.704190e-01 9.707130e-01 9.715012e-01 9.721708e-01 9.723574e-01 9.726629e-01 9.727181e-01 9.730307e-01 9.730666e-01 9.729692e-01 9.728429e-01
<GCONST> 9.411693e+01
<STATE> 3
<MEAN> 52
 -2.553060e-03 -9.914917e-04 -9.511375e-04 -7.067083e-04 4.884938e-04 4.607062e-04 2.170536e-04 3.749962e-04 5.685943e-05 -1.641407e-04 -2.682926e-04 3.209595e-04 2.224516e-05 1.462708e-05 -1.563646e-05 3.150207e-06 -3.127282e-05 2.215711e-06 -1.558698e-05 3.050199e-05 1.197561e-05 3.381344e-05 1.909707e-06 1.867348e-05 2.629744e-05 8.081098e-06 -2.104376e-05 3.518652e-05 -1.349342e-05 3.585546e-06 -2.162471e-06 1.303398e-05 3.576985e-06 -2.080435e-06 -1.966715e-05 -1.045151e-05 -1.823006e-05 -9.553847e-07 7.348699e-06 1.531814e-05 -1.371183e-05 1.278371e-05 1.168531e-05 -4.991732e-06 -9.663237e-06 -3.061223e-06 -4.925353e-06 -3.432880e-06 -9.174451e-06 -1.119601e-05 -1.612987e-05 -9.955244e-06
<VARIANCE> 52
 9.816899e-01 9.760739e-01 9.747661e-01 9.745262e-01 9.735070e-01 9.737077e-01 9.743643e-01 9.739766e-01 9.736460e-01 9.738467e-01 9.737835e-01 9.735096e-01 9.735794e-01 9.707018e-01 9.684655e-01 9.702125e-01 9.698300e-01 9.705143e-01 9.714755e-01 9.719940e-01 9.721018e-01 9.722180e-01 9.726347e-01 9.726303e-01 9.725136e-01 9.722663e-01 9.702491e-01 9.699934e-01 9.707450e-01 9.708397e-01 9.715440e-01 9.720864e-01 9.723561e-01 9.727064e-01 9.726942e-01 9.730930e-01 9.731038e-01 9.729591e-01 9.728841e-01 9.699782e-01 9.693173e-01 9.704190e-01 9.707130e-01 9.715012e-01 9.721708e-01 9.723574e-01 9.726629e-01 9.727181e-01 9.730307e-01 9.730666e-01 9.729692e-01 9.728429e-01
<GCONST> 9.411693e+01
<STATE> 4
<MEAN> 52
 -2.553060e-03 -9.914917e-04 -9.511375e-04 -7.067083e-04 4.884938e-04 4.607062e-04 2.170536e-04 3.749962e-04 5.685943e-05 -1.641407e-04 -2.682926e-04 3.209595e-04 2.224516e-05 1.462708e-05 -1.563646e-05 3.150207e-06 -3.127282e-05 2.215711e-06 -1.558698e-05 3.050199e-05 1.197561e-05 3.381344e-05 1.909707e-06 1.867348e-05 2.629744e-05 8.081098e-06 -2.104376e-05 3.518652e-05 -1.349342e-05 3.585546e-06 -2.162471e-06 1.303398e-05 3.576985e-06 -2.080435e-06 -1.966715e-05 -1.045151e-05 -1.823006e-05 -9.553847e-07 7.348699e-06 1.531814e-05 -1.371183e-05 1.278371e-05 1.168531e-05 -4.991732e-06 -9.663237e-06 -3.061223e-06 -4.925353e-06 -3.432880e-06 -9.174451e-06 -1.119601e-05 -1.612987e-05 -9.955244e-06
<VARIANCE> 52
 9.816899e-01 9.760739e-01 9.747661e-01 9.745262e-01 9.735070e-01 9.737077e-01 9.743643e-01 9.739766e-01 9.736460e-01 9.738467e-01 9.737835e-01 9.735096e-01 9.735794e-01 9.707018e-01 9.684655e-01 9.702125e-01 9.698300e-01 9.705143e-01 9.714755e-01 9.719940e-01 9.721018e-01 9.722180e-01 9.726347e-01 9.726303e-01 9.725136e-01 9.722663e-01 9.702491e-01 9.699934e-01 9.707450e-01 9.708397e-01 9.715440e-01 9.720864e-01 9.723561e-01 9.727064e-01 9.726942e-01 9.730930e-01 9.731038e-01 9.729591e-01 9.728841e-01 9.699782e-01 9.693173e-01 9.704190e-01 9.707130e-01 9.715012e-01 9.721708e-01 9.723574e-01 9.726629e-01 9.727181e-01 9.730307e-01 9.730666e-01 9.729692e-01 9.728429e-01
<GCONST> 9.411693e+01
<TRANSP> 5
 0.000000e+00 1.000000e+00 0.000000e+00 0.000000e+00 0.000000e+00
 0.000000e+00 6.000000e-01 4.000000e-01 0.000000e+00 0.000000e+00
 0.000000e+00 0.000000e+00 6.000000e-01 4.000000e-01 0.000000e+00
 0.000000e+00 0.000000e+00 0.000000e+00 6.000000e-01 4.000000e-01
 0.000000e+00 0.000000e+00 0.000000e+00 0.000000e+00 0.000000e+00
<ENDHMM>
~h "s"
<BEGINHMM>
<NUMSTATES> 5
<STATE> 2
<MEAN> 52
 -2.553060e-03 -9.914917e-04 -9.511375e-04 -7.067083e-04 4.884938e-04 4.607062e-04 2.170536e-04 3.749962e-04 5.685943e-05 -1.641407e-04 -2.682926e-04 3.209595e-04 2.224516e-05 1.462708e-05 -1.563646e-05 3.150207e-06 -3.127282e-05 2.215711e-06 -1.558698e-05 3.050199e-05 1.197561e-05 3.381344e-05 1.909707e-06 1.867348e-05 2.629744e-05 8.081098e-06 -2.104376e-05 3.518652e-05 -1.349342e-05 3.585546e-06 -2.162471e-06 1.303398e-05 3.576985e-06 -2.080435e-06 -1.966715e-05 -1.045151e-05 -1.823006e-05 -9.553847e-07 7.348699e-06 1.531814e-05 -1.371183e-05 1.278371e-05 1.168531e-05 -4.991732e-06 -9.663237e-06 -3.061223e-06 -4.925353e-06 -3.432880e-06 -9.174451e-06 -1.119601e-05 -1.612987e-05 -9.955244e-06
<VARIANCE> 52
 9.816899e-01 9.760739e-01 9.747661e-01 9.745262e-01 9.735070e-01 9.737077e-01 9.743643e-01 9.739766e-01 9.736460e-01 9.738467e-01 9.737835e-01 9.735096e-01 9.735794e-01 9.707018e-01 9.684655e-01 9.702125e-01 9.698300e-01 9.705143e-01 9.714755e-01 9.719940e-01 9.721018e-01 9.722180e-01 9.726347e-01 9.726303e-01 9.725136e-01 9.722663e-01 9.702491e-01 9.699934e-01 9.707450e-01 9.708397e-01 9.715440e-01 9.720864e-01 9.723561e-01 9.727064e-01 9.726942e-01 9.730930e-01 9.731038e-01 9.729591e-01 9.728841e-01 9.699782e-01 9.693173e-01 9.704190e-01 9.707130e-01 9.715012e-01 9.721708e-01 9.723574e-01 9.726629e-01 9.727181e-01 9.730307e-01 9.730666e-01 9.729692e-01 9.728429e-01
<GCONST> 9.411693e+01
<STATE> 3
<MEAN> 52
 -2.553060e-03 -9.914917e-04 -9.511375e-04 -7.067083e-04 4.884938e-04 4.607062e-04 2.170536e-04 3.749962e-04 5.685943e-05 -1.641407e-04 -2.682926e-04 3.209595e-04 2.224516e-05 1.462708e-05 -1.563646e-05 3.150207e-06 -3.127282e-05 2.215711e-06 -1.558698e-05 3.050199e-05 1.197561e-05 3.381344e-05 1.909707e-06 1.867348e-05 2.629744e-05 8.081098e-06 -2.104376e-05 3.518652e-05 -1.349342e-05 3.585546e-06 -2.162471e-06 1.303398e-05 3.576985e-06 -2.080435e-06 -1.966715e-05 -1.045151e-05 -1.823006e-05 -9.553847e-07 7.348699e-06 1.531814e-05 -1.371183e-05 1.278371e-05 1.168531e-05 -4.991732e-06 -9.663237e-06 -3.061223e-06 -4.925353e-06 -3.432880e-06 -9.174451e-06 -1.119601e-05 -1.612987e-05 -9.955244e-06
<VARIANCE> 52
 9.816899e-01 9.760739e-01 9.747661e-01 9.745262e-01 9.735070e-01 9.737077e-01 9.743643e-01 9.739766e-01 9.736460e-01 9.738467e-01 9.737835e-01 9.735096e-01 9.735794e-01 9.707018e-01 9.684655e-01 9.702125e-01 9.698300e-01 9.705143e-01 9.714755e-01 9.719940e-01 9.721018e-01 9.722180e-01 9.726347e-01 9.726303e-01 9.725136e-01 9.722663e-01 9.702491e-01 9.699934e-01 9.707450e-01 9.708397e-01 9.715440e-01 9.720864e-01 9.723561e-01 9.727064e-01 9.726942e-01 9.730930e-01 9.731038e-01 9.729591e-01 9.728841e-01 9.699782e-01 9.693173e-01 9.704190e-01 9.707130e-01 9.715012e-01 9.721708e-01 9.723574e-01 9.726629e-01 9.727181e-01 9.730307e-01 9.730666e-01 9.729692e-01 9.728429e-01
<GCONST> 9.411693e+01
<STATE> 4
<MEAN> 52
 -2.553060e-03 -9.914917e-04 -9.511375e-04 -7.067083e-04 4.884938e-04 4.607062e-04 2.170536e-04 3.749962e-04 5.685943e-05 -1.641407e-04 -2.682926e-04 3.209595e-04 2.224516e-05 1.462708e-05 -1.563646e-05 3.150207e-06 -3.127282e-05 2.215711e-06 -1.558698e-05 3.050199e-05 1.197561e-05 3.381344e-05 1.909707e-06 1.867348e-05 2.629744e-05 8.081098e-06 -2.104376e-05 3.518652e-05 -1.349342e-05 3.585546e-06 -2.162471e-06 1.303398e-05 3.576985e-06 -2.080435e-06 -1.966715e-05 -1.045151e-05 -1.823006e-05 -9.553847e-07 7.348699e-06 1.531814e-05 -1.371183e-05 1.278371e-05 1.168531e-05 -4.991732e-06 -9.663237e-06 -3.061223e-06 -4.925353e-06 -3.432880e-06 -9.174451e-06 -1.119601e-05 -1.612987e-05 -9.955244e-06
<VARIANCE> 52
 9.816899e-01 9.760739e-01 9.747661e-01 9.745262e-01 9.735070e-01 9.737077e-01 9.743643e-01 9.739766e-01 9.736460e-01 9.738467e-01 9.737835e-01 9.735096e-01 9.735794e-01 9.707018e-01 9.684655e-01 9.702125e-01 9.698300e-01 9.705143e-01 9.714755e-01 9.719940e-01 9.721018e-01 9.722180e-01 9.726347e-01 9.726303e-01 9.725136e-01 9.722663e-01 9.702491e-01 9.699934e-01 9.707450e-01 9.708397e-01 9.715440e-01 9.720864e-01 9.723561e-01 9.727064e-01 9.726942e-01 9.730930e-01 9.731038e-01 9.729591e-01 9.728841e-01 9.699782e-01 9.693173e-01 9.704190e-01 9.707130e-01 9.715012e-01 9.721708e-01 9.723574e-01 9.726629e-01 9.727181e-01 9.730307e-01 9.730666e-01 9.729692e-01 9.728429e-01
<GCONST> 9.411693e+01
<TRANSP> 5
 0.000000e+00 1.000000e+00 0.000000e+00 0.000000e+00 0.000000e+00
 0.000000e+00 6.000000e-01 4.000000e-01 0.000000e+00 0.000000e+00
 0.000000e+00 0.000000e+00 6.000000e-01 4.000000e-01 0.000000e+00
 0.000000e+00 0.000000e+00 0.000000e+00 6.000000e-01 4.000000e-01
 0.000000e+00 0.000000e+00 0.000000e+00 0.000000e+00 0.000000e+00
<ENDHMM>
~h "l"
<BEGINHMM>
<NUMSTATES> 5
<STATE> 2
<MEAN> 52
 -2.553060e-03 -9.914917e-04 -9.511375e-04 -7.067083e-04 4.884938e-04 4.607062e-04 2.170536e-04 3.749962e-04 5.685943e-05 -1.641407e-04 -2.682926e-04 3.209595e-04 2.224516e-05 1.462708e-05 -1.563646e-05 3.150207e-06 -3.127282e-05 2.215711e-06 -1.558698e-05 3.050199e-05 1.197561e-05 3.381344e-05 1.909707e-06 1.867348e-05 2.629744e-05 8.081098e-06 -2.104376e-05 3.518652e-05 -1.349342e-05 3.585546e-06 -2.162471e-06 1.303398e-05 3.576985e-06 -2.080435e-06 -1.966715e-05 -1.045151e-05 -1.823006e-05 -9.553847e-07 7.348699e-06 1.531814e-05 -1.371183e-05 1.278371e-05 1.168531e-05 -4.991732e-06 -9.663237e-06 -3.061223e-06 -4.925353e-06 -3.432880e-06 -9.174451e-06 -1.119601e-05 -1.612987e-05 -9.955244e-06
<VARIANCE> 52
