svm_type epsilon_svr
kernel_type linear
nr_class 2
total_sv 5992
rho -0.016473095274901525
SV
1.0 0:1.0 1:1.0 2:1.0 3:0.0 4:0.0 5:0.0 6:0.0 7:0.0 8:0.0 9:0.0 10:0.0 11:0.0 12:0.0 13:0.0 14:0.0 15:0.0 16:0.0 17:0.0 18:0.0 19:0.0 20:0.0 21:0.0 22:0.0 23:0.0 24:0.36787944117144233 25:1.0 26:0.5785862941142949 27:0.0 28:0.0 29:0.0 30:1.0 31:0.0 32:0.0 33:0.0 34:0.0 35:0.0 
1.0 0:1.0 1:1.0 2:1.0 3:0.0 4:0.0 5:0.0 6:0.0 7:0.0 8:0.0 9:0.0 10:0.0 11:0.0 12:0.0 13:0.0 14:0.0 15:0.0 16:0.0 17:0.0 18:0.0 19:0.0 20:0.0 21:0.0 22:0.0 23:0.0 24:0.36787944117144233 25:1.0 26:0.5785862941142949 27:0.0 28:0.0 29:0.0 30:1.0 31:0.0 32:0.0 33:0.0 34:0.0 35:0.0 
1.0 0:1.0 1:1.0 2:1.0 3:0.0 4:0.0 5:0.0 6:0.0 7:0.0 8:0.0 9:0.0 10:0.0 11:0.0 12:0.0 13:0.0 14:0.0 15:0.0 16:0.0 17:0.0 18:0.0 19:0.0 20:0.0 21:0.0 22:0.0 23:0.0 24:0.36787944117144233 25:1.0 26:0.5785862941142949 27:0.0 28:0.0 29:0.0 30:1.0 31:0.0 32:0.0 33:0.0 34:0.0 35:0.0 
1.0 0:1.0 1:1.0 2:1.0 3:0.0 4:0.0 5:0.0 6:0.0 7:0.0 8:0.0 9:0.0 10:0.0 11:0.0 12:0.0 13:0.0 14:0.0 15:0.0 16:0.0 17:0.0 18:0.0 19:0.0 20:0.0 21:0.0 22:0.0 23:0.0 24:0.36787944117144233 25:1.0 26:0.5785862941142949 27:0.0 28:0.0 29:0.0 30:1.0 31:0.0 32:0.0 33:0.0 34:0.0 35:0.0 
1.0 0:1.0 1:1.0 2:1.0 3:0.0 4:0.0 5:0.0 6:0.0 7:0.0 8:0.0 9:0.0 10:0.0 11:0.0 12:0.0 13:0.0 14:0.0 15:0.0 16:0.0 17:0.0 18:0.0 19:0.0 20:0.0 21:0.0 22:0.0 23:0.0 24:0.36787944117144233 25:1.0 26:0.5785862941142949 27:0.0 28:0.0 29:0.0 30:0.0 31:1.0 32:0.0 33:0.0 34:0.0 35:0.0 
1.0 0:1.0 1:1.0 2:1.0 3:0.0 4:0.0 5:0.0 6:0.0 7:0.0 8:0.0 9:0.0 10:0.0 11:0.0 12:0.0 13:0.0 14:0.0 15:0.0 16:0.0 17:0.0 18:0.0 19:0.0 20:0.0 21:0.0 22:0.0 23:0.0 24:0.36787944117144233 25:1.0 26:0.5785862941142949 27:0.0 28:0.0 29:0.0 30:1.0 31:0.0 32:0.0 33:0.0 34:0.0 35:0.0 
1.0 0:1.0 1:1.0 2:1.0 3:0.0 4:0.0 5:0.0 6:0.0 7:0.0 8:0.0 9:0.0 10:0.0 11:0.0 12:0.0 13:0.0 14:0.0 15:0.0 16:0.0 17:0.0 18:0.0 19:0.0 20:0.0 21:0.0 22:0.0 23:0.0 24:0.36787944117144233 25:1.0 26:0.5785862941142949 27:0.0 28:0.0 29:0.0 30:1.0 31:0.0 32:0.0 33:0.0 34:0.0 35:0.0 
1.0 0:1.0 1:1.0 2:1.0 3:0.0 4:0.0 5:0.0 6:0.0 7:0.0 8:0.0 9:0.0 10:0.0 11:0.0 12:0.0 13:0.0 14:0.0 15:0.0 16:0.0 17:0.0 18:0.0 19:0.0 20:0.0 21:0.0 22:0.0 23:0.0 24:0.36787944117144233 25:1.0 26:0.5785862941142949 27:0.0 28:0.0 29:0.0 30:1.0 31:0.0 32:0.0 33:0.0 34:0.0 35:0.0 
1.0 0:1.0 1:1.0 2:1.0 3:0.0 4:0.0 5:0.0 6:0.0 7:0.0 8:0.0 9:0.0 10:0.0 11:0.0 12:0.0 13:0.0 14:0.0 15:0.0 16:0.0 17:0.0 18:0.0 19:0.0 20:0.0 21:0.0 22:0.0 23:0.0 24:0.36787944117144233 25:1.0 26:0.5785862941142949 27:0.0 28:0.0 29:0.0 30:1.0 31:0.0 32:0.0 33:0.0 34:0.0 35:0.0 
1.0 0:1.0 1:1.0 2:1.0 3:0.0 4:0.0 5:0.0 6:0.0 7:0.0 8:0.0 9:0.0 10:0.0 11:0.0 12:0.0 13:0.0 14:0.0 15:0.0 16:0.0 17:0.0 18:0.0 19:0.0 20:0.0 21:0.0 22:0.0 23:0.0 24:0.36787944117144233 25:1.0 26:0.5785862941142949 27:0.0 28:0.0 29:0.0 30:1.0 31:0.0 32:0.0 33:0.0 34:0.0 35:0.0 
1.0 0:1.0 1:1.0 2:1.0 3:0.0 4:0.0 5:0.0 6:0.0 7:0.0 8:0.0 9:0.0 10:0.0 11:0.0 12:0.0 13:0.0 14:0.0 15:0.0 16:0.0 17:0.0 18:0.0 19:0.0 20:0.0 21:0.0 22:0.0 23:0.0 24:0.36787944117144233 25:1.0 26:0.5785862941142949 27:0.0 28:0.0 29:0.0 30:1.0 31:0.0 32:0.0 33:0.0 34:0.0 35:0.0 
1.0 0:1.0 1:1.0 2:1.0 3:0.0 4:0.0 5:0.0 6:0.0 7:0.0 8:0.0 9:0.0 10:0.0 11:0.0 12:0.0 13:0.0 14:0.0 15:0.0 16:0.0 17:0.0 18:0.0 19:0.0 20:0.0 21:0.0 22:0.0 23:0.0 24:0.36787944117144233 25:1.0 26:0.5785862941142949 27:0.0 28:0.0 29:0.0 30:1.0 31:0.0 32:0.0 33:0.0 34:0.0 35:0.0 
1.0 0:1.0 1:1.0 2:1.0 3:0.0 4:0.0 5:0.0 6:0.0 7:0.0 8:0.0 9:0.0 10:0.0 11:0.0 12:0.0 13:0.0 14:0.0 15:0.0 16:0.0 17:0.0 18:0.0 19:0.0 20:0.0 21:0.0 22:0.0 23:0.0 24:0.36787944117144233 25:1.0 26:0.5785862941142949 27:0.0 28:0.0 29:0.0 30:1.0 31:0.0 32:0.0 33:0.0 34:0.0 35:0.0 
1.0 0:1.0 1:1.0 2:1.0 3:0.0 4:0.0 5:0.0 6:0.0 7:0.0 8:0.0 9:0.0 10:0.0 11:0.0 12:0.0 13:0.0 14:0.0 15:0.0 16:0.0 17:0.0 18:0.0 19:0.0 20:0.0 21:0.0 22:0.0 23:0.0 24:0.36787944117144233 25:1.0 26:0.5785862941142949 27:0.0 28:0.0 29:0.0 30:1.0 31:0.0 32:0.0 33:0.0 34:0.0 35:0.0 
1.0 0:1.0 1:1.0 2:1.0 3:0.0 4:0.0 5:0.0 6:0.0 7:0.0 8:0.0 9:0.0 10:0.0 11:0.0 12:0.0 13:0.0 14:0.0 15:0.0 16:0.0 17:0.0 18:0.0 19:0.0 20:0.0 21:0.0 22:0.0 23:0.0 24:0.36787944117144233 25:1.0 26:0.5785862941142949 27:0.0 28:0.0 29:0.0 30:1.0 31:0.0 32:0.0 33:0.0 34:0.0 35:0.0 
1.0 0:1.0 1:1.0 2:1.0 3:0.0 4:0.0 5:0.0 6:0.0 7:0.0 8:0.0 9:0.0 10:0.0 11:0.0 12:0.0 13:0.0 14:0.0 15:0.0 16:0.0 17:0.0 18:0.0 19:0.0 20:0.0 21:0.0 22:0.0 23:0.0 24:0.36787944117144233 25:1.0 26:0.5785862941142949 27:0.0 28:0.0 29:0.0 30:1.0 31:0.0 32:0.0 33:0.0 34:0.0 35:0.0 
1.0 0:1.0 1:1.0 2:1.0 3:0.0 4:0.0 5:0.0 6:0.0 7:0.0 8:0.0 9:0.0 10:0.0 11:0.0 12:0.0 13:0.0 14:0.0 15:0.0 16:0.0 17:0.0 18:0.0 19:0.0 20:0.0 21:0.0 22:0.0 23:0.0 24:0.36787944117144233 25:1.0 26:0.5785862941142949 27:0.0 28:0.0 29:0.0 30:1.0 31:0.0 32:0.0 33:0.0 34:0.0 35:0.0 
1.0 0:1.0 1:1.0 2:1.0 3:0.0 4:0.0 5:0.0 6:0.0 7:0.0 8:0.0 9:0.0 10:0.0 11:0.0 12:0.0 13:0.0 14:0.0 15:0.0 16:0.0 17:0.0 18:0.0 19:0.0 20:0.0 21:0.0 22:0.0 23:0.0 24:0.36787944117144233 25:1.0 26:0.5785862941142949 27:0.0 28:0.0 29:0.0 30:0.0 31:1.0 32:0.0 33:0.0 34:0.0 35:0.0 
1.0 0:0.5 1:1.0 2:0.6666666666666666 3:0.0 4:0.4999999999999999 5:0.33333333333333326 6:0.0 7:0.5 8:0.3333333333333333 9:0.0 10:0.22474487139158894 11:0.1498299142610593 12:0.0 13:0.14471424255333187 14:0.09647616170222124 15:0.0 16:0.5 17:0.3333333333333333 18:0.0 19:0.0 20:0.0 21:0.0 22:0.0 23:0.0 24:0.36787944117144233 25:1.0 26:0.7892931470571475 27:0.5 28:0.22474487139158894 29:0.14471424255333187 30:0.5 31:0.5 32:0.0 33:1.0 34:0.0 35:0.0 
1.0 0:0.5 1:1.0 2:0.6666666666666666 3:0.0 4:0.4999999999999999 5:0.33333333333333326 6:0.0 7:0.5 8:0.3333333333333333 9:0.0 10:0.22474487139158894 11:0.1498299142610593 12:0.0 13:0.14471424255333187 14:0.09647616170222124 15:0.0 16:0.5 17:0.3333333333333333 18:0.0 19:0.0 20:0.0 21:0.0 22:0.0 23:0.0 24:0.36787944117144233 25:1.0 26:0.7892931470571475 27:0.5 28:0.22474487139158894 29:0.14471424255333187 30:0.5 31:0.5 32:0.0 33:1.0 34:0.0 35:0.0 
1.0 0:1.0 1:1.0 2:1.0 3:0.0 4:0.0 5:0.0 6:0.0 7:0.0 8:0.0 9:0.0 10:0.0 11:0.0 12:0.0 13:0.0 14:0.0 15:0.0 16:0.0 17:0.0 18:0.0 19:0.0 20:0.0 21:0.0 22:0.0 23:0.0 24:0.36787944117144233 25:1.0 26:0.5785862941142949 27:0.0 28:0.0 29:0.0 30:0.0 31:1.0 32:0.0 33:0.0 34:0.0 35:0.0 
1.0 0:1.0 1:1.0 2:1.0 3:0.0 4:0.0 5:0.0 6:0.0 7:0.0 8:0.0 9:0.0 10:0.0 11:0.0 12:0.0 13:0.0 14:0.0 15:0.0 16:0.0 17:0.0 18:0.0 19:0.0 20:0.0 21:0.0 22:0.0 23:0.0 24:0.36787944117144233 25:1.0 26:0.5785862941142949 27:0.0 28:0.0 29:0.0 30:1.0 31:0.0 32:0.0 33:0.0 34:0.0 35:0.0 
1.0 0:1.0 1:1.0 2:1.0 3:0.0 4:0.0 5:0.0 6:0.0 7:0.0 8:0.0 9:0.0 10:0.0 11:0.0 12:0.0 13:0.0 14:0.0 15:0.0 16:0.0 17:0.0 18:0.0 19:0.0 20:0.0 21:0.0 22:0.0 23:0.0 24:0.36787944117144233 25:1.0 26:0.5785862941142949 27:0.0 28:0.0 29:0.0 30:0.0 31:1.0 32:0.0 33:0.0 34:0.0 35:0.0 
1.0 0:1.0 1:1.0 2:1.0 3:0.0 4:0.0 5:0.0 6:0.0 7:0.0 8:0.0 9:0.0 10:0.0 11:0.0 12:0.0 13:0.0 14:0.0 15:0.0 16:0.0 17:0.0 18:0.0 19:0.0 20:0.0 21:0.0 22:0.0 23:0.0 24:0.36787944117144233 25:1.0 26:0.5785862941142949 27:0.0 28:0.0 29:0.0 30:0.0 31:1.0 32:0.0 33:0.0 34:0.0 35:0.0 
1.0 0:1.0 1:1.0 2:1.0 3:0.0 4:0.0 5:0.0 6:0.0 7:0.0 8:0.0 9:0.0 10:0.0 11:0.0 12:0.0 13:0.0 14:0.0 15:0.0 16:0.0 17:0.0 18:0.0 19:0.0 20:0.0 21:0.0 22:0.0 23:0.0 24:0.36787944117144233 25:1.0 26:0.5785862941142949 27:0.0 28:0.0 29:0.0 30:1.0 31:0.0 32:0.0 33:0.0 34:0.0 35:0.0 
1.0 0:1.0 1:1.0 2:1.0 3:0.0 4:0.0 5:0.0 6:0.0 7:0.0 8:0.0 9:0.0 10:0.0 11:0.0 12:0.0 13:0.0 14:0.0 15:0.0 16:0.0 17:0.0 18:0.0 19:0.0 20:0.0 21:0.0 22:0.0 23:0.0 24:0.36787944117144233 25:1.0 26:0.5785862941142949 27:0.0 28:0.0 29:0.0 30:1.0 31:0.0 32:0.0 33:0.0 34:0.0 35:0.0 
1.0 0:1.0 1:1.0 2:1.0 3:0.0 4:0.0 5:0.0 6:0.0 7:0.0 8:0.0 9:0.0 10:0.0 11:0.0 12:0.0 13:0.0 14:0.0 15:0.0 16:0.0 17:0.0 18:0.0 19:0.0 20:0.0 21:0.0 22:0.0 23:0.0 24:0.36787944117144233 25:1.0 26:0.5785862941142949 27:0.0 28:0.0 29:0.0 30:1.0 31:0.0 32:0.0 33:0.0 34:0.0 35:0.0 
1.0 0:1.0 1:1.0 2:1.0 3:0.0 4:0.0 5:0.0 6:0.0 7:0.0 8:0.0 9:0.0 10:0.0 11:0.0 12:0.0 13:0.0 14:0.0 15:0.0 16:0.0 17:0.0 18:0.0 19:0.0 20:0.0 21:0.0 22:0.0 23:0.0 24:0.36787944117144233 25:1.0 26:0.5785862941142949 27:0.0 28:0.0 29:0.0 30:0.0 31:1.0 32:0.0 33:0.0 34:0.0 35:0.0 
1.0 0:1.0 1:1.0 2:1.0 3:0.0 4:0.0 5:0.0 6:0.0 7:0.0 8:0.0 9:0.0 10:0.0 11:0.0 12:0.0 13:0.0 14:0.0 15:0.0 16:0.0 17:0.0 18:0.0 19:0.0 20:0.0 21:0.0 22:0.0 23:0.0 24:0.36787944117144233 25:1.0 26:0.5785862941142949 27:0.0 28:0.0 29:0.0 30:1.0 31:0.0 32:0.0 33:0.0 34:0.0 35:0.0 
1.0 0:1.0 1:1.0 2:1.0 3:0.0 4:0.0 5:0.0 6:0.0 7:0.0 8:0.0 9:0.0 10:0.0 11:0.0 12:0.0 13:0.0 14:0.0 15:0.0 16:0.0 17:0.0 18:0.0 19:0.0 20:0.0 21:0.0 22:0.0 23:0.0 24:0.36787944117144233 25:1.0 26:0.5785862941142949 27:0.0 28:0.0 29:0.0 30:1.0 31:0.0 32:0.0 33:0.0 34:0.0 35:0.0 
1.0 0:1.0 1:1.0 2:1.0 3:0.0 4:0.0 5:0.0 6:0.0 7:0.0 8:0.0 9:0.0 10:0.0 11:0.0 12:0.0 13:0.0 14:0.0 15:0.0 16:0.0 17:0.0 18:0.0 19:0.0 20:0.0 21:0.0 22:0.0 23:0.0 24:0.36787944117144233 25:1.0 26:0.5785862941142949 27:0.0 28:0.0 29:0.0 30:1.0 31:0.0 32:0.0 33:0.0 34:0.0 35:0.0 
1.0 0:1.0 1:1.0 2:1.0 3:0.0 4:0.0 5:0.0 6:0.0 7:0.0 8:0.0 9:0.0 10:0.0 11:0.0 12:0.0 13:0.0 14:0.0 15:0.0 16:0.0 17:0.0 18:0.0 19:0.0 20:0.0 21:0.0 22:0.0 23:0.0 24:0.36787944117144233 25:1.0 26:0.5785862941142949 27:0.0 28:0.0 29:0.0 30:0.0 31:1.0 32:0.0 33:0.0 34:0.0 35:0.0 
1.0 0:1.0 1:1.0 2:1.0 3:0.0 4:0.0 5:0.0 6:0.0 7:0.0 8:0.0 9:0.0 10:0.0 11:0.0 12:0.0 13:0.0 14:0.0 15:0.0 16:0.0 17:0.0 18:0.0 19:0.0 20:0.0 21:0.0 22:0.0 23:0.0 24:0.36787944117144233 25:1.0 26:0.5785862941142949 27:0.0 28:0.0 29:0.0 30:0.0 31:1.0 32:0.0 33:0.0 34:0.0 35:0.0 
1.0 0:1.0 1:1.0 2:1.0 3:0.0 4:0.0 5:0.0 6:0.0 7:0.0 8:0.0 9:0.0 10:0.0 11:0.0 12:0.0 13:0.0 14:0.0 15:0.0 16:0.0 17:0.0 18:0.0 19:0.0 20:0.0 21:0.0 22:0.0 23:0.0 24:0.36787944117144233 25:1.0 26:0.5785862941142949 27:0.0 28:0.0 29:0.0 30:1.0 31:0.0 32:0.0 33:0.0 34:0.0 35:0.0 
1.0 0:1.0 1:1.0 2:1.0 3:0.0 4:0.0 5:0.0 6:0.0 7:0.0 8:0.0 9:0.0 10:0.0 11:0.0 12:0.0 13:0.0 14:0.0 15:0.0 16:0.0 17:0.0 18:0.0 19:0.0 20:0.0 21:0.0 22:0.0 23:0.0 24:0.36787944117144233 25:1.0 26:0.5785862941142949 27:0.0 28:0.0 29:0.0 30:1.0 31:0.0 32:0.0 33:0.0 34:0.0 35:0.0 
1.0 0:0.5 1:1.0 2:0.6666666666666666 3:0.0 4:0.4999999999999999 5:0.33333333333333326 6:0.0 7:0.5 8:0.3333333333333333 9:0.0 10:0.22474487139158894 11:0.1498299142610593 12:0.0 13:0.14471424255333187 14:0.09647616170222124 15:0.0 16:0.5 17:0.3333333333333333 18:0.0 19:0.0 20:0.0 21:0.0 22:0.0 23:0.0 24:0.36787944117144233 25:1.0 26:0.7892931470571475 27:0.5 28:0.22474487139158894 29:0.14471424255333187 30:0.0 31:1.0 32:0.0 33:0.0 34:0.0 35:0.0 
1.0 0:1.0 1:1.0 2:1.0 3:0.0 4:0.0 5:0.0 6:0.0 7:0.0 8:0.0 9:0.0 10:0.0 11:0.0 12:0.0 13:0.0 14:0.0 15:0.0 16:0.0 17:0.0 18:0.0 19:0.0 20:0.0 21:0.0 22:0.0 23:0.0 24:0.36787944117144233 25:1.0 26:0.5785862941142949 27:0.0 28:0.0 29:0.0 30:0.0 31:1.0 32:0.0 33:0.0 34:0.0 35:0.0 
1.0 0:1.0 1:1.0 2:1.0 3:0.0 4:0.0 5:0.0 6:0.0 7:0.0 8:0.0 9:0.0 10:0.0 11:0.0 12:0.0 13:0.0 14:0.0 15:0.0 16:0.0 17:0.0 18:0.0 19:0.0 20:0.0 21:0.0 22:0.0 23:0.0 24:0.36787944117144233 25:1.0 26:0.5785862941142949 27:0.0 28:0.0 29:0.0 30:1.0 31:0.0 32:0.0 33:0.0 34:0.0 35:0.0 
1.0 0:1.0 1:1.0 2:1.0 3:0.0 4:0.0 5:0.0 6:0.0 7:0.0 8:0.0 9:0.0 10:0.0 11:0.0 12:0.0 13:0.0 14:0.0 15:0.0 16:0.0 17:0.0 18:0.0 19:0.0 20:0.0 21:0.0 22:0.0 23:0.0 24:0.36787944117144233 25:1.0 26:0.5785862941142949 27:0.0 28:0.0 29:0.0 30:1.0 31:0.0 32:0.0 33:0.0 34:0.0 35:0.0 
1.0 0:1.0 1:1.0 2:1.0 3:0.0 4:0.0 5:0.0 6:0.0 7:0.0 8:0.0 9:0.0 10:0.0 11:0.0 12:0.0 13:0.0 14:0.0 15:0.0 16:0.0 17:0.0 18:0.0 19:0.0 20:0.0 21:0.0 22:0.0 23:0.0 24:0.36787944117144233 25:1.0 26:0.5785862941142949 27:0.0 28:0.0 29:0.0 30:0.0 31:1.0 32:0.0 33:0.0 34:0.0 35:0.0 
1.0 0:0.5 1:1.0 2:0.6666666666666666 3:0.0 4:0.4999999999999999 5:0.33333333333333326 6:0.0 7:0.5 8:0.3333333333333333 9:0.0 10:0.22474487139158894 11:0.1498299142610593 12:0.0 13:0.14471424255333187 14:0.09647616170222124 15:0.0 16:0.5 17:0.3333333333333333 18:0.0 19:0.0 20:0.0 21:0.0 22:0.0 23:0.0 24:0.36787944117144233 25:1.0 26:0.7892931470571475 27:0.5 28:0.22474487139158894 29:0.14471424255333187 30:0.5 31:0.5 32:0.0 33:1.0 34:0.0 35:0.0 
1.0 0:1.0 1:1.0 2:1.0 3:0.0 4:0.0 5:0.0 6:0.0 7:0.0 8:0.0 9:0.0 10:0.0 11:0.0 12:0.0 13:0.0 14:0.0 15:0.0 16:0.0 17:0.0 18:0.0 19:0.0 20:0.0 21:0.0 22:0.0 23:0.0 24:0.36787944117144233 25:1.0 26:0.5785862941142949 27:0.0 28:0.0 29:0.0 30:1.0 31:0.0 32:0.0 33:0.0 34:0.0 35:0.0 
1.0 0:1.0 1:1.0 2:1.0 3:0.0 4:0.0 5:0.0 6:0.0 7:0.0 8:0.0 9:0.0 10:0.0 11:0.0 12:0.0 13:0.0 14:0.0 15:0.0 16:0.0 17:0.0 18:0.0 19:0.0 20:0.0 21:0.0 22:0.0 23:0.0 24:0.36787944117144233 25:1.0 26:0.5785862941142949 27:0.0 28:0.0 29:0.0 30:1.0 31:0.0 32:0.0 33:0.0 34:0.0 35:0.0 
1.0 0:1.0 1:1.0 2:1.0 3:0.0 4:0.0 5:0.0 6:0.0 7:0.0 8:0.0 9:0.0 10:0.0 11:0.0 12:0.0 13:0.0 14:0.0 15:0.0 16:0.0 17:0.0 18:0.0 19:0.0 20:0.0 21:0.0 22:0.0 23:0.0 24:0.36787944117144233 25:1.0 26:0.5785862941142949 27:0.0 28:0.0 29:0.0 30:1.0 31:0.0 32:0.0 33:0.0 34:0.0 35:0.0 
1.0 0:1.0 1:1.0 2:1.0 3:0.0 4:0.0 5:0.0 6:0.0 7:0.0 8:0.0 9:0.0 10:0.0 11:0.0 12:0.0 13:0.0 14:0.0 15:0.0 16:0.0 17:0.0 18:0.0 19:0.0 20:0.0 21:0.0 22:0.0 23:0.0 24:0.36787944117144233 25:1.0 26:0.5785862941142949 27:0.0 28:0.0 29:0.0 30:0.0 31:1.0 32:0.0 33:0.0 34:0.0 35:0.0 
1.0 0:1.0 1:1.0 2:1.0 3:0.0 4:0.0 5:0.0 6:0.0 7:0.0 8:0.0 9:0.0 10:0.0 11:0.0 12:0.0 13:0.0 14:0.0 15:0.0 16:0.0 17:0.0 18:0.0 19:0.0 20:0.0 21:0.0 22:0.0 23:0.0 24:0.36787944117144233 25:1.0 26:0.5785862941142949 27:0.0 28:0.0 29:0.0 30:1.0 31:0.0 32:0.0 33:0.0 34:0.0 35:0.0 
1.0 0:1.0 1:1.0 2:1.0 3:0.0 4:0.0 5:0.0 6:0.0 7:0.0 8:0.0 9:0.0 10:0.0 11:0.0 12:0.0 13:0.0 14:0.0 15:0.0 16:0.0 17:0.0 18:0.0 19:0.0 20:0.0 21:0.0 22:0.0 23:0.0 24:0.36787944117144233 25:1.0 26:0.5785862941142949 27:0.0 28:0.0 29:0.0 30:1.0 31:0.0 32:0.0 33:0.0 34:0.0 35:0.0 
1.0 0:1.0 1:1.0 2:1.0 3:0.0 4:0.0 5:0.0 6:0.0 7:0.0 8:0.0 9:0.0 10:0.0 11:0.0 12:0.0 13:0.0 14:0.0 15:0.0 16:0.0 17:0.0 18:0.0 19:0.0 20:0.0 21:0.0 22:0.0 23:0.0 24:0.36787944117144233 25:1.0 26:0.5785862941142949 27:0.0 28:0.0 29:0.0 30:1.0 31:0.0 32:0.0 33:0.0 34:0.0 35:0.0 
1.0 0:1.0 1:1.0 2:1.0 3:0.0 4:0.0 5:0.0 6:0.0 7:0.0 8:0.0 9:0.0 10:0.0 11:0.0 12:0.0 13:0.0 14:0.0 15:0.0 16:0.0 17:0.0 18:0.0 19:0.0 20:0.0 21:0.0 22:0.0 23:0.0 24:0.36787944117144233 25:1.0 26:0.5785862941142949 27:0.0 28:0.0 29:0.0 30:1.0 31:0.0 32:0.0 33:0.0 34:0.0 35:0.0 
1.0 0:1.0 1:1.0 2:1.0 3:0.0 4:0.0 5:0.0 6:0.0 7:0.0 8:0.0 9:0.0 10:0.0 11:0.0 12:0.0 13:0.0 14:0.0 15:0.0 16:0.0 17:0.0 18:0.0 19:0.0 20:0.0 21:0.0 22:0.0 23:0.0 24:0.36787944117144233 25:1.0 26:0.5785862941142949 27:0.0 28:0.0 29:0.0 30:1.0 31:0.0 32:0.0 33:0.0 34:0.0 35:0.0 
1.0 0:1.0 1:1.0 2:1.0 3:0.0 4:0.0 5:0.0 6:0.0 7:0.0 8:0.0 9:0.0 10:0.0 11:0.0 12:0.0 13:0.0 14:0.0 15:0.0 16:0.0 17:0.0 18:0.0 19:0.0 20:0.0 21:0.0 22:0.0 23:0.0 24:0.36787944117144233 25:1.0 26:0.5785862941142949 27:0.0 28:0.0 29:0.0 30:1.0 31:0.0 32:0.0 33:0.0 34:0.0 35:0.0 
1.0 0:1.0 1:1.0 2:1.0 3:0.0 4:0.0 5:0.0 6:0.0 7:0.0 8:0.0 9:0.0 10:0.0 11:0.0 12:0.0 13:0.0 14:0.0 15:0.0 16:0.0 17:0.0 18:0.0 19:0.0 20:0.0 21:0.0 22:0.0 23:0.0 24:0.36787944117144233 25:1.0 26:0.5785862941142949 27:0.0 28:0.0 29:0.0 30:0.0 31:1.0 32:0.0 33:0.0 34:0.0 35:0.0 
1.0 0:1.0 1:1.0 2:1.0 3:0.0 4:0.0 5:0.0 6:0.0 7:0.0 8:0.0 9:0.0 10:0.0 11:0.0 12:0.0 13:0.0 14:0.0 15:0.0 16:0.0 17:0.0 18:0.0 19:0.0 20:0.0 21:0.0 22:0.0 23:0.0 24:0.36787944117144233 25:1.0 26:0.5785862941142949 27:0.0 28:0.0 29:0.0 30:1.0 31:0.0 32:0.0 33:0.0 34:0.0 35:0.0 
1.0 0:1.0 1:1.0 2:1.0 3:0.0 4:0.0 5:0.0 6:0.0 7:0.0 8:0.0 9:0.0 10:0.0 11:0.0 12:0.0 13:0.0 14:0.0 15:0.0 16:0.0 17:0.0 18:0.0 19:0.0 20:0.0 21:0.0 22:0.0 23:0.0 24:0.36787944117144233 25:1.0 26:0.5785862941142949 27:0.0 28:0.0 29:0.0 30:1.0 31:0.0 32:0.0 33:0.0 34:0.0 35:0.0 
1.0 0:0.5 1:1.0 2:0.6666666666666666 3:0.0 4:0.4999999999999999 5:0.33333333333333326 6:0.0 7:0.5 8:0.3333333333333333 9:0.0 10:0.22474487139158894 11:0.1498299142610593 12:0.0 13:0.14471424255333187 14:0.09647616170222124 15:0.0 16:0.5 17:0.3333333333333333 18:0.0 19:0.0 20:0.0 21:0.0 22:0.0 23:0.0 24:0.36787944117144233 25:1.0 26:0.7892931470571475 27:0.5 28:0.22474487139158894 29:0.14471424255333187 30:0.5 31:0.5 32:0.0 33:1.0 34:0.0 35:0.0 
1.0 0:1.0 1:1.0 2:1.0 3:0.0 4:0.0 5:0.0 6:0.0 7:0.0 8:0.0 9:0.0 10:0.0 11:0.0 12:0.0 13:0.0 14:0.0 15:0.0 16:0.0 17:0.0 18:0.0 19:0.0 20:0.0 21:0.0 22:0.0 23:0.0 24:0.36787944117144233 25:1.0 26:0.5785862941142949 27:0.0 28:0.0 29:0.0 30:1.0 31:0.0 32:0.0 33:0.0 34:0.0 35:0.0 
1.0 0:1.0 1:1.0 2:1.0 3:0.0 4:0.0 5:0.0 6:0.0 7:0.0 8:0.0 9:0.0 10:0.0 11:0.0 12:0.0 13:0.0 14:0.0 15:0.0 16:0.0 17:0.0 18:0.0 19:0.0 20:0.0 21:0.0 22:0.0 23:0.0 24:0.36787944117144233 25:1.0 26:0.5785862941142949 27:0.0 28:0.0 29:0.0 30:1.0 31:0.0 32:0.0 33:0.0 34:0.0 35:0.0 
1.0 0:1.0 1:1.0 2:1.0 3:0.0 4:0.0 5:0.0 6:0.0 7:0.0 8:0.0 9:0.0 10:0.0 11:0.0 12:0.0 13:0.0 14:0.0 15:0.0 16:0.0 17:0.0 18:0.0 19:0.0 20:0.0 21:0.0 22:0.0 23:0.0 24:0.36787944117144233 25:1.0 26:0.5785862941142949 27:0.0 28:0.0 29:0.0 30:1.0 31:0.0 32:0.0 33:0.0 34:0.0 35:0.0 
1.0 0:1.0 1:1.0 2:1.0 3:0.0 4:0.0 5:0.0 6:0.0 7:0.0 8:0.0 9:0.0 10:0.0 11:0.0 12:0.0 13:0.0 14:0.0 15:0.0 16:0.0 17:0.0 18:0.0 19:0.0 20:0.0 21:0.0 22:0.0 23:0.0 24:0.36787944117144233 25:1.0 26:0.5785862941142949 27:0.0 28:0.0 29:0.0 30:1.0 31:0.0 32:0.0 33:0.0 34:0.0 35:0.0 
1.0 0:1.0 1:1.0 2:1.0 3:0.0 4:0.0 5:0.0 6:0.0 7:0.0 8:0.0 9:0.0 10:0.0 11:0.0 12:0.0 13:0.0 14:0.0 15:0.0 16:0.0 17:0.0 18:0.0 19:0.0 20:0.0 21:0.0 22:0.0 23:0.0 24:0.36787944117144233 25:1.0 26:0.5785862941142949 27:0.0 28:0.0 29:0.0 30:1.0 31:0.0 32:0.0 33:0.0 34:0.0 35:0.0 
1.0 0:1.0 1:1.0 2:1.0 3:0.0 4:0.0 5:0.0 6:0.0 7:0.0 8:0.0 9:0.0 10:0.0 11:0.0 12:0.0 13:0.0 14:0.0 15:0.0 16:0.0 17:0.0 18:0.0 19:0.0 20:0.0 21:0.0 22:0.0 23:0.0 24:0.36787944117144233 25:1.0 26:0.5785862941142949 27:0.0 28:0.0 29:0.0 30:0.0 31:1.0 32:0.0 33:0.0 34:0.0 35:0.0 
1.0 0:1.0 1:1.0 2:1.0 3:0.0 4:0.0 5:0.0 6:0.0 7:0.0 8:0.0 9:0.0 10:0.0 11:0.0 12:0.0 13:0.0 14:0.0 15:0.0 16:0.0 17:0.0 18:0.0 19:0.0 20:0.0 21:0.0 22:0.0 23:0.0 24:0.36787944117144233 25:1.0 26:0.5785862941142949 27:0.0 28:0.0 29:0.0 30:1.0 31:0.0 32:0.0 33:0.0 34:0.0 35:0.0 
1.0 0:1.0 1:1.0 2:1.0 3:0.0 4:0.0 5:0.0 6:0.0 7:0.0 8:0.0 9:0.0 10:0.0 11:0.0 12:0.0 13:0.0 14:0.0 15:0.0 16:0.0 17:0.0 18:0.0 19:0.0 20:0.0 21:0.0 22:0.0 23:0.0 24:0.36787944117144233 25:1.0 26:0.5785862941142949 27:0.0 28:0.0 29:0.0 30:1.0 31:0.0 32:0.0 33:0.0 34:0.0 35:0.0 
1.0 0:1.0 1:1.0 2:1.0 3:0.0 4:0.0 5:0.0 6:0.0 7:0.0 8:0.0 9:0.0 10:0.0 11:0.0 12:0.0 13:0.0 14:0.0 15:0.0 16:0.0 17:0.0 18:0.0 19:0.0 20:0.0 21:0.0 22:0.0 23:0.0 24:0.36787944117144233 25:1.0 26:0.5785862941142949 27:0.0 28:0.0 29:0.0 30:1.0 31:0.0 32:0.0 33:0.0 34:0.0 35:0.0 
1.0 0:0.5 1:1.0 2:0.6666666666666666 3:0.0 4:0.4999999999999999 5:0.33333333333333326 6:0.0 7:0.5 8:0.3333333333333333 9:0.0 10:0.22474487139158894 11:0.1498299142610593 12:0.0 13:0.14471424255333187 14:0.09647616170222124 15:0.0 16:0.5 17:0.3333333333333333 18:0.0 19:0.0 20:0.0 21:0.0 22:0.0 23:0.0 24:0.36787944117144233 25:1.0 26:0.7892931470571475 27:0.5 28:0.22474487139158894 29:0.14471424255333187 30:0.5 31:0.5 32:0.0 33:1.0 34:0.0 35:0.0 
1.0 0:0.5 1:1.0 2:0.6666666666666666 3:0.0 4:0.4999999999999999 5:0.33333333333333326 6:0.0 7:0.5 8:0.3333333333333333 9:0.0 10:0.22474487139158894 11:0.1498299142610593 12:0.0 13:0.14471424255333187 14:0.09647616170222124 15:0.0 16:0.5 17:0.3333333333333333 18:0.0 19:0.0 20:0.0 21:0.0 22:0.0 23:0.0 24:0.36787944117144233 25:1.0 26:0.7892931470571475 27:0.5 28:0.22474487139158894 29:0.14471424255333187 30:0.5 31:0.5 32:0.0 33:1.0 34:0.0 35:0.0 
1.0 0:1.0 1:1.0 2:1.0 3:0.0 4:0.0 5:0.0 6:0.0 7:0.0 8:0.0 9:0.0 10:0.0 11:0.0 12:0.0 13:0.0 14:0.0 15:0.0 16:0.0 17:0.0 18:0.0 19:0.0 20:0.0 21:0.0 22:0.0 23:0.0 24:0.36787944117144233 25:1.0 26:0.5785862941142949 27:0.0 28:0.0 29:0.0 30:1.0 31:0.0 32:0.0 33:0.0 34:0.0 35:0.0 
1.0 0:1.0 1:1.0 2:1.0 3:0.0 4:0.0 5:0.0 6:0.0 7:0.0 8:0.0 9:0.0 10:0.0 11:0.0 12:0.0 13:0.0 14:0.0 15:0.0 16:0.0 17:0.0 18:0.0 19:0.0 20:0.0 21:0.0 22:0.0 23:0.0 24:0.36787944117144233 25:1.0 26:0.5785862941142949 27:0.0 28:0.0 29:0.0 30:0.0 31:1.0 32:0.0 33:0.0 34:0.0 35:0.0 
1.0 0:1.0 1:1.0 2:1.0 3:0.0 4:0.0 5:0.0 6:0.0 7:0.0 8:0.0 9:0.0 10:0.0 11:0.0 12:0.0 13:0.0 14:0.0 15:0.0 16:0.0 17:0.0 18:0.0 19:0.0 20:0.0 21:0.0 22:0.0 23:0.0 24:0.36787944117144233 25:1.0 26:0.5785862941142949 27:0.0 28:0.0 29:0.0 30:1.0 31:0.0 32:0.0 33:0.0 34:0.0 35:0.0 
1.0 0:1.0 1:1.0 2:1.0 3:0.0 4:0.0 5:0.0 6:0.0 7:0.0 8:0.0 9:0.0 10:0.0 11:0.0 12:0.0 13:0.0 14:0.0 15:0.0 16:0.0 17:0.0 18:0.0 19:0.0 20:0.0 21:0.0 22:0.0 23:0.0 24:0.36787944117144233 25:1.0 26:0.5785862941142949 27:0.0 28:0.0 29:0.0 30:0.0 31:1.0 32:0.0 33:0.0 34:0.0 35:0.0 
1.0 0:1.0 1:1.0 2:1.0 3:0.0 4:0.0 5:0.0 6:0.0 7:0.0 8:0.0 9:0.0 10:0.0 11:0.0 12:0.0 13:0.0 14:0.0 15:0.0 16:0.0 17:0.0 18:0.0 19:0.0 20:0.0 21:0.0 22:0.0 23:0.0 24:0.36787944117144233 25:1.0 26:0.5785862941142949 27:0.0 28:0.0 29:0.0 30:1.0 31:0.0 32:0.0 33:0.0 34:0.0 35:0.0 
1.0 0:1.0 1:1.0 2:1.0 3:0.0 4:0.0 5:0.0 6:0.0 7:0.0 8:0.0 9:0.0 10:0.0 11:0.0 12:0.0 13:0.0 14:0.0 15:0.0 16:0.0 17:0.0 18:0.0 19:0.0 20:0.0 21:0.0 22:0.0 23:0.0 24:0.36787944117144233 25:1.0 26:0.5785862941142949 27:0.0 28:0.0 29:0.0 30:0.0 31:1.0 32:0.0 33:0.0 34:0.0 35:0.0 
1.0 0:1.0 1:1.0 2:1.0 3:0.0 4:0.0 5:0.0 6:0.0 7:0.0 8:0.0 9:0.0 10:0.0 11:0.0 12:0.0 13:0.0 14:0.0 15:0.0 16:0.0 17:0.0 18:0.0 19:0.0 20:0.0 21:0.0 22:0.0 23:0.0 24:0.36787944117144233 25:1.0 26:0.5785862941142949 27:0.0 28:0.0 29:0.0 30:1.0 31:0.0 32:0.0 33:0.0 34:0.0 35:0.0 
1.0 0:1.0 1:1.0 2:1.0 3:0.0 4:0.0 5:0.0 6:0.0 7:0.0 8:0.0 9:0.0 10:0.0 11:0.0 12:0.0 13:0.0 14:0.0 15:0.0 16:0.0 17:0.0 18:0.0 19:0.0 20:0.0 21:0.0 22:0.0 23:0.0 24:0.36787944117144233 25:1.0 26:0.5785862941142949 27:0.0 28:0.0 29:0.0 30:1.0 31:0.0 32:0.0 33:0.0 34:0.0 35:0.0 
1.0 0:1.0 1:1.0 2:1.0 3:0.0 4:0.0 5:0.0 6:0.0 7:0.0 8:0.0 9:0.0 10:0.0 11:0.0 12:0.0 13:0.0 14:0.0 15:0.0 16:0.0 17:0.0 18:0.0 19:0.0 20:0.0 21:0.0 22:0.0 23:0.0 24:0.36787944117144233 25:1.0 26:0.5785862941142949 27:0.0 28:0.0 29:0.0 30:0.0 31:1.0 32:0.0 33:0.0 34:0.0 35:0.0 
1.0 0:1.0 1:1.0 2:1.0 3:0.0 4:0.0 5:0.0 6:0.0 7:0.0 8:0.0 9:0.0 10:0.0 11:0.0 12:0.0 13:0.0 14:0.0 15:0.0 16:0.0 17:0.0 18:0.0 19:0.0 20:0.0 21:0.0 22:0.0 23:0.0 24:0.36787944117144233 25:1.0 26:0.5785862941142949 27:0.0 28:0.0 29:0.0 30:1.0 31:0.0 32:0.0 33:0.0 34:0.0 35:0.0 
1.0 0:1.0 1:1.0 2:1.0 3:0.0 4:0.0 5:0.0 6:0.0 7:0.0 8:0.0 9:0.0 10:0.0 11:0.0 12:0.0 13:0.0 14:0.0 15:0.0 16:0.0 17:0.0 18:0.0 19:0.0 20:0.0 21:0.0 22:0.0 23:0.0 24:0.36787944117144233 25:1.0 26:0.5785862941142949 27:0.0 28:0.0 29:0.0 30:0.0 31:1.0 32:0.0 33:0.0 34:0.0 35:0.0 
1.0 0:1.0 1:1.0 2:1.0 3:0.0 4:0.0 5:0.0 6:0.0 7:0.0 8:0.0 9:0.0 10:0.0 11:0.0 12:0.0 13:0.0 14:0.0 15:0.0 16:0.0 17:0.0 18:0.0 19:0.0 20:0.0 21:0.0 22:0.0 23:0.0 24:0.36787944117144233 25:1.0 26:0.5785862941142949 27:0.0 28:0.0 29:0.0 30:1.0 31:0.0 32:0.0 33:0.0 34:0.0 35:0.0 
1.0 0:1.0 1:1.0 2:1.0 3:0.0 4:0.0 5:0.0 6:0.0 7:0.0 8:0.0 9:0.0 10:0.0 11:0.0 12:0.0 13:0.0 14:0.0 15:0.0 16:0.0 17:0.0 18:0.0 19:0.0 20:0.0 21:0.0 22:0.0 23:0.0 24:0.36787944117144233 25:1.0 26:0.5785862941142949 27:0.0 28:0.0 29:0.0 30:1.0 31:0.0 32:0.0 33:0.0 34:0.0 35:0.0 
1.0 0:0.6666666666666666 1:1.0 2:0.7777777777777777 3:0.0 4:0.40824829046386296 5:0.2721655269759086 6:0.0 7:0.33333333333333326 8:0.22222222222222218 9:0.0 10:0.15470053837925146 11:0.10313369225283431 12:0.0 13:0.10064241629820891 14:0.06709494419880595 15:0.0 16:0.3333333333333333 17:0.2222222222222222 18:0.0 19:0.0 20:0.0 21:0.0 22:0.0 23:0.0 24:0.1353352832366127 25:0.6065306597126334 26:0.4494655342206266 27:0.33333333333333326 28:0.15470053837925146 29:0.10064241629820891 30:0.3333333333333333 31:0.3333333333333333 32:0.0 33:0.5 34:0.0 35:0.0 
1.0 0:1.0 1:1.0 2:1.0 3:0.0 4:0.0 5:0.0 6:0.0 7:0.0 8:0.0 9:0.0 10:0.0 11:0.0 12:0.0 13:0.0 14:0.0 15:0.0 16:0.0 17:0.0 18:0.0 19:0.0 20:0.0 21:0.0 22:0.0 23:0.0 24:0.36787944117144233 25:1.0 26:0.5785862941142949 27:0.0 28:0.0 29:0.0 30:1.0 31:0.0 32:0.0 33:0.0 34:0.0 35:0.0 
1.0 0:1.0 1:1.0 2:1.0 3:0.0 4:0.0 5:0.0 6:0.0 7:0.0 8:0.0 9:0.0 10:0.0 11:0.0 12:0.0 13:0.0 14:0.0 15:0.0 16:0.0 17:0.0 18:0.0 19:0.0 20:0.0 21:0.0 22:0.0 23:0.0 24:0.36787944117144233 25:1.0 26:0.5785862941142949 27:0.0 28:0.0 29:0.0 30:0.0 31:1.0 32:0.0 33:0.0 34:0.0 35:0.0 
1.0 0:1.0 1:1.0 2:1.0 3:0.0 4:0.0 5:0.0 6:0.0 7:0.0 8:0.0 9:0.0 10:0.0 11:0.0 12:0.0 13:0.0 14:0.0 15:0.0 16:0.0 17:0.0 18:0.0 19:0.0 20:0.0 21:0.0 22:0.0 23:0.0 24:0.36787944117144233 25:1.0 26:0.5785862941142949 27:0.0 28:0.0 29:0.0 30:0.0 31:1.0 32:0.0 33:0.0 34:0.0 35:0.0 
1.0 0:1.0 1:1.0 2:1.0 3:0.0 4:0.0 5:0.0 6:0.0 7:0.0 8:0.0 9:0.0 10:0.0 11:0.0 12:0.0 13:0.0 14:0.0 15:0.0 16:0.0 17:0.0 18:0.0 19:0.0 20:0.0 21:0.0 22:0.0 23:0.0 24:0.36787944117144233 25:1.0 26:0.5785862941142949 27:0.0 28:0.0 29:0.0 30:0.0 31:1.0 32:0.0 33:0.0 34:0.0 35:0.0 
1.0 0:1.0 1:1.0 2:1.0 3:0.0 4:0.0 5:0.0 6:0.0 7:0.0 8:0.0 9:0.0 10:0.0 11:0.0 12:0.0 13:0.0 14:0.0 15:0.0 16:0.0 17:0.0 18:0.0 19:0.0 20:0.0 21:0.0 22:0.0 23:0.0 24:0.36787944117144233 25:1.0 26:0.5785862941142949 27:0.0 28:0.0 29:0.0 30:0.0 31:0.0 32:0.0 33:0.0 34:0.0 35:0.0 
1.0 0:1.0 1:1.0 2:1.0 3:0.0 4:0.0 5:0.0 6:0.0 7:0.0 8:0.0 9:0.0 10:0.0 11:0.0 12:0.0 13:0.0 14:0.0 15:0.0 16:0.0 17:0.0 18:0.0 19:0.0 20:0.0 21:0.0 22:0.0 23:0.0 24:0.36787944117144233 25:1.0 26:0.5785862941142949 27:0.0 28:0.0 29:0.0 30:0.0 31:1.0 32:0.0 33:0.0 34:0.0 35:0.0 
1.0 0:1.0 1:1.0 2:1.0 3:0.0 4:0.0 5:0.0 6:0.0 7:0.0 8:0.0 9:0.0 10:0.0 11:0.0 12:0.0 13:0.0 14:0.0 15:0.0 16:0.0 17:0.0 18:0.0 19:0.0 20:0.0 21:0.0 22:0.0 23:0.0 24:0.36787944117144233 25:1.0 26:0.5785862941142949 27:0.0 28:0.0 29:0.0 30:0.0 31:0.0 32:0.0 33:0.0 34:0.0 35:0.0 
1.0 0:1.0 1:1.0 2:1.0 3:0.0 4:0.0 5:0.0 6:0.0 7:0.0 8:0.0 9:0.0 10:0.0 11:0.0 12:0.0 13:0.0 14:0.0 15:0.0 16:0.0 17:0.0 18:0.0 19:0.0 20:0.0 21:0.0 22:0.0 23:0.0 24:0.36787944117144233 25:1.0 26:0.5785862941142949 27:0.0 28:0.0 29:0.0 30:0.0 31:1.0 32:0.0 33:0.0 34:0.0 35:0.0 
1.0 0:1.0 1:1.0 2:1.0 3:0.0 4:0.0 5:0.0 6:0.0 7:0.0 8:0.0 9:0.0 10:0.0 11:0.0 12:0.0 13:0.0 14:0.0 15:0.0 16:0.0 17:0.0 18:0.0 19:0.0 20:0.0 21:0.0 22:0.0 23:0.0 24:0.36787944117144233 25:1.0 26:0.5785862941142949 27:0.0 28:0.0 29:0.0 30:0.0 31:1.0 32:0.0 33:0.0 34:0.0 35:0.0 
1.0 0:1.0 1:1.0 2:1.0 3:0.0 4:0.0 5:0.0 6:0.0 7:0.0 8:0.0 9:0.0 10:0.0 11:0.0 12:0.0 13:0.0 14:0.0 15:0.0 16:0.0 17:0.0 18:0.0 19:0.0 20:0.0 21:0.0 22:0.0 23:0.0 24:0.36787944117144233 25:1.0 26:0.5785862941142949 27:0.0 28:0.0 29:0.0 30:0.0 31:0.0 32:0.0 33:0.0 34:0.0 35:0.0 
1.0 0:1.0 1:1.0 2:1.0 3:0.0 4:0.0 5:0.0 6:0.0 7:0.0 8:0.0 9:0.0 10:0.0 11:0.0 12:0.0 13:0.0 14:0.0 15:0.0 16:0.0 17:0.0 18:0.0 19:0.0 20:0.0 21:0.0 22:0.0 23:0.0 24:0.36787944117144233 25:1.0 26:0.5785862941142949 27:0.0 28:0.0 29:0.0 30:0.0 31:0.0 32:0.0 33:0.0 34:0.0 35:0.0 
-1.0 0:0.0 1:0.5 2:0.3333333333333333 3:0.7071067811865475 4:1.0 5:0.8047378541243649 6:0.36787944117144233 7:1.0 8:0.5785862941142949 9:0.15238065385144653 10:0.4142135623730949 11:0.23965829002532932 12:0.09561961058402053 13:0.2599210498948732 14:0.1503867570209714 15:1.0 16:1.0 17:1.0 18:0.0 19:0.0 20:0.0 21:0.0 22:0.0 23:0.0 24:0.36787944117144233 25:1.0 26:0.5785862941142949 27:1.0 28:0.4142135623730949 29:0.2599210498948732 30:1.0 31:0.0 32:0.0 33:0.0 34:0.0 35:0.0 
1.0 0:1.0 1:1.0 2:1.0 3:0.0 4:0.0 5:0.0 6:0.0 7:0.0 8:0.0 9:0.0 10:0.0 11:0.0 12:0.0 13:0.0 14:0.0 15:0.0 16:0.0 17:0.0 18:0.0 19:0.0 20:0.0 21:0.0 22:0.0 23:0.0 24:0.36787944117144233 25:1.0 26:0.5785862941142949 27:0.0 28:0.0 29:0.0 30:0.0 31:1.0 32:0.0 33:0.0 34:0.0 35:0.0 
-1.0 0:0.0 1:0.5 2:0.3333333333333333 3:0.7071067811865475 4:1.0 5:0.8047378541243649 6:0.36787944117144233 7:1.0 8:0.5785862941142949 9:0.15238065385144653 10:0.4142135623730949 11:0.23965829002532932 12:0.09561961058402053 13:0.2599210498948732 14:0.1503867570209714 15:1.0 16:1.0 17:1.0 18:0.0 19:0.0 20:0.0 21:0.0 22:0.0 23:0.0 24:0.36787944117144233 25:1.0 26:0.5785862941142949 27:1.0 28:0.4142135623730949 29:0.2599210498948732 30:1.0 31:0.0 32:0.0 33:0.0 34:0.0 35:0.0 
-1.0 0:1.0 1:1.0 2:1.0 3:0.0 4:0.0 5:0.0 6:0.0 7:0.0 8:0.0 9:0.0 10:0.0 11:0.0 12:0.0 13:0.0 14:0.0 15:0.0 16:0.0 17:0.0 18:0.0 19:0.0 20:0.0 21:0.0 22:0.0 23:0.0 24:0.36787944117144233 25:1.0 26:0.5785862941142949 27:0.0 28:0.0 29:0.0 30:0.0 31:1.0 32:0.0 33:0.0 34:0.0 35:0.0 
-1.0 0:1.0 1:1.0 2:1.0 3:0.0 4:0.0 5:0.0 6:0.0 7:0.0 8:0.0 9:0.0 10:0.0 11:0.0 12:0.0 13:0.0 14:0.0 15:0.0 16:0.0 17:0.0 18:0.0 19:0.0 20:0.0 21:0.0 22:0.0 23:0.0 24:0.36787944117144233 25:1.0 26:0.5785862941142949 27:0.0 28:0.0 29:0.0 30:0.0 31:1.0 32:0.0 33:0.0 34:0.0 35:0.0 
1.0 0:1.0 1:1.0 2:1.0 3:0.0 4:0.0 5:0.0 6:0.0 7:0.0 8:0.0 9:0.0 10:0.0 11:0.0 12:0.0 13:0.0 14:0.0 15:0.0 16:0.0 17:0.0 18:0.0 19:0.0 20:0.0 21:0.0 22:0.0 23:0.0 24:0.36787944117144233 25:1.0 26:0.5785862941142949 27:0.0 28:0.0 29:0.0 30:0.0 31:0.0 32:0.0 33:0.0 34:0.0 35:0.0 
-1.0 0:1.0 1:1.0 2:1.0 3:0.0 4:0.0 5:0.0 6:0.0 7:0.0 8:0.0 9:0.0 10:0.0 11:0.0 12:0.0 13:0.0 14:0.0 15:0.0 16:0.0 17:0.0 18:0.0 19:0.0 20:0.0 21:0.0 22:0.0 23:0.0 24:0.36787944117144233 25:1.0 26:0.5785862941142949 27:0.0 28:0.0 29:0.0 30:0.0 31:1.0 32:0.0 33:0.0 34:0.0 35:0.0 
1.0 0:1.0 1:1.0 2:1.0 3:0.0 4:0.0 5:0.0 6:0.0 7:0.0 8:0.0 9:0.0 10:0.0 11:0.0 12:0.0 13:0.0 14:0.0 15:0.0 16:0.0 17:0.0 18:0.0 19:0.0 20:0.0 21:0.0 22:0.0 23:0.0 24:0.36787944117144233 25:1.0 26:0.5785862941142949 27:0.0 28:0.0 29:0.0 30:0.0 31:0.0 32:0.0 33:0.0 34:0.0 35:0.0 
-1.0 0:1.0 1:1.0 2:1.0 3:0.0 4:0.0 5:0.0 6:0.0 7:0.0 8:0.0 9:0.0 10:0.0 11:0.0 12:0.0 13:0.0 14:0.0 15:0.0 16:0.0 17:0.0 18:0.0 19:0.0 20:0.0 21:0.0 22:0.0 23:0.0 24:0.36787944117144233 25:1.0 26:0.5785862941142949 27:0.0 28:0.0 29:0.0 30:0.0 31:1.0 32:0.0 33:0.0 34:0.0 35:0.0 
-1.0 0:0.5 1:1.0 2:0.6666666666666666 3:0.0 4:0.4999999999999999 5:0.33333333333333326 6:0.0 7:0.5 8:0.3333333333333333 9:0.0 10:0.22474487139158894 11:0.1498299142610593 12:0.0 13:0.14471424255333187 14:0.09647616170222124 15:0.0 16:0.5 17:0.3333333333333333 18:0.0 19:0.0 20:0.0 21:0.0 22:0.0 23:0.0 24:0.36787944117144233 25:1.0 26:0.7892931470571475 27:0.5 28:0.22474487139158894 29:0.14471424255333187 30:0.0 31:1.0 32:0.0 33:0.0 34:0.0 35:0.0 
-1.0 0:1.0 1:1.0 2:1.0 3:0.0 4:0.0 5:0.0 6:0.0 7:0.0 8:0.0 9:0.0 10:0.0 11:0.0 12:0.0 13:0.0 14:0.0 15:0.0 16:0.0 17:0.0 18:0.0 19:0.0 20:0.0 21:0.0 22:0.0 23:0.0 24:0.36787944117144233 25:1.0 26:0.5785862941142949 27:0.0 28:0.0 29:0.0 30:0.0 31:1.0 32:0.0 33:0.0 34:0.0 35:0.0 
-1.0 0:1.0 1:1.0 2:1.0 3:0.0 4:0.0 5:0.0 6:0.0 7:0.0 8:0.0 9:0.0 10:0.0 11:0.0 12:0.0 13:0.0 14:0.0 15:0.0 16:0.0 17:0.0 18:0.0 19:0.0 20:0.0 21:0.0 22:0.0 23:0.0 24:0.36787944117144233 25:1.0 26:0.5785862941142949 27:0.0 28:0.0 29:0.0 30:0.0 31:1.0 32:0.0 33:0.0 34:0.0 35:0.0 
1.0 0:1.0 1:1.0 2:1.0 3:0.0 4:0.0 5:0.0 6:0.0 7:0.0 8:0.0 9:0.0 10:0.0 11:0.0 12:0.0 13:0.0 14:0.0 15:0.0 16:0.0 17:0.0 18:0.0 19:0.0 20:0.0 21:0.0 22:0.0 23:0.0 24:0.36787944117144233 25:1.0 26:0.5785862941142949 27:0.0 28:0.0 29:0.0 30:0.0 31:0.0 32:0.0 33:0.0 34:0.0 35:0.0 
1.0 0:1.0 1:1.0 2:1.0 3:0.0 4:0.0 5:0.0 6:0.0 7:0.0 8:0.0 9:0.0 10:0.0 11:0.0 12:0.0 13:0.0 14:0.0 15:0.0 16:0.0 17:0.0 18:0.0 19:0.0 20:0.0 21:0.0 22:0.0 23:0.0 24:0.36787944117144233 25:1.0 26:0.5785862941142949 27:0.0 28:0.0 29:0.0 30:0.0 31:0.0 32:0.0 33:0.0 34:0.0 35:0.0 
-1.0 0:1.0 1:1.0 2:1.0 3:0.0 4:0.0 5:0.0 6:0.0 7:0.0 8:0.0 9:0.0 10:0.0 11:0.0 12:0.0 13:0.0 14:0.0 15:0.0 16:0.0 17:0.0 18:0.0 19:0.0 20:0.0 21:0.0 22:0.0 23:0.0 24:0.049787068367863944 25:0.36787944117144233 26:0.2618486502369162 27:0.0 28:0.0 29:0.0 30:0.0 31:0.0 32:0.0 33:0.0 34:0.0 35:0.0 
-1.0 0:1.0 1:1.0 2:1.0 3:0.0 4:0.0 5:0.0 6:0.0 7:0.0 8:0.0 9:0.0 10:0.0 11:0.0 12:0.0 13:0.0 14:0.0 15:0.0 16:0.0 17:0.0 18:0.0 19:0.0 20:0.0 21:0.0 22:0.0 23:0.0 24:0.36787944117144233 25:1.0 26:0.5785862941142949 27:0.0 28:0.0 29:0.0 30:0.0 31:0.0 32:0.0 33:0.0 34:0.0 35:0.0 
1.0 0:0.3333333333333333 1:0.5 2:0.38888888888888884 3:0.7071067811865475 4:0.8164965809277259 5:0.780033314347333 6:0.5 7:0.6065306597126334 8:0.5710204398084223 9:0.22474487139158894 10:0.6065306597126334 11:0.4792687302722853 12:0.14471424255333187 13:0.35627674756616684 14:0.2857559125618885 15:0.5 16:1.0 17:0.8333333333333334 18:0.0 19:1.0 20:0.6666666666666666 21:0.0 22:0.0 23:0.0 24:0.36787944117144233 25:0.6065306597126334 26:0.5269802535322364 27:1.0 28:1.0 29:0.5874010519681994 30:0.5 31:0.5 32:0.0 33:1.0 34:0.0 35:0.0 
1.0 0:0.3333333333333333 1:0.5 2:0.38888888888888884 3:0.7071067811865475 4:0.8164965809277259 5:0.780033314347333 6:0.5 7:0.6065306597126334 8:0.5710204398084223 9:0.22474487139158894 10:0.6065306597126334 11:0.4792687302722853 12:0.14471424255333187 13:0.35627674756616684 14:0.2857559125618885 15:0.5 16:1.0 17:0.8333333333333334 18:0.0 19:1.0 20:0.6666666666666666 21:0.0 22:0.0 23:0.0 24:0.36787944117144233 25:0.6065306597126334 26:0.5269802535322364 27:1.0 28:1.0 29:0.5874010519681994 30:0.5 31:0.5 32:0.0 33:1.0 34:0.0 35:0.0 
1.0 0:0.3333333333333333 1:0.5 2:0.38888888888888884 3:0.7071067811865475 4:0.8164965809277259 5:0.780033314347333 6:0.5 7:0.6065306597126334 8:0.5710204398084223 9:0.22474487139158894 10:0.6065306597126334 11:0.4792687302722853 12:0.14471424255333187 13:0.35627674756616684 14:0.2857559125618885 15:0.5 16:1.0 17:0.8333333333333334 18:0.0 19:1.0 20:0.6666666666666666 21:0.0 22:0.0 23:0.0 24:0.36787944117144233 25:0.6065306597126334 26:0.5269802535322364 27:1.0 28:1.0 29:0.5874010519681994 30:0.5 31:0.5 32:0.0 33:1.0 34:0.0 35:0.0 
1.0 0:0.3333333333333333 1:0.5 2:0.38888888888888884 3:0.7071067811865475 4:0.8164965809277259 5:0.780033314347333 6:0.5 7:0.6065306597126334 8:0.5710204398084223 9:0.22474487139158894 10:0.6065306597126334 11:0.4792687302722853 12:0.14471424255333187 13:0.35627674756616684 14:0.2857559125618885 15:0.5 16:1.0 17:0.8333333333333334 18:0.0 19:1.0 20:0.6666666666666666 21:0.0 22:0.0 23:0.0 24:0.36787944117144233 25:0.6065306597126334 26:0.5269802535322364 27:1.0 28:1.0 29:0.5874010519681994 30:0.5 31:0.5 32:0.0 33:1.0 34:0.0 35:0.0 
1.0 0:0.3333333333333333 1:0.5 2:0.38888888888888884 3:0.7071067811865475 4:0.8164965809277259 5:0.780033314347333 6:0.5 7:0.6065306597126334 8:0.5710204398084223 9:0.22474487139158894 10:0.6065306597126334 11:0.4792687302722853 12:0.14471424255333187 13:0.35627674756616684 14:0.2857559125618885 15:0.5 16:1.0 17:0.8333333333333334 18:0.0 19:1.0 20:0.6666666666666666 21:0.0 22:0.0 23:0.0 24:0.36787944117144233 25:0.6065306597126334 26:0.5269802535322364 27:1.0 28:1.0 29:0.5874010519681994 30:0.5 31:0.5 32:0.0 33:1.0 34:0.0 35:0.0 
1.0 0:0.4 1:0.8 2:0.5333333333333333 3:0.4472135954999579 4:0.7745966692414834 5:0.6654689779943083 6:0.19999999999999996 7:0.6000000000000001 8:0.46666666666666673 9:0.09544511501033215 10:0.41421356237309515 11:0.30795741325217413 12:0.06265856918261115 13:0.2599210498948732 14:0.19416688965745252 15:0.2 16:0.6 17:0.4666666666666666 18:0.0 19:0.25 20:0.16666666666666666 21:0.0 22:0.0 23:0.0 24:0.01831563888873418 25:0.513417119032592 26:0.34838329231797277 27:0.6000000000000001 28:0.41421356237309515 29:0.2599210498948732 30:0.2 31:0.4 32:0.0 33:0.25 34:0.0 35:0.0 
1.0 0:0.3333333333333333 1:0.5 2:0.38888888888888884 3:0.7071067811865475 4:0.8164965809277259 5:0.780033314347333 6:0.5 7:0.6065306597126334 8:0.5710204398084223 9:0.22474487139158894 10:0.6065306597126334 11:0.4792687302722853 12:0.14471424255333187 13:0.35627674756616684 14:0.2857559125618885 15:0.5 16:1.0 17:0.8333333333333334 18:0.0 19:1.0 20:0.6666666666666666 21:0.0 22:0.0 23:0.0 24:0.36787944117144233 25:0.6065306597126334 26:0.5269802535322364 27:1.0 28:1.0 29:0.5874010519681994 30:0.5 31:0.5 32:0.0 33:1.0 34:0.0 35:0.0 
1.0 0:0.3333333333333333 1:0.5 2:0.38888888888888884 3:0.7071067811865475 4:0.8164965809277259 5:0.780033314347333 6:0.5 7:0.6065306597126334 8:0.5710204398084223 9:0.22474487139158894 10:0.6065306597126334 11:0.4792687302722853 12:0.14471424255333187 13:0.35627674756616684 14:0.2857559125618885 15:0.5 16:1.0 17:0.8333333333333334 18:0.0 19:1.0 20:0.6666666666666666 21:0.0 22:0.0 23:0.0 24:0.36787944117144233 25:0.6065306597126334 26:0.5269802535322364 27:1.0 28:1.0 29:0.5874010519681994 30:0.5 31:0.5 32:0.0 33:1.0 34:0.0 35:0.0 
1.0 0:0.3333333333333333 1:0.5 2:0.38888888888888884 3:0.7071067811865475 4:0.8164965809277259 5:0.780033314347333 6:0.5 7:0.6065306597126334 8:0.5710204398084223 9:0.22474487139158894 10:0.6065306597126334 11:0.4792687302722853 12:0.14471424255333187 13:0.35627674756616684 14:0.2857559125618885 15:0.5 16:1.0 17:0.8333333333333334 18:0.0 19:1.0 20:0.6666666666666666 21:0.0 22:0.0 23:0.0 24:0.36787944117144233 25:0.6065306597126334 26:0.5269802535322364 27:1.0 28:1.0 29:0.5874010519681994 30:0.5 31:0.5 32:0.0 33:1.0 34:0.0 35:0.0 
1.0 0:0.3333333333333333 1:0.5 2:0.38888888888888884 3:0.7071067811865475 4:0.8164965809277259 5:0.780033314347333 6:0.5 7:0.6065306597126334 8:0.5710204398084223 9:0.22474487139158894 10:0.6065306597126334 11:0.4792687302722853 12:0.14471424255333187 13:0.35627674756616684 14:0.2857559125618885 15:0.5 16:1.0 17:0.8333333333333334 18:0.0 19:1.0 20:0.6666666666666666 21:0.0 22:0.0 23:0.0 24:0.36787944117144233 25:0.6065306597126334 26:0.5269802535322364 27:1.0 28:1.0 29:0.5874010519681994 30:0.5 31:0.5 32:0.0 33:1.0 34:0.0 35:0.0 
1.0 0:0.6666666666666666 1:1.0 2:0.7777777777777777 3:0.0 4:0.33333333333333337 5:0.22222222222222224 6:0.0 7:0.33333333333333326 8:0.22222222222222218 9:0.0 10:0.15470053837925146 11:0.10313369225283431 12:0.0 13:0.10064241629820891 14:0.06709494419880595 15:0.0 16:0.3333333333333333 17:0.2222222222222222 18:0.0 19:0.0 20:0.0 21:0.0 22:0.0 23:0.0 24:0.1353352832366127 25:1.0 26:0.7117784277455376 27:0.33333333333333326 28:0.15470053837925146 29:0.10064241629820891 30:0.0 31:0.3333333333333333 32:0.0 33:0.0 34:0.0 35:0.0 
1.0 0:1.0 1:1.0 2:1.0 3:0.0 4:0.0 5:0.0 6:0.0 7:0.0 8:0.0 9:0.0 10:0.0 11:0.0 12:0.0 13:0.0 14:0.0 15:0.0 16:0.0 17:0.0 18:0.0 19:0.0 20:0.0 21:0.0 22:0.0 23:0.0 24:0.1353352832366127 25:1.0 26:0.4235568554910752 27:0.0 28:0.0 29:0.0 30:0.0 31:1.0 32:0.0 33:0.0 34:0.0 35:0.0 
-1.0 0:1.0 1:1.0 2:1.0 3:0.0 4:0.0 5:0.0 6:0.0 7:0.0 8:0.0 9:0.0 10:0.0 11:0.0 12:0.0 13:0.0 14:0.0 15:0.0 16:0.0 17:0.0 18:0.0 19:0.0 20:0.0 21:0.0 22:0.0 23:0.0 24:0.1353352832366127 25:1.0 26:0.4235568554910752 27:0.0 28:0.0 29:0.0 30:0.0 31:1.0 32:0.0 33:0.0 34:0.0 35:0.0 
-1.0 0:0.6666666666666666 1:1.0 2:0.7777777777777777 3:0.0 4:0.40824829046386296 5:0.2721655269759086 6:0.0 7:0.3032653298563167 8:0.20217688657087782 9:0.0 10:0.1363146551121714 11:0.09087643674144759 12:0.0 13:0.08777362500568643 14:0.05851575000379095 15:0.0 16:0.5 17:0.3333333333333333 18:0.0 19:0.0 20:0.0 21:0.0 22:0.0 23:0.0 24:0.36787944117144233 25:0.6065306597126334 26:0.5269802535322364 27:0.5 28:0.22474487139158894 29:0.14471424255333187 30:0.0 31:1.0 32:0.0 33:0.0 34:0.0 35:0.0 
1.0 0:0.6666666666666666 1:1.0 2:0.7777777777777777 3:0.0 4:0.40824829046386296 5:0.2721655269759086 6:0.0 7:0.3032653298563167 8:0.20217688657087782 9:0.0 10:0.1363146551121714 11:0.09087643674144759 12:0.0 13:0.08777362500568643 14:0.05851575000379095 15:0.0 16:0.5 17:0.3333333333333333 18:0.0 19:0.0 20:0.0 21:0.0 22:0.0 23:0.0 24:0.36787944117144233 25:0.6065306597126334 26:0.5269802535322364 27:0.5 28:0.22474487139158894 29:0.14471424255333187 30:0.0 31:0.5 32:0.0 33:0.0 34:0.0 35:0.0 
-1.0 0:1.0 1:1.0 2:1.0 3:0.0 4:0.0 5:0.0 6:0.0 7:0.0 8:0.0 9:0.0 10:0.0 11:0.0 12:0.0 13:0.0 14:0.0 15:0.0 16:0.0 17:0.0 18:0.0 19:0.0 20:0.0 21:0.0 22:0.0 23:0.0 24:0.1353352832366127 25:1.0 26:0.4235568554910752 27:0.0 28:0.0 29:0.0 30:0.0 31:1.0 32:0.0 33:0.0 34:0.0 35:0.0 
-1.0 0:0.5 1:0.6666666666666666 2:0.611111111111111 3:0.40824829046386296 4:0.7071067811865475 5:0.5078677873714245 6:0.3032653298563167 7:0.5 8:0.3688435532375445 9:0.1363146551121714 10:0.22474487139158894 11:0.16579139387197725 12:0.08777362500568643 13:0.14471424255333187 14:0.10675383085490157 15:0.5 16:0.5 17:0.5 18:0.0 19:0.0 20:0.0 21:0.0 22:0.0 23:0.0 24:0.36787944117144233 25:0.6065306597126334 26:0.5269802535322364 27:0.5 28:0.22474487139158894 29:0.14471424255333187 30:0.5 31:0.0 32:0.0 33:0.0 34:0.0 35:0.0 
-1.0 0:1.0 1:1.0 2:1.0 3:0.0 4:0.0 5:0.0 6:0.0 7:0.0 8:0.0 9:0.0 10:0.0 11:0.0 12:0.0 13:0.0 14:0.0 15:0.0 16:0.0 17:0.0 18:0.0 19:0.0 20:0.0 21:0.0 22:0.0 23:0.0 24:0.1353352832366127 25:1.0 26:0.4235568554910752 27:0.0 28:0.0 29:0.0 30:0.0 31:1.0 32:0.0 33:0.0 34:0.0 35:0.0 
-1.0 0:1.0 1:1.0 2:1.0 3:0.0 4:0.0 5:0.0 6:0.0 7:0.0 8:0.0 9:0.0 10:0.0 11:0.0 12:0.0 13:0.0 14:0.0 15:0.0 16:0.0 17:0.0 18:0.0 19:0.0 20:0.0 21:0.0 22:0.0 23:0.0 24:0.1353352832366127 25:1.0 26:0.4235568554910752 27:0.0 28:0.0 29:0.0 30:0.0 31:1.0 32:0.0 33:0.0 34:0.0 35:0.0 
-1.0 0:0.3333333333333333 1:1.0 2:0.5555555555555555 3:0.0 4:0.6666666666666667 5:0.4444444444444445 6:0.0 7:0.6666666666666665 8:0.44444444444444436 9:0.0 10:0.5811388300841895 11:0.38742588672279304 12:0.0 13:0.35720880829745316 14:0.23813920553163545 15:0.0 16:0.6666666666666666 17:0.4444444444444444 18:0.0 19:0.5 20:0.3333333333333333 21:0.0 22:0.0 23:0.0 24:0.1353352832366127 25:1.0 26:0.7117784277455376 27:0.6666666666666665 28:0.5811388300841895 29:0.35720880829745316 30:0.0 31:1.0 32:0.0 33:0.5 34:0.0 35:0.0 
1.0 0:1.0 1:1.0 2:1.0 3:0.0 4:0.0 5:0.0 6:0.0 7:0.0 8:0.0 9:0.0 10:0.0 11:0.0 12:0.0 13:0.0 14:0.0 15:0.0 16:0.0 17:0.0 18:0.0 19:0.0 20:0.0 21:0.0 22:0.0 23:0.0 24:0.1353352832366127 25:1.0 26:0.4235568554910752 27:0.0 28:0.0 29:0.0 30:0.0 31:0.0 32:0.0 33:0.0 34:0.0 35:0.0 
1.0 0:1.0 1:1.0 2:1.0 3:0.0 4:0.0 5:0.0 6:0.0 7:0.0 8:0.0 9:0.0 10:0.0 11:0.0 12:0.0 13:0.0 14:0.0 15:0.0 16:0.0 17:0.0 18:0.0 19:0.0 20:0.0 21:0.0 22:0.0 23:0.0 24:0.1353352832366127 25:1.0 26:0.4235568554910752 27:0.0 28:0.0 29:0.0 30:0.0 31:0.0 32:0.0 33:0.0 34:0.0 35:0.0 
1.0 0:1.0 1:1.0 2:1.0 3:0.0 4:0.0 5:0.0 6:0.0 7:0.0 8:0.0 9:0.0 10:0.0 11:0.0 12:0.0 13:0.0 14:0.0 15:0.0 16:0.0 17:0.0 18:0.0 19:0.0 20:0.0 21:0.0 22:0.0 23:0.0 24:0.1353352832366127 25:1.0 26:0.4235568554910752 27:0.0 28:0.0 29:0.0 30:0.0 31:0.0 32:0.0 33:0.0 34:0.0 35:0.0 
1.0 0:1.0 1:1.0 2:1.0 3:0.0 4:0.0 5:0.0 6:0.0 7:0.0 8:0.0 9:0.0 10:0.0 11:0.0 12:0.0 13:0.0 14:0.0 15:0.0 16:0.0 17:0.0 18:0.0 19:0.0 20:0.0 21:0.0 22:0.0 23:0.0 24:0.1353352832366127 25:1.0 26:0.4235568554910752 27:0.0 28:0.0 29:0.0 30:0.0 31:0.0 32:0.0 33:0.0 34:0.0 35:0.0 
-1.0 0:1.0 1:1.0 2:1.0 3:0.0 4:0.0 5:0.0 6:0.0 7:0.0 8:0.0 9:0.0 10:0.0 11:0.0 12:0.0 13:0.0 14:0.0 15:0.0 16:0.0 17:0.0 18:0.0 19:0.0 20:0.0 21:0.0 22:0.0 23:0.0 24:0.1353352832366127 25:1.0 26:0.4235568554910752 27:0.0 28:0.0 29:0.0 30:0.0 31:1.0 32:0.0 33:0.0 34:0.0 35:0.0 
1.0 0:0.6666666666666666 1:1.0 2:0.7777777777777777 3:0.0 4:0.40824829046386296 5:0.2721655269759086 6:0.0 7:0.3032653298563167 8:0.20217688657087782 9:0.0 10:0.1363146551121714 11:0.09087643674144759 12:0.0 13:0.08777362500568643 14:0.05851575000379095 15:0.0 16:0.5 17:0.3333333333333333 18:0.0 19:0.0 20:0.0 21:0.0 22:0.0 23:0.0 24:0.36787944117144233 25:0.6065306597126334 26:0.5269802535322364 27:0.5 28:0.22474487139158894 29:0.14471424255333187 30:0.0 31:0.5 32:0.0 33:0.0 34:0.0 35:0.0 
1.0 0:1.0 1:1.0 2:1.0 3:0.0 4:0.0 5:0.0 6:0.0 7:0.0 8:0.0 9:0.0 10:0.0 11:0.0 12:0.0 13:0.0 14:0.0 15:0.0 16:0.0 17:0.0 18:0.0 19:0.0 20:0.0 21:0.0 22:0.0 23:0.0 24:0.1353352832366127 25:1.0 26:0.4235568554910752 27:0.0 28:0.0 29:0.0 30:0.0 31:0.0 32:0.0 33:0.0 34:0.0 35:0.0 
1.0 0:1.0 1:1.0 2:1.0 3:0.0 4:0.0 5:0.0 6:0.0 7:0.0 8:0.0 9:0.0 10:0.0 11:0.0 12:0.0 13:0.0 14:0.0 15:0.0 16:0.0 17:0.0 18:0.0 19:0.0 20:0.0 21:0.0 22:0.0 23:0.0 24:0.36787944117144233 25:0.6065306597126334 26:0.5269802535322364 27:0.0 28:0.0 29:0.0 30:0.0 31:0.0 32:0.0 33:0.0 34:0.0 35:0.0 
-1.0 0:1.0 1:1.0 2:1.0 3:0.0 4:0.0 5:0.0 6:0.0 7:0.0 8:0.0 9:0.0 10:0.0 11:0.0 12:0.0 13:0.0 14:0.0 15:0.0 16:0.0 17:0.0 18:0.0 19:0.0 20:0.0 21:0.0 22:0.0 23:0.0 24:0.1353352832366127 25:1.0 26:0.4235568554910752 27:0.0 28:0.0 29:0.0 30:0.0 31:1.0 32:0.0 33:0.0 34:0.0 35:0.0 
-1.0 0:0.5 1:0.75 2:0.5833333333333334 3:0.5 4:0.5773502691896258 5:0.5515668461264172 6:0.25 7:0.5 8:0.4166666666666667 9:0.1180339887498949 10:0.4142135623730949 11:0.31548703783202825 12:0.07721734501594191 13:0.2599210498948732 14:0.19901981493522944 15:0.25 16:0.5 17:0.4166666666666667 18:0.0 19:0.3333333333333333 20:0.2222222222222222 21:0.0 22:0.0 23:0.0 24:0.049787068367863944 25:0.7165313105737893 26:0.4942832298384808 27:0.5 28:0.4142135623730949 29:0.2599210498948732 30:0.25 31:0.25 32:0.0 33:0.3333333333333333 34:0.0 35:0.0 
-1.0 0:1.0 1:1.0 2:1.0 3:0.0 4:0.0 5:0.0 6:0.0 7:0.0 8:0.0 9:0.0 10:0.0 11:0.0 12:0.0 13:0.0 14:0.0 15:0.0 16:0.0 17:0.0 18:0.0 19:0.0 20:0.0 21:0.0 22:0.0 23:0.0 24:0.1353352832366127 25:1.0 26:0.4235568554910752 27:0.0 28:0.0 29:0.0 30:0.0 31:1.0 32:0.0 33:0.0 34:0.0 35:0.0 
-1.0 0:0.3333333333333333 1:0.6666666666666666 2:0.4444444444444444 3:0.5773502691896258 4:0.6666666666666667 5:0.6368945341743198 6:0.33333333333333326 7:0.6666666666666665 8:0.5555555555555555 9:0.15470053837925146 10:0.5811388300841895 11:0.4389927328492102 12:0.10064241629820891 13:0.35720880829745316 14:0.27168667763103843 15:0.3333333333333333 16:0.6666666666666666 17:0.5555555555555555 18:0.0 19:0.5 20:0.3333333333333333 21:0.0 22:0.0 23:0.0 24:0.1353352832366127 25:1.0 26:0.7117784277455376 27:0.6666666666666665 28:0.5811388300841895 29:0.35720880829745316 30:0.3333333333333333 31:0.3333333333333333 32:0.0 33:0.5 34:0.0 35:0.0 
-1.0 0:1.0 1:1.0 2:1.0 3:0.0 4:0.0 5:0.0 6:0.0 7:0.0 8:0.0 9:0.0 10:0.0 11:0.0 12:0.0 13:0.0 14:0.0 15:0.0 16:0.0 17:0.0 18:0.0 19:0.0 20:0.0 21:0.0 22:0.0 23:0.0 24:0.36787944117144233 25:0.6065306597126334 26:0.5269802535322364 27:0.0 28:0.0 29:0.0 30:0.0 31:0.0 32:0.0 33:0.0 34:0.0 35:0.0 
1.0 0:0.0 1:1.0 2:0.4166666666666667 3:0.0 4:1.0 5:0.6220084679281462 6:0.0 7:1.0 8:0.5833333333333334 9:0.0 10:1.0 11:0.569275042553311 12:0.0 13:1.0 14:0.5451777183647649 15:0.0 16:1.0 17:0.5833333333333334 18:0.0 19:1.0 20:0.5555555555555555 21:0.0 22:1.0 23:0.5 24:0.049787068367863944 25:1.0 26:0.5887727929805511 27:1.0 28:1.0 29:1.0 30:0.0 31:1.0 32:0.3333333333333333 33:0.6666666666666666 34:1.0 35:0.0 
1.0 0:0.0 1:1.0 2:0.4166666666666667 3:0.0 4:1.0 5:0.6220084679281462 6:0.0 7:1.0 8:0.5833333333333334 9:0.0 10:1.0 11:0.569275042553311 12:0.0 13:1.0 14:0.5451777183647649 15:0.0 16:1.0 17:0.5833333333333334 18:0.0 19:1.0 20:0.5555555555555555 21:0.0 22:1.0 23:0.5 24:0.049787068367863944 25:1.0 26:0.5887727929805511 27:1.0 28:1.0 29:1.0 30:0.0 31:1.0 32:0.3333333333333333 33:0.6666666666666666 34:1.0 35:0.0 
1.0 0:0.4 1:1.0 2:0.6 3:0.0 4:0.7745966692414834 5:0.48180568749714014 6:0.0 7:0.6000000000000001 8:0.4000000000000001 9:0.0 10:0.5491933384829668 11:0.3661288923219779 12:0.0 13:0.47361259945615464 14:0.31574173297076974 15:0.0 16:0.6 17:0.39999999999999997 18:0.0 19:0.5 20:0.3333333333333333 21:0.0 22:0.3333333333333333 23:0.2222222222222222 24:0.01831563888873418 25:0.7788007830714049 26:0.43684451366424365 27:0.6000000000000001 28:0.5491933384829668 29:0.47361259945615464 30:0.0 31:0.8 32:0.25 33:0.5 34:0.3333333333333333 35:0.3333333333333333 
1.0 0:0.6666666666666666 1:1.0 2:0.8055555555555555 3:0.0 4:0.5773502691896258 5:0.2886751345948129 6:0.0 7:0.33333333333333326 8:0.19072570117486543 9:0.0 10:0.15470053837925146 11:0.08851610596353576 12:0.0 13:0.10064241629820891 14:0.05758528624922581 15:0.0 16:0.3333333333333333 17:0.2222222222222222 18:0.0 19:0.0 20:0.0 21:0.0 22:0.0 23:0.0 24:0.1353352832366127 25:1.0 26:0.6172888646034673 27:0.6666666666666665 28:0.2909944487358056 29:0.1856311014966876 30:0.3333333333333333 31:0.6666666666666666 32:0.5 33:0.5 34:0.0 35:0.0 
1.0 0:0.0 1:1.0 2:0.4166666666666667 3:0.0 4:1.0 5:0.6220084679281462 6:0.0 7:1.0 8:0.5833333333333334 9:0.0 10:1.0 11:0.569275042553311 12:0.0 13:1.0 14:0.5451777183647649 15:0.0 16:1.0 17:0.5833333333333334 18:0.0 19:1.0 20:0.5555555555555555 21:0.0 22:1.0 23:0.5 24:0.049787068367863944 25:1.0 26:0.5887727929805511 27:1.0 28:1.0 29:1.0 30:0.0 31:1.0 32:0.3333333333333333 33:0.6666666666666666 34:1.0 35:0.0 
1.0 0:0.0 1:1.0 2:0.4166666666666667 3:0.0 4:1.0000000000000002 5:0.6220084679281462 6:0.0 7:1.0 8:0.5721771035245964 9:0.0 10:1.0 11:0.5721771035245964 12:0.0 13:1.0 14:0.5721771035245964 15:0.0 16:1.0 17:0.6666666666666666 18:0.0 19:1.0 20:0.6666666666666666 21:0.0 22:1.0 23:0.6666666666666666 24:0.1353352832366127 25:1.0 26:0.6172888646034673 27:1.0 28:1.0 29:1.0 30:0.0 31:1.0 32:0.5 33:0.5 34:1.0 35:0.0 
1.0 0:0.0 1:1.0 2:0.4166666666666667 3:0.0 4:1.0 5:0.6220084679281462 6:0.0 7:1.0 8:0.5833333333333334 9:0.0 10:1.0 11:0.569275042553311 12:0.0 13:1.0 14:0.5451777183647649 15:0.0 16:1.0 17:0.5833333333333334 18:0.0 19:1.0 20:0.5555555555555555 21:0.0 22:1.0 23:0.5 24:0.049787068367863944 25:1.0 26:0.5887727929805511 27:1.0 28:1.0 29:1.0 30:0.0 31:1.0 32:0.3333333333333333 33:0.6666666666666666 34:1.0 35:0.0 
1.0 0:0.0 1:1.0 2:0.4166666666666667 3:0.0 4:1.0 5:0.6220084679281462 6:0.0 7:1.0 8:0.5833333333333334 9:0.0 10:1.0 11:0.569275042553311 12:0.0 13:1.0 14:0.5451777183647649 15:0.0 16:1.0 17:0.5833333333333334 18:0.0 19:1.0 20:0.5555555555555555 21:0.0 22:1.0 23:0.5 24:0.049787068367863944 25:1.0 26:0.5887727929805511 27:1.0 28:1.0 29:1.0 30:0.0 31:1.0 32:0.3333333333333333 33:0.6666666666666666 34:1.0 35:0.0 
1.0 0:0.2 1:1.0 2:0.5333333333333333 3:0.0 4:0.8944271909999159 5:0.556341286747133 6:0.0 7:0.8 8:0.46666666666666673 9:0.0 10:0.7748239349298849 11:0.4413390911376172 12:0.0 13:0.7380133224432246 14:0.4038753072997931 15:0.0 16:0.8 17:0.4666666666666666 18:0.0 19:0.75 20:0.4166666666666667 21:0.0 22:0.6666666666666666 23:0.3333333333333333 24:0.01831563888873418 25:0.7788007830714049 26:0.43684451366424365 27:0.8 28:0.7748239349298849 29:0.7380133224432246 30:0.0 31:1.0 32:0.25 33:0.75 34:0.6666666666666666 35:0.3333333333333333 
1.0 0:0.0 1:1.0 2:0.4166666666666667 3:0.0 4:1.0 5:0.6220084679281462 6:0.0 7:1.0 8:0.5833333333333334 9:0.0 10:1.0 11:0.569275042553311 12:0.0 13:1.0 14:0.5451777183647649 15:0.0 16:1.0 17:0.5833333333333334 18:0.0 19:1.0 20:0.5555555555555555 21:0.0 22:1.0 23:0.5 24:0.049787068367863944 25:1.0 26:0.5887727929805511 27:1.0 28:1.0 29:1.0 30:0.0 31:1.0 32:0.3333333333333333 33:0.6666666666666666 34:1.0 35:0.0 
1.0 0:0.0 1:1.0 2:0.4166666666666667 3:0.0 4:1.0 5:0.6220084679281462 6:0.0 7:1.0 8:0.5833333333333334 9:0.0 10:1.0 11:0.569275042553311 12:0.0 13:1.0 14:0.5451777183647649 15:0.0 16:1.0 17:0.5833333333333334 18:0.0 19:1.0 20:0.5555555555555555 21:0.0 22:1.0 23:0.5 24:0.049787068367863944 25:1.0 26:0.5887727929805511 27:1.0 28:1.0 29:1.0 30:0.0 31:1.0 32:0.3333333333333333 33:0.6666666666666666 34:1.0 35:0.0 
1.0 0:0.0 1:1.0 2:0.4166666666666667 3:0.0 4:1.0000000000000002 5:0.6220084679281462 6:0.0 7:1.0 8:0.5721771035245964 9:0.0 10:1.0 11:0.5721771035245964 12:0.0 13:1.0 14:0.5721771035245964 15:0.0 16:1.0 17:0.6666666666666666 18:0.0 19:1.0 20:0.6666666666666666 21:0.0 22:1.0 23:0.6666666666666666 24:0.1353352832366127 25:1.0 26:0.6172888646034673 27:1.0 28:1.0 29:1.0 30:0.0 31:1.0 32:0.5 33:0.5 34:1.0 35:0.0 
1.0 0:0.0 1:1.0 2:0.4166666666666667 3:0.0 4:1.0 5:0.6220084679281462 6:0.0 7:1.0 8:0.5833333333333334 9:0.0 10:1.0 11:0.569275042553311 12:0.0 13:1.0 14:0.5451777183647649 15:0.0 16:1.0 17:0.5833333333333334 18:0.0 19:1.0 20:0.5555555555555555 21:0.0 22:1.0 23:0.5 24:0.049787068367863944 25:1.0 26:0.5887727929805511 27:1.0 28:1.0 29:1.0 30:0.0 31:1.0 32:0.3333333333333333 33:0.6666666666666666 34:1.0 35:0.0 
1.0 0:0.2 1:1.0 2:0.5333333333333333 3:0.0 4:0.8944271909999159 5:0.556341286747133 6:0.0 7:0.8 8:0.46666666666666673 9:0.0 10:0.7748239349298849 11:0.4413390911376172 12:0.0 13:0.7380133224432246 14:0.4038753072997931 15:0.0 16:0.8 17:0.4666666666666666 18:0.0 19:0.75 20:0.4166666666666667 21:0.0 22:0.6666666666666666 23:0.3333333333333333 24:0.01831563888873418 25:0.7788007830714049 26:0.43684451366424365 27:0.8 28:0.7748239349298849 29:0.7380133224432246 30:0.0 31:1.0 32:0.25 33:0.75 34:0.6666666666666666 35:0.3333333333333333 
1.0 0:0.0 1:1.0 2:0.4166666666666667 3:0.0 4:1.0 5:0.6220084679281462 6:0.0 7:1.0 8:0.5833333333333334 9:0.0 10:1.0 11:0.569275042553311 12:0.0 13:1.0 14:0.5451777183647649 15:0.0 16:1.0 17:0.5833333333333334 18:0.0 19:1.0 20:0.5555555555555555 21:0.0 22:1.0 23:0.5 24:0.049787068367863944 25:1.0 26:0.5887727929805511 27:1.0 28:1.0 29:1.0 30:0.0 31:1.0 32:0.3333333333333333 33:0.6666666666666666 34:1.0 35:0.0 
1.0 0:0.0 1:1.0 2:0.4166666666666667 3:0.0 4:1.0 5:0.6220084679281462 6:0.0 7:1.0 8:0.5833333333333334 9:0.0 10:1.0 11:0.569275042553311 12:0.0 13:1.0 14:0.5451777183647649 15:0.0 16:1.0 17:0.5833333333333334 18:0.0 19:1.0 20:0.5555555555555555 21:0.0 22:1.0 23:0.5 24:0.049787068367863944 25:1.0 26:0.5887727929805511 27:1.0 28:1.0 29:1.0 30:0.0 31:1.0 32:0.3333333333333333 33:0.6666666666666666 34:1.0 35:0.0 
1.0 0:0.0 1:1.0 2:0.4166666666666667 3:0.0 4:1.0 5:0.6220084679281462 6:0.0 7:1.0 8:0.5833333333333334 9:0.0 10:1.0 11:0.569275042553311 12:0.0 13:1.0 14:0.5451777183647649 15:0.0 16:1.0 17:0.5833333333333334 18:0.0 19:1.0 20:0.5555555555555555 21:0.0 22:1.0 23:0.5 24:0.049787068367863944 25:1.0 26:0.5887727929805511 27:1.0 28:1.0 29:1.0 30:0.0 31:1.0 32:0.3333333333333333 33:0.6666666666666666 34:1.0 35:0.0 
1.0 0:0.0 1:1.0 2:0.4166666666666667 3:0.0 4:1.0 5:0.6220084679281462 6:0.0 7:1.0 8:0.5833333333333334 9:0.0 10:1.0 11:0.569275042553311 12:0.0 13:1.0 14:0.5451777183647649 15:0.0 16:1.0 17:0.5833333333333334 18:0.0 19:1.0 20:0.5555555555555555 21:0.0 22:1.0 23:0.5 24:0.049787068367863944 25:1.0 26:0.5887727929805511 27:1.0 28:1.0 29:1.0 30:0.0 31:1.0 32:0.3333333333333333 33:0.6666666666666666 34:1.0 35:0.0 
1.0 0:0.2 1:1.0 2:0.5333333333333333 3:0.0 4:0.8944271909999159 5:0.556341286747133 6:0.0 7:0.8 8:0.46666666666666673 9:0.0 10:0.7748239349298849 11:0.4413390911376172 12:0.0 13:0.7380133224432246 14:0.4038753072997931 15:0.0 16:0.8 17:0.4666666666666666 18:0.0 19:0.75 20:0.4166666666666667 21:0.0 22:0.6666666666666666 23:0.3333333333333333 24:0.01831563888873418 25:0.7788007830714049 26:0.43684451366424365 27:0.8 28:0.7748239349298849 29:0.7380133224432246 30:0.0 31:1.0 32:0.25 33:0.75 34:0.6666666666666666 35:0.3333333333333333 
1.0 0:0.2 1:1.0 2:0.5333333333333333 3:0.0 4:0.8944271909999159 5:0.556341286747133 6:0.0 7:0.8 8:0.46666666666666673 9:0.0 10:0.7748239349298849 11:0.4413390911376172 12:0.0 13:0.7380133224432246 14:0.4038753072997931 15:0.0 16:0.8 17:0.4666666666666666 18:0.0 19:0.75 20:0.4166666666666667 21:0.0 22:0.6666666666666666 23:0.3333333333333333 24:0.01831563888873418 25:0.7788007830714049 26:0.43684451366424365 27:0.8 28:0.7748239349298849 29:0.7380133224432246 30:0.0 31:1.0 32:0.25 33:0.75 34:0.6666666666666666 35:0.3333333333333333 
1.0 0:0.0 1:1.0 2:0.4166666666666667 3:0.0 4:1.0 5:0.6220084679281462 6:0.0 7:1.0 8:0.5833333333333334 9:0.0 10:1.0 11:0.569275042553311 12:0.0 13:1.0 14:0.5451777183647649 15:0.0 16:1.0 17:0.5833333333333334 18:0.0 19:1.0 20:0.5555555555555555 21:0.0 22:1.0 23:0.5 24:0.049787068367863944 25:1.0 26:0.5887727929805511 27:1.0 28:1.0 29:1.0 30:0.0 31:1.0 32:0.3333333333333333 33:0.6666666666666666 34:1.0 35:0.0 
1.0 0:0.6666666666666666 1:1.0 2:0.8055555555555555 3:0.0 4:0.5773502691896258 5:0.2886751345948129 6:0.0 7:0.33333333333333326 8:0.19072570117486543 9:0.0 10:0.15470053837925146 11:0.08851610596353576 12:0.0 13:0.10064241629820891 14:0.05758528624922581 15:0.0 16:0.3333333333333333 17:0.2222222222222222 18:0.0 19:0.0 20:0.0 21:0.0 22:0.0 23:0.0 24:0.1353352832366127 25:1.0 26:0.6172888646034673 27:0.6666666666666665 28:0.2909944487358056 29:0.1856311014966876 30:0.3333333333333333 31:0.3333333333333333 32:0.5 33:0.0 34:0.0 35:0.0 
1.0 0:0.0 1:1.0 2:0.4166666666666667 3:0.0 4:1.0 5:0.6220084679281462 6:0.0 7:1.0 8:0.5833333333333334 9:0.0 10:1.0 11:0.569275042553311 12:0.0 13:1.0 14:0.5451777183647649 15:0.0 16:1.0 17:0.5833333333333334 18:0.0 19:1.0 20:0.5555555555555555 21:0.0 22:1.0 23:0.5 24:0.049787068367863944 25:1.0 26:0.5887727929805511 27:1.0 28:1.0 29:1.0 30:0.0 31:1.0 32:0.3333333333333333 33:0.6666666666666666 34:1.0 35:0.0 
1.0 0:0.5 1:1.0 2:0.7222222222222222 3:0.0 4:0.5773502691896258 5:0.3035612008409864 6:0.0 7:0.4776875403825261 8:0.27034029123861975 9:0.0 10:0.2085066337223641 11:0.12106905736720519 12:0.0 13:0.13301049643867766 14:0.07788430424562885 15:0.0 16:0.6666666666666666 17:0.3333333333333333 18:0.0 19:0.0 20:0.0 21:0.0 22:0.0 23:0.0 24:0.1353352832366127 25:1.0 26:0.6172888646034673 27:0.6666666666666665 28:0.2909944487358056 29:0.1856311014966876 30:0.0 31:0.6666666666666666 32:0.0 33:0.0 34:0.0 35:0.0 
1.0 0:0.3333333333333333 1:1.0 2:0.611111111111111 3:0.0 4:0.6666666666666667 5:0.4146723119520976 6:0.0 7:0.6666666666666665 8:0.38145140234973085 9:0.0 10:0.5811388300841895 11:0.3325143325432442 12:0.0 13:0.35720880829745316 14:0.20438670128510958 15:0.0 16:0.6666666666666666 17:0.4444444444444444 18:0.0 19:0.5 20:0.3333333333333333 21:0.0 22:0.0 23:0.0 24:0.1353352832366127 25:1.0 26:0.6172888646034673 27:0.6666666666666665 28:0.5811388300841895 29:0.35720880829745316 30:0.0 31:0.6666666666666666 32:0.0 33:0.5 34:0.0 35:0.0 
1.0 0:0.3333333333333333 1:1.0 2:0.611111111111111 3:0.0 4:0.6666666666666667 5:0.4146723119520976 6:0.0 7:0.6666666666666665 8:0.38145140234973085 9:0.0 10:0.2909944487358056 11:0.1665003608193899 12:0.0 13:0.1856311014966876 14:0.1062138659784551 15:0.0 16:0.6666666666666666 17:0.4444444444444444 18:0.0 19:0.0 20:0.0 21:0.0 22:0.0 23:0.0 24:0.1353352832366127 25:1.0 26:0.6172888646034673 27:0.6666666666666665 28:0.2909944487358056 29:0.1856311014966876 30:0.0 31:0.6666666666666666 32:0.0 33:0.0 34:0.0 35:0.0 
-1.0 0:0.3333333333333333 1:1.0 2:0.611111111111111 3:0.0 4:0.6666666666666667 5:0.4146723119520976 6:0.0 7:0.6666666666666665 8:0.38145140234973085 9:0.0 10:0.5811388300841895 11:0.3325143325432442 12:0.0 13:0.35720880829745316 14:0.20438670128510958 15:0.0 16:0.6666666666666666 17:0.4444444444444444 18:0.0 19:0.5 20:0.3333333333333333 21:0.0 22:0.0 23:0.0 24:0.1353352832366127 25:1.0 26:0.6172888646034673 27:0.6666666666666665 28:0.5811388300841895 29:0.35720880829745316 30:0.0 31:1.0 32:0.0 33:1.0 34:0.0 35:1.0 
-1.0 0:0.5 1:1.0 2:0.7222222222222222 3:0.0 4:0.6666666666666667 5:0.4146723119520976 6:0.0 7:0.6666666666666665 8:0.38145140234973085 9:0.0 10:0.2909944487358056 11:0.1665003608193899 12:0.0 13:0.1856311014966876 14:0.1062138659784551 15:0.0 16:0.6666666666666666 17:0.4444444444444444 18:0.0 19:0.0 20:0.0 21:0.0 22:0.0 23:0.0 24:0.1353352832366127 25:1.0 26:0.6172888646034673 27:0.6666666666666665 28:0.2909944487358056 29:0.1856311014966876 30:0.0 31:0.6666666666666666 32:0.0 33:0.0 34:0.0 35:0.0 
-1.0 0:0.3333333333333333 1:1.0 2:0.611111111111111 3:0.0 4:0.6666666666666667 5:0.4146723119520976 6:0.0 7:0.6666666666666665 8:0.38145140234973085 9:0.0 10:0.5811388300841895 11:0.3325143325432442 12:0.0 13:0.35720880829745316 14:0.20438670128510958 15:0.0 16:0.6666666666666666 17:0.4444444444444444 18:0.0 19:0.5 20:0.3333333333333333 21:0.0 22:0.0 23:0.0 24:0.1353352832366127 25:1.0 26:0.6172888646034673 27:0.6666666666666665 28:0.5811388300841895 29:0.35720880829745316 30:0.0 31:1.0 32:0.0 33:1.0 34:0.0 35:1.0 
-1.0 0:0.25 1:1.0 2:0.5 3:0.0 4:0.8660254037844387 5:0.538675134594813 6:0.0 7:0.75 8:0.5 9:0.0 10:0.707825127659933 11:0.47188341843995535 12:0.0 13:0.6355331550942949 14:0.42368877006286326 15:0.0 16:0.75 17:0.5 18:0.0 19:0.6666666666666666 20:0.4444444444444444 21:0.0 22:0.5 23:0.3333333333333333 24:0.049787068367863944 25:1.0 26:0.5887727929805511 27:0.75 28:0.707825127659933 29:0.6355331550942949 30:0.0 31:0.75 32:0.3333333333333333 33:0.3333333333333333 34:0.5 35:0.0 
-1.0 0:0.5 1:1.0 2:0.6666666666666666 3:0.0 4:0.5773502691896258 5:0.3591167563965419 6:0.0 7:0.5 8:0.3333333333333333 9:0.0 10:0.4142135623730949 11:0.2761423749153966 12:0.0 13:0.2599210498948732 14:0.17328069992991546 15:0.0 16:0.5 17:0.3333333333333333 18:0.0 19:0.3333333333333333 20:0.2222222222222222 21:0.0 22:0.0 23:0.0 24:0.049787068367863944 25:1.0 26:0.5887727929805511 27:0.5 28:0.4142135623730949 29:0.2599210498948732 30:0.0 31:0.75 32:0.0 33:0.6666666666666666 34:0.0 35:0.5 
-1.0 0:0.75 1:1.0 2:0.9166666666666666 3:0.0 4:0.5 5:0.16666666666666666 6:0.0 7:0.049787068367863944 8:0.01659568945595465 9:0.0 10:0.020622478948765753 11:0.006874159649588585 12:0.0 13:0.012940707081363027 14:0.004313569027121009 15:0.0 16:1.0 17:0.3333333333333333 18:0.0 19:0.0 20:0.0 21:0.0 22:0.0 23:0.0 24:0.049787068367863944 25:1.0 26:0.3950407838681589 27:1.0 28:0.4142135623730949 29:0.2599210498948732 30:0.0 31:1.0 32:0.0 33:0.0 34:0.0 35:0.0 
-1.0 0:0.6666666666666666 1:1.0 2:0.8055555555555555 3:0.0 4:0.5773502691896258 5:0.3591167563965419 6:0.0 7:0.1353352832366127 8:0.06170745053482555 9:0.0 10:0.056057709784209146 11:0.025560062910991634 12:0.0 13:0.0351764889066804 14:0.016039065329347808 15:0.0 16:1.0 17:0.6666666666666666 18:0.0 19:0.0 20:0.0 21:0.0 22:0.0 23:0.0 24:0.049787068367863944 25:1.0 26:0.3950407838681589 27:1.0 28:0.4142135623730949 29:0.2599210498948732 30:0.0 31:1.0 32:0.0 33:0.0 34:0.0 35:0.0 
-1.0 0:1.0 1:1.0 2:1.0 3:0.0 4:0.0 5:0.0 6:0.0 7:0.0 8:0.0 9:0.0 10:0.0 11:0.0 12:0.0 13:0.0 14:0.0 15:0.0 16:0.0 17:0.0 18:0.0 19:0.0 20:0.0 21:0.0 22:0.0 23:0.0 24:0.36787944117144233 25:0.6065306597126334 26:0.4474298473518394 27:0.0 28:0.0 29:0.0 30:0.0 31:0.0 32:0.0 33:0.0 34:0.0 35:0.0 
-1.0 0:1.0 1:1.0 2:1.0 3:0.0 4:0.0 5:0.0 6:0.0 7:0.0 8:0.0 9:0.0 10:0.0 11:0.0 12:0.0 13:0.0 14:0.0 15:0.0 16:0.0 17:0.0 18:0.0 19:0.0 20:0.0 21:0.0 22:0.0 23:0.0 24:0.049787068367863944 25:1.0 26:0.3950407838681589 27:0.0 28:0.0 29:0.0 30:0.0 31:0.0 32:0.0 33:0.0 34:0.0 35:0.0 
-1.0 0:1.0 1:1.0 2:1.0 3:0.0 4:0.0 5:0.0 6:0.0 7:0.0 8:0.0 9:0.0 10:0.0 11:0.0 12:0.0 13:0.0 14:0.0 15:0.0 16:0.0 17:0.0 18:0.0 19:0.0 20:0.0 21:0.0 22:0.0 23:0.0 24:0.049787068367863944 25:1.0 26:0.3950407838681589 27:0.0 28:0.0 29:0.0 30:0.0 31:0.0 32:0.0 33:0.0 34:0.0 35:0.0 
1.0 0:1.0 1:1.0 2:1.0 3:0.0 4:0.0 5:0.0 6:0.0 7:0.0 8:0.0 9:0.0 10:0.0 11:0.0 12:0.0 13:0.0 14:0.0 15:0.0 16:0.0 17:0.0 18:0.0 19:0.0 20:0.0 21:0.0 22:0.0 23:0.0 24:0.36787944117144233 25:1.0 26:0.5785862941142949 27:0.0 28:0.0 29:0.0 30:0.0 31:1.0 32:0.0 33:0.0 34:0.0 35:0.0 
1.0 0:1.0 1:1.0 2:1.0 3:0.0 4:0.0 5:0.0 6:0.0 7:0.0 8:0.0 9:0.0 10:0.0 11:0.0 12:0.0 13:0.0 14:0.0 15:0.0 16:0.0 17:0.0 18:0.0 19:0.0 20:0.0 21:0.0 22:0.0 23:0.0 24:0.36787944117144233 25:1.0 26:0.5785862941142949 27:0.0 28:0.0 29:0.0 30:0.0 31:1.0 32:0.0 33:0.0 34:0.0 35:0.0 
1.0 0:1.0 1:1.0 2:1.0 3:0.0 4:0.0 5:0.0 6:0.0 7:0.0 8:0.0 9:0.0 10:0.0 11:0.0 12:0.0 13:0.0 14:0.0 15:0.0 16:0.0 17:0.0 18:0.0 19:0.0 20:0.0 21:0.0 22:0.0 23:0.0 24:0.36787944117144233 25:1.0 26:0.5785862941142949 27:0.0 28:0.0 29:0.0 30:0.0 31:0.0 32:0.0 33:0.0 34:0.0 35:0.0 
1.0 0:0.5 1:0.5 2:0.5 3:0.4999999999999999 4:0.7071067811865475 5:0.569035593728849 6:0.5 7:0.5 8:0.5 9:0.22474487139158894 10:0.22474487139158894 11:0.22474487139158894 12:0.14471424255333187 13:0.14471424255333187 14:0.14471424255333187 15:0.5 16:0.5 17:0.5 18:0.0 19:0.0 20:0.0 21:0.0 22:0.0 23:0.0 24:0.36787944117144233 25:1.0 26:0.7892931470571475 27:1.0 28:0.4142135623730949 29:0.2599210498948732 30:0.5 31:0.5 32:0.0 33:1.0 34:0.0 35:0.0 
1.0 0:0.5 1:1.0 2:0.8333333333333334 3:0.0 4:0.4999999999999999 5:0.16666666666666663 6:0.0 7:0.5 8:0.16666666666666666 9:0.0 10:0.22474487139158894 11:0.07491495713052965 12:0.0 13:0.14471424255333187 14:0.04823808085111062 15:0.0 16:0.5 17:0.16666666666666666 18:0.0 19:0.0 20:0.0 21:0.0 22:0.0 23:0.0 24:0.36787944117144233 25:1.0 26:0.7892931470571475 27:0.5 28:0.22474487139158894 29:0.14471424255333187 30:0.0 31:1.0 32:0.0 33:0.0 34:0.0 35:0.0 
1.0 0:0.5 1:0.5 2:0.5 3:0.4999999999999999 4:0.7071067811865475 5:0.569035593728849 6:0.5 7:0.5 8:0.5 9:0.22474487139158894 10:0.22474487139158894 11:0.22474487139158894 12:0.14471424255333187 13:0.14471424255333187 14:0.14471424255333187 15:0.5 16:0.5 17:0.5 18:0.0 19:0.0 20:0.0 21:0.0 22:0.0 23:0.0 24:0.36787944117144233 25:1.0 26:0.7892931470571475 27:1.0 28:0.4142135623730949 29:0.2599210498948732 30:0.5 31:0.5 32:0.0 33:1.0 34:0.0 35:0.0 
1.0 0:0.5 1:0.5 2:0.5 3:0.4999999999999999 4:0.7071067811865475 5:0.569035593728849 6:0.5 7:0.5 8:0.5 9:0.22474487139158894 10:0.22474487139158894 11:0.22474487139158894 12:0.14471424255333187 13:0.14471424255333187 14:0.14471424255333187 15:0.5 16:0.5 17:0.5 18:0.0 19:0.0 20:0.0 21:0.0 22:0.0 23:0.0 24:0.36787944117144233 25:1.0 26:0.7892931470571475 27:1.0 28:0.4142135623730949 29:0.2599210498948732 30:0.5 31:0.5 32:0.0 33:1.0 34:0.0 35:0.0 
1.0 0:0.5 1:0.5 2:0.5 3:0.4999999999999999 4:0.7071067811865475 5:0.569035593728849 6:0.5 7:0.5 8:0.5 9:0.22474487139158894 10:0.22474487139158894 11:0.22474487139158894 12:0.14471424255333187 13:0.14471424255333187 14:0.14471424255333187 15:0.5 16:0.5 17:0.5 18:0.0 19:0.0 20:0.0 21:0.0 22:0.0 23:0.0 24:0.36787944117144233 25:1.0 26:0.7892931470571475 27:1.0 28:0.4142135623730949 29:0.2599210498948732 30:0.5 31:0.5 32:0.0 33:1.0 34:0.0 35:0.0 
1.0 0:0.5 1:0.5 2:0.5 3:0.4999999999999999 4:0.7071067811865475 5:0.569035593728849 6:0.5 7:0.5 8:0.5 9:0.22474487139158894 10:0.22474487139158894 11:0.22474487139158894 12:0.14471424255333187 13:0.14471424255333187 14:0.14471424255333187 15:0.5 16:0.5 17:0.5 18:0.0 19:0.0 20:0.0 21:0.0 22:0.0 23:0.0 24:0.36787944117144233 25:1.0 26:0.7892931470571475 27:1.0 28:0.4142135623730949 29:0.2599210498948732 30:0.5 31:0.5 32:0.0 33:1.0 34:0.0 35:0.0 
1.0 0:0.5 1:1.0 2:0.8333333333333334 3:0.0 4:0.4999999999999999 5:0.16666666666666663 6:0.0 7:0.5 8:0.16666666666666666 9:0.0 10:0.22474487139158894 11:0.07491495713052965 12:0.0 13:0.14471424255333187 14:0.04823808085111062 15:0.0 16:0.5 17:0.16666666666666666 18:0.0 19:0.0 20:0.0 21:0.0 22:0.0 23:0.0 24:0.36787944117144233 25:1.0 26:0.7892931470571475 27:0.5 28:0.22474487139158894 29:0.14471424255333187 30:0.0 31:0.5 32:0.0 33:0.0 34:0.0 35:0.0 
1.0 0:0.5 1:1.0 2:0.8333333333333334 3:0.0 4:0.7071067811865475 5:0.2357022603955158 6:0.0 7:0.36787944117144233 8:0.12262648039048078 9:0.0 10:0.15238065385144653 11:0.05079355128381551 12:0.0 13:0.09561961058402053 14:0.03187320352800684 15:0.0 16:1.0 17:0.3333333333333333 18:0.0 19:0.0 20:0.0 21:0.0 22:0.0 23:0.0 24:0.36787944117144233 25:1.0 26:0.5785862941142949 27:1.0 28:0.4142135623730949 29:0.2599210498948732 30:0.0 31:0.0 32:0.0 33:0.0 34:0.0 35:0.0 
-1.0 0:1.0 1:1.0 2:1.0 3:0.0 4:0.0 5:0.0 6:0.0 7:0.0 8:0.0 9:0.0 10:0.0 11:0.0 12:0.0 13:0.0 14:0.0 15:0.0 16:0.0 17:0.0 18:0.0 19:0.0 20:0.0 21:0.0 22:0.0 23:0.0 24:0.36787944117144233 25:1.0 26:0.5785862941142949 27:0.0 28:0.0 29:0.0 30:0.0 31:1.0 32:0.0 33:0.0 34:0.0 35:0.0 
1.0 0:1.0 1:1.0 2:1.0 3:0.0 4:0.0 5:0.0 6:0.0 7:0.0 8:0.0 9:0.0 10:0.0 11:0.0 12:0.0 13:0.0 14:0.0 15:0.0 16:0.0 17:0.0 18:0.0 19:0.0 20:0.0 21:0.0 22:0.0 23:0.0 24:0.36787944117144233 25:1.0 26:0.5785862941142949 27:0.0 28:0.0 29:0.0 30:0.0 31:0.0 32:0.0 33:0.0 34:0.0 35:0.0 
1.0 0:1.0 1:1.0 2:1.0 3:0.0 4:0.0 5:0.0 6:0.0 7:0.0 8:0.0 9:0.0 10:0.0 11:0.0 12:0.0 13:0.0 14:0.0 15:0.0 16:0.0 17:0.0 18:0.0 19:0.0 20:0.0 21:0.0 22:0.0 23:0.0 24:0.36787944117144233 25:1.0 26:0.5785862941142949 27:0.0 28:0.0 29:0.0 30:0.0 31:0.0 32:0.0 33:0.0 34:0.0 35:0.0 
-1.0 0:1.0 1:1.0 2:1.0 3:0.0 4:0.0 5:0.0 6:0.0 7:0.0 8:0.0 9:0.0 10:0.0 11:0.0 12:0.0 13:0.0 14:0.0 15:0.0 16:0.0 17:0.0 18:0.0 19:0.0 20:0.0 21:0.0 22:0.0 23:0.0 24:0.36787944117144233 25:1.0 26:0.7892931470571475 27:0.0 28:0.0 29:0.0 30:0.0 31:1.0 32:0.0 33:0.0 34:0.0 35:0.0 
1.0 0:1.0 1:1.0 2:1.0 3:0.0 4:0.0 5:0.0 6:0.0 7:0.0 8:0.0 9:0.0 10:0.0 11:0.0 12:0.0 13:0.0 14:0.0 15:0.0 16:0.0 17:0.0 18:0.0 19:0.0 20:0.0 21:0.0 22:0.0 23:0.0 24:0.36787944117144233 25:1.0 26:0.5785862941142949 27:0.0 28:0.0 29:0.0 30:0.0 31:0.0 32:0.0 33:0.0 34:0.0 35:0.0 
-1.0 0:1.0 1:1.0 2:1.0 3:0.0 4:0.0 5:0.0 6:0.0 7:0.0 8:0.0 9:0.0 10:0.0 11:0.0 12:0.0 13:0.0 14:0.0 15:0.0 16:0.0 17:0.0 18:0.0 19:0.0 20:0.0 21:0.0 22:0.0 23:0.0 24:0.36787944117144233 25:1.0 26:0.5785862941142949 27:0.0 28:0.0 29:0.0 30:0.0 31:1.0 32:0.0 33:0.0 34:0.0 35:0.0 
-1.0 0:1.0 1:1.0 2:1.0 3:0.0 4:0.0 5:0.0 6:0.0 7:0.0 8:0.0 9:0.0 10:0.0 11:0.0 12:0.0 13:0.0 14:0.0 15:0.0 16:0.0 17:0.0 18:0.0 19:0.0 20:0.0 21:0.0 22:0.0 23:0.0 24:0.36787944117144233 25:1.0 26:0.7892931470571475 27:0.0 28:0.0 29:0.0 30:0.0 31:1.0 32:0.0 33:0.0 34:0.0 35:0.0 
-1.0 0:1.0 1:1.0 2:1.0 3:0.0 4:0.0 5:0.0 6:0.0 7:0.0 8:0.0 9:0.0 10:0.0 11:0.0 12:0.0 13:0.0 14:0.0 15:0.0 16:0.0 17:0.0 18:0.0 19:0.0 20:0.0 21:0.0 22:0.0 23:0.0 24:0.36787944117144233 25:1.0 26:0.5785862941142949 27:0.0 28:0.0 29:0.0 30:0.0 31:1.0 32:0.0 33:0.0 34:0.0 35:0.0 
-1.0 0:1.0 1:1.0 2:1.0 3:0.0 4:0.0 5:0.0 6:0.0 7:0.0 8:0.0 9:0.0 10:0.0 11:0.0 12:0.0 13:0.0 14:0.0 15:0.0 16:0.0 17:0.0 18:0.0 19:0.0 20:0.0 21:0.0 22:0.0 23:0.0 24:0.36787944117144233 25:1.0 26:0.5785862941142949 27:0.0 28:0.0 29:0.0 30:0.0 31:0.0 32:0.0 33:0.0 34:0.0 35:0.0 
-1.0 0:1.0 1:1.0 2:1.0 3:0.0 4:0.0 5:0.0 6:0.0 7:0.0 8:0.0 9:0.0 10:0.0 11:0.0 12:0.0 13:0.0 14:0.0 15:0.0 16:0.0 17:0.0 18:0.0 19:0.0 20:0.0 21:0.0 22:0.0 23:0.0 24:0.36787944117144233 25:1.0 26:0.7892931470571475 27:0.0 28:0.0 29:0.0 30:0.0 31:0.0 32:0.0 33:0.0 34:0.0 35:0.0 
-1.0 0:1.0 1:1.0 2:1.0 3:0.0 4:0.0 5:0.0 6:0.0 7:0.0 8:0.0 9:0.0 10:0.0 11:0.0 12:0.0 13:0.0 14:0.0 15:0.0 16:0.0 17:0.0 18:0.0 19:0.0 20:0.0 21:0.0 22:0.0 23:0.0 24:0.36787944117144233 25:1.0 26:0.5785862941142949 27:0.0 28:0.0 29:0.0 30:0.0 31:0.0 32:0.0 33:0.0 34:0.0 35:0.0 
-1.0 0:1.0 1:1.0 2:1.0 3:0.0 4:0.0 5:0.0 6:0.0 7:0.0 8:0.0 9:0.0 10:0.0 11:0.0 12:0.0 13:0.0 14:0.0 15:0.0 16:0.0 17:0.0 18:0.0 19:0.0 20:0.0 21:0.0 22:0.0 23:0.0 24:0.36787944117144233 25:1.0 26:0.5785862941142949 27:0.0 28:0.0 29:0.0 30:0.0 31:0.0 32:0.0 33:0.0 34:0.0 35:0.0 
1.0 0:0.5 1:0.5 2:0.5 3:0.7071067811865475 4:0.7071067811865475 5:0.7071067811865475 6:0.36787944117144233 7:0.36787944117144233 8:0.36787944117144233 9:0.15238065385144653 10:0.15238065385144653 11:0.15238065385144653 12:0.09561961058402053 13:0.09561961058402053 14:0.09561961058402053 15:1.0 16:1.0 17:1.0 18:0.0 19:0.0 20:0.0 21:0.0 22:0.0 23:0.0 24:0.36787944117144233 25:0.36787944117144233 26:0.36787944117144233 27:0.36787944117144233 28:0.15238065385144653 29:0.09561961058402053 30:1.0 31:0.0 32:0.0 33:0.0 34:0.0 35:0.0 
1.0 0:0.5 1:0.5 2:0.5 3:0.7071067811865475 4:0.7071067811865475 5:0.7071067811865475 6:0.36787944117144233 7:0.36787944117144233 8:0.36787944117144233 9:0.15238065385144653 10:0.15238065385144653 11:0.15238065385144653 12:0.09561961058402053 13:0.09561961058402053 14:0.09561961058402053 15:1.0 16:1.0 17:1.0 18:0.0 19:0.0 20:0.0 21:0.0 22:0.0 23:0.0 24:0.36787944117144233 25:0.36787944117144233 26:0.36787944117144233 27:0.36787944117144233 28:0.15238065385144653 29:0.09561961058402053 30:1.0 31:0.0 32:0.0 33:0.0 34:0.0 35:0.0 
1.0 0:0.5 1:0.5 2:0.5 3:0.7071067811865475 4:0.7071067811865475 5:0.7071067811865475 6:0.36787944117144233 7:0.36787944117144233 8:0.36787944117144233 9:0.15238065385144653 10:0.15238065385144653 11:0.15238065385144653 12:0.09561961058402053 13:0.09561961058402053 14:0.09561961058402053 15:1.0 16:1.0 17:1.0 18:0.0 19:0.0 20:0.0 21:0.0 22:0.0 23:0.0 24:0.36787944117144233 25:0.36787944117144233 26:0.36787944117144233 27:0.36787944117144233 28:0.15238065385144653 29:0.09561961058402053 30:1.0 31:0.0 32:0.0 33:0.0 34:0.0 35:0.0 
1.0 0:1.0 1:1.0 2:1.0 3:0.0 4:0.0 5:0.0 6:0.0 7:0.0 8:0.0 9:0.0 10:0.0 11:0.0 12:0.0 13:0.0 14:0.0 15:0.0 16:0.0 17:0.0 18:0.0 19:0.0 20:0.0 21:0.0 22:0.0 23:0.0 24:0.36787944117144233 25:0.36787944117144233 26:0.36787944117144233 27:0.0 28:0.0 29:0.0 30:0.0 31:1.0 32:0.0 33:0.0 34:0.0 35:0.0 
1.0 0:0.5 1:0.5 2:0.5 3:0.7071067811865475 4:0.7071067811865475 5:0.7071067811865475 6:0.36787944117144233 7:0.36787944117144233 8:0.36787944117144233 9:0.15238065385144653 10:0.15238065385144653 11:0.15238065385144653 12:0.09561961058402053 13:0.09561961058402053 14:0.09561961058402053 15:1.0 16:1.0 17:1.0 18:0.0 19:0.0 20:0.0 21:0.0 22:0.0 23:0.0 24:0.36787944117144233 25:0.36787944117144233 26:0.36787944117144233 27:0.36787944117144233 28:0.15238065385144653 29:0.09561961058402053 30:1.0 31:0.0 32:0.0 33:0.0 34:0.0 35:0.0 
1.0 0:0.5 1:0.5 2:0.5 3:0.7071067811865475 4:0.7071067811865475 5:0.7071067811865475 6:0.36787944117144233 7:0.36787944117144233 8:0.36787944117144233 9:0.15238065385144653 10:0.15238065385144653 11:0.15238065385144653 12:0.09561961058402053 13:0.09561961058402053 14:0.09561961058402053 15:1.0 16:1.0 17:1.0 18:0.0 19:0.0 20:0.0 21:0.0 22:0.0 23:0.0 24:0.36787944117144233 25:0.36787944117144233 26:0.36787944117144233 27:0.36787944117144233 28:0.15238065385144653 29:0.09561961058402053 30:1.0 31:0.0 32:0.0 33:0.0 34:0.0 35:0.0 
1.0 0:0.5 1:0.5 2:0.5 3:0.7071067811865475 4:0.7071067811865475 5:0.7071067811865475 6:0.36787944117144233 7:0.36787944117144233 8:0.36787944117144233 9:0.15238065385144653 10:0.15238065385144653 11:0.15238065385144653 12:0.09561961058402053 13:0.09561961058402053 14:0.09561961058402053 15:1.0 16:1.0 17:1.0 18:0.0 19:0.0 20:0.0 21:0.0 22:0.0 23:0.0 24:0.36787944117144233 25:0.36787944117144233 26:0.36787944117144233 27:0.36787944117144233 28:0.15238065385144653 29:0.09561961058402053 30:1.0 31:0.0 32:0.0 33:0.0 34:0.0 35:0.0 
1.0 0:0.5 1:0.5 2:0.5 3:0.7071067811865475 4:0.7071067811865475 5:0.7071067811865475 6:0.36787944117144233 7:0.36787944117144233 8:0.36787944117144233 9:0.15238065385144653 10:0.15238065385144653 11:0.15238065385144653 12:0.09561961058402053 13:0.09561961058402053 14:0.09561961058402053 15:1.0 16:1.0 17:1.0 18:0.0 19:0.0 20:0.0 21:0.0 22:0.0 23:0.0 24:0.36787944117144233 25:0.36787944117144233 26:0.36787944117144233 27:0.36787944117144233 28:0.15238065385144653 29:0.09561961058402053 30:1.0 31:0.0 32:0.0 33:0.0 34:0.0 35:0.0 
1.0 0:0.5 1:0.5 2:0.5 3:0.7071067811865475 4:0.7071067811865475 5:0.7071067811865475 6:0.36787944117144233 7:0.36787944117144233 8:0.36787944117144233 9:0.15238065385144653 10:0.15238065385144653 11:0.15238065385144653 12:0.09561961058402053 13:0.09561961058402053 14:0.09561961058402053 15:1.0 16:1.0 17:1.0 18:0.0 19:0.0 20:0.0 21:0.0 22:0.0 23:0.0 24:0.36787944117144233 25:0.36787944117144233 26:0.36787944117144233 27:0.36787944117144233 28:0.15238065385144653 29:0.09561961058402053 30:1.0 31:0.0 32:0.0 33:0.0 34:0.0 35:0.0 
1.0 0:0.5 1:0.5 2:0.5 3:0.7071067811865475 4:0.7071067811865475 5:0.7071067811865475 6:0.36787944117144233 7:0.36787944117144233 8:0.36787944117144233 9:0.15238065385144653 10:0.15238065385144653 11:0.15238065385144653 12:0.09561961058402053 13:0.09561961058402053 14:0.09561961058402053 15:1.0 16:1.0 17:1.0 18:0.0 19:0.0 20:0.0 21:0.0 22:0.0 23:0.0 24:0.36787944117144233 25:0.36787944117144233 26:0.36787944117144233 27:0.36787944117144233 28:0.15238065385144653 29:0.09561961058402053 30:1.0 31:0.0 32:0.0 33:0.0 34:0.0 35:0.0 
1.0 0:0.5 1:0.5 2:0.5 3:0.7071067811865475 4:0.7071067811865475 5:0.7071067811865475 6:0.36787944117144233 7:0.36787944117144233 8:0.36787944117144233 9:0.15238065385144653 10:0.15238065385144653 11:0.15238065385144653 12:0.09561961058402053 13:0.09561961058402053 14:0.09561961058402053 15:1.0 16:1.0 17:1.0 18:0.0 19:0.0 20:0.0 21:0.0 22:0.0 23:0.0 24:0.36787944117144233 25:0.36787944117144233 26:0.36787944117144233 27:0.36787944117144233 28:0.15238065385144653 29:0.09561961058402053 30:1.0 31:0.0 32:0.0 33:0.0 34:0.0 35:0.0 
1.0 0:1.0 1:1.0 2:1.0 3:0.0 4:0.0 5:0.0 6:0.0 7:0.0 8:0.0 9:0.0 10:0.0 11:0.0 12:0.0 13:0.0 14:0.0 15:0.0 16:0.0 17:0.0 18:0.0 19:0.0 20:0.0 21:0.0 22:0.0 23:0.0 24:0.36787944117144233 25:0.36787944117144233 26:0.36787944117144233 27:0.0 28:0.0 29:0.0 30:0.0 31:1.0 32:0.0 33:0.0 34:0.0 35:0.0 
1.0 0:0.5 1:0.5 2:0.5 3:0.7071067811865475 4:0.7071067811865475 5:0.7071067811865475 6:0.36787944117144233 7:0.36787944117144233 8:0.36787944117144233 9:0.15238065385144653 10:0.15238065385144653 11:0.15238065385144653 12:0.09561961058402053 13:0.09561961058402053 14:0.09561961058402053 15:1.0 16:1.0 17:1.0 18:0.0 19:0.0 20:0.0 21:0.0 22:0.0 23:0.0 24:0.36787944117144233 25:0.36787944117144233 26:0.36787944117144233 27:0.36787944117144233 28:0.15238065385144653 29:0.09561961058402053 30:1.0 31:0.0 32:0.0 33:0.0 34:0.0 35:0.0 
1.0 0:0.5 1:0.5 2:0.5 3:0.7071067811865475 4:0.7071067811865475 5:0.7071067811865475 6:0.36787944117144233 7:0.36787944117144233 8:0.36787944117144233 9:0.15238065385144653 10:0.15238065385144653 11:0.15238065385144653 12:0.09561961058402053 13:0.09561961058402053 14:0.09561961058402053 15:1.0 16:1.0 17:1.0 18:0.0 19:0.0 20:0.0 21:0.0 22:0.0 23:0.0 24:0.36787944117144233 25:0.36787944117144233 26:0.36787944117144233 27:0.36787944117144233 28:0.15238065385144653 29:0.09561961058402053 30:1.0 31:0.0 32:0.0 33:0.0 34:0.0 35:0.0 
1.0 0:0.5 1:0.5 2:0.5 3:0.7071067811865475 4:0.7071067811865475 5:0.7071067811865475 6:0.36787944117144233 7:0.36787944117144233 8:0.36787944117144233 9:0.15238065385144653 10:0.15238065385144653 11:0.15238065385144653 12:0.09561961058402053 13:0.09561961058402053 14:0.09561961058402053 15:1.0 16:1.0 17:1.0 18:0.0 19:0.0 20:0.0 21:0.0 22:0.0 23:0.0 24:0.36787944117144233 25:0.36787944117144233 26:0.36787944117144233 27:0.36787944117144233 28:0.15238065385144653 29:0.09561961058402053 30:1.0 31:0.0 32:0.0 33:0.0 34:0.0 35:0.0 
1.0 0:0.5 1:0.5 2:0.5 3:0.7071067811865475 4:0.7071067811865475 5:0.7071067811865475 6:0.36787944117144233 7:0.36787944117144233 8:0.36787944117144233 9:0.15238065385144653 10:0.15238065385144653 11:0.15238065385144653 12:0.09561961058402053 13:0.09561961058402053 14:0.09561961058402053 15:1.0 16:1.0 17:1.0 18:0.0 19:0.0 20:0.0 21:0.0 22:0.0 23:0.0 24:0.36787944117144233 25:0.36787944117144233 26:0.36787944117144233 27:0.36787944117144233 28:0.15238065385144653 29:0.09561961058402053 30:1.0 31:0.0 32:0.0 33:0.0 34:0.0 35:0.0 
1.0 0:0.5 1:0.5 2:0.5 3:0.7071067811865475 4:0.7071067811865475 5:0.7071067811865475 6:0.36787944117144233 7:0.36787944117144233 8:0.36787944117144233 9:0.15238065385144653 10:0.15238065385144653 11:0.15238065385144653 12:0.09561961058402053 13:0.09561961058402053 14:0.09561961058402053 15:1.0 16:1.0 17:1.0 18:0.0 19:0.0 20:0.0 21:0.0 22:0.0 23:0.0 24:0.36787944117144233 25:0.36787944117144233 26:0.36787944117144233 27:0.36787944117144233 28:0.15238065385144653 29:0.09561961058402053 30:1.0 31:0.0 32:0.0 33:0.0 34:0.0 35:0.0 
1.0 0:0.5 1:0.5 2:0.5 3:0.7071067811865475 4:0.7071067811865475 5:0.7071067811865475 6:0.36787944117144233 7:0.36787944117144233 8:0.36787944117144233 9:0.15238065385144653 10:0.15238065385144653 11:0.15238065385144653 12:0.09561961058402053 13:0.09561961058402053 14:0.09561961058402053 15:1.0 16:1.0 17:1.0 18:0.0 19:0.0 20:0.0 21:0.0 22:0.0 23:0.0 24:0.36787944117144233 25:0.36787944117144233 26:0.36787944117144233 27:0.36787944117144233 28:0.15238065385144653 29:0.09561961058402053 30:1.0 31:0.0 32:0.0 33:0.0 34:0.0 35:0.0 
1.0 0:0.5 1:0.5 2:0.5 3:0.7071067811865475 4:0.7071067811865475 5:0.7071067811865475 6:0.36787944117144233 7:0.36787944117144233 8:0.36787944117144233 9:0.15238065385144653 10:0.15238065385144653 11:0.15238065385144653 12:0.09561961058402053 13:0.09561961058402053 14:0.09561961058402053 15:1.0 16:1.0 17:1.0 18:0.0 19:0.0 20:0.0 21:0.0 22:0.0 23:0.0 24:0.36787944117144233 25:0.36787944117144233 26:0.36787944117144233 27:0.36787944117144233 28:0.15238065385144653 29:0.09561961058402053 30:1.0 31:0.0 32:0.0 33:0.0 34:0.0 35:0.0 
1.0 0:0.5 1:0.5 2:0.5 3:0.7071067811865475 4:0.7071067811865475 5:0.7071067811865475 6:0.36787944117144233 7:0.36787944117144233 8:0.36787944117144233 9:0.15238065385144653 10:0.15238065385144653 11:0.15238065385144653 12:0.09561961058402053 13:0.09561961058402053 14:0.09561961058402053 15:1.0 16:1.0 17:1.0 18:0.0 19:0.0 20:0.0 21:0.0 22:0.0 23:0.0 24:0.36787944117144233 25:0.36787944117144233 26:0.36787944117144233 27:0.36787944117144233 28:0.15238065385144653 29:0.09561961058402053 30:1.0 31:0.0 32:0.0 33:0.0 34:0.0 35:0.0 
1.0 0:0.5 1:0.5 2:0.5 3:0.7071067811865475 4:0.7071067811865475 5:0.7071067811865475 6:0.36787944117144233 7:0.36787944117144233 8:0.36787944117144233 9:0.15238065385144653 10:0.15238065385144653 11:0.15238065385144653 12:0.09561961058402053 13:0.09561961058402053 14:0.09561961058402053 15:1.0 16:1.0 17:1.0 18:0.0 19:0.0 20:0.0 21:0.0 22:0.0 23:0.0 24:0.36787944117144233 25:0.36787944117144233 26:0.36787944117144233 27:0.36787944117144233 28:0.15238065385144653 29:0.09561961058402053 30:1.0 31:0.0 32:0.0 33:0.0 34:0.0 35:0.0 
1.0 0:0.3333333333333333 1:0.3333333333333333 2:0.3333333333333333 3:0.8164965809277259 4:0.8164965809277259 5:0.8164965809277259 6:0.6666666666666665 7:0.6666666666666665 8:0.6666666666666665 9:0.5811388300841895 10:0.5811388300841895 11:0.5811388300841895 12:0.35720880829745316 13:0.35720880829745316 14:0.35720880829745316 15:0.6666666666666666 16:0.6666666666666666 17:0.6666666666666666 18:0.5 19:0.5 20:0.5 21:0.0 22:0.0 23:0.0 24:0.6065306597126334 25:0.6065306597126334 26:0.6065306597126334 27:0.6666666666666665 28:0.5811388300841895 29:0.35720880829745316 30:0.3333333333333333 31:0.3333333333333333 32:0.0 33:0.5 34:0.0 35:0.0 
1.0 0:0.3333333333333333 1:0.3333333333333333 2:0.3333333333333333 3:0.8164965809277259 4:0.8164965809277259 5:0.8164965809277259 6:0.6666666666666665 7:0.6666666666666665 8:0.6666666666666665 9:0.5811388300841895 10:0.5811388300841895 11:0.5811388300841895 12:0.35720880829745316 13:0.35720880829745316 14:0.35720880829745316 15:0.6666666666666666 16:0.6666666666666666 17:0.6666666666666666 18:0.5 19:0.5 20:0.5 21:0.0 22:0.0 23:0.0 24:0.6065306597126334 25:0.6065306597126334 26:0.6065306597126334 27:0.6666666666666665 28:0.5811388300841895 29:0.35720880829745316 30:0.3333333333333333 31:0.3333333333333333 32:0.0 33:0.5 34:0.0 35:0.0 
1.0 0:1.0 1:1.0 2:1.0 3:0.0 4:0.0 5:0.0 6:0.0 7:0.0 8:0.0 9:0.0 10:0.0 11:0.0 12:0.0 13:0.0 14:0.0 15:0.0 16:0.0 17:0.0 18:0.0 19:0.0 20:0.0 21:0.0 22:0.0 23:0.0 24:0.36787944117144233 25:0.36787944117144233 26:0.36787944117144233 27:0.0 28:0.0 29:0.0 30:0.0 31:1.0 32:0.0 33:0.0 34:0.0 35:0.0 
1.0 0:1.0 1:1.0 2:1.0 3:0.0 4:0.0 5:0.0 6:0.0 7:0.0 8:0.0 9:0.0 10:0.0 11:0.0 12:0.0 13:0.0 14:0.0 15:0.0 16:0.0 17:0.0 18:0.0 19:0.0 20:0.0 21:0.0 22:0.0 23:0.0 24:0.36787944117144233 25:0.36787944117144233 26:0.36787944117144233 27:0.0 28:0.0 29:0.0 30:0.0 31:1.0 32:0.0 33:0.0 34:0.0 35:0.0 
1.0 0:1.0 1:1.0 2:1.0 3:0.0 4:0.0 5:0.0 6:0.0 7:0.0 8:0.0 9:0.0 10:0.0 11:0.0 12:0.0 13:0.0 14:0.0 15:0.0 16:0.0 17:0.0 18:0.0 19:0.0 20:0.0 21:0.0 22:0.0 23:0.0 24:0.36787944117144233 25:0.36787944117144233 26:0.36787944117144233 27:0.0 28:0.0 29:0.0 30:0.0 31:1.0 32:0.0 33:0.0 34:0.0 35:0.0 
-0.010537653759196712 0:0.5 1:0.5 2:0.5 3:0.7071067811865475 4:0.7071067811865475 5:0.7071067811865475 6:0.36787944117144233 7:0.36787944117144233 8:0.36787944117144233 9:0.15238065385144653 10:0.15238065385144653 11:0.15238065385144653 12:0.09561961058402053 13:0.09561961058402053 14:0.09561961058402053 15:1.0 16:1.0 17:1.0 18:0.0 19:0.0 20:0.0 21:0.0 22:0.0 23:0.0 24:0.36787944117144233 25:0.36787944117144233 26:0.36787944117144233 27:0.36787944117144233 28:0.15238065385144653 29:0.09561961058402053 30:1.0 31:0.0 32:0.0 33:0.0 34:0.0 35:0.0 
1.0 0:1.0 1:1.0 2:1.0 3:0.0 4:0.0 5:0.0 6:0.0 7:0.0 8:0.0 9:0.0 10:0.0 11:0.0 12:0.0 13:0.0 14:0.0 15:0.0 16:0.0 17:0.0 18:0.0 19:0.0 20:0.0 21:0.0 22:0.0 23:0.0 24:0.36787944117144233 25:0.36787944117144233 26:0.36787944117144233 27:0.0 28:0.0 29:0.0 30:0.0 31:1.0 32:0.0 33:0.0 34:0.0 35:0.0 
-0.2259858035954027 0:0.5 1:0.5 2:0.5 3:0.7071067811865475 4:0.7071067811865475 5:0.7071067811865475 6:0.36787944117144233 7:0.36787944117144233 8:0.36787944117144233 9:0.15238065385144653 10:0.15238065385144653 11:0.15238065385144653 12:0.09561961058402053 13:0.09561961058402053 14:0.09561961058402053 15:1.0 16:1.0 17:1.0 18:0.0 19:0.0 20:0.0 21:0.0 22:0.0 23:0.0 24:0.36787944117144233 25:0.36787944117144233 26:0.36787944117144233 27:0.36787944117144233 28:0.15238065385144653 29:0.09561961058402053 30:1.0 31:0.0 32:0.0 33:0.0 34:0.0 35:0.0 
-0.1928991789136703 0:0.5 1:0.5 2:0.5 3:0.7071067811865475 4:0.7071067811865475 5:0.7071067811865475 6:0.36787944117144233 7:0.36787944117144233 8:0.36787944117144233 9:0.15238065385144653 10:0.15238065385144653 11:0.15238065385144653 12:0.09561961058402053 13:0.09561961058402053 14:0.09561961058402053 15:1.0 16:1.0 17:1.0 18:0.0 19:0.0 20:0.0 21:0.0 22:0.0 23:0.0 24:0.36787944117144233 25:0.36787944117144233 26:0.36787944117144233 27:0.36787944117144233 28:0.15238065385144653 29:0.09561961058402053 30:1.0 31:0.0 32:0.0 33:0.0 34:0.0 35:0.0 
1.0 0:1.0 1:1.0 2:1.0 3:0.0 4:0.0 5:0.0 6:0.0 7:0.0 8:0.0 9:0.0 10:0.0 11:0.0 12:0.0 13:0.0 14:0.0 15:0.0 16:0.0 17:0.0 18:0.0 19:0.0 20:0.0 21:0.0 22:0.0 23:0.0 24:0.36787944117144233 25:0.36787944117144233 26:0.36787944117144233 27:0.0 28:0.0 29:0.0 30:0.0 31:1.0 32:0.0 33:0.0 34:0.0 35:0.0 
1.0 0:1.0 1:1.0 2:1.0 3:0.0 4:0.0 5:0.0 6:0.0 7:0.0 8:0.0 9:0.0 10:0.0 11:0.0 12:0.0 13:0.0 14:0.0 15:0.0 16:0.0 17:0.0 18:0.0 19:0.0 20:0.0 21:0.0 22:0.0 23:0.0 24:0.36787944117144233 25:0.36787944117144233 26:0.36787944117144233 27:0.0 28:0.0 29:0.0 30:0.0 31:1.0 32:0.0 33:0.0 34:0.0 35:0.0 
1.0 0:1.0 1:1.0 2:1.0 3:0.0 4:0.0 5:0.0 6:0.0 7:0.0 8:0.0 9:0.0 10:0.0 11:0.0 12:0.0 13:0.0 14:0.0 15:0.0 16:0.0 17:0.0 18:0.0 19:0.0 20:0.0 21:0.0 22:0.0 23:0.0 24:0.36787944117144233 25:0.36787944117144233 26:0.36787944117144233 27:0.0 28:0.0 29:0.0 30:0.0 31:1.0 32:0.0 33:0.0 34:0.0 35:0.0 
1.0 0:1.0 1:1.0 2:1.0 3:0.0 4:0.0 5:0.0 6:0.0 7:0.0 8:0.0 9:0.0 10:0.0 11:0.0 12:0.0 13:0.0 14:0.0 15:0.0 16:0.0 17:0.0 18:0.0 19:0.0 20:0.0 21:0.0 22:0.0 23:0.0 24:0.36787944117144233 25:0.36787944117144233 26:0.36787944117144233 27:0.0 28:0.0 29:0.0 30:0.0 31:0.0 32:0.0 33:0.0 34:0.0 35:0.0 
-1.0 0:0.3333333333333333 1:0.3333333333333333 2:0.3333333333333333 3:0.8164965809277259 4:0.8164965809277259 5:0.8164965809277259 6:0.6666666666666665 7:0.6666666666666665 8:0.6666666666666665 9:0.5811388300841895 10:0.5811388300841895 11:0.5811388300841895 12:0.35720880829745316 13:0.35720880829745316 14:0.35720880829745316 15:0.6666666666666666 16:0.6666666666666666 17:0.6666666666666666 18:0.5 19:0.5 20:0.5 21:0.0 22:0.0 23:0.0 24:0.6065306597126334 25:0.6065306597126334 26:0.6065306597126334 27:0.6666666666666665 28:0.5811388300841895 29:0.35720880829745316 30:0.3333333333333333 31:0.3333333333333333 32:0.0 33:0.5 34:0.0 35:0.0 
1.0 0:1.0 1:1.0 2:1.0 3:0.0 4:0.0 5:0.0 6:0.0 7:0.0 8:0.0 9:0.0 10:0.0 11:0.0 12:0.0 13:0.0 14:0.0 15:0.0 16:0.0 17:0.0 18:0.0 19:0.0 20:0.0 21:0.0 22:0.0 23:0.0 24:0.36787944117144233 25:0.36787944117144233 26:0.36787944117144233 27:0.0 28:0.0 29:0.0 30:0.0 31:0.0 32:0.0 33:0.0 34:0.0 35:0.0 
1.0 0:1.0 1:1.0 2:1.0 3:0.0 4:0.0 5:0.0 6:0.0 7:0.0 8:0.0 9:0.0 10:0.0 11:0.0 12:0.0 13:0.0 14:0.0 15:0.0 16:0.0 17:0.0 18:0.0 19:0.0 20:0.0 21:0.0 22:0.0 23:0.0 24:0.36787944117144233 25:0.36787944117144233 26:0.36787944117144233 27:0.0 28:0.0 29:0.0 30:0.0 31:0.0 32:0.0 33:0.0 34:0.0 35:0.0 
-1.0 0:1.0 1:1.0 2:1.0 3:0.0 4:0.0 5:0.0 6:0.0 7:0.0 8:0.0 9:0.0 10:0.0 11:0.0 12:0.0 13:0.0 14:0.0 15:0.0 16:0.0 17:0.0 18:0.0 19:0.0 20:0.0 21:0.0 22:0.0 23:0.0 24:0.36787944117144233 25:0.36787944117144233 26:0.36787944117144233 27:0.0 28:0.0 29:0.0 30:0.0 31:0.0 32:0.0 33:0.0 34:0.0 35:0.0 
-1.0 0:1.0 1:1.0 2:1.0 3:0.0 4:0.0 5:0.0 6:0.0 7:0.0 8:0.0 9:0.0 10:0.0 11:0.0 12:0.0 13:0.0 14:0.0 15:0.0 16:0.0 17:0.0 18:0.0 19:0.0 20:0.0 21:0.0 22:0.0 23:0.0 24:0.36787944117144233 25:0.36787944117144233 26:0.36787944117144233 27:0.0 28:0.0 29:0.0 30:0.0 31:0.0 32:0.0 33:0.0 34:0.0 35:0.0 
-1.0 0:0.0 1:1.0 2:0.3333333333333333 3:0.0 4:1.0 5:0.6666666666666666 6:0.0 7:1.0 8:0.6666666666666666 9:0.0 10:0.4142135623730949 11:0.2761423749153966 12:0.0 13:0.2599210498948732 14:0.17328069992991546 15:0.0 16:1.0 17:0.6666666666666666 18:0.0 19:0.0 20:0.0 21:0.0 22:0.0 23:0.0 24:0.1353352832366127 25:1.0 26:0.7117784277455376 27:1.0 28:0.4142135623730949 29:0.2599210498948732 30:1.0 31:0.0 32:0.0 33:0.0 34:0.0 35:0.0 
1.0 0:1.0 1:1.0 2:1.0 3:0.0 4:0.0 5:0.0 6:0.0 7:0.0 8:0.0 9:0.0 10:0.0 11:0.0 12:0.0 13:0.0 14:0.0 15:0.0 16:0.0 17:0.0 18:0.0 19:0.0 20:0.0 21:0.0 22:0.0 23:0.0 24:0.1353352832366127 25:1.0 26:0.7117784277455376 27:0.0 28:0.0 29:0.0 30:1.0 31:0.0 32:0.0 33:0.0 34:0.0 35:0.0 
-1.0 0:0.0 1:1.0 2:0.3333333333333333 3:0.0 4:1.0 5:0.6666666666666666 6:0.0 7:1.0 8:0.6666666666666666 9:0.0 10:0.4142135623730949 11:0.2761423749153966 12:0.0 13:0.2599210498948732 14:0.17328069992991546 15:0.0 16:1.0 17:0.6666666666666666 18:0.0 19:0.0 20:0.0 21:0.0 22:0.0 23:0.0 24:0.1353352832366127 25:1.0 26:0.7117784277455376 27:1.0 28:0.4142135623730949 29:0.2599210498948732 30:1.0 31:0.0 32:0.0 33:0.0 34:0.0 35:0.0 
-1.0 0:0.0 1:1.0 2:0.3333333333333333 3:0.0 4:1.0 5:0.6666666666666666 6:0.0 7:1.0 8:0.6666666666666666 9:0.0 10:0.4142135623730949 11:0.2761423749153966 12:0.0 13:0.2599210498948732 14:0.17328069992991546 15:0.0 16:1.0 17:0.6666666666666666 18:0.0 19:0.0 20:0.0 21:0.0 22:0.0 23:0.0 24:0.1353352832366127 25:1.0 26:0.7117784277455376 27:1.0 28:0.4142135623730949 29:0.2599210498948732 30:1.0 31:0.0 32:0.0 33:0.0 34:0.0 35:0.0 
-1.0 0:0.0 1:1.0 2:0.3333333333333333 3:0.0 4:1.0 5:0.6666666666666666 6:0.0 7:1.0 8:0.6666666666666666 9:0.0 10:0.4142135623730949 11:0.2761423749153966 12:0.0 13:0.2599210498948732 14:0.17328069992991546 15:0.0 16:1.0 17:0.6666666666666666 18:0.0 19:0.0 20:0.0 21:0.0 22:0.0 23:0.0 24:0.1353352832366127 25:1.0 26:0.7117784277455376 27:1.0 28:0.4142135623730949 29:0.2599210498948732 30:1.0 31:0.0 32:0.0 33:0.0 34:0.0 35:0.0 
-1.0 0:0.0 1:1.0 2:0.3333333333333333 3:0.0 4:1.0 5:0.6666666666666666 6:0.0 7:1.0 8:0.6666666666666666 9:0.0 10:0.4142135623730949 11:0.2761423749153966 12:0.0 13:0.2599210498948732 14:0.17328069992991546 15:0.0 16:1.0 17:0.6666666666666666 18:0.0 19:0.0 20:0.0 21:0.0 22:0.0 23:0.0 24:0.1353352832366127 25:1.0 26:0.7117784277455376 27:1.0 28:0.4142135623730949 29:0.2599210498948732 30:1.0 31:0.0 32:0.0 33:0.0 34:0.0 35:0.0 
-1.0 0:0.0 1:1.0 2:0.3333333333333333 3:0.0 4:1.0 5:0.6666666666666666 6:0.0 7:1.0 8:0.6666666666666666 9:0.0 10:0.4142135623730949 11:0.2761423749153966 12:0.0 13:0.2599210498948732 14:0.17328069992991546 15:0.0 16:1.0 17:0.6666666666666666 18:0.0 19:0.0 20:0.0 21:0.0 22:0.0 23:0.0 24:0.1353352832366127 25:1.0 26:0.7117784277455376 27:1.0 28:0.4142135623730949 29:0.2599210498948732 30:1.0 31:0.0 32:0.0 33:0.0 34:0.0 35:0.0 
-1.0 0:0.0 1:1.0 2:0.3333333333333333 3:0.0 4:1.0 5:0.6666666666666666 6:0.0 7:1.0 8:0.6666666666666666 9:0.0 10:0.4142135623730949 11:0.2761423749153966 12:0.0 13:0.2599210498948732 14:0.17328069992991546 15:0.0 16:1.0 17:0.6666666666666666 18:0.0 19:0.0 20:0.0 21:0.0 22:0.0 23:0.0 24:0.1353352832366127 25:1.0 26:0.7117784277455376 27:1.0 28:0.4142135623730949 29:0.2599210498948732 30:1.0 31:0.0 32:0.0 33:0.0 34:0.0 35:0.0 
-0.08906592500533478 0:0.0 1:1.0 2:0.3333333333333333 3:0.0 4:1.0 5:0.6666666666666666 6:0.0 7:1.0 8:0.6666666666666666 9:0.0 10:0.4142135623730949 11:0.2761423749153966 12:0.0 13:0.2599210498948732 14:0.17328069992991546 15:0.0 16:1.0 17:0.6666666666666666 18:0.0 19:0.0 20:0.0 21:0.0 22:0.0 23:0.0 24:0.1353352832366127 25:1.0 26:0.7117784277455376 27:1.0 28:0.4142135623730949 29:0.2599210498948732 30:1.0 31:0.0 32:0.0 33:0.0 34:0.0 35:0.0 
-1.0 0:0.0 1:1.0 2:0.3333333333333333 3:0.0 4:1.0 5:0.6666666666666666 6:0.0 7:1.0 8:0.6666666666666666 9:0.0 10:0.4142135623730949 11:0.2761423749153966 12:0.0 13:0.2599210498948732 14:0.17328069992991546 15:0.0 16:1.0 17:0.6666666666666666 18:0.0 19:0.0 20:0.0 21:0.0 22:0.0 23:0.0 24:0.1353352832366127 25:1.0 26:0.7117784277455376 27:1.0 28:0.4142135623730949 29:0.2599210498948732 30:1.0 31:0.0 32:0.0 33:0.0 34:0.0 35:0.0 
-1.0 0:0.0 1:1.0 2:0.3333333333333333 3:0.0 4:1.0 5:0.6666666666666666 6:0.0 7:1.0 8:0.6666666666666666 9:0.0 10:0.4142135623730949 11:0.2761423749153966 12:0.0 13:0.2599210498948732 14:0.17328069992991546 15:0.0 16:1.0 17:0.6666666666666666 18:0.0 19:0.0 20:0.0 21:0.0 22:0.0 23:0.0 24:0.1353352832366127 25:1.0 26:0.7117784277455376 27:1.0 28:0.4142135623730949 29:0.2599210498948732 30:1.0 31:0.0 32:0.0 33:0.0 34:0.0 35:0.0 
-1.0 0:0.0 1:1.0 2:0.3333333333333333 3:0.0 4:1.0 5:0.6666666666666666 6:0.0 7:1.0 8:0.6666666666666666 9:0.0 10:0.4142135623730949 11:0.2761423749153966 12:0.0 13:0.2599210498948732 14:0.17328069992991546 15:0.0 16:1.0 17:0.6666666666666666 18:0.0 19:0.0 20:0.0 21:0.0 22:0.0 23:0.0 24:0.1353352832366127 25:1.0 26:0.7117784277455376 27:1.0 28:0.4142135623730949 29:0.2599210498948732 30:1.0 31:0.0 32:0.0 33:0.0 34:0.0 35:0.0 
-0.20981510380718277 0:0.0 1:1.0 2:0.3333333333333333 3:0.0 4:1.0 5:0.6666666666666666 6:0.0 7:1.0 8:0.6666666666666666 9:0.0 10:0.4142135623730949 11:0.2761423749153966 12:0.0 13:0.2599210498948732 14:0.17328069992991546 15:0.0 16:1.0 17:0.6666666666666666 18:0.0 19:0.0 20:0.0 21:0.0 22:0.0 23:0.0 24:0.1353352832366127 25:1.0 26:0.7117784277455376 27:1.0 28:0.4142135623730949 29:0.2599210498948732 30:1.0 31:0.0 32:0.0 33:0.0 34:0.0 35:0.0 
-1.0 0:0.5 1:1.0 2:0.6666666666666666 3:0.0 4:0.7071067811865475 5:0.4714045207910316 6:0.0 7:0.5 8:0.3333333333333333 9:0.0 10:0.22474487139158894 11:0.1498299142610593 12:0.0 13:0.14471424255333187 14:0.09647616170222124 15:0.0 16:0.5 17:0.3333333333333333 18:0.0 19:0.0 20:0.0 21:0.0 22:0.0 23:0.0 24:0.36787944117144233 25:0.6065306597126334 26:0.4474298473518394 27:0.5 28:0.22474487139158894 29:0.14471424255333187 30:1.0 31:0.0 32:0.0 33:0.0 34:0.0 35:0.0 
-1.0 0:0.0 1:1.0 2:0.3333333333333333 3:0.0 4:1.0 5:0.6666666666666666 6:0.0 7:1.0 8:0.6666666666666666 9:0.0 10:0.4142135623730949 11:0.2761423749153966 12:0.0 13:0.2599210498948732 14:0.17328069992991546 15:0.0 16:1.0 17:0.6666666666666666 18:0.0 19:0.0 20:0.0 21:0.0 22:0.0 23:0.0 24:0.1353352832366127 25:1.0 26:0.7117784277455376 27:1.0 28:0.4142135623730949 29:0.2599210498948732 30:1.0 31:0.0 32:0.0 33:0.0 34:0.0 35:0.0 
1.0 0:0.3333333333333333 1:1.0 2:0.7777777777777778 3:0.0 4:0.6666666666666667 5:0.22222222222222224 6:0.0 7:0.6666666666666665 8:0.22222222222222218 9:0.0 10:0.2909944487358056 11:0.09699814957860187 12:0.0 13:0.1856311014966876 14:0.0618770338322292 15:0.0 16:0.6666666666666666 17:0.2222222222222222 18:0.0 19:0.0 20:0.0 21:0.0 22:0.0 23:0.0 24:0.1353352832366127 25:1.0 26:0.42355685549107513 27:0.6666666666666665 28:0.2909944487358056 29:0.1856311014966876 30:0.3333333333333333 31:0.0 32:0.0 33:0.0 34:0.0 35:0.0 
-1.0 0:0.0 1:1.0 2:0.3333333333333333 3:0.0 4:1.0 5:0.6666666666666666 6:0.0 7:1.0 8:0.6666666666666666 9:0.0 10:0.4142135623730949 11:0.2761423749153966 12:0.0 13:0.2599210498948732 14:0.17328069992991546 15:0.0 16:1.0 17:0.6666666666666666 18:0.0 19:0.0 20:0.0 21:0.0 22:0.0 23:0.0 24:0.1353352832366127 25:1.0 26:0.7117784277455376 27:1.0 28:0.4142135623730949 29:0.2599210498948732 30:1.0 31:0.0 32:0.0 33:0.0 34:0.0 35:0.0 
-1.0 0:0.0 1:1.0 2:0.3333333333333333 3:0.0 4:1.0 5:0.6666666666666666 6:0.0 7:1.0 8:0.6666666666666666 9:0.0 10:0.4142135623730949 11:0.2761423749153966 12:0.0 13:0.2599210498948732 14:0.17328069992991546 15:0.0 16:1.0 17:0.6666666666666666 18:0.0 19:0.0 20:0.0 21:0.0 22:0.0 23:0.0 24:0.1353352832366127 25:1.0 26:0.7117784277455376 27:1.0 28:0.4142135623730949 29:0.2599210498948732 30:1.0 31:0.0 32:0.0 33:0.0 34:0.0 35:0.0 
-1.0 0:0.0 1:1.0 2:0.3333333333333333 3:0.0 4:1.0 5:0.6666666666666666 6:0.0 7:1.0 8:0.6666666666666666 9:0.0 10:0.4142135623730949 11:0.2761423749153966 12:0.0 13:0.2599210498948732 14:0.17328069992991546 15:0.0 16:1.0 17:0.6666666666666666 18:0.0 19:0.0 20:0.0 21:0.0 22:0.0 23:0.0 24:0.1353352832366127 25:1.0 26:0.7117784277455376 27:1.0 28:0.4142135623730949 29:0.2599210498948732 30:1.0 31:0.0 32:0.0 33:0.0 34:0.0 35:0.0 
-1.0 0:0.0 1:1.0 2:0.3333333333333333 3:0.0 4:1.0 5:0.6666666666666666 6:0.0 7:1.0 8:0.6666666666666666 9:0.0 10:0.4142135623730949 11:0.2761423749153966 12:0.0 13:0.2599210498948732 14:0.17328069992991546 15:0.0 16:1.0 17:0.6666666666666666 18:0.0 19:0.0 20:0.0 21:0.0 22:0.0 23:0.0 24:0.1353352832366127 25:1.0 26:0.7117784277455376 27:1.0 28:0.4142135623730949 29:0.2599210498948732 30:1.0 31:0.0 32:0.0 33:0.0 34:0.0 35:0.0 
-1.0 0:0.0 1:1.0 2:0.3333333333333333 3:0.0 4:1.0 5:0.6666666666666666 6:0.0 7:1.0 8:0.6666666666666666 9:0.0 10:0.4142135623730949 11:0.2761423749153966 12:0.0 13:0.2599210498948732 14:0.17328069992991546 15:0.0 16:1.0 17:0.6666666666666666 18:0.0 19:0.0 20:0.0 21:0.0 22:0.0 23:0.0 24:0.1353352832366127 25:1.0 26:0.7117784277455376 27:1.0 28:0.4142135623730949 29:0.2599210498948732 30:1.0 31:0.0 32:0.0 33:0.0 34:0.0 35:0.0 
-1.0 0:0.0 1:1.0 2:0.3333333333333333 3:0.0 4:1.0 5:0.6666666666666666 6:0.0 7:1.0 8:0.6666666666666666 9:0.0 10:0.4142135623730949 11:0.2761423749153966 12:0.0 13:0.2599210498948732 14:0.17328069992991546 15:0.0 16:1.0 17:0.6666666666666666 18:0.0 19:0.0 20:0.0 21:0.0 22:0.0 23:0.0 24:0.1353352832366127 25:1.0 26:0.7117784277455376 27:1.0 28:0.4142135623730949 29:0.2599210498948732 30:1.0 31:0.0 32:0.0 33:0.0 34:0.0 35:0.0 
-1.0 0:0.0 1:1.0 2:0.3333333333333333 3:0.0 4:1.0 5:0.6666666666666666 6:0.0 7:1.0 8:0.6666666666666666 9:0.0 10:0.4142135623730949 11:0.2761423749153966 12:0.0 13:0.2599210498948732 14:0.17328069992991546 15:0.0 16:1.0 17:0.6666666666666666 18:0.0 19:0.0 20:0.0 21:0.0 22:0.0 23:0.0 24:0.1353352832366127 25:1.0 26:0.7117784277455376 27:1.0 28:0.4142135623730949 29:0.2599210498948732 30:1.0 31:0.0 32:0.0 33:0.0 34:0.0 35:0.0 
-1.0 0:0.0 1:1.0 2:0.3333333333333333 3:0.0 4:1.0 5:0.6666666666666666 6:0.0 7:1.0 8:0.6666666666666666 9:0.0 10:0.4142135623730949 11:0.2761423749153966 12:0.0 13:0.2599210498948732 14:0.17328069992991546 15:0.0 16:1.0 17:0.6666666666666666 18:0.0 19:0.0 20:0.0 21:0.0 22:0.0 23:0.0 24:0.1353352832366127 25:1.0 26:0.7117784277455376 27:1.0 28:0.4142135623730949 29:0.2599210498948732 30:1.0 31:0.0 32:0.0 33:0.0 34:0.0 35:0.0 
-1.0 0:0.0 1:1.0 2:0.3333333333333333 3:0.0 4:1.0 5:0.6666666666666666 6:0.0 7:1.0 8:0.6666666666666666 9:0.0 10:0.4142135623730949 11:0.2761423749153966 12:0.0 13:0.2599210498948732 14:0.17328069992991546 15:0.0 16:1.0 17:0.6666666666666666 18:0.0 19:0.0 20:0.0 21:0.0 22:0.0 23:0.0 24:0.1353352832366127 25:1.0 26:0.7117784277455376 27:1.0 28:0.4142135623730949 29:0.2599210498948732 30:1.0 31:0.0 32:0.0 33:0.0 34:0.0 35:0.0 
1.0 0:0.6666666666666666 1:1.0 2:0.8888888888888888 3:0.0 4:0.40824829046386296 5:0.1360827634879543 6:0.0 7:0.3032653298563167 8:0.10108844328543891 9:0.0 10:0.1363146551121714 11:0.045438218370723794 12:0.0 13:0.08777362500568643 14:0.029257875001895476 15:0.0 16:0.5 17:0.16666666666666666 18:0.0 19:0.0 20:0.0 21:0.0 22:0.0 23:0.0 24:0.36787944117144233 25:0.6065306597126334 26:0.4474298473518394 27:0.5 28:0.22474487139158894 29:0.14471424255333187 30:0.0 31:0.5 32:0.0 33:0.0 34:0.0 35:0.0 
-1.0 0:0.0 1:1.0 2:0.3333333333333333 3:0.0 4:1.0 5:0.6666666666666666 6:0.0 7:1.0 8:0.6666666666666666 9:0.0 10:0.4142135623730949 11:0.2761423749153966 12:0.0 13:0.2599210498948732 14:0.17328069992991546 15:0.0 16:1.0 17:0.6666666666666666 18:0.0 19:0.0 20:0.0 21:0.0 22:0.0 23:0.0 24:0.1353352832366127 25:1.0 26:0.7117784277455376 27:1.0 28:0.4142135623730949 29:0.2599210498948732 30:1.0 31:0.0 32:0.0 33:0.0 34:0.0 35:0.0 
-1.0 0:0.0 1:1.0 2:0.3333333333333333 3:0.0 4:1.0 5:0.6666666666666666 6:0.0 7:1.0 8:0.6666666666666666 9:0.0 10:0.4142135623730949 11:0.2761423749153966 12:0.0 13:0.2599210498948732 14:0.17328069992991546 15:0.0 16:1.0 17:0.6666666666666666 18:0.0 19:0.0 20:0.0 21:0.0 22:0.0 23:0.0 24:0.1353352832366127 25:1.0 26:0.7117784277455376 27:1.0 28:0.4142135623730949 29:0.2599210498948732 30:1.0 31:0.0 32:0.0 33:0.0 34:0.0 35:0.0 
