svm_type epsilon_svr
kernel_type linear
nr_class 2
total_sv 3292
rho -0.9442023221500275
SV
1.0 0:0.0 1:1.0 2:0.5 3:0.0 4:0.9999999999999998 5:0.4999999999999999 6:0.0 7:1.0 8:0.5 9:0.0 10:1.0 11:0.5 12:0.0 13:1.0 14:0.5 15:0.0 16:1.0 17:0.5 18:0.0 19:1.0 20:0.5 21:0.0 22:1.0 23:0.5 24:1.0 25:1.0 26:1.0 27:1.0 28:1.0 29:1.0 30:0.0 31:0.0 32:0.0 33:0.0 34:0.0 35:0.0 
1.0 0:0.0 1:1.0 2:0.5 3:0.0 4:0.9999999999999998 5:0.4999999999999999 6:0.0 7:1.0 8:0.5 9:0.0 10:1.0 11:0.5 12:0.0 13:1.0 14:0.5 15:0.0 16:1.0 17:0.5 18:0.0 19:1.0 20:0.5 21:0.0 22:1.0 23:0.5 24:1.0 25:1.0 26:1.0 27:1.0 28:1.0 29:1.0 30:0.0 31:0.0 32:0.0 33:0.0 34:0.0 35:0.0 
-1.0 0:1.0 1:1.0 2:1.0 3:0.0 4:0.0 5:0.0 6:0.0 7:0.0 8:0.0 9:0.0 10:0.0 11:0.0 12:0.0 13:0.0 14:0.0 15:0.0 16:0.0 17:0.0 18:0.0 19:0.0 20:0.0 21:0.0 22:0.0 23:0.0 24:0.513417119032592 25:0.513417119032592 26:0.513417119032592 27:0.0 28:0.0 29:0.0 30:0.0 31:0.0 32:0.0 33:0.0 34:0.0 35:0.0 
-1.0 0:1.0 1:1.0 2:1.0 3:0.0 4:0.0 5:0.0 6:0.0 7:0.0 8:0.0 9:0.0 10:0.0 11:0.0 12:0.0 13:0.0 14:0.0 15:0.0 16:0.0 17:0.0 18:0.0 19:0.0 20:0.0 21:0.0 22:0.0 23:0.0 24:0.36787944117144233 25:0.36787944117144233 26:0.36787944117144233 27:0.0 28:0.0 29:0.0 30:0.0 31:0.0 32:0.0 33:0.0 34:0.0 35:0.0 
1.0 0:0.0 1:0.5 2:0.25 3:0.5 4:1.0 5:0.75 6:0.5 7:1.0 8:0.75 9:0.4142135623730949 10:1.0 11:0.7071067811865475 12:0.2599210498948732 13:1.0 14:0.6299605249474366 15:0.5 16:1.0 17:0.75 18:0.3333333333333333 19:1.0 20:0.6666666666666666 21:0.0 22:1.0 23:0.5 24:1.0 25:1.0 26:1.0 27:1.0 28:1.0 29:1.0 30:0.0 31:0.0 32:0.0 33:0.0 34:0.0 35:0.0 
1.0 0:0.0 1:0.5 2:0.25 3:0.5 4:1.0 5:0.75 6:0.5 7:1.0 8:0.75 9:0.4142135623730949 10:1.0 11:0.7071067811865475 12:0.2599210498948732 13:1.0 14:0.6299605249474366 15:0.5 16:1.0 17:0.75 18:0.3333333333333333 19:1.0 20:0.6666666666666666 21:0.0 22:1.0 23:0.5 24:1.0 25:1.0 26:1.0 27:1.0 28:1.0 29:1.0 30:0.0 31:0.0 32:0.0 33:0.0 34:0.0 35:0.0 
-1.0 0:1.0 1:1.0 2:1.0 3:0.0 4:0.0 5:0.0 6:0.0 7:0.0 8:0.0 9:0.0 10:0.0 11:0.0 12:0.0 13:0.0 14:0.0 15:0.0 16:0.0 17:0.0 18:0.0 19:0.0 20:0.0 21:0.0 22:0.0 23:0.0 24:0.4723665527410147 25:0.4723665527410147 26:0.4723665527410147 27:0.0 28:0.0 29:0.0 30:0.0 31:0.0 32:0.0 33:0.0 34:0.0 35:0.0 
-1.0 0:1.0 1:1.0 2:1.0 3:0.0 4:0.0 5:0.0 6:0.0 7:0.0 8:0.0 9:0.0 10:0.0 11:0.0 12:0.0 13:0.0 14:0.0 15:0.0 16:0.0 17:0.0 18:0.0 19:0.0 20:0.0 21:0.0 22:0.0 23:0.0 24:0.1353352832366127 25:0.1353352832366127 26:0.1353352832366127 27:0.0 28:0.0 29:0.0 30:0.0 31:0.0 32:0.0 33:0.0 34:0.0 35:0.0 
-1.0 0:0.9166666666666666 1:0.9166666666666666 2:0.9166666666666666 3:0.11180339887498948 4:0.11180339887498948 5:0.11180339887498948 6:0.04931939278832129 7:0.04931939278832129 8:0.04931939278832129 9:0.023536475584605362 10:0.023536475584605362 11:0.023536475584605362 12:0.015451412925357016 13:0.015451412925357016 14:0.015451412925357016 15:0.2 16:0.2 17:0.2 18:0.0 19:0.0 20:0.0 21:0.0 22:0.0 23:0.0 24:0.2465969639416065 25:0.2465969639416065 26:0.2465969639416065 27:0.04931939278832129 28:0.023536475584605362 29:0.015451412925357016 30:0.0 31:0.0 32:0.0 33:0.0 34:0.0 35:0.0 
-1.0 0:1.0 1:1.0 2:1.0 3:0.2886751345948129 4:0.2886751345948129 5:0.2886751345948129 6:0.23884377019126304 7:0.23884377019126304 8:0.23884377019126304 9:0.11084777951135584 10:0.11084777951135584 11:0.11084777951135584 12:0.07211344244946852 13:0.07211344244946852 14:0.07211344244946852 15:0.3333333333333333 16:0.3333333333333333 17:0.3333333333333333 18:0.0 19:0.0 20:0.0 21:0.0 22:0.0 23:0.0 24:0.7165313105737893 25:0.7165313105737893 26:0.7165313105737893 27:0.23884377019126304 28:0.11084777951135584 29:0.07211344244946852 30:0.0 31:0.0 32:0.0 33:0.0 34:0.0 35:0.0 
-1.0 0:1.0 1:1.0 2:1.0 3:0.13363062095621217 4:0.13363062095621217 5:0.13363062095621217 6:0.125 7:0.125 8:0.125 9:0.06066017177982119 10:0.06066017177982119 11:0.06066017177982119 12:0.040041911525952045 13:0.040041911525952045 14:0.040041911525952045 15:0.125 16:0.125 17:0.125 18:0.0 19:0.0 20:0.0 21:0.0 22:0.0 23:0.0 24:0.8668778997501817 25:0.8668778997501817 26:0.8668778997501817 27:0.125 28:0.06066017177982119 29:0.040041911525952045 30:0.0 31:0.0 32:0.0 33:0.0 34:0.0 35:0.0 
-1.0 0:0.9333333333333333 1:0.9333333333333333 2:0.9333333333333333 3:0.08084520834544433 4:0.08084520834544433 5:0.08084520834544433 6:0.06666666666666665 7:0.06666666666666665 8:0.06666666666666665 9:0.03279555898864439 10:0.03279555898864439 11:0.03279555898864439 12:0.02174590985807079 13:0.02174590985807079 14:0.02174590985807079 15:0.06666666666666667 16:0.06666666666666667 17:0.06666666666666667 18:0.0 19:0.0 20:0.0 21:0.0 22:0.0 23:0.0 24:0.513417119032592 25:0.513417119032592 26:0.513417119032592 27:0.06666666666666665 28:0.03279555898864439 29:0.02174590985807079 30:0.0 31:0.0 32:0.0 33:0.0 34:0.0 35:0.0 
-1.0 0:0.8333333333333334 1:0.8333333333333334 2:0.8333333333333334 3:0.33333333333333337 4:0.33333333333333337 5:0.33333333333333337 6:0.16666666666666674 7:0.16666666666666674 8:0.16666666666666674 9:0.08012344973464347 10:0.08012344973464347 11:0.08012344973464347 12:0.05272659960939663 13:0.05272659960939663 14:0.05272659960939663 15:0.16666666666666666 16:0.16666666666666666 17:0.16666666666666666 18:0.0 19:0.0 20:0.0 21:0.0 22:0.0 23:0.0 24:0.049787068367863944 25:0.049787068367863944 26:0.049787068367863944 27:0.16666666666666674 28:0.08012344973464347 29:0.05272659960939663 30:0.0 31:0.0 32:0.0 33:0.0 34:0.0 35:0.0 
-1.0 0:0.96 1:0.96 2:0.96 3:0.12630179559013452 4:0.12630179559013452 5:0.12630179559013452 6:0.09168339535331801 7:0.09168339535331801 8:0.09168339535331801 9:0.043464197542321885 10:0.043464197542321885 11:0.043464197542321885 12:0.028471958628115194 13:0.028471958628115194 14:0.028471958628115194 15:0.23076923076923078 16:0.23076923076923078 17:0.23076923076923078 18:0.0 19:0.0 20:0.0 21:0.0 22:0.0 23:0.0 24:0.39729471319771126 25:0.39729471319771126 26:0.39729471319771126 27:0.09168339535331801 28:0.043464197542321885 29:0.028471958628115194 30:0.0 31:0.0 32:0.0 33:0.0 34:0.0 35:0.0 
-1.0 0:0.75 1:0.75 2:0.75 3:0.45643546458763845 4:0.45643546458763845 5:0.45643546458763845 6:0.41666666666666674 7:0.41666666666666674 8:0.41666666666666674 9:0.24316312101612203 10:0.24316312101612203 11:0.24316312101612203 12:0.15616214441920406 13:0.15616214441920406 14:0.15616214441920406 15:0.4166666666666667 16:0.4166666666666667 17:0.4166666666666667 18:0.09090909090909091 19:0.09090909090909091 20:0.09090909090909091 21:0.0 22:0.0 23:0.0 24:0.8187307530779819 25:0.8187307530779819 26:0.8187307530779819 27:0.41666666666666674 28:0.24316312101612203 29:0.15616214441920406 30:0.0 31:0.0 32:0.0 33:0.0 34:0.0 35:0.0 
1.0 0:0.0 1:1.0 2:0.5 3:0.0 4:1.0 5:0.5 6:0.0 7:1.0 8:0.5 9:0.0 10:0.4142135623730949 11:0.20710678118654746 12:0.0 13:0.2599210498948732 14:0.1299605249474366 15:0.0 16:1.0 17:0.5 18:0.0 19:0.0 20:0.0 21:0.0 22:0.0 23:0.0 24:0.1353352832366127 25:1.0 26:0.5676676416183064 27:1.0 28:0.4142135623730949 29:0.2599210498948732 30:0.0 31:0.0 32:0.0 33:0.0 34:0.0 35:0.0 
-1.0 0:1.0 1:1.0 2:1.0 3:0.0 4:0.0 5:0.0 6:0.0 7:0.0 8:0.0 9:0.0 10:0.0 11:0.0 12:0.0 13:0.0 14:0.0 15:0.0 16:0.0 17:0.0 18:0.0 19:0.0 20:0.0 21:0.0 22:0.0 23:0.0 24:0.0024787521766663585 25:0.2635971381157267 26:0.13303794514619655 27:0.0 28:0.0 29:0.0 30:0.0 31:0.0 32:0.0 33:0.0 34:0.0 35:0.0 
-1.0 0:1.0 1:1.0 2:1.0 3:0.0 4:0.0 5:0.0 6:0.0 7:0.0 8:0.0 9:0.0 10:0.0 11:0.0 12:0.0 13:0.0 14:0.0 15:0.0 16:0.0 17:0.0 18:0.0 19:0.0 20:0.0 21:0.0 22:0.0 23:0.0 24:0.6703200460356393 25:0.6703200460356393 26:0.6703200460356393 27:0.0 28:0.0 29:0.0 30:0.0 31:0.0 32:0.0 33:0.0 34:0.0 35:0.0 
-1.0 0:0.9166666666666666 1:0.9166666666666666 2:0.9166666666666666 3:0.12909944487358055 4:0.12909944487358055 5:0.12909944487358055 6:0.08333333333333326 7:0.08333333333333326 8:0.08333333333333326 9:0.04083299973306631 10:0.04083299973306631 11:0.04083299973306631 12:0.027040024624839676 13:0.027040024624839676 14:0.027040024624839676 15:0.08333333333333333 16:0.08333333333333333 17:0.08333333333333333 18:0.0 19:0.0 20:0.0 21:0.0 22:0.0 23:0.0 24:0.2465969639416065 25:0.2465969639416065 26:0.2465969639416065 27:0.08333333333333326 28:0.04083299973306631 29:0.027040024624839676 30:0.0 31:0.0 32:0.0 33:0.0 34:0.0 35:0.0 
-1.0 0:0.8888888888888888 1:0.8888888888888888 2:0.8888888888888888 3:0.3779644730092272 4:0.3779644730092272 5:0.3779644730092272 6:0.33333333333333326 7:0.33333333333333326 8:0.33333333333333326 9:0.15470053837925146 10:0.15470053837925146 11:0.15470053837925146 12:0.10064241629820891 13:0.10064241629820891 14:0.10064241629820891 15:0.3333333333333333 16:0.3333333333333333 17:0.3333333333333333 18:0.0 19:0.0 20:0.0 21:0.0 22:0.0 23:0.0 24:0.7514772930752859 25:0.7514772930752859 26:0.7514772930752859 27:0.33333333333333326 28:0.15470053837925146 29:0.10064241629820891 30:0.0 31:0.0 32:0.0 33:0.0 34:0.0 35:0.0 
1.0 0:0.0 1:1.0 2:0.6666666666666666 3:0.0 4:1.0000000000000002 5:0.3333333333333334 6:0.0 7:1.0 8:0.3333333333333333 9:0.0 10:1.0 11:0.3333333333333333 12:0.0 13:1.0 14:0.3333333333333333 15:0.0 16:1.0 17:0.3333333333333333 18:0.0 19:1.0 20:0.3333333333333333 21:0.0 22:1.0 23:0.3333333333333333 24:0.513417119032592 25:1.0 26:0.6756114126883946 27:1.0 28:1.0 29:1.0 30:0.0 31:0.0 32:0.0 33:0.0 34:0.0 35:0.0 
1.0 0:0.0 1:1.0 2:0.6666666666666666 3:0.0 4:0.9999999999999998 5:0.33333333333333326 6:0.0 7:1.0 8:0.3333333333333333 9:0.0 10:1.0 11:0.3333333333333333 12:0.0 13:1.0 14:0.3333333333333333 15:0.0 16:1.0 17:0.3333333333333333 18:0.0 19:1.0 20:0.3333333333333333 21:0.0 22:1.0 23:0.3333333333333333 24:0.513417119032592 25:1.0 26:0.8378057063441974 27:1.0 28:1.0 29:1.0 30:0.0 31:0.0 32:0.0 33:0.0 34:0.0 35:0.0 
1.0 0:0.0 1:1.0 2:0.6666666666666666 3:0.0 4:0.9999999999999998 5:0.33333333333333326 6:0.0 7:1.0 8:0.3333333333333333 9:0.0 10:1.0 11:0.3333333333333333 12:0.0 13:1.0 14:0.3333333333333333 15:0.0 16:1.0 17:0.3333333333333333 18:0.0 19:1.0 20:0.3333333333333333 21:0.0 22:1.0 23:0.3333333333333333 24:0.513417119032592 25:1.0 26:0.8378057063441974 27:1.0 28:1.0 29:1.0 30:0.0 31:0.0 32:0.0 33:0.0 34:0.0 35:0.0 
-1.0 0:0.9285714285714286 1:0.9285714285714286 2:0.9285714285714286 3:0.16666666666666666 4:0.16666666666666666 5:0.16666666666666666 6:0.059045819092626836 7:0.059045819092626836 8:0.059045819092626836 9:0.028653836232311918 10:0.028653836232311918 11:0.028653836232311918 12:0.01891445971267467 13:0.01891445971267467 14:0.01891445971267467 15:0.125 16:0.125 17:0.125 18:0.0 19:0.0 20:0.0 21:0.0 22:0.0 23:0.0 24:0.4723665527410147 25:0.4723665527410147 26:0.4723665527410147 27:0.059045819092626836 28:0.028653836232311918 29:0.01891445971267467 30:0.0 31:0.0 32:0.0 33:0.0 34:0.0 35:0.0 
1.0 0:0.0 1:0.75 2:0.375 3:0.2886751345948129 4:1.0000000000000002 5:0.6443375672974065 6:0.23884377019126304 7:1.0 8:0.6194218850956316 9:0.11084777951135584 10:1.0 11:0.5554238897556779 12:0.07211344244946852 13:1.0 14:0.5360567212247342 15:0.3333333333333333 16:1.0 17:0.6666666666666666 18:0.0 19:1.0 20:0.5 21:0.0 22:1.0 23:0.5 24:0.7165313105737893 25:1.0 26:0.8582656552868946 27:1.0 28:1.0 29:1.0 30:0.0 31:0.3333333333333333 32:0.0 33:0.0 34:0.0 35:0.0 
-1.0 0:0.8 1:0.9 2:0.8500000000000001 3:0.18257418583505536 4:0.31622776601683794 5:0.24940097592594665 6:0.10000000000000009 7:0.19999999999999996 8:0.15000000000000002 9:0.04880884817015163 10:0.09544511501033215 11:0.07212698159024189 12:0.03228011545636722 13:0.06265856918261115 14:0.04746934231948918 15:0.1 16:0.2 17:0.15000000000000002 18:0.0 19:0.0 20:0.0 21:0.0 22:0.0 23:0.0 24:0.09697196786440505 25:0.22313016014842982 26:0.16005106400641744 27:0.19999999999999996 28:0.09544511501033215 29:0.06265856918261115 30:0.0 31:0.1 32:0.0 33:0.0 34:0.0 35:0.0 
1.0 0:0.0 1:0.0 2:0.0 3:0.9999999999999998 4:0.9999999999999998 5:0.9999999999999998 6:1.0 7:1.0 8:1.0 9:1.0 10:1.0 11:1.0 12:0.5874010519681994 13:0.5874010519681994 14:0.5874010519681994 15:1.0 16:1.0 17:1.0 18:1.0 19:1.0 20:1.0 21:0.0 22:0.0 23:0.0 24:1.0 25:1.0 26:1.0 27:1.0 28:1.0 29:0.5874010519681994 30:0.0 31:0.0 32:0.0 33:0.0 34:0.0 35:0.0 
-1.0 0:1.0 1:1.0 2:1.0 3:0.0 4:0.0 5:0.0 6:0.0 7:0.0 8:0.0 9:0.0 10:0.0 11:0.0 12:0.0 13:0.0 14:0.0 15:0.0 16:0.0 17:0.0 18:0.0 19:0.0 20:0.0 21:0.0 22:0.0 23:0.0 24:0.1353352832366127 25:0.1353352832366127 26:0.1353352832366127 27:0.0 28:0.0 29:0.0 30:0.0 31:0.0 32:0.0 33:0.0 34:0.0 35:0.0 
-1.0 0:1.0 1:1.0 2:1.0 3:0.13363062095621217 4:0.13363062095621217 5:0.13363062095621217 6:0.12383969996431161 7:0.12383969996431161 8:0.12383969996431161 9:0.05985355654448908 10:0.05985355654448908 11:0.05985355654448908 12:0.03945674266369282 13:0.03945674266369282 14:0.03945674266369282 15:0.14285714285714285 16:0.14285714285714285 17:0.14285714285714285 18:0.0 19:0.0 20:0.0 21:0.0 22:0.0 23:0.0 24:0.8668778997501817 25:0.8668778997501817 26:0.8668778997501817 27:0.12383969996431161 28:0.05985355654448908 29:0.03945674266369282 30:0.0 31:0.0 32:0.0 33:0.0 34:0.0 35:0.0 
-1.0 0:0.9 1:0.9 2:0.9 3:0.1091089451179962 4:0.1091089451179962 5:0.1091089451179962 6:0.09306272250443647 7:0.09306272250443647 8:0.09306272250443647 9:0.04497858865298122 10:0.04497858865298122 11:0.04497858865298122 12:0.029650846170480024 13:0.029650846170480024 14:0.029650846170480024 15:0.14285714285714285 16:0.14285714285714285 17:0.14285714285714285 18:0.0 19:0.0 20:0.0 21:0.0 22:0.0 23:0.0 24:0.6514390575310556 25:0.6514390575310556 26:0.6514390575310556 27:0.09306272250443647 28:0.04497858865298122 29:0.029650846170480024 30:0.0 31:0.0 32:0.0 33:0.0 34:0.0 35:0.0 
1.0 0:0.0 1:1.0 2:0.6 3:0.0 4:1.0 5:0.4177050983124842 6:0.0 7:1.0 8:0.3960251468258884 9:0.0 10:1.0 11:0.31673911117462783 12:0.0 13:1.0 14:0.2932101235468076 15:0.0 16:1.0 17:0.4375 18:0.0 19:1.0 20:0.25 21:0.0 22:1.0 23:0.25 24:0.7788007830714049 25:1.0 26:0.8341005873035537 27:1.0 28:1.0 29:1.0 30:0.0 31:0.25 32:0.0 33:0.0 34:0.0 35:0.0 
1.0 0:0.0 1:1.0 2:0.6 3:0.0 4:0.9999999999999998 5:0.4118033988749894 6:0.0 7:1.0 8:0.39999999999999997 9:0.0 10:1.0 11:0.31966526790756383 12:0.0 13:1.0 14:0.295336877816002 15:0.0 16:1.0 17:0.39999999999999997 18:0.0 19:1.0 20:0.25 21:0.0 22:1.0 23:0.25 24:0.7788007830714049 25:1.0 26:0.9447001957678512 27:1.0 28:1.0 29:1.0 30:0.0 31:0.2 32:0.0 33:0.0 34:0.0 35:0.0 
1.0 0:0.0 1:0.8 2:0.5 3:0.19999999999999996 4:0.9999999999999998 5:0.5059016994374946 6:0.19999999999999996 7:1.0 8:0.5 9:0.09544511501033215 10:1.0 11:0.4350208921259078 12:0.06265856918261115 13:1.0 14:0.39973243445534423 15:0.2 16:1.0 17:0.5 18:0.0 19:1.0 20:0.375 21:0.0 22:1.0 23:0.3333333333333333 24:0.7788007830714049 25:1.0 26:0.9447001957678512 27:1.0 28:1.0 29:1.0 30:0.0 31:0.2 32:0.0 33:0.0 34:0.0 35:0.0 
1.0 0:0.0 1:1.0 2:0.6 3:0.0 4:0.9999999999999998 5:0.3999999999999999 6:0.0 7:1.0 8:0.4 9:0.0 10:1.0 11:0.3872983346207417 12:0.0 13:1.0 14:0.36840314986403866 15:0.0 16:1.0 17:0.4 18:0.0 19:1.0 20:0.375 21:0.0 22:1.0 23:0.3333333333333333 24:0.7788007830714049 25:1.0 26:0.9447001957678512 27:1.0 28:1.0 29:1.0 30:0.0 31:0.0 32:0.0 33:0.0 34:0.0 35:0.0 
1.0 0:0.0 1:0.6923076923076923 2:0.34615384615384615 3:0.43852900965351466 4:0.9999999999999998 5:0.7192645048267572 6:0.37040911034085894 7:1.0 8:0.6852045551704294 9:0.16649509573165844 10:1.0 11:0.5832475478658292 12:0.10720694767566186 13:1.0 14:0.5536034738378309 15:0.5 16:1.0 17:0.75 18:0.0 19:1.0 20:0.5 21:0.0 22:1.0 23:0.5 24:0.7408182206817179 25:1.0 26:0.8704091103408589 27:1.0 28:1.0 29:1.0 30:0.0 31:0.0 32:0.0 33:0.0 34:0.0 35:0.0 
1.0 0:0.0 1:0.6923076923076923 2:0.34615384615384615 3:0.43852900965351466 4:1.0000000000000002 5:0.7192645048267574 6:0.3846153846153846 7:1.0 8:0.6923076923076923 9:0.17669681082910427 10:1.0 11:0.5883484054145521 12:0.11457607795906144 13:1.0 14:0.5572880389795307 15:0.38461538461538464 16:1.0 17:0.6923076923076923 18:0.0 19:1.0 20:0.5 21:0.0 22:1.0 23:0.5 24:0.7408182206817179 25:1.0 26:0.8704091103408589 27:1.0 28:1.0 29:1.0 30:0.0 31:0.0 32:0.0 33:0.0 34:0.0 35:0.0 
-1.0 0:0.9230769230769231 1:1.0 2:0.9615384615384616 3:0.0 4:0.10482848367219183 5:0.052414241836095915 6:0.0 7:0.06062469223956425 8:0.030312346119782126 9:0.0 10:0.029300809401175115 11:0.014650404700587557 12:0.0 13:0.019315719284295815 14:0.009657859642147907 15:0.0 16:0.14285714285714285 17:0.07142857142857142 18:0.0 19:0.0 20:0.0 21:0.0 22:0.0 23:0.0 24:0.42437284567694994 25:0.6514390575310556 26:0.5379059516040028 27:0.09306272250443647 28:0.04497858865298122 29:0.029650846170480024 30:0.0 31:0.0 32:0.0 33:0.0 34:0.0 35:0.0 
-1.0 0:1.0 1:1.0 2:1.0 3:0.0 4:0.0 5:0.0 6:0.0 7:0.0 8:0.0 9:0.0 10:0.0 11:0.0 12:0.0 13:0.0 14:0.0 15:0.0 16:0.0 17:0.0 18:0.0 19:0.0 20:0.0 21:0.0 22:0.0 23:0.0 24:0.09697196786440505 25:0.09697196786440505 26:0.09697196786440505 27:0.0 28:0.0 29:0.0 30:0.0 31:0.0 32:0.0 33:0.0 34:0.0 35:0.0 
-1.0 0:0.875 1:0.875 2:0.875 3:0.12499999999999997 4:0.12499999999999997 5:0.12499999999999997 6:0.11942188509563159 7:0.11942188509563159 8:0.11942188509563159 9:0.057410960446057216 10:0.057410960446057216 11:0.057410960446057216 12:0.03778025952022041 13:0.03778025952022041 14:0.03778025952022041 15:0.16666666666666666 16:0.16666666666666666 17:0.16666666666666666 18:0.0 19:0.0 20:0.0 21:0.0 22:0.0 23:0.0 24:0.7165313105737893 25:0.7165313105737893 26:0.7165313105737893 27:0.11942188509563159 28:0.057410960446057216 29:0.03778025952022041 30:0.0 31:0.0 32:0.0 33:0.0 34:0.0 35:0.0 
-1.0 0:1.0 1:1.0 2:1.0 3:0.0 4:0.0 5:0.0 6:0.0 7:0.0 8:0.0 9:0.0 10:0.0 11:0.0 12:0.0 13:0.0 14:0.0 15:0.0 16:0.0 17:0.0 18:0.0 19:0.0 20:0.0 21:0.0 22:0.0 23:0.0 24:0.7788007830714049 25:0.7788007830714049 26:0.7788007830714049 27:0.0 28:0.0 29:0.0 30:0.0 31:0.0 32:0.0 33:0.0 34:0.0 35:0.0 
1.0 0:0.0 1:0.8571428571428571 2:0.42857142857142855 3:0.5962847939999439 4:0.9999999999999998 5:0.7981423969999719 6:0.4021920276213837 7:1.0 8:0.7010960138106919 9:0.17757519666097743 10:1.0 11:0.5887875983304887 12:0.11369103591951046 13:1.0 14:0.5568455179597552 15:0.6 16:1.0 17:0.8 18:0.0 19:1.0 20:0.5 21:0.0 22:1.0 23:0.5 24:0.6703200460356393 25:1.0 26:0.8351600230178197 27:1.0 28:1.0 29:1.0 30:0.0 31:0.2 32:0.0 33:0.0 34:0.0 35:0.0 
-1.0 0:0.9090909090909091 1:0.9090909090909091 2:0.9090909090909091 3:0.12403473458920847 4:0.18490006540840973 5:0.1544673999988091 6:0.09090909090909083 7:0.09090909090909083 8:0.09090909090909083 9:0.044465935734187 10:0.044465935734187 11:0.044465935734187 12:0.029428498400178693 13:0.029428498400178693 14:0.029428498400178693 15:0.09090909090909091 16:0.09090909090909091 17:0.09090909090909091 18:0.0 19:0.0 20:0.0 21:0.0 22:0.0 23:0.0 24:0.301194211912202 25:0.5647181220077593 26:0.4329561669599806 27:0.09090909090909083 28:0.044465935734187 29:0.029428498400178693 30:0.0 31:0.09090909090909091 32:0.0 33:0.0 34:0.0 35:0.0 
-1.0 0:0.9285714285714286 1:0.9285714285714286 2:0.9285714285714286 3:0.11180339887498948 4:0.11180339887498948 5:0.11180339887498948 6:0.033059777644317306 7:0.033059777644317306 8:0.033059777644317306 9:0.01577697139738937 10:0.01577697139738937 11:0.01577697139738937 12:0.010357391823440988 13:0.010357391823440988 14:0.010357391823440988 15:0.2 16:0.2 17:0.2 18:0.0 19:0.0 20:0.0 21:0.0 22:0.0 23:0.0 24:0.16529888822158656 25:0.16529888822158656 26:0.16529888822158656 27:0.033059777644317306 28:0.01577697139738937 29:0.010357391823440988 30:0.0 31:0.0 32:0.0 33:0.0 34:0.0 35:0.0 
-1.0 0:1.0 1:1.0 2:1.0 3:0.07669649888473704 4:0.07669649888473704 5:0.07669649888473704 6:0.09090909090909083 7:0.09090909090909083 8:0.09090909090909083 9:0.044465935734187 10:0.044465935734187 11:0.044465935734187 12:0.029428498400178693 13:0.029428498400178693 14:0.029428498400178693 15:0.09090909090909091 16:0.09090909090909091 17:0.09090909090909091 18:0.0 19:0.0 20:0.0 21:0.0 22:0.0 23:0.0 24:0.9048374180359595 25:0.9048374180359595 26:0.9048374180359595 27:0.09090909090909083 28:0.044465935734187 29:0.029428498400178693 30:0.0 31:0.0 32:0.0 33:0.0 34:0.0 35:0.0 
-1.0 0:0.8888888888888888 1:0.8888888888888888 2:0.8888888888888888 3:0.16666666666666666 4:0.16666666666666666 5:0.16666666666666666 6:0.11111111111111116 7:0.11111111111111116 8:0.11111111111111116 9:0.05409255338945984 10:0.05409255338945984 11:0.05409255338945984 12:0.03574416865128627 13:0.03574416865128627 14:0.03574416865128627 15:0.1111111111111111 16:0.1111111111111111 17:0.1111111111111111 18:0.0 19:0.0 20:0.0 21:0.0 22:0.0 23:0.0 24:0.2865047968601901 25:0.2865047968601901 26:0.2865047968601901 27:0.11111111111111116 28:0.05409255338945984 29:0.03574416865128627 30:0.0 31:0.0 32:0.0 33:0.0 34:0.0 35:0.0 
-1.0 0:0.8888888888888888 1:0.8888888888888888 2:0.8888888888888888 3:0.2279211529192759 4:0.2279211529192759 5:0.2279211529192759 6:0.11111111111111116 7:0.11111111111111116 8:0.11111111111111116 9:0.05409255338945984 10:0.05409255338945984 11:0.05409255338945984 12:0.03574416865128627 13:0.03574416865128627 14:0.03574416865128627 15:0.1111111111111111 16:0.1111111111111111 17:0.1111111111111111 18:0.0 19:0.0 20:0.0 21:0.0 22:0.0 23:0.0 24:0.44932896411722156 25:0.44932896411722156 26:0.44932896411722156 27:0.11111111111111116 28:0.05409255338945984 29:0.03574416865128627 30:0.0 31:0.0 32:0.0 33:0.0 34:0.0 35:0.0 
-1.0 0:0.8888888888888888 1:0.8888888888888888 2:0.8888888888888888 3:0.14907119849998599 4:0.14907119849998599 5:0.14907119849998599 6:0.11111111111111116 7:0.11111111111111116 8:0.11111111111111116 9:0.05409255338945984 10:0.05409255338945984 11:0.05409255338945984 12:0.03574416865128627 13:0.03574416865128627 14:0.03574416865128627 15:0.1111111111111111 16:0.1111111111111111 17:0.1111111111111111 18:0.0 19:0.0 20:0.0 21:0.0 22:0.0 23:0.0 24:0.44932896411722156 25:0.44932896411722156 26:0.44932896411722156 27:0.11111111111111116 28:0.05409255338945984 29:0.03574416865128627 30:0.0 31:0.0 32:0.0 33:0.0 34:0.0 35:0.0 
0.16169609816709454 0:0.0 1:0.0 2:0.0 3:0.9999999999999999 4:0.9999999999999999 5:0.9999999999999999 6:1.0 7:1.0 8:1.0 9:1.0 10:1.0 11:1.0 12:1.0 13:1.0 14:1.0 15:1.0 16:1.0 17:1.0 18:1.0 19:1.0 20:1.0 21:1.0 22:1.0 23:1.0 24:1.0 25:1.0 26:1.0 27:1.0 28:1.0 29:1.0 30:0.0 31:0.0 32:0.0 33:0.0 34:0.0 35:0.0 
-1.0 0:0.9090909090909091 1:0.9090909090909091 2:0.9090909090909091 3:0.20965696734438366 4:0.20965696734438366 5:0.20965696734438366 6:0.09090909090909083 7:0.09090909090909083 8:0.09090909090909083 9:0.044465935734187 10:0.044465935734187 11:0.044465935734187 12:0.029428498400178693 13:0.029428498400178693 14:0.029428498400178693 15:0.09090909090909091 16:0.09090909090909091 17:0.09090909090909091 18:0.0 19:0.0 20:0.0 21:0.0 22:0.0 23:0.0 24:0.5647181220077593 25:0.5647181220077593 26:0.5647181220077593 27:0.09090909090909083 28:0.044465935734187 29:0.029428498400178693 30:0.0 31:0.0 32:0.0 33:0.0 34:0.0 35:0.0 
1.0 0:0.0 1:0.0 2:0.0 3:0.9999999999999999 4:0.9999999999999999 5:0.9999999999999999 6:1.0 7:1.0 8:1.0 9:1.0 10:1.0 11:1.0 12:1.0 13:1.0 14:1.0 15:1.0 16:1.0 17:1.0 18:1.0 19:1.0 20:1.0 21:1.0 22:1.0 23:1.0 24:1.0 25:1.0 26:1.0 27:1.0 28:1.0 29:1.0 30:0.0 31:0.0 32:0.0 33:0.0 34:0.0 35:0.0 
-1.0 0:0.9230769230769231 1:0.9230769230769231 2:0.9230769230769231 3:0.1632993161855452 4:0.1632993161855452 5:0.1632993161855452 6:0.07408182206817185 7:0.07408182206817185 8:0.07408182206817185 9:0.03615848405493585 10:0.03615848405493585 11:0.03615848405493585 12:0.023913697695786384 13:0.023913697695786384 14:0.023913697695786384 15:0.1 16:0.1 17:0.1 18:0.0 19:0.0 20:0.0 21:0.0 22:0.0 23:0.0 24:0.7408182206817179 25:0.7408182206817179 26:0.7408182206817179 27:0.07408182206817185 28:0.03615848405493585 29:0.023913697695786384 30:0.0 31:0.0 32:0.0 33:0.0 34:0.0 35:0.0 
1.0 0:0.0 1:0.0 2:0.0 3:1.0 4:1.0 5:1.0 6:1.0 7:1.0 8:1.0 9:1.0 10:1.0 11:1.0 12:1.0 13:1.0 14:1.0 15:1.0 16:1.0 17:1.0 18:1.0 19:1.0 20:1.0 21:1.0 22:1.0 23:1.0 24:1.0 25:1.0 26:1.0 27:1.0 28:1.0 29:1.0 30:0.0 31:0.0 32:0.0 33:0.0 34:0.0 35:0.0 
-1.0 0:0.8333333333333334 1:0.8333333333333334 2:0.8333333333333334 3:0.3563483225498992 4:0.3563483225498992 5:0.3563483225498992 6:0.16666666666666674 7:0.16666666666666674 8:0.16666666666666674 9:0.08012344973464347 10:0.08012344973464347 11:0.08012344973464347 12:0.05272659960939663 13:0.05272659960939663 14:0.05272659960939663 15:0.16666666666666666 16:0.16666666666666666 17:0.16666666666666666 18:0.0 19:0.0 20:0.0 21:0.0 22:0.0 23:0.0 24:0.48954165955695317 25:0.48954165955695317 26:0.48954165955695317 27:0.16666666666666674 28:0.08012344973464347 29:0.05272659960939663 30:0.0 31:0.0 32:0.0 33:0.0 34:0.0 35:0.0 
1.0 0:0.0 1:1.0 2:0.6666666666666666 3:0.0 4:1.0000000000000002 5:0.3333333333333334 6:0.0 7:1.0 8:0.3333333333333333 9:0.0 10:1.0 11:0.3333333333333333 12:0.0 13:1.0 14:0.3333333333333333 15:0.0 16:1.0 17:0.3333333333333333 18:0.0 19:1.0 20:0.3333333333333333 21:0.0 22:1.0 23:0.3333333333333333 24:0.6065306597126334 25:1.0 26:0.8688435532375444 27:1.0 28:1.0 29:1.0 30:0.0 31:0.0 32:0.0 33:0.0 34:0.0 35:0.0 
1.0 0:0.0 1:1.0 2:0.6296296296296297 3:0.0 4:1.0000000000000002 5:0.4153943273195552 6:0.0 7:1.0 8:0.36702948109514627 9:0.0 10:1.0 11:0.34953244294200175 12:0.0 13:1.0 14:0.3439934330818304 15:0.0 16:1.0 17:0.3888888888888889 18:0.0 19:1.0 20:0.3333333333333333 21:0.0 22:1.0 23:0.3333333333333333 24:0.6065306597126334 25:1.0 26:0.8688435532375444 27:1.0 28:1.0 29:1.0 30:0.0 31:0.0 32:0.0 33:0.0 34:0.0 35:0.0 
1.0 0:0.0 1:1.0 2:0.6296296296296297 3:0.0 4:1.0 5:0.4153943273195552 6:0.0 7:1.0 8:0.3703703703703704 9:0.0 10:1.0 11:0.35136418446315326 12:0.0 13:1.0 14:0.3452480562170954 15:0.0 16:1.0 17:0.3703703703703704 18:0.0 19:1.0 20:0.3333333333333333 21:0.0 22:1.0 23:0.3333333333333333 24:0.6065306597126334 25:1.0 26:0.737687106475089 27:1.0 28:1.0 29:1.0 30:0.0 31:0.0 32:0.0 33:0.0 34:0.0 35:0.0 
1.0 0:0.0 1:0.0 2:0.0 3:1.0000000000000002 4:1.0000000000000002 5:1.0000000000000002 6:1.0 7:1.0 8:1.0 9:1.0 10:1.0 11:1.0 12:1.0 13:1.0 14:1.0 15:1.0 16:1.0 17:1.0 18:1.0 19:1.0 20:1.0 21:1.0 22:1.0 23:1.0 24:1.0 25:1.0 26:1.0 27:1.0 28:1.0 29:1.0 30:0.0 31:0.0 32:0.0 33:0.0 34:0.0 35:0.0 
-1.0 0:1.0 1:1.0 2:1.0 3:0.0 4:0.0 5:0.0 6:0.0 7:0.0 8:0.0 9:0.0 10:0.0 11:0.0 12:0.0 13:0.0 14:0.0 15:0.0 16:0.0 17:0.0 18:0.0 19:0.0 20:0.0 21:0.0 22:0.0 23:0.0 24:0.18887560283756186 25:0.18887560283756186 26:0.18887560283756186 27:0.0 28:0.0 29:0.0 30:0.0 31:0.0 32:0.0 33:0.0 34:0.0 35:0.0 
1.0 0:0.0 1:1.0 2:0.5 3:0.1543033499620919 4:1.0000000000000002 5:0.577151674981046 6:0.14108028748176907 7:1.0 8:0.5705401437408846 9:0.06782303593556742 10:1.0 11:0.5339115179677837 12:0.044632102984978834 13:1.0 14:0.5223160514924894 15:0.16666666666666666 16:1.0 17:0.5833333333333334 18:0.0 19:1.0 20:0.5 21:0.0 22:1.0 23:0.5 24:0.846481724890614 25:1.0 26:0.923240862445307 27:1.0 28:1.0 29:1.0 30:0.0 31:0.0 32:0.0 33:0.0 34:0.0 35:0.0 
1.0 0:0.0 1:1.0 2:0.5 3:0.1543033499620919 4:0.9999999999999999 5:0.5771516749810459 6:0.1428571428571428 7:1.0 8:0.5714285714285714 9:0.06904496764969759 10:1.0 11:0.5345224838248488 12:0.04551591714942038 13:1.0 14:0.5227579585747102 15:0.14285714285714285 16:1.0 17:0.5714285714285714 18:0.0 19:1.0 20:0.5 21:0.0 22:1.0 23:0.5 24:0.846481724890614 25:1.0 26:0.923240862445307 27:1.0 28:1.0 29:1.0 30:0.0 31:0.0 32:0.0 33:0.0 34:0.0 35:0.0 
-1.0 0:0.9 1:0.9 2:0.9 3:0.11952286093343936 4:0.12909944487358058 5:0.12431115290350997 6:0.10000000000000009 7:0.10000000000000009 8:0.10000000000000009 9:0.04880884817015163 10:0.04880884817015163 11:0.04880884817015163 12:0.03228011545636722 13:0.03228011545636722 14:0.03228011545636722 15:0.1 16:0.1 17:0.1 18:0.0 19:0.0 20:0.0 21:0.0 22:0.0 23:0.0 24:0.513417119032592 25:0.6514390575310556 26:0.5824280882818238 27:0.19999999999999996 28:0.09544511501033215 29:0.06265856918261115 30:0.0 31:0.0 32:0.0 33:0.0 34:0.0 35:0.0 
1.0 0:0.0 1:1.0 2:0.5 3:0.0 4:1.0000000000000002 5:0.5000000000000001 6:0.0 7:1.0 8:0.5 9:0.0 10:1.0 11:0.5 12:0.0 13:1.0 14:0.5 15:0.0 16:1.0 17:0.5 18:0.0 19:1.0 20:0.5 21:0.0 22:1.0 23:0.5 24:0.8187307530779819 25:1.0 26:0.909365376538991 27:1.0 28:1.0 29:1.0 30:0.0 31:0.0 32:0.0 33:0.0 34:0.0 35:0.0 
1.0 0:0.0 1:1.0 2:0.5 3:0.0 4:0.9999999999999998 5:0.4999999999999999 6:0.0 7:1.0 8:0.5 9:0.0 10:1.0 11:0.5 12:0.0 13:1.0 14:0.5 15:0.0 16:1.0 17:0.5 18:0.0 19:1.0 20:0.5 21:0.0 22:1.0 23:0.5 24:0.8187307530779819 25:1.0 26:0.909365376538991 27:1.0 28:1.0 29:1.0 30:0.0 31:0.0 32:0.0 33:0.0 34:0.0 35:0.0 
-1.0 0:0.9166666666666666 1:1.0 2:0.9583333333333333 3:0.0 4:0.11785113019775793 5:0.05892556509887897 6:0.0 7:0.08333333333333326 8:0.04166666666666663 9:0.0 10:0.04083299973306631 11:0.020416499866533155 12:0.0 13:0.027040024624839676 14:0.013520012312419838 15:0.0 16:0.08333333333333333 17:0.041666666666666664 18:0.0 19:0.0 20:0.0 21:0.0 22:0.0 23:0.0 24:0.2465969639416065 25:0.36787944117144233 26:0.3072382025565244 27:0.08333333333333326 28:0.04083299973306631 29:0.027040024624839676 30:0.0 31:0.0 32:0.0 33:0.0 34:0.0 35:0.0 
1.0 0:0.0 1:1.0 2:0.5 3:0.0 4:0.9999999999999999 5:0.49999999999999994 6:0.0 7:1.0 8:0.5 9:0.0 10:1.0 11:0.5 12:0.0 13:1.0 14:0.5 15:0.0 16:1.0 17:0.5 18:0.0 19:1.0 20:0.5 21:0.0 22:1.0 23:0.5 24:0.6514390575310556 25:1.0 26:0.8257195287655278 27:1.0 28:1.0 29:1.0 30:0.0 31:0.0 32:0.0 33:0.0 34:0.0 35:0.0 
1.0 0:0.0 1:1.0 2:0.5 3:0.0 4:1.0000000000000002 5:0.5000000000000001 6:0.0 7:1.0 8:0.5 9:0.0 10:1.0 11:0.5 12:0.0 13:1.0 14:0.5 15:0.0 16:1.0 17:0.5 18:0.0 19:1.0 20:0.5 21:0.0 22:1.0 23:0.5 24:0.6514390575310556 25:1.0 26:0.8257195287655278 27:1.0 28:1.0 29:1.0 30:0.0 31:0.0 32:0.0 33:0.0 34:0.0 35:0.0 
-1.0 0:0.9375 1:1.0 2:0.96875 3:0.0 4:0.13608276348795434 5:0.06804138174397717 6:0.0 7:0.0625 8:0.03125 9:0.0 10:0.030776406404415146 11:0.015388203202207573 12:0.0 13:0.020413775479336982 14:0.010206887739668491 15:0.0 16:0.0625 17:0.03125 18:0.0 19:0.0 20:0.0 21:0.0 22:0.0 23:0.0 24:0.27645304662956444 25:0.5488116360940264 26:0.4126323413617954 27:0.0625 28:0.030776406404415146 29:0.020413775479336982 30:0.0 31:0.0 32:0.0 33:0.0 34:0.0 35:0.0 
1.0 0:0.0 1:0.0 2:0.0 3:1.0 4:1.0 5:1.0 6:1.0 7:1.0 8:1.0 9:1.0 10:1.0 11:1.0 12:1.0 13:1.0 14:1.0 15:1.0 16:1.0 17:1.0 18:1.0 19:1.0 20:1.0 21:1.0 22:1.0 23:1.0 24:1.0 25:1.0 26:1.0 27:1.0 28:1.0 29:1.0 30:0.0 31:0.0 32:0.0 33:0.0 34:0.0 35:0.0 
-1.0 0:0.9230769230769231 1:0.9230769230769231 2:0.9230769230769231 3:0.20701966780270628 4:0.20701966780270628 5:0.20701966780270628 6:0.07408182206817185 7:0.07408182206817185 8:0.07408182206817185 9:0.03615848405493585 10:0.03615848405493585 11:0.03615848405493585 12:0.023913697695786384 13:0.023913697695786384 14:0.023913697695786384 15:0.1 16:0.1 17:0.1 18:0.0 19:0.0 20:0.0 21:0.0 22:0.0 23:0.0 24:0.7408182206817179 25:0.7408182206817179 26:0.7408182206817179 27:0.07408182206817185 28:0.03615848405493585 29:0.023913697695786384 30:0.0 31:0.0 32:0.0 33:0.0 34:0.0 35:0.0 
1.0 0:0.0 1:0.0 2:0.0 3:1.0 4:1.0 5:1.0 6:1.0 7:1.0 8:1.0 9:1.0 10:1.0 11:1.0 12:1.0 13:1.0 14:1.0 15:1.0 16:1.0 17:1.0 18:1.0 19:1.0 20:1.0 21:1.0 22:1.0 23:1.0 24:1.0 25:1.0 26:1.0 27:1.0 28:1.0 29:1.0 30:0.0 31:0.0 32:0.0 33:0.0 34:0.0 35:0.0 
-1.0 0:0.9090909090909091 1:0.9090909090909091 2:0.9090909090909091 3:0.26111648393354675 4:0.26111648393354675 5:0.26111648393354675 6:0.18096748360719186 7:0.18096748360719186 8:0.18096748360719186 9:0.08636231143009415 10:0.08636231143009415 11:0.08636231143009415 12:0.05669581795702141 13:0.05669581795702141 14:0.05669581795702141 15:0.2 16:0.2 17:0.2 18:0.0 19:0.0 20:0.0 21:0.0 22:0.0 23:0.0 24:0.9048374180359595 25:0.9048374180359595 26:0.9048374180359595 27:0.18096748360719186 28:0.08636231143009415 29:0.05669581795702141 30:0.0 31:0.0 32:0.0 33:0.0 34:0.0 35:0.0 
1.0 0:0.0 1:0.0 2:0.0 3:0.9999999999999998 4:0.9999999999999998 5:0.9999999999999998 6:1.0 7:1.0 8:1.0 9:1.0 10:1.0 11:1.0 12:1.0 13:1.0 14:1.0 15:1.0 16:1.0 17:1.0 18:1.0 19:1.0 20:1.0 21:1.0 22:1.0 23:1.0 24:1.0 25:1.0 26:1.0 27:1.0 28:1.0 29:1.0 30:0.0 31:0.0 32:0.0 33:0.0 34:0.0 35:0.0 
-1.0 0:0.9333333333333333 1:0.9333333333333333 2:0.9333333333333333 3:0.29019050004400465 4:0.29019050004400465 5:0.29019050004400465 6:0.1333333333333333 7:0.1333333333333333 8:0.1333333333333333 9:0.06458129484475417 10:0.06458129484475417 11:0.06458129484475417 12:0.04260360145884445 13:0.04260360145884445 14:0.04260360145884445 15:0.13333333333333333 16:0.13333333333333333 17:0.13333333333333333 18:0.0 19:0.0 20:0.0 21:0.0 22:0.0 23:0.0 24:0.6065306597126334 25:0.6065306597126334 26:0.6065306597126334 27:0.1333333333333333 28:0.06458129484475417 29:0.04260360145884445 30:0.0 31:0.0 32:0.0 33:0.0 34:0.0 35:0.0 
0.883197454301619 0:0.0 1:0.0 2:0.0 3:0.9999999999999999 4:0.9999999999999999 5:0.9999999999999999 6:1.0 7:1.0 8:1.0 9:1.0 10:1.0 11:1.0 12:1.0 13:1.0 14:1.0 15:1.0 16:1.0 17:1.0 18:1.0 19:1.0 20:1.0 21:1.0 22:1.0 23:1.0 24:1.0 25:1.0 26:1.0 27:1.0 28:1.0 29:1.0 30:0.0 31:0.0 32:0.0 33:0.0 34:0.0 35:0.0 
-1.0 0:1.0 1:1.0 2:1.0 3:0.0 4:0.0 5:0.0 6:0.0 7:0.0 8:0.0 9:0.0 10:0.0 11:0.0 12:0.0 13:0.0 14:0.0 15:0.0 16:0.0 17:0.0 18:0.0 19:0.0 20:0.0 21:0.0 22:0.0 23:0.0 24:0.11731916609425078 25:0.11731916609425078 26:0.11731916609425078 27:0.0 28:0.0 29:0.0 30:0.0 31:0.0 32:0.0 33:0.0 34:0.0 35:0.0 
-1.0 0:0.8333333333333334 1:0.8333333333333334 2:0.8333333333333334 3:0.3273268353539886 4:0.3273268353539886 5:0.3273268353539886 6:0.25 7:0.25 8:0.25 9:0.16774841624228443 10:0.16774841624228443 11:0.16774841624228443 12:0.10891823393038824 13:0.10891823393038824 14:0.10891823393038824 15:0.25 16:0.25 17:0.25 18:0.09090909090909091 19:0.09090909090909091 20:0.09090909090909091 21:0.0 22:0.0 23:0.0 24:0.48954165955695317 25:0.48954165955695317 26:0.48954165955695317 27:0.25 28:0.16774841624228443 29:0.10891823393038824 30:0.0 31:0.0 32:0.0 33:0.0 34:0.0 35:0.0 
-1.0 0:0.0 1:1.0 2:0.895 3:0.0 4:1.0 5:0.105 6:0.0 7:1.0 8:0.105 9:0.0 10:1.0 11:0.09165151389911678 12:0.0 13:1.0 14:0.07958114415792782 15:0.0 16:1.0 17:0.105 18:0.0 19:1.0 20:0.08 21:0.0 22:1.0 23:0.06 24:0.049787068367863944 25:1.0 26:0.5612249521948329 27:1.0 28:1.0 29:1.0 30:0.75 31:0.25 32:0.3333333333333333 33:0.6666666666666666 34:0.0 35:1.0 
-1.0 0:0.0 1:1.0 2:0.895 3:0.0 4:1.0 5:0.105 6:0.0 7:1.0 8:0.105 9:0.0 10:1.0 11:0.09165151389911678 12:0.0 13:1.0 14:0.07958114415792782 15:0.0 16:1.0 17:0.105 18:0.0 19:1.0 20:0.08 21:0.0 22:1.0 23:0.06 24:0.049787068367863944 25:1.0 26:0.5612249521948329 27:1.0 28:1.0 29:1.0 30:0.75 31:0.25 32:0.3333333333333333 33:0.6666666666666666 34:0.0 35:1.0 
-1.0 0:0.0 1:1.0 2:0.895 3:0.0 4:1.0 5:0.105 6:0.0 7:1.0 8:0.105 9:0.0 10:1.0 11:0.09165151389911678 12:0.0 13:1.0 14:0.07958114415792782 15:0.0 16:1.0 17:0.105 18:0.0 19:1.0 20:0.08 21:0.0 22:1.0 23:0.06 24:0.049787068367863944 25:1.0 26:0.5612249521948329 27:1.0 28:1.0 29:1.0 30:0.75 31:0.25 32:0.3333333333333333 33:0.6666666666666666 34:0.0 35:1.0 
-1.0 0:0.0 1:1.0 2:0.895 3:0.0 4:1.0 5:0.105 6:0.0 7:1.0 8:0.105 9:0.0 10:1.0 11:0.0916515138991168 12:0.0 13:1.0 14:0.07958114415792783 15:0.0 16:1.0 17:0.105 18:0.0 19:1.0 20:0.08 21:0.0 22:1.0 23:0.06 24:0.049787068367863944 25:1.0 26:0.5612249521948329 27:1.0 28:1.0 29:1.0 30:0.75 31:0.25 32:0.3333333333333333 33:0.6666666666666666 34:0.0 35:1.0 
-1.0 0:0.0 1:1.0 2:0.895 3:0.0 4:1.0 5:0.105 6:0.0 7:1.0 8:0.105 9:0.0 10:1.0 11:0.0916515138991168 12:0.0 13:1.0 14:0.07958114415792783 15:0.0 16:1.0 17:0.105 18:0.0 19:1.0 20:0.08 21:0.0 22:1.0 23:0.06 24:0.049787068367863944 25:1.0 26:0.5612249521948329 27:1.0 28:1.0 29:1.0 30:0.75 31:0.25 32:0.3333333333333333 33:0.6666666666666666 34:0.0 35:1.0 
-1.0 0:0.0 1:1.0 2:0.895 3:0.0 4:1.0 5:0.105 6:0.0 7:1.0 8:0.105 9:0.0 10:1.0 11:0.0916515138991168 12:0.0 13:1.0 14:0.07958114415792783 15:0.0 16:1.0 17:0.105 18:0.0 19:1.0 20:0.08 21:0.0 22:1.0 23:0.06 24:0.049787068367863944 25:1.0 26:0.5612249521948329 27:1.0 28:1.0 29:1.0 30:0.75 31:0.25 32:0.3333333333333333 33:0.6666666666666666 34:0.0 35:1.0 
-1.0 0:0.0 1:1.0 2:0.6283333333333334 3:0.0 4:1.0 5:0.47082903768654766 6:0.0 7:1.0 8:0.29189157742877037 9:0.0 10:0.4142135623730949 11:0.12090545011347306 12:0.0 13:0.2599210498948732 14:0.0758687652607567 15:0.0 16:1.0 17:0.66 18:0.0 19:0.0 20:0.0 21:0.0 22:0.0 23:0.0 24:0.049787068367863944 25:1.0 26:0.46085324973498587 27:1.0 28:0.4142135623730949 29:0.2599210498948732 30:1.0 31:0.0 32:0.0 33:0.0 34:0.0 35:0.0 
-1.0 0:0.0 1:1.0 2:0.6283333333333334 3:0.0 4:1.0 5:0.47082903768654766 6:0.0 7:1.0 8:0.29189157742877037 9:0.0 10:0.4142135623730949 11:0.12090545011347306 12:0.0 13:0.2599210498948732 14:0.0758687652607567 15:0.0 16:1.0 17:0.66 18:0.0 19:0.0 20:0.0 21:0.0 22:0.0 23:0.0 24:0.049787068367863944 25:1.0 26:0.46085324973498587 27:1.0 28:0.4142135623730949 29:0.2599210498948732 30:1.0 31:0.0 32:0.0 33:0.0 34:0.0 35:0.0 
-1.0 0:0.0 1:1.0 2:0.6283333333333334 3:0.0 4:1.0 5:0.47082903768654766 6:0.0 7:1.0 8:0.29189157742877037 9:0.0 10:0.4142135623730949 11:0.12090545011347306 12:0.0 13:0.2599210498948732 14:0.0758687652607567 15:0.0 16:1.0 17:0.66 18:0.0 19:0.0 20:0.0 21:0.0 22:0.0 23:0.0 24:0.049787068367863944 25:1.0 26:0.46085324973498587 27:1.0 28:0.4142135623730949 29:0.2599210498948732 30:1.0 31:0.0 32:0.0 33:0.0 34:0.0 35:0.0 
-1.0 0:0.0 1:1.0 2:0.6833333333333332 3:0.0 4:1.0000000000000002 5:0.40022213997860556 6:0.0 7:1.0 8:0.3108654271661235 9:0.0 10:1.0 11:0.23792079827898432 12:0.0 13:1.0 14:0.17102841406640842 15:0.0 16:1.0 17:0.35999999999999993 18:0.0 19:1.0 20:0.21 21:0.0 22:1.0 23:0.06 24:0.1353352832366127 25:1.0 26:0.5121145956118447 27:1.0 28:1.0 29:1.0 30:0.6666666666666666 31:0.0 32:0.5 33:0.0 34:0.0 35:0.0 
-1.0 0:0.0 1:1.0 2:0.6833333333333332 3:0.0 4:1.0000000000000002 5:0.40022213997860556 6:0.0 7:1.0 8:0.3108654271661235 9:0.0 10:1.0 11:0.23792079827898432 12:0.0 13:1.0 14:0.17102841406640842 15:0.0 16:1.0 17:0.35999999999999993 18:0.0 19:1.0 20:0.21 21:0.0 22:1.0 23:0.06 24:0.1353352832366127 25:1.0 26:0.5121145956118447 27:1.0 28:1.0 29:1.0 30:0.6666666666666666 31:0.0 32:0.5 33:0.0 34:0.0 35:0.0 
-1.0 0:0.0 1:1.0 2:0.825 3:0.0 4:1.0 5:0.20809401076758505 6:0.0 7:1.0 8:0.175 9:0.0 10:1.0 11:0.11429563482495166 12:0.0 13:1.0 14:0.09551997870733336 15:0.0 16:1.0 17:0.175 18:0.0 19:1.0 20:0.06 21:0.0 22:1.0 23:0.06 24:0.049787068367863944 25:1.0 26:0.5612249521948329 27:1.0 28:1.0 29:1.0 30:0.25 31:0.25 32:0.0 33:0.0 34:0.0 35:0.0 
-1.0 0:0.0 1:1.0 2:0.6283333333333334 3:0.0 4:1.0 5:0.47082903768654766 6:0.0 7:1.0 8:0.29189157742877037 9:0.0 10:0.4142135623730949 11:0.12090545011347306 12:0.0 13:0.2599210498948732 14:0.0758687652607567 15:0.0 16:1.0 17:0.66 18:0.0 19:0.0 20:0.0 21:0.0 22:0.0 23:0.0 24:0.049787068367863944 25:1.0 26:0.46085324973498587 27:1.0 28:0.4142135623730949 29:0.2599210498948732 30:1.0 31:0.0 32:0.0 33:0.0 34:0.0 35:0.0 
-1.0 0:0.0 1:1.0 2:0.6283333333333334 3:0.0 4:1.0 5:0.47082903768654766 6:0.0 7:1.0 8:0.29189157742877037 9:0.0 10:0.4142135623730949 11:0.12090545011347306 12:0.0 13:0.2599210498948732 14:0.0758687652607567 15:0.0 16:1.0 17:0.66 18:0.0 19:0.0 20:0.0 21:0.0 22:0.0 23:0.0 24:0.049787068367863944 25:1.0 26:0.46085324973498587 27:1.0 28:0.4142135623730949 29:0.2599210498948732 30:1.0 31:0.0 32:0.0 33:0.0 34:0.0 35:0.0 
-1.0 0:0.0 1:1.0 2:0.6283333333333334 3:0.0 4:1.0 5:0.47082903768654766 6:0.0 7:1.0 8:0.29189157742877037 9:0.0 10:0.4142135623730949 11:0.12090545011347306 12:0.0 13:0.2599210498948732 14:0.0758687652607567 15:0.0 16:1.0 17:0.66 18:0.0 19:0.0 20:0.0 21:0.0 22:0.0 23:0.0 24:0.049787068367863944 25:1.0 26:0.46085324973498587 27:1.0 28:0.4142135623730949 29:0.2599210498948732 30:1.0 31:0.0 32:0.0 33:0.0 34:0.0 35:0.0 
-1.0 0:0.0 1:1.0 2:0.6816666666666665 3:0.0 4:1.0000000000000002 5:0.40420931472096094 6:0.0 7:1.0 8:0.31186272004426585 9:0.0 10:1.0 11:0.2276656758172507 12:0.0 13:1.0 14:0.15736806893934074 15:0.0 16:1.0 17:0.3666666666666666 18:0.0 19:1.0 20:0.19 21:0.0 22:1.0 23:0.04 24:0.1353352832366127 25:1.0 26:0.5121145956118447 27:1.0 28:1.0 29:1.0 30:0.6666666666666666 31:0.0 32:0.5 33:0.0 34:0.0 35:0.0 
-1.0 0:0.0 1:1.0 2:0.6816666666666665 3:0.0 4:1.0000000000000002 5:0.40420931472096094 6:0.0 7:1.0 8:0.31186272004426585 9:0.0 10:1.0 11:0.2276656758172507 12:0.0 13:1.0 14:0.15736806893934074 15:0.0 16:1.0 17:0.3666666666666666 18:0.0 19:1.0 20:0.19 21:0.0 22:1.0 23:0.04 24:0.1353352832366127 25:1.0 26:0.5121145956118447 27:1.0 28:1.0 29:1.0 30:0.6666666666666666 31:0.0 32:0.5 33:0.0 34:0.0 35:0.0 
-1.0 0:0.0 1:1.0 2:0.6283333333333334 3:0.0 4:1.0 5:0.47082903768654766 6:0.0 7:1.0 8:0.29189157742877037 9:0.0 10:0.4142135623730949 11:0.12090545011347306 12:0.0 13:0.2599210498948732 14:0.0758687652607567 15:0.0 16:1.0 17:0.66 18:0.0 19:0.0 20:0.0 21:0.0 22:0.0 23:0.0 24:0.049787068367863944 25:1.0 26:0.46085324973498587 27:1.0 28:0.4142135623730949 29:0.2599210498948732 30:1.0 31:0.0 32:0.0 33:0.0 34:0.0 35:0.0 
-1.0 0:0.0 1:1.0 2:0.6283333333333334 3:0.0 4:1.0 5:0.47082903768654766 6:0.0 7:1.0 8:0.29189157742877037 9:0.0 10:0.4142135623730949 11:0.12090545011347306 12:0.0 13:0.2599210498948732 14:0.0758687652607567 15:0.0 16:1.0 17:0.66 18:0.0 19:0.0 20:0.0 21:0.0 22:0.0 23:0.0 24:0.049787068367863944 25:1.0 26:0.46085324973498587 27:1.0 28:0.4142135623730949 29:0.2599210498948732 30:1.0 31:0.0 32:0.0 33:0.0 34:0.0 35:0.0 
-1.0 0:0.0 1:1.0 2:0.5966666666666667 3:0.0 4:1.0000000000000002 5:0.4992648497156123 6:0.0 7:1.0 8:0.39396210029399414 9:0.0 10:1.0 11:0.3312850305068909 12:0.0 13:1.0 14:0.292512856363433 15:0.0 16:1.0 17:0.4733333333333332 18:0.0 19:1.0 20:0.35 21:0.0 22:1.0 23:0.3 24:0.1353352832366127 25:1.0 26:0.5121145956118447 27:1.0 28:1.0 29:1.0 30:1.0 31:0.0 32:1.0 33:0.0 34:1.0 35:0.0 
-1.0 0:0.0 1:1.0 2:0.6283333333333334 3:0.0 4:1.0 5:0.47082903768654766 6:0.0 7:1.0 8:0.29189157742877037 9:0.0 10:0.4142135623730949 11:0.12090545011347306 12:0.0 13:0.2599210498948732 14:0.0758687652607567 15:0.0 16:1.0 17:0.66 18:0.0 19:0.0 20:0.0 21:0.0 22:0.0 23:0.0 24:0.049787068367863944 25:1.0 26:0.46085324973498587 27:1.0 28:0.4142135623730949 29:0.2599210498948732 30:1.0 31:0.0 32:0.0 33:0.0 34:0.0 35:0.0 
-1.0 0:0.0 1:1.0 2:0.6283333333333334 3:0.0 4:1.0 5:0.47082903768654766 6:0.0 7:1.0 8:0.29189157742877037 9:0.0 10:0.4142135623730949 11:0.12090545011347306 12:0.0 13:0.2599210498948732 14:0.0758687652607567 15:0.0 16:1.0 17:0.66 18:0.0 19:0.0 20:0.0 21:0.0 22:0.0 23:0.0 24:0.049787068367863944 25:1.0 26:0.46085324973498587 27:1.0 28:0.4142135623730949 29:0.2599210498948732 30:1.0 31:0.0 32:0.0 33:0.0 34:0.0 35:0.0 
-1.0 0:0.0 1:1.0 2:0.6283333333333334 3:0.0 4:1.0 5:0.47082903768654766 6:0.0 7:1.0 8:0.29189157742877037 9:0.0 10:0.4142135623730949 11:0.12090545011347306 12:0.0 13:0.2599210498948732 14:0.0758687652607567 15:0.0 16:1.0 17:0.66 18:0.0 19:0.0 20:0.0 21:0.0 22:0.0 23:0.0 24:0.049787068367863944 25:1.0 26:0.46085324973498587 27:1.0 28:0.4142135623730949 29:0.2599210498948732 30:1.0 31:0.0 32:0.0 33:0.0 34:0.0 35:0.0 
-1.0 0:0.0 1:1.0 2:0.6283333333333334 3:0.0 4:1.0 5:0.47082903768654766 6:0.0 7:1.0 8:0.29189157742877037 9:0.0 10:0.4142135623730949 11:0.12090545011347306 12:0.0 13:0.2599210498948732 14:0.0758687652607567 15:0.0 16:1.0 17:0.66 18:0.0 19:0.0 20:0.0 21:0.0 22:0.0 23:0.0 24:0.049787068367863944 25:1.0 26:0.46085324973498587 27:1.0 28:0.4142135623730949 29:0.2599210498948732 30:1.0 31:0.0 32:0.0 33:0.0 34:0.0 35:0.0 
-1.0 0:0.0 1:1.0 2:0.825 3:0.0 4:1.0 5:0.20809401076758505 6:0.0 7:1.0 8:0.175 9:0.0 10:1.0 11:0.11429563482495166 12:0.0 13:1.0 14:0.09551997870733336 15:0.0 16:1.0 17:0.175 18:0.0 19:1.0 20:0.06 21:0.0 22:1.0 23:0.06 24:0.049787068367863944 25:1.0 26:0.5612249521948329 27:1.0 28:1.0 29:1.0 30:0.25 31:0.25 32:0.0 33:0.0 34:0.0 35:0.0 
-1.0 0:0.0 1:1.0 2:0.865 3:0.0 4:1.0 5:0.15 6:0.0 7:1.0 8:0.12298722410207183 9:0.0 10:0.4142135623730949 11:0.050942976221697335 12:0.0 13:0.2599210498948732 14:0.031966968412266566 15:0.0 16:1.0 17:0.18 18:0.0 19:0.0 20:0.0 21:0.0 22:0.0 23:0.0 24:0.049787068367863944 25:1.0 26:0.46085324973498587 27:1.0 28:0.4142135623730949 29:0.2599210498948732 30:0.0 31:1.0 32:0.0 33:0.0 34:0.0 35:0.0 
-1.0 0:0.0 1:1.0 2:0.865 3:0.0 4:1.0 5:0.15 6:0.0 7:1.0 8:0.12298722410207183 9:0.0 10:0.4142135623730949 11:0.050942976221697335 12:0.0 13:0.2599210498948732 14:0.031966968412266566 15:0.0 16:1.0 17:0.18 18:0.0 19:0.0 20:0.0 21:0.0 22:0.0 23:0.0 24:0.049787068367863944 25:1.0 26:0.46085324973498587 27:1.0 28:0.4142135623730949 29:0.2599210498948732 30:0.0 31:1.0 32:0.0 33:0.0 34:0.0 35:0.0 
-1.0 0:0.0 1:1.0 2:0.865 3:0.0 4:1.0 5:0.15 6:0.0 7:1.0 8:0.12298722410207183 9:0.0 10:0.4142135623730949 11:0.050942976221697335 12:0.0 13:0.2599210498948732 14:0.031966968412266566 15:0.0 16:1.0 17:0.18 18:0.0 19:0.0 20:0.0 21:0.0 22:0.0 23:0.0 24:0.049787068367863944 25:1.0 26:0.46085324973498587 27:1.0 28:0.4142135623730949 29:0.2599210498948732 30:0.0 31:1.0 32:0.0 33:0.0 34:0.0 35:0.0 
-1.0 0:0.0 1:1.0 2:0.865 3:0.0 4:1.0 5:0.15 6:0.0 7:1.0 8:0.12298722410207183 9:0.0 10:0.4142135623730949 11:0.050942976221697335 12:0.0 13:0.2599210498948732 14:0.031966968412266566 15:0.0 16:1.0 17:0.18 18:0.0 19:0.0 20:0.0 21:0.0 22:0.0 23:0.0 24:0.049787068367863944 25:1.0 26:0.46085324973498587 27:1.0 28:0.4142135623730949 29:0.2599210498948732 30:0.0 31:1.0 32:0.0 33:0.0 34:0.0 35:0.0 
-1.0 0:0.0 1:1.0 2:0.865 3:0.0 4:1.0 5:0.15 6:0.0 7:1.0 8:0.12298722410207183 9:0.0 10:0.4142135623730949 11:0.050942976221697335 12:0.0 13:0.2599210498948732 14:0.031966968412266566 15:0.0 16:1.0 17:0.18 18:0.0 19:0.0 20:0.0 21:0.0 22:0.0 23:0.0 24:0.049787068367863944 25:1.0 26:0.46085324973498587 27:1.0 28:0.4142135623730949 29:0.2599210498948732 30:0.0 31:1.0 32:0.0 33:0.0 34:0.0 35:0.0 
-1.0 0:0.0 1:1.0 2:0.865 3:0.0 4:1.0 5:0.15 6:0.0 7:1.0 8:0.12298722410207183 9:0.0 10:0.4142135623730949 11:0.050942976221697335 12:0.0 13:0.2599210498948732 14:0.031966968412266566 15:0.0 16:1.0 17:0.18 18:0.0 19:0.0 20:0.0 21:0.0 22:0.0 23:0.0 24:0.049787068367863944 25:1.0 26:0.46085324973498587 27:1.0 28:0.4142135623730949 29:0.2599210498948732 30:0.0 31:1.0 32:0.0 33:0.0 34:0.0 35:0.0 
-1.0 0:0.0 1:1.0 2:0.96 3:0.0 4:1.0 5:0.04 6:0.0 7:1.0 8:0.04 9:0.0 10:0.4142135623730949 11:0.0165685424949238 12:0.0 13:0.2599210498948732 14:0.010396841995794928 15:0.0 16:1.0 17:0.04 18:0.0 19:0.0 20:0.0 21:0.0 22:0.0 23:0.0 24:0.049787068367863944 25:1.0 26:0.46085324973498587 27:1.0 28:0.4142135623730949 29:0.2599210498948732 30:0.0 31:0.0 32:0.0 33:0.0 34:0.0 35:0.0 
-1.0 0:0.0 1:1.0 2:0.96 3:0.0 4:1.0 5:0.04 6:0.0 7:1.0 8:0.04 9:0.0 10:0.4142135623730949 11:0.0165685424949238 12:0.0 13:0.2599210498948732 14:0.010396841995794928 15:0.0 16:1.0 17:0.04 18:0.0 19:0.0 20:0.0 21:0.0 22:0.0 23:0.0 24:0.049787068367863944 25:1.0 26:0.46085324973498587 27:1.0 28:0.4142135623730949 29:0.2599210498948732 30:0.0 31:0.0 32:0.0 33:0.0 34:0.0 35:0.0 
1.0 0:0.75 1:0.75 2:0.75 3:0.25 4:0.25 5:0.25 6:0.25 7:0.25 8:0.25 9:0.1180339887498949 10:0.1180339887498949 11:0.1180339887498949 12:0.07721734501594191 13:0.07721734501594191 14:0.07721734501594191 15:0.25 16:0.25 17:0.25 18:0.0 19:0.0 20:0.0 21:0.0 22:0.0 23:0.0 24:1.0 25:1.0 26:1.0 27:0.25 28:0.1180339887498949 29:0.07721734501594191 30:0.0 31:0.75 32:0.0 33:0.3333333333333333 34:0.0 35:0.0 
1.0 0:1.0 1:1.0 2:1.0 3:0.0 4:0.0 5:0.0 6:0.0 7:0.0 8:0.0 9:0.0 10:0.0 11:0.0 12:0.0 13:0.0 14:0.0 15:0.0 16:0.0 17:0.0 18:0.0 19:0.0 20:0.0 21:0.0 22:0.0 23:0.0 24:0.049787068367863944 25:0.049787068367863944 26:0.049787068367863944 27:0.0 28:0.0 29:0.0 30:0.0 31:0.0 32:0.0 33:0.0 34:0.0 35:0.0 
1.0 0:0.25 1:0.5 2:0.4166666666666667 3:0.5 4:0.75 5:0.5833333333333334 6:0.5 7:0.75 8:0.5833333333333334 9:0.4142135623730949 10:0.7078251276599328 11:0.5120840841353742 12:0.2599210498948732 13:0.6355331550942946 14:0.385125084961347 15:0.5 16:0.75 17:0.5833333333333334 18:0.3333333333333333 19:0.6666666666666666 20:0.4444444444444444 21:0.0 22:0.5 23:0.16666666666666666 24:1.0 25:1.0 26:1.0 27:0.75 28:0.7078251276599328 29:0.6355331550942946 30:0.25 31:0.75 32:0.3333333333333333 33:0.6666666666666666 34:0.5 35:0.5 
1.0 0:0.25 1:0.5 2:0.4166666666666667 3:0.5 4:0.75 5:0.5833333333333334 6:0.5 7:0.75 8:0.5833333333333334 9:0.4142135623730949 10:0.7078251276599328 11:0.5120840841353742 12:0.2599210498948732 13:0.6355331550942946 14:0.385125084961347 15:0.5 16:0.75 17:0.5833333333333334 18:0.3333333333333333 19:0.6666666666666666 20:0.4444444444444444 21:0.0 22:0.5 23:0.16666666666666666 24:1.0 25:1.0 26:1.0 27:0.75 28:0.7078251276599328 29:0.6355331550942946 30:0.25 31:0.75 32:0.3333333333333333 33:0.6666666666666666 34:0.5 35:0.5 
1.0 0:0.25 1:0.5 2:0.4166666666666667 3:0.5 4:0.75 5:0.5833333333333334 6:0.5 7:0.75 8:0.5833333333333334 9:0.4142135623730949 10:0.7078251276599328 11:0.5120840841353742 12:0.2599210498948732 13:0.6355331550942946 14:0.385125084961347 15:0.5 16:0.75 17:0.5833333333333334 18:0.3333333333333333 19:0.6666666666666666 20:0.4444444444444444 21:0.0 22:0.5 23:0.16666666666666666 24:1.0 25:1.0 26:1.0 27:0.75 28:0.7078251276599328 29:0.6355331550942946 30:0.25 31:0.75 32:0.3333333333333333 33:0.6666666666666666 34:0.5 35:0.5 
1.0 0:0.25 1:0.5 2:0.3333333333333333 3:0.5 4:0.75 5:0.6666666666666666 6:0.5 7:0.75 8:0.6666666666666666 9:0.4142135623730949 10:0.7078251276599328 11:0.6099546058976535 12:0.2599210498948732 13:0.6355331550942946 14:0.5103291200278208 15:0.5 16:0.75 17:0.6666666666666666 18:0.3333333333333333 19:0.6666666666666666 20:0.5555555555555555 21:0.0 22:0.5 23:0.3333333333333333 24:1.0 25:1.0 26:1.0 27:0.75 28:0.7078251276599328 29:0.6355331550942946 30:0.5 31:0.5 32:0.0 33:1.0 34:0.0 35:1.0 
1.0 0:0.25 1:0.5 2:0.3333333333333333 3:0.5 4:0.75 5:0.6666666666666666 6:0.5 7:0.75 8:0.6666666666666666 9:0.4142135623730949 10:0.7078251276599328 11:0.6099546058976535 12:0.2599210498948732 13:0.6355331550942946 14:0.5103291200278208 15:0.5 16:0.75 17:0.6666666666666666 18:0.3333333333333333 19:0.6666666666666666 20:0.5555555555555555 21:0.0 22:0.5 23:0.3333333333333333 24:1.0 25:1.0 26:1.0 27:0.75 28:0.7078251276599328 29:0.6355331550942946 30:0.5 31:0.5 32:0.0 33:1.0 34:0.0 35:1.0 
1.0 0:0.25 1:0.5 2:0.3333333333333333 3:0.5 4:0.75 5:0.6666666666666666 6:0.5 7:0.75 8:0.6666666666666666 9:0.4142135623730949 10:0.7078251276599328 11:0.6099546058976535 12:0.2599210498948732 13:0.6355331550942946 14:0.5103291200278208 15:0.5 16:0.75 17:0.6666666666666666 18:0.3333333333333333 19:0.6666666666666666 20:0.5555555555555555 21:0.0 22:0.5 23:0.3333333333333333 24:1.0 25:1.0 26:1.0 27:0.75 28:0.7078251276599328 29:0.6355331550942946 30:0.5 31:0.5 32:0.0 33:1.0 34:0.0 35:1.0 
1.0 0:0.0 1:0.25 2:0.16666666666666666 3:0.75 4:1.0 5:0.8333333333333334 6:0.75 7:1.0 8:0.8333333333333334 9:0.5275252316519465 10:1.0 11:0.6850168211012977 12:0.3263524026321305 13:1.0 14:0.5509016017547537 15:0.75 16:1.0 17:0.8333333333333334 18:0.3333333333333333 19:1.0 20:0.5555555555555555 21:0.0 22:1.0 23:0.3333333333333333 24:1.0 25:1.0 26:1.0 27:1.0 28:1.0 29:1.0 30:0.0 31:0.75 32:0.3333333333333333 33:0.3333333333333333 34:0.5 35:0.0 
1.0 0:0.0 1:0.25 2:0.16666666666666666 3:0.75 4:1.0 5:0.8333333333333334 6:0.75 7:1.0 8:0.8333333333333334 9:0.5275252316519465 10:1.0 11:0.6850168211012977 12:0.3263524026321305 13:1.0 14:0.5509016017547537 15:0.75 16:1.0 17:0.8333333333333334 18:0.3333333333333333 19:1.0 20:0.5555555555555555 21:0.0 22:1.0 23:0.3333333333333333 24:1.0 25:1.0 26:1.0 27:1.0 28:1.0 29:1.0 30:0.0 31:0.75 32:0.3333333333333333 33:0.3333333333333333 34:0.5 35:0.0 
1.0 0:0.75 1:1.0 2:0.9166666666666666 3:0.0 4:0.5 5:0.16666666666666666 6:0.0 7:0.049787068367863944 8:0.01659568945595465 9:0.0 10:0.020622478948765753 11:0.006874159649588585 12:0.0 13:0.012940707081363027 14:0.004313569027121009 15:0.0 16:1.0 17:0.3333333333333333 18:0.0 19:0.0 20:0.0 21:0.0 22:0.0 23:0.0 24:0.049787068367863944 25:0.049787068367863944 26:0.049787068367863944 27:0.049787068367863944 28:0.020622478948765753 29:0.012940707081363027 30:0.0 31:1.0 32:0.0 33:0.0 34:0.0 35:0.0 
1.0 0:0.75 1:1.0 2:0.9166666666666666 3:0.0 4:0.5 5:0.16666666666666666 6:0.0 7:0.049787068367863944 8:0.01659568945595465 9:0.0 10:0.020622478948765753 11:0.006874159649588585 12:0.0 13:0.012940707081363027 14:0.004313569027121009 15:0.0 16:1.0 17:0.3333333333333333 18:0.0 19:0.0 20:0.0 21:0.0 22:0.0 23:0.0 24:0.049787068367863944 25:0.049787068367863944 26:0.049787068367863944 27:0.049787068367863944 28:0.020622478948765753 29:0.012940707081363027 30:0.0 31:1.0 32:0.0 33:0.0 34:0.0 35:0.0 
1.0 0:0.75 1:1.0 2:0.9166666666666666 3:0.0 4:0.5 5:0.16666666666666666 6:0.0 7:0.049787068367863944 8:0.01659568945595465 9:0.0 10:0.020622478948765753 11:0.006874159649588585 12:0.0 13:0.012940707081363027 14:0.004313569027121009 15:0.0 16:1.0 17:0.3333333333333333 18:0.0 19:0.0 20:0.0 21:0.0 22:0.0 23:0.0 24:0.049787068367863944 25:0.049787068367863944 26:0.049787068367863944 27:0.049787068367863944 28:0.020622478948765753 29:0.012940707081363027 30:0.0 31:1.0 32:0.0 33:0.0 34:0.0 35:0.0 
1.0 0:0.75 1:1.0 2:0.9166666666666666 3:0.0 4:0.5 5:0.16666666666666666 6:0.0 7:0.049787068367863944 8:0.01659568945595465 9:0.0 10:0.020622478948765753 11:0.006874159649588585 12:0.0 13:0.012940707081363027 14:0.004313569027121009 15:0.0 16:1.0 17:0.3333333333333333 18:0.0 19:0.0 20:0.0 21:0.0 22:0.0 23:0.0 24:0.049787068367863944 25:0.049787068367863944 26:0.049787068367863944 27:0.049787068367863944 28:0.020622478948765753 29:0.012940707081363027 30:0.0 31:1.0 32:0.0 33:0.0 34:0.0 35:0.0 
1.0 0:0.75 1:1.0 2:0.9166666666666666 3:0.0 4:0.5 5:0.16666666666666666 6:0.0 7:0.049787068367863944 8:0.01659568945595465 9:0.0 10:0.020622478948765753 11:0.006874159649588585 12:0.0 13:0.012940707081363027 14:0.004313569027121009 15:0.0 16:1.0 17:0.3333333333333333 18:0.0 19:0.0 20:0.0 21:0.0 22:0.0 23:0.0 24:0.049787068367863944 25:0.049787068367863944 26:0.049787068367863944 27:0.049787068367863944 28:0.020622478948765753 29:0.012940707081363027 30:0.0 31:1.0 32:0.0 33:0.0 34:0.0 35:0.0 
1.0 0:0.75 1:1.0 2:0.9166666666666666 3:0.0 4:0.5 5:0.16666666666666666 6:0.0 7:0.049787068367863944 8:0.01659568945595465 9:0.0 10:0.020622478948765753 11:0.006874159649588585 12:0.0 13:0.012940707081363027 14:0.004313569027121009 15:0.0 16:1.0 17:0.3333333333333333 18:0.0 19:0.0 20:0.0 21:0.0 22:0.0 23:0.0 24:0.049787068367863944 25:0.049787068367863944 26:0.049787068367863944 27:0.049787068367863944 28:0.020622478948765753 29:0.012940707081363027 30:0.0 31:1.0 32:0.0 33:0.0 34:0.0 35:0.0 
-1.0 0:0.5 1:0.5 2:0.5 3:0.5 4:0.5 5:0.5 6:0.5 7:0.5 8:0.5 9:0.4142135623730949 10:0.4142135623730949 11:0.4142135623730949 12:0.2599210498948732 13:0.2599210498948732 14:0.2599210498948732 15:0.5 16:0.5 17:0.5 18:0.3333333333333333 19:0.3333333333333333 20:0.3333333333333333 21:0.0 22:0.0 23:0.0 24:1.0 25:1.0 26:1.0 27:0.5 28:0.4142135623730949 29:0.2599210498948732 30:0.0 31:0.5 32:0.0 33:0.3333333333333333 34:0.0 35:0.0 
-1.0 0:0.5 1:0.5 2:0.5 3:0.5 4:0.5 5:0.5 6:0.5 7:0.5 8:0.5 9:0.4142135623730949 10:0.4142135623730949 11:0.4142135623730949 12:0.2599210498948732 13:0.2599210498948732 14:0.2599210498948732 15:0.5 16:0.5 17:0.5 18:0.3333333333333333 19:0.3333333333333333 20:0.3333333333333333 21:0.0 22:0.0 23:0.0 24:1.0 25:1.0 26:1.0 27:0.5 28:0.4142135623730949 29:0.2599210498948732 30:0.0 31:0.5 32:0.0 33:0.3333333333333333 34:0.0 35:0.0 
-1.0 0:0.75 1:1.0 2:0.8333333333333334 3:0.0 4:0.5 5:0.3333333333333333 6:0.0 7:0.049787068367863944 8:0.0331913789119093 9:0.0 10:0.020622478948765753 11:0.01374831929917717 12:0.0 13:0.012940707081363027 14:0.008627138054242018 15:0.0 16:1.0 17:0.6666666666666666 18:0.0 19:0.0 20:0.0 21:0.0 22:0.0 23:0.0 24:0.049787068367863944 25:0.049787068367863944 26:0.049787068367863944 27:0.049787068367863944 28:0.020622478948765753 29:0.012940707081363027 30:1.0 31:0.0 32:0.0 33:0.0 34:0.0 35:0.0 
-1.0 0:0.75 1:1.0 2:0.9166666666666666 3:0.0 4:0.5 5:0.16666666666666666 6:0.0 7:0.049787068367863944 8:0.01659568945595465 9:0.0 10:0.020622478948765753 11:0.006874159649588585 12:0.0 13:0.012940707081363027 14:0.004313569027121009 15:0.0 16:1.0 17:0.3333333333333333 18:0.0 19:0.0 20:0.0 21:0.0 22:0.0 23:0.0 24:0.049787068367863944 25:0.049787068367863944 26:0.049787068367863944 27:0.049787068367863944 28:0.020622478948765753 29:0.012940707081363027 30:0.0 31:1.0 32:0.0 33:0.0 34:0.0 35:0.0 
-1.0 0:0.75 1:1.0 2:0.9166666666666666 3:0.0 4:0.5 5:0.16666666666666666 6:0.0 7:0.049787068367863944 8:0.01659568945595465 9:0.0 10:0.020622478948765753 11:0.006874159649588585 12:0.0 13:0.012940707081363027 14:0.004313569027121009 15:0.0 16:1.0 17:0.3333333333333333 18:0.0 19:0.0 20:0.0 21:0.0 22:0.0 23:0.0 24:0.049787068367863944 25:0.049787068367863944 26:0.049787068367863944 27:0.049787068367863944 28:0.020622478948765753 29:0.012940707081363027 30:0.0 31:1.0 32:0.0 33:0.0 34:0.0 35:0.0 
-1.0 0:0.75 1:1.0 2:0.9166666666666666 3:0.0 4:0.5 5:0.16666666666666666 6:0.0 7:0.049787068367863944 8:0.01659568945595465 9:0.0 10:0.020622478948765753 11:0.006874159649588585 12:0.0 13:0.012940707081363027 14:0.004313569027121009 15:0.0 16:1.0 17:0.3333333333333333 18:0.0 19:0.0 20:0.0 21:0.0 22:0.0 23:0.0 24:0.049787068367863944 25:0.049787068367863944 26:0.049787068367863944 27:0.049787068367863944 28:0.020622478948765753 29:0.012940707081363027 30:0.0 31:1.0 32:0.0 33:0.0 34:0.0 35:0.0 
-1.0 0:1.0 1:1.0 2:1.0 3:0.0 4:0.0 5:0.0 6:0.0 7:0.0 8:0.0 9:0.0 10:0.0 11:0.0 12:0.0 13:0.0 14:0.0 15:0.0 16:0.0 17:0.0 18:0.0 19:0.0 20:0.0 21:0.0 22:0.0 23:0.0 24:0.049787068367863944 25:0.049787068367863944 26:0.049787068367863944 27:0.0 28:0.0 29:0.0 30:0.0 31:0.0 32:0.0 33:0.0 34:0.0 35:0.0 
-1.0 0:1.0 1:1.0 2:1.0 3:0.0 4:0.0 5:0.0 6:0.0 7:0.0 8:0.0 9:0.0 10:0.0 11:0.0 12:0.0 13:0.0 14:0.0 15:0.0 16:0.0 17:0.0 18:0.0 19:0.0 20:0.0 21:0.0 22:0.0 23:0.0 24:0.049787068367863944 25:0.049787068367863944 26:0.049787068367863944 27:0.0 28:0.0 29:0.0 30:0.0 31:0.0 32:0.0 33:0.0 34:0.0 35:0.0 
1.0 0:0.5 1:0.8 2:0.7000000000000001 3:0.22360679774997896 4:0.7071067811865475 5:0.3847734588955018 6:0.19470019576785122 7:0.45489799478447507 8:0.28143279544005917 9:0.09192496286745955 10:0.3199602267689149 11:0.167936717501278 12:0.0601369287651104 13:0.1979427380672691 14:0.10607219853249662 15:0.25 16:0.75 17:0.4166666666666667 18:0.0 19:0.3333333333333333 20:0.1111111111111111 21:0.0 22:0.0 23:0.0 24:0.6065306597126334 25:0.7788007830714049 26:0.7213774086184811 27:0.5841005873035536 28:0.41083706350046023 29:0.25416350672713767 30:0.25 31:0.5 32:0.0 33:0.3333333333333333 34:0.0 35:0.0 
1.0 0:0.8 1:1.0 2:0.8666666666666667 3:0.0 4:0.4472135954999579 5:0.29814239699997197 6:0.0 7:0.01831563888873418 8:0.012210425925822785 9:0.0 10:0.007586586031241778 11:0.005057724020827852 12:0.0 13:0.004760620089455156 14:0.0031737467263034374 15:0.0 16:1.0 17:0.6666666666666666 18:0.0 19:0.0 20:0.0 21:0.0 22:0.0 23:0.0 24:0.006737946999085467 25:0.01831563888873418 26:0.014456408258851276 27:0.01831563888873418 28:0.007586586031241778 29:0.004760620089455156 30:1.0 31:0.0 32:0.0 33:0.0 34:0.0 35:0.0 
1.0 0:0.5 1:0.6666666666666666 2:0.611111111111111 3:0.4743416490252569 4:0.8749999999999998 5:0.6078944326835045 6:0.5 7:0.8333333333333335 8:0.6111111111111112 9:0.34164078649987384 10:0.48323969741913264 11:0.3888404234729601 12:0.21644039911467994 13:0.30059144685138706 14:0.24449074836024898 15:0.5 16:0.8333333333333334 17:0.6111111111111112 18:0.2 19:0.2 20:0.20000000000000004 21:0.0 22:0.0 23:0.0 24:0.8187307530779819 25:1.0 26:0.8791538353853213 27:1.0 28:0.6733200530681509 29:0.40945974641297833 30:0.3333333333333333 31:0.6666666666666666 32:0.2 33:0.8 34:0.0 35:1.0 
1.0 0:0.5 1:0.6666666666666666 2:0.611111111111111 3:0.4743416490252569 4:0.8749999999999998 5:0.6078944326835045 6:0.5 7:0.8333333333333335 8:0.6111111111111112 9:0.34164078649987384 10:0.48323969741913264 11:0.3888404234729601 12:0.21644039911467994 13:0.30059144685138706 14:0.24449074836024898 15:0.5 16:0.8333333333333334 17:0.6111111111111112 18:0.2 19:0.2 20:0.20000000000000004 21:0.0 22:0.0 23:0.0 24:0.8187307530779819 25:1.0 26:0.8791538353853213 27:1.0 28:0.6733200530681509 29:0.40945974641297833 30:0.3333333333333333 31:0.6666666666666666 32:0.2 33:0.8 34:0.0 35:1.0 
1.0 0:0.16666666666666666 1:0.8333333333333334 2:0.6111111111111112 3:0.15811388300841897 4:0.8749999999999998 5:0.3970759220056126 6:0.16666666666666674 7:0.8333333333333335 8:0.388888888888889 9:0.08012344973464347 10:0.8165902124584952 11:0.325612370642594 12:0.05272659960939663 13:0.7941165931563965 14:0.2998565974583966 15:0.16666666666666666 16:0.8333333333333334 17:0.3888888888888889 18:0.0 19:0.8 20:0.26666666666666666 21:0.0 22:0.75 23:0.25 24:0.8187307530779819 25:1.0 26:0.8791538353853213 27:0.8333333333333335 28:0.8165902124584952 29:0.7941165931563965 30:0.16666666666666666 31:0.8333333333333334 32:0.4 33:0.6 34:0.5 35:0.5 
1.0 0:0.16666666666666666 1:0.8333333333333334 2:0.6111111111111112 3:0.15811388300841897 4:0.8749999999999998 5:0.3970759220056126 6:0.16666666666666674 7:0.8333333333333335 8:0.388888888888889 9:0.08012344973464347 10:0.8165902124584952 11:0.325612370642594 12:0.05272659960939663 13:0.7941165931563965 14:0.2998565974583966 15:0.16666666666666666 16:0.8333333333333334 17:0.3888888888888889 18:0.0 19:0.8 20:0.26666666666666666 21:0.0 22:0.75 23:0.25 24:0.8187307530779819 25:1.0 26:0.8791538353853213 27:0.8333333333333335 28:0.8165902124584952 29:0.7941165931563965 30:0.16666666666666666 31:0.8333333333333334 32:0.4 33:0.6 34:0.5 35:0.5 
1.0 0:0.5 1:0.8 2:0.7000000000000001 3:0.2581988897471611 4:0.8164965809277259 5:0.44429812014068276 6:0.17113903967753064 7:0.36787944117144233 8:0.23671917350883454 9:0.07942590472746622 10:0.36787944117144233 11:0.17557708354212495 12:0.051671539428305206 13:0.36787944117144233 14:0.15707417334268425 15:0.3333333333333333 16:1.0 17:0.5555555555555555 18:0.0 19:1.0 20:0.3333333333333333 21:0.0 22:1.0 23:0.3333333333333333 24:0.36787944117144233 25:0.513417119032592 26:0.4649045597455421 27:0.513417119032592 28:0.513417119032592 29:0.513417119032592 30:0.6666666666666666 31:0.3333333333333333 32:0.5 33:0.5 34:0.0 35:1.0 
1.0 0:0.6666666666666666 1:1.0 2:0.8888888888888888 3:0.0 4:0.6123724356957945 5:0.20412414523193148 6:0.0 7:0.2452529607809615 8:0.08175098692698717 9:0.0 10:0.21378902805439742 11:0.0712630093514658 12:0.0 13:0.13140977677798393 14:0.04380325892599465 15:0.0 16:0.6666666666666666 17:0.2222222222222222 18:0.0 19:0.5 20:0.16666666666666666 21:0.0 22:0.0 23:0.0 24:0.36787944117144233 25:0.513417119032592 26:0.4649045597455421 27:0.34227807935506127 28:0.2983666238997956 29:0.18339711724914384 30:0.3333333333333333 31:0.6666666666666666 32:1.0 33:0.0 34:1.0 35:0.0 
1.0 0:0.0 1:0.6666666666666666 2:0.4444444444444444 3:0.31622776601683794 4:0.9999999999999998 5:0.5441518440112253 6:0.33333333333333326 7:1.0 8:0.5555555555555555 9:0.15470053837925146 10:1.0 11:0.4364670255861676 12:0.10064241629820891 13:1.0 14:0.4004282775321393 15:0.3333333333333333 16:1.0 17:0.5555555555555555 18:0.0 19:1.0 20:0.3333333333333333 21:0.0 22:1.0 23:0.3333333333333333 24:0.8187307530779819 25:1.0 26:0.8791538353853213 27:1.0 28:1.0 29:1.0 30:0.3333333333333333 31:0.6666666666666666 32:0.2 33:0.8 34:0.25 35:0.75 
0.09122004034068654 0:1.0 1:1.0 2:1.0 3:0.0 4:0.0 5:0.0 6:0.0 7:0.0 8:0.0 9:0.0 10:0.0 11:0.0 12:0.0 13:0.0 14:0.0 15:0.0 16:0.0 17:0.0 18:0.0 19:0.0 20:0.0 21:0.0 22:0.0 23:0.0 24:0.6065306597126334 25:0.7788007830714049 26:0.7213774086184811 27:0.0 28:0.0 29:0.0 30:0.75 31:0.25 32:0.3333333333333333 33:0.6666666666666666 34:0.0 35:1.0 
0.3227073354572752 0:1.0 1:1.0 2:1.0 3:0.0 4:0.0 5:0.0 6:0.0 7:0.0 8:0.0 9:0.0 10:0.0 11:0.0 12:0.0 13:0.0 14:0.0 15:0.0 16:0.0 17:0.0 18:0.0 19:0.0 20:0.0 21:0.0 22:0.0 23:0.0 24:0.6065306597126334 25:0.7788007830714049 26:0.7213774086184811 27:0.0 28:0.0 29:0.0 30:0.75 31:0.25 32:0.3333333333333333 33:0.6666666666666666 34:0.0 35:1.0 
1.0 0:1.0 1:1.0 2:1.0 3:0.0 4:0.0 5:0.0 6:0.0 7:0.0 8:0.0 9:0.0 10:0.0 11:0.0 12:0.0 13:0.0 14:0.0 15:0.0 16:0.0 17:0.0 18:0.0 19:0.0 20:0.0 21:0.0 22:0.0 23:0.0 24:0.6065306597126334 25:0.7788007830714049 26:0.7213774086184811 27:0.0 28:0.0 29:0.0 30:0.75 31:0.25 32:0.3333333333333333 33:0.6666666666666666 34:0.0 35:1.0 
1.0 0:1.0 1:1.0 2:1.0 3:0.0 4:0.0 5:0.0 6:0.0 7:0.0 8:0.0 9:0.0 10:0.0 11:0.0 12:0.0 13:0.0 14:0.0 15:0.0 16:0.0 17:0.0 18:0.0 19:0.0 20:0.0 21:0.0 22:0.0 23:0.0 24:0.6065306597126334 25:0.7788007830714049 26:0.7213774086184811 27:0.0 28:0.0 29:0.0 30:0.75 31:0.25 32:0.3333333333333333 33:0.6666666666666666 34:0.0 35:1.0 
1.0 0:1.0 1:1.0 2:1.0 3:0.0 4:0.0 5:0.0 6:0.0 7:0.0 8:0.0 9:0.0 10:0.0 11:0.0 12:0.0 13:0.0 14:0.0 15:0.0 16:0.0 17:0.0 18:0.0 19:0.0 20:0.0 21:0.0 22:0.0 23:0.0 24:0.6065306597126334 25:0.7788007830714049 26:0.7213774086184811 27:0.0 28:0.0 29:0.0 30:0.75 31:0.25 32:0.3333333333333333 33:0.6666666666666666 34:0.0 35:1.0 
1.0 0:1.0 1:1.0 2:1.0 3:0.0 4:0.0 5:0.0 6:0.0 7:0.0 8:0.0 9:0.0 10:0.0 11:0.0 12:0.0 13:0.0 14:0.0 15:0.0 16:0.0 17:0.0 18:0.0 19:0.0 20:0.0 21:0.0 22:0.0 23:0.0 24:0.6065306597126334 25:0.7788007830714049 26:0.7213774086184811 27:0.0 28:0.0 29:0.0 30:0.75 31:0.25 32:0.3333333333333333 33:0.6666666666666666 34:0.0 35:1.0 
1.0 0:1.0 1:1.0 2:1.0 3:0.0 4:0.0 5:0.0 6:0.0 7:0.0 8:0.0 9:0.0 10:0.0 11:0.0 12:0.0 13:0.0 14:0.0 15:0.0 16:0.0 17:0.0 18:0.0 19:0.0 20:0.0 21:0.0 22:0.0 23:0.0 24:0.6065306597126334 25:0.7788007830714049 26:0.7213774086184811 27:0.0 28:0.0 29:0.0 30:0.75 31:0.25 32:0.3333333333333333 33:0.6666666666666666 34:0.0 35:1.0 
1.0 0:1.0 1:1.0 2:1.0 3:0.0 4:0.0 5:0.0 6:0.0 7:0.0 8:0.0 9:0.0 10:0.0 11:0.0 12:0.0 13:0.0 14:0.0 15:0.0 16:0.0 17:0.0 18:0.0 19:0.0 20:0.0 21:0.0 22:0.0 23:0.0 24:0.6065306597126334 25:0.7788007830714049 26:0.7213774086184811 27:0.0 28:0.0 29:0.0 30:0.75 31:0.25 32:0.3333333333333333 33:0.6666666666666666 34:0.0 35:1.0 
1.0 0:1.0 1:1.0 2:1.0 3:0.0 4:0.0 5:0.0 6:0.0 7:0.0 8:0.0 9:0.0 10:0.0 11:0.0 12:0.0 13:0.0 14:0.0 15:0.0 16:0.0 17:0.0 18:0.0 19:0.0 20:0.0 21:0.0 22:0.0 23:0.0 24:0.6065306597126334 25:0.7788007830714049 26:0.7213774086184811 27:0.0 28:0.0 29:0.0 30:0.75 31:0.25 32:0.3333333333333333 33:0.6666666666666666 34:0.0 35:1.0 
1.0 0:1.0 1:1.0 2:1.0 3:0.0 4:0.0 5:0.0 6:0.0 7:0.0 8:0.0 9:0.0 10:0.0 11:0.0 12:0.0 13:0.0 14:0.0 15:0.0 16:0.0 17:0.0 18:0.0 19:0.0 20:0.0 21:0.0 22:0.0 23:0.0 24:0.6065306597126334 25:0.7788007830714049 26:0.7213774086184811 27:0.0 28:0.0 29:0.0 30:0.75 31:0.25 32:0.3333333333333333 33:0.6666666666666666 34:0.0 35:1.0 
0.9792131992488444 0:1.0 1:1.0 2:1.0 3:0.0 4:0.0 5:0.0 6:0.0 7:0.0 8:0.0 9:0.0 10:0.0 11:0.0 12:0.0 13:0.0 14:0.0 15:0.0 16:0.0 17:0.0 18:0.0 19:0.0 20:0.0 21:0.0 22:0.0 23:0.0 24:0.6065306597126334 25:0.7788007830714049 26:0.7213774086184811 27:0.0 28:0.0 29:0.0 30:0.75 31:0.25 32:0.3333333333333333 33:0.6666666666666666 34:0.0 35:1.0 
1.0 0:0.8333333333333334 1:1.0 2:0.9444444444444445 3:0.0 4:0.35355339059327373 5:0.1178511301977579 6:0.0 7:0.006737946999085467 8:0.002245982333028489 9:0.0 10:0.002790949029572296 11:9.303163431907653E-4 12:0.0 13:0.0017513342581383048 14:5.837780860461016E-4 15:0.0 16:1.0 17:0.3333333333333333 18:0.0 19:0.0 20:0.0 21:0.0 22:0.0 23:0.0 24:0.006737946999085467 25:0.01831563888873418 26:0.014456408258851276 27:0.01831563888873418 28:0.007586586031241778 29:0.004760620089455156 30:1.0 31:0.0 32:0.0 33:0.0 34:0.0 35:0.0 
1.0 0:0.8333333333333334 1:1.0 2:0.9444444444444445 3:0.0 4:0.35355339059327373 5:0.1178511301977579 6:0.0 7:0.006737946999085467 8:0.002245982333028489 9:0.0 10:0.002790949029572296 11:9.303163431907653E-4 12:0.0 13:0.0017513342581383048 14:5.837780860461016E-4 15:0.0 16:1.0 17:0.3333333333333333 18:0.0 19:0.0 20:0.0 21:0.0 22:0.0 23:0.0 24:0.006737946999085467 25:0.01831563888873418 26:0.014456408258851276 27:0.01831563888873418 28:0.007586586031241778 29:0.004760620089455156 30:1.0 31:0.0 32:0.0 33:0.0 34:0.0 35:0.0 
1.0 0:0.8333333333333334 1:1.0 2:0.9444444444444445 3:0.0 4:0.35355339059327373 5:0.1178511301977579 6:0.0 7:0.006737946999085467 8:0.002245982333028489 9:0.0 10:0.002790949029572296 11:9.303163431907653E-4 12:0.0 13:0.0017513342581383048 14:5.837780860461016E-4 15:0.0 16:1.0 17:0.3333333333333333 18:0.0 19:0.0 20:0.0 21:0.0 22:0.0 23:0.0 24:0.006737946999085467 25:0.01831563888873418 26:0.014456408258851276 27:0.01831563888873418 28:0.007586586031241778 29:0.004760620089455156 30:1.0 31:0.0 32:0.0 33:0.0 34:0.0 35:0.0 
1.0 0:0.8333333333333334 1:1.0 2:0.9444444444444445 3:0.0 4:0.35355339059327373 5:0.1178511301977579 6:0.0 7:0.006737946999085467 8:0.002245982333028489 9:0.0 10:0.002790949029572296 11:9.303163431907653E-4 12:0.0 13:0.0017513342581383048 14:5.837780860461016E-4 15:0.0 16:1.0 17:0.3333333333333333 18:0.0 19:0.0 20:0.0 21:0.0 22:0.0 23:0.0 24:0.006737946999085467 25:0.01831563888873418 26:0.014456408258851276 27:0.01831563888873418 28:0.007586586031241778 29:0.004760620089455156 30:1.0 31:0.0 32:0.0 33:0.0 34:0.0 35:0.0 
1.0 0:1.0 1:1.0 2:1.0 3:0.0 4:0.0 5:0.0 6:0.0 7:0.0 8:0.0 9:0.0 10:0.0 11:0.0 12:0.0 13:0.0 14:0.0 15:0.0 16:0.0 17:0.0 18:0.0 19:0.0 20:0.0 21:0.0 22:0.0 23:0.0 24:0.006737946999085467 25:0.01831563888873418 26:0.014456408258851276 27:0.0 28:0.0 29:0.0 30:0.0 31:1.0 32:0.0 33:0.0 34:0.0 35:0.0 
1.0 0:1.0 1:1.0 2:1.0 3:0.0 4:0.0 5:0.0 6:0.0 7:0.0 8:0.0 9:0.0 10:0.0 11:0.0 12:0.0 13:0.0 14:0.0 15:0.0 16:0.0 17:0.0 18:0.0 19:0.0 20:0.0 21:0.0 22:0.0 23:0.0 24:0.006737946999085467 25:0.01831563888873418 26:0.014456408258851276 27:0.0 28:0.0 29:0.0 30:0.0 31:1.0 32:0.0 33:0.0 34:0.0 35:0.0 
1.0 0:0.8333333333333334 1:1.0 2:0.9444444444444445 3:0.0 4:0.35355339059327373 5:0.1178511301977579 6:0.0 7:0.006737946999085467 8:0.002245982333028489 9:0.0 10:0.002790949029572296 11:9.303163431907653E-4 12:0.0 13:0.0017513342581383048 14:5.837780860461016E-4 15:0.0 16:1.0 17:0.3333333333333333 18:0.0 19:0.0 20:0.0 21:0.0 22:0.0 23:0.0 24:0.006737946999085467 25:0.01831563888873418 26:0.014456408258851276 27:0.01831563888873418 28:0.007586586031241778 29:0.004760620089455156 30:1.0 31:0.0 32:0.0 33:0.0 34:0.0 35:0.0 
1.0 0:0.8333333333333334 1:1.0 2:0.9444444444444445 3:0.0 4:0.35355339059327373 5:0.1178511301977579 6:0.0 7:0.006737946999085467 8:0.002245982333028489 9:0.0 10:0.002790949029572296 11:9.303163431907653E-4 12:0.0 13:0.0017513342581383048 14:5.837780860461016E-4 15:0.0 16:1.0 17:0.3333333333333333 18:0.0 19:0.0 20:0.0 21:0.0 22:0.0 23:0.0 24:0.006737946999085467 25:0.01831563888873418 26:0.014456408258851276 27:0.01831563888873418 28:0.007586586031241778 29:0.004760620089455156 30:1.0 31:0.0 32:0.0 33:0.0 34:0.0 35:0.0 
1.0 0:1.0 1:1.0 2:1.0 3:0.0 4:0.0 5:0.0 6:0.0 7:0.0 8:0.0 9:0.0 10:0.0 11:0.0 12:0.0 13:0.0 14:0.0 15:0.0 16:0.0 17:0.0 18:0.0 19:0.0 20:0.0 21:0.0 22:0.0 23:0.0 24:0.006737946999085467 25:0.01831563888873418 26:0.014456408258851276 27:0.0 28:0.0 29:0.0 30:0.0 31:0.0 32:0.0 33:0.0 34:0.0 35:0.0 
1.0 0:1.0 1:1.0 2:1.0 3:0.0 4:0.0 5:0.0 6:0.0 7:0.0 8:0.0 9:0.0 10:0.0 11:0.0 12:0.0 13:0.0 14:0.0 15:0.0 16:0.0 17:0.0 18:0.0 19:0.0 20:0.0 21:0.0 22:0.0 23:0.0 24:0.006737946999085467 25:0.01831563888873418 26:0.014456408258851276 27:0.0 28:0.0 29:0.0 30:0.0 31:0.0 32:0.0 33:0.0 34:0.0 35:0.0 
-1.0 0:0.3333333333333333 1:1.0 2:0.7777777777777777 3:0.18257418583505536 4:0.8660254037844387 5:0.41039125848484975 6:0.19470019576785122 7:0.6065306597126334 8:0.33197701708277866 9:0.09192496286745955 10:0.6065306597126334 11:0.2634601951491842 12:0.0601369287651104 13:0.6065306597126334 14:0.2422681724142847 15:0.25 16:1.0 17:0.5 18:0.0 19:1.0 20:0.3333333333333333 21:0.0 22:1.0 23:0.3333333333333333 24:0.6065306597126334 25:0.7788007830714049 26:0.7213774086184811 27:0.7788007830714049 28:0.7788007830714049 29:0.7788007830714049 30:0.0 31:1.0 32:0.0 33:1.0 34:0.0 35:1.0 
-1.0 0:0.6666666666666666 1:1.0 2:0.8888888888888888 3:0.0 4:0.7499999999999999 5:0.24999999999999997 6:0.0 7:0.1353352832366127 8:0.0451117610788709 9:0.0 10:0.1353352832366127 11:0.0451117610788709 12:0.0 13:0.07949608774160052 14:0.026498695913866843 15:0.0 16:1.0 17:0.3333333333333333 18:0.0 19:1.0 20:0.3333333333333333 21:0.0 22:0.0 23:0.0 24:0.1353352832366127 25:0.22313016014842982 26:0.1938652011778241 27:0.22313016014842982 28:0.22313016014842982 29:0.13106689079702047 30:0.0 31:1.0 32:0.0 33:1.0 34:0.0 35:0.0 
-1.0 0:0.8333333333333334 1:1.0 2:0.9444444444444445 3:0.0 4:0.35355339059327373 5:0.1178511301977579 6:0.0 7:0.006737946999085467 8:0.002245982333028489 9:0.0 10:0.002790949029572296 11:9.303163431907653E-4 12:0.0 13:0.0017513342581383048 14:5.837780860461016E-4 15:0.0 16:1.0 17:0.3333333333333333 18:0.0 19:0.0 20:0.0 21:0.0 22:0.0 23:0.0 24:0.006737946999085467 25:0.01831563888873418 26:0.014456408258851276 27:0.01831563888873418 28:0.007586586031241778 29:0.004760620089455156 30:1.0 31:0.0 32:0.0 33:0.0 34:0.0 35:0.0 
-1.0 0:0.8333333333333334 1:1.0 2:0.9444444444444445 3:0.0 4:0.35355339059327373 5:0.1178511301977579 6:0.0 7:0.006737946999085467 8:0.002245982333028489 9:0.0 10:0.002790949029572296 11:9.303163431907653E-4 12:0.0 13:0.0017513342581383048 14:5.837780860461016E-4 15:0.0 16:1.0 17:0.3333333333333333 18:0.0 19:0.0 20:0.0 21:0.0 22:0.0 23:0.0 24:0.006737946999085467 25:0.01831563888873418 26:0.014456408258851276 27:0.01831563888873418 28:0.007586586031241778 29:0.004760620089455156 30:1.0 31:0.0 32:0.0 33:0.0 34:0.0 35:0.0 
-1.0 0:0.3333333333333333 1:1.0 2:0.7777777777777777 3:0.18257418583505536 4:0.8660254037844387 5:0.41039125848484975 6:0.19470019576785122 7:0.6065306597126334 8:0.33197701708277866 9:0.09192496286745955 10:0.6065306597126334 11:0.2634601951491842 12:0.0601369287651104 13:0.6065306597126334 14:0.2422681724142847 15:0.25 16:1.0 17:0.5 18:0.0 19:1.0 20:0.3333333333333333 21:0.0 22:1.0 23:0.3333333333333333 24:0.6065306597126334 25:0.7788007830714049 26:0.7213774086184811 27:0.7788007830714049 28:0.7788007830714049 29:0.7788007830714049 30:0.0 31:1.0 32:0.0 33:1.0 34:0.0 35:1.0 
-1.0 0:0.3333333333333333 1:1.0 2:0.7777777777777777 3:0.18257418583505536 4:0.8660254037844387 5:0.41039125848484975 6:0.19470019576785122 7:0.6065306597126334 8:0.33197701708277866 9:0.09192496286745955 10:0.6065306597126334 11:0.2634601951491842 12:0.0601369287651104 13:0.6065306597126334 14:0.2422681724142847 15:0.25 16:1.0 17:0.5 18:0.0 19:1.0 20:0.3333333333333333 21:0.0 22:1.0 23:0.3333333333333333 24:0.6065306597126334 25:0.7788007830714049 26:0.7213774086184811 27:0.7788007830714049 28:0.7788007830714049 29:0.7788007830714049 30:0.0 31:1.0 32:0.0 33:1.0 34:0.0 35:1.0 
-1.0 0:1.0 1:1.0 2:1.0 3:0.0 4:0.0 5:0.0 6:0.0 7:0.0 8:0.0 9:0.0 10:0.0 11:0.0 12:0.0 13:0.0 14:0.0 15:0.0 16:0.0 17:0.0 18:0.0 19:0.0 20:0.0 21:0.0 22:0.0 23:0.0 24:0.006737946999085467 25:0.01831563888873418 26:0.014456408258851276 27:0.0 28:0.0 29:0.0 30:0.0 31:1.0 32:0.0 33:0.0 34:0.0 35:0.0 
-1.0 0:0.8333333333333334 1:1.0 2:0.9444444444444445 3:0.0 4:0.4999999999999999 5:0.16666666666666663 6:0.0 7:0.06766764161830635 8:0.02255588053943545 9:0.0 10:0.030415910825756783 11:0.010138636941918928 12:0.0 13:0.01958494300432704 14:0.00652831433477568 15:0.0 16:0.5 17:0.16666666666666666 18:0.0 19:0.0 20:0.0 21:0.0 22:0.0 23:0.0 24:0.1353352832366127 25:0.22313016014842982 26:0.1938652011778241 27:0.11156508007421491 28:0.0501473591461435 29:0.03229011211668366 30:0.0 31:1.0 32:0.0 33:1.0 34:0.0 35:0.0 
-1.0 0:0.8333333333333334 1:1.0 2:0.9444444444444445 3:0.0 4:0.4999999999999999 5:0.16666666666666663 6:0.0 7:0.06766764161830635 8:0.02255588053943545 9:0.0 10:0.030415910825756783 11:0.010138636941918928 12:0.0 13:0.01958494300432704 14:0.00652831433477568 15:0.0 16:0.5 17:0.16666666666666666 18:0.0 19:0.0 20:0.0 21:0.0 22:0.0 23:0.0 24:0.1353352832366127 25:0.22313016014842982 26:0.1938652011778241 27:0.11156508007421491 28:0.0501473591461435 29:0.03229011211668366 30:0.0 31:1.0 32:0.0 33:1.0 34:0.0 35:0.0 
-1.0 0:0.8333333333333334 1:1.0 2:0.9444444444444445 3:0.0 4:0.35355339059327373 5:0.1178511301977579 6:0.0 7:0.15163266492815836 8:0.050544221642719454 9:0.0 10:0.07159123306498731 11:0.02386374435499577 12:0.0 13:0.046834687213777274 14:0.015611562404592425 15:0.0 16:0.25 17:0.08333333333333333 18:0.0 19:0.0 20:0.0 21:0.0 22:0.0 23:0.0 24:0.6065306597126334 25:0.7788007830714049 26:0.7213774086184811 27:0.19470019576785122 28:0.09192496286745955 29:0.0601369287651104 30:0.0 31:0.75 32:0.0 33:0.3333333333333333 34:0.0 35:0.0 
-1.0 0:0.8333333333333334 1:1.0 2:0.9444444444444445 3:0.0 4:0.35355339059327373 5:0.1178511301977579 6:0.0 7:0.15163266492815836 8:0.050544221642719454 9:0.0 10:0.07159123306498731 11:0.02386374435499577 12:0.0 13:0.046834687213777274 14:0.015611562404592425 15:0.0 16:0.25 17:0.08333333333333333 18:0.0 19:0.0 20:0.0 21:0.0 22:0.0 23:0.0 24:0.6065306597126334 25:0.7788007830714049 26:0.7213774086184811 27:0.19470019576785122 28:0.09192496286745955 29:0.0601369287651104 30:0.0 31:0.75 32:0.0 33:0.3333333333333333 34:0.0 35:0.0 
1.0 0:0.5 1:0.5 2:0.5 3:0.6454972243679029 4:0.6454972243679029 5:0.6454972243679029 6:0.4776875403825261 7:0.4776875403825261 8:0.4776875403825261 9:0.37798834559631106 10:0.37798834559631106 11:0.37798834559631106 12:0.23384171476690543 13:0.23384171476690543 14:0.23384171476690543 15:0.6666666666666666 16:0.6666666666666666 17:0.6666666666666666 18:0.4 19:0.4 20:0.4000000000000001 21:0.0 22:0.0 23:0.0 24:0.7165313105737893 25:0.7165313105737893 26:0.7165313105737893 27:0.4776875403825261 28:0.37798834559631106 29:0.23384171476690543 30:0.5 31:0.16666666666666666 32:0.4 33:0.0 34:0.0 35:0.0 
1.0 0:1.0 1:1.0 2:1.0 3:0.0 4:0.0 5:0.0 6:0.0 7:0.0 8:0.0 9:0.0 10:0.0 11:0.0 12:0.0 13:0.0 14:0.0 15:0.0 16:0.0 17:0.0 18:0.0 19:0.0 20:0.0 21:0.0 22:0.0 23:0.0 24:9.118819655545162E-4 25:9.118819655545162E-4 26:9.118819655545162E-4 27:0.0 28:0.0 29:0.0 30:0.0 31:0.0 32:0.0 33:0.0 34:0.0 35:0.0 
1.0 0:1.0 1:1.0 2:1.0 3:0.0 4:0.0 5:0.0 6:0.0 7:0.0 8:0.0 9:0.0 10:0.0 11:0.0 12:0.0 13:0.0 14:0.0 15:0.0 16:0.0 17:0.0 18:0.0 19:0.0 20:0.0 21:0.0 22:0.0 23:0.0 24:0.36787944117144233 25:0.36787944117144233 26:0.36787944117144233 27:0.0 28:0.0 29:0.0 30:1.0 31:0.0 32:1.0 33:0.0 34:1.0 35:0.0 
1.0 0:1.0 1:1.0 2:1.0 3:0.0 4:0.0 5:0.0 6:0.0 7:0.0 8:0.0 9:0.0 10:0.0 11:0.0 12:0.0 13:0.0 14:0.0 15:0.0 16:0.0 17:0.0 18:0.0 19:0.0 20:0.0 21:0.0 22:0.0 23:0.0 24:0.36787944117144233 25:0.36787944117144233 26:0.36787944117144233 27:0.0 28:0.0 29:0.0 30:1.0 31:0.0 32:1.0 33:0.0 34:1.0 35:0.0 
1.0 0:1.0 1:1.0 2:1.0 3:0.0 4:0.0 5:0.0 6:0.0 7:0.0 8:0.0 9:0.0 10:0.0 11:0.0 12:0.0 13:0.0 14:0.0 15:0.0 16:0.0 17:0.0 18:0.0 19:0.0 20:0.0 21:0.0 22:0.0 23:0.0 24:0.36787944117144233 25:0.36787944117144233 26:0.36787944117144233 27:0.0 28:0.0 29:0.0 30:1.0 31:0.0 32:1.0 33:0.0 34:1.0 35:0.0 
-1.0 0:0.125 1:0.125 2:0.125 3:0.8999999999999998 4:0.8999999999999998 5:0.8999999999999998 6:0.875 7:0.875 8:0.875 9:0.7928429140015905 10:0.7928429140015905 11:0.7928429140015906 12:0.6893718206654091 13:0.6893718206654091 14:0.6893718206654093 15:0.875 16:0.875 17:0.875 18:0.7142857142857143 19:0.7142857142857143 20:0.7142857142857143 21:0.5 22:0.5 23:0.5 24:1.0 25:1.0 26:1.0 27:0.875 28:0.7928429140015905 29:0.6893718206654091 30:0.75 31:0.25 32:1.0 33:0.0 34:1.0 35:0.0 
-1.0 0:0.375 1:0.375 2:0.375 3:0.8366600265340756 4:0.8366600265340756 5:0.8366600265340756 6:0.5488116360940264 7:0.5488116360940264 8:0.5488116360940264 9:0.5488116360940264 10:0.5488116360940264 11:0.5488116360940264 12:0.5488116360940264 13:0.5488116360940264 14:0.5488116360940264 15:1.0 16:1.0 17:1.0 18:1.0 19:1.0 20:1.0 21:1.0 22:1.0 23:1.0 24:0.5488116360940264 25:0.5488116360940264 26:0.5488116360940264 27:0.5488116360940264 28:0.5488116360940264 29:0.5488116360940264 30:0.4 31:0.4 32:0.75 33:0.0 34:0.6666666666666666 35:0.0 
-1.0 0:0.125 1:0.125 2:0.125 3:0.8999999999999998 4:0.8999999999999998 5:0.8999999999999998 6:0.875 7:0.875 8:0.875 9:0.7928429140015905 10:0.7928429140015905 11:0.7928429140015906 12:0.6893718206654091 13:0.6893718206654091 14:0.6893718206654093 15:0.875 16:0.875 17:0.875 18:0.7142857142857143 19:0.7142857142857143 20:0.7142857142857143 21:0.5 22:0.5 23:0.5 24:1.0 25:1.0 26:1.0 27:0.875 28:0.7928429140015905 29:0.6893718206654091 30:0.75 31:0.25 32:1.0 33:0.0 34:1.0 35:0.0 
-1.0 0:0.125 1:0.125 2:0.125 3:0.8999999999999998 4:0.8999999999999998 5:0.8999999999999998 6:0.875 7:0.875 8:0.875 9:0.7928429140015905 10:0.7928429140015905 11:0.7928429140015906 12:0.6893718206654091 13:0.6893718206654091 14:0.6893718206654093 15:0.875 16:0.875 17:0.875 18:0.7142857142857143 19:0.7142857142857143 20:0.7142857142857143 21:0.5 22:0.5 23:0.5 24:1.0 25:1.0 26:1.0 27:0.875 28:0.7928429140015905 29:0.6893718206654091 30:0.75 31:0.25 32:1.0 33:0.0 34:1.0 35:0.0 
-1.0 0:0.25 1:0.25 2:0.25 3:0.8432740427115678 4:0.8432740427115678 5:0.8432740427115678 6:0.74303819978587 7:0.74303819978587 8:0.74303819978587 9:0.6582454215694513 10:0.6582454215694513 11:0.6582454215694513 12:0.5464143054724286 13:0.5464143054724286 14:0.5464143054724286 15:0.8571428571428571 16:0.8571428571428571 17:0.8571428571428571 18:0.6666666666666666 19:0.6666666666666666 20:0.6666666666666666 21:0.4 22:0.4 23:0.4000000000000001 24:0.8668778997501817 25:0.8668778997501817 26:0.8668778997501817 27:0.74303819978587 28:0.6582454215694513 29:0.5464143054724286 30:0.7142857142857143 31:0.2857142857142857 32:1.0 33:0.0 34:1.0 35:0.0 
1.0 0:1.0 1:1.0 2:1.0 3:0.0 4:0.0 5:0.0 6:0.0 7:0.0 8:0.0 9:0.0 10:0.0 11:0.0 12:0.0 13:0.0 14:0.0 15:0.0 16:0.0 17:0.0 18:0.0 19:0.0 20:0.0 21:0.0 22:0.0 23:0.0 24:9.118819655545162E-4 25:9.118819655545162E-4 26:9.118819655545162E-4 27:0.0 28:0.0 29:0.0 30:0.0 31:1.0 32:0.0 33:0.0 34:0.0 35:0.0 
1.0 0:1.0 1:1.0 2:1.0 3:0.0 4:0.0 5:0.0 6:0.0 7:0.0 8:0.0 9:0.0 10:0.0 11:0.0 12:0.0 13:0.0 14:0.0 15:0.0 16:0.0 17:0.0 18:0.0 19:0.0 20:0.0 21:0.0 22:0.0 23:0.0 24:9.118819655545162E-4 25:9.118819655545162E-4 26:9.118819655545162E-4 27:0.0 28:0.0 29:0.0 30:0.0 31:1.0 32:0.0 33:0.0 34:0.0 35:0.0 
-1.0 0:0.5 1:0.5 2:0.5 3:0.6708203932499369 4:0.6708203932499369 5:0.6708203932499369 6:0.4776875403825261 7:0.4776875403825261 8:0.4776875403825261 9:0.2967969867046317 10:0.2967969867046317 11:0.2967969867046317 12:0.18624157052688875 13:0.18624157052688875 14:0.18624157052688875 15:0.6666666666666666 16:0.6666666666666666 17:0.6666666666666666 18:0.2 19:0.2 20:0.20000000000000004 21:0.0 22:0.0 23:0.0 24:0.7165313105737893 25:0.7165313105737893 26:0.7165313105737893 27:0.4776875403825261 28:0.2967969867046317 29:0.18624157052688875 30:0.6666666666666666 31:0.3333333333333333 32:0.8 33:0.2 34:0.75 35:0.25 
1.0 0:1.0 1:1.0 2:1.0 3:0.0 4:0.0 5:0.0 6:0.0 7:0.0 8:0.0 9:0.0 10:0.0 11:0.0 12:0.0 13:0.0 14:0.0 15:0.0 16:0.0 17:0.0 18:0.0 19:0.0 20:0.0 21:0.0 22:0.0 23:0.0 24:9.118819655545162E-4 25:9.118819655545162E-4 26:9.118819655545162E-4 27:0.0 28:0.0 29:0.0 30:0.0 31:1.0 32:0.0 33:0.0 34:0.0 35:0.0 
1.0 0:1.0 1:1.0 2:1.0 3:0.0 4:0.0 5:0.0 6:0.0 7:0.0 8:0.0 9:0.0 10:0.0 11:0.0 12:0.0 13:0.0 14:0.0 15:0.0 16:0.0 17:0.0 18:0.0 19:0.0 20:0.0 21:0.0 22:0.0 23:0.0 24:9.118819655545162E-4 25:9.118819655545162E-4 26:9.118819655545162E-4 27:0.0 28:0.0 29:0.0 30:0.0 31:1.0 32:0.0 33:0.0 34:0.0 35:0.0 
1.0 0:1.0 1:1.0 2:1.0 3:0.0 4:0.0 5:0.0 6:0.0 7:0.0 8:0.0 9:0.0 10:0.0 11:0.0 12:0.0 13:0.0 14:0.0 15:0.0 16:0.0 17:0.0 18:0.0 19:0.0 20:0.0 21:0.0 22:0.0 23:0.0 24:9.118819655545162E-4 25:9.118819655545162E-4 26:9.118819655545162E-4 27:0.0 28:0.0 29:0.0 30:0.0 31:1.0 32:0.0 33:0.0 34:0.0 35:0.0 
1.0 0:1.0 1:1.0 2:1.0 3:0.0 4:0.0 5:0.0 6:0.0 7:0.0 8:0.0 9:0.0 10:0.0 11:0.0 12:0.0 13:0.0 14:0.0 15:0.0 16:0.0 17:0.0 18:0.0 19:0.0 20:0.0 21:0.0 22:0.0 23:0.0 24:9.118819655545162E-4 25:9.118819655545162E-4 26:9.118819655545162E-4 27:0.0 28:0.0 29:0.0 30:0.0 31:1.0 32:0.0 33:0.0 34:0.0 35:0.0 
-1.0 0:0.625 1:0.625 2:0.625 3:0.6324555320336759 4:0.6324555320336759 5:0.6324555320336759 6:0.27590958087858175 7:0.27590958087858175 8:0.27590958087858175 9:0.19406568742395375 10:0.19406568742395375 11:0.19406568742395378 12:0.12005833950526572 13:0.12005833950526572 14:0.12005833950526572 15:0.75 16:0.75 17:0.75 18:0.3333333333333333 19:0.3333333333333333 20:0.3333333333333333 21:0.0 22:0.0 23:0.0 24:0.36787944117144233 25:0.36787944117144233 26:0.36787944117144233 27:0.27590958087858175 28:0.19406568742395375 29:0.12005833950526572 30:0.5 31:0.5 32:0.3333333333333333 33:0.6666666666666666 34:0.0 35:1.0 
-1.0 0:0.625 1:0.625 2:0.625 3:0.6324555320336759 4:0.6324555320336759 5:0.6324555320336759 6:0.27590958087858175 7:0.27590958087858175 8:0.27590958087858175 9:0.19406568742395375 10:0.19406568742395375 11:0.19406568742395378 12:0.12005833950526572 13:0.12005833950526572 14:0.12005833950526572 15:0.75 16:0.75 17:0.75 18:0.3333333333333333 19:0.3333333333333333 20:0.3333333333333333 21:0.0 22:0.0 23:0.0 24:0.36787944117144233 25:0.36787944117144233 26:0.36787944117144233 27:0.27590958087858175 28:0.19406568742395375 29:0.12005833950526572 30:0.5 31:0.5 32:0.3333333333333333 33:0.6666666666666666 34:0.0 35:1.0 
-1.0 0:0.625 1:0.625 2:0.625 3:0.6324555320336759 4:0.6324555320336759 5:0.6324555320336759 6:0.27590958087858175 7:0.27590958087858175 8:0.27590958087858175 9:0.11877931572508393 10:0.11877931572508393 11:0.11877931572508393 12:0.07544145347278687 13:0.07544145347278687 14:0.07544145347278687 15:0.75 16:0.75 17:0.75 18:0.0 19:0.0 20:0.0 21:0.0 22:0.0 23:0.0 24:0.36787944117144233 25:0.36787944117144233 26:0.36787944117144233 27:0.27590958087858175 28:0.11877931572508393 29:0.07544145347278687 30:0.5 31:0.5 32:0.0 33:0.0 34:0.0 35:0.0 
-1.0 0:0.625 1:0.625 2:0.625 3:0.6324555320336759 4:0.6324555320336759 5:0.6324555320336759 6:0.27590958087858175 7:0.27590958087858175 8:0.27590958087858175 9:0.11877931572508393 10:0.11877931572508393 11:0.11877931572508393 12:0.07544145347278687 13:0.07544145347278687 14:0.07544145347278687 15:0.75 16:0.75 17:0.75 18:0.0 19:0.0 20:0.0 21:0.0 22:0.0 23:0.0 24:0.36787944117144233 25:0.36787944117144233 26:0.36787944117144233 27:0.27590958087858175 28:0.11877931572508393 29:0.07544145347278687 30:0.5 31:0.5 32:0.0 33:0.0 34:0.0 35:0.0 
1.0 0:1.0 1:1.0 2:1.0 3:0.0 4:0.0 5:0.0 6:0.0 7:0.0 8:0.0 9:0.0 10:0.0 11:0.0 12:0.0 13:0.0 14:0.0 15:0.0 16:0.0 17:0.0 18:0.0 19:0.0 20:0.0 21:0.0 22:0.0 23:0.0 24:9.118819655545162E-4 25:9.118819655545162E-4 26:9.118819655545162E-4 27:0.0 28:0.0 29:0.0 30:0.0 31:1.0 32:0.0 33:0.0 34:0.0 35:0.0 
1.0 0:1.0 1:1.0 2:1.0 3:0.0 4:0.0 5:0.0 6:0.0 7:0.0 8:0.0 9:0.0 10:0.0 11:0.0 12:0.0 13:0.0 14:0.0 15:0.0 16:0.0 17:0.0 18:0.0 19:0.0 20:0.0 21:0.0 22:0.0 23:0.0 24:9.118819655545162E-4 25:9.118819655545162E-4 26:9.118819655545162E-4 27:0.0 28:0.0 29:0.0 30:0.0 31:1.0 32:0.0 33:0.0 34:0.0 35:0.0 
1.0 0:1.0 1:1.0 2:1.0 3:0.0 4:0.0 5:0.0 6:0.0 7:0.0 8:0.0 9:0.0 10:0.0 11:0.0 12:0.0 13:0.0 14:0.0 15:0.0 16:0.0 17:0.0 18:0.0 19:0.0 20:0.0 21:0.0 22:0.0 23:0.0 24:9.118819655545162E-4 25:9.118819655545162E-4 26:9.118819655545162E-4 27:0.0 28:0.0 29:0.0 30:0.0 31:1.0 32:0.0 33:0.0 34:0.0 35:0.0 
1.0 0:1.0 1:1.0 2:1.0 3:0.0 4:0.0 5:0.0 6:0.0 7:0.0 8:0.0 9:0.0 10:0.0 11:0.0 12:0.0 13:0.0 14:0.0 15:0.0 16:0.0 17:0.0 18:0.0 19:0.0 20:0.0 21:0.0 22:0.0 23:0.0 24:9.118819655545162E-4 25:9.118819655545162E-4 26:9.118819655545162E-4 27:0.0 28:0.0 29:0.0 30:0.0 31:1.0 32:0.0 33:0.0 34:0.0 35:0.0 
1.0 0:1.0 1:1.0 2:1.0 3:0.0 4:0.0 5:0.0 6:0.0 7:0.0 8:0.0 9:0.0 10:0.0 11:0.0 12:0.0 13:0.0 14:0.0 15:0.0 16:0.0 17:0.0 18:0.0 19:0.0 20:0.0 21:0.0 22:0.0 23:0.0 24:9.118819655545162E-4 25:9.118819655545162E-4 26:9.118819655545162E-4 27:0.0 28:0.0 29:0.0 30:0.0 31:1.0 32:0.0 33:0.0 34:0.0 35:0.0 
1.0 0:1.0 1:1.0 2:1.0 3:0.0 4:0.0 5:0.0 6:0.0 7:0.0 8:0.0 9:0.0 10:0.0 11:0.0 12:0.0 13:0.0 14:0.0 15:0.0 16:0.0 17:0.0 18:0.0 19:0.0 20:0.0 21:0.0 22:0.0 23:0.0 24:9.118819655545162E-4 25:9.118819655545162E-4 26:9.118819655545162E-4 27:0.0 28:0.0 29:0.0 30:0.0 31:1.0 32:0.0 33:0.0 34:0.0 35:0.0 
-1.0 0:0.5 1:0.5 2:0.5 3:0.6454972243679029 4:0.6454972243679029 5:0.6454972243679029 6:0.4776875403825261 7:0.4776875403825261 8:0.4776875403825261 9:0.37798834559631106 10:0.37798834559631106 11:0.37798834559631106 12:0.23384171476690543 13:0.23384171476690543 14:0.23384171476690543 15:0.6666666666666666 16:0.6666666666666666 17:0.6666666666666666 18:0.4 19:0.4 20:0.4000000000000001 21:0.0 22:0.0 23:0.0 24:0.7165313105737893 25:0.7165313105737893 26:0.7165313105737893 27:0.4776875403825261 28:0.37798834559631106 29:0.23384171476690543 30:0.5 31:0.5 32:0.4 33:0.6 34:0.0 35:0.75 
-1.0 0:0.5 1:0.5 2:0.5 3:0.6454972243679029 4:0.6454972243679029 5:0.6454972243679029 6:0.4776875403825261 7:0.4776875403825261 8:0.4776875403825261 9:0.37798834559631106 10:0.37798834559631106 11:0.37798834559631106 12:0.23384171476690543 13:0.23384171476690543 14:0.23384171476690543 15:0.6666666666666666 16:0.6666666666666666 17:0.6666666666666666 18:0.4 19:0.4 20:0.4000000000000001 21:0.0 22:0.0 23:0.0 24:0.7165313105737893 25:0.7165313105737893 26:0.7165313105737893 27:0.4776875403825261 28:0.37798834559631106 29:0.23384171476690543 30:0.5 31:0.5 32:0.4 33:0.6 34:0.0 35:0.75 
1.0 0:1.0 1:1.0 2:1.0 3:0.0 4:0.0 5:0.0 6:0.0 7:0.0 8:0.0 9:0.0 10:0.0 11:0.0 12:0.0 13:0.0 14:0.0 15:0.0 16:0.0 17:0.0 18:0.0 19:0.0 20:0.0 21:0.0 22:0.0 23:0.0 24:9.118819655545162E-4 25:9.118819655545162E-4 26:9.118819655545162E-4 27:0.0 28:0.0 29:0.0 30:0.0 31:1.0 32:0.0 33:0.0 34:0.0 35:0.0 
1.0 0:1.0 1:1.0 2:1.0 3:0.0 4:0.0 5:0.0 6:0.0 7:0.0 8:0.0 9:0.0 10:0.0 11:0.0 12:0.0 13:0.0 14:0.0 15:0.0 16:0.0 17:0.0 18:0.0 19:0.0 20:0.0 21:0.0 22:0.0 23:0.0 24:9.118819655545162E-4 25:9.118819655545162E-4 26:9.118819655545162E-4 27:0.0 28:0.0 29:0.0 30:0.0 31:1.0 32:0.0 33:0.0 34:0.0 35:0.0 
-1.0 0:0.375 1:0.375 2:0.375 3:0.8366600265340756 4:0.8366600265340756 5:0.8366600265340756 6:0.5488116360940264 7:0.5488116360940264 8:0.5488116360940264 9:0.5488116360940264 10:0.5488116360940264 11:0.5488116360940264 12:0.5488116360940264 13:0.5488116360940264 14:0.5488116360940264 15:1.0 16:1.0 17:1.0 18:1.0 19:1.0 20:1.0 21:1.0 22:1.0 23:1.0 24:0.5488116360940264 25:0.5488116360940264 26:0.5488116360940264 27:0.5488116360940264 28:0.5488116360940264 29:0.5488116360940264 30:0.4 31:0.4 32:0.75 33:0.0 34:0.6666666666666666 35:0.0 
-1.0 0:0.875 1:0.875 2:0.875 3:0.22360679774997896 4:0.22360679774997896 5:0.22360679774997896 6:0.024893534183931972 7:0.024893534183931972 8:0.024893534183931972 9:0.011189388277299829 10:0.011189388277299829 11:0.011189388277299829 12:0.00720489788780638 13:0.00720489788780638 14:0.00720489788780638 15:0.5 16:0.5 17:0.5 18:0.0 19:0.0 20:0.0 21:0.0 22:0.0 23:0.0 24:0.049787068367863944 25:0.049787068367863944 26:0.049787068367863944 27:0.024893534183931972 28:0.011189388277299829 29:0.00720489788780638 30:1.0 31:0.0 32:1.0 33:0.0 34:0.0 35:0.0 
-1.0 0:1.0 1:1.0 2:1.0 3:0.0 4:0.0 5:0.0 6:0.0 7:0.0 8:0.0 9:0.0 10:0.0 11:0.0 12:0.0 13:0.0 14:0.0 15:0.0 16:0.0 17:0.0 18:0.0 19:0.0 20:0.0 21:0.0 22:0.0 23:0.0 24:9.118819655545162E-4 25:9.118819655545162E-4 26:9.118819655545162E-4 27:0.0 28:0.0 29:0.0 30:1.0 31:0.0 32:0.0 33:0.0 34:0.0 35:0.0 
-1.0 0:1.0 1:1.0 2:1.0 3:0.0 4:0.0 5:0.0 6:0.0 7:0.0 8:0.0 9:0.0 10:0.0 11:0.0 12:0.0 13:0.0 14:0.0 15:0.0 16:0.0 17:0.0 18:0.0 19:0.0 20:0.0 21:0.0 22:0.0 23:0.0 24:9.118819655545162E-4 25:9.118819655545162E-4 26:9.118819655545162E-4 27:0.0 28:0.0 29:0.0 30:1.0 31:0.0 32:0.0 33:0.0 34:0.0 35:0.0 
-1.0 0:1.0 1:1.0 2:1.0 3:0.0 4:0.0 5:0.0 6:0.0 7:0.0 8:0.0 9:0.0 10:0.0 11:0.0 12:0.0 13:0.0 14:0.0 15:0.0 16:0.0 17:0.0 18:0.0 19:0.0 20:0.0 21:0.0 22:0.0 23:0.0 24:9.118819655545162E-4 25:9.118819655545162E-4 26:9.118819655545162E-4 27:0.0 28:0.0 29:0.0 30:0.0 31:1.0 32:0.0 33:0.0 34:0.0 35:0.0 
-1.0 0:1.0 1:1.0 2:1.0 3:0.0 4:0.0 5:0.0 6:0.0 7:0.0 8:0.0 9:0.0 10:0.0 11:0.0 12:0.0 13:0.0 14:0.0 15:0.0 16:0.0 17:0.0 18:0.0 19:0.0 20:0.0 21:0.0 22:0.0 23:0.0 24:9.118819655545162E-4 25:9.118819655545162E-4 26:9.118819655545162E-4 27:0.0 28:0.0 29:0.0 30:1.0 31:0.0 32:0.0 33:0.0 34:0.0 35:0.0 
-1.0 0:0.5 1:0.5 2:0.5 3:0.6708203932499369 4:0.6708203932499369 5:0.6708203932499369 6:0.4776875403825261 7:0.4776875403825261 8:0.4776875403825261 9:0.2967969867046317 10:0.2967969867046317 11:0.2967969867046317 12:0.18624157052688875 13:0.18624157052688875 14:0.18624157052688875 15:0.6666666666666666 16:0.6666666666666666 17:0.6666666666666666 18:0.2 19:0.2 20:0.20000000000000004 21:0.0 22:0.0 23:0.0 24:0.7165313105737893 25:0.7165313105737893 26:0.7165313105737893 27:0.4776875403825261 28:0.2967969867046317 29:0.18624157052688875 30:0.6666666666666666 31:0.3333333333333333 32:0.8 33:0.2 34:0.75 35:0.25 
-1.0 0:1.0 1:1.0 2:1.0 3:0.0 4:0.0 5:0.0 6:0.0 7:0.0 8:0.0 9:0.0 10:0.0 11:0.0 12:0.0 13:0.0 14:0.0 15:0.0 16:0.0 17:0.0 18:0.0 19:0.0 20:0.0 21:0.0 22:0.0 23:0.0 24:9.118819655545162E-4 25:9.118819655545162E-4 26:9.118819655545162E-4 27:0.0 28:0.0 29:0.0 30:1.0 31:0.0 32:0.0 33:0.0 34:0.0 35:0.0 
-1.0 0:1.0 1:1.0 2:1.0 3:0.0 4:0.0 5:0.0 6:0.0 7:0.0 8:0.0 9:0.0 10:0.0 11:0.0 12:0.0 13:0.0 14:0.0 15:0.0 16:0.0 17:0.0 18:0.0 19:0.0 20:0.0 21:0.0 22:0.0 23:0.0 24:9.118819655545162E-4 25:9.118819655545162E-4 26:9.118819655545162E-4 27:0.0 28:0.0 29:0.0 30:1.0 31:0.0 32:0.0 33:0.0 34:0.0 35:0.0 
-1.0 0:1.0 1:1.0 2:1.0 3:0.0 4:0.0 5:0.0 6:0.0 7:0.0 8:0.0 9:0.0 10:0.0 11:0.0 12:0.0 13:0.0 14:0.0 15:0.0 16:0.0 17:0.0 18:0.0 19:0.0 20:0.0 21:0.0 22:0.0 23:0.0 24:9.118819655545162E-4 25:9.118819655545162E-4 26:9.118819655545162E-4 27:0.0 28:0.0 29:0.0 30:1.0 31:0.0 32:0.0 33:0.0 34:0.0 35:0.0 
-1.0 0:1.0 1:1.0 2:1.0 3:0.0 4:0.0 5:0.0 6:0.0 7:0.0 8:0.0 9:0.0 10:0.0 11:0.0 12:0.0 13:0.0 14:0.0 15:0.0 16:0.0 17:0.0 18:0.0 19:0.0 20:0.0 21:0.0 22:0.0 23:0.0 24:9.118819655545162E-4 25:9.118819655545162E-4 26:9.118819655545162E-4 27:0.0 28:0.0 29:0.0 30:1.0 31:0.0 32:0.0 33:0.0 34:0.0 35:0.0 
-1.0 0:0.25 1:0.25 2:0.25 3:0.8432740427115678 4:0.8432740427115678 5:0.8432740427115678 6:0.74303819978587 7:0.74303819978587 8:0.74303819978587 9:0.6582454215694513 10:0.6582454215694513 11:0.6582454215694513 12:0.5464143054724286 13:0.5464143054724286 14:0.5464143054724286 15:0.8571428571428571 16:0.8571428571428571 17:0.8571428571428571 18:0.6666666666666666 19:0.6666666666666666 20:0.6666666666666666 21:0.4 22:0.4 23:0.4000000000000001 24:0.8668778997501817 25:0.8668778997501817 26:0.8668778997501817 27:0.74303819978587 28:0.6582454215694513 29:0.5464143054724286 30:0.7142857142857143 31:0.2857142857142857 32:1.0 33:0.0 34:1.0 35:0.0 
-1.0 0:1.0 1:1.0 2:1.0 3:0.0 4:0.0 5:0.0 6:0.0 7:0.0 8:0.0 9:0.0 10:0.0 11:0.0 12:0.0 13:0.0 14:0.0 15:0.0 16:0.0 17:0.0 18:0.0 19:0.0 20:0.0 21:0.0 22:0.0 23:0.0 24:9.118819655545162E-4 25:9.118819655545162E-4 26:9.118819655545162E-4 27:0.0 28:0.0 29:0.0 30:1.0 31:0.0 32:0.0 33:0.0 34:0.0 35:0.0 
-1.0 0:0.625 1:0.625 2:0.625 3:0.7071067811865475 4:0.7071067811865475 5:0.7071067811865475 6:0.18887560283756186 7:0.18887560283756186 8:0.18887560283756186 9:0.13826653758729568 10:0.13826653758729568 11:0.13826653758729568 12:0.08353015419646444 13:0.08353015419646444 14:0.08353015419646444 15:1.0 16:1.0 17:1.0 18:0.5 19:0.5 20:0.5 21:0.0 22:0.0 23:0.0 24:0.18887560283756186 25:0.18887560283756186 26:0.18887560283756186 27:0.18887560283756186 28:0.13826653758729568 29:0.08353015419646444 30:0.3333333333333333 31:0.6666666666666666 32:0.5 33:0.5 34:0.0 35:1.0 
-1.0 0:0.625 1:0.625 2:0.625 3:0.7071067811865475 4:0.7071067811865475 5:0.7071067811865475 6:0.18887560283756186 7:0.18887560283756186 8:0.18887560283756186 9:0.13826653758729568 10:0.13826653758729568 11:0.13826653758729568 12:0.08353015419646444 13:0.08353015419646444 14:0.08353015419646444 15:1.0 16:1.0 17:1.0 18:0.5 19:0.5 20:0.5 21:0.0 22:0.0 23:0.0 24:0.18887560283756186 25:0.18887560283756186 26:0.18887560283756186 27:0.18887560283756186 28:0.13826653758729568 29:0.08353015419646444 30:0.3333333333333333 31:0.6666666666666666 32:0.5 33:0.5 34:0.0 35:1.0 
-1.0 0:0.625 1:0.625 2:0.625 3:0.7071067811865475 4:0.7071067811865475 5:0.7071067811865475 6:0.18887560283756186 7:0.18887560283756186 8:0.18887560283756186 9:0.13826653758729568 10:0.13826653758729568 11:0.13826653758729568 12:0.08353015419646444 13:0.08353015419646444 14:0.08353015419646444 15:1.0 16:1.0 17:1.0 18:0.5 19:0.5 20:0.5 21:0.0 22:0.0 23:0.0 24:0.18887560283756186 25:0.18887560283756186 26:0.18887560283756186 27:0.18887560283756186 28:0.13826653758729568 29:0.08353015419646444 30:0.3333333333333333 31:0.6666666666666666 32:0.5 33:0.5 34:0.0 35:1.0 
-1.0 0:0.5 1:0.5 2:0.5 3:0.6708203932499369 4:0.6708203932499369 5:0.6708203932499369 6:0.4776875403825261 7:0.4776875403825261 8:0.4776875403825261 9:0.2967969867046317 10:0.2967969867046317 11:0.2967969867046317 12:0.18624157052688875 13:0.18624157052688875 14:0.18624157052688875 15:0.6666666666666666 16:0.6666666666666666 17:0.6666666666666666 18:0.2 19:0.2 20:0.20000000000000004 21:0.0 22:0.0 23:0.0 24:0.7165313105737893 25:0.7165313105737893 26:0.7165313105737893 27:0.4776875403825261 28:0.2967969867046317 29:0.18624157052688875 30:0.6666666666666666 31:0.3333333333333333 32:0.8 33:0.2 34:0.75 35:0.25 
-1.0 0:1.0 1:1.0 2:1.0 3:0.0 4:0.0 5:0.0 6:0.0 7:0.0 8:0.0 9:0.0 10:0.0 11:0.0 12:0.0 13:0.0 14:0.0 15:0.0 16:0.0 17:0.0 18:0.0 19:0.0 20:0.0 21:0.0 22:0.0 23:0.0 24:9.118819655545162E-4 25:9.118819655545162E-4 26:9.118819655545162E-4 27:0.0 28:0.0 29:0.0 30:0.0 31:1.0 32:0.0 33:0.0 34:0.0 35:0.0 
-1.0 0:1.0 1:1.0 2:1.0 3:0.0 4:0.0 5:0.0 6:0.0 7:0.0 8:0.0 9:0.0 10:0.0 11:0.0 12:0.0 13:0.0 14:0.0 15:0.0 16:0.0 17:0.0 18:0.0 19:0.0 20:0.0 21:0.0 22:0.0 23:0.0 24:9.118819655545162E-4 25:9.118819655545162E-4 26:9.118819655545162E-4 27:0.0 28:0.0 29:0.0 30:0.0 31:1.0 32:0.0 33:0.0 34:0.0 35:0.0 
-1.0 0:1.0 1:1.0 2:1.0 3:0.0 4:0.0 5:0.0 6:0.0 7:0.0 8:0.0 9:0.0 10:0.0 11:0.0 12:0.0 13:0.0 14:0.0 15:0.0 16:0.0 17:0.0 18:0.0 19:0.0 20:0.0 21:0.0 22:0.0 23:0.0 24:9.118819655545162E-4 25:9.118819655545162E-4 26:9.118819655545162E-4 27:0.0 28:0.0 29:0.0 30:0.0 31:0.0 32:0.0 33:0.0 34:0.0 35:0.0 
-1.0 0:1.0 1:1.0 2:1.0 3:0.0 4:0.0 5:0.0 6:0.0 7:0.0 8:0.0 9:0.0 10:0.0 11:0.0 12:0.0 13:0.0 14:0.0 15:0.0 16:0.0 17:0.0 18:0.0 19:0.0 20:0.0 21:0.0 22:0.0 23:0.0 24:9.118819655545162E-4 25:9.118819655545162E-4 26:9.118819655545162E-4 27:0.0 28:0.0 29:0.0 30:0.0 31:0.0 32:0.0 33:0.0 34:0.0 35:0.0 
-1.0 0:0.75 1:0.75 2:0.75 3:0.4743416490252569 4:0.4743416490252569 5:0.47434164902525683 6:0.18393972058572117 7:0.18393972058572117 8:0.18393972058572117 9:0.15238065385144653 10:0.15238065385144653 11:0.15238065385144653 12:0.09561961058402053 13:0.09561961058402053 14:0.09561961058402053 15:0.5 16:0.5 17:0.5 18:0.3333333333333333 19:0.3333333333333333 20:0.3333333333333333 21:0.0 22:0.0 23:0.0 24:0.36787944117144233 25:0.36787944117144233 26:0.36787944117144233 27:0.18393972058572117 28:0.15238065385144653 29:0.09561961058402053 30:0.25 31:0.5 32:0.3333333333333333 33:0.3333333333333333 34:0.0 35:0.5 
-1.0 0:0.75 1:0.75 2:0.75 3:0.4743416490252569 4:0.4743416490252569 5:0.47434164902525683 6:0.18393972058572117 7:0.18393972058572117 8:0.18393972058572117 9:0.15238065385144653 10:0.15238065385144653 11:0.15238065385144653 12:0.09561961058402053 13:0.09561961058402053 14:0.09561961058402053 15:0.5 16:0.5 17:0.5 18:0.3333333333333333 19:0.3333333333333333 20:0.3333333333333333 21:0.0 22:0.0 23:0.0 24:0.36787944117144233 25:0.36787944117144233 26:0.36787944117144233 27:0.18393972058572117 28:0.15238065385144653 29:0.09561961058402053 30:0.25 31:0.5 32:0.3333333333333333 33:0.3333333333333333 34:0.0 35:0.5 
1.0 0:0.75 1:0.8 2:0.7666666666666666 3:0.31622776601683794 4:0.35355339059327373 5:0.3411115157344618 6:0.11156508007421491 7:0.18393972058572117 8:0.15981484041521907 9:0.0501473591461435 10:0.08267901769368542 11:0.07183513151117145 12:0.03229011211668366 13:0.05323739468006829 14:0.046254967158940084 15:0.5 16:0.5 17:0.5 18:0.0 19:0.0 20:0.0 21:0.0 22:0.0 23:0.0 24:0.22313016014842982 25:0.36787944117144233 26:0.31962968083043813 27:0.18393972058572117 28:0.08267901769368542 29:0.05323739468006829 30:0.5 31:0.0 32:0.0 33:0.0 34:0.0 35:0.0 
