~h "U"
<BEGINHMM>
<NUMSTATES> 5
<STATE> 2
<MEAN> 52
 -2.490184e-03 -1.243188e-03 -1.128301e-05 -8.960790e-04 -2.667345e-04 5.366148e-04 -6.250685e-05 6.629154e-05 7.299176e-04 2.599612e-04 2.150310e-04 4.278908e-05 -7.166866e-06 -7.366442e-06 -4.091617e-05 9.469121e-08 8.796731e-06 5.947863e-06 -1.095528e-06 -1.429331e-05 -1.578682e-05 -2.992618e-06 7.773454e-06 1.040377e-05 -6.564504e-06 2.168372e-06 4.386669e-06 1.266359e-05 1.339923e-05 3.984654e-06 -6.318734e-06 -1.437613e-05 1.464688e-05 6.719832e-06 -1.754292e-06 -5.992690e-06 -6.210734e-06 -1.333694e-05 -6.208460e-06 -4.671377e-06 1.199772e-05 -2.405842e-06 -2.009649e-06 -4.084768e-06 -2.011981e-06 6.721010e-06 2.567286e-06 1.483742e-06 -1.416232e-05 -2.388233e-05 -8.714695e-06 -2.501834e-06
<VARIANCE> 52
 9.792794e-01 9.726741e-01 9.713812e-01 9.725963e-01 9.705378e-01 9.704235e-01 9.705274e-01 9.702647e-01 9.706458e-01 9.704003e-01 9.705229e-01 9.700693e-01 9.703734e-01 9.670020e-01 9.629893e-01 9.649230e-01 9.651484e-01 9.652831e-01 9.664409e-01 9.671099e-01 9.670829e-01 9.672278e-01 9.676865e-01 9.677585e-01 9.679267e-01 9.678577e-01 9.669301e-01 9.636205e-01 9.652336e-01 9.662419e-01 9.664491e-01 9.671448e-01 9.675731e-01 9.675267e-01 9.677964e-01 9.681836e-01 9.682237e-01 9.683940e-01 9.683627e-01 9.665712e-01 9.635960e-01 9.649717e-01 9.660559e-01 9.663749e-01 9.671842e-01 9.676082e-01 9.676264e-01 9.678405e-01 9.682605e-01 9.683071e-01 9.684421e-01 9.683972e-01
<GCONST> 9.387930e+01
<STATE> 3
<MEAN> 52
 -2.490184e-03 -1.243188e-03 -1.128301e-05 -8.960790e-04 -2.667345e-04 5.366148e-04 -6.250685e-05 6.629154e-05 7.299176e-04 2.599612e-04 2.150310e-04 4.278908e-05 -7.166866e-06 -7.366442e-06 -4.091617e-05 9.469121e-08 8.796731e-06 5.947863e-06 -1.095528e-06 -1.429331e-05 -1.578682e-05 -2.992618e-06 7.773454e-06 1.040377e-05 -6.564504e-06 2.168372e-06 4.386669e-06 1.266359e-05 1.339923e-05 3.984654e-06 -6.318734e-06 -1.437613e-05 1.464688e-05 6.719832e-06 -1.754292e-06 -5.992690e-06 -6.210734e-06 -1.333694e-05 -6.208460e-06 -4.671377e-06 1.199772e-05 -2.405842e-06 -2.009649e-06 -4.084768e-06 -2.011981e-06 6.721010e-06 2.567286e-06 1.483742e-06 -1.416232e-05 -2.388233e-05 -8.714695e-06 -2.501834e-06
<VARIANCE> 52
 9.792794e-01 9.726741e-01 9.713812e-01 9.725963e-01 9.705378e-01 9.704235e-01 9.705274e-01 9.702647e-01 9.706458e-01 9.704003e-01 9.705229e-01 9.700693e-01 9.703734e-01 9.670020e-01 9.629893e-01 9.649230e-01 9.651484e-01 9.652831e-01 9.664409e-01 9.671099e-01 9.670829e-01 9.672278e-01 9.676865e-01 9.677585e-01 9.679267e-01 9.678577e-01 9.669301e-01 9.636205e-01 9.652336e-01 9.662419e-01 9.664491e-01 9.671448e-01 9.675731e-01 9.675267e-01 9.677964e-01 9.681836e-01 9.682237e-01 9.683940e-01 9.683627e-01 9.665712e-01 9.635960e-01 9.649717e-01 9.660559e-01 9.663749e-01 9.671842e-01 9.676082e-01 9.676264e-01 9.678405e-01 9.682605e-01 9.683071e-01 9.684421e-01 9.683972e-01
<GCONST> 9.387930e+01
<STATE> 4
<MEAN> 52
 -2.490184e-03 -1.243188e-03 -1.128301e-05 -8.960790e-04 -2.667345e-04 5.366148e-04 -6.250685e-05 6.629154e-05 7.299176e-04 2.599612e-04 2.150310e-04 4.278908e-05 -7.166866e-06 -7.366442e-06 -4.091617e-05 9.469121e-08 8.796731e-06 5.947863e-06 -1.095528e-06 -1.429331e-05 -1.578682e-05 -2.992618e-06 7.773454e-06 1.040377e-05 -6.564504e-06 2.168372e-06 4.386669e-06 1.266359e-05 1.339923e-05 3.984654e-06 -6.318734e-06 -1.437613e-05 1.464688e-05 6.719832e-06 -1.754292e-06 -5.992690e-06 -6.210734e-06 -1.333694e-05 -6.208460e-06 -4.671377e-06 1.199772e-05 -2.405842e-06 -2.009649e-06 -4.084768e-06 -2.011981e-06 6.721010e-06 2.567286e-06 1.483742e-06 -1.416232e-05 -2.388233e-05 -8.714695e-06 -2.501834e-06
<VARIANCE> 52
 9.792794e-01 9.726741e-01 9.713812e-01 9.725963e-01 9.705378e-01 9.704235e-01 9.705274e-01 9.702647e-01 9.706458e-01 9.704003e-01 9.705229e-01 9.700693e-01 9.703734e-01 9.670020e-01 9.629893e-01 9.649230e-01 9.651484e-01 9.652831e-01 9.664409e-01 9.671099e-01 9.670829e-01 9.672278e-01 9.676865e-01 9.677585e-01 9.679267e-01 9.678577e-01 9.669301e-01 9.636205e-01 9.652336e-01 9.662419e-01 9.664491e-01 9.671448e-01 9.675731e-01 9.675267e-01 9.677964e-01 9.681836e-01 9.682237e-01 9.683940e-01 9.683627e-01 9.665712e-01 9.635960e-01 9.649717e-01 9.660559e-01 9.663749e-01 9.671842e-01 9.676082e-01 9.676264e-01 9.678405e-01 9.682605e-01 9.683071e-01 9.684421e-01 9.683972e-01
<GCONST> 9.387930e+01
<TRANSP> 5
 0.000000e+00 1.000000e+00 0.000000e+00 0.000000e+00 0.000000e+00
 0.000000e+00 6.000000e-01 4.000000e-01 0.000000e+00 0.000000e+00
 0.000000e+00 0.000000e+00 6.000000e-01 4.000000e-01 0.000000e+00
 0.000000e+00 0.000000e+00 0.000000e+00 6.000000e-01 4.000000e-01
 0.000000e+00 0.000000e+00 0.000000e+00 0.000000e+00 0.000000e+00
<ENDHMM>
~h "J"
<BEGINHMM>
<NUMSTATES> 5
<STATE> 2
<MEAN> 52
 -2.490184e-03 -1.243188e-03 -1.128301e-05 -8.960790e-04 -2.667345e-04 5.366148e-04 -6.250685e-05 6.629154e-05 7.299176e-04 2.599612e-04 2.150310e-04 4.278908e-05 -7.166866e-06 -7.366442e-06 -4.091617e-05 9.469121e-08 8.796731e-06 5.947863e-06 -1.095528e-06 -1.429331e-05 -1.578682e-05 -2.992618e-06 7.773454e-06 1.040377e-05 -6.564504e-06 2.168372e-06 4.386669e-06 1.266359e-05 1.339923e-05 3.984654e-06 -6.318734e-06 -1.437613e-05 1.464688e-05 6.719832e-06 -1.754292e-06 -5.992690e-06 -6.210734e-06 -1.333694e-05 -6.208460e-06 -4.671377e-06 1.199772e-05 -2.405842e-06 -2.009649e-06 -4.084768e-06 -2.011981e-06 6.721010e-06 2.567286e-06 1.483742e-06 -1.416232e-05 -2.388233e-05 -8.714695e-06 -2.501834e-06
<VARIANCE> 52
 9.792794e-01 9.726741e-01 9.713812e-01 9.725963e-01 9.705378e-01 9.704235e-01 9.705274e-01 9.702647e-01 9.706458e-01 9.704003e-01 9.705229e-01 9.700693e-01 9.703734e-01 9.670020e-01 9.629893e-01 9.649230e-01 9.651484e-01 9.652831e-01 9.664409e-01 9.671099e-01 9.670829e-01 9.672278e-01 9.676865e-01 9.677585e-01 9.679267e-01 9.678577e-01 9.669301e-01 9.636205e-01 9.652336e-01 9.662419e-01 9.664491e-01 9.671448e-01 9.675731e-01 9.675267e-01 9.677964e-01 9.681836e-01 9.682237e-01 9.683940e-01 9.683627e-01 9.665712e-01 9.635960e-01 9.649717e-01 9.660559e-01 9.663749e-01 9.671842e-01 9.676082e-01 9.676264e-01 9.678405e-01 9.682605e-01 9.683071e-01 9.684421e-01 9.683972e-01
<GCONST> 9.387930e+01
<STATE> 3
<MEAN> 52
 -2.490184e-03 -1.243188e-03 -1.128301e-05 -8.960790e-04 -2.667345e-04 5.366148e-04 -6.250685e-05 6.629154e-05 7.299176e-04 2.599612e-04 2.150310e-04 4.278908e-05 -7.166866e-06 -7.366442e-06 -4.091617e-05 9.469121e-08 8.796731e-06 5.947863e-06 -1.095528e-06 -1.429331e-05 -1.578682e-05 -2.992618e-06 7.773454e-06 1.040377e-05 -6.564504e-06 2.168372e-06 4.386669e-06 1.266359e-05 1.339923e-05 3.984654e-06 -6.318734e-06 -1.437613e-05 1.464688e-05 6.719832e-06 -1.754292e-06 -5.992690e-06 -6.210734e-06 -1.333694e-05 -6.208460e-06 -4.671377e-06 1.199772e-05 -2.405842e-06 -2.009649e-06 -4.084768e-06 -2.011981e-06 6.721010e-06 2.567286e-06 1.483742e-06 -1.416232e-05 -2.388233e-05 -8.714695e-06 -2.501834e-06
<VARIANCE> 52
 9.792794e-01 9.726741e-01 9.713812e-01 9.725963e-01 9.705378e-01 9.704235e-01 9.705274e-01 9.702647e-01 9.706458e-01 9.704003e-01 9.705229e-01 9.700693e-01 9.703734e-01 9.670020e-01 9.629893e-01 9.649230e-01 9.651484e-01 9.652831e-01 9.664409e-01 9.671099e-01 9.670829e-01 9.672278e-01 9.676865e-01 9.677585e-01 9.679267e-01 9.678577e-01 9.669301e-01 9.636205e-01 9.652336e-01 9.662419e-01 9.664491e-01 9.671448e-01 9.675731e-01 9.675267e-01 9.677964e-01 9.681836e-01 9.682237e-01 9.683940e-01 9.683627e-01 9.665712e-01 9.635960e-01 9.649717e-01 9.660559e-01 9.663749e-01 9.671842e-01 9.676082e-01 9.676264e-01 9.678405e-01 9.682605e-01 9.683071e-01 9.684421e-01 9.683972e-01
<GCONST> 9.387930e+01
<STATE> 4
<MEAN> 52
 -2.490184e-03 -1.243188e-03 -1.128301e-05 -8.960790e-04 -2.667345e-04 5.366148e-04 -6.250685e-05 6.629154e-05 7.299176e-04 2.599612e-04 2.150310e-04 4.278908e-05 -7.166866e-06 -7.366442e-06 -4.091617e-05 9.469121e-08 8.796731e-06 5.947863e-06 -1.095528e-06 -1.429331e-05 -1.578682e-05 -2.992618e-06 7.773454e-06 1.040377e-05 -6.564504e-06 2.168372e-06 4.386669e-06 1.266359e-05 1.339923e-05 3.984654e-06 -6.318734e-06 -1.437613e-05 1.464688e-05 6.719832e-06 -1.754292e-06 -5.992690e-06 -6.210734e-06 -1.333694e-05 -6.208460e-06 -4.671377e-06 1.199772e-05 -2.405842e-06 -2.009649e-06 -4.084768e-06 -2.011981e-06 6.721010e-06 2.567286e-06 1.483742e-06 -1.416232e-05 -2.388233e-05 -8.714695e-06 -2.501834e-06
<VARIANCE> 52
 9.792794e-01 9.726741e-01 9.713812e-01 9.725963e-01 9.705378e-01 9.704235e-01 9.705274e-01 9.702647e-01 9.706458e-01 9.704003e-01 9.705229e-01 9.700693e-01 9.703734e-01 9.670020e-01 9.629893e-01 9.649230e-01 9.651484e-01 9.652831e-01 9.664409e-01 9.671099e-01 9.670829e-01 9.672278e-01 9.676865e-01 9.677585e-01 9.679267e-01 9.678577e-01 9.669301e-01 9.636205e-01 9.652336e-01 9.662419e-01 9.664491e-01 9.671448e-01 9.675731e-01 9.675267e-01 9.677964e-01 9.681836e-01 9.682237e-01 9.683940e-01 9.683627e-01 9.665712e-01 9.635960e-01 9.649717e-01 9.660559e-01 9.663749e-01 9.671842e-01 9.676082e-01 9.676264e-01 9.678405e-01 9.682605e-01 9.683071e-01 9.684421e-01 9.683972e-01
<GCONST> 9.387930e+01
<TRANSP> 5
 0.000000e+00 1.000000e+00 0.000000e+00 0.000000e+00 0.000000e+00
 0.000000e+00 6.000000e-01 4.000000e-01 0.000000e+00 0.000000e+00
 0.000000e+00 0.000000e+00 6.000000e-01 4.000000e-01 0.000000e+00
 0.000000e+00 0.000000e+00 0.000000e+00 6.000000e-01 4.000000e-01
 0.000000e+00 0.000000e+00 0.000000e+00 0.000000e+00 0.000000e+00
<ENDHMM>
~h "EU"
<BEGINHMM>
<NUMSTATES> 5
<STATE> 2
<MEAN> 52
 -2.490184e-03 -1.243188e-03 -1.128301e-05 -8.960790e-04 -2.667345e-04 5.366148e-04 -6.250685e-05 6.629154e-05 7.299176e-04 2.599612e-04 2.150310e-04 4.278908e-05 -7.166866e-06 -7.366442e-06 -4.091617e-05 9.469121e-08 8.796731e-06 5.947863e-06 -1.095528e-06 -1.429331e-05 -1.578682e-05 -2.992618e-06 7.773454e-06 1.040377e-05 -6.564504e-06 2.168372e-06 4.386669e-06 1.266359e-05 1.339923e-05 3.984654e-06 -6.318734e-06 -1.437613e-05 1.464688e-05 6.719832e-06 -1.754292e-06 -5.992690e-06 -6.210734e-06 -1.333694e-05 -6.208460e-06 -4.671377e-06 1.199772e-05 -2.405842e-06 -2.009649e-06 -4.084768e-06 -2.011981e-06 6.721010e-06 2.567286e-06 1.483742e-06 -1.416232e-05 -2.388233e-05 -8.714695e-06 -2.501834e-06
<VARIANCE> 52
 9.792794e-01 9.726741e-01 9.713812e-01 9.725963e-01 9.705378e-01 9.704235e-01 9.705274e-01 9.702647e-01 9.706458e-01 9.704003e-01 9.705229e-01 9.700693e-01 9.703734e-01 9.670020e-01 9.629893e-01 9.649230e-01 9.651484e-01 9.652831e-01 9.664409e-01 9.671099e-01 9.670829e-01 9.672278e-01 9.676865e-01 9.677585e-01 9.679267e-01 9.678577e-01 9.669301e-01 9.636205e-01 9.652336e-01 9.662419e-01 9.664491e-01 9.671448e-01 9.675731e-01 9.675267e-01 9.677964e-01 9.681836e-01 9.682237e-01 9.683940e-01 9.683627e-01 9.665712e-01 9.635960e-01 9.649717e-01 9.660559e-01 9.663749e-01 9.671842e-01 9.676082e-01 9.676264e-01 9.678405e-01 9.682605e-01 9.683071e-01 9.684421e-01 9.683972e-01
<GCONST> 9.387930e+01
<STATE> 3
<MEAN> 52
 -2.490184e-03 -1.243188e-03 -1.128301e-05 -8.960790e-04 -2.667345e-04 5.366148e-04 -6.250685e-05 6.629154e-05 7.299176e-04 2.599612e-04 2.150310e-04 4.278908e-05 -7.166866e-06 -7.366442e-06 -4.091617e-05 9.469121e-08 8.796731e-06 5.947863e-06 -1.095528e-06 -1.429331e-05 -1.578682e-05 -2.992618e-06 7.773454e-06 1.040377e-05 -6.564504e-06 2.168372e-06 4.386669e-06 1.266359e-05 1.339923e-05 3.984654e-06 -6.318734e-06 -1.437613e-05 1.464688e-05 6.719832e-06 -1.754292e-06 -5.992690e-06 -6.210734e-06 -1.333694e-05 -6.208460e-06 -4.671377e-06 1.199772e-05 -2.405842e-06 -2.009649e-06 -4.084768e-06 -2.011981e-06 6.721010e-06 2.567286e-06 1.483742e-06 -1.416232e-05 -2.388233e-05 -8.714695e-06 -2.501834e-06
<VARIANCE> 52
 9.792794e-01 9.726741e-01 9.713812e-01 9.725963e-01 9.705378e-01 9.704235e-01 9.705274e-01 9.702647e-01 9.706458e-01 9.704003e-01 9.705229e-01 9.700693e-01 9.703734e-01 9.670020e-01 9.629893e-01 9.649230e-01 9.651484e-01 9.652831e-01 9.664409e-01 9.671099e-01 9.670829e-01 9.672278e-01 9.676865e-01 9.677585e-01 9.679267e-01 9.678577e-01 9.669301e-01 9.636205e-01 9.652336e-01 9.662419e-01 9.664491e-01 9.671448e-01 9.675731e-01 9.675267e-01 9.677964e-01 9.681836e-01 9.682237e-01 9.683940e-01 9.683627e-01 9.665712e-01 9.635960e-01 9.649717e-01 9.660559e-01 9.663749e-01 9.671842e-01 9.676082e-01 9.676264e-01 9.678405e-01 9.682605e-01 9.683071e-01 9.684421e-01 9.683972e-01
<GCONST> 9.387930e+01
<STATE> 4
<MEAN> 52
 -2.490184e-03 -1.243188e-03 -1.128301e-05 -8.960790e-04 -2.667345e-04 5.366148e-04 -6.250685e-05 6.629154e-05 7.299176e-04 2.599612e-04 2.150310e-04 4.278908e-05 -7.166866e-06 -7.366442e-06 -4.091617e-05 9.469121e-08 8.796731e-06 5.947863e-06 -1.095528e-06 -1.429331e-05 -1.578682e-05 -2.992618e-06 7.773454e-06 1.040377e-05 -6.564504e-06 2.168372e-06 4.386669e-06 1.266359e-05 1.339923e-05 3.984654e-06 -6.318734e-06 -1.437613e-05 1.464688e-05 6.719832e-06 -1.754292e-06 -5.992690e-06 -6.210734e-06 -1.333694e-05 -6.208460e-06 -4.671377e-06 1.199772e-05 -2.405842e-06 -2.009649e-06 -4.084768e-06 -2.011981e-06 6.721010e-06 2.567286e-06 1.483742e-06 -1.416232e-05 -2.388233e-05 -8.714695e-06 -2.501834e-06
<VARIANCE> 52
 9.792794e-01 9.726741e-01 9.713812e-01 9.725963e-01 9.705378e-01 9.704235e-01 9.705274e-01 9.702647e-01 9.706458e-01 9.704003e-01 9.705229e-01 9.700693e-01 9.703734e-01 9.670020e-01 9.629893e-01 9.649230e-01 9.651484e-01 9.652831e-01 9.664409e-01 9.671099e-01 9.670829e-01 9.672278e-01 9.676865e-01 9.677585e-01 9.679267e-01 9.678577e-01 9.669301e-01 9.636205e-01 9.652336e-01 9.662419e-01 9.664491e-01 9.671448e-01 9.675731e-01 9.675267e-01 9.677964e-01 9.681836e-01 9.682237e-01 9.683940e-01 9.683627e-01 9.665712e-01 9.635960e-01 9.649717e-01 9.660559e-01 9.663749e-01 9.671842e-01 9.676082e-01 9.676264e-01 9.678405e-01 9.682605e-01 9.683071e-01 9.684421e-01 9.683972e-01
<GCONST> 9.387930e+01
<TRANSP> 5
 0.000000e+00 1.000000e+00 0.000000e+00 0.000000e+00 0.000000e+00
 0.000000e+00 6.000000e-01 4.000000e-01 0.000000e+00 0.000000e+00
 0.000000e+00 0.000000e+00 6.000000e-01 4.000000e-01 0.000000e+00
 0.000000e+00 0.000000e+00 0.000000e+00 6.000000e-01 4.000000e-01
 0.000000e+00 0.000000e+00 0.000000e+00 0.000000e+00 0.000000e+00
<ENDHMM>
~h "O"
<BEGINHMM>
<NUMSTATES> 5
<STATE> 2
<MEAN> 52
 -2.490184e-03 -1.243188e-03 -1.128301e-05 -8.960790e-04 -2.667345e-04 5.366148e-04 -6.250685e-05 6.629154e-05 7.299176e-04 2.599612e-04 2.150310e-04 4.278908e-05 -7.166866e-06 -7.366442e-06 -4.091617e-05 9.469121e-08 8.796731e-06 5.947863e-06 -1.095528e-06 -1.429331e-05 -1.578682e-05 -2.992618e-06 7.773454e-06 1.040377e-05 -6.564504e-06 2.168372e-06 4.386669e-06 1.266359e-05 1.339923e-05 3.984654e-06 -6.318734e-06 -1.437613e-05 1.464688e-05 6.719832e-06 -1.754292e-06 -5.992690e-06 -6.210734e-06 -1.333694e-05 -6.208460e-06 -4.671377e-06 1.199772e-05 -2.405842e-06 -2.009649e-06 -4.084768e-06 -2.011981e-06 6.721010e-06 2.567286e-06 1.483742e-06 -1.416232e-05 -2.388233e-05 -8.714695e-06 -2.501834e-06
<VARIANCE> 52
 9.792794e-01 9.726741e-01 9.713812e-01 9.725963e-01 9.705378e-01 9.704235e-01 9.705274e-01 9.702647e-01 9.706458e-01 9.704003e-01 9.705229e-01 9.700693e-01 9.703734e-01 9.670020e-01 9.629893e-01 9.649230e-01 9.651484e-01 9.652831e-01 9.664409e-01 9.671099e-01 9.670829e-01 9.672278e-01 9.676865e-01 9.677585e-01 9.679267e-01 9.678577e-01 9.669301e-01 9.636205e-01 9.652336e-01 9.662419e-01 9.664491e-01 9.671448e-01 9.675731e-01 9.675267e-01 9.677964e-01 9.681836e-01 9.682237e-01 9.683940e-01 9.683627e-01 9.665712e-01 9.635960e-01 9.649717e-01 9.660559e-01 9.663749e-01 9.671842e-01 9.676082e-01 9.676264e-01 9.678405e-01 9.682605e-01 9.683071e-01 9.684421e-01 9.683972e-01
<GCONST> 9.387930e+01
<STATE> 3
<MEAN> 52
 -2.490184e-03 -1.243188e-03 -1.128301e-05 -8.960790e-04 -2.667345e-04 5.366148e-04 -6.250685e-05 6.629154e-05 7.299176e-04 2.599612e-04 2.150310e-04 4.278908e-05 -7.166866e-06 -7.366442e-06 -4.091617e-05 9.469121e-08 8.796731e-06 5.947863e-06 -1.095528e-06 -1.429331e-05 -1.578682e-05 -2.992618e-06 7.773454e-06 1.040377e-05 -6.564504e-06 2.168372e-06 4.386669e-06 1.266359e-05 1.339923e-05 3.984654e-06 -6.318734e-06 -1.437613e-05 1.464688e-05 6.719832e-06 -1.754292e-06 -5.992690e-06 -6.210734e-06 -1.333694e-05 -6.208460e-06 -4.671377e-06 1.199772e-05 -2.405842e-06 -2.009649e-06 -4.084768e-06 -2.011981e-06 6.721010e-06 2.567286e-06 1.483742e-06 -1.416232e-05 -2.388233e-05 -8.714695e-06 -2.501834e-06
<VARIANCE> 52
 9.792794e-01 9.726741e-01 9.713812e-01 9.725963e-01 9.705378e-01 9.704235e-01 9.705274e-01 9.702647e-01 9.706458e-01 9.704003e-01 9.705229e-01 9.700693e-01 9.703734e-01 9.670020e-01 9.629893e-01 9.649230e-01 9.651484e-01 9.652831e-01 9.664409e-01 9.671099e-01 9.670829e-01 9.672278e-01 9.676865e-01 9.677585e-01 9.679267e-01 9.678577e-01 9.669301e-01 9.636205e-01 9.652336e-01 9.662419e-01 9.664491e-01 9.671448e-01 9.675731e-01 9.675267e-01 9.677964e-01 9.681836e-01 9.682237e-01 9.683940e-01 9.683627e-01 9.665712e-01 9.635960e-01 9.649717e-01 9.660559e-01 9.663749e-01 9.671842e-01 9.676082e-01 9.676264e-01 9.678405e-01 9.682605e-01 9.683071e-01 9.684421e-01 9.683972e-01
<GCONST> 9.387930e+01
<STATE> 4
<MEAN> 52
 -2.490184e-03 -1.243188e-03 -1.128301e-05 -8.960790e-04 -2.667345e-04 5.366148e-04 -6.250685e-05 6.629154e-05 7.299176e-04 2.599612e-04 2.150310e-04 4.278908e-05 -7.166866e-06 -7.366442e-06 -4.091617e-05 9.469121e-08 8.796731e-06 5.947863e-06 -1.095528e-06 -1.429331e-05 -1.578682e-05 -2.992618e-06 7.773454e-06 1.040377e-05 -6.564504e-06 2.168372e-06 4.386669e-06 1.266359e-05 1.339923e-05 3.984654e-06 -6.318734e-06 -1.437613e-05 1.464688e-05 6.719832e-06 -1.754292e-06 -5.992690e-06 -6.210734e-06 -1.333694e-05 -6.208460e-06 -4.671377e-06 1.199772e-05 -2.405842e-06 -2.009649e-06 -4.084768e-06 -2.011981e-06 6.721010e-06 2.567286e-06 1.483742e-06 -1.416232e-05 -2.388233e-05 -8.714695e-06 -2.501834e-06
<VARIANCE> 52
 9.792794e-01 9.726741e-01 9.713812e-01 9.725963e-01 9.705378e-01 9.704235e-01 9.705274e-01 9.702647e-01 9.706458e-01 9.704003e-01 9.705229e-01 9.700693e-01 9.703734e-01 9.670020e-01 9.629893e-01 9.649230e-01 9.651484e-01 9.652831e-01 9.664409e-01 9.671099e-01 9.670829e-01 9.672278e-01 9.676865e-01 9.677585e-01 9.679267e-01 9.678577e-01 9.669301e-01 9.636205e-01 9.652336e-01 9.662419e-01 9.664491e-01 9.671448e-01 9.675731e-01 9.675267e-01 9.677964e-01 9.681836e-01 9.682237e-01 9.683940e-01 9.683627e-01 9.665712e-01 9.635960e-01 9.649717e-01 9.660559e-01 9.663749e-01 9.671842e-01 9.676082e-01 9.676264e-01 9.678405e-01 9.682605e-01 9.683071e-01 9.684421e-01 9.683972e-01
<GCONST> 9.387930e+01
<TRANSP> 5
 0.000000e+00 1.000000e+00 0.000000e+00 0.000000e+00 0.000000e+00
 0.000000e+00 6.000000e-01 4.000000e-01 0.000000e+00 0.000000e+00
 0.000000e+00 0.000000e+00 6.000000e-01 4.000000e-01 0.000000e+00
 0.000000e+00 0.000000e+00 0.000000e+00 6.000000e-01 4.000000e-01
 0.000000e+00 0.000000e+00 0.000000e+00 0.000000e+00 0.000000e+00
<ENDHMM>
~h "S"
<BEGINHMM>
<NUMSTATES> 5
<STATE> 2
<MEAN> 52
 -2.490184e-03 -1.243188e-03 -1.128301e-05 -8.960790e-04 -2.667345e-04 5.366148e-04 -6.250685e-05 6.629154e-05 7.299176e-04 2.599612e-04 2.150310e-04 4.278908e-05 -7.166866e-06 -7.366442e-06 -4.091617e-05 9.469121e-08 8.796731e-06 5.947863e-06 -1.095528e-06 -1.429331e-05 -1.578682e-05 -2.992618e-06 7.773454e-06 1.040377e-05 -6.564504e-06 2.168372e-06 4.386669e-06 1.266359e-05 1.339923e-05 3.984654e-06 -6.318734e-06 -1.437613e-05 1.464688e-05 6.719832e-06 -1.754292e-06 -5.992690e-06 -6.210734e-06 -1.333694e-05 -6.208460e-06 -4.671377e-06 1.199772e-05 -2.405842e-06 -2.009649e-06 -4.084768e-06 -2.011981e-06 6.721010e-06 2.567286e-06 1.483742e-06 -1.416232e-05 -2.388233e-05 -8.714695e-06 -2.501834e-06
<VARIANCE> 52
 9.792794e-01 9.726741e-01 9.713812e-01 9.725963e-01 9.705378e-01 9.704235e-01 9.705274e-01 9.702647e-01 9.706458e-01 9.704003e-01 9.705229e-01 9.700693e-01 9.703734e-01 9.670020e-01 9.629893e-01 9.649230e-01 9.651484e-01 9.652831e-01 9.664409e-01 9.671099e-01 9.670829e-01 9.672278e-01 9.676865e-01 9.677585e-01 9.679267e-01 9.678577e-01 9.669301e-01 9.636205e-01 9.652336e-01 9.662419e-01 9.664491e-01 9.671448e-01 9.675731e-01 9.675267e-01 9.677964e-01 9.681836e-01 9.682237e-01 9.683940e-01 9.683627e-01 9.665712e-01 9.635960e-01 9.649717e-01 9.660559e-01 9.663749e-01 9.671842e-01 9.676082e-01 9.676264e-01 9.678405e-01 9.682605e-01 9.683071e-01 9.684421e-01 9.683972e-01
<GCONST> 9.387930e+01
<STATE> 3
<MEAN> 52
 -2.490184e-03 -1.243188e-03 -1.128301e-05 -8.960790e-04 -2.667345e-04 5.366148e-04 -6.250685e-05 6.629154e-05 7.299176e-04 2.599612e-04 2.150310e-04 4.278908e-05 -7.166866e-06 -7.366442e-06 -4.091617e-05 9.469121e-08 8.796731e-06 5.947863e-06 -1.095528e-06 -1.429331e-05 -1.578682e-05 -2.992618e-06 7.773454e-06 1.040377e-05 -6.564504e-06 2.168372e-06 4.386669e-06 1.266359e-05 1.339923e-05 3.984654e-06 -6.318734e-06 -1.437613e-05 1.464688e-05 6.719832e-06 -1.754292e-06 -5.992690e-06 -6.210734e-06 -1.333694e-05 -6.208460e-06 -4.671377e-06 1.199772e-05 -2.405842e-06 -2.009649e-06 -4.084768e-06 -2.011981e-06 6.721010e-06 2.567286e-06 1.483742e-06 -1.416232e-05 -2.388233e-05 -8.714695e-06 -2.501834e-06
<VARIANCE> 52
 9.792794e-01 9.726741e-01 9.713812e-01 9.725963e-01 9.705378e-01 9.704235e-01 9.705274e-01 9.702647e-01 9.706458e-01 9.704003e-01 9.705229e-01 9.700693e-01 9.703734e-01 9.670020e-01 9.629893e-01 9.649230e-01 9.651484e-01 9.652831e-01 9.664409e-01 9.671099e-01 9.670829e-01 9.672278e-01 9.676865e-01 9.677585e-01 9.679267e-01 9.678577e-01 9.669301e-01 9.636205e-01 9.652336e-01 9.662419e-01 9.664491e-01 9.671448e-01 9.675731e-01 9.675267e-01 9.677964e-01 9.681836e-01 9.682237e-01 9.683940e-01 9.683627e-01 9.665712e-01 9.635960e-01 9.649717e-01 9.660559e-01 9.663749e-01 9.671842e-01 9.676082e-01 9.676264e-01 9.678405e-01 9.682605e-01 9.683071e-01 9.684421e-01 9.683972e-01
<GCONST> 9.387930e+01
<STATE> 4
<MEAN> 52
 -2.490184e-03 -1.243188e-03 -1.128301e-05 -8.960790e-04 -2.667345e-04 5.366148e-04 -6.250685e-05 6.629154e-05 7.299176e-04 2.599612e-04 2.150310e-04 4.278908e-05 -7.166866e-06 -7.366442e-06 -4.091617e-05 9.469121e-08 8.796731e-06 5.947863e-06 -1.095528e-06 -1.429331e-05 -1.578682e-05 -2.992618e-06 7.773454e-06 1.040377e-05 -6.564504e-06 2.168372e-06 4.386669e-06 1.266359e-05 1.339923e-05 3.984654e-06 -6.318734e-06 -1.437613e-05 1.464688e-05 6.719832e-06 -1.754292e-06 -5.992690e-06 -6.210734e-06 -1.333694e-05 -6.208460e-06 -4.671377e-06 1.199772e-05 -2.405842e-06 -2.009649e-06 -4.084768e-06 -2.011981e-06 6.721010e-06 2.567286e-06 1.483742e-06 -1.416232e-05 -2.388233e-05 -8.714695e-06 -2.501834e-06
<VARIANCE> 52
 9.792794e-01 9.726741e-01 9.713812e-01 9.725963e-01 9.705378e-01 9.704235e-01 9.705274e-01 9.702647e-01 9.706458e-01 9.704003e-01 9.705229e-01 9.700693e-01 9.703734e-01 9.670020e-01 9.629893e-01 9.649230e-01 9.651484e-01 9.652831e-01 9.664409e-01 9.671099e-01 9.670829e-01 9.672278e-01 9.676865e-01 9.677585e-01 9.679267e-01 9.678577e-01 9.669301e-01 9.636205e-01 9.652336e-01 9.662419e-01 9.664491e-01 9.671448e-01 9.675731e-01 9.675267e-01 9.677964e-01 9.681836e-01 9.682237e-01 9.683940e-01 9.683627e-01 9.665712e-01 9.635960e-01 9.649717e-01 9.660559e-01 9.663749e-01 9.671842e-01 9.676082e-01 9.676264e-01 9.678405e-01 9.682605e-01 9.683071e-01 9.684421e-01 9.683972e-01
<GCONST> 9.387930e+01
<TRANSP> 5
 0.000000e+00 1.000000e+00 0.000000e+00 0.000000e+00 0.000000e+00
 0.000000e+00 6.000000e-01 4.000000e-01 0.000000e+00 0.000000e+00
 0.000000e+00 0.000000e+00 6.000000e-01 4.000000e-01 0.000000e+00
 0.000000e+00 0.000000e+00 0.000000e+00 6.000000e-01 4.000000e-01
 0.000000e+00 0.000000e+00 0.000000e+00 0.000000e+00 0.000000e+00
<ENDHMM>
~h "Y"
<BEGINHMM>
<NUMSTATES> 5
<STATE> 2
<MEAN> 52
 -2.490184e-03 -1.243188e-03 -1.128301e-05 -8.960790e-04 -2.667345e-04 5.366148e-04 -6.250685e-05 6.629154e-05 7.299176e-04 2.599612e-04 2.150310e-04 4.278908e-05 -7.166866e-06 -7.366442e-06 -4.091617e-05 9.469121e-08 8.796731e-06 5.947863e-06 -1.095528e-06 -1.429331e-05 -1.578682e-05 -2.992618e-06 7.773454e-06 1.040377e-05 -6.564504e-06 2.168372e-06 4.386669e-06 1.266359e-05 1.339923e-05 3.984654e-06 -6.318734e-06 -1.437613e-05 1.464688e-05 6.719832e-06 -1.754292e-06 -5.992690e-06 -6.210734e-06 -1.333694e-05 -6.208460e-06 -4.671377e-06 1.199772e-05 -2.405842e-06 -2.009649e-06 -4.084768e-06 -2.011981e-06 6.721010e-06 2.567286e-06 1.483742e-06 -1.416232e-05 -2.388233e-05 -8.714695e-06 -2.501834e-06
<VARIANCE> 52
 9.792794e-01 9.726741e-01 9.713812e-01 9.725963e-01 9.705378e-01 9.704235e-01 9.705274e-01 9.702647e-01 9.706458e-01 9.704003e-01 9.705229e-01 9.700693e-01 9.703734e-01 9.670020e-01 9.629893e-01 9.649230e-01 9.651484e-01 9.652831e-01 9.664409e-01 9.671099e-01 9.670829e-01 9.672278e-01 9.676865e-01 9.677585e-01 9.679267e-01 9.678577e-01 9.669301e-01 9.636205e-01 9.652336e-01 9.662419e-01 9.664491e-01 9.671448e-01 9.675731e-01 9.675267e-01 9.677964e-01 9.681836e-01 9.682237e-01 9.683940e-01 9.683627e-01 9.665712e-01 9.635960e-01 9.649717e-01 9.660559e-01 9.663749e-01 9.671842e-01 9.676082e-01 9.676264e-01 9.678405e-01 9.682605e-01 9.683071e-01 9.684421e-01 9.683972e-01
<GCONST> 9.387930e+01
<STATE> 3
<MEAN> 52
 -2.490184e-03 -1.243188e-03 -1.128301e-05 -8.960790e-04 -2.667345e-04 5.366148e-04 -6.250685e-05 6.629154e-05 7.299176e-04 2.599612e-04 2.150310e-04 4.278908e-05 -7.166866e-06 -7.366442e-06 -4.091617e-05 9.469121e-08 8.796731e-06 5.947863e-06 -1.095528e-06 -1.429331e-05 -1.578682e-05 -2.992618e-06 7.773454e-06 1.040377e-05 -6.564504e-06 2.168372e-06 4.386669e-06 1.266359e-05 1.339923e-05 3.984654e-06 -6.318734e-06 -1.437613e-05 1.464688e-05 6.719832e-06 -1.754292e-06 -5.992690e-06 -6.210734e-06 -1.333694e-05 -6.208460e-06 -4.671377e-06 1.199772e-05 -2.405842e-06 -2.009649e-06 -4.084768e-06 -2.011981e-06 6.721010e-06 2.567286e-06 1.483742e-06 -1.416232e-05 -2.388233e-05 -8.714695e-06 -2.501834e-06
<VARIANCE> 52
 9.792794e-01 9.726741e-01 9.713812e-01 9.725963e-01 9.705378e-01 9.704235e-01 9.705274e-01 9.702647e-01 9.706458e-01 9.704003e-01 9.705229e-01 9.700693e-01 9.703734e-01 9.670020e-01 9.629893e-01 9.649230e-01 9.651484e-01 9.652831e-01 9.664409e-01 9.671099e-01 9.670829e-01 9.672278e-01 9.676865e-01 9.677585e-01 9.679267e-01 9.678577e-01 9.669301e-01 9.636205e-01 9.652336e-01 9.662419e-01 9.664491e-01 9.671448e-01 9.675731e-01 9.675267e-01 9.677964e-01 9.681836e-01 9.682237e-01 9.683940e-01 9.683627e-01 9.665712e-01 9.635960e-01 9.649717e-01 9.660559e-01 9.663749e-01 9.671842e-01 9.676082e-01 9.676264e-01 9.678405e-01 9.682605e-01 9.683071e-01 9.684421e-01 9.683972e-01
<GCONST> 9.387930e+01
<STATE> 4
<MEAN> 52
 -2.490184e-03 -1.243188e-03 -1.128301e-05 -8.960790e-04 -2.667345e-04 5.366148e-04 -6.250685e-05 6.629154e-05 7.299176e-04 2.599612e-04 2.150310e-04 4.278908e-05 -7.166866e-06 -7.366442e-06 -4.091617e-05 9.469121e-08 8.796731e-06 5.947863e-06 -1.095528e-06 -1.429331e-05 -1.578682e-05 -2.992618e-06 7.773454e-06 1.040377e-05 -6.564504e-06 2.168372e-06 4.386669e-06 1.266359e-05 1.339923e-05 3.984654e-06 -6.318734e-06 -1.437613e-05 1.464688e-05 6.719832e-06 -1.754292e-06 -5.992690e-06 -6.210734e-06 -1.333694e-05 -6.208460e-06 -4.671377e-06 1.199772e-05 -2.405842e-06 -2.009649e-06 -4.084768e-06 -2.011981e-06 6.721010e-06 2.567286e-06 1.483742e-06 -1.416232e-05 -2.388233e-05 -8.714695e-06 -2.501834e-06
<VARIANCE> 52
 9.792794e-01 9.726741e-01 9.713812e-01 9.725963e-01 9.705378e-01 9.704235e-01 9.705274e-01 9.702647e-01 9.706458e-01 9.704003e-01 9.705229e-01 9.700693e-01 9.703734e-01 9.670020e-01 9.629893e-01 9.649230e-01 9.651484e-01 9.652831e-01 9.664409e-01 9.671099e-01 9.670829e-01 9.672278e-01 9.676865e-01 9.677585e-01 9.679267e-01 9.678577e-01 9.669301e-01 9.636205e-01 9.652336e-01 9.662419e-01 9.664491e-01 9.671448e-01 9.675731e-01 9.675267e-01 9.677964e-01 9.681836e-01 9.682237e-01 9.683940e-01 9.683627e-01 9.665712e-01 9.635960e-01 9.649717e-01 9.660559e-01 9.663749e-01 9.671842e-01 9.676082e-01 9.676264e-01 9.678405e-01 9.682605e-01 9.683071e-01 9.684421e-01 9.683972e-01
<GCONST> 9.387930e+01
<TRANSP> 5
 0.000000e+00 1.000000e+00 0.000000e+00 0.000000e+00 0.000000e+00
 0.000000e+00 6.000000e-01 4.000000e-01 0.000000e+00 0.000000e+00
 0.000000e+00 0.000000e+00 6.000000e-01 4.000000e-01 0.000000e+00
 0.000000e+00 0.000000e+00 0.000000e+00 6.000000e-01 4.000000e-01
 0.000000e+00 0.000000e+00 0.000000e+00 0.000000e+00 0.000000e+00
<ENDHMM>
~h "NG"
<BEGINHMM>
<NUMSTATES> 5
<STATE> 2
<MEAN> 52
 -2.490184e-03 -1.243188e-03 -1.128301e-05 -8.960790e-04 -2.667345e-04 5.366148e-04 -6.250685e-05 6.629154e-05 7.299176e-04 2.599612e-04 2.150310e-04 4.278908e-05 -7.166866e-06 -7.366442e-06 -4.091617e-05 9.469121e-08 8.796731e-06 5.947863e-06 -1.095528e-06 -1.429331e-05 -1.578682e-05 -2.992618e-06 7.773454e-06 1.040377e-05 -6.564504e-06 2.168372e-06 4.386669e-06 1.266359e-05 1.339923e-05 3.984654e-06 -6.318734e-06 -1.437613e-05 1.464688e-05 6.719832e-06 -1.754292e-06 -5.992690e-06 -6.210734e-06 -1.333694e-05 -6.208460e-06 -4.671377e-06 1.199772e-05 -2.405842e-06 -2.009649e-06 -4.084768e-06 -2.011981e-06 6.721010e-06 2.567286e-06 1.483742e-06 -1.416232e-05 -2.388233e-05 -8.714695e-06 -2.501834e-06
<VARIANCE> 52
 9.792794e-01 9.726741e-01 9.713812e-01 9.725963e-01 9.705378e-01 9.704235e-01 9.705274e-01 9.702647e-01 9.706458e-01 9.704003e-01 9.705229e-01 9.700693e-01 9.703734e-01 9.670020e-01 9.629893e-01 9.649230e-01 9.651484e-01 9.652831e-01 9.664409e-01 9.671099e-01 9.670829e-01 9.672278e-01 9.676865e-01 9.677585e-01 9.679267e-01 9.678577e-01 9.669301e-01 9.636205e-01 9.652336e-01 9.662419e-01 9.664491e-01 9.671448e-01 9.675731e-01 9.675267e-01 9.677964e-01 9.681836e-01 9.682237e-01 9.683940e-01 9.683627e-01 9.665712e-01 9.635960e-01 9.649717e-01 9.660559e-01 9.663749e-01 9.671842e-01 9.676082e-01 9.676264e-01 9.678405e-01 9.682605e-01 9.683071e-01 9.684421e-01 9.683972e-01
<GCONST> 9.387930e+01
<STATE> 3
<MEAN> 52
 -2.490184e-03 -1.243188e-03 -1.128301e-05 -8.960790e-04 -2.667345e-04 5.366148e-04 -6.250685e-05 6.629154e-05 7.299176e-04 2.599612e-04 2.150310e-04 4.278908e-05 -7.166866e-06 -7.366442e-06 -4.091617e-05 9.469121e-08 8.796731e-06 5.947863e-06 -1.095528e-06 -1.429331e-05 -1.578682e-05 -2.992618e-06 7.773454e-06 1.040377e-05 -6.564504e-06 2.168372e-06 4.386669e-06 1.266359e-05 1.339923e-05 3.984654e-06 -6.318734e-06 -1.437613e-05 1.464688e-05 6.719832e-06 -1.754292e-06 -5.992690e-06 -6.210734e-06 -1.333694e-05 -6.208460e-06 -4.671377e-06 1.199772e-05 -2.405842e-06 -2.009649e-06 -4.084768e-06 -2.011981e-06 6.721010e-06 2.567286e-06 1.483742e-06 -1.416232e-05 -2.388233e-05 -8.714695e-06 -2.501834e-06
<VARIANCE> 52
 9.792794e-01 9.726741e-01 9.713812e-01 9.725963e-01 9.705378e-01 9.704235e-01 9.705274e-01 9.702647e-01 9.706458e-01 9.704003e-01 9.705229e-01 9.700693e-01 9.703734e-01 9.670020e-01 9.629893e-01 9.649230e-01 9.651484e-01 9.652831e-01 9.664409e-01 9.671099e-01 9.670829e-01 9.672278e-01 9.676865e-01 9.677585e-01 9.679267e-01 9.678577e-01 9.669301e-01 9.636205e-01 9.652336e-01 9.662419e-01 9.664491e-01 9.671448e-01 9.675731e-01 9.675267e-01 9.677964e-01 9.681836e-01 9.682237e-01 9.683940e-01 9.683627e-01 9.665712e-01 9.635960e-01 9.649717e-01 9.660559e-01 9.663749e-01 9.671842e-01 9.676082e-01 9.676264e-01 9.678405e-01 9.682605e-01 9.683071e-01 9.684421e-01 9.683972e-01
<GCONST> 9.387930e+01
<STATE> 4
<MEAN> 52
 -2.490184e-03 -1.243188e-03 -1.128301e-05 -8.960790e-04 -2.667345e-04 5.366148e-04 -6.250685e-05 6.629154e-05 7.299176e-04 2.599612e-04 2.150310e-04 4.278908e-05 -7.166866e-06 -7.366442e-06 -4.091617e-05 9.469121e-08 8.796731e-06 5.947863e-06 -1.095528e-06 -1.429331e-05 -1.578682e-05 -2.992618e-06 7.773454e-06 1.040377e-05 -6.564504e-06 2.168372e-06 4.386669e-06 1.266359e-05 1.339923e-05 3.984654e-06 -6.318734e-06 -1.437613e-05 1.464688e-05 6.719832e-06 -1.754292e-06 -5.992690e-06 -6.210734e-06 -1.333694e-05 -6.208460e-06 -4.671377e-06 1.199772e-05 -2.405842e-06 -2.009649e-06 -4.084768e-06 -2.011981e-06 6.721010e-06 2.567286e-06 1.483742e-06 -1.416232e-05 -2.388233e-05 -8.714695e-06 -2.501834e-06
<VARIANCE> 52
 9.792794e-01 9.726741e-01 9.713812e-01 9.725963e-01 9.705378e-01 9.704235e-01 9.705274e-01 9.702647e-01 9.706458e-01 9.704003e-01 9.705229e-01 9.700693e-01 9.703734e-01 9.670020e-01 9.629893e-01 9.649230e-01 9.651484e-01 9.652831e-01 9.664409e-01 9.671099e-01 9.670829e-01 9.672278e-01 9.676865e-01 9.677585e-01 9.679267e-01 9.678577e-01 9.669301e-01 9.636205e-01 9.652336e-01 9.662419e-01 9.664491e-01 9.671448e-01 9.675731e-01 9.675267e-01 9.677964e-01 9.681836e-01 9.682237e-01 9.683940e-01 9.683627e-01 9.665712e-01 9.635960e-01 9.649717e-01 9.660559e-01 9.663749e-01 9.671842e-01 9.676082e-01 9.676264e-01 9.678405e-01 9.682605e-01 9.683071e-01 9.684421e-01 9.683972e-01
<GCONST> 9.387930e+01
<TRANSP> 5
 0.000000e+00 1.000000e+00 0.000000e+00 0.000000e+00 0.000000e+00
 0.000000e+00 6.000000e-01 4.000000e-01 0.000000e+00 0.000000e+00
 0.000000e+00 0.000000e+00 6.000000e-01 4.000000e-01 0.000000e+00
 0.000000e+00 0.000000e+00 0.000000e+00 6.000000e-01 4.000000e-01
 0.000000e+00 0.000000e+00 0.000000e+00 0.000000e+00 0.000000e+00
<ENDHMM>
~h "H"
<BEGINHMM>
<NUMSTATES> 5
<STATE> 2
<MEAN> 52
 -2.490184e-03 -1.243188e-03 -1.128301e-05 -8.960790e-04 -2.667345e-04 5.366148e-04 -6.250685e-05 6.629154e-05 7.299176e-04 2.599612e-04 2.150310e-04 4.278908e-05 -7.166866e-06 -7.366442e-06 -4.091617e-05 9.469121e-08 8.796731e-06 5.947863e-06 -1.095528e-06 -1.429331e-05 -1.578682e-05 -2.992618e-06 7.773454e-06 1.040377e-05 -6.564504e-06 2.168372e-06 4.386669e-06 1.266359e-05 1.339923e-05 3.984654e-06 -6.318734e-06 -1.437613e-05 1.464688e-05 6.719832e-06 -1.754292e-06 -5.992690e-06 -6.210734e-06 -1.333694e-05 -6.208460e-06 -4.671377e-06 1.199772e-05 -2.405842e-06 -2.009649e-06 -4.084768e-06 -2.011981e-06 6.721010e-06 2.567286e-06 1.483742e-06 -1.416232e-05 -2.388233e-05 -8.714695e-06 -2.501834e-06
<VARIANCE> 52
 9.792794e-01 9.726741e-01 9.713812e-01 9.725963e-01 9.705378e-01 9.704235e-01 9.705274e-01 9.702647e-01 9.706458e-01 9.704003e-01 9.705229e-01 9.700693e-01 9.703734e-01 9.670020e-01 9.629893e-01 9.649230e-01 9.651484e-01 9.652831e-01 9.664409e-01 9.671099e-01 9.670829e-01 9.672278e-01 9.676865e-01 9.677585e-01 9.679267e-01 9.678577e-01 9.669301e-01 9.636205e-01 9.652336e-01 9.662419e-01 9.664491e-01 9.671448e-01 9.675731e-01 9.675267e-01 9.677964e-01 9.681836e-01 9.682237e-01 9.683940e-01 9.683627e-01 9.665712e-01 9.635960e-01 9.649717e-01 9.660559e-01 9.663749e-01 9.671842e-01 9.676082e-01 9.676264e-01 9.678405e-01 9.682605e-01 9.683071e-01 9.684421e-01 9.683972e-01
<GCONST> 9.387930e+01
<STATE> 3
<MEAN> 52
 -2.490184e-03 -1.243188e-03 -1.128301e-05 -8.960790e-04 -2.667345e-04 5.366148e-04 -6.250685e-05 6.629154e-05 7.299176e-04 2.599612e-04 2.150310e-04 4.278908e-05 -7.166866e-06 -7.366442e-06 -4.091617e-05 9.469121e-08 8.796731e-06 5.947863e-06 -1.095528e-06 -1.429331e-05 -1.578682e-05 -2.992618e-06 7.773454e-06 1.040377e-05 -6.564504e-06 2.168372e-06 4.386669e-06 1.266359e-05 1.339923e-05 3.984654e-06 -6.318734e-06 -1.437613e-05 1.464688e-05 6.719832e-06 -1.754292e-06 -5.992690e-06 -6.210734e-06 -1.333694e-05 -6.208460e-06 -4.671377e-06 1.199772e-05 -2.405842e-06 -2.009649e-06 -4.084768e-06 -2.011981e-06 6.721010e-06 2.567286e-06 1.483742e-06 -1.416232e-05 -2.388233e-05 -8.714695e-06 -2.501834e-06
<VARIANCE> 52
 9.792794e-01 9.726741e-01 9.713812e-01 9.725963e-01 9.705378e-01 9.704235e-01 9.705274e-01 9.702647e-01 9.706458e-01 9.704003e-01 9.705229e-01 9.700693e-01 9.703734e-01 9.670020e-01 9.629893e-01 9.649230e-01 9.651484e-01 9.652831e-01 9.664409e-01 9.671099e-01 9.670829e-01 9.672278e-01 9.676865e-01 9.677585e-01 9.679267e-01 9.678577e-01 9.669301e-01 9.636205e-01 9.652336e-01 9.662419e-01 9.664491e-01 9.671448e-01 9.675731e-01 9.675267e-01 9.677964e-01 9.681836e-01 9.682237e-01 9.683940e-01 9.683627e-01 9.665712e-01 9.635960e-01 9.649717e-01 9.660559e-01 9.663749e-01 9.671842e-01 9.676082e-01 9.676264e-01 9.678405e-01 9.682605e-01 9.683071e-01 9.684421e-01 9.683972e-01
<GCONST> 9.387930e+01
<STATE> 4
<MEAN> 52
 -2.490184e-03 -1.243188e-03 -1.128301e-05 -8.960790e-04 -2.667345e-04 5.366148e-04 -6.250685e-05 6.629154e-05 7.299176e-04 2.599612e-04 2.150310e-04 4.278908e-05 -7.166866e-06 -7.366442e-06 -4.091617e-05 9.469121e-08 8.796731e-06 5.947863e-06 -1.095528e-06 -1.429331e-05 -1.578682e-05 -2.992618e-06 7.773454e-06 1.040377e-05 -6.564504e-06 2.168372e-06 4.386669e-06 1.266359e-05 1.339923e-05 3.984654e-06 -6.318734e-06 -1.437613e-05 1.464688e-05 6.719832e-06 -1.754292e-06 -5.992690e-06 -6.210734e-06 -1.333694e-05 -6.208460e-06 -4.671377e-06 1.199772e-05 -2.405842e-06 -2.009649e-06 -4.084768e-06 -2.011981e-06 6.721010e-06 2.567286e-06 1.483742e-06 -1.416232e-05 -2.388233e-05 -8.714695e-06 -2.501834e-06
<VARIANCE> 52
 9.792794e-01 9.726741e-01 9.713812e-01 9.725963e-01 9.705378e-01 9.704235e-01 9.705274e-01 9.702647e-01 9.706458e-01 9.704003e-01 9.705229e-01 9.700693e-01 9.703734e-01 9.670020e-01 9.629893e-01 9.649230e-01 9.651484e-01 9.652831e-01 9.664409e-01 9.671099e-01 9.670829e-01 9.672278e-01 9.676865e-01 9.677585e-01 9.679267e-01 9.678577e-01 9.669301e-01 9.636205e-01 9.652336e-01 9.662419e-01 9.664491e-01 9.671448e-01 9.675731e-01 9.675267e-01 9.677964e-01 9.681836e-01 9.682237e-01 9.683940e-01 9.683627e-01 9.665712e-01 9.635960e-01 9.649717e-01 9.660559e-01 9.663749e-01 9.671842e-01 9.676082e-01 9.676264e-01 9.678405e-01 9.682605e-01 9.683071e-01 9.684421e-01 9.683972e-01
<GCONST> 9.387930e+01
<TRANSP> 5
 0.000000e+00 1.000000e+00 0.000000e+00 0.000000e+00 0.000000e+00
 0.000000e+00 6.000000e-01 4.000000e-01 0.000000e+00 0.000000e+00
 0.000000e+00 0.000000e+00 6.000000e-01 4.000000e-01 0.000000e+00
 0.000000e+00 0.000000e+00 0.000000e+00 6.000000e-01 4.000000e-01
 0.000000e+00 0.000000e+00 0.000000e+00 0.000000e+00 0.000000e+00
<ENDHMM>
~h "M"
<BEGINHMM>
<NUMSTATES> 5
<STATE> 2
<MEAN> 52
 -2.490184e-03 -1.243188e-03 -1.128301e-05 -8.960790e-04 -2.667345e-04 5.366148e-04 -6.250685e-05 6.629154e-05 7.299176e-04 2.599612e-04 2.150310e-04 4.278908e-05 -7.166866e-06 -7.366442e-06 -4.091617e-05 9.469121e-08 8.796731e-06 5.947863e-06 -1.095528e-06 -1.429331e-05 -1.578682e-05 -2.992618e-06 7.773454e-06 1.040377e-05 -6.564504e-06 2.168372e-06 4.386669e-06 1.266359e-05 1.339923e-05 3.984654e-06 -6.318734e-06 -1.437613e-05 1.464688e-05 6.719832e-06 -1.754292e-06 -5.992690e-06 -6.210734e-06 -1.333694e-05 -6.208460e-06 -4.671377e-06 1.199772e-05 -2.405842e-06 -2.009649e-06 -4.084768e-06 -2.011981e-06 6.721010e-06 2.567286e-06 1.483742e-06 -1.416232e-05 -2.388233e-05 -8.714695e-06 -2.501834e-06
<VARIANCE> 52
 9.792794e-01 9.726741e-01 9.713812e-01 9.725963e-01 9.705378e-01 9.704235e-01 9.705274e-01 9.702647e-01 9.706458e-01 9.704003e-01 9.705229e-01 9.700693e-01 9.703734e-01 9.670020e-01 9.629893e-01 9.649230e-01 9.651484e-01 9.652831e-01 9.664409e-01 9.671099e-01 9.670829e-01 9.672278e-01 9.676865e-01 9.677585e-01 9.679267e-01 9.678577e-01 9.669301e-01 9.636205e-01 9.652336e-01 9.662419e-01 9.664491e-01 9.671448e-01 9.675731e-01 9.675267e-01 9.677964e-01 9.681836e-01 9.682237e-01 9.683940e-01 9.683627e-01 9.665712e-01 9.635960e-01 9.649717e-01 9.660559e-01 9.663749e-01 9.671842e-01 9.676082e-01 9.676264e-01 9.678405e-01 9.682605e-01 9.683071e-01 9.684421e-01 9.683972e-01
<GCONST> 9.387930e+01
<STATE> 3
<MEAN> 52
 -2.490184e-03 -1.243188e-03 -1.128301e-05 -8.960790e-04 -2.667345e-04 5.366148e-04 -6.250685e-05 6.629154e-05 7.299176e-04 2.599612e-04 2.150310e-04 4.278908e-05 -7.166866e-06 -7.366442e-06 -4.091617e-05 9.469121e-08 8.796731e-06 5.947863e-06 -1.095528e-06 -1.429331e-05 -1.578682e-05 -2.992618e-06 7.773454e-06 1.040377e-05 -6.564504e-06 2.168372e-06 4.386669e-06 1.266359e-05 1.339923e-05 3.984654e-06 -6.318734e-06 -1.437613e-05 1.464688e-05 6.719832e-06 -1.754292e-06 -5.992690e-06 -6.210734e-06 -1.333694e-05 -6.208460e-06 -4.671377e-06 1.199772e-05 -2.405842e-06 -2.009649e-06 -4.084768e-06 -2.011981e-06 6.721010e-06 2.567286e-06 1.483742e-06 -1.416232e-05 -2.388233e-05 -8.714695e-06 -2.501834e-06
<VARIANCE> 52
 9.792794e-01 9.726741e-01 9.713812e-01 9.725963e-01 9.705378e-01 9.704235e-01 9.705274e-01 9.702647e-01 9.706458e-01 9.704003e-01 9.705229e-01 9.700693e-01 9.703734e-01 9.670020e-01 9.629893e-01 9.649230e-01 9.651484e-01 9.652831e-01 9.664409e-01 9.671099e-01 9.670829e-01 9.672278e-01 9.676865e-01 9.677585e-01 9.679267e-01 9.678577e-01 9.669301e-01 9.636205e-01 9.652336e-01 9.662419e-01 9.664491e-01 9.671448e-01 9.675731e-01 9.675267e-01 9.677964e-01 9.681836e-01 9.682237e-01 9.683940e-01 9.683627e-01 9.665712e-01 9.635960e-01 9.649717e-01 9.660559e-01 9.663749e-01 9.671842e-01 9.676082e-01 9.676264e-01 9.678405e-01 9.682605e-01 9.683071e-01 9.684421e-01 9.683972e-01
<GCONST> 9.387930e+01
<STATE> 4
<MEAN> 52
 -2.490184e-03 -1.243188e-03 -1.128301e-05 -8.960790e-04 -2.667345e-04 5.366148e-04 -6.250685e-05 6.629154e-05 7.299176e-04 2.599612e-04 2.150310e-04 4.278908e-05 -7.166866e-06 -7.366442e-06 -4.091617e-05 9.469121e-08 8.796731e-06 5.947863e-06 -1.095528e-06 -1.429331e-05 -1.578682e-05 -2.992618e-06 7.773454e-06 1.040377e-05 -6.564504e-06 2.168372e-06 4.386669e-06 1.266359e-05 1.339923e-05 3.984654e-06 -6.318734e-06 -1.437613e-05 1.464688e-05 6.719832e-06 -1.754292e-06 -5.992690e-06 -6.210734e-06 -1.333694e-05 -6.208460e-06 -4.671377e-06 1.199772e-05 -2.405842e-06 -2.009649e-06 -4.084768e-06 -2.011981e-06 6.721010e-06 2.567286e-06 1.483742e-06 -1.416232e-05 -2.388233e-05 -8.714695e-06 -2.501834e-06
<VARIANCE> 52
 9.792794e-01 9.726741e-01 9.713812e-01 9.725963e-01 9.705378e-01 9.704235e-01 9.705274e-01 9.702647e-01 9.706458e-01 9.704003e-01 9.705229e-01 9.700693e-01 9.703734e-01 9.670020e-01 9.629893e-01 9.649230e-01 9.651484e-01 9.652831e-01 9.664409e-01 9.671099e-01 9.670829e-01 9.672278e-01 9.676865e-01 9.677585e-01 9.679267e-01 9.678577e-01 9.669301e-01 9.636205e-01 9.652336e-01 9.662419e-01 9.664491e-01 9.671448e-01 9.675731e-01 9.675267e-01 9.677964e-01 9.681836e-01 9.682237e-01 9.683940e-01 9.683627e-01 9.665712e-01 9.635960e-01 9.649717e-01 9.660559e-01 9.663749e-01 9.671842e-01 9.676082e-01 9.676264e-01 9.678405e-01 9.682605e-01 9.683071e-01 9.684421e-01 9.683972e-01
<GCONST> 9.387930e+01
<TRANSP> 5
 0.000000e+00 1.000000e+00 0.000000e+00 0.000000e+00 0.000000e+00
 0.000000e+00 6.000000e-01 4.000000e-01 0.000000e+00 0.000000e+00
 0.000000e+00 0.000000e+00 6.000000e-01 4.000000e-01 0.000000e+00
 0.000000e+00 0.000000e+00 0.000000e+00 6.000000e-01 4.000000e-01
 0.000000e+00 0.000000e+00 0.000000e+00 0.000000e+00 0.000000e+00
<ENDHMM>
~h "sil"
<BEGINHMM>
<NUMSTATES> 5
<STATE> 2
<MEAN> 52
 -2.490184e-03 -1.243188e-03 -1.128301e-05 -8.960790e-04 -2.667345e-04 5.366148e-04 -6.250685e-05 6.629154e-05 7.299176e-04 2.599612e-04 2.150310e-04 4.278908e-05 -7.166866e-06 -7.366442e-06 -4.091617e-05 9.469121e-08 8.796731e-06 5.947863e-06 -1.095528e-06 -1.429331e-05 -1.578682e-05 -2.992618e-06 7.773454e-06 1.040377e-05 -6.564504e-06 2.168372e-06 4.386669e-06 1.266359e-05 1.339923e-05 3.984654e-06 -6.318734e-06 -1.437613e-05 1.464688e-05 6.719832e-06 -1.754292e-06 -5.992690e-06 -6.210734e-06 -1.333694e-05 -6.208460e-06 -4.671377e-06 1.199772e-05 -2.405842e-06 -2.009649e-06 -4.084768e-06 -2.011981e-06 6.721010e-06 2.567286e-06 1.483742e-06 -1.416232e-05 -2.388233e-05 -8.714695e-06 -2.501834e-06
<VARIANCE> 52
 9.792794e-01 9.726741e-01 9.713812e-01 9.725963e-01 9.705378e-01 9.704235e-01 9.705274e-01 9.702647e-01 9.706458e-01 9.704003e-01 9.705229e-01 9.700693e-01 9.703734e-01 9.670020e-01 9.629893e-01 9.649230e-01 9.651484e-01 9.652831e-01 9.664409e-01 9.671099e-01 9.670829e-01 9.672278e-01 9.676865e-01 9.677585e-01 9.679267e-01 9.678577e-01 9.669301e-01 9.636205e-01 9.652336e-01 9.662419e-01 9.664491e-01 9.671448e-01 9.675731e-01 9.675267e-01 9.677964e-01 9.681836e-01 9.682237e-01 9.683940e-01 9.683627e-01 9.665712e-01 9.635960e-01 9.649717e-01 9.660559e-01 9.663749e-01 9.671842e-01 9.676082e-01 9.676264e-01 9.678405e-01 9.682605e-01 9.683071e-01 9.684421e-01 9.683972e-01
<GCONST> 9.387930e+01
<STATE> 3
<MEAN> 52
 -2.490184e-03 -1.243188e-03 -1.128301e-05 -8.960790e-04 -2.667345e-04 5.366148e-04 -6.250685e-05 6.629154e-05 7.299176e-04 2.599612e-04 2.150310e-04 4.278908e-05 -7.166866e-06 -7.366442e-06 -4.091617e-05 9.469121e-08 8.796731e-06 5.947863e-06 -1.095528e-06 -1.429331e-05 -1.578682e-05 -2.992618e-06 7.773454e-06 1.040377e-05 -6.564504e-06 2.168372e-06 4.386669e-06 1.266359e-05 1.339923e-05 3.984654e-06 -6.318734e-06 -1.437613e-05 1.464688e-05 6.719832e-06 -1.754292e-06 -5.992690e-06 -6.210734e-06 -1.333694e-05 -6.208460e-06 -4.671377e-06 1.199772e-05 -2.405842e-06 -2.009649e-06 -4.084768e-06 -2.011981e-06 6.721010e-06 2.567286e-06 1.483742e-06 -1.416232e-05 -2.388233e-05 -8.714695e-06 -2.501834e-06
<VARIANCE> 52
 9.792794e-01 9.726741e-01 9.713812e-01 9.725963e-01 9.705378e-01 9.704235e-01 9.705274e-01 9.702647e-01 9.706458e-01 9.704003e-01 9.705229e-01 9.700693e-01 9.703734e-01 9.670020e-01 9.629893e-01 9.649230e-01 9.651484e-01 9.652831e-01 9.664409e-01 9.671099e-01 9.670829e-01 9.672278e-01 9.676865e-01 9.677585e-01 9.679267e-01 9.678577e-01 9.669301e-01 9.636205e-01 9.652336e-01 9.662419e-01 9.664491e-01 9.671448e-01 9.675731e-01 9.675267e-01 9.677964e-01 9.681836e-01 9.682237e-01 9.683940e-01 9.683627e-01 9.665712e-01 9.635960e-01 9.649717e-01 9.660559e-01 9.663749e-01 9.671842e-01 9.676082e-01 9.676264e-01 9.678405e-01 9.682605e-01 9.683071e-01 9.684421e-01 9.683972e-01
<GCONST> 9.387930e+01
<STATE> 4
<MEAN> 52
 -2.490184e-03 -1.243188e-03 -1.128301e-05 -8.960790e-04 -2.667345e-04 5.366148e-04 -6.250685e-05 6.629154e-05 7.299176e-04 2.599612e-04 2.150310e-04 4.278908e-05 -7.166866e-06 -7.366442e-06 -4.091617e-05 9.469121e-08 8.796731e-06 5.947863e-06 -1.095528e-06 -1.429331e-05 -1.578682e-05 -2.992618e-06 7.773454e-06 1.040377e-05 -6.564504e-06 2.168372e-06 4.386669e-06 1.266359e-05 1.339923e-05 3.984654e-06 -6.318734e-06 -1.437613e-05 1.464688e-05 6.719832e-06 -1.754292e-06 -5.992690e-06 -6.210734e-06 -1.333694e-05 -6.208460e-06 -4.671377e-06 1.199772e-05 -2.405842e-06 -2.009649e-06 -4.084768e-06 -2.011981e-06 6.721010e-06 2.567286e-06 1.483742e-06 -1.416232e-05 -2.388233e-05 -8.714695e-06 -2.501834e-06
<VARIANCE> 52
 9.792794e-01 9.726741e-01 9.713812e-01 9.725963e-01 9.705378e-01 9.704235e-01 9.705274e-01 9.702647e-01 9.706458e-01 9.704003e-01 9.705229e-01 9.700693e-01 9.703734e-01 9.670020e-01 9.629893e-01 9.649230e-01 9.651484e-01 9.652831e-01 9.664409e-01 9.671099e-01 9.670829e-01 9.672278e-01 9.676865e-01 9.677585e-01 9.679267e-01 9.678577e-01 9.669301e-01 9.636205e-01 9.652336e-01 9.662419e-01 9.664491e-01 9.671448e-01 9.675731e-01 9.675267e-01 9.677964e-01 9.681836e-01 9.682237e-01 9.683940e-01 9.683627e-01 9.665712e-01 9.635960e-01 9.649717e-01 9.660559e-01 9.663749e-01 9.671842e-01 9.676082e-01 9.676264e-01 9.678405e-01 9.682605e-01 9.683071e-01 9.684421e-01 9.683972e-01
<GCONST> 9.387930e+01
<TRANSP> 5
 0.000000e+00 1.000000e+00 0.000000e+00 0.000000e+00 0.000000e+00
 0.000000e+00 6.000000e-01 4.000000e-01 0.000000e+00 0.000000e+00
 0.000000e+00 0.000000e+00 6.000000e-01 4.000000e-01 0.000000e+00
 0.000000e+00 0.000000e+00 0.000000e+00 6.000000e-01 4.000000e-01
 0.000000e+00 0.000000e+00 0.000000e+00 0.000000e+00 0.000000e+00
<ENDHMM>
~h "I"
<BEGINHMM>
<NUMSTATES> 5
<STATE> 2
<MEAN> 52
 -2.490184e-03 -1.243188e-03 -1.128301e-05 -8.960790e-04 -2.667345e-04 5.366148e-04 -6.250685e-05 6.629154e-05 7.299176e-04 2.599612e-04 2.150310e-04 4.278908e-05 -7.166866e-06 -7.366442e-06 -4.091617e-05 9.469121e-08 8.796731e-06 5.947863e-06 -1.095528e-06 -1.429331e-05 -1.578682e-05 -2.992618e-06 7.773454e-06 1.040377e-05 -6.564504e-06 2.168372e-06 4.386669e-06 1.266359e-05 1.339923e-05 3.984654e-06 -6.318734e-06 -1.437613e-05 1.464688e-05 6.719832e-06 -1.754292e-06 -5.992690e-06 -6.210734e-06 -1.333694e-05 -6.208460e-06 -4.671377e-06 1.199772e-05 -2.405842e-06 -2.009649e-06 -4.084768e-06 -2.011981e-06 6.721010e-06 2.567286e-06 1.483742e-06 -1.416232e-05 -2.388233e-05 -8.714695e-06 -2.501834e-06
<VARIANCE> 52
 9.792794e-01 9.726741e-01 9.713812e-01 9.725963e-01 9.705378e-01 9.704235e-01 9.705274e-01 9.702647e-01 9.706458e-01 9.704003e-01 9.705229e-01 9.700693e-01 9.703734e-01 9.670020e-01 9.629893e-01 9.649230e-01 9.651484e-01 9.652831e-01 9.664409e-01 9.671099e-01 9.670829e-01 9.672278e-01 9.676865e-01 9.677585e-01 9.679267e-01 9.678577e-01 9.669301e-01 9.636205e-01 9.652336e-01 9.662419e-01 9.664491e-01 9.671448e-01 9.675731e-01 9.675267e-01 9.677964e-01 9.681836e-01 9.682237e-01 9.683940e-01 9.683627e-01 9.665712e-01 9.635960e-01 9.649717e-01 9.660559e-01 9.663749e-01 9.671842e-01 9.676082e-01 9.676264e-01 9.678405e-01 9.682605e-01 9.683071e-01 9.684421e-01 9.683972e-01
<GCONST> 9.387930e+01
<STATE> 3
<MEAN> 52
 -2.490184e-03 -1.243188e-03 -1.128301e-05 -8.960790e-04 -2.667345e-04 5.366148e-04 -6.250685e-05 6.629154e-05 7.299176e-04 2.599612e-04 2.150310e-04 4.278908e-05 -7.166866e-06 -7.366442e-06 -4.091617e-05 9.469121e-08 8.796731e-06 5.947863e-06 -1.095528e-06 -1.429331e-05 -1.578682e-05 -2.992618e-06 7.773454e-06 1.040377e-05 -6.564504e-06 2.168372e-06 4.386669e-06 1.266359e-05 1.339923e-05 3.984654e-06 -6.318734e-06 -1.437613e-05 1.464688e-05 6.719832e-06 -1.754292e-06 -5.992690e-06 -6.210734e-06 -1.333694e-05 -6.208460e-06 -4.671377e-06 1.199772e-05 -2.405842e-06 -2.009649e-06 -4.084768e-06 -2.011981e-06 6.721010e-06 2.567286e-06 1.483742e-06 -1.416232e-05 -2.388233e-05 -8.714695e-06 -2.501834e-06
<VARIANCE> 52
 9.792794e-01 9.726741e-01 9.713812e-01 9.725963e-01 9.705378e-01 9.704235e-01 9.705274e-01 9.702647e-01 9.706458e-01 9.704003e-01 9.705229e-01 9.700693e-01 9.703734e-01 9.670020e-01 9.629893e-01 9.649230e-01 9.651484e-01 9.652831e-01 9.664409e-01 9.671099e-01 9.670829e-01 9.672278e-01 9.676865e-01 9.677585e-01 9.679267e-01 9.678577e-01 9.669301e-01 9.636205e-01 9.652336e-01 9.662419e-01 9.664491e-01 9.671448e-01 9.675731e-01 9.675267e-01 9.677964e-01 9.681836e-01 9.682237e-01 9.683940e-01 9.683627e-01 9.665712e-01 9.635960e-01 9.649717e-01 9.660559e-01 9.663749e-01 9.671842e-01 9.676082e-01 9.676264e-01 9.678405e-01 9.682605e-01 9.683071e-01 9.684421e-01 9.683972e-01
<GCONST> 9.387930e+01
<STATE> 4
<MEAN> 52
 -2.490184e-03 -1.243188e-03 -1.128301e-05 -8.960790e-04 -2.667345e-04 5.366148e-04 -6.250685e-05 6.629154e-05 7.299176e-04 2.599612e-04 2.150310e-04 4.278908e-05 -7.166866e-06 -7.366442e-06 -4.091617e-05 9.469121e-08 8.796731e-06 5.947863e-06 -1.095528e-06 -1.429331e-05 -1.578682e-05 -2.992618e-06 7.773454e-06 1.040377e-05 -6.564504e-06 2.168372e-06 4.386669e-06 1.266359e-05 1.339923e-05 3.984654e-06 -6.318734e-06 -1.437613e-05 1.464688e-05 6.719832e-06 -1.754292e-06 -5.992690e-06 -6.210734e-06 -1.333694e-05 -6.208460e-06 -4.671377e-06 1.199772e-05 -2.405842e-06 -2.009649e-06 -4.084768e-06 -2.011981e-06 6.721010e-06 2.567286e-06 1.483742e-06 -1.416232e-05 -2.388233e-05 -8.714695e-06 -2.501834e-06
<VARIANCE> 52
 9.792794e-01 9.726741e-01 9.713812e-01 9.725963e-01 9.705378e-01 9.704235e-01 9.705274e-01 9.702647e-01 9.706458e-01 9.704003e-01 9.705229e-01 9.700693e-01 9.703734e-01 9.670020e-01 9.629893e-01 9.649230e-01 9.651484e-01 9.652831e-01 9.664409e-01 9.671099e-01 9.670829e-01 9.672278e-01 9.676865e-01 9.677585e-01 9.679267e-01 9.678577e-01 9.669301e-01 9.636205e-01 9.652336e-01 9.662419e-01 9.664491e-01 9.671448e-01 9.675731e-01 9.675267e-01 9.677964e-01 9.681836e-01 9.682237e-01 9.683940e-01 9.683627e-01 9.665712e-01 9.635960e-01 9.649717e-01 9.660559e-01 9.663749e-01 9.671842e-01 9.676082e-01 9.676264e-01 9.678405e-01 9.682605e-01 9.683071e-01 9.684421e-01 9.683972e-01
<GCONST> 9.387930e+01
<TRANSP> 5
 0.000000e+00 1.000000e+00 0.000000e+00 0.000000e+00 0.000000e+00
 0.000000e+00 6.000000e-01 4.000000e-01 0.000000e+00 0.000000e+00
 0.000000e+00 0.000000e+00 6.000000e-01 4.000000e-01 0.000000e+00
 0.000000e+00 0.000000e+00 0.000000e+00 6.000000e-01 4.000000e-01
 0.000000e+00 0.000000e+00 0.000000e+00 0.000000e+00 0.000000e+00
<ENDHMM>
~h "D"
<BEGINHMM>
<NUMSTATES> 5
<STATE> 2
<MEAN> 52
 -2.490184e-03 -1.243188e-03 -1.128301e-05 -8.960790e-04 -2.667345e-04 5.366148e-04 -6.250685e-05 6.629154e-05 7.299176e-04 2.599612e-04 2.150310e-04 4.278908e-05 -7.166866e-06 -7.366442e-06 -4.091617e-05 9.469121e-08 8.796731e-06 5.947863e-06 -1.095528e-06 -1.429331e-05 -1.578682e-05 -2.992618e-06 7.773454e-06 1.040377e-05 -6.564504e-06 2.168372e-06 4.386669e-06 1.266359e-05 1.339923e-05 3.984654e-06 -6.318734e-06 -1.437613e-05 1.464688e-05 6.719832e-06 -1.754292e-06 -5.992690e-06 -6.210734e-06 -1.333694e-05 -6.208460e-06 -4.671377e-06 1.199772e-05 -2.405842e-06 -2.009649e-06 -4.084768e-06 -2.011981e-06 6.721010e-06 2.567286e-06 1.483742e-06 -1.416232e-05 -2.388233e-05 -8.714695e-06 -2.501834e-06
<VARIANCE> 52
 9.792794e-01 9.726741e-01 9.713812e-01 9.725963e-01 9.705378e-01 9.704235e-01 9.705274e-01 9.702647e-01 9.706458e-01 9.704003e-01 9.705229e-01 9.700693e-01 9.703734e-01 9.670020e-01 9.629893e-01 9.649230e-01 9.651484e-01 9.652831e-01 9.664409e-01 9.671099e-01 9.670829e-01 9.672278e-01 9.676865e-01 9.677585e-01 9.679267e-01 9.678577e-01 9.669301e-01 9.636205e-01 9.652336e-01 9.662419e-01 9.664491e-01 9.671448e-01 9.675731e-01 9.675267e-01 9.677964e-01 9.681836e-01 9.682237e-01 9.683940e-01 9.683627e-01 9.665712e-01 9.635960e-01 9.649717e-01 9.660559e-01 9.663749e-01 9.671842e-01 9.676082e-01 9.676264e-01 9.678405e-01 9.682605e-01 9.683071e-01 9.684421e-01 9.683972e-01
<GCONST> 9.387930e+01
<STATE> 3
<MEAN> 52
 -2.490184e-03 -1.243188e-03 -1.128301e-05 -8.960790e-04 -2.667345e-04 5.366148e-04 -6.250685e-05 6.629154e-05 7.299176e-04 2.599612e-04 2.150310e-04 4.278908e-05 -7.166866e-06 -7.366442e-06 -4.091617e-05 9.469121e-08 8.796731e-06 5.947863e-06 -1.095528e-06 -1.429331e-05 -1.578682e-05 -2.992618e-06 7.773454e-06 1.040377e-05 -6.564504e-06 2.168372e-06 4.386669e-06 1.266359e-05 1.339923e-05 3.984654e-06 -6.318734e-06 -1.437613e-05 1.464688e-05 6.719832e-06 -1.754292e-06 -5.992690e-06 -6.210734e-06 -1.333694e-05 -6.208460e-06 -4.671377e-06 1.199772e-05 -2.405842e-06 -2.009649e-06 -4.084768e-06 -2.011981e-06 6.721010e-06 2.567286e-06 1.483742e-06 -1.416232e-05 -2.388233e-05 -8.714695e-06 -2.501834e-06
<VARIANCE> 52
 9.792794e-01 9.726741e-01 9.713812e-01 9.725963e-01 9.705378e-01 9.704235e-01 9.705274e-01 9.702647e-01 9.706458e-01 9.704003e-01 9.705229e-01 9.700693e-01 9.703734e-01 9.670020e-01 9.629893e-01 9.649230e-01 9.651484e-01 9.652831e-01 9.664409e-01 9.671099e-01 9.670829e-01 9.672278e-01 9.676865e-01 9.677585e-01 9.679267e-01 9.678577e-01 9.669301e-01 9.636205e-01 9.652336e-01 9.662419e-01 9.664491e-01 9.671448e-01 9.675731e-01 9.675267e-01 9.677964e-01 9.681836e-01 9.682237e-01 9.683940e-01 9.683627e-01 9.665712e-01 9.635960e-01 9.649717e-01 9.660559e-01 9.663749e-01 9.671842e-01 9.676082e-01 9.676264e-01 9.678405e-01 9.682605e-01 9.683071e-01 9.684421e-01 9.683972e-01
<GCONST> 9.387930e+01
<STATE> 4
<MEAN> 52
 -2.490184e-03 -1.243188e-03 -1.128301e-05 -8.960790e-04 -2.667345e-04 5.366148e-04 -6.250685e-05 6.629154e-05 7.299176e-04 2.599612e-04 2.150310e-04 4.278908e-05 -7.166866e-06 -7.366442e-06 -4.091617e-05 9.469121e-08 8.796731e-06 5.947863e-06 -1.095528e-06 -1.429331e-05 -1.578682e-05 -2.992618e-06 7.773454e-06 1.040377e-05 -6.564504e-06 2.168372e-06 4.386669e-06 1.266359e-05 1.339923e-05 3.984654e-06 -6.318734e-06 -1.437613e-05 1.464688e-05 6.719832e-06 -1.754292e-06 -5.992690e-06 -6.210734e-06 -1.333694e-05 -6.208460e-06 -4.671377e-06 1.199772e-05 -2.405842e-06 -2.009649e-06 -4.084768e-06 -2.011981e-06 6.721010e-06 2.567286e-06 1.483742e-06 -1.416232e-05 -2.388233e-05 -8.714695e-06 -2.501834e-06
<VARIANCE> 52
 9.792794e-01 9.726741e-01 9.713812e-01 9.725963e-01 9.705378e-01 9.704235e-01 9.705274e-01 9.702647e-01 9.706458e-01 9.704003e-01 9.705229e-01 9.700693e-01 9.703734e-01 9.670020e-01 9.629893e-01 9.649230e-01 9.651484e-01 9.652831e-01 9.664409e-01 9.671099e-01 9.670829e-01 9.672278e-01 9.676865e-01 9.677585e-01 9.679267e-01 9.678577e-01 9.669301e-01 9.636205e-01 9.652336e-01 9.662419e-01 9.664491e-01 9.671448e-01 9.675731e-01 9.675267e-01 9.677964e-01 9.681836e-01 9.682237e-01 9.683940e-01 9.683627e-01 9.665712e-01 9.635960e-01 9.649717e-01 9.660559e-01 9.663749e-01 9.671842e-01 9.676082e-01 9.676264e-01 9.678405e-01 9.682605e-01 9.683071e-01 9.684421e-01 9.683972e-01
<GCONST> 9.387930e+01
<TRANSP> 5
 0.000000e+00 1.000000e+00 0.000000e+00 0.000000e+00 0.000000e+00
 0.000000e+00 6.000000e-01 4.000000e-01 0.000000e+00 0.000000e+00
 0.000000e+00 0.000000e+00 6.000000e-01 4.000000e-01 0.000000e+00
 0.000000e+00 0.000000e+00 0.000000e+00 6.000000e-01 4.000000e-01
 0.000000e+00 0.000000e+00 0.000000e+00 0.000000e+00 0.000000e+00
<ENDHMM>
~h "N"
<BEGINHMM>
<NUMSTATES> 5
<STATE> 2
<MEAN> 52
 -2.490184e-03 -1.243188e-03 -1.128301e-05 -8.960790e-04 -2.667345e-04 5.366148e-04 -6.250685e-05 6.629154e-05 7.299176e-04 2.599612e-04 2.150310e-04 4.278908e-05 -7.166866e-06 -7.366442e-06 -4.091617e-05 9.469121e-08 8.796731e-06 5.947863e-06 -1.095528e-06 -1.429331e-05 -1.578682e-05 -2.992618e-06 7.773454e-06 1.040377e-05 -6.564504e-06 2.168372e-06 4.386669e-06 1.266359e-05 1.339923e-05 3.984654e-06 -6.318734e-06 -1.437613e-05 1.464688e-05 6.719832e-06 -1.754292e-06 -5.992690e-06 -6.210734e-06 -1.333694e-05 -6.208460e-06 -4.671377e-06 1.199772e-05 -2.405842e-06 -2.009649e-06 -4.084768e-06 -2.011981e-06 6.721010e-06 2.567286e-06 1.483742e-06 -1.416232e-05 -2.388233e-05 -8.714695e-06 -2.501834e-06
<VARIANCE> 52
 9.792794e-01 9.726741e-01 9.713812e-01 9.725963e-01 9.705378e-01 9.704235e-01 9.705274e-01 9.702647e-01 9.706458e-01 9.704003e-01 9.705229e-01 9.700693e-01 9.703734e-01 9.670020e-01 9.629893e-01 9.649230e-01 9.651484e-01 9.652831e-01 9.664409e-01 9.671099e-01 9.670829e-01 9.672278e-01 9.676865e-01 9.677585e-01 9.679267e-01 9.678577e-01 9.669301e-01 9.636205e-01 9.652336e-01 9.662419e-01 9.664491e-01 9.671448e-01 9.675731e-01 9.675267e-01 9.677964e-01 9.681836e-01 9.682237e-01 9.683940e-01 9.683627e-01 9.665712e-01 9.635960e-01 9.649717e-01 9.660559e-01 9.663749e-01 9.671842e-01 9.676082e-01 9.676264e-01 9.678405e-01 9.682605e-01 9.683071e-01 9.684421e-01 9.683972e-01
<GCONST> 9.387930e+01
<STATE> 3
<MEAN> 52
 -2.490184e-03 -1.243188e-03 -1.128301e-05 -8.960790e-04 -2.667345e-04 5.366148e-04 -6.250685e-05 6.629154e-05 7.299176e-04 2.599612e-04 2.150310e-04 4.278908e-05 -7.166866e-06 -7.366442e-06 -4.091617e-05 9.469121e-08 8.796731e-06 5.947863e-06 -1.095528e-06 -1.429331e-05 -1.578682e-05 -2.992618e-06 7.773454e-06 1.040377e-05 -6.564504e-06 2.168372e-06 4.386669e-06 1.266359e-05 1.339923e-05 3.984654e-06 -6.318734e-06 -1.437613e-05 1.464688e-05 6.719832e-06 -1.754292e-06 -5.992690e-06 -6.210734e-06 -1.333694e-05 -6.208460e-06 -4.671377e-06 1.199772e-05 -2.405842e-06 -2.009649e-06 -4.084768e-06 -2.011981e-06 6.721010e-06 2.567286e-06 1.483742e-06 -1.416232e-05 -2.388233e-05 -8.714695e-06 -2.501834e-06
<VARIANCE> 52
 9.792794e-01 9.726741e-01 9.713812e-01 9.725963e-01 9.705378e-01 9.704235e-01 9.705274e-01 9.702647e-01 9.706458e-01 9.704003e-01 9.705229e-01 9.700693e-01 9.703734e-01 9.670020e-01 9.629893e-01 9.649230e-01 9.651484e-01 9.652831e-01 9.664409e-01 9.671099e-01 9.670829e-01 9.672278e-01 9.676865e-01 9.677585e-01 9.679267e-01 9.678577e-01 9.669301e-01 9.636205e-01 9.652336e-01 9.662419e-01 9.664491e-01 9.671448e-01 9.675731e-01 9.675267e-01 9.677964e-01 9.681836e-01 9.682237e-01 9.683940e-01 9.683627e-01 9.665712e-01 9.635960e-01 9.649717e-01 9.660559e-01 9.663749e-01 9.671842e-01 9.676082e-01 9.676264e-01 9.678405e-01 9.682605e-01 9.683071e-01 9.684421e-01 9.683972e-01
<GCONST> 9.387930e+01
<STATE> 4
<MEAN> 52
 -2.490184e-03 -1.243188e-03 -1.128301e-05 -8.960790e-04 -2.667345e-04 5.366148e-04 -6.250685e-05 6.629154e-05 7.299176e-04 2.599612e-04 2.150310e-04 4.278908e-05 -7.166866e-06 -7.366442e-06 -4.091617e-05 9.469121e-08 8.796731e-06 5.947863e-06 -1.095528e-06 -1.429331e-05 -1.578682e-05 -2.992618e-06 7.773454e-06 1.040377e-05 -6.564504e-06 2.168372e-06 4.386669e-06 1.266359e-05 1.339923e-05 3.984654e-06 -6.318734e-06 -1.437613e-05 1.464688e-05 6.719832e-06 -1.754292e-06 -5.992690e-06 -6.210734e-06 -1.333694e-05 -6.208460e-06 -4.671377e-06 1.199772e-05 -2.405842e-06 -2.009649e-06 -4.084768e-06 -2.011981e-06 6.721010e-06 2.567286e-06 1.483742e-06 -1.416232e-05 -2.388233e-05 -8.714695e-06 -2.501834e-06
<VARIANCE> 52
 9.792794e-01 9.726741e-01 9.713812e-01 9.725963e-01 9.705378e-01 9.704235e-01 9.705274e-01 9.702647e-01 9.706458e-01 9.704003e-01 9.705229e-01 9.700693e-01 9.703734e-01 9.670020e-01 9.629893e-01 9.649230e-01 9.651484e-01 9.652831e-01 9.664409e-01 9.671099e-01 9.670829e-01 9.672278e-01 9.676865e-01 9.677585e-01 9.679267e-01 9.678577e-01 9.669301e-01 9.636205e-01 9.652336e-01 9.662419e-01 9.664491e-01 9.671448e-01 9.675731e-01 9.675267e-01 9.677964e-01 9.681836e-01 9.682237e-01 9.683940e-01 9.683627e-01 9.665712e-01 9.635960e-01 9.649717e-01 9.660559e-01 9.663749e-01 9.671842e-01 9.676082e-01 9.676264e-01 9.678405e-01 9.682605e-01 9.683071e-01 9.684421e-01 9.683972e-01
<GCONST> 9.387930e+01
<TRANSP> 5
 0.000000e+00 1.000000e+00 0.000000e+00 0.000000e+00 0.000000e+00
 0.000000e+00 6.000000e-01 4.000000e-01 0.000000e+00 0.000000e+00
 0.000000e+00 0.000000e+00 6.000000e-01 4.000000e-01 0.000000e+00
 0.000000e+00 0.000000e+00 0.000000e+00 6.000000e-01 4.000000e-01
 0.000000e+00 0.000000e+00 0.000000e+00 0.000000e+00 0.000000e+00
<ENDHMM>
~h "E"
<BEGINHMM>
<NUMSTATES> 5
<STATE> 2
<MEAN> 52
 -2.490184e-03 -1.243188e-03 -1.128301e-05 -8.960790e-04 -2.667345e-04 5.366148e-04 -6.250685e-05 6.629154e-05 7.299176e-04 2.599612e-04 2.150310e-04 4.278908e-05 -7.166866e-06 -7.366442e-06 -4.091617e-05 9.469121e-08 8.796731e-06 5.947863e-06 -1.095528e-06 -1.429331e-05 -1.578682e-05 -2.992618e-06 7.773454e-06 1.040377e-05 -6.564504e-06 2.168372e-06 4.386669e-06 1.266359e-05 1.339923e-05 3.984654e-06 -6.318734e-06 -1.437613e-05 1.464688e-05 6.719832e-06 -1.754292e-06 -5.992690e-06 -6.210734e-06 -1.333694e-05 -6.208460e-06 -4.671377e-06 1.199772e-05 -2.405842e-06 -2.009649e-06 -4.084768e-06 -2.011981e-06 6.721010e-06 2.567286e-06 1.483742e-06 -1.416232e-05 -2.388233e-05 -8.714695e-06 -2.501834e-06
<VARIANCE> 52
 9.792794e-01 9.726741e-01 9.713812e-01 9.725963e-01 9.705378e-01 9.704235e-01 9.705274e-01 9.702647e-01 9.706458e-01 9.704003e-01 9.705229e-01 9.700693e-01 9.703734e-01 9.670020e-01 9.629893e-01 9.649230e-01 9.651484e-01 9.652831e-01 9.664409e-01 9.671099e-01 9.670829e-01 9.672278e-01 9.676865e-01 9.677585e-01 9.679267e-01 9.678577e-01 9.669301e-01 9.636205e-01 9.652336e-01 9.662419e-01 9.664491e-01 9.671448e-01 9.675731e-01 9.675267e-01 9.677964e-01 9.681836e-01 9.682237e-01 9.683940e-01 9.683627e-01 9.665712e-01 9.635960e-01 9.649717e-01 9.660559e-01 9.663749e-01 9.671842e-01 9.676082e-01 9.676264e-01 9.678405e-01 9.682605e-01 9.683071e-01 9.684421e-01 9.683972e-01
<GCONST> 9.387930e+01
<STATE> 3
<MEAN> 52
 -2.490184e-03 -1.243188e-03 -1.128301e-05 -8.960790e-04 -2.667345e-04 5.366148e-04 -6.250685e-05 6.629154e-05 7.299176e-04 2.599612e-04 2.150310e-04 4.278908e-05 -7.166866e-06 -7.366442e-06 -4.091617e-05 9.469121e-08 8.796731e-06 5.947863e-06 -1.095528e-06 -1.429331e-05 -1.578682e-05 -2.992618e-06 7.773454e-06 1.040377e-05 -6.564504e-06 2.168372e-06 4.386669e-06 1.266359e-05 1.339923e-05 3.984654e-06 -6.318734e-06 -1.437613e-05 1.464688e-05 6.719832e-06 -1.754292e-06 -5.992690e-06 -6.210734e-06 -1.333694e-05 -6.208460e-06 -4.671377e-06 1.199772e-05 -2.405842e-06 -2.009649e-06 -4.084768e-06 -2.011981e-06 6.721010e-06 2.567286e-06 1.483742e-06 -1.416232e-05 -2.388233e-05 -8.714695e-06 -2.501834e-06
<VARIANCE> 52
 9.792794e-01 9.726741e-01 9.713812e-01 9.725963e-01 9.705378e-01 9.704235e-01 9.705274e-01 9.702647e-01 9.706458e-01 9.704003e-01 9.705229e-01 9.700693e-01 9.703734e-01 9.670020e-01 9.629893e-01 9.649230e-01 9.651484e-01 9.652831e-01 9.664409e-01 9.671099e-01 9.670829e-01 9.672278e-01 9.676865e-01 9.677585e-01 9.679267e-01 9.678577e-01 9.669301e-01 9.636205e-01 9.652336e-01 9.662419e-01 9.664491e-01 9.671448e-01 9.675731e-01 9.675267e-01 9.677964e-01 9.681836e-01 9.682237e-01 9.683940e-01 9.683627e-01 9.665712e-01 9.635960e-01 9.649717e-01 9.660559e-01 9.663749e-01 9.671842e-01 9.676082e-01 9.676264e-01 9.678405e-01 9.682605e-01 9.683071e-01 9.684421e-01 9.683972e-01
<GCONST> 9.387930e+01
<STATE> 4
<MEAN> 52
 -2.490184e-03 -1.243188e-03 -1.128301e-05 -8.960790e-04 -2.667345e-04 5.366148e-04 -6.250685e-05 6.629154e-05 7.299176e-04 2.599612e-04 2.150310e-04 4.278908e-05 -7.166866e-06 -7.366442e-06 -4.091617e-05 9.469121e-08 8.796731e-06 5.947863e-06 -1.095528e-06 -1.429331e-05 -1.578682e-05 -2.992618e-06 7.773454e-06 1.040377e-05 -6.564504e-06 2.168372e-06 4.386669e-06 1.266359e-05 1.339923e-05 3.984654e-06 -6.318734e-06 -1.437613e-05 1.464688e-05 6.719832e-06 -1.754292e-06 -5.992690e-06 -6.210734e-06 -1.333694e-05 -6.208460e-06 -4.671377e-06 1.199772e-05 -2.405842e-06 -2.009649e-06 -4.084768e-06 -2.011981e-06 6.721010e-06 2.567286e-06 1.483742e-06 -1.416232e-05 -2.388233e-05 -8.714695e-06 -2.501834e-06
<VARIANCE> 52
 9.792794e-01 9.726741e-01 9.713812e-01 9.725963e-01 9.705378e-01 9.704235e-01 9.705274e-01 9.702647e-01 9.706458e-01 9.704003e-01 9.705229e-01 9.700693e-01 9.703734e-01 9.670020e-01 9.629893e-01 9.649230e-01 9.651484e-01 9.652831e-01 9.664409e-01 9.671099e-01 9.670829e-01 9.672278e-01 9.676865e-01 9.677585e-01 9.679267e-01 9.678577e-01 9.669301e-01 9.636205e-01 9.652336e-01 9.662419e-01 9.664491e-01 9.671448e-01 9.675731e-01 9.675267e-01 9.677964e-01 9.681836e-01 9.682237e-01 9.683940e-01 9.683627e-01 9.665712e-01 9.635960e-01 9.649717e-01 9.660559e-01 9.663749e-01 9.671842e-01 9.676082e-01 9.676264e-01 9.678405e-01 9.682605e-01 9.683071e-01 9.684421e-01 9.683972e-01
<GCONST> 9.387930e+01
<TRANSP> 5
 0.000000e+00 1.000000e+00 0.000000e+00 0.000000e+00 0.000000e+00
 0.000000e+00 6.000000e-01 4.000000e-01 0.000000e+00 0.000000e+00
 0.000000e+00 0.000000e+00 6.000000e-01 4.000000e-01 0.000000e+00
 0.000000e+00 0.000000e+00 0.000000e+00 6.000000e-01 4.000000e-01
 0.000000e+00 0.000000e+00 0.000000e+00 0.000000e+00 0.000000e+00
<ENDHMM>
~h "A"
<BEGINHMM>
<NUMSTATES> 5
<STATE> 2
<MEAN> 52
 -2.490184e-03 -1.243188e-03 -1.128301e-05 -8.960790e-04 -2.667345e-04 5.366148e-04 -6.250685e-05 6.629154e-05 7.299176e-04 2.599612e-04 2.150310e-04 4.278908e-05 -7.166866e-06 -7.366442e-06 -4.091617e-05 9.469121e-08 8.796731e-06 5.947863e-06 -1.095528e-06 -1.429331e-05 -1.578682e-05 -2.992618e-06 7.773454e-06 1.040377e-05 -6.564504e-06 2.168372e-06 4.386669e-06 1.266359e-05 1.339923e-05 3.984654e-06 -6.318734e-06 -1.437613e-05 1.464688e-05 6.719832e-06 -1.754292e-06 -5.992690e-06 -6.210734e-06 -1.333694e-05 -6.208460e-06 -4.671377e-06 1.199772e-05 -2.405842e-06 -2.009649e-06 -4.084768e-06 -2.011981e-06 6.721010e-06 2.567286e-06 1.483742e-06 -1.416232e-05 -2.388233e-05 -8.714695e-06 -2.501834e-06
<VARIANCE> 52
 9.792794e-01 9.726741e-01 9.713812e-01 9.725963e-01 9.705378e-01 9.704235e-01 9.705274e-01 9.702647e-01 9.706458e-01 9.704003e-01 9.705229e-01 9.700693e-01 9.703734e-01 9.670020e-01 9.629893e-01 9.649230e-01 9.651484e-01 9.652831e-01 9.664409e-01 9.671099e-01 9.670829e-01 9.672278e-01 9.676865e-01 9.677585e-01 9.679267e-01 9.678577e-01 9.669301e-01 9.636205e-01 9.652336e-01 9.662419e-01 9.664491e-01 9.671448e-01 9.675731e-01 9.675267e-01 9.677964e-01 9.681836e-01 9.682237e-01 9.683940e-01 9.683627e-01 9.665712e-01 9.635960e-01 9.649717e-01 9.660559e-01 9.663749e-01 9.671842e-01 9.676082e-01 9.676264e-01 9.678405e-01 9.682605e-01 9.683071e-01 9.684421e-01 9.683972e-01
<GCONST> 9.387930e+01
<STATE> 3
<MEAN> 52
 -2.490184e-03 -1.243188e-03 -1.128301e-05 -8.960790e-04 -2.667345e-04 5.366148e-04 -6.250685e-05 6.629154e-05 7.299176e-04 2.599612e-04 2.150310e-04 4.278908e-05 -7.166866e-06 -7.366442e-06 -4.091617e-05 9.469121e-08 8.796731e-06 5.947863e-06 -1.095528e-06 -1.429331e-05 -1.578682e-05 -2.992618e-06 7.773454e-06 1.040377e-05 -6.564504e-06 2.168372e-06 4.386669e-06 1.266359e-05 1.339923e-05 3.984654e-06 -6.318734e-06 -1.437613e-05 1.464688e-05 6.719832e-06 -1.754292e-06 -5.992690e-06 -6.210734e-06 -1.333694e-05 -6.208460e-06 -4.671377e-06 1.199772e-05 -2.405842e-06 -2.009649e-06 -4.084768e-06 -2.011981e-06 6.721010e-06 2.567286e-06 1.483742e-06 -1.416232e-05 -2.388233e-05 -8.714695e-06 -2.501834e-06
<VARIANCE> 52
 9.792794e-01 9.726741e-01 9.713812e-01 9.725963e-01 9.705378e-01 9.704235e-01 9.705274e-01 9.702647e-01 9.706458e-01 9.704003e-01 9.705229e-01 9.700693e-01 9.703734e-01 9.670020e-01 9.629893e-01 9.649230e-01 9.651484e-01 9.652831e-01 9.664409e-01 9.671099e-01 9.670829e-01 9.672278e-01 9.676865e-01 9.677585e-01 9.679267e-01 9.678577e-01 9.669301e-01 9.636205e-01 9.652336e-01 9.662419e-01 9.664491e-01 9.671448e-01 9.675731e-01 9.675267e-01 9.677964e-01 9.681836e-01 9.682237e-01 9.683940e-01 9.683627e-01 9.665712e-01 9.635960e-01 9.649717e-01 9.660559e-01 9.663749e-01 9.671842e-01 9.676082e-01 9.676264e-01 9.678405e-01 9.682605e-01 9.683071e-01 9.684421e-01 9.683972e-01
<GCONST> 9.387930e+01
<STATE> 4
<MEAN> 52
 -2.490184e-03 -1.243188e-03 -1.128301e-05 -8.960790e-04 -2.667345e-04 5.366148e-04 -6.250685e-05 6.629154e-05 7.299176e-04 2.599612e-04 2.150310e-04 4.278908e-05 -7.166866e-06 -7.366442e-06 -4.091617e-05 9.469121e-08 8.796731e-06 5.947863e-06 -1.095528e-06 -1.429331e-05 -1.578682e-05 -2.992618e-06 7.773454e-06 1.040377e-05 -6.564504e-06 2.168372e-06 4.386669e-06 1.266359e-05 1.339923e-05 3.984654e-06 -6.318734e-06 -1.437613e-05 1.464688e-05 6.719832e-06 -1.754292e-06 -5.992690e-06 -6.210734e-06 -1.333694e-05 -6.208460e-06 -4.671377e-06 1.199772e-05 -2.405842e-06 -2.009649e-06 -4.084768e-06 -2.011981e-06 6.721010e-06 2.567286e-06 1.483742e-06 -1.416232e-05 -2.388233e-05 -8.714695e-06 -2.501834e-06
<VARIANCE> 52
 9.792794e-01 9.726741e-01 9.713812e-01 9.725963e-01 9.705378e-01 9.704235e-01 9.705274e-01 9.702647e-01 9.706458e-01 9.704003e-01 9.705229e-01 9.700693e-01 9.703734e-01 9.670020e-01 9.629893e-01 9.649230e-01 9.651484e-01 9.652831e-01 9.664409e-01 9.671099e-01 9.670829e-01 9.672278e-01 9.676865e-01 9.677585e-01 9.679267e-01 9.678577e-01 9.669301e-01 9.636205e-01 9.652336e-01 9.662419e-01 9.664491e-01 9.671448e-01 9.675731e-01 9.675267e-01 9.677964e-01 9.681836e-01 9.682237e-01 9.683940e-01 9.683627e-01 9.665712e-01 9.635960e-01 9.649717e-01 9.660559e-01 9.663749e-01 9.671842e-01 9.676082e-01 9.676264e-01 9.678405e-01 9.682605e-01 9.683071e-01 9.684421e-01 9.683972e-01
<GCONST> 9.387930e+01
<TRANSP> 5
 0.000000e+00 1.000000e+00 0.000000e+00 0.000000e+00 0.000000e+00
 0.000000e+00 6.000000e-01 4.000000e-01 0.000000e+00 0.000000e+00
 0.000000e+00 0.000000e+00 6.000000e-01 4.000000e-01 0.000000e+00
 0.000000e+00 0.000000e+00 0.000000e+00 6.000000e-01 4.000000e-01
 0.000000e+00 0.000000e+00 0.000000e+00 0.000000e+00 0.000000e+00
<ENDHMM>
~h "B"
<BEGINHMM>
<NUMSTATES> 5
<STATE> 2
<MEAN> 52
 -2.490184e-03 -1.243188e-03 -1.128301e-05 -8.960790e-04 -2.667345e-04 5.366148e-04 -6.250685e-05 6.629154e-05 7.299176e-04 2.599612e-04 2.150310e-04 4.278908e-05 -7.166866e-06 -7.366442e-06 -4.091617e-05 9.469121e-08 8.796731e-06 5.947863e-06 -1.095528e-06 -1.429331e-05 -1.578682e-05 -2.992618e-06 7.773454e-06 1.040377e-05 -6.564504e-06 2.168372e-06 4.386669e-06 1.266359e-05 1.339923e-05 3.984654e-06 -6.318734e-06 -1.437613e-05 1.464688e-05 6.719832e-06 -1.754292e-06 -5.992690e-06 -6.210734e-06 -1.333694e-05 -6.208460e-06 -4.671377e-06 1.199772e-05 -2.405842e-06 -2.009649e-06 -4.084768e-06 -2.011981e-06 6.721010e-06 2.567286e-06 1.483742e-06 -1.416232e-05 -2.388233e-05 -8.714695e-06 -2.501834e-06
<VARIANCE> 52
 9.792794e-01 9.726741e-01 9.713812e-01 9.725963e-01 9.705378e-01 9.704235e-01 9.705274e-01 9.702647e-01 9.706458e-01 9.704003e-01 9.705229e-01 9.700693e-01 9.703734e-01 9.670020e-01 9.629893e-01 9.649230e-01 9.651484e-01 9.652831e-01 9.664409e-01 9.671099e-01 9.670829e-01 9.672278e-01 9.676865e-01 9.677585e-01 9.679267e-01 9.678577e-01 9.669301e-01 9.636205e-01 9.652336e-01 9.662419e-01 9.664491e-01 9.671448e-01 9.675731e-01 9.675267e-01 9.677964e-01 9.681836e-01 9.682237e-01 9.683940e-01 9.683627e-01 9.665712e-01 9.635960e-01 9.649717e-01 9.660559e-01 9.663749e-01 9.671842e-01 9.676082e-01 9.676264e-01 9.678405e-01 9.682605e-01 9.683071e-01 9.684421e-01 9.683972e-01
<GCONST> 9.387930e+01
<STATE> 3
<MEAN> 52
 -2.490184e-03 -1.243188e-03 -1.128301e-05 -8.960790e-04 -2.667345e-04 5.366148e-04 -6.250685e-05 6.629154e-05 7.299176e-04 2.599612e-04 2.150310e-04 4.278908e-05 -7.166866e-06 -7.366442e-06 -4.091617e-05 9.469121e-08 8.796731e-06 5.947863e-06 -1.095528e-06 -1.429331e-05 -1.578682e-05 -2.992618e-06 7.773454e-06 1.040377e-05 -6.564504e-06 2.168372e-06 4.386669e-06 1.266359e-05 1.339923e-05 3.984654e-06 -6.318734e-06 -1.437613e-05 1.464688e-05 6.719832e-06 -1.754292e-06 -5.992690e-06 -6.210734e-06 -1.333694e-05 -6.208460e-06 -4.671377e-06 1.199772e-05 -2.405842e-06 -2.009649e-06 -4.084768e-06 -2.011981e-06 6.721010e-06 2.567286e-06 1.483742e-06 -1.416232e-05 -2.388233e-05 -8.714695e-06 -2.501834e-06
<VARIANCE> 52
 9.792794e-01 9.726741e-01 9.713812e-01 9.725963e-01 9.705378e-01 9.704235e-01 9.705274e-01 9.702647e-01 9.706458e-01 9.704003e-01 9.705229e-01 9.700693e-01 9.703734e-01 9.670020e-01 9.629893e-01 9.649230e-01 9.651484e-01 9.652831e-01 9.664409e-01 9.671099e-01 9.670829e-01 9.672278e-01 9.676865e-01 9.677585e-01 9.679267e-01 9.678577e-01 9.669301e-01 9.636205e-01 9.652336e-01 9.662419e-01 9.664491e-01 9.671448e-01 9.675731e-01 9.675267e-01 9.677964e-01 9.681836e-01 9.682237e-01 9.683940e-01 9.683627e-01 9.665712e-01 9.635960e-01 9.649717e-01 9.660559e-01 9.663749e-01 9.671842e-01 9.676082e-01 9.676264e-01 9.678405e-01 9.682605e-01 9.683071e-01 9.684421e-01 9.683972e-01
<GCONST> 9.387930e+01
<STATE> 4
<MEAN> 52
 -2.490184e-03 -1.243188e-03 -1.128301e-05 -8.960790e-04 -2.667345e-04 5.366148e-04 -6.250685e-05 6.629154e-05 7.299176e-04 2.599612e-04 2.150310e-04 4.278908e-05 -7.166866e-06 -7.366442e-06 -4.091617e-05 9.469121e-08 8.796731e-06 5.947863e-06 -1.095528e-06 -1.429331e-05 -1.578682e-05 -2.992618e-06 7.773454e-06 1.040377e-05 -6.564504e-06 2.168372e-06 4.386669e-06 1.266359e-05 1.339923e-05 3.984654e-06 -6.318734e-06 -1.437613e-05 1.464688e-05 6.719832e-06 -1.754292e-06 -5.992690e-06 -6.210734e-06 -1.333694e-05 -6.208460e-06 -4.671377e-06 1.199772e-05 -2.405842e-06 -2.009649e-06 -4.084768e-06 -2.011981e-06 6.721010e-06 2.567286e-06 1.483742e-06 -1.416232e-05 -2.388233e-05 -8.714695e-06 -2.501834e-06
<VARIANCE> 52
 9.792794e-01 9.726741e-01 9.713812e-01 9.725963e-01 9.705378e-01 9.704235e-01 9.705274e-01 9.702647e-01 9.706458e-01 9.704003e-01 9.705229e-01 9.700693e-01 9.703734e-01 9.670020e-01 9.629893e-01 9.649230e-01 9.651484e-01 9.652831e-01 9.664409e-01 9.671099e-01 9.670829e-01 9.672278e-01 9.676865e-01 9.677585e-01 9.679267e-01 9.678577e-01 9.669301e-01 9.636205e-01 9.652336e-01 9.662419e-01 9.664491e-01 9.671448e-01 9.675731e-01 9.675267e-01 9.677964e-01 9.681836e-01 9.682237e-01 9.683940e-01 9.683627e-01 9.665712e-01 9.635960e-01 9.649717e-01 9.660559e-01 9.663749e-01 9.671842e-01 9.676082e-01 9.676264e-01 9.678405e-01 9.682605e-01 9.683071e-01 9.684421e-01 9.683972e-01
<GCONST> 9.387930e+01
<TRANSP> 5
 0.000000e+00 1.000000e+00 0.000000e+00 0.000000e+00 0.000000e+00
 0.000000e+00 6.000000e-01 4.000000e-01 0.000000e+00 0.000000e+00
 0.000000e+00 0.000000e+00 6.000000e-01 4.000000e-01 0.000000e+00
 0.000000e+00 0.000000e+00 0.000000e+00 6.000000e-01 4.000000e-01
 0.000000e+00 0.000000e+00 0.000000e+00 0.000000e+00 0.000000e+00
<ENDHMM>
~h "L"
<BEGINHMM>
<NUMSTATES> 5
<STATE> 2
<MEAN> 52
 -2.490184e-03 -1.243188e-03 -1.128301e-05 -8.960790e-04 -2.667345e-04 5.366148e-04 -6.250685e-05 6.629154e-05 7.299176e-04 2.599612e-04 2.150310e-04 4.278908e-05 -7.166866e-06 -7.366442e-06 -4.091617e-05 9.469121e-08 8.796731e-06 5.947863e-06 -1.095528e-06 -1.429331e-05 -1.578682e-05 -2.992618e-06 7.773454e-06 1.040377e-05 -6.564504e-06 2.168372e-06 4.386669e-06 1.266359e-05 1.339923e-05 3.984654e-06 -6.318734e-06 -1.437613e-05 1.464688e-05 6.719832e-06 -1.754292e-06 -5.992690e-06 -6.210734e-06 -1.333694e-05 -6.208460e-06 -4.671377e-06 1.199772e-05 -2.405842e-06 -2.009649e-06 -4.084768e-06 -2.011981e-06 6.721010e-06 2.567286e-06 1.483742e-06 -1.416232e-05 -2.388233e-05 -8.714695e-06 -2.501834e-06
<VARIANCE> 52
 9.792794e-01 9.726741e-01 9.713812e-01 9.725963e-01 9.705378e-01 9.704235e-01 9.705274e-01 9.702647e-01 9.706458e-01 9.704003e-01 9.705229e-01 9.700693e-01 9.703734e-01 9.670020e-01 9.629893e-01 9.649230e-01 9.651484e-01 9.652831e-01 9.664409e-01 9.671099e-01 9.670829e-01 9.672278e-01 9.676865e-01 9.677585e-01 9.679267e-01 9.678577e-01 9.669301e-01 9.636205e-01 9.652336e-01 9.662419e-01 9.664491e-01 9.671448e-01 9.675731e-01 9.675267e-01 9.677964e-01 9.681836e-01 9.682237e-01 9.683940e-01 9.683627e-01 9.665712e-01 9.635960e-01 9.649717e-01 9.660559e-01 9.663749e-01 9.671842e-01 9.676082e-01 9.676264e-01 9.678405e-01 9.682605e-01 9.683071e-01 9.684421e-01 9.683972e-01
<GCONST> 9.387930e+01
<STATE> 3
<MEAN> 52
 -2.490184e-03 -1.243188e-03 -1.128301e-05 -8.960790e-04 -2.667345e-04 5.366148e-04 -6.250685e-05 6.629154e-05 7.299176e-04 2.599612e-04 2.150310e-04 4.278908e-05 -7.166866e-06 -7.366442e-06 -4.091617e-05 9.469121e-08 8.796731e-06 5.947863e-06 -1.095528e-06 -1.429331e-05 -1.578682e-05 -2.992618e-06 7.773454e-06 1.040377e-05 -6.564504e-06 2.168372e-06 4.386669e-06 1.266359e-05 1.339923e-05 3.984654e-06 -6.318734e-06 -1.437613e-05 1.464688e-05 6.719832e-06 -1.754292e-06 -5.992690e-06 -6.210734e-06 -1.333694e-05 -6.208460e-06 -4.671377e-06 1.199772e-05 -2.405842e-06 -2.009649e-06 -4.084768e-06 -2.011981e-06 6.721010e-06 2.567286e-06 1.483742e-06 -1.416232e-05 -2.388233e-05 -8.714695e-06 -2.501834e-06
<VARIANCE> 52
 9.792794e-01 9.726741e-01 9.713812e-01 9.725963e-01 9.705378e-01 9.704235e-01 9.705274e-01 9.702647e-01 9.706458e-01 9.704003e-01 9.705229e-01 9.700693e-01 9.703734e-01 9.670020e-01 9.629893e-01 9.649230e-01 9.651484e-01 9.652831e-01 9.664409e-01 9.671099e-01 9.670829e-01 9.672278e-01 9.676865e-01 9.677585e-01 9.679267e-01 9.678577e-01 9.669301e-01 9.636205e-01 9.652336e-01 9.662419e-01 9.664491e-01 9.671448e-01 9.675731e-01 9.675267e-01 9.677964e-01 9.681836e-01 9.682237e-01 9.683940e-01 9.683627e-01 9.665712e-01 9.635960e-01 9.649717e-01 9.660559e-01 9.663749e-01 9.671842e-01 9.676082e-01 9.676264e-01 9.678405e-01 9.682605e-01 9.683071e-01 9.684421e-01 9.683972e-01
<GCONST> 9.387930e+01
<STATE> 4
<MEAN> 52
 -2.490184e-03 -1.243188e-03 -1.128301e-05 -8.960790e-04 -2.667345e-04 5.366148e-04 -6.250685e-05 6.629154e-05 7.299176e-04 2.599612e-04 2.150310e-04 4.278908e-05 -7.166866e-06 -7.366442e-06 -4.091617e-05 9.469121e-08 8.796731e-06 5.947863e-06 -1.095528e-06 -1.429331e-05 -1.578682e-05 -2.992618e-06 7.773454e-06 1.040377e-05 -6.564504e-06 2.168372e-06 4.386669e-06 1.266359e-05 1.339923e-05 3.984654e-06 -6.318734e-06 -1.437613e-05 1.464688e-05 6.719832e-06 -1.754292e-06 -5.992690e-06 -6.210734e-06 -1.333694e-05 -6.208460e-06 -4.671377e-06 1.199772e-05 -2.405842e-06 -2.009649e-06 -4.084768e-06 -2.011981e-06 6.721010e-06 2.567286e-06 1.483742e-06 -1.416232e-05 -2.388233e-05 -8.714695e-06 -2.501834e-06
<VARIANCE> 52
 9.792794e-01 9.726741e-01 9.713812e-01 9.725963e-01 9.705378e-01 9.704235e-01 9.705274e-01 9.702647e-01 9.706458e-01 9.704003e-01 9.705229e-01 9.700693e-01 9.703734e-01 9.670020e-01 9.629893e-01 9.649230e-01 9.651484e-01 9.652831e-01 9.664409e-01 9.671099e-01 9.670829e-01 9.672278e-01 9.676865e-01 9.677585e-01 9.679267e-01 9.678577e-01 9.669301e-01 9.636205e-01 9.652336e-01 9.662419e-01 9.664491e-01 9.671448e-01 9.675731e-01 9.675267e-01 9.677964e-01 9.681836e-01 9.682237e-01 9.683940e-01 9.683627e-01 9.665712e-01 9.635960e-01 9.649717e-01 9.660559e-01 9.663749e-01 9.671842e-01 9.676082e-01 9.676264e-01 9.678405e-01 9.682605e-01 9.683071e-01 9.684421e-01 9.683972e-01
<GCONST> 9.387930e+01
<TRANSP> 5
 0.000000e+00 1.000000e+00 0.000000e+00 0.000000e+00 0.000000e+00
 0.000000e+00 6.000000e-01 4.000000e-01 0.000000e+00 0.000000e+00
 0.000000e+00 0.000000e+00 6.000000e-01 4.000000e-01 0.000000e+00
 0.000000e+00 0.000000e+00 0.000000e+00 6.000000e-01 4.000000e-01
 0.000000e+00 0.000000e+00 0.000000e+00 0.000000e+00 0.000000e+00
<ENDHMM>
~h "G"
<BEGINHMM>
<NUMSTATES> 5
<STATE> 2
<MEAN> 52
 -2.490184e-03 -1.243188e-03 -1.128301e-05 -8.960790e-04 -2.667345e-04 5.366148e-04 -6.250685e-05 6.629154e-05 7.299176e-04 2.599612e-04 2.150310e-04 4.278908e-05 -7.166866e-06 -7.366442e-06 -4.091617e-05 9.469121e-08 8.796731e-06 5.947863e-06 -1.095528e-06 -1.429331e-05 -1.578682e-05 -2.992618e-06 7.773454e-06 1.040377e-05 -6.564504e-06 2.168372e-06 4.386669e-06 1.266359e-05 1.339923e-05 3.984654e-06 -6.318734e-06 -1.437613e-05 1.464688e-05 6.719832e-06 -1.754292e-06 -5.992690e-06 -6.210734e-06 -1.333694e-05 -6.208460e-06 -4.671377e-06 1.199772e-05 -2.405842e-06 -2.009649e-06 -4.084768e-06 -2.011981e-06 6.721010e-06 2.567286e-06 1.483742e-06 -1.416232e-05 -2.388233e-05 -8.714695e-06 -2.501834e-06
<VARIANCE> 52
 9.792794e-01 9.726741e-01 9.713812e-01 9.725963e-01 9.705378e-01 9.704235e-01 9.705274e-01 9.702647e-01 9.706458e-01 9.704003e-01 9.705229e-01 9.700693e-01 9.703734e-01 9.670020e-01 9.629893e-01 9.649230e-01 9.651484e-01 9.652831e-01 9.664409e-01 9.671099e-01 9.670829e-01 9.672278e-01 9.676865e-01 9.677585e-01 9.679267e-01 9.678577e-01 9.669301e-01 9.636205e-01 9.652336e-01 9.662419e-01 9.664491e-01 9.671448e-01 9.675731e-01 9.675267e-01 9.677964e-01 9.681836e-01 9.682237e-01 9.683940e-01 9.683627e-01 9.665712e-01 9.635960e-01 9.649717e-01 9.660559e-01 9.663749e-01 9.671842e-01 9.676082e-01 9.676264e-01 9.678405e-01 9.682605e-01 9.683071e-01 9.684421e-01 9.683972e-01
<GCONST> 9.387930e+01
<STATE> 3
<MEAN> 52
 -2.490184e-03 -1.243188e-03 -1.128301e-05 -8.960790e-04 -2.667345e-04 5.366148e-04 -6.250685e-05 6.629154e-05 7.299176e-04 2.599612e-04 2.150310e-04 4.278908e-05 -7.166866e-06 -7.366442e-06 -4.091617e-05 9.469121e-08 8.796731e-06 5.947863e-06 -1.095528e-06 -1.429331e-05 -1.578682e-05 -2.992618e-06 7.773454e-06 1.040377e-05 -6.564504e-06 2.168372e-06 4.386669e-06 1.266359e-05 1.339923e-05 3.984654e-06 -6.318734e-06 -1.437613e-05 1.464688e-05 6.719832e-06 -1.754292e-06 -5.992690e-06 -6.210734e-06 -1.333694e-05 -6.208460e-06 -4.671377e-06 1.199772e-05 -2.405842e-06 -2.009649e-06 -4.084768e-06 -2.011981e-06 6.721010e-06 2.567286e-06 1.483742e-06 -1.416232e-05 -2.388233e-05 -8.714695e-06 -2.501834e-06
<VARIANCE> 52
 9.792794e-01 9.726741e-01 9.713812e-01 9.725963e-01 9.705378e-01 9.704235e-01 9.705274e-01 9.702647e-01 9.706458e-01 9.704003e-01 9.705229e-01 9.700693e-01 9.703734e-01 9.670020e-01 9.629893e-01 9.649230e-01 9.651484e-01 9.652831e-01 9.664409e-01 9.671099e-01 9.670829e-01 9.672278e-01 9.676865e-01 9.677585e-01 9.679267e-01 9.678577e-01 9.669301e-01 9.636205e-01 9.652336e-01 9.662419e-01 9.664491e-01 9.671448e-01 9.675731e-01 9.675267e-01 9.677964e-01 9.681836e-01 9.682237e-01 9.683940e-01 9.683627e-01 9.665712e-01 9.635960e-01 9.649717e-01 9.660559e-01 9.663749e-01 9.671842e-01 9.676082e-01 9.676264e-01 9.678405e-01 9.682605e-01 9.683071e-01 9.684421e-01 9.683972e-01
<GCONST> 9.387930e+01
<STATE> 4
<MEAN> 52
 -2.490184e-03 -1.243188e-03 -1.128301e-05 -8.960790e-04 -2.667345e-04 5.366148e-04 -6.250685e-05 6.629154e-05 7.299176e-04 2.599612e-04 2.150310e-04 4.278908e-05 -7.166866e-06 -7.366442e-06 -4.091617e-05 9.469121e-08 8.796731e-06 5.947863e-06 -1.095528e-06 -1.429331e-05 -1.578682e-05 -2.992618e-06 7.773454e-06 1.040377e-05 -6.564504e-06 2.168372e-06 4.386669e-06 1.266359e-05 1.339923e-05 3.984654e-06 -6.318734e-06 -1.437613e-05 1.464688e-05 6.719832e-06 -1.754292e-06 -5.992690e-06 -6.210734e-06 -1.333694e-05 -6.208460e-06 -4.671377e-06 1.199772e-05 -2.405842e-06 -2.009649e-06 -4.084768e-06 -2.011981e-06 6.721010e-06 2.567286e-06 1.483742e-06 -1.416232e-05 -2.388233e-05 -8.714695e-06 -2.501834e-06
<VARIANCE> 52
 9.792794e-01 9.726741e-01 9.713812e-01 9.725963e-01 9.705378e-01 9.704235e-01 9.705274e-01 9.702647e-01 9.706458e-01 9.704003e-01 9.705229e-01 9.700693e-01 9.703734e-01 9.670020e-01 9.629893e-01 9.649230e-01 9.651484e-01 9.652831e-01 9.664409e-01 9.671099e-01 9.670829e-01 9.672278e-01 9.676865e-01 9.677585e-01 9.679267e-01 9.678577e-01 9.669301e-01 9.636205e-01 9.652336e-01 9.662419e-01 9.664491e-01 9.671448e-01 9.675731e-01 9.675267e-01 9.677964e-01 9.681836e-01 9.682237e-01 9.683940e-01 9.683627e-01 9.665712e-01 9.635960e-01 9.649717e-01 9.660559e-01 9.663749e-01 9.671842e-01 9.676082e-01 9.676264e-01 9.678405e-01 9.682605e-01 9.683071e-01 9.684421e-01 9.683972e-01
<GCONST> 9.387930e+01
<TRANSP> 5
 0.000000e+00 1.000000e+00 0.000000e+00 0.000000e+00 0.000000e+00
 0.000000e+00 6.000000e-01 4.000000e-01 0.000000e+00 0.000000e+00
 0.000000e+00 0.000000e+00 6.000000e-01 4.000000e-01 0.000000e+00
 0.000000e+00 0.000000e+00 0.000000e+00 6.000000e-01 4.000000e-01
 0.000000e+00 0.000000e+00 0.000000e+00 0.000000e+00 0.000000e+00
<ENDHMM>
~h "EO"
<BEGINHMM>
<NUMSTATES> 5
<STATE> 2
<MEAN> 52
 -2.490184e-03 -1.243188e-03 -1.128301e-05 -8.960790e-04 -2.667345e-04 5.366148e-04 -6.250685e-05 6.629154e-05 7.299176e-04 2.599612e-04 2.150310e-04 4.278908e-05 -7.166866e-06 -7.366442e-06 -4.091617e-05 9.469121e-08 8.796731e-06 5.947863e-06 -1.095528e-06 -1.429331e-05 -1.578682e-05 -2.992618e-06 7.773454e-06 1.040377e-05 -6.564504e-06 2.168372e-06 4.386669e-06 1.266359e-05 1.339923e-05 3.984654e-06 -6.318734e-06 -1.437613e-05 1.464688e-05 6.719832e-06 -1.754292e-06 -5.992690e-06 -6.210734e-06 -1.333694e-05 -6.208460e-06 -4.671377e-06 1.199772e-05 -2.405842e-06 -2.009649e-06 -4.084768e-06 -2.011981e-06 6.721010e-06 2.567286e-06 1.483742e-06 -1.416232e-05 -2.388233e-05 -8.714695e-06 -2.501834e-06
<VARIANCE> 52
 9.792794e-01 9.726741e-01 9.713812e-01 9.725963e-01 9.705378e-01 9.704235e-01 9.705274e-01 9.702647e-01 9.706458e-01 9.704003e-01 9.705229e-01 9.700693e-01 9.703734e-01 9.670020e-01 9.629893e-01 9.649230e-01 9.651484e-01 9.652831e-01 9.664409e-01 9.671099e-01 9.670829e-01 9.672278e-01 9.676865e-01 9.677585e-01 9.679267e-01 9.678577e-01 9.669301e-01 9.636205e-01 9.652336e-01 9.662419e-01 9.664491e-01 9.671448e-01 9.675731e-01 9.675267e-01 9.677964e-01 9.681836e-01 9.682237e-01 9.683940e-01 9.683627e-01 9.665712e-01 9.635960e-01 9.649717e-01 9.660559e-01 9.663749e-01 9.671842e-01 9.676082e-01 9.676264e-01 9.678405e-01 9.682605e-01 9.683071e-01 9.684421e-01 9.683972e-01
<GCONST> 9.387930e+01
<STATE> 3
<MEAN> 52
 -2.490184e-03 -1.243188e-03 -1.128301e-05 -8.960790e-04 -2.667345e-04 5.366148e-04 -6.250685e-05 6.629154e-05 7.299176e-04 2.599612e-04 2.150310e-04 4.278908e-05 -7.166866e-06 -7.366442e-06 -4.091617e-05 9.469121e-08 8.796731e-06 5.947863e-06 -1.095528e-06 -1.429331e-05 -1.578682e-05 -2.992618e-06 7.773454e-06 1.040377e-05 -6.564504e-06 2.168372e-06 4.386669e-06 1.266359e-05 1.339923e-05 3.984654e-06 -6.318734e-06 -1.437613e-05 1.464688e-05 6.719832e-06 -1.754292e-06 -5.992690e-06 -6.210734e-06 -1.333694e-05 -6.208460e-06 -4.671377e-06 1.199772e-05 -2.405842e-06 -2.009649e-06 -4.084768e-06 -2.011981e-06 6.721010e-06 2.567286e-06 1.483742e-06 -1.416232e-05 -2.388233e-05 -8.714695e-06 -2.501834e-06
<VARIANCE> 52
 9.792794e-01 9.726741e-01 9.713812e-01 9.725963e-01 9.705378e-01 9.704235e-01 9.705274e-01 9.702647e-01 9.706458e-01 9.704003e-01 9.705229e-01 9.700693e-01 9.703734e-01 9.670020e-01 9.629893e-01 9.649230e-01 9.651484e-01 9.652831e-01 9.664409e-01 9.671099e-01 9.670829e-01 9.672278e-01 9.676865e-01 9.677585e-01 9.679267e-01 9.678577e-01 9.669301e-01 9.636205e-01 9.652336e-01 9.662419e-01 9.664491e-01 9.671448e-01 9.675731e-01 9.675267e-01 9.677964e-01 9.681836e-01 9.682237e-01 9.683940e-01 9.683627e-01 9.665712e-01 9.635960e-01 9.649717e-01 9.660559e-01 9.663749e-01 9.671842e-01 9.676082e-01 9.676264e-01 9.678405e-01 9.682605e-01 9.683071e-01 9.684421e-01 9.683972e-01
<GCONST> 9.387930e+01
<STATE> 4
<MEAN> 52
 -2.490184e-03 -1.243188e-03 -1.128301e-05 -8.960790e-04 -2.667345e-04 5.366148e-04 -6.250685e-05 6.629154e-05 7.299176e-04 2.599612e-04 2.150310e-04 4.278908e-05 -7.166866e-06 -7.366442e-06 -4.091617e-05 9.469121e-08 8.796731e-06 5.947863e-06 -1.095528e-06 -1.429331e-05 -1.578682e-05 -2.992618e-06 7.773454e-06 1.040377e-05 -6.564504e-06 2.168372e-06 4.386669e-06 1.266359e-05 1.339923e-05 3.984654e-06 -6.318734e-06 -1.437613e-05 1.464688e-05 6.719832e-06 -1.754292e-06 -5.992690e-06 -6.210734e-06 -1.333694e-05 -6.208460e-06 -4.671377e-06 1.199772e-05 -2.405842e-06 -2.009649e-06 -4.084768e-06 -2.011981e-06 6.721010e-06 2.567286e-06 1.483742e-06 -1.416232e-05 -2.388233e-05 -8.714695e-06 -2.501834e-06
<VARIANCE> 52
 9.792794e-01 9.726741e-01 9.713812e-01 9.725963e-01 9.705378e-01 9.704235e-01 9.705274e-01 9.702647e-01 9.706458e-01 9.704003e-01 9.705229e-01 9.700693e-01 9.703734e-01 9.670020e-01 9.629893e-01 9.649230e-01 9.651484e-01 9.652831e-01 9.664409e-01 9.671099e-01 9.670829e-01 9.672278e-01 9.676865e-01 9.677585e-01 9.679267e-01 9.678577e-01 9.669301e-01 9.636205e-01 9.652336e-01 9.662419e-01 9.664491e-01 9.671448e-01 9.675731e-01 9.675267e-01 9.677964e-01 9.681836e-01 9.682237e-01 9.683940e-01 9.683627e-01 9.665712e-01 9.635960e-01 9.649717e-01 9.660559e-01 9.663749e-01 9.671842e-01 9.676082e-01 9.676264e-01 9.678405e-01 9.682605e-01 9.683071e-01 9.684421e-01 9.683972e-01
<GCONST> 9.387930e+01
<TRANSP> 5
 0.000000e+00 1.000000e+00 0.000000e+00 0.000000e+00 0.000000e+00
 0.000000e+00 6.000000e-01 4.000000e-01 0.000000e+00 0.000000e+00
 0.000000e+00 0.000000e+00 6.000000e-01 4.000000e-01 0.000000e+00
 0.000000e+00 0.000000e+00 0.000000e+00 6.000000e-01 4.000000e-01
 0.000000e+00 0.000000e+00 0.000000e+00 0.000000e+00 0.000000e+00
<ENDHMM>
