~h "U"
<BEGINHMM>
<NUMSTATES> 5
<STATE> 2
<MEAN> 52
 -2.295696e-03 -9.748086e-04 -8.065414e-05 -6.307599e-04 6.933094e-04 4.412487e-04 1.532098e-04 8.454637e-04 6.168885e-05 2.390285e-06 -2.048244e-04 1.025136e-04 -9.287726e-05 -1.136616e-06 -1.517374e-05 -1.279245e-05 -7.192986e-07 -9.521683e-06 -2.694962e-05 -8.763505e-06 -4.900316e-06 6.621045e-06 2.562404e-05 2.862874e-05 2.267435e-05 7.413362e-06 8.747889e-06 -8.552009e-07 7.153956e-06 -1.176737e-05 7.568835e-07 6.380189e-07 1.556078e-05 8.575757e-06 4.610412e-06 -8.782049e-06 -3.766749e-08 -1.230770e-06 -7.714943e-06 -1.603113e-06 -3.685607e-06 5.249584e-06 -1.402094e-06 9.696504e-06 1.511962e-05 -5.442365e-06 6.285468e-06 -6.728450e-06 -2.180349e-05 -2.261997e-05 -8.943401e-06 -3.105862e-06
<VARIANCE> 52
 9.829098e-01 9.745913e-01 9.740343e-01 9.747845e-01 9.734353e-01 9.731892e-01 9.732109e-01 9.738447e-01 9.731560e-01 9.731390e-01 9.733835e-01 9.728883e-01 9.731820e-01 9.709505e-01 9.666460e-01 9.682353e-01 9.678358e-01 9.685750e-01 9.694769e-01 9.696730e-01 9.700511e-01 9.701170e-01 9.705568e-01 9.709010e-01 9.709373e-01 9.708119e-01 9.705688e-01 9.672188e-01 9.684679e-01 9.689111e-01 9.695216e-01 9.698885e-01 9.702106e-01 9.706249e-01 9.708186e-01 9.710845e-01 9.713466e-01 9.713874e-01 9.713685e-01 9.698547e-01 9.669673e-01 9.682876e-01 9.687494e-01 9.694135e-01 9.699330e-01 9.703074e-01 9.705701e-01 9.709715e-01 9.711851e-01 9.714155e-01 9.713674e-01 9.713087e-01
<GCONST> 9.403939e+01
<STATE> 3
<MEAN> 52
 -2.295696e-03 -9.748086e-04 -8.065414e-05 -6.307599e-04 6.933094e-04 4.412487e-04 1.532098e-04 8.454637e-04 6.168885e-05 2.390285e-06 -2.048244e-04 1.025136e-04 -9.287726e-05 -1.136616e-06 -1.517374e-05 -1.279245e-05 -7.192986e-07 -9.521683e-06 -2.694962e-05 -8.763505e-06 -4.900316e-06 6.621045e-06 2.562404e-05 2.862874e-05 2.267435e-05 7.413362e-06 8.747889e-06 -8.552009e-07 7.153956e-06 -1.176737e-05 7.568835e-07 6.380189e-07 1.556078e-05 8.575757e-06 4.610412e-06 -8.782049e-06 -3.766749e-08 -1.230770e-06 -7.714943e-06 -1.603113e-06 -3.685607e-06 5.249584e-06 -1.402094e-06 9.696504e-06 1.511962e-05 -5.442365e-06 6.285468e-06 -6.728450e-06 -2.180349e-05 -2.261997e-05 -8.943401e-06 -3.105862e-06
<VARIANCE> 52
 9.829098e-01 9.745913e-01 9.740343e-01 9.747845e-01 9.734353e-01 9.731892e-01 9.732109e-01 9.738447e-01 9.731560e-01 9.731390e-01 9.733835e-01 9.728883e-01 9.731820e-01 9.709505e-01 9.666460e-01 9.682353e-01 9.678358e-01 9.685750e-01 9.694769e-01 9.696730e-01 9.700511e-01 9.701170e-01 9.705568e-01 9.709010e-01 9.709373e-01 9.708119e-01 9.705688e-01 9.672188e-01 9.684679e-01 9.689111e-01 9.695216e-01 9.698885e-01 9.702106e-01 9.706249e-01 9.708186e-01 9.710845e-01 9.713466e-01 9.713874e-01 9.713685e-01 9.698547e-01 9.669673e-01 9.682876e-01 9.687494e-01 9.694135e-01 9.699330e-01 9.703074e-01 9.705701e-01 9.709715e-01 9.711851e-01 9.714155e-01 9.713674e-01 9.713087e-01
<GCONST> 9.403939e+01
<STATE> 4
<MEAN> 52
 -2.295696e-03 -9.748086e-04 -8.065414e-05 -6.307599e-04 6.933094e-04 4.412487e-04 1.532098e-04 8.454637e-04 6.168885e-05 2.390285e-06 -2.048244e-04 1.025136e-04 -9.287726e-05 -1.136616e-06 -1.517374e-05 -1.279245e-05 -7.192986e-07 -9.521683e-06 -2.694962e-05 -8.763505e-06 -4.900316e-06 6.621045e-06 2.562404e-05 2.862874e-05 2.267435e-05 7.413362e-06 8.747889e-06 -8.552009e-07 7.153956e-06 -1.176737e-05 7.568835e-07 6.380189e-07 1.556078e-05 8.575757e-06 4.610412e-06 -8.782049e-06 -3.766749e-08 -1.230770e-06 -7.714943e-06 -1.603113e-06 -3.685607e-06 5.249584e-06 -1.402094e-06 9.696504e-06 1.511962e-05 -5.442365e-06 6.285468e-06 -6.728450e-06 -2.180349e-05 -2.261997e-05 -8.943401e-06 -3.105862e-06
<VARIANCE> 52
 9.829098e-01 9.745913e-01 9.740343e-01 9.747845e-01 9.734353e-01 9.731892e-01 9.732109e-01 9.738447e-01 9.731560e-01 9.731390e-01 9.733835e-01 9.728883e-01 9.731820e-01 9.709505e-01 9.666460e-01 9.682353e-01 9.678358e-01 9.685750e-01 9.694769e-01 9.696730e-01 9.700511e-01 9.701170e-01 9.705568e-01 9.709010e-01 9.709373e-01 9.708119e-01 9.705688e-01 9.672188e-01 9.684679e-01 9.689111e-01 9.695216e-01 9.698885e-01 9.702106e-01 9.706249e-01 9.708186e-01 9.710845e-01 9.713466e-01 9.713874e-01 9.713685e-01 9.698547e-01 9.669673e-01 9.682876e-01 9.687494e-01 9.694135e-01 9.699330e-01 9.703074e-01 9.705701e-01 9.709715e-01 9.711851e-01 9.714155e-01 9.713674e-01 9.713087e-01
<GCONST> 9.403939e+01
<TRANSP> 5
 0.000000e+00 1.000000e+00 0.000000e+00 0.000000e+00 0.000000e+00
 0.000000e+00 6.000000e-01 4.000000e-01 0.000000e+00 0.000000e+00
 0.000000e+00 0.000000e+00 6.000000e-01 4.000000e-01 0.000000e+00
 0.000000e+00 0.000000e+00 0.000000e+00 6.000000e-01 4.000000e-01
 0.000000e+00 0.000000e+00 0.000000e+00 0.000000e+00 0.000000e+00
<ENDHMM>
~h "J"
<BEGINHMM>
<NUMSTATES> 5
<STATE> 2
<MEAN> 52
 -2.295696e-03 -9.748086e-04 -8.065414e-05 -6.307599e-04 6.933094e-04 4.412487e-04 1.532098e-04 8.454637e-04 6.168885e-05 2.390285e-06 -2.048244e-04 1.025136e-04 -9.287726e-05 -1.136616e-06 -1.517374e-05 -1.279245e-05 -7.192986e-07 -9.521683e-06 -2.694962e-05 -8.763505e-06 -4.900316e-06 6.621045e-06 2.562404e-05 2.862874e-05 2.267435e-05 7.413362e-06 8.747889e-06 -8.552009e-07 7.153956e-06 -1.176737e-05 7.568835e-07 6.380189e-07 1.556078e-05 8.575757e-06 4.610412e-06 -8.782049e-06 -3.766749e-08 -1.230770e-06 -7.714943e-06 -1.603113e-06 -3.685607e-06 5.249584e-06 -1.402094e-06 9.696504e-06 1.511962e-05 -5.442365e-06 6.285468e-06 -6.728450e-06 -2.180349e-05 -2.261997e-05 -8.943401e-06 -3.105862e-06
<VARIANCE> 52
 9.829098e-01 9.745913e-01 9.740343e-01 9.747845e-01 9.734353e-01 9.731892e-01 9.732109e-01 9.738447e-01 9.731560e-01 9.731390e-01 9.733835e-01 9.728883e-01 9.731820e-01 9.709505e-01 9.666460e-01 9.682353e-01 9.678358e-01 9.685750e-01 9.694769e-01 9.696730e-01 9.700511e-01 9.701170e-01 9.705568e-01 9.709010e-01 9.709373e-01 9.708119e-01 9.705688e-01 9.672188e-01 9.684679e-01 9.689111e-01 9.695216e-01 9.698885e-01 9.702106e-01 9.706249e-01 9.708186e-01 9.710845e-01 9.713466e-01 9.713874e-01 9.713685e-01 9.698547e-01 9.669673e-01 9.682876e-01 9.687494e-01 9.694135e-01 9.699330e-01 9.703074e-01 9.705701e-01 9.709715e-01 9.711851e-01 9.714155e-01 9.713674e-01 9.713087e-01
<GCONST> 9.403939e+01
<STATE> 3
<MEAN> 52
 -2.295696e-03 -9.748086e-04 -8.065414e-05 -6.307599e-04 6.933094e-04 4.412487e-04 1.532098e-04 8.454637e-04 6.168885e-05 2.390285e-06 -2.048244e-04 1.025136e-04 -9.287726e-05 -1.136616e-06 -1.517374e-05 -1.279245e-05 -7.192986e-07 -9.521683e-06 -2.694962e-05 -8.763505e-06 -4.900316e-06 6.621045e-06 2.562404e-05 2.862874e-05 2.267435e-05 7.413362e-06 8.747889e-06 -8.552009e-07 7.153956e-06 -1.176737e-05 7.568835e-07 6.380189e-07 1.556078e-05 8.575757e-06 4.610412e-06 -8.782049e-06 -3.766749e-08 -1.230770e-06 -7.714943e-06 -1.603113e-06 -3.685607e-06 5.249584e-06 -1.402094e-06 9.696504e-06 1.511962e-05 -5.442365e-06 6.285468e-06 -6.728450e-06 -2.180349e-05 -2.261997e-05 -8.943401e-06 -3.105862e-06
<VARIANCE> 52
 9.829098e-01 9.745913e-01 9.740343e-01 9.747845e-01 9.734353e-01 9.731892e-01 9.732109e-01 9.738447e-01 9.731560e-01 9.731390e-01 9.733835e-01 9.728883e-01 9.731820e-01 9.709505e-01 9.666460e-01 9.682353e-01 9.678358e-01 9.685750e-01 9.694769e-01 9.696730e-01 9.700511e-01 9.701170e-01 9.705568e-01 9.709010e-01 9.709373e-01 9.708119e-01 9.705688e-01 9.672188e-01 9.684679e-01 9.689111e-01 9.695216e-01 9.698885e-01 9.702106e-01 9.706249e-01 9.708186e-01 9.710845e-01 9.713466e-01 9.713874e-01 9.713685e-01 9.698547e-01 9.669673e-01 9.682876e-01 9.687494e-01 9.694135e-01 9.699330e-01 9.703074e-01 9.705701e-01 9.709715e-01 9.711851e-01 9.714155e-01 9.713674e-01 9.713087e-01
<GCONST> 9.403939e+01
<STATE> 4
<MEAN> 52
 -2.295696e-03 -9.748086e-04 -8.065414e-05 -6.307599e-04 6.933094e-04 4.412487e-04 1.532098e-04 8.454637e-04 6.168885e-05 2.390285e-06 -2.048244e-04 1.025136e-04 -9.287726e-05 -1.136616e-06 -1.517374e-05 -1.279245e-05 -7.192986e-07 -9.521683e-06 -2.694962e-05 -8.763505e-06 -4.900316e-06 6.621045e-06 2.562404e-05 2.862874e-05 2.267435e-05 7.413362e-06 8.747889e-06 -8.552009e-07 7.153956e-06 -1.176737e-05 7.568835e-07 6.380189e-07 1.556078e-05 8.575757e-06 4.610412e-06 -8.782049e-06 -3.766749e-08 -1.230770e-06 -7.714943e-06 -1.603113e-06 -3.685607e-06 5.249584e-06 -1.402094e-06 9.696504e-06 1.511962e-05 -5.442365e-06 6.285468e-06 -6.728450e-06 -2.180349e-05 -2.261997e-05 -8.943401e-06 -3.105862e-06
<VARIANCE> 52
 9.829098e-01 9.745913e-01 9.740343e-01 9.747845e-01 9.734353e-01 9.731892e-01 9.732109e-01 9.738447e-01 9.731560e-01 9.731390e-01 9.733835e-01 9.728883e-01 9.731820e-01 9.709505e-01 9.666460e-01 9.682353e-01 9.678358e-01 9.685750e-01 9.694769e-01 9.696730e-01 9.700511e-01 9.701170e-01 9.705568e-01 9.709010e-01 9.709373e-01 9.708119e-01 9.705688e-01 9.672188e-01 9.684679e-01 9.689111e-01 9.695216e-01 9.698885e-01 9.702106e-01 9.706249e-01 9.708186e-01 9.710845e-01 9.713466e-01 9.713874e-01 9.713685e-01 9.698547e-01 9.669673e-01 9.682876e-01 9.687494e-01 9.694135e-01 9.699330e-01 9.703074e-01 9.705701e-01 9.709715e-01 9.711851e-01 9.714155e-01 9.713674e-01 9.713087e-01
<GCONST> 9.403939e+01
<TRANSP> 5
 0.000000e+00 1.000000e+00 0.000000e+00 0.000000e+00 0.000000e+00
 0.000000e+00 6.000000e-01 4.000000e-01 0.000000e+00 0.000000e+00
 0.000000e+00 0.000000e+00 6.000000e-01 4.000000e-01 0.000000e+00
 0.000000e+00 0.000000e+00 0.000000e+00 6.000000e-01 4.000000e-01
 0.000000e+00 0.000000e+00 0.000000e+00 0.000000e+00 0.000000e+00
<ENDHMM>
~h "EU"
<BEGINHMM>
<NUMSTATES> 5
<STATE> 2
<MEAN> 52
 -2.295696e-03 -9.748086e-04 -8.065414e-05 -6.307599e-04 6.933094e-04 4.412487e-04 1.532098e-04 8.454637e-04 6.168885e-05 2.390285e-06 -2.048244e-04 1.025136e-04 -9.287726e-05 -1.136616e-06 -1.517374e-05 -1.279245e-05 -7.192986e-07 -9.521683e-06 -2.694962e-05 -8.763505e-06 -4.900316e-06 6.621045e-06 2.562404e-05 2.862874e-05 2.267435e-05 7.413362e-06 8.747889e-06 -8.552009e-07 7.153956e-06 -1.176737e-05 7.568835e-07 6.380189e-07 1.556078e-05 8.575757e-06 4.610412e-06 -8.782049e-06 -3.766749e-08 -1.230770e-06 -7.714943e-06 -1.603113e-06 -3.685607e-06 5.249584e-06 -1.402094e-06 9.696504e-06 1.511962e-05 -5.442365e-06 6.285468e-06 -6.728450e-06 -2.180349e-05 -2.261997e-05 -8.943401e-06 -3.105862e-06
<VARIANCE> 52
 9.829098e-01 9.745913e-01 9.740343e-01 9.747845e-01 9.734353e-01 9.731892e-01 9.732109e-01 9.738447e-01 9.731560e-01 9.731390e-01 9.733835e-01 9.728883e-01 9.731820e-01 9.709505e-01 9.666460e-01 9.682353e-01 9.678358e-01 9.685750e-01 9.694769e-01 9.696730e-01 9.700511e-01 9.701170e-01 9.705568e-01 9.709010e-01 9.709373e-01 9.708119e-01 9.705688e-01 9.672188e-01 9.684679e-01 9.689111e-01 9.695216e-01 9.698885e-01 9.702106e-01 9.706249e-01 9.708186e-01 9.710845e-01 9.713466e-01 9.713874e-01 9.713685e-01 9.698547e-01 9.669673e-01 9.682876e-01 9.687494e-01 9.694135e-01 9.699330e-01 9.703074e-01 9.705701e-01 9.709715e-01 9.711851e-01 9.714155e-01 9.713674e-01 9.713087e-01
<GCONST> 9.403939e+01
<STATE> 3
<MEAN> 52
 -2.295696e-03 -9.748086e-04 -8.065414e-05 -6.307599e-04 6.933094e-04 4.412487e-04 1.532098e-04 8.454637e-04 6.168885e-05 2.390285e-06 -2.048244e-04 1.025136e-04 -9.287726e-05 -1.136616e-06 -1.517374e-05 -1.279245e-05 -7.192986e-07 -9.521683e-06 -2.694962e-05 -8.763505e-06 -4.900316e-06 6.621045e-06 2.562404e-05 2.862874e-05 2.267435e-05 7.413362e-06 8.747889e-06 -8.552009e-07 7.153956e-06 -1.176737e-05 7.568835e-07 6.380189e-07 1.556078e-05 8.575757e-06 4.610412e-06 -8.782049e-06 -3.766749e-08 -1.230770e-06 -7.714943e-06 -1.603113e-06 -3.685607e-06 5.249584e-06 -1.402094e-06 9.696504e-06 1.511962e-05 -5.442365e-06 6.285468e-06 -6.728450e-06 -2.180349e-05 -2.261997e-05 -8.943401e-06 -3.105862e-06
<VARIANCE> 52
 9.829098e-01 9.745913e-01 9.740343e-01 9.747845e-01 9.734353e-01 9.731892e-01 9.732109e-01 9.738447e-01 9.731560e-01 9.731390e-01 9.733835e-01 9.728883e-01 9.731820e-01 9.709505e-01 9.666460e-01 9.682353e-01 9.678358e-01 9.685750e-01 9.694769e-01 9.696730e-01 9.700511e-01 9.701170e-01 9.705568e-01 9.709010e-01 9.709373e-01 9.708119e-01 9.705688e-01 9.672188e-01 9.684679e-01 9.689111e-01 9.695216e-01 9.698885e-01 9.702106e-01 9.706249e-01 9.708186e-01 9.710845e-01 9.713466e-01 9.713874e-01 9.713685e-01 9.698547e-01 9.669673e-01 9.682876e-01 9.687494e-01 9.694135e-01 9.699330e-01 9.703074e-01 9.705701e-01 9.709715e-01 9.711851e-01 9.714155e-01 9.713674e-01 9.713087e-01
<GCONST> 9.403939e+01
<STATE> 4
<MEAN> 52
 -2.295696e-03 -9.748086e-04 -8.065414e-05 -6.307599e-04 6.933094e-04 4.412487e-04 1.532098e-04 8.454637e-04 6.168885e-05 2.390285e-06 -2.048244e-04 1.025136e-04 -9.287726e-05 -1.136616e-06 -1.517374e-05 -1.279245e-05 -7.192986e-07 -9.521683e-06 -2.694962e-05 -8.763505e-06 -4.900316e-06 6.621045e-06 2.562404e-05 2.862874e-05 2.267435e-05 7.413362e-06 8.747889e-06 -8.552009e-07 7.153956e-06 -1.176737e-05 7.568835e-07 6.380189e-07 1.556078e-05 8.575757e-06 4.610412e-06 -8.782049e-06 -3.766749e-08 -1.230770e-06 -7.714943e-06 -1.603113e-06 -3.685607e-06 5.249584e-06 -1.402094e-06 9.696504e-06 1.511962e-05 -5.442365e-06 6.285468e-06 -6.728450e-06 -2.180349e-05 -2.261997e-05 -8.943401e-06 -3.105862e-06
<VARIANCE> 52
 9.829098e-01 9.745913e-01 9.740343e-01 9.747845e-01 9.734353e-01 9.731892e-01 9.732109e-01 9.738447e-01 9.731560e-01 9.731390e-01 9.733835e-01 9.728883e-01 9.731820e-01 9.709505e-01 9.666460e-01 9.682353e-01 9.678358e-01 9.685750e-01 9.694769e-01 9.696730e-01 9.700511e-01 9.701170e-01 9.705568e-01 9.709010e-01 9.709373e-01 9.708119e-01 9.705688e-01 9.672188e-01 9.684679e-01 9.689111e-01 9.695216e-01 9.698885e-01 9.702106e-01 9.706249e-01 9.708186e-01 9.710845e-01 9.713466e-01 9.713874e-01 9.713685e-01 9.698547e-01 9.669673e-01 9.682876e-01 9.687494e-01 9.694135e-01 9.699330e-01 9.703074e-01 9.705701e-01 9.709715e-01 9.711851e-01 9.714155e-01 9.713674e-01 9.713087e-01
<GCONST> 9.403939e+01
<TRANSP> 5
 0.000000e+00 1.000000e+00 0.000000e+00 0.000000e+00 0.000000e+00
 0.000000e+00 6.000000e-01 4.000000e-01 0.000000e+00 0.000000e+00
 0.000000e+00 0.000000e+00 6.000000e-01 4.000000e-01 0.000000e+00
 0.000000e+00 0.000000e+00 0.000000e+00 6.000000e-01 4.000000e-01
 0.000000e+00 0.000000e+00 0.000000e+00 0.000000e+00 0.000000e+00
<ENDHMM>
~h "T"
<BEGINHMM>
<NUMSTATES> 5
<STATE> 2
<MEAN> 52
 -2.295696e-03 -9.748086e-04 -8.065414e-05 -6.307599e-04 6.933094e-04 4.412487e-04 1.532098e-04 8.454637e-04 6.168885e-05 2.390285e-06 -2.048244e-04 1.025136e-04 -9.287726e-05 -1.136616e-06 -1.517374e-05 -1.279245e-05 -7.192986e-07 -9.521683e-06 -2.694962e-05 -8.763505e-06 -4.900316e-06 6.621045e-06 2.562404e-05 2.862874e-05 2.267435e-05 7.413362e-06 8.747889e-06 -8.552009e-07 7.153956e-06 -1.176737e-05 7.568835e-07 6.380189e-07 1.556078e-05 8.575757e-06 4.610412e-06 -8.782049e-06 -3.766749e-08 -1.230770e-06 -7.714943e-06 -1.603113e-06 -3.685607e-06 5.249584e-06 -1.402094e-06 9.696504e-06 1.511962e-05 -5.442365e-06 6.285468e-06 -6.728450e-06 -2.180349e-05 -2.261997e-05 -8.943401e-06 -3.105862e-06
<VARIANCE> 52
 9.829098e-01 9.745913e-01 9.740343e-01 9.747845e-01 9.734353e-01 9.731892e-01 9.732109e-01 9.738447e-01 9.731560e-01 9.731390e-01 9.733835e-01 9.728883e-01 9.731820e-01 9.709505e-01 9.666460e-01 9.682353e-01 9.678358e-01 9.685750e-01 9.694769e-01 9.696730e-01 9.700511e-01 9.701170e-01 9.705568e-01 9.709010e-01 9.709373e-01 9.708119e-01 9.705688e-01 9.672188e-01 9.684679e-01 9.689111e-01 9.695216e-01 9.698885e-01 9.702106e-01 9.706249e-01 9.708186e-01 9.710845e-01 9.713466e-01 9.713874e-01 9.713685e-01 9.698547e-01 9.669673e-01 9.682876e-01 9.687494e-01 9.694135e-01 9.699330e-01 9.703074e-01 9.705701e-01 9.709715e-01 9.711851e-01 9.714155e-01 9.713674e-01 9.713087e-01
<GCONST> 9.403939e+01
<STATE> 3
<MEAN> 52
 -2.295696e-03 -9.748086e-04 -8.065414e-05 -6.307599e-04 6.933094e-04 4.412487e-04 1.532098e-04 8.454637e-04 6.168885e-05 2.390285e-06 -2.048244e-04 1.025136e-04 -9.287726e-05 -1.136616e-06 -1.517374e-05 -1.279245e-05 -7.192986e-07 -9.521683e-06 -2.694962e-05 -8.763505e-06 -4.900316e-06 6.621045e-06 2.562404e-05 2.862874e-05 2.267435e-05 7.413362e-06 8.747889e-06 -8.552009e-07 7.153956e-06 -1.176737e-05 7.568835e-07 6.380189e-07 1.556078e-05 8.575757e-06 4.610412e-06 -8.782049e-06 -3.766749e-08 -1.230770e-06 -7.714943e-06 -1.603113e-06 -3.685607e-06 5.249584e-06 -1.402094e-06 9.696504e-06 1.511962e-05 -5.442365e-06 6.285468e-06 -6.728450e-06 -2.180349e-05 -2.261997e-05 -8.943401e-06 -3.105862e-06
<VARIANCE> 52
 9.829098e-01 9.745913e-01 9.740343e-01 9.747845e-01 9.734353e-01 9.731892e-01 9.732109e-01 9.738447e-01 9.731560e-01 9.731390e-01 9.733835e-01 9.728883e-01 9.731820e-01 9.709505e-01 9.666460e-01 9.682353e-01 9.678358e-01 9.685750e-01 9.694769e-01 9.696730e-01 9.700511e-01 9.701170e-01 9.705568e-01 9.709010e-01 9.709373e-01 9.708119e-01 9.705688e-01 9.672188e-01 9.684679e-01 9.689111e-01 9.695216e-01 9.698885e-01 9.702106e-01 9.706249e-01 9.708186e-01 9.710845e-01 9.713466e-01 9.713874e-01 9.713685e-01 9.698547e-01 9.669673e-01 9.682876e-01 9.687494e-01 9.694135e-01 9.699330e-01 9.703074e-01 9.705701e-01 9.709715e-01 9.711851e-01 9.714155e-01 9.713674e-01 9.713087e-01
<GCONST> 9.403939e+01
<STATE> 4
<MEAN> 52
 -2.295696e-03 -9.748086e-04 -8.065414e-05 -6.307599e-04 6.933094e-04 4.412487e-04 1.532098e-04 8.454637e-04 6.168885e-05 2.390285e-06 -2.048244e-04 1.025136e-04 -9.287726e-05 -1.136616e-06 -1.517374e-05 -1.279245e-05 -7.192986e-07 -9.521683e-06 -2.694962e-05 -8.763505e-06 -4.900316e-06 6.621045e-06 2.562404e-05 2.862874e-05 2.267435e-05 7.413362e-06 8.747889e-06 -8.552009e-07 7.153956e-06 -1.176737e-05 7.568835e-07 6.380189e-07 1.556078e-05 8.575757e-06 4.610412e-06 -8.782049e-06 -3.766749e-08 -1.230770e-06 -7.714943e-06 -1.603113e-06 -3.685607e-06 5.249584e-06 -1.402094e-06 9.696504e-06 1.511962e-05 -5.442365e-06 6.285468e-06 -6.728450e-06 -2.180349e-05 -2.261997e-05 -8.943401e-06 -3.105862e-06
<VARIANCE> 52
 9.829098e-01 9.745913e-01 9.740343e-01 9.747845e-01 9.734353e-01 9.731892e-01 9.732109e-01 9.738447e-01 9.731560e-01 9.731390e-01 9.733835e-01 9.728883e-01 9.731820e-01 9.709505e-01 9.666460e-01 9.682353e-01 9.678358e-01 9.685750e-01 9.694769e-01 9.696730e-01 9.700511e-01 9.701170e-01 9.705568e-01 9.709010e-01 9.709373e-01 9.708119e-01 9.705688e-01 9.672188e-01 9.684679e-01 9.689111e-01 9.695216e-01 9.698885e-01 9.702106e-01 9.706249e-01 9.708186e-01 9.710845e-01 9.713466e-01 9.713874e-01 9.713685e-01 9.698547e-01 9.669673e-01 9.682876e-01 9.687494e-01 9.694135e-01 9.699330e-01 9.703074e-01 9.705701e-01 9.709715e-01 9.711851e-01 9.714155e-01 9.713674e-01 9.713087e-01
<GCONST> 9.403939e+01
<TRANSP> 5
 0.000000e+00 1.000000e+00 0.000000e+00 0.000000e+00 0.000000e+00
 0.000000e+00 6.000000e-01 4.000000e-01 0.000000e+00 0.000000e+00
 0.000000e+00 0.000000e+00 6.000000e-01 4.000000e-01 0.000000e+00
 0.000000e+00 0.000000e+00 0.000000e+00 6.000000e-01 4.000000e-01
 0.000000e+00 0.000000e+00 0.000000e+00 0.000000e+00 0.000000e+00
<ENDHMM>
~h "O"
<BEGINHMM>
<NUMSTATES> 5
<STATE> 2
<MEAN> 52
 -2.295696e-03 -9.748086e-04 -8.065414e-05 -6.307599e-04 6.933094e-04 4.412487e-04 1.532098e-04 8.454637e-04 6.168885e-05 2.390285e-06 -2.048244e-04 1.025136e-04 -9.287726e-05 -1.136616e-06 -1.517374e-05 -1.279245e-05 -7.192986e-07 -9.521683e-06 -2.694962e-05 -8.763505e-06 -4.900316e-06 6.621045e-06 2.562404e-05 2.862874e-05 2.267435e-05 7.413362e-06 8.747889e-06 -8.552009e-07 7.153956e-06 -1.176737e-05 7.568835e-07 6.380189e-07 1.556078e-05 8.575757e-06 4.610412e-06 -8.782049e-06 -3.766749e-08 -1.230770e-06 -7.714943e-06 -1.603113e-06 -3.685607e-06 5.249584e-06 -1.402094e-06 9.696504e-06 1.511962e-05 -5.442365e-06 6.285468e-06 -6.728450e-06 -2.180349e-05 -2.261997e-05 -8.943401e-06 -3.105862e-06
<VARIANCE> 52
 9.829098e-01 9.745913e-01 9.740343e-01 9.747845e-01 9.734353e-01 9.731892e-01 9.732109e-01 9.738447e-01 9.731560e-01 9.731390e-01 9.733835e-01 9.728883e-01 9.731820e-01 9.709505e-01 9.666460e-01 9.682353e-01 9.678358e-01 9.685750e-01 9.694769e-01 9.696730e-01 9.700511e-01 9.701170e-01 9.705568e-01 9.709010e-01 9.709373e-01 9.708119e-01 9.705688e-01 9.672188e-01 9.684679e-01 9.689111e-01 9.695216e-01 9.698885e-01 9.702106e-01 9.706249e-01 9.708186e-01 9.710845e-01 9.713466e-01 9.713874e-01 9.713685e-01 9.698547e-01 9.669673e-01 9.682876e-01 9.687494e-01 9.694135e-01 9.699330e-01 9.703074e-01 9.705701e-01 9.709715e-01 9.711851e-01 9.714155e-01 9.713674e-01 9.713087e-01
<GCONST> 9.403939e+01
<STATE> 3
<MEAN> 52
 -2.295696e-03 -9.748086e-04 -8.065414e-05 -6.307599e-04 6.933094e-04 4.412487e-04 1.532098e-04 8.454637e-04 6.168885e-05 2.390285e-06 -2.048244e-04 1.025136e-04 -9.287726e-05 -1.136616e-06 -1.517374e-05 -1.279245e-05 -7.192986e-07 -9.521683e-06 -2.694962e-05 -8.763505e-06 -4.900316e-06 6.621045e-06 2.562404e-05 2.862874e-05 2.267435e-05 7.413362e-06 8.747889e-06 -8.552009e-07 7.153956e-06 -1.176737e-05 7.568835e-07 6.380189e-07 1.556078e-05 8.575757e-06 4.610412e-06 -8.782049e-06 -3.766749e-08 -1.230770e-06 -7.714943e-06 -1.603113e-06 -3.685607e-06 5.249584e-06 -1.402094e-06 9.696504e-06 1.511962e-05 -5.442365e-06 6.285468e-06 -6.728450e-06 -2.180349e-05 -2.261997e-05 -8.943401e-06 -3.105862e-06
<VARIANCE> 52
 9.829098e-01 9.745913e-01 9.740343e-01 9.747845e-01 9.734353e-01 9.731892e-01 9.732109e-01 9.738447e-01 9.731560e-01 9.731390e-01 9.733835e-01 9.728883e-01 9.731820e-01 9.709505e-01 9.666460e-01 9.682353e-01 9.678358e-01 9.685750e-01 9.694769e-01 9.696730e-01 9.700511e-01 9.701170e-01 9.705568e-01 9.709010e-01 9.709373e-01 9.708119e-01 9.705688e-01 9.672188e-01 9.684679e-01 9.689111e-01 9.695216e-01 9.698885e-01 9.702106e-01 9.706249e-01 9.708186e-01 9.710845e-01 9.713466e-01 9.713874e-01 9.713685e-01 9.698547e-01 9.669673e-01 9.682876e-01 9.687494e-01 9.694135e-01 9.699330e-01 9.703074e-01 9.705701e-01 9.709715e-01 9.711851e-01 9.714155e-01 9.713674e-01 9.713087e-01
<GCONST> 9.403939e+01
<STATE> 4
<MEAN> 52
 -2.295696e-03 -9.748086e-04 -8.065414e-05 -6.307599e-04 6.933094e-04 4.412487e-04 1.532098e-04 8.454637e-04 6.168885e-05 2.390285e-06 -2.048244e-04 1.025136e-04 -9.287726e-05 -1.136616e-06 -1.517374e-05 -1.279245e-05 -7.192986e-07 -9.521683e-06 -2.694962e-05 -8.763505e-06 -4.900316e-06 6.621045e-06 2.562404e-05 2.862874e-05 2.267435e-05 7.413362e-06 8.747889e-06 -8.552009e-07 7.153956e-06 -1.176737e-05 7.568835e-07 6.380189e-07 1.556078e-05 8.575757e-06 4.610412e-06 -8.782049e-06 -3.766749e-08 -1.230770e-06 -7.714943e-06 -1.603113e-06 -3.685607e-06 5.249584e-06 -1.402094e-06 9.696504e-06 1.511962e-05 -5.442365e-06 6.285468e-06 -6.728450e-06 -2.180349e-05 -2.261997e-05 -8.943401e-06 -3.105862e-06
<VARIANCE> 52
 9.829098e-01 9.745913e-01 9.740343e-01 9.747845e-01 9.734353e-01 9.731892e-01 9.732109e-01 9.738447e-01 9.731560e-01 9.731390e-01 9.733835e-01 9.728883e-01 9.731820e-01 9.709505e-01 9.666460e-01 9.682353e-01 9.678358e-01 9.685750e-01 9.694769e-01 9.696730e-01 9.700511e-01 9.701170e-01 9.705568e-01 9.709010e-01 9.709373e-01 9.708119e-01 9.705688e-01 9.672188e-01 9.684679e-01 9.689111e-01 9.695216e-01 9.698885e-01 9.702106e-01 9.706249e-01 9.708186e-01 9.710845e-01 9.713466e-01 9.713874e-01 9.713685e-01 9.698547e-01 9.669673e-01 9.682876e-01 9.687494e-01 9.694135e-01 9.699330e-01 9.703074e-01 9.705701e-01 9.709715e-01 9.711851e-01 9.714155e-01 9.713674e-01 9.713087e-01
<GCONST> 9.403939e+01
<TRANSP> 5
 0.000000e+00 1.000000e+00 0.000000e+00 0.000000e+00 0.000000e+00
 0.000000e+00 6.000000e-01 4.000000e-01 0.000000e+00 0.000000e+00
 0.000000e+00 0.000000e+00 6.000000e-01 4.000000e-01 0.000000e+00
 0.000000e+00 0.000000e+00 0.000000e+00 6.000000e-01 4.000000e-01
 0.000000e+00 0.000000e+00 0.000000e+00 0.000000e+00 0.000000e+00
<ENDHMM>
~h "S"
<BEGINHMM>
<NUMSTATES> 5
<STATE> 2
<MEAN> 52
 -2.295696e-03 -9.748086e-04 -8.065414e-05 -6.307599e-04 6.933094e-04 4.412487e-04 1.532098e-04 8.454637e-04 6.168885e-05 2.390285e-06 -2.048244e-04 1.025136e-04 -9.287726e-05 -1.136616e-06 -1.517374e-05 -1.279245e-05 -7.192986e-07 -9.521683e-06 -2.694962e-05 -8.763505e-06 -4.900316e-06 6.621045e-06 2.562404e-05 2.862874e-05 2.267435e-05 7.413362e-06 8.747889e-06 -8.552009e-07 7.153956e-06 -1.176737e-05 7.568835e-07 6.380189e-07 1.556078e-05 8.575757e-06 4.610412e-06 -8.782049e-06 -3.766749e-08 -1.230770e-06 -7.714943e-06 -1.603113e-06 -3.685607e-06 5.249584e-06 -1.402094e-06 9.696504e-06 1.511962e-05 -5.442365e-06 6.285468e-06 -6.728450e-06 -2.180349e-05 -2.261997e-05 -8.943401e-06 -3.105862e-06
<VARIANCE> 52
 9.829098e-01 9.745913e-01 9.740343e-01 9.747845e-01 9.734353e-01 9.731892e-01 9.732109e-01 9.738447e-01 9.731560e-01 9.731390e-01 9.733835e-01 9.728883e-01 9.731820e-01 9.709505e-01 9.666460e-01 9.682353e-01 9.678358e-01 9.685750e-01 9.694769e-01 9.696730e-01 9.700511e-01 9.701170e-01 9.705568e-01 9.709010e-01 9.709373e-01 9.708119e-01 9.705688e-01 9.672188e-01 9.684679e-01 9.689111e-01 9.695216e-01 9.698885e-01 9.702106e-01 9.706249e-01 9.708186e-01 9.710845e-01 9.713466e-01 9.713874e-01 9.713685e-01 9.698547e-01 9.669673e-01 9.682876e-01 9.687494e-01 9.694135e-01 9.699330e-01 9.703074e-01 9.705701e-01 9.709715e-01 9.711851e-01 9.714155e-01 9.713674e-01 9.713087e-01
<GCONST> 9.403939e+01
<STATE> 3
<MEAN> 52
 -2.295696e-03 -9.748086e-04 -8.065414e-05 -6.307599e-04 6.933094e-04 4.412487e-04 1.532098e-04 8.454637e-04 6.168885e-05 2.390285e-06 -2.048244e-04 1.025136e-04 -9.287726e-05 -1.136616e-06 -1.517374e-05 -1.279245e-05 -7.192986e-07 -9.521683e-06 -2.694962e-05 -8.763505e-06 -4.900316e-06 6.621045e-06 2.562404e-05 2.862874e-05 2.267435e-05 7.413362e-06 8.747889e-06 -8.552009e-07 7.153956e-06 -1.176737e-05 7.568835e-07 6.380189e-07 1.556078e-05 8.575757e-06 4.610412e-06 -8.782049e-06 -3.766749e-08 -1.230770e-06 -7.714943e-06 -1.603113e-06 -3.685607e-06 5.249584e-06 -1.402094e-06 9.696504e-06 1.511962e-05 -5.442365e-06 6.285468e-06 -6.728450e-06 -2.180349e-05 -2.261997e-05 -8.943401e-06 -3.105862e-06
<VARIANCE> 52
 9.829098e-01 9.745913e-01 9.740343e-01 9.747845e-01 9.734353e-01 9.731892e-01 9.732109e-01 9.738447e-01 9.731560e-01 9.731390e-01 9.733835e-01 9.728883e-01 9.731820e-01 9.709505e-01 9.666460e-01 9.682353e-01 9.678358e-01 9.685750e-01 9.694769e-01 9.696730e-01 9.700511e-01 9.701170e-01 9.705568e-01 9.709010e-01 9.709373e-01 9.708119e-01 9.705688e-01 9.672188e-01 9.684679e-01 9.689111e-01 9.695216e-01 9.698885e-01 9.702106e-01 9.706249e-01 9.708186e-01 9.710845e-01 9.713466e-01 9.713874e-01 9.713685e-01 9.698547e-01 9.669673e-01 9.682876e-01 9.687494e-01 9.694135e-01 9.699330e-01 9.703074e-01 9.705701e-01 9.709715e-01 9.711851e-01 9.714155e-01 9.713674e-01 9.713087e-01
<GCONST> 9.403939e+01
<STATE> 4
<MEAN> 52
 -2.295696e-03 -9.748086e-04 -8.065414e-05 -6.307599e-04 6.933094e-04 4.412487e-04 1.532098e-04 8.454637e-04 6.168885e-05 2.390285e-06 -2.048244e-04 1.025136e-04 -9.287726e-05 -1.136616e-06 -1.517374e-05 -1.279245e-05 -7.192986e-07 -9.521683e-06 -2.694962e-05 -8.763505e-06 -4.900316e-06 6.621045e-06 2.562404e-05 2.862874e-05 2.267435e-05 7.413362e-06 8.747889e-06 -8.552009e-07 7.153956e-06 -1.176737e-05 7.568835e-07 6.380189e-07 1.556078e-05 8.575757e-06 4.610412e-06 -8.782049e-06 -3.766749e-08 -1.230770e-06 -7.714943e-06 -1.603113e-06 -3.685607e-06 5.249584e-06 -1.402094e-06 9.696504e-06 1.511962e-05 -5.442365e-06 6.285468e-06 -6.728450e-06 -2.180349e-05 -2.261997e-05 -8.943401e-06 -3.105862e-06
<VARIANCE> 52
 9.829098e-01 9.745913e-01 9.740343e-01 9.747845e-01 9.734353e-01 9.731892e-01 9.732109e-01 9.738447e-01 9.731560e-01 9.731390e-01 9.733835e-01 9.728883e-01 9.731820e-01 9.709505e-01 9.666460e-01 9.682353e-01 9.678358e-01 9.685750e-01 9.694769e-01 9.696730e-01 9.700511e-01 9.701170e-01 9.705568e-01 9.709010e-01 9.709373e-01 9.708119e-01 9.705688e-01 9.672188e-01 9.684679e-01 9.689111e-01 9.695216e-01 9.698885e-01 9.702106e-01 9.706249e-01 9.708186e-01 9.710845e-01 9.713466e-01 9.713874e-01 9.713685e-01 9.698547e-01 9.669673e-01 9.682876e-01 9.687494e-01 9.694135e-01 9.699330e-01 9.703074e-01 9.705701e-01 9.709715e-01 9.711851e-01 9.714155e-01 9.713674e-01 9.713087e-01
<GCONST> 9.403939e+01
<TRANSP> 5
 0.000000e+00 1.000000e+00 0.000000e+00 0.000000e+00 0.000000e+00
 0.000000e+00 6.000000e-01 4.000000e-01 0.000000e+00 0.000000e+00
 0.000000e+00 0.000000e+00 6.000000e-01 4.000000e-01 0.000000e+00
 0.000000e+00 0.000000e+00 0.000000e+00 6.000000e-01 4.000000e-01
 0.000000e+00 0.000000e+00 0.000000e+00 0.000000e+00 0.000000e+00
<ENDHMM>
~h "K"
<BEGINHMM>
<NUMSTATES> 5
<STATE> 2
<MEAN> 52
 -2.295696e-03 -9.748086e-04 -8.065414e-05 -6.307599e-04 6.933094e-04 4.412487e-04 1.532098e-04 8.454637e-04 6.168885e-05 2.390285e-06 -2.048244e-04 1.025136e-04 -9.287726e-05 -1.136616e-06 -1.517374e-05 -1.279245e-05 -7.192986e-07 -9.521683e-06 -2.694962e-05 -8.763505e-06 -4.900316e-06 6.621045e-06 2.562404e-05 2.862874e-05 2.267435e-05 7.413362e-06 8.747889e-06 -8.552009e-07 7.153956e-06 -1.176737e-05 7.568835e-07 6.380189e-07 1.556078e-05 8.575757e-06 4.610412e-06 -8.782049e-06 -3.766749e-08 -1.230770e-06 -7.714943e-06 -1.603113e-06 -3.685607e-06 5.249584e-06 -1.402094e-06 9.696504e-06 1.511962e-05 -5.442365e-06 6.285468e-06 -6.728450e-06 -2.180349e-05 -2.261997e-05 -8.943401e-06 -3.105862e-06
<VARIANCE> 52
 9.829098e-01 9.745913e-01 9.740343e-01 9.747845e-01 9.734353e-01 9.731892e-01 9.732109e-01 9.738447e-01 9.731560e-01 9.731390e-01 9.733835e-01 9.728883e-01 9.731820e-01 9.709505e-01 9.666460e-01 9.682353e-01 9.678358e-01 9.685750e-01 9.694769e-01 9.696730e-01 9.700511e-01 9.701170e-01 9.705568e-01 9.709010e-01 9.709373e-01 9.708119e-01 9.705688e-01 9.672188e-01 9.684679e-01 9.689111e-01 9.695216e-01 9.698885e-01 9.702106e-01 9.706249e-01 9.708186e-01 9.710845e-01 9.713466e-01 9.713874e-01 9.713685e-01 9.698547e-01 9.669673e-01 9.682876e-01 9.687494e-01 9.694135e-01 9.699330e-01 9.703074e-01 9.705701e-01 9.709715e-01 9.711851e-01 9.714155e-01 9.713674e-01 9.713087e-01
<GCONST> 9.403939e+01
<STATE> 3
<MEAN> 52
 -2.295696e-03 -9.748086e-04 -8.065414e-05 -6.307599e-04 6.933094e-04 4.412487e-04 1.532098e-04 8.454637e-04 6.168885e-05 2.390285e-06 -2.048244e-04 1.025136e-04 -9.287726e-05 -1.136616e-06 -1.517374e-05 -1.279245e-05 -7.192986e-07 -9.521683e-06 -2.694962e-05 -8.763505e-06 -4.900316e-06 6.621045e-06 2.562404e-05 2.862874e-05 2.267435e-05 7.413362e-06 8.747889e-06 -8.552009e-07 7.153956e-06 -1.176737e-05 7.568835e-07 6.380189e-07 1.556078e-05 8.575757e-06 4.610412e-06 -8.782049e-06 -3.766749e-08 -1.230770e-06 -7.714943e-06 -1.603113e-06 -3.685607e-06 5.249584e-06 -1.402094e-06 9.696504e-06 1.511962e-05 -5.442365e-06 6.285468e-06 -6.728450e-06 -2.180349e-05 -2.261997e-05 -8.943401e-06 -3.105862e-06
<VARIANCE> 52
 9.829098e-01 9.745913e-01 9.740343e-01 9.747845e-01 9.734353e-01 9.731892e-01 9.732109e-01 9.738447e-01 9.731560e-01 9.731390e-01 9.733835e-01 9.728883e-01 9.731820e-01 9.709505e-01 9.666460e-01 9.682353e-01 9.678358e-01 9.685750e-01 9.694769e-01 9.696730e-01 9.700511e-01 9.701170e-01 9.705568e-01 9.709010e-01 9.709373e-01 9.708119e-01 9.705688e-01 9.672188e-01 9.684679e-01 9.689111e-01 9.695216e-01 9.698885e-01 9.702106e-01 9.706249e-01 9.708186e-01 9.710845e-01 9.713466e-01 9.713874e-01 9.713685e-01 9.698547e-01 9.669673e-01 9.682876e-01 9.687494e-01 9.694135e-01 9.699330e-01 9.703074e-01 9.705701e-01 9.709715e-01 9.711851e-01 9.714155e-01 9.713674e-01 9.713087e-01
<GCONST> 9.403939e+01
<STATE> 4
<MEAN> 52
 -2.295696e-03 -9.748086e-04 -8.065414e-05 -6.307599e-04 6.933094e-04 4.412487e-04 1.532098e-04 8.454637e-04 6.168885e-05 2.390285e-06 -2.048244e-04 1.025136e-04 -9.287726e-05 -1.136616e-06 -1.517374e-05 -1.279245e-05 -7.192986e-07 -9.521683e-06 -2.694962e-05 -8.763505e-06 -4.900316e-06 6.621045e-06 2.562404e-05 2.862874e-05 2.267435e-05 7.413362e-06 8.747889e-06 -8.552009e-07 7.153956e-06 -1.176737e-05 7.568835e-07 6.380189e-07 1.556078e-05 8.575757e-06 4.610412e-06 -8.782049e-06 -3.766749e-08 -1.230770e-06 -7.714943e-06 -1.603113e-06 -3.685607e-06 5.249584e-06 -1.402094e-06 9.696504e-06 1.511962e-05 -5.442365e-06 6.285468e-06 -6.728450e-06 -2.180349e-05 -2.261997e-05 -8.943401e-06 -3.105862e-06
<VARIANCE> 52
 9.829098e-01 9.745913e-01 9.740343e-01 9.747845e-01 9.734353e-01 9.731892e-01 9.732109e-01 9.738447e-01 9.731560e-01 9.731390e-01 9.733835e-01 9.728883e-01 9.731820e-01 9.709505e-01 9.666460e-01 9.682353e-01 9.678358e-01 9.685750e-01 9.694769e-01 9.696730e-01 9.700511e-01 9.701170e-01 9.705568e-01 9.709010e-01 9.709373e-01 9.708119e-01 9.705688e-01 9.672188e-01 9.684679e-01 9.689111e-01 9.695216e-01 9.698885e-01 9.702106e-01 9.706249e-01 9.708186e-01 9.710845e-01 9.713466e-01 9.713874e-01 9.713685e-01 9.698547e-01 9.669673e-01 9.682876e-01 9.687494e-01 9.694135e-01 9.699330e-01 9.703074e-01 9.705701e-01 9.709715e-01 9.711851e-01 9.714155e-01 9.713674e-01 9.713087e-01
<GCONST> 9.403939e+01
<TRANSP> 5
 0.000000e+00 1.000000e+00 0.000000e+00 0.000000e+00 0.000000e+00
 0.000000e+00 6.000000e-01 4.000000e-01 0.000000e+00 0.000000e+00
 0.000000e+00 0.000000e+00 6.000000e-01 4.000000e-01 0.000000e+00
 0.000000e+00 0.000000e+00 0.000000e+00 6.000000e-01 4.000000e-01
 0.000000e+00 0.000000e+00 0.000000e+00 0.000000e+00 0.000000e+00
<ENDHMM>
~h "P"
<BEGINHMM>
<NUMSTATES> 5
<STATE> 2
<MEAN> 52
 -2.295696e-03 -9.748086e-04 -8.065414e-05 -6.307599e-04 6.933094e-04 4.412487e-04 1.532098e-04 8.454637e-04 6.168885e-05 2.390285e-06 -2.048244e-04 1.025136e-04 -9.287726e-05 -1.136616e-06 -1.517374e-05 -1.279245e-05 -7.192986e-07 -9.521683e-06 -2.694962e-05 -8.763505e-06 -4.900316e-06 6.621045e-06 2.562404e-05 2.862874e-05 2.267435e-05 7.413362e-06 8.747889e-06 -8.552009e-07 7.153956e-06 -1.176737e-05 7.568835e-07 6.380189e-07 1.556078e-05 8.575757e-06 4.610412e-06 -8.782049e-06 -3.766749e-08 -1.230770e-06 -7.714943e-06 -1.603113e-06 -3.685607e-06 5.249584e-06 -1.402094e-06 9.696504e-06 1.511962e-05 -5.442365e-06 6.285468e-06 -6.728450e-06 -2.180349e-05 -2.261997e-05 -8.943401e-06 -3.105862e-06
<VARIANCE> 52
 9.829098e-01 9.745913e-01 9.740343e-01 9.747845e-01 9.734353e-01 9.731892e-01 9.732109e-01 9.738447e-01 9.731560e-01 9.731390e-01 9.733835e-01 9.728883e-01 9.731820e-01 9.709505e-01 9.666460e-01 9.682353e-01 9.678358e-01 9.685750e-01 9.694769e-01 9.696730e-01 9.700511e-01 9.701170e-01 9.705568e-01 9.709010e-01 9.709373e-01 9.708119e-01 9.705688e-01 9.672188e-01 9.684679e-01 9.689111e-01 9.695216e-01 9.698885e-01 9.702106e-01 9.706249e-01 9.708186e-01 9.710845e-01 9.713466e-01 9.713874e-01 9.713685e-01 9.698547e-01 9.669673e-01 9.682876e-01 9.687494e-01 9.694135e-01 9.699330e-01 9.703074e-01 9.705701e-01 9.709715e-01 9.711851e-01 9.714155e-01 9.713674e-01 9.713087e-01
<GCONST> 9.403939e+01
<STATE> 3
<MEAN> 52
 -2.295696e-03 -9.748086e-04 -8.065414e-05 -6.307599e-04 6.933094e-04 4.412487e-04 1.532098e-04 8.454637e-04 6.168885e-05 2.390285e-06 -2.048244e-04 1.025136e-04 -9.287726e-05 -1.136616e-06 -1.517374e-05 -1.279245e-05 -7.192986e-07 -9.521683e-06 -2.694962e-05 -8.763505e-06 -4.900316e-06 6.621045e-06 2.562404e-05 2.862874e-05 2.267435e-05 7.413362e-06 8.747889e-06 -8.552009e-07 7.153956e-06 -1.176737e-05 7.568835e-07 6.380189e-07 1.556078e-05 8.575757e-06 4.610412e-06 -8.782049e-06 -3.766749e-08 -1.230770e-06 -7.714943e-06 -1.603113e-06 -3.685607e-06 5.249584e-06 -1.402094e-06 9.696504e-06 1.511962e-05 -5.442365e-06 6.285468e-06 -6.728450e-06 -2.180349e-05 -2.261997e-05 -8.943401e-06 -3.105862e-06
<VARIANCE> 52
 9.829098e-01 9.745913e-01 9.740343e-01 9.747845e-01 9.734353e-01 9.731892e-01 9.732109e-01 9.738447e-01 9.731560e-01 9.731390e-01 9.733835e-01 9.728883e-01 9.731820e-01 9.709505e-01 9.666460e-01 9.682353e-01 9.678358e-01 9.685750e-01 9.694769e-01 9.696730e-01 9.700511e-01 9.701170e-01 9.705568e-01 9.709010e-01 9.709373e-01 9.708119e-01 9.705688e-01 9.672188e-01 9.684679e-01 9.689111e-01 9.695216e-01 9.698885e-01 9.702106e-01 9.706249e-01 9.708186e-01 9.710845e-01 9.713466e-01 9.713874e-01 9.713685e-01 9.698547e-01 9.669673e-01 9.682876e-01 9.687494e-01 9.694135e-01 9.699330e-01 9.703074e-01 9.705701e-01 9.709715e-01 9.711851e-01 9.714155e-01 9.713674e-01 9.713087e-01
<GCONST> 9.403939e+01
<STATE> 4
<MEAN> 52
 -2.295696e-03 -9.748086e-04 -8.065414e-05 -6.307599e-04 6.933094e-04 4.412487e-04 1.532098e-04 8.454637e-04 6.168885e-05 2.390285e-06 -2.048244e-04 1.025136e-04 -9.287726e-05 -1.136616e-06 -1.517374e-05 -1.279245e-05 -7.192986e-07 -9.521683e-06 -2.694962e-05 -8.763505e-06 -4.900316e-06 6.621045e-06 2.562404e-05 2.862874e-05 2.267435e-05 7.413362e-06 8.747889e-06 -8.552009e-07 7.153956e-06 -1.176737e-05 7.568835e-07 6.380189e-07 1.556078e-05 8.575757e-06 4.610412e-06 -8.782049e-06 -3.766749e-08 -1.230770e-06 -7.714943e-06 -1.603113e-06 -3.685607e-06 5.249584e-06 -1.402094e-06 9.696504e-06 1.511962e-05 -5.442365e-06 6.285468e-06 -6.728450e-06 -2.180349e-05 -2.261997e-05 -8.943401e-06 -3.105862e-06
<VARIANCE> 52
 9.829098e-01 9.745913e-01 9.740343e-01 9.747845e-01 9.734353e-01 9.731892e-01 9.732109e-01 9.738447e-01 9.731560e-01 9.731390e-01 9.733835e-01 9.728883e-01 9.731820e-01 9.709505e-01 9.666460e-01 9.682353e-01 9.678358e-01 9.685750e-01 9.694769e-01 9.696730e-01 9.700511e-01 9.701170e-01 9.705568e-01 9.709010e-01 9.709373e-01 9.708119e-01 9.705688e-01 9.672188e-01 9.684679e-01 9.689111e-01 9.695216e-01 9.698885e-01 9.702106e-01 9.706249e-01 9.708186e-01 9.710845e-01 9.713466e-01 9.713874e-01 9.713685e-01 9.698547e-01 9.669673e-01 9.682876e-01 9.687494e-01 9.694135e-01 9.699330e-01 9.703074e-01 9.705701e-01 9.709715e-01 9.711851e-01 9.714155e-01 9.713674e-01 9.713087e-01
<GCONST> 9.403939e+01
<TRANSP> 5
 0.000000e+00 1.000000e+00 0.000000e+00 0.000000e+00 0.000000e+00
 0.000000e+00 6.000000e-01 4.000000e-01 0.000000e+00 0.000000e+00
 0.000000e+00 0.000000e+00 6.000000e-01 4.000000e-01 0.000000e+00
 0.000000e+00 0.000000e+00 0.000000e+00 6.000000e-01 4.000000e-01
 0.000000e+00 0.000000e+00 0.000000e+00 0.000000e+00 0.000000e+00
<ENDHMM>
~h "NG"
<BEGINHMM>
<NUMSTATES> 5
<STATE> 2
<MEAN> 52
 -2.295696e-03 -9.748086e-04 -8.065414e-05 -6.307599e-04 6.933094e-04 4.412487e-04 1.532098e-04 8.454637e-04 6.168885e-05 2.390285e-06 -2.048244e-04 1.025136e-04 -9.287726e-05 -1.136616e-06 -1.517374e-05 -1.279245e-05 -7.192986e-07 -9.521683e-06 -2.694962e-05 -8.763505e-06 -4.900316e-06 6.621045e-06 2.562404e-05 2.862874e-05 2.267435e-05 7.413362e-06 8.747889e-06 -8.552009e-07 7.153956e-06 -1.176737e-05 7.568835e-07 6.380189e-07 1.556078e-05 8.575757e-06 4.610412e-06 -8.782049e-06 -3.766749e-08 -1.230770e-06 -7.714943e-06 -1.603113e-06 -3.685607e-06 5.249584e-06 -1.402094e-06 9.696504e-06 1.511962e-05 -5.442365e-06 6.285468e-06 -6.728450e-06 -2.180349e-05 -2.261997e-05 -8.943401e-06 -3.105862e-06
<VARIANCE> 52
 9.829098e-01 9.745913e-01 9.740343e-01 9.747845e-01 9.734353e-01 9.731892e-01 9.732109e-01 9.738447e-01 9.731560e-01 9.731390e-01 9.733835e-01 9.728883e-01 9.731820e-01 9.709505e-01 9.666460e-01 9.682353e-01 9.678358e-01 9.685750e-01 9.694769e-01 9.696730e-01 9.700511e-01 9.701170e-01 9.705568e-01 9.709010e-01 9.709373e-01 9.708119e-01 9.705688e-01 9.672188e-01 9.684679e-01 9.689111e-01 9.695216e-01 9.698885e-01 9.702106e-01 9.706249e-01 9.708186e-01 9.710845e-01 9.713466e-01 9.713874e-01 9.713685e-01 9.698547e-01 9.669673e-01 9.682876e-01 9.687494e-01 9.694135e-01 9.699330e-01 9.703074e-01 9.705701e-01 9.709715e-01 9.711851e-01 9.714155e-01 9.713674e-01 9.713087e-01
<GCONST> 9.403939e+01
<STATE> 3
<MEAN> 52
 -2.295696e-03 -9.748086e-04 -8.065414e-05 -6.307599e-04 6.933094e-04 4.412487e-04 1.532098e-04 8.454637e-04 6.168885e-05 2.390285e-06 -2.048244e-04 1.025136e-04 -9.287726e-05 -1.136616e-06 -1.517374e-05 -1.279245e-05 -7.192986e-07 -9.521683e-06 -2.694962e-05 -8.763505e-06 -4.900316e-06 6.621045e-06 2.562404e-05 2.862874e-05 2.267435e-05 7.413362e-06 8.747889e-06 -8.552009e-07 7.153956e-06 -1.176737e-05 7.568835e-07 6.380189e-07 1.556078e-05 8.575757e-06 4.610412e-06 -8.782049e-06 -3.766749e-08 -1.230770e-06 -7.714943e-06 -1.603113e-06 -3.685607e-06 5.249584e-06 -1.402094e-06 9.696504e-06 1.511962e-05 -5.442365e-06 6.285468e-06 -6.728450e-06 -2.180349e-05 -2.261997e-05 -8.943401e-06 -3.105862e-06
<VARIANCE> 52
 9.829098e-01 9.745913e-01 9.740343e-01 9.747845e-01 9.734353e-01 9.731892e-01 9.732109e-01 9.738447e-01 9.731560e-01 9.731390e-01 9.733835e-01 9.728883e-01 9.731820e-01 9.709505e-01 9.666460e-01 9.682353e-01 9.678358e-01 9.685750e-01 9.694769e-01 9.696730e-01 9.700511e-01 9.701170e-01 9.705568e-01 9.709010e-01 9.709373e-01 9.708119e-01 9.705688e-01 9.672188e-01 9.684679e-01 9.689111e-01 9.695216e-01 9.698885e-01 9.702106e-01 9.706249e-01 9.708186e-01 9.710845e-01 9.713466e-01 9.713874e-01 9.713685e-01 9.698547e-01 9.669673e-01 9.682876e-01 9.687494e-01 9.694135e-01 9.699330e-01 9.703074e-01 9.705701e-01 9.709715e-01 9.711851e-01 9.714155e-01 9.713674e-01 9.713087e-01
<GCONST> 9.403939e+01
<STATE> 4
<MEAN> 52
 -2.295696e-03 -9.748086e-04 -8.065414e-05 -6.307599e-04 6.933094e-04 4.412487e-04 1.532098e-04 8.454637e-04 6.168885e-05 2.390285e-06 -2.048244e-04 1.025136e-04 -9.287726e-05 -1.136616e-06 -1.517374e-05 -1.279245e-05 -7.192986e-07 -9.521683e-06 -2.694962e-05 -8.763505e-06 -4.900316e-06 6.621045e-06 2.562404e-05 2.862874e-05 2.267435e-05 7.413362e-06 8.747889e-06 -8.552009e-07 7.153956e-06 -1.176737e-05 7.568835e-07 6.380189e-07 1.556078e-05 8.575757e-06 4.610412e-06 -8.782049e-06 -3.766749e-08 -1.230770e-06 -7.714943e-06 -1.603113e-06 -3.685607e-06 5.249584e-06 -1.402094e-06 9.696504e-06 1.511962e-05 -5.442365e-06 6.285468e-06 -6.728450e-06 -2.180349e-05 -2.261997e-05 -8.943401e-06 -3.105862e-06
<VARIANCE> 52
 9.829098e-01 9.745913e-01 9.740343e-01 9.747845e-01 9.734353e-01 9.731892e-01 9.732109e-01 9.738447e-01 9.731560e-01 9.731390e-01 9.733835e-01 9.728883e-01 9.731820e-01 9.709505e-01 9.666460e-01 9.682353e-01 9.678358e-01 9.685750e-01 9.694769e-01 9.696730e-01 9.700511e-01 9.701170e-01 9.705568e-01 9.709010e-01 9.709373e-01 9.708119e-01 9.705688e-01 9.672188e-01 9.684679e-01 9.689111e-01 9.695216e-01 9.698885e-01 9.702106e-01 9.706249e-01 9.708186e-01 9.710845e-01 9.713466e-01 9.713874e-01 9.713685e-01 9.698547e-01 9.669673e-01 9.682876e-01 9.687494e-01 9.694135e-01 9.699330e-01 9.703074e-01 9.705701e-01 9.709715e-01 9.711851e-01 9.714155e-01 9.713674e-01 9.713087e-01
<GCONST> 9.403939e+01
<TRANSP> 5
 0.000000e+00 1.000000e+00 0.000000e+00 0.000000e+00 0.000000e+00
 0.000000e+00 6.000000e-01 4.000000e-01 0.000000e+00 0.000000e+00
 0.000000e+00 0.000000e+00 6.000000e-01 4.000000e-01 0.000000e+00
 0.000000e+00 0.000000e+00 0.000000e+00 6.000000e-01 4.000000e-01
 0.000000e+00 0.000000e+00 0.000000e+00 0.000000e+00 0.000000e+00
<ENDHMM>
~h "H"
<BEGINHMM>
<NUMSTATES> 5
<STATE> 2
<MEAN> 52
 -2.295696e-03 -9.748086e-04 -8.065414e-05 -6.307599e-04 6.933094e-04 4.412487e-04 1.532098e-04 8.454637e-04 6.168885e-05 2.390285e-06 -2.048244e-04 1.025136e-04 -9.287726e-05 -1.136616e-06 -1.517374e-05 -1.279245e-05 -7.192986e-07 -9.521683e-06 -2.694962e-05 -8.763505e-06 -4.900316e-06 6.621045e-06 2.562404e-05 2.862874e-05 2.267435e-05 7.413362e-06 8.747889e-06 -8.552009e-07 7.153956e-06 -1.176737e-05 7.568835e-07 6.380189e-07 1.556078e-05 8.575757e-06 4.610412e-06 -8.782049e-06 -3.766749e-08 -1.230770e-06 -7.714943e-06 -1.603113e-06 -3.685607e-06 5.249584e-06 -1.402094e-06 9.696504e-06 1.511962e-05 -5.442365e-06 6.285468e-06 -6.728450e-06 -2.180349e-05 -2.261997e-05 -8.943401e-06 -3.105862e-06
<VARIANCE> 52
 9.829098e-01 9.745913e-01 9.740343e-01 9.747845e-01 9.734353e-01 9.731892e-01 9.732109e-01 9.738447e-01 9.731560e-01 9.731390e-01 9.733835e-01 9.728883e-01 9.731820e-01 9.709505e-01 9.666460e-01 9.682353e-01 9.678358e-01 9.685750e-01 9.694769e-01 9.696730e-01 9.700511e-01 9.701170e-01 9.705568e-01 9.709010e-01 9.709373e-01 9.708119e-01 9.705688e-01 9.672188e-01 9.684679e-01 9.689111e-01 9.695216e-01 9.698885e-01 9.702106e-01 9.706249e-01 9.708186e-01 9.710845e-01 9.713466e-01 9.713874e-01 9.713685e-01 9.698547e-01 9.669673e-01 9.682876e-01 9.687494e-01 9.694135e-01 9.699330e-01 9.703074e-01 9.705701e-01 9.709715e-01 9.711851e-01 9.714155e-01 9.713674e-01 9.713087e-01
<GCONST> 9.403939e+01
<STATE> 3
<MEAN> 52
 -2.295696e-03 -9.748086e-04 -8.065414e-05 -6.307599e-04 6.933094e-04 4.412487e-04 1.532098e-04 8.454637e-04 6.168885e-05 2.390285e-06 -2.048244e-04 1.025136e-04 -9.287726e-05 -1.136616e-06 -1.517374e-05 -1.279245e-05 -7.192986e-07 -9.521683e-06 -2.694962e-05 -8.763505e-06 -4.900316e-06 6.621045e-06 2.562404e-05 2.862874e-05 2.267435e-05 7.413362e-06 8.747889e-06 -8.552009e-07 7.153956e-06 -1.176737e-05 7.568835e-07 6.380189e-07 1.556078e-05 8.575757e-06 4.610412e-06 -8.782049e-06 -3.766749e-08 -1.230770e-06 -7.714943e-06 -1.603113e-06 -3.685607e-06 5.249584e-06 -1.402094e-06 9.696504e-06 1.511962e-05 -5.442365e-06 6.285468e-06 -6.728450e-06 -2.180349e-05 -2.261997e-05 -8.943401e-06 -3.105862e-06
<VARIANCE> 52
 9.829098e-01 9.745913e-01 9.740343e-01 9.747845e-01 9.734353e-01 9.731892e-01 9.732109e-01 9.738447e-01 9.731560e-01 9.731390e-01 9.733835e-01 9.728883e-01 9.731820e-01 9.709505e-01 9.666460e-01 9.682353e-01 9.678358e-01 9.685750e-01 9.694769e-01 9.696730e-01 9.700511e-01 9.701170e-01 9.705568e-01 9.709010e-01 9.709373e-01 9.708119e-01 9.705688e-01 9.672188e-01 9.684679e-01 9.689111e-01 9.695216e-01 9.698885e-01 9.702106e-01 9.706249e-01 9.708186e-01 9.710845e-01 9.713466e-01 9.713874e-01 9.713685e-01 9.698547e-01 9.669673e-01 9.682876e-01 9.687494e-01 9.694135e-01 9.699330e-01 9.703074e-01 9.705701e-01 9.709715e-01 9.711851e-01 9.714155e-01 9.713674e-01 9.713087e-01
<GCONST> 9.403939e+01
<STATE> 4
<MEAN> 52
 -2.295696e-03 -9.748086e-04 -8.065414e-05 -6.307599e-04 6.933094e-04 4.412487e-04 1.532098e-04 8.454637e-04 6.168885e-05 2.390285e-06 -2.048244e-04 1.025136e-04 -9.287726e-05 -1.136616e-06 -1.517374e-05 -1.279245e-05 -7.192986e-07 -9.521683e-06 -2.694962e-05 -8.763505e-06 -4.900316e-06 6.621045e-06 2.562404e-05 2.862874e-05 2.267435e-05 7.413362e-06 8.747889e-06 -8.552009e-07 7.153956e-06 -1.176737e-05 7.568835e-07 6.380189e-07 1.556078e-05 8.575757e-06 4.610412e-06 -8.782049e-06 -3.766749e-08 -1.230770e-06 -7.714943e-06 -1.603113e-06 -3.685607e-06 5.249584e-06 -1.402094e-06 9.696504e-06 1.511962e-05 -5.442365e-06 6.285468e-06 -6.728450e-06 -2.180349e-05 -2.261997e-05 -8.943401e-06 -3.105862e-06
<VARIANCE> 52
 9.829098e-01 9.745913e-01 9.740343e-01 9.747845e-01 9.734353e-01 9.731892e-01 9.732109e-01 9.738447e-01 9.731560e-01 9.731390e-01 9.733835e-01 9.728883e-01 9.731820e-01 9.709505e-01 9.666460e-01 9.682353e-01 9.678358e-01 9.685750e-01 9.694769e-01 9.696730e-01 9.700511e-01 9.701170e-01 9.705568e-01 9.709010e-01 9.709373e-01 9.708119e-01 9.705688e-01 9.672188e-01 9.684679e-01 9.689111e-01 9.695216e-01 9.698885e-01 9.702106e-01 9.706249e-01 9.708186e-01 9.710845e-01 9.713466e-01 9.713874e-01 9.713685e-01 9.698547e-01 9.669673e-01 9.682876e-01 9.687494e-01 9.694135e-01 9.699330e-01 9.703074e-01 9.705701e-01 9.709715e-01 9.711851e-01 9.714155e-01 9.713674e-01 9.713087e-01
<GCONST> 9.403939e+01
<TRANSP> 5
 0.000000e+00 1.000000e+00 0.000000e+00 0.000000e+00 0.000000e+00
 0.000000e+00 6.000000e-01 4.000000e-01 0.000000e+00 0.000000e+00
 0.000000e+00 0.000000e+00 6.000000e-01 4.000000e-01 0.000000e+00
 0.000000e+00 0.000000e+00 0.000000e+00 6.000000e-01 4.000000e-01
 0.000000e+00 0.000000e+00 0.000000e+00 0.000000e+00 0.000000e+00
<ENDHMM>
~h "M"
<BEGINHMM>
<NUMSTATES> 5
<STATE> 2
<MEAN> 52
 -2.295696e-03 -9.748086e-04 -8.065414e-05 -6.307599e-04 6.933094e-04 4.412487e-04 1.532098e-04 8.454637e-04 6.168885e-05 2.390285e-06 -2.048244e-04 1.025136e-04 -9.287726e-05 -1.136616e-06 -1.517374e-05 -1.279245e-05 -7.192986e-07 -9.521683e-06 -2.694962e-05 -8.763505e-06 -4.900316e-06 6.621045e-06 2.562404e-05 2.862874e-05 2.267435e-05 7.413362e-06 8.747889e-06 -8.552009e-07 7.153956e-06 -1.176737e-05 7.568835e-07 6.380189e-07 1.556078e-05 8.575757e-06 4.610412e-06 -8.782049e-06 -3.766749e-08 -1.230770e-06 -7.714943e-06 -1.603113e-06 -3.685607e-06 5.249584e-06 -1.402094e-06 9.696504e-06 1.511962e-05 -5.442365e-06 6.285468e-06 -6.728450e-06 -2.180349e-05 -2.261997e-05 -8.943401e-06 -3.105862e-06
<VARIANCE> 52
 9.829098e-01 9.745913e-01 9.740343e-01 9.747845e-01 9.734353e-01 9.731892e-01 9.732109e-01 9.738447e-01 9.731560e-01 9.731390e-01 9.733835e-01 9.728883e-01 9.731820e-01 9.709505e-01 9.666460e-01 9.682353e-01 9.678358e-01 9.685750e-01 9.694769e-01 9.696730e-01 9.700511e-01 9.701170e-01 9.705568e-01 9.709010e-01 9.709373e-01 9.708119e-01 9.705688e-01 9.672188e-01 9.684679e-01 9.689111e-01 9.695216e-01 9.698885e-01 9.702106e-01 9.706249e-01 9.708186e-01 9.710845e-01 9.713466e-01 9.713874e-01 9.713685e-01 9.698547e-01 9.669673e-01 9.682876e-01 9.687494e-01 9.694135e-01 9.699330e-01 9.703074e-01 9.705701e-01 9.709715e-01 9.711851e-01 9.714155e-01 9.713674e-01 9.713087e-01
<GCONST> 9.403939e+01
<STATE> 3
<MEAN> 52
 -2.295696e-03 -9.748086e-04 -8.065414e-05 -6.307599e-04 6.933094e-04 4.412487e-04 1.532098e-04 8.454637e-04 6.168885e-05 2.390285e-06 -2.048244e-04 1.025136e-04 -9.287726e-05 -1.136616e-06 -1.517374e-05 -1.279245e-05 -7.192986e-07 -9.521683e-06 -2.694962e-05 -8.763505e-06 -4.900316e-06 6.621045e-06 2.562404e-05 2.862874e-05 2.267435e-05 7.413362e-06 8.747889e-06 -8.552009e-07 7.153956e-06 -1.176737e-05 7.568835e-07 6.380189e-07 1.556078e-05 8.575757e-06 4.610412e-06 -8.782049e-06 -3.766749e-08 -1.230770e-06 -7.714943e-06 -1.603113e-06 -3.685607e-06 5.249584e-06 -1.402094e-06 9.696504e-06 1.511962e-05 -5.442365e-06 6.285468e-06 -6.728450e-06 -2.180349e-05 -2.261997e-05 -8.943401e-06 -3.105862e-06
<VARIANCE> 52
 9.829098e-01 9.745913e-01 9.740343e-01 9.747845e-01 9.734353e-01 9.731892e-01 9.732109e-01 9.738447e-01 9.731560e-01 9.731390e-01 9.733835e-01 9.728883e-01 9.731820e-01 9.709505e-01 9.666460e-01 9.682353e-01 9.678358e-01 9.685750e-01 9.694769e-01 9.696730e-01 9.700511e-01 9.701170e-01 9.705568e-01 9.709010e-01 9.709373e-01 9.708119e-01 9.705688e-01 9.672188e-01 9.684679e-01 9.689111e-01 9.695216e-01 9.698885e-01 9.702106e-01 9.706249e-01 9.708186e-01 9.710845e-01 9.713466e-01 9.713874e-01 9.713685e-01 9.698547e-01 9.669673e-01 9.682876e-01 9.687494e-01 9.694135e-01 9.699330e-01 9.703074e-01 9.705701e-01 9.709715e-01 9.711851e-01 9.714155e-01 9.713674e-01 9.713087e-01
<GCONST> 9.403939e+01
<STATE> 4
<MEAN> 52
 -2.295696e-03 -9.748086e-04 -8.065414e-05 -6.307599e-04 6.933094e-04 4.412487e-04 1.532098e-04 8.454637e-04 6.168885e-05 2.390285e-06 -2.048244e-04 1.025136e-04 -9.287726e-05 -1.136616e-06 -1.517374e-05 -1.279245e-05 -7.192986e-07 -9.521683e-06 -2.694962e-05 -8.763505e-06 -4.900316e-06 6.621045e-06 2.562404e-05 2.862874e-05 2.267435e-05 7.413362e-06 8.747889e-06 -8.552009e-07 7.153956e-06 -1.176737e-05 7.568835e-07 6.380189e-07 1.556078e-05 8.575757e-06 4.610412e-06 -8.782049e-06 -3.766749e-08 -1.230770e-06 -7.714943e-06 -1.603113e-06 -3.685607e-06 5.249584e-06 -1.402094e-06 9.696504e-06 1.511962e-05 -5.442365e-06 6.285468e-06 -6.728450e-06 -2.180349e-05 -2.261997e-05 -8.943401e-06 -3.105862e-06
<VARIANCE> 52
 9.829098e-01 9.745913e-01 9.740343e-01 9.747845e-01 9.734353e-01 9.731892e-01 9.732109e-01 9.738447e-01 9.731560e-01 9.731390e-01 9.733835e-01 9.728883e-01 9.731820e-01 9.709505e-01 9.666460e-01 9.682353e-01 9.678358e-01 9.685750e-01 9.694769e-01 9.696730e-01 9.700511e-01 9.701170e-01 9.705568e-01 9.709010e-01 9.709373e-01 9.708119e-01 9.705688e-01 9.672188e-01 9.684679e-01 9.689111e-01 9.695216e-01 9.698885e-01 9.702106e-01 9.706249e-01 9.708186e-01 9.710845e-01 9.713466e-01 9.713874e-01 9.713685e-01 9.698547e-01 9.669673e-01 9.682876e-01 9.687494e-01 9.694135e-01 9.699330e-01 9.703074e-01 9.705701e-01 9.709715e-01 9.711851e-01 9.714155e-01 9.713674e-01 9.713087e-01
<GCONST> 9.403939e+01
<TRANSP> 5
 0.000000e+00 1.000000e+00 0.000000e+00 0.000000e+00 0.000000e+00
 0.000000e+00 6.000000e-01 4.000000e-01 0.000000e+00 0.000000e+00
 0.000000e+00 0.000000e+00 6.000000e-01 4.000000e-01 0.000000e+00
 0.000000e+00 0.000000e+00 0.000000e+00 6.000000e-01 4.000000e-01
 0.000000e+00 0.000000e+00 0.000000e+00 0.000000e+00 0.000000e+00
<ENDHMM>
~h "sil"
<BEGINHMM>
<NUMSTATES> 5
<STATE> 2
<MEAN> 52
 -2.295696e-03 -9.748086e-04 -8.065414e-05 -6.307599e-04 6.933094e-04 4.412487e-04 1.532098e-04 8.454637e-04 6.168885e-05 2.390285e-06 -2.048244e-04 1.025136e-04 -9.287726e-05 -1.136616e-06 -1.517374e-05 -1.279245e-05 -7.192986e-07 -9.521683e-06 -2.694962e-05 -8.763505e-06 -4.900316e-06 6.621045e-06 2.562404e-05 2.862874e-05 2.267435e-05 7.413362e-06 8.747889e-06 -8.552009e-07 7.153956e-06 -1.176737e-05 7.568835e-07 6.380189e-07 1.556078e-05 8.575757e-06 4.610412e-06 -8.782049e-06 -3.766749e-08 -1.230770e-06 -7.714943e-06 -1.603113e-06 -3.685607e-06 5.249584e-06 -1.402094e-06 9.696504e-06 1.511962e-05 -5.442365e-06 6.285468e-06 -6.728450e-06 -2.180349e-05 -2.261997e-05 -8.943401e-06 -3.105862e-06
<VARIANCE> 52
 9.829098e-01 9.745913e-01 9.740343e-01 9.747845e-01 9.734353e-01 9.731892e-01 9.732109e-01 9.738447e-01 9.731560e-01 9.731390e-01 9.733835e-01 9.728883e-01 9.731820e-01 9.709505e-01 9.666460e-01 9.682353e-01 9.678358e-01 9.685750e-01 9.694769e-01 9.696730e-01 9.700511e-01 9.701170e-01 9.705568e-01 9.709010e-01 9.709373e-01 9.708119e-01 9.705688e-01 9.672188e-01 9.684679e-01 9.689111e-01 9.695216e-01 9.698885e-01 9.702106e-01 9.706249e-01 9.708186e-01 9.710845e-01 9.713466e-01 9.713874e-01 9.713685e-01 9.698547e-01 9.669673e-01 9.682876e-01 9.687494e-01 9.694135e-01 9.699330e-01 9.703074e-01 9.705701e-01 9.709715e-01 9.711851e-01 9.714155e-01 9.713674e-01 9.713087e-01
<GCONST> 9.403939e+01
<STATE> 3
<MEAN> 52
 -2.295696e-03 -9.748086e-04 -8.065414e-05 -6.307599e-04 6.933094e-04 4.412487e-04 1.532098e-04 8.454637e-04 6.168885e-05 2.390285e-06 -2.048244e-04 1.025136e-04 -9.287726e-05 -1.136616e-06 -1.517374e-05 -1.279245e-05 -7.192986e-07 -9.521683e-06 -2.694962e-05 -8.763505e-06 -4.900316e-06 6.621045e-06 2.562404e-05 2.862874e-05 2.267435e-05 7.413362e-06 8.747889e-06 -8.552009e-07 7.153956e-06 -1.176737e-05 7.568835e-07 6.380189e-07 1.556078e-05 8.575757e-06 4.610412e-06 -8.782049e-06 -3.766749e-08 -1.230770e-06 -7.714943e-06 -1.603113e-06 -3.685607e-06 5.249584e-06 -1.402094e-06 9.696504e-06 1.511962e-05 -5.442365e-06 6.285468e-06 -6.728450e-06 -2.180349e-05 -2.261997e-05 -8.943401e-06 -3.105862e-06
<VARIANCE> 52
 9.829098e-01 9.745913e-01 9.740343e-01 9.747845e-01 9.734353e-01 9.731892e-01 9.732109e-01 9.738447e-01 9.731560e-01 9.731390e-01 9.733835e-01 9.728883e-01 9.731820e-01 9.709505e-01 9.666460e-01 9.682353e-01 9.678358e-01 9.685750e-01 9.694769e-01 9.696730e-01 9.700511e-01 9.701170e-01 9.705568e-01 9.709010e-01 9.709373e-01 9.708119e-01 9.705688e-01 9.672188e-01 9.684679e-01 9.689111e-01 9.695216e-01 9.698885e-01 9.702106e-01 9.706249e-01 9.708186e-01 9.710845e-01 9.713466e-01 9.713874e-01 9.713685e-01 9.698547e-01 9.669673e-01 9.682876e-01 9.687494e-01 9.694135e-01 9.699330e-01 9.703074e-01 9.705701e-01 9.709715e-01 9.711851e-01 9.714155e-01 9.713674e-01 9.713087e-01
<GCONST> 9.403939e+01
<STATE> 4
<MEAN> 52
 -2.295696e-03 -9.748086e-04 -8.065414e-05 -6.307599e-04 6.933094e-04 4.412487e-04 1.532098e-04 8.454637e-04 6.168885e-05 2.390285e-06 -2.048244e-04 1.025136e-04 -9.287726e-05 -1.136616e-06 -1.517374e-05 -1.279245e-05 -7.192986e-07 -9.521683e-06 -2.694962e-05 -8.763505e-06 -4.900316e-06 6.621045e-06 2.562404e-05 2.862874e-05 2.267435e-05 7.413362e-06 8.747889e-06 -8.552009e-07 7.153956e-06 -1.176737e-05 7.568835e-07 6.380189e-07 1.556078e-05 8.575757e-06 4.610412e-06 -8.782049e-06 -3.766749e-08 -1.230770e-06 -7.714943e-06 -1.603113e-06 -3.685607e-06 5.249584e-06 -1.402094e-06 9.696504e-06 1.511962e-05 -5.442365e-06 6.285468e-06 -6.728450e-06 -2.180349e-05 -2.261997e-05 -8.943401e-06 -3.105862e-06
<VARIANCE> 52
 9.829098e-01 9.745913e-01 9.740343e-01 9.747845e-01 9.734353e-01 9.731892e-01 9.732109e-01 9.738447e-01 9.731560e-01 9.731390e-01 9.733835e-01 9.728883e-01 9.731820e-01 9.709505e-01 9.666460e-01 9.682353e-01 9.678358e-01 9.685750e-01 9.694769e-01 9.696730e-01 9.700511e-01 9.701170e-01 9.705568e-01 9.709010e-01 9.709373e-01 9.708119e-01 9.705688e-01 9.672188e-01 9.684679e-01 9.689111e-01 9.695216e-01 9.698885e-01 9.702106e-01 9.706249e-01 9.708186e-01 9.710845e-01 9.713466e-01 9.713874e-01 9.713685e-01 9.698547e-01 9.669673e-01 9.682876e-01 9.687494e-01 9.694135e-01 9.699330e-01 9.703074e-01 9.705701e-01 9.709715e-01 9.711851e-01 9.714155e-01 9.713674e-01 9.713087e-01
<GCONST> 9.403939e+01
<TRANSP> 5
 0.000000e+00 1.000000e+00 0.000000e+00 0.000000e+00 0.000000e+00
 0.000000e+00 6.000000e-01 4.000000e-01 0.000000e+00 0.000000e+00
 0.000000e+00 0.000000e+00 6.000000e-01 4.000000e-01 0.000000e+00
 0.000000e+00 0.000000e+00 0.000000e+00 6.000000e-01 4.000000e-01
 0.000000e+00 0.000000e+00 0.000000e+00 0.000000e+00 0.000000e+00
<ENDHMM>
~h "I"
<BEGINHMM>
<NUMSTATES> 5
<STATE> 2
<MEAN> 52
 -2.295696e-03 -9.748086e-04 -8.065414e-05 -6.307599e-04 6.933094e-04 4.412487e-04 1.532098e-04 8.454637e-04 6.168885e-05 2.390285e-06 -2.048244e-04 1.025136e-04 -9.287726e-05 -1.136616e-06 -1.517374e-05 -1.279245e-05 -7.192986e-07 -9.521683e-06 -2.694962e-05 -8.763505e-06 -4.900316e-06 6.621045e-06 2.562404e-05 2.862874e-05 2.267435e-05 7.413362e-06 8.747889e-06 -8.552009e-07 7.153956e-06 -1.176737e-05 7.568835e-07 6.380189e-07 1.556078e-05 8.575757e-06 4.610412e-06 -8.782049e-06 -3.766749e-08 -1.230770e-06 -7.714943e-06 -1.603113e-06 -3.685607e-06 5.249584e-06 -1.402094e-06 9.696504e-06 1.511962e-05 -5.442365e-06 6.285468e-06 -6.728450e-06 -2.180349e-05 -2.261997e-05 -8.943401e-06 -3.105862e-06
<VARIANCE> 52
 9.829098e-01 9.745913e-01 9.740343e-01 9.747845e-01 9.734353e-01 9.731892e-01 9.732109e-01 9.738447e-01 9.731560e-01 9.731390e-01 9.733835e-01 9.728883e-01 9.731820e-01 9.709505e-01 9.666460e-01 9.682353e-01 9.678358e-01 9.685750e-01 9.694769e-01 9.696730e-01 9.700511e-01 9.701170e-01 9.705568e-01 9.709010e-01 9.709373e-01 9.708119e-01 9.705688e-01 9.672188e-01 9.684679e-01 9.689111e-01 9.695216e-01 9.698885e-01 9.702106e-01 9.706249e-01 9.708186e-01 9.710845e-01 9.713466e-01 9.713874e-01 9.713685e-01 9.698547e-01 9.669673e-01 9.682876e-01 9.687494e-01 9.694135e-01 9.699330e-01 9.703074e-01 9.705701e-01 9.709715e-01 9.711851e-01 9.714155e-01 9.713674e-01 9.713087e-01
<GCONST> 9.403939e+01
<STATE> 3
<MEAN> 52
 -2.295696e-03 -9.748086e-04 -8.065414e-05 -6.307599e-04 6.933094e-04 4.412487e-04 1.532098e-04 8.454637e-04 6.168885e-05 2.390285e-06 -2.048244e-04 1.025136e-04 -9.287726e-05 -1.136616e-06 -1.517374e-05 -1.279245e-05 -7.192986e-07 -9.521683e-06 -2.694962e-05 -8.763505e-06 -4.900316e-06 6.621045e-06 2.562404e-05 2.862874e-05 2.267435e-05 7.413362e-06 8.747889e-06 -8.552009e-07 7.153956e-06 -1.176737e-05 7.568835e-07 6.380189e-07 1.556078e-05 8.575757e-06 4.610412e-06 -8.782049e-06 -3.766749e-08 -1.230770e-06 -7.714943e-06 -1.603113e-06 -3.685607e-06 5.249584e-06 -1.402094e-06 9.696504e-06 1.511962e-05 -5.442365e-06 6.285468e-06 -6.728450e-06 -2.180349e-05 -2.261997e-05 -8.943401e-06 -3.105862e-06
<VARIANCE> 52
 9.829098e-01 9.745913e-01 9.740343e-01 9.747845e-01 9.734353e-01 9.731892e-01 9.732109e-01 9.738447e-01 9.731560e-01 9.731390e-01 9.733835e-01 9.728883e-01 9.731820e-01 9.709505e-01 9.666460e-01 9.682353e-01 9.678358e-01 9.685750e-01 9.694769e-01 9.696730e-01 9.700511e-01 9.701170e-01 9.705568e-01 9.709010e-01 9.709373e-01 9.708119e-01 9.705688e-01 9.672188e-01 9.684679e-01 9.689111e-01 9.695216e-01 9.698885e-01 9.702106e-01 9.706249e-01 9.708186e-01 9.710845e-01 9.713466e-01 9.713874e-01 9.713685e-01 9.698547e-01 9.669673e-01 9.682876e-01 9.687494e-01 9.694135e-01 9.699330e-01 9.703074e-01 9.705701e-01 9.709715e-01 9.711851e-01 9.714155e-01 9.713674e-01 9.713087e-01
<GCONST> 9.403939e+01
<STATE> 4
<MEAN> 52
 -2.295696e-03 -9.748086e-04 -8.065414e-05 -6.307599e-04 6.933094e-04 4.412487e-04 1.532098e-04 8.454637e-04 6.168885e-05 2.390285e-06 -2.048244e-04 1.025136e-04 -9.287726e-05 -1.136616e-06 -1.517374e-05 -1.279245e-05 -7.192986e-07 -9.521683e-06 -2.694962e-05 -8.763505e-06 -4.900316e-06 6.621045e-06 2.562404e-05 2.862874e-05 2.267435e-05 7.413362e-06 8.747889e-06 -8.552009e-07 7.153956e-06 -1.176737e-05 7.568835e-07 6.380189e-07 1.556078e-05 8.575757e-06 4.610412e-06 -8.782049e-06 -3.766749e-08 -1.230770e-06 -7.714943e-06 -1.603113e-06 -3.685607e-06 5.249584e-06 -1.402094e-06 9.696504e-06 1.511962e-05 -5.442365e-06 6.285468e-06 -6.728450e-06 -2.180349e-05 -2.261997e-05 -8.943401e-06 -3.105862e-06
<VARIANCE> 52
 9.829098e-01 9.745913e-01 9.740343e-01 9.747845e-01 9.734353e-01 9.731892e-01 9.732109e-01 9.738447e-01 9.731560e-01 9.731390e-01 9.733835e-01 9.728883e-01 9.731820e-01 9.709505e-01 9.666460e-01 9.682353e-01 9.678358e-01 9.685750e-01 9.694769e-01 9.696730e-01 9.700511e-01 9.701170e-01 9.705568e-01 9.709010e-01 9.709373e-01 9.708119e-01 9.705688e-01 9.672188e-01 9.684679e-01 9.689111e-01 9.695216e-01 9.698885e-01 9.702106e-01 9.706249e-01 9.708186e-01 9.710845e-01 9.713466e-01 9.713874e-01 9.713685e-01 9.698547e-01 9.669673e-01 9.682876e-01 9.687494e-01 9.694135e-01 9.699330e-01 9.703074e-01 9.705701e-01 9.709715e-01 9.711851e-01 9.714155e-01 9.713674e-01 9.713087e-01
<GCONST> 9.403939e+01
<TRANSP> 5
 0.000000e+00 1.000000e+00 0.000000e+00 0.000000e+00 0.000000e+00
 0.000000e+00 6.000000e-01 4.000000e-01 0.000000e+00 0.000000e+00
 0.000000e+00 0.000000e+00 6.000000e-01 4.000000e-01 0.000000e+00
 0.000000e+00 0.000000e+00 0.000000e+00 6.000000e-01 4.000000e-01
 0.000000e+00 0.000000e+00 0.000000e+00 0.000000e+00 0.000000e+00
<ENDHMM>
~h "N"
<BEGINHMM>
<NUMSTATES> 5
<STATE> 2
<MEAN> 52
 -2.295696e-03 -9.748086e-04 -8.065414e-05 -6.307599e-04 6.933094e-04 4.412487e-04 1.532098e-04 8.454637e-04 6.168885e-05 2.390285e-06 -2.048244e-04 1.025136e-04 -9.287726e-05 -1.136616e-06 -1.517374e-05 -1.279245e-05 -7.192986e-07 -9.521683e-06 -2.694962e-05 -8.763505e-06 -4.900316e-06 6.621045e-06 2.562404e-05 2.862874e-05 2.267435e-05 7.413362e-06 8.747889e-06 -8.552009e-07 7.153956e-06 -1.176737e-05 7.568835e-07 6.380189e-07 1.556078e-05 8.575757e-06 4.610412e-06 -8.782049e-06 -3.766749e-08 -1.230770e-06 -7.714943e-06 -1.603113e-06 -3.685607e-06 5.249584e-06 -1.402094e-06 9.696504e-06 1.511962e-05 -5.442365e-06 6.285468e-06 -6.728450e-06 -2.180349e-05 -2.261997e-05 -8.943401e-06 -3.105862e-06
<VARIANCE> 52
 9.829098e-01 9.745913e-01 9.740343e-01 9.747845e-01 9.734353e-01 9.731892e-01 9.732109e-01 9.738447e-01 9.731560e-01 9.731390e-01 9.733835e-01 9.728883e-01 9.731820e-01 9.709505e-01 9.666460e-01 9.682353e-01 9.678358e-01 9.685750e-01 9.694769e-01 9.696730e-01 9.700511e-01 9.701170e-01 9.705568e-01 9.709010e-01 9.709373e-01 9.708119e-01 9.705688e-01 9.672188e-01 9.684679e-01 9.689111e-01 9.695216e-01 9.698885e-01 9.702106e-01 9.706249e-01 9.708186e-01 9.710845e-01 9.713466e-01 9.713874e-01 9.713685e-01 9.698547e-01 9.669673e-01 9.682876e-01 9.687494e-01 9.694135e-01 9.699330e-01 9.703074e-01 9.705701e-01 9.709715e-01 9.711851e-01 9.714155e-01 9.713674e-01 9.713087e-01
<GCONST> 9.403939e+01
<STATE> 3
<MEAN> 52
 -2.295696e-03 -9.748086e-04 -8.065414e-05 -6.307599e-04 6.933094e-04 4.412487e-04 1.532098e-04 8.454637e-04 6.168885e-05 2.390285e-06 -2.048244e-04 1.025136e-04 -9.287726e-05 -1.136616e-06 -1.517374e-05 -1.279245e-05 -7.192986e-07 -9.521683e-06 -2.694962e-05 -8.763505e-06 -4.900316e-06 6.621045e-06 2.562404e-05 2.862874e-05 2.267435e-05 7.413362e-06 8.747889e-06 -8.552009e-07 7.153956e-06 -1.176737e-05 7.568835e-07 6.380189e-07 1.556078e-05 8.575757e-06 4.610412e-06 -8.782049e-06 -3.766749e-08 -1.230770e-06 -7.714943e-06 -1.603113e-06 -3.685607e-06 5.249584e-06 -1.402094e-06 9.696504e-06 1.511962e-05 -5.442365e-06 6.285468e-06 -6.728450e-06 -2.180349e-05 -2.261997e-05 -8.943401e-06 -3.105862e-06
<VARIANCE> 52
 9.829098e-01 9.745913e-01 9.740343e-01 9.747845e-01 9.734353e-01 9.731892e-01 9.732109e-01 9.738447e-01 9.731560e-01 9.731390e-01 9.733835e-01 9.728883e-01 9.731820e-01 9.709505e-01 9.666460e-01 9.682353e-01 9.678358e-01 9.685750e-01 9.694769e-01 9.696730e-01 9.700511e-01 9.701170e-01 9.705568e-01 9.709010e-01 9.709373e-01 9.708119e-01 9.705688e-01 9.672188e-01 9.684679e-01 9.689111e-01 9.695216e-01 9.698885e-01 9.702106e-01 9.706249e-01 9.708186e-01 9.710845e-01 9.713466e-01 9.713874e-01 9.713685e-01 9.698547e-01 9.669673e-01 9.682876e-01 9.687494e-01 9.694135e-01 9.699330e-01 9.703074e-01 9.705701e-01 9.709715e-01 9.711851e-01 9.714155e-01 9.713674e-01 9.713087e-01
<GCONST> 9.403939e+01
<STATE> 4
<MEAN> 52
 -2.295696e-03 -9.748086e-04 -8.065414e-05 -6.307599e-04 6.933094e-04 4.412487e-04 1.532098e-04 8.454637e-04 6.168885e-05 2.390285e-06 -2.048244e-04 1.025136e-04 -9.287726e-05 -1.136616e-06 -1.517374e-05 -1.279245e-05 -7.192986e-07 -9.521683e-06 -2.694962e-05 -8.763505e-06 -4.900316e-06 6.621045e-06 2.562404e-05 2.862874e-05 2.267435e-05 7.413362e-06 8.747889e-06 -8.552009e-07 7.153956e-06 -1.176737e-05 7.568835e-07 6.380189e-07 1.556078e-05 8.575757e-06 4.610412e-06 -8.782049e-06 -3.766749e-08 -1.230770e-06 -7.714943e-06 -1.603113e-06 -3.685607e-06 5.249584e-06 -1.402094e-06 9.696504e-06 1.511962e-05 -5.442365e-06 6.285468e-06 -6.728450e-06 -2.180349e-05 -2.261997e-05 -8.943401e-06 -3.105862e-06
<VARIANCE> 52
 9.829098e-01 9.745913e-01 9.740343e-01 9.747845e-01 9.734353e-01 9.731892e-01 9.732109e-01 9.738447e-01 9.731560e-01 9.731390e-01 9.733835e-01 9.728883e-01 9.731820e-01 9.709505e-01 9.666460e-01 9.682353e-01 9.678358e-01 9.685750e-01 9.694769e-01 9.696730e-01 9.700511e-01 9.701170e-01 9.705568e-01 9.709010e-01 9.709373e-01 9.708119e-01 9.705688e-01 9.672188e-01 9.684679e-01 9.689111e-01 9.695216e-01 9.698885e-01 9.702106e-01 9.706249e-01 9.708186e-01 9.710845e-01 9.713466e-01 9.713874e-01 9.713685e-01 9.698547e-01 9.669673e-01 9.682876e-01 9.687494e-01 9.694135e-01 9.699330e-01 9.703074e-01 9.705701e-01 9.709715e-01 9.711851e-01 9.714155e-01 9.713674e-01 9.713087e-01
<GCONST> 9.403939e+01
<TRANSP> 5
 0.000000e+00 1.000000e+00 0.000000e+00 0.000000e+00 0.000000e+00
 0.000000e+00 6.000000e-01 4.000000e-01 0.000000e+00 0.000000e+00
 0.000000e+00 0.000000e+00 6.000000e-01 4.000000e-01 0.000000e+00
 0.000000e+00 0.000000e+00 0.000000e+00 6.000000e-01 4.000000e-01
 0.000000e+00 0.000000e+00 0.000000e+00 0.000000e+00 0.000000e+00
<ENDHMM>
~h "E"
<BEGINHMM>
<NUMSTATES> 5
<STATE> 2
<MEAN> 52
 -2.295696e-03 -9.748086e-04 -8.065414e-05 -6.307599e-04 6.933094e-04 4.412487e-04 1.532098e-04 8.454637e-04 6.168885e-05 2.390285e-06 -2.048244e-04 1.025136e-04 -9.287726e-05 -1.136616e-06 -1.517374e-05 -1.279245e-05 -7.192986e-07 -9.521683e-06 -2.694962e-05 -8.763505e-06 -4.900316e-06 6.621045e-06 2.562404e-05 2.862874e-05 2.267435e-05 7.413362e-06 8.747889e-06 -8.552009e-07 7.153956e-06 -1.176737e-05 7.568835e-07 6.380189e-07 1.556078e-05 8.575757e-06 4.610412e-06 -8.782049e-06 -3.766749e-08 -1.230770e-06 -7.714943e-06 -1.603113e-06 -3.685607e-06 5.249584e-06 -1.402094e-06 9.696504e-06 1.511962e-05 -5.442365e-06 6.285468e-06 -6.728450e-06 -2.180349e-05 -2.261997e-05 -8.943401e-06 -3.105862e-06
<VARIANCE> 52
 9.829098e-01 9.745913e-01 9.740343e-01 9.747845e-01 9.734353e-01 9.731892e-01 9.732109e-01 9.738447e-01 9.731560e-01 9.731390e-01 9.733835e-01 9.728883e-01 9.731820e-01 9.709505e-01 9.666460e-01 9.682353e-01 9.678358e-01 9.685750e-01 9.694769e-01 9.696730e-01 9.700511e-01 9.701170e-01 9.705568e-01 9.709010e-01 9.709373e-01 9.708119e-01 9.705688e-01 9.672188e-01 9.684679e-01 9.689111e-01 9.695216e-01 9.698885e-01 9.702106e-01 9.706249e-01 9.708186e-01 9.710845e-01 9.713466e-01 9.713874e-01 9.713685e-01 9.698547e-01 9.669673e-01 9.682876e-01 9.687494e-01 9.694135e-01 9.699330e-01 9.703074e-01 9.705701e-01 9.709715e-01 9.711851e-01 9.714155e-01 9.713674e-01 9.713087e-01
<GCONST> 9.403939e+01
<STATE> 3
<MEAN> 52
 -2.295696e-03 -9.748086e-04 -8.065414e-05 -6.307599e-04 6.933094e-04 4.412487e-04 1.532098e-04 8.454637e-04 6.168885e-05 2.390285e-06 -2.048244e-04 1.025136e-04 -9.287726e-05 -1.136616e-06 -1.517374e-05 -1.279245e-05 -7.192986e-07 -9.521683e-06 -2.694962e-05 -8.763505e-06 -4.900316e-06 6.621045e-06 2.562404e-05 2.862874e-05 2.267435e-05 7.413362e-06 8.747889e-06 -8.552009e-07 7.153956e-06 -1.176737e-05 7.568835e-07 6.380189e-07 1.556078e-05 8.575757e-06 4.610412e-06 -8.782049e-06 -3.766749e-08 -1.230770e-06 -7.714943e-06 -1.603113e-06 -3.685607e-06 5.249584e-06 -1.402094e-06 9.696504e-06 1.511962e-05 -5.442365e-06 6.285468e-06 -6.728450e-06 -2.180349e-05 -2.261997e-05 -8.943401e-06 -3.105862e-06
<VARIANCE> 52
 9.829098e-01 9.745913e-01 9.740343e-01 9.747845e-01 9.734353e-01 9.731892e-01 9.732109e-01 9.738447e-01 9.731560e-01 9.731390e-01 9.733835e-01 9.728883e-01 9.731820e-01 9.709505e-01 9.666460e-01 9.682353e-01 9.678358e-01 9.685750e-01 9.694769e-01 9.696730e-01 9.700511e-01 9.701170e-01 9.705568e-01 9.709010e-01 9.709373e-01 9.708119e-01 9.705688e-01 9.672188e-01 9.684679e-01 9.689111e-01 9.695216e-01 9.698885e-01 9.702106e-01 9.706249e-01 9.708186e-01 9.710845e-01 9.713466e-01 9.713874e-01 9.713685e-01 9.698547e-01 9.669673e-01 9.682876e-01 9.687494e-01 9.694135e-01 9.699330e-01 9.703074e-01 9.705701e-01 9.709715e-01 9.711851e-01 9.714155e-01 9.713674e-01 9.713087e-01
<GCONST> 9.403939e+01
<STATE> 4
<MEAN> 52
 -2.295696e-03 -9.748086e-04 -8.065414e-05 -6.307599e-04 6.933094e-04 4.412487e-04 1.532098e-04 8.454637e-04 6.168885e-05 2.390285e-06 -2.048244e-04 1.025136e-04 -9.287726e-05 -1.136616e-06 -1.517374e-05 -1.279245e-05 -7.192986e-07 -9.521683e-06 -2.694962e-05 -8.763505e-06 -4.900316e-06 6.621045e-06 2.562404e-05 2.862874e-05 2.267435e-05 7.413362e-06 8.747889e-06 -8.552009e-07 7.153956e-06 -1.176737e-05 7.568835e-07 6.380189e-07 1.556078e-05 8.575757e-06 4.610412e-06 -8.782049e-06 -3.766749e-08 -1.230770e-06 -7.714943e-06 -1.603113e-06 -3.685607e-06 5.249584e-06 -1.402094e-06 9.696504e-06 1.511962e-05 -5.442365e-06 6.285468e-06 -6.728450e-06 -2.180349e-05 -2.261997e-05 -8.943401e-06 -3.105862e-06
<VARIANCE> 52
 9.829098e-01 9.745913e-01 9.740343e-01 9.747845e-01 9.734353e-01 9.731892e-01 9.732109e-01 9.738447e-01 9.731560e-01 9.731390e-01 9.733835e-01 9.728883e-01 9.731820e-01 9.709505e-01 9.666460e-01 9.682353e-01 9.678358e-01 9.685750e-01 9.694769e-01 9.696730e-01 9.700511e-01 9.701170e-01 9.705568e-01 9.709010e-01 9.709373e-01 9.708119e-01 9.705688e-01 9.672188e-01 9.684679e-01 9.689111e-01 9.695216e-01 9.698885e-01 9.702106e-01 9.706249e-01 9.708186e-01 9.710845e-01 9.713466e-01 9.713874e-01 9.713685e-01 9.698547e-01 9.669673e-01 9.682876e-01 9.687494e-01 9.694135e-01 9.699330e-01 9.703074e-01 9.705701e-01 9.709715e-01 9.711851e-01 9.714155e-01 9.713674e-01 9.713087e-01
<GCONST> 9.403939e+01
<TRANSP> 5
 0.000000e+00 1.000000e+00 0.000000e+00 0.000000e+00 0.000000e+00
 0.000000e+00 6.000000e-01 4.000000e-01 0.000000e+00 0.000000e+00
 0.000000e+00 0.000000e+00 6.000000e-01 4.000000e-01 0.000000e+00
 0.000000e+00 0.000000e+00 0.000000e+00 6.000000e-01 4.000000e-01
 0.000000e+00 0.000000e+00 0.000000e+00 0.000000e+00 0.000000e+00
<ENDHMM>
~h "A"
<BEGINHMM>
<NUMSTATES> 5
<STATE> 2
<MEAN> 52
 -2.295696e-03 -9.748086e-04 -8.065414e-05 -6.307599e-04 6.933094e-04 4.412487e-04 1.532098e-04 8.454637e-04 6.168885e-05 2.390285e-06 -2.048244e-04 1.025136e-04 -9.287726e-05 -1.136616e-06 -1.517374e-05 -1.279245e-05 -7.192986e-07 -9.521683e-06 -2.694962e-05 -8.763505e-06 -4.900316e-06 6.621045e-06 2.562404e-05 2.862874e-05 2.267435e-05 7.413362e-06 8.747889e-06 -8.552009e-07 7.153956e-06 -1.176737e-05 7.568835e-07 6.380189e-07 1.556078e-05 8.575757e-06 4.610412e-06 -8.782049e-06 -3.766749e-08 -1.230770e-06 -7.714943e-06 -1.603113e-06 -3.685607e-06 5.249584e-06 -1.402094e-06 9.696504e-06 1.511962e-05 -5.442365e-06 6.285468e-06 -6.728450e-06 -2.180349e-05 -2.261997e-05 -8.943401e-06 -3.105862e-06
<VARIANCE> 52
 9.829098e-01 9.745913e-01 9.740343e-01 9.747845e-01 9.734353e-01 9.731892e-01 9.732109e-01 9.738447e-01 9.731560e-01 9.731390e-01 9.733835e-01 9.728883e-01 9.731820e-01 9.709505e-01 9.666460e-01 9.682353e-01 9.678358e-01 9.685750e-01 9.694769e-01 9.696730e-01 9.700511e-01 9.701170e-01 9.705568e-01 9.709010e-01 9.709373e-01 9.708119e-01 9.705688e-01 9.672188e-01 9.684679e-01 9.689111e-01 9.695216e-01 9.698885e-01 9.702106e-01 9.706249e-01 9.708186e-01 9.710845e-01 9.713466e-01 9.713874e-01 9.713685e-01 9.698547e-01 9.669673e-01 9.682876e-01 9.687494e-01 9.694135e-01 9.699330e-01 9.703074e-01 9.705701e-01 9.709715e-01 9.711851e-01 9.714155e-01 9.713674e-01 9.713087e-01
<GCONST> 9.403939e+01
<STATE> 3
<MEAN> 52
 -2.295696e-03 -9.748086e-04 -8.065414e-05 -6.307599e-04 6.933094e-04 4.412487e-04 1.532098e-04 8.454637e-04 6.168885e-05 2.390285e-06 -2.048244e-04 1.025136e-04 -9.287726e-05 -1.136616e-06 -1.517374e-05 -1.279245e-05 -7.192986e-07 -9.521683e-06 -2.694962e-05 -8.763505e-06 -4.900316e-06 6.621045e-06 2.562404e-05 2.862874e-05 2.267435e-05 7.413362e-06 8.747889e-06 -8.552009e-07 7.153956e-06 -1.176737e-05 7.568835e-07 6.380189e-07 1.556078e-05 8.575757e-06 4.610412e-06 -8.782049e-06 -3.766749e-08 -1.230770e-06 -7.714943e-06 -1.603113e-06 -3.685607e-06 5.249584e-06 -1.402094e-06 9.696504e-06 1.511962e-05 -5.442365e-06 6.285468e-06 -6.728450e-06 -2.180349e-05 -2.261997e-05 -8.943401e-06 -3.105862e-06
<VARIANCE> 52
 9.829098e-01 9.745913e-01 9.740343e-01 9.747845e-01 9.734353e-01 9.731892e-01 9.732109e-01 9.738447e-01 9.731560e-01 9.731390e-01 9.733835e-01 9.728883e-01 9.731820e-01 9.709505e-01 9.666460e-01 9.682353e-01 9.678358e-01 9.685750e-01 9.694769e-01 9.696730e-01 9.700511e-01 9.701170e-01 9.705568e-01 9.709010e-01 9.709373e-01 9.708119e-01 9.705688e-01 9.672188e-01 9.684679e-01 9.689111e-01 9.695216e-01 9.698885e-01 9.702106e-01 9.706249e-01 9.708186e-01 9.710845e-01 9.713466e-01 9.713874e-01 9.713685e-01 9.698547e-01 9.669673e-01 9.682876e-01 9.687494e-01 9.694135e-01 9.699330e-01 9.703074e-01 9.705701e-01 9.709715e-01 9.711851e-01 9.714155e-01 9.713674e-01 9.713087e-01
<GCONST> 9.403939e+01
<STATE> 4
<MEAN> 52
 -2.295696e-03 -9.748086e-04 -8.065414e-05 -6.307599e-04 6.933094e-04 4.412487e-04 1.532098e-04 8.454637e-04 6.168885e-05 2.390285e-06 -2.048244e-04 1.025136e-04 -9.287726e-05 -1.136616e-06 -1.517374e-05 -1.279245e-05 -7.192986e-07 -9.521683e-06 -2.694962e-05 -8.763505e-06 -4.900316e-06 6.621045e-06 2.562404e-05 2.862874e-05 2.267435e-05 7.413362e-06 8.747889e-06 -8.552009e-07 7.153956e-06 -1.176737e-05 7.568835e-07 6.380189e-07 1.556078e-05 8.575757e-06 4.610412e-06 -8.782049e-06 -3.766749e-08 -1.230770e-06 -7.714943e-06 -1.603113e-06 -3.685607e-06 5.249584e-06 -1.402094e-06 9.696504e-06 1.511962e-05 -5.442365e-06 6.285468e-06 -6.728450e-06 -2.180349e-05 -2.261997e-05 -8.943401e-06 -3.105862e-06
<VARIANCE> 52
 9.829098e-01 9.745913e-01 9.740343e-01 9.747845e-01 9.734353e-01 9.731892e-01 9.732109e-01 9.738447e-01 9.731560e-01 9.731390e-01 9.733835e-01 9.728883e-01 9.731820e-01 9.709505e-01 9.666460e-01 9.682353e-01 9.678358e-01 9.685750e-01 9.694769e-01 9.696730e-01 9.700511e-01 9.701170e-01 9.705568e-01 9.709010e-01 9.709373e-01 9.708119e-01 9.705688e-01 9.672188e-01 9.684679e-01 9.689111e-01 9.695216e-01 9.698885e-01 9.702106e-01 9.706249e-01 9.708186e-01 9.710845e-01 9.713466e-01 9.713874e-01 9.713685e-01 9.698547e-01 9.669673e-01 9.682876e-01 9.687494e-01 9.694135e-01 9.699330e-01 9.703074e-01 9.705701e-01 9.709715e-01 9.711851e-01 9.714155e-01 9.713674e-01 9.713087e-01
<GCONST> 9.403939e+01
<TRANSP> 5
 0.000000e+00 1.000000e+00 0.000000e+00 0.000000e+00 0.000000e+00
 0.000000e+00 6.000000e-01 4.000000e-01 0.000000e+00 0.000000e+00
 0.000000e+00 0.000000e+00 6.000000e-01 4.000000e-01 0.000000e+00
 0.000000e+00 0.000000e+00 0.000000e+00 6.000000e-01 4.000000e-01
 0.000000e+00 0.000000e+00 0.000000e+00 0.000000e+00 0.000000e+00
<ENDHMM>
~h "L"
<BEGINHMM>
<NUMSTATES> 5
<STATE> 2
<MEAN> 52
 -2.295696e-03 -9.748086e-04 -8.065414e-05 -6.307599e-04 6.933094e-04 4.412487e-04 1.532098e-04 8.454637e-04 6.168885e-05 2.390285e-06 -2.048244e-04 1.025136e-04 -9.287726e-05 -1.136616e-06 -1.517374e-05 -1.279245e-05 -7.192986e-07 -9.521683e-06 -2.694962e-05 -8.763505e-06 -4.900316e-06 6.621045e-06 2.562404e-05 2.862874e-05 2.267435e-05 7.413362e-06 8.747889e-06 -8.552009e-07 7.153956e-06 -1.176737e-05 7.568835e-07 6.380189e-07 1.556078e-05 8.575757e-06 4.610412e-06 -8.782049e-06 -3.766749e-08 -1.230770e-06 -7.714943e-06 -1.603113e-06 -3.685607e-06 5.249584e-06 -1.402094e-06 9.696504e-06 1.511962e-05 -5.442365e-06 6.285468e-06 -6.728450e-06 -2.180349e-05 -2.261997e-05 -8.943401e-06 -3.105862e-06
<VARIANCE> 52
 9.829098e-01 9.745913e-01 9.740343e-01 9.747845e-01 9.734353e-01 9.731892e-01 9.732109e-01 9.738447e-01 9.731560e-01 9.731390e-01 9.733835e-01 9.728883e-01 9.731820e-01 9.709505e-01 9.666460e-01 9.682353e-01 9.678358e-01 9.685750e-01 9.694769e-01 9.696730e-01 9.700511e-01 9.701170e-01 9.705568e-01 9.709010e-01 9.709373e-01 9.708119e-01 9.705688e-01 9.672188e-01 9.684679e-01 9.689111e-01 9.695216e-01 9.698885e-01 9.702106e-01 9.706249e-01 9.708186e-01 9.710845e-01 9.713466e-01 9.713874e-01 9.713685e-01 9.698547e-01 9.669673e-01 9.682876e-01 9.687494e-01 9.694135e-01 9.699330e-01 9.703074e-01 9.705701e-01 9.709715e-01 9.711851e-01 9.714155e-01 9.713674e-01 9.713087e-01
<GCONST> 9.403939e+01
<STATE> 3
<MEAN> 52
 -2.295696e-03 -9.748086e-04 -8.065414e-05 -6.307599e-04 6.933094e-04 4.412487e-04 1.532098e-04 8.454637e-04 6.168885e-05 2.390285e-06 -2.048244e-04 1.025136e-04 -9.287726e-05 -1.136616e-06 -1.517374e-05 -1.279245e-05 -7.192986e-07 -9.521683e-06 -2.694962e-05 -8.763505e-06 -4.900316e-06 6.621045e-06 2.562404e-05 2.862874e-05 2.267435e-05 7.413362e-06 8.747889e-06 -8.552009e-07 7.153956e-06 -1.176737e-05 7.568835e-07 6.380189e-07 1.556078e-05 8.575757e-06 4.610412e-06 -8.782049e-06 -3.766749e-08 -1.230770e-06 -7.714943e-06 -1.603113e-06 -3.685607e-06 5.249584e-06 -1.402094e-06 9.696504e-06 1.511962e-05 -5.442365e-06 6.285468e-06 -6.728450e-06 -2.180349e-05 -2.261997e-05 -8.943401e-06 -3.105862e-06
<VARIANCE> 52
 9.829098e-01 9.745913e-01 9.740343e-01 9.747845e-01 9.734353e-01 9.731892e-01 9.732109e-01 9.738447e-01 9.731560e-01 9.731390e-01 9.733835e-01 9.728883e-01 9.731820e-01 9.709505e-01 9.666460e-01 9.682353e-01 9.678358e-01 9.685750e-01 9.694769e-01 9.696730e-01 9.700511e-01 9.701170e-01 9.705568e-01 9.709010e-01 9.709373e-01 9.708119e-01 9.705688e-01 9.672188e-01 9.684679e-01 9.689111e-01 9.695216e-01 9.698885e-01 9.702106e-01 9.706249e-01 9.708186e-01 9.710845e-01 9.713466e-01 9.713874e-01 9.713685e-01 9.698547e-01 9.669673e-01 9.682876e-01 9.687494e-01 9.694135e-01 9.699330e-01 9.703074e-01 9.705701e-01 9.709715e-01 9.711851e-01 9.714155e-01 9.713674e-01 9.713087e-01
<GCONST> 9.403939e+01
<STATE> 4
<MEAN> 52
 -2.295696e-03 -9.748086e-04 -8.065414e-05 -6.307599e-04 6.933094e-04 4.412487e-04 1.532098e-04 8.454637e-04 6.168885e-05 2.390285e-06 -2.048244e-04 1.025136e-04 -9.287726e-05 -1.136616e-06 -1.517374e-05 -1.279245e-05 -7.192986e-07 -9.521683e-06 -2.694962e-05 -8.763505e-06 -4.900316e-06 6.621045e-06 2.562404e-05 2.862874e-05 2.267435e-05 7.413362e-06 8.747889e-06 -8.552009e-07 7.153956e-06 -1.176737e-05 7.568835e-07 6.380189e-07 1.556078e-05 8.575757e-06 4.610412e-06 -8.782049e-06 -3.766749e-08 -1.230770e-06 -7.714943e-06 -1.603113e-06 -3.685607e-06 5.249584e-06 -1.402094e-06 9.696504e-06 1.511962e-05 -5.442365e-06 6.285468e-06 -6.728450e-06 -2.180349e-05 -2.261997e-05 -8.943401e-06 -3.105862e-06
<VARIANCE> 52
 9.829098e-01 9.745913e-01 9.740343e-01 9.747845e-01 9.734353e-01 9.731892e-01 9.732109e-01 9.738447e-01 9.731560e-01 9.731390e-01 9.733835e-01 9.728883e-01 9.731820e-01 9.709505e-01 9.666460e-01 9.682353e-01 9.678358e-01 9.685750e-01 9.694769e-01 9.696730e-01 9.700511e-01 9.701170e-01 9.705568e-01 9.709010e-01 9.709373e-01 9.708119e-01 9.705688e-01 9.672188e-01 9.684679e-01 9.689111e-01 9.695216e-01 9.698885e-01 9.702106e-01 9.706249e-01 9.708186e-01 9.710845e-01 9.713466e-01 9.713874e-01 9.713685e-01 9.698547e-01 9.669673e-01 9.682876e-01 9.687494e-01 9.694135e-01 9.699330e-01 9.703074e-01 9.705701e-01 9.709715e-01 9.711851e-01 9.714155e-01 9.713674e-01 9.713087e-01
<GCONST> 9.403939e+01
<TRANSP> 5
 0.000000e+00 1.000000e+00 0.000000e+00 0.000000e+00 0.000000e+00
 0.000000e+00 6.000000e-01 4.000000e-01 0.000000e+00 0.000000e+00
 0.000000e+00 0.000000e+00 6.000000e-01 4.000000e-01 0.000000e+00
 0.000000e+00 0.000000e+00 0.000000e+00 6.000000e-01 4.000000e-01
 0.000000e+00 0.000000e+00 0.000000e+00 0.000000e+00 0.000000e+00
<ENDHMM>
~h "EO"
<BEGINHMM>
<NUMSTATES> 5
<STATE> 2
<MEAN> 52
 -2.295696e-03 -9.748086e-04 -8.065414e-05 -6.307599e-04 6.933094e-04 4.412487e-04 1.532098e-04 8.454637e-04 6.168885e-05 2.390285e-06 -2.048244e-04 1.025136e-04 -9.287726e-05 -1.136616e-06 -1.517374e-05 -1.279245e-05 -7.192986e-07 -9.521683e-06 -2.694962e-05 -8.763505e-06 -4.900316e-06 6.621045e-06 2.562404e-05 2.862874e-05 2.267435e-05 7.413362e-06 8.747889e-06 -8.552009e-07 7.153956e-06 -1.176737e-05 7.568835e-07 6.380189e-07 1.556078e-05 8.575757e-06 4.610412e-06 -8.782049e-06 -3.766749e-08 -1.230770e-06 -7.714943e-06 -1.603113e-06 -3.685607e-06 5.249584e-06 -1.402094e-06 9.696504e-06 1.511962e-05 -5.442365e-06 6.285468e-06 -6.728450e-06 -2.180349e-05 -2.261997e-05 -8.943401e-06 -3.105862e-06
<VARIANCE> 52
 9.829098e-01 9.745913e-01 9.740343e-01 9.747845e-01 9.734353e-01 9.731892e-01 9.732109e-01 9.738447e-01 9.731560e-01 9.731390e-01 9.733835e-01 9.728883e-01 9.731820e-01 9.709505e-01 9.666460e-01 9.682353e-01 9.678358e-01 9.685750e-01 9.694769e-01 9.696730e-01 9.700511e-01 9.701170e-01 9.705568e-01 9.709010e-01 9.709373e-01 9.708119e-01 9.705688e-01 9.672188e-01 9.684679e-01 9.689111e-01 9.695216e-01 9.698885e-01 9.702106e-01 9.706249e-01 9.708186e-01 9.710845e-01 9.713466e-01 9.713874e-01 9.713685e-01 9.698547e-01 9.669673e-01 9.682876e-01 9.687494e-01 9.694135e-01 9.699330e-01 9.703074e-01 9.705701e-01 9.709715e-01 9.711851e-01 9.714155e-01 9.713674e-01 9.713087e-01
<GCONST> 9.403939e+01
<STATE> 3
<MEAN> 52
 -2.295696e-03 -9.748086e-04 -8.065414e-05 -6.307599e-04 6.933094e-04 4.412487e-04 1.532098e-04 8.454637e-04 6.168885e-05 2.390285e-06 -2.048244e-04 1.025136e-04 -9.287726e-05 -1.136616e-06 -1.517374e-05 -1.279245e-05 -7.192986e-07 -9.521683e-06 -2.694962e-05 -8.763505e-06 -4.900316e-06 6.621045e-06 2.562404e-05 2.862874e-05 2.267435e-05 7.413362e-06 8.747889e-06 -8.552009e-07 7.153956e-06 -1.176737e-05 7.568835e-07 6.380189e-07 1.556078e-05 8.575757e-06 4.610412e-06 -8.782049e-06 -3.766749e-08 -1.230770e-06 -7.714943e-06 -1.603113e-06 -3.685607e-06 5.249584e-06 -1.402094e-06 9.696504e-06 1.511962e-05 -5.442365e-06 6.285468e-06 -6.728450e-06 -2.180349e-05 -2.261997e-05 -8.943401e-06 -3.105862e-06
<VARIANCE> 52
 9.829098e-01 9.745913e-01 9.740343e-01 9.747845e-01 9.734353e-01 9.731892e-01 9.732109e-01 9.738447e-01 9.731560e-01 9.731390e-01 9.733835e-01 9.728883e-01 9.731820e-01 9.709505e-01 9.666460e-01 9.682353e-01 9.678358e-01 9.685750e-01 9.694769e-01 9.696730e-01 9.700511e-01 9.701170e-01 9.705568e-01 9.709010e-01 9.709373e-01 9.708119e-01 9.705688e-01 9.672188e-01 9.684679e-01 9.689111e-01 9.695216e-01 9.698885e-01 9.702106e-01 9.706249e-01 9.708186e-01 9.710845e-01 9.713466e-01 9.713874e-01 9.713685e-01 9.698547e-01 9.669673e-01 9.682876e-01 9.687494e-01 9.694135e-01 9.699330e-01 9.703074e-01 9.705701e-01 9.709715e-01 9.711851e-01 9.714155e-01 9.713674e-01 9.713087e-01
<GCONST> 9.403939e+01
<STATE> 4
<MEAN> 52
 -2.295696e-03 -9.748086e-04 -8.065414e-05 -6.307599e-04 6.933094e-04 4.412487e-04 1.532098e-04 8.454637e-04 6.168885e-05 2.390285e-06 -2.048244e-04 1.025136e-04 -9.287726e-05 -1.136616e-06 -1.517374e-05 -1.279245e-05 -7.192986e-07 -9.521683e-06 -2.694962e-05 -8.763505e-06 -4.900316e-06 6.621045e-06 2.562404e-05 2.862874e-05 2.267435e-05 7.413362e-06 8.747889e-06 -8.552009e-07 7.153956e-06 -1.176737e-05 7.568835e-07 6.380189e-07 1.556078e-05 8.575757e-06 4.610412e-06 -8.782049e-06 -3.766749e-08 -1.230770e-06 -7.714943e-06 -1.603113e-06 -3.685607e-06 5.249584e-06 -1.402094e-06 9.696504e-06 1.511962e-05 -5.442365e-06 6.285468e-06 -6.728450e-06 -2.180349e-05 -2.261997e-05 -8.943401e-06 -3.105862e-06
<VARIANCE> 52
 9.829098e-01 9.745913e-01 9.740343e-01 9.747845e-01 9.734353e-01 9.731892e-01 9.732109e-01 9.738447e-01 9.731560e-01 9.731390e-01 9.733835e-01 9.728883e-01 9.731820e-01 9.709505e-01 9.666460e-01 9.682353e-01 9.678358e-01 9.685750e-01 9.694769e-01 9.696730e-01 9.700511e-01 9.701170e-01 9.705568e-01 9.709010e-01 9.709373e-01 9.708119e-01 9.705688e-01 9.672188e-01 9.684679e-01 9.689111e-01 9.695216e-01 9.698885e-01 9.702106e-01 9.706249e-01 9.708186e-01 9.710845e-01 9.713466e-01 9.713874e-01 9.713685e-01 9.698547e-01 9.669673e-01 9.682876e-01 9.687494e-01 9.694135e-01 9.699330e-01 9.703074e-01 9.705701e-01 9.709715e-01 9.711851e-01 9.714155e-01 9.713674e-01 9.713087e-01
<GCONST> 9.403939e+01
<TRANSP> 5
 0.000000e+00 1.000000e+00 0.000000e+00 0.000000e+00 0.000000e+00
 0.000000e+00 6.000000e-01 4.000000e-01 0.000000e+00 0.000000e+00
 0.000000e+00 0.000000e+00 6.000000e-01 4.000000e-01 0.000000e+00
 0.000000e+00 0.000000e+00 0.000000e+00 6.000000e-01 4.000000e-01
 0.000000e+00 0.000000e+00 0.000000e+00 0.000000e+00 0.000000e+00
<ENDHMM>
