~h "a1"
<BEGINHMM>
<NUMSTATES> 5
<STATE> 2
<MEAN> 52
 -2.633533e-03 -7.590794e-04 -5.023713e-04 -7.722496e-04 1.020664e-03 5.436717e-06 6.219861e-05 7.482039e-04 5.662998e-05 1.312816e-04 1.612013e-04 4.537883e-04 1.476187e-04 7.248349e-06 -3.393925e-05 -2.440873e-05 -1.070037e-05 7.994362e-06 -1.250624e-05 -8.476622e-06 6.395113e-06 1.563548e-05 -2.726257e-05 -3.646029e-06 -7.183345e-06 -1.013966e-05 1.468344e-05 6.459016e-06 2.518873e-06 7.687093e-06 1.957398e-06 -3.495750e-06 -4.509172e-07 -8.504337e-06 6.731531e-08 -1.392306e-05 -1.542222e-05 -2.906701e-06 1.962978e-05 2.683648e-06 7.073778e-07 6.358121e-07 -3.009441e-06 3.083240e-06 -9.061120e-07 -1.332442e-05 -4.977887e-06 1.558978e-06 1.969036e-05 1.393268e-05 2.721163e-05 1.133617e-05
<VARIANCE> 52
 9.823492e-01 9.731483e-01 9.752311e-01 9.749091e-01 9.747771e-01 9.734979e-01 9.739454e-01 9.737328e-01 9.732655e-01 9.733865e-01 9.734423e-01 9.730576e-01 9.724492e-01 9.688368e-01 9.666015e-01 9.694306e-01 9.688821e-01 9.699932e-01 9.712142e-01 9.713351e-01 9.715728e-01 9.718160e-01 9.719783e-01 9.718980e-01 9.719121e-01 9.715400e-01 9.684328e-01 9.676102e-01 9.700027e-01 9.701184e-01 9.710317e-01 9.717178e-01 9.719301e-01 9.721297e-01 9.722497e-01 9.722958e-01 9.723998e-01 9.724238e-01 9.720991e-01 9.679034e-01 9.673409e-01 9.696908e-01 9.699568e-01 9.710049e-01 9.717237e-01 9.718229e-01 9.721447e-01 9.723063e-01 9.724119e-01 9.723689e-01 9.724489e-01 9.722693e-01
<GCONST> 9.408039e+01
<STATE> 3
<MEAN> 52
 -2.633533e-03 -7.590794e-04 -5.023713e-04 -7.722496e-04 1.020664e-03 5.436717e-06 6.219861e-05 7.482039e-04 5.662998e-05 1.312816e-04 1.612013e-04 4.537883e-04 1.476187e-04 7.248349e-06 -3.393925e-05 -2.440873e-05 -1.070037e-05 7.994362e-06 -1.250624e-05 -8.476622e-06 6.395113e-06 1.563548e-05 -2.726257e-05 -3.646029e-06 -7.183345e-06 -1.013966e-05 1.468344e-05 6.459016e-06 2.518873e-06 7.687093e-06 1.957398e-06 -3.495750e-06 -4.509172e-07 -8.504337e-06 6.731531e-08 -1.392306e-05 -1.542222e-05 -2.906701e-06 1.962978e-05 2.683648e-06 7.073778e-07 6.358121e-07 -3.009441e-06 3.083240e-06 -9.061120e-07 -1.332442e-05 -4.977887e-06 1.558978e-06 1.969036e-05 1.393268e-05 2.721163e-05 1.133617e-05
<VARIANCE> 52
 9.823492e-01 9.731483e-01 9.752311e-01 9.749091e-01 9.747771e-01 9.734979e-01 9.739454e-01 9.737328e-01 9.732655e-01 9.733865e-01 9.734423e-01 9.730576e-01 9.724492e-01 9.688368e-01 9.666015e-01 9.694306e-01 9.688821e-01 9.699932e-01 9.712142e-01 9.713351e-01 9.715728e-01 9.718160e-01 9.719783e-01 9.718980e-01 9.719121e-01 9.715400e-01 9.684328e-01 9.676102e-01 9.700027e-01 9.701184e-01 9.710317e-01 9.717178e-01 9.719301e-01 9.721297e-01 9.722497e-01 9.722958e-01 9.723998e-01 9.724238e-01 9.720991e-01 9.679034e-01 9.673409e-01 9.696908e-01 9.699568e-01 9.710049e-01 9.717237e-01 9.718229e-01 9.721447e-01 9.723063e-01 9.724119e-01 9.723689e-01 9.724489e-01 9.722693e-01
<GCONST> 9.408039e+01
<STATE> 4
<MEAN> 52
 -2.633533e-03 -7.590794e-04 -5.023713e-04 -7.722496e-04 1.020664e-03 5.436717e-06 6.219861e-05 7.482039e-04 5.662998e-05 1.312816e-04 1.612013e-04 4.537883e-04 1.476187e-04 7.248349e-06 -3.393925e-05 -2.440873e-05 -1.070037e-05 7.994362e-06 -1.250624e-05 -8.476622e-06 6.395113e-06 1.563548e-05 -2.726257e-05 -3.646029e-06 -7.183345e-06 -1.013966e-05 1.468344e-05 6.459016e-06 2.518873e-06 7.687093e-06 1.957398e-06 -3.495750e-06 -4.509172e-07 -8.504337e-06 6.731531e-08 -1.392306e-05 -1.542222e-05 -2.906701e-06 1.962978e-05 2.683648e-06 7.073778e-07 6.358121e-07 -3.009441e-06 3.083240e-06 -9.061120e-07 -1.332442e-05 -4.977887e-06 1.558978e-06 1.969036e-05 1.393268e-05 2.721163e-05 1.133617e-05
<VARIANCE> 52
 9.823492e-01 9.731483e-01 9.752311e-01 9.749091e-01 9.747771e-01 9.734979e-01 9.739454e-01 9.737328e-01 9.732655e-01 9.733865e-01 9.734423e-01 9.730576e-01 9.724492e-01 9.688368e-01 9.666015e-01 9.694306e-01 9.688821e-01 9.699932e-01 9.712142e-01 9.713351e-01 9.715728e-01 9.718160e-01 9.719783e-01 9.718980e-01 9.719121e-01 9.715400e-01 9.684328e-01 9.676102e-01 9.700027e-01 9.701184e-01 9.710317e-01 9.717178e-01 9.719301e-01 9.721297e-01 9.722497e-01 9.722958e-01 9.723998e-01 9.724238e-01 9.720991e-01 9.679034e-01 9.673409e-01 9.696908e-01 9.699568e-01 9.710049e-01 9.717237e-01 9.718229e-01 9.721447e-01 9.723063e-01 9.724119e-01 9.723689e-01 9.724489e-01 9.722693e-01
<GCONST> 9.408039e+01
<TRANSP> 5
 0.000000e+00 1.000000e+00 0.000000e+00 0.000000e+00 0.000000e+00
 0.000000e+00 6.000000e-01 4.000000e-01 0.000000e+00 0.000000e+00
 0.000000e+00 0.000000e+00 6.000000e-01 4.000000e-01 0.000000e+00
 0.000000e+00 0.000000e+00 0.000000e+00 6.000000e-01 4.000000e-01
 0.000000e+00 0.000000e+00 0.000000e+00 0.000000e+00 0.000000e+00
<ENDHMM>
~h "h"
<BEGINHMM>
<NUMSTATES> 5
<STATE> 2
<MEAN> 52
 -2.633533e-03 -7.590794e-04 -5.023713e-04 -7.722496e-04 1.020664e-03 5.436717e-06 6.219861e-05 7.482039e-04 5.662998e-05 1.312816e-04 1.612013e-04 4.537883e-04 1.476187e-04 7.248349e-06 -3.393925e-05 -2.440873e-05 -1.070037e-05 7.994362e-06 -1.250624e-05 -8.476622e-06 6.395113e-06 1.563548e-05 -2.726257e-05 -3.646029e-06 -7.183345e-06 -1.013966e-05 1.468344e-05 6.459016e-06 2.518873e-06 7.687093e-06 1.957398e-06 -3.495750e-06 -4.509172e-07 -8.504337e-06 6.731531e-08 -1.392306e-05 -1.542222e-05 -2.906701e-06 1.962978e-05 2.683648e-06 7.073778e-07 6.358121e-07 -3.009441e-06 3.083240e-06 -9.061120e-07 -1.332442e-05 -4.977887e-06 1.558978e-06 1.969036e-05 1.393268e-05 2.721163e-05 1.133617e-05
<VARIANCE> 52
 9.823492e-01 9.731483e-01 9.752311e-01 9.749091e-01 9.747771e-01 9.734979e-01 9.739454e-01 9.737328e-01 9.732655e-01 9.733865e-01 9.734423e-01 9.730576e-01 9.724492e-01 9.688368e-01 9.666015e-01 9.694306e-01 9.688821e-01 9.699932e-01 9.712142e-01 9.713351e-01 9.715728e-01 9.718160e-01 9.719783e-01 9.718980e-01 9.719121e-01 9.715400e-01 9.684328e-01 9.676102e-01 9.700027e-01 9.701184e-01 9.710317e-01 9.717178e-01 9.719301e-01 9.721297e-01 9.722497e-01 9.722958e-01 9.723998e-01 9.724238e-01 9.720991e-01 9.679034e-01 9.673409e-01 9.696908e-01 9.699568e-01 9.710049e-01 9.717237e-01 9.718229e-01 9.721447e-01 9.723063e-01 9.724119e-01 9.723689e-01 9.724489e-01 9.722693e-01
<GCONST> 9.408039e+01
<STATE> 3
<MEAN> 52
 -2.633533e-03 -7.590794e-04 -5.023713e-04 -7.722496e-04 1.020664e-03 5.436717e-06 6.219861e-05 7.482039e-04 5.662998e-05 1.312816e-04 1.612013e-04 4.537883e-04 1.476187e-04 7.248349e-06 -3.393925e-05 -2.440873e-05 -1.070037e-05 7.994362e-06 -1.250624e-05 -8.476622e-06 6.395113e-06 1.563548e-05 -2.726257e-05 -3.646029e-06 -7.183345e-06 -1.013966e-05 1.468344e-05 6.459016e-06 2.518873e-06 7.687093e-06 1.957398e-06 -3.495750e-06 -4.509172e-07 -8.504337e-06 6.731531e-08 -1.392306e-05 -1.542222e-05 -2.906701e-06 1.962978e-05 2.683648e-06 7.073778e-07 6.358121e-07 -3.009441e-06 3.083240e-06 -9.061120e-07 -1.332442e-05 -4.977887e-06 1.558978e-06 1.969036e-05 1.393268e-05 2.721163e-05 1.133617e-05
<VARIANCE> 52
 9.823492e-01 9.731483e-01 9.752311e-01 9.749091e-01 9.747771e-01 9.734979e-01 9.739454e-01 9.737328e-01 9.732655e-01 9.733865e-01 9.734423e-01 9.730576e-01 9.724492e-01 9.688368e-01 9.666015e-01 9.694306e-01 9.688821e-01 9.699932e-01 9.712142e-01 9.713351e-01 9.715728e-01 9.718160e-01 9.719783e-01 9.718980e-01 9.719121e-01 9.715400e-01 9.684328e-01 9.676102e-01 9.700027e-01 9.701184e-01 9.710317e-01 9.717178e-01 9.719301e-01 9.721297e-01 9.722497e-01 9.722958e-01 9.723998e-01 9.724238e-01 9.720991e-01 9.679034e-01 9.673409e-01 9.696908e-01 9.699568e-01 9.710049e-01 9.717237e-01 9.718229e-01 9.721447e-01 9.723063e-01 9.724119e-01 9.723689e-01 9.724489e-01 9.722693e-01
<GCONST> 9.408039e+01
<STATE> 4
<MEAN> 52
 -2.633533e-03 -7.590794e-04 -5.023713e-04 -7.722496e-04 1.020664e-03 5.436717e-06 6.219861e-05 7.482039e-04 5.662998e-05 1.312816e-04 1.612013e-04 4.537883e-04 1.476187e-04 7.248349e-06 -3.393925e-05 -2.440873e-05 -1.070037e-05 7.994362e-06 -1.250624e-05 -8.476622e-06 6.395113e-06 1.563548e-05 -2.726257e-05 -3.646029e-06 -7.183345e-06 -1.013966e-05 1.468344e-05 6.459016e-06 2.518873e-06 7.687093e-06 1.957398e-06 -3.495750e-06 -4.509172e-07 -8.504337e-06 6.731531e-08 -1.392306e-05 -1.542222e-05 -2.906701e-06 1.962978e-05 2.683648e-06 7.073778e-07 6.358121e-07 -3.009441e-06 3.083240e-06 -9.061120e-07 -1.332442e-05 -4.977887e-06 1.558978e-06 1.969036e-05 1.393268e-05 2.721163e-05 1.133617e-05
<VARIANCE> 52
 9.823492e-01 9.731483e-01 9.752311e-01 9.749091e-01 9.747771e-01 9.734979e-01 9.739454e-01 9.737328e-01 9.732655e-01 9.733865e-01 9.734423e-01 9.730576e-01 9.724492e-01 9.688368e-01 9.666015e-01 9.694306e-01 9.688821e-01 9.699932e-01 9.712142e-01 9.713351e-01 9.715728e-01 9.718160e-01 9.719783e-01 9.718980e-01 9.719121e-01 9.715400e-01 9.684328e-01 9.676102e-01 9.700027e-01 9.701184e-01 9.710317e-01 9.717178e-01 9.719301e-01 9.721297e-01 9.722497e-01 9.722958e-01 9.723998e-01 9.724238e-01 9.720991e-01 9.679034e-01 9.673409e-01 9.696908e-01 9.699568e-01 9.710049e-01 9.717237e-01 9.718229e-01 9.721447e-01 9.723063e-01 9.724119e-01 9.723689e-01 9.724489e-01 9.722693e-01
<GCONST> 9.408039e+01
<TRANSP> 5
 0.000000e+00 1.000000e+00 0.000000e+00 0.000000e+00 0.000000e+00
 0.000000e+00 6.000000e-01 4.000000e-01 0.000000e+00 0.000000e+00
 0.000000e+00 0.000000e+00 6.000000e-01 4.000000e-01 0.000000e+00
 0.000000e+00 0.000000e+00 0.000000e+00 6.000000e-01 4.000000e-01
 0.000000e+00 0.000000e+00 0.000000e+00 0.000000e+00 0.000000e+00
<ENDHMM>
~h "c"
<BEGINHMM>
<NUMSTATES> 5
<STATE> 2
<MEAN> 52
 -2.633533e-03 -7.590794e-04 -5.023713e-04 -7.722496e-04 1.020664e-03 5.436717e-06 6.219861e-05 7.482039e-04 5.662998e-05 1.312816e-04 1.612013e-04 4.537883e-04 1.476187e-04 7.248349e-06 -3.393925e-05 -2.440873e-05 -1.070037e-05 7.994362e-06 -1.250624e-05 -8.476622e-06 6.395113e-06 1.563548e-05 -2.726257e-05 -3.646029e-06 -7.183345e-06 -1.013966e-05 1.468344e-05 6.459016e-06 2.518873e-06 7.687093e-06 1.957398e-06 -3.495750e-06 -4.509172e-07 -8.504337e-06 6.731531e-08 -1.392306e-05 -1.542222e-05 -2.906701e-06 1.962978e-05 2.683648e-06 7.073778e-07 6.358121e-07 -3.009441e-06 3.083240e-06 -9.061120e-07 -1.332442e-05 -4.977887e-06 1.558978e-06 1.969036e-05 1.393268e-05 2.721163e-05 1.133617e-05
<VARIANCE> 52
 9.823492e-01 9.731483e-01 9.752311e-01 9.749091e-01 9.747771e-01 9.734979e-01 9.739454e-01 9.737328e-01 9.732655e-01 9.733865e-01 9.734423e-01 9.730576e-01 9.724492e-01 9.688368e-01 9.666015e-01 9.694306e-01 9.688821e-01 9.699932e-01 9.712142e-01 9.713351e-01 9.715728e-01 9.718160e-01 9.719783e-01 9.718980e-01 9.719121e-01 9.715400e-01 9.684328e-01 9.676102e-01 9.700027e-01 9.701184e-01 9.710317e-01 9.717178e-01 9.719301e-01 9.721297e-01 9.722497e-01 9.722958e-01 9.723998e-01 9.724238e-01 9.720991e-01 9.679034e-01 9.673409e-01 9.696908e-01 9.699568e-01 9.710049e-01 9.717237e-01 9.718229e-01 9.721447e-01 9.723063e-01 9.724119e-01 9.723689e-01 9.724489e-01 9.722693e-01
<GCONST> 9.408039e+01
<STATE> 3
<MEAN> 52
 -2.633533e-03 -7.590794e-04 -5.023713e-04 -7.722496e-04 1.020664e-03 5.436717e-06 6.219861e-05 7.482039e-04 5.662998e-05 1.312816e-04 1.612013e-04 4.537883e-04 1.476187e-04 7.248349e-06 -3.393925e-05 -2.440873e-05 -1.070037e-05 7.994362e-06 -1.250624e-05 -8.476622e-06 6.395113e-06 1.563548e-05 -2.726257e-05 -3.646029e-06 -7.183345e-06 -1.013966e-05 1.468344e-05 6.459016e-06 2.518873e-06 7.687093e-06 1.957398e-06 -3.495750e-06 -4.509172e-07 -8.504337e-06 6.731531e-08 -1.392306e-05 -1.542222e-05 -2.906701e-06 1.962978e-05 2.683648e-06 7.073778e-07 6.358121e-07 -3.009441e-06 3.083240e-06 -9.061120e-07 -1.332442e-05 -4.977887e-06 1.558978e-06 1.969036e-05 1.393268e-05 2.721163e-05 1.133617e-05
<VARIANCE> 52
 9.823492e-01 9.731483e-01 9.752311e-01 9.749091e-01 9.747771e-01 9.734979e-01 9.739454e-01 9.737328e-01 9.732655e-01 9.733865e-01 9.734423e-01 9.730576e-01 9.724492e-01 9.688368e-01 9.666015e-01 9.694306e-01 9.688821e-01 9.699932e-01 9.712142e-01 9.713351e-01 9.715728e-01 9.718160e-01 9.719783e-01 9.718980e-01 9.719121e-01 9.715400e-01 9.684328e-01 9.676102e-01 9.700027e-01 9.701184e-01 9.710317e-01 9.717178e-01 9.719301e-01 9.721297e-01 9.722497e-01 9.722958e-01 9.723998e-01 9.724238e-01 9.720991e-01 9.679034e-01 9.673409e-01 9.696908e-01 9.699568e-01 9.710049e-01 9.717237e-01 9.718229e-01 9.721447e-01 9.723063e-01 9.724119e-01 9.723689e-01 9.724489e-01 9.722693e-01
<GCONST> 9.408039e+01
<STATE> 4
<MEAN> 52
 -2.633533e-03 -7.590794e-04 -5.023713e-04 -7.722496e-04 1.020664e-03 5.436717e-06 6.219861e-05 7.482039e-04 5.662998e-05 1.312816e-04 1.612013e-04 4.537883e-04 1.476187e-04 7.248349e-06 -3.393925e-05 -2.440873e-05 -1.070037e-05 7.994362e-06 -1.250624e-05 -8.476622e-06 6.395113e-06 1.563548e-05 -2.726257e-05 -3.646029e-06 -7.183345e-06 -1.013966e-05 1.468344e-05 6.459016e-06 2.518873e-06 7.687093e-06 1.957398e-06 -3.495750e-06 -4.509172e-07 -8.504337e-06 6.731531e-08 -1.392306e-05 -1.542222e-05 -2.906701e-06 1.962978e-05 2.683648e-06 7.073778e-07 6.358121e-07 -3.009441e-06 3.083240e-06 -9.061120e-07 -1.332442e-05 -4.977887e-06 1.558978e-06 1.969036e-05 1.393268e-05 2.721163e-05 1.133617e-05
<VARIANCE> 52
 9.823492e-01 9.731483e-01 9.752311e-01 9.749091e-01 9.747771e-01 9.734979e-01 9.739454e-01 9.737328e-01 9.732655e-01 9.733865e-01 9.734423e-01 9.730576e-01 9.724492e-01 9.688368e-01 9.666015e-01 9.694306e-01 9.688821e-01 9.699932e-01 9.712142e-01 9.713351e-01 9.715728e-01 9.718160e-01 9.719783e-01 9.718980e-01 9.719121e-01 9.715400e-01 9.684328e-01 9.676102e-01 9.700027e-01 9.701184e-01 9.710317e-01 9.717178e-01 9.719301e-01 9.721297e-01 9.722497e-01 9.722958e-01 9.723998e-01 9.724238e-01 9.720991e-01 9.679034e-01 9.673409e-01 9.696908e-01 9.699568e-01 9.710049e-01 9.717237e-01 9.718229e-01 9.721447e-01 9.723063e-01 9.724119e-01 9.723689e-01 9.724489e-01 9.722693e-01
<GCONST> 9.408039e+01
<TRANSP> 5
 0.000000e+00 1.000000e+00 0.000000e+00 0.000000e+00 0.000000e+00
 0.000000e+00 6.000000e-01 4.000000e-01 0.000000e+00 0.000000e+00
 0.000000e+00 0.000000e+00 6.000000e-01 4.000000e-01 0.000000e+00
 0.000000e+00 0.000000e+00 0.000000e+00 6.000000e-01 4.000000e-01
 0.000000e+00 0.000000e+00 0.000000e+00 0.000000e+00 0.000000e+00
<ENDHMM>
~h "unk"
<BEGINHMM>
<NUMSTATES> 5
<STATE> 2
<MEAN> 52
 -2.633533e-03 -7.590794e-04 -5.023713e-04 -7.722496e-04 1.020664e-03 5.436717e-06 6.219861e-05 7.482039e-04 5.662998e-05 1.312816e-04 1.612013e-04 4.537883e-04 1.476187e-04 7.248349e-06 -3.393925e-05 -2.440873e-05 -1.070037e-05 7.994362e-06 -1.250624e-05 -8.476622e-06 6.395113e-06 1.563548e-05 -2.726257e-05 -3.646029e-06 -7.183345e-06 -1.013966e-05 1.468344e-05 6.459016e-06 2.518873e-06 7.687093e-06 1.957398e-06 -3.495750e-06 -4.509172e-07 -8.504337e-06 6.731531e-08 -1.392306e-05 -1.542222e-05 -2.906701e-06 1.962978e-05 2.683648e-06 7.073778e-07 6.358121e-07 -3.009441e-06 3.083240e-06 -9.061120e-07 -1.332442e-05 -4.977887e-06 1.558978e-06 1.969036e-05 1.393268e-05 2.721163e-05 1.133617e-05
<VARIANCE> 52
 9.823492e-01 9.731483e-01 9.752311e-01 9.749091e-01 9.747771e-01 9.734979e-01 9.739454e-01 9.737328e-01 9.732655e-01 9.733865e-01 9.734423e-01 9.730576e-01 9.724492e-01 9.688368e-01 9.666015e-01 9.694306e-01 9.688821e-01 9.699932e-01 9.712142e-01 9.713351e-01 9.715728e-01 9.718160e-01 9.719783e-01 9.718980e-01 9.719121e-01 9.715400e-01 9.684328e-01 9.676102e-01 9.700027e-01 9.701184e-01 9.710317e-01 9.717178e-01 9.719301e-01 9.721297e-01 9.722497e-01 9.722958e-01 9.723998e-01 9.724238e-01 9.720991e-01 9.679034e-01 9.673409e-01 9.696908e-01 9.699568e-01 9.710049e-01 9.717237e-01 9.718229e-01 9.721447e-01 9.723063e-01 9.724119e-01 9.723689e-01 9.724489e-01 9.722693e-01
<GCONST> 9.408039e+01
<STATE> 3
<MEAN> 52
 -2.633533e-03 -7.590794e-04 -5.023713e-04 -7.722496e-04 1.020664e-03 5.436717e-06 6.219861e-05 7.482039e-04 5.662998e-05 1.312816e-04 1.612013e-04 4.537883e-04 1.476187e-04 7.248349e-06 -3.393925e-05 -2.440873e-05 -1.070037e-05 7.994362e-06 -1.250624e-05 -8.476622e-06 6.395113e-06 1.563548e-05 -2.726257e-05 -3.646029e-06 -7.183345e-06 -1.013966e-05 1.468344e-05 6.459016e-06 2.518873e-06 7.687093e-06 1.957398e-06 -3.495750e-06 -4.509172e-07 -8.504337e-06 6.731531e-08 -1.392306e-05 -1.542222e-05 -2.906701e-06 1.962978e-05 2.683648e-06 7.073778e-07 6.358121e-07 -3.009441e-06 3.083240e-06 -9.061120e-07 -1.332442e-05 -4.977887e-06 1.558978e-06 1.969036e-05 1.393268e-05 2.721163e-05 1.133617e-05
<VARIANCE> 52
 9.823492e-01 9.731483e-01 9.752311e-01 9.749091e-01 9.747771e-01 9.734979e-01 9.739454e-01 9.737328e-01 9.732655e-01 9.733865e-01 9.734423e-01 9.730576e-01 9.724492e-01 9.688368e-01 9.666015e-01 9.694306e-01 9.688821e-01 9.699932e-01 9.712142e-01 9.713351e-01 9.715728e-01 9.718160e-01 9.719783e-01 9.718980e-01 9.719121e-01 9.715400e-01 9.684328e-01 9.676102e-01 9.700027e-01 9.701184e-01 9.710317e-01 9.717178e-01 9.719301e-01 9.721297e-01 9.722497e-01 9.722958e-01 9.723998e-01 9.724238e-01 9.720991e-01 9.679034e-01 9.673409e-01 9.696908e-01 9.699568e-01 9.710049e-01 9.717237e-01 9.718229e-01 9.721447e-01 9.723063e-01 9.724119e-01 9.723689e-01 9.724489e-01 9.722693e-01
<GCONST> 9.408039e+01
<STATE> 4
<MEAN> 52
 -2.633533e-03 -7.590794e-04 -5.023713e-04 -7.722496e-04 1.020664e-03 5.436717e-06 6.219861e-05 7.482039e-04 5.662998e-05 1.312816e-04 1.612013e-04 4.537883e-04 1.476187e-04 7.248349e-06 -3.393925e-05 -2.440873e-05 -1.070037e-05 7.994362e-06 -1.250624e-05 -8.476622e-06 6.395113e-06 1.563548e-05 -2.726257e-05 -3.646029e-06 -7.183345e-06 -1.013966e-05 1.468344e-05 6.459016e-06 2.518873e-06 7.687093e-06 1.957398e-06 -3.495750e-06 -4.509172e-07 -8.504337e-06 6.731531e-08 -1.392306e-05 -1.542222e-05 -2.906701e-06 1.962978e-05 2.683648e-06 7.073778e-07 6.358121e-07 -3.009441e-06 3.083240e-06 -9.061120e-07 -1.332442e-05 -4.977887e-06 1.558978e-06 1.969036e-05 1.393268e-05 2.721163e-05 1.133617e-05
<VARIANCE> 52
 9.823492e-01 9.731483e-01 9.752311e-01 9.749091e-01 9.747771e-01 9.734979e-01 9.739454e-01 9.737328e-01 9.732655e-01 9.733865e-01 9.734423e-01 9.730576e-01 9.724492e-01 9.688368e-01 9.666015e-01 9.694306e-01 9.688821e-01 9.699932e-01 9.712142e-01 9.713351e-01 9.715728e-01 9.718160e-01 9.719783e-01 9.718980e-01 9.719121e-01 9.715400e-01 9.684328e-01 9.676102e-01 9.700027e-01 9.701184e-01 9.710317e-01 9.717178e-01 9.719301e-01 9.721297e-01 9.722497e-01 9.722958e-01 9.723998e-01 9.724238e-01 9.720991e-01 9.679034e-01 9.673409e-01 9.696908e-01 9.699568e-01 9.710049e-01 9.717237e-01 9.718229e-01 9.721447e-01 9.723063e-01 9.724119e-01 9.723689e-01 9.724489e-01 9.722693e-01
<GCONST> 9.408039e+01
<TRANSP> 5
 0.000000e+00 1.000000e+00 0.000000e+00 0.000000e+00 0.000000e+00
 0.000000e+00 6.000000e-01 4.000000e-01 0.000000e+00 0.000000e+00
 0.000000e+00 0.000000e+00 6.000000e-01 4.000000e-01 0.000000e+00
 0.000000e+00 0.000000e+00 0.000000e+00 6.000000e-01 4.000000e-01
 0.000000e+00 0.000000e+00 0.000000e+00 0.000000e+00 0.000000e+00
<ENDHMM>
~h "uu1"
<BEGINHMM>
<NUMSTATES> 5
<STATE> 2
<MEAN> 52
 -2.633533e-03 -7.590794e-04 -5.023713e-04 -7.722496e-04 1.020664e-03 5.436717e-06 6.219861e-05 7.482039e-04 5.662998e-05 1.312816e-04 1.612013e-04 4.537883e-04 1.476187e-04 7.248349e-06 -3.393925e-05 -2.440873e-05 -1.070037e-05 7.994362e-06 -1.250624e-05 -8.476622e-06 6.395113e-06 1.563548e-05 -2.726257e-05 -3.646029e-06 -7.183345e-06 -1.013966e-05 1.468344e-05 6.459016e-06 2.518873e-06 7.687093e-06 1.957398e-06 -3.495750e-06 -4.509172e-07 -8.504337e-06 6.731531e-08 -1.392306e-05 -1.542222e-05 -2.906701e-06 1.962978e-05 2.683648e-06 7.073778e-07 6.358121e-07 -3.009441e-06 3.083240e-06 -9.061120e-07 -1.332442e-05 -4.977887e-06 1.558978e-06 1.969036e-05 1.393268e-05 2.721163e-05 1.133617e-05
<VARIANCE> 52
 9.823492e-01 9.731483e-01 9.752311e-01 9.749091e-01 9.747771e-01 9.734979e-01 9.739454e-01 9.737328e-01 9.732655e-01 9.733865e-01 9.734423e-01 9.730576e-01 9.724492e-01 9.688368e-01 9.666015e-01 9.694306e-01 9.688821e-01 9.699932e-01 9.712142e-01 9.713351e-01 9.715728e-01 9.718160e-01 9.719783e-01 9.718980e-01 9.719121e-01 9.715400e-01 9.684328e-01 9.676102e-01 9.700027e-01 9.701184e-01 9.710317e-01 9.717178e-01 9.719301e-01 9.721297e-01 9.722497e-01 9.722958e-01 9.723998e-01 9.724238e-01 9.720991e-01 9.679034e-01 9.673409e-01 9.696908e-01 9.699568e-01 9.710049e-01 9.717237e-01 9.718229e-01 9.721447e-01 9.723063e-01 9.724119e-01 9.723689e-01 9.724489e-01 9.722693e-01
<GCONST> 9.408039e+01
<STATE> 3
<MEAN> 52
 -2.633533e-03 -7.590794e-04 -5.023713e-04 -7.722496e-04 1.020664e-03 5.436717e-06 6.219861e-05 7.482039e-04 5.662998e-05 1.312816e-04 1.612013e-04 4.537883e-04 1.476187e-04 7.248349e-06 -3.393925e-05 -2.440873e-05 -1.070037e-05 7.994362e-06 -1.250624e-05 -8.476622e-06 6.395113e-06 1.563548e-05 -2.726257e-05 -3.646029e-06 -7.183345e-06 -1.013966e-05 1.468344e-05 6.459016e-06 2.518873e-06 7.687093e-06 1.957398e-06 -3.495750e-06 -4.509172e-07 -8.504337e-06 6.731531e-08 -1.392306e-05 -1.542222e-05 -2.906701e-06 1.962978e-05 2.683648e-06 7.073778e-07 6.358121e-07 -3.009441e-06 3.083240e-06 -9.061120e-07 -1.332442e-05 -4.977887e-06 1.558978e-06 1.969036e-05 1.393268e-05 2.721163e-05 1.133617e-05
<VARIANCE> 52
 9.823492e-01 9.731483e-01 9.752311e-01 9.749091e-01 9.747771e-01 9.734979e-01 9.739454e-01 9.737328e-01 9.732655e-01 9.733865e-01 9.734423e-01 9.730576e-01 9.724492e-01 9.688368e-01 9.666015e-01 9.694306e-01 9.688821e-01 9.699932e-01 9.712142e-01 9.713351e-01 9.715728e-01 9.718160e-01 9.719783e-01 9.718980e-01 9.719121e-01 9.715400e-01 9.684328e-01 9.676102e-01 9.700027e-01 9.701184e-01 9.710317e-01 9.717178e-01 9.719301e-01 9.721297e-01 9.722497e-01 9.722958e-01 9.723998e-01 9.724238e-01 9.720991e-01 9.679034e-01 9.673409e-01 9.696908e-01 9.699568e-01 9.710049e-01 9.717237e-01 9.718229e-01 9.721447e-01 9.723063e-01 9.724119e-01 9.723689e-01 9.724489e-01 9.722693e-01
<GCONST> 9.408039e+01
<STATE> 4
<MEAN> 52
 -2.633533e-03 -7.590794e-04 -5.023713e-04 -7.722496e-04 1.020664e-03 5.436717e-06 6.219861e-05 7.482039e-04 5.662998e-05 1.312816e-04 1.612013e-04 4.537883e-04 1.476187e-04 7.248349e-06 -3.393925e-05 -2.440873e-05 -1.070037e-05 7.994362e-06 -1.250624e-05 -8.476622e-06 6.395113e-06 1.563548e-05 -2.726257e-05 -3.646029e-06 -7.183345e-06 -1.013966e-05 1.468344e-05 6.459016e-06 2.518873e-06 7.687093e-06 1.957398e-06 -3.495750e-06 -4.509172e-07 -8.504337e-06 6.731531e-08 -1.392306e-05 -1.542222e-05 -2.906701e-06 1.962978e-05 2.683648e-06 7.073778e-07 6.358121e-07 -3.009441e-06 3.083240e-06 -9.061120e-07 -1.332442e-05 -4.977887e-06 1.558978e-06 1.969036e-05 1.393268e-05 2.721163e-05 1.133617e-05
<VARIANCE> 52
 9.823492e-01 9.731483e-01 9.752311e-01 9.749091e-01 9.747771e-01 9.734979e-01 9.739454e-01 9.737328e-01 9.732655e-01 9.733865e-01 9.734423e-01 9.730576e-01 9.724492e-01 9.688368e-01 9.666015e-01 9.694306e-01 9.688821e-01 9.699932e-01 9.712142e-01 9.713351e-01 9.715728e-01 9.718160e-01 9.719783e-01 9.718980e-01 9.719121e-01 9.715400e-01 9.684328e-01 9.676102e-01 9.700027e-01 9.701184e-01 9.710317e-01 9.717178e-01 9.719301e-01 9.721297e-01 9.722497e-01 9.722958e-01 9.723998e-01 9.724238e-01 9.720991e-01 9.679034e-01 9.673409e-01 9.696908e-01 9.699568e-01 9.710049e-01 9.717237e-01 9.718229e-01 9.721447e-01 9.723063e-01 9.724119e-01 9.723689e-01 9.724489e-01 9.722693e-01
<GCONST> 9.408039e+01
<TRANSP> 5
 0.000000e+00 1.000000e+00 0.000000e+00 0.000000e+00 0.000000e+00
 0.000000e+00 6.000000e-01 4.000000e-01 0.000000e+00 0.000000e+00
 0.000000e+00 0.000000e+00 6.000000e-01 4.000000e-01 0.000000e+00
 0.000000e+00 0.000000e+00 0.000000e+00 6.000000e-01 4.000000e-01
 0.000000e+00 0.000000e+00 0.000000e+00 0.000000e+00 0.000000e+00
<ENDHMM>
~h "e3"
<BEGINHMM>
<NUMSTATES> 5
<STATE> 2
<MEAN> 52
 -2.633533e-03 -7.590794e-04 -5.023713e-04 -7.722496e-04 1.020664e-03 5.436717e-06 6.219861e-05 7.482039e-04 5.662998e-05 1.312816e-04 1.612013e-04 4.537883e-04 1.476187e-04 7.248349e-06 -3.393925e-05 -2.440873e-05 -1.070037e-05 7.994362e-06 -1.250624e-05 -8.476622e-06 6.395113e-06 1.563548e-05 -2.726257e-05 -3.646029e-06 -7.183345e-06 -1.013966e-05 1.468344e-05 6.459016e-06 2.518873e-06 7.687093e-06 1.957398e-06 -3.495750e-06 -4.509172e-07 -8.504337e-06 6.731531e-08 -1.392306e-05 -1.542222e-05 -2.906701e-06 1.962978e-05 2.683648e-06 7.073778e-07 6.358121e-07 -3.009441e-06 3.083240e-06 -9.061120e-07 -1.332442e-05 -4.977887e-06 1.558978e-06 1.969036e-05 1.393268e-05 2.721163e-05 1.133617e-05
<VARIANCE> 52
 9.823492e-01 9.731483e-01 9.752311e-01 9.749091e-01 9.747771e-01 9.734979e-01 9.739454e-01 9.737328e-01 9.732655e-01 9.733865e-01 9.734423e-01 9.730576e-01 9.724492e-01 9.688368e-01 9.666015e-01 9.694306e-01 9.688821e-01 9.699932e-01 9.712142e-01 9.713351e-01 9.715728e-01 9.718160e-01 9.719783e-01 9.718980e-01 9.719121e-01 9.715400e-01 9.684328e-01 9.676102e-01 9.700027e-01 9.701184e-01 9.710317e-01 9.717178e-01 9.719301e-01 9.721297e-01 9.722497e-01 9.722958e-01 9.723998e-01 9.724238e-01 9.720991e-01 9.679034e-01 9.673409e-01 9.696908e-01 9.699568e-01 9.710049e-01 9.717237e-01 9.718229e-01 9.721447e-01 9.723063e-01 9.724119e-01 9.723689e-01 9.724489e-01 9.722693e-01
<GCONST> 9.408039e+01
<STATE> 3
<MEAN> 52
 -2.633533e-03 -7.590794e-04 -5.023713e-04 -7.722496e-04 1.020664e-03 5.436717e-06 6.219861e-05 7.482039e-04 5.662998e-05 1.312816e-04 1.612013e-04 4.537883e-04 1.476187e-04 7.248349e-06 -3.393925e-05 -2.440873e-05 -1.070037e-05 7.994362e-06 -1.250624e-05 -8.476622e-06 6.395113e-06 1.563548e-05 -2.726257e-05 -3.646029e-06 -7.183345e-06 -1.013966e-05 1.468344e-05 6.459016e-06 2.518873e-06 7.687093e-06 1.957398e-06 -3.495750e-06 -4.509172e-07 -8.504337e-06 6.731531e-08 -1.392306e-05 -1.542222e-05 -2.906701e-06 1.962978e-05 2.683648e-06 7.073778e-07 6.358121e-07 -3.009441e-06 3.083240e-06 -9.061120e-07 -1.332442e-05 -4.977887e-06 1.558978e-06 1.969036e-05 1.393268e-05 2.721163e-05 1.133617e-05
<VARIANCE> 52
 9.823492e-01 9.731483e-01 9.752311e-01 9.749091e-01 9.747771e-01 9.734979e-01 9.739454e-01 9.737328e-01 9.732655e-01 9.733865e-01 9.734423e-01 9.730576e-01 9.724492e-01 9.688368e-01 9.666015e-01 9.694306e-01 9.688821e-01 9.699932e-01 9.712142e-01 9.713351e-01 9.715728e-01 9.718160e-01 9.719783e-01 9.718980e-01 9.719121e-01 9.715400e-01 9.684328e-01 9.676102e-01 9.700027e-01 9.701184e-01 9.710317e-01 9.717178e-01 9.719301e-01 9.721297e-01 9.722497e-01 9.722958e-01 9.723998e-01 9.724238e-01 9.720991e-01 9.679034e-01 9.673409e-01 9.696908e-01 9.699568e-01 9.710049e-01 9.717237e-01 9.718229e-01 9.721447e-01 9.723063e-01 9.724119e-01 9.723689e-01 9.724489e-01 9.722693e-01
<GCONST> 9.408039e+01
<STATE> 4
<MEAN> 52
 -2.633533e-03 -7.590794e-04 -5.023713e-04 -7.722496e-04 1.020664e-03 5.436717e-06 6.219861e-05 7.482039e-04 5.662998e-05 1.312816e-04 1.612013e-04 4.537883e-04 1.476187e-04 7.248349e-06 -3.393925e-05 -2.440873e-05 -1.070037e-05 7.994362e-06 -1.250624e-05 -8.476622e-06 6.395113e-06 1.563548e-05 -2.726257e-05 -3.646029e-06 -7.183345e-06 -1.013966e-05 1.468344e-05 6.459016e-06 2.518873e-06 7.687093e-06 1.957398e-06 -3.495750e-06 -4.509172e-07 -8.504337e-06 6.731531e-08 -1.392306e-05 -1.542222e-05 -2.906701e-06 1.962978e-05 2.683648e-06 7.073778e-07 6.358121e-07 -3.009441e-06 3.083240e-06 -9.061120e-07 -1.332442e-05 -4.977887e-06 1.558978e-06 1.969036e-05 1.393268e-05 2.721163e-05 1.133617e-05
<VARIANCE> 52
 9.823492e-01 9.731483e-01 9.752311e-01 9.749091e-01 9.747771e-01 9.734979e-01 9.739454e-01 9.737328e-01 9.732655e-01 9.733865e-01 9.734423e-01 9.730576e-01 9.724492e-01 9.688368e-01 9.666015e-01 9.694306e-01 9.688821e-01 9.699932e-01 9.712142e-01 9.713351e-01 9.715728e-01 9.718160e-01 9.719783e-01 9.718980e-01 9.719121e-01 9.715400e-01 9.684328e-01 9.676102e-01 9.700027e-01 9.701184e-01 9.710317e-01 9.717178e-01 9.719301e-01 9.721297e-01 9.722497e-01 9.722958e-01 9.723998e-01 9.724238e-01 9.720991e-01 9.679034e-01 9.673409e-01 9.696908e-01 9.699568e-01 9.710049e-01 9.717237e-01 9.718229e-01 9.721447e-01 9.723063e-01 9.724119e-01 9.723689e-01 9.724489e-01 9.722693e-01
<GCONST> 9.408039e+01
<TRANSP> 5
 0.000000e+00 1.000000e+00 0.000000e+00 0.000000e+00 0.000000e+00
 0.000000e+00 6.000000e-01 4.000000e-01 0.000000e+00 0.000000e+00
 0.000000e+00 0.000000e+00 6.000000e-01 4.000000e-01 0.000000e+00
 0.000000e+00 0.000000e+00 0.000000e+00 6.000000e-01 4.000000e-01
 0.000000e+00 0.000000e+00 0.000000e+00 0.000000e+00 0.000000e+00
<ENDHMM>
~h "o2"
<BEGINHMM>
<NUMSTATES> 5
<STATE> 2
<MEAN> 52
 -2.633533e-03 -7.590794e-04 -5.023713e-04 -7.722496e-04 1.020664e-03 5.436717e-06 6.219861e-05 7.482039e-04 5.662998e-05 1.312816e-04 1.612013e-04 4.537883e-04 1.476187e-04 7.248349e-06 -3.393925e-05 -2.440873e-05 -1.070037e-05 7.994362e-06 -1.250624e-05 -8.476622e-06 6.395113e-06 1.563548e-05 -2.726257e-05 -3.646029e-06 -7.183345e-06 -1.013966e-05 1.468344e-05 6.459016e-06 2.518873e-06 7.687093e-06 1.957398e-06 -3.495750e-06 -4.509172e-07 -8.504337e-06 6.731531e-08 -1.392306e-05 -1.542222e-05 -2.906701e-06 1.962978e-05 2.683648e-06 7.073778e-07 6.358121e-07 -3.009441e-06 3.083240e-06 -9.061120e-07 -1.332442e-05 -4.977887e-06 1.558978e-06 1.969036e-05 1.393268e-05 2.721163e-05 1.133617e-05
<VARIANCE> 52
 9.823492e-01 9.731483e-01 9.752311e-01 9.749091e-01 9.747771e-01 9.734979e-01 9.739454e-01 9.737328e-01 9.732655e-01 9.733865e-01 9.734423e-01 9.730576e-01 9.724492e-01 9.688368e-01 9.666015e-01 9.694306e-01 9.688821e-01 9.699932e-01 9.712142e-01 9.713351e-01 9.715728e-01 9.718160e-01 9.719783e-01 9.718980e-01 9.719121e-01 9.715400e-01 9.684328e-01 9.676102e-01 9.700027e-01 9.701184e-01 9.710317e-01 9.717178e-01 9.719301e-01 9.721297e-01 9.722497e-01 9.722958e-01 9.723998e-01 9.724238e-01 9.720991e-01 9.679034e-01 9.673409e-01 9.696908e-01 9.699568e-01 9.710049e-01 9.717237e-01 9.718229e-01 9.721447e-01 9.723063e-01 9.724119e-01 9.723689e-01 9.724489e-01 9.722693e-01
<GCONST> 9.408039e+01
<STATE> 3
<MEAN> 52
 -2.633533e-03 -7.590794e-04 -5.023713e-04 -7.722496e-04 1.020664e-03 5.436717e-06 6.219861e-05 7.482039e-04 5.662998e-05 1.312816e-04 1.612013e-04 4.537883e-04 1.476187e-04 7.248349e-06 -3.393925e-05 -2.440873e-05 -1.070037e-05 7.994362e-06 -1.250624e-05 -8.476622e-06 6.395113e-06 1.563548e-05 -2.726257e-05 -3.646029e-06 -7.183345e-06 -1.013966e-05 1.468344e-05 6.459016e-06 2.518873e-06 7.687093e-06 1.957398e-06 -3.495750e-06 -4.509172e-07 -8.504337e-06 6.731531e-08 -1.392306e-05 -1.542222e-05 -2.906701e-06 1.962978e-05 2.683648e-06 7.073778e-07 6.358121e-07 -3.009441e-06 3.083240e-06 -9.061120e-07 -1.332442e-05 -4.977887e-06 1.558978e-06 1.969036e-05 1.393268e-05 2.721163e-05 1.133617e-05
<VARIANCE> 52
 9.823492e-01 9.731483e-01 9.752311e-01 9.749091e-01 9.747771e-01 9.734979e-01 9.739454e-01 9.737328e-01 9.732655e-01 9.733865e-01 9.734423e-01 9.730576e-01 9.724492e-01 9.688368e-01 9.666015e-01 9.694306e-01 9.688821e-01 9.699932e-01 9.712142e-01 9.713351e-01 9.715728e-01 9.718160e-01 9.719783e-01 9.718980e-01 9.719121e-01 9.715400e-01 9.684328e-01 9.676102e-01 9.700027e-01 9.701184e-01 9.710317e-01 9.717178e-01 9.719301e-01 9.721297e-01 9.722497e-01 9.722958e-01 9.723998e-01 9.724238e-01 9.720991e-01 9.679034e-01 9.673409e-01 9.696908e-01 9.699568e-01 9.710049e-01 9.717237e-01 9.718229e-01 9.721447e-01 9.723063e-01 9.724119e-01 9.723689e-01 9.724489e-01 9.722693e-01
<GCONST> 9.408039e+01
<STATE> 4
<MEAN> 52
 -2.633533e-03 -7.590794e-04 -5.023713e-04 -7.722496e-04 1.020664e-03 5.436717e-06 6.219861e-05 7.482039e-04 5.662998e-05 1.312816e-04 1.612013e-04 4.537883e-04 1.476187e-04 7.248349e-06 -3.393925e-05 -2.440873e-05 -1.070037e-05 7.994362e-06 -1.250624e-05 -8.476622e-06 6.395113e-06 1.563548e-05 -2.726257e-05 -3.646029e-06 -7.183345e-06 -1.013966e-05 1.468344e-05 6.459016e-06 2.518873e-06 7.687093e-06 1.957398e-06 -3.495750e-06 -4.509172e-07 -8.504337e-06 6.731531e-08 -1.392306e-05 -1.542222e-05 -2.906701e-06 1.962978e-05 2.683648e-06 7.073778e-07 6.358121e-07 -3.009441e-06 3.083240e-06 -9.061120e-07 -1.332442e-05 -4.977887e-06 1.558978e-06 1.969036e-05 1.393268e-05 2.721163e-05 1.133617e-05
<VARIANCE> 52
 9.823492e-01 9.731483e-01 9.752311e-01 9.749091e-01 9.747771e-01 9.734979e-01 9.739454e-01 9.737328e-01 9.732655e-01 9.733865e-01 9.734423e-01 9.730576e-01 9.724492e-01 9.688368e-01 9.666015e-01 9.694306e-01 9.688821e-01 9.699932e-01 9.712142e-01 9.713351e-01 9.715728e-01 9.718160e-01 9.719783e-01 9.718980e-01 9.719121e-01 9.715400e-01 9.684328e-01 9.676102e-01 9.700027e-01 9.701184e-01 9.710317e-01 9.717178e-01 9.719301e-01 9.721297e-01 9.722497e-01 9.722958e-01 9.723998e-01 9.724238e-01 9.720991e-01 9.679034e-01 9.673409e-01 9.696908e-01 9.699568e-01 9.710049e-01 9.717237e-01 9.718229e-01 9.721447e-01 9.723063e-01 9.724119e-01 9.723689e-01 9.724489e-01 9.722693e-01
<GCONST> 9.408039e+01
<TRANSP> 5
 0.000000e+00 1.000000e+00 0.000000e+00 0.000000e+00 0.000000e+00
 0.000000e+00 6.000000e-01 4.000000e-01 0.000000e+00 0.000000e+00
 0.000000e+00 0.000000e+00 6.000000e-01 4.000000e-01 0.000000e+00
 0.000000e+00 0.000000e+00 0.000000e+00 6.000000e-01 4.000000e-01
 0.000000e+00 0.000000e+00 0.000000e+00 0.000000e+00 0.000000e+00
<ENDHMM>
~h "uu3"
<BEGINHMM>
<NUMSTATES> 5
<STATE> 2
<MEAN> 52
 -2.633533e-03 -7.590794e-04 -5.023713e-04 -7.722496e-04 1.020664e-03 5.436717e-06 6.219861e-05 7.482039e-04 5.662998e-05 1.312816e-04 1.612013e-04 4.537883e-04 1.476187e-04 7.248349e-06 -3.393925e-05 -2.440873e-05 -1.070037e-05 7.994362e-06 -1.250624e-05 -8.476622e-06 6.395113e-06 1.563548e-05 -2.726257e-05 -3.646029e-06 -7.183345e-06 -1.013966e-05 1.468344e-05 6.459016e-06 2.518873e-06 7.687093e-06 1.957398e-06 -3.495750e-06 -4.509172e-07 -8.504337e-06 6.731531e-08 -1.392306e-05 -1.542222e-05 -2.906701e-06 1.962978e-05 2.683648e-06 7.073778e-07 6.358121e-07 -3.009441e-06 3.083240e-06 -9.061120e-07 -1.332442e-05 -4.977887e-06 1.558978e-06 1.969036e-05 1.393268e-05 2.721163e-05 1.133617e-05
<VARIANCE> 52
 9.823492e-01 9.731483e-01 9.752311e-01 9.749091e-01 9.747771e-01 9.734979e-01 9.739454e-01 9.737328e-01 9.732655e-01 9.733865e-01 9.734423e-01 9.730576e-01 9.724492e-01 9.688368e-01 9.666015e-01 9.694306e-01 9.688821e-01 9.699932e-01 9.712142e-01 9.713351e-01 9.715728e-01 9.718160e-01 9.719783e-01 9.718980e-01 9.719121e-01 9.715400e-01 9.684328e-01 9.676102e-01 9.700027e-01 9.701184e-01 9.710317e-01 9.717178e-01 9.719301e-01 9.721297e-01 9.722497e-01 9.722958e-01 9.723998e-01 9.724238e-01 9.720991e-01 9.679034e-01 9.673409e-01 9.696908e-01 9.699568e-01 9.710049e-01 9.717237e-01 9.718229e-01 9.721447e-01 9.723063e-01 9.724119e-01 9.723689e-01 9.724489e-01 9.722693e-01
<GCONST> 9.408039e+01
<STATE> 3
<MEAN> 52
 -2.633533e-03 -7.590794e-04 -5.023713e-04 -7.722496e-04 1.020664e-03 5.436717e-06 6.219861e-05 7.482039e-04 5.662998e-05 1.312816e-04 1.612013e-04 4.537883e-04 1.476187e-04 7.248349e-06 -3.393925e-05 -2.440873e-05 -1.070037e-05 7.994362e-06 -1.250624e-05 -8.476622e-06 6.395113e-06 1.563548e-05 -2.726257e-05 -3.646029e-06 -7.183345e-06 -1.013966e-05 1.468344e-05 6.459016e-06 2.518873e-06 7.687093e-06 1.957398e-06 -3.495750e-06 -4.509172e-07 -8.504337e-06 6.731531e-08 -1.392306e-05 -1.542222e-05 -2.906701e-06 1.962978e-05 2.683648e-06 7.073778e-07 6.358121e-07 -3.009441e-06 3.083240e-06 -9.061120e-07 -1.332442e-05 -4.977887e-06 1.558978e-06 1.969036e-05 1.393268e-05 2.721163e-05 1.133617e-05
<VARIANCE> 52
 9.823492e-01 9.731483e-01 9.752311e-01 9.749091e-01 9.747771e-01 9.734979e-01 9.739454e-01 9.737328e-01 9.732655e-01 9.733865e-01 9.734423e-01 9.730576e-01 9.724492e-01 9.688368e-01 9.666015e-01 9.694306e-01 9.688821e-01 9.699932e-01 9.712142e-01 9.713351e-01 9.715728e-01 9.718160e-01 9.719783e-01 9.718980e-01 9.719121e-01 9.715400e-01 9.684328e-01 9.676102e-01 9.700027e-01 9.701184e-01 9.710317e-01 9.717178e-01 9.719301e-01 9.721297e-01 9.722497e-01 9.722958e-01 9.723998e-01 9.724238e-01 9.720991e-01 9.679034e-01 9.673409e-01 9.696908e-01 9.699568e-01 9.710049e-01 9.717237e-01 9.718229e-01 9.721447e-01 9.723063e-01 9.724119e-01 9.723689e-01 9.724489e-01 9.722693e-01
<GCONST> 9.408039e+01
<STATE> 4
<MEAN> 52
 -2.633533e-03 -7.590794e-04 -5.023713e-04 -7.722496e-04 1.020664e-03 5.436717e-06 6.219861e-05 7.482039e-04 5.662998e-05 1.312816e-04 1.612013e-04 4.537883e-04 1.476187e-04 7.248349e-06 -3.393925e-05 -2.440873e-05 -1.070037e-05 7.994362e-06 -1.250624e-05 -8.476622e-06 6.395113e-06 1.563548e-05 -2.726257e-05 -3.646029e-06 -7.183345e-06 -1.013966e-05 1.468344e-05 6.459016e-06 2.518873e-06 7.687093e-06 1.957398e-06 -3.495750e-06 -4.509172e-07 -8.504337e-06 6.731531e-08 -1.392306e-05 -1.542222e-05 -2.906701e-06 1.962978e-05 2.683648e-06 7.073778e-07 6.358121e-07 -3.009441e-06 3.083240e-06 -9.061120e-07 -1.332442e-05 -4.977887e-06 1.558978e-06 1.969036e-05 1.393268e-05 2.721163e-05 1.133617e-05
<VARIANCE> 52
 9.823492e-01 9.731483e-01 9.752311e-01 9.749091e-01 9.747771e-01 9.734979e-01 9.739454e-01 9.737328e-01 9.732655e-01 9.733865e-01 9.734423e-01 9.730576e-01 9.724492e-01 9.688368e-01 9.666015e-01 9.694306e-01 9.688821e-01 9.699932e-01 9.712142e-01 9.713351e-01 9.715728e-01 9.718160e-01 9.719783e-01 9.718980e-01 9.719121e-01 9.715400e-01 9.684328e-01 9.676102e-01 9.700027e-01 9.701184e-01 9.710317e-01 9.717178e-01 9.719301e-01 9.721297e-01 9.722497e-01 9.722958e-01 9.723998e-01 9.724238e-01 9.720991e-01 9.679034e-01 9.673409e-01 9.696908e-01 9.699568e-01 9.710049e-01 9.717237e-01 9.718229e-01 9.721447e-01 9.723063e-01 9.724119e-01 9.723689e-01 9.724489e-01 9.722693e-01
<GCONST> 9.408039e+01
<TRANSP> 5
 0.000000e+00 1.000000e+00 0.000000e+00 0.000000e+00 0.000000e+00
 0.000000e+00 6.000000e-01 4.000000e-01 0.000000e+00 0.000000e+00
 0.000000e+00 0.000000e+00 6.000000e-01 4.000000e-01 0.000000e+00
 0.000000e+00 0.000000e+00 0.000000e+00 6.000000e-01 4.000000e-01
 0.000000e+00 0.000000e+00 0.000000e+00 0.000000e+00 0.000000e+00
<ENDHMM>
~h "a3"
<BEGINHMM>
<NUMSTATES> 5
<STATE> 2
<MEAN> 52
 -2.633533e-03 -7.590794e-04 -5.023713e-04 -7.722496e-04 1.020664e-03 5.436717e-06 6.219861e-05 7.482039e-04 5.662998e-05 1.312816e-04 1.612013e-04 4.537883e-04 1.476187e-04 7.248349e-06 -3.393925e-05 -2.440873e-05 -1.070037e-05 7.994362e-06 -1.250624e-05 -8.476622e-06 6.395113e-06 1.563548e-05 -2.726257e-05 -3.646029e-06 -7.183345e-06 -1.013966e-05 1.468344e-05 6.459016e-06 2.518873e-06 7.687093e-06 1.957398e-06 -3.495750e-06 -4.509172e-07 -8.504337e-06 6.731531e-08 -1.392306e-05 -1.542222e-05 -2.906701e-06 1.962978e-05 2.683648e-06 7.073778e-07 6.358121e-07 -3.009441e-06 3.083240e-06 -9.061120e-07 -1.332442e-05 -4.977887e-06 1.558978e-06 1.969036e-05 1.393268e-05 2.721163e-05 1.133617e-05
<VARIANCE> 52
 9.823492e-01 9.731483e-01 9.752311e-01 9.749091e-01 9.747771e-01 9.734979e-01 9.739454e-01 9.737328e-01 9.732655e-01 9.733865e-01 9.734423e-01 9.730576e-01 9.724492e-01 9.688368e-01 9.666015e-01 9.694306e-01 9.688821e-01 9.699932e-01 9.712142e-01 9.713351e-01 9.715728e-01 9.718160e-01 9.719783e-01 9.718980e-01 9.719121e-01 9.715400e-01 9.684328e-01 9.676102e-01 9.700027e-01 9.701184e-01 9.710317e-01 9.717178e-01 9.719301e-01 9.721297e-01 9.722497e-01 9.722958e-01 9.723998e-01 9.724238e-01 9.720991e-01 9.679034e-01 9.673409e-01 9.696908e-01 9.699568e-01 9.710049e-01 9.717237e-01 9.718229e-01 9.721447e-01 9.723063e-01 9.724119e-01 9.723689e-01 9.724489e-01 9.722693e-01
<GCONST> 9.408039e+01
<STATE> 3
<MEAN> 52
 -2.633533e-03 -7.590794e-04 -5.023713e-04 -7.722496e-04 1.020664e-03 5.436717e-06 6.219861e-05 7.482039e-04 5.662998e-05 1.312816e-04 1.612013e-04 4.537883e-04 1.476187e-04 7.248349e-06 -3.393925e-05 -2.440873e-05 -1.070037e-05 7.994362e-06 -1.250624e-05 -8.476622e-06 6.395113e-06 1.563548e-05 -2.726257e-05 -3.646029e-06 -7.183345e-06 -1.013966e-05 1.468344e-05 6.459016e-06 2.518873e-06 7.687093e-06 1.957398e-06 -3.495750e-06 -4.509172e-07 -8.504337e-06 6.731531e-08 -1.392306e-05 -1.542222e-05 -2.906701e-06 1.962978e-05 2.683648e-06 7.073778e-07 6.358121e-07 -3.009441e-06 3.083240e-06 -9.061120e-07 -1.332442e-05 -4.977887e-06 1.558978e-06 1.969036e-05 1.393268e-05 2.721163e-05 1.133617e-05
<VARIANCE> 52
 9.823492e-01 9.731483e-01 9.752311e-01 9.749091e-01 9.747771e-01 9.734979e-01 9.739454e-01 9.737328e-01 9.732655e-01 9.733865e-01 9.734423e-01 9.730576e-01 9.724492e-01 9.688368e-01 9.666015e-01 9.694306e-01 9.688821e-01 9.699932e-01 9.712142e-01 9.713351e-01 9.715728e-01 9.718160e-01 9.719783e-01 9.718980e-01 9.719121e-01 9.715400e-01 9.684328e-01 9.676102e-01 9.700027e-01 9.701184e-01 9.710317e-01 9.717178e-01 9.719301e-01 9.721297e-01 9.722497e-01 9.722958e-01 9.723998e-01 9.724238e-01 9.720991e-01 9.679034e-01 9.673409e-01 9.696908e-01 9.699568e-01 9.710049e-01 9.717237e-01 9.718229e-01 9.721447e-01 9.723063e-01 9.724119e-01 9.723689e-01 9.724489e-01 9.722693e-01
<GCONST> 9.408039e+01
<STATE> 4
<MEAN> 52
 -2.633533e-03 -7.590794e-04 -5.023713e-04 -7.722496e-04 1.020664e-03 5.436717e-06 6.219861e-05 7.482039e-04 5.662998e-05 1.312816e-04 1.612013e-04 4.537883e-04 1.476187e-04 7.248349e-06 -3.393925e-05 -2.440873e-05 -1.070037e-05 7.994362e-06 -1.250624e-05 -8.476622e-06 6.395113e-06 1.563548e-05 -2.726257e-05 -3.646029e-06 -7.183345e-06 -1.013966e-05 1.468344e-05 6.459016e-06 2.518873e-06 7.687093e-06 1.957398e-06 -3.495750e-06 -4.509172e-07 -8.504337e-06 6.731531e-08 -1.392306e-05 -1.542222e-05 -2.906701e-06 1.962978e-05 2.683648e-06 7.073778e-07 6.358121e-07 -3.009441e-06 3.083240e-06 -9.061120e-07 -1.332442e-05 -4.977887e-06 1.558978e-06 1.969036e-05 1.393268e-05 2.721163e-05 1.133617e-05
<VARIANCE> 52
 9.823492e-01 9.731483e-01 9.752311e-01 9.749091e-01 9.747771e-01 9.734979e-01 9.739454e-01 9.737328e-01 9.732655e-01 9.733865e-01 9.734423e-01 9.730576e-01 9.724492e-01 9.688368e-01 9.666015e-01 9.694306e-01 9.688821e-01 9.699932e-01 9.712142e-01 9.713351e-01 9.715728e-01 9.718160e-01 9.719783e-01 9.718980e-01 9.719121e-01 9.715400e-01 9.684328e-01 9.676102e-01 9.700027e-01 9.701184e-01 9.710317e-01 9.717178e-01 9.719301e-01 9.721297e-01 9.722497e-01 9.722958e-01 9.723998e-01 9.724238e-01 9.720991e-01 9.679034e-01 9.673409e-01 9.696908e-01 9.699568e-01 9.710049e-01 9.717237e-01 9.718229e-01 9.721447e-01 9.723063e-01 9.724119e-01 9.723689e-01 9.724489e-01 9.722693e-01
<GCONST> 9.408039e+01
<TRANSP> 5
 0.000000e+00 1.000000e+00 0.000000e+00 0.000000e+00 0.000000e+00
 0.000000e+00 6.000000e-01 4.000000e-01 0.000000e+00 0.000000e+00
 0.000000e+00 0.000000e+00 6.000000e-01 4.000000e-01 0.000000e+00
 0.000000e+00 0.000000e+00 0.000000e+00 6.000000e-01 4.000000e-01
 0.000000e+00 0.000000e+00 0.000000e+00 0.000000e+00 0.000000e+00
<ENDHMM>
~h "j"
<BEGINHMM>
<NUMSTATES> 5
<STATE> 2
<MEAN> 52
 -2.633533e-03 -7.590794e-04 -5.023713e-04 -7.722496e-04 1.020664e-03 5.436717e-06 6.219861e-05 7.482039e-04 5.662998e-05 1.312816e-04 1.612013e-04 4.537883e-04 1.476187e-04 7.248349e-06 -3.393925e-05 -2.440873e-05 -1.070037e-05 7.994362e-06 -1.250624e-05 -8.476622e-06 6.395113e-06 1.563548e-05 -2.726257e-05 -3.646029e-06 -7.183345e-06 -1.013966e-05 1.468344e-05 6.459016e-06 2.518873e-06 7.687093e-06 1.957398e-06 -3.495750e-06 -4.509172e-07 -8.504337e-06 6.731531e-08 -1.392306e-05 -1.542222e-05 -2.906701e-06 1.962978e-05 2.683648e-06 7.073778e-07 6.358121e-07 -3.009441e-06 3.083240e-06 -9.061120e-07 -1.332442e-05 -4.977887e-06 1.558978e-06 1.969036e-05 1.393268e-05 2.721163e-05 1.133617e-05
<VARIANCE> 52
 9.823492e-01 9.731483e-01 9.752311e-01 9.749091e-01 9.747771e-01 9.734979e-01 9.739454e-01 9.737328e-01 9.732655e-01 9.733865e-01 9.734423e-01 9.730576e-01 9.724492e-01 9.688368e-01 9.666015e-01 9.694306e-01 9.688821e-01 9.699932e-01 9.712142e-01 9.713351e-01 9.715728e-01 9.718160e-01 9.719783e-01 9.718980e-01 9.719121e-01 9.715400e-01 9.684328e-01 9.676102e-01 9.700027e-01 9.701184e-01 9.710317e-01 9.717178e-01 9.719301e-01 9.721297e-01 9.722497e-01 9.722958e-01 9.723998e-01 9.724238e-01 9.720991e-01 9.679034e-01 9.673409e-01 9.696908e-01 9.699568e-01 9.710049e-01 9.717237e-01 9.718229e-01 9.721447e-01 9.723063e-01 9.724119e-01 9.723689e-01 9.724489e-01 9.722693e-01
<GCONST> 9.408039e+01
<STATE> 3
<MEAN> 52
 -2.633533e-03 -7.590794e-04 -5.023713e-04 -7.722496e-04 1.020664e-03 5.436717e-06 6.219861e-05 7.482039e-04 5.662998e-05 1.312816e-04 1.612013e-04 4.537883e-04 1.476187e-04 7.248349e-06 -3.393925e-05 -2.440873e-05 -1.070037e-05 7.994362e-06 -1.250624e-05 -8.476622e-06 6.395113e-06 1.563548e-05 -2.726257e-05 -3.646029e-06 -7.183345e-06 -1.013966e-05 1.468344e-05 6.459016e-06 2.518873e-06 7.687093e-06 1.957398e-06 -3.495750e-06 -4.509172e-07 -8.504337e-06 6.731531e-08 -1.392306e-05 -1.542222e-05 -2.906701e-06 1.962978e-05 2.683648e-06 7.073778e-07 6.358121e-07 -3.009441e-06 3.083240e-06 -9.061120e-07 -1.332442e-05 -4.977887e-06 1.558978e-06 1.969036e-05 1.393268e-05 2.721163e-05 1.133617e-05
<VARIANCE> 52
 9.823492e-01 9.731483e-01 9.752311e-01 9.749091e-01 9.747771e-01 9.734979e-01 9.739454e-01 9.737328e-01 9.732655e-01 9.733865e-01 9.734423e-01 9.730576e-01 9.724492e-01 9.688368e-01 9.666015e-01 9.694306e-01 9.688821e-01 9.699932e-01 9.712142e-01 9.713351e-01 9.715728e-01 9.718160e-01 9.719783e-01 9.718980e-01 9.719121e-01 9.715400e-01 9.684328e-01 9.676102e-01 9.700027e-01 9.701184e-01 9.710317e-01 9.717178e-01 9.719301e-01 9.721297e-01 9.722497e-01 9.722958e-01 9.723998e-01 9.724238e-01 9.720991e-01 9.679034e-01 9.673409e-01 9.696908e-01 9.699568e-01 9.710049e-01 9.717237e-01 9.718229e-01 9.721447e-01 9.723063e-01 9.724119e-01 9.723689e-01 9.724489e-01 9.722693e-01
<GCONST> 9.408039e+01
<STATE> 4
<MEAN> 52
 -2.633533e-03 -7.590794e-04 -5.023713e-04 -7.722496e-04 1.020664e-03 5.436717e-06 6.219861e-05 7.482039e-04 5.662998e-05 1.312816e-04 1.612013e-04 4.537883e-04 1.476187e-04 7.248349e-06 -3.393925e-05 -2.440873e-05 -1.070037e-05 7.994362e-06 -1.250624e-05 -8.476622e-06 6.395113e-06 1.563548e-05 -2.726257e-05 -3.646029e-06 -7.183345e-06 -1.013966e-05 1.468344e-05 6.459016e-06 2.518873e-06 7.687093e-06 1.957398e-06 -3.495750e-06 -4.509172e-07 -8.504337e-06 6.731531e-08 -1.392306e-05 -1.542222e-05 -2.906701e-06 1.962978e-05 2.683648e-06 7.073778e-07 6.358121e-07 -3.009441e-06 3.083240e-06 -9.061120e-07 -1.332442e-05 -4.977887e-06 1.558978e-06 1.969036e-05 1.393268e-05 2.721163e-05 1.133617e-05
<VARIANCE> 52
 9.823492e-01 9.731483e-01 9.752311e-01 9.749091e-01 9.747771e-01 9.734979e-01 9.739454e-01 9.737328e-01 9.732655e-01 9.733865e-01 9.734423e-01 9.730576e-01 9.724492e-01 9.688368e-01 9.666015e-01 9.694306e-01 9.688821e-01 9.699932e-01 9.712142e-01 9.713351e-01 9.715728e-01 9.718160e-01 9.719783e-01 9.718980e-01 9.719121e-01 9.715400e-01 9.684328e-01 9.676102e-01 9.700027e-01 9.701184e-01 9.710317e-01 9.717178e-01 9.719301e-01 9.721297e-01 9.722497e-01 9.722958e-01 9.723998e-01 9.724238e-01 9.720991e-01 9.679034e-01 9.673409e-01 9.696908e-01 9.699568e-01 9.710049e-01 9.717237e-01 9.718229e-01 9.721447e-01 9.723063e-01 9.724119e-01 9.723689e-01 9.724489e-01 9.722693e-01
<GCONST> 9.408039e+01
<TRANSP> 5
 0.000000e+00 1.000000e+00 0.000000e+00 0.000000e+00 0.000000e+00
 0.000000e+00 6.000000e-01 4.000000e-01 0.000000e+00 0.000000e+00
 0.000000e+00 0.000000e+00 6.000000e-01 4.000000e-01 0.000000e+00
 0.000000e+00 0.000000e+00 0.000000e+00 6.000000e-01 4.000000e-01
 0.000000e+00 0.000000e+00 0.000000e+00 0.000000e+00 0.000000e+00
<ENDHMM>
~h "o3"
<BEGINHMM>
<NUMSTATES> 5
<STATE> 2
<MEAN> 52
 -2.633533e-03 -7.590794e-04 -5.023713e-04 -7.722496e-04 1.020664e-03 5.436717e-06 6.219861e-05 7.482039e-04 5.662998e-05 1.312816e-04 1.612013e-04 4.537883e-04 1.476187e-04 7.248349e-06 -3.393925e-05 -2.440873e-05 -1.070037e-05 7.994362e-06 -1.250624e-05 -8.476622e-06 6.395113e-06 1.563548e-05 -2.726257e-05 -3.646029e-06 -7.183345e-06 -1.013966e-05 1.468344e-05 6.459016e-06 2.518873e-06 7.687093e-06 1.957398e-06 -3.495750e-06 -4.509172e-07 -8.504337e-06 6.731531e-08 -1.392306e-05 -1.542222e-05 -2.906701e-06 1.962978e-05 2.683648e-06 7.073778e-07 6.358121e-07 -3.009441e-06 3.083240e-06 -9.061120e-07 -1.332442e-05 -4.977887e-06 1.558978e-06 1.969036e-05 1.393268e-05 2.721163e-05 1.133617e-05
<VARIANCE> 52
 9.823492e-01 9.731483e-01 9.752311e-01 9.749091e-01 9.747771e-01 9.734979e-01 9.739454e-01 9.737328e-01 9.732655e-01 9.733865e-01 9.734423e-01 9.730576e-01 9.724492e-01 9.688368e-01 9.666015e-01 9.694306e-01 9.688821e-01 9.699932e-01 9.712142e-01 9.713351e-01 9.715728e-01 9.718160e-01 9.719783e-01 9.718980e-01 9.719121e-01 9.715400e-01 9.684328e-01 9.676102e-01 9.700027e-01 9.701184e-01 9.710317e-01 9.717178e-01 9.719301e-01 9.721297e-01 9.722497e-01 9.722958e-01 9.723998e-01 9.724238e-01 9.720991e-01 9.679034e-01 9.673409e-01 9.696908e-01 9.699568e-01 9.710049e-01 9.717237e-01 9.718229e-01 9.721447e-01 9.723063e-01 9.724119e-01 9.723689e-01 9.724489e-01 9.722693e-01
<GCONST> 9.408039e+01
<STATE> 3
<MEAN> 52
 -2.633533e-03 -7.590794e-04 -5.023713e-04 -7.722496e-04 1.020664e-03 5.436717e-06 6.219861e-05 7.482039e-04 5.662998e-05 1.312816e-04 1.612013e-04 4.537883e-04 1.476187e-04 7.248349e-06 -3.393925e-05 -2.440873e-05 -1.070037e-05 7.994362e-06 -1.250624e-05 -8.476622e-06 6.395113e-06 1.563548e-05 -2.726257e-05 -3.646029e-06 -7.183345e-06 -1.013966e-05 1.468344e-05 6.459016e-06 2.518873e-06 7.687093e-06 1.957398e-06 -3.495750e-06 -4.509172e-07 -8.504337e-06 6.731531e-08 -1.392306e-05 -1.542222e-05 -2.906701e-06 1.962978e-05 2.683648e-06 7.073778e-07 6.358121e-07 -3.009441e-06 3.083240e-06 -9.061120e-07 -1.332442e-05 -4.977887e-06 1.558978e-06 1.969036e-05 1.393268e-05 2.721163e-05 1.133617e-05
<VARIANCE> 52
 9.823492e-01 9.731483e-01 9.752311e-01 9.749091e-01 9.747771e-01 9.734979e-01 9.739454e-01 9.737328e-01 9.732655e-01 9.733865e-01 9.734423e-01 9.730576e-01 9.724492e-01 9.688368e-01 9.666015e-01 9.694306e-01 9.688821e-01 9.699932e-01 9.712142e-01 9.713351e-01 9.715728e-01 9.718160e-01 9.719783e-01 9.718980e-01 9.719121e-01 9.715400e-01 9.684328e-01 9.676102e-01 9.700027e-01 9.701184e-01 9.710317e-01 9.717178e-01 9.719301e-01 9.721297e-01 9.722497e-01 9.722958e-01 9.723998e-01 9.724238e-01 9.720991e-01 9.679034e-01 9.673409e-01 9.696908e-01 9.699568e-01 9.710049e-01 9.717237e-01 9.718229e-01 9.721447e-01 9.723063e-01 9.724119e-01 9.723689e-01 9.724489e-01 9.722693e-01
<GCONST> 9.408039e+01
<STATE> 4
<MEAN> 52
 -2.633533e-03 -7.590794e-04 -5.023713e-04 -7.722496e-04 1.020664e-03 5.436717e-06 6.219861e-05 7.482039e-04 5.662998e-05 1.312816e-04 1.612013e-04 4.537883e-04 1.476187e-04 7.248349e-06 -3.393925e-05 -2.440873e-05 -1.070037e-05 7.994362e-06 -1.250624e-05 -8.476622e-06 6.395113e-06 1.563548e-05 -2.726257e-05 -3.646029e-06 -7.183345e-06 -1.013966e-05 1.468344e-05 6.459016e-06 2.518873e-06 7.687093e-06 1.957398e-06 -3.495750e-06 -4.509172e-07 -8.504337e-06 6.731531e-08 -1.392306e-05 -1.542222e-05 -2.906701e-06 1.962978e-05 2.683648e-06 7.073778e-07 6.358121e-07 -3.009441e-06 3.083240e-06 -9.061120e-07 -1.332442e-05 -4.977887e-06 1.558978e-06 1.969036e-05 1.393268e-05 2.721163e-05 1.133617e-05
<VARIANCE> 52
 9.823492e-01 9.731483e-01 9.752311e-01 9.749091e-01 9.747771e-01 9.734979e-01 9.739454e-01 9.737328e-01 9.732655e-01 9.733865e-01 9.734423e-01 9.730576e-01 9.724492e-01 9.688368e-01 9.666015e-01 9.694306e-01 9.688821e-01 9.699932e-01 9.712142e-01 9.713351e-01 9.715728e-01 9.718160e-01 9.719783e-01 9.718980e-01 9.719121e-01 9.715400e-01 9.684328e-01 9.676102e-01 9.700027e-01 9.701184e-01 9.710317e-01 9.717178e-01 9.719301e-01 9.721297e-01 9.722497e-01 9.722958e-01 9.723998e-01 9.724238e-01 9.720991e-01 9.679034e-01 9.673409e-01 9.696908e-01 9.699568e-01 9.710049e-01 9.717237e-01 9.718229e-01 9.721447e-01 9.723063e-01 9.724119e-01 9.723689e-01 9.724489e-01 9.722693e-01
<GCONST> 9.408039e+01
<TRANSP> 5
 0.000000e+00 1.000000e+00 0.000000e+00 0.000000e+00 0.000000e+00
 0.000000e+00 6.000000e-01 4.000000e-01 0.000000e+00 0.000000e+00
 0.000000e+00 0.000000e+00 6.000000e-01 4.000000e-01 0.000000e+00
 0.000000e+00 0.000000e+00 0.000000e+00 6.000000e-01 4.000000e-01
 0.000000e+00 0.000000e+00 0.000000e+00 0.000000e+00 0.000000e+00
<ENDHMM>
~h "f"
<BEGINHMM>
<NUMSTATES> 5
<STATE> 2
<MEAN> 52
 -2.633533e-03 -7.590794e-04 -5.023713e-04 -7.722496e-04 1.020664e-03 5.436717e-06 6.219861e-05 7.482039e-04 5.662998e-05 1.312816e-04 1.612013e-04 4.537883e-04 1.476187e-04 7.248349e-06 -3.393925e-05 -2.440873e-05 -1.070037e-05 7.994362e-06 -1.250624e-05 -8.476622e-06 6.395113e-06 1.563548e-05 -2.726257e-05 -3.646029e-06 -7.183345e-06 -1.013966e-05 1.468344e-05 6.459016e-06 2.518873e-06 7.687093e-06 1.957398e-06 -3.495750e-06 -4.509172e-07 -8.504337e-06 6.731531e-08 -1.392306e-05 -1.542222e-05 -2.906701e-06 1.962978e-05 2.683648e-06 7.073778e-07 6.358121e-07 -3.009441e-06 3.083240e-06 -9.061120e-07 -1.332442e-05 -4.977887e-06 1.558978e-06 1.969036e-05 1.393268e-05 2.721163e-05 1.133617e-05
<VARIANCE> 52
 9.823492e-01 9.731483e-01 9.752311e-01 9.749091e-01 9.747771e-01 9.734979e-01 9.739454e-01 9.737328e-01 9.732655e-01 9.733865e-01 9.734423e-01 9.730576e-01 9.724492e-01 9.688368e-01 9.666015e-01 9.694306e-01 9.688821e-01 9.699932e-01 9.712142e-01 9.713351e-01 9.715728e-01 9.718160e-01 9.719783e-01 9.718980e-01 9.719121e-01 9.715400e-01 9.684328e-01 9.676102e-01 9.700027e-01 9.701184e-01 9.710317e-01 9.717178e-01 9.719301e-01 9.721297e-01 9.722497e-01 9.722958e-01 9.723998e-01 9.724238e-01 9.720991e-01 9.679034e-01 9.673409e-01 9.696908e-01 9.699568e-01 9.710049e-01 9.717237e-01 9.718229e-01 9.721447e-01 9.723063e-01 9.724119e-01 9.723689e-01 9.724489e-01 9.722693e-01
<GCONST> 9.408039e+01
<STATE> 3
<MEAN> 52
 -2.633533e-03 -7.590794e-04 -5.023713e-04 -7.722496e-04 1.020664e-03 5.436717e-06 6.219861e-05 7.482039e-04 5.662998e-05 1.312816e-04 1.612013e-04 4.537883e-04 1.476187e-04 7.248349e-06 -3.393925e-05 -2.440873e-05 -1.070037e-05 7.994362e-06 -1.250624e-05 -8.476622e-06 6.395113e-06 1.563548e-05 -2.726257e-05 -3.646029e-06 -7.183345e-06 -1.013966e-05 1.468344e-05 6.459016e-06 2.518873e-06 7.687093e-06 1.957398e-06 -3.495750e-06 -4.509172e-07 -8.504337e-06 6.731531e-08 -1.392306e-05 -1.542222e-05 -2.906701e-06 1.962978e-05 2.683648e-06 7.073778e-07 6.358121e-07 -3.009441e-06 3.083240e-06 -9.061120e-07 -1.332442e-05 -4.977887e-06 1.558978e-06 1.969036e-05 1.393268e-05 2.721163e-05 1.133617e-05
<VARIANCE> 52
 9.823492e-01 9.731483e-01 9.752311e-01 9.749091e-01 9.747771e-01 9.734979e-01 9.739454e-01 9.737328e-01 9.732655e-01 9.733865e-01 9.734423e-01 9.730576e-01 9.724492e-01 9.688368e-01 9.666015e-01 9.694306e-01 9.688821e-01 9.699932e-01 9.712142e-01 9.713351e-01 9.715728e-01 9.718160e-01 9.719783e-01 9.718980e-01 9.719121e-01 9.715400e-01 9.684328e-01 9.676102e-01 9.700027e-01 9.701184e-01 9.710317e-01 9.717178e-01 9.719301e-01 9.721297e-01 9.722497e-01 9.722958e-01 9.723998e-01 9.724238e-01 9.720991e-01 9.679034e-01 9.673409e-01 9.696908e-01 9.699568e-01 9.710049e-01 9.717237e-01 9.718229e-01 9.721447e-01 9.723063e-01 9.724119e-01 9.723689e-01 9.724489e-01 9.722693e-01
<GCONST> 9.408039e+01
<STATE> 4
<MEAN> 52
 -2.633533e-03 -7.590794e-04 -5.023713e-04 -7.722496e-04 1.020664e-03 5.436717e-06 6.219861e-05 7.482039e-04 5.662998e-05 1.312816e-04 1.612013e-04 4.537883e-04 1.476187e-04 7.248349e-06 -3.393925e-05 -2.440873e-05 -1.070037e-05 7.994362e-06 -1.250624e-05 -8.476622e-06 6.395113e-06 1.563548e-05 -2.726257e-05 -3.646029e-06 -7.183345e-06 -1.013966e-05 1.468344e-05 6.459016e-06 2.518873e-06 7.687093e-06 1.957398e-06 -3.495750e-06 -4.509172e-07 -8.504337e-06 6.731531e-08 -1.392306e-05 -1.542222e-05 -2.906701e-06 1.962978e-05 2.683648e-06 7.073778e-07 6.358121e-07 -3.009441e-06 3.083240e-06 -9.061120e-07 -1.332442e-05 -4.977887e-06 1.558978e-06 1.969036e-05 1.393268e-05 2.721163e-05 1.133617e-05
<VARIANCE> 52
 9.823492e-01 9.731483e-01 9.752311e-01 9.749091e-01 9.747771e-01 9.734979e-01 9.739454e-01 9.737328e-01 9.732655e-01 9.733865e-01 9.734423e-01 9.730576e-01 9.724492e-01 9.688368e-01 9.666015e-01 9.694306e-01 9.688821e-01 9.699932e-01 9.712142e-01 9.713351e-01 9.715728e-01 9.718160e-01 9.719783e-01 9.718980e-01 9.719121e-01 9.715400e-01 9.684328e-01 9.676102e-01 9.700027e-01 9.701184e-01 9.710317e-01 9.717178e-01 9.719301e-01 9.721297e-01 9.722497e-01 9.722958e-01 9.723998e-01 9.724238e-01 9.720991e-01 9.679034e-01 9.673409e-01 9.696908e-01 9.699568e-01 9.710049e-01 9.717237e-01 9.718229e-01 9.721447e-01 9.723063e-01 9.724119e-01 9.723689e-01 9.724489e-01 9.722693e-01
<GCONST> 9.408039e+01
<TRANSP> 5
 0.000000e+00 1.000000e+00 0.000000e+00 0.000000e+00 0.000000e+00
 0.000000e+00 6.000000e-01 4.000000e-01 0.000000e+00 0.000000e+00
 0.000000e+00 0.000000e+00 6.000000e-01 4.000000e-01 0.000000e+00
 0.000000e+00 0.000000e+00 0.000000e+00 6.000000e-01 4.000000e-01
 0.000000e+00 0.000000e+00 0.000000e+00 0.000000e+00 0.000000e+00
<ENDHMM>
~h "o1"
<BEGINHMM>
<NUMSTATES> 5
<STATE> 2
<MEAN> 52
 -2.633533e-03 -7.590794e-04 -5.023713e-04 -7.722496e-04 1.020664e-03 5.436717e-06 6.219861e-05 7.482039e-04 5.662998e-05 1.312816e-04 1.612013e-04 4.537883e-04 1.476187e-04 7.248349e-06 -3.393925e-05 -2.440873e-05 -1.070037e-05 7.994362e-06 -1.250624e-05 -8.476622e-06 6.395113e-06 1.563548e-05 -2.726257e-05 -3.646029e-06 -7.183345e-06 -1.013966e-05 1.468344e-05 6.459016e-06 2.518873e-06 7.687093e-06 1.957398e-06 -3.495750e-06 -4.509172e-07 -8.504337e-06 6.731531e-08 -1.392306e-05 -1.542222e-05 -2.906701e-06 1.962978e-05 2.683648e-06 7.073778e-07 6.358121e-07 -3.009441e-06 3.083240e-06 -9.061120e-07 -1.332442e-05 -4.977887e-06 1.558978e-06 1.969036e-05 1.393268e-05 2.721163e-05 1.133617e-05
<VARIANCE> 52
 9.823492e-01 9.731483e-01 9.752311e-01 9.749091e-01 9.747771e-01 9.734979e-01 9.739454e-01 9.737328e-01 9.732655e-01 9.733865e-01 9.734423e-01 9.730576e-01 9.724492e-01 9.688368e-01 9.666015e-01 9.694306e-01 9.688821e-01 9.699932e-01 9.712142e-01 9.713351e-01 9.715728e-01 9.718160e-01 9.719783e-01 9.718980e-01 9.719121e-01 9.715400e-01 9.684328e-01 9.676102e-01 9.700027e-01 9.701184e-01 9.710317e-01 9.717178e-01 9.719301e-01 9.721297e-01 9.722497e-01 9.722958e-01 9.723998e-01 9.724238e-01 9.720991e-01 9.679034e-01 9.673409e-01 9.696908e-01 9.699568e-01 9.710049e-01 9.717237e-01 9.718229e-01 9.721447e-01 9.723063e-01 9.724119e-01 9.723689e-01 9.724489e-01 9.722693e-01
<GCONST> 9.408039e+01
<STATE> 3
<MEAN> 52
 -2.633533e-03 -7.590794e-04 -5.023713e-04 -7.722496e-04 1.020664e-03 5.436717e-06 6.219861e-05 7.482039e-04 5.662998e-05 1.312816e-04 1.612013e-04 4.537883e-04 1.476187e-04 7.248349e-06 -3.393925e-05 -2.440873e-05 -1.070037e-05 7.994362e-06 -1.250624e-05 -8.476622e-06 6.395113e-06 1.563548e-05 -2.726257e-05 -3.646029e-06 -7.183345e-06 -1.013966e-05 1.468344e-05 6.459016e-06 2.518873e-06 7.687093e-06 1.957398e-06 -3.495750e-06 -4.509172e-07 -8.504337e-06 6.731531e-08 -1.392306e-05 -1.542222e-05 -2.906701e-06 1.962978e-05 2.683648e-06 7.073778e-07 6.358121e-07 -3.009441e-06 3.083240e-06 -9.061120e-07 -1.332442e-05 -4.977887e-06 1.558978e-06 1.969036e-05 1.393268e-05 2.721163e-05 1.133617e-05
<VARIANCE> 52
 9.823492e-01 9.731483e-01 9.752311e-01 9.749091e-01 9.747771e-01 9.734979e-01 9.739454e-01 9.737328e-01 9.732655e-01 9.733865e-01 9.734423e-01 9.730576e-01 9.724492e-01 9.688368e-01 9.666015e-01 9.694306e-01 9.688821e-01 9.699932e-01 9.712142e-01 9.713351e-01 9.715728e-01 9.718160e-01 9.719783e-01 9.718980e-01 9.719121e-01 9.715400e-01 9.684328e-01 9.676102e-01 9.700027e-01 9.701184e-01 9.710317e-01 9.717178e-01 9.719301e-01 9.721297e-01 9.722497e-01 9.722958e-01 9.723998e-01 9.724238e-01 9.720991e-01 9.679034e-01 9.673409e-01 9.696908e-01 9.699568e-01 9.710049e-01 9.717237e-01 9.718229e-01 9.721447e-01 9.723063e-01 9.724119e-01 9.723689e-01 9.724489e-01 9.722693e-01
<GCONST> 9.408039e+01
<STATE> 4
<MEAN> 52
 -2.633533e-03 -7.590794e-04 -5.023713e-04 -7.722496e-04 1.020664e-03 5.436717e-06 6.219861e-05 7.482039e-04 5.662998e-05 1.312816e-04 1.612013e-04 4.537883e-04 1.476187e-04 7.248349e-06 -3.393925e-05 -2.440873e-05 -1.070037e-05 7.994362e-06 -1.250624e-05 -8.476622e-06 6.395113e-06 1.563548e-05 -2.726257e-05 -3.646029e-06 -7.183345e-06 -1.013966e-05 1.468344e-05 6.459016e-06 2.518873e-06 7.687093e-06 1.957398e-06 -3.495750e-06 -4.509172e-07 -8.504337e-06 6.731531e-08 -1.392306e-05 -1.542222e-05 -2.906701e-06 1.962978e-05 2.683648e-06 7.073778e-07 6.358121e-07 -3.009441e-06 3.083240e-06 -9.061120e-07 -1.332442e-05 -4.977887e-06 1.558978e-06 1.969036e-05 1.393268e-05 2.721163e-05 1.133617e-05
<VARIANCE> 52
 9.823492e-01 9.731483e-01 9.752311e-01 9.749091e-01 9.747771e-01 9.734979e-01 9.739454e-01 9.737328e-01 9.732655e-01 9.733865e-01 9.734423e-01 9.730576e-01 9.724492e-01 9.688368e-01 9.666015e-01 9.694306e-01 9.688821e-01 9.699932e-01 9.712142e-01 9.713351e-01 9.715728e-01 9.718160e-01 9.719783e-01 9.718980e-01 9.719121e-01 9.715400e-01 9.684328e-01 9.676102e-01 9.700027e-01 9.701184e-01 9.710317e-01 9.717178e-01 9.719301e-01 9.721297e-01 9.722497e-01 9.722958e-01 9.723998e-01 9.724238e-01 9.720991e-01 9.679034e-01 9.673409e-01 9.696908e-01 9.699568e-01 9.710049e-01 9.717237e-01 9.718229e-01 9.721447e-01 9.723063e-01 9.724119e-01 9.723689e-01 9.724489e-01 9.722693e-01
<GCONST> 9.408039e+01
<TRANSP> 5
 0.000000e+00 1.000000e+00 0.000000e+00 0.000000e+00 0.000000e+00
 0.000000e+00 6.000000e-01 4.000000e-01 0.000000e+00 0.000000e+00
 0.000000e+00 0.000000e+00 6.000000e-01 4.000000e-01 0.000000e+00
 0.000000e+00 0.000000e+00 0.000000e+00 6.000000e-01 4.000000e-01
 0.000000e+00 0.000000e+00 0.000000e+00 0.000000e+00 0.000000e+00
<ENDHMM>
~h "e2"
<BEGINHMM>
<NUMSTATES> 5
<STATE> 2
<MEAN> 52
 -2.633533e-03 -7.590794e-04 -5.023713e-04 -7.722496e-04 1.020664e-03 5.436717e-06 6.219861e-05 7.482039e-04 5.662998e-05 1.312816e-04 1.612013e-04 4.537883e-04 1.476187e-04 7.248349e-06 -3.393925e-05 -2.440873e-05 -1.070037e-05 7.994362e-06 -1.250624e-05 -8.476622e-06 6.395113e-06 1.563548e-05 -2.726257e-05 -3.646029e-06 -7.183345e-06 -1.013966e-05 1.468344e-05 6.459016e-06 2.518873e-06 7.687093e-06 1.957398e-06 -3.495750e-06 -4.509172e-07 -8.504337e-06 6.731531e-08 -1.392306e-05 -1.542222e-05 -2.906701e-06 1.962978e-05 2.683648e-06 7.073778e-07 6.358121e-07 -3.009441e-06 3.083240e-06 -9.061120e-07 -1.332442e-05 -4.977887e-06 1.558978e-06 1.969036e-05 1.393268e-05 2.721163e-05 1.133617e-05
<VARIANCE> 52
 9.823492e-01 9.731483e-01 9.752311e-01 9.749091e-01 9.747771e-01 9.734979e-01 9.739454e-01 9.737328e-01 9.732655e-01 9.733865e-01 9.734423e-01 9.730576e-01 9.724492e-01 9.688368e-01 9.666015e-01 9.694306e-01 9.688821e-01 9.699932e-01 9.712142e-01 9.713351e-01 9.715728e-01 9.718160e-01 9.719783e-01 9.718980e-01 9.719121e-01 9.715400e-01 9.684328e-01 9.676102e-01 9.700027e-01 9.701184e-01 9.710317e-01 9.717178e-01 9.719301e-01 9.721297e-01 9.722497e-01 9.722958e-01 9.723998e-01 9.724238e-01 9.720991e-01 9.679034e-01 9.673409e-01 9.696908e-01 9.699568e-01 9.710049e-01 9.717237e-01 9.718229e-01 9.721447e-01 9.723063e-01 9.724119e-01 9.723689e-01 9.724489e-01 9.722693e-01
<GCONST> 9.408039e+01
<STATE> 3
<MEAN> 52
 -2.633533e-03 -7.590794e-04 -5.023713e-04 -7.722496e-04 1.020664e-03 5.436717e-06 6.219861e-05 7.482039e-04 5.662998e-05 1.312816e-04 1.612013e-04 4.537883e-04 1.476187e-04 7.248349e-06 -3.393925e-05 -2.440873e-05 -1.070037e-05 7.994362e-06 -1.250624e-05 -8.476622e-06 6.395113e-06 1.563548e-05 -2.726257e-05 -3.646029e-06 -7.183345e-06 -1.013966e-05 1.468344e-05 6.459016e-06 2.518873e-06 7.687093e-06 1.957398e-06 -3.495750e-06 -4.509172e-07 -8.504337e-06 6.731531e-08 -1.392306e-05 -1.542222e-05 -2.906701e-06 1.962978e-05 2.683648e-06 7.073778e-07 6.358121e-07 -3.009441e-06 3.083240e-06 -9.061120e-07 -1.332442e-05 -4.977887e-06 1.558978e-06 1.969036e-05 1.393268e-05 2.721163e-05 1.133617e-05
<VARIANCE> 52
 9.823492e-01 9.731483e-01 9.752311e-01 9.749091e-01 9.747771e-01 9.734979e-01 9.739454e-01 9.737328e-01 9.732655e-01 9.733865e-01 9.734423e-01 9.730576e-01 9.724492e-01 9.688368e-01 9.666015e-01 9.694306e-01 9.688821e-01 9.699932e-01 9.712142e-01 9.713351e-01 9.715728e-01 9.718160e-01 9.719783e-01 9.718980e-01 9.719121e-01 9.715400e-01 9.684328e-01 9.676102e-01 9.700027e-01 9.701184e-01 9.710317e-01 9.717178e-01 9.719301e-01 9.721297e-01 9.722497e-01 9.722958e-01 9.723998e-01 9.724238e-01 9.720991e-01 9.679034e-01 9.673409e-01 9.696908e-01 9.699568e-01 9.710049e-01 9.717237e-01 9.718229e-01 9.721447e-01 9.723063e-01 9.724119e-01 9.723689e-01 9.724489e-01 9.722693e-01
<GCONST> 9.408039e+01
<STATE> 4
<MEAN> 52
 -2.633533e-03 -7.590794e-04 -5.023713e-04 -7.722496e-04 1.020664e-03 5.436717e-06 6.219861e-05 7.482039e-04 5.662998e-05 1.312816e-04 1.612013e-04 4.537883e-04 1.476187e-04 7.248349e-06 -3.393925e-05 -2.440873e-05 -1.070037e-05 7.994362e-06 -1.250624e-05 -8.476622e-06 6.395113e-06 1.563548e-05 -2.726257e-05 -3.646029e-06 -7.183345e-06 -1.013966e-05 1.468344e-05 6.459016e-06 2.518873e-06 7.687093e-06 1.957398e-06 -3.495750e-06 -4.509172e-07 -8.504337e-06 6.731531e-08 -1.392306e-05 -1.542222e-05 -2.906701e-06 1.962978e-05 2.683648e-06 7.073778e-07 6.358121e-07 -3.009441e-06 3.083240e-06 -9.061120e-07 -1.332442e-05 -4.977887e-06 1.558978e-06 1.969036e-05 1.393268e-05 2.721163e-05 1.133617e-05
<VARIANCE> 52
 9.823492e-01 9.731483e-01 9.752311e-01 9.749091e-01 9.747771e-01 9.734979e-01 9.739454e-01 9.737328e-01 9.732655e-01 9.733865e-01 9.734423e-01 9.730576e-01 9.724492e-01 9.688368e-01 9.666015e-01 9.694306e-01 9.688821e-01 9.699932e-01 9.712142e-01 9.713351e-01 9.715728e-01 9.718160e-01 9.719783e-01 9.718980e-01 9.719121e-01 9.715400e-01 9.684328e-01 9.676102e-01 9.700027e-01 9.701184e-01 9.710317e-01 9.717178e-01 9.719301e-01 9.721297e-01 9.722497e-01 9.722958e-01 9.723998e-01 9.724238e-01 9.720991e-01 9.679034e-01 9.673409e-01 9.696908e-01 9.699568e-01 9.710049e-01 9.717237e-01 9.718229e-01 9.721447e-01 9.723063e-01 9.724119e-01 9.723689e-01 9.724489e-01 9.722693e-01
<GCONST> 9.408039e+01
<TRANSP> 5
 0.000000e+00 1.000000e+00 0.000000e+00 0.000000e+00 0.000000e+00
 0.000000e+00 6.000000e-01 4.000000e-01 0.000000e+00 0.000000e+00
 0.000000e+00 0.000000e+00 6.000000e-01 4.000000e-01 0.000000e+00
 0.000000e+00 0.000000e+00 0.000000e+00 6.000000e-01 4.000000e-01
 0.000000e+00 0.000000e+00 0.000000e+00 0.000000e+00 0.000000e+00
<ENDHMM>
~h "uu4"
<BEGINHMM>
<NUMSTATES> 5
<STATE> 2
<MEAN> 52
 -2.633533e-03 -7.590794e-04 -5.023713e-04 -7.722496e-04 1.020664e-03 5.436717e-06 6.219861e-05 7.482039e-04 5.662998e-05 1.312816e-04 1.612013e-04 4.537883e-04 1.476187e-04 7.248349e-06 -3.393925e-05 -2.440873e-05 -1.070037e-05 7.994362e-06 -1.250624e-05 -8.476622e-06 6.395113e-06 1.563548e-05 -2.726257e-05 -3.646029e-06 -7.183345e-06 -1.013966e-05 1.468344e-05 6.459016e-06 2.518873e-06 7.687093e-06 1.957398e-06 -3.495750e-06 -4.509172e-07 -8.504337e-06 6.731531e-08 -1.392306e-05 -1.542222e-05 -2.906701e-06 1.962978e-05 2.683648e-06 7.073778e-07 6.358121e-07 -3.009441e-06 3.083240e-06 -9.061120e-07 -1.332442e-05 -4.977887e-06 1.558978e-06 1.969036e-05 1.393268e-05 2.721163e-05 1.133617e-05
<VARIANCE> 52
 9.823492e-01 9.731483e-01 9.752311e-01 9.749091e-01 9.747771e-01 9.734979e-01 9.739454e-01 9.737328e-01 9.732655e-01 9.733865e-01 9.734423e-01 9.730576e-01 9.724492e-01 9.688368e-01 9.666015e-01 9.694306e-01 9.688821e-01 9.699932e-01 9.712142e-01 9.713351e-01 9.715728e-01 9.718160e-01 9.719783e-01 9.718980e-01 9.719121e-01 9.715400e-01 9.684328e-01 9.676102e-01 9.700027e-01 9.701184e-01 9.710317e-01 9.717178e-01 9.719301e-01 9.721297e-01 9.722497e-01 9.722958e-01 9.723998e-01 9.724238e-01 9.720991e-01 9.679034e-01 9.673409e-01 9.696908e-01 9.699568e-01 9.710049e-01 9.717237e-01 9.718229e-01 9.721447e-01 9.723063e-01 9.724119e-01 9.723689e-01 9.724489e-01 9.722693e-01
<GCONST> 9.408039e+01
<STATE> 3
<MEAN> 52
 -2.633533e-03 -7.590794e-04 -5.023713e-04 -7.722496e-04 1.020664e-03 5.436717e-06 6.219861e-05 7.482039e-04 5.662998e-05 1.312816e-04 1.612013e-04 4.537883e-04 1.476187e-04 7.248349e-06 -3.393925e-05 -2.440873e-05 -1.070037e-05 7.994362e-06 -1.250624e-05 -8.476622e-06 6.395113e-06 1.563548e-05 -2.726257e-05 -3.646029e-06 -7.183345e-06 -1.013966e-05 1.468344e-05 6.459016e-06 2.518873e-06 7.687093e-06 1.957398e-06 -3.495750e-06 -4.509172e-07 -8.504337e-06 6.731531e-08 -1.392306e-05 -1.542222e-05 -2.906701e-06 1.962978e-05 2.683648e-06 7.073778e-07 6.358121e-07 -3.009441e-06 3.083240e-06 -9.061120e-07 -1.332442e-05 -4.977887e-06 1.558978e-06 1.969036e-05 1.393268e-05 2.721163e-05 1.133617e-05
<VARIANCE> 52
 9.823492e-01 9.731483e-01 9.752311e-01 9.749091e-01 9.747771e-01 9.734979e-01 9.739454e-01 9.737328e-01 9.732655e-01 9.733865e-01 9.734423e-01 9.730576e-01 9.724492e-01 9.688368e-01 9.666015e-01 9.694306e-01 9.688821e-01 9.699932e-01 9.712142e-01 9.713351e-01 9.715728e-01 9.718160e-01 9.719783e-01 9.718980e-01 9.719121e-01 9.715400e-01 9.684328e-01 9.676102e-01 9.700027e-01 9.701184e-01 9.710317e-01 9.717178e-01 9.719301e-01 9.721297e-01 9.722497e-01 9.722958e-01 9.723998e-01 9.724238e-01 9.720991e-01 9.679034e-01 9.673409e-01 9.696908e-01 9.699568e-01 9.710049e-01 9.717237e-01 9.718229e-01 9.721447e-01 9.723063e-01 9.724119e-01 9.723689e-01 9.724489e-01 9.722693e-01
<GCONST> 9.408039e+01
<STATE> 4
<MEAN> 52
 -2.633533e-03 -7.590794e-04 -5.023713e-04 -7.722496e-04 1.020664e-03 5.436717e-06 6.219861e-05 7.482039e-04 5.662998e-05 1.312816e-04 1.612013e-04 4.537883e-04 1.476187e-04 7.248349e-06 -3.393925e-05 -2.440873e-05 -1.070037e-05 7.994362e-06 -1.250624e-05 -8.476622e-06 6.395113e-06 1.563548e-05 -2.726257e-05 -3.646029e-06 -7.183345e-06 -1.013966e-05 1.468344e-05 6.459016e-06 2.518873e-06 7.687093e-06 1.957398e-06 -3.495750e-06 -4.509172e-07 -8.504337e-06 6.731531e-08 -1.392306e-05 -1.542222e-05 -2.906701e-06 1.962978e-05 2.683648e-06 7.073778e-07 6.358121e-07 -3.009441e-06 3.083240e-06 -9.061120e-07 -1.332442e-05 -4.977887e-06 1.558978e-06 1.969036e-05 1.393268e-05 2.721163e-05 1.133617e-05
<VARIANCE> 52
 9.823492e-01 9.731483e-01 9.752311e-01 9.749091e-01 9.747771e-01 9.734979e-01 9.739454e-01 9.737328e-01 9.732655e-01 9.733865e-01 9.734423e-01 9.730576e-01 9.724492e-01 9.688368e-01 9.666015e-01 9.694306e-01 9.688821e-01 9.699932e-01 9.712142e-01 9.713351e-01 9.715728e-01 9.718160e-01 9.719783e-01 9.718980e-01 9.719121e-01 9.715400e-01 9.684328e-01 9.676102e-01 9.700027e-01 9.701184e-01 9.710317e-01 9.717178e-01 9.719301e-01 9.721297e-01 9.722497e-01 9.722958e-01 9.723998e-01 9.724238e-01 9.720991e-01 9.679034e-01 9.673409e-01 9.696908e-01 9.699568e-01 9.710049e-01 9.717237e-01 9.718229e-01 9.721447e-01 9.723063e-01 9.724119e-01 9.723689e-01 9.724489e-01 9.722693e-01
<GCONST> 9.408039e+01
<TRANSP> 5
 0.000000e+00 1.000000e+00 0.000000e+00 0.000000e+00 0.000000e+00
 0.000000e+00 6.000000e-01 4.000000e-01 0.000000e+00 0.000000e+00
 0.000000e+00 0.000000e+00 6.000000e-01 4.000000e-01 0.000000e+00
 0.000000e+00 0.000000e+00 0.000000e+00 6.000000e-01 4.000000e-01
 0.000000e+00 0.000000e+00 0.000000e+00 0.000000e+00 0.000000e+00
<ENDHMM>
~h "i4"
<BEGINHMM>
<NUMSTATES> 5
<STATE> 2
<MEAN> 52
 -2.633533e-03 -7.590794e-04 -5.023713e-04 -7.722496e-04 1.020664e-03 5.436717e-06 6.219861e-05 7.482039e-04 5.662998e-05 1.312816e-04 1.612013e-04 4.537883e-04 1.476187e-04 7.248349e-06 -3.393925e-05 -2.440873e-05 -1.070037e-05 7.994362e-06 -1.250624e-05 -8.476622e-06 6.395113e-06 1.563548e-05 -2.726257e-05 -3.646029e-06 -7.183345e-06 -1.013966e-05 1.468344e-05 6.459016e-06 2.518873e-06 7.687093e-06 1.957398e-06 -3.495750e-06 -4.509172e-07 -8.504337e-06 6.731531e-08 -1.392306e-05 -1.542222e-05 -2.906701e-06 1.962978e-05 2.683648e-06 7.073778e-07 6.358121e-07 -3.009441e-06 3.083240e-06 -9.061120e-07 -1.332442e-05 -4.977887e-06 1.558978e-06 1.969036e-05 1.393268e-05 2.721163e-05 1.133617e-05
<VARIANCE> 52
 9.823492e-01 9.731483e-01 9.752311e-01 9.749091e-01 9.747771e-01 9.734979e-01 9.739454e-01 9.737328e-01 9.732655e-01 9.733865e-01 9.734423e-01 9.730576e-01 9.724492e-01 9.688368e-01 9.666015e-01 9.694306e-01 9.688821e-01 9.699932e-01 9.712142e-01 9.713351e-01 9.715728e-01 9.718160e-01 9.719783e-01 9.718980e-01 9.719121e-01 9.715400e-01 9.684328e-01 9.676102e-01 9.700027e-01 9.701184e-01 9.710317e-01 9.717178e-01 9.719301e-01 9.721297e-01 9.722497e-01 9.722958e-01 9.723998e-01 9.724238e-01 9.720991e-01 9.679034e-01 9.673409e-01 9.696908e-01 9.699568e-01 9.710049e-01 9.717237e-01 9.718229e-01 9.721447e-01 9.723063e-01 9.724119e-01 9.723689e-01 9.724489e-01 9.722693e-01
<GCONST> 9.408039e+01
<STATE> 3
<MEAN> 52
 -2.633533e-03 -7.590794e-04 -5.023713e-04 -7.722496e-04 1.020664e-03 5.436717e-06 6.219861e-05 7.482039e-04 5.662998e-05 1.312816e-04 1.612013e-04 4.537883e-04 1.476187e-04 7.248349e-06 -3.393925e-05 -2.440873e-05 -1.070037e-05 7.994362e-06 -1.250624e-05 -8.476622e-06 6.395113e-06 1.563548e-05 -2.726257e-05 -3.646029e-06 -7.183345e-06 -1.013966e-05 1.468344e-05 6.459016e-06 2.518873e-06 7.687093e-06 1.957398e-06 -3.495750e-06 -4.509172e-07 -8.504337e-06 6.731531e-08 -1.392306e-05 -1.542222e-05 -2.906701e-06 1.962978e-05 2.683648e-06 7.073778e-07 6.358121e-07 -3.009441e-06 3.083240e-06 -9.061120e-07 -1.332442e-05 -4.977887e-06 1.558978e-06 1.969036e-05 1.393268e-05 2.721163e-05 1.133617e-05
<VARIANCE> 52
 9.823492e-01 9.731483e-01 9.752311e-01 9.749091e-01 9.747771e-01 9.734979e-01 9.739454e-01 9.737328e-01 9.732655e-01 9.733865e-01 9.734423e-01 9.730576e-01 9.724492e-01 9.688368e-01 9.666015e-01 9.694306e-01 9.688821e-01 9.699932e-01 9.712142e-01 9.713351e-01 9.715728e-01 9.718160e-01 9.719783e-01 9.718980e-01 9.719121e-01 9.715400e-01 9.684328e-01 9.676102e-01 9.700027e-01 9.701184e-01 9.710317e-01 9.717178e-01 9.719301e-01 9.721297e-01 9.722497e-01 9.722958e-01 9.723998e-01 9.724238e-01 9.720991e-01 9.679034e-01 9.673409e-01 9.696908e-01 9.699568e-01 9.710049e-01 9.717237e-01 9.718229e-01 9.721447e-01 9.723063e-01 9.724119e-01 9.723689e-01 9.724489e-01 9.722693e-01
<GCONST> 9.408039e+01
<STATE> 4
<MEAN> 52
 -2.633533e-03 -7.590794e-04 -5.023713e-04 -7.722496e-04 1.020664e-03 5.436717e-06 6.219861e-05 7.482039e-04 5.662998e-05 1.312816e-04 1.612013e-04 4.537883e-04 1.476187e-04 7.248349e-06 -3.393925e-05 -2.440873e-05 -1.070037e-05 7.994362e-06 -1.250624e-05 -8.476622e-06 6.395113e-06 1.563548e-05 -2.726257e-05 -3.646029e-06 -7.183345e-06 -1.013966e-05 1.468344e-05 6.459016e-06 2.518873e-06 7.687093e-06 1.957398e-06 -3.495750e-06 -4.509172e-07 -8.504337e-06 6.731531e-08 -1.392306e-05 -1.542222e-05 -2.906701e-06 1.962978e-05 2.683648e-06 7.073778e-07 6.358121e-07 -3.009441e-06 3.083240e-06 -9.061120e-07 -1.332442e-05 -4.977887e-06 1.558978e-06 1.969036e-05 1.393268e-05 2.721163e-05 1.133617e-05
<VARIANCE> 52
 9.823492e-01 9.731483e-01 9.752311e-01 9.749091e-01 9.747771e-01 9.734979e-01 9.739454e-01 9.737328e-01 9.732655e-01 9.733865e-01 9.734423e-01 9.730576e-01 9.724492e-01 9.688368e-01 9.666015e-01 9.694306e-01 9.688821e-01 9.699932e-01 9.712142e-01 9.713351e-01 9.715728e-01 9.718160e-01 9.719783e-01 9.718980e-01 9.719121e-01 9.715400e-01 9.684328e-01 9.676102e-01 9.700027e-01 9.701184e-01 9.710317e-01 9.717178e-01 9.719301e-01 9.721297e-01 9.722497e-01 9.722958e-01 9.723998e-01 9.724238e-01 9.720991e-01 9.679034e-01 9.673409e-01 9.696908e-01 9.699568e-01 9.710049e-01 9.717237e-01 9.718229e-01 9.721447e-01 9.723063e-01 9.724119e-01 9.723689e-01 9.724489e-01 9.722693e-01
<GCONST> 9.408039e+01
<TRANSP> 5
 0.000000e+00 1.000000e+00 0.000000e+00 0.000000e+00 0.000000e+00
 0.000000e+00 6.000000e-01 4.000000e-01 0.000000e+00 0.000000e+00
 0.000000e+00 0.000000e+00 6.000000e-01 4.000000e-01 0.000000e+00
 0.000000e+00 0.000000e+00 0.000000e+00 6.000000e-01 4.000000e-01
 0.000000e+00 0.000000e+00 0.000000e+00 0.000000e+00 0.000000e+00
<ENDHMM>
~h "i3"
<BEGINHMM>
<NUMSTATES> 5
<STATE> 2
<MEAN> 52
 -2.633533e-03 -7.590794e-04 -5.023713e-04 -7.722496e-04 1.020664e-03 5.436717e-06 6.219861e-05 7.482039e-04 5.662998e-05 1.312816e-04 1.612013e-04 4.537883e-04 1.476187e-04 7.248349e-06 -3.393925e-05 -2.440873e-05 -1.070037e-05 7.994362e-06 -1.250624e-05 -8.476622e-06 6.395113e-06 1.563548e-05 -2.726257e-05 -3.646029e-06 -7.183345e-06 -1.013966e-05 1.468344e-05 6.459016e-06 2.518873e-06 7.687093e-06 1.957398e-06 -3.495750e-06 -4.509172e-07 -8.504337e-06 6.731531e-08 -1.392306e-05 -1.542222e-05 -2.906701e-06 1.962978e-05 2.683648e-06 7.073778e-07 6.358121e-07 -3.009441e-06 3.083240e-06 -9.061120e-07 -1.332442e-05 -4.977887e-06 1.558978e-06 1.969036e-05 1.393268e-05 2.721163e-05 1.133617e-05
<VARIANCE> 52
 9.823492e-01 9.731483e-01 9.752311e-01 9.749091e-01 9.747771e-01 9.734979e-01 9.739454e-01 9.737328e-01 9.732655e-01 9.733865e-01 9.734423e-01 9.730576e-01 9.724492e-01 9.688368e-01 9.666015e-01 9.694306e-01 9.688821e-01 9.699932e-01 9.712142e-01 9.713351e-01 9.715728e-01 9.718160e-01 9.719783e-01 9.718980e-01 9.719121e-01 9.715400e-01 9.684328e-01 9.676102e-01 9.700027e-01 9.701184e-01 9.710317e-01 9.717178e-01 9.719301e-01 9.721297e-01 9.722497e-01 9.722958e-01 9.723998e-01 9.724238e-01 9.720991e-01 9.679034e-01 9.673409e-01 9.696908e-01 9.699568e-01 9.710049e-01 9.717237e-01 9.718229e-01 9.721447e-01 9.723063e-01 9.724119e-01 9.723689e-01 9.724489e-01 9.722693e-01
<GCONST> 9.408039e+01
<STATE> 3
<MEAN> 52
 -2.633533e-03 -7.590794e-04 -5.023713e-04 -7.722496e-04 1.020664e-03 5.436717e-06 6.219861e-05 7.482039e-04 5.662998e-05 1.312816e-04 1.612013e-04 4.537883e-04 1.476187e-04 7.248349e-06 -3.393925e-05 -2.440873e-05 -1.070037e-05 7.994362e-06 -1.250624e-05 -8.476622e-06 6.395113e-06 1.563548e-05 -2.726257e-05 -3.646029e-06 -7.183345e-06 -1.013966e-05 1.468344e-05 6.459016e-06 2.518873e-06 7.687093e-06 1.957398e-06 -3.495750e-06 -4.509172e-07 -8.504337e-06 6.731531e-08 -1.392306e-05 -1.542222e-05 -2.906701e-06 1.962978e-05 2.683648e-06 7.073778e-07 6.358121e-07 -3.009441e-06 3.083240e-06 -9.061120e-07 -1.332442e-05 -4.977887e-06 1.558978e-06 1.969036e-05 1.393268e-05 2.721163e-05 1.133617e-05
<VARIANCE> 52
 9.823492e-01 9.731483e-01 9.752311e-01 9.749091e-01 9.747771e-01 9.734979e-01 9.739454e-01 9.737328e-01 9.732655e-01 9.733865e-01 9.734423e-01 9.730576e-01 9.724492e-01 9.688368e-01 9.666015e-01 9.694306e-01 9.688821e-01 9.699932e-01 9.712142e-01 9.713351e-01 9.715728e-01 9.718160e-01 9.719783e-01 9.718980e-01 9.719121e-01 9.715400e-01 9.684328e-01 9.676102e-01 9.700027e-01 9.701184e-01 9.710317e-01 9.717178e-01 9.719301e-01 9.721297e-01 9.722497e-01 9.722958e-01 9.723998e-01 9.724238e-01 9.720991e-01 9.679034e-01 9.673409e-01 9.696908e-01 9.699568e-01 9.710049e-01 9.717237e-01 9.718229e-01 9.721447e-01 9.723063e-01 9.724119e-01 9.723689e-01 9.724489e-01 9.722693e-01
<GCONST> 9.408039e+01
<STATE> 4
<MEAN> 52
 -2.633533e-03 -7.590794e-04 -5.023713e-04 -7.722496e-04 1.020664e-03 5.436717e-06 6.219861e-05 7.482039e-04 5.662998e-05 1.312816e-04 1.612013e-04 4.537883e-04 1.476187e-04 7.248349e-06 -3.393925e-05 -2.440873e-05 -1.070037e-05 7.994362e-06 -1.250624e-05 -8.476622e-06 6.395113e-06 1.563548e-05 -2.726257e-05 -3.646029e-06 -7.183345e-06 -1.013966e-05 1.468344e-05 6.459016e-06 2.518873e-06 7.687093e-06 1.957398e-06 -3.495750e-06 -4.509172e-07 -8.504337e-06 6.731531e-08 -1.392306e-05 -1.542222e-05 -2.906701e-06 1.962978e-05 2.683648e-06 7.073778e-07 6.358121e-07 -3.009441e-06 3.083240e-06 -9.061120e-07 -1.332442e-05 -4.977887e-06 1.558978e-06 1.969036e-05 1.393268e-05 2.721163e-05 1.133617e-05
<VARIANCE> 52
 9.823492e-01 9.731483e-01 9.752311e-01 9.749091e-01 9.747771e-01 9.734979e-01 9.739454e-01 9.737328e-01 9.732655e-01 9.733865e-01 9.734423e-01 9.730576e-01 9.724492e-01 9.688368e-01 9.666015e-01 9.694306e-01 9.688821e-01 9.699932e-01 9.712142e-01 9.713351e-01 9.715728e-01 9.718160e-01 9.719783e-01 9.718980e-01 9.719121e-01 9.715400e-01 9.684328e-01 9.676102e-01 9.700027e-01 9.701184e-01 9.710317e-01 9.717178e-01 9.719301e-01 9.721297e-01 9.722497e-01 9.722958e-01 9.723998e-01 9.724238e-01 9.720991e-01 9.679034e-01 9.673409e-01 9.696908e-01 9.699568e-01 9.710049e-01 9.717237e-01 9.718229e-01 9.721447e-01 9.723063e-01 9.724119e-01 9.723689e-01 9.724489e-01 9.722693e-01
<GCONST> 9.408039e+01
<TRANSP> 5
 0.000000e+00 1.000000e+00 0.000000e+00 0.000000e+00 0.000000e+00
 0.000000e+00 6.000000e-01 4.000000e-01 0.000000e+00 0.000000e+00
 0.000000e+00 0.000000e+00 6.000000e-01 4.000000e-01 0.000000e+00
 0.000000e+00 0.000000e+00 0.000000e+00 6.000000e-01 4.000000e-01
 0.000000e+00 0.000000e+00 0.000000e+00 0.000000e+00 0.000000e+00
<ENDHMM>
~h "x"
<BEGINHMM>
<NUMSTATES> 5
<STATE> 2
<MEAN> 52
 -2.633533e-03 -7.590794e-04 -5.023713e-04 -7.722496e-04 1.020664e-03 5.436717e-06 6.219861e-05 7.482039e-04 5.662998e-05 1.312816e-04 1.612013e-04 4.537883e-04 1.476187e-04 7.248349e-06 -3.393925e-05 -2.440873e-05 -1.070037e-05 7.994362e-06 -1.250624e-05 -8.476622e-06 6.395113e-06 1.563548e-05 -2.726257e-05 -3.646029e-06 -7.183345e-06 -1.013966e-05 1.468344e-05 6.459016e-06 2.518873e-06 7.687093e-06 1.957398e-06 -3.495750e-06 -4.509172e-07 -8.504337e-06 6.731531e-08 -1.392306e-05 -1.542222e-05 -2.906701e-06 1.962978e-05 2.683648e-06 7.073778e-07 6.358121e-07 -3.009441e-06 3.083240e-06 -9.061120e-07 -1.332442e-05 -4.977887e-06 1.558978e-06 1.969036e-05 1.393268e-05 2.721163e-05 1.133617e-05
<VARIANCE> 52
 9.823492e-01 9.731483e-01 9.752311e-01 9.749091e-01 9.747771e-01 9.734979e-01 9.739454e-01 9.737328e-01 9.732655e-01 9.733865e-01 9.734423e-01 9.730576e-01 9.724492e-01 9.688368e-01 9.666015e-01 9.694306e-01 9.688821e-01 9.699932e-01 9.712142e-01 9.713351e-01 9.715728e-01 9.718160e-01 9.719783e-01 9.718980e-01 9.719121e-01 9.715400e-01 9.684328e-01 9.676102e-01 9.700027e-01 9.701184e-01 9.710317e-01 9.717178e-01 9.719301e-01 9.721297e-01 9.722497e-01 9.722958e-01 9.723998e-01 9.724238e-01 9.720991e-01 9.679034e-01 9.673409e-01 9.696908e-01 9.699568e-01 9.710049e-01 9.717237e-01 9.718229e-01 9.721447e-01 9.723063e-01 9.724119e-01 9.723689e-01 9.724489e-01 9.722693e-01
<GCONST> 9.408039e+01
<STATE> 3
<MEAN> 52
 -2.633533e-03 -7.590794e-04 -5.023713e-04 -7.722496e-04 1.020664e-03 5.436717e-06 6.219861e-05 7.482039e-04 5.662998e-05 1.312816e-04 1.612013e-04 4.537883e-04 1.476187e-04 7.248349e-06 -3.393925e-05 -2.440873e-05 -1.070037e-05 7.994362e-06 -1.250624e-05 -8.476622e-06 6.395113e-06 1.563548e-05 -2.726257e-05 -3.646029e-06 -7.183345e-06 -1.013966e-05 1.468344e-05 6.459016e-06 2.518873e-06 7.687093e-06 1.957398e-06 -3.495750e-06 -4.509172e-07 -8.504337e-06 6.731531e-08 -1.392306e-05 -1.542222e-05 -2.906701e-06 1.962978e-05 2.683648e-06 7.073778e-07 6.358121e-07 -3.009441e-06 3.083240e-06 -9.061120e-07 -1.332442e-05 -4.977887e-06 1.558978e-06 1.969036e-05 1.393268e-05 2.721163e-05 1.133617e-05
<VARIANCE> 52
 9.823492e-01 9.731483e-01 9.752311e-01 9.749091e-01 9.747771e-01 9.734979e-01 9.739454e-01 9.737328e-01 9.732655e-01 9.733865e-01 9.734423e-01 9.730576e-01 9.724492e-01 9.688368e-01 9.666015e-01 9.694306e-01 9.688821e-01 9.699932e-01 9.712142e-01 9.713351e-01 9.715728e-01 9.718160e-01 9.719783e-01 9.718980e-01 9.719121e-01 9.715400e-01 9.684328e-01 9.676102e-01 9.700027e-01 9.701184e-01 9.710317e-01 9.717178e-01 9.719301e-01 9.721297e-01 9.722497e-01 9.722958e-01 9.723998e-01 9.724238e-01 9.720991e-01 9.679034e-01 9.673409e-01 9.696908e-01 9.699568e-01 9.710049e-01 9.717237e-01 9.718229e-01 9.721447e-01 9.723063e-01 9.724119e-01 9.723689e-01 9.724489e-01 9.722693e-01
<GCONST> 9.408039e+01
<STATE> 4
<MEAN> 52
 -2.633533e-03 -7.590794e-04 -5.023713e-04 -7.722496e-04 1.020664e-03 5.436717e-06 6.219861e-05 7.482039e-04 5.662998e-05 1.312816e-04 1.612013e-04 4.537883e-04 1.476187e-04 7.248349e-06 -3.393925e-05 -2.440873e-05 -1.070037e-05 7.994362e-06 -1.250624e-05 -8.476622e-06 6.395113e-06 1.563548e-05 -2.726257e-05 -3.646029e-06 -7.183345e-06 -1.013966e-05 1.468344e-05 6.459016e-06 2.518873e-06 7.687093e-06 1.957398e-06 -3.495750e-06 -4.509172e-07 -8.504337e-06 6.731531e-08 -1.392306e-05 -1.542222e-05 -2.906701e-06 1.962978e-05 2.683648e-06 7.073778e-07 6.358121e-07 -3.009441e-06 3.083240e-06 -9.061120e-07 -1.332442e-05 -4.977887e-06 1.558978e-06 1.969036e-05 1.393268e-05 2.721163e-05 1.133617e-05
<VARIANCE> 52
 9.823492e-01 9.731483e-01 9.752311e-01 9.749091e-01 9.747771e-01 9.734979e-01 9.739454e-01 9.737328e-01 9.732655e-01 9.733865e-01 9.734423e-01 9.730576e-01 9.724492e-01 9.688368e-01 9.666015e-01 9.694306e-01 9.688821e-01 9.699932e-01 9.712142e-01 9.713351e-01 9.715728e-01 9.718160e-01 9.719783e-01 9.718980e-01 9.719121e-01 9.715400e-01 9.684328e-01 9.676102e-01 9.700027e-01 9.701184e-01 9.710317e-01 9.717178e-01 9.719301e-01 9.721297e-01 9.722497e-01 9.722958e-01 9.723998e-01 9.724238e-01 9.720991e-01 9.679034e-01 9.673409e-01 9.696908e-01 9.699568e-01 9.710049e-01 9.717237e-01 9.718229e-01 9.721447e-01 9.723063e-01 9.724119e-01 9.723689e-01 9.724489e-01 9.722693e-01
<GCONST> 9.408039e+01
<TRANSP> 5
 0.000000e+00 1.000000e+00 0.000000e+00 0.000000e+00 0.000000e+00
 0.000000e+00 6.000000e-01 4.000000e-01 0.000000e+00 0.000000e+00
 0.000000e+00 0.000000e+00 6.000000e-01 4.000000e-01 0.000000e+00
 0.000000e+00 0.000000e+00 0.000000e+00 6.000000e-01 4.000000e-01
 0.000000e+00 0.000000e+00 0.000000e+00 0.000000e+00 0.000000e+00
<ENDHMM>
~h "a4"
<BEGINHMM>
<NUMSTATES> 5
<STATE> 2
<MEAN> 52
 -2.633533e-03 -7.590794e-04 -5.023713e-04 -7.722496e-04 1.020664e-03 5.436717e-06 6.219861e-05 7.482039e-04 5.662998e-05 1.312816e-04 1.612013e-04 4.537883e-04 1.476187e-04 7.248349e-06 -3.393925e-05 -2.440873e-05 -1.070037e-05 7.994362e-06 -1.250624e-05 -8.476622e-06 6.395113e-06 1.563548e-05 -2.726257e-05 -3.646029e-06 -7.183345e-06 -1.013966e-05 1.468344e-05 6.459016e-06 2.518873e-06 7.687093e-06 1.957398e-06 -3.495750e-06 -4.509172e-07 -8.504337e-06 6.731531e-08 -1.392306e-05 -1.542222e-05 -2.906701e-06 1.962978e-05 2.683648e-06 7.073778e-07 6.358121e-07 -3.009441e-06 3.083240e-06 -9.061120e-07 -1.332442e-05 -4.977887e-06 1.558978e-06 1.969036e-05 1.393268e-05 2.721163e-05 1.133617e-05
<VARIANCE> 52
 9.823492e-01 9.731483e-01 9.752311e-01 9.749091e-01 9.747771e-01 9.734979e-01 9.739454e-01 9.737328e-01 9.732655e-01 9.733865e-01 9.734423e-01 9.730576e-01 9.724492e-01 9.688368e-01 9.666015e-01 9.694306e-01 9.688821e-01 9.699932e-01 9.712142e-01 9.713351e-01 9.715728e-01 9.718160e-01 9.719783e-01 9.718980e-01 9.719121e-01 9.715400e-01 9.684328e-01 9.676102e-01 9.700027e-01 9.701184e-01 9.710317e-01 9.717178e-01 9.719301e-01 9.721297e-01 9.722497e-01 9.722958e-01 9.723998e-01 9.724238e-01 9.720991e-01 9.679034e-01 9.673409e-01 9.696908e-01 9.699568e-01 9.710049e-01 9.717237e-01 9.718229e-01 9.721447e-01 9.723063e-01 9.724119e-01 9.723689e-01 9.724489e-01 9.722693e-01
<GCONST> 9.408039e+01
<STATE> 3
<MEAN> 52
 -2.633533e-03 -7.590794e-04 -5.023713e-04 -7.722496e-04 1.020664e-03 5.436717e-06 6.219861e-05 7.482039e-04 5.662998e-05 1.312816e-04 1.612013e-04 4.537883e-04 1.476187e-04 7.248349e-06 -3.393925e-05 -2.440873e-05 -1.070037e-05 7.994362e-06 -1.250624e-05 -8.476622e-06 6.395113e-06 1.563548e-05 -2.726257e-05 -3.646029e-06 -7.183345e-06 -1.013966e-05 1.468344e-05 6.459016e-06 2.518873e-06 7.687093e-06 1.957398e-06 -3.495750e-06 -4.509172e-07 -8.504337e-06 6.731531e-08 -1.392306e-05 -1.542222e-05 -2.906701e-06 1.962978e-05 2.683648e-06 7.073778e-07 6.358121e-07 -3.009441e-06 3.083240e-06 -9.061120e-07 -1.332442e-05 -4.977887e-06 1.558978e-06 1.969036e-05 1.393268e-05 2.721163e-05 1.133617e-05
<VARIANCE> 52
 9.823492e-01 9.731483e-01 9.752311e-01 9.749091e-01 9.747771e-01 9.734979e-01 9.739454e-01 9.737328e-01 9.732655e-01 9.733865e-01 9.734423e-01 9.730576e-01 9.724492e-01 9.688368e-01 9.666015e-01 9.694306e-01 9.688821e-01 9.699932e-01 9.712142e-01 9.713351e-01 9.715728e-01 9.718160e-01 9.719783e-01 9.718980e-01 9.719121e-01 9.715400e-01 9.684328e-01 9.676102e-01 9.700027e-01 9.701184e-01 9.710317e-01 9.717178e-01 9.719301e-01 9.721297e-01 9.722497e-01 9.722958e-01 9.723998e-01 9.724238e-01 9.720991e-01 9.679034e-01 9.673409e-01 9.696908e-01 9.699568e-01 9.710049e-01 9.717237e-01 9.718229e-01 9.721447e-01 9.723063e-01 9.724119e-01 9.723689e-01 9.724489e-01 9.722693e-01
<GCONST> 9.408039e+01
<STATE> 4
<MEAN> 52
 -2.633533e-03 -7.590794e-04 -5.023713e-04 -7.722496e-04 1.020664e-03 5.436717e-06 6.219861e-05 7.482039e-04 5.662998e-05 1.312816e-04 1.612013e-04 4.537883e-04 1.476187e-04 7.248349e-06 -3.393925e-05 -2.440873e-05 -1.070037e-05 7.994362e-06 -1.250624e-05 -8.476622e-06 6.395113e-06 1.563548e-05 -2.726257e-05 -3.646029e-06 -7.183345e-06 -1.013966e-05 1.468344e-05 6.459016e-06 2.518873e-06 7.687093e-06 1.957398e-06 -3.495750e-06 -4.509172e-07 -8.504337e-06 6.731531e-08 -1.392306e-05 -1.542222e-05 -2.906701e-06 1.962978e-05 2.683648e-06 7.073778e-07 6.358121e-07 -3.009441e-06 3.083240e-06 -9.061120e-07 -1.332442e-05 -4.977887e-06 1.558978e-06 1.969036e-05 1.393268e-05 2.721163e-05 1.133617e-05
<VARIANCE> 52
 9.823492e-01 9.731483e-01 9.752311e-01 9.749091e-01 9.747771e-01 9.734979e-01 9.739454e-01 9.737328e-01 9.732655e-01 9.733865e-01 9.734423e-01 9.730576e-01 9.724492e-01 9.688368e-01 9.666015e-01 9.694306e-01 9.688821e-01 9.699932e-01 9.712142e-01 9.713351e-01 9.715728e-01 9.718160e-01 9.719783e-01 9.718980e-01 9.719121e-01 9.715400e-01 9.684328e-01 9.676102e-01 9.700027e-01 9.701184e-01 9.710317e-01 9.717178e-01 9.719301e-01 9.721297e-01 9.722497e-01 9.722958e-01 9.723998e-01 9.724238e-01 9.720991e-01 9.679034e-01 9.673409e-01 9.696908e-01 9.699568e-01 9.710049e-01 9.717237e-01 9.718229e-01 9.721447e-01 9.723063e-01 9.724119e-01 9.723689e-01 9.724489e-01 9.722693e-01
<GCONST> 9.408039e+01
<TRANSP> 5
 0.000000e+00 1.000000e+00 0.000000e+00 0.000000e+00 0.000000e+00
 0.000000e+00 6.000000e-01 4.000000e-01 0.000000e+00 0.000000e+00
 0.000000e+00 0.000000e+00 6.000000e-01 4.000000e-01 0.000000e+00
 0.000000e+00 0.000000e+00 0.000000e+00 6.000000e-01 4.000000e-01
 0.000000e+00 0.000000e+00 0.000000e+00 0.000000e+00 0.000000e+00
<ENDHMM>
~h "z"
<BEGINHMM>
<NUMSTATES> 5
<STATE> 2
<MEAN> 52
 -2.633533e-03 -7.590794e-04 -5.023713e-04 -7.722496e-04 1.020664e-03 5.436717e-06 6.219861e-05 7.482039e-04 5.662998e-05 1.312816e-04 1.612013e-04 4.537883e-04 1.476187e-04 7.248349e-06 -3.393925e-05 -2.440873e-05 -1.070037e-05 7.994362e-06 -1.250624e-05 -8.476622e-06 6.395113e-06 1.563548e-05 -2.726257e-05 -3.646029e-06 -7.183345e-06 -1.013966e-05 1.468344e-05 6.459016e-06 2.518873e-06 7.687093e-06 1.957398e-06 -3.495750e-06 -4.509172e-07 -8.504337e-06 6.731531e-08 -1.392306e-05 -1.542222e-05 -2.906701e-06 1.962978e-05 2.683648e-06 7.073778e-07 6.358121e-07 -3.009441e-06 3.083240e-06 -9.061120e-07 -1.332442e-05 -4.977887e-06 1.558978e-06 1.969036e-05 1.393268e-05 2.721163e-05 1.133617e-05
<VARIANCE> 52
 9.823492e-01 9.731483e-01 9.752311e-01 9.749091e-01 9.747771e-01 9.734979e-01 9.739454e-01 9.737328e-01 9.732655e-01 9.733865e-01 9.734423e-01 9.730576e-01 9.724492e-01 9.688368e-01 9.666015e-01 9.694306e-01 9.688821e-01 9.699932e-01 9.712142e-01 9.713351e-01 9.715728e-01 9.718160e-01 9.719783e-01 9.718980e-01 9.719121e-01 9.715400e-01 9.684328e-01 9.676102e-01 9.700027e-01 9.701184e-01 9.710317e-01 9.717178e-01 9.719301e-01 9.721297e-01 9.722497e-01 9.722958e-01 9.723998e-01 9.724238e-01 9.720991e-01 9.679034e-01 9.673409e-01 9.696908e-01 9.699568e-01 9.710049e-01 9.717237e-01 9.718229e-01 9.721447e-01 9.723063e-01 9.724119e-01 9.723689e-01 9.724489e-01 9.722693e-01
<GCONST> 9.408039e+01
<STATE> 3
<MEAN> 52
 -2.633533e-03 -7.590794e-04 -5.023713e-04 -7.722496e-04 1.020664e-03 5.436717e-06 6.219861e-05 7.482039e-04 5.662998e-05 1.312816e-04 1.612013e-04 4.537883e-04 1.476187e-04 7.248349e-06 -3.393925e-05 -2.440873e-05 -1.070037e-05 7.994362e-06 -1.250624e-05 -8.476622e-06 6.395113e-06 1.563548e-05 -2.726257e-05 -3.646029e-06 -7.183345e-06 -1.013966e-05 1.468344e-05 6.459016e-06 2.518873e-06 7.687093e-06 1.957398e-06 -3.495750e-06 -4.509172e-07 -8.504337e-06 6.731531e-08 -1.392306e-05 -1.542222e-05 -2.906701e-06 1.962978e-05 2.683648e-06 7.073778e-07 6.358121e-07 -3.009441e-06 3.083240e-06 -9.061120e-07 -1.332442e-05 -4.977887e-06 1.558978e-06 1.969036e-05 1.393268e-05 2.721163e-05 1.133617e-05
<VARIANCE> 52
 9.823492e-01 9.731483e-01 9.752311e-01 9.749091e-01 9.747771e-01 9.734979e-01 9.739454e-01 9.737328e-01 9.732655e-01 9.733865e-01 9.734423e-01 9.730576e-01 9.724492e-01 9.688368e-01 9.666015e-01 9.694306e-01 9.688821e-01 9.699932e-01 9.712142e-01 9.713351e-01 9.715728e-01 9.718160e-01 9.719783e-01 9.718980e-01 9.719121e-01 9.715400e-01 9.684328e-01 9.676102e-01 9.700027e-01 9.701184e-01 9.710317e-01 9.717178e-01 9.719301e-01 9.721297e-01 9.722497e-01 9.722958e-01 9.723998e-01 9.724238e-01 9.720991e-01 9.679034e-01 9.673409e-01 9.696908e-01 9.699568e-01 9.710049e-01 9.717237e-01 9.718229e-01 9.721447e-01 9.723063e-01 9.724119e-01 9.723689e-01 9.724489e-01 9.722693e-01
<GCONST> 9.408039e+01
<STATE> 4
<MEAN> 52
 -2.633533e-03 -7.590794e-04 -5.023713e-04 -7.722496e-04 1.020664e-03 5.436717e-06 6.219861e-05 7.482039e-04 5.662998e-05 1.312816e-04 1.612013e-04 4.537883e-04 1.476187e-04 7.248349e-06 -3.393925e-05 -2.440873e-05 -1.070037e-05 7.994362e-06 -1.250624e-05 -8.476622e-06 6.395113e-06 1.563548e-05 -2.726257e-05 -3.646029e-06 -7.183345e-06 -1.013966e-05 1.468344e-05 6.459016e-06 2.518873e-06 7.687093e-06 1.957398e-06 -3.495750e-06 -4.509172e-07 -8.504337e-06 6.731531e-08 -1.392306e-05 -1.542222e-05 -2.906701e-06 1.962978e-05 2.683648e-06 7.073778e-07 6.358121e-07 -3.009441e-06 3.083240e-06 -9.061120e-07 -1.332442e-05 -4.977887e-06 1.558978e-06 1.969036e-05 1.393268e-05 2.721163e-05 1.133617e-05
<VARIANCE> 52
 9.823492e-01 9.731483e-01 9.752311e-01 9.749091e-01 9.747771e-01 9.734979e-01 9.739454e-01 9.737328e-01 9.732655e-01 9.733865e-01 9.734423e-01 9.730576e-01 9.724492e-01 9.688368e-01 9.666015e-01 9.694306e-01 9.688821e-01 9.699932e-01 9.712142e-01 9.713351e-01 9.715728e-01 9.718160e-01 9.719783e-01 9.718980e-01 9.719121e-01 9.715400e-01 9.684328e-01 9.676102e-01 9.700027e-01 9.701184e-01 9.710317e-01 9.717178e-01 9.719301e-01 9.721297e-01 9.722497e-01 9.722958e-01 9.723998e-01 9.724238e-01 9.720991e-01 9.679034e-01 9.673409e-01 9.696908e-01 9.699568e-01 9.710049e-01 9.717237e-01 9.718229e-01 9.721447e-01 9.723063e-01 9.724119e-01 9.723689e-01 9.724489e-01 9.722693e-01
<GCONST> 9.408039e+01
<TRANSP> 5
 0.000000e+00 1.000000e+00 0.000000e+00 0.000000e+00 0.000000e+00
 0.000000e+00 6.000000e-01 4.000000e-01 0.000000e+00 0.000000e+00
 0.000000e+00 0.000000e+00 6.000000e-01 4.000000e-01 0.000000e+00
 0.000000e+00 0.000000e+00 0.000000e+00 6.000000e-01 4.000000e-01
 0.000000e+00 0.000000e+00 0.000000e+00 0.000000e+00 0.000000e+00
<ENDHMM>
~h "e1"
<BEGINHMM>
<NUMSTATES> 5
<STATE> 2
<MEAN> 52
 -2.633533e-03 -7.590794e-04 -5.023713e-04 -7.722496e-04 1.020664e-03 5.436717e-06 6.219861e-05 7.482039e-04 5.662998e-05 1.312816e-04 1.612013e-04 4.537883e-04 1.476187e-04 7.248349e-06 -3.393925e-05 -2.440873e-05 -1.070037e-05 7.994362e-06 -1.250624e-05 -8.476622e-06 6.395113e-06 1.563548e-05 -2.726257e-05 -3.646029e-06 -7.183345e-06 -1.013966e-05 1.468344e-05 6.459016e-06 2.518873e-06 7.687093e-06 1.957398e-06 -3.495750e-06 -4.509172e-07 -8.504337e-06 6.731531e-08 -1.392306e-05 -1.542222e-05 -2.906701e-06 1.962978e-05 2.683648e-06 7.073778e-07 6.358121e-07 -3.009441e-06 3.083240e-06 -9.061120e-07 -1.332442e-05 -4.977887e-06 1.558978e-06 1.969036e-05 1.393268e-05 2.721163e-05 1.133617e-05
<VARIANCE> 52
 9.823492e-01 9.731483e-01 9.752311e-01 9.749091e-01 9.747771e-01 9.734979e-01 9.739454e-01 9.737328e-01 9.732655e-01 9.733865e-01 9.734423e-01 9.730576e-01 9.724492e-01 9.688368e-01 9.666015e-01 9.694306e-01 9.688821e-01 9.699932e-01 9.712142e-01 9.713351e-01 9.715728e-01 9.718160e-01 9.719783e-01 9.718980e-01 9.719121e-01 9.715400e-01 9.684328e-01 9.676102e-01 9.700027e-01 9.701184e-01 9.710317e-01 9.717178e-01 9.719301e-01 9.721297e-01 9.722497e-01 9.722958e-01 9.723998e-01 9.724238e-01 9.720991e-01 9.679034e-01 9.673409e-01 9.696908e-01 9.699568e-01 9.710049e-01 9.717237e-01 9.718229e-01 9.721447e-01 9.723063e-01 9.724119e-01 9.723689e-01 9.724489e-01 9.722693e-01
<GCONST> 9.408039e+01
<STATE> 3
<MEAN> 52
 -2.633533e-03 -7.590794e-04 -5.023713e-04 -7.722496e-04 1.020664e-03 5.436717e-06 6.219861e-05 7.482039e-04 5.662998e-05 1.312816e-04 1.612013e-04 4.537883e-04 1.476187e-04 7.248349e-06 -3.393925e-05 -2.440873e-05 -1.070037e-05 7.994362e-06 -1.250624e-05 -8.476622e-06 6.395113e-06 1.563548e-05 -2.726257e-05 -3.646029e-06 -7.183345e-06 -1.013966e-05 1.468344e-05 6.459016e-06 2.518873e-06 7.687093e-06 1.957398e-06 -3.495750e-06 -4.509172e-07 -8.504337e-06 6.731531e-08 -1.392306e-05 -1.542222e-05 -2.906701e-06 1.962978e-05 2.683648e-06 7.073778e-07 6.358121e-07 -3.009441e-06 3.083240e-06 -9.061120e-07 -1.332442e-05 -4.977887e-06 1.558978e-06 1.969036e-05 1.393268e-05 2.721163e-05 1.133617e-05
<VARIANCE> 52
 9.823492e-01 9.731483e-01 9.752311e-01 9.749091e-01 9.747771e-01 9.734979e-01 9.739454e-01 9.737328e-01 9.732655e-01 9.733865e-01 9.734423e-01 9.730576e-01 9.724492e-01 9.688368e-01 9.666015e-01 9.694306e-01 9.688821e-01 9.699932e-01 9.712142e-01 9.713351e-01 9.715728e-01 9.718160e-01 9.719783e-01 9.718980e-01 9.719121e-01 9.715400e-01 9.684328e-01 9.676102e-01 9.700027e-01 9.701184e-01 9.710317e-01 9.717178e-01 9.719301e-01 9.721297e-01 9.722497e-01 9.722958e-01 9.723998e-01 9.724238e-01 9.720991e-01 9.679034e-01 9.673409e-01 9.696908e-01 9.699568e-01 9.710049e-01 9.717237e-01 9.718229e-01 9.721447e-01 9.723063e-01 9.724119e-01 9.723689e-01 9.724489e-01 9.722693e-01
<GCONST> 9.408039e+01
<STATE> 4
<MEAN> 52
 -2.633533e-03 -7.590794e-04 -5.023713e-04 -7.722496e-04 1.020664e-03 5.436717e-06 6.219861e-05 7.482039e-04 5.662998e-05 1.312816e-04 1.612013e-04 4.537883e-04 1.476187e-04 7.248349e-06 -3.393925e-05 -2.440873e-05 -1.070037e-05 7.994362e-06 -1.250624e-05 -8.476622e-06 6.395113e-06 1.563548e-05 -2.726257e-05 -3.646029e-06 -7.183345e-06 -1.013966e-05 1.468344e-05 6.459016e-06 2.518873e-06 7.687093e-06 1.957398e-06 -3.495750e-06 -4.509172e-07 -8.504337e-06 6.731531e-08 -1.392306e-05 -1.542222e-05 -2.906701e-06 1.962978e-05 2.683648e-06 7.073778e-07 6.358121e-07 -3.009441e-06 3.083240e-06 -9.061120e-07 -1.332442e-05 -4.977887e-06 1.558978e-06 1.969036e-05 1.393268e-05 2.721163e-05 1.133617e-05
<VARIANCE> 52
 9.823492e-01 9.731483e-01 9.752311e-01 9.749091e-01 9.747771e-01 9.734979e-01 9.739454e-01 9.737328e-01 9.732655e-01 9.733865e-01 9.734423e-01 9.730576e-01 9.724492e-01 9.688368e-01 9.666015e-01 9.694306e-01 9.688821e-01 9.699932e-01 9.712142e-01 9.713351e-01 9.715728e-01 9.718160e-01 9.719783e-01 9.718980e-01 9.719121e-01 9.715400e-01 9.684328e-01 9.676102e-01 9.700027e-01 9.701184e-01 9.710317e-01 9.717178e-01 9.719301e-01 9.721297e-01 9.722497e-01 9.722958e-01 9.723998e-01 9.724238e-01 9.720991e-01 9.679034e-01 9.673409e-01 9.696908e-01 9.699568e-01 9.710049e-01 9.717237e-01 9.718229e-01 9.721447e-01 9.723063e-01 9.724119e-01 9.723689e-01 9.724489e-01 9.722693e-01
<GCONST> 9.408039e+01
<TRANSP> 5
 0.000000e+00 1.000000e+00 0.000000e+00 0.000000e+00 0.000000e+00
 0.000000e+00 6.000000e-01 4.000000e-01 0.000000e+00 0.000000e+00
 0.000000e+00 0.000000e+00 6.000000e-01 4.000000e-01 0.000000e+00
 0.000000e+00 0.000000e+00 0.000000e+00 6.000000e-01 4.000000e-01
 0.000000e+00 0.000000e+00 0.000000e+00 0.000000e+00 0.000000e+00
<ENDHMM>
~h "ng"
<BEGINHMM>
<NUMSTATES> 5
<STATE> 2
<MEAN> 52
 -2.633533e-03 -7.590794e-04 -5.023713e-04 -7.722496e-04 1.020664e-03 5.436717e-06 6.219861e-05 7.482039e-04 5.662998e-05 1.312816e-04 1.612013e-04 4.537883e-04 1.476187e-04 7.248349e-06 -3.393925e-05 -2.440873e-05 -1.070037e-05 7.994362e-06 -1.250624e-05 -8.476622e-06 6.395113e-06 1.563548e-05 -2.726257e-05 -3.646029e-06 -7.183345e-06 -1.013966e-05 1.468344e-05 6.459016e-06 2.518873e-06 7.687093e-06 1.957398e-06 -3.495750e-06 -4.509172e-07 -8.504337e-06 6.731531e-08 -1.392306e-05 -1.542222e-05 -2.906701e-06 1.962978e-05 2.683648e-06 7.073778e-07 6.358121e-07 -3.009441e-06 3.083240e-06 -9.061120e-07 -1.332442e-05 -4.977887e-06 1.558978e-06 1.969036e-05 1.393268e-05 2.721163e-05 1.133617e-05
<VARIANCE> 52
 9.823492e-01 9.731483e-01 9.752311e-01 9.749091e-01 9.747771e-01 9.734979e-01 9.739454e-01 9.737328e-01 9.732655e-01 9.733865e-01 9.734423e-01 9.730576e-01 9.724492e-01 9.688368e-01 9.666015e-01 9.694306e-01 9.688821e-01 9.699932e-01 9.712142e-01 9.713351e-01 9.715728e-01 9.718160e-01 9.719783e-01 9.718980e-01 9.719121e-01 9.715400e-01 9.684328e-01 9.676102e-01 9.700027e-01 9.701184e-01 9.710317e-01 9.717178e-01 9.719301e-01 9.721297e-01 9.722497e-01 9.722958e-01 9.723998e-01 9.724238e-01 9.720991e-01 9.679034e-01 9.673409e-01 9.696908e-01 9.699568e-01 9.710049e-01 9.717237e-01 9.718229e-01 9.721447e-01 9.723063e-01 9.724119e-01 9.723689e-01 9.724489e-01 9.722693e-01
<GCONST> 9.408039e+01
<STATE> 3
<MEAN> 52
