~h "sph"
<BEGINHMM>
<NUMSTATES> 5
<STATE> 2
<MEAN> 52
 -5.446184e-03 -2.177700e-03 7.582359e-04 -9.071669e-04 1.160619e-03 1.247703e-03 1.526337e-03 1.229321e-03 -7.729552e-04 -1.139758e-05 -6.970145e-04 3.112216e-04 -7.576360e-04 -5.194605e-05 -2.506974e-05 -5.720075e-08 1.061453e-06 -4.035867e-05 1.622213e-05 2.427314e-06 -2.866550e-05 -2.447894e-05 -6.293398e-05 -5.921640e-05 -3.460460e-05 1.525308e-05 2.313761e-06 1.400515e-05 2.048172e-05 3.382247e-07 1.938100e-05 1.978888e-05 -1.843696e-05 -3.194313e-05 2.882303e-05 -3.500118e-05 -5.343926e-05 -4.420372e-05 1.356209e-05 8.094844e-06 -2.486496e-05 -2.758133e-05 -1.159590e-05 3.702856e-05 -9.227148e-06 1.689570e-05 5.255637e-06 8.631609e-06 1.013214e-04 4.379181e-05 3.181435e-05 9.532436e-06
<VARIANCE> 52
 9.982986e-01 9.925906e-01 9.920100e-01 9.925170e-01 9.928971e-01 9.935942e-01 9.939961e-01 9.942454e-01 9.939855e-01 9.943269e-01 9.944976e-01 9.947111e-01 9.948525e-01 9.888736e-01 9.885070e-01 9.907365e-01 9.914576e-01 9.922885e-01 9.931193e-01 9.935310e-01 9.937036e-01 9.939500e-01 9.944153e-01 9.947023e-01 9.949518e-01 9.947671e-01 9.888196e-01 9.893178e-01 9.915614e-01 9.922288e-01 9.930040e-01 9.936484e-01 9.940753e-01 9.942120e-01 9.943750e-01 9.948261e-01 9.950293e-01 9.952248e-01 9.951786e-01 9.887010e-01 9.895580e-01 9.918050e-01 9.924811e-01 9.931912e-01 9.938047e-01 9.941007e-01 9.942819e-01 9.945256e-01 9.949056e-01 9.951692e-01 9.953546e-01 9.951853e-01
<GCONST> 9.522043e+01
<STATE> 3
<MEAN> 52
 -5.446184e-03 -2.177700e-03 7.582359e-04 -9.071669e-04 1.160619e-03 1.247703e-03 1.526337e-03 1.229321e-03 -7.729552e-04 -1.139758e-05 -6.970145e-04 3.112216e-04 -7.576360e-04 -5.194605e-05 -2.506974e-05 -5.720075e-08 1.061453e-06 -4.035867e-05 1.622213e-05 2.427314e-06 -2.866550e-05 -2.447894e-05 -6.293398e-05 -5.921640e-05 -3.460460e-05 1.525308e-05 2.313761e-06 1.400515e-05 2.048172e-05 3.382247e-07 1.938100e-05 1.978888e-05 -1.843696e-05 -3.194313e-05 2.882303e-05 -3.500118e-05 -5.343926e-05 -4.420372e-05 1.356209e-05 8.094844e-06 -2.486496e-05 -2.758133e-05 -1.159590e-05 3.702856e-05 -9.227148e-06 1.689570e-05 5.255637e-06 8.631609e-06 1.013214e-04 4.379181e-05 3.181435e-05 9.532436e-06
<VARIANCE> 52
 9.982986e-01 9.925906e-01 9.920100e-01 9.925170e-01 9.928971e-01 9.935942e-01 9.939961e-01 9.942454e-01 9.939855e-01 9.943269e-01 9.944976e-01 9.947111e-01 9.948525e-01 9.888736e-01 9.885070e-01 9.907365e-01 9.914576e-01 9.922885e-01 9.931193e-01 9.935310e-01 9.937036e-01 9.939500e-01 9.944153e-01 9.947023e-01 9.949518e-01 9.947671e-01 9.888196e-01 9.893178e-01 9.915614e-01 9.922288e-01 9.930040e-01 9.936484e-01 9.940753e-01 9.942120e-01 9.943750e-01 9.948261e-01 9.950293e-01 9.952248e-01 9.951786e-01 9.887010e-01 9.895580e-01 9.918050e-01 9.924811e-01 9.931912e-01 9.938047e-01 9.941007e-01 9.942819e-01 9.945256e-01 9.949056e-01 9.951692e-01 9.953546e-01 9.951853e-01
<GCONST> 9.522043e+01
<STATE> 4
<MEAN> 52
 -5.446184e-03 -2.177700e-03 7.582359e-04 -9.071669e-04 1.160619e-03 1.247703e-03 1.526337e-03 1.229321e-03 -7.729552e-04 -1.139758e-05 -6.970145e-04 3.112216e-04 -7.576360e-04 -5.194605e-05 -2.506974e-05 -5.720075e-08 1.061453e-06 -4.035867e-05 1.622213e-05 2.427314e-06 -2.866550e-05 -2.447894e-05 -6.293398e-05 -5.921640e-05 -3.460460e-05 1.525308e-05 2.313761e-06 1.400515e-05 2.048172e-05 3.382247e-07 1.938100e-05 1.978888e-05 -1.843696e-05 -3.194313e-05 2.882303e-05 -3.500118e-05 -5.343926e-05 -4.420372e-05 1.356209e-05 8.094844e-06 -2.486496e-05 -2.758133e-05 -1.159590e-05 3.702856e-05 -9.227148e-06 1.689570e-05 5.255637e-06 8.631609e-06 1.013214e-04 4.379181e-05 3.181435e-05 9.532436e-06
<VARIANCE> 52
 9.982986e-01 9.925906e-01 9.920100e-01 9.925170e-01 9.928971e-01 9.935942e-01 9.939961e-01 9.942454e-01 9.939855e-01 9.943269e-01 9.944976e-01 9.947111e-01 9.948525e-01 9.888736e-01 9.885070e-01 9.907365e-01 9.914576e-01 9.922885e-01 9.931193e-01 9.935310e-01 9.937036e-01 9.939500e-01 9.944153e-01 9.947023e-01 9.949518e-01 9.947671e-01 9.888196e-01 9.893178e-01 9.915614e-01 9.922288e-01 9.930040e-01 9.936484e-01 9.940753e-01 9.942120e-01 9.943750e-01 9.948261e-01 9.950293e-01 9.952248e-01 9.951786e-01 9.887010e-01 9.895580e-01 9.918050e-01 9.924811e-01 9.931912e-01 9.938047e-01 9.941007e-01 9.942819e-01 9.945256e-01 9.949056e-01 9.951692e-01 9.953546e-01 9.951853e-01
<GCONST> 9.522043e+01
<TRANSP> 5
 0.000000e+00 1.000000e+00 0.000000e+00 0.000000e+00 0.000000e+00
 0.000000e+00 6.000000e-01 4.000000e-01 0.000000e+00 0.000000e+00
 0.000000e+00 0.000000e+00 6.000000e-01 4.000000e-01 0.000000e+00
 0.000000e+00 0.000000e+00 0.000000e+00 6.000000e-01 4.000000e-01
 0.000000e+00 0.000000e+00 0.000000e+00 0.000000e+00 0.000000e+00
<ENDHMM>
~h "al"
<BEGINHMM>
<NUMSTATES> 5
<STATE> 2
<MEAN> 52
 -5.446184e-03 -2.177700e-03 7.582359e-04 -9.071669e-04 1.160619e-03 1.247703e-03 1.526337e-03 1.229321e-03 -7.729552e-04 -1.139758e-05 -6.970145e-04 3.112216e-04 -7.576360e-04 -5.194605e-05 -2.506974e-05 -5.720075e-08 1.061453e-06 -4.035867e-05 1.622213e-05 2.427314e-06 -2.866550e-05 -2.447894e-05 -6.293398e-05 -5.921640e-05 -3.460460e-05 1.525308e-05 2.313761e-06 1.400515e-05 2.048172e-05 3.382247e-07 1.938100e-05 1.978888e-05 -1.843696e-05 -3.194313e-05 2.882303e-05 -3.500118e-05 -5.343926e-05 -4.420372e-05 1.356209e-05 8.094844e-06 -2.486496e-05 -2.758133e-05 -1.159590e-05 3.702856e-05 -9.227148e-06 1.689570e-05 5.255637e-06 8.631609e-06 1.013214e-04 4.379181e-05 3.181435e-05 9.532436e-06
<VARIANCE> 52
 9.982986e-01 9.925906e-01 9.920100e-01 9.925170e-01 9.928971e-01 9.935942e-01 9.939961e-01 9.942454e-01 9.939855e-01 9.943269e-01 9.944976e-01 9.947111e-01 9.948525e-01 9.888736e-01 9.885070e-01 9.907365e-01 9.914576e-01 9.922885e-01 9.931193e-01 9.935310e-01 9.937036e-01 9.939500e-01 9.944153e-01 9.947023e-01 9.949518e-01 9.947671e-01 9.888196e-01 9.893178e-01 9.915614e-01 9.922288e-01 9.930040e-01 9.936484e-01 9.940753e-01 9.942120e-01 9.943750e-01 9.948261e-01 9.950293e-01 9.952248e-01 9.951786e-01 9.887010e-01 9.895580e-01 9.918050e-01 9.924811e-01 9.931912e-01 9.938047e-01 9.941007e-01 9.942819e-01 9.945256e-01 9.949056e-01 9.951692e-01 9.953546e-01 9.951853e-01
<GCONST> 9.522043e+01
<STATE> 3
<MEAN> 52
 -5.446184e-03 -2.177700e-03 7.582359e-04 -9.071669e-04 1.160619e-03 1.247703e-03 1.526337e-03 1.229321e-03 -7.729552e-04 -1.139758e-05 -6.970145e-04 3.112216e-04 -7.576360e-04 -5.194605e-05 -2.506974e-05 -5.720075e-08 1.061453e-06 -4.035867e-05 1.622213e-05 2.427314e-06 -2.866550e-05 -2.447894e-05 -6.293398e-05 -5.921640e-05 -3.460460e-05 1.525308e-05 2.313761e-06 1.400515e-05 2.048172e-05 3.382247e-07 1.938100e-05 1.978888e-05 -1.843696e-05 -3.194313e-05 2.882303e-05 -3.500118e-05 -5.343926e-05 -4.420372e-05 1.356209e-05 8.094844e-06 -2.486496e-05 -2.758133e-05 -1.159590e-05 3.702856e-05 -9.227148e-06 1.689570e-05 5.255637e-06 8.631609e-06 1.013214e-04 4.379181e-05 3.181435e-05 9.532436e-06
<VARIANCE> 52
 9.982986e-01 9.925906e-01 9.920100e-01 9.925170e-01 9.928971e-01 9.935942e-01 9.939961e-01 9.942454e-01 9.939855e-01 9.943269e-01 9.944976e-01 9.947111e-01 9.948525e-01 9.888736e-01 9.885070e-01 9.907365e-01 9.914576e-01 9.922885e-01 9.931193e-01 9.935310e-01 9.937036e-01 9.939500e-01 9.944153e-01 9.947023e-01 9.949518e-01 9.947671e-01 9.888196e-01 9.893178e-01 9.915614e-01 9.922288e-01 9.930040e-01 9.936484e-01 9.940753e-01 9.942120e-01 9.943750e-01 9.948261e-01 9.950293e-01 9.952248e-01 9.951786e-01 9.887010e-01 9.895580e-01 9.918050e-01 9.924811e-01 9.931912e-01 9.938047e-01 9.941007e-01 9.942819e-01 9.945256e-01 9.949056e-01 9.951692e-01 9.953546e-01 9.951853e-01
<GCONST> 9.522043e+01
<STATE> 4
<MEAN> 52
 -5.446184e-03 -2.177700e-03 7.582359e-04 -9.071669e-04 1.160619e-03 1.247703e-03 1.526337e-03 1.229321e-03 -7.729552e-04 -1.139758e-05 -6.970145e-04 3.112216e-04 -7.576360e-04 -5.194605e-05 -2.506974e-05 -5.720075e-08 1.061453e-06 -4.035867e-05 1.622213e-05 2.427314e-06 -2.866550e-05 -2.447894e-05 -6.293398e-05 -5.921640e-05 -3.460460e-05 1.525308e-05 2.313761e-06 1.400515e-05 2.048172e-05 3.382247e-07 1.938100e-05 1.978888e-05 -1.843696e-05 -3.194313e-05 2.882303e-05 -3.500118e-05 -5.343926e-05 -4.420372e-05 1.356209e-05 8.094844e-06 -2.486496e-05 -2.758133e-05 -1.159590e-05 3.702856e-05 -9.227148e-06 1.689570e-05 5.255637e-06 8.631609e-06 1.013214e-04 4.379181e-05 3.181435e-05 9.532436e-06
<VARIANCE> 52
 9.982986e-01 9.925906e-01 9.920100e-01 9.925170e-01 9.928971e-01 9.935942e-01 9.939961e-01 9.942454e-01 9.939855e-01 9.943269e-01 9.944976e-01 9.947111e-01 9.948525e-01 9.888736e-01 9.885070e-01 9.907365e-01 9.914576e-01 9.922885e-01 9.931193e-01 9.935310e-01 9.937036e-01 9.939500e-01 9.944153e-01 9.947023e-01 9.949518e-01 9.947671e-01 9.888196e-01 9.893178e-01 9.915614e-01 9.922288e-01 9.930040e-01 9.936484e-01 9.940753e-01 9.942120e-01 9.943750e-01 9.948261e-01 9.950293e-01 9.952248e-01 9.951786e-01 9.887010e-01 9.895580e-01 9.918050e-01 9.924811e-01 9.931912e-01 9.938047e-01 9.941007e-01 9.942819e-01 9.945256e-01 9.949056e-01 9.951692e-01 9.953546e-01 9.951853e-01
<GCONST> 9.522043e+01
<TRANSP> 5
 0.000000e+00 1.000000e+00 0.000000e+00 0.000000e+00 0.000000e+00
 0.000000e+00 6.000000e-01 4.000000e-01 0.000000e+00 0.000000e+00
 0.000000e+00 0.000000e+00 6.000000e-01 4.000000e-01 0.000000e+00
 0.000000e+00 0.000000e+00 0.000000e+00 6.000000e-01 4.000000e-01
 0.000000e+00 0.000000e+00 0.000000e+00 0.000000e+00 0.000000e+00
<ENDHMM>
~h "a"
<BEGINHMM>
<NUMSTATES> 5
<STATE> 2
<MEAN> 52
 -5.446184e-03 -2.177700e-03 7.582359e-04 -9.071669e-04 1.160619e-03 1.247703e-03 1.526337e-03 1.229321e-03 -7.729552e-04 -1.139758e-05 -6.970145e-04 3.112216e-04 -7.576360e-04 -5.194605e-05 -2.506974e-05 -5.720075e-08 1.061453e-06 -4.035867e-05 1.622213e-05 2.427314e-06 -2.866550e-05 -2.447894e-05 -6.293398e-05 -5.921640e-05 -3.460460e-05 1.525308e-05 2.313761e-06 1.400515e-05 2.048172e-05 3.382247e-07 1.938100e-05 1.978888e-05 -1.843696e-05 -3.194313e-05 2.882303e-05 -3.500118e-05 -5.343926e-05 -4.420372e-05 1.356209e-05 8.094844e-06 -2.486496e-05 -2.758133e-05 -1.159590e-05 3.702856e-05 -9.227148e-06 1.689570e-05 5.255637e-06 8.631609e-06 1.013214e-04 4.379181e-05 3.181435e-05 9.532436e-06
<VARIANCE> 52
 9.982986e-01 9.925906e-01 9.920100e-01 9.925170e-01 9.928971e-01 9.935942e-01 9.939961e-01 9.942454e-01 9.939855e-01 9.943269e-01 9.944976e-01 9.947111e-01 9.948525e-01 9.888736e-01 9.885070e-01 9.907365e-01 9.914576e-01 9.922885e-01 9.931193e-01 9.935310e-01 9.937036e-01 9.939500e-01 9.944153e-01 9.947023e-01 9.949518e-01 9.947671e-01 9.888196e-01 9.893178e-01 9.915614e-01 9.922288e-01 9.930040e-01 9.936484e-01 9.940753e-01 9.942120e-01 9.943750e-01 9.948261e-01 9.950293e-01 9.952248e-01 9.951786e-01 9.887010e-01 9.895580e-01 9.918050e-01 9.924811e-01 9.931912e-01 9.938047e-01 9.941007e-01 9.942819e-01 9.945256e-01 9.949056e-01 9.951692e-01 9.953546e-01 9.951853e-01
<GCONST> 9.522043e+01
<STATE> 3
<MEAN> 52
 -5.446184e-03 -2.177700e-03 7.582359e-04 -9.071669e-04 1.160619e-03 1.247703e-03 1.526337e-03 1.229321e-03 -7.729552e-04 -1.139758e-05 -6.970145e-04 3.112216e-04 -7.576360e-04 -5.194605e-05 -2.506974e-05 -5.720075e-08 1.061453e-06 -4.035867e-05 1.622213e-05 2.427314e-06 -2.866550e-05 -2.447894e-05 -6.293398e-05 -5.921640e-05 -3.460460e-05 1.525308e-05 2.313761e-06 1.400515e-05 2.048172e-05 3.382247e-07 1.938100e-05 1.978888e-05 -1.843696e-05 -3.194313e-05 2.882303e-05 -3.500118e-05 -5.343926e-05 -4.420372e-05 1.356209e-05 8.094844e-06 -2.486496e-05 -2.758133e-05 -1.159590e-05 3.702856e-05 -9.227148e-06 1.689570e-05 5.255637e-06 8.631609e-06 1.013214e-04 4.379181e-05 3.181435e-05 9.532436e-06
<VARIANCE> 52
 9.982986e-01 9.925906e-01 9.920100e-01 9.925170e-01 9.928971e-01 9.935942e-01 9.939961e-01 9.942454e-01 9.939855e-01 9.943269e-01 9.944976e-01 9.947111e-01 9.948525e-01 9.888736e-01 9.885070e-01 9.907365e-01 9.914576e-01 9.922885e-01 9.931193e-01 9.935310e-01 9.937036e-01 9.939500e-01 9.944153e-01 9.947023e-01 9.949518e-01 9.947671e-01 9.888196e-01 9.893178e-01 9.915614e-01 9.922288e-01 9.930040e-01 9.936484e-01 9.940753e-01 9.942120e-01 9.943750e-01 9.948261e-01 9.950293e-01 9.952248e-01 9.951786e-01 9.887010e-01 9.895580e-01 9.918050e-01 9.924811e-01 9.931912e-01 9.938047e-01 9.941007e-01 9.942819e-01 9.945256e-01 9.949056e-01 9.951692e-01 9.953546e-01 9.951853e-01
<GCONST> 9.522043e+01
<STATE> 4
<MEAN> 52
 -5.446184e-03 -2.177700e-03 7.582359e-04 -9.071669e-04 1.160619e-03 1.247703e-03 1.526337e-03 1.229321e-03 -7.729552e-04 -1.139758e-05 -6.970145e-04 3.112216e-04 -7.576360e-04 -5.194605e-05 -2.506974e-05 -5.720075e-08 1.061453e-06 -4.035867e-05 1.622213e-05 2.427314e-06 -2.866550e-05 -2.447894e-05 -6.293398e-05 -5.921640e-05 -3.460460e-05 1.525308e-05 2.313761e-06 1.400515e-05 2.048172e-05 3.382247e-07 1.938100e-05 1.978888e-05 -1.843696e-05 -3.194313e-05 2.882303e-05 -3.500118e-05 -5.343926e-05 -4.420372e-05 1.356209e-05 8.094844e-06 -2.486496e-05 -2.758133e-05 -1.159590e-05 3.702856e-05 -9.227148e-06 1.689570e-05 5.255637e-06 8.631609e-06 1.013214e-04 4.379181e-05 3.181435e-05 9.532436e-06
<VARIANCE> 52
 9.982986e-01 9.925906e-01 9.920100e-01 9.925170e-01 9.928971e-01 9.935942e-01 9.939961e-01 9.942454e-01 9.939855e-01 9.943269e-01 9.944976e-01 9.947111e-01 9.948525e-01 9.888736e-01 9.885070e-01 9.907365e-01 9.914576e-01 9.922885e-01 9.931193e-01 9.935310e-01 9.937036e-01 9.939500e-01 9.944153e-01 9.947023e-01 9.949518e-01 9.947671e-01 9.888196e-01 9.893178e-01 9.915614e-01 9.922288e-01 9.930040e-01 9.936484e-01 9.940753e-01 9.942120e-01 9.943750e-01 9.948261e-01 9.950293e-01 9.952248e-01 9.951786e-01 9.887010e-01 9.895580e-01 9.918050e-01 9.924811e-01 9.931912e-01 9.938047e-01 9.941007e-01 9.942819e-01 9.945256e-01 9.949056e-01 9.951692e-01 9.953546e-01 9.951853e-01
<GCONST> 9.522043e+01
<TRANSP> 5
 0.000000e+00 1.000000e+00 0.000000e+00 0.000000e+00 0.000000e+00
 0.000000e+00 6.000000e-01 4.000000e-01 0.000000e+00 0.000000e+00
 0.000000e+00 0.000000e+00 6.000000e-01 4.000000e-01 0.000000e+00
 0.000000e+00 0.000000e+00 0.000000e+00 6.000000e-01 4.000000e-01
 0.000000e+00 0.000000e+00 0.000000e+00 0.000000e+00 0.000000e+00
<ENDHMM>
~h "ae"
<BEGINHMM>
<NUMSTATES> 5
<STATE> 2
<MEAN> 52
 -5.446184e-03 -2.177700e-03 7.582359e-04 -9.071669e-04 1.160619e-03 1.247703e-03 1.526337e-03 1.229321e-03 -7.729552e-04 -1.139758e-05 -6.970145e-04 3.112216e-04 -7.576360e-04 -5.194605e-05 -2.506974e-05 -5.720075e-08 1.061453e-06 -4.035867e-05 1.622213e-05 2.427314e-06 -2.866550e-05 -2.447894e-05 -6.293398e-05 -5.921640e-05 -3.460460e-05 1.525308e-05 2.313761e-06 1.400515e-05 2.048172e-05 3.382247e-07 1.938100e-05 1.978888e-05 -1.843696e-05 -3.194313e-05 2.882303e-05 -3.500118e-05 -5.343926e-05 -4.420372e-05 1.356209e-05 8.094844e-06 -2.486496e-05 -2.758133e-05 -1.159590e-05 3.702856e-05 -9.227148e-06 1.689570e-05 5.255637e-06 8.631609e-06 1.013214e-04 4.379181e-05 3.181435e-05 9.532436e-06
<VARIANCE> 52
 9.982986e-01 9.925906e-01 9.920100e-01 9.925170e-01 9.928971e-01 9.935942e-01 9.939961e-01 9.942454e-01 9.939855e-01 9.943269e-01 9.944976e-01 9.947111e-01 9.948525e-01 9.888736e-01 9.885070e-01 9.907365e-01 9.914576e-01 9.922885e-01 9.931193e-01 9.935310e-01 9.937036e-01 9.939500e-01 9.944153e-01 9.947023e-01 9.949518e-01 9.947671e-01 9.888196e-01 9.893178e-01 9.915614e-01 9.922288e-01 9.930040e-01 9.936484e-01 9.940753e-01 9.942120e-01 9.943750e-01 9.948261e-01 9.950293e-01 9.952248e-01 9.951786e-01 9.887010e-01 9.895580e-01 9.918050e-01 9.924811e-01 9.931912e-01 9.938047e-01 9.941007e-01 9.942819e-01 9.945256e-01 9.949056e-01 9.951692e-01 9.953546e-01 9.951853e-01
<GCONST> 9.522043e+01
<STATE> 3
<MEAN> 52
 -5.446184e-03 -2.177700e-03 7.582359e-04 -9.071669e-04 1.160619e-03 1.247703e-03 1.526337e-03 1.229321e-03 -7.729552e-04 -1.139758e-05 -6.970145e-04 3.112216e-04 -7.576360e-04 -5.194605e-05 -2.506974e-05 -5.720075e-08 1.061453e-06 -4.035867e-05 1.622213e-05 2.427314e-06 -2.866550e-05 -2.447894e-05 -6.293398e-05 -5.921640e-05 -3.460460e-05 1.525308e-05 2.313761e-06 1.400515e-05 2.048172e-05 3.382247e-07 1.938100e-05 1.978888e-05 -1.843696e-05 -3.194313e-05 2.882303e-05 -3.500118e-05 -5.343926e-05 -4.420372e-05 1.356209e-05 8.094844e-06 -2.486496e-05 -2.758133e-05 -1.159590e-05 3.702856e-05 -9.227148e-06 1.689570e-05 5.255637e-06 8.631609e-06 1.013214e-04 4.379181e-05 3.181435e-05 9.532436e-06
<VARIANCE> 52
 9.982986e-01 9.925906e-01 9.920100e-01 9.925170e-01 9.928971e-01 9.935942e-01 9.939961e-01 9.942454e-01 9.939855e-01 9.943269e-01 9.944976e-01 9.947111e-01 9.948525e-01 9.888736e-01 9.885070e-01 9.907365e-01 9.914576e-01 9.922885e-01 9.931193e-01 9.935310e-01 9.937036e-01 9.939500e-01 9.944153e-01 9.947023e-01 9.949518e-01 9.947671e-01 9.888196e-01 9.893178e-01 9.915614e-01 9.922288e-01 9.930040e-01 9.936484e-01 9.940753e-01 9.942120e-01 9.943750e-01 9.948261e-01 9.950293e-01 9.952248e-01 9.951786e-01 9.887010e-01 9.895580e-01 9.918050e-01 9.924811e-01 9.931912e-01 9.938047e-01 9.941007e-01 9.942819e-01 9.945256e-01 9.949056e-01 9.951692e-01 9.953546e-01 9.951853e-01
<GCONST> 9.522043e+01
<STATE> 4
<MEAN> 52
 -5.446184e-03 -2.177700e-03 7.582359e-04 -9.071669e-04 1.160619e-03 1.247703e-03 1.526337e-03 1.229321e-03 -7.729552e-04 -1.139758e-05 -6.970145e-04 3.112216e-04 -7.576360e-04 -5.194605e-05 -2.506974e-05 -5.720075e-08 1.061453e-06 -4.035867e-05 1.622213e-05 2.427314e-06 -2.866550e-05 -2.447894e-05 -6.293398e-05 -5.921640e-05 -3.460460e-05 1.525308e-05 2.313761e-06 1.400515e-05 2.048172e-05 3.382247e-07 1.938100e-05 1.978888e-05 -1.843696e-05 -3.194313e-05 2.882303e-05 -3.500118e-05 -5.343926e-05 -4.420372e-05 1.356209e-05 8.094844e-06 -2.486496e-05 -2.758133e-05 -1.159590e-05 3.702856e-05 -9.227148e-06 1.689570e-05 5.255637e-06 8.631609e-06 1.013214e-04 4.379181e-05 3.181435e-05 9.532436e-06
<VARIANCE> 52
 9.982986e-01 9.925906e-01 9.920100e-01 9.925170e-01 9.928971e-01 9.935942e-01 9.939961e-01 9.942454e-01 9.939855e-01 9.943269e-01 9.944976e-01 9.947111e-01 9.948525e-01 9.888736e-01 9.885070e-01 9.907365e-01 9.914576e-01 9.922885e-01 9.931193e-01 9.935310e-01 9.937036e-01 9.939500e-01 9.944153e-01 9.947023e-01 9.949518e-01 9.947671e-01 9.888196e-01 9.893178e-01 9.915614e-01 9.922288e-01 9.930040e-01 9.936484e-01 9.940753e-01 9.942120e-01 9.943750e-01 9.948261e-01 9.950293e-01 9.952248e-01 9.951786e-01 9.887010e-01 9.895580e-01 9.918050e-01 9.924811e-01 9.931912e-01 9.938047e-01 9.941007e-01 9.942819e-01 9.945256e-01 9.949056e-01 9.951692e-01 9.953546e-01 9.951853e-01
<GCONST> 9.522043e+01
<TRANSP> 5
 0.000000e+00 1.000000e+00 0.000000e+00 0.000000e+00 0.000000e+00
 0.000000e+00 6.000000e-01 4.000000e-01 0.000000e+00 0.000000e+00
 0.000000e+00 0.000000e+00 6.000000e-01 4.000000e-01 0.000000e+00
 0.000000e+00 0.000000e+00 0.000000e+00 6.000000e-01 4.000000e-01
 0.000000e+00 0.000000e+00 0.000000e+00 0.000000e+00 0.000000e+00
<ENDHMM>
~h "mP"
<BEGINHMM>
<NUMSTATES> 5
<STATE> 2
<MEAN> 52
 -5.446184e-03 -2.177700e-03 7.582359e-04 -9.071669e-04 1.160619e-03 1.247703e-03 1.526337e-03 1.229321e-03 -7.729552e-04 -1.139758e-05 -6.970145e-04 3.112216e-04 -7.576360e-04 -5.194605e-05 -2.506974e-05 -5.720075e-08 1.061453e-06 -4.035867e-05 1.622213e-05 2.427314e-06 -2.866550e-05 -2.447894e-05 -6.293398e-05 -5.921640e-05 -3.460460e-05 1.525308e-05 2.313761e-06 1.400515e-05 2.048172e-05 3.382247e-07 1.938100e-05 1.978888e-05 -1.843696e-05 -3.194313e-05 2.882303e-05 -3.500118e-05 -5.343926e-05 -4.420372e-05 1.356209e-05 8.094844e-06 -2.486496e-05 -2.758133e-05 -1.159590e-05 3.702856e-05 -9.227148e-06 1.689570e-05 5.255637e-06 8.631609e-06 1.013214e-04 4.379181e-05 3.181435e-05 9.532436e-06
<VARIANCE> 52
 9.982986e-01 9.925906e-01 9.920100e-01 9.925170e-01 9.928971e-01 9.935942e-01 9.939961e-01 9.942454e-01 9.939855e-01 9.943269e-01 9.944976e-01 9.947111e-01 9.948525e-01 9.888736e-01 9.885070e-01 9.907365e-01 9.914576e-01 9.922885e-01 9.931193e-01 9.935310e-01 9.937036e-01 9.939500e-01 9.944153e-01 9.947023e-01 9.949518e-01 9.947671e-01 9.888196e-01 9.893178e-01 9.915614e-01 9.922288e-01 9.930040e-01 9.936484e-01 9.940753e-01 9.942120e-01 9.943750e-01 9.948261e-01 9.950293e-01 9.952248e-01 9.951786e-01 9.887010e-01 9.895580e-01 9.918050e-01 9.924811e-01 9.931912e-01 9.938047e-01 9.941007e-01 9.942819e-01 9.945256e-01 9.949056e-01 9.951692e-01 9.953546e-01 9.951853e-01
<GCONST> 9.522043e+01
<STATE> 3
<MEAN> 52
 -5.446184e-03 -2.177700e-03 7.582359e-04 -9.071669e-04 1.160619e-03 1.247703e-03 1.526337e-03 1.229321e-03 -7.729552e-04 -1.139758e-05 -6.970145e-04 3.112216e-04 -7.576360e-04 -5.194605e-05 -2.506974e-05 -5.720075e-08 1.061453e-06 -4.035867e-05 1.622213e-05 2.427314e-06 -2.866550e-05 -2.447894e-05 -6.293398e-05 -5.921640e-05 -3.460460e-05 1.525308e-05 2.313761e-06 1.400515e-05 2.048172e-05 3.382247e-07 1.938100e-05 1.978888e-05 -1.843696e-05 -3.194313e-05 2.882303e-05 -3.500118e-05 -5.343926e-05 -4.420372e-05 1.356209e-05 8.094844e-06 -2.486496e-05 -2.758133e-05 -1.159590e-05 3.702856e-05 -9.227148e-06 1.689570e-05 5.255637e-06 8.631609e-06 1.013214e-04 4.379181e-05 3.181435e-05 9.532436e-06
<VARIANCE> 52
 9.982986e-01 9.925906e-01 9.920100e-01 9.925170e-01 9.928971e-01 9.935942e-01 9.939961e-01 9.942454e-01 9.939855e-01 9.943269e-01 9.944976e-01 9.947111e-01 9.948525e-01 9.888736e-01 9.885070e-01 9.907365e-01 9.914576e-01 9.922885e-01 9.931193e-01 9.935310e-01 9.937036e-01 9.939500e-01 9.944153e-01 9.947023e-01 9.949518e-01 9.947671e-01 9.888196e-01 9.893178e-01 9.915614e-01 9.922288e-01 9.930040e-01 9.936484e-01 9.940753e-01 9.942120e-01 9.943750e-01 9.948261e-01 9.950293e-01 9.952248e-01 9.951786e-01 9.887010e-01 9.895580e-01 9.918050e-01 9.924811e-01 9.931912e-01 9.938047e-01 9.941007e-01 9.942819e-01 9.945256e-01 9.949056e-01 9.951692e-01 9.953546e-01 9.951853e-01
<GCONST> 9.522043e+01
<STATE> 4
<MEAN> 52
 -5.446184e-03 -2.177700e-03 7.582359e-04 -9.071669e-04 1.160619e-03 1.247703e-03 1.526337e-03 1.229321e-03 -7.729552e-04 -1.139758e-05 -6.970145e-04 3.112216e-04 -7.576360e-04 -5.194605e-05 -2.506974e-05 -5.720075e-08 1.061453e-06 -4.035867e-05 1.622213e-05 2.427314e-06 -2.866550e-05 -2.447894e-05 -6.293398e-05 -5.921640e-05 -3.460460e-05 1.525308e-05 2.313761e-06 1.400515e-05 2.048172e-05 3.382247e-07 1.938100e-05 1.978888e-05 -1.843696e-05 -3.194313e-05 2.882303e-05 -3.500118e-05 -5.343926e-05 -4.420372e-05 1.356209e-05 8.094844e-06 -2.486496e-05 -2.758133e-05 -1.159590e-05 3.702856e-05 -9.227148e-06 1.689570e-05 5.255637e-06 8.631609e-06 1.013214e-04 4.379181e-05 3.181435e-05 9.532436e-06
<VARIANCE> 52
 9.982986e-01 9.925906e-01 9.920100e-01 9.925170e-01 9.928971e-01 9.935942e-01 9.939961e-01 9.942454e-01 9.939855e-01 9.943269e-01 9.944976e-01 9.947111e-01 9.948525e-01 9.888736e-01 9.885070e-01 9.907365e-01 9.914576e-01 9.922885e-01 9.931193e-01 9.935310e-01 9.937036e-01 9.939500e-01 9.944153e-01 9.947023e-01 9.949518e-01 9.947671e-01 9.888196e-01 9.893178e-01 9.915614e-01 9.922288e-01 9.930040e-01 9.936484e-01 9.940753e-01 9.942120e-01 9.943750e-01 9.948261e-01 9.950293e-01 9.952248e-01 9.951786e-01 9.887010e-01 9.895580e-01 9.918050e-01 9.924811e-01 9.931912e-01 9.938047e-01 9.941007e-01 9.942819e-01 9.945256e-01 9.949056e-01 9.951692e-01 9.953546e-01 9.951853e-01
<GCONST> 9.522043e+01
<TRANSP> 5
 0.000000e+00 1.000000e+00 0.000000e+00 0.000000e+00 0.000000e+00
 0.000000e+00 6.000000e-01 4.000000e-01 0.000000e+00 0.000000e+00
 0.000000e+00 0.000000e+00 6.000000e-01 4.000000e-01 0.000000e+00
 0.000000e+00 0.000000e+00 0.000000e+00 6.000000e-01 4.000000e-01
 0.000000e+00 0.000000e+00 0.000000e+00 0.000000e+00 0.000000e+00
<ENDHMM>
~h "kP"
<BEGINHMM>
<NUMSTATES> 5
<STATE> 2
<MEAN> 52
 -5.446184e-03 -2.177700e-03 7.582359e-04 -9.071669e-04 1.160619e-03 1.247703e-03 1.526337e-03 1.229321e-03 -7.729552e-04 -1.139758e-05 -6.970145e-04 3.112216e-04 -7.576360e-04 -5.194605e-05 -2.506974e-05 -5.720075e-08 1.061453e-06 -4.035867e-05 1.622213e-05 2.427314e-06 -2.866550e-05 -2.447894e-05 -6.293398e-05 -5.921640e-05 -3.460460e-05 1.525308e-05 2.313761e-06 1.400515e-05 2.048172e-05 3.382247e-07 1.938100e-05 1.978888e-05 -1.843696e-05 -3.194313e-05 2.882303e-05 -3.500118e-05 -5.343926e-05 -4.420372e-05 1.356209e-05 8.094844e-06 -2.486496e-05 -2.758133e-05 -1.159590e-05 3.702856e-05 -9.227148e-06 1.689570e-05 5.255637e-06 8.631609e-06 1.013214e-04 4.379181e-05 3.181435e-05 9.532436e-06
<VARIANCE> 52
 9.982986e-01 9.925906e-01 9.920100e-01 9.925170e-01 9.928971e-01 9.935942e-01 9.939961e-01 9.942454e-01 9.939855e-01 9.943269e-01 9.944976e-01 9.947111e-01 9.948525e-01 9.888736e-01 9.885070e-01 9.907365e-01 9.914576e-01 9.922885e-01 9.931193e-01 9.935310e-01 9.937036e-01 9.939500e-01 9.944153e-01 9.947023e-01 9.949518e-01 9.947671e-01 9.888196e-01 9.893178e-01 9.915614e-01 9.922288e-01 9.930040e-01 9.936484e-01 9.940753e-01 9.942120e-01 9.943750e-01 9.948261e-01 9.950293e-01 9.952248e-01 9.951786e-01 9.887010e-01 9.895580e-01 9.918050e-01 9.924811e-01 9.931912e-01 9.938047e-01 9.941007e-01 9.942819e-01 9.945256e-01 9.949056e-01 9.951692e-01 9.953546e-01 9.951853e-01
<GCONST> 9.522043e+01
<STATE> 3
<MEAN> 52
 -5.446184e-03 -2.177700e-03 7.582359e-04 -9.071669e-04 1.160619e-03 1.247703e-03 1.526337e-03 1.229321e-03 -7.729552e-04 -1.139758e-05 -6.970145e-04 3.112216e-04 -7.576360e-04 -5.194605e-05 -2.506974e-05 -5.720075e-08 1.061453e-06 -4.035867e-05 1.622213e-05 2.427314e-06 -2.866550e-05 -2.447894e-05 -6.293398e-05 -5.921640e-05 -3.460460e-05 1.525308e-05 2.313761e-06 1.400515e-05 2.048172e-05 3.382247e-07 1.938100e-05 1.978888e-05 -1.843696e-05 -3.194313e-05 2.882303e-05 -3.500118e-05 -5.343926e-05 -4.420372e-05 1.356209e-05 8.094844e-06 -2.486496e-05 -2.758133e-05 -1.159590e-05 3.702856e-05 -9.227148e-06 1.689570e-05 5.255637e-06 8.631609e-06 1.013214e-04 4.379181e-05 3.181435e-05 9.532436e-06
<VARIANCE> 52
 9.982986e-01 9.925906e-01 9.920100e-01 9.925170e-01 9.928971e-01 9.935942e-01 9.939961e-01 9.942454e-01 9.939855e-01 9.943269e-01 9.944976e-01 9.947111e-01 9.948525e-01 9.888736e-01 9.885070e-01 9.907365e-01 9.914576e-01 9.922885e-01 9.931193e-01 9.935310e-01 9.937036e-01 9.939500e-01 9.944153e-01 9.947023e-01 9.949518e-01 9.947671e-01 9.888196e-01 9.893178e-01 9.915614e-01 9.922288e-01 9.930040e-01 9.936484e-01 9.940753e-01 9.942120e-01 9.943750e-01 9.948261e-01 9.950293e-01 9.952248e-01 9.951786e-01 9.887010e-01 9.895580e-01 9.918050e-01 9.924811e-01 9.931912e-01 9.938047e-01 9.941007e-01 9.942819e-01 9.945256e-01 9.949056e-01 9.951692e-01 9.953546e-01 9.951853e-01
<GCONST> 9.522043e+01
<STATE> 4
<MEAN> 52
 -5.446184e-03 -2.177700e-03 7.582359e-04 -9.071669e-04 1.160619e-03 1.247703e-03 1.526337e-03 1.229321e-03 -7.729552e-04 -1.139758e-05 -6.970145e-04 3.112216e-04 -7.576360e-04 -5.194605e-05 -2.506974e-05 -5.720075e-08 1.061453e-06 -4.035867e-05 1.622213e-05 2.427314e-06 -2.866550e-05 -2.447894e-05 -6.293398e-05 -5.921640e-05 -3.460460e-05 1.525308e-05 2.313761e-06 1.400515e-05 2.048172e-05 3.382247e-07 1.938100e-05 1.978888e-05 -1.843696e-05 -3.194313e-05 2.882303e-05 -3.500118e-05 -5.343926e-05 -4.420372e-05 1.356209e-05 8.094844e-06 -2.486496e-05 -2.758133e-05 -1.159590e-05 3.702856e-05 -9.227148e-06 1.689570e-05 5.255637e-06 8.631609e-06 1.013214e-04 4.379181e-05 3.181435e-05 9.532436e-06
<VARIANCE> 52
 9.982986e-01 9.925906e-01 9.920100e-01 9.925170e-01 9.928971e-01 9.935942e-01 9.939961e-01 9.942454e-01 9.939855e-01 9.943269e-01 9.944976e-01 9.947111e-01 9.948525e-01 9.888736e-01 9.885070e-01 9.907365e-01 9.914576e-01 9.922885e-01 9.931193e-01 9.935310e-01 9.937036e-01 9.939500e-01 9.944153e-01 9.947023e-01 9.949518e-01 9.947671e-01 9.888196e-01 9.893178e-01 9.915614e-01 9.922288e-01 9.930040e-01 9.936484e-01 9.940753e-01 9.942120e-01 9.943750e-01 9.948261e-01 9.950293e-01 9.952248e-01 9.951786e-01 9.887010e-01 9.895580e-01 9.918050e-01 9.924811e-01 9.931912e-01 9.938047e-01 9.941007e-01 9.942819e-01 9.945256e-01 9.949056e-01 9.951692e-01 9.953546e-01 9.951853e-01
<GCONST> 9.522043e+01
<TRANSP> 5
 0.000000e+00 1.000000e+00 0.000000e+00 0.000000e+00 0.000000e+00
 0.000000e+00 6.000000e-01 4.000000e-01 0.000000e+00 0.000000e+00
 0.000000e+00 0.000000e+00 6.000000e-01 4.000000e-01 0.000000e+00
 0.000000e+00 0.000000e+00 0.000000e+00 6.000000e-01 4.000000e-01
 0.000000e+00 0.000000e+00 0.000000e+00 0.000000e+00 0.000000e+00
<ENDHMM>
~h "gP"
<BEGINHMM>
<NUMSTATES> 5
<STATE> 2
<MEAN> 52
 -5.446184e-03 -2.177700e-03 7.582359e-04 -9.071669e-04 1.160619e-03 1.247703e-03 1.526337e-03 1.229321e-03 -7.729552e-04 -1.139758e-05 -6.970145e-04 3.112216e-04 -7.576360e-04 -5.194605e-05 -2.506974e-05 -5.720075e-08 1.061453e-06 -4.035867e-05 1.622213e-05 2.427314e-06 -2.866550e-05 -2.447894e-05 -6.293398e-05 -5.921640e-05 -3.460460e-05 1.525308e-05 2.313761e-06 1.400515e-05 2.048172e-05 3.382247e-07 1.938100e-05 1.978888e-05 -1.843696e-05 -3.194313e-05 2.882303e-05 -3.500118e-05 -5.343926e-05 -4.420372e-05 1.356209e-05 8.094844e-06 -2.486496e-05 -2.758133e-05 -1.159590e-05 3.702856e-05 -9.227148e-06 1.689570e-05 5.255637e-06 8.631609e-06 1.013214e-04 4.379181e-05 3.181435e-05 9.532436e-06
<VARIANCE> 52
 9.982986e-01 9.925906e-01 9.920100e-01 9.925170e-01 9.928971e-01 9.935942e-01 9.939961e-01 9.942454e-01 9.939855e-01 9.943269e-01 9.944976e-01 9.947111e-01 9.948525e-01 9.888736e-01 9.885070e-01 9.907365e-01 9.914576e-01 9.922885e-01 9.931193e-01 9.935310e-01 9.937036e-01 9.939500e-01 9.944153e-01 9.947023e-01 9.949518e-01 9.947671e-01 9.888196e-01 9.893178e-01 9.915614e-01 9.922288e-01 9.930040e-01 9.936484e-01 9.940753e-01 9.942120e-01 9.943750e-01 9.948261e-01 9.950293e-01 9.952248e-01 9.951786e-01 9.887010e-01 9.895580e-01 9.918050e-01 9.924811e-01 9.931912e-01 9.938047e-01 9.941007e-01 9.942819e-01 9.945256e-01 9.949056e-01 9.951692e-01 9.953546e-01 9.951853e-01
<GCONST> 9.522043e+01
<STATE> 3
<MEAN> 52
 -5.446184e-03 -2.177700e-03 7.582359e-04 -9.071669e-04 1.160619e-03 1.247703e-03 1.526337e-03 1.229321e-03 -7.729552e-04 -1.139758e-05 -6.970145e-04 3.112216e-04 -7.576360e-04 -5.194605e-05 -2.506974e-05 -5.720075e-08 1.061453e-06 -4.035867e-05 1.622213e-05 2.427314e-06 -2.866550e-05 -2.447894e-05 -6.293398e-05 -5.921640e-05 -3.460460e-05 1.525308e-05 2.313761e-06 1.400515e-05 2.048172e-05 3.382247e-07 1.938100e-05 1.978888e-05 -1.843696e-05 -3.194313e-05 2.882303e-05 -3.500118e-05 -5.343926e-05 -4.420372e-05 1.356209e-05 8.094844e-06 -2.486496e-05 -2.758133e-05 -1.159590e-05 3.702856e-05 -9.227148e-06 1.689570e-05 5.255637e-06 8.631609e-06 1.013214e-04 4.379181e-05 3.181435e-05 9.532436e-06
<VARIANCE> 52
 9.982986e-01 9.925906e-01 9.920100e-01 9.925170e-01 9.928971e-01 9.935942e-01 9.939961e-01 9.942454e-01 9.939855e-01 9.943269e-01 9.944976e-01 9.947111e-01 9.948525e-01 9.888736e-01 9.885070e-01 9.907365e-01 9.914576e-01 9.922885e-01 9.931193e-01 9.935310e-01 9.937036e-01 9.939500e-01 9.944153e-01 9.947023e-01 9.949518e-01 9.947671e-01 9.888196e-01 9.893178e-01 9.915614e-01 9.922288e-01 9.930040e-01 9.936484e-01 9.940753e-01 9.942120e-01 9.943750e-01 9.948261e-01 9.950293e-01 9.952248e-01 9.951786e-01 9.887010e-01 9.895580e-01 9.918050e-01 9.924811e-01 9.931912e-01 9.938047e-01 9.941007e-01 9.942819e-01 9.945256e-01 9.949056e-01 9.951692e-01 9.953546e-01 9.951853e-01
<GCONST> 9.522043e+01
<STATE> 4
<MEAN> 52
 -5.446184e-03 -2.177700e-03 7.582359e-04 -9.071669e-04 1.160619e-03 1.247703e-03 1.526337e-03 1.229321e-03 -7.729552e-04 -1.139758e-05 -6.970145e-04 3.112216e-04 -7.576360e-04 -5.194605e-05 -2.506974e-05 -5.720075e-08 1.061453e-06 -4.035867e-05 1.622213e-05 2.427314e-06 -2.866550e-05 -2.447894e-05 -6.293398e-05 -5.921640e-05 -3.460460e-05 1.525308e-05 2.313761e-06 1.400515e-05 2.048172e-05 3.382247e-07 1.938100e-05 1.978888e-05 -1.843696e-05 -3.194313e-05 2.882303e-05 -3.500118e-05 -5.343926e-05 -4.420372e-05 1.356209e-05 8.094844e-06 -2.486496e-05 -2.758133e-05 -1.159590e-05 3.702856e-05 -9.227148e-06 1.689570e-05 5.255637e-06 8.631609e-06 1.013214e-04 4.379181e-05 3.181435e-05 9.532436e-06
<VARIANCE> 52
 9.982986e-01 9.925906e-01 9.920100e-01 9.925170e-01 9.928971e-01 9.935942e-01 9.939961e-01 9.942454e-01 9.939855e-01 9.943269e-01 9.944976e-01 9.947111e-01 9.948525e-01 9.888736e-01 9.885070e-01 9.907365e-01 9.914576e-01 9.922885e-01 9.931193e-01 9.935310e-01 9.937036e-01 9.939500e-01 9.944153e-01 9.947023e-01 9.949518e-01 9.947671e-01 9.888196e-01 9.893178e-01 9.915614e-01 9.922288e-01 9.930040e-01 9.936484e-01 9.940753e-01 9.942120e-01 9.943750e-01 9.948261e-01 9.950293e-01 9.952248e-01 9.951786e-01 9.887010e-01 9.895580e-01 9.918050e-01 9.924811e-01 9.931912e-01 9.938047e-01 9.941007e-01 9.942819e-01 9.945256e-01 9.949056e-01 9.951692e-01 9.953546e-01 9.951853e-01
<GCONST> 9.522043e+01
<TRANSP> 5
 0.000000e+00 1.000000e+00 0.000000e+00 0.000000e+00 0.000000e+00
 0.000000e+00 6.000000e-01 4.000000e-01 0.000000e+00 0.000000e+00
 0.000000e+00 0.000000e+00 6.000000e-01 4.000000e-01 0.000000e+00
 0.000000e+00 0.000000e+00 0.000000e+00 6.000000e-01 4.000000e-01
 0.000000e+00 0.000000e+00 0.000000e+00 0.000000e+00 0.000000e+00
<ENDHMM>
~h "ts"
<BEGINHMM>
<NUMSTATES> 5
<STATE> 2
<MEAN> 52
 -5.446184e-03 -2.177700e-03 7.582359e-04 -9.071669e-04 1.160619e-03 1.247703e-03 1.526337e-03 1.229321e-03 -7.729552e-04 -1.139758e-05 -6.970145e-04 3.112216e-04 -7.576360e-04 -5.194605e-05 -2.506974e-05 -5.720075e-08 1.061453e-06 -4.035867e-05 1.622213e-05 2.427314e-06 -2.866550e-05 -2.447894e-05 -6.293398e-05 -5.921640e-05 -3.460460e-05 1.525308e-05 2.313761e-06 1.400515e-05 2.048172e-05 3.382247e-07 1.938100e-05 1.978888e-05 -1.843696e-05 -3.194313e-05 2.882303e-05 -3.500118e-05 -5.343926e-05 -4.420372e-05 1.356209e-05 8.094844e-06 -2.486496e-05 -2.758133e-05 -1.159590e-05 3.702856e-05 -9.227148e-06 1.689570e-05 5.255637e-06 8.631609e-06 1.013214e-04 4.379181e-05 3.181435e-05 9.532436e-06
<VARIANCE> 52
 9.982986e-01 9.925906e-01 9.920100e-01 9.925170e-01 9.928971e-01 9.935942e-01 9.939961e-01 9.942454e-01 9.939855e-01 9.943269e-01 9.944976e-01 9.947111e-01 9.948525e-01 9.888736e-01 9.885070e-01 9.907365e-01 9.914576e-01 9.922885e-01 9.931193e-01 9.935310e-01 9.937036e-01 9.939500e-01 9.944153e-01 9.947023e-01 9.949518e-01 9.947671e-01 9.888196e-01 9.893178e-01 9.915614e-01 9.922288e-01 9.930040e-01 9.936484e-01 9.940753e-01 9.942120e-01 9.943750e-01 9.948261e-01 9.950293e-01 9.952248e-01 9.951786e-01 9.887010e-01 9.895580e-01 9.918050e-01 9.924811e-01 9.931912e-01 9.938047e-01 9.941007e-01 9.942819e-01 9.945256e-01 9.949056e-01 9.951692e-01 9.953546e-01 9.951853e-01
<GCONST> 9.522043e+01
<STATE> 3
<MEAN> 52
 -5.446184e-03 -2.177700e-03 7.582359e-04 -9.071669e-04 1.160619e-03 1.247703e-03 1.526337e-03 1.229321e-03 -7.729552e-04 -1.139758e-05 -6.970145e-04 3.112216e-04 -7.576360e-04 -5.194605e-05 -2.506974e-05 -5.720075e-08 1.061453e-06 -4.035867e-05 1.622213e-05 2.427314e-06 -2.866550e-05 -2.447894e-05 -6.293398e-05 -5.921640e-05 -3.460460e-05 1.525308e-05 2.313761e-06 1.400515e-05 2.048172e-05 3.382247e-07 1.938100e-05 1.978888e-05 -1.843696e-05 -3.194313e-05 2.882303e-05 -3.500118e-05 -5.343926e-05 -4.420372e-05 1.356209e-05 8.094844e-06 -2.486496e-05 -2.758133e-05 -1.159590e-05 3.702856e-05 -9.227148e-06 1.689570e-05 5.255637e-06 8.631609e-06 1.013214e-04 4.379181e-05 3.181435e-05 9.532436e-06
<VARIANCE> 52
 9.982986e-01 9.925906e-01 9.920100e-01 9.925170e-01 9.928971e-01 9.935942e-01 9.939961e-01 9.942454e-01 9.939855e-01 9.943269e-01 9.944976e-01 9.947111e-01 9.948525e-01 9.888736e-01 9.885070e-01 9.907365e-01 9.914576e-01 9.922885e-01 9.931193e-01 9.935310e-01 9.937036e-01 9.939500e-01 9.944153e-01 9.947023e-01 9.949518e-01 9.947671e-01 9.888196e-01 9.893178e-01 9.915614e-01 9.922288e-01 9.930040e-01 9.936484e-01 9.940753e-01 9.942120e-01 9.943750e-01 9.948261e-01 9.950293e-01 9.952248e-01 9.951786e-01 9.887010e-01 9.895580e-01 9.918050e-01 9.924811e-01 9.931912e-01 9.938047e-01 9.941007e-01 9.942819e-01 9.945256e-01 9.949056e-01 9.951692e-01 9.953546e-01 9.951853e-01
<GCONST> 9.522043e+01
<STATE> 4
<MEAN> 52
 -5.446184e-03 -2.177700e-03 7.582359e-04 -9.071669e-04 1.160619e-03 1.247703e-03 1.526337e-03 1.229321e-03 -7.729552e-04 -1.139758e-05 -6.970145e-04 3.112216e-04 -7.576360e-04 -5.194605e-05 -2.506974e-05 -5.720075e-08 1.061453e-06 -4.035867e-05 1.622213e-05 2.427314e-06 -2.866550e-05 -2.447894e-05 -6.293398e-05 -5.921640e-05 -3.460460e-05 1.525308e-05 2.313761e-06 1.400515e-05 2.048172e-05 3.382247e-07 1.938100e-05 1.978888e-05 -1.843696e-05 -3.194313e-05 2.882303e-05 -3.500118e-05 -5.343926e-05 -4.420372e-05 1.356209e-05 8.094844e-06 -2.486496e-05 -2.758133e-05 -1.159590e-05 3.702856e-05 -9.227148e-06 1.689570e-05 5.255637e-06 8.631609e-06 1.013214e-04 4.379181e-05 3.181435e-05 9.532436e-06
<VARIANCE> 52
 9.982986e-01 9.925906e-01 9.920100e-01 9.925170e-01 9.928971e-01 9.935942e-01 9.939961e-01 9.942454e-01 9.939855e-01 9.943269e-01 9.944976e-01 9.947111e-01 9.948525e-01 9.888736e-01 9.885070e-01 9.907365e-01 9.914576e-01 9.922885e-01 9.931193e-01 9.935310e-01 9.937036e-01 9.939500e-01 9.944153e-01 9.947023e-01 9.949518e-01 9.947671e-01 9.888196e-01 9.893178e-01 9.915614e-01 9.922288e-01 9.930040e-01 9.936484e-01 9.940753e-01 9.942120e-01 9.943750e-01 9.948261e-01 9.950293e-01 9.952248e-01 9.951786e-01 9.887010e-01 9.895580e-01 9.918050e-01 9.924811e-01 9.931912e-01 9.938047e-01 9.941007e-01 9.942819e-01 9.945256e-01 9.949056e-01 9.951692e-01 9.953546e-01 9.951853e-01
<GCONST> 9.522043e+01
<TRANSP> 5
 0.000000e+00 1.000000e+00 0.000000e+00 0.000000e+00 0.000000e+00
 0.000000e+00 6.000000e-01 4.000000e-01 0.000000e+00 0.000000e+00
 0.000000e+00 0.000000e+00 6.000000e-01 4.000000e-01 0.000000e+00
 0.000000e+00 0.000000e+00 0.000000e+00 6.000000e-01 4.000000e-01
 0.000000e+00 0.000000e+00 0.000000e+00 0.000000e+00 0.000000e+00
<ENDHMM>
~h "vP"
<BEGINHMM>
<NUMSTATES> 5
<STATE> 2
<MEAN> 52
 -5.446184e-03 -2.177700e-03 7.582359e-04 -9.071669e-04 1.160619e-03 1.247703e-03 1.526337e-03 1.229321e-03 -7.729552e-04 -1.139758e-05 -6.970145e-04 3.112216e-04 -7.576360e-04 -5.194605e-05 -2.506974e-05 -5.720075e-08 1.061453e-06 -4.035867e-05 1.622213e-05 2.427314e-06 -2.866550e-05 -2.447894e-05 -6.293398e-05 -5.921640e-05 -3.460460e-05 1.525308e-05 2.313761e-06 1.400515e-05 2.048172e-05 3.382247e-07 1.938100e-05 1.978888e-05 -1.843696e-05 -3.194313e-05 2.882303e-05 -3.500118e-05 -5.343926e-05 -4.420372e-05 1.356209e-05 8.094844e-06 -2.486496e-05 -2.758133e-05 -1.159590e-05 3.702856e-05 -9.227148e-06 1.689570e-05 5.255637e-06 8.631609e-06 1.013214e-04 4.379181e-05 3.181435e-05 9.532436e-06
<VARIANCE> 52
 9.982986e-01 9.925906e-01 9.920100e-01 9.925170e-01 9.928971e-01 9.935942e-01 9.939961e-01 9.942454e-01 9.939855e-01 9.943269e-01 9.944976e-01 9.947111e-01 9.948525e-01 9.888736e-01 9.885070e-01 9.907365e-01 9.914576e-01 9.922885e-01 9.931193e-01 9.935310e-01 9.937036e-01 9.939500e-01 9.944153e-01 9.947023e-01 9.949518e-01 9.947671e-01 9.888196e-01 9.893178e-01 9.915614e-01 9.922288e-01 9.930040e-01 9.936484e-01 9.940753e-01 9.942120e-01 9.943750e-01 9.948261e-01 9.950293e-01 9.952248e-01 9.951786e-01 9.887010e-01 9.895580e-01 9.918050e-01 9.924811e-01 9.931912e-01 9.938047e-01 9.941007e-01 9.942819e-01 9.945256e-01 9.949056e-01 9.951692e-01 9.953546e-01 9.951853e-01
<GCONST> 9.522043e+01
<STATE> 3
<MEAN> 52
 -5.446184e-03 -2.177700e-03 7.582359e-04 -9.071669e-04 1.160619e-03 1.247703e-03 1.526337e-03 1.229321e-03 -7.729552e-04 -1.139758e-05 -6.970145e-04 3.112216e-04 -7.576360e-04 -5.194605e-05 -2.506974e-05 -5.720075e-08 1.061453e-06 -4.035867e-05 1.622213e-05 2.427314e-06 -2.866550e-05 -2.447894e-05 -6.293398e-05 -5.921640e-05 -3.460460e-05 1.525308e-05 2.313761e-06 1.400515e-05 2.048172e-05 3.382247e-07 1.938100e-05 1.978888e-05 -1.843696e-05 -3.194313e-05 2.882303e-05 -3.500118e-05 -5.343926e-05 -4.420372e-05 1.356209e-05 8.094844e-06 -2.486496e-05 -2.758133e-05 -1.159590e-05 3.702856e-05 -9.227148e-06 1.689570e-05 5.255637e-06 8.631609e-06 1.013214e-04 4.379181e-05 3.181435e-05 9.532436e-06
<VARIANCE> 52
 9.982986e-01 9.925906e-01 9.920100e-01 9.925170e-01 9.928971e-01 9.935942e-01 9.939961e-01 9.942454e-01 9.939855e-01 9.943269e-01 9.944976e-01 9.947111e-01 9.948525e-01 9.888736e-01 9.885070e-01 9.907365e-01 9.914576e-01 9.922885e-01 9.931193e-01 9.935310e-01 9.937036e-01 9.939500e-01 9.944153e-01 9.947023e-01 9.949518e-01 9.947671e-01 9.888196e-01 9.893178e-01 9.915614e-01 9.922288e-01 9.930040e-01 9.936484e-01 9.940753e-01 9.942120e-01 9.943750e-01 9.948261e-01 9.950293e-01 9.952248e-01 9.951786e-01 9.887010e-01 9.895580e-01 9.918050e-01 9.924811e-01 9.931912e-01 9.938047e-01 9.941007e-01 9.942819e-01 9.945256e-01 9.949056e-01 9.951692e-01 9.953546e-01 9.951853e-01
<GCONST> 9.522043e+01
<STATE> 4
<MEAN> 52
 -5.446184e-03 -2.177700e-03 7.582359e-04 -9.071669e-04 1.160619e-03 1.247703e-03 1.526337e-03 1.229321e-03 -7.729552e-04 -1.139758e-05 -6.970145e-04 3.112216e-04 -7.576360e-04 -5.194605e-05 -2.506974e-05 -5.720075e-08 1.061453e-06 -4.035867e-05 1.622213e-05 2.427314e-06 -2.866550e-05 -2.447894e-05 -6.293398e-05 -5.921640e-05 -3.460460e-05 1.525308e-05 2.313761e-06 1.400515e-05 2.048172e-05 3.382247e-07 1.938100e-05 1.978888e-05 -1.843696e-05 -3.194313e-05 2.882303e-05 -3.500118e-05 -5.343926e-05 -4.420372e-05 1.356209e-05 8.094844e-06 -2.486496e-05 -2.758133e-05 -1.159590e-05 3.702856e-05 -9.227148e-06 1.689570e-05 5.255637e-06 8.631609e-06 1.013214e-04 4.379181e-05 3.181435e-05 9.532436e-06
<VARIANCE> 52
 9.982986e-01 9.925906e-01 9.920100e-01 9.925170e-01 9.928971e-01 9.935942e-01 9.939961e-01 9.942454e-01 9.939855e-01 9.943269e-01 9.944976e-01 9.947111e-01 9.948525e-01 9.888736e-01 9.885070e-01 9.907365e-01 9.914576e-01 9.922885e-01 9.931193e-01 9.935310e-01 9.937036e-01 9.939500e-01 9.944153e-01 9.947023e-01 9.949518e-01 9.947671e-01 9.888196e-01 9.893178e-01 9.915614e-01 9.922288e-01 9.930040e-01 9.936484e-01 9.940753e-01 9.942120e-01 9.943750e-01 9.948261e-01 9.950293e-01 9.952248e-01 9.951786e-01 9.887010e-01 9.895580e-01 9.918050e-01 9.924811e-01 9.931912e-01 9.938047e-01 9.941007e-01 9.942819e-01 9.945256e-01 9.949056e-01 9.951692e-01 9.953546e-01 9.951853e-01
<GCONST> 9.522043e+01
<TRANSP> 5
 0.000000e+00 1.000000e+00 0.000000e+00 0.000000e+00 0.000000e+00
 0.000000e+00 6.000000e-01 4.000000e-01 0.000000e+00 0.000000e+00
 0.000000e+00 0.000000e+00 6.000000e-01 4.000000e-01 0.000000e+00
 0.000000e+00 0.000000e+00 0.000000e+00 6.000000e-01 4.000000e-01
 0.000000e+00 0.000000e+00 0.000000e+00 0.000000e+00 0.000000e+00
<ENDHMM>
~h "ie"
<BEGINHMM>
<NUMSTATES> 5
<STATE> 2
<MEAN> 52
 -5.446184e-03 -2.177700e-03 7.582359e-04 -9.071669e-04 1.160619e-03 1.247703e-03 1.526337e-03 1.229321e-03 -7.729552e-04 -1.139758e-05 -6.970145e-04 3.112216e-04 -7.576360e-04 -5.194605e-05 -2.506974e-05 -5.720075e-08 1.061453e-06 -4.035867e-05 1.622213e-05 2.427314e-06 -2.866550e-05 -2.447894e-05 -6.293398e-05 -5.921640e-05 -3.460460e-05 1.525308e-05 2.313761e-06 1.400515e-05 2.048172e-05 3.382247e-07 1.938100e-05 1.978888e-05 -1.843696e-05 -3.194313e-05 2.882303e-05 -3.500118e-05 -5.343926e-05 -4.420372e-05 1.356209e-05 8.094844e-06 -2.486496e-05 -2.758133e-05 -1.159590e-05 3.702856e-05 -9.227148e-06 1.689570e-05 5.255637e-06 8.631609e-06 1.013214e-04 4.379181e-05 3.181435e-05 9.532436e-06
<VARIANCE> 52
 9.982986e-01 9.925906e-01 9.920100e-01 9.925170e-01 9.928971e-01 9.935942e-01 9.939961e-01 9.942454e-01 9.939855e-01 9.943269e-01 9.944976e-01 9.947111e-01 9.948525e-01 9.888736e-01 9.885070e-01 9.907365e-01 9.914576e-01 9.922885e-01 9.931193e-01 9.935310e-01 9.937036e-01 9.939500e-01 9.944153e-01 9.947023e-01 9.949518e-01 9.947671e-01 9.888196e-01 9.893178e-01 9.915614e-01 9.922288e-01 9.930040e-01 9.936484e-01 9.940753e-01 9.942120e-01 9.943750e-01 9.948261e-01 9.950293e-01 9.952248e-01 9.951786e-01 9.887010e-01 9.895580e-01 9.918050e-01 9.924811e-01 9.931912e-01 9.938047e-01 9.941007e-01 9.942819e-01 9.945256e-01 9.949056e-01 9.951692e-01 9.953546e-01 9.951853e-01
<GCONST> 9.522043e+01
<STATE> 3
<MEAN> 52
 -5.446184e-03 -2.177700e-03 7.582359e-04 -9.071669e-04 1.160619e-03 1.247703e-03 1.526337e-03 1.229321e-03 -7.729552e-04 -1.139758e-05 -6.970145e-04 3.112216e-04 -7.576360e-04 -5.194605e-05 -2.506974e-05 -5.720075e-08 1.061453e-06 -4.035867e-05 1.622213e-05 2.427314e-06 -2.866550e-05 -2.447894e-05 -6.293398e-05 -5.921640e-05 -3.460460e-05 1.525308e-05 2.313761e-06 1.400515e-05 2.048172e-05 3.382247e-07 1.938100e-05 1.978888e-05 -1.843696e-05 -3.194313e-05 2.882303e-05 -3.500118e-05 -5.343926e-05 -4.420372e-05 1.356209e-05 8.094844e-06 -2.486496e-05 -2.758133e-05 -1.159590e-05 3.702856e-05 -9.227148e-06 1.689570e-05 5.255637e-06 8.631609e-06 1.013214e-04 4.379181e-05 3.181435e-05 9.532436e-06
<VARIANCE> 52
 9.982986e-01 9.925906e-01 9.920100e-01 9.925170e-01 9.928971e-01 9.935942e-01 9.939961e-01 9.942454e-01 9.939855e-01 9.943269e-01 9.944976e-01 9.947111e-01 9.948525e-01 9.888736e-01 9.885070e-01 9.907365e-01 9.914576e-01 9.922885e-01 9.931193e-01 9.935310e-01 9.937036e-01 9.939500e-01 9.944153e-01 9.947023e-01 9.949518e-01 9.947671e-01 9.888196e-01 9.893178e-01 9.915614e-01 9.922288e-01 9.930040e-01 9.936484e-01 9.940753e-01 9.942120e-01 9.943750e-01 9.948261e-01 9.950293e-01 9.952248e-01 9.951786e-01 9.887010e-01 9.895580e-01 9.918050e-01 9.924811e-01 9.931912e-01 9.938047e-01 9.941007e-01 9.942819e-01 9.945256e-01 9.949056e-01 9.951692e-01 9.953546e-01 9.951853e-01
<GCONST> 9.522043e+01
<STATE> 4
<MEAN> 52
 -5.446184e-03 -2.177700e-03 7.582359e-04 -9.071669e-04 1.160619e-03 1.247703e-03 1.526337e-03 1.229321e-03 -7.729552e-04 -1.139758e-05 -6.970145e-04 3.112216e-04 -7.576360e-04 -5.194605e-05 -2.506974e-05 -5.720075e-08 1.061453e-06 -4.035867e-05 1.622213e-05 2.427314e-06 -2.866550e-05 -2.447894e-05 -6.293398e-05 -5.921640e-05 -3.460460e-05 1.525308e-05 2.313761e-06 1.400515e-05 2.048172e-05 3.382247e-07 1.938100e-05 1.978888e-05 -1.843696e-05 -3.194313e-05 2.882303e-05 -3.500118e-05 -5.343926e-05 -4.420372e-05 1.356209e-05 8.094844e-06 -2.486496e-05 -2.758133e-05 -1.159590e-05 3.702856e-05 -9.227148e-06 1.689570e-05 5.255637e-06 8.631609e-06 1.013214e-04 4.379181e-05 3.181435e-05 9.532436e-06
<VARIANCE> 52
 9.982986e-01 9.925906e-01 9.920100e-01 9.925170e-01 9.928971e-01 9.935942e-01 9.939961e-01 9.942454e-01 9.939855e-01 9.943269e-01 9.944976e-01 9.947111e-01 9.948525e-01 9.888736e-01 9.885070e-01 9.907365e-01 9.914576e-01 9.922885e-01 9.931193e-01 9.935310e-01 9.937036e-01 9.939500e-01 9.944153e-01 9.947023e-01 9.949518e-01 9.947671e-01 9.888196e-01 9.893178e-01 9.915614e-01 9.922288e-01 9.930040e-01 9.936484e-01 9.940753e-01 9.942120e-01 9.943750e-01 9.948261e-01 9.950293e-01 9.952248e-01 9.951786e-01 9.887010e-01 9.895580e-01 9.918050e-01 9.924811e-01 9.931912e-01 9.938047e-01 9.941007e-01 9.942819e-01 9.945256e-01 9.949056e-01 9.951692e-01 9.953546e-01 9.951853e-01
<GCONST> 9.522043e+01
<TRANSP> 5
 0.000000e+00 1.000000e+00 0.000000e+00 0.000000e+00 0.000000e+00
 0.000000e+00 6.000000e-01 4.000000e-01 0.000000e+00 0.000000e+00
 0.000000e+00 0.000000e+00 6.000000e-01 4.000000e-01 0.000000e+00
 0.000000e+00 0.000000e+00 0.000000e+00 6.000000e-01 4.000000e-01
 0.000000e+00 0.000000e+00 0.000000e+00 0.000000e+00 0.000000e+00
<ENDHMM>
~h "e"
<BEGINHMM>
<NUMSTATES> 5
<STATE> 2
<MEAN> 52
 -5.446184e-03 -2.177700e-03 7.582359e-04 -9.071669e-04 1.160619e-03 1.247703e-03 1.526337e-03 1.229321e-03 -7.729552e-04 -1.139758e-05 -6.970145e-04 3.112216e-04 -7.576360e-04 -5.194605e-05 -2.506974e-05 -5.720075e-08 1.061453e-06 -4.035867e-05 1.622213e-05 2.427314e-06 -2.866550e-05 -2.447894e-05 -6.293398e-05 -5.921640e-05 -3.460460e-05 1.525308e-05 2.313761e-06 1.400515e-05 2.048172e-05 3.382247e-07 1.938100e-05 1.978888e-05 -1.843696e-05 -3.194313e-05 2.882303e-05 -3.500118e-05 -5.343926e-05 -4.420372e-05 1.356209e-05 8.094844e-06 -2.486496e-05 -2.758133e-05 -1.159590e-05 3.702856e-05 -9.227148e-06 1.689570e-05 5.255637e-06 8.631609e-06 1.013214e-04 4.379181e-05 3.181435e-05 9.532436e-06
<VARIANCE> 52
 9.982986e-01 9.925906e-01 9.920100e-01 9.925170e-01 9.928971e-01 9.935942e-01 9.939961e-01 9.942454e-01 9.939855e-01 9.943269e-01 9.944976e-01 9.947111e-01 9.948525e-01 9.888736e-01 9.885070e-01 9.907365e-01 9.914576e-01 9.922885e-01 9.931193e-01 9.935310e-01 9.937036e-01 9.939500e-01 9.944153e-01 9.947023e-01 9.949518e-01 9.947671e-01 9.888196e-01 9.893178e-01 9.915614e-01 9.922288e-01 9.930040e-01 9.936484e-01 9.940753e-01 9.942120e-01 9.943750e-01 9.948261e-01 9.950293e-01 9.952248e-01 9.951786e-01 9.887010e-01 9.895580e-01 9.918050e-01 9.924811e-01 9.931912e-01 9.938047e-01 9.941007e-01 9.942819e-01 9.945256e-01 9.949056e-01 9.951692e-01 9.953546e-01 9.951853e-01
<GCONST> 9.522043e+01
<STATE> 3
<MEAN> 52
 -5.446184e-03 -2.177700e-03 7.582359e-04 -9.071669e-04 1.160619e-03 1.247703e-03 1.526337e-03 1.229321e-03 -7.729552e-04 -1.139758e-05 -6.970145e-04 3.112216e-04 -7.576360e-04 -5.194605e-05 -2.506974e-05 -5.720075e-08 1.061453e-06 -4.035867e-05 1.622213e-05 2.427314e-06 -2.866550e-05 -2.447894e-05 -6.293398e-05 -5.921640e-05 -3.460460e-05 1.525308e-05 2.313761e-06 1.400515e-05 2.048172e-05 3.382247e-07 1.938100e-05 1.978888e-05 -1.843696e-05 -3.194313e-05 2.882303e-05 -3.500118e-05 -5.343926e-05 -4.420372e-05 1.356209e-05 8.094844e-06 -2.486496e-05 -2.758133e-05 -1.159590e-05 3.702856e-05 -9.227148e-06 1.689570e-05 5.255637e-06 8.631609e-06 1.013214e-04 4.379181e-05 3.181435e-05 9.532436e-06
<VARIANCE> 52
 9.982986e-01 9.925906e-01 9.920100e-01 9.925170e-01 9.928971e-01 9.935942e-01 9.939961e-01 9.942454e-01 9.939855e-01 9.943269e-01 9.944976e-01 9.947111e-01 9.948525e-01 9.888736e-01 9.885070e-01 9.907365e-01 9.914576e-01 9.922885e-01 9.931193e-01 9.935310e-01 9.937036e-01 9.939500e-01 9.944153e-01 9.947023e-01 9.949518e-01 9.947671e-01 9.888196e-01 9.893178e-01 9.915614e-01 9.922288e-01 9.930040e-01 9.936484e-01 9.940753e-01 9.942120e-01 9.943750e-01 9.948261e-01 9.950293e-01 9.952248e-01 9.951786e-01 9.887010e-01 9.895580e-01 9.918050e-01 9.924811e-01 9.931912e-01 9.938047e-01 9.941007e-01 9.942819e-01 9.945256e-01 9.949056e-01 9.951692e-01 9.953546e-01 9.951853e-01
<GCONST> 9.522043e+01
<STATE> 4
<MEAN> 52
 -5.446184e-03 -2.177700e-03 7.582359e-04 -9.071669e-04 1.160619e-03 1.247703e-03 1.526337e-03 1.229321e-03 -7.729552e-04 -1.139758e-05 -6.970145e-04 3.112216e-04 -7.576360e-04 -5.194605e-05 -2.506974e-05 -5.720075e-08 1.061453e-06 -4.035867e-05 1.622213e-05 2.427314e-06 -2.866550e-05 -2.447894e-05 -6.293398e-05 -5.921640e-05 -3.460460e-05 1.525308e-05 2.313761e-06 1.400515e-05 2.048172e-05 3.382247e-07 1.938100e-05 1.978888e-05 -1.843696e-05 -3.194313e-05 2.882303e-05 -3.500118e-05 -5.343926e-05 -4.420372e-05 1.356209e-05 8.094844e-06 -2.486496e-05 -2.758133e-05 -1.159590e-05 3.702856e-05 -9.227148e-06 1.689570e-05 5.255637e-06 8.631609e-06 1.013214e-04 4.379181e-05 3.181435e-05 9.532436e-06
<VARIANCE> 52
 9.982986e-01 9.925906e-01 9.920100e-01 9.925170e-01 9.928971e-01 9.935942e-01 9.939961e-01 9.942454e-01 9.939855e-01 9.943269e-01 9.944976e-01 9.947111e-01 9.948525e-01 9.888736e-01 9.885070e-01 9.907365e-01 9.914576e-01 9.922885e-01 9.931193e-01 9.935310e-01 9.937036e-01 9.939500e-01 9.944153e-01 9.947023e-01 9.949518e-01 9.947671e-01 9.888196e-01 9.893178e-01 9.915614e-01 9.922288e-01 9.930040e-01 9.936484e-01 9.940753e-01 9.942120e-01 9.943750e-01 9.948261e-01 9.950293e-01 9.952248e-01 9.951786e-01 9.887010e-01 9.895580e-01 9.918050e-01 9.924811e-01 9.931912e-01 9.938047e-01 9.941007e-01 9.942819e-01 9.945256e-01 9.949056e-01 9.951692e-01 9.953546e-01 9.951853e-01
<GCONST> 9.522043e+01
<TRANSP> 5
 0.000000e+00 1.000000e+00 0.000000e+00 0.000000e+00 0.000000e+00
 0.000000e+00 6.000000e-01 4.000000e-01 0.000000e+00 0.000000e+00
 0.000000e+00 0.000000e+00 6.000000e-01 4.000000e-01 0.000000e+00
 0.000000e+00 0.000000e+00 0.000000e+00 6.000000e-01 4.000000e-01
 0.000000e+00 0.000000e+00 0.000000e+00 0.000000e+00 0.000000e+00
<ENDHMM>
~h "j"
<BEGINHMM>
<NUMSTATES> 5
<STATE> 2
<MEAN> 52
 -5.446184e-03 -2.177700e-03 7.582359e-04 -9.071669e-04 1.160619e-03 1.247703e-03 1.526337e-03 1.229321e-03 -7.729552e-04 -1.139758e-05 -6.970145e-04 3.112216e-04 -7.576360e-04 -5.194605e-05 -2.506974e-05 -5.720075e-08 1.061453e-06 -4.035867e-05 1.622213e-05 2.427314e-06 -2.866550e-05 -2.447894e-05 -6.293398e-05 -5.921640e-05 -3.460460e-05 1.525308e-05 2.313761e-06 1.400515e-05 2.048172e-05 3.382247e-07 1.938100e-05 1.978888e-05 -1.843696e-05 -3.194313e-05 2.882303e-05 -3.500118e-05 -5.343926e-05 -4.420372e-05 1.356209e-05 8.094844e-06 -2.486496e-05 -2.758133e-05 -1.159590e-05 3.702856e-05 -9.227148e-06 1.689570e-05 5.255637e-06 8.631609e-06 1.013214e-04 4.379181e-05 3.181435e-05 9.532436e-06
<VARIANCE> 52
 9.982986e-01 9.925906e-01 9.920100e-01 9.925170e-01 9.928971e-01 9.935942e-01 9.939961e-01 9.942454e-01 9.939855e-01 9.943269e-01 9.944976e-01 9.947111e-01 9.948525e-01 9.888736e-01 9.885070e-01 9.907365e-01 9.914576e-01 9.922885e-01 9.931193e-01 9.935310e-01 9.937036e-01 9.939500e-01 9.944153e-01 9.947023e-01 9.949518e-01 9.947671e-01 9.888196e-01 9.893178e-01 9.915614e-01 9.922288e-01 9.930040e-01 9.936484e-01 9.940753e-01 9.942120e-01 9.943750e-01 9.948261e-01 9.950293e-01 9.952248e-01 9.951786e-01 9.887010e-01 9.895580e-01 9.918050e-01 9.924811e-01 9.931912e-01 9.938047e-01 9.941007e-01 9.942819e-01 9.945256e-01 9.949056e-01 9.951692e-01 9.953546e-01 9.951853e-01
<GCONST> 9.522043e+01
<STATE> 3
<MEAN> 52
 -5.446184e-03 -2.177700e-03 7.582359e-04 -9.071669e-04 1.160619e-03 1.247703e-03 1.526337e-03 1.229321e-03 -7.729552e-04 -1.139758e-05 -6.970145e-04 3.112216e-04 -7.576360e-04 -5.194605e-05 -2.506974e-05 -5.720075e-08 1.061453e-06 -4.035867e-05 1.622213e-05 2.427314e-06 -2.866550e-05 -2.447894e-05 -6.293398e-05 -5.921640e-05 -3.460460e-05 1.525308e-05 2.313761e-06 1.400515e-05 2.048172e-05 3.382247e-07 1.938100e-05 1.978888e-05 -1.843696e-05 -3.194313e-05 2.882303e-05 -3.500118e-05 -5.343926e-05 -4.420372e-05 1.356209e-05 8.094844e-06 -2.486496e-05 -2.758133e-05 -1.159590e-05 3.702856e-05 -9.227148e-06 1.689570e-05 5.255637e-06 8.631609e-06 1.013214e-04 4.379181e-05 3.181435e-05 9.532436e-06
<VARIANCE> 52
 9.982986e-01 9.925906e-01 9.920100e-01 9.925170e-01 9.928971e-01 9.935942e-01 9.939961e-01 9.942454e-01 9.939855e-01 9.943269e-01 9.944976e-01 9.947111e-01 9.948525e-01 9.888736e-01 9.885070e-01 9.907365e-01 9.914576e-01 9.922885e-01 9.931193e-01 9.935310e-01 9.937036e-01 9.939500e-01 9.944153e-01 9.947023e-01 9.949518e-01 9.947671e-01 9.888196e-01 9.893178e-01 9.915614e-01 9.922288e-01 9.930040e-01 9.936484e-01 9.940753e-01 9.942120e-01 9.943750e-01 9.948261e-01 9.950293e-01 9.952248e-01 9.951786e-01 9.887010e-01 9.895580e-01 9.918050e-01 9.924811e-01 9.931912e-01 9.938047e-01 9.941007e-01 9.942819e-01 9.945256e-01 9.949056e-01 9.951692e-01 9.953546e-01 9.951853e-01
<GCONST> 9.522043e+01
<STATE> 4
<MEAN> 52
 -5.446184e-03 -2.177700e-03 7.582359e-04 -9.071669e-04 1.160619e-03 1.247703e-03 1.526337e-03 1.229321e-03 -7.729552e-04 -1.139758e-05 -6.970145e-04 3.112216e-04 -7.576360e-04 -5.194605e-05 -2.506974e-05 -5.720075e-08 1.061453e-06 -4.035867e-05 1.622213e-05 2.427314e-06 -2.866550e-05 -2.447894e-05 -6.293398e-05 -5.921640e-05 -3.460460e-05 1.525308e-05 2.313761e-06 1.400515e-05 2.048172e-05 3.382247e-07 1.938100e-05 1.978888e-05 -1.843696e-05 -3.194313e-05 2.882303e-05 -3.500118e-05 -5.343926e-05 -4.420372e-05 1.356209e-05 8.094844e-06 -2.486496e-05 -2.758133e-05 -1.159590e-05 3.702856e-05 -9.227148e-06 1.689570e-05 5.255637e-06 8.631609e-06 1.013214e-04 4.379181e-05 3.181435e-05 9.532436e-06
<VARIANCE> 52
 9.982986e-01 9.925906e-01 9.920100e-01 9.925170e-01 9.928971e-01 9.935942e-01 9.939961e-01 9.942454e-01 9.939855e-01 9.943269e-01 9.944976e-01 9.947111e-01 9.948525e-01 9.888736e-01 9.885070e-01 9.907365e-01 9.914576e-01 9.922885e-01 9.931193e-01 9.935310e-01 9.937036e-01 9.939500e-01 9.944153e-01 9.947023e-01 9.949518e-01 9.947671e-01 9.888196e-01 9.893178e-01 9.915614e-01 9.922288e-01 9.930040e-01 9.936484e-01 9.940753e-01 9.942120e-01 9.943750e-01 9.948261e-01 9.950293e-01 9.952248e-01 9.951786e-01 9.887010e-01 9.895580e-01 9.918050e-01 9.924811e-01 9.931912e-01 9.938047e-01 9.941007e-01 9.942819e-01 9.945256e-01 9.949056e-01 9.951692e-01 9.953546e-01 9.951853e-01
<GCONST> 9.522043e+01
<TRANSP> 5
 0.000000e+00 1.000000e+00 0.000000e+00 0.000000e+00 0.000000e+00
 0.000000e+00 6.000000e-01 4.000000e-01 0.000000e+00 0.000000e+00
 0.000000e+00 0.000000e+00 6.000000e-01 4.000000e-01 0.000000e+00
 0.000000e+00 0.000000e+00 0.000000e+00 6.000000e-01 4.000000e-01
 0.000000e+00 0.000000e+00 0.000000e+00 0.000000e+00 0.000000e+00
<ENDHMM>
~h "zP"
<BEGINHMM>
<NUMSTATES> 5
<STATE> 2
<MEAN> 52
 -5.446184e-03 -2.177700e-03 7.582359e-04 -9.071669e-04 1.160619e-03 1.247703e-03 1.526337e-03 1.229321e-03 -7.729552e-04 -1.139758e-05 -6.970145e-04 3.112216e-04 -7.576360e-04 -5.194605e-05 -2.506974e-05 -5.720075e-08 1.061453e-06 -4.035867e-05 1.622213e-05 2.427314e-06 -2.866550e-05 -2.447894e-05 -6.293398e-05 -5.921640e-05 -3.460460e-05 1.525308e-05 2.313761e-06 1.400515e-05 2.048172e-05 3.382247e-07 1.938100e-05 1.978888e-05 -1.843696e-05 -3.194313e-05 2.882303e-05 -3.500118e-05 -5.343926e-05 -4.420372e-05 1.356209e-05 8.094844e-06 -2.486496e-05 -2.758133e-05 -1.159590e-05 3.702856e-05 -9.227148e-06 1.689570e-05 5.255637e-06 8.631609e-06 1.013214e-04 4.379181e-05 3.181435e-05 9.532436e-06
<VARIANCE> 52
 9.982986e-01 9.925906e-01 9.920100e-01 9.925170e-01 9.928971e-01 9.935942e-01 9.939961e-01 9.942454e-01 9.939855e-01 9.943269e-01 9.944976e-01 9.947111e-01 9.948525e-01 9.888736e-01 9.885070e-01 9.907365e-01 9.914576e-01 9.922885e-01 9.931193e-01 9.935310e-01 9.937036e-01 9.939500e-01 9.944153e-01 9.947023e-01 9.949518e-01 9.947671e-01 9.888196e-01 9.893178e-01 9.915614e-01 9.922288e-01 9.930040e-01 9.936484e-01 9.940753e-01 9.942120e-01 9.943750e-01 9.948261e-01 9.950293e-01 9.952248e-01 9.951786e-01 9.887010e-01 9.895580e-01 9.918050e-01 9.924811e-01 9.931912e-01 9.938047e-01 9.941007e-01 9.942819e-01 9.945256e-01 9.949056e-01 9.951692e-01 9.953546e-01 9.951853e-01
<GCONST> 9.522043e+01
<STATE> 3
<MEAN> 52
 -5.446184e-03 -2.177700e-03 7.582359e-04 -9.071669e-04 1.160619e-03 1.247703e-03 1.526337e-03 1.229321e-03 -7.729552e-04 -1.139758e-05 -6.970145e-04 3.112216e-04 -7.576360e-04 -5.194605e-05 -2.506974e-05 -5.720075e-08 1.061453e-06 -4.035867e-05 1.622213e-05 2.427314e-06 -2.866550e-05 -2.447894e-05 -6.293398e-05 -5.921640e-05 -3.460460e-05 1.525308e-05 2.313761e-06 1.400515e-05 2.048172e-05 3.382247e-07 1.938100e-05 1.978888e-05 -1.843696e-05 -3.194313e-05 2.882303e-05 -3.500118e-05 -5.343926e-05 -4.420372e-05 1.356209e-05 8.094844e-06 -2.486496e-05 -2.758133e-05 -1.159590e-05 3.702856e-05 -9.227148e-06 1.689570e-05 5.255637e-06 8.631609e-06 1.013214e-04 4.379181e-05 3.181435e-05 9.532436e-06
<VARIANCE> 52
 9.982986e-01 9.925906e-01 9.920100e-01 9.925170e-01 9.928971e-01 9.935942e-01 9.939961e-01 9.942454e-01 9.939855e-01 9.943269e-01 9.944976e-01 9.947111e-01 9.948525e-01 9.888736e-01 9.885070e-01 9.907365e-01 9.914576e-01 9.922885e-01 9.931193e-01 9.935310e-01 9.937036e-01 9.939500e-01 9.944153e-01 9.947023e-01 9.949518e-01 9.947671e-01 9.888196e-01 9.893178e-01 9.915614e-01 9.922288e-01 9.930040e-01 9.936484e-01 9.940753e-01 9.942120e-01 9.943750e-01 9.948261e-01 9.950293e-01 9.952248e-01 9.951786e-01 9.887010e-01 9.895580e-01 9.918050e-01 9.924811e-01 9.931912e-01 9.938047e-01 9.941007e-01 9.942819e-01 9.945256e-01 9.949056e-01 9.951692e-01 9.953546e-01 9.951853e-01
<GCONST> 9.522043e+01
<STATE> 4
<MEAN> 52
 -5.446184e-03 -2.177700e-03 7.582359e-04 -9.071669e-04 1.160619e-03 1.247703e-03 1.526337e-03 1.229321e-03 -7.729552e-04 -1.139758e-05 -6.970145e-04 3.112216e-04 -7.576360e-04 -5.194605e-05 -2.506974e-05 -5.720075e-08 1.061453e-06 -4.035867e-05 1.622213e-05 2.427314e-06 -2.866550e-05 -2.447894e-05 -6.293398e-05 -5.921640e-05 -3.460460e-05 1.525308e-05 2.313761e-06 1.400515e-05 2.048172e-05 3.382247e-07 1.938100e-05 1.978888e-05 -1.843696e-05 -3.194313e-05 2.882303e-05 -3.500118e-05 -5.343926e-05 -4.420372e-05 1.356209e-05 8.094844e-06 -2.486496e-05 -2.758133e-05 -1.159590e-05 3.702856e-05 -9.227148e-06 1.689570e-05 5.255637e-06 8.631609e-06 1.013214e-04 4.379181e-05 3.181435e-05 9.532436e-06
<VARIANCE> 52
 9.982986e-01 9.925906e-01 9.920100e-01 9.925170e-01 9.928971e-01 9.935942e-01 9.939961e-01 9.942454e-01 9.939855e-01 9.943269e-01 9.944976e-01 9.947111e-01 9.948525e-01 9.888736e-01 9.885070e-01 9.907365e-01 9.914576e-01 9.922885e-01 9.931193e-01 9.935310e-01 9.937036e-01 9.939500e-01 9.944153e-01 9.947023e-01 9.949518e-01 9.947671e-01 9.888196e-01 9.893178e-01 9.915614e-01 9.922288e-01 9.930040e-01 9.936484e-01 9.940753e-01 9.942120e-01 9.943750e-01 9.948261e-01 9.950293e-01 9.952248e-01 9.951786e-01 9.887010e-01 9.895580e-01 9.918050e-01 9.924811e-01 9.931912e-01 9.938047e-01 9.941007e-01 9.942819e-01 9.945256e-01 9.949056e-01 9.951692e-01 9.953546e-01 9.951853e-01
<GCONST> 9.522043e+01
<TRANSP> 5
 0.000000e+00 1.000000e+00 0.000000e+00 0.000000e+00 0.000000e+00
 0.000000e+00 6.000000e-01 4.000000e-01 0.000000e+00 0.000000e+00
 0.000000e+00 0.000000e+00 6.000000e-01 4.000000e-01 0.000000e+00
 0.000000e+00 0.000000e+00 0.000000e+00 6.000000e-01 4.000000e-01
 0.000000e+00 0.000000e+00 0.000000e+00 0.000000e+00 0.000000e+00
<ENDHMM>
~h "f"
<BEGINHMM>
<NUMSTATES> 5
<STATE> 2
<MEAN> 52
 -5.446184e-03 -2.177700e-03 7.582359e-04 -9.071669e-04 1.160619e-03 1.247703e-03 1.526337e-03 1.229321e-03 -7.729552e-04 -1.139758e-05 -6.970145e-04 3.112216e-04 -7.576360e-04 -5.194605e-05 -2.506974e-05 -5.720075e-08 1.061453e-06 -4.035867e-05 1.622213e-05 2.427314e-06 -2.866550e-05 -2.447894e-05 -6.293398e-05 -5.921640e-05 -3.460460e-05 1.525308e-05 2.313761e-06 1.400515e-05 2.048172e-05 3.382247e-07 1.938100e-05 1.978888e-05 -1.843696e-05 -3.194313e-05 2.882303e-05 -3.500118e-05 -5.343926e-05 -4.420372e-05 1.356209e-05 8.094844e-06 -2.486496e-05 -2.758133e-05 -1.159590e-05 3.702856e-05 -9.227148e-06 1.689570e-05 5.255637e-06 8.631609e-06 1.013214e-04 4.379181e-05 3.181435e-05 9.532436e-06
<VARIANCE> 52
 9.982986e-01 9.925906e-01 9.920100e-01 9.925170e-01 9.928971e-01 9.935942e-01 9.939961e-01 9.942454e-01 9.939855e-01 9.943269e-01 9.944976e-01 9.947111e-01 9.948525e-01 9.888736e-01 9.885070e-01 9.907365e-01 9.914576e-01 9.922885e-01 9.931193e-01 9.935310e-01 9.937036e-01 9.939500e-01 9.944153e-01 9.947023e-01 9.949518e-01 9.947671e-01 9.888196e-01 9.893178e-01 9.915614e-01 9.922288e-01 9.930040e-01 9.936484e-01 9.940753e-01 9.942120e-01 9.943750e-01 9.948261e-01 9.950293e-01 9.952248e-01 9.951786e-01 9.887010e-01 9.895580e-01 9.918050e-01 9.924811e-01 9.931912e-01 9.938047e-01 9.941007e-01 9.942819e-01 9.945256e-01 9.949056e-01 9.951692e-01 9.953546e-01 9.951853e-01
<GCONST> 9.522043e+01
<STATE> 3
<MEAN> 52
 -5.446184e-03 -2.177700e-03 7.582359e-04 -9.071669e-04 1.160619e-03 1.247703e-03 1.526337e-03 1.229321e-03 -7.729552e-04 -1.139758e-05 -6.970145e-04 3.112216e-04 -7.576360e-04 -5.194605e-05 -2.506974e-05 -5.720075e-08 1.061453e-06 -4.035867e-05 1.622213e-05 2.427314e-06 -2.866550e-05 -2.447894e-05 -6.293398e-05 -5.921640e-05 -3.460460e-05 1.525308e-05 2.313761e-06 1.400515e-05 2.048172e-05 3.382247e-07 1.938100e-05 1.978888e-05 -1.843696e-05 -3.194313e-05 2.882303e-05 -3.500118e-05 -5.343926e-05 -4.420372e-05 1.356209e-05 8.094844e-06 -2.486496e-05 -2.758133e-05 -1.159590e-05 3.702856e-05 -9.227148e-06 1.689570e-05 5.255637e-06 8.631609e-06 1.013214e-04 4.379181e-05 3.181435e-05 9.532436e-06
<VARIANCE> 52
 9.982986e-01 9.925906e-01 9.920100e-01 9.925170e-01 9.928971e-01 9.935942e-01 9.939961e-01 9.942454e-01 9.939855e-01 9.943269e-01 9.944976e-01 9.947111e-01 9.948525e-01 9.888736e-01 9.885070e-01 9.907365e-01 9.914576e-01 9.922885e-01 9.931193e-01 9.935310e-01 9.937036e-01 9.939500e-01 9.944153e-01 9.947023e-01 9.949518e-01 9.947671e-01 9.888196e-01 9.893178e-01 9.915614e-01 9.922288e-01 9.930040e-01 9.936484e-01 9.940753e-01 9.942120e-01 9.943750e-01 9.948261e-01 9.950293e-01 9.952248e-01 9.951786e-01 9.887010e-01 9.895580e-01 9.918050e-01 9.924811e-01 9.931912e-01 9.938047e-01 9.941007e-01 9.942819e-01 9.945256e-01 9.949056e-01 9.951692e-01 9.953546e-01 9.951853e-01
<GCONST> 9.522043e+01
<STATE> 4
<MEAN> 52
 -5.446184e-03 -2.177700e-03 7.582359e-04 -9.071669e-04 1.160619e-03 1.247703e-03 1.526337e-03 1.229321e-03 -7.729552e-04 -1.139758e-05 -6.970145e-04 3.112216e-04 -7.576360e-04 -5.194605e-05 -2.506974e-05 -5.720075e-08 1.061453e-06 -4.035867e-05 1.622213e-05 2.427314e-06 -2.866550e-05 -2.447894e-05 -6.293398e-05 -5.921640e-05 -3.460460e-05 1.525308e-05 2.313761e-06 1.400515e-05 2.048172e-05 3.382247e-07 1.938100e-05 1.978888e-05 -1.843696e-05 -3.194313e-05 2.882303e-05 -3.500118e-05 -5.343926e-05 -4.420372e-05 1.356209e-05 8.094844e-06 -2.486496e-05 -2.758133e-05 -1.159590e-05 3.702856e-05 -9.227148e-06 1.689570e-05 5.255637e-06 8.631609e-06 1.013214e-04 4.379181e-05 3.181435e-05 9.532436e-06
<VARIANCE> 52
 9.982986e-01 9.925906e-01 9.920100e-01 9.925170e-01 9.928971e-01 9.935942e-01 9.939961e-01 9.942454e-01 9.939855e-01 9.943269e-01 9.944976e-01 9.947111e-01 9.948525e-01 9.888736e-01 9.885070e-01 9.907365e-01 9.914576e-01 9.922885e-01 9.931193e-01 9.935310e-01 9.937036e-01 9.939500e-01 9.944153e-01 9.947023e-01 9.949518e-01 9.947671e-01 9.888196e-01 9.893178e-01 9.915614e-01 9.922288e-01 9.930040e-01 9.936484e-01 9.940753e-01 9.942120e-01 9.943750e-01 9.948261e-01 9.950293e-01 9.952248e-01 9.951786e-01 9.887010e-01 9.895580e-01 9.918050e-01 9.924811e-01 9.931912e-01 9.938047e-01 9.941007e-01 9.942819e-01 9.945256e-01 9.949056e-01 9.951692e-01 9.953546e-01 9.951853e-01
<GCONST> 9.522043e+01
<TRANSP> 5
 0.000000e+00 1.000000e+00 0.000000e+00 0.000000e+00 0.000000e+00
 0.000000e+00 6.000000e-01 4.000000e-01 0.000000e+00 0.000000e+00
 0.000000e+00 0.000000e+00 6.000000e-01 4.000000e-01 0.000000e+00
 0.000000e+00 0.000000e+00 0.000000e+00 6.000000e-01 4.000000e-01
 0.000000e+00 0.000000e+00 0.000000e+00 0.000000e+00 0.000000e+00
<ENDHMM>
~h "bP"
<BEGINHMM>
<NUMSTATES> 5
<STATE> 2
<MEAN> 52
 -5.446184e-03 -2.177700e-03 7.582359e-04 -9.071669e-04 1.160619e-03 1.247703e-03 1.526337e-03 1.229321e-03 -7.729552e-04 -1.139758e-05 -6.970145e-04 3.112216e-04 -7.576360e-04 -5.194605e-05 -2.506974e-05 -5.720075e-08 1.061453e-06 -4.035867e-05 1.622213e-05 2.427314e-06 -2.866550e-05 -2.447894e-05 -6.293398e-05 -5.921640e-05 -3.460460e-05 1.525308e-05 2.313761e-06 1.400515e-05 2.048172e-05 3.382247e-07 1.938100e-05 1.978888e-05 -1.843696e-05 -3.194313e-05 2.882303e-05 -3.500118e-05 -5.343926e-05 -4.420372e-05 1.356209e-05 8.094844e-06 -2.486496e-05 -2.758133e-05 -1.159590e-05 3.702856e-05 -9.227148e-06 1.689570e-05 5.255637e-06 8.631609e-06 1.013214e-04 4.379181e-05 3.181435e-05 9.532436e-06
<VARIANCE> 52
 9.982986e-01 9.925906e-01 9.920100e-01 9.925170e-01 9.928971e-01 9.935942e-01 9.939961e-01 9.942454e-01 9.939855e-01 9.943269e-01 9.944976e-01 9.947111e-01 9.948525e-01 9.888736e-01 9.885070e-01 9.907365e-01 9.914576e-01 9.922885e-01 9.931193e-01 9.935310e-01 9.937036e-01 9.939500e-01 9.944153e-01 9.947023e-01 9.949518e-01 9.947671e-01 9.888196e-01 9.893178e-01 9.915614e-01 9.922288e-01 9.930040e-01 9.936484e-01 9.940753e-01 9.942120e-01 9.943750e-01 9.948261e-01 9.950293e-01 9.952248e-01 9.951786e-01 9.887010e-01 9.895580e-01 9.918050e-01 9.924811e-01 9.931912e-01 9.938047e-01 9.941007e-01 9.942819e-01 9.945256e-01 9.949056e-01 9.951692e-01 9.953546e-01 9.951853e-01
<GCONST> 9.522043e+01
<STATE> 3
<MEAN> 52
 -5.446184e-03 -2.177700e-03 7.582359e-04 -9.071669e-04 1.160619e-03 1.247703e-03 1.526337e-03 1.229321e-03 -7.729552e-04 -1.139758e-05 -6.970145e-04 3.112216e-04 -7.576360e-04 -5.194605e-05 -2.506974e-05 -5.720075e-08 1.061453e-06 -4.035867e-05 1.622213e-05 2.427314e-06 -2.866550e-05 -2.447894e-05 -6.293398e-05 -5.921640e-05 -3.460460e-05 1.525308e-05 2.313761e-06 1.400515e-05 2.048172e-05 3.382247e-07 1.938100e-05 1.978888e-05 -1.843696e-05 -3.194313e-05 2.882303e-05 -3.500118e-05 -5.343926e-05 -4.420372e-05 1.356209e-05 8.094844e-06 -2.486496e-05 -2.758133e-05 -1.159590e-05 3.702856e-05 -9.227148e-06 1.689570e-05 5.255637e-06 8.631609e-06 1.013214e-04 4.379181e-05 3.181435e-05 9.532436e-06
<VARIANCE> 52
 9.982986e-01 9.925906e-01 9.920100e-01 9.925170e-01 9.928971e-01 9.935942e-01 9.939961e-01 9.942454e-01 9.939855e-01 9.943269e-01 9.944976e-01 9.947111e-01 9.948525e-01 9.888736e-01 9.885070e-01 9.907365e-01 9.914576e-01 9.922885e-01 9.931193e-01 9.935310e-01 9.937036e-01 9.939500e-01 9.944153e-01 9.947023e-01 9.949518e-01 9.947671e-01 9.888196e-01 9.893178e-01 9.915614e-01 9.922288e-01 9.930040e-01 9.936484e-01 9.940753e-01 9.942120e-01 9.943750e-01 9.948261e-01 9.950293e-01 9.952248e-01 9.951786e-01 9.887010e-01 9.895580e-01 9.918050e-01 9.924811e-01 9.931912e-01 9.938047e-01 9.941007e-01 9.942819e-01 9.945256e-01 9.949056e-01 9.951692e-01 9.953546e-01 9.951853e-01
<GCONST> 9.522043e+01
<STATE> 4
<MEAN> 52
 -5.446184e-03 -2.177700e-03 7.582359e-04 -9.071669e-04 1.160619e-03 1.247703e-03 1.526337e-03 1.229321e-03 -7.729552e-04 -1.139758e-05 -6.970145e-04 3.112216e-04 -7.576360e-04 -5.194605e-05 -2.506974e-05 -5.720075e-08 1.061453e-06 -4.035867e-05 1.622213e-05 2.427314e-06 -2.866550e-05 -2.447894e-05 -6.293398e-05 -5.921640e-05 -3.460460e-05 1.525308e-05 2.313761e-06 1.400515e-05 2.048172e-05 3.382247e-07 1.938100e-05 1.978888e-05 -1.843696e-05 -3.194313e-05 2.882303e-05 -3.500118e-05 -5.343926e-05 -4.420372e-05 1.356209e-05 8.094844e-06 -2.486496e-05 -2.758133e-05 -1.159590e-05 3.702856e-05 -9.227148e-06 1.689570e-05 5.255637e-06 8.631609e-06 1.013214e-04 4.379181e-05 3.181435e-05 9.532436e-06
<VARIANCE> 52
 9.982986e-01 9.925906e-01 9.920100e-01 9.925170e-01 9.928971e-01 9.935942e-01 9.939961e-01 9.942454e-01 9.939855e-01 9.943269e-01 9.944976e-01 9.947111e-01 9.948525e-01 9.888736e-01 9.885070e-01 9.907365e-01 9.914576e-01 9.922885e-01 9.931193e-01 9.935310e-01 9.937036e-01 9.939500e-01 9.944153e-01 9.947023e-01 9.949518e-01 9.947671e-01 9.888196e-01 9.893178e-01 9.915614e-01 9.922288e-01 9.930040e-01 9.936484e-01 9.940753e-01 9.942120e-01 9.943750e-01 9.948261e-01 9.950293e-01 9.952248e-01 9.951786e-01 9.887010e-01 9.895580e-01 9.918050e-01 9.924811e-01 9.931912e-01 9.938047e-01 9.941007e-01 9.942819e-01 9.945256e-01 9.949056e-01 9.951692e-01 9.953546e-01 9.951853e-01
<GCONST> 9.522043e+01
<TRANSP> 5
 0.000000e+00 1.000000e+00 0.000000e+00 0.000000e+00 0.000000e+00
 0.000000e+00 6.000000e-01 4.000000e-01 0.000000e+00 0.000000e+00
 0.000000e+00 0.000000e+00 6.000000e-01 4.000000e-01 0.000000e+00
 0.000000e+00 0.000000e+00 0.000000e+00 6.000000e-01 4.000000e-01
 0.000000e+00 0.000000e+00 0.000000e+00 0.000000e+00 0.000000e+00
<ENDHMM>
~h "nP"
<BEGINHMM>
<NUMSTATES> 5
<STATE> 2
<MEAN> 52
 -5.446184e-03 -2.177700e-03 7.582359e-04 -9.071669e-04 1.160619e-03 1.247703e-03 1.526337e-03 1.229321e-03 -7.729552e-04 -1.139758e-05 -6.970145e-04 3.112216e-04 -7.576360e-04 -5.194605e-05 -2.506974e-05 -5.720075e-08 1.061453e-06 -4.035867e-05 1.622213e-05 2.427314e-06 -2.866550e-05 -2.447894e-05 -6.293398e-05 -5.921640e-05 -3.460460e-05 1.525308e-05 2.313761e-06 1.400515e-05 2.048172e-05 3.382247e-07 1.938100e-05 1.978888e-05 -1.843696e-05 -3.194313e-05 2.882303e-05 -3.500118e-05 -5.343926e-05 -4.420372e-05 1.356209e-05 8.094844e-06 -2.486496e-05 -2.758133e-05 -1.159590e-05 3.702856e-05 -9.227148e-06 1.689570e-05 5.255637e-06 8.631609e-06 1.013214e-04 4.379181e-05 3.181435e-05 9.532436e-06
<VARIANCE> 52
 9.982986e-01 9.925906e-01 9.920100e-01 9.925170e-01 9.928971e-01 9.935942e-01 9.939961e-01 9.942454e-01 9.939855e-01 9.943269e-01 9.944976e-01 9.947111e-01 9.948525e-01 9.888736e-01 9.885070e-01 9.907365e-01 9.914576e-01 9.922885e-01 9.931193e-01 9.935310e-01 9.937036e-01 9.939500e-01 9.944153e-01 9.947023e-01 9.949518e-01 9.947671e-01 9.888196e-01 9.893178e-01 9.915614e-01 9.922288e-01 9.930040e-01 9.936484e-01 9.940753e-01 9.942120e-01 9.943750e-01 9.948261e-01 9.950293e-01 9.952248e-01 9.951786e-01 9.887010e-01 9.895580e-01 9.918050e-01 9.924811e-01 9.931912e-01 9.938047e-01 9.941007e-01 9.942819e-01 9.945256e-01 9.949056e-01 9.951692e-01 9.953546e-01 9.951853e-01
<GCONST> 9.522043e+01
<STATE> 3
<MEAN> 52
 -5.446184e-03 -2.177700e-03 7.582359e-04 -9.071669e-04 1.160619e-03 1.247703e-03 1.526337e-03 1.229321e-03 -7.729552e-04 -1.139758e-05 -6.970145e-04 3.112216e-04 -7.576360e-04 -5.194605e-05 -2.506974e-05 -5.720075e-08 1.061453e-06 -4.035867e-05 1.622213e-05 2.427314e-06 -2.866550e-05 -2.447894e-05 -6.293398e-05 -5.921640e-05 -3.460460e-05 1.525308e-05 2.313761e-06 1.400515e-05 2.048172e-05 3.382247e-07 1.938100e-05 1.978888e-05 -1.843696e-05 -3.194313e-05 2.882303e-05 -3.500118e-05 -5.343926e-05 -4.420372e-05 1.356209e-05 8.094844e-06 -2.486496e-05 -2.758133e-05 -1.159590e-05 3.702856e-05 -9.227148e-06 1.689570e-05 5.255637e-06 8.631609e-06 1.013214e-04 4.379181e-05 3.181435e-05 9.532436e-06
<VARIANCE> 52
 9.982986e-01 9.925906e-01 9.920100e-01 9.925170e-01 9.928971e-01 9.935942e-01 9.939961e-01 9.942454e-01 9.939855e-01 9.943269e-01 9.944976e-01 9.947111e-01 9.948525e-01 9.888736e-01 9.885070e-01 9.907365e-01 9.914576e-01 9.922885e-01 9.931193e-01 9.935310e-01 9.937036e-01 9.939500e-01 9.944153e-01 9.947023e-01 9.949518e-01 9.947671e-01 9.888196e-01 9.893178e-01 9.915614e-01 9.922288e-01 9.930040e-01 9.936484e-01 9.940753e-01 9.942120e-01 9.943750e-01 9.948261e-01 9.950293e-01 9.952248e-01 9.951786e-01 9.887010e-01 9.895580e-01 9.918050e-01 9.924811e-01 9.931912e-01 9.938047e-01 9.941007e-01 9.942819e-01 9.945256e-01 9.949056e-01 9.951692e-01 9.953546e-01 9.951853e-01
<GCONST> 9.522043e+01
<STATE> 4
<MEAN> 52
 -5.446184e-03 -2.177700e-03 7.582359e-04 -9.071669e-04 1.160619e-03 1.247703e-03 1.526337e-03 1.229321e-03 -7.729552e-04 -1.139758e-05 -6.970145e-04 3.112216e-04 -7.576360e-04 -5.194605e-05 -2.506974e-05 -5.720075e-08 1.061453e-06 -4.035867e-05 1.622213e-05 2.427314e-06 -2.866550e-05 -2.447894e-05 -6.293398e-05 -5.921640e-05 -3.460460e-05 1.525308e-05 2.313761e-06 1.400515e-05 2.048172e-05 3.382247e-07 1.938100e-05 1.978888e-05 -1.843696e-05 -3.194313e-05 2.882303e-05 -3.500118e-05 -5.343926e-05 -4.420372e-05 1.356209e-05 8.094844e-06 -2.486496e-05 -2.758133e-05 -1.159590e-05 3.702856e-05 -9.227148e-06 1.689570e-05 5.255637e-06 8.631609e-06 1.013214e-04 4.379181e-05 3.181435e-05 9.532436e-06
<VARIANCE> 52
 9.982986e-01 9.925906e-01 9.920100e-01 9.925170e-01 9.928971e-01 9.935942e-01 9.939961e-01 9.942454e-01 9.939855e-01 9.943269e-01 9.944976e-01 9.947111e-01 9.948525e-01 9.888736e-01 9.885070e-01 9.907365e-01 9.914576e-01 9.922885e-01 9.931193e-01 9.935310e-01 9.937036e-01 9.939500e-01 9.944153e-01 9.947023e-01 9.949518e-01 9.947671e-01 9.888196e-01 9.893178e-01 9.915614e-01 9.922288e-01 9.930040e-01 9.936484e-01 9.940753e-01 9.942120e-01 9.943750e-01 9.948261e-01 9.950293e-01 9.952248e-01 9.951786e-01 9.887010e-01 9.895580e-01 9.918050e-01 9.924811e-01 9.931912e-01 9.938047e-01 9.941007e-01 9.942819e-01 9.945256e-01 9.949056e-01 9.951692e-01 9.953546e-01 9.951853e-01
<GCONST> 9.522043e+01
<TRANSP> 5
 0.000000e+00 1.000000e+00 0.000000e+00 0.000000e+00 0.000000e+00
 0.000000e+00 6.000000e-01 4.000000e-01 0.000000e+00 0.000000e+00
 0.000000e+00 0.000000e+00 6.000000e-01 4.000000e-01 0.000000e+00
 0.000000e+00 0.000000e+00 0.000000e+00 6.000000e-01 4.000000e-01
 0.000000e+00 0.000000e+00 0.000000e+00 0.000000e+00 0.000000e+00
<ENDHMM>
~h "eh"
<BEGINHMM>
<NUMSTATES> 5
<STATE> 2
<MEAN> 52
 -5.446184e-03 -2.177700e-03 7.582359e-04 -9.071669e-04 1.160619e-03 1.247703e-03 1.526337e-03 1.229321e-03 -7.729552e-04 -1.139758e-05 -6.970145e-04 3.112216e-04 -7.576360e-04 -5.194605e-05 -2.506974e-05 -5.720075e-08 1.061453e-06 -4.035867e-05 1.622213e-05 2.427314e-06 -2.866550e-05 -2.447894e-05 -6.293398e-05 -5.921640e-05 -3.460460e-05 1.525308e-05 2.313761e-06 1.400515e-05 2.048172e-05 3.382247e-07 1.938100e-05 1.978888e-05 -1.843696e-05 -3.194313e-05 2.882303e-05 -3.500118e-05 -5.343926e-05 -4.420372e-05 1.356209e-05 8.094844e-06 -2.486496e-05 -2.758133e-05 -1.159590e-05 3.702856e-05 -9.227148e-06 1.689570e-05 5.255637e-06 8.631609e-06 1.013214e-04 4.379181e-05 3.181435e-05 9.532436e-06
<VARIANCE> 52
 9.982986e-01 9.925906e-01 9.920100e-01 9.925170e-01 9.928971e-01 9.935942e-01 9.939961e-01 9.942454e-01 9.939855e-01 9.943269e-01 9.944976e-01 9.947111e-01 9.948525e-01 9.888736e-01 9.885070e-01 9.907365e-01 9.914576e-01 9.922885e-01 9.931193e-01 9.935310e-01 9.937036e-01 9.939500e-01 9.944153e-01 9.947023e-01 9.949518e-01 9.947671e-01 9.888196e-01 9.893178e-01 9.915614e-01 9.922288e-01 9.930040e-01 9.936484e-01 9.940753e-01 9.942120e-01 9.943750e-01 9.948261e-01 9.950293e-01 9.952248e-01 9.951786e-01 9.887010e-01 9.895580e-01 9.918050e-01 9.924811e-01 9.931912e-01 9.938047e-01 9.941007e-01 9.942819e-01 9.945256e-01 9.949056e-01 9.951692e-01 9.953546e-01 9.951853e-01
<GCONST> 9.522043e+01
<STATE> 3
<MEAN> 52
 -5.446184e-03 -2.177700e-03 7.582359e-04 -9.071669e-04 1.160619e-03 1.247703e-03 1.526337e-03 1.229321e-03 -7.729552e-04 -1.139758e-05 -6.970145e-04 3.112216e-04 -7.576360e-04 -5.194605e-05 -2.506974e-05 -5.720075e-08 1.061453e-06 -4.035867e-05 1.622213e-05 2.427314e-06 -2.866550e-05 -2.447894e-05 -6.293398e-05 -5.921640e-05 -3.460460e-05 1.525308e-05 2.313761e-06 1.400515e-05 2.048172e-05 3.382247e-07 1.938100e-05 1.978888e-05 -1.843696e-05 -3.194313e-05 2.882303e-05 -3.500118e-05 -5.343926e-05 -4.420372e-05 1.356209e-05 8.094844e-06 -2.486496e-05 -2.758133e-05 -1.159590e-05 3.702856e-05 -9.227148e-06 1.689570e-05 5.255637e-06 8.631609e-06 1.013214e-04 4.379181e-05 3.181435e-05 9.532436e-06
<VARIANCE> 52
 9.982986e-01 9.925906e-01 9.920100e-01 9.925170e-01 9.928971e-01 9.935942e-01 9.939961e-01 9.942454e-01 9.939855e-01 9.943269e-01 9.944976e-01 9.947111e-01 9.948525e-01 9.888736e-01 9.885070e-01 9.907365e-01 9.914576e-01 9.922885e-01 9.931193e-01 9.935310e-01 9.937036e-01 9.939500e-01 9.944153e-01 9.947023e-01 9.949518e-01 9.947671e-01 9.888196e-01 9.893178e-01 9.915614e-01 9.922288e-01 9.930040e-01 9.936484e-01 9.940753e-01 9.942120e-01 9.943750e-01 9.948261e-01 9.950293e-01 9.952248e-01 9.951786e-01 9.887010e-01 9.895580e-01 9.918050e-01 9.924811e-01 9.931912e-01 9.938047e-01 9.941007e-01 9.942819e-01 9.945256e-01 9.949056e-01 9.951692e-01 9.953546e-01 9.951853e-01
<GCONST> 9.522043e+01
<STATE> 4
<MEAN> 52
 -5.446184e-03 -2.177700e-03 7.582359e-04 -9.071669e-04 1.160619e-03 1.247703e-03 1.526337e-03 1.229321e-03 -7.729552e-04 -1.139758e-05 -6.970145e-04 3.112216e-04 -7.576360e-04 -5.194605e-05 -2.506974e-05 -5.720075e-08 1.061453e-06 -4.035867e-05 1.622213e-05 2.427314e-06 -2.866550e-05 -2.447894e-05 -6.293398e-05 -5.921640e-05 -3.460460e-05 1.525308e-05 2.313761e-06 1.400515e-05 2.048172e-05 3.382247e-07 1.938100e-05 1.978888e-05 -1.843696e-05 -3.194313e-05 2.882303e-05 -3.500118e-05 -5.343926e-05 -4.420372e-05 1.356209e-05 8.094844e-06 -2.486496e-05 -2.758133e-05 -1.159590e-05 3.702856e-05 -9.227148e-06 1.689570e-05 5.255637e-06 8.631609e-06 1.013214e-04 4.379181e-05 3.181435e-05 9.532436e-06
<VARIANCE> 52
 9.982986e-01 9.925906e-01 9.920100e-01 9.925170e-01 9.928971e-01 9.935942e-01 9.939961e-01 9.942454e-01 9.939855e-01 9.943269e-01 9.944976e-01 9.947111e-01 9.948525e-01 9.888736e-01 9.885070e-01 9.907365e-01 9.914576e-01 9.922885e-01 9.931193e-01 9.935310e-01 9.937036e-01 9.939500e-01 9.944153e-01 9.947023e-01 9.949518e-01 9.947671e-01 9.888196e-01 9.893178e-01 9.915614e-01 9.922288e-01 9.930040e-01 9.936484e-01 9.940753e-01 9.942120e-01 9.943750e-01 9.948261e-01 9.950293e-01 9.952248e-01 9.951786e-01 9.887010e-01 9.895580e-01 9.918050e-01 9.924811e-01 9.931912e-01 9.938047e-01 9.941007e-01 9.942819e-01 9.945256e-01 9.949056e-01 9.951692e-01 9.953546e-01 9.951853e-01
<GCONST> 9.522043e+01
<TRANSP> 5
 0.000000e+00 1.000000e+00 0.000000e+00 0.000000e+00 0.000000e+00
 0.000000e+00 6.000000e-01 4.000000e-01 0.000000e+00 0.000000e+00
 0.000000e+00 0.000000e+00 6.000000e-01 4.000000e-01 0.000000e+00
 0.000000e+00 0.000000e+00 0.000000e+00 6.000000e-01 4.000000e-01
 0.000000e+00 0.000000e+00 0.000000e+00 0.000000e+00 0.000000e+00
<ENDHMM>
~h "x"
<BEGINHMM>
<NUMSTATES> 5
<STATE> 2
<MEAN> 52
 -5.446184e-03 -2.177700e-03 7.582359e-04 -9.071669e-04 1.160619e-03 1.247703e-03 1.526337e-03 1.229321e-03 -7.729552e-04 -1.139758e-05 -6.970145e-04 3.112216e-04 -7.576360e-04 -5.194605e-05 -2.506974e-05 -5.720075e-08 1.061453e-06 -4.035867e-05 1.622213e-05 2.427314e-06 -2.866550e-05 -2.447894e-05 -6.293398e-05 -5.921640e-05 -3.460460e-05 1.525308e-05 2.313761e-06 1.400515e-05 2.048172e-05 3.382247e-07 1.938100e-05 1.978888e-05 -1.843696e-05 -3.194313e-05 2.882303e-05 -3.500118e-05 -5.343926e-05 -4.420372e-05 1.356209e-05 8.094844e-06 -2.486496e-05 -2.758133e-05 -1.159590e-05 3.702856e-05 -9.227148e-06 1.689570e-05 5.255637e-06 8.631609e-06 1.013214e-04 4.379181e-05 3.181435e-05 9.532436e-06
<VARIANCE> 52
 9.982986e-01 9.925906e-01 9.920100e-01 9.925170e-01 9.928971e-01 9.935942e-01 9.939961e-01 9.942454e-01 9.939855e-01 9.943269e-01 9.944976e-01 9.947111e-01 9.948525e-01 9.888736e-01 9.885070e-01 9.907365e-01 9.914576e-01 9.922885e-01 9.931193e-01 9.935310e-01 9.937036e-01 9.939500e-01 9.944153e-01 9.947023e-01 9.949518e-01 9.947671e-01 9.888196e-01 9.893178e-01 9.915614e-01 9.922288e-01 9.930040e-01 9.936484e-01 9.940753e-01 9.942120e-01 9.943750e-01 9.948261e-01 9.950293e-01 9.952248e-01 9.951786e-01 9.887010e-01 9.895580e-01 9.918050e-01 9.924811e-01 9.931912e-01 9.938047e-01 9.941007e-01 9.942819e-01 9.945256e-01 9.949056e-01 9.951692e-01 9.953546e-01 9.951853e-01
<GCONST> 9.522043e+01
<STATE> 3
<MEAN> 52
 -5.446184e-03 -2.177700e-03 7.582359e-04 -9.071669e-04 1.160619e-03 1.247703e-03 1.526337e-03 1.229321e-03 -7.729552e-04 -1.139758e-05 -6.970145e-04 3.112216e-04 -7.576360e-04 -5.194605e-05 -2.506974e-05 -5.720075e-08 1.061453e-06 -4.035867e-05 1.622213e-05 2.427314e-06 -2.866550e-05 -2.447894e-05 -6.293398e-05 -5.921640e-05 -3.460460e-05 1.525308e-05 2.313761e-06 1.400515e-05 2.048172e-05 3.382247e-07 1.938100e-05 1.978888e-05 -1.843696e-05 -3.194313e-05 2.882303e-05 -3.500118e-05 -5.343926e-05 -4.420372e-05 1.356209e-05 8.094844e-06 -2.486496e-05 -2.758133e-05 -1.159590e-05 3.702856e-05 -9.227148e-06 1.689570e-05 5.255637e-06 8.631609e-06 1.013214e-04 4.379181e-05 3.181435e-05 9.532436e-06
<VARIANCE> 52
 9.982986e-01 9.925906e-01 9.920100e-01 9.925170e-01 9.928971e-01 9.935942e-01 9.939961e-01 9.942454e-01 9.939855e-01 9.943269e-01 9.944976e-01 9.947111e-01 9.948525e-01 9.888736e-01 9.885070e-01 9.907365e-01 9.914576e-01 9.922885e-01 9.931193e-01 9.935310e-01 9.937036e-01 9.939500e-01 9.944153e-01 9.947023e-01 9.949518e-01 9.947671e-01 9.888196e-01 9.893178e-01 9.915614e-01 9.922288e-01 9.930040e-01 9.936484e-01 9.940753e-01 9.942120e-01 9.943750e-01 9.948261e-01 9.950293e-01 9.952248e-01 9.951786e-01 9.887010e-01 9.895580e-01 9.918050e-01 9.924811e-01 9.931912e-01 9.938047e-01 9.941007e-01 9.942819e-01 9.945256e-01 9.949056e-01 9.951692e-01 9.953546e-01 9.951853e-01
<GCONST> 9.522043e+01
<STATE> 4
<MEAN> 52
 -5.446184e-03 -2.177700e-03 7.582359e-04 -9.071669e-04 1.160619e-03 1.247703e-03 1.526337e-03 1.229321e-03 -7.729552e-04 -1.139758e-05 -6.970145e-04 3.112216e-04 -7.576360e-04 -5.194605e-05 -2.506974e-05 -5.720075e-08 1.061453e-06 -4.035867e-05 1.622213e-05 2.427314e-06 -2.866550e-05 -2.447894e-05 -6.293398e-05 -5.921640e-05 -3.460460e-05 1.525308e-05 2.313761e-06 1.400515e-05 2.048172e-05 3.382247e-07 1.938100e-05 1.978888e-05 -1.843696e-05 -3.194313e-05 2.882303e-05 -3.500118e-05 -5.343926e-05 -4.420372e-05 1.356209e-05 8.094844e-06 -2.486496e-05 -2.758133e-05 -1.159590e-05 3.702856e-05 -9.227148e-06 1.689570e-05 5.255637e-06 8.631609e-06 1.013214e-04 4.379181e-05 3.181435e-05 9.532436e-06
<VARIANCE> 52
 9.982986e-01 9.925906e-01 9.920100e-01 9.925170e-01 9.928971e-01 9.935942e-01 9.939961e-01 9.942454e-01 9.939855e-01 9.943269e-01 9.944976e-01 9.947111e-01 9.948525e-01 9.888736e-01 9.885070e-01 9.907365e-01 9.914576e-01 9.922885e-01 9.931193e-01 9.935310e-01 9.937036e-01 9.939500e-01 9.944153e-01 9.947023e-01 9.949518e-01 9.947671e-01 9.888196e-01 9.893178e-01 9.915614e-01 9.922288e-01 9.930040e-01 9.936484e-01 9.940753e-01 9.942120e-01 9.943750e-01 9.948261e-01 9.950293e-01 9.952248e-01 9.951786e-01 9.887010e-01 9.895580e-01 9.918050e-01 9.924811e-01 9.931912e-01 9.938047e-01 9.941007e-01 9.942819e-01 9.945256e-01 9.949056e-01 9.951692e-01 9.953546e-01 9.951853e-01
<GCONST> 9.522043e+01
<TRANSP> 5
 0.000000e+00 1.000000e+00 0.000000e+00 0.000000e+00 0.000000e+00
 0.000000e+00 6.000000e-01 4.000000e-01 0.000000e+00 0.000000e+00
 0.000000e+00 0.000000e+00 6.000000e-01 4.000000e-01 0.000000e+00
 0.000000e+00 0.000000e+00 0.000000e+00 6.000000e-01 4.000000e-01
 0.000000e+00 0.000000e+00 0.000000e+00 0.000000e+00 0.000000e+00
<ENDHMM>
~h "lP"
<BEGINHMM>
<NUMSTATES> 5
<STATE> 2
<MEAN> 52
 -5.446184e-03 -2.177700e-03 7.582359e-04 -9.071669e-04 1.160619e-03 1.247703e-03 1.526337e-03 1.229321e-03 -7.729552e-04 -1.139758e-05 -6.970145e-04 3.112216e-04 -7.576360e-04 -5.194605e-05 -2.506974e-05 -5.720075e-08 1.061453e-06 -4.035867e-05 1.622213e-05 2.427314e-06 -2.866550e-05 -2.447894e-05 -6.293398e-05 -5.921640e-05 -3.460460e-05 1.525308e-05 2.313761e-06 1.400515e-05 2.048172e-05 3.382247e-07 1.938100e-05 1.978888e-05 -1.843696e-05 -3.194313e-05 2.882303e-05 -3.500118e-05 -5.343926e-05 -4.420372e-05 1.356209e-05 8.094844e-06 -2.486496e-05 -2.758133e-05 -1.159590e-05 3.702856e-05 -9.227148e-06 1.689570e-05 5.255637e-06 8.631609e-06 1.013214e-04 4.379181e-05 3.181435e-05 9.532436e-06
<VARIANCE> 52
 9.982986e-01 9.925906e-01 9.920100e-01 9.925170e-01 9.928971e-01 9.935942e-01 9.939961e-01 9.942454e-01 9.939855e-01 9.943269e-01 9.944976e-01 9.947111e-01 9.948525e-01 9.888736e-01 9.885070e-01 9.907365e-01 9.914576e-01 9.922885e-01 9.931193e-01 9.935310e-01 9.937036e-01 9.939500e-01 9.944153e-01 9.947023e-01 9.949518e-01 9.947671e-01 9.888196e-01 9.893178e-01 9.915614e-01 9.922288e-01 9.930040e-01 9.936484e-01 9.940753e-01 9.942120e-01 9.943750e-01 9.948261e-01 9.950293e-01 9.952248e-01 9.951786e-01 9.887010e-01 9.895580e-01 9.918050e-01 9.924811e-01 9.931912e-01 9.938047e-01 9.941007e-01 9.942819e-01 9.945256e-01 9.949056e-01 9.951692e-01 9.953546e-01 9.951853e-01
<GCONST> 9.522043e+01
<STATE> 3
<MEAN> 52
 -5.446184e-03 -2.177700e-03 7.582359e-04 -9.071669e-04 1.160619e-03 1.247703e-03 1.526337e-03 1.229321e-03 -7.729552e-04 -1.139758e-05 -6.970145e-04 3.112216e-04 -7.576360e-04 -5.194605e-05 -2.506974e-05 -5.720075e-08 1.061453e-06 -4.035867e-05 1.622213e-05 2.427314e-06 -2.866550e-05 -2.447894e-05 -6.293398e-05 -5.921640e-05 -3.460460e-05 1.525308e-05 2.313761e-06 1.400515e-05 2.048172e-05 3.382247e-07 1.938100e-05 1.978888e-05 -1.843696e-05 -3.194313e-05 2.882303e-05 -3.500118e-05 -5.343926e-05 -4.420372e-05 1.356209e-05 8.094844e-06 -2.486496e-05 -2.758133e-05 -1.159590e-05 3.702856e-05 -9.227148e-06 1.689570e-05 5.255637e-06 8.631609e-06 1.013214e-04 4.379181e-05 3.181435e-05 9.532436e-06
<VARIANCE> 52
 9.982986e-01 9.925906e-01 9.920100e-01 9.925170e-01 9.928971e-01 9.935942e-01 9.939961e-01 9.942454e-01 9.939855e-01 9.943269e-01 9.944976e-01 9.947111e-01 9.948525e-01 9.888736e-01 9.885070e-01 9.907365e-01 9.914576e-01 9.922885e-01 9.931193e-01 9.935310e-01 9.937036e-01 9.939500e-01 9.944153e-01 9.947023e-01 9.949518e-01 9.947671e-01 9.888196e-01 9.893178e-01 9.915614e-01 9.922288e-01 9.930040e-01 9.936484e-01 9.940753e-01 9.942120e-01 9.943750e-01 9.948261e-01 9.950293e-01 9.952248e-01 9.951786e-01 9.887010e-01 9.895580e-01 9.918050e-01 9.924811e-01 9.931912e-01 9.938047e-01 9.941007e-01 9.942819e-01 9.945256e-01 9.949056e-01 9.951692e-01 9.953546e-01 9.951853e-01
<GCONST> 9.522043e+01
<STATE> 4
<MEAN> 52
 -5.446184e-03 -2.177700e-03 7.582359e-04 -9.071669e-04 1.160619e-03 1.247703e-03 1.526337e-03 1.229321e-03 -7.729552e-04 -1.139758e-05 -6.970145e-04 3.112216e-04 -7.576360e-04 -5.194605e-05 -2.506974e-05 -5.720075e-08 1.061453e-06 -4.035867e-05 1.622213e-05 2.427314e-06 -2.866550e-05 -2.447894e-05 -6.293398e-05 -5.921640e-05 -3.460460e-05 1.525308e-05 2.313761e-06 1.400515e-05 2.048172e-05 3.382247e-07 1.938100e-05 1.978888e-05 -1.843696e-05 -3.194313e-05 2.882303e-05 -3.500118e-05 -5.343926e-05 -4.420372e-05 1.356209e-05 8.094844e-06 -2.486496e-05 -2.758133e-05 -1.159590e-05 3.702856e-05 -9.227148e-06 1.689570e-05 5.255637e-06 8.631609e-06 1.013214e-04 4.379181e-05 3.181435e-05 9.532436e-06
<VARIANCE> 52
 9.982986e-01 9.925906e-01 9.920100e-01 9.925170e-01 9.928971e-01 9.935942e-01 9.939961e-01 9.942454e-01 9.939855e-01 9.943269e-01 9.944976e-01 9.947111e-01 9.948525e-01 9.888736e-01 9.885070e-01 9.907365e-01 9.914576e-01 9.922885e-01 9.931193e-01 9.935310e-01 9.937036e-01 9.939500e-01 9.944153e-01 9.947023e-01 9.949518e-01 9.947671e-01 9.888196e-01 9.893178e-01 9.915614e-01 9.922288e-01 9.930040e-01 9.936484e-01 9.940753e-01 9.942120e-01 9.943750e-01 9.948261e-01 9.950293e-01 9.952248e-01 9.951786e-01 9.887010e-01 9.895580e-01 9.918050e-01 9.924811e-01 9.931912e-01 9.938047e-01 9.941007e-01 9.942819e-01 9.945256e-01 9.949056e-01 9.951692e-01 9.953546e-01 9.951853e-01
<GCONST> 9.522043e+01
<TRANSP> 5
 0.000000e+00 1.000000e+00 0.000000e+00 0.000000e+00 0.000000e+00
 0.000000e+00 6.000000e-01 4.000000e-01 0.000000e+00 0.000000e+00
 0.000000e+00 0.000000e+00 6.000000e-01 4.000000e-01 0.000000e+00
 0.000000e+00 0.000000e+00 0.000000e+00 6.000000e-01 4.000000e-01
 0.000000e+00 0.000000e+00 0.000000e+00 0.000000e+00 0.000000e+00
<ENDHMM>
~h "ih"
<BEGINHMM>
<NUMSTATES> 5
<STATE> 2
<MEAN> 52
 -5.446184e-03 -2.177700e-03 7.582359e-04 -9.071669e-04 1.160619e-03 1.247703e-03 1.526337e-03 1.229321e-03 -7.729552e-04 -1.139758e-05 -6.970145e-04 3.112216e-04 -7.576360e-04 -5.194605e-05 -2.506974e-05 -5.720075e-08 1.061453e-06 -4.035867e-05 1.622213e-05 2.427314e-06 -2.866550e-05 -2.447894e-05 -6.293398e-05 -5.921640e-05 -3.460460e-05 1.525308e-05 2.313761e-06 1.400515e-05 2.048172e-05 3.382247e-07 1.938100e-05 1.978888e-05 -1.843696e-05 -3.194313e-05 2.882303e-05 -3.500118e-05 -5.343926e-05 -4.420372e-05 1.356209e-05 8.094844e-06 -2.486496e-05 -2.758133e-05 -1.159590e-05 3.702856e-05 -9.227148e-06 1.689570e-05 5.255637e-06 8.631609e-06 1.013214e-04 4.379181e-05 3.181435e-05 9.532436e-06
<VARIANCE> 52
 9.982986e-01 9.925906e-01 9.920100e-01 9.925170e-01 9.928971e-01 9.935942e-01 9.939961e-01 9.942454e-01 9.939855e-01 9.943269e-01 9.944976e-01 9.947111e-01 9.948525e-01 9.888736e-01 9.885070e-01 9.907365e-01 9.914576e-01 9.922885e-01 9.931193e-01 9.935310e-01 9.937036e-01 9.939500e-01 9.944153e-01 9.947023e-01 9.949518e-01 9.947671e-01 9.888196e-01 9.893178e-01 9.915614e-01 9.922288e-01 9.930040e-01 9.936484e-01 9.940753e-01 9.942120e-01 9.943750e-01 9.948261e-01 9.950293e-01 9.952248e-01 9.951786e-01 9.887010e-01 9.895580e-01 9.918050e-01 9.924811e-01 9.931912e-01 9.938047e-01 9.941007e-01 9.942819e-01 9.945256e-01 9.949056e-01 9.951692e-01 9.953546e-01 9.951853e-01
<GCONST> 9.522043e+01
<STATE> 3
<MEAN> 52
 -5.446184e-03 -2.177700e-03 7.582359e-04 -9.071669e-04 1.160619e-03 1.247703e-03 1.526337e-03 1.229321e-03 -7.729552e-04 -1.139758e-05 -6.970145e-04 3.112216e-04 -7.576360e-04 -5.194605e-05 -2.506974e-05 -5.720075e-08 1.061453e-06 -4.035867e-05 1.622213e-05 2.427314e-06 -2.866550e-05 -2.447894e-05 -6.293398e-05 -5.921640e-05 -3.460460e-05 1.525308e-05 2.313761e-06 1.400515e-05 2.048172e-05 3.382247e-07 1.938100e-05 1.978888e-05 -1.843696e-05 -3.194313e-05 2.882303e-05 -3.500118e-05 -5.343926e-05 -4.420372e-05 1.356209e-05 8.094844e-06 -2.486496e-05 -2.758133e-05 -1.159590e-05 3.702856e-05 -9.227148e-06 1.689570e-05 5.255637e-06 8.631609e-06 1.013214e-04 4.379181e-05 3.181435e-05 9.532436e-06
<VARIANCE> 52
 9.982986e-01 9.925906e-01 9.920100e-01 9.925170e-01 9.928971e-01 9.935942e-01 9.939961e-01 9.942454e-01 9.939855e-01 9.943269e-01 9.944976e-01 9.947111e-01 9.948525e-01 9.888736e-01 9.885070e-01 9.907365e-01 9.914576e-01 9.922885e-01 9.931193e-01 9.935310e-01 9.937036e-01 9.939500e-01 9.944153e-01 9.947023e-01 9.949518e-01 9.947671e-01 9.888196e-01 9.893178e-01 9.915614e-01 9.922288e-01 9.930040e-01 9.936484e-01 9.940753e-01 9.942120e-01 9.943750e-01 9.948261e-01 9.950293e-01 9.952248e-01 9.951786e-01 9.887010e-01 9.895580e-01 9.918050e-01 9.924811e-01 9.931912e-01 9.938047e-01 9.941007e-01 9.942819e-01 9.945256e-01 9.949056e-01 9.951692e-01 9.953546e-01 9.951853e-01
<GCONST> 9.522043e+01
<STATE> 4
<MEAN> 52
 -5.446184e-03 -2.177700e-03 7.582359e-04 -9.071669e-04 1.160619e-03 1.247703e-03 1.526337e-03 1.229321e-03 -7.729552e-04 -1.139758e-05 -6.970145e-04 3.112216e-04 -7.576360e-04 -5.194605e-05 -2.506974e-05 -5.720075e-08 1.061453e-06 -4.035867e-05 1.622213e-05 2.427314e-06 -2.866550e-05 -2.447894e-05 -6.293398e-05 -5.921640e-05 -3.460460e-05 1.525308e-05 2.313761e-06 1.400515e-05 2.048172e-05 3.382247e-07 1.938100e-05 1.978888e-05 -1.843696e-05 -3.194313e-05 2.882303e-05 -3.500118e-05 -5.343926e-05 -4.420372e-05 1.356209e-05 8.094844e-06 -2.486496e-05 -2.758133e-05 -1.159590e-05 3.702856e-05 -9.227148e-06 1.689570e-05 5.255637e-06 8.631609e-06 1.013214e-04 4.379181e-05 3.181435e-05 9.532436e-06
<VARIANCE> 52
 9.982986e-01 9.925906e-01 9.920100e-01 9.925170e-01 9.928971e-01 9.935942e-01 9.939961e-01 9.942454e-01 9.939855e-01 9.943269e-01 9.944976e-01 9.947111e-01 9.948525e-01 9.888736e-01 9.885070e-01 9.907365e-01 9.914576e-01 9.922885e-01 9.931193e-01 9.935310e-01 9.937036e-01 9.939500e-01 9.944153e-01 9.947023e-01 9.949518e-01 9.947671e-01 9.888196e-01 9.893178e-01 9.915614e-01 9.922288e-01 9.930040e-01 9.936484e-01 9.940753e-01 9.942120e-01 9.943750e-01 9.948261e-01 9.950293e-01 9.952248e-01 9.951786e-01 9.887010e-01 9.895580e-01 9.918050e-01 9.924811e-01 9.931912e-01 9.938047e-01 9.941007e-01 9.942819e-01 9.945256e-01 9.949056e-01 9.951692e-01 9.953546e-01 9.951853e-01
<GCONST> 9.522043e+01
<TRANSP> 5
 0.000000e+00 1.000000e+00 0.000000e+00 0.000000e+00 0.000000e+00
 0.000000e+00 6.000000e-01 4.000000e-01 0.000000e+00 0.000000e+00
 0.000000e+00 0.000000e+00 6.000000e-01 4.000000e-01 0.000000e+00
 0.000000e+00 0.000000e+00 0.000000e+00 6.000000e-01 4.000000e-01
 0.000000e+00 0.000000e+00 0.000000e+00 0.000000e+00 0.000000e+00
<ENDHMM>
~h "v"
<BEGINHMM>
<NUMSTATES> 5
<STATE> 2
<MEAN> 52
 -5.446184e-03 -2.177700e-03 7.582359e-04 -9.071669e-04 1.160619e-03 1.247703e-03 1.526337e-03 1.229321e-03 -7.729552e-04 -1.139758e-05 -6.970145e-04 3.112216e-04 -7.576360e-04 -5.194605e-05 -2.506974e-05 -5.720075e-08 1.061453e-06 -4.035867e-05 1.622213e-05 2.427314e-06 -2.866550e-05 -2.447894e-05 -6.293398e-05 -5.921640e-05 -3.460460e-05 1.525308e-05 2.313761e-06 1.400515e-05 2.048172e-05 3.382247e-07 1.938100e-05 1.978888e-05 -1.843696e-05 -3.194313e-05 2.882303e-05 -3.500118e-05 -5.343926e-05 -4.420372e-05 1.356209e-05 8.094844e-06 -2.486496e-05 -2.758133e-05 -1.159590e-05 3.702856e-05 -9.227148e-06 1.689570e-05 5.255637e-06 8.631609e-06 1.013214e-04 4.379181e-05 3.181435e-05 9.532436e-06
<VARIANCE> 52
 9.982986e-01 9.925906e-01 9.920100e-01 9.925170e-01 9.928971e-01 9.935942e-01 9.939961e-01 9.942454e-01 9.939855e-01 9.943269e-01 9.944976e-01 9.947111e-01 9.948525e-01 9.888736e-01 9.885070e-01 9.907365e-01 9.914576e-01 9.922885e-01 9.931193e-01 9.935310e-01 9.937036e-01 9.939500e-01 9.944153e-01 9.947023e-01 9.949518e-01 9.947671e-01 9.888196e-01 9.893178e-01 9.915614e-01 9.922288e-01 9.930040e-01 9.936484e-01 9.940753e-01 9.942120e-01 9.943750e-01 9.948261e-01 9.950293e-01 9.952248e-01 9.951786e-01 9.887010e-01 9.895580e-01 9.918050e-01 9.924811e-01 9.931912e-01 9.938047e-01 9.941007e-01 9.942819e-01 9.945256e-01 9.949056e-01 9.951692e-01 9.953546e-01 9.951853e-01
<GCONST> 9.522043e+01
<STATE> 3
<MEAN> 52
 -5.446184e-03 -2.177700e-03 7.582359e-04 -9.071669e-04 1.160619e-03 1.247703e-03 1.526337e-03 1.229321e-03 -7.729552e-04 -1.139758e-05 -6.970145e-04 3.112216e-04 -7.576360e-04 -5.194605e-05 -2.506974e-05 -5.720075e-08 1.061453e-06 -4.035867e-05 1.622213e-05 2.427314e-06 -2.866550e-05 -2.447894e-05 -6.293398e-05 -5.921640e-05 -3.460460e-05 1.525308e-05 2.313761e-06 1.400515e-05 2.048172e-05 3.382247e-07 1.938100e-05 1.978888e-05 -1.843696e-05 -3.194313e-05 2.882303e-05 -3.500118e-05 -5.343926e-05 -4.420372e-05 1.356209e-05 8.094844e-06 -2.486496e-05 -2.758133e-05 -1.159590e-05 3.702856e-05 -9.227148e-06 1.689570e-05 5.255637e-06 8.631609e-06 1.013214e-04 4.379181e-05 3.181435e-05 9.532436e-06
<VARIANCE> 52
 9.982986e-01 9.925906e-01 9.920100e-01 9.925170e-01 9.928971e-01 9.935942e-01 9.939961e-01 9.942454e-01 9.939855e-01 9.943269e-01 9.944976e-01 9.947111e-01 9.948525e-01 9.888736e-01 9.885070e-01 9.907365e-01 9.914576e-01 9.922885e-01 9.931193e-01 9.935310e-01 9.937036e-01 9.939500e-01 9.944153e-01 9.947023e-01 9.949518e-01 9.947671e-01 9.888196e-01 9.893178e-01 9.915614e-01 9.922288e-01 9.930040e-01 9.936484e-01 9.940753e-01 9.942120e-01 9.943750e-01 9.948261e-01 9.950293e-01 9.952248e-01 9.951786e-01 9.887010e-01 9.895580e-01 9.918050e-01 9.924811e-01 9.931912e-01 9.938047e-01 9.941007e-01 9.942819e-01 9.945256e-01 9.949056e-01 9.951692e-01 9.953546e-01 9.951853e-01
<GCONST> 9.522043e+01
<STATE> 4
<MEAN> 52
 -5.446184e-03 -2.177700e-03 7.582359e-04 -9.071669e-04 1.160619e-03 1.247703e-03 1.526337e-03 1.229321e-03 -7.729552e-04 -1.139758e-05 -6.970145e-04 3.112216e-04 -7.576360e-04 -5.194605e-05 -2.506974e-05 -5.720075e-08 1.061453e-06 -4.035867e-05 1.622213e-05 2.427314e-06 -2.866550e-05 -2.447894e-05 -6.293398e-05 -5.921640e-05 -3.460460e-05 1.525308e-05 2.313761e-06 1.400515e-05 2.048172e-05 3.382247e-07 1.938100e-05 1.978888e-05 -1.843696e-05 -3.194313e-05 2.882303e-05 -3.500118e-05 -5.343926e-05 -4.420372e-05 1.356209e-05 8.094844e-06 -2.486496e-05 -2.758133e-05 -1.159590e-05 3.702856e-05 -9.227148e-06 1.689570e-05 5.255637e-06 8.631609e-06 1.013214e-04 4.379181e-05 3.181435e-05 9.532436e-06
<VARIANCE> 52
 9.982986e-01 9.925906e-01 9.920100e-01 9.925170e-01 9.928971e-01 9.935942e-01 9.939961e-01 9.942454e-01 9.939855e-01 9.943269e-01 9.944976e-01 9.947111e-01 9.948525e-01 9.888736e-01 9.885070e-01 9.907365e-01 9.914576e-01 9.922885e-01 9.931193e-01 9.935310e-01 9.937036e-01 9.939500e-01 9.944153e-01 9.947023e-01 9.949518e-01 9.947671e-01 9.888196e-01 9.893178e-01 9.915614e-01 9.922288e-01 9.930040e-01 9.936484e-01 9.940753e-01 9.942120e-01 9.943750e-01 9.948261e-01 9.950293e-01 9.952248e-01 9.951786e-01 9.887010e-01 9.895580e-01 9.918050e-01 9.924811e-01 9.931912e-01 9.938047e-01 9.941007e-01 9.942819e-01 9.945256e-01 9.949056e-01 9.951692e-01 9.953546e-01 9.951853e-01
<GCONST> 9.522043e+01
<TRANSP> 5
 0.000000e+00 1.000000e+00 0.000000e+00 0.000000e+00 0.000000e+00
 0.000000e+00 6.000000e-01 4.000000e-01 0.000000e+00 0.000000e+00
 0.000000e+00 0.000000e+00 6.000000e-01 4.000000e-01 0.000000e+00
 0.000000e+00 0.000000e+00 0.000000e+00 6.000000e-01 4.000000e-01
 0.000000e+00 0.000000e+00 0.000000e+00 0.000000e+00 0.000000e+00
<ENDHMM>
~h "z"
<BEGINHMM>
<NUMSTATES> 5
<STATE> 2
<MEAN> 52
 -5.446184e-03 -2.177700e-03 7.582359e-04 -9.071669e-04 1.160619e-03 1.247703e-03 1.526337e-03 1.229321e-03 -7.729552e-04 -1.139758e-05 -6.970145e-04 3.112216e-04 -7.576360e-04 -5.194605e-05 -2.506974e-05 -5.720075e-08 1.061453e-06 -4.035867e-05 1.622213e-05 2.427314e-06 -2.866550e-05 -2.447894e-05 -6.293398e-05 -5.921640e-05 -3.460460e-05 1.525308e-05 2.313761e-06 1.400515e-05 2.048172e-05 3.382247e-07 1.938100e-05 1.978888e-05 -1.843696e-05 -3.194313e-05 2.882303e-05 -3.500118e-05 -5.343926e-05 -4.420372e-05 1.356209e-05 8.094844e-06 -2.486496e-05 -2.758133e-05 -1.159590e-05 3.702856e-05 -9.227148e-06 1.689570e-05 5.255637e-06 8.631609e-06 1.013214e-04 4.379181e-05 3.181435e-05 9.532436e-06
<VARIANCE> 52
 9.982986e-01 9.925906e-01 9.920100e-01 9.925170e-01 9.928971e-01 9.935942e-01 9.939961e-01 9.942454e-01 9.939855e-01 9.943269e-01 9.944976e-01 9.947111e-01 9.948525e-01 9.888736e-01 9.885070e-01 9.907365e-01 9.914576e-01 9.922885e-01 9.931193e-01 9.935310e-01 9.937036e-01 9.939500e-01 9.944153e-01 9.947023e-01 9.949518e-01 9.947671e-01 9.888196e-01 9.893178e-01 9.915614e-01 9.922288e-01 9.930040e-01 9.936484e-01 9.940753e-01 9.942120e-01 9.943750e-01 9.948261e-01 9.950293e-01 9.952248e-01 9.951786e-01 9.887010e-01 9.895580e-01 9.918050e-01 9.924811e-01 9.931912e-01 9.938047e-01 9.941007e-01 9.942819e-01 9.945256e-01 9.949056e-01 9.951692e-01 9.953546e-01 9.951853e-01
<GCONST> 9.522043e+01
<STATE> 3
<MEAN> 52
