
\data\
ngram 1=36
ngram 2=846

\1-grams:
-1.303609	</s>
-99	<s>	-4.038884
-0.7810138	aa	-2.481224
-1.591961	ae	-3.565847
-2.242853	aw	-4.471274
-1.98391	ay	-3.288553
-1.50214	b	-3.609675
-2.084876	ch	-4.566947
-1.548536	d	-3.444128
-2.413578	dr	-4.349566
-2.29007	ey	-4.360868
-1.745633	f	-3.780119
-2.467022	gh	-4.447929
-1.483756	ghr	-3.566311
-1.834396	hh	-4.956709
-1.717129	hr	-3.956272
-0.9363421	ih	-2.43938
-1.353775	iy	-3.524382
-2.011543	jh	-4.676118
-1.529468	k	-4.022014
-1.20097	l	-3.218673
-1.306189	m	-4.140755
-1.255771	n	-1.791898
-2.178448	oo	-4.536717
-2.217387	q	-4.661362
-1.397755	r	-3.23292
-1.650741	s	-3.814507
-1.721055	sh	-4.103769
-2.287498	sr	-4.558717
-1.341793	t	-2.942084
-3.413578	th	-3.977805
-1.947256	tr	-4.766045
-1.901343	u	-4.730124
-1.691247	uw	-3.545047
-1.881763	w	-4.966965
-2.076381	z	-4.66101

\2-grams:
-1.390902	<s> aa
-1.65233	<s> ae
-3.690187	<s> aw
-2.610608	<s> ay
-1.408722	<s> b
-1.579166	<s> ch
-2.198405	<s> d
-2.844717	<s> dr
-2.411022	<s> ey
-1.163415	<s> f
-2.610608	<s> gh
-1.404198	<s> ghr
-1.125088	<s> hh
-2.017664	<s> hr
-0.8049579	<s> ih
-2.786717	<s> iy
-2.109981	<s> jh
-1.274781	<s> k
-1.075912	<s> l
-1.093157	<s> m
-1.513664	<s> n
-2.735559	<s> q
-1.596334	<s> r
-1.702985	<s> s
-0.953357	<s> sh
-2.610608	<s> sr
-1.549877	<s> t
-2.411022	<s> tr
-2.328044	<s> uw
-1.300588	<s> w
-3.690187	<s> z
-1.298561	aa </s>
-2.496379	aa aa
-2.850665	aa ae
-2.309289	aa aw
-2.644184	aa ay
-1.238324	aa b
-1.860193	aa ch
-1.232371	aa d
-1.98449	aa dr
-3.036312	aa ey
-1.602781	aa f
-2.540285	aa gh
-1.146795	aa ghr
-1.725237	aa hh
-1.362955	aa hr
-1.269871	aa ih
-1.98966	aa iy
-1.776213	aa jh
-1.098765	aa k
-0.9803953	aa l
-1.115117	aa m
-2.406201	aa n
-2.155473	aa q
-0.9768459	aa r
-1.346679	aa s
-1.728076	aa sh
-1.98449	aa sr
-1.25238	aa t
-2.797417	aa th
-1.762126	aa tr
-3.367338	aa uw
-2.367282	aa w
-1.630312	aa z
-0.7339485	ae </s>
-1.487592	ae aa
-2.12267	ae aw
-2.255304	ae ay
-1.419134	ae b
-2.170977	ae ch
-1.821628	ae d
-2.799449	ae dr
-2.799449	ae ey
-1.910053	ae f
-3.401835	ae gh
-1.461886	ae ghr
-2.039692	ae hh
-2.924424	ae hr
-1.428277	ae ih
-2.447206	ae iy
-1.738652	ae jh
-1.344499	ae k
-1.380215	ae l
-1.026654	ae m
-0.667402	ae n
-2.623322	ae q
-1.340706	ae r
-1.970053	ae s
-1.197283	ae sh
-3.401835	ae sr
-1.419134	ae t
-2.556365	ae tr
-1.970053	ae uw
-1.810347	ae w
-2.360047	ae z
-0.6641409	aw aa
-1.574432	aw ae
-2.148535	aw ay
-1.972386	aw b
-1.495245	aw ghr
-0.9244258	aw ih
-0.7252032	aw iy
-1.449496	aw jh
-1.449474	aw l
-1.671329	aw m
-2.449467	aw n
-1.24537	aw q
-1.319149	aw r
-1.232002	aw s
-1.972422	aw sr
-1.449481	aw t
-1.972412	aw u
-1.636585	aw uw
-1.219039	aw w
-1.49095	ay </s>
-0.5111417	ay aa
-1.441261	ay ae
-2.055257	ay b
-2.055257	ay ch
-1.754202	ay d
-3.009885	ay dr
-2.106415	ay ey
-2.310568	ay f
-2.231372	ay gh
-0.821933	ay ghr
-1.779028	ay hh
-1.754202	ay hr
-1.040973	ay ih
-1.465395	ay iy
-3.009885	ay k
-2.164415	ay l
-1.930306	ay m
-1.895541	ay n
-1.532344	ay oo
-0.8856025	ay r
-1.611528	ay s
-2.4075	ay sh
-2.231372	ay sr
-2.055257	ay t
-1.930306	ay tr
-2.009494	ay uw
-2.708638	ay w
-1.370651	b </s>
-0.7080336	b aa
-1.326872	b ae
-2.646186	b aw
-1.766954	b ay
-2.315159	b b
-2.345124	b ch
-2.212491	b d
-2.713143	b dr
-2.212491	b ey
-2.646186	b gh
-1.527439	b ghr
-2.111028	b hh
-2.212491	b hr
-0.4758622	b ih
-1.063088	b iy
-2.792338	b jh
-2.713143	b k
-1.809989	b l
-1.46592	b m
-2.345124	b n
-2.345124	b r
-1.857763	b s
-1.867983	b sh
-2.713143	b sr
-1.260775	b t
-2.713143	b tr
-1.838019	b u
-1.536984	b uw
-1.889172	b w
-2.130327	ch </s>
-0.2429015	ch aa
-1.528282	ch ae
-1.417134	ch ay
-1.528281	ch d
-2.1304	ch dr
-2.130398	ch ey
-2.209568	ch f
-1.200902	ch ih
-1.732394	ch iy
-1.794529	ch l
-1.794539	ch m
-2.063373	ch n
-1.607474	ch oo
-2.431381	ch r
-2.130371	ch s
-1.493526	ch sr
-2.005395	ch t
-1.417134	ch tr
-1.510558	ch u
-2.063431	ch w
-1.607473	ch z
-1.301813	d </s>
-0.6181033	d aa
-0.9591052	d ae
-1.541741	d aw
-2.029869	d ay
-2.102422	d b
-2.122627	d ch
-2.599789	d d
-2.122627	d f
-2.599789	d gh
-1.90077	d ghr
-1.926324	d hh
-2.666746	d hr
-0.961953	d ih
-0.8299291	d iy
-1.42364	d k
-1.842776	d l
-1.737264	d m
-1.720558	d n
-1.688958	d oo
-2.330915	d r
-2.122627	d s
-2.214402	d sh
-1.505311	d t
-2.666746	d th
-3.44526	d tr
-1.525752	d u
-1.289492	d uw
-2.36568	d w
-2.666746	d z
-1.074636	dr </s>
-0.5344535	dr aa
-1.403709	dr ae
-1.257581	dr ay
-1.801701	dr gh
-1.734713	dr ghr
-1.433676	dr hr
-1.088408	dr ih
-0.9170281	dr iy
-1.734716	dr k
-1.301028	dr l
-1.801644	dr m
-1.257571	dr r
-1.977791	dr s
-1.433681	dr tr
-1.278771	dr u
-1.801689	dr w
-0.8282295	ey </s>
-1.424477	ey aa
-1.74907	ey ae
-1.624121	ey b
-1.925167	ey d
-1.858231	ey f
-1.381078	ey ghr
-1.271939	ey hh
-2.004372	ey hr
-1.211908	ey ih
-0.9251403	ey iy
-1.858215	ey k
-1.557151	ey l
-0.7948059	ey m
-1.424533	ey n
-1.589377	ey q
-1.589365	ey s
-1.402274	ey sh
-1.38109	ey sr
-1.288318	ey t
-1.925195	ey tr
-1.589372	ey w
-1.288691	f </s>
-0.7521849	f aa
-1.462405	f ae
-2.469649	f aw
-1.265461	f ay
-1.886019	f b
-2.469649	f ch
-2.402692	f ey
-1.849805	f ghr
-1.94672	f hh
-1.81638	f hr
-0.6478459	f ih
-0.8099788	f iy
-2.344692	f k
-1.667956	f l
-1.867535	f m
-2.402692	f n
-1.925529	f oo
-2.133818	f q
-1.867535	f r
-2.133818	f s
-1.968997	f sh
-1.046333	f t
-2.469649	f u
-1.434821	f uw
-1.849805	f w
-0.3388158	gh aa
-2.22546	gh ae
-1.204138	gh ay
-1.44718	gh ghr
-0.8450945	gh ih
-1.007831	gh iy
-1.079185	gh l
-1.681267	gh m
-1.681299	gh q
-1.484967	gh r
-1.74825	gh u
-1.681288	gh uw
-1.545823	ghr </s>
-0.3844502	ghr aa
-1.802044	ghr ae
-2.66457	ghr aw
-1.769251	ghr ay
-2.66457	ghr b
-2.731527	ghr ch
-1.545823	ghr d
-2.66457	ghr dr
-2.395696	ghr ey
-2.66457	ghr f
-2.430461	ghr ghr
-2.208597	ghr hh
-0.624245	ghr ih
-1.545823	ghr iy
-2.731527	ghr jh
-2.062463	ghr k
-1.345256	ghr l
-1.240095	ghr m
-1.929834	ghr n
-1.941416	ghr oo
-1.793611	ghr r
-2.66457	ghr s
-2.254357	ghr sh
-2.078258	ghr t
-2.395696	ghr tr
-1.907557	ghr u
-2.004469	ghr uw
-2.078258	ghr w
-2.395696	ghr z
-1.83675	hh </s>
-0.3188581	hh aa
-1.696576	hh ae
-1.653828	hh aw
-1.403097	hh ay
-1.109751	hh ey
-2.045038	hh ghr
-1.346046	hh ih
-1.442964	hh iy
-2.380852	hh k
-1.546181	hh l
-0.9234391	hh oo
-1.640456	hh r
-1.352791	hh u
-1.496214	hh uw
-2.313916	hh w
-1.412915	hr </s>
-0.4237526	hr aa
-2.234879	hr ae
-1.975224	hr aw
-1.744766	hr ay
-2.498153	hr b
-1.197054	hr d
-1.997501	hr ghr
-2.431196	hr hr
-0.9687381	hr ih
-1.077578	hr iy
-1.975224	hr jh
-1.367752	hr k
-1.861275	hr l
-1.674183	hr m
-1.040706	hr n
-2.498153	hr r
-2.498153	hr sh
-2.130135	hr sr
-1.418905	hr t
-2.498153	hr tr
-1.613484	hr u
-1.708042	hr uw
-2.341062	ih </s>
-2.048461	ih aa
-3.212021	ih ae
-3.015704	ih ay
-1.467109	ih b
-2.349496	ih ch
-1.365093	ih d
-2.182002	ih dr
-3.057101	ih ey
-1.555999	ih f
-2.316702	ih gh
-1.608352	ih ghr
-2.000156	ih hh
-1.382197	ih hr
-2.609915	ih ih
-2.244151	ih iy
-1.80664	ih jh
-1.796988	ih k
-0.7670228	ih l
-1.317486	ih m
-0.6147344	ih n
-2.07479	ih q
-1.316695	ih r
-1.309646	ih s
-1.591676	ih sh
-2.044224	ih sr
-1.033394	ih t
-3.278978	ih th
-1.590191	ih tr
-3.102863	ih uw
-2.211965	ih w
-1.716615	ih z
-0.9210852	iy </s>
-1.652819	iy aa
-1.26119	iy ae
-3.640021	iy ay
-1.27786	iy b
-2.435493	iy ch
-1.236467	iy d
-2.463524	iy dr
-2.525676	iy ey
-1.406592	iy f
-2.360855	iy gh
-1.549685	iy ghr
-2.13445	iy hh
-1.915318	iy hr
-1.12504	iy ih
-2.861507	iy iy
-1.940625	iy jh
-1.594267	iy k
-1.048523	iy l
-1.55323	iy m
-0.9721341	iy n
-2.121085	iy oo
-2.384338	iy q
-1.056388	iy r
-1.556804	iy s
-1.443689	iy sh
-1.275976	iy t
-2.095531	iy tr
-1.847201	iy uw
-2.037537	iy w
-2.241663	iy z
-0.547246	jh aa
-1.390759	jh ae
-1.703085	jh aw
-2.379845	jh ay
-2.078749	jh b
-2.203699	jh d
-1.390764	jh ey
-1.867887	jh ghr
-1.566857	jh hh
-0.6764644	jh ih
-0.8115572	jh iy
-2.136704	jh l
-1.867876	jh m
-1.726543	jh n
-2.20373	jh oo
-1.601611	jh r
-1.680791	jh t
-1.566858	jh u
-1.309726	jh uw
-1.63941	jh w
-0.7504033	k </s>
-0.7019659	k aa
-1.422504	k ae
-2.618857	k aw
-2.509699	k ay
-1.410818	k b
-2.384748	k ch
-2.685814	k dr
-2.349983	k ey
-2.349983	k f
-1.739625	k ghr
-1.62505	k hh
-2.06597	k hr
-0.8542997	k ih
-1.225849	k iy
-2.185162	k jh
-2.317796	k k
-1.45106	k l
-1.671508	k m
-2.141694	k oo
-1.583085	k r
-2.06597	k s
-2.685814	k sh
-2.349983	k sr
-1.113647	k t
-1.343322	k u
-1.606567	k uw
-1.972545	k w
-2.618857	k z
-1.419482	l </s>
-0.5449097	l aa
-1.182798	l ae
-1.80117	l aw
-1.739317	l ay
-1.564508	l b
-1.716848	l ch
-2.646295	l d
-2.947356	l dr
-2.646295	l ey
-2.000007	l f
-2.036525	l gh
-1.442146	l ghr
-2.179618	l hh
-1.727937	l hr
-0.9429729	l ih
-1.203561	l iy
-2.068124	l jh
-1.796761	l k
-2.139189	l l
-0.893119	l m
-2.08483	l n
-2.139189	l oo
-1.525222	l q
-3.19044	l r
-2.361044	l s
-2.248336	l sh
-3.014313	l sr
-2.260926	l t
-2.646295	l tr
-2.361044	l u
-1.713214	l uw
-1.706035	l w
-1.556842	m </s>
-0.4943263	m aa
-1.709453	m ae
-1.695951	m aw
-2.608027	m ay
-1.874265	m b
-2.118982	m ch
-2.043729	m d
-1.641853	m ey
-2.272215	m f
-2.118982	m ghr
-2.168671	m hh
-2.573262	m hr
-0.7310042	m ih
-1.032997	m iy
-2.364974	m jh
-1.85467	m k
-1.861104	m l
-1.392708	m n
-2.1074	m oo
-2.1074	m r
-1.569904	m s
-1.954786	m sh
-1.403873	m t
-1.158257	m u
-1.806364	m uw
-2.386164	m w
-2.909093	m z
-1.01826	n </s>
-0.7110573	n aa
-1.62365	n ae
-2.959511	n aw
-2.275207	n ay
-1.502064	n b
-2.339668	n ch
-1.100101	n d
-2.892554	n dr
-2.232454	n ey
-1.737594	n f
-2.959511	n gh
-1.839969	n ghr
-1.627004	n hh
-1.892498	n hr
-0.8993716	n ih
-1.314346	n iy
-2.357397	n jh
-1.931417	n k
-1.755323	n l
-1.379657	n m
-1.851105	n n
-1.938257	n oo
-2.892554	n q
-1.845501	n r
-1.783352	n s
-1.97417	n sh
-1.97417	n sr
-1.249041	n t
-1.499547	n tr
-2.146537	n u
-1.522749	n uw
-1.70821	n w
-1.886338	n z
-1.283435	oo </s>
-1.202134	oo b
-1.735762	oo ch
-1.399948	oo d
-1.735766	oo gh
-1.107346	oo ghr
-1.735758	oo hh
-1.969741	oo ih
-1.969842	oo k
-1.098908	oo l
-1.133672	oo m
-0.432896	oo n
-1.96987	oo q
-1.323555	oo r
-1.668803	oo s
-1.323553	oo t
-1.969853	oo uw
-1.969862	oo w
-1.700998	oo z
-1.497229	q </s>
-0.2640894	q aa
-2.077062	q ae
-1.99789	q aw
-1.93093	q ay
-1.997865	q ghr
-1.696822	q hh
-0.722894	q ih
-1.122766	q iy
-1.6968	q l
-2.077066	q s
-1.453772	q u
-1.45377	q uw
-1.061582	r </s>
-0.5304007	r aa
-1.63657	r ae
-2.750571	r aw
-1.847426	r ay
-1.516429	r b
-2.481697	r ch
-2.215413	r d
-1.879611	r dr
-2.197684	r ey
-2.004553	r f
-2.294598	r gh
-1.578577	r ghr
-1.839739	r hh
-2.06414	r hr
-0.8737966	r ih
-0.9661978	r iy
-1.516429	r jh
-1.7827	r k
-1.763104	r l
-1.61334	r m
-2.18065	r n
-2.06414	r oo
-2.516461	r q
-2.817528	r r
-2.273408	r s
-2.817528	r sh
-1.323767	r t
-2.340358	r tr
-2.215413	r u
-1.431257	r uw
-2.481697	r w
-1.610234	s </s>
-0.593658	s aa
-1.824119	s ae
-2.041612	s aw
-1.035126	s ay
-1.78633	s b
-2.22871	s d
-2.196523	s f
-2.041612	s ghr
-2.263475	s hh
-0.9017125	s ih
-1.061589	s iy
-2.497584	s jh
-1.351398	s k
-1.172361	s l
-1.351398	s m
-2.564541	s n
-2.564541	s oo
-2.041612	s r
-2.564541	s sh
-2.196523	s sr
-1.020403	s t
-2.564541	s tr
-2.020422	s u
-1.278166	s uw
-2.263475	s w
-1.825163	sh </s>
-0.6542588	sh aa
-1.692534	sh ae
-1.950107	sh ay
-1.681252	sh b
-1.840958	sh ey
-2.158396	sh gh
-2.42727	sh ghr
-2.494227	sh hh
-2.494227	sh hr
-0.7908646	sh ih
-1.299183	sh iy
-2.42727	sh jh
-1.591074	sh k
-1.780958	sh l
-1.609558	sh m
-2.494227	sh oo
-1.591074	sh q
-1.556311	sh r
-2.158396	sh sr
-1.649067	sh t
-2.42727	sh tr
-1.548038	sh u
-0.5821106	sh uw
-1.767169	sh w
-1.860785	sr </s>
-0.2744978	sr aa
-2.706142	sr ae
-2.103897	sr ay
-1.274509	sr b
-1.114792	sr ih
-0.973473	sr iy
-1.093081	sr l
-1.860785	sr m
-1.559743	sr n
-1.591951	sr oo
-1.860793	sr r
-1.450611	sr u
-1.927772	sr w
-1.164432	t </s>
-0.6250359	t aa
-1.370538	t ae
-2.095278	t aw
-2.174462	t ay
-1.565212	t b
-2.505472	t ch
-2.806533	t d
-2.572424	t dr
-2.39632	t ey
-2.02833	t f
-2.204426	t gh
-1.660347	t ghr
-2.697375	t hh
-1.638736	t hr
-0.6270835	t ih
-1.469728	t iy
-2.02833	t jh
-1.812726	t k
-1.337704	t l
-1.416043	t m
-1.873425	t n
-1.944007	t oo
-1.565212	t r
-1.743089	t s
-1.812726	t sh
-2.505472	t sr
-2.35056	t t
-2.505472	t tr
-2.204426	t u
-1.770761	t uw
-1.514851	t w
-2.146432	t z
-0.8016568	th aa
-0.7347189	th ih
-0.5006321	th iy
-0.465872	th u
-1.364864	tr </s>
-0.4462194	tr aa
-1.815669	tr ae
-2.201062	tr aw
-1.502047	tr ay
-1.932175	tr b
-2.268015	tr ch
-2.267987	tr d
-1.932183	tr f
-1.631138	tr ghr
-2.268006	tr hh
-0.5777557	tr ih
-1.540957	tr iy
-1.422853	tr l
-1.899984	tr r
-1.767366	tr sh
-1.20726	tr u
-1.267958	tr uw
-2.201053	tr w
-2.313857	u </s>
-2.246746	u aa
-1.100794	u b
-1.376022	u ch
-1.560544	u d
-1.50096	u f
-1.419923	u ghr
-1.945911	u hh
-1.448571	u hr
-2.313923	u jh
-1.216959	u k
-1.328587	u l
-1.12823	u m
-0.6770447	u n
-2.012868	u q
-0.9714448	u r
-1.172943	u s
-1.769811	u sh
-1.978105	u sr
-1.790987	u t
-1.246925	u tr
-1.429267	u w
-2.24697	u z
-1.53127	uw </s>
-1.921921	uw aa
-3.302549	uw ae
-3.001302	uw ay
-1.333636	uw b
-2.001106	uw ch
-1.215758	uw d
-2.524035	uw dr
-1.245213	uw f
-2.524035	uw gh
-1.046844	uw ghr
-1.796978	uw hh
-1.306484	uw hr
-1.111786	uw ih
-2.700163	uw iy
-1.921921	uw jh
-1.357637	uw k
-0.9946205	uw l
-1.2529	uw m
-1.034945	uw n
-2.046866	uw q
-1.393635	uw r
-2.156017	uw s
-2.188205	uw sh
-2.188205	uw sr
-1.1348	uw t
-1.383042	uw tr
-1.328991	uw w
-2.188205	uw z
-0.3504217	w aa
-0.7332018	w ae
-1.810587	w ay
-2.333511	w ch
-2.333486	w ghr
-0.6462147	w ih
-1.664446	w iy
-2.412639	w l
-2.63451	w n
-2.266528	w r
-1.769183	w t
-2.810751	w tr
-1.213976	w u
-2.266545	w uw
-1.519042	z </s>
-0.5885964	z aa
-1.325921	z ae
-2.071938	z aw
-2.315008	z ay
-1.372917	z b
-1.385513	z gh
-1.485623	z ghr
-0.5440661	z ih
-0.9531932	z iy
-1.770848	z l
-2.071889	z m
-1.837799	z n
-1.615956	z r
-2.071919	z s
-1.740894	z t
-2.07193	z u
-1.411839	z uw

\end\
