~h "a"
<BEGINHMM>
<NUMSTATES> 5
<STATE> 2
<MEAN> 52
 -3.237634e-03 -1.391279e-03 -8.262911e-05 -1.122740e-03 9.051822e-04 8.561655e-04 5.421659e-04 4.495496e-04 -2.752488e-04 8.154924e-06 -3.798308e-04 2.144828e-04 -3.312209e-04 8.521574e-06 -9.365131e-06 -1.936900e-05 -2.384529e-05 -5.609500e-07 -3.551575e-05 1.844930e-05 -2.820318e-06 7.114324e-06 3.341927e-06 9.052233e-06 1.390215e-05 -6.865957e-07 6.779776e-06 1.247756e-05 -7.767159e-06 -5.191266e-06 -3.627939e-06 7.386743e-06 -6.057816e-06 -1.720908e-05 5.653035e-06 6.812852e-06 3.752127e-06 -2.692360e-05 -8.301507e-07 -6.263677e-06 -2.320382e-06 5.290201e-06 7.307784e-06 4.835456e-06 1.478821e-05 -7.153999e-06 5.624742e-06 7.794187e-06 1.206940e-05 -4.297496e-06 -1.690389e-06 1.713422e-06
<VARIANCE> 52
 9.693827e-01 9.490988e-01 9.509500e-01 9.497455e-01 9.492549e-01 9.504328e-01 9.503285e-01 9.500347e-01 9.505810e-01 9.502516e-01 9.508119e-01 9.507663e-01 9.503254e-01 9.538604e-01 9.488760e-01 9.475554e-01 9.460266e-01 9.466631e-01 9.472264e-01 9.479030e-01 9.477243e-01 9.480619e-01 9.488434e-01 9.489795e-01 9.492203e-01 9.491611e-01 9.529102e-01 9.487384e-01 9.476135e-01 9.469678e-01 9.476421e-01 9.480522e-01 9.485283e-01 9.485537e-01 9.489086e-01 9.492924e-01 9.496555e-01 9.497917e-01 9.497947e-01 9.525670e-01 9.479044e-01 9.471812e-01 9.468592e-01 9.476216e-01 9.481256e-01 9.487469e-01 9.488084e-01 9.490091e-01 9.494916e-01 9.497656e-01 9.498795e-01 9.498689e-01
<GCONST> 9.287507e+01
<STATE> 3
<MEAN> 52
 -3.237634e-03 -1.391279e-03 -8.262911e-05 -1.122740e-03 9.051822e-04 8.561655e-04 5.421659e-04 4.495496e-04 -2.752488e-04 8.154924e-06 -3.798308e-04 2.144828e-04 -3.312209e-04 8.521574e-06 -9.365131e-06 -1.936900e-05 -2.384529e-05 -5.609500e-07 -3.551575e-05 1.844930e-05 -2.820318e-06 7.114324e-06 3.341927e-06 9.052233e-06 1.390215e-05 -6.865957e-07 6.779776e-06 1.247756e-05 -7.767159e-06 -5.191266e-06 -3.627939e-06 7.386743e-06 -6.057816e-06 -1.720908e-05 5.653035e-06 6.812852e-06 3.752127e-06 -2.692360e-05 -8.301507e-07 -6.263677e-06 -2.320382e-06 5.290201e-06 7.307784e-06 4.835456e-06 1.478821e-05 -7.153999e-06 5.624742e-06 7.794187e-06 1.206940e-05 -4.297496e-06 -1.690389e-06 1.713422e-06
<VARIANCE> 52
 9.693827e-01 9.490988e-01 9.509500e-01 9.497455e-01 9.492549e-01 9.504328e-01 9.503285e-01 9.500347e-01 9.505810e-01 9.502516e-01 9.508119e-01 9.507663e-01 9.503254e-01 9.538604e-01 9.488760e-01 9.475554e-01 9.460266e-01 9.466631e-01 9.472264e-01 9.479030e-01 9.477243e-01 9.480619e-01 9.488434e-01 9.489795e-01 9.492203e-01 9.491611e-01 9.529102e-01 9.487384e-01 9.476135e-01 9.469678e-01 9.476421e-01 9.480522e-01 9.485283e-01 9.485537e-01 9.489086e-01 9.492924e-01 9.496555e-01 9.497917e-01 9.497947e-01 9.525670e-01 9.479044e-01 9.471812e-01 9.468592e-01 9.476216e-01 9.481256e-01 9.487469e-01 9.488084e-01 9.490091e-01 9.494916e-01 9.497656e-01 9.498795e-01 9.498689e-01
<GCONST> 9.287507e+01
<STATE> 4
<MEAN> 52
 -3.237634e-03 -1.391279e-03 -8.262911e-05 -1.122740e-03 9.051822e-04 8.561655e-04 5.421659e-04 4.495496e-04 -2.752488e-04 8.154924e-06 -3.798308e-04 2.144828e-04 -3.312209e-04 8.521574e-06 -9.365131e-06 -1.936900e-05 -2.384529e-05 -5.609500e-07 -3.551575e-05 1.844930e-05 -2.820318e-06 7.114324e-06 3.341927e-06 9.052233e-06 1.390215e-05 -6.865957e-07 6.779776e-06 1.247756e-05 -7.767159e-06 -5.191266e-06 -3.627939e-06 7.386743e-06 -6.057816e-06 -1.720908e-05 5.653035e-06 6.812852e-06 3.752127e-06 -2.692360e-05 -8.301507e-07 -6.263677e-06 -2.320382e-06 5.290201e-06 7.307784e-06 4.835456e-06 1.478821e-05 -7.153999e-06 5.624742e-06 7.794187e-06 1.206940e-05 -4.297496e-06 -1.690389e-06 1.713422e-06
<VARIANCE> 52
 9.693827e-01 9.490988e-01 9.509500e-01 9.497455e-01 9.492549e-01 9.504328e-01 9.503285e-01 9.500347e-01 9.505810e-01 9.502516e-01 9.508119e-01 9.507663e-01 9.503254e-01 9.538604e-01 9.488760e-01 9.475554e-01 9.460266e-01 9.466631e-01 9.472264e-01 9.479030e-01 9.477243e-01 9.480619e-01 9.488434e-01 9.489795e-01 9.492203e-01 9.491611e-01 9.529102e-01 9.487384e-01 9.476135e-01 9.469678e-01 9.476421e-01 9.480522e-01 9.485283e-01 9.485537e-01 9.489086e-01 9.492924e-01 9.496555e-01 9.497917e-01 9.497947e-01 9.525670e-01 9.479044e-01 9.471812e-01 9.468592e-01 9.476216e-01 9.481256e-01 9.487469e-01 9.488084e-01 9.490091e-01 9.494916e-01 9.497656e-01 9.498795e-01 9.498689e-01
<GCONST> 9.287507e+01
<TRANSP> 5
 0.000000e+00 1.000000e+00 0.000000e+00 0.000000e+00 0.000000e+00
 0.000000e+00 6.000000e-01 4.000000e-01 0.000000e+00 0.000000e+00
 0.000000e+00 0.000000e+00 6.000000e-01 4.000000e-01 0.000000e+00
 0.000000e+00 0.000000e+00 0.000000e+00 6.000000e-01 4.000000e-01
 0.000000e+00 0.000000e+00 0.000000e+00 0.000000e+00 0.000000e+00
<ENDHMM>
~h "j"
<BEGINHMM>
<NUMSTATES> 5
<STATE> 2
<MEAN> 52
 -3.237634e-03 -1.391279e-03 -8.262911e-05 -1.122740e-03 9.051822e-04 8.561655e-04 5.421659e-04 4.495496e-04 -2.752488e-04 8.154924e-06 -3.798308e-04 2.144828e-04 -3.312209e-04 8.521574e-06 -9.365131e-06 -1.936900e-05 -2.384529e-05 -5.609500e-07 -3.551575e-05 1.844930e-05 -2.820318e-06 7.114324e-06 3.341927e-06 9.052233e-06 1.390215e-05 -6.865957e-07 6.779776e-06 1.247756e-05 -7.767159e-06 -5.191266e-06 -3.627939e-06 7.386743e-06 -6.057816e-06 -1.720908e-05 5.653035e-06 6.812852e-06 3.752127e-06 -2.692360e-05 -8.301507e-07 -6.263677e-06 -2.320382e-06 5.290201e-06 7.307784e-06 4.835456e-06 1.478821e-05 -7.153999e-06 5.624742e-06 7.794187e-06 1.206940e-05 -4.297496e-06 -1.690389e-06 1.713422e-06
<VARIANCE> 52
 9.693827e-01 9.490988e-01 9.509500e-01 9.497455e-01 9.492549e-01 9.504328e-01 9.503285e-01 9.500347e-01 9.505810e-01 9.502516e-01 9.508119e-01 9.507663e-01 9.503254e-01 9.538604e-01 9.488760e-01 9.475554e-01 9.460266e-01 9.466631e-01 9.472264e-01 9.479030e-01 9.477243e-01 9.480619e-01 9.488434e-01 9.489795e-01 9.492203e-01 9.491611e-01 9.529102e-01 9.487384e-01 9.476135e-01 9.469678e-01 9.476421e-01 9.480522e-01 9.485283e-01 9.485537e-01 9.489086e-01 9.492924e-01 9.496555e-01 9.497917e-01 9.497947e-01 9.525670e-01 9.479044e-01 9.471812e-01 9.468592e-01 9.476216e-01 9.481256e-01 9.487469e-01 9.488084e-01 9.490091e-01 9.494916e-01 9.497656e-01 9.498795e-01 9.498689e-01
<GCONST> 9.287507e+01
<STATE> 3
<MEAN> 52
 -3.237634e-03 -1.391279e-03 -8.262911e-05 -1.122740e-03 9.051822e-04 8.561655e-04 5.421659e-04 4.495496e-04 -2.752488e-04 8.154924e-06 -3.798308e-04 2.144828e-04 -3.312209e-04 8.521574e-06 -9.365131e-06 -1.936900e-05 -2.384529e-05 -5.609500e-07 -3.551575e-05 1.844930e-05 -2.820318e-06 7.114324e-06 3.341927e-06 9.052233e-06 1.390215e-05 -6.865957e-07 6.779776e-06 1.247756e-05 -7.767159e-06 -5.191266e-06 -3.627939e-06 7.386743e-06 -6.057816e-06 -1.720908e-05 5.653035e-06 6.812852e-06 3.752127e-06 -2.692360e-05 -8.301507e-07 -6.263677e-06 -2.320382e-06 5.290201e-06 7.307784e-06 4.835456e-06 1.478821e-05 -7.153999e-06 5.624742e-06 7.794187e-06 1.206940e-05 -4.297496e-06 -1.690389e-06 1.713422e-06
<VARIANCE> 52
 9.693827e-01 9.490988e-01 9.509500e-01 9.497455e-01 9.492549e-01 9.504328e-01 9.503285e-01 9.500347e-01 9.505810e-01 9.502516e-01 9.508119e-01 9.507663e-01 9.503254e-01 9.538604e-01 9.488760e-01 9.475554e-01 9.460266e-01 9.466631e-01 9.472264e-01 9.479030e-01 9.477243e-01 9.480619e-01 9.488434e-01 9.489795e-01 9.492203e-01 9.491611e-01 9.529102e-01 9.487384e-01 9.476135e-01 9.469678e-01 9.476421e-01 9.480522e-01 9.485283e-01 9.485537e-01 9.489086e-01 9.492924e-01 9.496555e-01 9.497917e-01 9.497947e-01 9.525670e-01 9.479044e-01 9.471812e-01 9.468592e-01 9.476216e-01 9.481256e-01 9.487469e-01 9.488084e-01 9.490091e-01 9.494916e-01 9.497656e-01 9.498795e-01 9.498689e-01
<GCONST> 9.287507e+01
<STATE> 4
<MEAN> 52
 -3.237634e-03 -1.391279e-03 -8.262911e-05 -1.122740e-03 9.051822e-04 8.561655e-04 5.421659e-04 4.495496e-04 -2.752488e-04 8.154924e-06 -3.798308e-04 2.144828e-04 -3.312209e-04 8.521574e-06 -9.365131e-06 -1.936900e-05 -2.384529e-05 -5.609500e-07 -3.551575e-05 1.844930e-05 -2.820318e-06 7.114324e-06 3.341927e-06 9.052233e-06 1.390215e-05 -6.865957e-07 6.779776e-06 1.247756e-05 -7.767159e-06 -5.191266e-06 -3.627939e-06 7.386743e-06 -6.057816e-06 -1.720908e-05 5.653035e-06 6.812852e-06 3.752127e-06 -2.692360e-05 -8.301507e-07 -6.263677e-06 -2.320382e-06 5.290201e-06 7.307784e-06 4.835456e-06 1.478821e-05 -7.153999e-06 5.624742e-06 7.794187e-06 1.206940e-05 -4.297496e-06 -1.690389e-06 1.713422e-06
<VARIANCE> 52
 9.693827e-01 9.490988e-01 9.509500e-01 9.497455e-01 9.492549e-01 9.504328e-01 9.503285e-01 9.500347e-01 9.505810e-01 9.502516e-01 9.508119e-01 9.507663e-01 9.503254e-01 9.538604e-01 9.488760e-01 9.475554e-01 9.460266e-01 9.466631e-01 9.472264e-01 9.479030e-01 9.477243e-01 9.480619e-01 9.488434e-01 9.489795e-01 9.492203e-01 9.491611e-01 9.529102e-01 9.487384e-01 9.476135e-01 9.469678e-01 9.476421e-01 9.480522e-01 9.485283e-01 9.485537e-01 9.489086e-01 9.492924e-01 9.496555e-01 9.497917e-01 9.497947e-01 9.525670e-01 9.479044e-01 9.471812e-01 9.468592e-01 9.476216e-01 9.481256e-01 9.487469e-01 9.488084e-01 9.490091e-01 9.494916e-01 9.497656e-01 9.498795e-01 9.498689e-01
<GCONST> 9.287507e+01
<TRANSP> 5
 0.000000e+00 1.000000e+00 0.000000e+00 0.000000e+00 0.000000e+00
 0.000000e+00 6.000000e-01 4.000000e-01 0.000000e+00 0.000000e+00
 0.000000e+00 0.000000e+00 6.000000e-01 4.000000e-01 0.000000e+00
 0.000000e+00 0.000000e+00 0.000000e+00 6.000000e-01 4.000000e-01
 0.000000e+00 0.000000e+00 0.000000e+00 0.000000e+00 0.000000e+00
<ENDHMM>
~h "e"
<BEGINHMM>
<NUMSTATES> 5
<STATE> 2
<MEAN> 52
 -3.237634e-03 -1.391279e-03 -8.262911e-05 -1.122740e-03 9.051822e-04 8.561655e-04 5.421659e-04 4.495496e-04 -2.752488e-04 8.154924e-06 -3.798308e-04 2.144828e-04 -3.312209e-04 8.521574e-06 -9.365131e-06 -1.936900e-05 -2.384529e-05 -5.609500e-07 -3.551575e-05 1.844930e-05 -2.820318e-06 7.114324e-06 3.341927e-06 9.052233e-06 1.390215e-05 -6.865957e-07 6.779776e-06 1.247756e-05 -7.767159e-06 -5.191266e-06 -3.627939e-06 7.386743e-06 -6.057816e-06 -1.720908e-05 5.653035e-06 6.812852e-06 3.752127e-06 -2.692360e-05 -8.301507e-07 -6.263677e-06 -2.320382e-06 5.290201e-06 7.307784e-06 4.835456e-06 1.478821e-05 -7.153999e-06 5.624742e-06 7.794187e-06 1.206940e-05 -4.297496e-06 -1.690389e-06 1.713422e-06
<VARIANCE> 52
 9.693827e-01 9.490988e-01 9.509500e-01 9.497455e-01 9.492549e-01 9.504328e-01 9.503285e-01 9.500347e-01 9.505810e-01 9.502516e-01 9.508119e-01 9.507663e-01 9.503254e-01 9.538604e-01 9.488760e-01 9.475554e-01 9.460266e-01 9.466631e-01 9.472264e-01 9.479030e-01 9.477243e-01 9.480619e-01 9.488434e-01 9.489795e-01 9.492203e-01 9.491611e-01 9.529102e-01 9.487384e-01 9.476135e-01 9.469678e-01 9.476421e-01 9.480522e-01 9.485283e-01 9.485537e-01 9.489086e-01 9.492924e-01 9.496555e-01 9.497917e-01 9.497947e-01 9.525670e-01 9.479044e-01 9.471812e-01 9.468592e-01 9.476216e-01 9.481256e-01 9.487469e-01 9.488084e-01 9.490091e-01 9.494916e-01 9.497656e-01 9.498795e-01 9.498689e-01
<GCONST> 9.287507e+01
<STATE> 3
<MEAN> 52
 -3.237634e-03 -1.391279e-03 -8.262911e-05 -1.122740e-03 9.051822e-04 8.561655e-04 5.421659e-04 4.495496e-04 -2.752488e-04 8.154924e-06 -3.798308e-04 2.144828e-04 -3.312209e-04 8.521574e-06 -9.365131e-06 -1.936900e-05 -2.384529e-05 -5.609500e-07 -3.551575e-05 1.844930e-05 -2.820318e-06 7.114324e-06 3.341927e-06 9.052233e-06 1.390215e-05 -6.865957e-07 6.779776e-06 1.247756e-05 -7.767159e-06 -5.191266e-06 -3.627939e-06 7.386743e-06 -6.057816e-06 -1.720908e-05 5.653035e-06 6.812852e-06 3.752127e-06 -2.692360e-05 -8.301507e-07 -6.263677e-06 -2.320382e-06 5.290201e-06 7.307784e-06 4.835456e-06 1.478821e-05 -7.153999e-06 5.624742e-06 7.794187e-06 1.206940e-05 -4.297496e-06 -1.690389e-06 1.713422e-06
<VARIANCE> 52
 9.693827e-01 9.490988e-01 9.509500e-01 9.497455e-01 9.492549e-01 9.504328e-01 9.503285e-01 9.500347e-01 9.505810e-01 9.502516e-01 9.508119e-01 9.507663e-01 9.503254e-01 9.538604e-01 9.488760e-01 9.475554e-01 9.460266e-01 9.466631e-01 9.472264e-01 9.479030e-01 9.477243e-01 9.480619e-01 9.488434e-01 9.489795e-01 9.492203e-01 9.491611e-01 9.529102e-01 9.487384e-01 9.476135e-01 9.469678e-01 9.476421e-01 9.480522e-01 9.485283e-01 9.485537e-01 9.489086e-01 9.492924e-01 9.496555e-01 9.497917e-01 9.497947e-01 9.525670e-01 9.479044e-01 9.471812e-01 9.468592e-01 9.476216e-01 9.481256e-01 9.487469e-01 9.488084e-01 9.490091e-01 9.494916e-01 9.497656e-01 9.498795e-01 9.498689e-01
<GCONST> 9.287507e+01
<STATE> 4
<MEAN> 52
 -3.237634e-03 -1.391279e-03 -8.262911e-05 -1.122740e-03 9.051822e-04 8.561655e-04 5.421659e-04 4.495496e-04 -2.752488e-04 8.154924e-06 -3.798308e-04 2.144828e-04 -3.312209e-04 8.521574e-06 -9.365131e-06 -1.936900e-05 -2.384529e-05 -5.609500e-07 -3.551575e-05 1.844930e-05 -2.820318e-06 7.114324e-06 3.341927e-06 9.052233e-06 1.390215e-05 -6.865957e-07 6.779776e-06 1.247756e-05 -7.767159e-06 -5.191266e-06 -3.627939e-06 7.386743e-06 -6.057816e-06 -1.720908e-05 5.653035e-06 6.812852e-06 3.752127e-06 -2.692360e-05 -8.301507e-07 -6.263677e-06 -2.320382e-06 5.290201e-06 7.307784e-06 4.835456e-06 1.478821e-05 -7.153999e-06 5.624742e-06 7.794187e-06 1.206940e-05 -4.297496e-06 -1.690389e-06 1.713422e-06
<VARIANCE> 52
 9.693827e-01 9.490988e-01 9.509500e-01 9.497455e-01 9.492549e-01 9.504328e-01 9.503285e-01 9.500347e-01 9.505810e-01 9.502516e-01 9.508119e-01 9.507663e-01 9.503254e-01 9.538604e-01 9.488760e-01 9.475554e-01 9.460266e-01 9.466631e-01 9.472264e-01 9.479030e-01 9.477243e-01 9.480619e-01 9.488434e-01 9.489795e-01 9.492203e-01 9.491611e-01 9.529102e-01 9.487384e-01 9.476135e-01 9.469678e-01 9.476421e-01 9.480522e-01 9.485283e-01 9.485537e-01 9.489086e-01 9.492924e-01 9.496555e-01 9.497917e-01 9.497947e-01 9.525670e-01 9.479044e-01 9.471812e-01 9.468592e-01 9.476216e-01 9.481256e-01 9.487469e-01 9.488084e-01 9.490091e-01 9.494916e-01 9.497656e-01 9.498795e-01 9.498689e-01
<GCONST> 9.287507e+01
<TRANSP> 5
 0.000000e+00 1.000000e+00 0.000000e+00 0.000000e+00 0.000000e+00
 0.000000e+00 6.000000e-01 4.000000e-01 0.000000e+00 0.000000e+00
 0.000000e+00 0.000000e+00 6.000000e-01 4.000000e-01 0.000000e+00
 0.000000e+00 0.000000e+00 0.000000e+00 6.000000e-01 4.000000e-01
 0.000000e+00 0.000000e+00 0.000000e+00 0.000000e+00 0.000000e+00
<ENDHMM>
~h "f"
<BEGINHMM>
<NUMSTATES> 5
<STATE> 2
<MEAN> 52
 -3.237634e-03 -1.391279e-03 -8.262911e-05 -1.122740e-03 9.051822e-04 8.561655e-04 5.421659e-04 4.495496e-04 -2.752488e-04 8.154924e-06 -3.798308e-04 2.144828e-04 -3.312209e-04 8.521574e-06 -9.365131e-06 -1.936900e-05 -2.384529e-05 -5.609500e-07 -3.551575e-05 1.844930e-05 -2.820318e-06 7.114324e-06 3.341927e-06 9.052233e-06 1.390215e-05 -6.865957e-07 6.779776e-06 1.247756e-05 -7.767159e-06 -5.191266e-06 -3.627939e-06 7.386743e-06 -6.057816e-06 -1.720908e-05 5.653035e-06 6.812852e-06 3.752127e-06 -2.692360e-05 -8.301507e-07 -6.263677e-06 -2.320382e-06 5.290201e-06 7.307784e-06 4.835456e-06 1.478821e-05 -7.153999e-06 5.624742e-06 7.794187e-06 1.206940e-05 -4.297496e-06 -1.690389e-06 1.713422e-06
<VARIANCE> 52
 9.693827e-01 9.490988e-01 9.509500e-01 9.497455e-01 9.492549e-01 9.504328e-01 9.503285e-01 9.500347e-01 9.505810e-01 9.502516e-01 9.508119e-01 9.507663e-01 9.503254e-01 9.538604e-01 9.488760e-01 9.475554e-01 9.460266e-01 9.466631e-01 9.472264e-01 9.479030e-01 9.477243e-01 9.480619e-01 9.488434e-01 9.489795e-01 9.492203e-01 9.491611e-01 9.529102e-01 9.487384e-01 9.476135e-01 9.469678e-01 9.476421e-01 9.480522e-01 9.485283e-01 9.485537e-01 9.489086e-01 9.492924e-01 9.496555e-01 9.497917e-01 9.497947e-01 9.525670e-01 9.479044e-01 9.471812e-01 9.468592e-01 9.476216e-01 9.481256e-01 9.487469e-01 9.488084e-01 9.490091e-01 9.494916e-01 9.497656e-01 9.498795e-01 9.498689e-01
<GCONST> 9.287507e+01
<STATE> 3
<MEAN> 52
 -3.237634e-03 -1.391279e-03 -8.262911e-05 -1.122740e-03 9.051822e-04 8.561655e-04 5.421659e-04 4.495496e-04 -2.752488e-04 8.154924e-06 -3.798308e-04 2.144828e-04 -3.312209e-04 8.521574e-06 -9.365131e-06 -1.936900e-05 -2.384529e-05 -5.609500e-07 -3.551575e-05 1.844930e-05 -2.820318e-06 7.114324e-06 3.341927e-06 9.052233e-06 1.390215e-05 -6.865957e-07 6.779776e-06 1.247756e-05 -7.767159e-06 -5.191266e-06 -3.627939e-06 7.386743e-06 -6.057816e-06 -1.720908e-05 5.653035e-06 6.812852e-06 3.752127e-06 -2.692360e-05 -8.301507e-07 -6.263677e-06 -2.320382e-06 5.290201e-06 7.307784e-06 4.835456e-06 1.478821e-05 -7.153999e-06 5.624742e-06 7.794187e-06 1.206940e-05 -4.297496e-06 -1.690389e-06 1.713422e-06
<VARIANCE> 52
 9.693827e-01 9.490988e-01 9.509500e-01 9.497455e-01 9.492549e-01 9.504328e-01 9.503285e-01 9.500347e-01 9.505810e-01 9.502516e-01 9.508119e-01 9.507663e-01 9.503254e-01 9.538604e-01 9.488760e-01 9.475554e-01 9.460266e-01 9.466631e-01 9.472264e-01 9.479030e-01 9.477243e-01 9.480619e-01 9.488434e-01 9.489795e-01 9.492203e-01 9.491611e-01 9.529102e-01 9.487384e-01 9.476135e-01 9.469678e-01 9.476421e-01 9.480522e-01 9.485283e-01 9.485537e-01 9.489086e-01 9.492924e-01 9.496555e-01 9.497917e-01 9.497947e-01 9.525670e-01 9.479044e-01 9.471812e-01 9.468592e-01 9.476216e-01 9.481256e-01 9.487469e-01 9.488084e-01 9.490091e-01 9.494916e-01 9.497656e-01 9.498795e-01 9.498689e-01
<GCONST> 9.287507e+01
<STATE> 4
<MEAN> 52
 -3.237634e-03 -1.391279e-03 -8.262911e-05 -1.122740e-03 9.051822e-04 8.561655e-04 5.421659e-04 4.495496e-04 -2.752488e-04 8.154924e-06 -3.798308e-04 2.144828e-04 -3.312209e-04 8.521574e-06 -9.365131e-06 -1.936900e-05 -2.384529e-05 -5.609500e-07 -3.551575e-05 1.844930e-05 -2.820318e-06 7.114324e-06 3.341927e-06 9.052233e-06 1.390215e-05 -6.865957e-07 6.779776e-06 1.247756e-05 -7.767159e-06 -5.191266e-06 -3.627939e-06 7.386743e-06 -6.057816e-06 -1.720908e-05 5.653035e-06 6.812852e-06 3.752127e-06 -2.692360e-05 -8.301507e-07 -6.263677e-06 -2.320382e-06 5.290201e-06 7.307784e-06 4.835456e-06 1.478821e-05 -7.153999e-06 5.624742e-06 7.794187e-06 1.206940e-05 -4.297496e-06 -1.690389e-06 1.713422e-06
<VARIANCE> 52
 9.693827e-01 9.490988e-01 9.509500e-01 9.497455e-01 9.492549e-01 9.504328e-01 9.503285e-01 9.500347e-01 9.505810e-01 9.502516e-01 9.508119e-01 9.507663e-01 9.503254e-01 9.538604e-01 9.488760e-01 9.475554e-01 9.460266e-01 9.466631e-01 9.472264e-01 9.479030e-01 9.477243e-01 9.480619e-01 9.488434e-01 9.489795e-01 9.492203e-01 9.491611e-01 9.529102e-01 9.487384e-01 9.476135e-01 9.469678e-01 9.476421e-01 9.480522e-01 9.485283e-01 9.485537e-01 9.489086e-01 9.492924e-01 9.496555e-01 9.497917e-01 9.497947e-01 9.525670e-01 9.479044e-01 9.471812e-01 9.468592e-01 9.476216e-01 9.481256e-01 9.487469e-01 9.488084e-01 9.490091e-01 9.494916e-01 9.497656e-01 9.498795e-01 9.498689e-01
<GCONST> 9.287507e+01
<TRANSP> 5
 0.000000e+00 1.000000e+00 0.000000e+00 0.000000e+00 0.000000e+00
 0.000000e+00 6.000000e-01 4.000000e-01 0.000000e+00 0.000000e+00
 0.000000e+00 0.000000e+00 6.000000e-01 4.000000e-01 0.000000e+00
 0.000000e+00 0.000000e+00 0.000000e+00 6.000000e-01 4.000000e-01
 0.000000e+00 0.000000e+00 0.000000e+00 0.000000e+00 0.000000e+00
<ENDHMM>
~h "x"
<BEGINHMM>
<NUMSTATES> 5
<STATE> 2
<MEAN> 52
 -3.237634e-03 -1.391279e-03 -8.262911e-05 -1.122740e-03 9.051822e-04 8.561655e-04 5.421659e-04 4.495496e-04 -2.752488e-04 8.154924e-06 -3.798308e-04 2.144828e-04 -3.312209e-04 8.521574e-06 -9.365131e-06 -1.936900e-05 -2.384529e-05 -5.609500e-07 -3.551575e-05 1.844930e-05 -2.820318e-06 7.114324e-06 3.341927e-06 9.052233e-06 1.390215e-05 -6.865957e-07 6.779776e-06 1.247756e-05 -7.767159e-06 -5.191266e-06 -3.627939e-06 7.386743e-06 -6.057816e-06 -1.720908e-05 5.653035e-06 6.812852e-06 3.752127e-06 -2.692360e-05 -8.301507e-07 -6.263677e-06 -2.320382e-06 5.290201e-06 7.307784e-06 4.835456e-06 1.478821e-05 -7.153999e-06 5.624742e-06 7.794187e-06 1.206940e-05 -4.297496e-06 -1.690389e-06 1.713422e-06
<VARIANCE> 52
 9.693827e-01 9.490988e-01 9.509500e-01 9.497455e-01 9.492549e-01 9.504328e-01 9.503285e-01 9.500347e-01 9.505810e-01 9.502516e-01 9.508119e-01 9.507663e-01 9.503254e-01 9.538604e-01 9.488760e-01 9.475554e-01 9.460266e-01 9.466631e-01 9.472264e-01 9.479030e-01 9.477243e-01 9.480619e-01 9.488434e-01 9.489795e-01 9.492203e-01 9.491611e-01 9.529102e-01 9.487384e-01 9.476135e-01 9.469678e-01 9.476421e-01 9.480522e-01 9.485283e-01 9.485537e-01 9.489086e-01 9.492924e-01 9.496555e-01 9.497917e-01 9.497947e-01 9.525670e-01 9.479044e-01 9.471812e-01 9.468592e-01 9.476216e-01 9.481256e-01 9.487469e-01 9.488084e-01 9.490091e-01 9.494916e-01 9.497656e-01 9.498795e-01 9.498689e-01
<GCONST> 9.287507e+01
<STATE> 3
<MEAN> 52
 -3.237634e-03 -1.391279e-03 -8.262911e-05 -1.122740e-03 9.051822e-04 8.561655e-04 5.421659e-04 4.495496e-04 -2.752488e-04 8.154924e-06 -3.798308e-04 2.144828e-04 -3.312209e-04 8.521574e-06 -9.365131e-06 -1.936900e-05 -2.384529e-05 -5.609500e-07 -3.551575e-05 1.844930e-05 -2.820318e-06 7.114324e-06 3.341927e-06 9.052233e-06 1.390215e-05 -6.865957e-07 6.779776e-06 1.247756e-05 -7.767159e-06 -5.191266e-06 -3.627939e-06 7.386743e-06 -6.057816e-06 -1.720908e-05 5.653035e-06 6.812852e-06 3.752127e-06 -2.692360e-05 -8.301507e-07 -6.263677e-06 -2.320382e-06 5.290201e-06 7.307784e-06 4.835456e-06 1.478821e-05 -7.153999e-06 5.624742e-06 7.794187e-06 1.206940e-05 -4.297496e-06 -1.690389e-06 1.713422e-06
<VARIANCE> 52
 9.693827e-01 9.490988e-01 9.509500e-01 9.497455e-01 9.492549e-01 9.504328e-01 9.503285e-01 9.500347e-01 9.505810e-01 9.502516e-01 9.508119e-01 9.507663e-01 9.503254e-01 9.538604e-01 9.488760e-01 9.475554e-01 9.460266e-01 9.466631e-01 9.472264e-01 9.479030e-01 9.477243e-01 9.480619e-01 9.488434e-01 9.489795e-01 9.492203e-01 9.491611e-01 9.529102e-01 9.487384e-01 9.476135e-01 9.469678e-01 9.476421e-01 9.480522e-01 9.485283e-01 9.485537e-01 9.489086e-01 9.492924e-01 9.496555e-01 9.497917e-01 9.497947e-01 9.525670e-01 9.479044e-01 9.471812e-01 9.468592e-01 9.476216e-01 9.481256e-01 9.487469e-01 9.488084e-01 9.490091e-01 9.494916e-01 9.497656e-01 9.498795e-01 9.498689e-01
<GCONST> 9.287507e+01
<STATE> 4
<MEAN> 52
 -3.237634e-03 -1.391279e-03 -8.262911e-05 -1.122740e-03 9.051822e-04 8.561655e-04 5.421659e-04 4.495496e-04 -2.752488e-04 8.154924e-06 -3.798308e-04 2.144828e-04 -3.312209e-04 8.521574e-06 -9.365131e-06 -1.936900e-05 -2.384529e-05 -5.609500e-07 -3.551575e-05 1.844930e-05 -2.820318e-06 7.114324e-06 3.341927e-06 9.052233e-06 1.390215e-05 -6.865957e-07 6.779776e-06 1.247756e-05 -7.767159e-06 -5.191266e-06 -3.627939e-06 7.386743e-06 -6.057816e-06 -1.720908e-05 5.653035e-06 6.812852e-06 3.752127e-06 -2.692360e-05 -8.301507e-07 -6.263677e-06 -2.320382e-06 5.290201e-06 7.307784e-06 4.835456e-06 1.478821e-05 -7.153999e-06 5.624742e-06 7.794187e-06 1.206940e-05 -4.297496e-06 -1.690389e-06 1.713422e-06
<VARIANCE> 52
 9.693827e-01 9.490988e-01 9.509500e-01 9.497455e-01 9.492549e-01 9.504328e-01 9.503285e-01 9.500347e-01 9.505810e-01 9.502516e-01 9.508119e-01 9.507663e-01 9.503254e-01 9.538604e-01 9.488760e-01 9.475554e-01 9.460266e-01 9.466631e-01 9.472264e-01 9.479030e-01 9.477243e-01 9.480619e-01 9.488434e-01 9.489795e-01 9.492203e-01 9.491611e-01 9.529102e-01 9.487384e-01 9.476135e-01 9.469678e-01 9.476421e-01 9.480522e-01 9.485283e-01 9.485537e-01 9.489086e-01 9.492924e-01 9.496555e-01 9.497917e-01 9.497947e-01 9.525670e-01 9.479044e-01 9.471812e-01 9.468592e-01 9.476216e-01 9.481256e-01 9.487469e-01 9.488084e-01 9.490091e-01 9.494916e-01 9.497656e-01 9.498795e-01 9.498689e-01
<GCONST> 9.287507e+01
<TRANSP> 5
 0.000000e+00 1.000000e+00 0.000000e+00 0.000000e+00 0.000000e+00
 0.000000e+00 6.000000e-01 4.000000e-01 0.000000e+00 0.000000e+00
 0.000000e+00 0.000000e+00 6.000000e-01 4.000000e-01 0.000000e+00
 0.000000e+00 0.000000e+00 0.000000e+00 6.000000e-01 4.000000e-01
 0.000000e+00 0.000000e+00 0.000000e+00 0.000000e+00 0.000000e+00
<ENDHMM>
~h "ng"
<BEGINHMM>
<NUMSTATES> 5
<STATE> 2
<MEAN> 52
 -3.237634e-03 -1.391279e-03 -8.262911e-05 -1.122740e-03 9.051822e-04 8.561655e-04 5.421659e-04 4.495496e-04 -2.752488e-04 8.154924e-06 -3.798308e-04 2.144828e-04 -3.312209e-04 8.521574e-06 -9.365131e-06 -1.936900e-05 -2.384529e-05 -5.609500e-07 -3.551575e-05 1.844930e-05 -2.820318e-06 7.114324e-06 3.341927e-06 9.052233e-06 1.390215e-05 -6.865957e-07 6.779776e-06 1.247756e-05 -7.767159e-06 -5.191266e-06 -3.627939e-06 7.386743e-06 -6.057816e-06 -1.720908e-05 5.653035e-06 6.812852e-06 3.752127e-06 -2.692360e-05 -8.301507e-07 -6.263677e-06 -2.320382e-06 5.290201e-06 7.307784e-06 4.835456e-06 1.478821e-05 -7.153999e-06 5.624742e-06 7.794187e-06 1.206940e-05 -4.297496e-06 -1.690389e-06 1.713422e-06
<VARIANCE> 52
 9.693827e-01 9.490988e-01 9.509500e-01 9.497455e-01 9.492549e-01 9.504328e-01 9.503285e-01 9.500347e-01 9.505810e-01 9.502516e-01 9.508119e-01 9.507663e-01 9.503254e-01 9.538604e-01 9.488760e-01 9.475554e-01 9.460266e-01 9.466631e-01 9.472264e-01 9.479030e-01 9.477243e-01 9.480619e-01 9.488434e-01 9.489795e-01 9.492203e-01 9.491611e-01 9.529102e-01 9.487384e-01 9.476135e-01 9.469678e-01 9.476421e-01 9.480522e-01 9.485283e-01 9.485537e-01 9.489086e-01 9.492924e-01 9.496555e-01 9.497917e-01 9.497947e-01 9.525670e-01 9.479044e-01 9.471812e-01 9.468592e-01 9.476216e-01 9.481256e-01 9.487469e-01 9.488084e-01 9.490091e-01 9.494916e-01 9.497656e-01 9.498795e-01 9.498689e-01
<GCONST> 9.287507e+01
<STATE> 3
<MEAN> 52
 -3.237634e-03 -1.391279e-03 -8.262911e-05 -1.122740e-03 9.051822e-04 8.561655e-04 5.421659e-04 4.495496e-04 -2.752488e-04 8.154924e-06 -3.798308e-04 2.144828e-04 -3.312209e-04 8.521574e-06 -9.365131e-06 -1.936900e-05 -2.384529e-05 -5.609500e-07 -3.551575e-05 1.844930e-05 -2.820318e-06 7.114324e-06 3.341927e-06 9.052233e-06 1.390215e-05 -6.865957e-07 6.779776e-06 1.247756e-05 -7.767159e-06 -5.191266e-06 -3.627939e-06 7.386743e-06 -6.057816e-06 -1.720908e-05 5.653035e-06 6.812852e-06 3.752127e-06 -2.692360e-05 -8.301507e-07 -6.263677e-06 -2.320382e-06 5.290201e-06 7.307784e-06 4.835456e-06 1.478821e-05 -7.153999e-06 5.624742e-06 7.794187e-06 1.206940e-05 -4.297496e-06 -1.690389e-06 1.713422e-06
<VARIANCE> 52
 9.693827e-01 9.490988e-01 9.509500e-01 9.497455e-01 9.492549e-01 9.504328e-01 9.503285e-01 9.500347e-01 9.505810e-01 9.502516e-01 9.508119e-01 9.507663e-01 9.503254e-01 9.538604e-01 9.488760e-01 9.475554e-01 9.460266e-01 9.466631e-01 9.472264e-01 9.479030e-01 9.477243e-01 9.480619e-01 9.488434e-01 9.489795e-01 9.492203e-01 9.491611e-01 9.529102e-01 9.487384e-01 9.476135e-01 9.469678e-01 9.476421e-01 9.480522e-01 9.485283e-01 9.485537e-01 9.489086e-01 9.492924e-01 9.496555e-01 9.497917e-01 9.497947e-01 9.525670e-01 9.479044e-01 9.471812e-01 9.468592e-01 9.476216e-01 9.481256e-01 9.487469e-01 9.488084e-01 9.490091e-01 9.494916e-01 9.497656e-01 9.498795e-01 9.498689e-01
<GCONST> 9.287507e+01
<STATE> 4
<MEAN> 52
 -3.237634e-03 -1.391279e-03 -8.262911e-05 -1.122740e-03 9.051822e-04 8.561655e-04 5.421659e-04 4.495496e-04 -2.752488e-04 8.154924e-06 -3.798308e-04 2.144828e-04 -3.312209e-04 8.521574e-06 -9.365131e-06 -1.936900e-05 -2.384529e-05 -5.609500e-07 -3.551575e-05 1.844930e-05 -2.820318e-06 7.114324e-06 3.341927e-06 9.052233e-06 1.390215e-05 -6.865957e-07 6.779776e-06 1.247756e-05 -7.767159e-06 -5.191266e-06 -3.627939e-06 7.386743e-06 -6.057816e-06 -1.720908e-05 5.653035e-06 6.812852e-06 3.752127e-06 -2.692360e-05 -8.301507e-07 -6.263677e-06 -2.320382e-06 5.290201e-06 7.307784e-06 4.835456e-06 1.478821e-05 -7.153999e-06 5.624742e-06 7.794187e-06 1.206940e-05 -4.297496e-06 -1.690389e-06 1.713422e-06
<VARIANCE> 52
 9.693827e-01 9.490988e-01 9.509500e-01 9.497455e-01 9.492549e-01 9.504328e-01 9.503285e-01 9.500347e-01 9.505810e-01 9.502516e-01 9.508119e-01 9.507663e-01 9.503254e-01 9.538604e-01 9.488760e-01 9.475554e-01 9.460266e-01 9.466631e-01 9.472264e-01 9.479030e-01 9.477243e-01 9.480619e-01 9.488434e-01 9.489795e-01 9.492203e-01 9.491611e-01 9.529102e-01 9.487384e-01 9.476135e-01 9.469678e-01 9.476421e-01 9.480522e-01 9.485283e-01 9.485537e-01 9.489086e-01 9.492924e-01 9.496555e-01 9.497917e-01 9.497947e-01 9.525670e-01 9.479044e-01 9.471812e-01 9.468592e-01 9.476216e-01 9.481256e-01 9.487469e-01 9.488084e-01 9.490091e-01 9.494916e-01 9.497656e-01 9.498795e-01 9.498689e-01
<GCONST> 9.287507e+01
<TRANSP> 5
 0.000000e+00 1.000000e+00 0.000000e+00 0.000000e+00 0.000000e+00
 0.000000e+00 6.000000e-01 4.000000e-01 0.000000e+00 0.000000e+00
 0.000000e+00 0.000000e+00 6.000000e-01 4.000000e-01 0.000000e+00
 0.000000e+00 0.000000e+00 0.000000e+00 6.000000e-01 4.000000e-01
 0.000000e+00 0.000000e+00 0.000000e+00 0.000000e+00 0.000000e+00
<ENDHMM>
~h "tS"
<BEGINHMM>
<NUMSTATES> 5
<STATE> 2
<MEAN> 52
 -3.237634e-03 -1.391279e-03 -8.262911e-05 -1.122740e-03 9.051822e-04 8.561655e-04 5.421659e-04 4.495496e-04 -2.752488e-04 8.154924e-06 -3.798308e-04 2.144828e-04 -3.312209e-04 8.521574e-06 -9.365131e-06 -1.936900e-05 -2.384529e-05 -5.609500e-07 -3.551575e-05 1.844930e-05 -2.820318e-06 7.114324e-06 3.341927e-06 9.052233e-06 1.390215e-05 -6.865957e-07 6.779776e-06 1.247756e-05 -7.767159e-06 -5.191266e-06 -3.627939e-06 7.386743e-06 -6.057816e-06 -1.720908e-05 5.653035e-06 6.812852e-06 3.752127e-06 -2.692360e-05 -8.301507e-07 -6.263677e-06 -2.320382e-06 5.290201e-06 7.307784e-06 4.835456e-06 1.478821e-05 -7.153999e-06 5.624742e-06 7.794187e-06 1.206940e-05 -4.297496e-06 -1.690389e-06 1.713422e-06
<VARIANCE> 52
 9.693827e-01 9.490988e-01 9.509500e-01 9.497455e-01 9.492549e-01 9.504328e-01 9.503285e-01 9.500347e-01 9.505810e-01 9.502516e-01 9.508119e-01 9.507663e-01 9.503254e-01 9.538604e-01 9.488760e-01 9.475554e-01 9.460266e-01 9.466631e-01 9.472264e-01 9.479030e-01 9.477243e-01 9.480619e-01 9.488434e-01 9.489795e-01 9.492203e-01 9.491611e-01 9.529102e-01 9.487384e-01 9.476135e-01 9.469678e-01 9.476421e-01 9.480522e-01 9.485283e-01 9.485537e-01 9.489086e-01 9.492924e-01 9.496555e-01 9.497917e-01 9.497947e-01 9.525670e-01 9.479044e-01 9.471812e-01 9.468592e-01 9.476216e-01 9.481256e-01 9.487469e-01 9.488084e-01 9.490091e-01 9.494916e-01 9.497656e-01 9.498795e-01 9.498689e-01
<GCONST> 9.287507e+01
<STATE> 3
<MEAN> 52
 -3.237634e-03 -1.391279e-03 -8.262911e-05 -1.122740e-03 9.051822e-04 8.561655e-04 5.421659e-04 4.495496e-04 -2.752488e-04 8.154924e-06 -3.798308e-04 2.144828e-04 -3.312209e-04 8.521574e-06 -9.365131e-06 -1.936900e-05 -2.384529e-05 -5.609500e-07 -3.551575e-05 1.844930e-05 -2.820318e-06 7.114324e-06 3.341927e-06 9.052233e-06 1.390215e-05 -6.865957e-07 6.779776e-06 1.247756e-05 -7.767159e-06 -5.191266e-06 -3.627939e-06 7.386743e-06 -6.057816e-06 -1.720908e-05 5.653035e-06 6.812852e-06 3.752127e-06 -2.692360e-05 -8.301507e-07 -6.263677e-06 -2.320382e-06 5.290201e-06 7.307784e-06 4.835456e-06 1.478821e-05 -7.153999e-06 5.624742e-06 7.794187e-06 1.206940e-05 -4.297496e-06 -1.690389e-06 1.713422e-06
<VARIANCE> 52
 9.693827e-01 9.490988e-01 9.509500e-01 9.497455e-01 9.492549e-01 9.504328e-01 9.503285e-01 9.500347e-01 9.505810e-01 9.502516e-01 9.508119e-01 9.507663e-01 9.503254e-01 9.538604e-01 9.488760e-01 9.475554e-01 9.460266e-01 9.466631e-01 9.472264e-01 9.479030e-01 9.477243e-01 9.480619e-01 9.488434e-01 9.489795e-01 9.492203e-01 9.491611e-01 9.529102e-01 9.487384e-01 9.476135e-01 9.469678e-01 9.476421e-01 9.480522e-01 9.485283e-01 9.485537e-01 9.489086e-01 9.492924e-01 9.496555e-01 9.497917e-01 9.497947e-01 9.525670e-01 9.479044e-01 9.471812e-01 9.468592e-01 9.476216e-01 9.481256e-01 9.487469e-01 9.488084e-01 9.490091e-01 9.494916e-01 9.497656e-01 9.498795e-01 9.498689e-01
<GCONST> 9.287507e+01
<STATE> 4
<MEAN> 52
 -3.237634e-03 -1.391279e-03 -8.262911e-05 -1.122740e-03 9.051822e-04 8.561655e-04 5.421659e-04 4.495496e-04 -2.752488e-04 8.154924e-06 -3.798308e-04 2.144828e-04 -3.312209e-04 8.521574e-06 -9.365131e-06 -1.936900e-05 -2.384529e-05 -5.609500e-07 -3.551575e-05 1.844930e-05 -2.820318e-06 7.114324e-06 3.341927e-06 9.052233e-06 1.390215e-05 -6.865957e-07 6.779776e-06 1.247756e-05 -7.767159e-06 -5.191266e-06 -3.627939e-06 7.386743e-06 -6.057816e-06 -1.720908e-05 5.653035e-06 6.812852e-06 3.752127e-06 -2.692360e-05 -8.301507e-07 -6.263677e-06 -2.320382e-06 5.290201e-06 7.307784e-06 4.835456e-06 1.478821e-05 -7.153999e-06 5.624742e-06 7.794187e-06 1.206940e-05 -4.297496e-06 -1.690389e-06 1.713422e-06
<VARIANCE> 52
 9.693827e-01 9.490988e-01 9.509500e-01 9.497455e-01 9.492549e-01 9.504328e-01 9.503285e-01 9.500347e-01 9.505810e-01 9.502516e-01 9.508119e-01 9.507663e-01 9.503254e-01 9.538604e-01 9.488760e-01 9.475554e-01 9.460266e-01 9.466631e-01 9.472264e-01 9.479030e-01 9.477243e-01 9.480619e-01 9.488434e-01 9.489795e-01 9.492203e-01 9.491611e-01 9.529102e-01 9.487384e-01 9.476135e-01 9.469678e-01 9.476421e-01 9.480522e-01 9.485283e-01 9.485537e-01 9.489086e-01 9.492924e-01 9.496555e-01 9.497917e-01 9.497947e-01 9.525670e-01 9.479044e-01 9.471812e-01 9.468592e-01 9.476216e-01 9.481256e-01 9.487469e-01 9.488084e-01 9.490091e-01 9.494916e-01 9.497656e-01 9.498795e-01 9.498689e-01
<GCONST> 9.287507e+01
<TRANSP> 5
 0.000000e+00 1.000000e+00 0.000000e+00 0.000000e+00 0.000000e+00
 0.000000e+00 6.000000e-01 4.000000e-01 0.000000e+00 0.000000e+00
 0.000000e+00 0.000000e+00 6.000000e-01 4.000000e-01 0.000000e+00
 0.000000e+00 0.000000e+00 0.000000e+00 6.000000e-01 4.000000e-01
 0.000000e+00 0.000000e+00 0.000000e+00 0.000000e+00 0.000000e+00
<ENDHMM>
~h "n"
<BEGINHMM>
<NUMSTATES> 5
<STATE> 2
<MEAN> 52
 -3.237634e-03 -1.391279e-03 -8.262911e-05 -1.122740e-03 9.051822e-04 8.561655e-04 5.421659e-04 4.495496e-04 -2.752488e-04 8.154924e-06 -3.798308e-04 2.144828e-04 -3.312209e-04 8.521574e-06 -9.365131e-06 -1.936900e-05 -2.384529e-05 -5.609500e-07 -3.551575e-05 1.844930e-05 -2.820318e-06 7.114324e-06 3.341927e-06 9.052233e-06 1.390215e-05 -6.865957e-07 6.779776e-06 1.247756e-05 -7.767159e-06 -5.191266e-06 -3.627939e-06 7.386743e-06 -6.057816e-06 -1.720908e-05 5.653035e-06 6.812852e-06 3.752127e-06 -2.692360e-05 -8.301507e-07 -6.263677e-06 -2.320382e-06 5.290201e-06 7.307784e-06 4.835456e-06 1.478821e-05 -7.153999e-06 5.624742e-06 7.794187e-06 1.206940e-05 -4.297496e-06 -1.690389e-06 1.713422e-06
<VARIANCE> 52
 9.693827e-01 9.490988e-01 9.509500e-01 9.497455e-01 9.492549e-01 9.504328e-01 9.503285e-01 9.500347e-01 9.505810e-01 9.502516e-01 9.508119e-01 9.507663e-01 9.503254e-01 9.538604e-01 9.488760e-01 9.475554e-01 9.460266e-01 9.466631e-01 9.472264e-01 9.479030e-01 9.477243e-01 9.480619e-01 9.488434e-01 9.489795e-01 9.492203e-01 9.491611e-01 9.529102e-01 9.487384e-01 9.476135e-01 9.469678e-01 9.476421e-01 9.480522e-01 9.485283e-01 9.485537e-01 9.489086e-01 9.492924e-01 9.496555e-01 9.497917e-01 9.497947e-01 9.525670e-01 9.479044e-01 9.471812e-01 9.468592e-01 9.476216e-01 9.481256e-01 9.487469e-01 9.488084e-01 9.490091e-01 9.494916e-01 9.497656e-01 9.498795e-01 9.498689e-01
<GCONST> 9.287507e+01
<STATE> 3
<MEAN> 52
 -3.237634e-03 -1.391279e-03 -8.262911e-05 -1.122740e-03 9.051822e-04 8.561655e-04 5.421659e-04 4.495496e-04 -2.752488e-04 8.154924e-06 -3.798308e-04 2.144828e-04 -3.312209e-04 8.521574e-06 -9.365131e-06 -1.936900e-05 -2.384529e-05 -5.609500e-07 -3.551575e-05 1.844930e-05 -2.820318e-06 7.114324e-06 3.341927e-06 9.052233e-06 1.390215e-05 -6.865957e-07 6.779776e-06 1.247756e-05 -7.767159e-06 -5.191266e-06 -3.627939e-06 7.386743e-06 -6.057816e-06 -1.720908e-05 5.653035e-06 6.812852e-06 3.752127e-06 -2.692360e-05 -8.301507e-07 -6.263677e-06 -2.320382e-06 5.290201e-06 7.307784e-06 4.835456e-06 1.478821e-05 -7.153999e-06 5.624742e-06 7.794187e-06 1.206940e-05 -4.297496e-06 -1.690389e-06 1.713422e-06
<VARIANCE> 52
 9.693827e-01 9.490988e-01 9.509500e-01 9.497455e-01 9.492549e-01 9.504328e-01 9.503285e-01 9.500347e-01 9.505810e-01 9.502516e-01 9.508119e-01 9.507663e-01 9.503254e-01 9.538604e-01 9.488760e-01 9.475554e-01 9.460266e-01 9.466631e-01 9.472264e-01 9.479030e-01 9.477243e-01 9.480619e-01 9.488434e-01 9.489795e-01 9.492203e-01 9.491611e-01 9.529102e-01 9.487384e-01 9.476135e-01 9.469678e-01 9.476421e-01 9.480522e-01 9.485283e-01 9.485537e-01 9.489086e-01 9.492924e-01 9.496555e-01 9.497917e-01 9.497947e-01 9.525670e-01 9.479044e-01 9.471812e-01 9.468592e-01 9.476216e-01 9.481256e-01 9.487469e-01 9.488084e-01 9.490091e-01 9.494916e-01 9.497656e-01 9.498795e-01 9.498689e-01
<GCONST> 9.287507e+01
<STATE> 4
<MEAN> 52
 -3.237634e-03 -1.391279e-03 -8.262911e-05 -1.122740e-03 9.051822e-04 8.561655e-04 5.421659e-04 4.495496e-04 -2.752488e-04 8.154924e-06 -3.798308e-04 2.144828e-04 -3.312209e-04 8.521574e-06 -9.365131e-06 -1.936900e-05 -2.384529e-05 -5.609500e-07 -3.551575e-05 1.844930e-05 -2.820318e-06 7.114324e-06 3.341927e-06 9.052233e-06 1.390215e-05 -6.865957e-07 6.779776e-06 1.247756e-05 -7.767159e-06 -5.191266e-06 -3.627939e-06 7.386743e-06 -6.057816e-06 -1.720908e-05 5.653035e-06 6.812852e-06 3.752127e-06 -2.692360e-05 -8.301507e-07 -6.263677e-06 -2.320382e-06 5.290201e-06 7.307784e-06 4.835456e-06 1.478821e-05 -7.153999e-06 5.624742e-06 7.794187e-06 1.206940e-05 -4.297496e-06 -1.690389e-06 1.713422e-06
<VARIANCE> 52
 9.693827e-01 9.490988e-01 9.509500e-01 9.497455e-01 9.492549e-01 9.504328e-01 9.503285e-01 9.500347e-01 9.505810e-01 9.502516e-01 9.508119e-01 9.507663e-01 9.503254e-01 9.538604e-01 9.488760e-01 9.475554e-01 9.460266e-01 9.466631e-01 9.472264e-01 9.479030e-01 9.477243e-01 9.480619e-01 9.488434e-01 9.489795e-01 9.492203e-01 9.491611e-01 9.529102e-01 9.487384e-01 9.476135e-01 9.469678e-01 9.476421e-01 9.480522e-01 9.485283e-01 9.485537e-01 9.489086e-01 9.492924e-01 9.496555e-01 9.497917e-01 9.497947e-01 9.525670e-01 9.479044e-01 9.471812e-01 9.468592e-01 9.476216e-01 9.481256e-01 9.487469e-01 9.488084e-01 9.490091e-01 9.494916e-01 9.497656e-01 9.498795e-01 9.498689e-01
<GCONST> 9.287507e+01
<TRANSP> 5
 0.000000e+00 1.000000e+00 0.000000e+00 0.000000e+00 0.000000e+00
 0.000000e+00 6.000000e-01 4.000000e-01 0.000000e+00 0.000000e+00
 0.000000e+00 0.000000e+00 6.000000e-01 4.000000e-01 0.000000e+00
 0.000000e+00 0.000000e+00 0.000000e+00 6.000000e-01 4.000000e-01
 0.000000e+00 0.000000e+00 0.000000e+00 0.000000e+00 0.000000e+00
<ENDHMM>
~h "d"
<BEGINHMM>
<NUMSTATES> 5
<STATE> 2
<MEAN> 52
 -3.237634e-03 -1.391279e-03 -8.262911e-05 -1.122740e-03 9.051822e-04 8.561655e-04 5.421659e-04 4.495496e-04 -2.752488e-04 8.154924e-06 -3.798308e-04 2.144828e-04 -3.312209e-04 8.521574e-06 -9.365131e-06 -1.936900e-05 -2.384529e-05 -5.609500e-07 -3.551575e-05 1.844930e-05 -2.820318e-06 7.114324e-06 3.341927e-06 9.052233e-06 1.390215e-05 -6.865957e-07 6.779776e-06 1.247756e-05 -7.767159e-06 -5.191266e-06 -3.627939e-06 7.386743e-06 -6.057816e-06 -1.720908e-05 5.653035e-06 6.812852e-06 3.752127e-06 -2.692360e-05 -8.301507e-07 -6.263677e-06 -2.320382e-06 5.290201e-06 7.307784e-06 4.835456e-06 1.478821e-05 -7.153999e-06 5.624742e-06 7.794187e-06 1.206940e-05 -4.297496e-06 -1.690389e-06 1.713422e-06
<VARIANCE> 52
 9.693827e-01 9.490988e-01 9.509500e-01 9.497455e-01 9.492549e-01 9.504328e-01 9.503285e-01 9.500347e-01 9.505810e-01 9.502516e-01 9.508119e-01 9.507663e-01 9.503254e-01 9.538604e-01 9.488760e-01 9.475554e-01 9.460266e-01 9.466631e-01 9.472264e-01 9.479030e-01 9.477243e-01 9.480619e-01 9.488434e-01 9.489795e-01 9.492203e-01 9.491611e-01 9.529102e-01 9.487384e-01 9.476135e-01 9.469678e-01 9.476421e-01 9.480522e-01 9.485283e-01 9.485537e-01 9.489086e-01 9.492924e-01 9.496555e-01 9.497917e-01 9.497947e-01 9.525670e-01 9.479044e-01 9.471812e-01 9.468592e-01 9.476216e-01 9.481256e-01 9.487469e-01 9.488084e-01 9.490091e-01 9.494916e-01 9.497656e-01 9.498795e-01 9.498689e-01
<GCONST> 9.287507e+01
<STATE> 3
<MEAN> 52
 -3.237634e-03 -1.391279e-03 -8.262911e-05 -1.122740e-03 9.051822e-04 8.561655e-04 5.421659e-04 4.495496e-04 -2.752488e-04 8.154924e-06 -3.798308e-04 2.144828e-04 -3.312209e-04 8.521574e-06 -9.365131e-06 -1.936900e-05 -2.384529e-05 -5.609500e-07 -3.551575e-05 1.844930e-05 -2.820318e-06 7.114324e-06 3.341927e-06 9.052233e-06 1.390215e-05 -6.865957e-07 6.779776e-06 1.247756e-05 -7.767159e-06 -5.191266e-06 -3.627939e-06 7.386743e-06 -6.057816e-06 -1.720908e-05 5.653035e-06 6.812852e-06 3.752127e-06 -2.692360e-05 -8.301507e-07 -6.263677e-06 -2.320382e-06 5.290201e-06 7.307784e-06 4.835456e-06 1.478821e-05 -7.153999e-06 5.624742e-06 7.794187e-06 1.206940e-05 -4.297496e-06 -1.690389e-06 1.713422e-06
<VARIANCE> 52
 9.693827e-01 9.490988e-01 9.509500e-01 9.497455e-01 9.492549e-01 9.504328e-01 9.503285e-01 9.500347e-01 9.505810e-01 9.502516e-01 9.508119e-01 9.507663e-01 9.503254e-01 9.538604e-01 9.488760e-01 9.475554e-01 9.460266e-01 9.466631e-01 9.472264e-01 9.479030e-01 9.477243e-01 9.480619e-01 9.488434e-01 9.489795e-01 9.492203e-01 9.491611e-01 9.529102e-01 9.487384e-01 9.476135e-01 9.469678e-01 9.476421e-01 9.480522e-01 9.485283e-01 9.485537e-01 9.489086e-01 9.492924e-01 9.496555e-01 9.497917e-01 9.497947e-01 9.525670e-01 9.479044e-01 9.471812e-01 9.468592e-01 9.476216e-01 9.481256e-01 9.487469e-01 9.488084e-01 9.490091e-01 9.494916e-01 9.497656e-01 9.498795e-01 9.498689e-01
<GCONST> 9.287507e+01
<STATE> 4
<MEAN> 52
 -3.237634e-03 -1.391279e-03 -8.262911e-05 -1.122740e-03 9.051822e-04 8.561655e-04 5.421659e-04 4.495496e-04 -2.752488e-04 8.154924e-06 -3.798308e-04 2.144828e-04 -3.312209e-04 8.521574e-06 -9.365131e-06 -1.936900e-05 -2.384529e-05 -5.609500e-07 -3.551575e-05 1.844930e-05 -2.820318e-06 7.114324e-06 3.341927e-06 9.052233e-06 1.390215e-05 -6.865957e-07 6.779776e-06 1.247756e-05 -7.767159e-06 -5.191266e-06 -3.627939e-06 7.386743e-06 -6.057816e-06 -1.720908e-05 5.653035e-06 6.812852e-06 3.752127e-06 -2.692360e-05 -8.301507e-07 -6.263677e-06 -2.320382e-06 5.290201e-06 7.307784e-06 4.835456e-06 1.478821e-05 -7.153999e-06 5.624742e-06 7.794187e-06 1.206940e-05 -4.297496e-06 -1.690389e-06 1.713422e-06
<VARIANCE> 52
 9.693827e-01 9.490988e-01 9.509500e-01 9.497455e-01 9.492549e-01 9.504328e-01 9.503285e-01 9.500347e-01 9.505810e-01 9.502516e-01 9.508119e-01 9.507663e-01 9.503254e-01 9.538604e-01 9.488760e-01 9.475554e-01 9.460266e-01 9.466631e-01 9.472264e-01 9.479030e-01 9.477243e-01 9.480619e-01 9.488434e-01 9.489795e-01 9.492203e-01 9.491611e-01 9.529102e-01 9.487384e-01 9.476135e-01 9.469678e-01 9.476421e-01 9.480522e-01 9.485283e-01 9.485537e-01 9.489086e-01 9.492924e-01 9.496555e-01 9.497917e-01 9.497947e-01 9.525670e-01 9.479044e-01 9.471812e-01 9.468592e-01 9.476216e-01 9.481256e-01 9.487469e-01 9.488084e-01 9.490091e-01 9.494916e-01 9.497656e-01 9.498795e-01 9.498689e-01
<GCONST> 9.287507e+01
<TRANSP> 5
 0.000000e+00 1.000000e+00 0.000000e+00 0.000000e+00 0.000000e+00
 0.000000e+00 6.000000e-01 4.000000e-01 0.000000e+00 0.000000e+00
 0.000000e+00 0.000000e+00 6.000000e-01 4.000000e-01 0.000000e+00
 0.000000e+00 0.000000e+00 0.000000e+00 6.000000e-01 4.000000e-01
 0.000000e+00 0.000000e+00 0.000000e+00 0.000000e+00 0.000000e+00
<ENDHMM>
~h "i"
<BEGINHMM>
<NUMSTATES> 5
<STATE> 2
<MEAN> 52
 -3.237634e-03 -1.391279e-03 -8.262911e-05 -1.122740e-03 9.051822e-04 8.561655e-04 5.421659e-04 4.495496e-04 -2.752488e-04 8.154924e-06 -3.798308e-04 2.144828e-04 -3.312209e-04 8.521574e-06 -9.365131e-06 -1.936900e-05 -2.384529e-05 -5.609500e-07 -3.551575e-05 1.844930e-05 -2.820318e-06 7.114324e-06 3.341927e-06 9.052233e-06 1.390215e-05 -6.865957e-07 6.779776e-06 1.247756e-05 -7.767159e-06 -5.191266e-06 -3.627939e-06 7.386743e-06 -6.057816e-06 -1.720908e-05 5.653035e-06 6.812852e-06 3.752127e-06 -2.692360e-05 -8.301507e-07 -6.263677e-06 -2.320382e-06 5.290201e-06 7.307784e-06 4.835456e-06 1.478821e-05 -7.153999e-06 5.624742e-06 7.794187e-06 1.206940e-05 -4.297496e-06 -1.690389e-06 1.713422e-06
<VARIANCE> 52
 9.693827e-01 9.490988e-01 9.509500e-01 9.497455e-01 9.492549e-01 9.504328e-01 9.503285e-01 9.500347e-01 9.505810e-01 9.502516e-01 9.508119e-01 9.507663e-01 9.503254e-01 9.538604e-01 9.488760e-01 9.475554e-01 9.460266e-01 9.466631e-01 9.472264e-01 9.479030e-01 9.477243e-01 9.480619e-01 9.488434e-01 9.489795e-01 9.492203e-01 9.491611e-01 9.529102e-01 9.487384e-01 9.476135e-01 9.469678e-01 9.476421e-01 9.480522e-01 9.485283e-01 9.485537e-01 9.489086e-01 9.492924e-01 9.496555e-01 9.497917e-01 9.497947e-01 9.525670e-01 9.479044e-01 9.471812e-01 9.468592e-01 9.476216e-01 9.481256e-01 9.487469e-01 9.488084e-01 9.490091e-01 9.494916e-01 9.497656e-01 9.498795e-01 9.498689e-01
<GCONST> 9.287507e+01
<STATE> 3
<MEAN> 52
 -3.237634e-03 -1.391279e-03 -8.262911e-05 -1.122740e-03 9.051822e-04 8.561655e-04 5.421659e-04 4.495496e-04 -2.752488e-04 8.154924e-06 -3.798308e-04 2.144828e-04 -3.312209e-04 8.521574e-06 -9.365131e-06 -1.936900e-05 -2.384529e-05 -5.609500e-07 -3.551575e-05 1.844930e-05 -2.820318e-06 7.114324e-06 3.341927e-06 9.052233e-06 1.390215e-05 -6.865957e-07 6.779776e-06 1.247756e-05 -7.767159e-06 -5.191266e-06 -3.627939e-06 7.386743e-06 -6.057816e-06 -1.720908e-05 5.653035e-06 6.812852e-06 3.752127e-06 -2.692360e-05 -8.301507e-07 -6.263677e-06 -2.320382e-06 5.290201e-06 7.307784e-06 4.835456e-06 1.478821e-05 -7.153999e-06 5.624742e-06 7.794187e-06 1.206940e-05 -4.297496e-06 -1.690389e-06 1.713422e-06
<VARIANCE> 52
 9.693827e-01 9.490988e-01 9.509500e-01 9.497455e-01 9.492549e-01 9.504328e-01 9.503285e-01 9.500347e-01 9.505810e-01 9.502516e-01 9.508119e-01 9.507663e-01 9.503254e-01 9.538604e-01 9.488760e-01 9.475554e-01 9.460266e-01 9.466631e-01 9.472264e-01 9.479030e-01 9.477243e-01 9.480619e-01 9.488434e-01 9.489795e-01 9.492203e-01 9.491611e-01 9.529102e-01 9.487384e-01 9.476135e-01 9.469678e-01 9.476421e-01 9.480522e-01 9.485283e-01 9.485537e-01 9.489086e-01 9.492924e-01 9.496555e-01 9.497917e-01 9.497947e-01 9.525670e-01 9.479044e-01 9.471812e-01 9.468592e-01 9.476216e-01 9.481256e-01 9.487469e-01 9.488084e-01 9.490091e-01 9.494916e-01 9.497656e-01 9.498795e-01 9.498689e-01
<GCONST> 9.287507e+01
<STATE> 4
<MEAN> 52
 -3.237634e-03 -1.391279e-03 -8.262911e-05 -1.122740e-03 9.051822e-04 8.561655e-04 5.421659e-04 4.495496e-04 -2.752488e-04 8.154924e-06 -3.798308e-04 2.144828e-04 -3.312209e-04 8.521574e-06 -9.365131e-06 -1.936900e-05 -2.384529e-05 -5.609500e-07 -3.551575e-05 1.844930e-05 -2.820318e-06 7.114324e-06 3.341927e-06 9.052233e-06 1.390215e-05 -6.865957e-07 6.779776e-06 1.247756e-05 -7.767159e-06 -5.191266e-06 -3.627939e-06 7.386743e-06 -6.057816e-06 -1.720908e-05 5.653035e-06 6.812852e-06 3.752127e-06 -2.692360e-05 -8.301507e-07 -6.263677e-06 -2.320382e-06 5.290201e-06 7.307784e-06 4.835456e-06 1.478821e-05 -7.153999e-06 5.624742e-06 7.794187e-06 1.206940e-05 -4.297496e-06 -1.690389e-06 1.713422e-06
<VARIANCE> 52
 9.693827e-01 9.490988e-01 9.509500e-01 9.497455e-01 9.492549e-01 9.504328e-01 9.503285e-01 9.500347e-01 9.505810e-01 9.502516e-01 9.508119e-01 9.507663e-01 9.503254e-01 9.538604e-01 9.488760e-01 9.475554e-01 9.460266e-01 9.466631e-01 9.472264e-01 9.479030e-01 9.477243e-01 9.480619e-01 9.488434e-01 9.489795e-01 9.492203e-01 9.491611e-01 9.529102e-01 9.487384e-01 9.476135e-01 9.469678e-01 9.476421e-01 9.480522e-01 9.485283e-01 9.485537e-01 9.489086e-01 9.492924e-01 9.496555e-01 9.497917e-01 9.497947e-01 9.525670e-01 9.479044e-01 9.471812e-01 9.468592e-01 9.476216e-01 9.481256e-01 9.487469e-01 9.488084e-01 9.490091e-01 9.494916e-01 9.497656e-01 9.498795e-01 9.498689e-01
<GCONST> 9.287507e+01
<TRANSP> 5
 0.000000e+00 1.000000e+00 0.000000e+00 0.000000e+00 0.000000e+00
 0.000000e+00 6.000000e-01 4.000000e-01 0.000000e+00 0.000000e+00
 0.000000e+00 0.000000e+00 6.000000e-01 4.000000e-01 0.000000e+00
 0.000000e+00 0.000000e+00 0.000000e+00 6.000000e-01 4.000000e-01
 0.000000e+00 0.000000e+00 0.000000e+00 0.000000e+00 0.000000e+00
<ENDHMM>
~h "m"
<BEGINHMM>
<NUMSTATES> 5
<STATE> 2
<MEAN> 52
 -3.237634e-03 -1.391279e-03 -8.262911e-05 -1.122740e-03 9.051822e-04 8.561655e-04 5.421659e-04 4.495496e-04 -2.752488e-04 8.154924e-06 -3.798308e-04 2.144828e-04 -3.312209e-04 8.521574e-06 -9.365131e-06 -1.936900e-05 -2.384529e-05 -5.609500e-07 -3.551575e-05 1.844930e-05 -2.820318e-06 7.114324e-06 3.341927e-06 9.052233e-06 1.390215e-05 -6.865957e-07 6.779776e-06 1.247756e-05 -7.767159e-06 -5.191266e-06 -3.627939e-06 7.386743e-06 -6.057816e-06 -1.720908e-05 5.653035e-06 6.812852e-06 3.752127e-06 -2.692360e-05 -8.301507e-07 -6.263677e-06 -2.320382e-06 5.290201e-06 7.307784e-06 4.835456e-06 1.478821e-05 -7.153999e-06 5.624742e-06 7.794187e-06 1.206940e-05 -4.297496e-06 -1.690389e-06 1.713422e-06
<VARIANCE> 52
 9.693827e-01 9.490988e-01 9.509500e-01 9.497455e-01 9.492549e-01 9.504328e-01 9.503285e-01 9.500347e-01 9.505810e-01 9.502516e-01 9.508119e-01 9.507663e-01 9.503254e-01 9.538604e-01 9.488760e-01 9.475554e-01 9.460266e-01 9.466631e-01 9.472264e-01 9.479030e-01 9.477243e-01 9.480619e-01 9.488434e-01 9.489795e-01 9.492203e-01 9.491611e-01 9.529102e-01 9.487384e-01 9.476135e-01 9.469678e-01 9.476421e-01 9.480522e-01 9.485283e-01 9.485537e-01 9.489086e-01 9.492924e-01 9.496555e-01 9.497917e-01 9.497947e-01 9.525670e-01 9.479044e-01 9.471812e-01 9.468592e-01 9.476216e-01 9.481256e-01 9.487469e-01 9.488084e-01 9.490091e-01 9.494916e-01 9.497656e-01 9.498795e-01 9.498689e-01
<GCONST> 9.287507e+01
<STATE> 3
<MEAN> 52
 -3.237634e-03 -1.391279e-03 -8.262911e-05 -1.122740e-03 9.051822e-04 8.561655e-04 5.421659e-04 4.495496e-04 -2.752488e-04 8.154924e-06 -3.798308e-04 2.144828e-04 -3.312209e-04 8.521574e-06 -9.365131e-06 -1.936900e-05 -2.384529e-05 -5.609500e-07 -3.551575e-05 1.844930e-05 -2.820318e-06 7.114324e-06 3.341927e-06 9.052233e-06 1.390215e-05 -6.865957e-07 6.779776e-06 1.247756e-05 -7.767159e-06 -5.191266e-06 -3.627939e-06 7.386743e-06 -6.057816e-06 -1.720908e-05 5.653035e-06 6.812852e-06 3.752127e-06 -2.692360e-05 -8.301507e-07 -6.263677e-06 -2.320382e-06 5.290201e-06 7.307784e-06 4.835456e-06 1.478821e-05 -7.153999e-06 5.624742e-06 7.794187e-06 1.206940e-05 -4.297496e-06 -1.690389e-06 1.713422e-06
<VARIANCE> 52
 9.693827e-01 9.490988e-01 9.509500e-01 9.497455e-01 9.492549e-01 9.504328e-01 9.503285e-01 9.500347e-01 9.505810e-01 9.502516e-01 9.508119e-01 9.507663e-01 9.503254e-01 9.538604e-01 9.488760e-01 9.475554e-01 9.460266e-01 9.466631e-01 9.472264e-01 9.479030e-01 9.477243e-01 9.480619e-01 9.488434e-01 9.489795e-01 9.492203e-01 9.491611e-01 9.529102e-01 9.487384e-01 9.476135e-01 9.469678e-01 9.476421e-01 9.480522e-01 9.485283e-01 9.485537e-01 9.489086e-01 9.492924e-01 9.496555e-01 9.497917e-01 9.497947e-01 9.525670e-01 9.479044e-01 9.471812e-01 9.468592e-01 9.476216e-01 9.481256e-01 9.487469e-01 9.488084e-01 9.490091e-01 9.494916e-01 9.497656e-01 9.498795e-01 9.498689e-01
<GCONST> 9.287507e+01
<STATE> 4
<MEAN> 52
 -3.237634e-03 -1.391279e-03 -8.262911e-05 -1.122740e-03 9.051822e-04 8.561655e-04 5.421659e-04 4.495496e-04 -2.752488e-04 8.154924e-06 -3.798308e-04 2.144828e-04 -3.312209e-04 8.521574e-06 -9.365131e-06 -1.936900e-05 -2.384529e-05 -5.609500e-07 -3.551575e-05 1.844930e-05 -2.820318e-06 7.114324e-06 3.341927e-06 9.052233e-06 1.390215e-05 -6.865957e-07 6.779776e-06 1.247756e-05 -7.767159e-06 -5.191266e-06 -3.627939e-06 7.386743e-06 -6.057816e-06 -1.720908e-05 5.653035e-06 6.812852e-06 3.752127e-06 -2.692360e-05 -8.301507e-07 -6.263677e-06 -2.320382e-06 5.290201e-06 7.307784e-06 4.835456e-06 1.478821e-05 -7.153999e-06 5.624742e-06 7.794187e-06 1.206940e-05 -4.297496e-06 -1.690389e-06 1.713422e-06
<VARIANCE> 52
 9.693827e-01 9.490988e-01 9.509500e-01 9.497455e-01 9.492549e-01 9.504328e-01 9.503285e-01 9.500347e-01 9.505810e-01 9.502516e-01 9.508119e-01 9.507663e-01 9.503254e-01 9.538604e-01 9.488760e-01 9.475554e-01 9.460266e-01 9.466631e-01 9.472264e-01 9.479030e-01 9.477243e-01 9.480619e-01 9.488434e-01 9.489795e-01 9.492203e-01 9.491611e-01 9.529102e-01 9.487384e-01 9.476135e-01 9.469678e-01 9.476421e-01 9.480522e-01 9.485283e-01 9.485537e-01 9.489086e-01 9.492924e-01 9.496555e-01 9.497917e-01 9.497947e-01 9.525670e-01 9.479044e-01 9.471812e-01 9.468592e-01 9.476216e-01 9.481256e-01 9.487469e-01 9.488084e-01 9.490091e-01 9.494916e-01 9.497656e-01 9.498795e-01 9.498689e-01
<GCONST> 9.287507e+01
<TRANSP> 5
 0.000000e+00 1.000000e+00 0.000000e+00 0.000000e+00 0.000000e+00
 0.000000e+00 6.000000e-01 4.000000e-01 0.000000e+00 0.000000e+00
 0.000000e+00 0.000000e+00 6.000000e-01 4.000000e-01 0.000000e+00
 0.000000e+00 0.000000e+00 0.000000e+00 6.000000e-01 4.000000e-01
 0.000000e+00 0.000000e+00 0.000000e+00 0.000000e+00 0.000000e+00
<ENDHMM>
~h "r"
<BEGINHMM>
<NUMSTATES> 5
<STATE> 2
<MEAN> 52
 -3.237634e-03 -1.391279e-03 -8.262911e-05 -1.122740e-03 9.051822e-04 8.561655e-04 5.421659e-04 4.495496e-04 -2.752488e-04 8.154924e-06 -3.798308e-04 2.144828e-04 -3.312209e-04 8.521574e-06 -9.365131e-06 -1.936900e-05 -2.384529e-05 -5.609500e-07 -3.551575e-05 1.844930e-05 -2.820318e-06 7.114324e-06 3.341927e-06 9.052233e-06 1.390215e-05 -6.865957e-07 6.779776e-06 1.247756e-05 -7.767159e-06 -5.191266e-06 -3.627939e-06 7.386743e-06 -6.057816e-06 -1.720908e-05 5.653035e-06 6.812852e-06 3.752127e-06 -2.692360e-05 -8.301507e-07 -6.263677e-06 -2.320382e-06 5.290201e-06 7.307784e-06 4.835456e-06 1.478821e-05 -7.153999e-06 5.624742e-06 7.794187e-06 1.206940e-05 -4.297496e-06 -1.690389e-06 1.713422e-06
<VARIANCE> 52
 9.693827e-01 9.490988e-01 9.509500e-01 9.497455e-01 9.492549e-01 9.504328e-01 9.503285e-01 9.500347e-01 9.505810e-01 9.502516e-01 9.508119e-01 9.507663e-01 9.503254e-01 9.538604e-01 9.488760e-01 9.475554e-01 9.460266e-01 9.466631e-01 9.472264e-01 9.479030e-01 9.477243e-01 9.480619e-01 9.488434e-01 9.489795e-01 9.492203e-01 9.491611e-01 9.529102e-01 9.487384e-01 9.476135e-01 9.469678e-01 9.476421e-01 9.480522e-01 9.485283e-01 9.485537e-01 9.489086e-01 9.492924e-01 9.496555e-01 9.497917e-01 9.497947e-01 9.525670e-01 9.479044e-01 9.471812e-01 9.468592e-01 9.476216e-01 9.481256e-01 9.487469e-01 9.488084e-01 9.490091e-01 9.494916e-01 9.497656e-01 9.498795e-01 9.498689e-01
<GCONST> 9.287507e+01
<STATE> 3
<MEAN> 52
 -3.237634e-03 -1.391279e-03 -8.262911e-05 -1.122740e-03 9.051822e-04 8.561655e-04 5.421659e-04 4.495496e-04 -2.752488e-04 8.154924e-06 -3.798308e-04 2.144828e-04 -3.312209e-04 8.521574e-06 -9.365131e-06 -1.936900e-05 -2.384529e-05 -5.609500e-07 -3.551575e-05 1.844930e-05 -2.820318e-06 7.114324e-06 3.341927e-06 9.052233e-06 1.390215e-05 -6.865957e-07 6.779776e-06 1.247756e-05 -7.767159e-06 -5.191266e-06 -3.627939e-06 7.386743e-06 -6.057816e-06 -1.720908e-05 5.653035e-06 6.812852e-06 3.752127e-06 -2.692360e-05 -8.301507e-07 -6.263677e-06 -2.320382e-06 5.290201e-06 7.307784e-06 4.835456e-06 1.478821e-05 -7.153999e-06 5.624742e-06 7.794187e-06 1.206940e-05 -4.297496e-06 -1.690389e-06 1.713422e-06
<VARIANCE> 52
 9.693827e-01 9.490988e-01 9.509500e-01 9.497455e-01 9.492549e-01 9.504328e-01 9.503285e-01 9.500347e-01 9.505810e-01 9.502516e-01 9.508119e-01 9.507663e-01 9.503254e-01 9.538604e-01 9.488760e-01 9.475554e-01 9.460266e-01 9.466631e-01 9.472264e-01 9.479030e-01 9.477243e-01 9.480619e-01 9.488434e-01 9.489795e-01 9.492203e-01 9.491611e-01 9.529102e-01 9.487384e-01 9.476135e-01 9.469678e-01 9.476421e-01 9.480522e-01 9.485283e-01 9.485537e-01 9.489086e-01 9.492924e-01 9.496555e-01 9.497917e-01 9.497947e-01 9.525670e-01 9.479044e-01 9.471812e-01 9.468592e-01 9.476216e-01 9.481256e-01 9.487469e-01 9.488084e-01 9.490091e-01 9.494916e-01 9.497656e-01 9.498795e-01 9.498689e-01
<GCONST> 9.287507e+01
<STATE> 4
<MEAN> 52
 -3.237634e-03 -1.391279e-03 -8.262911e-05 -1.122740e-03 9.051822e-04 8.561655e-04 5.421659e-04 4.495496e-04 -2.752488e-04 8.154924e-06 -3.798308e-04 2.144828e-04 -3.312209e-04 8.521574e-06 -9.365131e-06 -1.936900e-05 -2.384529e-05 -5.609500e-07 -3.551575e-05 1.844930e-05 -2.820318e-06 7.114324e-06 3.341927e-06 9.052233e-06 1.390215e-05 -6.865957e-07 6.779776e-06 1.247756e-05 -7.767159e-06 -5.191266e-06 -3.627939e-06 7.386743e-06 -6.057816e-06 -1.720908e-05 5.653035e-06 6.812852e-06 3.752127e-06 -2.692360e-05 -8.301507e-07 -6.263677e-06 -2.320382e-06 5.290201e-06 7.307784e-06 4.835456e-06 1.478821e-05 -7.153999e-06 5.624742e-06 7.794187e-06 1.206940e-05 -4.297496e-06 -1.690389e-06 1.713422e-06
<VARIANCE> 52
 9.693827e-01 9.490988e-01 9.509500e-01 9.497455e-01 9.492549e-01 9.504328e-01 9.503285e-01 9.500347e-01 9.505810e-01 9.502516e-01 9.508119e-01 9.507663e-01 9.503254e-01 9.538604e-01 9.488760e-01 9.475554e-01 9.460266e-01 9.466631e-01 9.472264e-01 9.479030e-01 9.477243e-01 9.480619e-01 9.488434e-01 9.489795e-01 9.492203e-01 9.491611e-01 9.529102e-01 9.487384e-01 9.476135e-01 9.469678e-01 9.476421e-01 9.480522e-01 9.485283e-01 9.485537e-01 9.489086e-01 9.492924e-01 9.496555e-01 9.497917e-01 9.497947e-01 9.525670e-01 9.479044e-01 9.471812e-01 9.468592e-01 9.476216e-01 9.481256e-01 9.487469e-01 9.488084e-01 9.490091e-01 9.494916e-01 9.497656e-01 9.498795e-01 9.498689e-01
<GCONST> 9.287507e+01
<TRANSP> 5
 0.000000e+00 1.000000e+00 0.000000e+00 0.000000e+00 0.000000e+00
 0.000000e+00 6.000000e-01 4.000000e-01 0.000000e+00 0.000000e+00
 0.000000e+00 0.000000e+00 6.000000e-01 4.000000e-01 0.000000e+00
 0.000000e+00 0.000000e+00 0.000000e+00 6.000000e-01 4.000000e-01
 0.000000e+00 0.000000e+00 0.000000e+00 0.000000e+00 0.000000e+00
<ENDHMM>
~h "w"
<BEGINHMM>
<NUMSTATES> 5
<STATE> 2
<MEAN> 52
 -3.237634e-03 -1.391279e-03 -8.262911e-05 -1.122740e-03 9.051822e-04 8.561655e-04 5.421659e-04 4.495496e-04 -2.752488e-04 8.154924e-06 -3.798308e-04 2.144828e-04 -3.312209e-04 8.521574e-06 -9.365131e-06 -1.936900e-05 -2.384529e-05 -5.609500e-07 -3.551575e-05 1.844930e-05 -2.820318e-06 7.114324e-06 3.341927e-06 9.052233e-06 1.390215e-05 -6.865957e-07 6.779776e-06 1.247756e-05 -7.767159e-06 -5.191266e-06 -3.627939e-06 7.386743e-06 -6.057816e-06 -1.720908e-05 5.653035e-06 6.812852e-06 3.752127e-06 -2.692360e-05 -8.301507e-07 -6.263677e-06 -2.320382e-06 5.290201e-06 7.307784e-06 4.835456e-06 1.478821e-05 -7.153999e-06 5.624742e-06 7.794187e-06 1.206940e-05 -4.297496e-06 -1.690389e-06 1.713422e-06
<VARIANCE> 52
 9.693827e-01 9.490988e-01 9.509500e-01 9.497455e-01 9.492549e-01 9.504328e-01 9.503285e-01 9.500347e-01 9.505810e-01 9.502516e-01 9.508119e-01 9.507663e-01 9.503254e-01 9.538604e-01 9.488760e-01 9.475554e-01 9.460266e-01 9.466631e-01 9.472264e-01 9.479030e-01 9.477243e-01 9.480619e-01 9.488434e-01 9.489795e-01 9.492203e-01 9.491611e-01 9.529102e-01 9.487384e-01 9.476135e-01 9.469678e-01 9.476421e-01 9.480522e-01 9.485283e-01 9.485537e-01 9.489086e-01 9.492924e-01 9.496555e-01 9.497917e-01 9.497947e-01 9.525670e-01 9.479044e-01 9.471812e-01 9.468592e-01 9.476216e-01 9.481256e-01 9.487469e-01 9.488084e-01 9.490091e-01 9.494916e-01 9.497656e-01 9.498795e-01 9.498689e-01
<GCONST> 9.287507e+01
<STATE> 3
<MEAN> 52
 -3.237634e-03 -1.391279e-03 -8.262911e-05 -1.122740e-03 9.051822e-04 8.561655e-04 5.421659e-04 4.495496e-04 -2.752488e-04 8.154924e-06 -3.798308e-04 2.144828e-04 -3.312209e-04 8.521574e-06 -9.365131e-06 -1.936900e-05 -2.384529e-05 -5.609500e-07 -3.551575e-05 1.844930e-05 -2.820318e-06 7.114324e-06 3.341927e-06 9.052233e-06 1.390215e-05 -6.865957e-07 6.779776e-06 1.247756e-05 -7.767159e-06 -5.191266e-06 -3.627939e-06 7.386743e-06 -6.057816e-06 -1.720908e-05 5.653035e-06 6.812852e-06 3.752127e-06 -2.692360e-05 -8.301507e-07 -6.263677e-06 -2.320382e-06 5.290201e-06 7.307784e-06 4.835456e-06 1.478821e-05 -7.153999e-06 5.624742e-06 7.794187e-06 1.206940e-05 -4.297496e-06 -1.690389e-06 1.713422e-06
<VARIANCE> 52
 9.693827e-01 9.490988e-01 9.509500e-01 9.497455e-01 9.492549e-01 9.504328e-01 9.503285e-01 9.500347e-01 9.505810e-01 9.502516e-01 9.508119e-01 9.507663e-01 9.503254e-01 9.538604e-01 9.488760e-01 9.475554e-01 9.460266e-01 9.466631e-01 9.472264e-01 9.479030e-01 9.477243e-01 9.480619e-01 9.488434e-01 9.489795e-01 9.492203e-01 9.491611e-01 9.529102e-01 9.487384e-01 9.476135e-01 9.469678e-01 9.476421e-01 9.480522e-01 9.485283e-01 9.485537e-01 9.489086e-01 9.492924e-01 9.496555e-01 9.497917e-01 9.497947e-01 9.525670e-01 9.479044e-01 9.471812e-01 9.468592e-01 9.476216e-01 9.481256e-01 9.487469e-01 9.488084e-01 9.490091e-01 9.494916e-01 9.497656e-01 9.498795e-01 9.498689e-01
<GCONST> 9.287507e+01
<STATE> 4
<MEAN> 52
 -3.237634e-03 -1.391279e-03 -8.262911e-05 -1.122740e-03 9.051822e-04 8.561655e-04 5.421659e-04 4.495496e-04 -2.752488e-04 8.154924e-06 -3.798308e-04 2.144828e-04 -3.312209e-04 8.521574e-06 -9.365131e-06 -1.936900e-05 -2.384529e-05 -5.609500e-07 -3.551575e-05 1.844930e-05 -2.820318e-06 7.114324e-06 3.341927e-06 9.052233e-06 1.390215e-05 -6.865957e-07 6.779776e-06 1.247756e-05 -7.767159e-06 -5.191266e-06 -3.627939e-06 7.386743e-06 -6.057816e-06 -1.720908e-05 5.653035e-06 6.812852e-06 3.752127e-06 -2.692360e-05 -8.301507e-07 -6.263677e-06 -2.320382e-06 5.290201e-06 7.307784e-06 4.835456e-06 1.478821e-05 -7.153999e-06 5.624742e-06 7.794187e-06 1.206940e-05 -4.297496e-06 -1.690389e-06 1.713422e-06
<VARIANCE> 52
 9.693827e-01 9.490988e-01 9.509500e-01 9.497455e-01 9.492549e-01 9.504328e-01 9.503285e-01 9.500347e-01 9.505810e-01 9.502516e-01 9.508119e-01 9.507663e-01 9.503254e-01 9.538604e-01 9.488760e-01 9.475554e-01 9.460266e-01 9.466631e-01 9.472264e-01 9.479030e-01 9.477243e-01 9.480619e-01 9.488434e-01 9.489795e-01 9.492203e-01 9.491611e-01 9.529102e-01 9.487384e-01 9.476135e-01 9.469678e-01 9.476421e-01 9.480522e-01 9.485283e-01 9.485537e-01 9.489086e-01 9.492924e-01 9.496555e-01 9.497917e-01 9.497947e-01 9.525670e-01 9.479044e-01 9.471812e-01 9.468592e-01 9.476216e-01 9.481256e-01 9.487469e-01 9.488084e-01 9.490091e-01 9.494916e-01 9.497656e-01 9.498795e-01 9.498689e-01
<GCONST> 9.287507e+01
<TRANSP> 5
 0.000000e+00 1.000000e+00 0.000000e+00 0.000000e+00 0.000000e+00
 0.000000e+00 6.000000e-01 4.000000e-01 0.000000e+00 0.000000e+00
 0.000000e+00 0.000000e+00 6.000000e-01 4.000000e-01 0.000000e+00
 0.000000e+00 0.000000e+00 0.000000e+00 6.000000e-01 4.000000e-01
 0.000000e+00 0.000000e+00 0.000000e+00 0.000000e+00 0.000000e+00
<ENDHMM>
~h "o"
<BEGINHMM>
<NUMSTATES> 5
<STATE> 2
<MEAN> 52
 -3.237634e-03 -1.391279e-03 -8.262911e-05 -1.122740e-03 9.051822e-04 8.561655e-04 5.421659e-04 4.495496e-04 -2.752488e-04 8.154924e-06 -3.798308e-04 2.144828e-04 -3.312209e-04 8.521574e-06 -9.365131e-06 -1.936900e-05 -2.384529e-05 -5.609500e-07 -3.551575e-05 1.844930e-05 -2.820318e-06 7.114324e-06 3.341927e-06 9.052233e-06 1.390215e-05 -6.865957e-07 6.779776e-06 1.247756e-05 -7.767159e-06 -5.191266e-06 -3.627939e-06 7.386743e-06 -6.057816e-06 -1.720908e-05 5.653035e-06 6.812852e-06 3.752127e-06 -2.692360e-05 -8.301507e-07 -6.263677e-06 -2.320382e-06 5.290201e-06 7.307784e-06 4.835456e-06 1.478821e-05 -7.153999e-06 5.624742e-06 7.794187e-06 1.206940e-05 -4.297496e-06 -1.690389e-06 1.713422e-06
<VARIANCE> 52
 9.693827e-01 9.490988e-01 9.509500e-01 9.497455e-01 9.492549e-01 9.504328e-01 9.503285e-01 9.500347e-01 9.505810e-01 9.502516e-01 9.508119e-01 9.507663e-01 9.503254e-01 9.538604e-01 9.488760e-01 9.475554e-01 9.460266e-01 9.466631e-01 9.472264e-01 9.479030e-01 9.477243e-01 9.480619e-01 9.488434e-01 9.489795e-01 9.492203e-01 9.491611e-01 9.529102e-01 9.487384e-01 9.476135e-01 9.469678e-01 9.476421e-01 9.480522e-01 9.485283e-01 9.485537e-01 9.489086e-01 9.492924e-01 9.496555e-01 9.497917e-01 9.497947e-01 9.525670e-01 9.479044e-01 9.471812e-01 9.468592e-01 9.476216e-01 9.481256e-01 9.487469e-01 9.488084e-01 9.490091e-01 9.494916e-01 9.497656e-01 9.498795e-01 9.498689e-01
<GCONST> 9.287507e+01
<STATE> 3
<MEAN> 52
 -3.237634e-03 -1.391279e-03 -8.262911e-05 -1.122740e-03 9.051822e-04 8.561655e-04 5.421659e-04 4.495496e-04 -2.752488e-04 8.154924e-06 -3.798308e-04 2.144828e-04 -3.312209e-04 8.521574e-06 -9.365131e-06 -1.936900e-05 -2.384529e-05 -5.609500e-07 -3.551575e-05 1.844930e-05 -2.820318e-06 7.114324e-06 3.341927e-06 9.052233e-06 1.390215e-05 -6.865957e-07 6.779776e-06 1.247756e-05 -7.767159e-06 -5.191266e-06 -3.627939e-06 7.386743e-06 -6.057816e-06 -1.720908e-05 5.653035e-06 6.812852e-06 3.752127e-06 -2.692360e-05 -8.301507e-07 -6.263677e-06 -2.320382e-06 5.290201e-06 7.307784e-06 4.835456e-06 1.478821e-05 -7.153999e-06 5.624742e-06 7.794187e-06 1.206940e-05 -4.297496e-06 -1.690389e-06 1.713422e-06
<VARIANCE> 52
 9.693827e-01 9.490988e-01 9.509500e-01 9.497455e-01 9.492549e-01 9.504328e-01 9.503285e-01 9.500347e-01 9.505810e-01 9.502516e-01 9.508119e-01 9.507663e-01 9.503254e-01 9.538604e-01 9.488760e-01 9.475554e-01 9.460266e-01 9.466631e-01 9.472264e-01 9.479030e-01 9.477243e-01 9.480619e-01 9.488434e-01 9.489795e-01 9.492203e-01 9.491611e-01 9.529102e-01 9.487384e-01 9.476135e-01 9.469678e-01 9.476421e-01 9.480522e-01 9.485283e-01 9.485537e-01 9.489086e-01 9.492924e-01 9.496555e-01 9.497917e-01 9.497947e-01 9.525670e-01 9.479044e-01 9.471812e-01 9.468592e-01 9.476216e-01 9.481256e-01 9.487469e-01 9.488084e-01 9.490091e-01 9.494916e-01 9.497656e-01 9.498795e-01 9.498689e-01
<GCONST> 9.287507e+01
<STATE> 4
<MEAN> 52
 -3.237634e-03 -1.391279e-03 -8.262911e-05 -1.122740e-03 9.051822e-04 8.561655e-04 5.421659e-04 4.495496e-04 -2.752488e-04 8.154924e-06 -3.798308e-04 2.144828e-04 -3.312209e-04 8.521574e-06 -9.365131e-06 -1.936900e-05 -2.384529e-05 -5.609500e-07 -3.551575e-05 1.844930e-05 -2.820318e-06 7.114324e-06 3.341927e-06 9.052233e-06 1.390215e-05 -6.865957e-07 6.779776e-06 1.247756e-05 -7.767159e-06 -5.191266e-06 -3.627939e-06 7.386743e-06 -6.057816e-06 -1.720908e-05 5.653035e-06 6.812852e-06 3.752127e-06 -2.692360e-05 -8.301507e-07 -6.263677e-06 -2.320382e-06 5.290201e-06 7.307784e-06 4.835456e-06 1.478821e-05 -7.153999e-06 5.624742e-06 7.794187e-06 1.206940e-05 -4.297496e-06 -1.690389e-06 1.713422e-06
<VARIANCE> 52
 9.693827e-01 9.490988e-01 9.509500e-01 9.497455e-01 9.492549e-01 9.504328e-01 9.503285e-01 9.500347e-01 9.505810e-01 9.502516e-01 9.508119e-01 9.507663e-01 9.503254e-01 9.538604e-01 9.488760e-01 9.475554e-01 9.460266e-01 9.466631e-01 9.472264e-01 9.479030e-01 9.477243e-01 9.480619e-01 9.488434e-01 9.489795e-01 9.492203e-01 9.491611e-01 9.529102e-01 9.487384e-01 9.476135e-01 9.469678e-01 9.476421e-01 9.480522e-01 9.485283e-01 9.485537e-01 9.489086e-01 9.492924e-01 9.496555e-01 9.497917e-01 9.497947e-01 9.525670e-01 9.479044e-01 9.471812e-01 9.468592e-01 9.476216e-01 9.481256e-01 9.487469e-01 9.488084e-01 9.490091e-01 9.494916e-01 9.497656e-01 9.498795e-01 9.498689e-01
<GCONST> 9.287507e+01
<TRANSP> 5
 0.000000e+00 1.000000e+00 0.000000e+00 0.000000e+00 0.000000e+00
 0.000000e+00 6.000000e-01 4.000000e-01 0.000000e+00 0.000000e+00
 0.000000e+00 0.000000e+00 6.000000e-01 4.000000e-01 0.000000e+00
 0.000000e+00 0.000000e+00 0.000000e+00 6.000000e-01 4.000000e-01
 0.000000e+00 0.000000e+00 0.000000e+00 0.000000e+00 0.000000e+00
<ENDHMM>
~h "t"
<BEGINHMM>
<NUMSTATES> 5
<STATE> 2
<MEAN> 52
 -3.237634e-03 -1.391279e-03 -8.262911e-05 -1.122740e-03 9.051822e-04 8.561655e-04 5.421659e-04 4.495496e-04 -2.752488e-04 8.154924e-06 -3.798308e-04 2.144828e-04 -3.312209e-04 8.521574e-06 -9.365131e-06 -1.936900e-05 -2.384529e-05 -5.609500e-07 -3.551575e-05 1.844930e-05 -2.820318e-06 7.114324e-06 3.341927e-06 9.052233e-06 1.390215e-05 -6.865957e-07 6.779776e-06 1.247756e-05 -7.767159e-06 -5.191266e-06 -3.627939e-06 7.386743e-06 -6.057816e-06 -1.720908e-05 5.653035e-06 6.812852e-06 3.752127e-06 -2.692360e-05 -8.301507e-07 -6.263677e-06 -2.320382e-06 5.290201e-06 7.307784e-06 4.835456e-06 1.478821e-05 -7.153999e-06 5.624742e-06 7.794187e-06 1.206940e-05 -4.297496e-06 -1.690389e-06 1.713422e-06
<VARIANCE> 52
 9.693827e-01 9.490988e-01 9.509500e-01 9.497455e-01 9.492549e-01 9.504328e-01 9.503285e-01 9.500347e-01 9.505810e-01 9.502516e-01 9.508119e-01 9.507663e-01 9.503254e-01 9.538604e-01 9.488760e-01 9.475554e-01 9.460266e-01 9.466631e-01 9.472264e-01 9.479030e-01 9.477243e-01 9.480619e-01 9.488434e-01 9.489795e-01 9.492203e-01 9.491611e-01 9.529102e-01 9.487384e-01 9.476135e-01 9.469678e-01 9.476421e-01 9.480522e-01 9.485283e-01 9.485537e-01 9.489086e-01 9.492924e-01 9.496555e-01 9.497917e-01 9.497947e-01 9.525670e-01 9.479044e-01 9.471812e-01 9.468592e-01 9.476216e-01 9.481256e-01 9.487469e-01 9.488084e-01 9.490091e-01 9.494916e-01 9.497656e-01 9.498795e-01 9.498689e-01
<GCONST> 9.287507e+01
<STATE> 3
<MEAN> 52
 -3.237634e-03 -1.391279e-03 -8.262911e-05 -1.122740e-03 9.051822e-04 8.561655e-04 5.421659e-04 4.495496e-04 -2.752488e-04 8.154924e-06 -3.798308e-04 2.144828e-04 -3.312209e-04 8.521574e-06 -9.365131e-06 -1.936900e-05 -2.384529e-05 -5.609500e-07 -3.551575e-05 1.844930e-05 -2.820318e-06 7.114324e-06 3.341927e-06 9.052233e-06 1.390215e-05 -6.865957e-07 6.779776e-06 1.247756e-05 -7.767159e-06 -5.191266e-06 -3.627939e-06 7.386743e-06 -6.057816e-06 -1.720908e-05 5.653035e-06 6.812852e-06 3.752127e-06 -2.692360e-05 -8.301507e-07 -6.263677e-06 -2.320382e-06 5.290201e-06 7.307784e-06 4.835456e-06 1.478821e-05 -7.153999e-06 5.624742e-06 7.794187e-06 1.206940e-05 -4.297496e-06 -1.690389e-06 1.713422e-06
<VARIANCE> 52
 9.693827e-01 9.490988e-01 9.509500e-01 9.497455e-01 9.492549e-01 9.504328e-01 9.503285e-01 9.500347e-01 9.505810e-01 9.502516e-01 9.508119e-01 9.507663e-01 9.503254e-01 9.538604e-01 9.488760e-01 9.475554e-01 9.460266e-01 9.466631e-01 9.472264e-01 9.479030e-01 9.477243e-01 9.480619e-01 9.488434e-01 9.489795e-01 9.492203e-01 9.491611e-01 9.529102e-01 9.487384e-01 9.476135e-01 9.469678e-01 9.476421e-01 9.480522e-01 9.485283e-01 9.485537e-01 9.489086e-01 9.492924e-01 9.496555e-01 9.497917e-01 9.497947e-01 9.525670e-01 9.479044e-01 9.471812e-01 9.468592e-01 9.476216e-01 9.481256e-01 9.487469e-01 9.488084e-01 9.490091e-01 9.494916e-01 9.497656e-01 9.498795e-01 9.498689e-01
<GCONST> 9.287507e+01
<STATE> 4
<MEAN> 52
 -3.237634e-03 -1.391279e-03 -8.262911e-05 -1.122740e-03 9.051822e-04 8.561655e-04 5.421659e-04 4.495496e-04 -2.752488e-04 8.154924e-06 -3.798308e-04 2.144828e-04 -3.312209e-04 8.521574e-06 -9.365131e-06 -1.936900e-05 -2.384529e-05 -5.609500e-07 -3.551575e-05 1.844930e-05 -2.820318e-06 7.114324e-06 3.341927e-06 9.052233e-06 1.390215e-05 -6.865957e-07 6.779776e-06 1.247756e-05 -7.767159e-06 -5.191266e-06 -3.627939e-06 7.386743e-06 -6.057816e-06 -1.720908e-05 5.653035e-06 6.812852e-06 3.752127e-06 -2.692360e-05 -8.301507e-07 -6.263677e-06 -2.320382e-06 5.290201e-06 7.307784e-06 4.835456e-06 1.478821e-05 -7.153999e-06 5.624742e-06 7.794187e-06 1.206940e-05 -4.297496e-06 -1.690389e-06 1.713422e-06
<VARIANCE> 52
 9.693827e-01 9.490988e-01 9.509500e-01 9.497455e-01 9.492549e-01 9.504328e-01 9.503285e-01 9.500347e-01 9.505810e-01 9.502516e-01 9.508119e-01 9.507663e-01 9.503254e-01 9.538604e-01 9.488760e-01 9.475554e-01 9.460266e-01 9.466631e-01 9.472264e-01 9.479030e-01 9.477243e-01 9.480619e-01 9.488434e-01 9.489795e-01 9.492203e-01 9.491611e-01 9.529102e-01 9.487384e-01 9.476135e-01 9.469678e-01 9.476421e-01 9.480522e-01 9.485283e-01 9.485537e-01 9.489086e-01 9.492924e-01 9.496555e-01 9.497917e-01 9.497947e-01 9.525670e-01 9.479044e-01 9.471812e-01 9.468592e-01 9.476216e-01 9.481256e-01 9.487469e-01 9.488084e-01 9.490091e-01 9.494916e-01 9.497656e-01 9.498795e-01 9.498689e-01
<GCONST> 9.287507e+01
<TRANSP> 5
 0.000000e+00 1.000000e+00 0.000000e+00 0.000000e+00 0.000000e+00
 0.000000e+00 6.000000e-01 4.000000e-01 0.000000e+00 0.000000e+00
 0.000000e+00 0.000000e+00 6.000000e-01 4.000000e-01 0.000000e+00
 0.000000e+00 0.000000e+00 0.000000e+00 6.000000e-01 4.000000e-01
 0.000000e+00 0.000000e+00 0.000000e+00 0.000000e+00 0.000000e+00
<ENDHMM>
~h "sil"
<BEGINHMM>
<NUMSTATES> 5
<STATE> 2
<MEAN> 52
 -3.237634e-03 -1.391279e-03 -8.262911e-05 -1.122740e-03 9.051822e-04 8.561655e-04 5.421659e-04 4.495496e-04 -2.752488e-04 8.154924e-06 -3.798308e-04 2.144828e-04 -3.312209e-04 8.521574e-06 -9.365131e-06 -1.936900e-05 -2.384529e-05 -5.609500e-07 -3.551575e-05 1.844930e-05 -2.820318e-06 7.114324e-06 3.341927e-06 9.052233e-06 1.390215e-05 -6.865957e-07 6.779776e-06 1.247756e-05 -7.767159e-06 -5.191266e-06 -3.627939e-06 7.386743e-06 -6.057816e-06 -1.720908e-05 5.653035e-06 6.812852e-06 3.752127e-06 -2.692360e-05 -8.301507e-07 -6.263677e-06 -2.320382e-06 5.290201e-06 7.307784e-06 4.835456e-06 1.478821e-05 -7.153999e-06 5.624742e-06 7.794187e-06 1.206940e-05 -4.297496e-06 -1.690389e-06 1.713422e-06
<VARIANCE> 52
 9.693827e-01 9.490988e-01 9.509500e-01 9.497455e-01 9.492549e-01 9.504328e-01 9.503285e-01 9.500347e-01 9.505810e-01 9.502516e-01 9.508119e-01 9.507663e-01 9.503254e-01 9.538604e-01 9.488760e-01 9.475554e-01 9.460266e-01 9.466631e-01 9.472264e-01 9.479030e-01 9.477243e-01 9.480619e-01 9.488434e-01 9.489795e-01 9.492203e-01 9.491611e-01 9.529102e-01 9.487384e-01 9.476135e-01 9.469678e-01 9.476421e-01 9.480522e-01 9.485283e-01 9.485537e-01 9.489086e-01 9.492924e-01 9.496555e-01 9.497917e-01 9.497947e-01 9.525670e-01 9.479044e-01 9.471812e-01 9.468592e-01 9.476216e-01 9.481256e-01 9.487469e-01 9.488084e-01 9.490091e-01 9.494916e-01 9.497656e-01 9.498795e-01 9.498689e-01
<GCONST> 9.287507e+01
<STATE> 3
<MEAN> 52
 -3.237634e-03 -1.391279e-03 -8.262911e-05 -1.122740e-03 9.051822e-04 8.561655e-04 5.421659e-04 4.495496e-04 -2.752488e-04 8.154924e-06 -3.798308e-04 2.144828e-04 -3.312209e-04 8.521574e-06 -9.365131e-06 -1.936900e-05 -2.384529e-05 -5.609500e-07 -3.551575e-05 1.844930e-05 -2.820318e-06 7.114324e-06 3.341927e-06 9.052233e-06 1.390215e-05 -6.865957e-07 6.779776e-06 1.247756e-05 -7.767159e-06 -5.191266e-06 -3.627939e-06 7.386743e-06 -6.057816e-06 -1.720908e-05 5.653035e-06 6.812852e-06 3.752127e-06 -2.692360e-05 -8.301507e-07 -6.263677e-06 -2.320382e-06 5.290201e-06 7.307784e-06 4.835456e-06 1.478821e-05 -7.153999e-06 5.624742e-06 7.794187e-06 1.206940e-05 -4.297496e-06 -1.690389e-06 1.713422e-06
<VARIANCE> 52
 9.693827e-01 9.490988e-01 9.509500e-01 9.497455e-01 9.492549e-01 9.504328e-01 9.503285e-01 9.500347e-01 9.505810e-01 9.502516e-01 9.508119e-01 9.507663e-01 9.503254e-01 9.538604e-01 9.488760e-01 9.475554e-01 9.460266e-01 9.466631e-01 9.472264e-01 9.479030e-01 9.477243e-01 9.480619e-01 9.488434e-01 9.489795e-01 9.492203e-01 9.491611e-01 9.529102e-01 9.487384e-01 9.476135e-01 9.469678e-01 9.476421e-01 9.480522e-01 9.485283e-01 9.485537e-01 9.489086e-01 9.492924e-01 9.496555e-01 9.497917e-01 9.497947e-01 9.525670e-01 9.479044e-01 9.471812e-01 9.468592e-01 9.476216e-01 9.481256e-01 9.487469e-01 9.488084e-01 9.490091e-01 9.494916e-01 9.497656e-01 9.498795e-01 9.498689e-01
<GCONST> 9.287507e+01
<STATE> 4
<MEAN> 52
 -3.237634e-03 -1.391279e-03 -8.262911e-05 -1.122740e-03 9.051822e-04 8.561655e-04 5.421659e-04 4.495496e-04 -2.752488e-04 8.154924e-06 -3.798308e-04 2.144828e-04 -3.312209e-04 8.521574e-06 -9.365131e-06 -1.936900e-05 -2.384529e-05 -5.609500e-07 -3.551575e-05 1.844930e-05 -2.820318e-06 7.114324e-06 3.341927e-06 9.052233e-06 1.390215e-05 -6.865957e-07 6.779776e-06 1.247756e-05 -7.767159e-06 -5.191266e-06 -3.627939e-06 7.386743e-06 -6.057816e-06 -1.720908e-05 5.653035e-06 6.812852e-06 3.752127e-06 -2.692360e-05 -8.301507e-07 -6.263677e-06 -2.320382e-06 5.290201e-06 7.307784e-06 4.835456e-06 1.478821e-05 -7.153999e-06 5.624742e-06 7.794187e-06 1.206940e-05 -4.297496e-06 -1.690389e-06 1.713422e-06
<VARIANCE> 52
 9.693827e-01 9.490988e-01 9.509500e-01 9.497455e-01 9.492549e-01 9.504328e-01 9.503285e-01 9.500347e-01 9.505810e-01 9.502516e-01 9.508119e-01 9.507663e-01 9.503254e-01 9.538604e-01 9.488760e-01 9.475554e-01 9.460266e-01 9.466631e-01 9.472264e-01 9.479030e-01 9.477243e-01 9.480619e-01 9.488434e-01 9.489795e-01 9.492203e-01 9.491611e-01 9.529102e-01 9.487384e-01 9.476135e-01 9.469678e-01 9.476421e-01 9.480522e-01 9.485283e-01 9.485537e-01 9.489086e-01 9.492924e-01 9.496555e-01 9.497917e-01 9.497947e-01 9.525670e-01 9.479044e-01 9.471812e-01 9.468592e-01 9.476216e-01 9.481256e-01 9.487469e-01 9.488084e-01 9.490091e-01 9.494916e-01 9.497656e-01 9.498795e-01 9.498689e-01
<GCONST> 9.287507e+01
<TRANSP> 5
 0.000000e+00 1.000000e+00 0.000000e+00 0.000000e+00 0.000000e+00
 0.000000e+00 6.000000e-01 4.000000e-01 0.000000e+00 0.000000e+00
 0.000000e+00 0.000000e+00 6.000000e-01 4.000000e-01 0.000000e+00
 0.000000e+00 0.000000e+00 0.000000e+00 6.000000e-01 4.000000e-01
 0.000000e+00 0.000000e+00 0.000000e+00 0.000000e+00 0.000000e+00
<ENDHMM>
~h "rf"
<BEGINHMM>
<NUMSTATES> 5
<STATE> 2
<MEAN> 52
 -3.237634e-03 -1.391279e-03 -8.262911e-05 -1.122740e-03 9.051822e-04 8.561655e-04 5.421659e-04 4.495496e-04 -2.752488e-04 8.154924e-06 -3.798308e-04 2.144828e-04 -3.312209e-04 8.521574e-06 -9.365131e-06 -1.936900e-05 -2.384529e-05 -5.609500e-07 -3.551575e-05 1.844930e-05 -2.820318e-06 7.114324e-06 3.341927e-06 9.052233e-06 1.390215e-05 -6.865957e-07 6.779776e-06 1.247756e-05 -7.767159e-06 -5.191266e-06 -3.627939e-06 7.386743e-06 -6.057816e-06 -1.720908e-05 5.653035e-06 6.812852e-06 3.752127e-06 -2.692360e-05 -8.301507e-07 -6.263677e-06 -2.320382e-06 5.290201e-06 7.307784e-06 4.835456e-06 1.478821e-05 -7.153999e-06 5.624742e-06 7.794187e-06 1.206940e-05 -4.297496e-06 -1.690389e-06 1.713422e-06
<VARIANCE> 52
 9.693827e-01 9.490988e-01 9.509500e-01 9.497455e-01 9.492549e-01 9.504328e-01 9.503285e-01 9.500347e-01 9.505810e-01 9.502516e-01 9.508119e-01 9.507663e-01 9.503254e-01 9.538604e-01 9.488760e-01 9.475554e-01 9.460266e-01 9.466631e-01 9.472264e-01 9.479030e-01 9.477243e-01 9.480619e-01 9.488434e-01 9.489795e-01 9.492203e-01 9.491611e-01 9.529102e-01 9.487384e-01 9.476135e-01 9.469678e-01 9.476421e-01 9.480522e-01 9.485283e-01 9.485537e-01 9.489086e-01 9.492924e-01 9.496555e-01 9.497917e-01 9.497947e-01 9.525670e-01 9.479044e-01 9.471812e-01 9.468592e-01 9.476216e-01 9.481256e-01 9.487469e-01 9.488084e-01 9.490091e-01 9.494916e-01 9.497656e-01 9.498795e-01 9.498689e-01
<GCONST> 9.287507e+01
<STATE> 3
<MEAN> 52
 -3.237634e-03 -1.391279e-03 -8.262911e-05 -1.122740e-03 9.051822e-04 8.561655e-04 5.421659e-04 4.495496e-04 -2.752488e-04 8.154924e-06 -3.798308e-04 2.144828e-04 -3.312209e-04 8.521574e-06 -9.365131e-06 -1.936900e-05 -2.384529e-05 -5.609500e-07 -3.551575e-05 1.844930e-05 -2.820318e-06 7.114324e-06 3.341927e-06 9.052233e-06 1.390215e-05 -6.865957e-07 6.779776e-06 1.247756e-05 -7.767159e-06 -5.191266e-06 -3.627939e-06 7.386743e-06 -6.057816e-06 -1.720908e-05 5.653035e-06 6.812852e-06 3.752127e-06 -2.692360e-05 -8.301507e-07 -6.263677e-06 -2.320382e-06 5.290201e-06 7.307784e-06 4.835456e-06 1.478821e-05 -7.153999e-06 5.624742e-06 7.794187e-06 1.206940e-05 -4.297496e-06 -1.690389e-06 1.713422e-06
<VARIANCE> 52
 9.693827e-01 9.490988e-01 9.509500e-01 9.497455e-01 9.492549e-01 9.504328e-01 9.503285e-01 9.500347e-01 9.505810e-01 9.502516e-01 9.508119e-01 9.507663e-01 9.503254e-01 9.538604e-01 9.488760e-01 9.475554e-01 9.460266e-01 9.466631e-01 9.472264e-01 9.479030e-01 9.477243e-01 9.480619e-01 9.488434e-01 9.489795e-01 9.492203e-01 9.491611e-01 9.529102e-01 9.487384e-01 9.476135e-01 9.469678e-01 9.476421e-01 9.480522e-01 9.485283e-01 9.485537e-01 9.489086e-01 9.492924e-01 9.496555e-01 9.497917e-01 9.497947e-01 9.525670e-01 9.479044e-01 9.471812e-01 9.468592e-01 9.476216e-01 9.481256e-01 9.487469e-01 9.488084e-01 9.490091e-01 9.494916e-01 9.497656e-01 9.498795e-01 9.498689e-01
<GCONST> 9.287507e+01
<STATE> 4
<MEAN> 52
 -3.237634e-03 -1.391279e-03 -8.262911e-05 -1.122740e-03 9.051822e-04 8.561655e-04 5.421659e-04 4.495496e-04 -2.752488e-04 8.154924e-06 -3.798308e-04 2.144828e-04 -3.312209e-04 8.521574e-06 -9.365131e-06 -1.936900e-05 -2.384529e-05 -5.609500e-07 -3.551575e-05 1.844930e-05 -2.820318e-06 7.114324e-06 3.341927e-06 9.052233e-06 1.390215e-05 -6.865957e-07 6.779776e-06 1.247756e-05 -7.767159e-06 -5.191266e-06 -3.627939e-06 7.386743e-06 -6.057816e-06 -1.720908e-05 5.653035e-06 6.812852e-06 3.752127e-06 -2.692360e-05 -8.301507e-07 -6.263677e-06 -2.320382e-06 5.290201e-06 7.307784e-06 4.835456e-06 1.478821e-05 -7.153999e-06 5.624742e-06 7.794187e-06 1.206940e-05 -4.297496e-06 -1.690389e-06 1.713422e-06
<VARIANCE> 52
 9.693827e-01 9.490988e-01 9.509500e-01 9.497455e-01 9.492549e-01 9.504328e-01 9.503285e-01 9.500347e-01 9.505810e-01 9.502516e-01 9.508119e-01 9.507663e-01 9.503254e-01 9.538604e-01 9.488760e-01 9.475554e-01 9.460266e-01 9.466631e-01 9.472264e-01 9.479030e-01 9.477243e-01 9.480619e-01 9.488434e-01 9.489795e-01 9.492203e-01 9.491611e-01 9.529102e-01 9.487384e-01 9.476135e-01 9.469678e-01 9.476421e-01 9.480522e-01 9.485283e-01 9.485537e-01 9.489086e-01 9.492924e-01 9.496555e-01 9.497917e-01 9.497947e-01 9.525670e-01 9.479044e-01 9.471812e-01 9.468592e-01 9.476216e-01 9.481256e-01 9.487469e-01 9.488084e-01 9.490091e-01 9.494916e-01 9.497656e-01 9.498795e-01 9.498689e-01
<GCONST> 9.287507e+01
<TRANSP> 5
 0.000000e+00 1.000000e+00 0.000000e+00 0.000000e+00 0.000000e+00
 0.000000e+00 6.000000e-01 4.000000e-01 0.000000e+00 0.000000e+00
 0.000000e+00 0.000000e+00 6.000000e-01 4.000000e-01 0.000000e+00
 0.000000e+00 0.000000e+00 0.000000e+00 6.000000e-01 4.000000e-01
 0.000000e+00 0.000000e+00 0.000000e+00 0.000000e+00 0.000000e+00
<ENDHMM>
~h "s"
<BEGINHMM>
<NUMSTATES> 5
<STATE> 2
<MEAN> 52
 -3.237634e-03 -1.391279e-03 -8.262911e-05 -1.122740e-03 9.051822e-04 8.561655e-04 5.421659e-04 4.495496e-04 -2.752488e-04 8.154924e-06 -3.798308e-04 2.144828e-04 -3.312209e-04 8.521574e-06 -9.365131e-06 -1.936900e-05 -2.384529e-05 -5.609500e-07 -3.551575e-05 1.844930e-05 -2.820318e-06 7.114324e-06 3.341927e-06 9.052233e-06 1.390215e-05 -6.865957e-07 6.779776e-06 1.247756e-05 -7.767159e-06 -5.191266e-06 -3.627939e-06 7.386743e-06 -6.057816e-06 -1.720908e-05 5.653035e-06 6.812852e-06 3.752127e-06 -2.692360e-05 -8.301507e-07 -6.263677e-06 -2.320382e-06 5.290201e-06 7.307784e-06 4.835456e-06 1.478821e-05 -7.153999e-06 5.624742e-06 7.794187e-06 1.206940e-05 -4.297496e-06 -1.690389e-06 1.713422e-06
<VARIANCE> 52
 9.693827e-01 9.490988e-01 9.509500e-01 9.497455e-01 9.492549e-01 9.504328e-01 9.503285e-01 9.500347e-01 9.505810e-01 9.502516e-01 9.508119e-01 9.507663e-01 9.503254e-01 9.538604e-01 9.488760e-01 9.475554e-01 9.460266e-01 9.466631e-01 9.472264e-01 9.479030e-01 9.477243e-01 9.480619e-01 9.488434e-01 9.489795e-01 9.492203e-01 9.491611e-01 9.529102e-01 9.487384e-01 9.476135e-01 9.469678e-01 9.476421e-01 9.480522e-01 9.485283e-01 9.485537e-01 9.489086e-01 9.492924e-01 9.496555e-01 9.497917e-01 9.497947e-01 9.525670e-01 9.479044e-01 9.471812e-01 9.468592e-01 9.476216e-01 9.481256e-01 9.487469e-01 9.488084e-01 9.490091e-01 9.494916e-01 9.497656e-01 9.498795e-01 9.498689e-01
<GCONST> 9.287507e+01
<STATE> 3
<MEAN> 52
 -3.237634e-03 -1.391279e-03 -8.262911e-05 -1.122740e-03 9.051822e-04 8.561655e-04 5.421659e-04 4.495496e-04 -2.752488e-04 8.154924e-06 -3.798308e-04 2.144828e-04 -3.312209e-04 8.521574e-06 -9.365131e-06 -1.936900e-05 -2.384529e-05 -5.609500e-07 -3.551575e-05 1.844930e-05 -2.820318e-06 7.114324e-06 3.341927e-06 9.052233e-06 1.390215e-05 -6.865957e-07 6.779776e-06 1.247756e-05 -7.767159e-06 -5.191266e-06 -3.627939e-06 7.386743e-06 -6.057816e-06 -1.720908e-05 5.653035e-06 6.812852e-06 3.752127e-06 -2.692360e-05 -8.301507e-07 -6.263677e-06 -2.320382e-06 5.290201e-06 7.307784e-06 4.835456e-06 1.478821e-05 -7.153999e-06 5.624742e-06 7.794187e-06 1.206940e-05 -4.297496e-06 -1.690389e-06 1.713422e-06
<VARIANCE> 52
 9.693827e-01 9.490988e-01 9.509500e-01 9.497455e-01 9.492549e-01 9.504328e-01 9.503285e-01 9.500347e-01 9.505810e-01 9.502516e-01 9.508119e-01 9.507663e-01 9.503254e-01 9.538604e-01 9.488760e-01 9.475554e-01 9.460266e-01 9.466631e-01 9.472264e-01 9.479030e-01 9.477243e-01 9.480619e-01 9.488434e-01 9.489795e-01 9.492203e-01 9.491611e-01 9.529102e-01 9.487384e-01 9.476135e-01 9.469678e-01 9.476421e-01 9.480522e-01 9.485283e-01 9.485537e-01 9.489086e-01 9.492924e-01 9.496555e-01 9.497917e-01 9.497947e-01 9.525670e-01 9.479044e-01 9.471812e-01 9.468592e-01 9.476216e-01 9.481256e-01 9.487469e-01 9.488084e-01 9.490091e-01 9.494916e-01 9.497656e-01 9.498795e-01 9.498689e-01
<GCONST> 9.287507e+01
<STATE> 4
<MEAN> 52
 -3.237634e-03 -1.391279e-03 -8.262911e-05 -1.122740e-03 9.051822e-04 8.561655e-04 5.421659e-04 4.495496e-04 -2.752488e-04 8.154924e-06 -3.798308e-04 2.144828e-04 -3.312209e-04 8.521574e-06 -9.365131e-06 -1.936900e-05 -2.384529e-05 -5.609500e-07 -3.551575e-05 1.844930e-05 -2.820318e-06 7.114324e-06 3.341927e-06 9.052233e-06 1.390215e-05 -6.865957e-07 6.779776e-06 1.247756e-05 -7.767159e-06 -5.191266e-06 -3.627939e-06 7.386743e-06 -6.057816e-06 -1.720908e-05 5.653035e-06 6.812852e-06 3.752127e-06 -2.692360e-05 -8.301507e-07 -6.263677e-06 -2.320382e-06 5.290201e-06 7.307784e-06 4.835456e-06 1.478821e-05 -7.153999e-06 5.624742e-06 7.794187e-06 1.206940e-05 -4.297496e-06 -1.690389e-06 1.713422e-06
<VARIANCE> 52
 9.693827e-01 9.490988e-01 9.509500e-01 9.497455e-01 9.492549e-01 9.504328e-01 9.503285e-01 9.500347e-01 9.505810e-01 9.502516e-01 9.508119e-01 9.507663e-01 9.503254e-01 9.538604e-01 9.488760e-01 9.475554e-01 9.460266e-01 9.466631e-01 9.472264e-01 9.479030e-01 9.477243e-01 9.480619e-01 9.488434e-01 9.489795e-01 9.492203e-01 9.491611e-01 9.529102e-01 9.487384e-01 9.476135e-01 9.469678e-01 9.476421e-01 9.480522e-01 9.485283e-01 9.485537e-01 9.489086e-01 9.492924e-01 9.496555e-01 9.497917e-01 9.497947e-01 9.525670e-01 9.479044e-01 9.471812e-01 9.468592e-01 9.476216e-01 9.481256e-01 9.487469e-01 9.488084e-01 9.490091e-01 9.494916e-01 9.497656e-01 9.498795e-01 9.498689e-01
<GCONST> 9.287507e+01
<TRANSP> 5
 0.000000e+00 1.000000e+00 0.000000e+00 0.000000e+00 0.000000e+00
 0.000000e+00 6.000000e-01 4.000000e-01 0.000000e+00 0.000000e+00
 0.000000e+00 0.000000e+00 6.000000e-01 4.000000e-01 0.000000e+00
 0.000000e+00 0.000000e+00 0.000000e+00 6.000000e-01 4.000000e-01
 0.000000e+00 0.000000e+00 0.000000e+00 0.000000e+00 0.000000e+00
<ENDHMM>
~h "b"
<BEGINHMM>
<NUMSTATES> 5
<STATE> 2
<MEAN> 52
 -3.237634e-03 -1.391279e-03 -8.262911e-05 -1.122740e-03 9.051822e-04 8.561655e-04 5.421659e-04 4.495496e-04 -2.752488e-04 8.154924e-06 -3.798308e-04 2.144828e-04 -3.312209e-04 8.521574e-06 -9.365131e-06 -1.936900e-05 -2.384529e-05 -5.609500e-07 -3.551575e-05 1.844930e-05 -2.820318e-06 7.114324e-06 3.341927e-06 9.052233e-06 1.390215e-05 -6.865957e-07 6.779776e-06 1.247756e-05 -7.767159e-06 -5.191266e-06 -3.627939e-06 7.386743e-06 -6.057816e-06 -1.720908e-05 5.653035e-06 6.812852e-06 3.752127e-06 -2.692360e-05 -8.301507e-07 -6.263677e-06 -2.320382e-06 5.290201e-06 7.307784e-06 4.835456e-06 1.478821e-05 -7.153999e-06 5.624742e-06 7.794187e-06 1.206940e-05 -4.297496e-06 -1.690389e-06 1.713422e-06
<VARIANCE> 52
 9.693827e-01 9.490988e-01 9.509500e-01 9.497455e-01 9.492549e-01 9.504328e-01 9.503285e-01 9.500347e-01 9.505810e-01 9.502516e-01 9.508119e-01 9.507663e-01 9.503254e-01 9.538604e-01 9.488760e-01 9.475554e-01 9.460266e-01 9.466631e-01 9.472264e-01 9.479030e-01 9.477243e-01 9.480619e-01 9.488434e-01 9.489795e-01 9.492203e-01 9.491611e-01 9.529102e-01 9.487384e-01 9.476135e-01 9.469678e-01 9.476421e-01 9.480522e-01 9.485283e-01 9.485537e-01 9.489086e-01 9.492924e-01 9.496555e-01 9.497917e-01 9.497947e-01 9.525670e-01 9.479044e-01 9.471812e-01 9.468592e-01 9.476216e-01 9.481256e-01 9.487469e-01 9.488084e-01 9.490091e-01 9.494916e-01 9.497656e-01 9.498795e-01 9.498689e-01
<GCONST> 9.287507e+01
<STATE> 3
<MEAN> 52
 -3.237634e-03 -1.391279e-03 -8.262911e-05 -1.122740e-03 9.051822e-04 8.561655e-04 5.421659e-04 4.495496e-04 -2.752488e-04 8.154924e-06 -3.798308e-04 2.144828e-04 -3.312209e-04 8.521574e-06 -9.365131e-06 -1.936900e-05 -2.384529e-05 -5.609500e-07 -3.551575e-05 1.844930e-05 -2.820318e-06 7.114324e-06 3.341927e-06 9.052233e-06 1.390215e-05 -6.865957e-07 6.779776e-06 1.247756e-05 -7.767159e-06 -5.191266e-06 -3.627939e-06 7.386743e-06 -6.057816e-06 -1.720908e-05 5.653035e-06 6.812852e-06 3.752127e-06 -2.692360e-05 -8.301507e-07 -6.263677e-06 -2.320382e-06 5.290201e-06 7.307784e-06 4.835456e-06 1.478821e-05 -7.153999e-06 5.624742e-06 7.794187e-06 1.206940e-05 -4.297496e-06 -1.690389e-06 1.713422e-06
<VARIANCE> 52
 9.693827e-01 9.490988e-01 9.509500e-01 9.497455e-01 9.492549e-01 9.504328e-01 9.503285e-01 9.500347e-01 9.505810e-01 9.502516e-01 9.508119e-01 9.507663e-01 9.503254e-01 9.538604e-01 9.488760e-01 9.475554e-01 9.460266e-01 9.466631e-01 9.472264e-01 9.479030e-01 9.477243e-01 9.480619e-01 9.488434e-01 9.489795e-01 9.492203e-01 9.491611e-01 9.529102e-01 9.487384e-01 9.476135e-01 9.469678e-01 9.476421e-01 9.480522e-01 9.485283e-01 9.485537e-01 9.489086e-01 9.492924e-01 9.496555e-01 9.497917e-01 9.497947e-01 9.525670e-01 9.479044e-01 9.471812e-01 9.468592e-01 9.476216e-01 9.481256e-01 9.487469e-01 9.488084e-01 9.490091e-01 9.494916e-01 9.497656e-01 9.498795e-01 9.498689e-01
<GCONST> 9.287507e+01
<STATE> 4
<MEAN> 52
 -3.237634e-03 -1.391279e-03 -8.262911e-05 -1.122740e-03 9.051822e-04 8.561655e-04 5.421659e-04 4.495496e-04 -2.752488e-04 8.154924e-06 -3.798308e-04 2.144828e-04 -3.312209e-04 8.521574e-06 -9.365131e-06 -1.936900e-05 -2.384529e-05 -5.609500e-07 -3.551575e-05 1.844930e-05 -2.820318e-06 7.114324e-06 3.341927e-06 9.052233e-06 1.390215e-05 -6.865957e-07 6.779776e-06 1.247756e-05 -7.767159e-06 -5.191266e-06 -3.627939e-06 7.386743e-06 -6.057816e-06 -1.720908e-05 5.653035e-06 6.812852e-06 3.752127e-06 -2.692360e-05 -8.301507e-07 -6.263677e-06 -2.320382e-06 5.290201e-06 7.307784e-06 4.835456e-06 1.478821e-05 -7.153999e-06 5.624742e-06 7.794187e-06 1.206940e-05 -4.297496e-06 -1.690389e-06 1.713422e-06
<VARIANCE> 52
 9.693827e-01 9.490988e-01 9.509500e-01 9.497455e-01 9.492549e-01 9.504328e-01 9.503285e-01 9.500347e-01 9.505810e-01 9.502516e-01 9.508119e-01 9.507663e-01 9.503254e-01 9.538604e-01 9.488760e-01 9.475554e-01 9.460266e-01 9.466631e-01 9.472264e-01 9.479030e-01 9.477243e-01 9.480619e-01 9.488434e-01 9.489795e-01 9.492203e-01 9.491611e-01 9.529102e-01 9.487384e-01 9.476135e-01 9.469678e-01 9.476421e-01 9.480522e-01 9.485283e-01 9.485537e-01 9.489086e-01 9.492924e-01 9.496555e-01 9.497917e-01 9.497947e-01 9.525670e-01 9.479044e-01 9.471812e-01 9.468592e-01 9.476216e-01 9.481256e-01 9.487469e-01 9.488084e-01 9.490091e-01 9.494916e-01 9.497656e-01 9.498795e-01 9.498689e-01
<GCONST> 9.287507e+01
<TRANSP> 5
 0.000000e+00 1.000000e+00 0.000000e+00 0.000000e+00 0.000000e+00
 0.000000e+00 6.000000e-01 4.000000e-01 0.000000e+00 0.000000e+00
 0.000000e+00 0.000000e+00 6.000000e-01 4.000000e-01 0.000000e+00
 0.000000e+00 0.000000e+00 0.000000e+00 6.000000e-01 4.000000e-01
 0.000000e+00 0.000000e+00 0.000000e+00 0.000000e+00 0.000000e+00
<ENDHMM>
~h "l"
<BEGINHMM>
<NUMSTATES> 5
<STATE> 2
<MEAN> 52
 -3.237634e-03 -1.391279e-03 -8.262911e-05 -1.122740e-03 9.051822e-04 8.561655e-04 5.421659e-04 4.495496e-04 -2.752488e-04 8.154924e-06 -3.798308e-04 2.144828e-04 -3.312209e-04 8.521574e-06 -9.365131e-06 -1.936900e-05 -2.384529e-05 -5.609500e-07 -3.551575e-05 1.844930e-05 -2.820318e-06 7.114324e-06 3.341927e-06 9.052233e-06 1.390215e-05 -6.865957e-07 6.779776e-06 1.247756e-05 -7.767159e-06 -5.191266e-06 -3.627939e-06 7.386743e-06 -6.057816e-06 -1.720908e-05 5.653035e-06 6.812852e-06 3.752127e-06 -2.692360e-05 -8.301507e-07 -6.263677e-06 -2.320382e-06 5.290201e-06 7.307784e-06 4.835456e-06 1.478821e-05 -7.153999e-06 5.624742e-06 7.794187e-06 1.206940e-05 -4.297496e-06 -1.690389e-06 1.713422e-06
<VARIANCE> 52
 9.693827e-01 9.490988e-01 9.509500e-01 9.497455e-01 9.492549e-01 9.504328e-01 9.503285e-01 9.500347e-01 9.505810e-01 9.502516e-01 9.508119e-01 9.507663e-01 9.503254e-01 9.538604e-01 9.488760e-01 9.475554e-01 9.460266e-01 9.466631e-01 9.472264e-01 9.479030e-01 9.477243e-01 9.480619e-01 9.488434e-01 9.489795e-01 9.492203e-01 9.491611e-01 9.529102e-01 9.487384e-01 9.476135e-01 9.469678e-01 9.476421e-01 9.480522e-01 9.485283e-01 9.485537e-01 9.489086e-01 9.492924e-01 9.496555e-01 9.497917e-01 9.497947e-01 9.525670e-01 9.479044e-01 9.471812e-01 9.468592e-01 9.476216e-01 9.481256e-01 9.487469e-01 9.488084e-01 9.490091e-01 9.494916e-01 9.497656e-01 9.498795e-01 9.498689e-01
<GCONST> 9.287507e+01
<STATE> 3
<MEAN> 52
 -3.237634e-03 -1.391279e-03 -8.262911e-05 -1.122740e-03 9.051822e-04 8.561655e-04 5.421659e-04 4.495496e-04 -2.752488e-04 8.154924e-06 -3.798308e-04 2.144828e-04 -3.312209e-04 8.521574e-06 -9.365131e-06 -1.936900e-05 -2.384529e-05 -5.609500e-07 -3.551575e-05 1.844930e-05 -2.820318e-06 7.114324e-06 3.341927e-06 9.052233e-06 1.390215e-05 -6.865957e-07 6.779776e-06 1.247756e-05 -7.767159e-06 -5.191266e-06 -3.627939e-06 7.386743e-06 -6.057816e-06 -1.720908e-05 5.653035e-06 6.812852e-06 3.752127e-06 -2.692360e-05 -8.301507e-07 -6.263677e-06 -2.320382e-06 5.290201e-06 7.307784e-06 4.835456e-06 1.478821e-05 -7.153999e-06 5.624742e-06 7.794187e-06 1.206940e-05 -4.297496e-06 -1.690389e-06 1.713422e-06
<VARIANCE> 52
 9.693827e-01 9.490988e-01 9.509500e-01 9.497455e-01 9.492549e-01 9.504328e-01 9.503285e-01 9.500347e-01 9.505810e-01 9.502516e-01 9.508119e-01 9.507663e-01 9.503254e-01 9.538604e-01 9.488760e-01 9.475554e-01 9.460266e-01 9.466631e-01 9.472264e-01 9.479030e-01 9.477243e-01 9.480619e-01 9.488434e-01 9.489795e-01 9.492203e-01 9.491611e-01 9.529102e-01 9.487384e-01 9.476135e-01 9.469678e-01 9.476421e-01 9.480522e-01 9.485283e-01 9.485537e-01 9.489086e-01 9.492924e-01 9.496555e-01 9.497917e-01 9.497947e-01 9.525670e-01 9.479044e-01 9.471812e-01 9.468592e-01 9.476216e-01 9.481256e-01 9.487469e-01 9.488084e-01 9.490091e-01 9.494916e-01 9.497656e-01 9.498795e-01 9.498689e-01
<GCONST> 9.287507e+01
<STATE> 4
<MEAN> 52
 -3.237634e-03 -1.391279e-03 -8.262911e-05 -1.122740e-03 9.051822e-04 8.561655e-04 5.421659e-04 4.495496e-04 -2.752488e-04 8.154924e-06 -3.798308e-04 2.144828e-04 -3.312209e-04 8.521574e-06 -9.365131e-06 -1.936900e-05 -2.384529e-05 -5.609500e-07 -3.551575e-05 1.844930e-05 -2.820318e-06 7.114324e-06 3.341927e-06 9.052233e-06 1.390215e-05 -6.865957e-07 6.779776e-06 1.247756e-05 -7.767159e-06 -5.191266e-06 -3.627939e-06 7.386743e-06 -6.057816e-06 -1.720908e-05 5.653035e-06 6.812852e-06 3.752127e-06 -2.692360e-05 -8.301507e-07 -6.263677e-06 -2.320382e-06 5.290201e-06 7.307784e-06 4.835456e-06 1.478821e-05 -7.153999e-06 5.624742e-06 7.794187e-06 1.206940e-05 -4.297496e-06 -1.690389e-06 1.713422e-06
<VARIANCE> 52
 9.693827e-01 9.490988e-01 9.509500e-01 9.497455e-01 9.492549e-01 9.504328e-01 9.503285e-01 9.500347e-01 9.505810e-01 9.502516e-01 9.508119e-01 9.507663e-01 9.503254e-01 9.538604e-01 9.488760e-01 9.475554e-01 9.460266e-01 9.466631e-01 9.472264e-01 9.479030e-01 9.477243e-01 9.480619e-01 9.488434e-01 9.489795e-01 9.492203e-01 9.491611e-01 9.529102e-01 9.487384e-01 9.476135e-01 9.469678e-01 9.476421e-01 9.480522e-01 9.485283e-01 9.485537e-01 9.489086e-01 9.492924e-01 9.496555e-01 9.497917e-01 9.497947e-01 9.525670e-01 9.479044e-01 9.471812e-01 9.468592e-01 9.476216e-01 9.481256e-01 9.487469e-01 9.488084e-01 9.490091e-01 9.494916e-01 9.497656e-01 9.498795e-01 9.498689e-01
<GCONST> 9.287507e+01
<TRANSP> 5
 0.000000e+00 1.000000e+00 0.000000e+00 0.000000e+00 0.000000e+00
 0.000000e+00 6.000000e-01 4.000000e-01 0.000000e+00 0.000000e+00
 0.000000e+00 0.000000e+00 6.000000e-01 4.000000e-01 0.000000e+00
 0.000000e+00 0.000000e+00 0.000000e+00 6.000000e-01 4.000000e-01
 0.000000e+00 0.000000e+00 0.000000e+00 0.000000e+00 0.000000e+00
<ENDHMM>
~h "g"
<BEGINHMM>
<NUMSTATES> 5
<STATE> 2
<MEAN> 52
 -3.237634e-03 -1.391279e-03 -8.262911e-05 -1.122740e-03 9.051822e-04 8.561655e-04 5.421659e-04 4.495496e-04 -2.752488e-04 8.154924e-06 -3.798308e-04 2.144828e-04 -3.312209e-04 8.521574e-06 -9.365131e-06 -1.936900e-05 -2.384529e-05 -5.609500e-07 -3.551575e-05 1.844930e-05 -2.820318e-06 7.114324e-06 3.341927e-06 9.052233e-06 1.390215e-05 -6.865957e-07 6.779776e-06 1.247756e-05 -7.767159e-06 -5.191266e-06 -3.627939e-06 7.386743e-06 -6.057816e-06 -1.720908e-05 5.653035e-06 6.812852e-06 3.752127e-06 -2.692360e-05 -8.301507e-07 -6.263677e-06 -2.320382e-06 5.290201e-06 7.307784e-06 4.835456e-06 1.478821e-05 -7.153999e-06 5.624742e-06 7.794187e-06 1.206940e-05 -4.297496e-06 -1.690389e-06 1.713422e-06
<VARIANCE> 52
 9.693827e-01 9.490988e-01 9.509500e-01 9.497455e-01 9.492549e-01 9.504328e-01 9.503285e-01 9.500347e-01 9.505810e-01 9.502516e-01 9.508119e-01 9.507663e-01 9.503254e-01 9.538604e-01 9.488760e-01 9.475554e-01 9.460266e-01 9.466631e-01 9.472264e-01 9.479030e-01 9.477243e-01 9.480619e-01 9.488434e-01 9.489795e-01 9.492203e-01 9.491611e-01 9.529102e-01 9.487384e-01 9.476135e-01 9.469678e-01 9.476421e-01 9.480522e-01 9.485283e-01 9.485537e-01 9.489086e-01 9.492924e-01 9.496555e-01 9.497917e-01 9.497947e-01 9.525670e-01 9.479044e-01 9.471812e-01 9.468592e-01 9.476216e-01 9.481256e-01 9.487469e-01 9.488084e-01 9.490091e-01 9.494916e-01 9.497656e-01 9.498795e-01 9.498689e-01
<GCONST> 9.287507e+01
<STATE> 3
<MEAN> 52
 -3.237634e-03 -1.391279e-03 -8.262911e-05 -1.122740e-03 9.051822e-04 8.561655e-04 5.421659e-04 4.495496e-04 -2.752488e-04 8.154924e-06 -3.798308e-04 2.144828e-04 -3.312209e-04 8.521574e-06 -9.365131e-06 -1.936900e-05 -2.384529e-05 -5.609500e-07 -3.551575e-05 1.844930e-05 -2.820318e-06 7.114324e-06 3.341927e-06 9.052233e-06 1.390215e-05 -6.865957e-07 6.779776e-06 1.247756e-05 -7.767159e-06 -5.191266e-06 -3.627939e-06 7.386743e-06 -6.057816e-06 -1.720908e-05 5.653035e-06 6.812852e-06 3.752127e-06 -2.692360e-05 -8.301507e-07 -6.263677e-06 -2.320382e-06 5.290201e-06 7.307784e-06 4.835456e-06 1.478821e-05 -7.153999e-06 5.624742e-06 7.794187e-06 1.206940e-05 -4.297496e-06 -1.690389e-06 1.713422e-06
<VARIANCE> 52
 9.693827e-01 9.490988e-01 9.509500e-01 9.497455e-01 9.492549e-01 9.504328e-01 9.503285e-01 9.500347e-01 9.505810e-01 9.502516e-01 9.508119e-01 9.507663e-01 9.503254e-01 9.538604e-01 9.488760e-01 9.475554e-01 9.460266e-01 9.466631e-01 9.472264e-01 9.479030e-01 9.477243e-01 9.480619e-01 9.488434e-01 9.489795e-01 9.492203e-01 9.491611e-01 9.529102e-01 9.487384e-01 9.476135e-01 9.469678e-01 9.476421e-01 9.480522e-01 9.485283e-01 9.485537e-01 9.489086e-01 9.492924e-01 9.496555e-01 9.497917e-01 9.497947e-01 9.525670e-01 9.479044e-01 9.471812e-01 9.468592e-01 9.476216e-01 9.481256e-01 9.487469e-01 9.488084e-01 9.490091e-01 9.494916e-01 9.497656e-01 9.498795e-01 9.498689e-01
<GCONST> 9.287507e+01
<STATE> 4
<MEAN> 52
 -3.237634e-03 -1.391279e-03 -8.262911e-05 -1.122740e-03 9.051822e-04 8.561655e-04 5.421659e-04 4.495496e-04 -2.752488e-04 8.154924e-06 -3.798308e-04 2.144828e-04 -3.312209e-04 8.521574e-06 -9.365131e-06 -1.936900e-05 -2.384529e-05 -5.609500e-07 -3.551575e-05 1.844930e-05 -2.820318e-06 7.114324e-06 3.341927e-06 9.052233e-06 1.390215e-05 -6.865957e-07 6.779776e-06 1.247756e-05 -7.767159e-06 -5.191266e-06 -3.627939e-06 7.386743e-06 -6.057816e-06 -1.720908e-05 5.653035e-06 6.812852e-06 3.752127e-06 -2.692360e-05 -8.301507e-07 -6.263677e-06 -2.320382e-06 5.290201e-06 7.307784e-06 4.835456e-06 1.478821e-05 -7.153999e-06 5.624742e-06 7.794187e-06 1.206940e-05 -4.297496e-06 -1.690389e-06 1.713422e-06
<VARIANCE> 52
 9.693827e-01 9.490988e-01 9.509500e-01 9.497455e-01 9.492549e-01 9.504328e-01 9.503285e-01 9.500347e-01 9.505810e-01 9.502516e-01 9.508119e-01 9.507663e-01 9.503254e-01 9.538604e-01 9.488760e-01 9.475554e-01 9.460266e-01 9.466631e-01 9.472264e-01 9.479030e-01 9.477243e-01 9.480619e-01 9.488434e-01 9.489795e-01 9.492203e-01 9.491611e-01 9.529102e-01 9.487384e-01 9.476135e-01 9.469678e-01 9.476421e-01 9.480522e-01 9.485283e-01 9.485537e-01 9.489086e-01 9.492924e-01 9.496555e-01 9.497917e-01 9.497947e-01 9.525670e-01 9.479044e-01 9.471812e-01 9.468592e-01 9.476216e-01 9.481256e-01 9.487469e-01 9.488084e-01 9.490091e-01 9.494916e-01 9.497656e-01 9.498795e-01 9.498689e-01
<GCONST> 9.287507e+01
<TRANSP> 5
 0.000000e+00 1.000000e+00 0.000000e+00 0.000000e+00 0.000000e+00
 0.000000e+00 6.000000e-01 4.000000e-01 0.000000e+00 0.000000e+00
 0.000000e+00 0.000000e+00 6.000000e-01 4.000000e-01 0.000000e+00
 0.000000e+00 0.000000e+00 0.000000e+00 6.000000e-01 4.000000e-01
 0.000000e+00 0.000000e+00 0.000000e+00 0.000000e+00 0.000000e+00
<ENDHMM>
~h "k"
<BEGINHMM>
<NUMSTATES> 5
<STATE> 2
<MEAN> 52
 -3.237634e-03 -1.391279e-03 -8.262911e-05 -1.122740e-03 9.051822e-04 8.561655e-04 5.421659e-04 4.495496e-04 -2.752488e-04 8.154924e-06 -3.798308e-04 2.144828e-04 -3.312209e-04 8.521574e-06 -9.365131e-06 -1.936900e-05 -2.384529e-05 -5.609500e-07 -3.551575e-05 1.844930e-05 -2.820318e-06 7.114324e-06 3.341927e-06 9.052233e-06 1.390215e-05 -6.865957e-07 6.779776e-06 1.247756e-05 -7.767159e-06 -5.191266e-06 -3.627939e-06 7.386743e-06 -6.057816e-06 -1.720908e-05 5.653035e-06 6.812852e-06 3.752127e-06 -2.692360e-05 -8.301507e-07 -6.263677e-06 -2.320382e-06 5.290201e-06 7.307784e-06 4.835456e-06 1.478821e-05 -7.153999e-06 5.624742e-06 7.794187e-06 1.206940e-05 -4.297496e-06 -1.690389e-06 1.713422e-06
<VARIANCE> 52
 9.693827e-01 9.490988e-01 9.509500e-01 9.497455e-01 9.492549e-01 9.504328e-01 9.503285e-01 9.500347e-01 9.505810e-01 9.502516e-01 9.508119e-01 9.507663e-01 9.503254e-01 9.538604e-01 9.488760e-01 9.475554e-01 9.460266e-01 9.466631e-01 9.472264e-01 9.479030e-01 9.477243e-01 9.480619e-01 9.488434e-01 9.489795e-01 9.492203e-01 9.491611e-01 9.529102e-01 9.487384e-01 9.476135e-01 9.469678e-01 9.476421e-01 9.480522e-01 9.485283e-01 9.485537e-01 9.489086e-01 9.492924e-01 9.496555e-01 9.497917e-01 9.497947e-01 9.525670e-01 9.479044e-01 9.471812e-01 9.468592e-01 9.476216e-01 9.481256e-01 9.487469e-01 9.488084e-01 9.490091e-01 9.494916e-01 9.497656e-01 9.498795e-01 9.498689e-01
<GCONST> 9.287507e+01
<STATE> 3
<MEAN> 52
